Linear 17 20
0.12109318 -0.010693928 -0.055200014 0.052440606 -0.111532845 -0.23123924 -0.25123546 -0.15662691 -0.18171573 -0.046957258 0.13905203 -0.15326267 0.16179077 0.14363459 -0.025849856 -0.034853444 -0.2146338 0.27538237 0.09255378 0.06468432 0.2275619 0.21516462 -0.27161565 0.21913715 0.12801902 -0.17186248 -0.14573099 0.22935124 0.1975823 0.04193299 -0.18102601 -0.21269724 0.041480344 -0.19899882 -0.0808285 0.25210744 -0.031618435 0.19417545 -0.1842555 -0.1388144 -0.12719177 -0.16797936 -0.24296732 -0.06689544 0.1041659 -0.21594177 0.1826397 0.060665738 0.020583516 -0.24689238 -0.16164365 -0.08758968 0.18171783 -0.0074013798 0.11769159 0.19625443 -0.29069713 -0.113612875 -0.1575055 0.15061559 -0.044968385 -0.0013147413 0.06731323 -0.11056921 -0.030926872 -0.1842627 0.22003587 -0.21076025 -0.2803484 0.15865888 0.0779948 -0.07529344 -0.30143812 0.24385399 0.3154403 -0.17947698 0.18118927 0.09660315 0.027538605 0.20926356 0.005191777 0.004164273 0.32575104 -0.20419925 0.03525805 0.10556191 0.03217952 -0.1401951 0.19922177 -0.17117898 0.12728168 -0.05223004 0.087867364 0.107767254 0.122849844 -0.16757375 0.052442033 0.046103813 0.06455643 0.0068131587 0.036218613 0.22842756 0.2562526 0.14760745 0.11693312 0.047440853 0.08155449 -0.1262684 0.109332986 0.17503408 0.1992247 0.07431 0.08649633 -0.020158963 0.018070085 -0.21965791 -0.11904145 -0.19785611 0.17566368 -0.10422851 0.028951176 -0.1631171 0.015332838 0.11239266 -0.11537687 0.025096944 -0.1598799 -0.21577284 -0.19299498 -0.15402469 -0.018183637 -0.22285445 0.0578479 -0.08097014 0.12418106 0.23433028 0.2961875 -0.10489854 -0.144529 -0.09553029 0.19121566 -0.27942035 0.14311352 0.044066656 0.069022365 0.30163628 -0.17502502 -0.12009943 -0.17897141 0.069360316 0.16662626 -0.12673403 0.11728219 0.0019965048 0.1830236 0.24096023 -0.06180472 0.033533227 0.121986836 0.1331361 0.032239236 0.061681587 -0.078199886 0.08118975 0.043722805 0.19704823 -0.19233985 -0.034425844 -0.016826399 0.16133134 0.01506278 0.1257818 0.019710893 -0.010424327 -0.073759176 -0.43644264 -0.053836852 0.027199091 0.05804622 0.20451881 0.22483432 0.17140879 -0.010145418 0.18667415 -0.31753555 0.14970207 0.022508204 0.08394377 -0.118917674 0.05023219 0.018707313 -0.08156469 0.3233954 0.189057 -0.106598355 0.27089375 -0.09173198 -0.19605698 -0.05111071 0.009399409 0.109756656 0.28990474 0.067121625 -0.1693112 -0.10961768 0.07532454 0.011760533 0.08302009 0.3028232 -0.42004082 0.07633128 0.11360496 -0.064992405 0.17617327 -0.19843295 -0.2062341 0.009184087 0.19553903 -0.21919486 0.20118529 -0.11498774 0.33103245 -0.057164412 -0.23911709 0.13553394 0.2617233 -0.18292281 -0.17005634 0.19617067 0.097017 0.35119274 0.2575529 -0.0041898997 0.2526515 -0.134274 -0.33011642 0.109465696 0.18288215 -0.063873604 0.23611094 0.12688376 0.10069123 0.034364153 -0.062997185 0.1992768 -0.19929548 0.18227445 0.21105354 0.098949894 0.047064047 -0.08769278 -0.01577046 -0.25301436 -0.1527815 -0.23108447 0.021790175 -0.031213015 0.12790668 -0.079688564 -0.08127733 0.27863142 0.09742146 0.027006771 -0.09898091 -0.031089103 0.12877524 0.043993533 0.07736229 0.10333168 0.36594453 0.08661627 0.29471895 -0.095804885 -0.20064455 0.09197357 -0.10887242 -0.2410792 0.08264817 0.17173187 0.05340275 -0.016971812 -0.036104787 -0.1088634 -0.12701854 -0.21212296 -0.054778785 -0.11273567 0.045344654 -0.14218757 0.122564934 0.0038149715 0.15385364 0.07001786 0.039523523 -0.12477936 0.07030384 -0.037277427 0.25701717 -0.26195297 -0.021995196 0.251551 -0.18603061 -0.08801055 0.10579108 -0.03784706 -0.16988133 -0.12563993 -0.22351709 -0.16531536 0.04563099 0.021149248 -0.011867598 0.010755062 0.009276956 -0.10527764 -0.16560036 0.05862075 0.14849678 -0.22374137 -0.23045042 0.16810259 0.1688689 0.11021075 0.23487958 0.22537762 0.2139669 0.18419363 0.08137384 0.044526186 -0.16705537 -0.21144642 -0.03160477 -0.123516105 0.031663086 -0.061575335 0.002137616 0.23772816 0.16200791 -0.13657907 0.1139162 
0.21319258 -0.17453133 0.100201346 0.1476652 0.009128581 0.005466208 0.25281316 0.06773901 0.23787296 0.10917833 0.19514923 0.23728755 0.1251965 0.071095094 -0.113952085 0.0062693795 -0.0021149365 0.046249956 -0.19955853 -0.1744546 
Rect
Linear 20 20
0.108271465 -0.058210697 -0.2086636 0.23687926 -0.15533748 -0.12733836 0.1342854 -0.20750746 -0.12971564 -0.16334988 -0.19036302 0.11270232 -0.19506069 -0.13300166 0.21101971 0.17958713 -0.1741511 0.20173864 0.18355781 0.21573651 0.14100188 0.1294764 0.14713942 -0.031150956 -0.1358144 -0.019905528 0.00020465012 -0.19715822 0.15476097 0.16922832 0.1783082 0.11626275 0.24221127 0.21856792 -0.17804328 -0.18379308 -0.11187105 0.062165767 0.18497986 -0.008772095 0.104567744 0.32371393 -0.20353122 0.032614376 -0.2731038 0.18353836 0.22366884 -0.1681308 0.07199103 -0.15155569 0.30557722 -0.14236093 0.049585763 0.1979007 0.16100274 -0.06328452 0.10405021 -0.2310373 -0.21562068 0.11068833 -0.20613767 0.11102515 0.1119295 0.0056678033 0.14328162 0.21058881 -0.14414513 0.09669655 0.14419842 -0.04647205 0.08762636 -0.077490896 0.017332489 -0.007197348 -0.0052590985 -0.051465444 -0.046378 -0.20877509 -0.17928785 0.19907393 0.052892704 -0.18644664 0.17502153 0.20496424 0.18204723 0.1151365 0.041223917 0.07461724 -0.12570563 -0.11864921 -0.19482128 -0.019730113 0.03940126 -0.15432295 -0.10820826 0.21700923 -0.16363963 0.12813447 -0.09124938 0.19689043 -0.031861745 0.09191138 -0.083503716 -0.005965537 0.325471 0.10239398 0.09558434 0.09135695 0.09595348 0.22472087 0.13184352 0.2105729 -0.2467825 -0.24899937 0.08420592 0.25811273 0.12576383 0.17003581 0.006535381 0.18569425 -0.053078786 -0.102115 0.054295275 -0.09150515 0.096795626 -0.19013113 0.107129745 -0.018767439 -0.09094011 -0.08339588 -0.15953457 0.06677747 0.18320926 -0.12237451 -0.21987556 0.025984276 0.10755696 0.20537043 0.06285405 0.08707866 -0.08113108 0.060041763 -0.056440543 0.1607134 0.12711771 -0.104798384 0.05805981 0.08844278 -0.19452445 0.15401109 0.11021908 -0.021402981 0.13942935 0.11631232 -0.22185938 0.07960428 0.18152203 -0.05036768 0.08710456 -0.00443343 0.1319758 -0.035103813 -0.056361385 0.2876484 0.054458298 0.124588415 -0.00469526 0.20656218 0.17991759 0.14286934 -0.041945837 -0.047083274 -0.108464524 0.29147917 0.23859006 -0.25015166 0.13816309 -0.2389074 0.20489699 -0.051443525 0.17403239 0.03014346 0.12397549 0.25701192 -0.08529875 -0.15804483 0.1676189 0.1628636 0.026552849 0.078464925 0.23304605 -0.26321197 0.17148301 0.25643203 -0.033411704 0.03617968 -0.14569233 0.0152428085 0.16973329 -0.26534975 0.16645351 -0.04984729 0.031526677 -0.018042373 -0.06383362 0.031753715 -0.047219727 -0.13205485 0.023690354 -0.05852626 0.10047838 0.18903553 0.13030018 -0.14631414 0.1452539 -0.10388288 -0.19771282 -0.18182887 -0.22183417 0.11420582 -0.1020709 0.21414292 -0.10087083 0.17399238 -0.20362328 -0.057169974 -0.08122907 0.033871118 0.25144288 -0.15879782 0.18745631 0.09987874 -0.081631996 0.13987713 -0.14651698 0.046354003 0.17599332 0.19132711 -0.14626642 -0.024496097 0.074381985 -0.0105922725 -0.20801057 0.0018642293 0.15399942 0.17608218 -0.011531519 -0.100100055 -0.16717666 -0.22606361 0.09082816 0.11000978 0.15197241 0.11109763 0.12427827 0.08590615 0.15323468 -0.0027812177 -0.18404819 -0.07621453 -0.22940272 0.19774194 0.16166335 -0.20600538 0.110254474 -0.13999178 0.17180009 0.21168385 -0.19097543 0.044342075 0.057857104 -0.15834616 0.12002595 0.058464423 -0.10451296 0.15623574 -0.10900335 -0.08647406 0.14003885 -0.17812097 0.1862571 -0.19791009 -0.051164255 -0.05883129 0.116081506 -0.1593596 -0.023125775 0.18226427 0.14818081 -0.2109986 0.0904426 0.055051006 0.11737386 -0.15370649 0.075524986 -0.16931286 0.04494129 0.060544502 -0.046698153 0.07542053 -0.2029921 0.006660005 0.19601181 0.10465066 0.24545872 0.08428042 -0.07935911 -0.03654701 -0.07585948 -0.17226253 0.1766032 0.27606058 -0.025099704 -0.26588354 -0.0011783263 0.17587413 0.18489757 -0.08645915 -0.009992376 0.07581347 -0.20559034 0.2058457 -0.22410445 -0.04630209 -0.20415616 0.025171762 -0.026320789 -0.15600121 -0.12909101 0.006028222 0.075397626 -0.12830602 0.100166544 0.12821203 0.07230184 0.06387424 0.21612044 -0.20678553 -0.20303254 0.10869317 -0.15347564 0.052826125 0.04028499 0.16689244 -0.11108853 -0.02648758 -0.10809968 -0.101105675 -0.0781292 -0.058928963 0.25149316 0.008145152 -0.16031139 0.274312 0.052944425 -0.08678846 -0.13903886 0.010778948 -0.18902409 -0.17047133 -0.07714692 -0.07612285 -0.28312102 0.003069965 -0.21650831 0.06546416 0.052213635 0.25120565 0.31155488 -0.17842877 0.087349236 -0.045610446 0.2996487 0.10644442 -0.07532033 -0.20289904 0.029088384 -0.23368032 0.14681908 0.1656669 0.03159845 0.064369865 -0.22199216 -0.12151296 -0.010848681 -0.059849344 0.02499422 -0.14070193 0.20149572 -0.16424762 0.12679322 0.10077919 0.12654051 0.2978962 -0.11499133 0.10314348 0.035345882 0.19861817 0.038166225 -0.2142515 
0.13793838 0.058121156 0.20399998 -0.061369035 0.21876913 -0.06521528 -0.16959698 0.12372195 0.005265485 0.10867431 0.16349344 0.08429602 0.114840634 0.147706 -0.049566388 0.10145107 0.18626493 0.092118725 0.1263176 0.12843964 
Rect
Linear 20 20
-0.19628064 0.03329054 0.14268252 -0.14741579 -0.18584368 0.025858717 -0.0050181476 -0.12677972 0.032282874 0.035111286 0.115423724 -0.13115008 -0.11234206 -0.042703547 0.057225198 -0.027299875 -0.21082114 0.17442594 0.12730715 -0.16220666 -0.19210663 -0.045704328 0.19545381 -0.01835548 -0.2222688 -0.17668094 -0.064344674 -0.0090529835 0.18456326 0.21127625 -0.06853424 0.12331336 -0.07326143 -0.13214906 -0.12960142 0.13198397 0.008956169 -0.1425383 0.12969364 0.16977787 -0.22432949 -0.11308178 0.06255266 0.11039107 0.012812949 0.09532552 -0.034959532 0.098633535 0.13688305 0.15134527 -0.0034773268 0.21743754 0.083475366 0.020129753 0.1655555 0.187887 -0.15167867 0.22737493 0.169644 -0.17767084 0.014657604 -0.08808136 0.073580325 0.18783441 0.048026625 -0.18418851 0.13741869 0.024763566 0.23677137 0.07778429 0.17848445 0.07751436 -0.10801516 -0.124518946 -0.097997874 -0.007785203 0.11334774 -0.0029066026 0.03868896 0.09529644 0.055225626 -0.21935071 -0.06570949 0.18536273 0.057493176 0.26095396 -0.046846747 0.010484135 0.06925952 0.10290018 0.1037087 -0.08849227 -0.113238364 0.07210831 -0.19455028 0.20430134 -0.105800495 -0.021507112 -0.052600373 0.21490827 -0.14002271 -0.026560312 -0.023474598 0.17938817 0.07153079 -0.20713946 0.03042166 0.1231581 -0.1460092 -0.091151305 -0.003327262 0.13373153 0.101293854 0.16924845 -0.06862239 -0.102908984 0.2142394 0.2025408 -0.108313225 -0.13064305 -0.00881341 0.13320218 0.19393224 0.117601335 -0.23799199 -0.045663167 0.046766248 -0.039750483 0.25263637 0.0587574 -0.15128522 0.039889697 0.018073257 0.05150204 -0.18370132 -0.08338592 0.038989823 0.06574876 0.25680757 -0.046810523 0.10538176 0.24035433 0.23686299 0.2172569 0.10201798 -0.25682768 0.15068251 0.010527492 0.048992757 0.041343566 -0.1052382 0.034493413 0.22792885 -0.15084592 -0.057961132 -0.24490461 0.21863635 0.24349187 0.2746365 0.01875292 0.019735947 0.006705418 0.1247713 0.05404085 -0.17790979 0.10816938 0.19523841 -0.18916161 -0.1343553 -0.1409319 0.14568493 -0.090076506 -0.122661985 -0.09766212 -0.07093507 -0.14799342 0.2124094 -0.22299565 -0.17358504 -0.18234055 -0.08645166 -0.17220214 0.13902995 -0.050724737 0.05199944 0.21254198 -0.1822709 -0.1463198 -0.17345709 -0.023650546 0.049774945 -0.005739561 0.14874052 -0.16537556 0.13381162 0.099117935 0.124558344 0.19980851 -0.15413955 0.09792809 -0.18441458 -0.060683407 0.062902115 -0.092868514 0.0702772 0.21471255 -0.12141053 -0.13296905 -0.03295999 0.1611628 -0.17728996 0.04752681 0.029271329 0.04748399 -0.14595109 0.061547793 0.02167872 0.1324382 -0.013250705 0.050813556 -0.21221417 0.11143472 0.31820002 -0.15211809 -0.21416941 -0.16092366 -0.101792924 0.06706057 0.26415578 0.23158866 -0.06875281 0.12737767 -0.09867826 0.15117188 0.21287654 -0.007149137 -0.067743674 0.005163273 0.34355208 0.23092979 -0.17745301 0.10797283 0.35656384 -0.15581846 0.13132487 -0.2538502 0.07493865 0.0422037 0.06036752 0.29565948 0.15697223 -0.002899575 -0.15664957 -0.015455447 0.08580922 -0.19934353 0.28964546 0.2510011 0.07167431 0.21862565 0.048451573 0.21123737 -0.037336215 0.03529924 -0.08911748 0.05109185 -0.15868685 -0.10426516 -0.18484369 -0.2029039 -0.010966927 0.20192415 0.14099914 0.13522974 0.14792338 -0.07215357 -0.011414766 0.11702752 0.09656921 -0.09404753 0.055015482 -0.18963191 0.12749963 -0.021203235 -0.16113375 0.13715649 -0.019145414 -0.0035196391 -0.20780146 0.04049456 -0.112244695 -0.1527548 0.11791829 -0.15914388 -0.09625941 0.05148335 -0.09890049 -0.2181917 -0.13979356 0.08360068 0.15520838 0.054858774 0.10449656 0.12156577 -0.18997623 0.050111596 -0.074741974 0.14740342 -0.10375886 0.06097394 -0.22191234 -0.1946498 -0.081610255 0.01789507 -0.057946507 -0.05554133 0.20901667 0.21144924 0.029043498 -0.22005603 0.006426428 0.005889939 -0.16615853 -0.09648706 0.012282451 -0.019852422 -0.16184701 0.005810383 0.1759052 -0.21823972 0.20625761 -0.015008846 0.06953999 -0.15924102 -0.16694748 -0.10155352 -0.14207084 -0.04950276 0.0831668 0.19793758 0.014504352 0.23728268 -0.0538597 0.06113002 -0.20877072 -0.041842174 0.12419291 -0.15669674 0.10945066 0.2321134 -0.025988664 0.22405854 0.1379398 0.1839686 -0.014610286 0.040461548 -0.043840498 -0.18266729 0.26165885 0.048194546 -0.18920106 -0.13545866 -0.22322664 -0.0869377 -0.22345245 0.12723589 0.18551163 -0.19689843 0.15979068 0.008374862 -0.06444581 -0.05968157 -0.03759328 0.004878222 -0.0151944 0.14807962 0.102638856 0.12495119 -0.07290601 0.21491921 -0.15138802 0.19721255 0.20784107 -0.15210633 -0.21991676 -0.17531413 0.056774765 -0.1981793 0.21224126 -0.0530737 -0.15479295 -0.12515748 -0.21461453 0.19187179 -0.15457217 0.11530969 -0.115220755 0.068444565 0.14253965 -0.06193147 
0.18267538 -0.13234963 -0.13369109 0.057608172 0.06652397 0.18316992 0.14917877 0.17973259 -0.13048643 0.061694175 -0.1943613 0.13040605 0.16101494 -0.20221092 -0.09876893 -0.04495976 -0.05953338 0.066459514 0.011248045 -0.0720898 
Rect
Linear 20 20
0.16191176 -0.10199087 -0.16104051 -0.043267876 0.19690388 -0.063295946 -0.115219176 0.10156137 -0.048432946 -0.20553474 0.08483812 0.029461056 -0.18088663 0.07095298 0.08582318 0.15677679 -0.20459011 0.05817893 -0.19525021 -0.1109105 0.22833438 0.16224512 0.19950925 0.059047665 -0.09453493 0.17527199 0.14093554 0.2098221 -0.16661164 -0.0635794 -0.037932474 -0.033050776 -0.08696659 0.12638974 0.12604554 0.1026187 -0.21305202 0.14649092 0.070363045 0.017684633 -0.13854639 0.124508105 -0.1875075 -0.1498268 -0.17289908 -0.08613752 0.16967727 0.008395369 0.18149036 -0.14158158 -0.066029824 -0.02076005 0.12134103 -0.19947645 -0.07967153 -0.18546355 0.10567782 -0.020191526 -0.021236733 0.021888867 -0.077370934 0.2297987 -0.07529581 0.10653408 0.008971051 0.023493644 0.32168338 0.17112255 0.21207902 0.020550545 -0.14867516 0.17490272 0.280573 0.2225849 0.13641869 0.24129891 0.16472131 0.1766198 0.086992286 -0.02231599 0.11942029 -0.16607754 -0.011042997 0.14670432 0.11235747 -0.08081102 -0.023416102 -0.17545426 -0.016667575 -0.17309166 -0.21301849 -0.09577471 0.081680655 -0.025972515 0.13841128 0.16353682 -0.20842324 0.20188099 0.19130066 -0.13220671 -0.13966858 -0.20511203 0.04369862 0.19764802 0.20624784 -0.05503272 0.12381758 -0.15841319 -0.037293375 0.15252756 0.13927293 -0.027946994 0.012807632 -0.11364949 -0.20589477 -0.14877823 -0.08197784 -0.23796488 0.1093667 0.06497164 -0.05770679 -0.0113977045 -0.13754542 -0.16260543 -0.09118919 -0.05918111 -0.048795015 -0.1367237 0.08319989 -0.057263076 -0.032435507 0.031668007 0.056086957 -0.13850248 0.18431422 -0.110009685 -0.03877321 0.06877822 -0.1303249 -0.049596146 -0.21701221 -0.109005265 0.0274321 0.16712245 -0.07550113 -0.21146469 -0.083317734 -0.022512708 -0.10531266 -0.16026178 0.06347566 -0.043550692 -0.0958857 -0.041762337 -0.19559196 -0.13478887 0.10150864 -0.18996418 -0.20675077 -0.11351946 0.0037991328 0.09321661 0.01509454 0.10988716 0.09985313 0.11154017 0.12201954 -0.22551076 0.08484003 -0.12797497 -0.014946191 -0.16830443 0.103272125 -0.04435639 0.17905594 0.16519938 0.18054746 -0.04411454 -0.058098443 -0.119129956 -0.20794372 0.16029608 -0.03133501 0.052572012 0.09988034 0.058567613 -0.09093796 -0.20584325 0.1136927 -0.12988156 0.07986134 0.08977339 -0.15637669 -0.086622566 0.17892453 -0.11403832 0.15327135 -0.17014438 -0.042922065 0.10804227 0.23096895 -0.090384915 -0.09114966 0.12807642 0.06856714 0.1495967 0.10283075 0.042029392 -0.0020233244 -0.14521019 0.16363902 0.11403948 -0.007234785 0.14690116 0.2179235 0.036854383 -0.05678203 0.036333513 0.20915122 -0.06498536 0.010509151 0.124256186 0.13355489 0.1817848 -0.14864007 0.015557033 0.18272762 0.30480763 0.18942288 -0.20228456 0.023952214 0.4335361 0.41192514 -0.084905386 0.17359138 -0.067391954 -0.19578794 0.17761281 -0.19611211 0.13228573 -0.17548068 0.097970754 0.21144041 -0.0978737 -0.077116564 -0.070985526 0.16562541 0.19121546 0.12694168 -8.218578e-05 0.06316763 0.076818086 -0.057785105 0.15740225 0.023124777 -0.16143152 -0.09826816 0.1784631 -0.21190418 -0.0016672144 0.07308165 0.055631828 -0.12918785 -0.052080054 0.17694175 0.07689575 0.19730748 -0.19595084 -0.15150219 0.011005875 0.18781152 0.17569815 0.017824564 -0.19278094 -0.06139539 0.1623138 0.07366869 -0.08204943 0.11338419 0.03334306 0.031544656 -0.0625553 -0.08388461 -0.11422123 -0.18882605 -0.20603622 0.026240543 0.07728967 -0.09431961 -0.21383254 -0.21939677 -0.20436625 -0.19346748 0.055090457 -0.077979 -0.12405276 0.027863443 0.05061975 -0.16939032 -0.101389244 -0.22630523 0.12671 0.11403274 0.1982863 -0.015142313 -0.12988293 0.17142843 0.034276385 0.037264645 0.17984425 0.19668995 -0.20291676 -0.030531155 0.14492664 0.2044435 0.04170998 -0.033855435 -0.158178 0.00027085014 -0.095099926 0.18505417 0.086630605 0.11613689 -0.07226559 -0.21638781 -0.20654197 -0.23860666 0.06672313 -0.06959911 -0.02046626 0.12289166 0.16851231 -0.032740444 0.07761824 -0.060236126 0.106321685 -0.185418 -0.043561485 -0.04337974 -0.014865136 0.16600384 -0.0065502953 -0.1490184 0.12705001 -0.083764404 0.11497897 0.096016586 0.17305586 0.22119707 0.045158405 -0.14663501 -0.024054838 -0.048589647 0.066179305 -0.19964129 -0.04558826 -0.06754258 -0.04010977 0.059580505 0.20382717 -0.019115485 0.08315777 0.13831113 0.111733414 -0.20325713 -0.15379778 0.10987119 -0.09554857 0.0057980865 0.013803478 -0.12249656 0.14940993 0.33030742 -0.1979748 -0.19930121 -0.17751856 -0.120048635 -0.010580478 0.014886061 0.015596392 -0.19359574 -0.21251337 -0.024843212 0.15012567 0.19725476 -0.08458514 0.026105931 -0.055128165 0.016263783 -0.042074617 0.01421029 -0.13033667 -0.042263016 -0.005923182 -0.13176438 -0.11047484 -0.18347201 0.162217 -0.14656056 -0.100209326 
-0.20721282 -0.15427595 -0.11507668 0.12760042 -0.106200546 0.17510024 -0.057458803 0.1759461 0.1251786 -0.16630918 0.26441327 0.09377329 0.17156555 -0.15446585 -0.15599242 0.113234974 -0.072447486 -0.1998262 0.18775247 0.17784648 
Rect
Linear 20 2
-0.19310006 0.08226744 -0.029881602 -0.21279043 -0.03304316 0.10225084 -0.10044855 0.18939573 -0.046506025 -0.13353556 -0.084238686 -0.2676265 -0.046071462 -0.08199533 0.13802624 -0.016009722 0.08593975 0.14877215 -0.2981024 0.23028858 -0.06634621 0.27272734 -0.19516602 0.18624192 -0.2080921 -0.16244185 0.0051861703 -0.08338659 -0.15783991 -0.049914524 0.07831314 0.34954238 0.0007708586 -0.21068002 -0.010398954 -0.21027824 -0.070587985 0.10486609 0.04626091 -0.27125245 
0.1595767 0.014070115 
