Linear 17 15
0.1218744 0.10566954 -0.10202024 0.17389028 -0.15031381 -0.0913054 -0.18937603 -0.12214555 -0.23010467 -0.0386655 0.24921858 -0.15322253 0.14704588 0.2881559 0.15220356 -0.031640116 -0.09401404 0.2428297 0.09899467 0.05047157 0.1599362 0.27401856 -0.21314237 0.23882192 0.101096354 -0.1625417 -0.07211606 0.12467637 0.22867964 0.062481716 -0.1976533 -0.23825683 0.016817486 -0.16665305 -0.059504278 0.19047178 0.025759276 0.12673159 -0.12484517 -0.21658161 -0.24300249 -0.083965935 -0.187288 -0.10226285 0.071382 -0.17373511 0.16897309 0.039249953 -0.02374011 -0.24613829 -0.20494826 -0.13346514 0.1828096 0.015711509 0.17264934 0.1469459 -0.19654699 -0.070165075 -0.19097438 0.11943514 -0.047477715 0.010578295 0.06846961 -0.1231853 -0.0095770545 -0.113586 0.21181482 -0.20621176 -0.2159634 0.12252601 0.06619302 -0.18952344 -0.22762643 0.0047409674 0.24589126 0.00095396803 0.09837686 0.14984849 -0.037762694 0.1648784 -0.018307867 -0.03798375 0.22684474 -0.22609265 -0.007313579 0.14898351 -0.04544052 -0.092467576 0.13133954 -0.101321146 0.04775294 -0.07671065 0.113970816 0.12316455 0.1198336 -0.23493321 0.12024203 0.06721614 0.033387925 -0.0931854 0.014223354 0.23711936 0.16591088 0.12442938 0.13281612 0.06999918 -0.000323385 -0.017326487 0.14047009 0.08057823 0.17843612 0.015657721 0.06553547 0.0066323862 -0.0340293 -0.21928029 -0.07910115 -0.24682847 0.1787472 -0.031357914 -0.018118717 -0.10548565 -0.05250397 0.2438594 -0.18328819 0.05448362 -0.16164634 -0.16883768 -0.18236102 -0.25187165 0.11859278 -0.12931992 0.019271683 -0.14098622 0.15822603 0.25231034 0.2818058 -0.14028445 -0.14560495 -0.13963556 0.2525356 -0.18700443 0.18842387 0.0028972935 0.0957639 0.24499616 -0.20884459 -0.02099276 -0.08081439 -0.0505259 0.15653561 -0.16313392 0.14449392 0.10261873 0.12072061 0.3223784 -0.13889936 0.17662044 -0.025932394 0.17102945 0.04224946 0.13434698 -0.011550242 -0.018595776 0.15151367 0.25235668 -0.17463592 -0.14829496 -0.03705767 0.23586266 -0.07174684 0.079497196 0.08690622 0.020299109 -0.11894051 -0.24692608 -0.00643173 -0.109478034 0.08848933 0.09272931 0.2155209 0.2845527 -0.034501243 0.21548316 -0.24707243 0.10317817 0.07048967 0.1296943 -0.16108015 0.07874106 -0.02741392 -0.051881578 0.108127326 0.21928692 -0.10820459 0.26881257 -0.10379411 -0.254016 -0.00094236823 0.03332977 0.05450359 0.15138583 0.042700313 -0.17892511 -0.22034168 0.11969581 -0.06420684 0.110158764 0.22413269 -0.21174183 0.13060842 -0.024150545 -0.09498929 0.111103415 -0.21180886 -0.17383902 -0.037840195 0.20858692 -0.12781563 0.20928574 -0.1667908 0.13021551 -0.1311587 -0.23684692 0.11908874 0.1091114 0.08869693 -0.22948512 -0.081204034 0.13930777 0.18076432 0.23810758 0.010229041 0.13178366 -0.19086573 -0.25141728 -0.035251096 0.1866107 -0.12140078 0.27450395 0.08461139 0.10129677 -0.00951333 -0.026475096 0.20368941 -0.17099021 0.095051 0.20312376 0.108900204 0.0013807743 -0.1434747 0.001497438 -0.20502678 -0.17160228 -0.25552952 
0.21466921 -0.100716405 0.06372872 -0.16956073 -0.064929806 0.04016246 0.01617865 0.23080657 -0.1670122 0.028888281 0.1062119 -0.0028464028 0.070422135 0.008978885 0.20227349 
Rect
Linear 15 15
0.06671533 0.2542324 -0.09875255 -0.21478063 0.10580794 -0.109275885 -0.26132917 0.07879712 0.1870656 0.047802255 -0.019761989 -0.03113549 -0.115168795 -0.13362822 -0.2273916 0.024002528 -0.12808509 0.06484872 -0.15380128 0.13467522 0.056979973 0.10746488 0.031916376 0.019659892 -0.22865511 0.03505184 0.05340733 0.22318846 -0.20485237 -0.04731353 0.28142208 -0.17078169 -0.15526411 0.071769804 -0.03412772 -0.23214331 -0.12393896 -0.23938636 -0.1629161 0.05280695 0.014459604 -0.012548513 0.014519703 0.015456336 -0.10438425 -0.28713927 0.13473582 0.13103585 -0.22975846 -0.24772659 0.18383983 0.21869497 0.21786258 0.31609666 0.30112487 0.26293272 0.1564148 0.09818527 0.017063903 -0.19348209 -0.14043587 -0.10848503 -0.07490099 -0.030372974 -0.06651776 -0.014979851 0.22065602 0.14461794 -0.16302255 0.09127234 0.2340846 -0.19453815 0.11145358 0.14494318 -0.04419522 -0.024674373 0.25214013 0.091386534 0.20491305 0.12788014 0.1616258 0.24800302 0.103622094 -0.059030727 -0.12960155 -0.048130557 0.0068017496 0.016508706 -0.21874498 -0.21538064 0.08365631 -0.053164136 -0.23853537 0.23917678 -0.1655657 -0.119610496 0.12065608 -0.23266762 -0.12779613 -0.22312012 -0.25860742 0.11382633 -0.2303725 -0.17655522 0.2354468 0.1907479 -0.21532075 0.2152784 0.2094724 0.22525324 0.1398436 -0.0044738837 0.1800181 -0.11677654 0.010456541 -0.051824514 -0.038971413 -0.26098916 0.05759087 0.17454544 0.051665705 0.27357656 0.13846219 0.11647388 -0.20610099 -0.13841279 -0.08835187 0.19582897 0.26004952 0.16031837 0.107724674 0.19680245 -0.24104209 -0.044772536 -0.17822948 0.21820702 0.17682955 -0.22492309 -0.05909664 -0.23528455 0.25796458 -0.11345999 -0.12768075 0.053417422 0.17024758 -0.055401746 0.13045566 -0.22936985 -0.2460315 0.20349635 -0.23379491 0.16081719 0.1040236 0.046482325 0.13264255 0.24708825 -0.15421903 0.13539067 0.2096115 -0.041115105 0.14563736 -0.07632559 0.055255633 0.0020865377 -0.019307062 -0.113050476 0.00979321 -0.23193727 -0.20126417 0.24482703 0.09033305 -0.14708981 0.27850628 0.28760752 0.25796393 0.1634138 0.05058932 0.09555446 -0.11444286 -0.17052913 -0.2592028 -0.015164945 0.012902398 -0.17885008 -0.13948637 0.25876257 -0.15638417 0.20770162 -0.060488235 0.30321643 -0.029603962 0.23439285 -0.14152567 0.023948947 0.18259488 0.096554965 0.06801935 0.13254155 0.1701934 0.20241226 0.1466481 0.07550731 -0.24863203 -0.2526396 0.05674384 0.23046295 0.1301646 0.1469259 0.003833557 0.11455213 -0.12569427 -0.102088004 0.050417792 -0.10136778 0.12904467 -0.22154954 0.13375275 0.0057909666 -0.094122395 -0.062378343 -0.18267038 0.09257764 0.20048164 -0.13598102 -0.26602724 
0.064787775 0.18881534 0.27560642 0.067795455 0.117602356 -0.08474446 0.032241497 -0.09129805 0.19991209 0.22747199 -0.115482256 0.102786146 0.11062928 -0.21338314 0.18999971 
Rect
Linear 15 15
0.13935602 0.010439932 0.17589632 0.13411573 -0.24712186 0.1107527 0.2103006 -0.04656373 0.10057968 0.0050246418 0.12821844 -0.15074432 -0.06232801 0.23162219 0.16173664 0.12390115 -0.09440069 0.17600936 0.22935504 0.1898435 -0.14608279 -0.011672563 -0.2696289 0.2555859 0.2599996 -0.21398011 0.23433271 -0.16588296 0.23339047 -0.032955185 0.18856162 -0.08441144 0.15870345 0.22572166 0.03845972 -0.20646888 0.15756258 0.16882212 -0.075112864 0.08014418 0.20353767 -0.2202871 0.072814204 0.16424796 -0.03724283 0.08379383 -0.14884327 0.09120587 0.12638523 -0.2766111 0.20271777 -0.015474191 0.046337325 -0.0289522 -0.11208399 0.026953824 -0.07994154 -0.18432257 0.04816768 -0.057110894 0.14966995 0.28043497 0.28017053 -0.20918542 0.14426807 -0.13708317 -0.22514436 -0.18809462 -0.262387 0.16961807 -0.15649496 0.14747712 -0.15125498 0.18900773 -0.16233683 -0.06765736 -0.18336156 -0.056470588 0.3758364 -0.1101274 0.18418802 0.15966013 -0.17267343 0.19106455 -0.15431958 0.10243049 0.30919617 0.34382287 -0.16952157 -0.039798874 0.106256105 -0.001901144 -0.2331373 0.076559015 0.26072374 0.23896416 0.039887935 -0.10876396 -0.15541254 -0.19313693 0.16203305 0.2166493 0.2089992 0.1448391 0.14356203 0.17280167 0.17700186 0.025139749 -0.21252054 -0.044556856 -0.25781584 0.22095811 0.19146556 -0.23193583 0.1460866 -0.16635117 0.21162125 0.24515596 -0.22506401 0.07181594 0.070135474 -0.16037446 0.1508084 0.049041122 -0.10762884 0.17721227 -0.12448089 -0.10011715 0.16170293 -0.20053527 0.22398758 -0.22940989 -0.056311354 -0.07500684 0.13537696 -0.19265302 -0.033831608 0.20219187 0.13826028 -0.23918347 0.102030315 0.07785176 0.11293774 -0.1966828 0.074293695 -0.1894035 0.043720916 0.07144723 -0.056134727 0.088523455 -0.23944934 0.113200165 0.20623517 0.09467458 0.13242994 0.09689123 -0.08161048 -0.023316024 -0.0472929 -0.23718971 0.2356779 0.2111132 0.019660212 -0.24111038 -0.019889377 0.16827181 0.20649058 -0.13007726 -0.0115382075 0.01871878 -0.2415189 0.1499981 -0.24473034 -0.12640923 -0.14511843 0.01308769 -0.0588174 -0.18883678 -0.22027358 -0.010555506 0.033465564 -0.10413708 0.015068054 0.057151943 0.08282867 0.117657304 0.25456503 -0.22000918 -0.23444179 0.17979714 -0.18954161 -0.013109997 0.035733163 0.1596326 -0.083358556 -0.062873766 -0.12702061 -0.06115382 -0.20066318 -0.12566853 0.24218287 0.047429502 -0.22734495 0.22566637 0.08488941 -0.10392371 -0.19900493 -0.0055745896 -0.21187977 -0.14462942 -0.09403856 -0.16376904 -0.24728018 -0.07055059 -0.13692006 0.018930525 -0.002502799 0.24328122 0.204674 -0.22914408 0.026163042 -0.017576933 0.1992616 0.0072877705 -0.0731774 
-0.22235496 0.05859107 -0.22385155 0.13389176 0.2274455 0.060297865 0.040085822 -0.25311208 -0.19957426 0.03265539 -0.15171847 -0.010881543 -0.17219307 0.17198832 -0.21155569 
Rect
Linear 15 15
0.08830884 0.17845386 0.055072974 0.25555518 -0.19435307 0.20476124 0.08998668 0.250483 0.04407057 -0.24803881 0.12174061 0.045848876 0.1422466 -0.057458933 0.2221913 -0.15526503 -0.20028687 0.19595405 -0.07034328 0.13086255 0.1309667 0.017363299 0.23589775 0.2022245 -0.05544514 0.121149704 0.1654635 0.06435838 0.0692102 0.09895986 -0.19107902 0.028695337 0.13766384 -0.1814168 -0.1823545 0.06024253 -0.009205617 -0.13975649 0.041752934 0.022617385 0.13584013 -0.16192468 -0.10856375 -0.060812555 0.06177935 -0.00037115812 -0.25621453 0.1993837 0.107467085 -0.18268326 -0.2058631 -0.089936584 0.1634304 -0.030442879 -0.25157508 -0.17649102 -0.07429883 -0.03627388 0.19067034 0.18880591 -0.106168166 0.15811335 -0.112230495 -0.14370596 -0.24259801 0.28377745 0.077034175 -0.19840162 0.10581997 0.17055452 -0.23890434 -0.13445303 0.049074113 0.09610466 0.043262064 0.13004497 -0.04021132 0.12351528 0.14735064 0.16304484 0.0077809393 0.24304405 0.11068019 0.03283909 0.19222468 0.24683943 -0.18187079 0.2537938 0.17680627 -0.21403322 0.04130146 -0.14625345 0.016680747 0.21214338 0.09698263 -0.16510306 0.15880556 0.009773046 0.23339406 0.027868489 0.20271057 0.067418754 -0.13262045 -0.14934385 -0.10921775 0.040401667 0.07858652 -0.036041543 -0.013328251 0.160689 -0.112906516 -0.30166617 -0.010914728 0.22433263 -0.008842755 0.20962055 -0.05641526 0.0077257752 0.11683888 0.17187005 0.11755851 -0.062357496 -0.1635962 0.10269914 -0.21729876 0.17320596 -0.087174915 -0.0048202276 0.011814296 0.2562877 -0.12113735 -0.048654616 -0.061103866 0.20158848 0.14228684 -0.17005043 0.08200943 0.14850377 -0.16686961 -0.20392828 0.096348494 0.20411606 0.13226399 0.19511983 -0.08961634 -0.07217341 0.23650613 0.2278845 -0.1887966 -0.1595675 0.035095394 0.12806608 0.11865885 0.12282289 -0.3109645 0.091532305 0.12181879 -0.087901175 0.25301847 -0.035935767 -0.19897075 -0.0032715201 -0.004265547 0.009691922 -0.21394897 -0.065764755 -0.034706704 0.030292362 0.19676796 -0.10281564 0.1971493 0.17426847 0.12934005 0.22882035 0.20541905 -0.17693028 0.17690215 -0.0353781 0.009756655 -0.08603872 -0.15839747 -0.026475474 0.24955192 -0.22893877 -0.07177867 -0.19876663 0.17300501 0.22853291 0.17605793 -0.033753738 0.02278912 0.0077427626 0.14407349 0.062400997 -0.20543253 0.12490323 0.2978618 -0.21841767 -0.15245052 -0.22755854 0.29438883 -0.00704807 -0.14163786 -0.1127705 -0.08429742 -0.1674248 0.24526927 -0.2574932 -0.23479131 -0.21054873 -0.14616415 -0.14164884 0.20801267 -0.04931151 -0.098125964 0.32469288 -0.1140748 -0.17423345 -0.1919918 -0.002078912 0.057936564 0.016836017 0.15398258 -0.21868019 0.15397206 
0.07394332 0.15858075 0.22732563 -0.13727745 0.12839451 -0.21592471 -0.034754254 0.12150019 -0.10952441 0.09591503 0.24711573 -0.19447285 -0.12546587 0.023271987 0.23942184 
Rect
Linear 15 2
-0.27030995 0.05158238 0.026906675 0.064857274 -0.23325449 0.07136303 0.038509335 0.23267548 -0.009185792 -0.012882185 -0.20757143 0.011286992 0.19338578 -0.3319902 -0.25249347 -0.050883923 -0.10178271 0.028506592 0.25638 0.17728747 -0.14619651 0.054624025 -0.22991724 0.09308401 0.32968453 0.0507159 -0.17423597 -0.057371646 0.3494309 0.22009607 
-0.12423295 0.0043808543 
