Linear 17 20
0.112691246 0.27089584 -0.20838365 0.22088292 0.031841695 0.07424458 -0.11591591 0.22050674 -0.058066987 0.24201217 -0.16920812 -0.16022258 0.08190255 -0.24619235 -0.14218068 -0.12557952 -0.11124765 -0.14147985 -0.19929577 -0.11516798 -0.090312645 0.040029924 -0.01748775 -0.0864702 0.23565145 0.019825237 0.13984258 0.16426729 -0.20348008 -0.027696019 0.267195 -0.28589576 -0.017031435 0.13298102 -0.07348141 -0.009222802 -0.16725703 0.25744936 0.18731777 -0.12602372 -0.09592016 -0.19852634 0.13634293 0.118240066 0.109875195 0.20136705 -0.021770583 -0.08253716 0.112373896 -0.019706314 -0.18973489 0.09336511 -0.18148617 0.039546587 0.062409565 0.24329972 -0.20831224 -0.052600205 -0.0928209 0.013866107 -0.13266358 0.18513429 -0.17671768 -0.062094115 -0.042122632 0.00046477735 0.055045042 0.057727825 0.15477562 -0.03117263 -0.088859946 -0.0928871 0.12833664 0.33399093 -0.21748266 0.15676095 -0.036293622 -0.24591729 -0.1799398 0.10923549 0.05143862 0.11930455 0.4296714 -0.12663114 -0.16410625 0.12867855 -0.10214686 -0.10229093 -0.10041114 -0.2394176 0.022460626 0.082851425 0.19896103 -0.04060586 -0.025965877 -0.18054563 0.15764032 -0.15067753 -0.09188665 0.16314186 -0.07925987 0.15697502 0.12973276 0.27520117 0.054262508 -0.05584585 -0.08399623 0.11153262 0.1651731 -0.15337454 -0.13060457 0.21249256 -0.003353355 -0.12095978 0.040682856 0.17117079 -0.11016447 0.09369564 0.14449653 -0.17882602 0.28133258 -0.12713641 -0.11159606 -0.28689203 0.019194609 0.026906239 -0.047820672 0.18484786 -0.12930185 -0.1343499 0.06381144 0.2617513 0.116468005 -0.047167197 -0.057165537 -0.1823228 -0.19389918 0.013954378 -0.21634778 -0.13242336 0.16067898 0.048405495 -0.17510124 -0.24459727 -0.13211429 -0.027653875 0.24520457 -0.13480943 -0.15386552 -0.14671427 0.179964 0.03172345 -0.103960335 -0.012828402 -0.13881163 -0.062205847 -0.17095463 0.023790067 -0.43507797 0.30179235 -0.027873717 -0.0129598845 0.20254555 -0.11711476 -0.18706588 0.06578087 0.103107184 -0.15399967 0.19135092 0.0611059 -0.15058073 0.07675987 -0.14104103 0.12191346 -0.117560014 -0.19166836 -0.05331217 0.17656931 0.12688836 0.24709313 0.07412312 -0.013210767 0.24525198 0.23034614 0.06829394 -0.101659335 0.1300058 -0.28604332 0.2979098 0.02525184 0.13459189 0.10914901 -0.11262981 0.18943527 -0.13130234 -0.1942884 -0.14369579 0.21813333 -0.05553955 0.23354135 0.23703556 -0.15565404 0.14004645 -0.09120246 -0.109400935 -0.05478307 0.19533162 0.17470229 0.11323104 -0.12553126 0.17422302 -0.1914062 0.17147693 0.0699483 -0.19823806 -0.09717598 -0.14488524 -0.10836138 0.2249395 0.035144717 0.1502427 -0.2244505 -0.099850215 -0.04375154 0.18732476 0.009194697 -0.301768 0.10296217 0.08524477 0.14575864 0.018956473 0.19097838 0.20950736 -0.10187127 0.11159736 -0.29599807 0.15074953 -0.16627142 -0.035870373 0.07000564 -0.07661286 0.074599825 -0.049471773 0.018158963 -0.261633 0.1806657 0.016691528 -0.22430581 0.09281658 0.0815795 0.26841548 0.23939501 0.33954066 -0.044113804 0.2405784 -0.08766066 -0.020425592 0.101391144 0.14186509 0.08864249 0.21385983 -0.02369087 -0.0032746769 -0.01858877 -0.24226077 0.1177807 0.0015914232 0.13904108 -0.106840074 0.06540074 -0.19706072 -0.091136724 0.27764952 -0.32492927 0.19604686 0.23174886 -0.24930777 0.26868248 -0.20333181 -0.20676728 0.063965514 0.13952278 0.17034623 0.2586448 0.09883043 -0.12772886 0.18881027 -0.074253574 0.15462519 -0.14411552 0.15358293 0.014577311 0.04014354 -0.14679928 -0.0069625927 -0.21226043 0.024193117 -0.1447065 0.06078037 0.13504472 0.1989791 -0.042026795 0.012330559 0.045107346 -0.004399652 0.1994464 0.16897523 -0.114228785 0.014895695 0.17632264 -0.12735426 0.22822486 -0.096614026 -0.15718783 0.08407172 0.011098855 0.12374153 -0.10472027 -0.116847835 -0.0092287995 -0.13052304 0.27419266 0.045925952 -0.029830724 -0.008329079 -0.015972793 -0.11819794 -0.024686009 0.22496599 -0.04443212 0.06706184 0.061648488 -0.16290474 -0.105366305 -0.19828148 -0.10129303 0.124767214 0.03477314 -0.06277898 -0.22873323 
0.18602258 -0.006581438 -0.19278716 0.03086271 0.28133935 0.060861297 0.06907507 0.10260425 0.07631739 0.21234624 0.2916784 0.04461882 -0.23951703 0.030280855 -0.124805495 -0.048936673 0.123189926 -0.19649054 -0.13824189 -0.2221884 
Rect
Linear 20 20
-0.20109037 0.12370505 -0.05072228 0.22780214 0.16364434 -0.015667604 0.03084184 0.07245179 0.17044118 -0.15893325 0.2425245 0.059994325 0.2165752 0.1637591 -0.02656252 -0.11879484 0.16946962 0.022919806 0.017895164 -0.03401901 0.18931201 -0.21550718 0.05088459 -0.14317678 0.21113788 0.021517646 0.041033417 0.0058902954 -0.027923187 0.0517919 -0.08772485 0.12180705 -0.07835196 -0.12337355 -0.099728085 0.20350467 -0.1280406 0.056264263 -0.08255962 0.12379816 -0.047360204 0.052343402 0.15295535 -0.07854509 0.077155605 0.10624515 0.014929228 -0.042873204 -0.05727212 -0.2681314 0.15563336 -0.05417832 0.08587749 -0.21173362 0.071055874 0.1269521 0.19813074 -0.2351134 0.25067526 0.028635532 0.022412928 -0.18346496 -0.04176033 -0.24392946 0.19074999 -0.12389281 0.09133497 -0.092766866 0.1455948 -0.26687595 -0.0440293 -0.01826708 0.13168682 0.104934976 0.15238878 -0.1631226 0.22624752 -0.17130907 0.22810537 -0.17169696 -0.12407145 0.26797658 0.22741073 -0.05224295 0.08447445 0.03594568 -0.06744401 0.1915367 -0.056155223 -0.13066648 0.120886005 0.20673163 0.03395699 0.2713715 0.018512964 0.099195346 -0.23858671 -0.117142335 -0.15707898 0.07945976 0.18228802 0.2602424 -0.18035853 -0.027309392 -0.08010046 0.06544262 -0.025316738 -0.001266473 0.1971654 0.15829325 0.024664542 0.030724049 -0.2429563 0.036810838 0.08696362 -0.11890875 -0.28105012 -0.15964854 -0.0666042 -0.015188754 0.22766806 -0.02811283 -0.17719457 0.08029088 -0.160664 0.054929875 0.2553 0.25420645 0.08965986 0.21103051 0.18307249 0.110661075 -0.15317763 0.02634881 -0.099531725 0.15976141 -0.039699666 -0.10227255 -0.0064655687 0.16767907 -0.18392608 -0.02852797 -0.15676269 0.15801664 -0.03068566 -0.1380107 -0.19545749 -0.19207378 0.12811162 0.0624395 -0.10259339 -0.20999624 0.045179896 -0.06539338 0.013528534 0.0026061113 -0.15799993 -0.1044694 -0.122292355 0.124699086 -0.0720352 0.06328987 0.19374011 0.016918309 0.3265151 0.11497017 0.05585294 0.15251867 -0.0031538827 -0.21808758 0.207442 -0.18173525 -0.091063954 -0.1334044 0.197288 0.06699033 0.30709386 -0.23860238 -0.09138705 -0.017285064 -0.052514035 0.08306897 0.21013044 0.044884678 -0.0959966 -0.06545724 0.18637797 -0.07911635 0.18540087 0.077864595 0.15489808 0.12339699 0.13555588 0.014505239 -0.1358865 0.09998328 0.04775528 -0.043696713 0.0590564 0.18398449 0.14683051 -0.015759403 -0.11876539 -0.12729695 0.14421208 0.16776413 -0.21656287 -0.16536653 -0.09066719 0.12892878 -0.030066883 -0.17315763 -0.19669163 -0.093418986 -0.14509633 -0.1704203 0.06317878 0.15581356 0.14282557 -0.14715272 -0.13133599 0.056342725 0.17900474 0.09925207 -0.19119565 0.064890824 0.20986564 0.26868305 -0.20581649 0.10640944 0.10378445 0.06643856 -0.23139793 0.061108146 0.15876776 -0.13089381 -0.2406599 0.13211367 -0.012020811 0.20447636 0.17409666 0.19582799 -0.019384708 -0.037775192 0.25985348 0.17413692 0.0543152 -0.18209898 -0.08053628 0.09704569 -0.13146424 0.13432926 0.040187817 0.093677975 0.15826857 0.011728653 0.20015183 -0.058744967 -0.16770923 0.0053281933 0.05821514 0.0071123675 -0.14311996 -0.03620011 -0.097614095 -0.06750271 -0.21328054 -0.14229628 0.09637759 -0.0059489054 0.092803136 0.11641936 0.17118877 0.10665998 0.040945858 -0.21317466 -0.042240124 0.022005362 -0.106847785 -0.105627604 0.063732676 0.16921146 0.039203588 -0.18822862 0.18583724 0.18267557 0.13012598 -0.13531677 -0.033655573 0.0044135265 -0.16528076 0.06361644 0.05977217 -0.10895808 0.123288356 0.07592113 -0.13236977 0.07922659 0.14618146 0.21126449 0.21477433 0.21108477 -0.09427167 -0.09122416 -0.1209771 -0.2364035 -0.03441104 0.19717515 -0.0059501473 0.20261638 0.2158836 0.2504672 0.041171048 0.12625916 -0.035128493 -0.13021839 -0.22671881 0.117055 -0.2036028 0.09017277 0.25798982 0.2646181 -0.0349378 -0.11211551 -0.24450341 0.17859854 0.18564747 -0.06017077 0.08064396 0.1359924 -0.041347343 0.29172477 -0.13480596 0.14241983 -0.23173714 -0.20441626 0.08107791 -0.062229652 -0.15243068 -0.12063224 0.09969415 -0.08726541 0.06251319 -0.031678706 -0.21453911 -0.034625284 0.014577576 -0.16337653 0.21046121 0.016713941 0.040899944 -0.19018503 -0.016953303 0.18713929 0.07459862 -0.19182698 -0.04564765 0.21975447 0.17680559 -0.154809 0.017975673 0.20958152 0.17517395 -0.11809922 -0.12820116 0.17078283 -0.18841802 -0.18195024 -0.20809923 0.022972038 -0.10965309 0.08223866 0.034654748 -0.18948102 -0.16564874 0.15535708 0.13878031 0.06424693 -0.081774056 0.20515439 -0.16532835 0.12582105 -0.1871822 0.026151408 0.0947813 -0.19076103 0.0666298 -0.0009575191 -0.20601316 0.15460041 0.17480952 0.111855246 -0.09328626 -0.11783668 0.15091652 -0.19615714 -0.18838973 0.05409808 -0.12995273 0.021703422 
0.18601185 0.11399762 0.041177623 0.085802436 0.06228646 0.24896944 0.04789072 0.21361338 0.16357058 0.041480623 -0.16854216 0.231078 -0.17749304 -0.13805625 -0.06512733 0.1550826 0.13980502 -0.06136968 -0.02525017 -0.23354232 
Rect
Linear 20 20
-0.03158485 -0.087900884 0.057613593 -0.19553725 0.18054688 0.017962364 0.14023542 0.08306884 -0.18854201 0.15219598 -0.048937038 0.06650293 0.14355148 -0.20922771 0.053488687 0.09432175 -0.10402757 0.16074605 -0.14449185 0.17574003 -0.008521314 -0.21879299 -0.11673719 0.009540085 0.21510617 -0.15025102 0.061402716 0.16212676 0.079326436 -0.15252988 -0.114478745 -0.023087883 -0.043249283 0.10120398 0.033755314 -0.18582381 0.046109352 -0.16445813 -0.21676844 0.103849925 0.14959332 -0.109692164 0.0358797 0.06643611 0.028498828 -0.0550614 0.21892977 0.04663667 -0.09301296 -0.049629614 0.015539035 -0.17864498 -0.11929531 -0.17114589 0.13466099 -0.15414068 0.11642352 -0.19656555 0.1888004 0.05735907 0.12136133 -0.11303815 -0.026604058 -0.20817277 0.23745686 -0.040813435 -0.0519829 0.17101488 -0.1919496 -0.13817081 -0.11477541 0.16893212 -0.0590155 -0.016001325 -0.091655225 0.10684101 0.24485663 0.17455752 -0.19208719 -0.19224547 -0.11023152 -0.13447407 0.14622968 -0.21176513 -0.067858756 0.11517474 -0.084841534 -0.10102936 -0.014939353 -0.08118345 -0.14138629 -0.034460932 -0.14202932 -0.19647324 0.17505977 -0.08322102 0.15822464 -0.17035891 -0.08671735 -0.02714938 0.06769454 0.13044314 -0.10290975 -0.20397884 -0.12660968 0.17375186 0.047811933 -0.047823522 0.15375336 0.18045157 -0.13938138 -0.17643748 -0.12692823 -0.006742922 0.2031199 0.18386678 -0.12458877 0.16678885 0.16026214 -0.11620476 0.21357761 -0.042039327 0.23019534 0.18156967 -0.12878405 -0.15148175 -0.124364264 -0.021010298 0.39896268 -0.17233467 -0.07674851 0.0065654735 0.13913691 0.19900158 -0.009402955 -0.29447508 -0.2003548 0.15606786 0.065241255 0.051367834 0.2079298 -0.21773113 -0.20441404 -0.15233803 -0.087156415 0.19031343 0.2017109 0.21232109 -0.057722777 -0.13823316 -0.018672526 0.1722897 0.042370837 0.049006373 -0.20213175 -0.10792638 -0.05454652 0.11061078 -0.18453526 -0.12251902 0.04406499 -0.020939756 -0.11542078 0.16222395 -0.058885872 0.07601829 0.06786293 -0.07907175 -0.14924574 0.10031007 -0.09518482 0.14156356 -0.1728154 0.22026916 -0.15967003 0.10495235 0.039206423 -0.0040738634 0.011116296 0.024037404 -0.21786587 0.12743069 -0.015943093 0.11592764 0.053817973 0.18848388 0.21846509 -0.1650964 0.028168956 -0.19952653 0.056649666 0.21661665 -0.07069185 0.20577544 0.11501319 0.08286609 0.011814747 -0.15207364 -0.21178442 -0.1768643 0.1919424 0.088544615 -0.043249324 0.19962196 0.17027995 0.009343668 -0.09211467 0.07579817 -0.12585041 0.022343881 -0.22248708 0.07761563 0.103162505 0.17375079 -0.14180414 0.041175544 0.16449744 0.05993636 -0.20748778 0.17242049 0.24917097 -0.07197932 -0.014345099 -0.12931378 -0.015319937 0.26056623 0.22744986 0.09015242 -0.22258398 -0.12453178 0.075849146 0.23599875 0.041652326 -0.0050746705 0.20807824 0.22752823 0.0928514 -0.11435785 0.16704617 -0.019484771 -0.06676558 0.19597554 -0.15755433 -0.077862464 0.057575334 0.09743174 -0.016253369 -0.012901753 -0.020782344 0.18852521 -0.057093456 -0.048287712 -0.17525129 -0.1536257 -0.15783048 -0.018537829 0.104106955 -0.14171658 0.11396277 -0.16029948 -0.074018635 0.01027767 0.0040246756 0.06343378 0.115229726 0.18059833 -0.14387685 0.08263223 -0.09521834 -0.14384054 0.20618327 -0.1541792 0.18508677 0.025728773 0.17092146 -0.018866517 0.106242605 -0.08841849 -0.032374278 0.10509484 0.16817224 0.19913168 0.15393494 0.05871678 0.111230135 0.0074157338 -0.18223728 0.092432976 -0.005760769 -0.024368363 -0.20810601 0.09814147 -0.04821012 -0.098489985 0.11872317 0.14182307 0.17939013 0.026766662 0.035025626 -0.10255622 0.18355112 -0.07580962 0.060888 0.2571966 0.15759812 0.101879016 -0.16065109 0.16471593 0.0033970021 0.1282772 0.009220818 -0.2989194 0.15214023 -0.112043284 0.22039798 0.07153892 -0.18743931 -0.2187881 -0.015547083 0.015212484 -0.16610765 -0.041491147 -0.2582756 0.012492176 0.20391724 0.22016425 0.10156785 -0.035245795 -0.08076851 0.07798582 0.0699153 0.0483485 0.11349662 -0.09646811 -0.13682829 0.064382404 0.2792431 -0.028431723 0.17004587 0.2273977 0.12907997 -0.21448408 -0.17063582 -0.16755337 0.23175125 0.27424064 0.14234778 0.07917578 -0.030718977 0.24614634 0.21062268 0.35595158 0.06832211 -0.0485101 -0.06400109 0.3965087 0.0813906 0.052741457 -0.059375927 -0.010871973 -0.018036228 -0.18095334 -0.008090463 -0.14837407 -0.17690027 0.10222216 0.04659546 -0.19660379 -0.1737669 -0.12433535 -0.18753736 -0.069482274 0.1409412 0.13007833 0.07153852 0.053146005 0.070737086 0.07716411 -0.056052897 -0.1461738 -0.21652655 0.1543212 -0.16852112 0.14354952 0.08166992 0.14894195 -0.038183615 -0.10652079 -0.16188194 0.11588857 -0.20765592 0.0069945846 -0.043657348 -0.06688564 -0.14775953 0.12891951 -0.19919597 0.086009495 0.025443364 0.1787988 
-0.15240277 0.0084941415 -0.15621859 0.21799888 -0.13868919 -0.07321235 0.13473266 -0.16588601 -0.13805145 0.07025207 -0.20540844 0.074249454 -0.14846894 0.0048702057 -0.04330528 -0.025045253 0.10011003 0.08343404 0.1836712 0.07079237 
Rect
Linear 20 20
0.13485956 -0.011473123 0.045455366 0.10665054 0.1061047 0.06711566 0.27925235 -0.17685504 0.19197781 -0.03627772 0.20624663 0.18902148 -0.14714263 -0.15950635 -0.1978391 0.20374897 0.04280931 -0.14366846 -0.054928195 -0.054685213 0.08201945 0.069568664 0.111237556 0.022264078 0.0010219067 -0.22292235 0.00690943 -0.19912273 0.2039004 -0.08112934 0.14433211 0.07065895 -0.10264855 0.15005553 -0.0483298 0.19699958 -0.2113622 0.20454827 -0.14014098 0.12808383 0.19185016 -0.108171895 0.060675293 0.008557367 -0.20598072 -0.08620689 -0.29112792 -0.17128988 -0.19187978 0.14049949 -0.112405315 0.30682766 -0.026174799 0.1861698 -0.10465201 -0.12151688 0.059857715 0.19848378 -0.022884026 0.041336074 -0.03641914 -0.09318684 -0.09972655 0.25896946 0.08384684 0.20423336 -0.26923442 -0.009982459 0.04185154 0.014512617 0.052087106 0.22738576 -0.17278668 0.024838299 0.010969832 -0.13703793 0.20067865 0.34991872 0.19192268 0.07178872 -0.09957402 0.018728765 0.061043233 0.17163762 -0.044937074 0.22274671 0.24194856 -0.1225654 0.03761193 -0.046979476 -0.21008204 0.007636156 -0.21567813 -0.16476007 0.060402833 -0.0023706653 0.16471171 -0.16736211 -0.069571175 0.12362968 -0.1491924 0.039599825 -0.003129363 -0.079921074 0.14495102 0.19047095 0.008671933 -0.06694083 -0.19855954 0.18917829 0.025070775 -0.098147035 -0.10379356 -0.07214247 0.119813494 0.06525369 0.023424953 -0.17748725 -0.18252243 0.12012696 -0.041245297 0.15389664 -0.090016484 0.11963624 -0.031259686 -0.21635272 0.13288738 0.17755878 -0.03920491 0.0651349 -0.024604082 -0.21782596 -0.08486502 0.14719757 -0.19521093 -0.115440816 -0.0774869 -0.14416334 0.0082022995 -0.074063 0.19891465 -0.042115428 -0.05914557 0.15758973 0.17882141 0.012143861 0.12991051 0.08369979 -0.078063905 0.03760795 0.06684497 0.21082266 0.09631003 -0.16869576 -0.19635427 -0.0193484 0.13023984 0.05826064 0.06446148 0.21917602 0.09117825 -0.0013252988 -0.08099611 0.29712692 0.022013307 0.022889268 -0.26073408 -0.06461311 -0.058728453 -0.009098867 0.15720892 0.15917657 -0.14725888 -0.20155095 -0.16893898 -0.118764244 0.21092169 0.2990697 -0.010793669 -0.059002712 0.21961129 0.05810833 -0.17499344 0.02946058 -0.0042684227 -0.04032126 0.04425034 -0.18013245 -0.17803448 -0.20706216 0.08870205 -0.15576348 0.21123064 -0.18712346 -0.18244736 -0.023875788 0.1331867 -0.08170788 0.044017673 0.06983203 0.07941257 0.20484464 0.122350514 0.16508935 -0.092881575 -0.10975873 -0.19156252 -0.071065225 -0.14194608 0.10508371 0.0574043 0.26439 0.011577075 0.18836397 0.010204955 0.09501728 -0.09081644 0.26338997 -0.0839471 0.06816052 -0.13163224 0.17352912 -0.07651311 0.006694123 0.008601174 -0.13349935 0.1177448 0.02602975 0.22086099 0.22280878 0.0986262 0.09315553 -0.16466655 -0.05930361 0.0092493445 -0.0030216724 -0.20504826 -0.018885568 0.21293664 0.005874589 -0.035116658 -0.2021703 -0.1421112 -0.05048933 -0.17528377 0.18246941 0.2075 0.18975139 0.05133277 0.025818516 -0.038541745 -0.21313795 0.11155257 0.1531339 0.09835552 0.07855557 -0.07204971 0.075355016 0.0156229995 -0.13761178 -0.12080786 -0.1233217 0.012207359 0.10058828 -0.186412 0.2075892 -0.02831217 -0.17130305 -0.1351256 -0.04808162 0.099404395 0.25708935 0.105410755 -0.08633461 -0.062214565 -0.0028483516 0.28377813 0.1304862 0.14226629 -0.16366595 0.19950421 -0.098850965 -0.15582873 0.0116220815 0.16842788 0.12810728 -0.29543716 0.18449083 0.036526762 -0.037029047 -0.003691063 0.032039866 0.049449 -0.14093418 0.2575313 -0.2318836 0.11401346 0.21679163 -0.13335663 -0.14355735 -0.15310442 0.2141551 0.1924589 0.009892026 -0.030604452 0.0800682 -0.12802026 0.08634597 -0.06570879 0.21897103 -0.11138234 -0.10014703 -0.058076657 -0.04085018 -0.21135731 0.07809008 0.21357189 -0.016078634 -0.008494456 -0.032098528 0.015454449 0.019169493 0.029087394 -0.08007627 0.15059224 0.077625014 0.23445094 0.20604864 0.07026036 -0.11515504 0.14677504 0.115229815 -0.041237026 0.1887972 0.032001402 0.024697516 -0.13179885 -0.19982818 0.0074832407 0.2119302 0.027463585 0.06964719 0.21042496 0.18427753 0.0009717643 -0.059943676 -0.08832614 0.20531553 0.0099051 -0.13332076 0.06569648 -0.13843316 0.15382326 -0.07270236 -0.10078468 0.18147308 0.19627678 0.05390054 0.028828442 -0.14023834 -0.029225664 -0.20257975 -0.033358157 -0.013300647 -0.0940873 0.16631313 0.13833606 -0.13196461 -0.105877146 0.113742344 0.2079849 -0.13878378 -0.10724322 -0.05997418 -0.09903086 -0.14656802 -0.0932826 -0.1091834 -0.22500107 0.114025 0.03891956 0.12420656 -0.18521824 0.1378711 -0.020539522 0.088232994 0.38424507 0.0513849 0.21759142 -0.07893988 0.08197582 -0.27088052 0.20784023 -0.012005103 -0.12558058 0.11505999 -0.042848866 0.023306174 -0.21816164 -0.1998795 
-0.02972062 -0.20327018 0.2169679 0.12127306 -0.035023157 -0.07412148 -0.05137812 -0.008946236 0.25334254 -0.14902398 0.07918872 -0.14822145 -0.12303934 -0.009396835 0.16974773 0.13844453 0.21207061 -0.14587322 0.19035007 0.09073116 
Rect
Linear 20 2
0.05118541 -0.15116817 -0.24836403 -0.28214416 0.035363443 0.057853315 0.021100555 -0.10534047 -0.2623741 -0.018992946 -0.39418787 -0.21717833 0.08636363 -0.120091714 -0.15831205 -0.11469541 0.27133363 0.15147191 -0.008128757 0.06423708 -0.20084406 0.038527906 0.20793925 0.22082491 -0.113430984 0.19472921 0.03867483 -0.044497296 0.2434203 -0.17939863 -0.02904858 0.17673683 0.013312218 0.26816204 0.28289056 0.0022716117 0.041449293 0.1570982 -0.24877657 -0.36800903 
-0.06435075 0.15184191 
