Linear 17 15
-0.11139106 0.11747482 -0.22633678 -0.093454696 -0.13072985 0.09402075 0.122066446 -0.17577718 -0.038085498 0.14791325 -0.16161346 0.055792294 -0.023982389 -0.2064737 -0.058521472 0.13792527 0.13486034 0.13110764 0.1494416 -0.111928895 0.26791832 0.050497033 -0.15323175 -0.2279129 0.20007344 -0.069748424 0.32854435 0.105959676 0.13691826 0.010970906 0.044975396 0.0093458295 0.1693657 -0.12855525 0.09945661 0.2842869 0.17592451 0.32647073 -0.14110126 0.03426199 0.03825173 -0.021077573 -0.009821036 0.31329212 -0.06277992 -0.121944785 0.2458693 -0.012691539 -0.31843203 -0.091651216 0.04415157 0.27595723 0.10822019 -0.24941194 0.08507074 0.10847562 -0.11193874 0.03543616 -0.21955381 -0.058388542 0.09091534 0.22838266 -0.13884932 0.2152772 -0.19570178 0.13491955 0.07875613 0.0070476457 -0.06540114 0.08850545 0.20424409 -0.19112201 -0.18350838 0.20561373 -0.22927858 0.08607598 0.16610046 -0.1814091 -0.14123249 -0.012849654 -0.023282804 0.16033228 0.15535 0.10755107 0.124213554 0.21277659 -0.08723688 -0.23083647 0.075371236 0.06958577 0.07302792 -0.08292027 0.10825838 0.029041326 -0.18583864 -0.082407795 0.14680663 0.17047405 0.16917035 0.25856957 -0.03049798 0.12223199 0.13062643 -0.16742535 -0.092501506 -0.21894062 -0.121694505 -0.18507099 0.19913118 -0.16619852 -0.042791862 -0.009725756 0.17302904 -0.122406445 0.19550562 0.09508443 -0.22814909 0.009178672 0.11711668 0.008353833 0.20079836 -0.17551625 0.1898756 -0.07304418 0.034872346 -0.11044063 0.0712714 0.15984727 0.054841295 0.10254632 -0.12728113 0.0703623 -0.09693541 0.060788207 -0.14050344 0.2051334 0.10226549 -0.12725846 0.14209674 0.21907988 0.14211944 0.0485475 -0.07925521 -0.15772945 0.20580345 0.14262342 -0.056960512 0.14611323 0.23533577 -0.24694437 -0.12747926 0.079205185 0.07999414 0.06074126 -0.14981425 0.032546204 -0.23991302 -0.0842389 -0.080390595 -0.19668822 0.134636 0.017014127 0.07526216 0.23816131 0.18742412 0.14328922 -0.0835851 0.24285933 -0.21232276 -0.11877457 -0.2649707 0.12327631 0.28834158 0.21384211 0.12248913 0.07018595 0.12192322 0.07803611 -0.1513907 0.23019442 -0.06344421 0.23880531 -0.11053519 -0.052843716 -0.2924173 0.21687378 0.13772705 0.041469805 0.2659816 0.27220532 0.12908925 -0.02048859 -0.1305962 -0.036594138 -0.061314147 0.09184263 0.22222324 -0.119656965 0.15402836 0.21035415 0.01826836 -0.057471648 -0.11372297 0.08209801 0.0029784823 -0.046250835 -0.11833045 0.025603063 -0.114652 -0.0050334404 -0.1144436 0.21705884 -0.041180857 -0.23210745 0.06403979 -0.19161561 0.2595748 0.2230286 -0.16676857 0.21377473 -0.24033909 -0.16581932 -0.13671865 -0.21466357 -0.15825813 -0.024788804 0.23308483 -0.19295143 -0.10379674 -0.0006692749 0.17244814 0.021258388 -0.19109866 0.12600833 -0.18186 0.23672579 0.037553333 -0.205044 0.09609224 -0.16528569 -0.064670965 -0.20813732 -0.17191909 0.051812313 0.20533536 0.07521308 0.10759059 0.03494295 0.2672076 -0.08716812 0.2476092 -0.15245955 0.27418953 -0.14532408 -0.15969898 
-0.23262386 0.12714656 0.2052675 0.15677914 -0.2563441 0.058334768 -0.25158504 -0.1537355 -0.009867125 -0.046857927 0.24760386 -0.12542185 0.26456523 -0.20820802 -0.107028335 
Rect
Linear 15 15
-0.24012443 -0.1302217 -0.10065605 -0.037344772 -0.16165724 0.01156629 -0.05331788 -0.119704485 0.075524196 0.19010705 0.10554171 -0.21133919 -0.27183974 0.10173747 -0.09717586 -0.120425984 0.28704572 0.31142113 -0.127776 -0.1996871 -0.26744825 0.17908996 0.06483491 0.028499244 -0.00873638 0.15428793 0.24256997 -0.16453266 0.047904663 -0.25899547 0.21904051 -0.20567563 0.18324032 -0.23559399 0.22409475 0.07121384 -0.15950283 -0.08913642 -0.1137529 0.19893369 -0.026358843 -0.14775324 -0.019321382 0.15293959 0.08020693 -0.07223872 -0.1099416 0.09119285 0.14600335 0.031437207 -0.18076508 0.055577017 -0.034303885 0.089581914 0.008027211 -0.031172168 -0.19645897 0.15754022 0.25281626 0.20753533 0.055800617 0.017112821 0.007940888 -0.19200313 -0.23527986 -0.096190885 0.105974436 -0.096914545 0.18938148 -0.23503885 -0.15303491 -0.17559463 0.14164189 -0.22811624 -0.1671283 -0.20909415 0.18669227 -0.005321227 -0.14487547 0.24318983 0.106585205 -0.12094738 0.044157133 0.039150544 -0.059746888 -0.08410289 -0.10481645 -0.019735415 -0.17838228 0.23239216 -0.012659118 -0.015273264 -0.019072704 0.017400794 -0.18263851 0.036648322 0.14406306 0.06470188 0.19557376 -0.22421351 -0.21733077 -0.1397316 -0.04980845 -0.044098407 -0.05981225 -0.014206544 0.24712114 -0.18218493 -0.21040122 -0.07712746 -0.028661523 0.106874965 -0.033462662 0.1521572 0.22661698 0.28313258 -0.052283235 0.015684951 -0.025946781 0.07916414 0.2408328 0.25126672 -0.014577446 0.17160162 0.024469946 -0.18317556 -0.006514859 0.015222591 -0.018694857 0.07169553 -0.15203272 -0.18468542 0.23158173 0.033523366 -0.21932824 -0.15157874 0.14641756 0.18697849 0.05888728 -0.17789122 -0.14190124 -0.01308777 -0.06732093 0.23217301 -0.24527068 0.20832458 -0.070254005 0.20690079 0.18160583 -0.07287785 -0.00076537614 0.15765496 0.10548399 -0.032936513 -0.12504469 0.10079057 -0.005571654 0.057262942 0.113463394 0.054375187 -0.09666606 0.2096882 0.060110394 -0.10035625 -0.0381319 0.06613664 0.0074805203 0.15719153 -0.04396453 0.09314198 -0.20927817 0.035116408 0.19376351 0.18335794 0.054240063 -0.06334442 -0.1330632 0.14767665 0.16337048 -0.089182906 -0.24528691 0.14548339 0.10427934 -0.09535471 0.029892705 -0.11902332 -0.19755958 -0.022811938 0.1834366 0.03507485 -0.06979311 0.026390547 0.17756498 -0.20310633 -0.13168049 -0.11765972 -0.14640969 0.1602171 0.21340543 -0.15552925 -0.118722394 0.16940145 0.0075469622 -0.061071455 0.2392054 0.2182656 -0.03258795 0.08368429 0.24392952 -0.040735353 0.1511453 0.22021782 0.2626996 -0.21762073 0.19490042 0.09488655 -0.087836064 0.05177193 0.08524514 -0.20413312 0.20340161 0.10724676 0.17585029 -0.25143746 0.07681901 
0.21317743 0.25128877 -0.21715157 0.06354409 -0.033486173 0.1673788 0.22544436 -0.002349878 -0.09558497 -0.112446085 0.20251429 -0.13102424 0.13609645 -0.109681524 -0.2282913 
Rect
Linear 15 15
-0.2780111 0.20991518 -0.25081667 -0.09917071 -0.022124425 -0.17971686 -0.028257823 -0.04012934 -0.15631479 0.09485012 -0.106057234 -0.01562819 0.21829548 0.026766215 0.2999232 0.16902839 -0.026978396 0.112487555 0.035583317 -0.1900053 -0.15847813 0.0010099178 0.1220221 0.06152164 -0.27884367 -0.042354304 0.1929667 0.10011243 0.17293592 -0.10162753 0.23630503 -0.10733271 0.20883769 -0.13521093 0.112906724 0.063913286 0.19554764 0.05581829 0.088353395 0.02247721 -0.1833091 -0.23359205 -0.07569006 -0.03235151 0.030187935 0.15565054 0.20166083 -0.031866103 0.2150782 0.19202676 -0.11002174 -0.22007164 0.009959314 -0.08931294 -0.11819058 0.19962776 0.21028617 0.07579204 0.046664298 -0.067260064 0.12272805 -0.25362647 -0.17283697 0.19592664 0.18896484 0.23086525 -0.01706114 0.0883621 -0.021004796 -0.08253174 0.22578467 0.18045181 0.21954213 0.19140254 0.16841874 -0.102645144 0.15691493 0.036822468 -0.17929713 -0.040459827 0.0663549 -0.19656792 0.24949175 -0.17227614 0.2614383 -0.010727147 0.20731926 0.03728405 0.08879516 0.11741165 -0.1341832 -0.16226944 -0.2279774 0.18795079 -0.09434241 -0.20275697 -0.25614047 -0.24714017 -0.015401825 -0.10666205 -0.07103978 -0.24280082 -0.14385659 0.12872884 -0.051065773 0.08997536 -0.009805532 0.2533553 -0.01679833 0.22616118 0.03885297 -0.07757953 -0.027061088 0.17760432 0.12569249 0.12271242 0.1691793 -0.253823 0.20941819 -0.122800015 0.14082293 -0.017005656 0.17474848 0.19314611 -0.0651374 -0.09649808 -0.06327928 0.07209511 0.22906941 0.18542439 -0.22416142 -0.13540177 -0.09638012 0.22862627 -0.13010393 -0.026794082 0.25049195 0.18671829 0.111040555 -0.21436878 0.12244429 -0.054152243 0.094170175 -0.20583376 0.15454282 0.21338472 -0.18542495 0.059132133 -0.019679435 0.07036557 -0.18389738 -0.2390787 -0.20864126 -0.13035206 0.15750867 0.21612503 -0.20105164 0.25578398 0.025889335 -0.1267011 -0.2299096 0.031710945 -0.15855363 0.11789837 -0.033849545 0.16950902 -0.20567968 -0.001427114 0.11003253 0.07895285 -0.2143321 -0.120626375 0.101890594 -0.07515238 0.0926854 -0.08997804 0.07967383 0.02518642 0.020880312 -0.22669186 0.017647319 0.24152732 0.030359477 0.040856145 -0.087982714 0.16628711 -0.19298859 0.15210932 0.1225931 0.2904348 0.22232907 -0.10661738 0.037067 0.06269392 0.2775102 -0.111354135 0.16642947 -0.249377 0.028617801 0.17416471 -0.033555046 0.21788166 0.2620854 -0.13405818 0.08889429 -0.225924 0.045401078 -0.00019626312 0.22347811 0.16152911 0.17029406 -0.109650135 -0.081875995 -0.030782338 0.13908452 0.114262074 -0.24266714 0.16234758 0.18395206 -0.18001144 -0.18886323 0.16287002 -0.09471334 0.12189526 -0.091582656 
0.16793951 0.18153146 -0.06548579 0.21029714 -0.11511723 -0.0037629753 -0.039906934 -0.081801385 -0.10020981 0.054967016 0.2535436 -0.13909808 -0.21268742 0.14037143 0.23722637 
Rect
Linear 15 15
0.062415596 0.2620243 -0.0088903755 -0.2013512 0.0066733304 -0.04679724 0.10175386 0.20126872 0.17293084 -0.103270814 0.04490863 -0.12996458 -0.057989154 -0.13113426 -0.14148581 0.2810362 -0.085071966 -0.12941779 -0.12845989 -0.12771451 -0.117164984 -0.194864 -0.16182703 0.07727808 0.18358879 0.10303459 -0.22851728 -0.020374095 0.14577685 -0.057199042 0.09344064 0.06445746 -0.046237096 0.16652355 0.1880212 0.1021253 -0.16423607 0.165153 0.25811347 0.14119525 0.2201831 -0.010550052 0.28732508 0.21040398 0.22454658 0.30688074 -0.15050243 -0.054621458 0.19874252 -0.13153963 -0.0638294 0.04934019 -0.18045662 -0.22642018 -0.07674204 0.07673946 -0.18782988 -0.052393667 0.18096758 -0.22986585 -0.020630777 0.2504498 0.18923625 -0.09443952 0.043497175 -0.016689256 0.13950092 0.22521791 -0.12470342 0.042326182 0.16670156 0.031499326 0.07713908 0.095351845 0.2179822 -0.25190482 -0.24572489 -0.25168818 -0.15734538 -0.2150607 0.21804523 0.050631672 -0.25154212 0.10082683 0.2214376 -0.16672388 0.17271236 -0.07366094 0.17537108 -0.21753459 -0.07401149 0.07289053 -0.13508335 0.08983562 0.20427619 0.21695054 -0.076844126 -0.1592201 -0.087697595 0.1448173 -0.06185182 0.11671755 -0.1953813 0.055268288 -0.183434 0.106263734 -0.14526977 0.08813912 0.010222987 -0.08105255 0.17067106 -0.22323504 -0.21626419 -0.011414656 0.30303195 0.005955079 0.23729473 0.24058801 -0.21260735 -0.15552665 0.041434273 -0.14902921 -0.12817417 0.1369659 0.13619636 0.19509873 -0.25028715 0.04411803 -0.18666123 0.08911351 -0.19875826 -0.17937508 0.17487027 0.24390638 -0.18576543 -0.14523453 0.15486625 -0.21311852 -0.24966802 0.24959394 0.22559232 -0.16345449 0.22870022 0.23305064 -0.2086692 -0.0066449046 0.25375554 0.22763285 -0.11928934 0.08350471 0.052644916 -0.104035616 -0.21623565 -0.12208053 0.15506831 0.09084262 -0.092341974 -0.20180073 0.21094522 -0.21224858 0.19000465 0.07080799 0.1546157 0.205388 -0.010154082 0.044357285 0.12809192 0.14817402 -0.14330688 -0.17470375 0.3177969 -0.13125575 0.22519167 0.19270371 0.2698178 0.13768473 0.075350106 0.2573341 -0.044664774 0.0023454714 0.12348552 0.20892093 -0.22545289 0.10620899 -0.0065033124 0.10622367 -0.08343504 -0.10698874 0.070249654 -0.035810463 0.06964995 -0.104251176 -0.21887617 0.21690305 -0.11541743 0.25757203 0.17669456 -0.11975245 -0.048098862 -0.19916354 -0.078011416 -0.22367764 0.015294243 -0.016049838 -0.02313029 -0.10802499 -0.017855734 0.1286048 -0.030991225 0.0018278878 0.019272227 0.09228164 -0.17247377 0.122360125 -0.22970304 0.20684755 -0.15383694 0.07622648 -0.029168528 -0.23428684 -0.24137497 0.0005686283 0.023791606 0.17676252 0.012924505 
0.2115594 0.044689737 -0.029021164 0.21835624 -0.25402063 -0.12358531 -0.026018554 0.11449283 0.0052440176 -0.15062726 -0.06452445 0.10134693 0.12474829 0.092799604 0.010718663 
Rect
Linear 15 2
0.05000925 -0.014186082 -0.12654492 -0.10968982 -0.237629 0.02396831 0.16621806 -0.23657414 -0.3170429 -0.017991021 -0.12016177 -0.23038504 0.05613304 -0.260954 -0.20459013 -0.28942722 0.25189024 0.08245955 0.25401548 -0.18353274 -0.044329584 0.17680356 0.316198 0.32357353 0.17382145 -0.23095438 -0.0011434732 0.07418159 0.27361125 -0.066024326 
-0.06640959 -0.16034393 
