Linear 17 10
0.55944663 -0.11965696 -0.09433455 0.006182873 0.06039061 -1.154076 -0.15201473 0.13499226 0.32459348 0.2542829 0.23417652 0.07818398 0.014622189 0.22981352 -0.4317203 -0.18543507 0.22177377 -0.46814105 0.2964997 0.017990103 -0.39851213 -0.025157332 1.4099835 0.1356327 0.14442627 -0.4334481 -0.11497938 -0.024753647 0.102586545 0.013025491 -0.15380447 0.6927264 0.34026077 0.10353668 0.15281479 0.17005034 -0.19851816 -0.25859782 0.048893765 0.18413377 0.31460944 -0.13075143 -0.020384585 -0.13040343 0.19924937 0.16700979 -0.22378746 0.2623541 0.10164358 -0.17329605 -0.004292513 -0.03839753 0.23851757 -0.25864348 -0.2226415 0.062215082 0.3141908 0.038557317 0.03403804 -0.013620454 -0.48340482 0.019115612 0.078441575 -0.13266832 0.056458123 -0.09507984 0.21342432 -0.2804887 0.35749426 0.19787148 -0.024013007 0.021854317 -0.08080594 -0.79273903 0.22792204 -0.036014095 -0.065361515 -0.15817662 0.20041436 -0.24776901 -0.27888912 0.33702698 -0.36257893 0.09076919 0.31857824 -0.28680536 0.052759014 -0.17724453 -0.045189813 -0.0504492 0.11155496 -0.008180137 0.37951985 -0.3081423 -0.36169574 0.4607982 -0.45952693 0.16786994 -0.45015633 -0.06393265 0.105456255 -0.007796446 -0.15095448 -0.19603905 0.19518967 -0.13321365 -0.04073135 0.030466687 0.21090187 -0.26584628 -0.06677638 -0.34868848 0.0021265913 -0.19871902 0.10979671 -0.32853243 -0.1788459 -0.04179573 -0.26040456 -0.11289723 0.12596776 -0.018692391 -0.053215165 -0.21499541 0.006529591 -0.23813199 -0.21821119 0.07824936 -0.24991374 0.00561859 0.04744574 -0.018204736 0.14168517 -0.06073996 0.15566467 -0.14994273 -0.095531784 -0.47163972 0.34911948 0.33921415 -0.22727756 -0.596579 -0.2890295 0.20866615 0.24037921 0.1395493 -0.01032026 -0.24020146 0.17615238 -0.031604107 -0.5061133 0.14292414 0.24836698 0.40411428 -0.16729541 0.08509535 0.029945062 0.21894692 -0.2212412 -0.29814819 0.0976078 0.238058 0.25930813 -0.38326114 0.09345406 0.14513773 -0.4188072 0.021668602 0.14529537 -0.03877346 
0.36158258 0.06695998 0.25621918 0.007867449 -0.0022031432 0.1628681 0.02659346 -0.052935727 0.051550873 -0.07065201 
Rect
Linear 10 10
-0.107150935 0.5510087 0.22397082 0.38466492 -0.32333064 0.33683962 0.10282013 0.21389504 -0.24011138 -0.40487453 0.41363278 -0.28178054 0.45876953 -0.23898293 0.42087144 -0.22638696 -0.30978623 -0.30734795 0.29711127 0.060925603 -0.41749159 0.7382336 0.09639812 0.33546516 -0.38831094 0.45355073 0.053096585 -0.037797943 0.16014872 -0.22434482 0.06246447 -0.44219345 -0.28522095 -0.21947816 -0.029827537 -0.26238623 -0.07153971 -0.13707402 0.5489239 0.09086778 0.3764577 -0.18392459 -0.19362831 0.3277749 -0.062724344 -0.40626895 0.23473379 -0.17982614 0.5046148 0.39642978 -0.21490137 -0.17574832 -0.06958478 0.20478314 0.14138241 0.07677072 -0.008017827 0.27636123 0.19664721 -0.28533337 -0.08293773 -0.018547654 0.10757157 -0.3034664 -0.31442827 -0.1801395 0.04046899 0.21454844 -0.26342803 0.13105449 -0.08197653 0.41640216 -0.20124884 -0.01788191 -0.03577773 -0.16925049 0.19913729 -0.12910374 -0.017580787 -0.17431428 0.29880244 -0.14907752 -0.01779638 -0.14300485 -0.2098959 -0.0987037 -0.2115046 -0.013083814 0.41845587 0.16458133 -0.087002695 -0.114719704 0.13049403 -0.253596 -0.25328818 -0.025810689 0.1851528 -0.1776741 -0.047526926 -0.14323752 
0.22461767 0.11992765 0.034795042 0.13497405 -0.10968471 0.11475219 -0.17021067 -0.073696464 -0.06887892 -0.14878124 
Rect
Linear 10 10
-0.43629062 -0.19098462 -0.37475264 0.45361957 0.2248471 -0.09407904 0.1184828 0.011807531 -0.007247924 0.20710608 -0.1681214 -0.39027047 0.3012729 0.07697302 0.078675844 0.0076231216 -0.13283876 -0.3074891 -0.050852463 0.16952923 0.20607534 -0.044839926 -0.12805903 0.0038779825 0.26068175 -0.014400688 0.28007928 -0.11251806 0.08529406 -0.20272925 -0.11437232 0.31658095 -0.44523808 0.45511666 0.48298874 0.30165645 -0.12899755 0.17439005 0.1794933 -0.19899905 0.4834002 -0.5460999 0.5743363 0.120260864 0.17342804 0.070682764 -0.29069468 0.18186586 -0.1349027 -0.12196419 -0.23301867 -0.116272025 -0.1931801 0.36770192 0.35348248 -0.21049295 0.20580503 0.050046396 0.16537243 0.027349532 0.047082968 -0.49932936 0.37833077 0.24922812 -0.34417614 0.24723558 0.1647194 0.26122808 0.2199441 0.23896548 0.040461242 -0.15211225 -0.1824768 -0.25685495 0.014873058 0.041326582 0.06109959 -0.20667273 0.2192817 -0.17226315 -0.48158747 0.29772103 -0.11002578 0.47483748 0.2623517 0.31055233 -0.009818912 -0.16869248 0.3287666 0.05973497 -0.15648592 -0.071137264 0.101188175 0.21199745 -0.24955642 -0.22602336 0.19978103 0.2066341 -0.045695215 -0.11705306 
0.19920228 0.1327552 -0.20700613 0.07693763 0.18554991 0.09455463 0.29984316 -0.294406 0.1360148 -0.08042945 
Rect
Linear 10 10
0.0847417 0.09666353 -0.08455771 0.47316477 -0.33573884 0.25856474 -0.11311426 0.17168707 0.3772985 0.21561186 0.102204375 -0.29018146 0.042770058 -0.18108651 0.06118 0.044832416 -0.2833192 -0.22530112 -0.15949187 -0.27987796 -0.12783125 -0.12212194 0.1774244 0.12736234 -0.2385468 -0.04620956 0.066699535 -0.080685884 0.0476044 -0.027896255 -0.2795243 0.26273468 -0.22786182 -0.1402474 0.033774287 0.0966382 0.10263869 0.085742 -0.2539835 -0.25736094 0.5060236 -0.30241156 -0.10598876 0.3933317 -0.014611943 0.42398787 -0.18248546 0.124208 0.2991308 -0.21487792 -0.29042 -0.024985677 0.2804865 -0.17176507 0.112555236 0.18031096 0.10890144 0.12573624 -0.16922271 0.18224439 -0.30105048 0.015682627 0.04198429 -0.07278079 0.2519953 -0.2986203 -0.22639176 0.26565036 -0.08985882 0.054709677 -0.017749242 0.24348284 0.004270762 -0.24457219 -0.10486604 -0.121028386 -0.2791438 0.11119223 -0.16777359 -0.20060807 -0.17288788 0.030691823 0.10587838 -0.22846216 0.54899716 -0.29709455 0.3933143 0.0026907623 0.14765868 0.100512855 -0.27440575 -0.2827827 0.05001986 -0.09087296 -0.17348893 -0.1429304 -0.23160797 0.13569498 -0.26917434 -0.15859777 
0.15854369 0.07215881 -0.14473403 -0.30250913 0.106885694 0.16245839 -0.1844428 0.14094448 -0.115286544 0.14302622 
Rect
Linear 10 2
-0.07151347 -0.2725551 0.06744727 -0.16255692 -0.23913096 0.0080397455 -0.18439028 0.017954683 0.4684464 -0.11104967 0.35582626 -0.25825244 0.04488856 -0.16516878 0.1618934 -0.10201368 -0.2154661 0.023755427 -0.5371082 -0.09774961 
-0.19988127 0.36133656 
