Linear 17 20
0.20093647 -0.13652019 -0.104859024 -0.040779028 -0.15371282 -0.26411802 -0.14681056 0.21867691 -0.09582552 0.24921598 0.043145742 -0.029747296 -0.09329204 0.16239272 -0.089730486 -0.14678638 0.085183546 -0.12851097 0.1158814 0.083785236 -0.21006645 -0.11617128 0.054580066 0.017672097 0.020727664 0.009335441 -0.040640097 -0.014392923 0.07993766 -0.069612786 -0.108195685 0.21957739 0.21992227 0.18677013 0.20426743 -0.1449787 -0.06462723 -0.1953913 -0.07665516 0.13004793 0.2160511 -0.23479186 0.19096489 -0.095137104 0.20118524 0.052236654 -0.1499083 0.1655858 -0.14662714 -0.09003853 -0.12278259 0.13122539 0.034557026 -0.13611914 -0.14473549 0.0063662175 0.12935382 0.034512237 -0.23302886 0.14551483 -0.28200734 0.017687896 -0.081217535 -0.23344167 0.11097949 -0.15104845 0.008284761 -0.12453902 0.1655491 0.039741 0.14304544 0.05377672 -0.16643871 -0.108701654 0.18036875 0.12457241 -0.14753515 -0.18651412 -0.039786544 -0.0109523 -0.085621305 0.24557644 -0.10821666 0.2605613 0.21724561 -0.16866677 0.1716053 -0.17571047 -0.038678586 -0.010327295 -0.4129655 0.22148362 0.05955563 0.07779714 0.059177287 0.095716424 -0.26167956 0.08290408 -0.23148353 -0.23482773 0.28434145 -0.04011025 -0.09201247 -0.18001187 0.30869856 0.2237695 -0.22845386 -0.08460317 0.23830089 -0.10839863 -0.019862164 -0.1536417 -0.12633552 0.002816142 0.19668026 -0.21194349 -0.0879576 -0.10422954 -0.010857225 -0.18357848 0.22331396 0.086906135 -0.055293314 -0.105442815 -0.17733991 -0.048620142 -0.2569701 0.15687694 -0.112371266 -0.061893307 0.12379582 0.06076743 0.1804592 -0.1703366 0.22182421 -0.07397345 -0.15802999 -0.19956979 0.17238939 0.048606414 -0.026985792 -0.054195415 -0.103444144 0.082571104 -0.0012921403 -0.03210681 -0.119208865 -0.10762672 0.031266302 0.056207445 -0.22762963 0.24751942 0.09484882 0.11103424 0.11269108 0.026353348 0.10997343 0.15595743 -0.08095043 0.042000744 -0.17989206 0.04460437 0.26372543 -0.16027708 -0.08929706 -0.15527529 -0.08766606 -0.0311925 -0.061792392 0.14606512 0.28823802 0.08485971 0.089311026 0.09329159 -0.058859423 0.39244395 -0.06657989 0.06027189 -0.028713062 -0.14336964 0.038709566 0.16118482 0.22380403 0.22633885 0.034323923 -0.0013196744 0.09450076 0.14965342 0.00924426 -0.26304883 0.116993494 -0.07200608 0.5047953 -0.19859734 0.20132165 -0.07272979 -0.11037698 -0.13512933 0.0061320784 0.0053811776 -0.13706844 0.42654938 0.24144192 0.13167252 -0.10968801 -0.029630203 0.049890265 -0.041193977 0.1077291 -0.05784754 -0.05465458 -0.044938825 -0.097640365 -0.1734341 -0.052834753 -0.07602998 -0.082347736 -0.122556776 0.10175837 -0.044605404 0.16979878 0.031070957 -0.05113183 0.14761253 -0.09250044 -0.2531178 0.34628588 -0.27247187 0.19476733 0.1287633 -0.1478325 -0.032100927 0.029185655 0.08601274 0.16909719 0.19855279 0.006709326 0.12832385 0.050877407 -0.19699743 -0.06366133 -0.020522436 0.0832597 -0.232234 -0.24012357 -0.1452792 0.031639643 0.1642399 -0.20204008 0.09528904 0.014103234 0.20715952 -0.1370611 -0.07767267 0.075124584 -0.3346405 0.19721098 -0.010664056 -0.06421296 -0.0037971542 0.0023308932 0.2001268 -0.05574937 0.004236351 -0.07722065 -0.028787903 -0.18173076 0.05764203 0.18149304 -0.08318591 -0.004101739 -0.11018102 0.1104811 -0.20142931 -0.23517698 0.004193618 0.10411107 -0.111663304 -0.11905 -0.10360305 0.19243361 -0.22291154 0.05449575 0.096974365 -0.0983805 0.21467718 -0.0865861 -0.105284855 0.008571071 -0.21500562 -0.19807285 -0.1709762 -0.35001174 0.29180995 -0.10845787 -0.11939353 0.069424 -0.0010882701 -0.021100659 0.08780959 -0.20791203 -0.1743432 0.14170578 -0.009549855 0.096456565 0.111244224 -0.16539007 -0.19935432 0.19660768 0.10941988 0.28291136 -0.37921372 0.07058941 -0.0051500923 0.23066668 0.085634224 0.15964921 -0.059098087 0.12009807 -0.10897655 -0.19971506 0.23787034 -0.12663713 0.19434117 0.15499525 0.3413649 -0.16617006 0.27810302 -0.2423712 -0.020586796 0.19699728 -0.18525432 0.28522068 0.050395757 0.13503714 0.13005517 -0.23946828 -0.06452229 -0.12784065 -0.07675894 
-0.056572616 -0.1330329 -0.029776873 0.13133518 0.15653023 -0.08196429 0.27173758 0.114758104 0.06033463 0.05930936 -0.09165364 -0.10825283 0.033611555 0.16903886 -0.20465074 0.2401536 0.1096769 0.13451436 0.22188321 0.21630464 
Rect
Linear 20 20
0.030451704 -0.14520659 -0.1426795 -0.2011866 0.006499199 0.118390016 0.10529127 -0.12636212 0.23157378 -0.07772946 -0.29655966 0.038019866 0.041105337 0.05451899 0.025294902 0.18673773 -0.076059066 -0.07000649 0.23480876 0.106153466 -0.09547956 -0.06752507 0.08754712 0.14765482 -0.15854153 -0.08930326 0.16308843 0.1806982 0.0030233462 -0.048351813 0.011379886 0.06217387 -0.15203007 -0.031406213 0.1269248 0.081313565 0.15828371 -0.19120945 0.21908987 0.036292844 -0.10898921 0.019736012 -0.052151762 0.18264727 -0.13140878 0.06630744 -0.07522555 0.1525963 0.15554844 0.22769304 0.08176917 -0.26135102 0.029608952 -0.14508611 0.07355766 0.06287713 -0.18687199 -0.19620223 -0.08509711 -0.21357383 -0.0869026 -0.08453734 0.1254656 0.1071237 -0.16782236 -0.030296922 0.053150088 -0.057053536 0.05400759 -0.019725636 -0.19765352 0.18578151 -0.16112264 -0.09916989 0.023882017 0.06833354 0.07257652 0.060628742 -0.17959346 -0.18198165 0.18982689 -0.20833454 -0.06692613 0.123069964 0.15159273 0.17884746 -0.07022709 0.11649863 0.106646225 -0.13361 -0.21110816 -0.06548855 0.19464578 -0.17254826 0.073205605 0.15293777 0.10795664 0.08432283 -0.042963464 0.105427355 -0.22095467 0.019631483 0.028390933 -0.054117173 0.20330673 -0.20092519 -0.14197755 0.19234717 -0.068848245 0.029264443 0.034771584 0.22149852 0.0029538586 -0.04353246 -0.08276174 -0.043267973 -0.16937461 0.0896892 0.0093583865 -0.16171247 -0.060708936 -0.047082856 0.07486731 -0.15381175 0.21549895 -0.2062885 0.2171804 0.0016781166 0.08481756 0.07456362 -0.19217479 -0.20101395 0.035369366 -0.050311003 -0.10013505 -0.09810822 -0.14938131 0.09595084 -0.18140689 -0.11236671 0.124343984 0.05784063 -0.11833587 -0.25164548 0.17771198 0.28977993 -0.010964302 0.26093364 0.0045674155 0.21782261 0.06391901 -0.36651444 0.056802556 -0.21281478 -0.041268777 0.011764475 -0.20253275 0.1405537 0.313014 0.05105577 0.10255253 -0.19680794 0.021750852 -0.11679196 0.006673619 -0.073628694 -0.12149787 -0.055767864 -0.20570539 -0.10027302 -0.10261163 0.21677786 -0.11186513 -0.0057822764 -0.06393808 -0.17601468 0.0634754 -0.16457848 0.08510828 -0.090729505 0.09852907 0.14235993 0.17258321 0.21108495 -0.051980235 -0.2217207 -0.07329743 -0.21524292 0.034535877 -0.20381193 -0.050401405 0.16819514 -0.008461622 -0.013089862 0.20746097 -0.11204731 -0.20819223 0.116461016 0.13830598 -0.040628076 -0.15740658 0.046866428 0.07322964 -0.15183407 -0.018271055 0.0049227187 0.16185315 0.047080193 0.24108507 0.22385266 0.10314311 -0.16740283 -0.10831537 -0.022548845 0.02311396 -0.118536375 -0.20480086 -0.051701907 -0.10315237 0.09399241 -0.118931375 -0.067563556 0.095025174 0.046325482 0.0019059199 0.12570159 -0.15869534 0.0581423 0.016538039 -0.2139351 0.0656024 -0.1499876 -0.05771062 -0.105454534 -0.20989078 0.14295775 0.13226454 0.025165332 -0.14731988 0.19815923 -0.08743068 -0.1736107 -0.17233428 0.016022803 -0.10622997 0.054349706 -0.19723342 0.008755127 -0.21250801 -0.086222455 -0.2313378 -0.2556658 0.16891034 -0.15651926 -0.14310886 0.25553635 -0.008155437 -0.11470184 -0.038300026 0.088504314 -0.15838982 0.09130756 -0.19068578 -0.20023781 0.11762676 -0.0060391277 0.07038716 -0.06325536 -0.15685223 0.14776349 -0.048146293 0.15567476 -0.061199173 -0.05658155 -0.050973997 -0.12906684 0.042382844 0.056328274 -0.0903034 -0.13846575 0.19521806 -0.043139275 -0.0042092046 -0.1758221 0.27068168 0.27203622 0.14760768 0.27462193 0.24128625 0.22649592 -0.10586761 -0.21881527 -0.036838338 -0.17718656 0.13437966 -0.106194526 0.014427351 0.1707465 0.11457206 0.30059612 -0.10143808 0.09827043 0.16261923 -0.13019781 -0.03433437 0.15693133 -0.18407132 -0.15230589 -0.22330303 0.16680089 0.17753097 0.10764053 0.04002805 -0.15300706 0.098305404 -0.12618802 0.14576204 -0.18057491 -0.18539256 0.14496236 0.102323025 -0.06882418 -0.124930695 -0.18837613 0.20378141 -0.07026935 0.04179319 0.11668498 -0.0701067 -0.101391815 -0.06297286 0.05706619 -0.02612951 0.07414594 0.059170548 -0.17635301 0.15226243 -0.06140713 -0.19898319 -0.12074678 0.06699135 0.14640684 0.19205132 -0.10933396 -0.09585655 0.28022724 0.26684266 0.18097001 -0.11158939 0.10717772 -0.024896009 -0.14702824 -0.1625738 -0.101042226 -0.06866605 0.13629928 -0.20829569 0.23901857 0.20350884 0.12924801 -0.08516179 -0.023116203 0.052196104 -0.17829193 0.06728081 0.12029672 0.11059377 0.1876098 -0.09315816 -0.23271692 -0.082577415 -0.15146333 0.12722379 0.05131596 -0.21356481 -0.18558805 -0.20856136 0.05412169 0.042336237 0.010078068 -0.062587395 0.20322613 0.18153591 -0.19163133 -0.15496293 0.06608415 -0.16339538 0.019623822 0.038759716 -0.15729927 0.16814844 -0.095650464 -0.13949186 0.006656583 -0.10073907 0.04541564 -0.12016389 0.13516496 -0.2061575 -0.059012603 
0.08186196 0.10959643 0.18611467 -0.06062253 0.006678941 -0.16654055 -0.074950315 0.08331749 -0.20153226 -0.1467256 0.13741003 -0.19871026 0.24112874 -0.11994724 0.029634703 0.12102772 -0.0032383264 0.105399676 0.17629512 0.20636186 
Rect
Linear 20 20
0.18104443 -0.19389732 0.20894596 0.07543096 0.07174137 -0.058650285 -0.12903368 -0.1615934 0.014610827 -0.17239717 -0.21481849 0.160757 -0.08328225 -0.19288127 -0.21600626 0.046867907 -0.14643896 -0.06736004 -0.14163701 -0.10493559 0.17641726 0.19393976 0.2348487 0.014115721 0.10996342 -0.18229663 -0.06614524 0.30938596 -0.15193447 0.12160899 -0.08928029 -0.2014784 0.16759917 0.20819339 0.38681257 -0.17128387 -0.21209124 0.25356373 -0.077663496 0.116886966 0.25951186 -0.026754895 0.28762445 -0.18194184 0.24205245 0.17135459 0.21940868 0.20409009 0.1362195 -0.140022 0.061372295 0.076669306 0.09749948 0.07787289 0.22138666 0.1631177 -0.185253 0.14668226 -0.080809526 0.02705082 0.18156806 -0.173752 -0.037716772 -0.15009242 0.24056138 -0.031291176 -0.08400786 0.09032102 0.0042254627 -0.12172672 -0.03297693 -0.13717929 0.2504957 0.1818484 0.22758944 -0.092472084 -0.13404517 0.27789187 -0.07013915 -0.22691855 0.13391006 0.12138807 0.19176093 0.04518327 0.009842311 -0.23168522 -0.046477538 0.18938427 -0.094903514 -0.08042191 0.13499819 -0.07161657 0.032776237 -0.21799427 0.034900535 0.032227572 0.09649213 0.08467973 0.14550701 0.14328867 0.12915632 0.10160085 0.23742735 0.0587357 0.17968564 0.13220581 -0.18524872 -0.105097815 0.15878001 0.21394317 -0.08627987 0.08621827 0.1993392 -0.18125312 -0.05125365 0.1873721 -0.03826022 0.10122291 0.09239192 0.04383604 0.20373248 0.19351044 -0.18591858 0.05850628 0.060769297 0.03165394 -0.07320996 0.09273518 -0.06804207 0.10911458 0.05893049 0.14334825 -0.019404091 -0.059605688 0.17176054 0.14278159 0.079428874 -0.2180202 0.09219058 0.017965611 -0.22123758 -0.21907133 0.03279403 -0.042138696 0.17095795 0.015673012 -0.17829494 -0.03642796 0.12156111 0.052592933 0.20034525 0.16638514 0.07065067 0.20528013 -0.13534063 0.018400103 -0.07457666 -0.055164397 0.030173123 0.15281156 -0.04825328 0.08492826 0.16847785 0.031062633 -0.027336756 -0.16660169 -0.124330014 -0.0048414487 0.044504642 -0.030576104 -0.20320468 -0.13265103 0.1302263 -0.01173087 -0.22769952 -0.20456618 -0.10383958 -0.20662138 0.1562561 0.17298007 0.017284723 0.11675179 0.16513623 -0.08684005 0.07280303 -0.07608078 -0.07206439 0.31059518 -0.009123981 0.09980382 0.16019775 0.13871238 0.100635916 0.011958 0.3032397 -0.1307965 0.00058146723 0.15189092 0.088349186 -0.05050229 0.111095145 0.075799465 -0.13949546 -0.05373332 -0.120950125 0.1156952 0.03590935 0.07349887 0.1084401 -0.016139008 0.15958868 -0.03723477 0.13371734 0.09793863 0.244859 -0.047811113 0.027322937 -0.20354421 0.20812266 0.00605646 0.07438128 -0.20051776 -0.042681113 0.18755889 -0.11214586 0.061809577 0.130865 0.106209025 0.20742232 -0.11181097 -0.16588444 0.064156435 -0.035718888 -0.15821247 -0.23263344 0.1903522 -0.11997119 0.19474036 -0.16514993 0.11033848 -0.057491947 0.13101296 0.25738794 0.18906322 -0.06899784 -0.067299165 -0.14209902 0.067474075 0.067818254 0.15311533 -0.0895524 0.14477563 -0.0071666585 0.0039909007 -0.052039552 0.03190848 0.016977323 0.20648946 0.21942505 0.16061874 0.118287 -0.009050724 0.13363685 0.16683024 0.15080425 0.14538704 -0.07297862 0.007275611 -0.09075411 0.112748876 -0.0534216 -0.22070858 -0.10109213 -0.17102715 0.0449721 0.16017266 -0.0077709323 -0.10150887 -0.07615514 -0.18361866 0.11550108 0.10849564 -0.12929505 0.16028664 0.10043959 -0.19724846 0.13594906 0.05756677 -0.11657773 0.10906069 -0.10844235 0.04341147 0.23871946 0.12441668 0.2040624 -0.13471009 -0.13307929 0.11542876 0.039047178 0.14714143 0.16865847 0.19568807 0.03370435 -0.14604363 -0.01605904 0.036328882 -0.13641013 -0.11609068 0.029004544 -0.15711814 0.0060773795 -0.20176718 0.090453915 -0.11723809 -8.571897e-05 -0.010724456 -0.11699207 0.0046487604 -0.21801962 0.15762693 0.007595612 0.06196485 0.1278101 0.1495566 0.16620786 0.15330712 -0.033466622 -0.029954754 -0.19131696 0.050356537 -0.0026221252 0.16293867 0.14891206 -0.03346064 -0.14039323 0.17109475 0.05954374 -0.13257776 -0.16146703 -0.21007212 0.12563771 0.1237025 0.030795412 0.116223484 -0.12862557 0.21880656 0.1114085 0.051433664 -0.045078725 -0.19499241 0.040347833 0.043996964 0.029642973 0.110053875 -0.117708825 0.25589213 0.020300873 -0.18255799 -0.115922764 0.08062203 0.19690368 -0.13343868 0.0066084685 -0.00930348 -0.13383617 -0.082724 -0.13923664 0.35637885 -0.14062724 -0.019642795 0.21091315 -0.041212015 0.26095852 -0.11728415 0.1451791 -0.017717592 -0.17824113 0.21964116 0.09683851 -0.25750652 0.07147245 -0.09663828 -0.11984987 0.087691694 0.042075552 -0.13695641 0.08086294 0.0110051315 -0.072818086 0.14982562 0.00245165 0.10018609 -0.053201474 0.07562223 0.036208194 0.1615605 -0.19433437 -0.07416541 0.10231497 -0.1093799 
-0.16324687 0.15983331 0.13986582 0.18914837 0.023637779 -0.042236246 -0.18062876 -0.14439252 0.058495063 0.0009579009 0.19627522 0.12788664 0.021061795 0.19799122 0.013419654 0.076726414 0.2583095 0.08054723 0.072162144 -0.049152777 
Rect
Linear 20 20
0.20738155 0.098374724 -0.073937505 -0.19809803 0.027996361 -0.0005800873 0.09651801 0.09436479 -0.2044661 -0.18470544 -0.06108859 -0.19197896 0.0110423565 0.1332713 0.21534285 -0.011801019 -0.17142318 0.15301001 -0.15251227 0.15656975 -0.07925798 -0.05721937 0.176605 0.10714638 -0.029663114 0.13701946 -0.19701543 -0.06255542 -0.13006918 -0.1189423 -0.1811358 -0.14137308 0.08233447 -0.116406426 0.23295662 -0.048380803 0.037729345 0.14497349 0.10655267 -0.14236805 -0.03196685 -0.037320703 -0.10104671 0.03351614 -0.17004871 0.04669544 -0.1527901 0.17606899 -0.026253954 -0.19801551 -0.16918021 -0.19843385 0.01875551 0.012262464 -0.11272124 -0.10864554 -0.16945933 -0.13096379 -0.08383244 -0.13291875 0.077076435 0.045087162 -0.12995286 -0.02968506 -0.09615938 -0.06424567 -0.024969192 -0.05674489 0.1910201 -0.024414279 0.10295918 0.18463275 0.008686444 0.026233338 0.040546134 0.20135605 -0.16474925 0.058095593 0.0085413335 0.09132554 0.018959567 0.23801373 0.24201141 -0.15585862 -0.11757269 0.117832266 0.07928271 0.12407741 0.15328352 0.2832187 0.119236514 0.020299328 0.2059426 -0.011885488 -0.007840236 -0.16131002 0.1982456 -0.14428544 0.021906136 0.21713653 -0.19763894 0.1800114 0.04980948 0.13923629 0.21201019 0.18236654 0.13337085 -0.000121712685 -0.12674889 0.25696057 0.12591264 -0.0074402536 0.0515403 0.07440962 -0.095701866 -0.18210106 -0.22826749 -0.026427906 -0.032256156 0.02311178 -0.17520967 0.1827707 0.1689787 -0.025565544 0.056651186 -0.004036212 -0.043545112 0.16808641 0.19982587 0.18944906 -0.18015179 0.16773456 0.13910559 -0.04504193 0.12680069 0.02135174 -0.15731053 -0.14937797 -0.035712667 0.12491278 -0.009665787 -0.15276247 0.16812153 0.10708412 0.04152089 -0.2060736 0.09074187 0.21858111 -0.057427835 -0.15449734 -0.016193464 -0.05019651 0.1641669 0.20485511 0.14841987 -0.08636212 -0.14689358 0.0316075 -0.23239203 -0.016670197 -0.11441051 0.16828312 0.25410986 0.18500307 0.2594862 0.14007178 -0.21524438 0.043786287 0.16098095 0.2004165 -0.15687169 -0.22974682 0.012917601 0.21799506 0.044500265 -0.09960606 -0.19852108 0.021508716 0.26467946 -0.09181513 0.20238465 0.20371106 0.27369562 0.18487103 0.0040359944 0.19357172 -0.15537263 0.16256511 0.049121473 0.2621656 -0.084306255 -0.1763823 -0.0184971 0.0023742244 -0.112045586 -0.22111121 -0.11823833 0.2027192 0.2830728 -0.21486488 -0.10327313 0.13513413 0.18557134 0.20629476 -0.16987951 0.1362638 -0.10289338 -0.11583845 0.19397648 0.13873811 0.22509961 0.0019119717 0.046634678 -0.10716898 -0.02440283 0.22036655 -0.041737266 0.071989164 -0.010185745 -0.18792391 -0.18063867 0.2225362 -0.08776079 -0.15655783 -0.18054152 0.17021325 0.014983982 0.019682392 -0.1746968 -0.13028818 -0.18214178 0.056813836 -0.09232588 -0.0488168 0.004776433 -0.007587552 0.034267068 -0.07727145 -0.12893298 -0.06147915 0.07140049 -0.16728766 -0.04343319 -0.114657804 0.058649182 -0.15539739 0.17829257 0.18595967 -0.1825319 0.046020836 -0.2172128 0.06394297 0.16935444 -0.020984441 0.13142014 -0.07941766 -0.10716696 0.06142789 -0.15205042 -0.08679342 0.16140184 0.07315237 0.1411745 -0.058880493 0.181336 0.1562352 0.111112565 0.12868544 -0.17985177 -0.17442639 0.0066890395 0.06274216 0.21763112 0.21106869 -0.12322849 0.16115327 0.12652707 -0.076114625 -0.27534425 0.0877381 0.033983886 0.031125693 0.14533892 -0.0892645 -0.09855597 0.04803044 -0.08678398 -0.13162939 -0.20854534 -0.22746421 -0.011709246 0.21004757 -0.1301983 0.06525276 0.09251205 0.05651931 0.041360147 0.20370808 -0.255522 0.18201558 0.18496907 0.269383 0.23310223 0.051920246 -0.12250403 -0.12981462 -0.19209354 -0.13866825 -0.216938 0.26071385 0.14256586 -0.08959804 0.022473184 0.053018965 0.061461918 0.15447728 0.10401132 -0.18781634 0.29701388 -0.0881072 -0.093663394 0.29120108 -0.08725196 -0.0005581578 0.068179116 -0.19326463 0.16368537 0.17535517 -0.23349857 0.060347974 0.05731969 0.1259123 0.10864348 -0.020685751 0.25665992 -0.05617337 -0.023931704 -0.19106987 -0.034761775 -0.057529844 -0.20449013 -0.061181065 0.027798673 -0.17819247 -0.20467998 0.20458381 -0.09745609 -0.1647491 -0.045415774 -0.15121497 -0.21483184 -0.005817109 -0.09811718 -0.056115277 0.07606755 0.026521405 0.22220989 -0.19091979 0.14859742 0.11949863 -0.061572477 0.22314322 0.26154128 0.077532604 0.11094097 -0.05475412 -0.017042624 -0.010714009 -0.13539594 0.13606618 -0.07811257 0.10345067 0.050297722 -0.17449592 0.26285902 0.05693686 0.06818694 -0.27393654 0.28761154 0.0748035 -0.01754205 -0.08643728 0.087631755 0.13608176 0.10784592 0.16406156 -0.20409262 -0.17411873 0.20213315 0.2554108 -0.0048426045 0.11557871 0.16657615 0.16160648 -0.06284506 -0.09174707 -0.14577682 -0.09378532 0.28410614 -0.0012935663 
-0.17871158 0.16010135 0.08803624 0.05508898 -0.11023127 0.14904049 -0.17532192 0.12662518 -0.036650334 -0.046149258 -0.18251501 0.03062725 -0.10533993 -0.047251943 0.17249076 -0.11355166 0.19958767 0.2217362 0.14976588 0.009415129 
Rect
Linear 20 2
-0.1711193 -0.06310361 -0.10804272 -0.021185769 -0.2753023 -0.13766389 -0.09872939 0.026014866 -0.15853421 -0.07169203 -0.17116128 -0.15232295 -0.162893 0.24646361 0.24497315 -0.30065396 -0.21018662 0.08008724 -0.16726445 0.016430302 -0.0796811 0.033199433 -0.056633383 -0.18399575 0.045912303 0.2409124 0.23407872 -0.17849627 0.16726005 0.3128268 0.06254221 -0.021648094 0.19122896 -0.03639539 -0.15281948 0.30973014 0.11521129 -0.23077859 0.21231425 0.24382737 
0.19107796 -0.11789672 
