Linear 17 200
0.048022974 0.20277886 -0.1839093 0.022766767 -0.043001253 0.036051378 0.20374583 0.02857592 -0.22973354 -0.1475566 0.13783461 0.18504556 -0.026117945 -0.12031604 -0.19797964 0.18535909 0.055257484 -0.18694876 0.04829202 -0.22590259 -0.046149682 -0.034748282 -0.1161998 -0.022405252 -0.052478105 -0.16755815 0.042226948 -0.06521869 -0.14400764 -0.14859562 0.02494774 -0.23310894 0.16346274 0.23212121 0.23525883 0.10586046 -0.043972142 0.21346278 -0.101770505 0.22732963 0.043236952 -0.08877234 -0.195187 0.2000449 0.22045283 -0.23044793 0.14414762 -0.11318603 -0.07557525 0.14388491 0.15604633 -0.16048536 0.04304139 0.027177894 0.14329718 -0.043988902 -0.029554514 0.010645325 -0.06295323 0.05972277 0.09170081 0.23302883 0.090378836 0.12893598 0.08805412 0.103224166 -0.12707146 0.12673463 0.066531084 0.16704331 -0.02533849 0.13092543 0.0623246 -0.27603838 -0.22817826 0.07373988 0.19368674 0.21926923 0.117846556 0.03824791 0.01716225 -0.02807183 -0.05119147 0.18830387 -0.026293939 -0.03772942 0.19751081 0.09184212 0.13241096 -0.12899277 -0.19271488 -0.20327714 -0.06658011 -0.23784408 0.09521153 0.09640804 0.12310803 0.17866872 -0.17303307 0.1267458 -0.18156824 0.14673313 0.15301424 0.1587984 -0.20374492 -0.17270282 0.063340105 -0.063069604 0.20780116 -0.0050180303 0.0849672 0.24550371 -0.21385404 0.033777118 -0.11916782 -0.041474245 0.048493713 -0.23468319 0.18318357 0.010149811 0.277851 0.20662089 -0.062279798 -0.07009909 -0.068763345 0.17997916 -0.04899498 0.1885789 0.22262077 -0.15260543 0.1886062 0.2073777 -0.14747655 -0.06383463 -0.05816213 0.08003079 0.10611792 -0.013355973 -0.1848187 0.030320648 0.059338197 0.0024680404 -0.19120747 -0.20381346 0.045403775 0.041959614 0.098972835 0.17146337 -0.0027237511 -0.06327717 0.15138164 0.024564166 0.0087498715 -0.19341794 -0.14267547 0.090986185 0.2025447 -0.08765899 -0.10804637 -0.19878174 -0.16290624 0.16401374 -0.12711266 -0.031843252 -0.013085836 -0.17604905 0.019320503 0.23951504 0.09299764 -0.014555192 -0.02648556 0.23206921 -0.05744404 0.20362516 0.048013162 -0.12707508 -0.044347394 -0.09476091 -0.19397494 0.20749772 -0.17071524 -0.22436805 0.09369409 -0.07574036 0.12795086 0.10656533 0.2367486 0.21258241 -0.106044255 0.23033236 -0.10102264 0.004366696 -0.056350503 -0.18349306 -0.15233836 0.17254037 0.057770427 -0.14221056 -0.0028933329 -0.19676566 0.21756274 0.14389032 0.03555555 0.11884289 -0.139675 -0.21706492 0.14300524 -0.2439396 0.1278812 0.11565099 -0.027876968 0.11609274 0.1865929 -0.043348406 -0.19746739 -0.062080782 0.054834697 -0.007509479 -0.16573675 0.17224489 -0.20713118 0.058553863 0.17290397 -0.044352602 0.21856207 -0.089245364 -0.14837919 0.24146011 -0.0326377 0.086491846 -0.0038041389 -0.03416948 0.05449322 -0.08221283 0.08808223 0.053424615 0.031139256 0.15162861 0.030898739 -0.22808671 -0.06049973 0.05379021 0.15328965 -0.06572318 -0.21678737 -0.08823082 0.17541896 -0.14704987 0.2142713 0.23528503 0.19365416 -0.060356516 -0.042895213 -0.031961184 0.10454755 -0.056691486 0.14243478 -0.028916027 0.20393205 0.1730392 -0.028679084 0.1385129 0.026669282 -0.15913714 0.04802129 0.14909728 0.09281619 -0.06697194 0.07590839 0.1090959 -0.11055317 -0.028344749 -0.06262992 -0.090052016 0.16653201 0.17125097 -0.15969138 0.25462666 -0.20166782 0.23018382 -0.19511019 0.098188244 -0.10282923 -0.18035474 -0.105746835 -0.12831156 0.25424233 -0.2109171 -0.16593058 0.0840037 0.18685861 0.18384533 -0.17976393 -0.06735401 0.030492261 0.05844812 0.08835555 0.08317145 0.030297589 0.07440503 0.04292148 0.18105456 0.21039745 0.2497163 0.044824988 0.14470924 0.036647696 -0.09478757 0.21374832 0.021192424 -0.22708274 -0.09949771 -0.1344701 -0.044893358 -0.2243935 0.18273063 -0.1402128 0.23902352 -0.2244177 0.04545707 0.15090406 0.051857594 0.23599319 -0.1576774 -0.020622753 -0.23050293 -0.22000575 0.10594581 -0.05520813 -0.17136748 0.15186666 -0.052362192 0.22892699 0.09203687 0.17392103 0.17795795 0.20515949 0.14875314 0.008687897 -0.12220021 0.017957447 -0.019019425 -0.21247862 -0.21704347 -0.053848553 -0.20101243 -0.14855552 0.078706235 -0.13729212 -0.029522274 0.11233513 -0.0496315 0.18872118 -0.0009857309 0.22980833 -0.13369414 0.10424257 0.032074373 -0.14565912 0.1251393 0.075748675 -0.009127196 -0.024405576 0.16764 0.13487954 0.03974163 0.08112879 -0.073296815 -0.22066559 -0.1023182 0.17579474 0.09979589 -0.21288382 -0.06186317 0.15069975 0.18280877 -0.18911134 0.18914351 -0.12102617 -0.17517012 -0.0020323286 0.18300885 -0.08335888 0.035219546 0.17871751 0.23944402 -0.14124253 0.23342465 -0.21708953 -0.06477774 -0.124879286 -0.0376809 0.13291825 0.08328905 0.012592519 -0.09860749 0.09643558 0.08272118 -0.025027938 0.16537234 -0.004846878 0.014962801 0.14335863 0.19776961 0.050450806 0.028055368 0.15346877 -0.2157349 0.20174596 -0.19236836 0.18105705 -0.06710182 0.10247016 0.23275842 -0.032554172 -0.10940539 -0.18025526 0.14515758 0.20236431 0.09760494 -0.15672077 0.027048603 -0.07090523 -0.1887381 -0.07777658 -0.028813899 -0.26448652 0.028734574 0.22727194 -0.12225909 -0.038685728 -0.07016297 0.03791236 0.19813521 0.08731047 0.19365837 -0.05911632 -0.18750244 -0.027416352 0.20839523 0.11709444 0.15643895 0.015741061 0.20613633 0.15051943 -0.11626443 0.19309181 -0.22521228 0.20728227 0.08313147 -0.08240155 0.11693516 -0.08681367 -0.20372415 -0.019307699 0.25809836 0.074595034 -0.16892093 -0.03982826 0.059290584 -0.15528464 -0.020299379 -0.07731235 -0.07617437 -0.05379275 0.20424953 -0.23257402 0.12769975 0.2370929 0.10594509 0.021226725 -0.07059834 0.15197164 -0.21120054 -0.10661296 0.041111477 0.16616008 0.03641785 -0.24834968 -0.00827488 -0.12902556 0.15789987 -0.11670048 -0.057558067 -0.17313676 0.21904711 0.008648633 -0.0010267133 0.1676686 0.18828852 0.023587765 0.21600103 -0.12259117 -0.1483646 -0.23852515 -0.10105234 0.1146133 0.18817061 -0.18000495 -0.017517054 -0.243708 0.011890441 0.012697018 -0.13182671 -0.08643038 -0.2305369 -0.05713783 0.23729311 -0.12317598 0.11212266 0.019106219 -0.102805495 0.111085616 0.2157602 0.011708877 0.2003738 0.18408734 -0.1271484 -0.06715754 -0.12544163 -0.18355645 -0.19460444 -0.048412774 0.16963759 0.22360237 -0.0531275 -0.10121699 0.1713986 -0.14048763 0.16536495 0.009628975 -0.10596379 0.017377313 0.013865748 0.086958535 -0.100697964 0.17852385 -0.08538924 -0.13598062 -0.047984265 0.15871434 -0.07213856 0.22219469 -0.00771032 0.044754166 -0.032238793 0.18192486 -0.13692527 0.064484954 0.019511413 -0.10893819 -0.102054134 0.246736 -0.0589525 -0.19911034 0.09507421 0.2117997 0.023592995 0.14995998 -0.104631506 0.06748672 -0.2264617 -0.10811441 0.029099885 0.075636856 0.05220928 0.1558475 -0.12583163 -0.20605011 -0.13700667 -0.071516864 0.063479535 0.20256731 -0.09052444 0.24297458 0.036388453 0.077406615 -0.19001122 -0.18599899 -0.07565403 0.06257702 -0.22071615 -0.22407347 0.09089298 -0.017028246 -0.1039999 0.11833605 -0.014334732 -0.049662955 0.22655064 -0.1457022 0.1387179 -0.104626335 0.07104037 -0.006027613 -0.0029592072 0.21599616 -0.16296753 0.23395728 0.2001369 0.21593322 -0.1518483 -0.23389573 -0.18527761 0.23402946 0.20202062 0.013913858 0.0048020673 -0.20896664 -0.090994135 -0.08773927 0.2249847 0.047386497 -0.18054879 0.22502705 -0.22798897 0.24111916 -0.045790892 -0.18353404 -0.050674964 0.015472437 -0.21213944 -0.23776293 0.09830075 -0.18499449 -0.03081479 -0.12051962 0.21228527 0.00738422 -0.21824108 -0.041700777 -0.027408618 -0.16701141 0.12706125 0.2314306 0.11684761 -0.11599599 0.09867238 -0.10704979 0.15484762 0.21050018 -0.020821886 -0.1241988 -0.19951433 -0.123072214 -0.11967533 0.1666199 0.13383144 0.13978907 -0.17110103 0.01587177 -0.124764025 0.07768894 0.20686194 -0.17966329 0.23989181 0.107198045 -0.12533186 0.19853677 -0.17752835 -0.27048343 0.23970115 -0.24443118 -0.22492313 -0.15550911 -0.19504604 -0.18922894 -0.107631005 0.08776089 0.122435614 -0.023403794 0.22204797 0.21733819 0.15748253 -0.12653358 -0.13240227 -0.21605204 0.0015046055 -0.014772268 -0.08689082 0.00025175768 -0.20984414 0.02315061 -0.03978609 0.10546826 -0.07237554 -0.22544885 0.14625368 0.2311689 -0.09583104 0.08979237 0.23776971 -0.08129805 -0.026143046 -0.24472675 0.011302115 0.20738712 0.16924277 -0.23726515 0.018231483 0.094070554 -0.099483326 0.057274554 -0.108822174 -0.15022221 0.17750375 0.09438015 -0.13198036 0.069628574 -0.18800186 0.021745607 -0.07194132 0.19816358 0.23509337 0.15611807 0.11650528 -0.09445116 -0.006587499 -0.074760206 0.102064386 0.21300322 0.08186006 -0.05458061 -0.06314283 0.056667924 -0.19812152 0.034129836 0.15388651 0.1640121 -0.030667251 -0.11598749 -0.1568303 -0.120574445 0.079292566 -0.090926096 0.15335539 -0.0132043725 0.11709413 0.17143798 -0.11387745 0.09533265 0.010570275 -0.09337902 0.033923324 -0.07486229 0.044102054 0.019618943 0.056786634 -0.10946941 -0.012628132 -0.23636755 0.043530006 0.20652281 -0.20542213 -0.20325086 -0.08222287 0.04934399 0.059049908 0.07262083 0.029518537 -0.13129473 0.09252843 0.0677091 -0.06961045 -0.07154603 0.14934121 0.1538299 0.085218474 0.10539692 -0.056706883 -0.09235618 0.053372048 -0.18706042 0.23168485 -0.20208105 0.011876447 0.21812136 -0.16803661 -0.07473487 -0.0042361175 0.16991015 0.20824508 -0.0026421186 -0.051151875 0.04349814 -0.07257678 0.2380567 0.024886407 0.07228519 -0.21664515 -0.116306424 0.10366019 0.01678957 0.14933206 0.17856467 -0.14455746 0.07941782 0.13000722 -0.121382095 0.22198865 0.16969113 -0.21208462 -0.02569272 -0.12644303 -0.14848146 -0.15034276 0.19814412 0.09796999 0.14784072 -0.116851754 0.05086752 0.11870564 0.056150526 -0.020615399 -0.20486774 -0.19669472 -0.1440811 -0.12769182 0.13052051 0.0819233 -0.23066418 0.15151668 -0.13514064 0.12621182 -0.03166272 -0.15503107 0.22131407 0.019740004 0.050861266 0.11249904 -0.07636736 0.0121620735 0.03906647 -0.040075734 -0.11671984 0.17916338 0.14825778 -0.0036222236 0.19576435 0.15589029 -0.07853821 0.17745556 0.022151286 0.16909206 0.18406977 0.12700486 0.17904747 -0.07251433 0.10590136 0.14115988 0.09992315 0.0948203 0.14630786 0.057747085 0.15912712 -0.063114695 0.21919912 0.1482587 0.13885918 0.029260624 -0.17133415 -0.2016557 -0.08637289 -0.0033872416 -0.04660885 -0.01556937 0.041550886 -0.10760148 -0.13403226 -0.130287 -0.16168712 -0.18466592 -0.19538924 -0.0670658 -0.01535138 -0.055776495 0.23576087 0.01715549 0.12416974 0.23060754 -0.19954872 -0.15897438 -0.04818726 0.17533876 -0.1177576 -0.06989682 0.10838997 -0.19977899 -0.20189776 0.007706258 0.09105633 0.07943322 -0.07066734 -0.11534195 -0.23342 0.11743055 0.056917205 0.0022921453 0.2145427 -0.119994015 -0.2255943 -0.04617934 -0.21515785 0.19105957 0.07379556 -0.14630726 -0.12984973 0.037706822 -0.12506305 0.14008185 -0.09033959 -0.23681103 0.10522834 -0.12126512 0.0002529661 -0.17295183 -0.22845833 -0.00056169444 0.17266965 -0.22874135 0.13143478 -0.026122369 0.19067061 -0.25890636 -0.18657783 0.09052493 -0.18932037 0.13397975 -0.2001315 0.022605741 0.242583 -0.22110742 -0.21166718 -0.122104324 0.030424893 -0.23197642 0.232828 -0.17269953 0.25021854 0.07608414 -0.042634096 0.23548669 -0.0955504 0.22051464 -0.084917314 -0.1309851 -0.101870485 -0.17629804 0.13081835 -0.053822443 -0.12721956 0.15835114 -0.22434747 0.07096903 0.14194499 -0.194852 -0.0001590171 -0.22188789 0.063320704 0.23412037 0.047748126 0.17033729 0.13129753 -0.10444115 -0.1796594 -0.026162937 0.085851885 0.10059485 -0.10332293 0.14054035 -0.15222017 0.14175372 -0.090018004 0.08333936 0.054281067 -0.22804357 -0.060577158 0.2346459 0.1288859 0.060180392 0.049833354 0.11804563 0.13237001 0.1821621 -0.11517161 -0.07013859 0.2191091 0.18733491 -0.079690106 -0.07627461 0.23117447 -0.13520928 0.06649624 0.21382648 0.12712215 -0.069790676 -0.21280055 0.20404689 0.16468994 -0.16826299 -0.17203759 -0.0041877204 -0.08604505 -0.0007613831 -0.08856126 0.16880925 -0.13602817 -0.194272 0.09955666 -0.07278775 0.14161688 -0.13094372 0.21764435 -0.0801961 0.11222135 -0.14919333 -0.033390913 0.13252379 -0.21922995 -0.15143113 0.08374036 0.05301678 0.033003412 0.09563484 0.078141205 -0.20927592 0.21930458 0.0022895853 -0.14044176 0.09538218 0.07398442 0.0026804213 -0.100661546 -0.19588159 0.0063949465 0.14854553 -0.12913921 0.11352359 0.11984516 0.17769891 0.22321461 0.17925754 0.027331363 -0.09504449 -0.1363828 0.12582399 0.23522605 -0.092970364 0.12491115 0.053362947 0.07334601 -0.13272299 0.10424117 -0.12442813 -0.14237897 -0.2372724 -0.0147781335 -0.14780411 0.23220424 0.24781308 0.2152411 0.19423516 -0.12448006 0.24303386 0.20855589 -0.12523195 0.14680015 0.14624555 0.13890576 -0.1544909 0.22008236 0.22266394 0.18837434 0.122406125 0.12033944 -0.20642394 0.27274516 -0.2088214 0.24144687 0.12836592 0.03462251 0.06746522 -0.21513103 0.20175795 0.104992725 -0.0041214623 0.21623908 -0.054166038 -0.06804804 0.03762989 0.082025416 -0.18031392 -0.049667384 -0.037862007 -0.02895289 -0.1445777 -0.027205631 0.102145724 0.110097915 -0.08736696 -0.10353809 0.2198064 -0.17016162 0.0374633 0.18094955 0.08342197 -0.20983015 -0.1319672 0.12506387 0.20634377 -0.03217216 -0.20755844 0.17988546 -0.228886 -0.25294185 -0.19227241 0.1323466 -0.10161358 0.10902561 0.062248137 0.11237652 -0.15019791 -0.24921241 0.22188327 0.19275291 -0.123028725 -0.12772466 -0.050112806 -0.04530682 -0.16385102 0.19613217 0.10878703 -0.091595516 0.22149579 0.19560581 0.08587218 -0.05768971 0.24564768 0.0061901994 0.13616732 -0.049519803 0.11505469 0.23184642 -0.061275557 0.11537765 0.06697214 -0.020569159 0.08803627 0.14417866 -0.2046696 -0.21547519 -0.1672849 0.19916527 0.15392444 -0.18503608 0.042060167 0.13207994 -0.015332153 0.16552113 -0.17977338 0.15927836 0.04526957 0.012903797 0.19058481 -0.07723748 0.0260191 -0.13077156 -0.008650684 -0.1681217 -0.18537612 0.10899073 -0.09264288 0.15742598 0.18865068 0.053929675 0.0914795 -0.20444395 -0.14507517 0.15731739 -0.15681508 0.15158848 -0.1623312 0.012599689 0.16893004 0.22690605 0.19072665 -0.21065226 -0.0597223 0.061391957 0.21675248 0.106373705 -0.06414852 -0.071449995 0.09636674 -0.1928245 -0.13561586 0.16337435 -0.09633537 -0.120959826 -0.05684825 -0.17189154 0.10494353 -0.17524067 0.15633467 -0.22086714 -0.088760525 0.10522542 0.045931384 0.16015357 -0.14413221 0.07370268 -0.16916732 -0.0993054 0.12538509 -0.20011857 0.19343883 0.0043285554 -0.19325598 0.029337006 -0.2040879 0.2075031 -0.1340311 -0.07687993 -0.015810821 0.14655764 -0.21446455 -0.15283732 -0.0437496 -0.17879063 -0.09507101 -0.0027337973 0.13595021 0.21798487 -0.22297977 0.16951944 0.11742024 -0.14825849 -0.16671632 0.0512216 -0.08344484 0.19351754 -0.089986764 -0.15243287 0.033694867 0.09888474 0.1437314 -0.19335143 -0.17661296 0.23601162 -0.088673666 -0.052419085 0.18861091 0.030368993 0.20495309 -0.20466259 -0.20604952 -0.15750894 -0.21636601 0.21321392 0.1650397 -0.08525745 -0.19017203 -0.20936233 0.17391932 -0.15205978 0.08791721 -0.06936311 0.12014507 -0.10783706 -0.15050192 -0.10904993 -0.04180087 0.08359477 -0.16261955 -0.02093319 -0.20578894 0.18184868 -0.14567539 -0.013268113 -0.09705675 0.13709551 -0.17069224 -0.213349 0.07262632 -0.1399911 0.21833628 -0.19317782 -0.18814936 0.07696417 -0.14787798 -0.21829928 -0.06078303 -0.06329251 -0.16249508 -0.21850388 0.21425389 0.06949678 0.03092841 0.093725234 -0.16978426 -0.21862042 0.051759887 -0.09522739 0.098304585 -0.04875386 0.026276259 -0.058393262 0.099891156 0.18822768 0.23504637 0.16486725 -0.018453907 0.10907086 0.19317168 0.019651853 0.037334394 0.090141006 -0.2343939 -0.19270854 -0.17826003 0.03767421 0.23706733 -0.20632742 0.24625818 -0.15291592 0.2119739 0.008032721 0.22329694 0.100954205 0.0032431341 0.22207806 -0.06125226 -0.1766212 -0.2132935 -0.16092265 0.18660377 -0.15055889 -0.17114744 0.1488892 0.16320659 -0.2643183 0.18698448 0.08526093 0.22357045 0.06416549 0.0026980154 0.118015364 -0.06649372 0.19146384 -0.16448231 0.20272192 -0.10414743 -0.21949956 0.07020837 0.15849538 -0.2157718 -0.09121802 0.21543688 -0.1908202 -0.046211436 0.14786246 0.010906538 -0.031148868 -0.11030166 0.021772044 0.052221358 0.027437681 -0.060706243 -0.21683225 -0.08903522 0.054619968 0.07723299 -0.10370324 0.013905886 0.1370687 -0.18635096 0.11924921 0.24109678 0.18205094 -0.21111812 0.02757021 0.20192833 0.09571511 0.12032878 -0.21971087 -0.18839134 -0.00037007607 0.020477246 -0.08752089 -0.07995472 -0.0053007123 -0.23614848 0.12024423 -0.116130136 -0.056042794 0.16410992 0.19560099 -0.08991512 0.18773022 -0.13602087 -0.16871333 -0.16023314 -0.071977325 0.21355145 -0.19942838 -0.17451483 -0.03100476 0.17452829 -0.052692287 0.024375876 0.17556167 0.10817733 -0.0016876883 0.18084294 -0.03580614 -0.03651196 0.05189627 -0.024310814 -0.18549557 -0.24049091 -0.19880055 0.22334227 0.18008634 -0.0022131167 -0.0034096828 0.11003301 -0.014645236 -0.12165447 -0.10082729 0.08746628 0.20461558 0.027114224 0.09612531 -0.13566585 -0.013001431 -0.10616581 -0.1579318 -0.12672977 0.026263082 -0.06641695 -0.050144207 -0.21096773 0.17329638 0.07104324 0.115747444 -0.17324014 0.15567522 -0.20080052 0.08024502 -0.12958422 0.17985818 0.14235552 0.1821322 -0.20116568 0.10239811 -0.16344692 0.1585623 0.16665287 0.08095948 -0.2340452 0.14882807 -0.0760147 -0.12871346 -0.0024191132 0.009664431 0.20347339 -0.17363295 -0.010280377 0.099944465 0.044696517 -0.22148442 -0.094065696 -0.023236003 0.123051055 0.09227051 -0.06997326 0.114957556 0.19562124 -0.15706138 -0.0874242 0.24648613 0.22793363 -0.02228035 0.0368571 -0.09399206 0.10475491 0.1621836 -0.2194489 -0.09038979 -0.025657423 0.023421448 0.056190707 -0.21820295 -0.25899237 0.044827335 0.24278656 0.044608116 -0.09110384 -0.1920489 -0.20167446 -0.18575191 -0.12977418 -0.1471192 0.1361993 0.1451087 0.00059966743 -0.060336307 -0.14929628 0.1460084 0.059939176 0.099172205 -0.038021907 -0.18265751 -0.08611256 0.06880612 0.17585367 -0.1480581 -0.10434111 -0.23384711 0.20710227 0.20361884 -0.17608081 0.07670646 -0.021915996 -0.090764455 -0.18541014 0.1185641 0.11471262 0.118656866 -0.16082366 -0.08899733 -0.11044539 0.12832063 0.10483875 0.046957508 -0.031168085 0.16031905 -0.1459428 -0.12317224 -0.23104127 0.081678 -0.22820431 0.20074905 0.036679335 -0.16318512 0.11197889 -0.15105578 0.05440427 -0.2412036 -0.10786447 -0.093568034 0.06739684 0.19338708 0.21347281 0.043406572 -0.19200423 -0.07488558 0.24851458 0.03213733 0.038006812 -0.06934138 0.12222584 0.18408214 0.15755318 0.2047927 -0.10523276 0.011556593 -0.054961637 0.0366612 -0.118174106 0.13268664 0.011378631 -0.1886335 -0.049785297 0.2175729 -0.08963826 0.04162035 -0.15123929 -0.12459904 -0.17421502 -0.10897974 0.0029392212 0.20784381 0.056760456 -0.1506917 -0.147968 -0.16959633 0.044396427 0.2058471 -0.1524949 -0.0066488883 0.117440104 0.14922182 0.059989996 0.026071021 -0.1890983 0.053432133 -0.028435586 -0.121847585 0.23228739 -0.07569301 -0.14914252 0.2083362 -0.24336101 0.05591674 0.1839655 0.05701476 -0.11947655 -0.040750366 0.08888508 0.09546395 -0.06303956 -0.12177075 0.17960192 -0.0643648 0.055368666 0.09701869 0.09483247 0.18694803 0.102565356 0.04445726 -0.006080086 -0.03631583 0.1258337 -0.07231705 -0.13253973 -0.0577189 0.20884353 -0.0941553 0.103849255 -0.07559495 0.076757506 -0.19174162 -0.12520331 -0.17725585 0.07452095 0.047703385 0.1542394 0.13729866 0.17353705 -0.19829378 -0.17729333 -0.01890573 0.0460032 0.039298404 -0.1660924 0.013350137 -0.2297423 0.10380427 0.04887614 -0.1618459 0.044505347 -0.14522775 -0.16573416 0.04912983 0.020490848 -0.13205847 -0.1671822 0.031869438 0.16726498 -0.16655178 0.10311961 -0.03467329 -0.09583834 -0.05440086 0.23326452 0.12408913 -0.0908639 -0.015971545 0.10919155 -0.12247066 -0.23854285 -0.21987332 -0.10083836 0.23119761 0.09692146 0.113042004 0.010549939 0.14927563 -0.033616755 -0.09247546 -0.11207248 -0.2154527 0.21182033 -0.025517363 -0.21217272 -0.1729835 0.12737685 0.13245839 -0.04096946 -0.11908458 -0.20431826 0.014639849 0.024138266 -0.10546081 -0.08236939 0.12229391 0.23134325 0.03359245 0.22317433 -0.18420579 -0.078160375 0.22840028 -0.007047348 0.007570053 -0.1602663 -0.1855158 -0.08650761 -0.23852251 -0.18251018 0.23079516 -0.028287932 -0.092296734 0.07319216 -0.06770222 -0.10907065 -0.22349769 -0.040741786 0.1267198 -0.039573893 -0.23661293 0.013583034 0.006646961 -0.115324676 -0.1636957 0.11842522 -0.20607214 -0.223073 -0.09744944 0.10493153 -0.02368258 -0.17304873 -0.2233159 0.1310001 0.037132703 0.20926134 0.060599923 -0.17221065 -0.20508063 0.07657888 0.08125579 0.07842611 -0.042105105 -0.017280422 -0.22991133 -0.20060316 -0.10551981 0.20743594 0.2185571 -0.11239087 0.1868455 -0.08256802 -0.15117785 -0.2344119 0.046592444 -0.1385659 0.14574063 0.12614587 -0.22737835 -0.054489568 -0.19757862 -0.17725763 -0.06365821 -0.09998116 -0.10494538 -0.0022171587 -0.09754445 0.19175297 0.13662323 0.22656254 -0.14637068 -0.1655018 -0.09653359 -0.07899102 -0.144697 0.025553852 -0.20644103 0.015473462 -0.1302112 -0.01732643 0.12576656 -0.19676991 -0.11094848 -0.10481178 -0.21550292 0.21283054 -0.14518836 0.17718461 0.07714539 0.22024478 -0.20530453 0.07444134 0.04950162 0.22329085 -0.14857633 -0.08463743 0.07609646 -0.14563069 0.050311267 0.18611896 -0.045784794 -0.10169578 -0.19060613 -0.18391484 -0.0320356 -0.028552584 0.18755856 0.0012299498 0.043451868 -0.17761673 0.18498017 0.02800077 0.061190926 -0.11901401 0.013405295 0.031199003 -0.076891385 -0.002271855 0.1010746 0.10766935 -0.15287545 -0.15607926 -0.09587663 0.099451296 -0.16922227 0.104747385 0.0454058 -0.0700964 0.021084094 -0.0361713 -0.14452441 0.22345851 -0.1744109 0.25212857 -0.12345107 0.10466225 -0.17271152 0.06035575 -0.024685767 -0.08243944 -0.14217725 -0.04396205 0.20028855 0.20808218 0.20860557 0.010141147 -0.19250484 -0.10335529 -0.18990187 -0.06514395 -0.17387252 -0.1481729 0.024288172 -0.0475122 0.0984082 -0.022403954 -0.17631145 -0.0046294443 0.12048345 0.036468655 0.124588005 -0.091422364 -0.029795608 0.01691911 0.18610051 -0.053186677 0.09855455 -0.10173084 -0.23726225 -0.19176172 0.18779705 0.0048162676 0.10871614 0.2044327 -0.2280373 -0.092220075 0.20238297 0.01773194 0.0054726503 0.06166455 -0.04722937 0.06225886 -0.20355655 0.09203555 -0.23620144 0.14407921 -0.20925847 0.049971763 0.056138046 -0.15357755 0.19925377 -0.10645657 0.04725322 -0.094170004 -0.19679688 -0.15694267 -0.15682176 -0.18993862 0.23011588 0.09933319 -0.10064699 0.19453798 -0.16435555 -0.10413668 -0.20672363 0.13247415 -0.005444236 -0.13819882 -0.022433143 -0.098888464 0.04214459 0.16602597 0.22693226 -0.029719146 -0.13854977 0.16462083 -0.20037405 0.15672939 0.20314679 0.127645 0.15771551 0.16329484 -0.22785385 0.22816236 -0.13786697 0.11073576 -0.1662282 0.2359675 -0.0025510231 -0.11251233 -0.23435454 -0.024318403 -0.07063624 -0.13655311 -0.07812891 0.15211698 0.07759839 -0.024840403 0.14925523 -0.123632975 0.19824237 0.16436438 -0.11793734 0.18865095 -0.04986 -0.08254193 -0.17009062 -0.063147284 0.18909158 0.17021404 0.13619919 0.18785694 0.10166716 0.14442933 0.18572278 0.10245896 0.12231228 -0.095542476 0.021596484 -0.14487118 -0.16603135 -0.073150545 0.09717987 -0.10998821 -0.15548524 -0.051784262 -0.005623167 0.23005898 -0.14050277 0.07784209 0.15314625 -0.13268787 -0.08510783 0.14563376 0.01292422 0.1072813 -0.19004966 -0.22879146 -0.105649784 0.08403808 -0.07473567 0.15573221 0.0771526 0.14958051 -0.24918498 0.08408108 0.09953896 0.18232514 -0.127486 -0.14067325 0.0076476336 -0.004401217 -0.06829621 0.09705986 0.11540225 0.1539503 0.049262106 0.14845134 0.16787581 0.019746944 0.118234396 -0.08401609 0.16735303 0.062321603 -0.17003089 -0.22054717 0.0019707838 -0.20104077 0.24523771 0.123252176 0.12506391 0.15112638 0.14406951 -0.191771 0.24574767 0.20555584 -0.23553662 0.21664982 -0.17108445 0.1872534 -0.23958704 0.18919225 -0.13340233 -0.11766362 -0.13344666 0.104636215 -0.005226174 0.062249407 0.037115153 -0.2380457 -0.17570186 0.18898796 -0.10351129 0.13633339 0.21747443 -0.060317796 -0.2051472 0.07759536 0.021218218 0.22597134 -0.10856875 0.18393151 -0.13985948 -0.1106875 0.092510186 -0.16137062 -0.04925265 0.2130744 0.11129441 -0.16043821 -0.22088645 -0.14198615 -0.08990143 0.07635326 0.06561384 -0.052854713 0.12664491 0.17772901 -0.10990904 0.21421468 0.12275978 0.015717955 -0.10255605 -0.17482868 -0.16173056 0.066261224 0.102370925 -0.10116876 -0.14620826 0.08445157 -0.11881746 -0.017631974 -0.15548792 -0.07086722 -0.1455031 -0.031199371 -0.22356133 0.17185903 0.027686529 0.010445389 -0.01740388 0.09797594 0.016251862 -0.19405557 0.1915947 0.11256601 0.15455881 -0.14619532 -0.076054074 0.17520578 0.22762392 0.23639509 -0.024327064 -0.084213175 -0.17213735 -0.08112473 0.065576255 0.07785174 0.1897103 -0.16844517 -0.10966698 -0.103955746 -0.011214642 0.049141206 -0.05559725 -0.15086754 0.14798902 0.117001735 0.1508292 0.16817294 0.014138859 0.22918518 -0.21527146 0.19665425 0.18498397 -0.13512534 -0.20765303 -0.12629358 -0.020680292 0.030026173 0.12149277 -0.13662069 -0.124670185 0.18577473 0.20681915 0.010811849 -0.031048212 0.17955303 -0.22057177 0.05356444 0.16435118 -0.11580158 0.0142970225 -0.23589559 -0.09955641 -0.04078748 -0.121819355 0.09797906 0.22128284 0.18933523 -0.2286785 0.08594549 0.16454071 -0.1003433 -0.20663778 0.06268829 -0.09258393 0.08946371 -0.13652937 -0.151524 -0.10441325 -0.039879084 0.11901979 0.1540886 -0.07917988 -0.11281849 0.2198166 0.11850454 -0.13666649 0.15817761 0.1987659 -0.1902722 0.08554628 0.21026947 0.24222395 -0.17296934 -0.010807663 0.22796644 -0.21198693 0.24187435 0.09622143 -0.1543236 0.009661562 -0.23528916 -0.23455589 0.040216595 -0.06435822 -0.06759474 0.07381969 0.030618135 -0.02781048 -0.06490302 0.029805306 -0.23654649 -0.13317929 0.1850026 0.2418974 -0.16619062 -0.08004024 0.054714672 -0.122000396 -0.15122135 0.009022317 0.037789084 0.19041134 -0.16279998 0.012741527 -0.17127843 -0.093358144 -0.17830734 -0.18714616 -0.16326772 0.16869955 -0.07109926 -0.22636738 -0.08686028 0.24827975 0.10101923 0.13522688 0.1854164 -0.1428034 -0.15076262 -0.08161982 0.17064117 0.06457357 -0.049161486 -0.2301796 -0.011464563 0.06918161 -0.19441634 0.19517228 0.11793361 -0.14113887 -0.18772107 -0.18773046 0.17195761 0.21667887 -0.16984075 0.11579711 0.05667153 0.121375255 -0.1031889 0.20122217 0.21645673 -0.011671791 0.005012401 -0.23976228 0.0556666 -0.15739423 -0.2102222 0.17394328 0.1494273 0.13178474 0.18514371 0.16645268 -0.128559 -0.088775605 -0.0034762693 0.1330769 -0.014422541 -0.20382856 -0.039374307 -0.14443138 -0.089036256 -0.05627865 -0.06854702 0.01432712 -0.10640515 -0.15893507 0.23922324 -0.15773682 -0.042653892 0.10133552 -0.0038083605 0.15500742 -0.13409485 -0.046256147 0.092720695 -0.027760055 -0.17269793 0.046845645 0.15776208 0.0762654 0.024554547 0.1416769 -0.07347332 -0.17429458 0.15729533 -0.12724297 -0.081473835 0.0370397 0.11969099 0.14658278 -0.06614945 -0.19490696 0.052720346 -0.21476433 0.010721279 -0.22864427 -0.21402366 0.23175223 -0.20574147 0.020066684 0.17148237 0.0033538535 -0.2206673 -0.13885039 0.036282282 -0.19957006 0.19575559 0.06739364 -0.11700428 -0.043484133 -0.06847605 0.09428667 -0.19993824 -0.20394018 0.07391426 0.013777183 -0.019541921 -0.1959185 0.09903484 -0.12484291 -0.17286989 0.18941942 -0.18266389 -0.017183308 0.120148756 -0.22134037 0.21013233 0.07922309 0.13396423 0.21350025 -0.08852364 0.17922273 0.15747626 0.06499948 -0.112530015 0.20236988 -0.19633377 0.11566466 -0.23780252 0.09030905 -0.20552127 -0.06525739 0.19147262 0.049483042 -0.018282166 -0.09487445 -0.11277439 0.23074447 -0.18448083 -0.097512305 0.048468284 -0.15664038 0.21441133 -0.0008843714 -0.20650885 -0.09906179 0.05421163 -0.15067586 -0.15862535 0.012539805 0.13505886 0.10580221 0.061804138 0.23649347 -0.20331694 -0.03619585 -0.15056166 -0.14006169 0.22173186 0.15878694 -0.23769452 0.124594584 -0.2133546 -0.22441961 -0.12095879 0.070820935 -0.033299662 0.15288632 -0.15496942 -0.12015795 0.058936965 0.22666676 0.18432756 -0.22441033 -0.15165415 -0.10372704 -0.049522925 0.20739529 -0.13939415 0.062636994 0.1777825 0.0101469755 -0.09855207 -0.13205454 0.007836021 0.06200399 -0.1365903 -0.051133547 -0.1012823 -0.13443084 0.12052327 0.191728 -0.03249266 -0.0024938101 0.036536824 -0.035406396 -0.1532682 0.19845815 0.082534626 -0.23936214 0.03598706 -0.16761915 -0.18756706 0.08351524 0.18371113 -0.13342711 -0.05448653 -0.04499348 -0.16446988 -0.12231176 0.04277927 -0.15577476 -0.20614299 -0.113770805 -0.0017284765 0.16370946 0.10703211 -0.23473473 0.04984055 0.13071851 0.03665281 -0.20289311 -0.1960247 0.12805738 0.18597099 0.12231757 0.036834624 0.08727931 0.060321067 0.108981945 0.06297658 0.15522562 0.13244273 0.099905945 -0.17359836 -0.11915659 0.2181226 0.22751048 -0.16912715 0.22640255 0.0012672887 -0.011577159 0.06389655 0.098677285 0.092535555 0.116111584 0.11366386 0.16695313 -0.19998923 -0.19931543 0.015596238 -0.05002133 0.15244694 -0.071591005 0.20595002 0.032918703 0.01572829 -0.14961977 0.18923703 0.22733365 -0.1612387 0.08701531 -0.202843 0.017037677 -0.117146835 -0.06634729 0.22417435 0.17395052 -0.07942201 0.12674336 -0.09889848 -0.14809187 -0.008575346 0.18411495 -0.20063248 -0.14875835 0.09331593 -0.13704537 -0.021084027 0.06355912 0.029089987 0.07224176 -0.043347426 0.17570746 0.026123822 -0.115875214 -0.13121617 -0.11027651 -0.13451342 0.028728373 -0.014300391 0.13802655 0.17825188 0.19134685 -0.006776511 0.15729742 0.07616919 0.06350103 -0.11829064 -0.03525295 0.022119306 0.16122973 -0.03379926 0.23295593 0.120945245 -0.11238914 0.1610721 0.1427433 0.13596584 -0.09012946 -0.005064316 -0.10923147 0.12404213 -0.055308025 0.13395166 0.08314973 -0.07432343 0.08834284 0.11642732 0.19361266 -0.15626475 0.2054957 0.20093055 -0.021162562 0.06744593 0.06515604 -0.21171468 0.039428335 0.1711547 -0.080678225 -0.1325577 -0.17629007 0.0064498754 -0.1630208 0.12215195 0.0077769654 0.2331533 0.14136566 -0.10220334 -0.14570175 0.16006403 -0.08281067 -0.15812035 0.09485281 0.19017671 -0.11735473 -0.015698347 0.141424 0.09484788 -0.035433225 -0.10624719 0.24376348 0.1361012 0.21645182 -0.20641895 -0.15310241 -0.21857493 -0.03538779 0.065127075 0.15356228 -0.02984713 0.14331621 -0.18495545 -0.14363949 -0.2238088 -0.0950098 -0.15590993 0.12557118 0.17247124 -0.09725873 0.034194034 0.007224525 -0.034777816 -0.19777445 -0.22525132 -0.066034935 -0.10572427 -0.019250054 -0.07202675 0.20891155 -0.010113349 -0.06403827 -0.22665545 0.1478448 0.12335749 0.0137041155 0.11323251 -0.14062741 0.19396113 0.055572327 -0.22162059 -0.12414472 0.20247295 0.0038844873 0.06862667 0.03432441 0.0011741889 -0.20056675 -0.23702939 0.013243829 -0.06419289 0.21207379 0.19598836 0.13375106 -0.008083035 -0.008802904 -0.061957944 -0.18942437 -0.021509986 0.16685088 -0.22253844 -0.048997108 -0.10743003 0.089792036 0.07139055 0.15189599 -0.15735285 0.08132094 0.08770767 -0.21540569 -0.24533139 0.11241816 0.0451042 -0.06536227 0.2184952 -0.21730469 0.2028439 0.19960104 -0.16275764 0.049175773 0.10487151 0.12978329 -0.012520541 0.083414085 0.21243751 -0.19174536 0.039839033 -0.114494555 0.06248185 0.15192609 0.022124005 -0.01354558 0.11163098 0.07137933 0.06660759 -0.01666908 0.11556409 -0.13159795 0.19872037 0.15535465 0.13995047 -0.14810324 -0.08664158 0.20170316 -0.111230984 -0.19400112 -0.15826271 0.02987062 0.1470731 0.124965936 -0.00073180575 0.1746163 0.2135174 -0.08978432 0.061291546 -0.222963 -0.09553746 0.097395346 -0.08427969 -0.195853 -0.051883265 -0.061009217 0.19375356 0.116197966 -0.14274584 0.16144653 -0.1826104 0.0007148178 -0.14238949 -0.1923258 -0.11886984 0.16236058 -0.0895004 0.13122153 -0.1364058 -0.07020032 0.21773918 0.030373469 0.16643098 0.13683124 -0.087613046 0.06643934 -0.23545696 0.06304214 0.15803197 0.13290642 -0.014416899 -0.040450387 -0.07599228 -0.155882 -0.11571554 -0.027977446 0.1366625 0.13280839 0.076664284 -0.10691373 0.17378153 -0.028885059 0.20240775 -0.19064198 0.14150412 0.021826243 -0.21330714 -0.13742706 0.07187469 0.008467355 -0.14943023 0.082972944 -0.12512632 0.12289335 -0.21244016 0.13626136 -0.14849778 0.11032741 -0.08048398 0.06250163 -0.07771679 -0.19707385 0.097551785 -0.17404318 0.2342666 0.085418366 0.19664575 0.057422977 -0.1310829 -0.06276861 -0.2033907 -0.09507413 0.07172078 0.1888026 0.11251238 -0.027530715 -0.14233384 -0.122370675 0.039179146 -0.019315228 -0.14443582 -0.14071879 -0.20294464 0.03085357 -0.08398141 -0.1925464 0.21657196 0.061954625 -0.12917545 -0.07812639 -0.15317754 0.1366475 -0.0634788 -0.1590178 -0.105615065 -0.1350415 -0.21542883 0.14169188 -0.01643849 0.20524709 0.024998346 0.11188914 0.008672533 0.18636556 0.17218216 0.03219092 -0.07464101 0.03665358 0.10851153 0.12562881 0.118924506 0.17139071 -0.15015632 -0.12681586 -0.18884945 -0.12423024 0.19399226 -0.19638503 -0.19804643 -0.09372274 0.18437551 0.13659187 -0.041182566 -0.17650154 0.20623377 0.22308032 -0.084852934 -0.03241891 -0.09121578 -0.027335627 -0.23330063 -0.04620604 -0.10417 -0.09331587 0.2112565 0.13703641 0.23711303 0.23241924 0.20764737 0.13740657 -0.21179253 -0.14856684 -0.08437209 -0.18651018 -0.18907703 -0.24226728 0.10035586 -0.0052282796 0.018553538 0.1360544 -0.0069194785 -0.2162258 0.11422588 -0.17531045 0.07002956 0.16539666 -0.17212719 -0.15361014 0.04656437 -0.12200126 0.007549286 -0.108797655 -0.08538395 0.17794469 0.074781895 -0.03305106 -0.07433109 -0.06988631 -0.20328207 -0.07369466 0.12318339 -0.14606944 -0.17391548 0.065274715 0.079701185 0.03904595 -0.17063294 -0.20748843 0.04791767 -0.20369823 -0.1830002 -0.107875004 -0.17289002 0.05896132 0.20779075 -0.2078367 -0.18408112 0.16769156 0.03462541 -0.1367625 -0.13430588 0.1977146 -0.15844384 -0.11915618 -0.011664147 0.021125214 -0.18651494 0.19386037 0.22967744 0.19753669 -0.03000476 -0.23479761 -0.12553284 -0.012245474 -0.22165376 -0.09381099 -0.11862004 0.18017116 0.04129936 -0.15447764 -0.23457855 0.15190627 0.11994902 0.19479233 -0.015003396 -0.115107894 0.18156403 0.005912184 0.17693871 -0.022838509 0.11273276 0.08456463 0.08428416 0.112138234 0.14781784 -0.09166011 -0.12048055 0.011143154 -0.17166469 0.12563789 -0.1707831 0.18286727 -0.19313821 -0.17344275 0.08507272 0.05247472 -0.22220078 -0.21461703 0.057509635 0.18257713 0.13613278 0.023966407 -0.13208586 0.13082276 0.13631208 0.21200539 -0.16008331 0.19690731 0.13988854 0.1530202 0.17930938 -0.11832596 -0.04775941 0.04481548 -0.14871776 -0.09353941 -0.10213538 -0.14393999 -0.118415214 -0.016985185 0.089689195 0.07069994 0.1523813 0.011459411 -0.13573815 0.07700848 -0.2126687 0.2334603 0.15779923 0.23977536 -0.084958516 -0.100084916 -0.028951762 0.24057323 -0.04945281 -0.08313838 -0.03128346 0.1930765 0.055136498 0.10001819 -0.064439885 0.0117152175 0.023200227 0.20088781 0.1850186 -0.16376255 -0.25902873 0.24690211 0.053841855 -0.10386355 0.22456326 -0.23854682 -0.19518802 -0.07567241 0.18121362 0.073522456 0.11598005 -0.12369782 0.045189038 0.06989385 -0.20065123 -0.060200423 0.16780819 0.24205601 -0.11758495 -0.023501158 1.0856348e-06 0.19045019 0.2117803 -0.21225475 -0.20606217 0.17996089 0.13302805 -0.02702381 -0.083194785 -0.09168165 0.06485791 -0.014522174 0.15074018 0.1729902 0.10415569 0.08824903 0.18129556 0.108582705 0.034029413 0.08966047 0.1826571 0.19767535 0.12105188 0.23131086 0.06425222 -0.061972406 -0.0127648795 -0.20897561 -0.2359085 -0.17637965 0.23488012 0.20307331 -0.12484853 0.16467158 0.21877016 -0.18134953 -0.13557218 0.21028985 0.04545044 0.2510588 -0.1691437 0.12529595 0.18689631 -0.012642132 -0.1610632 0.10647814 -0.061784 -0.028967109 -0.0727846 0.24337205 -0.031649116 0.20085856 -0.044630513 0.04908763 0.21992613 0.11000894 0.071794674 -0.20630991 -0.17860843 -0.21356279 0.116111964 0.11940257 0.13569981 0.23090193 0.13572134 0.23729885 0.20460817 0.073508866 -0.23822334 -0.14962023 -0.22434813 -0.2387931 0.14334525 0.05582348 -0.18286538 0.017343624 0.13030554 -0.23363772 -0.23887573 -0.16713996 0.21978419 0.17295882 0.18208377 -0.022756677 0.00078311 0.056076553 -0.127801 -0.007057079 -0.24013689 -0.16501431 0.023220392 -0.16844355 -0.06775425 -0.23327741 0.22897264 0.03358686 -0.16938472 -0.017821562 0.066636704 -0.07012929 0.15503785 -0.017376846 -0.002831527 0.048240982 0.14589518 0.053402286 0.10799196 0.15411238 0.09904839 0.122307524 0.10344484 -0.036051948 -0.22705369 0.17410567 0.07777142 0.114775494 -0.2004397 -0.03661185 -0.09902327 0.13310894 -0.07527456 0.23547603 0.06403449 -0.080756985 0.04596416 0.18312599 0.21665034 -0.12474764 -0.18304545 0.22444357 -0.102886155 0.12420558 0.20885926 0.14482944 -0.21100667 0.03733018 -0.2017435 -0.15597825 0.1120108 0.10059742 -0.1936776 -0.08801166 0.122212246 -0.1993348 -0.2161066 -0.17546444 0.029156256 -0.14605395 -0.015895082 -0.121203855 -0.06637601 0.022565097 -0.07958776 -0.058668315 0.26038346 0.13272798 0.18419145 0.21539049 -0.24264397 0.08041962 -0.004636743 0.09095463 -0.06595467 0.22735125 0.11910872 0.21832415 0.13160723 0.16490409 -0.19732018 -0.22246419 0.20076407 0.07032402 0.04099835 0.060348928 0.040642958 0.069143035 -0.10193977 -0.018874113 -0.066079885 -0.20415276 -0.14428656 0.045252584 -0.08898487 0.21660061 -0.18438639 -0.097115465 -0.06582058 0.21675244 0.14564712 -0.24267845 -0.13288458 0.16000776 -0.0025736294 -0.14253059 0.20952061 -0.08235164 0.18800706 0.19915795 -0.15735194 0.04508687 -0.08073163 -0.11093026 -0.016435165 -0.022855096 -0.013013894 -0.0466938 0.032970417 -0.10736288 0.12415972 -0.02012874 0.063169196 -0.14004113 -0.21364371 -0.19052662 0.0909431 0.20428957 -0.06150231 -0.09085663 0.16249944 0.23658045 0.006547308 -0.074836425 0.16645738 -0.019327724 -0.1134578 0.0061332136 -0.05445668 -0.2293772 -0.19930656 0.16287135 -0.04074283 -0.027042976 -0.06300081 0.057388 -0.17613004 -0.16047464 0.033983216 0.18053626 0.19707586 0.24076575 -0.10812763 0.10910111 0.21716326 0.049315453 -0.19374323 0.07645732 -0.050934587 0.06726668 0.20987846 0.17056803 0.09663335 -0.06369598 -0.011421929 0.0031117578 0.03139754 0.0375869 0.11501178 0.10351497 0.070545204 0.033385865 -0.012016317 0.23110536 0.20388891 -0.21814941 -0.23880391 -0.103214934 0.1311821 0.20618163 0.07266781 0.0656227 -0.2327215 0.11964349 -0.04350687 0.18848762 0.13401224 -0.07688941 0.18906327 -0.007844596 -0.02814155 -0.14453442 -0.17960018 0.086317696 0.0983529 0.002321062 -0.038506858 -0.0410234 -0.23586303 0.23648949 0.13573918 -0.108585 -0.20799574 0.20718873 -0.035568472 0.038042244 0.0031216298 -0.12645695 -0.23880166 -0.06274715 -0.035750557 -0.22385216 -0.21810237 -0.09644074 -0.0867476 0.16314054 -0.05232786 -0.1835824 -0.04288256 -0.0021721327 0.099199146 -0.20315924 -0.23265095 0.074906215 0.2515148 0.0038695938 0.078533836 0.06653601 -0.025503598 -0.10607136 0.0773826 -0.08988405 -0.055523127 0.091961734 -0.020694295 0.011181022 0.22557521 -0.1999206 -0.06457264 0.0042145997 -0.02437767 -0.09838082 -0.18204206 -0.12594594 0.13136937 -0.11960728 -0.19083814 0.0794478 0.14657739 0.04778629 0.083232775 -0.011846293 0.051340282 -0.20358956 0.07740502 -0.090029135 -0.033198554 -0.0031891356 -0.18591748 0.014696889 -0.104325294 -0.09905617 -0.016816515 0.21504481 -0.20451897 0.010075538 0.013485193 -0.0551838 0.20081075 0.16656646 -0.047366977 -0.10442248 -0.097038254 0.1961651 0.0043015056 0.07783829 0.08969712 0.13607639 0.105844714 0.020907016 -0.24106511 0.15189184 -0.07231742 -0.12747253 -0.08680326 0.077877104 -0.22848257 0.044216678 -0.02519548 0.083165035 0.06970931 0.1624907 -0.06463608 0.09929639 -0.04467346 -0.0018526124 -0.0614871 -0.026860831 -0.21766983 0.15729675 -0.032937255 -0.011008352 -0.06494778 -0.14755188 -0.09855406 -0.21167308 0.13671729 0.07866433 0.11213622 0.15239608 -0.1321982 0.24606603 -0.04419785 0.011466687 0.019223627 0.025695467 -0.11745406 -0.12021124 0.19410811 -0.19384411 0.18045007 0.02959542 0.05392779 -0.18426982 0.13370785 -0.16386423 -0.013865093 0.2036513 0.22661465 -0.06264713 -0.21370609 -0.12509583 -0.1412284 -0.06196404 -0.0671119 0.08246865 0.08405697 
0.145784 0.25582996 -0.19124402 -0.08772151 -0.03243942 -0.10981908 0.016211616 0.069241256 0.10423303 -0.055962026 0.23427992 -0.005567574 -0.2139753 0.058128577 -0.05215224 0.025413496 -0.116372034 0.07436102 -0.014480216 -0.19495264 0.0034452642 -0.17474973 0.0629663 -0.10308182 -0.1440777 0.098942295 -0.10655968 -0.15693209 0.05263312 0.14491841 0.19095114 0.15762503 0.05049526 0.053900458 0.060107347 -0.105539106 -0.035270438 -0.23724097 -0.14309908 0.12891509 0.20439981 0.2390156 0.15520903 -0.04294828 -0.06938092 0.079228185 -0.0024541896 0.0383802 0.18558298 0.16564009 -0.18332905 0.09129064 0.18772967 -0.17579843 0.045396224 -0.047442697 -0.21070682 -0.13248874 -0.09379597 0.11114646 0.2131146 0.059040852 -0.17859289 -0.2384184 0.08588144 -0.014542001 -0.20416528 0.2262013 0.122930944 -0.040314812 -0.16281083 0.24650235 0.16147867 -0.19298565 0.18849136 -0.18902439 -0.17771403 0.07465185 -0.14681108 -0.06728481 -0.05859788 -0.029099552 -0.07766953 -0.119866826 0.1803102 -0.13309728 -0.24148408 0.07189637 -0.20797281 -0.24328199 0.13011286 -0.20481539 -0.18672909 -0.24062847 0.19628598 -0.23001637 -0.20505059 -0.14809042 0.1855253 0.17840585 -0.1986158 -0.18536615 0.04604421 -0.2376386 -0.14698867 0.1408106 -0.1466411 -0.14179945 0.1918073 0.09188382 0.15416464 0.0837438 0.04446798 -0.17623791 -0.13714483 -0.000994158 0.053598117 0.18743761 -0.23469572 0.03753594 0.19495654 0.01154264 0.18614984 -0.08773896 0.14229518 -0.062195122 0.18231513 -0.23593186 -0.085916296 0.1546375 0.1768005 -0.19849166 0.2030344 -0.116521955 -0.20460002 -0.23212385 0.07459079 0.11583516 -0.2207363 0.10764682 0.1584829 -0.16759916 0.055084016 0.06782808 -0.04642124 0.13133839 -0.09174523 0.0958738 0.020631082 -0.16770434 0.06036792 0.22146212 0.13230054 -0.095117725 -0.09893627 0.11677735 -0.06724401 -0.069765285 -0.21599704 0.17628975 0.2340521 -0.19640419 0.0680644 0.03531613 0.081355184 -0.21151097 -0.22854584 0.17604363 -0.18043138 0.14450034 -0.19645599 0.17026542 -0.15161762 -0.20736632 -0.1975611 -0.1665709 0.005615727 -0.13222513 0.09633866 -0.017127313 -0.039159626 -0.041082747 -0.0053596417 0.0069489935 0.03365583 -0.007623398 0.049840815 -0.18274428 -0.008475655 0.012097602 0.19875383 -0.13581167 -0.07161407 0.013417674 -0.15368213 0.21962067 0.0057659326 -0.1305913 0.13020867 0.13871719 
Rect
Linear 200 200
-0.06440878 -0.006211601 0.065001905 0.035117432 0.020758353 0.02487332 0.04309263 -0.06627338 -0.035061236 -0.03716603 -0.014158068 -0.066827886 -0.008536991 0.04691438 0.0194031 -0.022163015 -0.03398894 -0.035289373 -0.061426476 -0.0657597 0.012718223 -0.017932458 -0.010171732 -0.005603989 0.006021954 0.061196566 -0.009911994 -0.02567165 -0.048418447 0.001815896 -0.040081803 -0.05431972 0.06870076 0.054619256 0.04886061 -0.05458774 0.028952397 -0.039149635 0.04429721 0.005170062 0.030070504 -0.026121348 0.0048076552 -0.024632178 -0.04014282 -0.01066698 0.012754795 -0.02324535 0.026874844 -0.06401869 0.015330165 -0.06120541 0.023848152 0.056676596 -0.056651354 -0.007566553 0.03650999 0.0033696094 0.02554568 -0.025077656 0.035460033 0.059999708 -0.012871496 0.047538448 -0.055181276 -0.025159523 -0.027279606 0.022173092 -0.069665074 0.01938637 0.01637519 0.06313705 0.013915683 0.055537842 -0.0005080998 -0.015176695 0.01297687 0.04448279 -0.04565774 0.026112031 0.056006975 0.022321515 0.039261047 0.017382225 -0.026091345 -0.03701905 -0.0032336141 -0.065194026 0.04925014 -0.061134595 -0.05719966 -0.03363853 -0.059218112 -0.05022876 0.01263822 -0.03754931 -0.041095927 0.03251555 0.04742492 -0.055759795 -0.0063258186 -0.031198177 -0.0032734713 -0.047047317 0.0024631172 0.0013610923 -0.004425758 0.017368011 -0.033769045 -0.054749988 0.023974996 0.051435832 0.005987237 -0.0025294032 0.041085523 -0.034817204 0.039667673 -0.05201103 0.0149691915 0.011693 -0.043029007 -0.06484907 0.036498938 -0.026717149 -0.070390575 0.037794694 0.013399922 -0.03606995 -0.029297069 0.069470584 -0.05583938 -0.035916943 0.049810518 0.046999615 0.06703236 -0.01776047 -0.07155599 -0.06886507 -0.032345984 0.027791657 0.004593494 0.01472383 0.044016056 0.007984375 0.013924497 0.01715785 0.03999778 0.032605 -0.010420413 0.04523228 -0.0555602 0.052512415 -0.028509002 0.057699945 0.027920015 0.030189158 -0.04583459 0.043353707 0.06137772 0.02985422 0.06259252 0.01336509 -0.0016719922 -0.01819714 -0.069951735 0.061338723 -0.018725365 -0.051618915 -0.043281913 -0.049299575 -0.0021169093 -0.06808925 -0.039685726 -0.025121387 0.021699935 -0.050127234 0.020776873 -0.008100828 -0.06705454 0.0138361 0.017930686 0.018063186 -0.045710824 0.06948703 -0.013437896 -0.027203409 0.0139833335 0.011405665 -0.00069119036 0.03740233 -0.01814933 0.019623712 -0.04611414 -0.024808623 -0.04757707 0.06679733 0.06418621 0.018934242 -0.03873501 -0.060283583 -0.044246085 -0.0066365926 -0.01424242 0.040084723 0.08071629 -0.052397765 0.041234378 -0.030587355 -0.03545141 0.045601666 -0.045220274 -0.055766486 -0.023868065 0.00028539015 -0.037794087 0.014218157 -0.067170225 0.012540683 -0.002187366 0.009117229 -0.033295047 0.06104508 -0.040835705 0.036088914 0.042128075 0.061724953 0.074455865 0.064362265 0.0317301 0.023686968 -0.06637628 -0.061558057 0.04194809 0.00065617444 0.052109886 0.030394604 -0.019219603 0.054525666 0.0069252257 0.02916067 -0.03221091 0.02580873 0.045648154 -0.03138091 0.07074298 -0.057616152 0.021385908 -0.06110845 -0.051372595 0.037104223 0.052069157 -0.037387848 0.026645117 -8.8276094e-05 0.040791404 0.040480196 -0.04172494 0.01679694 0.010962902 -0.0077171684 -0.023425993 -0.03974115 0.04376243 0.06548554 0.054158784 0.0058339606 0.019377872 -0.015630743 0.018819878 -0.0681558 -0.04287952 -0.05512558 0.061586443 -0.014774591 0.0668758 0.020071648 0.03452255 -0.06488437 0.08469954 0.008332193 0.0071806167 -0.01865764 0.0043418794 -0.06282446 -0.047721297 -0.04348084 -0.018463716 -0.03325017 0.007169321 -0.039648365 -0.05108954 0.02567866 0.036093462 0.006550884 0.06531361 0.05466579 -0.031086568 0.030426504 0.018656287 0.0015881773 -0.025178675 0.0605822 0.052531194 0.0059953034 -0.022237562 -0.0062837587 0.035168745 -0.043145668 0.0568413 -0.010981927 0.045478974 -0.07272841 0.025293387 -0.035178173 0.00857071 0.030317413 0.028842151 0.06783539 0.00614245 -0.014308138 0.039699495 -0.04791434 0.03540006 -0.022527501 -0.013448011 0.0049972036 -0.050334353 -0.039805368 0.01679036 0.062481463 0.011872213 0.009955868 0.031478375 0.042694945 -0.044006497 0.06098523 0.03235128 0.034525007 -0.04061626 -0.017340245 0.05305504 0.04646074 0.028682463 -0.04187986 0.06972069 0.038321454 0.015251534 -0.00019081606 -0.019075936 -0.052522458 0.017551647 -0.05943609 0.022430168 0.050964795 -0.052810594 0.04769922 -0.051543962 0.04699655 0.054048475 -0.03001744 0.055255506 0.008517027 -0.023420775 -0.039650485 -0.011126449 -0.018772088 -0.016948227 -0.040000454 -0.042776827 0.045698088 -0.029056877 -0.06461814 -0.033697225 0.047698263 -0.03707358 -0.063922316 0.011517475 -0.006752681 -0.014829199 0.011059507 0.041426413 0.0347239 -0.06645663 -0.014403461 0.033559762 0.022513727 -0.026674606 0.009666668 -0.009623891 0.072374195 -0.056652777 0.033379886 0.027729947 -0.033645708 0.018133981 -0.04804934 0.041919712 0.0657694 0.06077212 0.07676716 0.04254864 0.009338639 0.002631756 0.017791051 0.028527545 -0.04410974 -0.055310957 -0.05016898 0.009013297 -0.0061872094 -0.040353775 0.023378698 -0.024073143 0.059901346 -0.049029324 0.06450046 0.052904464 -0.06002134 -0.002279627 -0.024202865 0.05120478 -0.056208316 -0.035566673 0.005878177 -0.031055946 -0.00052582036 0.04394435 -0.009403161 -0.025506351 -0.040581197 0.056262467 -0.041067064 -0.005346554 -0.019895416 0.061095722 0.0027608199 -0.062213786 -0.059293732 -0.03899814 -0.037131336 -0.067138046 0.038737725 -0.021644972 0.03556332 0.0570101 -0.012684375 0.06338897 -0.005564414 -0.05600724 -0.00053525745 0.0066919327 -0.002841657 -0.027232008 -0.051617026 -0.043363966 -0.026756871 -0.0068956907 0.047560316 -0.008823999 0.02210517 0.040296037 -0.02588785 -0.008327516 0.029142406 0.0007466373 -0.044164848 0.04037772 0.033162076 -0.01269268 -0.020455798 -0.060196307 0.034124848 -0.0043801824 -0.0029216781 -0.029420232 0.021230206 -0.005351096 0.012989383 -0.05808512 0.013034121 -0.06868681 -0.049261242 -0.008916687 0.06158928 -0.0011399352 0.060528804 0.006295446 0.022844931 0.05492591 0.0068907375 -0.053244833 -0.031146953 0.060858957 0.030369882 -0.068798624 -0.058841754 -0.011599231 0.06540507 0.024925584 0.04034264 -0.044416886 -0.019305956 -0.0023314503 -0.047621608 -0.04390326 0.067879826 -0.05109144 0.069202565 -0.06875422 0.019289222 0.042528138 -0.05929306 -0.004677758 0.026277546 -0.047912687 -0.045667425 -0.009748485 0.007382315 -0.059428282 0.05278776 -0.070744224 0.039609756 0.010277575 -0.06748421 0.021576378 -0.027576188 0.07241582 0.032212727 0.03330226 -0.008734014 0.06259529 0.047232546 0.056318548 0.007171311 0.05311555 0.061590787 0.06796519 0.05968912 -0.048775718 0.031016313 0.026504477 -0.018540831 0.02804657 0.035944343 0.042594206 -0.06781725 0.0290541 -0.05828001 -0.032392375 -0.02894048 -0.0069527416 -0.020425323 -0.07032374 -0.0071203853 -0.062261667 -0.059825454 -0.028611047 0.04600421 0.07027145 -0.022431202 -0.0077734687 -0.033717927 -4.6401074e-05 0.04855575 -0.0048565026 -0.061659213 0.022119232 0.03736677 0.019854652 0.061299503 0.0129665835 -0.002561574 0.008135622 0.031056466 0.041741252 -0.037002448 -0.02351609 -0.02695593 -0.022594389 0.015710413 0.02466144 -0.062497668 0.06529241 -0.03786742 0.03257432 -0.05273691 -0.019783499 -0.039941333 0.021715052 -0.060290687 -0.06745858 -0.026969105 0.06719785 0.06813841 0.028596727 0.0047428366 -0.042870384 -0.023989897 -0.029763479 -0.023597244 -0.019747015 -0.059284613 0.03179261 -0.013033789 -0.04569859 -0.060556326 0.017828286 -0.0007629916 0.017997228 -0.06630861 0.01470913 0.0179644 -0.048640795 0.039595686 0.032877736 0.006163694 0.02227714 -0.005756259 0.057224564 0.008183315 -0.00983749 -0.05691559 0.04774133 -0.06312772 -0.013053816 -0.04775115 0.049409993 -0.06966349 0.049274825 -0.022295222 -0.06151798 0.04492253 -0.033078898 -0.050918505 0.022088312 0.03787808 -0.008962546 -0.03880114 -0.005274676 -0.0027576536 0.0063071996 -0.025089987 0.03706283 0.042874746 0.0644337 -0.06348587 -0.034740772 -0.0025261864 0.009739339 -0.052449495 0.038572885 0.002550289 -0.0043518767 -0.04844906 0.053515658 -0.030871052 -0.0037030801 -0.029617209 -0.04698406 -0.0039445087 -0.035643347 -0.018096872 -0.0020234287 -0.052364014 -0.047891803 0.03963781 -0.034981724 0.041770548 0.017230757 -0.068618 0.009538189 0.064771034 0.0499677 -0.026129607 0.03775701 -0.06776654 0.070215516 -0.026500016 -0.022452738 -0.011902783 -0.04134962 -0.049544632 -0.06359621 -0.013560709 0.01867178 -0.034310117 0.041046835 -0.0019040927 0.027297795 -0.0023336485 0.02425427 -0.020382587 0.05792453 0.05177228 0.0103140175 0.03824672 0.048825808 -0.036340825 -0.013133835 0.053525396 0.058393724 0.044352286 0.036541887 -0.0073280483 -0.027836133 0.06264158 0.011981711 0.050178044 0.030869044 0.024027891 -0.018768027 -0.046031073 0.03386619 0.051773526 -0.009346966 -0.022791501 -0.0635891 -0.036735684 0.05155652 0.0043337867 -0.009137582 -0.02968702 -0.05599122 -0.043550953 -0.029504087 0.016520299 -0.045098953 -0.062548205 -0.017443124 0.052874997 -0.064804725 0.04556512 0.04604215 -0.05826582 -0.04962507 -0.05097546 -0.061951958 0.00066996366 0.016657785 0.0072585866 0.016531572 -0.03301667 0.04880566 -0.054518864 -0.014989518 0.06525382 0.014640875 -0.06643479 0.050441936 0.013412677 0.055939637 0.011690572 -0.050156444 0.004654199 0.0039746314 -0.053132914 -0.05572515 -0.049642332 0.035062596 -0.04262677 -0.038609236 0.03437624 0.065100126 -0.035789277 0.026343986 0.011240631 -0.030397836 -0.05142821 -0.056233414 -0.017794788 -0.06500572 -0.0046957135 0.05471974 -0.063323 -0.05939506 -0.045665286 -0.06506453 0.0043352097 -0.01862384 -0.06671414 0.06689752 0.033421718 0.011491865 0.06614878 0.031946585 -0.01758704 0.021509178 -0.024463136 0.058498465 0.060414903 -0.011106346 0.03406059 -0.0055553615 0.02301658 -0.035770334 0.014055803 -0.023005169 -0.029138554 -0.0625631 0.017363906 -0.04916685 -0.013871665 -0.041378774 -0.045504224 -0.044718906 0.05792062 0.038330887 -0.036907427 0.0005048606 -0.02659051 -0.030904232 0.018602923 -0.053807832 -0.0656019 -0.03546508 -0.027504241 -0.028117487 -0.045614548 -0.0009812028 -0.029389516 -0.016810976 -0.03215054 -0.039534204 0.050992116 0.047241025 0.0017642912 0.0259197 0.06790327 0.027760588 0.061416067 0.042225126 -0.05986451 -0.030357493 -0.024878703 -0.03923369 -0.012221536 -0.019551568 -0.020972162 0.032266445 -0.02254197 0.0072952243 0.028473318 -0.05491278 0.035081156 -0.021294035 -0.03087211 0.068417914 -0.0334448 -0.056988325 0.02943264 0.05536652 0.06680829 0.014865162 0.04257818 0.04666906 0.0446711 0.031321958 -0.03319669 -0.032145076 0.05253771 -0.0026185631 -0.058607597 0.00966987 0.02938899 -0.034132812 0.06558242 -0.052676838 0.06763882 -0.027277654 -0.019102981 0.05162739 0.013156529 0.04326313 0.01448595 -0.02895461 -0.0103878565 -0.009384719 0.06200123 0.023384085 -0.05960304 0.036119234 -0.054512627 -0.041413084 -0.030448638 0.0091876015 0.002860869 0.005251464 0.04713174 0.024773516 0.039930604 0.0071451175 -0.024000296 0.035884466 -0.04387143 -0.062011827 0.023428626 -0.06693651 0.056447025 0.025292767 -0.01779176 -0.059197687 0.06931064 0.046438973 -0.017027877 0.039594807 -0.06216588 0.04048628 -0.057940777 0.06158012 -0.06628445 0.052429933 -0.0372915 0.010254182 -0.040342335 -0.03120505 -0.06849941 -0.016542496 0.029309906 -0.011327513 0.01967613 0.035298057 -0.029881308 -0.0326422 -0.03687213 -0.009597476 -0.060499728 -0.022803701 0.062706485 0.0073048254 -0.0310497 0.045626 0.017203562 -0.0062814564 -0.04498638 -0.0690521 -0.049810056 0.002032378 -0.038411364 0.043173846 -0.0038389969 0.047683027 0.060720667 -0.041087978 0.0410256 -0.056976885 0.029892296 -0.058722593 0.062527 0.018038137 -0.034372672 0.006526864 -0.035722677 -0.009849725 0.04938353 0.0042115706 -0.05487214 0.017554281 -0.021419363 0.058856186 0.03695826 0.024254603 -0.04024972 0.04965487 -0.035108503 -0.037979413 0.03422553 0.037755877 0.03776487 0.036528874 0.060601544 0.023573218 -0.010297502 0.0024750286 -0.06747714 0.030394513 -0.067788035 -0.0053155296 0.031702153 -0.008773893 -0.056561578 0.01876451 -0.0012007632 0.019750008 -0.015937349 0.048743527 -0.04254227 0.06520675 -0.059142523 0.047147274 0.063812695 0.04643061 0.019188497 0.058320664 -0.031360205 0.01476103 0.05472214 0.030400613 -0.014365252 0.041037064 0.026681479 0.041774023 -0.025007823 0.02959301 -0.03267591 -0.014316477 -0.027884156 -0.010728001 0.018762236 -0.026491225 -0.031118965 0.074093975 0.043140274 0.012842611 0.0696128 -0.0036559536 -0.010937667 0.051924754 0.057579923 -0.05432964 -0.024764594 -0.0020889065 -0.027168717 -0.039964087 -0.010541595 -0.056611907 0.0509216 0.057080258 0.0262883 -0.045992773 -0.04390834 0.0062333345 0.01995653 -0.049748708 -0.040411256 -0.00816202 -0.020598862 -0.023412371 -0.037800733 0.06737783 0.030141782 0.06066 -0.03336051 -0.055920225 -0.06380806 0.05723772 -0.012426004 0.023827465 0.0018001734 0.023529466 0.015798474 0.07116421 0.030389486 -0.030980064 0.05420239 0.024082575 0.071864456 -0.020798596 0.046530686 -0.004223752 -0.05795722 -0.008437033 0.05725955 0.0032218595 -0.058967717 -0.0048083817 -0.016795455 0.017350951 0.048090268 0.018690031 0.038843386 0.058096144 0.04104355 0.0017919785 0.057229146 0.07025469 -0.06261347 0.040677775 -0.04601636 0.05200832 -0.019324357 0.0345779 0.0123994285 0.01977905 0.05908896 0.016368477 -0.020005222 -0.037062425 0.0020152132 0.0171725 -0.034694996 0.06818683 0.040989015 -0.04849181 0.005692659 -2.4465917e-05 -0.04482718 -0.05350527 0.033018537 0.03226964 0.024450947 -0.053926095 0.008542523 -0.01342773 0.06182202 -0.0009678537 0.034985214 0.03594137 0.040283244 0.041014634 0.064738885 0.05486084 0.00060361373 -0.030161599 0.018262306 -0.03488752 -0.06799364 0.07505325 0.07114817 -0.014413715 -0.05560555 -0.024914823 -0.052687258 0.06822944 -0.014856561 0.010899659 -0.014165867 0.03082322 0.0040968573 -0.022245115 0.07769957 -0.015305605 -0.07254585 0.037669517 -0.0111721195 -0.003933797 -0.019357849 -0.019059572 -0.0009211662 -0.04716731 0.00404535 0.013685251 0.0667213 0.043478355 0.025240457 -0.039537054 0.0080170045 -0.07328623 0.049203634 0.027055932 -0.06609465 0.043918423 0.017211398 0.028321572 0.05820015 -0.009256842 0.018432125 0.05786171 -0.009888165 -0.05267814 -0.031571567 0.005702632 0.021440879 -0.035329744 -0.034610804 -0.0629748 -0.025109086 -0.0150307305 0.038996756 -0.00585387 0.04162461 -0.019554697 -0.021103611 -0.06693667 0.06766924 -0.0143381 0.004909944 0.056804664 0.0074790595 -0.022850584 -0.05803467 -0.002793804 0.055456873 -0.011304833 0.044730127 0.004746444 -0.0602027 -0.037478063 -0.051399473 0.04520734 -0.054955166 0.040180646 0.001990071 0.023109473 0.068115115 0.025823236 -0.058416255 0.06547888 -0.03955887 -0.01849763 0.0056517404 -0.0030428958 0.026665887 0.02382358 0.04789298 0.008062969 0.060885716 -0.05584269 0.053380225 -0.030489773 -0.06838658 -0.03296706 -0.00080238737 0.031964492 0.05155384 0.01235936 0.039463293 0.062546715 -0.05152052 -0.034666475 -0.053661887 -0.042565357 -0.036263537 -0.013523146 -0.002450348 -0.07012392 -0.054409523 -0.0064941314 0.058900315 0.04692912 -0.06564268 -0.010892146 -0.01910182 -0.071280904 -0.047484078 -0.0122011155 -0.027518652 0.053200416 0.026399262 -0.023249099 0.025029777 0.0037652454 0.04680573 0.007435082 -0.036181062 -0.00044313126 -0.024578089 -0.06263242 0.05326596 -0.025487475 0.0459064 0.04436304 -0.04262236 -0.037062157 -0.010833014 0.03401335 0.034584813 -0.017866401 0.0039891205 -0.004327216 -0.027017608 -0.054894462 0.009806477 -0.050046414 -0.0016260463 -0.05826721 -0.048555996 0.029700862 0.0036196667 0.0023915991 0.018845985 -0.061387174 0.030938057 -0.023317734 0.007418617 -0.061280247 0.06423237 -0.05423768 0.055554565 -0.0017877074 0.017688746 0.05438153 0.052787177 0.013491607 -0.03920398 -0.049772494 0.060536087 -0.05180906 -0.061153296 0.052349918 0.06692991 -0.0036367513 0.058143675 0.039184146 -0.043954946 -0.015483477 0.026745722 0.0036644584 -0.043524373 0.07223212 -0.07353332 -0.011068489 0.066612475 -0.03421936 -0.070532255 -0.005040325 -0.012829883 -0.064145155 0.042661402 0.051087823 0.05910146 0.011197067 0.024746524 -0.033842314 0.032671418 0.023864066 0.0034720798 0.029068112 0.01775714 -0.06896637 -0.0683845 0.041882545 0.00443543 0.0005688935 0.028806007 0.046893287 -0.044152167 -0.03219467 -0.01736651 -0.017933793 0.010030405 -0.03501558 -0.031440943 0.0591058 -0.014236835 -0.036233 0.009599306 0.060681585 -0.01586262 0.053732045 0.0049823355 0.0038648213 0.038640074 0.039766658 -0.026331455 0.026510103 0.058252133 0.051114667 -0.0103349965 -0.028097706 0.0006653825 -0.027713891 0.00398688 -0.04032054 0.01885752 0.0013086724 -0.029707946 0.053496934 0.032948237 0.024003042 -0.04894446 -0.051537406 -0.037669785 0.030263677 0.029492334 -0.038580716 -0.007843978 0.046225317 -0.020616896 0.016419852 0.05987726 -0.0683444 -0.059492916 -0.061041325 0.067844145 0.04580207 -0.023181649 0.0059273615 0.037631292 -0.01661782 0.011815612 -0.059727993 -0.047787525 -0.019527659 0.019158594 0.0071478984 0.043215264 0.0016112264 -0.022748929 0.051252987 0.03638168 0.012185107 0.00854318 -0.033557322 -0.06905975 0.0039181546 -0.018631551 -0.018994866 -0.015622465 -0.012902442 -0.06841522 -0.007551921 -0.051438928 0.020780694 0.05066581 -0.047712684 -0.038989373 -0.024974255 0.044525098 0.059363578 -0.06161223 0.035654347 0.05190894 0.06203376 0.011963396 0.01020344 0.045429688 -0.044238824 -0.06535086 -0.013504335 0.029507983 -0.013201722 -0.0517324 -0.04308413 0.02980561 0.07025599 0.03791057 0.018874599 0.03460671 0.031099517 -0.016443025 0.05759106 0.025579212 -0.039347533 0.03519566 -0.023431802 -0.054438468 -0.05759892 0.013552444 -0.0051934263 -0.01695384 0.0374971 0.06473717 0.042570595 0.0667259 0.012868849 0.003206394 -0.00881919 -0.0010984798 0.010113211 -0.009765887 0.06309545 0.051251553 0.049964886 0.035303097 -0.070247374 0.027669467 -0.048937548 0.0023656997 -0.011194221 -0.057005987 0.04492915 0.01130366 0.0096564945 -0.06801184 0.07207344 0.041760948 0.0595338 -0.047092557 0.043633223 -0.048780855 -0.015999388 -0.031995106 0.03830575 0.026987148 0.022635158 0.017105214 0.04647876 -0.055431217 0.026605502 -0.0319636 0.0108072115 0.048611872 0.07401006 -0.0321171 0.04077475 -0.05281756 -0.043862004 0.03841758 0.046534352 -0.066988364 0.05846904 -0.07752464 0.007385243 -0.023459978 -0.061635897 0.0008733547 -0.009058089 0.063258305 0.028030232 0.026716506 -0.049612254 0.028421275 -0.0637987 0.010708123 -0.01500976 0.01962287 0.006445694 -0.017316278 0.02284949 -0.06831905 0.03494592 -0.040718094 0.07095319 0.046124164 -0.040643957 0.029160831 -0.036441274 -0.059984695 -0.00951671 0.046198484 0.024421833 0.0021873782 -0.061427016 -0.0041768705 0.025057886 0.036390807 -0.022676308 0.017517345 0.04628845 -0.037968982 0.041946836 0.03538308 0.018859314 0.019702481 0.053430617 0.03251931 0.03862929 -0.036221772 0.067945324 -0.029223027 -0.06816501 0.07011537 -0.00095579086 0.06218869 -0.04870262 -0.047922 -0.027351178 -0.037550557 0.052283578 0.06483738 -0.03191632 -0.0024475812 -0.05726236 -0.06383893 -0.054832354 -0.03146989 0.040062156 -0.031521045 -0.0076132524 0.02192933 0.07487304 0.01610101 0.036307633 -0.0017823215 -0.037867375 0.06702466 -0.04590818 -0.034850344 0.055140033 0.052412458 -0.014943414 0.022651557 -0.025271293 -0.056798503 -0.0011484617 0.051375948 -0.005979351 -0.05925489 -0.04738329 -0.059615385 -0.046744093 0.057608075 -0.06864561 -0.055785727 0.035253815 0.049423963 0.015378298 -0.035534322 0.0022737829 -0.06403925 0.022946239 0.060943082 0.041009646 -0.03128251 0.06560686 0.007531986 0.042546995 0.04395651 -0.0076856283 -0.051440094 0.04846205 -0.018478503 0.010900822 -0.055240314 0.060047146 -0.014799164 0.04512921 0.061271068 -0.0687781 0.0019668622 0.01866245 -0.068938576 -0.04355873 0.041659135 0.042992115 -0.050496012 -0.0058699916 0.018304458 0.0036525978 -0.063592315 -0.029995512 0.022265349 -0.019815058 -0.052872553 -0.05678788 0.041333117 0.020948103 0.05039382 0.027072819 0.047398616 0.021010045 0.03758038 0.0393514 0.053212326 -0.05389009 -0.02280816 0.06476002 -0.027704997 -0.010924582 0.028517736 0.036050443 -0.02579497 0.030071598 -0.020433646 0.042490732 0.0690265 -0.00045083577 0.025949955 -0.058738403 0.008593418 -0.014762214 -0.05605837 -0.04923046 0.054775413 -0.028010828 0.06384861 0.025910279 -0.029225858 -0.009474459 -0.03965199 -0.03111185 0.05417409 -0.017324194 0.025051998 0.008340821 0.048395462 -0.029860955 0.03373171 -0.06392987 0.033956353 0.00805682 -0.012597943 -0.07152981 -0.0016766004 -0.028236013 -0.011357691 0.06448385 0.006702733 -0.051840216 0.029754212 -0.04209292 -0.020669196 0.0716767 0.038608693 -0.025749806 0.028573757 -0.07168308 -0.022244724 0.05308882 0.03626573 -0.034669936 0.011509498 0.02098676 -0.020319685 -0.05195954 -0.010198494 0.05506802 -0.027288591 0.057216972 -0.0072436067 -0.0053377086 0.04263206 0.06771862 0.05171199 0.02485169 0.044650037 0.061439887 -0.04411524 -0.040869776 -0.020671736 -0.058850504 -0.05552328 0.03370563 -0.048694644 0.04753127 -0.03347993 0.013925008 0.035178374 -0.05925813 0.06991086 -0.010632928 -0.00020597983 -0.06621088 -0.021750366 -0.04232023 0.021955626 -0.030433191 0.0132124415 -0.012382474 0.008229638 -0.051868882 -0.024571288 0.036831167 0.0019181835 0.015054888 -0.058339767 -0.02229192 -0.06274932 -0.07103513 0.0015079957 -0.08146981 -0.03605017 0.049490903 0.05913837 -0.016558018 0.005304608 0.0057277433 -0.012900055 0.07970466 -0.03549232 -0.06476568 0.043038305 0.05808883 0.0034821539 -0.05701386 -0.048917845 -0.022568353 -0.032924592 0.0017677088 -0.00019592623 0.07132806 -0.0249381 0.019046312 -0.018893516 0.0073556486 0.027574856 -0.06734105 0.012016745 0.054583363 0.019651031 -0.05172351 -0.06418898 0.04126836 -0.030587666 0.020393021 0.064792745 0.05751879 -0.032455318 -0.0031921137 -0.019166894 0.06213877 -0.049502015 -0.00034355916 -0.0022957027 -0.034274317 -0.048126176 -0.015030669 0.009268079 0.038188748 -0.00844378 0.047339942 0.045267243 0.030811451 0.0040834146 -0.063608855 -0.0016734394 0.055604424 -0.030542413 -0.05355952 0.059909843 -0.00775334 0.079881914 -0.031810466 -0.032923803 0.07947979 -0.0017428361 -0.02719411 0.027777327 -0.008117042 -0.01694391 0.0710837 -0.054234575 0.069514364 0.04612107 -0.04787341 -0.0327507 -0.05564476 0.017174697 -0.0077060703 0.018263116 -0.014170247 0.022172075 -0.023995405 0.032352667 0.021838378 -0.053335868 -0.030586248 0.052771382 -0.009002982 0.03366646 0.007975997 -0.009663312 -0.026552748 0.017176578 0.04351124 -0.038053542 0.049326 0.05258523 0.058088437 0.017340854 -0.045059033 0.03342109 -0.05146034 -0.060220364 -0.0629948 0.054295074 0.026095022 0.06165635 -0.020634994 0.006766341 -0.051392507 0.05006661 0.046457212 -0.05229529 -0.057342727 -0.017212242 0.08254363 -0.0043117288 0.06527489 0.009954228 0.017755395 0.075936355 -0.02094674 -0.05345786 0.06384899 -0.077091746 0.08178578 0.041904647 0.03616451 -0.07602273 -0.0041765086 0.03449318 0.02803369 0.065423265 0.054243732 -0.0154408775 0.04668415 0.0027468647 0.08221693 0.025941262 -0.018256333 -0.031981055 0.044079106 -0.039369725 -0.019155677 -0.041253347 0.032676205 0.0205181 -0.0317621 0.025151605 0.057285994 0.0065885144 -0.025471445 0.054563027 -0.0142176775 -0.013780717 -0.0216763 -0.039037585 -0.029302293 0.04737629 -0.014938815 -0.05751582 0.07291686 -0.013635036 0.018972574 0.066026054 0.014529638 0.06318247 -0.050282475 0.04740555 0.013742251 -0.061631005 -0.015874287 0.03612361 -0.0036317452 0.0072363284 0.01124285 0.036473468 -0.024669914 -0.035796266 -0.0070683667 0.025381621 -0.027803736 -0.025717648 0.010911583 -0.04686527 0.027825197 0.05535901 0.03999362 0.0043403264 0.023064623 -0.020047072 0.0025796143 -0.036481492 0.012321961 0.001919827 -0.06409702 0.026731756 -0.025137603 -9.1977854e-05 0.00040806015 -0.065401435 -0.00394078 0.08065275 -0.066957735 0.031165333 -0.060577076 0.06252678 0.05755674 -0.019266129 -0.04081048 0.023367772 -0.07474082 0.036641162 -0.00026719045 0.020656925 -0.03565525 -0.067506805 0.024978058 0.0048367227 -0.043348234 -0.039917745 0.027414352 0.0038682248 0.019349776 -0.017124716 -0.033248436 0.041590776 0.07243671 -0.033332735 0.04359356 0.05904914 0.046137884 0.06962448 -0.04130872 0.0059069735 -0.053082295 -0.043299 0.0218704 -0.0415211 -0.0128526855 -0.029738083 -0.09789753 0.029630851 0.084342524 0.00563867 0.04682114 -0.07791364 -0.060915977 -0.016217204 -0.01230943 0.0053968006 -0.043562807 -0.02074759 -0.03429222 0.04195696 0.023972197 0.045504503 0.0444225 0.056441408 -0.03669082 -0.051003773 0.025256423 -0.020442491 0.049440425 0.06833411 0.011448398 -0.029500412 0.05631412 0.008495026 0.035349783 -0.03394114 -0.050525878 0.011891128 -0.048007738 0.065695316 -0.00600556 0.074078456 -0.011926062 0.053860176 0.025151951 0.012880148 0.04007437 -0.065440126 0.022112079 -0.016229618 -0.048518658 -0.046793338 -0.05222862 0.031394184 0.07880071 -0.06383501 0.046575293 -0.051638756 0.07151917 0.05914667 0.020149576 0.028343525 -0.058033325 -0.008372178 -0.04529913 0.006820458 0.05967175 0.056772657 0.04019416 -0.052307595 0.06111396 -0.017049875 0.0095395995 0.062038492 0.039365515 0.019011855 0.017497273 -0.025839562 0.020793049 0.0375267 -0.048981484 0.03419669 0.0058017364 0.06283052 -0.016279051 -0.06295093 0.012820308 0.00025863148 0.013270396 -0.027771417 -0.029878449 -0.023193296 0.044813555 0.059576377 0.024087926 -0.0437458 0.009280899 0.004876436 -0.05942794 -0.039352946 0.040828753 -0.04960057 0.034775145 0.012865384 0.03514852 -0.007481393 -0.041877154 -0.060367677 0.016882334 -0.027280193 0.038097456 0.0023201175 0.01240021 0.034877043 -0.069027975 0.057728924 0.012555269 0.0119065745 0.015115454 0.06678403 -0.066251 -0.06036272 -0.049397778 0.062718354 0.004551602 -0.06033658 0.0022450124 0.03600856 0.01664091 0.030205285 -0.0073348405 -0.0011871922 0.030614715 0.019833269 0.0027566312 -0.03229436 -0.047636483 0.062591 -0.0498231 0.0389782 0.023932397 -0.032401465 -0.047010653 0.049630754 0.04811678 -0.028774975 -0.05819015 -0.030265113 0.0749283 -0.027390676 0.07094383 -0.028312188 0.00067428465 0.005707805 -0.025720192 0.021244856 -0.047395226 0.058219306 0.016699884 -0.01998332 0.03891194 0.033121236 0.057326913 -0.023130482 -0.035199743 -0.03557656 -0.0471884 -0.03937094 0.041394282 0.06863944 -0.038427707 -0.063123904 -0.0055260323 0.003578238 -0.0021506343 -0.036371436 -0.03530074 0.040532593 -0.0107014915 0.032269638 -0.0106528085 0.0012809678 0.061427005 0.031607043 0.036358982 -0.05644393 -0.049361527 0.020004459 0.019611232 -0.00042597475 0.035440505 0.050445702 -0.017172502 0.013812688 -0.04332222 0.043482617 0.046674903 -0.023675585 0.043677274 0.010678273 -0.038926613 -0.01821815 0.020297077 0.06992033 -0.023662178 0.022814874 -0.009777253 0.05219091 -0.035024766 0.022506049 0.010573597 0.0083178785 0.0073701777 0.02433754 0.047597244 -0.036205772 -0.018821195 0.034466986 -0.034672003 0.051653355 -0.053357895 0.060824543 0.0135313915 0.064051054 -0.042952124 0.04394629 0.061637558 0.037986342 0.03468837 -0.07023666 -0.0013248627 0.021605637 -0.01839731 0.037829764 -0.05495192 0.04740836 0.02338885 -0.023934908 0.0035293188 0.049248755 0.069322094 -0.0010427629 0.0243821 -0.06613783 -0.0068700877 -0.042478614 0.03330175 -0.056223556 -0.044504575 0.056431253 0.040707454 0.064712696 0.043059144 -0.04509499 -0.059649844 0.032729905 0.047301862 -0.0013037688 0.04651543 0.05571917 0.05843835 -0.03215689 0.07208231 -0.019248122 0.04863265 -0.052174807 0.0551105 -0.06771756 -0.008525216 -0.010933711 -0.05291541 0.03586224 0.049204428 0.005435036 -0.065665156 -0.04160893 0.036841325 0.03606817 0.058696214 -7.972948e-05 -0.053383037 0.009440234 -0.015406229 -0.064649485 0.024015835 -0.021729883 0.045104463 0.052750263 0.055655874 -0.025153335 -0.002427172 0.048995353 0.054466408 0.01176436 0.024990905 -0.036067083 0.018730218 -0.057642855 -0.043345217 -0.037569568 0.052966498 0.009055449 0.066815004 -0.031443577 -0.014925593 0.022609275 -0.016248535 -0.007819539 0.0024475162 -0.048520435 -0.06431422 -0.033644754 0.014846146 0.028437091 0.059506685 -1.2177545e-05 0.015599523 -0.005158467 0.04048477 -0.02567128 -0.04586663 -0.06800284 0.07163716 0.0587609 0.016704867 -0.02492784 0.06065847 0.031232834 0.06553386 -0.015438405 -0.05750487 -0.010681726 0.008967985 -0.05273269 0.06126224 -0.01755401 0.0049883253 -0.019838182 -0.008634846 0.0313171 -0.048616227 -0.003850716 -0.034056973 0.06917944 -0.06504482 -0.041197482 -0.0075867996 0.068094045 0.05946927 0.0044961697 -0.008937488 0.00036877126 0.058847614 0.022077696 0.021865403 0.051457718 0.069648325 0.034888636 -0.055950236 -0.06629763 -0.013311579 0.0065747006 0.056520063 0.037323873 0.01951484 0.04360026 0.036048435 -0.036452085 -0.067305095 -0.05582047 0.00014632018 0.0056149787 -0.01991704 0.015231377 0.039433043 -0.0356537 0.0056119272 0.014403254 -0.053109434 -0.02705374 0.032110516 0.0065296176 -0.020820875 0.007485845 -0.0013248023 -0.017942782 -0.059805494 0.03327022 0.030046776 -0.014999435 0.068844505 -0.023005867 -0.050970625 0.055246007 -0.010588253 -0.024909634 -0.011671668 0.0048948587 0.037425127 -0.0045919376 0.06269729 0.054071948 0.043236494 -0.021249766 -0.06891265 -0.05967598 -0.07047352 0.049019873 0.0606217 -0.047174167 0.06356799 -0.019780513 -0.05777651 0.013026351 -0.033549517 -0.016851563 -0.012769357 -0.014406762 -0.058663875 -0.06404894 -0.0261085 -0.0669296 0.006057814 -0.046495035 0.03152787 -0.054571204 0.066186406 -0.05587576 -0.06225869 -0.03395044 0.03309402 -0.012501661 0.022890823 0.036415104 0.028322559 0.050100386 0.033186745 0.02924921 -0.04119465 0.0017685133 0.020187736 -0.017552292 0.061699115 0.002734884 -0.03354758 0.0018048859 -0.04706914 -0.0597448 -0.013844508 0.0487204 0.014735671 0.04972871 0.03549173 -0.0658856 -0.050911885 0.046806317 0.028877404 0.03289894 -0.039536435 -0.06601221 0.01634142 0.062274683 -0.047640685 0.013825527 0.028611269 -0.015323949 0.06928419 -0.05900742 0.007715889 0.04272921 -0.02001329 -0.053671554 0.032590277 0.051797956 0.04220828 -0.042509183 0.0721204 0.06440175 -0.024223678 0.038899932 -0.014059041 0.021210646 -0.025853783 0.0122560635 -0.019426605 -0.034012515 0.004047546 -0.033160053 -0.07808468 0.033018887 0.0536414 -0.041881815 0.060665384 0.07615921 0.052619282 -0.06356347 0.018330278 -0.07071529 0.043877307 0.015941545 0.04766806 0.006214682 -0.025836036 0.067345254 0.040398538 -0.033673104 -0.039217476 -0.052964382 0.061236117 -0.06702472 -0.053873375 -0.03513153 -0.016081866 -0.06261728 -0.004084813 -0.018990284 -0.054680187 -0.058454685 -0.06952974 0.05969893 0.046443075 -0.060027502 0.056083795 -0.031123068 -0.006679571 0.065297805 -0.057216708 -0.030515678 -0.04671245 -0.0044568167 0.05598408 -0.0026782055 0.043335438 -0.046596106 -0.012254429 -0.05832323 -0.04424911 -0.038051188 -0.0014735288 -0.051421233 -0.040232237 0.04837388 -0.0446149 0.00085734524 -0.022308556 -0.020469595 0.04967766 -0.035980046 -0.06199792 0.03471346 0.00077984383 -0.024227083 0.04851966 0.021230716 -0.020470742 -0.042918254 0.0064622196 -0.018355396 0.057644475 -0.01695751 0.025905438 -0.048251618 0.040937692 0.035852656 -0.062195726 -0.04474602 0.0709485 -0.01425317 0.06106415 0.031320225 -0.024734782 -0.044396043 0.04178104 0.005863356 -0.0032327278 -0.0661263 0.033460055 0.009005464 0.011958848 0.03790515 0.02832615 0.028812809 -0.05533153 0.037245587 0.024925824 0.034986407 -0.008649319 0.05331525 -0.068199486 0.023980133 0.049284875 -0.06470712 -0.00154037 0.05872883 -0.063657016 0.0136124985 0.068666786 0.048136365 -0.033499043 -0.028129794 0.010406236 0.041637857 -0.019131761 0.019843526 0.03434561 0.0051090685 0.08645447 -0.014498446 0.018557083 -0.0024476321 -0.018817648 0.013580475 0.008444634 -0.0360623 0.07072693 -0.071145624 0.022462385 0.03299828 0.0024389713 -0.0026720222 0.052555848 0.03091997 0.0072046486 0.025256861 -0.024144873 0.043657564 0.053266566 0.052714445 -0.047115892 0.061163973 -0.05329025 0.013286888 -0.0690364 -0.022490904 -0.057389647 0.0014705374 -0.0341849 0.010992435 0.039120052 -0.037437905 0.044260565 -0.017050344 0.063599095 -0.050960805 -0.0006326768 0.05835992 0.06679612 0.059327252 -0.033251945 -0.06092673 -0.069052815 -0.06628526 0.04343041 -0.023613187 -0.06308031 0.005457732 -0.056580614 -0.06599675 0.045425676 0.0025741274 -0.040403523 -0.04753007 0.02197205 0.0023728085 0.02723041 0.029625688 -0.03075371 -0.032292884 0.015227472 0.056713432 -0.06965964 -0.04035508 0.022649234 0.060610224 0.0514517 -0.027804947 -0.038245533 0.048076726 0.05241198 0.022636155 0.0340851 -0.04638984 -0.012298461 -0.045865346 0.043198537 -0.038624518 0.007000339 0.06647468 -0.003722527 0.0044141496 -0.065725066 -0.06768957 0.03875215 -0.035133466 0.062445547 0.018055886 -0.04375783 0.020453619 -0.033127747 -0.018559534 -0.02655204 -0.04039267 0.05597506 0.06534983 -0.019269789 -0.045980673 0.06893277 0.04320765 0.03513067 -0.050477315 0.019983698 0.039790858 0.05802954 -0.06683363 -0.032260884 -0.038505122 -0.018873172 0.02591097 0.018953621 0.02836383 -0.03528094 -0.027194371 0.054787993 0.020245967 -0.04967842 -0.039134413 -0.046002798 -0.04822374 0.026630588 -0.018897945 -0.014087368 -0.04951581 -0.028668743 -0.053595774 0.050896965 -0.068861075 -0.018454963 -0.030456241 0.045577593 -0.01076931 -0.02053875 0.01167794 0.0015936064 -0.013837121 -0.014350834 -0.020648874 -0.022502558 0.038932778 -0.05004141 -0.064398654 -0.029714582 0.038193647 0.024974206 -0.05144493 -0.02787752 0.03552246 0.028340649 -0.046001337 0.06929839 0.026548415 0.011398354 0.017939825 -0.06362638 0.037193377 -0.035827816 -0.039042402 -0.052856453 -0.056608334 -0.06822708 0.0148012685 0.03232156 -0.002649137 7.6599485e-05 -0.0175077 0.01037913 0.043310344 0.03259882 0.042795967 -0.013365255 -0.056051582 -0.018048529 -0.008370975 -0.032154948 0.041363653 -0.052544013 -0.06961396 -0.023155155 0.057366163 0.038170557 0.060606644 -0.06897535 -0.058777303 0.06902561 -0.0039000136 0.056232825 0.016499814 0.05483724 -0.06685057 0.042625874 -0.049620755 -0.028409109 0.06917609 -0.044181645 0.061575975 0.0040145908 0.06458347 -0.03992397 -0.06489584 0.033417262 -0.038830157 -0.022464538 0.01283773 0.010403319 -0.0055889613 0.012853923 0.06468102 0.036900446 -0.05131249 0.04604725 -0.04012016 0.04767071 0.05431296 0.049776666 -0.009347956 -0.026548905 -0.01357125 -0.07518231 0.019329842 -0.007708985 0.012961632 0.047722436 0.044698063 0.01634244 0.06636906 -0.014437507 0.048254475 0.041683573 0.030165417 -0.02411528 -0.009630143 0.064221464 -0.026192157 0.038645703 -0.00051229924 0.010179335 -0.05982695 -0.00082244934 -0.047633626 -0.01366051 0.05528909 -0.0055864016 -0.022032231 -0.03236207 0.024495415 -0.01854412 -0.06356152 0.011365019 -0.06581867 -0.03872 0.0152257 0.015493306 -0.008605553 0.0364337 -0.018738698 0.043569665 0.028704926 0.01597168 0.05482379 -0.008090553 -0.0072646867 0.06524359 -0.035894644 0.008877492 -0.018996358 -0.04911647 0.012810478 -0.029435623 -0.029085241 0.0033637744 0.047476113 0.039398573 -0.013848934 0.04419362 -0.039170068 0.023972586 -0.037492894 -0.0069375024 -0.0037662175 -0.06365272 -0.03256869 -0.026583776 -0.012447189 -0.035923537 0.06993968 0.06789563 -0.008366081 0.025260787 -0.023350343 0.054132197 -0.015542883 0.030835645 0.013043254 -0.034773357 -0.041357897 -0.021947058 -0.0052171424 0.029467551 -0.056661002 -0.01957053 0.013626099 -0.041415405 -0.052904703 -0.0020162016 -0.062049672 0.0703134 0.010020522 -0.046811614 -0.037928354 0.0702784 0.066407025 -0.036431488 -0.054177694 -0.030214908 0.014637919 -0.03588241 -0.018427212 -0.0024614544 0.059202515 -0.02359296 0.05813687 0.03353332 -0.040381916 -0.049387578 0.06755535 -0.0037442448 -0.013013699 0.024194181 0.002907707 0.030269893 -0.058951415 -0.034402635 0.020354964 0.050495107 -0.020282285 0.019397764 -0.056666296 0.041845195 -0.037598804 -0.008844154 -0.002081577 -0.031447582 -0.06109718 -0.05458879 0.038452707 -0.06916019 0.026856195 -0.013295489 -0.022577325 -0.03418504 -0.06425349 0.050933715 0.017079689 -0.04182791 -0.031021383 -0.037724562 -0.045875367 0.05541682 -0.035499558 -0.04981226 -0.0028872371 0.054743946 0.0429354 -0.03429487 -0.06239778 -0.060086504 0.059922323 -0.008756093 0.021640852 0.02797331 -0.008742872 -0.057070184 0.060666222 -0.04458546 0.013393665 -0.012927521 -0.06874873 -0.045970682 0.05948409 -0.021700831 0.064142644 -0.04232208 -0.016205737 0.04616085 0.009835883 -0.06354965 0.039319254 -0.026947355 0.0031646728 -0.05133674 0.03490317 -0.0029762634 -0.069701254 -0.042790215 -0.00393766 -0.066809855 0.034030378 -0.02074724 -0.008703342 0.021008017 -0.061515227 -0.033230674 0.0681417 -0.04431642 0.0059378734 0.06407522 0.041689623 -0.006214887 0.033698816 0.06916907 -0.03711623 -0.049033195 0.03896669 -0.009396623 0.059744358 -0.009990614 0.029556576 -0.009989827 -0.022262046 -0.01874119 0.023330612 0.04030017 0.07375461 0.0030582543 -0.026439475 -0.02749066 -0.061088216 -0.03273824 0.045225587 0.036868893 0.027662402 -0.07914585 -0.051712696 -0.03304368 -0.06284166 -0.05990337 -0.05387449 0.011981571 0.017700164 0.05475685 0.033327773 0.0819713 -0.028651038 0.044787668 0.04212419 -0.024306735 0.051181566 -0.008263827 -0.035968784 0.053282283 0.06331856 -0.042730726 0.0028246276 0.04544489 -0.0632334 0.042353857 -0.035931315 0.014190409 0.030936975 -0.0360013 0.070365906 0.02303301 0.07607341 -0.084495656 0.032583673 -0.03352793 0.036063053 0.057492588 0.013346267 0.07086348 0.07285253 0.04215341 0.025820866 -0.009375328 -0.024167493 -0.011222718 0.044673353 -0.078415394 0.03394881 0.001749921 -0.061552618 -0.008463539 -0.00014051348 -0.041267034 0.04975069 -0.07332572 0.023610761 0.011484441 0.07064758 0.04350363 0.06740815 0.038896117 -0.039194245 -0.008716232 0.0041369447 -0.0056524486 0.026864639 0.061448906 -0.024198955 0.05782792 0.07844582 -0.037808865 -0.04261026 0.06348675 -0.049159378 0.031532034 0.0090124495 -0.048452385 0.024582118 0.095996454 -0.01023709 -0.0639528 -0.06613549 -0.028091056 0.004969045 -0.061248824 -0.06332159 0.0673733 -0.014997754 0.05391042 0.047181375 0.03719398 -0.038248885 -0.018281208 -0.043274015 -0.0055437833 0.008801871 0.03370572 0.0065493593 -0.05885145 -0.051607616 0.07903541 -0.047593053 -0.004235608 -0.04957493 0.059951454 0.031844415 0.012344462 -0.05928059 0.0032403362 0.016425516 -0.056176625 0.0566858 0.026384067 0.009061387 -0.011867815 -0.029734455 0.018225865 0.059790052 -0.037478242 -0.02004543 -0.0033418238 0.0058754347 0.019939216 -0.055725247 -0.01921537 0.027587127 -0.015959483 -0.020379862 0.004255985 -0.065393865 0.008832291 -0.01775333 0.009596774 -0.074122064 0.037196394 0.050377075 0.050167404 -0.0015064476 0.032833382 -0.020571984 0.033708766 -0.0065492364 -0.04829382 0.019711535 -0.052022867 -0.024370681 0.046081025 -0.009674381 -0.032592572 0.049949657 -0.06810683 0.0077494653 -0.050588213 0.043827284 0.010700109 -0.03919847 -0.043491118 -0.013173298 0.046258695 -0.006465055 -0.044030733 -0.050679035 0.0012858167 -0.060912166 -0.06658452 0.044128995 -0.012468366 0.058277495 -0.002684164 -0.0002799941 -0.005299941 0.017311236 0.024240512 -0.059700277 -0.055067528 0.04957885 0.0037136343 0.055080283 -0.06156135 -0.045567058 0.05223902 0.04946805 -0.014252152 0.06353876 -0.04185542 -0.056209188 -0.05779512 0.063589655 0.0058492175 -0.032062136 0.060135785 0.07311821 0.044139054 -0.057956297 -0.04875556 0.02268035 0.03998866 -0.0060443487 0.06278349 0.017547412 -0.015979629 -0.03359083 -0.052771717 -0.05893078 -0.04385117 -0.033439666 -0.012574411 -0.019593496 0.031226834 -0.0030945258 0.06411951 0.007850174 -0.045266487 -0.013693259 -0.03826148 -0.0473291 0.044946533 0.02912213 -0.0052038827 -0.03955227 0.009153183 0.043092944 0.037154485 0.038705476 0.05895391 0.031015297 0.030909838 0.024661481 0.060067445 0.032130998 -0.05495539 -0.066727094 0.023999257 0.060598876 0.0752861 -0.044621374 0.0067873183 -0.040811975 0.019505395 0.06698116 -0.021141212 0.013269576 0.017719176 -0.044422906 0.07024929 0.0019218298 0.05060341 0.0064657195 0.045184344 0.031214897 -0.028183809 -0.057062782 0.042808864 -0.06499713 -0.060337935 -0.026764076 0.020724725 0.04216546 0.033011876 -0.03530054 0.032639872 -0.02988354 -0.03856825 -0.065461144 -0.06551514 0.062482916 -0.047381297 -0.019813918 0.033850886 -0.06851083 -0.00097164174 0.06010192 0.068316795 -0.059576474 0.05523828 -0.04912562 -0.05466805 0.017078536 0.04268095 -0.03529929 -0.030322554 0.026569039 -0.0657806 0.006710871 -0.017108375 -0.03876217 -0.05621142 -0.036802545 -0.00648403 0.025216624 -0.06006375 0.02662335 -0.05085421 0.06043277 -0.009218806 -0.022935444 0.039226525 0.036199655 -0.014815683 0.041710056 -0.053914454 0.05858919 0.080718085 -0.05002264 0.06552424 0.05664719 0.05683911 0.033895064 -0.039292384 -0.014389517 0.03543251 -0.06008236 0.0497943 0.072996795 -0.03823015 -0.02204064 -0.059226617 -0.032945998 0.04122137 -0.00018580182 0.04411894 -0.06294312 -0.030601922 -0.03569432 -0.056533642 0.05031713 -0.050584134 0.05100952 -0.052703157 -0.037887577 -0.015878167 -0.0665166 0.04027973 0.009696891 -0.021165958 0.070669204 -0.01740656 -0.04326242 0.04336312 -0.02845797 0.011647352 0.028419405 0.06334147 0.04394575 0.043412905 0.021849647 0.03692114 0.020026928 -0.016381253 -0.06677344 -0.067951456 -0.029372869 -0.027368568 -0.018682988 0.046314172 -0.029748984 -0.05552078 -0.05090997 -0.013003267 -0.060807582 -0.022407884 -0.05538221 -0.053392142 -0.06826392 0.02808019 0.012360778 0.03413679 0.027129905 -0.046240643 0.029297493 0.04699445 -0.04350142 0.049286485 0.008664092 0.03955224 -0.0049182773 -0.024186423 0.06495846 0.05947397 0.005864214 0.035547737 0.0435444 0.048832107 0.048553973 0.061694775 0.058197655 -0.06484664 -0.0004919416 -0.022338394 -0.063812315 0.04618327 0.075177506 -0.025137508 0.06045972 0.015102738 0.016486635 0.05651879 0.0788342 -0.04904374 -0.014221062 -0.052542895 0.037587237 -0.06800029 -0.026514778 -0.006671761 -0.042907882 0.065881915 0.008165077 -0.057750497 0.025351431 -0.003363836 0.041797783 0.014390934 -0.02518674 -0.08407486 -0.054942925 0.05047326 -0.037451368 0.054888826 0.02928033 0.017198028 0.03429009 0.024615955 -0.033317015 0.026458014 -0.009120807 -0.010223309 0.04167753 0.005818022 -0.01612637 -0.03502633 -0.005781314 -0.05964844 0.046852414 0.09192438 0.06735916 0.040567856 -0.018900093 -0.04451303 0.027795749 0.01571803 -0.012783132 0.09335152 -0.010529803 -0.01932632 0.0754168 0.04742905 -0.025414204 0.093295835 0.021652706 0.07851088 0.008589117 0.039130844 -0.054678947 0.0160958 0.025083167 3.9522303e-05 0.06664482 0.06908091 0.0607272 -0.04615736 0.014421424 0.09057465 0.027917167 -0.03803426 -0.07829092 0.09826771 0.021748245 -0.020109763 0.024331996 0.0073743854 0.07995781 0.038753487 0.078430794 -0.036673125 -0.07781389 -0.019376673 0.053614583 0.024712635 -0.018063879 0.011148693 -0.04952224 -0.038395766 -0.082307756 -0.02893282 0.034376755 0.014574729 -0.050307307 0.0006247221 -0.0027371969 -0.010932281 0.034870256 -0.002102665 -0.04856757 0.025144506 0.006223895 0.017346095 -0.009553355 -0.07564881 -0.05717284 0.02598295 -0.058706895 0.055903018 -0.026999963 0.03792463 -0.054451555 -0.010670333 -0.051449206 0.038470067 -0.012272443 1.8099498e-05 0.042501222 0.0292641 -0.01732819 -0.04435902 0.013640366 -0.058200587 0.03283219 -0.043873303 0.049402475 -0.043992806 -0.031321265 0.026679166 0.011437842 -0.055774838 0.039674025 0.008767 -0.035205003 -0.01433475 0.045024026 0.04672939 -0.0675063 -0.043411206 -0.0003407101 0.013475777 0.080240324 -0.052712988 -0.076742046 0.04974069 0.01090369 0.06992816 0.018042358 0.06959235 0.05561124 0.03859758 0.03735827 0.07135795 -0.0664631 0.02756086 -0.01560019 0.033048697 0.004592694 -0.057423614 0.068949886 0.028101888 0.050706506 0.05175076 0.020125655 -0.05312056 -0.034915786 0.030529113 -0.012855133 -0.04305351 0.050578892 -0.049494617 -0.054651495 -0.07357661 -0.04647746 -0.04700074 -0.05623561 -0.010441121 -0.049451735 -0.013037959 0.038543414 0.060347784 -0.00020662816 -0.037460823 -0.060721006 0.06945456 0.03549369 -0.0040391427 0.065058924 0.010666168 -0.03907204 -0.049401186 -0.014604194 0.041991502 -0.03999058 0.0202749 -0.058768038 -0.058184147 -0.018409593 -0.048617356 0.065788396 -0.06780947 0.03518484 -0.066419266 0.034454834 -0.0143642705 -0.028903002 -0.033285696 -0.02176083 -0.06747402 0.006861053 0.025374377 -0.04029158 0.0059358687 -0.068440296 -0.04187578 0.06669506 0.01612552 0.049786773 0.003773096 0.054264136 0.06606325 -0.039984234 0.04393008 0.017619792 -0.06661353 -0.057964012 0.017589532 -0.025085695 0.0070629297 0.06721717 0.04404847 -0.047686424 -0.06360572 -0.0077103768 0.053448588 -0.03190347 -0.026720826 -0.0354306 0.02628416 0.029440377 0.047144208 0.0032472804 -0.038349643 -0.030169798 -0.07025495 -0.027774682 0.029439906 -0.0038141583 -0.032174688 0.027450964 0.02466866 0.009320275 -0.05541245 -0.0150256585 -0.06610574 0.0003300696 0.044742353 0.009162236 -0.047460947 -0.009870943 0.050533477 -0.013857971 -0.059367068 0.017173931 0.008669852 -0.03625966 -0.06353731 0.06806524 -0.007541363 -0.06402216 -0.065804385 -0.06915381 -0.014663319 0.032707315 -0.067994 0.037122384 0.06672251 0.01776485 0.023584627 0.0061885454 -0.031010041 -0.003994768 -0.030409487 -0.040485773 0.0592642 0.059927445 0.0322791 -0.049790036 0.008906534 0.0006902932 -0.07001269 0.05531729 0.019673001 -0.0043849424 0.008875541 0.047795903 0.060175665 -0.010328297 0.04376947 -0.06427818 -0.010255641 -0.06754659 0.022533242 0.010184062 -0.024500387 -0.024779962 -0.011787547 -0.041603655 0.04637786 -0.030415172 -0.03617083 0.007097931 0.0053938 -0.0010282052 0.06386573 0.0395474 0.06890953 -0.030195314 -0.04229022 0.012440961 0.031912796 -0.016123239 0.037308022 0.04233519 0.033358917 0.06374972 -0.055237707 -0.07000012 0.002211694 0.013493705 0.034750793 -0.018751582 -0.00060874154 -0.044665862 0.061057422 -0.055427045 -0.06817614 0.036945943 -0.01353559 -0.015295038 0.06744261 0.0023906955 0.031457722 -0.026257517 0.05612078 -0.04848104 0.06422774 -0.003630572 -0.05531137 -0.05046326 -0.061140344 0.056602918 -0.06955882 -0.023781775 0.068963684 -0.0521548 -0.022827283 -0.0322223 0.06500853 -0.011588828 0.06496438 -0.024053622 0.021415154 -0.051826175 -0.023917975 -0.037399955 0.04573228 0.024020717 -0.017959306 -0.058687035 -0.053530775 0.029027173 0.03337573 0.043706197 0.039094348 -0.02535004 0.031393953 -0.008075772 0.036130294 -0.04775865 0.00079967227 0.0005656211 -0.01760823 -0.0033339283 -0.003486126 -0.068559125 -0.015948826 -0.051271822 -0.032898966 0.06364675 -0.02641597 -0.010208032 -0.0068943 0.015230546 0.036310833 0.037628926 0.067573875 -0.06797127 0.026532874 0.03152211 -0.0030682145 -0.049324796 -0.023122743 0.06631227 -0.043311156 -0.057629816 0.007060759 0.03476157 -0.037711535 -0.01673111 0.04984974 -0.058288228 0.024604551 0.039778844 0.0039305785 0.00080747774 0.050616764 0.05894247 0.042803623 -0.009719797 -0.005502212 -0.06523604 0.017421221 -0.052128136 -0.05164493 -0.051230576 -0.051107246 -0.03166814 -0.01599827 -0.04931233 0.018636689 0.058364883 0.033608023 -0.024875823 -0.004183129 0.054832973 -0.010935845 0.0082081305 0.013009836 -0.015339725 -0.026188325 -0.039053626 0.049374346 0.052861124 -0.020064827 0.032625522 0.017334659 -0.059472103 -0.06738331 -0.013912744 -0.04345937 0.043361705 0.036035787 0.00067119865 0.014397288 -0.07101171 -0.0567891 -0.04651293 0.016616657 0.060994223 -0.018388424 -0.05013176 -0.045563597 -0.019709285 0.0011555329 0.03658385 -0.06729734 -0.014962604 0.016631283 -0.023180058 -0.06995454 -0.053392336 0.050054565 -0.009073407 -0.04749873 -0.0011564349 -0.021339644 0.026299361 0.007191494 -0.04717545 0.018241925 0.05598892 -0.03929023 0.06422591 0.06578063 -0.049256913 0.024221418 0.057836838 0.034875985 -0.012137025 -0.026522297 -0.07056988 0.003830056 0.022206172 -0.038238123 0.037360866 0.018588077 0.021546395 -0.026919147 -0.029662529 -0.039819814 0.0429396 -0.024929147 -0.044857938 -0.06495784 -0.042388044 0.007681505 0.06699463 0.028778406 0.027475929 0.0028630681 -0.004933432 -0.023088979 -0.03336062 0.015515531 -0.052006133 0.009181157 0.06715269 0.01679048 -0.05460959 -0.06506048 -0.062568605 0.06366145 0.046774443 0.019221256 0.050139047 0.0056524235 0.0127449855 -0.061361715 0.065077625 0.03786873 -0.053943004 0.021660915 0.003247408 0.04034479 0.03991591 0.040276438 0.04137481 -0.004073075 -0.024635794 0.03579677 0.064060904 -0.053899344 0.04948877 -0.070391886 0.051743127 0.02707432 -8.563254e-05 0.060493924 0.06652893 0.021405451 0.0018050745 0.06427801 -0.064858265 -0.013294346 -0.05898532 -0.048841007 -0.016236348 0.025595868 -0.054986853 0.023068964 0.009537231 -0.06815864 0.04479656 0.04147884 -0.060034655 0.0019830654 -0.01460446 -0.06349799 -0.012519168 -0.03201849 0.0402739 -0.050749023 -0.062958695 0.020688321 0.042792324 -0.060479034 0.010320955 -0.013247896 0.049536824 -0.05182475 0.038547136 -0.066294245 -0.013921399 0.059476744 0.02849883 -0.06283957 -0.027956497 -0.06818905 0.0093835015 -0.0130658485 0.046977654 -0.0172944 -0.038745888 0.00037862457 0.03871122 -0.018266365 0.0110349115 0.008792137 0.018451162 -0.057300072 0.059379928 -0.0051883347 0.050146714 -0.06562644 -0.0033245 -0.054878153 -0.040783223 0.010494063 0.042905558 -0.010783873 -0.056702483 0.061066996 -0.07443057 -0.02236102 0.036662128 -0.07790705 -0.050129656 0.067076646 0.013930205 -0.0034084239 0.06765646 0.06505113 0.06793524 0.03256515 0.022226196 -0.023224758 -0.043780025 -0.054350663 0.028593691 0.0714486 -0.0035114351 0.009570507 -0.0023388716 0.008712164 0.015708266 0.04097922 -0.018945176 0.019932492 -0.012968256 0.015525831 -0.022404889 -0.002356982 0.04493043 -0.05555543 -0.060065217 -0.037992824 -0.054544307 -0.04856183 0.05132925 -0.0045334464 0.044504445 -0.057537638 -0.01527789 -0.033713255 0.04271348 -0.05677242 0.063578814 0.0035759648 -0.06880353 0.018077597 -0.044783108 0.025005732 0.018737808 0.029710311 0.0031730607 -0.038857307 0.04467985 -0.039142776 -0.04628083 0.0029419574 0.07232604 0.035331946 0.009540097 -0.044259194 -0.005547248 -0.015229157 -0.06510728 -0.0031773 0.048045486 0.06268948 0.035565794 -0.051138926 0.050678693 -0.06769898 -0.03587456 -0.017809743 -0.045621216 -0.03365884 0.03467708 0.040789768 0.06995232 -0.03008257 -0.04657834 0.056783684 -0.017220357 0.033575285 -0.06104704 -0.061680123 0.01569795 0.017479721 0.054109525 -0.031997036 0.045503125 0.055637237 0.0030417896 0.022402592 -0.0039757304 -0.026773106 -0.036492303 0.059425686 0.030121801 0.042626962 0.06795403 0.048382547 -0.013135874 -0.059131365 -0.021749228 -0.072496034 -0.04744738 0.028395828 0.064075746 -0.026926558 0.02513169 0.062320907 0.039104033 0.022329671 0.044495154 -0.0354118 -0.021927275 0.016806899 0.029823894 -0.00297157 -0.044129856 -0.065294504 -0.03869058 -0.05174207 0.05265217 -0.051350303 -0.028443545 -0.06341563 -0.07222161 -0.05960107 0.03682006 -0.00019328244 0.054798566 -0.012111742 0.0033566349 0.048824746 -0.06704798 0.00877998 0.032563 -0.0046002623 -0.06868701 0.04623388 0.023431983 -0.06711757 0.068782926 -0.07003283 -0.049133655 -0.02969358 0.0141137885 0.03052901 -0.028808638 -0.04527495 0.019009294 0.06202134 -0.017963199 -0.05739455 0.009602764 -0.0030222062 -0.0673334 -0.056026876 -0.0018986799 -0.048521686 0.041689977 -0.011037956 0.04937091 0.037403405 0.050184045 -0.019840395 -0.05487051 0.03166928 -6.555218e-05 0.0022588212 -0.026593028 -0.025644224 0.038876764 0.01269618 -0.0011405018 -0.027529867 0.019968165 0.043980904 0.055831898 0.063954644 -0.010036157 -0.046908114 0.031906504 0.06245908 0.046207145 -0.0025674666 -0.055367287 0.010908011 0.020266445 0.030793034 0.056405596 0.0666236 0.05274939 -0.0458483 -0.024638815 0.014905937 0.060790304 0.03581863 -0.03592636 0.025161393 -0.020552494 0.040954795 0.05182315 0.04999335 0.00905172 0.058990017 -0.018933402 0.035413746 0.025362367 0.011140019 -0.05291862 -0.003008905 0.033642933 -0.049875014 -0.05854189 -0.015460798 -0.016845938 -0.019038433 0.030108348 -0.045247454 0.06249752 -0.050275583 0.009092233 -0.037427977 -0.034009013 0.011031419 0.015709043 -0.059602946 -0.008316275 0.016214205 -0.03769176 0.061915375 0.033778295 0.044977874 0.056365196 0.012168375 -0.04586661 -0.031788215 -0.036580037 -0.010475367 -0.06301051 0.017627835 0.041728806 0.06444941 0.0088809375 -0.0036631632 -0.03645512 -0.061035354 0.023747243 -0.04336187 0.028513022 -0.0047696093 -0.013078868 0.064423084 0.05822881 0.05189718 -0.014987161 0.0029922794 0.006465741 -0.040662028 -0.05864469 0.046921942 -0.024208957 0.05193215 0.04664125 -0.050149772 -0.031371042 0.03314717 0.06612491 -0.03978595 0.058983885 -0.0523156 -0.058651417 -0.036550865 0.056946985 -0.05740905 0.068471216 -0.015670763 -0.002764143 -0.06361375 -0.029017376 -0.0013336616 0.011738709 -0.05727879 0.02308298 -0.000588245 0.050620228 0.011081817 -0.04989679 0.0009363549 -0.067646794 -0.007934821 -0.0694396 -0.05593848 -0.01644648 0.020241143 0.029575242 -0.066831045 0.01701138 0.016566964 -0.000875207 -0.062046587 0.044050395 0.047546733 0.035156313 0.032239523 0.004362959 0.044136986 0.017600315 0.012345381 0.039301366 -0.047617752 0.012254656 -0.061034072 0.009577177 0.026826624 -0.052850302 -0.007886017 0.04295015 -0.054160554 0.02666044 0.026217686 -0.0028618725 0.021221764 0.016603919 0.042512897 -0.049132023 -0.02075563 -0.010245774 -0.060176216 -0.044602275 0.023631541 0.0065948693 0.013084272 -0.06957828 0.004194012 0.007964179 -0.019776624 0.025829367 -0.06006456 -0.02667637 -0.046111792 -0.03994035 -0.04773677 0.05433951 -0.06476052 -0.040758494 -0.06956019 -0.02212797 0.060228374 -0.017727258 -0.060988497 0.037745677 -0.015930828 0.00057875 0.014871382 -0.042659465 0.07021291 0.030021377 -0.024431027 -0.01689571 -0.012995995 -0.02905136 0.042862535 -0.0353899 -0.0031721569 -0.033373684 -0.053092152 -0.061960503 0.017405538 0.023949482 -0.015820647 0.041872516 0.05048837 -0.027695559 0.053623315 -0.00237913 0.014613687 -0.0075156856 0.050005548 -0.036039457 0.058838483 0.06202198 -0.067552574 -0.04657126 0.0202176 -0.02797905 -0.02247052 0.042924136 0.020890739 -0.034380972 0.026402883 -0.008924453 0.038160775 -0.054325216 -0.06035794 -0.0061752074 -0.030716252 -0.047386315 -0.06367415 -0.054858703 -0.0047915266 -0.01335578 -0.04344348 0.026357887 0.017920928 0.05139032 0.033215128 -0.026776709 0.02397797 0.028677814 -0.006323215 -0.025485367 -0.044859946 0.042082824 -0.007853083 -0.007998043 -0.008034982 0.048290912 -0.00088307034 0.009597566 0.05706404 -0.03520286 0.04021973 0.042637967 -0.042303614 0.021877546 -0.025226064 -0.025958383 0.02359048 -0.0491411 -0.03392887 0.032093026 -0.028112395 0.035470325 -0.020493023 0.066034645 0.011289932 -0.046900056 -0.017813314 -0.052004073 0.028421082 -0.027631944 0.06075807 -0.069295496 -0.044648044 -0.005521312 -0.015431537 -0.035477616 0.046980727 -0.0033287778 -0.027468052 -0.0014313059 0.07450242 0.0086552175 -0.050296668 0.019380396 0.03065187 -0.016438274 -0.0687984 -0.031075725 0.037241165 0.06532297 0.051017836 -0.022423359 -0.051321752 -0.07454997 -0.012493813 -0.033214696 -0.0017549248 0.0073061297 -0.05866205 -0.017877601 0.03818466 -0.0509408 -0.06510291 0.058981083 0.066137984 -0.028111555 0.018734908 -0.052695453 0.042878345 0.008066711 -0.003113234 0.051115137 -0.0048526255 0.059014935 0.049076155 -0.06424798 0.02642782 -0.062601075 -0.030684859 -0.042376556 0.011027843 -0.062297795 -0.053849958 -0.014660835 -0.033385675 -0.02694749 0.0017234016 -0.016267685 -0.036265187 0.0058118743 -0.022830876 -0.051819474 -0.031803235 0.045743775 0.003165466 0.027112344 0.021932378 -0.059058994 -0.067516364 -0.044344276 -0.0330425 0.06424698 0.024471467 -0.050785065 0.041113243 -0.036651757 -0.07467109 -0.04309262 -0.012843063 -0.0027484712 -0.04299764 -0.06562909 -0.032291908 0.072962604 0.05359429 0.04221364 -0.03762587 0.017983638 -0.039866515 -0.06371486 0.0046754773 -0.0152078755 0.048100024 0.01131583 -0.049269237 -0.01732579 -0.0034742963 -0.032697007 0.06437867 0.014587049 0.015522796 -0.041993473 0.042820126 0.065339245 0.02078656 -0.011118107 0.031418774 0.022230253 -0.061941806 0.04439454 0.055925973 -0.06526601 0.04743765 0.031879924 -0.016943647 -0.042638093 0.07437311 -0.048715852 0.057906903 -0.02714723 -0.014753364 -0.025562305 -0.06140634 -0.03265537 -0.02275513 0.040140256 0.042076457 0.026065985 -0.0562295 -0.015720278 0.018246265 0.0076942462 0.031059679 0.034416825 0.038282335 0.034785327 -0.04049326 0.011345965 0.044467498 0.017258978 -0.016612899 0.06847096 0.044861324 0.009032756 -0.0056673363 -0.06925487 -0.023123894 -0.017117228 -0.009650165 0.010637115 0.03329566 -0.049821384 0.025674148 0.0039416626 -0.032280073 0.023305818 0.06804054 0.013678919 0.019676099 -0.05931697 0.0029473668 0.013015218 -0.03529435 -0.060783926 0.03497039 0.05569867 -0.016327202 -0.04767085 -0.028699357 0.051028274 0.058834985 0.026103966 -0.03247087 0.009877625 0.047213398 -0.011649095 0.061546527 0.0018736343 0.027702084 0.052892204 0.012944191 -0.0345333 -0.010938735 -0.013035902 -0.06643414 0.0705994 -0.044017773 -0.054312862 -0.009581392 -0.055064656 -0.062200557 -0.008081882 -0.06116523 -0.027061306 0.035594553 0.016744422 0.034184538 -0.03776758 -0.05949775 -0.044043817 0.004350987 -0.007259003 -0.048101306 0.04076093 -0.0042596995 0.021982847 -0.061850373 0.012825869 -0.06281761 -0.027659252 0.019293902 0.045839988 -0.039597824 -0.051821165 -0.067271955 0.06589275 -0.0269669 -0.04448865 -0.042488966 0.006363815 -0.06361806 -0.007884294 -0.049575794 -0.005691686 0.04022997 0.031849943 0.016048012 -0.00072668504 0.05678796 -0.06440207 0.0040324363 0.062994465 0.0397844 -0.0051732883 -0.051394954 0.07011502 -0.04450265 -0.046047226 0.050713316 -0.022690512 0.008197925 0.055723682 0.05213347 0.03793494 -0.03733165 0.04245068 -0.03416928 0.040833905 -0.06560655 -0.019069552 -0.020064421 -0.020365356 -0.07016352 0.016638706 0.029177582 -0.061725758 0.06751856 0.011779188 -0.0030350313 -0.003491277 -0.04079114 -0.06265547 -0.06907339 -0.033263456 0.00412066 -0.0012243766 -0.0028271563 -0.039701626 0.058625218 0.067392424 -0.012084806 0.046014227 