Linear 17 80
0.21937574 -0.11819974 -0.15595207 -0.03403655 -0.13845006 -0.23679702 -0.16765769 0.21837911 -0.06110958 0.19603132 0.09949454 -0.012605509 -0.08027466 0.17674762 -0.055487007 -0.15869512 0.11034594 -0.11584867 0.111465186 0.0699577 -0.20533144 -0.12122065 0.06388859 0.016147818 0.028652921 -0.006620914 -0.04935913 -0.042725712 0.1189241 -0.08627289 -0.088523865 0.23454574 0.22744757 0.17574872 0.2118899 -0.18923613 -0.047956843 -0.17780384 -0.110168785 0.1734717 0.21462452 -0.2428182 0.1935741 -0.13994123 0.19534072 0.085428 -0.16576749 0.17210379 -0.09422337 -0.093800806 -0.13083296 0.111738384 0.08351626 -0.12377518 -0.13448143 0.034187663 0.116038255 0.11417176 -0.20101407 0.09307965 -0.23185445 -0.043146975 -0.0095462445 -0.21858333 0.1433671 -0.16827743 0.053766176 -0.12865327 0.12735386 0.050021987 0.124423765 -0.0043079862 -0.121998124 -0.06596955 0.18928948 0.044479214 -0.107826315 -0.115795195 -0.051824313 -0.09334543 -0.08829615 0.23319672 -0.08845731 0.24591047 0.20369834 -0.12444032 0.13399336 -0.22859953 0.057967596 -0.16229977 -0.1609991 0.097993426 0.10664407 -0.057408385 -0.017119747 0.10602829 -0.23183864 0.03533433 -0.22386968 -0.06974899 0.20792769 -0.04940607 -0.10691707 -0.22678438 0.23153007 0.08299625 -0.18723387 -0.05792631 0.1899425 -0.2331245 0.023409419 -0.1834805 -0.18349954 -0.050637692 0.091688305 -0.23999926 -0.13852638 -0.19418247 -0.05386278 -0.11279759 0.13391031 -0.0041727233 -0.03273173 -0.21288946 0.0068654353 -0.23250644 -0.21782577 0.09472524 -0.242922 0.0098303845 0.059359707 -0.01561001 0.16160558 -0.053702064 0.166907 -0.13809367 -0.17397425 -0.15082839 0.1313922 0.014253554 -0.00027464615 -0.07448202 -0.11330746 0.06987183 0.012969326 -0.014829356 -0.1017529 -0.14847831 0.04723208 0.015582211 -0.25802726 0.21496338 0.1272242 0.11740599 0.09702086 -0.061914787 0.048956577 0.1430654 0.0384261 -0.1105081 -0.10645578 0.005428215 0.21002077 -0.15193576 -0.108142726 -0.14447032 -0.17865796 0.03489531 -0.028562779 0.013588889 0.23260555 0.024696767 0.19446634 0.039187547 -0.032731768 0.17840414 0.08422947 -0.044437733 -0.00049645297 -0.11952329 -0.024420561 0.15994252 0.2036186 0.21987993 -0.1472291 -0.011706338 0.093128614 0.1717062 -0.13344371 -0.19477198 0.08742039 -0.13832393 0.24728628 -0.151003 0.11676677 -0.06659986 -0.19720903 -0.2361996 0.109137654 -0.07225056 -0.1515076 0.24374272 0.14628597 0.16200992 -0.10560845 -0.012664713 0.052062936 -0.030942459 0.12033828 -0.062695324 -0.051485233 -0.022431899 -0.09962525 -0.16703336 -0.024148464 -0.0881796 -0.079419315 -0.10221528 0.10394506 -0.03858561 0.18714447 0.05869729 -0.069428936 0.25089142 -0.07510156 -0.19703054 0.13243745 -0.15125228 0.17851289 0.1996775 -0.068507485 -0.09873406 0.08626571 0.13027407 0.18577354 0.019043287 0.026507918 0.21382272 0.066088684 -0.19575399 -0.1038583 -0.021575145 0.061305486 -0.23064588 -0.25941744 -0.14538766 0.027359303 0.1277955 -0.2001508 0.106366664 -0.0069413707 0.2046168 -0.13050929 -0.07714692 0.05360013 -0.23418921 0.16280712 -0.1014357 0.05119539 -0.1526682 0.1932586 0.07583661 0.031598423 -0.11862424 -0.17503174 0.019700052 -0.16637205 -0.007417461 0.21125513 0.06657144 -0.06712306 -0.08492914 0.10070928 -0.19119363 -0.19161937 -0.026036242 0.15468729 -0.13773772 -0.018506441 -0.10915594 0.13775681 -0.11623669 -0.032707978 0.114685826 -0.09886487 0.23689263 -0.12992735 -0.08765289 0.027324237 -0.11541786 -0.23981823 -0.18544792 -0.21736723 0.21113767 0.019277483 -0.123951636 0.08926724 0.013621726 -0.123399444 0.16044714 -0.15962411 -0.16815794 0.16509566 0.121447876 0.11148098 0.07810021 -0.08837461 -0.25189182 0.0092828125 0.14595957 0.1476225 0.013334289 -0.063132286 -0.0309239 0.17215447 -0.006980631 0.22652969 -0.103126116 0.052550644 -0.14233127 0.06948833 0.18517654 -0.19844024 0.2173076 0.19668472 0.21753556 -0.096787006 0.20873341 -0.039124545 -0.15385465 0.2758134 -0.2210889 0.22184171 0.056288507 0.21042956 0.07819787 -0.17224105 0.044087525 -0.14618346 -0.06643709 -0.061493922 -0.11151668 -0.032381117 0.1709704 0.14385855 -0.21024965 0.14648253 0.07230713 0.04790116 0.03263034 -0.11742873 -0.19456872 0.070607446 0.21387284 -0.24259478 0.22454202 0.14168711 0.14402974 0.15483238 0.17598957 0.013325051 -0.11537358 -0.15262973 -0.20945533 0.018043166 0.02147614 0.04559654 -0.16821302 0.16221552 -0.14041436 -0.2215932 0.21407071 0.049751073 0.18541579 0.009875063 0.25004905 -0.0012986552 -0.09393836 0.13527709 -0.017481333 -0.09707404 -0.025176665 0.12149095 0.17420736 -0.183162 -0.15605536 0.1627587 0.18643576 -0.087324694 -0.06819225 0.09244531 0.20388255 -0.1723095 0.065693684 0.14086175 0.068578385 0.27730152 -0.19797492 0.116134666 -0.041263834 -0.116712056 0.054671306 -0.05106869 0.20540884 -0.15306292 0.08976049 -0.09141071 0.13487701 0.18417326 0.16515316 0.07798256 -0.22358091 0.03288298 -0.1364796 0.07616647 0.033492483 -0.20420152 -0.17379065 -0.123061806 -0.21302444 -0.094769254 -0.091153 0.13713105 0.116210364 -0.1820289 -0.037449535 0.053652946 -0.06094435 0.06177176 -0.032751113 -0.20818229 0.20003372 -0.17511414 -0.113645874 0.03264664 0.070575275 0.06670304 0.06460263 -0.20168285 -0.18593527 0.19844279 -0.2027605 -0.084512435 0.12219282 0.19884804 0.15386407 -0.08829732 0.13136426 0.11030531 -0.1825053 -0.1743162 0.01818715 0.20147395 -0.07931276 0.083369866 0.159413 0.16530402 0.08303181 -0.07383376 0.12759334 -0.23136565 0.014514152 0.014677691 -0.05454378 0.21888523 -0.2398835 -0.15207559 0.1966763 -0.07124852 0.037087265 0.017066259 0.19107996 -0.0051497393 -0.08085 -0.09581019 -0.08914403 -0.1742855 0.087363936 0.00413631 -0.13627003 -0.07039355 -0.05809097 0.09412344 -0.1638567 0.23835444 -0.2081973 0.24334179 -3.1065138e-05 0.10522723 0.08420781 -0.21979354 -0.21266003 0.049945686 -0.053127598 -0.096642934 -0.10313677 -0.181481 0.13106145 -0.26055872 -0.1338546 0.15883131 0.112277664 -0.09251717 -0.24652666 0.14175278 0.20996346 -0.12136649 0.1494208 -0.10421073 0.17034993 0.107725166 -0.19364259 0.07301832 -0.11646175 -0.06351452 0.009456595 -0.1748929 0.09228947 0.18182015 -0.052843705 0.12373865 -0.21346818 0.03482409 -0.12667868 0.0164621 -0.08041104 -0.12033975 -0.06694818 -0.22214022 -0.09242021 -0.12838157 0.25803423 -0.14817728 -0.0020247097 -0.06364005 -0.18742026 0.08971246 -0.18772478 0.09009226 -0.0938621 0.11052413 0.1324368 0.18988341 0.23891261 -0.047205377 -0.24040988 -0.069718696 -0.22685848 0.047242057 -0.2185584 -0.037475523 0.20674708 -0.003250376 0.009151523 0.23289889 -0.118983395 -0.22542842 0.14299761 0.16889447 -0.012978016 -0.18494108 0.053274468 0.07414297 -0.16716358 -0.11485695 0.00901972 0.14439167 0.00039875635 0.22491731 0.23297791 0.06144723 -0.1472578 -0.116392374 -0.06383122 0.023230473 -0.15070327 -0.22476414 -0.076429926 -0.17592625 0.08003255 -0.12899919 -0.07296121 0.10267993 0.050271202 0.002250052 0.1379979 -0.17212489 0.06295975 0.017939657 -0.23184091 0.071097635 -0.16267444 -0.06303771 -0.11450008 -0.22765853 0.15682638 0.1434829 0.028539598 -0.15759628 0.21738827 -0.086584345 -0.16726257 -0.17774847 0.03420621 -0.13975915 -0.034831494 -0.23565136 -0.06360088 -0.22710684 -0.17314377 -0.19782898 -0.15421653 0.20455995 -0.07454625 -0.16232921 0.24010096 0.021976124 -0.19876817 -0.17839453 0.02705831 -0.1717227 0.10903851 -0.20765123 -0.21578173 0.14619203 -0.005682137 0.08066643 -0.06508994 -0.1624858 0.15195811 -0.034362707 0.18566626 -0.103133895 -0.018065596 -0.1306934 -0.16506806 0.080019906 0.074161276 -0.09333893 -0.15553464 0.1930843 -0.0064675817 0.02872636 -0.21585737 0.18034154 0.20065357 0.051185224 0.21742961 0.13507418 0.19969596 -0.13294491 -0.091253094 -0.03681101 -0.12608987 0.12110198 -0.13007978 0.08696433 0.11830054 -0.041805796 0.21225363 -0.118592955 0.10915349 0.15738538 -0.14077727 0.002531865 0.20945741 -0.19410771 -0.09266479 -0.24665368 0.18175094 0.17626515 0.049256288 0.0660667 -0.22736914 0.11367857 -0.09540749 0.14031504 -0.15552126 -0.16560102 0.20078032 0.07388397 -0.06938959 -0.15627089 -0.21430871 0.17905603 -0.08061198 0.057513595 0.14474644 -0.05811801 -0.10608152 -0.135364 0.019955857 -0.020303985 0.0031137217 0.06759216 -0.21674177 0.12864321 -0.05040123 -0.1985215 -0.0881659 -0.0048691714 0.21811305 0.21648362 -0.10303347 -0.15780224 0.19321086 0.20240577 0.13492538 -0.22568096 0.02911323 0.06544117 0.04448447 -0.16494592 0.016144956 -0.093730874 0.15807319 -0.17592166 0.20472555 0.06128084 0.068216786 -0.09842507 -0.028302856 0.053293254 -0.1902349 0.036238097 0.12469739 0.08004894 0.21205959 -0.1104667 -0.23661475 -0.10750902 -0.13615283 0.13955528 0.069710895 -0.23563959 -0.16837898 -0.2232938 0.078559965 0.06263723 0.015786754 -0.06842546 0.20725252 0.18803217 -0.21843623 -0.15554707 0.057818744 -0.1663697 0.035727862 0.048954934 -0.17748472 0.16444093 -0.16364488 -0.15372212 -0.044659115 -0.1205549 0.02310055 -0.14935254 0.1453204 -0.22925782 -0.07758953 0.050328314 0.078312375 0.11070744 -0.06449667 0.03632835 -0.19169351 -0.085133776 0.02539342 -0.19881229 -0.13312945 0.08491557 -0.16640781 0.1499211 -0.112351894 -0.10952502 0.15756556 -0.047416218 0.087071486 0.21403141 0.2130064 0.2136703 -0.20623426 0.22512615 0.081816345 0.07744764 -0.06392496 -0.14153783 -0.1756181 0.014000217 -0.18699098 -0.23300338 0.17251794 -0.09033227 -0.20920911 -0.23429169 0.048987918 -0.15880093 -0.073948085 -0.15460542 -0.13508853 0.13839059 0.2428748 0.119364634 0.00804429 0.010250841 -0.2092118 -0.061549306 0.13059807 -0.14262412 0.122599676 -0.16942085 -0.2153145 0.06547385 0.21535516 0.22255266 -0.174103 -0.21926352 0.19224589 -0.20113575 0.14502816 0.26732948 -0.06275667 0.19802722 -0.17377523 0.20192002 0.19435982 0.23627949 0.06681326 0.15476035 -0.1514166 -0.028485848 0.0864948 0.036632635 0.071811005 0.09113745 0.18033181 -0.19548407 0.04631127 -0.1692325 0.034931947 0.15934026 -0.15241727 -0.119143255 -0.1611894 0.19242935 -0.059798103 -0.0896134 -0.033143662 -0.0024245868 -0.15623696 -0.07416352 -0.13207258 0.22321165 0.17644121 0.15304282 -0.11963612 -0.1459883 0.25950667 -0.1363196 -0.21027367 0.12362672 0.17391394 0.17282166 0.052087013 -0.07474245 -0.25395954 -0.038995184 0.11766693 -0.12948976 -0.0639848 0.13835889 -0.08041134 0.0675918 -0.2077775 -0.06903341 0.0666756 0.13288666 0.04638263 0.109932445 0.18798669 0.14568871 0.17317745 0.23866405 0.07123373 0.17988503 0.13843876 -0.19409941 -0.17061396 0.1819722 0.25423634 -0.10140151 0.089521416 0.20998108 -0.19247288 -0.087204285 0.2096888 -0.04097346 0.082093656 0.0980951 0.04847666 0.22922778 0.22152017 -0.23350714 0.110537045 0.1132594 0.032999635 0.02357453 0.15236211 -0.11034147 0.11589396 0.07205886 0.16672626 0.0033909208 -0.029423257 0.19745836 0.24375029 0.08372698 -0.19695853 0.1094875 -0.0064425347 -0.2297781 -0.22578672 0.022874264 0.0016384469 0.18276569 -0.0012743949 -0.16549034 -0.044039387 0.13857912 0.057301316 0.21681172 0.1895526 0.10915641 0.26895002 -0.18050869 0.03198438 -0.06271163 -0.06938647 0.017281935 0.19259086 -0.119187444 0.08293693 0.22761373 0.036216345 -0.022301821 -0.18767264 -0.12660801 0.011168623 0.058912747 -0.089339 -0.20901608 -0.13586758 0.13958201 -0.01244644 -0.23911661 -0.2350733 -0.102772385 -0.21560773 0.18289886 0.18807775 -0.034497116 0.15901732 0.049887832 -0.10030107 -0.013165152 -0.0878234 -0.06515056 0.14178805 -0.0049805976 0.09965347 0.14011516 0.15185107 0.0032562676 0.03181667 0.08577253 -0.14371765 0.026939843 0.07579254 -0.016215028 -0.04873548 0.12969184 0.11002703 -0.17818272 -0.12006548 -0.15278472 0.13824905 0.03490211 0.056133073 0.1353956 -0.019152235 0.19781868 -0.110023804 0.12673432 0.1436841 0.24212392 -0.0123593835 0.029694885 -0.21849245 0.21917242 0.04109833 0.015701579 -0.19539247 -0.014949242 0.2128032 -0.12905976 0.071127154 0.14168805 0.13670065 0.29437652 -0.1010855 -0.16358429 0.04431163 -0.02161393 -0.16105607 -0.24556713 0.1929886 -0.11706204 0.27965802 -0.17420791 0.12822956 -0.10493156 0.18756828 0.2204653 0.18623617 -0.116656646 -0.085605845 -0.20117168 -0.025324399 0.095125094 0.16138494 -0.114336796 0.14395075 -0.04597216 -0.015829569 -0.18366024 0.053835448 0.01848727 0.16920944 0.15184449 0.20065512 0.15769307 -0.025979072 0.17322363 0.19090755 0.15438612 0.15208699 -0.084547125 0.014463504 -0.10281254 0.12001832 -0.058979318 -0.19995189 -0.10189303 -0.19376935 0.0626913 0.1932857 -0.019711148 -0.080610916 -0.07719814 -0.20153874 0.11776964 0.1444483 -0.16416535 0.17729372 0.0957139 -0.21068528 0.15365884 -0.0033441638 -0.12886131 0.12953244 -0.11958759 0.05110433 0.25712925 0.122062504 0.15670456 -0.12239617 -0.16279075 0.06807751 0.01723834 0.19127503 0.22089365 0.21002607 0.057901673 -0.146284 0.015024583 0.0075201876 -0.14427795 -0.02241975 0.032690387 -0.17014053 0.024811411 -0.21227555 0.11948238 -0.12051969 0.087410584 -0.032191318 -0.14472842 0.061002392 -0.18026763 0.14925401 0.017461007 0.051098727 0.16127741 0.16176148 0.19432844 0.16784668 -0.034650143 -0.016643729 -0.19957368 0.03980456 0.0013459182 0.17232868 0.17379496 -0.038774792 -0.13246165 0.17232357 0.044180743 -0.1364598 -0.15516217 -0.24155502 0.112907805 0.08112506 0.066523544 0.09929606 -0.13964763 0.21611568 0.11465886 0.09439931 -0.078225985 -0.22080842 0.06655833 0.01684106 0.015229638 0.14296794 -0.1343197 0.22400987 0.016892606 -0.21965957 -0.13141525 0.06094661 0.16350015 -0.10017758 -0.10716402 -0.013270613 -0.22720806 -0.092153795 -0.15238711 0.21554671 -0.15353258 -0.025910992 0.19008172 -0.04829511 0.20144118 -0.12292133 -0.021210393 0.012462089 -0.17024091 0.14510761 -0.0117608765 -0.24107002 0.09518221 -0.09873577 -0.13150294 0.09744214 0.05719744 -0.14667468 0.08567017 0.027234854 -0.08039596 0.16040313 0.005245317 0.10203064 -0.04858256 0.08369438 0.058851577 0.18697585 -0.21125315 -0.053957224 0.13006507 -0.11145885 -0.1770661 0.15647417 0.12298452 0.2248967 0.09425665 -0.06403546 -0.18921532 -0.1568183 0.06971113 -0.044254202 0.2439554 0.11702186 0.042073604 0.2602489 0.008955263 0.14822191 0.2674266 -0.05348735 0.051878057 -0.001383858 0.22941236 0.095554665 -0.08511644 -0.19681522 0.1190194 0.010663088 0.100011975 0.1188065 -0.21867979 -0.20669645 -0.039956022 -0.22057903 0.007816128 0.1568694 0.23899925 -0.017611781 -0.19477032 0.17520392 -0.15448506 0.1733733 -0.07517843 -0.11723395 0.16173007 0.074474245 -0.06532797 0.14690377 -0.21538973 -0.06855813 -0.13241117 -0.1780711 -0.21493484 -0.15297113 0.08507647 -0.13023871 0.21734521 -0.048166633 0.05803511 0.17538248 0.05569462 -0.15675737 -0.035960533 -0.040304657 -0.109600544 0.038574193 -0.18444373 0.053045295 -0.16571602 0.1933705 -0.028476417 -0.21477798 -0.1835017 -0.21523173 0.022740217 0.015697513 -0.12226336 -0.1170867 -0.18388632 -0.13957018 -0.08808549 -0.18602568 0.10547118 0.119299926 -0.13044809 0.0824884 -0.05190502 -0.10742307 -0.025812559 -0.06764202 0.2032611 0.017961254 0.120346114 0.21363524 0.08236468 0.049906664 0.06634424 0.2218138 -0.22899826 0.06350616 0.07472184 0.096365705 0.08878941 0.21500602 0.18908778 -0.21412864 -0.15841633 0.11811248 0.093723744 0.14461736 0.17925262 0.29503992 0.1069229 0.032338098 0.21651895 -0.023202378 -0.055215865 -0.16400495 0.21091141 -0.13888802 -0.043242183 0.22992617 -0.21434127 0.115904436 -0.003352111 0.088464215 0.1706537 0.18592419 0.14900778 -0.0011570881 -0.12033997 0.18483448 0.11647089 -0.008654716 0.04396821 0.07568668 -0.16942817 -0.19058308 -0.20826933 0.03436181 -0.15685837 0.021768337 -0.17684402 0.16455297 0.15567155 -0.04960352 0.04063872 -0.015576229 -0.04558079 0.18274942 0.21862788 0.17134443 -0.1874378 0.20062779 0.15737905 -0.057423096 0.114745714 0.043810584 -0.17580943 -0.15529437 -0.0579455 0.12949394 0.008742931 -0.11113844 0.23285146 0.17771238 0.072792284 -0.22130625 0.08551616 0.24809612 -0.061864637 -0.11696099 -0.0010450821 -0.050016314 0.19144142 0.23132885 0.19536151 -0.08981743 -0.1809626 0.028682077 -0.18750198 -0.010400882 
-0.10548206 0.11344222 0.22355677 0.14381064 0.24063611 0.1797943 -0.23696825 0.04537265 0.21247895 0.12452248 -0.19634499 -0.23257734 0.006001665 0.2383456 -0.03227336 -0.094470136 -0.17654037 0.057722393 0.205101 -0.06403734 0.23475963 0.1297084 0.25193456 0.14232938 -0.046117194 0.19657512 -0.17856024 0.16014378 0.07485653 0.21323158 -0.1213691 -0.1837869 -0.02563928 -0.022473395 -0.16912062 -0.2394245 -0.12676217 0.22511753 0.22888723 -0.20365685 -0.105328895 0.101493865 0.15986581 0.18551877 -0.21567634 0.16540284 -0.11311699 -0.13965918 0.21538784 0.08007214 0.22384648 0.012911758 0.047736328 -0.08687346 -0.04501729 0.24717191 -0.053300306 0.08729374 -0.017968565 -0.20006299 -0.20880309 0.23751688 -0.07848755 -0.16022559 -0.19661812 0.17609929 -0.0034210696 0.021397512 -0.19298552 -0.14135726 -0.18614751 0.07433393 -0.1012648 -0.050552256 0.012160928 0.0005535061 0.029076023 -0.083312586 -0.1348533 -0.06498905 
Rect
Linear 80 80
0.033009898 -0.07733709 -0.016632281 -0.057473194 0.03214142 -0.08200503 0.08880173 0.09288946 -0.09360958 0.02641909 -0.10351965 0.03220844 0.08502678 -0.0046764547 0.06336197 -0.039877273 -0.053731043 0.028468449 -0.07542603 -0.039136313 0.079295814 0.053806305 0.079911865 -0.012885824 0.100538716 0.074368 0.06834866 0.06121921 -0.09735992 -0.058267474 0.0006675151 0.0228436 0.10706736 0.0981416 -0.04846607 0.07239333 0.041236047 -0.06059588 -0.113149814 0.04578297 0.020299887 0.03232375 0.07672879 -0.034613825 -0.04393695 0.016393332 -0.04337062 -0.06679033 -0.105290145 -0.094513714 -0.007630201 0.09087026 -0.06456678 0.030518053 0.058588233 0.014800746 -0.0046890704 0.08180818 -0.10186771 0.10524457 0.08875949 0.0981603 0.080146864 -0.009446928 -0.08475352 -0.074039415 -0.09196586 -0.06838742 -0.09967007 0.07667701 0.05703921 -0.052044787 -0.00041426058 0.010935403 0.008884691 0.09443575 0.046915635 -0.08575635 0.11404123 -0.043682184 -0.044665277 0.10021026 -0.06885005 -0.02237299 0.026422698 -0.08090544 0.0805456 0.0915859 -0.107051075 -0.009921105 0.015862465 0.067365825 0.044382114 -0.023138527 0.102770075 -0.014568267 0.006808096 -0.07241703 -0.061662193 -0.041820593 -0.0775679 -0.026349518 0.04303306 -0.08123978 -0.09327597 0.12238477 -0.04693062 -0.07592598 -0.01951719 -0.0663585 -0.10671163 -0.021336505 -0.050822183 -0.03509347 0.049894374 0.00530532 0.100989096 -0.11391556 0.11722129 0.057977617 -0.035294827 0.07624636 0.115495116 0.0090938695 0.03060543 -0.031606887 -0.00809588 -0.0024296187 -0.025278952 0.019919025 -0.068079315 0.065902375 0.0069975117 -0.08793871 0.11089165 0.03874025 0.058940735 -0.116546065 0.095896296 0.022557737 -0.0056674513 -0.053572245 0.036847766 0.059228696 0.022800507 0.08616461 -0.094892 -0.08161411 0.10828871 0.094436646 0.0026603001 0.07702676 0.081921026 0.08065517 -0.05896607 -0.049376763 -0.054303963 -0.031112894 0.10954756 0.0007431063 -0.088313445 0.09337929 0.053603422 0.01889314 -0.05879752 0.0755139 -0.09133294 0.057744913 -0.021099783 -0.032623038 -0.09194554 0.019163162 -0.051157314 -0.026923709 0.06618947 -0.073662706 0.110628374 0.09081614 0.08798904 0.02268332 -0.08740493 -0.016483888 -0.044802725 0.008100342 -0.105392024 -0.05733569 -0.01330841 0.0101028625 -0.026055938 0.034320284 -0.060086083 -0.07397639 -0.084584475 0.10396197 0.066298 -0.09866088 -0.09487459 -0.0036674545 -0.05735008 0.030863808 -0.0348093 0.029504733 -0.023514751 -0.08806291 -0.010408195 0.09982689 0.086933546 -0.0774355 0.047296062 0.09040198 0.009856191 0.005905207 0.121508084 0.014826945 -0.015509868 0.10293275 0.04876646 -0.061699726 0.094002016 0.1140957 0.08292293 -0.045657035 -0.043972697 0.0676704 0.08772486 -0.092923835 0.10146766 0.06433167 0.034475 -0.0331465 -0.00018364828 0.07139263 0.0184844 0.08807088 -0.060877014 -0.01711296 -0.005066928 0.048654538 0.039116323 0.06672796 -0.06454986 -0.014901511 0.043923777 -0.049166996 0.083303556 0.07782868 0.06141945 0.06071603 0.07396635 -0.09032991 -0.030502208 0.08520901 -0.044914156 0.021791007 -0.03699128 -0.0050127264 -0.019422818 -0.033750784 0.025163129 0.10764271 0.01037658 -0.025921313 0.10231538 -0.045832947 0.028914025 0.002751502 0.03677533 0.06909144 0.027628582 -0.0007956395 0.047903128 0.016726844 -0.019904856 0.023742411 -0.05671218 0.010017939 -0.06770193 0.056362715 0.113154635 -0.034966033 -0.10112081 0.10030455 -0.05809565 0.07403945 0.07744206 -0.039586745 0.0028408784 -0.048201613 0.10698145 -0.079203464 0.018200407 -0.05727084 0.089154676 0.058961265 0.09644232 -0.049067706 0.035890598 -0.088334724 0.07584187 -0.031002399 0.03934764 0.06142896 -0.07025164 0.063345455 -0.043164626 0.041288417 -0.037260737 0.005479067 0.011404034 0.09698967 0.03404943 0.016733075 -0.020743595 -0.11146033 -0.04624638 -0.033293337 0.042661138 -0.007865892 0.042647146 -0.0611836 -0.124056526 0.06409304 0.088849485 0.061640423 0.10171267 -0.118607506 0.029275194 0.091461904 -0.070185445 0.0762226 0.075540796 0.0312706 -0.108422205 0.08503502 0.10014674 -0.020228721 0.050196376 0.07952525 -0.067630224 -0.104757614 0.04102672 0.016036266 -0.054922942 -0.08237592 -0.07268174 0.023866411 0.023467964 -0.087530084 -0.0241083 -0.009067081 -0.10340962 0.056634158 0.1051196 0.078222 -0.10050211 -0.068775475 -0.096140794 0.08309115 -0.033402007 0.068514004 -0.0441309 0.06874687 0.081995234 -0.058703937 0.047896083 0.050388936 0.025522163 -0.044662345 -0.061917715 0.0061103604 -0.104527496 -0.0011698742 0.0467521 0.11287766 0.09483908 -0.11444334 -0.054807268 -0.0042190026 0.0021344598 0.017506894 -0.076679215 -0.009002207 -0.028764779 -0.0648961 0.029790534 -0.1043594 -0.07107869 0.03255498 -0.05353085 0.096675456 -0.037883848 -0.08697508 0.10376558 0.018286757 0.13559222 0.14016649 0.09273324 0.09085732 0.0983852 -0.06701203 -0.031392213 -0.015426503 -0.0026743065 0.08623961 0.03419842 -0.10375597 0.02832732 0.0053860545 0.054270312 -0.045739952 0.0931255 -0.07898332 0.086608805 0.10052301 -0.08952884 -0.07553531 0.072367765 -0.09124167 -0.0071433336 -0.06429786 0.06296105 0.106363155 0.09419782 0.09630118 0.06116356 -0.09542132 0.02968403 0.10297676 0.061393093 -0.07177739 0.047892794 0.023121102 -0.06970821 -0.09808316 -0.062924184 -0.086980455 -0.037313588 0.010827381 -0.05553895 -0.030213442 -0.037958093 0.05179161 -0.08931213 0.10545677 0.10921062 0.0943232 0.08553703 -0.013944222 -0.05520508 0.104628414 -0.10891488 -0.106336206 0.0858017 -0.045649838 0.073925704 -0.06341173 -0.07592967 -0.07846931 -0.0024083802 -0.002170836 -0.03647275 0.025782151 0.06597073 -0.04826197 0.06285166 -0.042495504 0.03267927 -0.038816325 -0.060791794 0.10768624 -0.074214175 0.026370244 -0.10612223 0.059353843 0.07370455 -0.11187168 -0.07491688 -0.107962236 0.031317458 -0.10215389 0.05246638 0.09466429 -0.034475777 0.05551748 -0.07732704 0.05357068 -0.009302221 0.06490159 0.14405753 -0.07565611 -0.013488576 -0.067969024 0.04698236 0.11174894 -0.011193775 0.105362915 0.07219986 -0.012172777 0.06724358 0.10561428 0.045444727 -0.08505385 0.07246307 -0.09473114 0.009421965 -0.054503344 0.06784767 -0.04614772 -0.03997513 0.10543466 -0.07365007 0.11982846 0.024004607 0.057405543 -0.066652834 -0.0040207654 0.05579533 0.100467995 0.011843001 0.11301835 0.04134501 -0.034776036 -0.09588169 0.09451607 0.08410309 -0.05586588 0.005724082 0.055241168 0.1129108 -0.020264069 0.07295209 -0.06236793 -0.0034882564 -0.053994287 0.016379274 0.09119124 -0.00085838896 0.113028444 -0.023484973 -0.09073774 0.11480117 0.023538614 -0.020056898 0.038850367 0.03706144 0.005822998 -0.071948454 -0.061441306 -0.022396171 0.016821101 -0.11978461 0.10048292 0.0014591949 0.002098264 0.010317434 -0.0081708245 0.051360205 -0.0028606295 -0.020314984 -0.07556352 0.0497255 0.104163475 0.07690731 -0.10337647 0.078554936 0.038247697 -0.10118811 0.10501762 0.09458586 0.100947484 -0.09489406 -0.03157923 0.008082825 -0.0532688 -0.00259281 -0.021484016 0.035523936 -0.07589524 -0.00042489765 0.091563255 0.08006336 0.02915153 -0.056845225 -0.06099318 0.098772705 0.01744898 0.00033346447 -0.08647342 -0.039526492 -0.10678094 0.050761595 0.0081212325 -0.022544894 0.0356521 0.019062186 0.02444376 0.08361947 -0.058954626 -0.0016446474 0.09274965 -0.011542546 0.008567659 0.069635704 0.008458164 -0.009020615 0.06027211 0.03907696 -0.10792617 0.055561934 -0.022379182 0.021282002 0.016098583 0.07177494 -0.08871624 0.049085 0.0564103 -0.08355157 -0.008578844 0.06358839 0.021637514 0.07564707 0.09983844 0.09682802 0.11169519 0.105144545 -0.017202692 -0.022557182 -0.0807674 -0.02448336 0.03238723 0.06384419 0.010819975 0.068583444 0.09872456 0.079972185 0.02808747 -0.009528016 -0.07228403 0.0700733 -0.051149677 0.00063358445 0.080227405 0.09748444 -0.013442105 0.08338945 0.0927106 -0.06902946 -0.01810879 0.057870492 0.06625178 -0.08644293 -0.044759862 0.084121324 0.08539398 -0.04646914 0.06750882 0.0077343513 -0.046652906 0.05048522 0.09270484 -0.065371536 -0.07828864 0.09669394 -0.0030115072 0.060149986 -0.08463823 -0.10904445 0.07728934 0.0072219684 0.017681986 -0.045590676 0.07427954 0.029696772 -0.10891058 0.05617072 0.013581619 -0.044092134 0.10059987 0.041612316 0.056009058 -0.086782396 0.05381415 -0.09633955 -0.042446062 0.034724794 -0.05445802 0.06552681 0.06306403 0.018563293 0.09393024 0.01289188 -0.049936686 0.06108102 -0.017879609 -0.071078874 -0.03283228 0.034691285 -0.0042738887 -0.015167348 0.015615701 -0.09659131 -0.039098855 -0.103183284 0.004569189 0.039829258 0.03216899 -1.3910643e-05 0.026119744 0.0197206 0.027102653 -0.063931964 0.09686512 -0.035941858 0.05516771 0.096680224 -0.0021336442 -0.04909726 -0.029469326 -0.11106509 -0.08181238 0.008248554 0.101747826 -0.0046930653 -0.0058679087 0.0052770996 -0.062431406 -0.056756765 -0.0831626 -0.027138028 0.03631253 0.078762375 -0.107913494 0.055981927 -0.097061194 0.052403428 -0.07790467 -0.06900762 -0.09167231 0.08800056 -0.09712456 0.05791145 0.09214407 -0.08345333 0.08078432 0.10090493 -0.119842686 -0.050528184 0.08064112 -0.06931392 0.05890172 -0.06429758 -0.021678444 -0.07401718 0.017832339 -0.06810222 -0.06259243 0.018919347 -0.026864344 -0.010458288 -0.062393088 0.06685353 0.112147495 0.06925327 -0.08795685 -0.092469946 -0.07500799 0.00569874 -0.0069013517 0.012379396 0.022290818 0.049349695 0.058066726 0.042036165 -0.02126385 -0.009430396 -0.047506433 -0.08095519 -0.024352895 -0.10974192 0.10025364 0.06661099 -0.0027139063 -0.078784764 -0.033090137 0.021032313 0.07676409 0.10608539 0.039973035 0.05133035 -0.029456602 -0.059099376 -0.062150378 -0.03933614 0.01327925 0.009057067 0.08814107 0.0855394 -0.076901235 0.057662036 -0.036158066 0.053571586 -0.102300115 -0.031562965 0.06311994 -0.028330948 -0.05847858 0.08188181 -0.070430644 -0.07604379 -0.001374519 0.05482281 -0.073185466 0.07630547 -0.10845022 0.085703485 -0.08308437 0.006354697 -0.074308455 -0.09300151 0.11524339 0.042691424 -0.09498867 -0.092308275 -0.0032237407 0.0712564 0.056585703 0.008931461 0.015707886 -0.08044647 0.07211298 -0.012010601 -0.08722164 -0.08318716 -0.022972198 -0.07044241 -0.03603767 0.10771568 -0.0017576271 -0.06641666 0.08528709 0.1079014 0.02074277 -0.0035276532 0.013487351 -0.022448722 0.021108354 0.034890838 0.08443347 0.059941985 0.016752955 -0.012616438 0.08313159 0.050545402 0.03557876 0.07988577 0.02401481 -0.031699274 0.029473633 -0.047706638 0.077154055 -0.035717994 0.022608783 0.030178206 -0.08485487 -0.09097095 0.07645346 -0.10803344 -0.037911072 0.06388997 0.027188007 0.10848145 -0.11168355 0.038887624 -0.043220133 0.046281412 0.085149705 0.078657866 -0.11088949 -0.040936414 0.08124781 0.041238952 -0.08512104 0.06890394 0.07715408 -0.053416718 -0.035475753 -0.08122117 -0.08452375 -0.049270444 -0.021022452 0.004135824 0.067444295 0.10269568 0.021311752 0.06668054 0.06597937 0.022188373 -0.052410234 0.047342755 0.027330946 -0.08479435 -0.032832965 -0.0307462 0.047403257 -0.05246505 0.044141654 -0.0035305968 -0.018146899 0.043621484 0.07740645 0.03483038 0.023359444 -0.007849731 -0.01964308 0.054620836 -0.02283024 0.08435025 0.071066745 -0.11064101 0.022405064 -0.015711095 0.046976637 0.08579073 0.0060007577 -0.056401044 -0.017515779 -0.048100885 0.061303057 0.072212115 0.0049563344 -0.08880789 0.0014435578 0.11474037 -0.0034291302 0.03479582 -0.08095962 0.02823435 0.08423981 0.018495351 -0.0049823443 0.02977517 -0.09599871 0.00039313026 -0.03458775 0.112760246 -0.017875891 0.08865107 -0.034310237 -0.053575713 0.045488637 0.035397273 -0.10642624 -0.055390745 -0.0207686 0.06566268 0.06862781 -0.054580744 -0.09995845 0.10268562 -0.041082043 0.053129774 -0.097659916 -0.013276058 0.0269465 0.09023051 -0.070822105 -0.08103319 -0.047077764 0.07935779 -0.054640517 -0.1086164 -0.043139346 0.0977416 -0.10168275 0.030538853 0.09264076 0.06791314 0.10227368 -0.036803707 0.0762774 -0.09199747 0.05805568 0.05272254 0.067890674 0.072467215 0.076000206 0.07592887 -0.093244374 0.02372258 -0.098787986 0.036060132 -0.043143928 -0.05144989 -0.0011769423 0.015208176 -0.069780946 -0.101872735 0.099707074 0.030583197 0.109963335 0.03047455 0.072133355 -0.097836174 0.0005316391 0.105792485 -0.0006466519 -0.045074668 0.021146633 -0.08293994 -0.07156005 -0.05889718 0.024766851 -0.09389908 0.058751315 -0.057306435 -0.09290282 -0.074268386 0.008296225 0.058208384 -0.018051196 -0.10719522 -0.0010020982 0.10217077 -0.05954887 0.01830317 0.030848276 -0.066530064 -0.08413783 0.053847935 -0.05745755 0.007710917 0.09637888 0.04621963 0.062764585 0.08334047 -0.053422246 0.03752355 0.08642756 -0.07859345 0.03249576 -0.039107043 -0.09405757 -0.09136865 0.015621557 -0.076645546 0.060157876 -0.012600318 -0.024969377 -0.086410835 0.053069882 -0.062980995 0.08041682 -0.003786563 -0.07653197 0.08536794 0.08542316 -0.0972577 -0.064729646 -0.049739767 -0.07135313 0.014014971 -0.07845044 0.06424055 -0.085710034 -0.10072523 0.001387801 -0.0024389913 0.024412824 -0.09209768 0.10665108 -0.09053088 0.08725424 0.10149078 0.02969198 0.025345504 -0.061075695 0.035416894 0.09443309 -0.0963584 0.09541085 -0.048187025 0.029893069 0.054796442 0.0054301973 -0.066281535 -0.0666279 0.005535335 -0.06150074 -0.08032076 -0.10525768 0.112552024 -0.09930309 -0.073426746 0.045533467 0.07232995 0.11069322 0.04595254 0.10350053 -0.057404436 0.0443755 0.01631619 -0.09987652 0.09922037 0.03735474 0.05856089 0.062411353 0.03542842 -0.05814631 0.06816457 0.008383289 -0.052874837 0.06450557 -0.003974147 0.019927844 0.0737546 0.09047941 -0.0030953307 0.0035810585 0.0071934834 0.05787459 0.049363215 0.057631142 -0.06390377 -0.058219388 -0.025810782 0.0823745 0.09361996 -0.048364315 0.087872446 0.108387455 0.071638316 0.0042288527 -0.01854018 0.10966236 0.042046152 -0.037702303 0.017352546 -0.0627118 -0.05675336 0.10508208 0.08602265 -0.0738298 0.015797399 -0.017003408 -0.054566927 -0.046786457 0.028442467 0.08215608 -0.029638613 -0.079284094 0.081695266 -0.061808243 -0.0038173096 -0.05795897 -0.044214677 0.0732307 0.095253795 -0.020525703 0.09007842 -0.051502477 -0.09792792 0.020891111 -0.0003246598 0.062080245 0.081207484 -0.037622973 0.022578735 0.04055656 0.018600116 0.0021442769 0.049720883 -0.10557929 -0.03355906 -0.107719414 -0.11874602 0.1161264 -0.07113685 -0.02568678 0.10921382 -0.10048959 0.0046610795 0.10310434 0.060966652 0.066601776 0.043297414 0.0077419835 0.06572242 0.08616073 -0.012768741 -0.03409578 -0.07669852 0.021455454 -0.0859404 -0.095623344 -0.12863776 0.010578766 0.03881568 0.046078216 -0.01888742 -0.071054496 0.0129283 -0.01359174 -0.0334662 0.0701596 -0.043662887 0.013307486 -0.05472061 -0.0029298419 0.005719314 -0.06675382 0.05044959 -0.021143446 -0.07924126 0.073347785 -0.052141298 0.10282623 -0.023442512 0.09969566 -0.0764865 -0.035786763 0.10662985 -0.01667279 -0.04810913 0.040771227 -0.07786602 0.06915751 -0.038550027 0.09541401 0.07747614 0.0952976 -0.020324029 -0.018772343 -0.009923935 0.054251086 -0.11152741 0.06117785 0.091380276 -0.049739465 0.08197517 0.08238622 0.053458154 0.0065735606 0.08602277 0.04574408 -0.014635507 0.08804488 -0.0931811 -0.04394512 -0.10194383 0.06673971 0.07399495 0.10765599 -0.110297374 0.031806137 -0.05653467 -0.055591304 -0.07063005 -0.10916065 -0.032950368 0.061659764 0.0024654493 -0.050816603 -0.01735765 -0.06036321 -0.04550141 0.09488385 -0.08575045 0.043876883 -0.09857277 0.0005567471 0.038548652 -0.0056126653 0.089689255 0.02719684 -0.021078762 -0.09689392 -0.07283316 0.055627964 0.073564835 0.07832131 -0.027483806 -0.079171576 0.099993296 -0.09449777 0.04084122 0.05772115 0.043020453 0.09366596 0.0053699985 -0.09019921 -0.015993064 0.008617982 -0.021619407 0.041194484 0.05468004 -0.0484615 -0.026927933 -0.034720883 -0.04551905 -0.09615993 -0.04210934 -0.015693603 -0.09143034 -0.08934978 0.09422013 0.072045304 -0.08966291 -0.07218812 0.040999375 0.026444122 -0.074336715 -0.01412367 -0.08309146 -0.0043217093 -0.07684159 -0.016934976 -0.006004356 -0.0687173 0.09074631 -0.021338457 0.057214413 0.016209148 -0.049745236 0.060556885 -0.01006075 -0.0517164 -0.014194734 -0.08795592 -0.02219395 0.026615405 0.07336306 -0.051544234 -0.10552695 -0.058489352 -0.053922217 0.0024645857 -0.04178305 0.09602535 -0.036504924 -0.02549312 -0.09549869 0.08505593 0.07763435 -0.10082233 -0.008313263 0.05047938 0.05625204 -0.06172611 0.0026930198 0.016871586 -0.087500826 -0.105006024 0.03632033 -0.089728214 0.030835072 -0.028552718 0.0033980664 0.013510317 -0.011463436 -0.029810533 -0.02562729 -0.0031999901 0.041428898 0.10701242 0.09463386 -0.03267614 0.07196235 0.055976618 0.051293217 -0.010499765 -0.043283317 0.071588844 0.040638268 -0.066735156 0.050827872 -0.048608154 -0.01090883 0.018535683 0.06944934 0.039252743 -0.061803486 -0.0155072315 -0.006718654 0.11015721 0.030650655 0.09925945 0.115570925 -0.029167332 -0.04170615 -0.028834194 0.096987076 0.004065744 0.097917154 0.054050718 0.06553882 0.051230952 -0.05881556 0.031857856 -0.039185856 -0.07175547 0.09631439 -0.056423098 0.05580314 0.056321476 -0.014491373 -0.0054047364 0.038617767 -0.018911662 -0.07536082 0.0569494 0.03012314 0.07417799 0.09007921 0.120989114 0.039212815 -0.08845445 0.106181405 -0.07735783 0.03145758 0.010787639 0.076429054 0.08295329 -0.055234347 0.090626426 0.07443588 -0.12270952 0.08488766 -0.010681432 -0.06888081 0.109069884 0.1408331 -0.0039087404 -0.10048962 -0.00026303294 0.08665011 0.0654623 -0.11469738 0.11182712 0.035485778 -0.030309422 -0.096066736 0.059506733 0.05456124 0.06895619 0.07343088 0.030397898 -0.08817529 -0.07740501 0.10115642 0.043114394 -0.0981939 -0.073618546 0.09107429 -0.05296043 0.038447265 -0.025730204 0.04615884 -0.024251547 0.03546064 -0.06726219 0.07300289 -0.052250344 -0.11854634 0.032338686 0.040586982 -0.06402374 -0.029724188 0.09455134 -0.020784982 0.059783947 0.10307663 0.05078179 0.06815293 -0.08186667 -0.068698764 -0.021537416 -0.028623119 -0.009812661 0.069336265 -0.11093997 0.07022108 0.10218417 0.070727624 0.07853262 0.091758445 -0.018546255 -0.035196524 -0.08992267 0.077301696 0.021048358 -0.0014051847 -0.055146866 0.019653933 -0.06231537 -0.10490534 -0.0425236 0.028754918 -0.09984847 0.09756068 0.034471855 -0.055308647 0.004531439 -0.03872186 0.076748386 -0.088072106 0.09298638 -0.058071475 0.09853433 -0.072221495 -0.0877895 -0.03939257 -0.0063633667 -0.042714022 -0.10141213 -0.09042175 0.112735845 -0.10701648 0.020662231 -0.10101934 0.10282965 -0.06887902 0.090400435 0.052373145 -0.100353226 -0.06354466 -0.03580707 0.06302281 -0.02606504 0.037071303 -0.05567571 -0.044486523 0.073081695 -0.08932666 -0.008438552 0.05220551 -0.0092919525 0.035346836 -0.051277034 -0.067288585 0.08840187 0.01661693 0.052247215 -0.04284647 -0.13198452 -0.044825926 0.11192924 0.033655882 0.095262036 -0.10310405 0.09423289 -0.068764366 0.08855835 -0.020081632 0.10163123 -0.06673342 -0.0729234 -0.047001358 0.029188743 -0.027562937 0.094138294 0.07407856 -0.041269932 0.03447105 0.053695396 0.04002942 -0.0068594594 -0.065227345 0.06741694 0.10584944 -0.03303204 0.09893858 -0.03390279 -0.003344033 -0.067021824 -0.0077553964 0.03534026 -0.06156372 0.047496095 0.053938106 0.047321808 0.08254422 -0.05014519 -0.10375616 0.01533866 -0.005394733 0.11019847 0.079727784 0.07800962 0.10075955 0.02570174 -0.030609522 -0.09438927 -0.014951081 0.034272943 -0.14311555 0.01315721 0.07549136 -0.09575048 0.0021747139 0.05002011 0.10313587 0.03163883 -0.04580278 0.073958665 -0.08255344 -0.053264193 0.02458331 -0.054140802 0.06784049 0.048752278 -0.043690503 -0.10310418 -0.093404666 0.008070849 0.009127922 0.015735954 -0.095174834 0.045406014 -0.08902537 0.020694256 -0.02183912 -0.05954416 -0.044210657 -0.028501853 -0.024621166 -0.056385066 -0.1009212 -0.07350842 0.041235596 0.0691676 -0.081538916 -0.069112346 -0.039600097 -0.036324672 0.004173614 0.037448063 0.0754156 -0.016692884 -0.07330246 -0.07368609 0.028078392 0.018668547 -0.05194363 -0.0007048249 0.09322204 0.10059287 -0.01471293 0.077677175 -0.0025948808 -0.079446204 0.02080816 -0.0024474189 0.015448645 -0.07460206 0.0030043721 -0.074247554 0.106961384 -0.07931836 -0.09829796 0.043564186 0.004535891 -0.023540616 0.057961956 0.08692019 0.09667364 -0.0055542737 -0.0049725994 0.06914571 0.11104058 -0.019973904 -0.021657713 -0.0073136613 0.01884678 -0.06894755 0.10608132 -0.010463312 0.046757013 0.10124768 0.049922407 -0.03833554 0.094864376 0.029735971 -0.040225256 0.09752668 -0.08658008 0.06347669 -0.07973841 0.08955413 -0.09881126 -0.036190644 0.08875426 0.028762063 -0.108775705 -0.10356685 -0.084129885 0.06628926 -0.09078321 -0.004646504 -0.06512694 0.08730298 0.08026478 -0.04305968 -0.034243576 -0.0619595 -0.052915554 -0.039426 -0.017945759 0.07646328 -0.09252903 0.04193962 -0.110521175 -0.03739583 -0.054057218 0.059020635 0.03712641 -0.035445184 -0.09262715 -0.060453128 -0.09889385 0.007404217 0.062500544 -0.018360138 0.066218875 -0.036626868 0.028490288 -0.06221282 -0.034331247 0.07774997 0.10960439 0.039676204 -0.015908528 -0.013263586 -0.093202665 -0.012645605 -0.034864668 0.062769584 -0.08942035 0.044385754 0.018738803 -0.11504377 -0.045653954 0.07945475 -0.02127003 0.064130634 0.10196233 -0.06982179 0.04135118 0.06979462 -0.054393742 -0.06887893 0.057480726 -0.023670727 -0.0128498925 -0.029595764 -0.10561853 0.029417219 0.030340362 0.07032648 -0.02702077 0.10469186 -0.08700229 0.041910492 0.10337071 0.04920022 0.017618615 -0.03195733 -0.0057769045 0.10647145 -0.02869129 0.07925375 -0.082680896 0.0366458 -0.061287053 -0.08808003 0.09950876 -0.028299883 -0.017484313 -0.0055528465 0.07935217 -0.065893576 -0.040910717 0.0038800335 0.010329187 -0.08798731 0.04997301 -0.100431465 0.1090789 0.08123012 0.019419953 0.0871983 -0.10522288 0.059935156 -0.09760847 0.09653101 -0.049250774 0.06771088 0.010782483 -0.06134554 -0.039163917 0.0990424 -0.05457318 0.038258106 0.08745831 -0.019343145 -0.0055136606 0.03160051 0.07243048 0.031502232 0.0067962157 -0.083978616 -0.08343859 -0.032516275 -0.07326358 -0.02405351 0.06590214 -0.054665588 0.074788325 -0.09145695 0.07111707 -0.052203692 0.10567258 -0.08213826 -0.087155454 0.09492196 0.053808957 -0.09752495 -0.08771663 0.109011106 0.054782778 -0.111474425 -0.033366024 -0.012843266 -0.05789402 0.013047993 -0.054029245 -0.018646518 0.019059543 0.10067775 -0.055959582 0.017437708 -0.10068493 -0.02851053 -0.00549435 -0.04477239 0.014228196 0.08473718 0.07561053 -0.038154833 -0.04011587 0.07500186 0.005129495 -0.1054836 -0.057514075 0.04307238 0.059577808 0.0002699632 0.061554648 0.10284047 0.0076904716 0.092469424 0.12866145 0.097680934 0.13590254 -0.090063006 -0.05645475 -0.034985032 0.00506377 0.00599934 0.003928371 0.05210561 -0.060778722 0.122238 -0.10204303 0.0641488 0.08437138 0.036857873 0.09936948 0.12185087 0.019826777 0.06594232 -0.0389904 0.034109987 0.06856165 0.07870767 -0.076166816 0.08380684 -0.01283273 0.08003886 0.10308029 0.0166067 -0.036646355 -0.031090729 0.034928933 0.04811192 -0.07945814 -0.07890825 -0.09263322 0.058042902 0.07670582 0.067378856 -0.00076492265 0.045444645 0.02307417 -0.0130873695 -0.07458445 0.027711272 -0.053957716 0.08701987 0.0842535 0.07922536 0.060946897 -0.007852657 -0.0053628664 0.073294334 -0.107104845 0.0320058 0.0907966 -0.0104932105 0.02055189 -0.09304907 0.109204695 -0.03673938 -0.105383985 -0.076106586 -0.011498809 0.015943144 -0.060507223 -0.042675838 0.111522384 -0.037955172 -0.08586875 0.05341576 0.005750123 0.033056132 -0.07222653 -0.09395105 -0.002083444 0.0063919513 -0.075693116 -0.05737603 0.050489984 0.0372483 0.052661225 0.040659826 -0.106869906 0.007234534 0.03856687 -0.035013884 0.035922926 0.06785932 -0.070991136 0.08292091 0.07717889 0.108067945 0.09111912 0.0030991063 0.111790605 0.07614622 -0.049166985 -0.03440133 -0.05405131 -0.021507856 -0.099009894 -0.043566104 -0.10940988 0.05979074 -0.10645987 0.01526133 -0.03255774 0.020156471 0.08952797 0.032862835 -0.12141908 -0.108622685 -0.0685504 0.06314269 -0.0034859001 0.023511942 0.100542344 -0.10316158 -0.034431107 0.096309766 0.105678365 0.091328286 0.10901396 -0.024391938 -0.02918227 0.104461625 0.08124286 -0.056478005 -0.10939279 0.08992945 0.06296214 -0.085705996 -0.09131105 0.047193196 -0.07337074 0.019262895 0.037441906 0.0057532415 0.0021584237 0.057089113 0.045432925 -0.010916237 -0.045776438 -0.055516113 0.052162126 0.05211573 0.06853002 0.031394742 -0.068081915 0.042579185 -0.026054416 -0.040490054 0.07787745 0.003390526 8.808034e-05 0.047197036 -0.08883323 0.03472049 -0.055750657 0.059105814 0.089261085 0.006970698 -0.07657979 -0.0124191595 -0.08117825 0.039774407 0.05521257 0.03013298 -0.10626338 -0.053708866 -0.011375107 0.07620451 -0.00012939467 0.049771354 -0.0104437275 -0.019086475 -0.034309216 0.056388564 -0.10002991 -9.3703755e-05 0.09740709 -0.10175497 0.068331055 -0.09593447 0.08321901 -0.089692645 0.08117898 0.08709098 -0.096533954 -0.10620687 0.04451728 -0.04609657 0.060541447 -0.061374422 0.022881681 0.019321367 -0.050274782 0.0006060889 0.06693569 0.029221404 -0.06537687 -0.10934144 0.019107338 0.083130166 0.056467447 -0.09010885 -0.02177544 -0.07013902 -0.003477562 0.06306289 -0.0814779 -0.0051113362 -0.0064214948 0.034161635 -0.02027815 -0.045031574 0.0870258 -0.049675416 -0.061999086 -0.018901039 0.054115053 -0.06257289 0.09301027 -0.025369905 0.05118242 0.08805154 -0.098872796 0.08868813 -0.028487055 0.06842548 0.031980276 -0.021977328 -0.061951093 0.017793963 0.05902727 0.074560605 0.08521967 0.083983034 -0.10676348 0.10731114 0.024711367 -0.071676545 -0.09485862 0.110108964 -0.055226427 0.029069938 -0.058440983 -0.11063214 0.063685566 -0.08784314 0.0132236015 0.11130266 0.09388471 0.029578194 -0.052248057 -0.099273086 -0.053474586 -0.047348224 0.107177004 -0.04005807 -0.109824024 -0.0038397294 -0.08899873 -0.011008514 -0.063137166 0.08681138 -0.045771845 -0.045500737 0.10854497 0.078939766 -0.0013692596 -0.097127035 0.032529682 0.08678924 0.07910873 -0.060758512 -0.10545012 -0.06328366 -0.098294534 0.068965025 -0.06813777 0.014412295 0.097281665 0.034466095 -0.09093468 -0.0021800622 0.103059806 0.016956285 -0.015487906 0.088494964 -0.09909364 -0.052098446 0.014476734 0.08406699 -0.03772797 -0.0672056 -0.10589431 -0.103001885 0.054460414 -0.05981338 0.024847211 0.03751013 0.045315858 -0.11199465 0.048937246 -0.035551272 -0.04543773 -0.02027833 -0.10258283 -0.01573731 0.029864894 -0.106977254 -0.056829814 -0.08010129 -0.07243551 -0.06396682 0.09115031 0.029265398 0.04510097 -0.09453354 -0.063110575 -0.08431883 0.06669327 -0.11284222 -0.08291577 -0.0077858414 0.023639837 0.025977695 -0.017434768 0.010022889 0.014660741 0.025731767 -0.032511182 0.07487652 0.0025753272 0.043840602 0.02673347 -0.06947503 -0.051920943 -0.062263098 -0.020727789 0.00592439 -0.0049496396 0.092658065 0.09778061 0.02447123 0.00255969 -0.07550903 0.066437855 -0.048060533 -0.09176695 0.07087185 0.072208904 0.046673127 0.010408848 -0.06269135 0.07000225 0.11738979 0.04651412 0.06507497 -0.052080326 0.04255693 -0.05030363 -0.036118686 0.048669767 0.039795246 0.06490393 -0.012426684 -0.015845947 0.024809202 0.05730009 0.019940559 -0.07143722 0.11977989 0.043385465 0.041233767 -0.014800581 0.10109988 -0.0012806206 0.009454277 0.07449328 -0.006329528 0.026088174 -0.006448761 0.023986798 0.0041397293 -0.08858568 -0.01813893 0.10949777 0.077851444 -0.010805673 0.027638044 -0.07192321 0.0784629 -0.10234089 0.056028623 0.08680488 0.02735941 0.04720343 -0.09346806 -0.035730522 -0.03321814 0.044361487 -0.10386726 -0.040465996 0.0518078 0.020465849 -0.10696099 0.0826468 0.0643427 0.01623588 0.008884899 -0.08958907 -0.110396266 -0.08647746 -0.09212443 -0.06380718 -0.06946655 0.10862251 -0.082653396 0.09455563 0.09171429 0.01568424 -0.0002466238 0.037106417 0.013787934 -0.06790714 -0.10519793 0.10053153 -0.017835807 0.08303449 0.07075865 -0.0480937 -0.01878505 -0.018829215 0.10720257 0.018665543 0.07314952 -0.08106714 -0.049277406 -0.087352075 0.051432073 -0.09330252 0.04323216 0.07368043 0.024424206 -0.033830844 0.06617314 -0.053131405 0.07399475 0.003464621 -0.09129541 0.055687536 -0.018135058 0.08249569 -0.08540947 0.09499499 0.029561002 -0.111249745 0.037822448 -0.037939347 0.038959272 0.010501936 -0.05956942 0.024786256 -0.062202513 -0.022735173 -0.003088982 0.05345572 0.013401575 -0.107797176 0.043704156 -0.01645034 -0.06876123 0.10501903 0.029525036 0.052128427 -0.0012685617 -0.10073492 0.07472321 0.033529896 -0.048549175 0.09755829 -0.093108386 0.081960596 0.05478397 0.07450861 0.00682867 -0.07045459 0.013527261 -0.07135373 -0.023458345 -0.044075884 -0.083114095 0.09179761 -0.09726751 0.07683706 -0.033314317 -0.07385714 0.037755094 -0.053170502 0.08642496 0.06540091 0.09661244 0.002576515 -0.11129837 0.020045035 -0.023496356 0.03550514 0.019066585 -0.097923435 0.06836716 -0.080431655 -0.10048811 -0.024260178 0.10765905 -0.073425286 -0.0022730748 -0.06753797 0.065270394 -0.035000123 -0.090840176 0.04566753 -0.08280742 0.08860993 0.053168308 0.010553081 0.040719848 -0.06433854 0.09749446 0.0046369503 -0.08769317 0.020459218 -0.08514664 -0.016044747 -0.082318485 -0.110993244 0.029268047 -0.0916179 0.0694215 0.08597487 0.036585256 -0.014007625 -0.032640547 -0.039437503 -0.001678384 0.0687034 0.07232371 0.033792015 0.095768765 -0.10067074 0.0006585198 0.099284634 -0.018107876 -0.0304076 0.008216225 -0.033788208 0.09964298 -0.10722599 -0.07179674 -0.037721235 -0.014927972 -0.061668538 0.09548516 -0.0015159183 0.10323165 -0.06717719 -0.040947627 -0.09292957 0.04433179 0.043719202 -0.09406489 -0.11175244 0.07519162 0.018198714 0.032997027 -0.006667796 -0.088535026 -0.033633135 -0.05317411 -0.004080542 0.04421109 0.052743435 -0.007308596 -0.10971538 -0.008059253 0.07462736 0.035308808 0.0497251 -0.099665396 -0.103239596 -0.06064011 -0.026969623 -0.087987825 0.022331655 -0.020670885 0.0016127104 -0.0025823414 0.009308978 -0.033620093 -0.107553296 0.025330478 -0.0022340403 -0.058413874 -0.09727684 0.0006547812 -0.09713514 -0.01597207 0.04858143 0.0071313046 0.06933832 0.096611306 -0.018976523 -0.07339596 -0.10419225 0.012104042 -0.03444384 0.101239264 -0.021813557 0.00091939734 0.05301453 0.03014188 -0.025609383 0.05790177 -0.06390129 -0.08748792 0.07564548 -0.02098607 -0.009590946 -0.027799949 -0.041105207 -0.068573326 0.03492967 0.035406634 -0.095540754 0.10734384 -0.05770415 -0.09844902 0.022664566 -0.031810723 -0.09293209 -0.084868595 -0.09042633 -0.011672676 -0.093501434 0.027492594 -0.077962235 0.10002275 0.09810729 -0.014399495 0.08754538 0.08456434 0.08969182 -0.092820615 0.06286151 -0.0014343879 -0.07446566 0.0161466 0.06960846 0.11153165 -0.043767057 0.10339732 -0.01639022 0.03229638 -0.04145181 -0.05099666 0.0603067 0.07164236 -0.08632802 -0.063019566 -0.036836326 -0.058612186 0.0538121 -0.019281823 -0.04690044 0.02438939 -0.10005473 0.094604895 -0.099790506 -0.087042056 -0.02236412 -0.10522772 0.021436157 -0.0044732797 0.009221703 -0.023415156 0.08450484 0.035048887 0.0379337 -0.10905034 0.08362231 -0.022995748 -0.06604099 -0.033583157 0.022044502 0.08918466 -0.082683116 -0.02764113 0.083854765 -0.081684254 0.040679377 0.026524708 -0.019636134 -0.10404625 0.03441222 0.07220316 0.07959044 0.09669411 0.046036635 0.036062527 0.07120363 -0.087853484 0.0444157 0.016454576 0.086100884 -0.06951924 -0.06697586 0.03341884 -0.052091174 0.109938 0.034287844 -0.009636048 -0.0667344 -0.05674888 -0.037650887 0.07418904 -0.033865653 0.0906937 -0.09619812 -0.10626065 0.109232485 0.071494736 -0.09869992 -0.07430144 0.106580645 -0.071926765 0.012677301 0.03362672 -0.0070238076 -0.0073017324 0.0077935588 -0.02791933 0.06787196 -0.0063469196 0.102683365 0.098585986 0.018572688 0.053851083 0.011793482 0.010424367 0.077008955 -0.06381362 0.10173235 0.007684715 -0.103852965 0.060725965 0.06069334 -0.033284027 -0.045158602 -0.10920805 0.08490625 -0.052651778 -0.07283674 -0.047164842 -0.03518244 -0.019815622 -0.098337635 -0.049946748 -0.022233548 -0.09537433 0.026703564 -0.011897773 0.01644161 -0.035112575 -0.06369546 0.05088389 0.08904136 0.061715156 -0.04256661 -0.035516895 -0.06535224 0.02604916 -0.06857117 0.030714191 -0.010367474 -0.010716754 -0.03043366 -0.0806754 -0.0870335 0.0681722 -0.03905417 -0.024544008 -0.08160547 0.0023811057 -0.08116813 0.003081717 -0.0974775 0.016759304 0.106389925 -0.09725244 0.056946825 -0.06608426 0.05824273 -0.09086958 0.07403666 0.056300346 0.10908738 0.02288977 0.011567611 -0.077712074 0.096585475 0.0044587986 0.08666174 0.05576776 -0.09785699 0.10213454 0.0149521185 0.026251277 -0.07699947 0.0472187 -0.027534269 -0.03182147 -0.004682841 0.05331304 0.032255977 0.010724829 0.08043691 0.107071534 -0.016065754 0.06777976 0.0501088 -0.042554628 -0.09369103 0.0056067533 -0.055775397 -0.068049535 -0.07046864 -0.10721651 -0.06894524 -0.03136707 -0.006524021 0.07370778 0.034451973 0.057062473 -0.02839849 0.017931737 0.11039422 0.054798424 0.07285219 -0.023492767 0.09347997 -0.042849943 0.00099514 -0.057523165 -0.10668337 0.06989462 0.08916259 0.046716888 0.018190576 -0.11079261 -0.08492024 0.001723894 0.05506375 -0.024600208 -0.08266551 0.008721678 0.05677611 -0.028544823 0.061205182 -0.047809318 -0.06354569 0.037108123 -0.094753385 0.03747503 0.011923783 0.101862065 -0.062302884 -0.02229524 -0.063386485 0.020521158 -0.09163306 -0.078210086 -0.018805822 0.1084483 -0.019891473 -0.008964261 -0.10600487 -0.10015361 0.0027694255 -0.026930926 0.053769663 -0.06355332 0.0027565807 -0.004900284 -0.06933116 -0.008209888 -0.070798375 0.029282728 0.02908736 -0.079130605 -0.07995633 -0.08946958 0.043243278 0.081801176 -0.07231713 -0.055741236 -0.11573231 -0.093611084 0.046121188 0.034185696 0.11048608 0.06528017 -0.07132885 0.025962856 0.09174275 -0.0016883449 -0.027081287 0.0031419212 -0.02812555 0.05764194 -0.06393395 -0.05287513 -0.025382495 -0.02766563 0.055372555 -0.064635746 -0.09680916 0.0045548156 -0.0314123 -0.018231386 0.07534636 -0.08303149 -0.0485821 -0.023648432 -0.026801335 0.09293982 0.09292189 -0.04791312 -0.0005856707 -0.014670402 -0.13891524 0.108151816 0.111639865 -0.008915144 0.10820878 -0.057835247 -0.061089378 0.08364499 0.042837795 -0.035264846 -0.07087047 0.07682501 -0.05066412 -0.08911008 -0.04161807 -0.053978533 -0.05133675 0.028428644 0.11276968 -0.09456518 0.0808747 0.045106053 -0.0111487815 0.09084591 0.013955104 -0.07834184 -0.0038925728 0.11011976 0.06090888 0.054427028 0.08937883 0.050761282 -0.031155197 -0.07853937 -0.0948613 -0.0035843311 0.05711266 0.018997455 0.0393188 0.020713426 -0.038842782 0.108515866 -0.081715025 -0.09430791 0.037616387 0.028641075 0.1305647 -0.07056607 0.023890266 0.06145024 0.043291304 -0.1109501 -0.07403594 0.008915932 -0.052166045 0.07956248 -0.050542876 -0.15373847 0.12480635 -0.05524673 0.003943206 -0.06274369 -0.03843884 0.045330014 -0.05129379 -0.051218245 -0.099051274 0.039043866 -0.14067453 -0.026078993 -0.06566069 -0.037917588 0.08111758 -0.063226774 0.05989801 -0.094770715 -0.0051754024 -0.005694369 -0.087740675 -0.107715 0.047160726 -0.073607765 -0.041003846 0.04253648 0.055285722 0.07689166 -0.0512068 -0.05829686 0.080535695 0.09723248 -0.09922953 0.070257396 0.02839379 0.0055818185 -0.015171326 -0.02060471 -0.07831134 -0.07525814 -0.06453239 -0.0957892 -0.051052112 0.11147926 -0.0056094527 -0.016568601 0.02199173 0.066580236 -0.0007042479 -0.072589174 -0.04832479 -0.09562586 0.065849125 0.03721839 -0.035650134 -0.07115808 -0.008950181 -0.02259573 -0.07920404 0.06601213 -0.10854415 -0.033767484 -0.111039266 0.09368256 -0.10921592 0.060981885 0.07811423 -0.050932914 0.0186384 -0.011583261 -0.045985095 -0.023910485 -0.011205227 -0.083489396 -0.1054166 -0.096929826 0.101876214 0.028579187 -0.051190488 0.045073677 -0.07795011 -0.080001876 -0.10905992 0.015871089 0.03992062 0.060876105 0.08991746 -0.045873392 -0.0014649183 0.052078124 0.06382369 0.08061026 -0.0123636 0.05548884 0.038386744 -0.10096007 0.04429157 0.06353044 -0.026142761 0.069537774 0.0046472894 0.11139101 0.003521781 -0.040412102 -0.10679234 -0.10739366 0.004878248 0.09411252 -0.040257465 -0.019564627 -0.041361544 0.060681716 -0.03624678 0.08144381 0.04633935 -0.06636701 -0.08449723 0.012054252 0.053002384 -0.08082839 0.06743245 0.040121645 -0.06287419 0.04272342 -0.10507003 0.09142513 0.08473663 0.06262781 -0.06017076 -0.041912843 0.065208055 -0.06243966 -0.080851585 -0.09621199 -0.022500873 0.014488563 -0.043812785 -0.123662725 0.09687067 0.023369992 -0.06788284 -0.027146982 -0.10516665 0.029831085 -0.11058855 -0.043894514 -0.08477405 -0.091626026 -0.034942288 0.027611203 0.08970616 0.07970086 0.021321755 0.012362652 0.037009344 -0.028754197 -0.09204316 -0.09919614 0.018154303 -0.025203396 -0.11359947 0.07740763 -0.035432708 -0.093233794 -0.046158202 0.07028479 -0.067437336 0.10986756 0.033359915 -0.096667916 -0.020755308 0.005855663 0.063596874 -0.025479985 0.10092651 0.0793474 0.029853463 -0.003390161 -0.0015735949 -0.09618256 -0.10619708 -0.0766497 -0.06396343 0.01865161 0.081189044 -0.006487956 -0.02333647 -0.031587366 0.10782472 0.07503741 -0.09638383 0.0636462 -0.021693116 -0.06547913 0.044085573 0.065355726 0.10761007 0.004072691 0.043255635 0.0121955415 0.09714685 -0.07509664 -0.09666648 0.035321143 0.01802879 0.049579017 0.0473911 -0.01970317 -0.08380645 -0.025030512 -0.006651299 -0.07642652 0.022522273 0.07047101 -0.018583555 0.043474793 0.05608516 0.123145275 0.005500777 -0.011032239 0.009541889 -0.04911313 0.090548314 0.009406947 -0.092947595 -0.06987581 -0.04651149 0.016933104 -0.0036504716 0.06855596 0.09503232 -0.019782988 -0.0062911175 0.09033748 -0.019121781 0.07882836 -0.072432116 0.012848402 0.072177775 -0.11035044 -0.07260427 -0.024880858 -0.084460825 0.110689975 0.009185158 0.05337706 -0.11518676 -0.07696444 -0.035792466 -0.011872946 -0.09514594 0.03055527 0.053823613 -0.10725623 -0.088907324 0.0031408584 0.01585508 -0.07473216 0.07019971 -0.019282172 0.07108405 -0.09102811 -0.02035703 -0.07033558 0.0077885925 0.08661715 0.04239617 -0.10246943 0.06162027 -0.09089867 -0.04741139 0.06651463 0.06976829 0.07301914 0.020475734 0.011468835 -0.06561355 -0.09245112 -0.036067497 -0.07067516 0.1317626 0.043092277 0.043897964 0.046295613 0.06064729 0.0037978906 0.011300768 -0.08668039 0.107342355 0.11754498 0.07018925 0.06081501 0.06194175 0.034118403 0.039815377 -0.009222142 0.010013082 -0.057324287 0.006816917 0.034102704 -0.10676471 -0.061002344 0.0062910044 0.10182823 0.1099421 0.10860916 0.021126246 -0.08179282 -0.0662915 0.039520767 0.038209524 0.046270404 -0.1121931 -0.0743944 -0.0683923 0.10961073 -0.109505534 -0.04249934 0.08048571 -0.044292897 -0.07028529 -0.06632412 0.025918113 0.10014578 0.066653326 0.06965044 -0.05812403 0.020219775 -0.08024695 -0.06844518 -0.05717016 0.07637241 -0.038559858 -0.094618104 0.064283475 -0.013409446 0.036830842 0.051067743 -0.017814185 0.03866156 0.07692924 -0.03156489 0.087038524 0.029292881 0.004143942 -0.09141524 0.08667722 0.023894519 0.06856853 0.012503189 0.057901755 0.088923484 0.01021869 0.010258457 -0.10181904 -0.024788484 -0.0770614 0.09367152 0.023260806 -0.08649142 -0.031116335 -0.03649363 0.08928804 0.061250295 0.04485327 0.07924591 -0.0680482 0.04655928 -0.05336455 -0.017952403 -0.032488994 0.03368728 0.110847846 0.096689835 -0.05490847 0.090639025 -0.03821616 -0.015902508 -0.05332301 -0.089769565 -0.036959127 -0.023851031 -0.10302338 0.05247982 -0.014376092 0.028229669 -0.09207399 0.015945172 -0.032605674 -0.081695534 0.011863731 -0.096528634 -0.09560284 -0.032651268 0.105096504 -0.026542962 -0.019356608 0.020730915 0.107909665 0.1064445 -0.036627945 -0.0012428383 -0.10092053 -0.043154906 0.07143648 -0.10971558 -0.08749923 0.045537353 -0.098744445 -0.045842133 -0.08952758 -0.101178735 -0.02733823 0.02995719 -0.05349435 -0.051946346 -0.026499802 -0.041995376 0.1000471 0.019712403 -0.10770898 -0.10769188 0.10510379 0.021727586 -0.0389992 0.098264664 -0.018622272 0.012250926 -0.11152528 -0.102456495 -0.11067382 0.03917083 0.07522716 -0.062928766 0.04935351 0.11045967 0.027101979 0.004526697 -0.029746927 0.018828824 0.083940625 0.07147035 -0.1090346 0.041678973 -0.057665206 0.08591717 -0.07932657 -0.10803622 0.057513893 -0.036715984 0.0009554055 -0.012805454 0.010919251 -0.03298761 0.01900208 -0.051302418 0.072462894 0.044311553 -0.06582103 -0.022890978 -0.00018621981 -0.0022484583 0.08742797 -0.042370446 0.053896174 -0.0796283 0.0002978146 -0.072366975 -0.021498134 0.039514408 -0.025738074 0.091160685 -0.02353021 0.057150576 -0.011295615 -0.08106474 0.027819602 -0.0402563 0.057029307 -0.036238424 -0.082792826 0.09824924 -0.11151847 0.017062768 0.10807562 -0.073415324 -0.109332666 0.07803797 0.013316378 0.07507486 0.022143653 0.0008411843 0.039450124 -0.110697135 0.046880018 -0.047054872 -0.06903176 0.029846668 0.0037023723 0.095371895 -0.060054142 -0.09767371 -0.00034838688 0.0073917625 -0.056718737 -0.03748851 0.090912595 0.09062503 -0.04013923 -0.026067715 -0.03790615 -0.04754446 -0.0068785516 0.033986144 -0.06119422 -0.019665994 -0.104971826 0.071407534 -0.02809473 -0.063540936 0.120339565 0.038682368 0.077904634 0.07496992 0.037428737 -0.05492758 -0.11687963 -0.043945424 -0.030527769 -0.011545089 0.062342115 -0.10195514 0.058358822 0.06134365 0.010437497 -0.02235341 0.06433243 -0.06217831 -0.009264806 0.03875844 0.025313236 0.0063887155 0.026395708 -0.09138981 0.065483615 -0.08195021 0.04272549 -0.01301564 -0.04653183 0.009355053 -0.017028704 0.09643696 0.07850878 0.030458614 -0.008560637 0.10086336 -0.09425934 0.10692378 0.054999225 0.06487388 0.11065938 0.013879886 0.035786342 0.05864852 -0.07179346 0.115913615 -0.015962074 0.035328425 -0.07281894 0.10000696 0.007288633 -0.08526379 0.075969435 0.037801042 0.047294166 -0.024661621 0.032120943 -0.0779271 0.091418765 0.0796102 -0.005423826 -0.094283 -0.0750947 -0.054384865 0.08909787 -0.07202483 -0.053727195 -0.046089083 -0.07836766 0.042875566 0.04074618 -0.09712441 0.082170114 0.020900626 -0.0646004 0.007050854 0.024586309 0.036451053 -0.061043665 0.11042499 0.10302963 0.105321266 0.002645581 -0.0008876877 -0.086095236 0.10387041 -0.012538829 -0.028512899 -0.028907828 -0.074821934 -0.09281939 -0.0020105848 -0.090752035 -0.059139322 0.071815744 0.043464333 -0.08337763 -0.008998232 -0.030888757 0.043386813 -0.010707161 0.047028538 0.030024923 0.024498394 0.075024344 0.047048416 -0.109950595 0.09991894 -0.08803793 0.06838673 0.0011405534 0.061603576 -0.04403404 -0.0059696743 -0.029030856 0.106880225 -0.067188405 0.069828175 -0.09371096 0.034032498 -0.08750528 -0.054634508 0.060056046 0.078071445 -0.015531048 -0.08862048 -0.085350096 0.021777075 0.06431616 0.044153985 -0.10902487 -0.05338952 0.044978328 0.07868007 0.06493505 -0.018077664 -0.011077996 -0.03695384 -0.028148374 -0.022986615 0.03578092 -0.0063787517 0.023988457 -0.01183069 0.060876224 -0.043934345 0.012327604 -0.0060148966 -0.068352625 -0.0010002998 0.021804998 0.018449236 0.025710901 -0.050788846 -0.08203764 0.03898293 0.009297228 -0.04557186 0.117863916 0.04068402 0.10108179 -0.09529262 0.035906393 -0.10693696 -0.062427055 0.027364226 0.041954778 0.048149522 0.058354598 -0.06315578 -0.04009916 -0.016061714 0.017887386 0.017264765 -0.05474846 0.08471532 -0.107967526 0.06949493 -0.10098602 -0.10661337 -0.005385181 0.10573307 -0.008525199 -0.0058783186 0.0827521 0.04069062 0.09657392 0.08647385 -0.034132455 0.040918358 -0.07268402 0.09018585 -0.039443735 0.08660522 -0.07365841 0.033124372 0.00818382 0.09841284 0.09158088 -0.078844205 -0.06980745 -0.05534376 -0.07401159 0.01565712 -0.03723957 0.024933776 0.08991572 -0.072088964 -0.09728097 0.047327563 -0.09658628 -0.10389785 -0.08326583 0.031133313 -0.108450435 0.0028552178 0.11075839 0.010533208 0.08184916 0.081538215 -0.08874135 0.046143405 0.044350058 0.022903906 -0.10143488 0.100295894 -0.08099119 0.08174177 -0.08719459 0.011895558 0.09164217 -0.016633874 -0.09994139 -0.05718757 0.092460655 -0.007855093 0.06799979 0.014754677 0.08637937 -0.023756845 0.096147105 0.00042564486 0.087026976 0.013458737 0.096102975 0.11482937 -0.1162143 0.04897989 0.0315627 0.0027133827 0.042715076 0.09075589 -0.03965606 0.10924767 0.06733879 0.05217515 -0.074233636 0.11800566 0.08334153 0.0018107055 -0.091472894 -0.022429196 0.07492714 -0.07645636 0.032730833 -0.073962316 -0.023739737 0.03972103 0.07464032 -0.055528115 -0.06881304 0.004552093 -0.024539998 -0.10118241 -0.0396644 -0.091180526 0.008395732 0.07972825 -0.01620701 0.0027527516 0.037569482 -0.04262218 0.09319385 0.011608072 0.06797613 -0.06258222 0.013409442 -0.10577665 -0.021662166 0.030810446 -0.082635455 -0.07593713 -0.079530165 -0.047712225 0.061839502 0.016145755 -0.050269607 0.012960902 -0.08440724 -0.08255946 -0.024781859 -0.04555191 0.007368072 0.025720354 -0.09725092 -0.053576667 -0.046616204 -0.07979273 0.043943383 0.005391485 -0.017749865 -0.04455641 0.11111697 -0.09641362 -0.060037445 -0.10178537 0.03910753 -0.079362184 0.01781514 -0.05585014 -0.09630805 -0.10166072 -0.044028357 0.037135452 -0.07477771 -0.008278619 0.0043568676 0.026136313 -0.058166236 -0.07885041 0.048692584 0.023655906 -0.0011996909 0.058544368 0.07735956 0.043484032 0.034560934 -0.058103587 0.08926721 -0.020046994 0.09353207 -0.050966796 -0.09226012 -0.08150893 0.0006055981 0.004439009 0.0058030933 0.10882859 -0.09670013 0.009052344 0.10982325 -0.0036552933 -0.09044178 0.014772362 -0.09677351 -0.065826006 -0.060009684 0.0919839 0.047446214 -0.0510433 0.05898141 -0.08089706 -0.08277547 0.0015493446 -0.028635338 0.058072787 0.06340627 0.10971918 -0.03254091 0.09261047 -0.011236893 -0.07215449 -0.026167069 0.015345529 0.06430728 0.089661874 -0.08616262 0.100807935 0.058792677 0.0050941333 -0.10081564 0.005106511 0.005593853 -0.05414821 -0.03416165 -0.073979706 -0.0022147836 0.013101677 0.12780997 0.07425314 -0.03037709 0.0117754545 0.10328848 0.07091752 0.011501116 0.07449582 -0.078343704 0.019994738 0.0104587 0.08678053 0.015928412 -0.10199248 0.002870135 -0.019657766 0.025788035 -0.085001156 -0.095880166 0.060736906 0.09509959 0.03416652 0.008487976 0.119608246 -0.09717446 -0.0096380245 0.10674847 0.10227783 -0.021240523 0.045602717 -0.065598115 0.02467976 0.042629916 0.0021712007 -0.038233455 -0.10267499 0.007841867 -0.07662167 0.028391134 -0.08345951 0.08375979 -0.07626599 0.047128864 0.038029812 0.07094848 0.08727285 -0.0017136195 0.095394306 -0.015603157 0.081215404 0.09654567 -0.08658624 0.0705798 -0.018365111 0.06514218 0.10962993 -0.097155154 -0.05055569 -0.11403388 -0.09162166 0.07525369 0.053721696 -0.08471098 0.05121042 0.08677392 -0.0716359 0.041791767 -0.060491316 0.044385627 -0.10493989 -0.05905038 0.021641986 -0.08727159 -0.047269106 0.075531796 -0.05932347 0.08201271 0.02072955 0.04244458 0.05215363 -0.055519294 -0.0894168 -0.08905159 -0.08646911 -0.05631236 0.036295373 -0.08568781 -0.078070916 0.041168947 -0.020635238 0.05808263 0.013536753 -0.018213717 -0.090578586 0.023462722 0.03985803 -0.061981115 0.028215406 0.1150838 0.004894395 0.009349307 -0.017230947 0.021722365 -0.070562504 0.027709369 -0.07462272 -0.08680718 0.09521592 0.08266709 0.0835906 -0.07082713 0.08389505 -0.09432916 -0.045974374 0.014811095 0.06266898 -0.10962089 0.07998097 0.010739561 0.040808547 -0.006757707 0.09197845 -0.010407505 0.027775357 -0.023758268 -0.030910945 0.08185676 -0.0499141 -0.028290574 0.023765909 -0.101568885 0.08205302 0.062178142 0.091454946 0.0007737728 -0.07136687 0.072522186 0.053469952 0.115334354 -0.08639368 -0.06552708 -0.107869096 -0.059528865 0.08884332 -0.10861469 0.042891663 -0.005235308 0.12508267 0.09652939 0.029286848 -0.038321838 0.06344714 0.05468889 -0.032531265 -0.09701286 0.013805702 -0.035984937 -0.05882016 0.016637549 0.08324446 -0.108106576 0.061857194 -0.0128811 -0.008549635 0.10237499 0.004728047 -0.049435273 -0.027793981 -0.026655992 -0.08277744 -0.0791367 0.047607906 -0.09675787 -0.02797087 0.07838435 -0.009920219 -0.031552024 -0.035094954 -0.027011655 -0.080034226 -0.09995246 -0.012976485 0.023358867 0.07710302 -0.013304432 -0.07124418 0.049902514 -0.10462728 0.027810335 0.058550783 -0.016800761 0.058267035 -0.09427014 -0.043362953 0.053409304 0.109111086 0.081938714 0.028957596 -0.09809277 -0.02641041 -0.08612495 -0.08146957 -0.039207898 -0.031811886 0.09396329 -0.09741593 0.06910777 0.042784646 -0.07770911 -0.013372988 -0.07339966 0.020411476 0.030180512 -0.058515705 0.088015184 -0.062137593 -0.018051445 -0.0036786306 -0.077828825 -0.021053532 -0.070662364 0.008275986 0.008387084 -0.100213856 0.089533776 0.0057960004 0.105239056 0.012622068 -0.045062087 -0.04044573 -0.0133714 -0.023389049 0.017488986 -0.0024321966 -0.013189574 0.042085223 0.11331491 -0.038333945 0.030334072 -0.07476998 -0.107294515 -0.10483752 -0.042690713 0.06827687 0.09342067 0.12853621 0.010626335 -0.064131856 0.0018949624 0.04063852 0.06651533 -0.042247616 -0.043045647 -0.09024832 0.002900206 0.031117156 -0.08252936 -0.0074991845 0.07307355 -0.075957865 0.09388829 -0.09347527 0.05613634 -0.0536779 -0.07839236 -0.032612395 -0.00026991728 -0.022032693 0.051444627 -0.13566409 -0.05702244 -0.045619674 -0.08049693 -0.03292958 -0.10372746 0.047336824 -0.05696664 0.058093887 0.095462024 -0.07343699 0.08109442 -0.043618504 0.08953729 0.077558056 0.090160176 0.035541635 0.03823322 -0.04203413 0.026518632 0.0003153696 -0.09257132 0.15391143 -0.106789194 0.098972015 -0.09259972 0.023425741 0.06425799 -0.1205279 -0.030997513 0.10524848 -0.06408243 0.06509111 0.11181056 -0.08272189 -0.06896734 -0.10785606 0.0045721154 0.004837567 0.036304925 -0.0793278 -0.0809047 0.01985015 -0.0457374 0.1017871 0.12735292 0.028846338 0.05197611 0.09280242 0.017533362 0.078549184 0.079804875 -0.10718625 0.0833565 0.062323477 -0.003944269 0.049185768 0.08943257 -0.038667742 -0.083521694 0.004958279 0.103396446 0.042099528 -0.04027767 -0.022573479 -0.003263811 -0.00046257698 0.023260642 0.03267719 0.063731216 -0.043957796 -0.09115828 -0.06302276 0.112215325 -0.010691647 -0.03791544 -0.036444798 -0.05394067 0.048220664 -0.077817656 -0.0045701726 0.07727962 -0.085563384 0.10376018 -0.07227274 0.08534852 0.059594955 0.00622699 -0.093153656 -0.018119313 -0.034114715 0.019003972 0.08550095 0.09810867 0.09156224 -0.070550635 0.14017376 0.070459 -0.08224342 0.030095097 -0.087698705 -0.076062 0.034062978 0.038927082 -0.079906516 -0.0081948275 0.013446667 -0.04069577 0.039558113 -0.023743065 0.07758325 -0.034239475 0.0033967649 0.058198173 0.012154566 0.046399884 -0.06752354 0.08698101 -0.06276402 -0.04848686 -0.038348082 0.061957903 -0.040237527 0.03194647 0.07769102 0.061567605 0.10314329 0.048843566 0.05994039 0.08515287 0.02287656 0.014537413 -0.0026768544 0.11346014 0.027860655 0.021158071 0.12467559 -0.04525272 -0.07544111 -0.081433244 0.0059915455 0.1211287 -0.013359893 -0.010841649 0.045561187 0.007133584 0.07962721 -0.046026986 -0.09540787 0.046222635 -0.06174991 0.0073208087 -0.028886773 0.09834725 0.02113416 0.09638715 0.01925803 -0.024243759 -0.07545155 0.025907345 -0.08418004 -0.0022030082 -0.007506517 -0.08450805 0.004680552 -0.058931187 0.056405973 -0.09154191 0.109650075 0.06463836 -0.02556755 0.032044996 0.022374582 -0.05219843 0.113235764 0.09488391 0.023097405 0.06657042 0.080107346 -0.007939141 0.04879167 0.07180584 0.0130921295 -0.08643152 -0.06861358 -0.0029641811 -0.082609095 0.07792219 -0.06060434 0.10926247 -0.07459562 -0.043530658 0.07618858 0.0067857187 0.06763424 0.04868457 0.065744236 -0.02610257 0.09142856 -0.10130168 -0.07214432 -0.0147483805 -0.049511027 0.08143115 -0.081149265 -0.06222972 0.0062811146 -0.113934845 -0.11101584 0.06653367 -0.011594396 -0.10665055 -0.09747914 0.10875268 -0.04802405 0.06886514 -0.05954886 -0.09573843 -0.04367638 0.060537133 -0.068357885 0.0575083 0.0069456035 0.08583154 0.019569524 0.01331433 -0.00361161 -0.0668491 -0.090093955 0.07052788 0.07034167 0.056387376 0.09752917 -0.041627605 0.06825881 -0.06462857 0.05274506 0.04109715 -0.0874514 0.034610398 -0.0058222055 0.07178394 0.048988473 0.012719292 0.11271856 -0.053113025 0.03377511 -0.09397011 0.004135565 0.0023446006 0.07073958 -0.090887144 -0.04651582 -0.09040301 -0.06448944 0.07195183 -0.027552992 -0.10004002 0.08866423 0.111994974 0.05470817 -0.038409926 0.033929553 0.01440698 -0.03447244 0.042042986 0.06948111 0.039143275 -0.04781563 0.097029455 0.05576242 -0.06933559 -0.028334832 0.08814779 -0.04344232 0.06186428 -0.051347133 -0.0028306541 -0.09617986 -0.061113957 -0.001977091 0.029498793 0.03408794 -0.078637056 0.04301635 0.042874794 0.0041441466 0.0037624638 -0.10775214 0.0483926 0.017638749 0.034710158 0.008186811 0.053320628 -0.063119285 0.052700024 0.0021318982 -0.10166468 0.08237123 -0.009343326 -0.109997034 0.027327232 -0.01648478 0.0526798 -0.037687924 -0.12173375 0.08975942 0.08053679 -0.11553745 0.10635206 -0.024631001 0.014877373 0.0980804 0.015917296 0.025993317 -0.09265449 -0.011904671 0.09290783 -0.02287557 0.10410694 -0.013981086 0.067963876 0.031859696 -0.069578454 0.07030847 -0.059213296 0.09859362 -0.062292065 0.04637982 0.034468126 0.09202966 0.06425317 -0.028673543 -0.058670998 0.037646845 0.12264659 0.0036266816 0.061541516 -0.039769396 0.018930657 0.06577658 0.0821862 0.03350343 0.0023380357 0.017755246 0.0712494 0.1055703 -0.03447921 0.061307393 0.11516733 -0.08097072 -0.1071865 0.023794275 -0.008062823 0.0016939107 0.03654358 0.026587721 -0.05018217 -0.033473957 0.0028808645 0.069661856 0.08184566 0.064636245 0.037768472 -0.036643434 0.0544294 0.07878588 0.061654143 0.027701333 -0.10429607 0.008432779 -0.075133786 0.099991344 0.07424158 -0.0073480015 0.06902 -0.083252914 -0.10183822 -0.058633436 0.05741811 0.06673652 -0.03047269 -0.0023779194 0.04972998 0.019768963 0.036675163 0.09189821 -0.055390257 -0.1056076 0.058167864 0.10181538 0.095203854 -0.020008273 -0.027507633 -0.007713491 -0.06350611 -0.09528796 0.0045250608 -0.016225122 -0.012643778 -0.037171897 -0.077226125 0.06982712 0.008276526 -0.019660411 0.09381155 0.006324212 0.038699046 0.097761914 0.048296954 -0.0034439887 0.06095573 0.058531906 0.0335519 -0.11166464 0.05783581 -0.06502423 0.04765053 -0.012212149 0.041956063 0.028151922 -0.04165693 0.06322836 -0.0807335 -0.086666346 0.026836868 0.09986426 -0.004429617 0.09406018 -0.038728368 0.04328146 -0.055965547 0.0039235298 -0.051839128 -0.06736909 -0.06713309 0.052694343 -0.07466124 -0.008894894 0.06660682 0.095055334 0.0062989295 -0.100939356 0.07723922 0.091918916 0.0634422 -0.05453712 -0.043154646 0.059494104 -0.019824954 -0.09770686 -0.0014242206 -0.0070672077 0.0019268896 0.00026375795 -0.109925464 -0.10851089 -0.056036144 -0.0766723 -0.047433563 -0.10023393 0.0160425 -0.06304652 -0.07618501 -0.04024153 0.050573666 0.08235202 0.008876081 0.10735989 -0.051691543 0.037424594 0.059565976 0.026530992 0.052885104 -0.0037140774 -0.015844801 0.032974727 0.10085321 0.02389282 -0.020911526 -0.0112839565 -0.07868496 -0.036982715 -0.107036434 -0.029321607 0.0560005 0.103056304 0.005896529 0.018873438 -0.005260416 -0.0987957 0.09134707 0.00092389947 -0.07402512 -0.041228976 -0.025609292 0.0034884352 0.015625017 -0.0017590846 0.0961766 -0.08488354 -0.09661646 -0.10230353 0.023160335 0.0885197 0.09366261 0.0045964206 0.0005431263 0.065432616 0.056932364 -0.08287333 -0.03221525 -0.10374005 0.107414275 0.07341349 -0.038715705 -0.019078651 0.0044218395 0.09350697 0.06576662 -0.08959037 -0.023755824 0.03575631 0.09557776 -0.03866299 0.054443184 0.010227613 -0.047274016 0.036829654 0.016339451 -0.06048401 0.006831509 0.0018982593 -0.017665211 0.027519556 -0.053320985 -0.053780373 -0.030389821 0.03755535 -0.008061839 -0.1055892 -0.026924456 0.001147295 -0.06922727 -0.02858056 0.019937886 0.08157172 0.063659355 -0.050054442 -0.07968914 0.04823206 0.009926298 -0.05757307 0.052896895 -0.099508084 0.04704109 0.028593805 0.09910768 -0.025630914 -0.07337802 0.10841364 -0.025783164 -0.10974771 -0.041663792 0.08397963 -0.07444276 0.024522133 -0.11009147 -0.033845637 -0.04348235 -0.03326454 -0.0641719 -0.080872566 0.033550028 0.046638697 0.017043281 0.030451886 -0.07176653 0.04359643 0.02886558 0.08305796 0.051780548 0.10688789 0.049491305 -0.10013538 0.06569688 -0.017107688 0.0050208 0.047670275 0.0044864574 -0.03570902 0.03246355 0.043460794 0.04095974 -0.046820495 -0.07267463 -0.092925996 -0.0894024 -0.033377305 -0.0592376 0.08805853 -0.047710333 -0.049200196 -0.07710114 -0.057306267 0.07591358 0.09439288 0.0772475 -0.08681651 -0.040059146 -0.0962966 0.045556054 0.101133585 -0.0909681 0.08380682 -0.055053037 -0.10573399 0.033599757 -0.1053168 -0.056885984 0.106656075 -0.09572343 -0.0736005 -0.046347737 0.09019773 0.064848036 0.08398294 -0.058136396 -0.06409625 0.080001205 0.099457264 0.07292214 0.03594516 -0.02943502 0.019813154 -0.08947886 -0.015501356 0.11112967 0.008147553 0.084249124 0.05887014 0.102245614 0.053471204 -0.101195395 -0.03559715 -0.0072464123 0.093573175 0.014899027 0.022818986 0.013675947 -0.0576846 -0.11332173 -0.0028343378 -0.047443137 0.04461366 0.07471302 -0.078044824 0.04058025 0.03152956 0.03457645 0.056965586 -0.064966805 -0.024218084 -0.0753583 0.09647832 0.046782814 0.0020318765 0.038642094 -0.10967691 0.106951736 -0.08309066 -0.021488838 -0.07244418 0.00429592 -0.077189416 -0.050072603 -0.012202818 0.08891821 0.11347257 -0.061531495 0.050966945 0.08979061 0.10591914 0.063852996 0.07860359 0.101634204 0.02446355 -0.0991359 0.072036915 0.09355386 0.10667724 -0.093926065 0.04583969 0.08878141 0.0021360097 0.04893457 -0.042590693 0.10478858 -0.112646446 0.002942765 -0.100837156 0.03850662 -0.020064035 0.002670567 0.07762437 -0.031437986 0.08552273 0.062061485 -0.07493053 -0.027096108 0.07951381 -0.10441105 0.0400005 -0.09012209 0.0036830527 0.0924625 -0.015680773 -0.06835389 -0.09824033 -0.020988215 -0.010103911 0.012327384 0.011630387 0.11323119 0.020247228 -0.0072386395 0.09372224 -0.037165478 0.04748459 0.08385843 -0.05955993 -0.06737423 0.06309069 0.06498532 0.1058244 -0.09095732 0.11030463 0.0119014485 -0.07816759 -0.041886766 0.03063887 0.072957985 0.1052818 -0.0063856672 -0.08178478 -0.054162458 -0.0556069 0.039587975 -0.062622845 0.11543866 0.013068363 -0.02301813 -0.10197948 0.061830748 0.036761597 -0.02217525 -0.028211458 0.028308054 -0.031749573 0.026760194 -0.017780695 0.07630056 -0.05231076 -0.06333289 0.021193989 -0.09558977 -0.08323914 0.09783879 0.058438934 0.037701536 -0.045276526 0.0045609293 0.057463348 -0.06219944 0.012515836 -0.10426743 0.07618819 -0.10100121 -0.09925416 -0.06075764 0.09102431 -0.07954994 0.0017974848 0.1423131 0.06735011 -0.0051560653 -0.04734352 0.0124424575 -0.076891206 -0.15720655 0.07592703 0.105141565 0.015332033 -0.09553499 0.07768376 0.06620244 0.052537236 0.030426085 0.047303647 -0.04729555 0.15038452 0.00074623915 0.030768193 -0.033955123 0.029609427 -0.05795166 0.07392444 -0.057929736 -0.09963054 -0.03864874 0.059362072 0.10596609 -0.070037 0.13281499 -0.12669301 0.04654362 -0.06713723 -0.092682734 -0.053154577 0.058517564 0.04742408 0.0739332 -0.15275864 -0.01177807 0.108701795 0.09497073 0.03545646 -0.056925166 -0.058392707 -0.08207139 0.03418922 0.10838479 0.01641127 -0.05125419 0.06301229 -0.10827775 0.07526227 -0.12680835 -0.11529665 -0.017457562 -0.016680356 0.029458566 0.101731345 -0.11008657 0.031112475 -0.09377341 0.018441241 0.056755226 0.033781026 -0.062480383 -0.045299973 0.03848405 0.048239738 -0.07834206 0.08718059 -0.049215168 -0.010731331 0.054788012 0.089107715 -0.08855946 -0.08961616 0.05337965 -0.004081769 0.049683362 -0.029224727 0.033269234 0.083491206 0.08490321 0.051736563 0.010867399 0.050674245 0.0014672028 -0.0888205 0.032963086 0.0163457 0.022975722 -0.032988932 0.042631496 -0.108489856 -0.07857939 -0.07297855 -0.12437361 -0.034965243 0.066591434 0.09029571 0.043561745 0.011786199 -0.032786824 0.04684639 -0.02185411 -0.111180834 -0.021255068 0.09305231 0.050044492 0.029412318 -0.0229547 0.07525076 0.10640501 0.027605375 0.09328935 0.00885618 0.05758057 -0.009465642 -0.06290909 0.042604916 0.0593241 -0.09855603 -0.023450784 0.029579224 0.008945107 0.111281455 -0.007824183 -0.07392907 0.08635588 0.10333285 -0.01112953 0.017433079 0.10886746 0.005699228 -0.02108013 0.0925421 0.09197598 0.0070184683 -0.07183626 -0.089712165 -0.05328219 -0.09637075 -0.08702816 -0.00522506 -0.0012162849 0.05436544 -0.026554435 -0.0086174095 0.08536518 0.028372202 -0.004405362 0.03178029 0.09105006 -0.09829712 0.09381067 0.09558212 0.07877263 0.041482035 -0.033547703 -0.104338005 -0.022631075 0.094315276 -0.07295305 0.037064437 -0.043398913 0.005328596 -0.01948881 -0.065297484 -0.1089288 -0.056929562 0.0013990402 0.01753642 0.028602496 0.083547845 0.034182575 -0.11155951 -0.08640569 -0.050735667 -0.08599584 0.03661204 -0.018424967 0.106105044 0.011594243 0.07396081 -0.050571032 0.110893056 -0.051518448 0.07723194 -0.022085717 -0.0725286 0.016928792 -0.10641525 0.049091723 -0.045533758 -0.027472412 -0.019965325 -0.03730842 0.06392715 0.104622886 0.03481161 -0.005827371 -0.0708084 0.07789208 -0.038571864 -0.089179814 0.077035084 -0.07696265 0.00085881364 -0.027220672 0.05564857 -0.08592157 -0.06726701 -0.10971627 -0.025619937 -0.10796288 0.059130926 0.06485114 0.0545935 0.0801158 -0.07314211 -0.004066846 -0.006583229 -0.058067434 -0.009108895 -0.022108784 -0.106757015 0.0238163 -0.038970012 -0.0058279 -0.0097533045 -0.013309771 0.031619616 0.06598647 0.10536765 -0.09684592 0.06773651 0.052408252 0.09239737 0.101494946 0.052389275 0.031299755 0.040865954 -0.04296048 -0.056741267 -0.083973736 -0.041117057 0.10032589 -0.07063367 -0.086030446 0.058365468 0.055099167 0.06994573 -0.0766999 0.022306308 -0.03293257 -0.0748687 0.066749245 -0.038598623 -0.06826842 0.0039101476 -0.05587242 0.014171585 0.07286269 0.045378033 -0.03390578 0.082334146 -0.08604954 -0.05084204 0.0146947885 0.11581173 0.016953414 -0.036559176 0.010547481 -0.008684589 -0.010305017 -0.07687798 0.062284306 -0.11585992 0.07747198 -0.050943695 -0.05978806 -0.0058752326 -0.10535238 -0.061613545 0.041737463 -0.11108 0.10510169 0.022998793 0.09692166 -0.023587178 -0.03962215 -0.06258031 0.0077050608 0.0052840067 0.05310199 -0.10371948 0.041039776 0.008567831 0.03637099 -0.031916365 -0.06177385 -0.10580805 0.05279868 -0.06883475 -0.08149925 -0.06477885 0.0013024637 -0.026960177 0.050179686 -0.033211127 -0.0972835 -0.07768833 0.05134296 0.037720572 0.052593082 -0.08026003 -0.020618109 -0.07408655 -0.013065523 -0.086082295 -0.12518248 -0.08500969 -0.09219857 -0.090601124 -0.020768346 0.104391485 -0.010070207 0.09853273 0.008540628 -0.0011140776 0.07019228 -0.094981216 0.04534898 0.11048207 -0.06869146 -0.09566698 -0.020405974 0.088766105 0.114207976 0.08167051 -0.058986757 -0.053983025 -0.100838006 0.018863508 0.026075505 -0.007064585 0.07740235 0.03768921 -0.106967986 0.12354267 0.112128116 0.1425551 0.110915095 -0.033390462 0.09624803 0.05727595 0.034238566 0.010907557 -0.0049833357 -0.021704342 0.04397106 -0.06987261 0.04297005 0.07854764 0.115295954 0.0875874 -0.005396963 0.055633485 0.10298452 0.012786418 -0.07158126 -0.09909665 0.083693534 0.15663712 -0.033723462 0.06037094 0.0015514739 0.04134094 0.06669603 -0.07826065 0.021338478 -0.014739136 -0.011750107 0.01975709 0.07343634 0.07144346 -0.030015262 0.095722236 -0.05316128 0.039629243 0.081449725 -0.0037477717 -0.015005106 0.056689337 0.100237384 -0.03568627 0.054138433 -0.034226995 -0.069380656 0.012365326 0.06619249 -0.12043453 -0.09645296 -0.072304145 -0.019220896 -0.08604317 -0.04088035 -0.105226755 0.03876239 0.05066934 -0.05781362 0.07047999 0.030767739 -0.09652172 0.10582085 0.11622884 0.039594542 -0.0020970192 -0.10921101 0.011830295 0.11323029 -0.092152715 -0.043558896 0.018281318 -0.100915395 0.06420445 0.11020213 0.11358332 0.0042735552 -0.115594745 -0.051178496 -0.025187783 0.018734237 0.11306393 -0.001301243 0.11690376 0.11595882 -0.1129477 -0.09051477 -0.048893083 -0.08132895 -0.017085766 -0.08064308 -0.026240427 -0.09307661 0.05780831 -0.0142796775 0.06273599 0.009058178 0.062966466 0.0132012535 -0.012809552 -0.05774883 -0.06717345 -0.0063909744 0.06507996 0.06517292 -0.10460463 -0.027310148 0.03176888 -0.10452034 0.089306735 0.05733084 -0.0148872 -0.08884439 0.02531057 0.12924094 0.07783386 0.10639735 0.0051125353 0.10682099 -0.057847317 -0.030379908 -0.0072740526 -0.07644372 -0.02708002 -0.087883204 0.112109825 0.059646312 -0.033690523 0.028899968 -0.0708359 -0.1119727 -0.033833638 0.0031939256 0.014496426 0.017730454 0.10351764 -0.022513837 -0.03760097 0.020798687 -0.019015081 -0.02519814 0.022295296 -0.001668978 0.03843733 0.04344123 -0.0018315549 0.054762717 -0.04506096 0.027261168 0.10389682 -0.038996972 -0.056970548 0.025397137 -0.033251412 -0.06848803 0.09407635 0.10349881 0.026406886 -0.020256693 -0.030104332 -0.117532715 -0.00792968 0.006376547 0.07010739 0.0970301 0.010423798 0.10434674 -0.10181444 0.05909493 0.022929 -0.03891836 -0.08230998 0.083422445 -0.039995093 -0.099232554 -0.07927391 -0.01228565 0.07986509 0.013565194 0.020876307 -0.04248089 -0.021777485 0.01734146 0.085430436 0.015998127 -0.055182826 0.041368384 -0.041478895 -0.073190816 -0.04286196 0.10346779 0.059533197 -0.103238694 0.09820904 -0.080881596 0.0740093 0.018781973 -0.03180329 -0.000953039 -0.06050867 0.10236798 -0.043603085 -0.03308918 -0.08768485 0.06378663 0.09442708 0.028324502 -0.015561483 0.04539729 -0.05408581 0.111140475 -0.033945665 0.022273747 0.08976344 -0.032291535 0.09639165 0.06316772 0.0051022926 -0.039612956 0.084039 0.03848768 0.0076918826 -0.033514038 -0.088054374 -0.09236148 0.009322995 -0.10347208 -0.113447785 -0.026129391 -0.007925756 0.083930165 -0.074771486 -0.1083175 -0.0022669535 -0.10752315 0.0005926686 0.08885607 -0.09577006 0.028104208 -0.037100933 0.1086026 0.011699127 -0.010829446 -0.020464342 -0.05526882 0.07149334 -0.058135524 0.10085121 0.07650353 -0.09645382 0.09560312 0.003985717 0.06892362 -0.05045695 0.019610686 0.0037085074 -0.002918279 -0.022033468 -0.011497478 -0.056486502 0.07713659 0.046444107 -0.04321543 -0.016118295 -0.09881544 -0.0342902 0.020520544 0.104172625 -0.114920735 -0.024462199 -0.069057524 0.08600582 -0.10170663 0.029827228 0.043330785 0.05929529 0.026405819 0.014886291 0.11039722 -0.0085971 0.08876945 0.06283151 -0.027395317 -0.026386943 0.059813008 -0.04387309 0.035996757 -0.0800109 0.09612212 -0.09128519 0.028001672 -0.08853348 0.0050291955 -0.0047557787 -0.048744433 -0.0002740795 0.020263322 -0.0058454205 0.08637019 -0.09357278 0.076285064 -0.085408874 -0.046728652 0.02545949 -0.045057192 0.061829034 0.10822219 -0.045116298 -0.010353002 0.021748347 0.08985229 0.115585655 0.03302051 0.031330563 0.11856115 -0.045326125 0.0823489 -0.06380885 0.032731287 -0.12537344 -0.018882375 0.113144636 0.10189092 -0.008966345 -0.048174284 -0.035106994 0.086479306 0.036156837 -0.034574877 -0.043100245 0.07941264 -0.06036545 -0.045668203 -0.01352568 0.103476256 0.086746156 0.06964408 -0.07355181 0.039617933 -0.0061825626 0.048403487 0.058188833 -0.076143146 -0.09024892 0.0038303698 -0.11238699 0.08945379 -0.092183866 -0.083642825 -0.00015135092 0.0780586 0.11316325 0.023819193 0.09472776 0.079283156 0.10927729 -0.029005047 -0.03484918 -0.032185454 -0.015009493 -0.09038298 0.036236305 0.0748349 0.06164785 -0.06724461 0.11008205 0.034822226 -0.0025192706 -0.06422155 -0.055998158 0.038817704 0.03198432 -0.10369 0.107605845 0.056831177 0.08484391 -0.06644856 -0.032537874 0.041311607 -0.10539833 0.052401222 0.0057666525 0.077273995 0.12255329 0.03540285 0.073853664 -0.0022379623 0.09983728 -0.008274718 -0.0647237 -0.013976378 -0.075653575 -0.06504841 0.030278714 0.09834945 0.11372326 0.105765596 0.08705888 0.07512401 -0.0906423 -0.04011217 0.07691482 -0.039442465 -0.0039972207 0.107862204 -0.04543678 -0.0052517494 0.05880335 0.121007144 -0.039159108 -0.0025203258 -0.07620553 -0.0069595403 0.0030883665 0.07359605 -0.088659585 -0.09411341 0.096081704 -0.051154543 0.009626621 0.08323212 0.070932694 0.018410865 -0.11062882 -0.10070557 -0.110399075 0.0005793625 -0.09390586 0.07502151 -0.097533785 -0.02517334 0.05746032 -0.046014298 0.07998495 0.03139587 0.1079271 0.011905176 0.06516444 -0.096312694 -0.05476721 0.050090007 -0.0388656 0.034357134 -0.06486399 0.012503648 0.022360157 -0.043944474 -0.008082557 0.10803646 -0.08285242 0.020419056 0.06682709 0.085124806 -0.10963065 0.059578717 0.1170427 0.07620087 -0.08775346 -0.012445684 -0.013792274 -0.01604184 0.008060843 0.012054963 0.06865051 -0.08853963 -0.07032931 -0.005446215 -0.11032206 0.11220191 0.085223064 -0.04870507 0.08017932 -0.049986627 -0.004159915 -0.08555185 0.018077938 0.0487754 -0.059841286 0.051885545 -0.022328073 0.055402875 0.12776734 -0.07485411 -0.0720661 0.095395364 -0.038365472 -0.08415874 0.019616334 -0.0700775 0.114070386 0.06109841 0.07295597 0.0051973416 -0.07652301 -0.08648313 -0.021087252 0.029464934 0.10805705 -0.092359304 0.10029064 -0.037046704 -0.0015078415 0.05174501 0.002210056 -0.011036661 0.1033054 -0.07259618 0.113147505 -0.00053648 -0.02557117 -0.019238848 -0.10242406 -0.11223655 -0.0893539 -0.023991473 -0.002290121 0.12345554 -0.05658211 -0.05496674 0.01661907 0.033652615 -0.09835927 -0.06442856 0.0035945633 -0.043623406 -0.10955575 0.07851734 -0.060197104 0.049929626 -0.006916715 0.07463124 -0.04458042 -0.000696759 0.03446856 -0.07680896 -0.06300308 0.04066105 -0.004166613 -0.016764348 -0.09057951 0.093337156 -0.04260198 0.074469425 0.01682846 -0.030434068 -0.12041854 -0.030172225 -0.029455313 0.023033412 -0.043660387 -0.09721468 0.10447577 -0.07234374 0.01763304 -0.052099954 0.020047136 -0.050828982 -0.059250295 0.12226197 0.10952333 0.020081962 -0.12142582 -0.0004164261 -0.054753546 0.021120925 0.019087825 -0.074908495 0.11517981 0.073402986 -0.018603912 -0.03489525 -0.13236599 -0.03886416 -0.019995375 0.08141864 -0.026202487 0.14876623 0.1011507 -0.006650928 0.014723578 0.14058249 0.10725135 0.03636747 0.0131614925 0.056790434 0.09258989 0.087631 0.068075866 -0.09443588 0.07919176 -0.074495964 -0.08557251 0.029583558 0.035213724 0.07182811 0.06583282 0.07480876 0.03762728 0.073058434 -0.06321211 -0.08935643 0.025183633 -0.03539083 0.027574211 -0.0028322262 0.06831358 -0.07815095 0.0025669315 -0.058195576 -0.08600259 0.042348273 0.099512935 -0.02360561 -0.054999594 0.101426885 0.06937143 -0.05450151 -0.0577787 0.04078871 -0.09832889 0.039519317 0.026167542 -0.018469438 -0.0636706 -0.046019178 -0.00046441704 0.07643579 -0.01694682 -0.091557 -0.0650259 0.0075531676 0.025205882 -0.007886447 0.017635226 0.07204551 -0.031114653 -0.08167787 0.092165634 0.010348365 -0.093929574 0.014690709 0.006897979 -0.094422966 0.01408612 0.04892483 -0.10453594 0.04719703 -0.06453184 -0.015056228 0.11118655 -0.072332926 0.030459939 -0.088846944 -0.078220055 0.062365606 0.031412616 -0.098501466 0.038302526 -0.09134322 0.100844115 0.10945438 0.06662128 -0.0014247505 -0.105749086 0.053376146 -0.062302295 -0.023061927 -0.0781041 -0.010379141 0.0495604 0.10132679 0.015005484 -0.0073575596 0.07302118 0.119632035 -0.04188925 -0.10932998 -0.08321504 0.024346748 -0.095116705 0.018284004 0.07490821 0.015983678 0.033633385 -0.09816054 0.070005156 0.05988187 -0.06997054 0.022296315 0.046286464 -0.07758989 0.007348782 -0.007659031 0.068589084 0.09389564 0.00047201826 -0.002426866 -0.02222218 0.0066612493 -0.006342231 0.036568705 0.08644311 -0.09641531 0.044117335 0.012739825 0.088198885 -0.027237946 -0.0015449229 0.10161438 -0.044990033 -0.08870033 -0.09844106 -0.070208356 -0.007053322 -0.10355378 -0.04170661 0.014510467 0.099806204 -0.009494424 0.06545208 0.060910467 -0.025485577 0.06546995 -0.03692033 0.015397354 -0.036529265 0.030732304 -0.034906648 0.048396748 0.056067415 -0.0064478195 -0.10044572 -0.10798663 -0.04136056 -0.04616774 0.02777572 0.0049266987 -0.009408101 0.030742751 0.014226153 0.08585604 0.016013851 -0.05362599 -0.095857464 -0.070749216 -0.065173686 0.0604852 -0.01313515 -0.06876653 -0.10898717 -0.005910717 -0.040355034 -0.06551468 0.06915133 0.026192516 -0.02725441 0.036925957 0.017510906 -0.008902773 -0.016821884 0.06901276 -0.091309234 0.047160685 -0.08811363 -0.08805588 -0.034501 -0.03446815 -0.0754576 -0.07558592 0.04435347 0.029012844 0.06480269 -0.05976146 -0.098758325 -0.013571896 0.034637645 -0.0072922334 -0.06077514 -0.047292925 0.042557493 -0.027782 0.09449935 -0.020044066 -0.1010362 -0.07704194 0.060429722 0.09823063 -0.05694067 0.037935704 -0.02931881 -0.024796657 0.03900066 -0.06520671 -0.054472163 -0.0367354 -0.0860893 -0.061185 -0.06908127 0.10229544 -0.084353946 0.100247025 0.09735721 -0.0992167 -0.07407306 0.03482248 0.04262738 0.10008055 -0.08688989 -0.08480078 -0.013852835 -0.06177326 -0.03651636 -0.055571962 0.07569514 0.011602692 0.064483225 -0.07674812 -0.056006897 0.036163002 -0.0880011 0.099218756 -0.10278707 -0.073129155 -0.036662884 0.09510635 -0.0019954666 0.04441188 0.021048982 0.058501966 0.04556088 0.07309089 0.0036084545 -0.07378023 0.09579741 -0.031392086 0.03356663 -0.04786117 -0.052895967 -0.08768653 0.00967014 0.061267965 -0.0911167 -0.087439604 -0.0015538669 0.00089305616 -0.08829519 0.012189584 0.113093875 0.11650408 -0.0066435514 0.10328394 -0.02893168 -0.08999952 0.027944239 0.066851914 -0.03362046 -0.09079854 -0.03454322 0.109411724 0.06953234 -0.06829697 0.018920258 -0.106778555 -0.0070001367 0.08425473 -0.049896315 0.016020259 -0.08769339 0.09965687 0.021259507 0.020949908 -0.10284157 0.095081456 0.102196 -0.076514214 -0.087890595 -0.08680791 -0.05545631 -0.07788952 0.012542293 0.09571517 0.03666579 0.07790491 0.04950118 0.0766989 -0.100921385 0.039672747 0.05655625 0.07546769 0.11583049 -0.06412472 -0.08774304 0.008436338 0.05018709 -0.006330821 0.11082896 -0.078553386 -0.10444113 -0.044669326 0.086526945 0.011717755 -0.049644653 -0.013550592 -0.008744041 0.022859553 -0.037139628 0.06760255 0.097254425 -0.11111605 -0.08089347 0.030826462 -0.089537896 0.103407994 0.05078754 -0.09229379 0.09330775 0.032833844 -0.102888815 0.10756438 -0.07338238 0.03447269 0.008774519 -0.10059326 0.015469086 -0.07758147 -0.06101337 0.0626531 0.01836644 -0.11121926 -0.035750527 -0.06529911 0.055666026 -0.07926248 0.095999315 -0.063237645 0.0714234 -0.053535353 -0.0646749 0.1113281 -0.06866529 0.102514505 -0.053290557 -0.0503896 -0.07595136 -0.073541924 0.10072615 -0.098041035 0.017885933 0.05304135 -0.10108111 0.072182596 -0.04530203 0.04277942 0.092960835 -0.0808738 0.052681535 0.005830763 -0.014302987 0.029788379 0.06257641 0.108116135 0.045093164 0.032512937 -0.07958804 0.094279505 -0.022153866 -0.02513265 0.010287813 0.06906315 0.108745955 -0.1063382 0.044424117 -0.050283547 -0.07578395 -0.02175315 0.017771568 -0.022298852 -0.010646084 -0.057348654 0.036968663 0.028633665 -0.0553282 0.1032628 0.10989604 0.05967504 -0.037848298 -0.013278327 -0.013339357 0.026677914 -0.09969611 0.08390035 -0.061711896 -0.105380155 -0.029667873 -0.038227882 0.06915196 0.0652073 0.010200557 0.019632544 -0.038143273 -0.048345584 0.09953084 0.108628035 0.05147041 0.062690236 -0.104435466 0.02300166 0.015454117 -0.095765755 0.040284455 -0.08131553 0.088738345 0.0050691646 0.08795225 -0.004952754 -0.071092695 0.004523273 -0.08185055 -0.100545436 -0.008186425 0.015633099 0.0029887632 0.08039988 -0.045113426 -0.083441 0.010660603 0.011591166 0.0015242617 -0.09442101 -0.09964926 -0.07149724 0.02842838 0.01964895 0.10335122 -0.031727374 -0.057879273 -0.027184092 0.10194547 -0.11138241 0.045441203 -0.041444283 0.104994275 0.08442527 0.044089533 0.021220986 -0.052982047 -0.08172847 0.044983696 -0.05325564 -0.080288775 -0.05925692 -0.00011457408 0.043014515 0.044118214 -0.0072886343 -0.054016255 -0.068921976 -0.099787995 0.014969236 0.04517869 -0.041315544 -0.029975792 0.11254646 -0.047524966 0.0017617973 0.07913861 -0.046016756 0.07854875 -0.04665645 0.060759645 -0.10693804 0.06572732 -0.04506759 0.111116394 -0.09510254 -0.033745017 0.041045077 0.10141345 0.0101133585 0.08159734 -0.04673969 -0.09463475 0.06919089 0.03972079 -0.014955628 0.048551157 0.08523828 0.0065978235 0.08052456 0.03371579 -0.05388653 -0.0011084272 0.06787486 -0.09711596 0.020967843 0.09928025 -0.08493843 0.11010361 0.10240556 -0.07516071 0.04155389 0.042574704 0.055902205 0.06497871 -0.05278509 -0.0331124 0.03362642 -0.091261595 -0.008333296 -0.09372794 -0.108837955 -0.044578854 -0.11013534 -0.031450015 0.06537399 0.015258983 -0.0054242164 0.04846015 0.053448167 -0.11401926 0.0876413 0.0836938 0.021909712 -0.060801547 -0.038098883 -0.045865852 -0.045292377 0.06697717 -0.10862579 -0.008110502 0.09531287 0.07129147 -0.0878567 0.05268403 -0.09853296 -0.096329495 0.10549845 -0.01398342 -0.10873331 -0.091793634 -0.0042751357 -0.0039431956 0.07955766 -0.034813195 0.048650797 0.030793538 0.058430612 -0.10992932 -0.056005005 -0.08832387 0.020326404 -0.08003001 -0.06981953 0.023251161 0.041784078 0.037692003 0.07836104 -0.1108143 -0.01911674 0.10214031 0.026286593 0.0383441 0.105175555 0.06801657 -0.10346689 -0.049259305 -0.0103172185 -0.039458543 0.098941125 -0.070818305 0.005196643 0.08218154 -0.11064759 -0.07235254 0.10312715 -0.10368886 0.09189328 0.04106537 -0.102855496 0.10978919 -0.0037988573 0.010891363 0.096213095 0.01308397 0.032667868 -0.021521226 -0.104984 0.050580032 0.057722725 -0.020030212 0.084368385 -0.03660912 0.08477811 -0.0064984434 -0.07063853 0.007248831 0.072459005 -0.059831303 0.032986246 0.10577329 0.061256267 0.040801704 -0.07852659 0.05311061 0.084069885 0.097533666 -0.068571195 -0.07862496 -0.07786097 -0.065325156 -0.0619856 -0.014102282 0.06434 -0.09611839 0.076508895 0.0151465 0.015364063 0.07161395 0.09161988 0.065917 -0.09780168 -0.027190765 0.034409914 -0.104828164 -0.08846036 0.06863512 
-0.03750673 0.05932938 0.06144335 0.116527595 0.010823191 -0.10821846 0.046889044 -0.05331903 0.019538322 -0.049023796 -0.10392461 0.024765214 0.057638526 -0.053548 0.050936583 -0.05520368 -0.042952154 0.03388259 -0.030878767 0.004932815 -0.105561934 0.088208646 -0.10796364 0.030737927 0.11535168 -0.059811857 -0.112683006 0.09034044 0.0892761 -0.09541961 0.005178516 0.05878451 -0.07689099 0.0046666614 0.06257448 0.07123239 -0.0029812553 -0.0075499723 0.092850044 0.087651886 -0.111607 -0.10326393 -0.024356619 -0.042933326 -0.048239235 0.019350437 0.013395464 0.10805674 0.05297808 0.03139081 0.06783159 -0.100774586 -0.0029069523 0.08384132 -0.004217691 0.026352182 -0.037216026 0.0012107233 -0.032681897 0.10712826 0.0878212 -0.037103057 0.08306953 -0.03482156 0.07400744 0.121703655 -0.038856734 0.06798029 -0.05686913 -0.088705815 0.105560675 0.0396697 -0.07064769 0.09980413 0.054078862 0.045183316 -0.011377744 0.024585059 -0.11049604 -0.110206924 
Rect
Linear 80 80
