Linear 19 10
0.04271009 -0.22160529 0.13798782 0.0902991 -0.18686333 0.027639711 0.101441525 0.25659442 0.054716293 -0.093978375 0.12277242 -0.16184567 -0.10265656 0.010904611 -0.09326312 0.12665471 0.0913892 -0.10936597 -0.21355003 -0.19528466 0.008811327 0.015914999 0.024063712 -0.19579433 0.0822393 -0.18497159 0.055599414 -0.046359 -0.12533839 -0.096885845 -0.05807334 -0.045568958 -0.12891349 -0.20442672 -0.14708112 0.07007452 0.13132058 -0.16781276 -0.12030566 -0.14727196 -0.07901638 -0.053808913 0.11088616 0.13469137 -0.042351574 -0.15041348 -0.15129548 0.03672294 0.0603641 -0.06091277 0.08651131 0.19176333 0.18270767 -0.03540716 0.13986203 -0.039327834 -0.14755048 0.07002239 -0.12941071 0.081569225 -0.39885017 0.12744361 -0.22551307 0.081766695 0.13108829 -0.24583809 0.009646182 -0.018320184 0.20849831 0.5159687 0.05088618 0.24378394 -0.051390737 -0.07717356 0.09772484 0.1912247 0.039983362 -0.10142207 0.077771306 -0.2643619 0.11560443 0.13147062 -0.10136845 0.4652533 0.14179808 0.046574302 -0.040570628 0.5527812 0.6216533 -0.119078994 0.2539517 -0.118738584 0.0682428 -0.106215276 0.115014836 -0.19930604 -0.07667334 0.17163958 0.057693943 -0.22521448 -0.20959032 -0.17292893 0.13136168 -0.18643548 -0.010044545 -0.13200969 0.17947227 0.13955043 -0.08465215 -0.08930351 -0.12298121 -0.10924013 -0.095025435 -0.037317622 0.15716481 -0.18054605 0.133945 -0.38838542 0.036214057 -0.15865147 0.031872384 0.26633206 -0.092341974 -0.19703497 -0.12513806 -0.06516029 0.2761091 0.10115918 0.011100245 0.09552764 -0.040167976 0.06057008 -0.11136955 -0.06421706 0.18530214 0.16550621 0.124428205 -0.025004867 0.011757082 -0.18184003 -0.0993135 -0.07120293 0.1480319 -0.18400192 0.06631716 -0.013554148 -0.16889961 -0.11158643 0.12639117 0.0144846635 0.095613755 0.2731399 -0.15332529 0.10561669 0.102005154 -0.03345557 -0.15233845 0.13510466 -0.005960463 -0.12046077 -0.043541964 -0.1738467 0.03815262 -0.029019982 0.0026986254 -0.0280608 0.22144544 -0.19112907 0.13387588 0.22269216 0.12776406 0.040228833 -0.075888954 -0.00051857374 0.17233008 -0.026383227 0.14209531 -0.16980185 0.097971894 -0.12931423 -0.18082252 0.20356342 -0.051136088 -0.025650619 -0.028022695 0.17330144 -0.1487215 -0.07629319 -0.009372214 0.03877914 
-0.20201689 0.091436595 -0.23134324 0.15871124 0.1893508 0.039958913 0.19037959 -0.1895645 0.15527019 -0.20273814 
Rect
Linear 10 10
0.2712065 -0.13927144 0.19489324 -0.02643725 -0.23604752 -0.11018906 0.19965218 -0.16423336 0.15864378 0.2861247 -0.054710686 -0.015594989 0.08878923 0.18204427 0.06702095 0.019066721 -0.23898265 -0.23602717 -0.094003074 -0.20737503 -0.06826523 0.18630156 -0.15467995 0.21151218 -0.2586793 0.20106658 -0.14769289 0.29888722 -0.23229189 -0.24651286 0.26845667 0.15210187 -0.27584222 -0.24817467 0.3082898 0.15494907 -0.31529728 -0.09437655 -0.03632623 -0.16374902 0.03820883 -0.1521464 -0.05487144 0.18045768 0.44248506 -0.1587428 0.13587599 -0.2794448 -0.09918551 0.010769416 -0.124521755 0.014689232 0.21507378 0.30372578 0.032406792 -0.18103682 0.3081947 0.026216242 -0.32086393 -0.19464028 0.11609702 0.1647783 -0.009011073 0.1467047 0.23953001 0.026993673 0.2367844 0.30128226 0.23880509 0.30717537 -0.23446721 -0.1634528 -0.13146707 0.02858822 -0.058027886 -0.0064467313 0.062834024 -0.17210321 0.28867638 -0.29955658 0.18073829 0.23166059 0.09838789 0.46497136 0.5428499 0.030912478 0.29091388 -0.09359868 0.10327718 0.11247195 0.20740052 -0.21722446 0.21715687 0.117286876 0.44008806 0.26731452 0.12547153 -0.13717371 -0.08148925 0.080030635 
0.35219857 -0.22847483 -0.27458048 -0.26251537 0.04071052 0.08745942 0.17415044 -0.102332525 0.013479385 -0.044641122 
Rect
Linear 10 10
0.013941958 -0.24295585 0.0350174 -0.1163598 0.14553955 0.19083826 0.1698725 0.2158577 -0.15725581 -0.12128776 0.20211002 -0.266728 0.15263775 0.21051815 -0.018572927 0.07749507 -0.24716486 0.27524063 -0.05679643 -0.24518079 -0.21024549 -0.058604777 -0.01750812 -0.18437174 -0.1331268 0.20692834 -0.10836978 -0.2523396 0.1520041 0.007952124 -0.0398257 -0.2331783 -0.26574355 0.0038451254 0.10976403 -0.2055702 -0.15867676 0.058147214 0.21578956 0.14073518 -0.001271712 -0.30772552 -0.038134694 0.24728951 -0.023356639 0.13692814 0.14439243 -0.17673576 0.37166515 0.34092203 0.46167144 0.25744832 0.008765608 0.29609433 0.022481102 -0.20265034 -0.1136946 -0.16529396 -0.08219566 -0.37837446 -0.19793156 -0.3120157 0.1439187 -0.30158836 0.15171841 -0.093612865 0.044207122 0.18842302 0.23657805 -0.19630581 -0.21571662 -0.17708808 0.09045321 -0.022887796 0.0082712425 0.2495459 -0.16451617 -0.17348807 0.24346456 0.26980984 0.12863828 0.28003085 -0.15796071 -0.024099052 0.46159965 0.30069977 -0.1226075 -0.21884839 0.36306775 0.3461465 -0.2863466 -0.20911695 0.20091423 -0.29846302 0.21153568 0.26920703 0.13789633 0.018163953 0.37906054 0.28010538 
0.03561181 -0.1252212 -0.15579946 0.059506565 0.068666406 0.36050928 0.029367749 -0.1715218 0.019413881 -0.07945832 
Rect
Linear 10 10
-0.06515591 0.22028562 0.009527415 -0.0022252984 0.19584805 -0.4911352 0.12877518 -0.09333562 0.26239574 0.47364575 -0.0136412 -0.21649745 -0.034195393 -0.19633935 0.085109465 0.4505871 0.07753469 -0.34667864 -0.2091389 -0.22913815 0.17494486 -0.00027510524 0.14077464 -0.028939508 -0.107539706 0.091454394 0.14028344 -0.31837004 -0.08129296 0.11538903 -0.2883331 0.19355711 -0.27122727 0.23537758 -0.25409985 0.23796967 0.24929616 -0.2708138 -0.30672953 0.12046307 -0.13219571 0.16689724 -0.16777559 0.06563234 0.05561915 -0.13440949 -0.0007676184 0.18906316 0.08524963 -0.18060495 -0.3100008 0.056703925 0.23687121 0.16060597 -0.24968074 -0.06086874 -0.1982291 -0.020661503 0.17576703 -0.23044091 -0.014403343 -0.020105928 0.08818233 -0.052891105 -0.12717737 0.24786487 -0.14287008 -0.1753599 -0.053317577 0.15587565 -0.11848852 0.2660286 -0.06829731 0.13897471 0.31728292 -0.59339696 0.2915172 0.006940444 0.29770645 0.40213874 -0.044402756 -0.17522416 0.050223112 0.1731746 0.25620124 0.12210943 0.25502717 -0.2661115 0.37305522 0.18026704 -0.19941661 -0.26843846 0.31411698 -0.15142028 0.08333075 -0.1653103 -0.31336766 0.18013 -0.24867219 0.03740114 
0.23033297 0.37944037 0.1576326 -0.14768922 -0.28259858 -0.14831714 -0.13392101 0.22211401 -0.1895566 -0.31099907 
Rect
Linear 10 2
0.06406911 -0.45631695 -0.040336058 -0.17857887 0.24512002 -0.124723315 -0.12939718 0.38660437 0.3644475 -0.005667895 -0.34491223 0.30057383 0.25503612 0.22505668 -0.17257237 -0.29716074 -0.1783171 -0.3563514 0.060707867 -0.19048688 
-0.039217796 0.35463387 
