Linear 19 15
-0.18495142 -0.1854512 0.12123306 0.11013158 0.12256008 0.21730584 0.13834788 0.19155513 0.19475524 0.08140989 -0.22481766 -0.14340921 -0.21886466 -0.22587566 0.1254615 0.04693646 -0.1737957 0.0055813612 0.123965055 -0.22742786 -0.22548771 -0.16009383 0.19955915 0.16428886 0.16458184 -0.02730027 -0.0013150063 0.055069156 -0.12088758 -0.009672784 -0.22691955 -0.15732063 0.027676998 -0.16019088 -0.06391274 -0.22068937 0.21580304 0.03181316 -0.14649972 -0.022495953 0.06352078 -0.072295256 0.15605871 -0.017099962 0.008396108 0.03664019 0.1453419 0.052039437 0.095331915 0.17200103 0.09382231 0.14298934 0.08090087 -0.048550986 -0.20112203 0.1743835 0.08069853 0.10030988 -0.16367103 -0.031787284 -0.09625086 0.122986704 -0.041384965 0.21163854 0.06411137 -0.07701498 -0.006117373 0.17452228 0.19394432 -0.09292267 -0.16480565 0.21742268 -0.10925278 0.1056867 0.21413189 0.108092025 -0.20355025 0.05262349 -0.19124638 -0.14754066 0.10215226 0.09115527 -0.18311231 -0.08343517 0.11234216 -0.19016835 -0.20441636 -0.16786864 0.025703732 -0.13916145 -0.01822441 -0.115486294 -0.0632326 0.018054625 -0.07622161 -0.039612804 0.23084126 0.1275466 0.17894362 0.20578068 -0.19249985 0.07621746 0.01627589 0.06549054 -0.069763005 0.22398701 0.120070174 0.21018225 0.12253076 0.19183818 -0.18139875 -0.21241714 0.18525453 0.070215866 0.024331257 0.037924513 0.041591242 0.05984263 -0.11192849 -0.021324903 -0.05945544 -0.19223136 -0.13694331 0.026516393 -0.08439997 0.18928821 -0.18350597 -0.09985602 -0.06984171 0.20976226 0.13319878 -0.21741305 -0.11381986 0.15000868 0.013986814 -0.13352762 0.21582752 -0.08522631 0.18924518 0.19179425 -0.14897698 0.051751353 -0.075907364 -0.08568298 -0.003926306 -0.025090517 -0.020737441 -0.041388813 0.02509813 -0.10324892 0.10624364 -0.030103948 0.04687388 -0.14119011 -0.19920792 -0.17936023 0.071254246 0.18719853 -0.060748577 -0.0978329 0.13870697 0.21460317 0.0035662015 -0.07381368 0.15623607 -0.022346005 -0.10356987 0.0029040745 -0.056313336 -0.22177811 -0.18859752 0.16484085 -0.040156487 -0.022637744 -0.060408115 0.06592518 -0.1642829 -0.15254544 0.03297353 0.18131399 0.1835545 0.22624883 -0.09662157 0.10667529 0.21761705 0.040098365 -0.17556235 0.07239938 -0.041831594 0.067144856 0.1886113 0.1704157 0.09375058 -0.056729876 -0.022642467 0.0063975826 0.029302854 0.040761553 0.106152676 0.09699751 0.07879379 0.023417931 -0.03008466 0.21043965 0.20084606 -0.20007269 -0.23283893 -0.08820617 0.119276665 0.18838558 0.07654517 0.058838893 -0.21723558 0.114253655 -0.04259033 0.17243473 0.10641472 -0.08875036 0.16787446 0.008938545 -0.03713772 -0.15274005 -0.18046588 0.05788434 0.09174436 -0.00026773557 -0.054008186 -0.0498701 -0.2020579 0.2030575 0.12078898 -0.10279944 -0.19691522 0.19494157 -0.033948757 0.035446104 0.002851535 -0.120721646 -0.22588375 -0.058952644 -0.03451913 -0.21181436 -0.20659515 -0.091778286 -0.082569756 0.15308373 -0.05024787 -0.1733105 -0.029357433 -0.008123267 0.09649851 -0.19303009 -0.2241114 0.085419774 0.22249572 0.012443221 0.07647166 0.06879737 -0.019983929 -0.115312085 0.07018749 -0.08095524 -0.03234172 0.08647281 -0.013634512 0.017704176 0.21468304 -0.18954673 -0.05876521 0.0012103121 -0.008701312 -0.09138526 -0.17305183 -0.11391506 0.13602875 -0.11387074 -0.18015936 0.084902905 0.14378625 0.062316734 0.084685594 -0.01511258 0.05766442 -0.1877597 0.07704246 
-0.08208572 -0.032274827 -0.0036320037 -0.18039407 0.018210143 -0.09643022 -0.08886959 -0.016652042 0.19576786 -0.18726264 0.013622999 0.0073712575 -0.0517146 0.19892424 0.16070972 
Rect
Linear 15 15
-0.053479943 -0.1093923 -0.107546985 0.20695749 0.011478186 0.08033445 0.094976455 0.14184836 0.10813151 0.022379784 -0.25811043 0.16208178 -0.08378565 -0.13102175 -0.09081557 0.07487043 -0.24527338 0.05135047 -0.030082464 0.088739306 0.072305486 0.16802192 -0.069979966 0.10465791 -0.045169387 0.008374374 -0.06618507 -0.03870754 -0.23326829 0.16917369 -0.037926126 -0.010635745 -0.065793596 -0.14787951 -0.11236952 -0.22392116 0.14187601 0.08665802 0.13952166 0.17127451 -0.12518236 0.25072896 -0.04128151 0.009282839 0.029059505 0.03386706 -0.12802523 -0.10660244 0.21244936 -0.20862573 0.18908052 0.016611964 0.09112554 -0.17344344 0.14276491 -0.12654632 -0.005242028 0.24091426 0.22226694 -0.06965923 -0.21110588 -0.11683866 -0.12925306 -0.068166465 -0.025586423 0.10356713 0.092027575 0.15879732 0.23662312 -0.2016468 -0.09617023 -0.03846723 -0.13164766 0.018595036 0.05948214 0.11953106 -0.06637158 0.26757488 -0.0164495 -0.22626026 0.06911952 -0.06210199 0.016216928 -0.15273522 0.097974144 -0.009880123 -0.19327605 -0.002610716 -0.19811948 0.098097645 -0.10875503 -0.14838612 0.09892012 -0.13942067 -0.17388971 0.0640249 0.16035357 0.20528565 0.1740566 0.05694428 0.05172826 0.06524942 -0.10723947 -0.037462596 -0.26389462 -0.15584245 0.13842528 0.223096 0.2519096 0.17005712 -0.04215317 -0.07183482 0.071776755 -0.004723988 0.028520394 0.20223154 0.18302685 -0.19388518 0.07492613 0.20188192 -0.18757221 0.035196215 -0.0715598 -0.23031235 -0.14252084 -0.11356293 0.10823166 0.23059651 0.06334412 -0.2074394 -0.25253868 0.08385518 -0.023439765 -0.24350102 0.2496182 0.1297287 -0.03902857 -0.18463996 0.25658798 0.17435886 -0.21116026 0.2128379 -0.20003615 -0.18470944 0.07511571 -0.1771375 -0.0949904 -0.07056869 -0.031545796 -0.11324903 -0.12862888 0.19791034 -0.14704442 -0.24894112 0.065969646 -0.22140396 -0.25713274 0.12865496 -0.22326057 -0.20058489 -0.2517369 0.19055629 -0.24461007 -0.22250941 -0.15856016 0.20026802 0.18786387 -0.21361877 -0.19592144 0.045765907 -0.25168607 -0.15644604 0.15333368 -0.165134 -0.15360582 0.20572257 0.09702186 0.16901352 0.087658286 0.039795507 -0.18870127 -0.14056605 0.0074159205 0.06371167 0.20211607 -0.25559214 0.040888846 0.18888825 0.017065287 0.19869903 -0.087793514 0.15558258 -0.08006537 0.18155959 -0.252732 -0.111000046 0.1639382 0.19192798 -0.20813207 0.2239205 -0.11487161 -0.2111566 -0.24878052 0.094177 0.12768501 -0.23139687 0.111970074 0.14423753 -0.18219864 0.065058954 0.082508296 -0.064907655 0.14933473 -0.102326244 0.09909141 0.01716116 -0.19293267 0.06317192 0.23684776 0.1439279 -0.09936178 -0.099014595 0.12780222 -0.077353254 -0.08408961 
-0.22329363 0.18104182 0.24400032 -0.20902553 0.062618196 0.04451076 0.08374695 -0.23310511 -0.24330564 0.1913959 -0.19169796 0.16814078 -0.20791587 0.19172312 -0.16715837 
Rect
Linear 15 15
-0.23068118 -0.20918375 -0.19722229 0.0064695776 -0.15349248 0.11066973 -0.027077869 -0.042836368 -0.0446157 0.0008235872 0.0023969412 0.04140261 -0.025739431 0.06652796 -0.20601371 -0.0057189167 0.013964951 0.21756229 -0.17255649 -0.07703258 0.009516478 -0.15786126 0.2380957 0.00027647614 -0.13867787 0.14259812 0.16537651 -0.23436677 -0.022681564 0.23763692 0.13080978 0.0802795 0.090831846 0.15772307 -0.2373356 -0.12350166 -0.13251227 -0.050235808 -0.23678732 -0.030165747 0.17704877 0.0758158 -0.07936646 -0.12411006 -0.12133056 -0.22149831 -0.23939046 0.046440393 -0.06547631 -0.033984855 -0.01656118 0.021989048 0.22941771 -0.036149964 -0.09353946 -0.17458816 0.007835835 -0.14286952 -0.19430923 0.2581862 0.203087 0.17698231 -0.2020433 0.10941937 -0.14313437 0.15915376 0.017875666 0.11674714 -0.08583644 0.017525867 -0.08994399 -0.14615524 -0.02960296 0.04661231 -0.08412112 0.101703405 -0.20725834 0.060469873 -0.22382706 0.08286701 0.21976227 -0.21095303 -0.02168477 0.13331562 0.0128159085 0.0958229 -0.101502225 0.13130283 0.24329871 -0.04700005 0.1747874 -0.21701889 -0.093407124 -0.095366806 0.094293416 -0.26910698 0.07830815 0.054001935 0.23546886 0.06083204 0.2027955 0.014239653 -0.05541745 0.026988432 0.16347149 -0.166485 0.09540388 0.20450854 0.08206692 0.143992 0.063486725 -0.09404683 -0.13516052 -0.01154843 -0.23779234 0.17983606 -0.22323197 -0.2087295 -0.12283054 -0.21623395 -0.18342356 0.053123284 -0.12703829 -0.14994846 0.12261276 0.17710733 -0.19578138 -0.023802524 -0.11391963 -0.007880646 -0.1717925 0.018361876 0.015059382 -0.016466983 0.063418984 -0.122761354 -0.19991869 0.09206778 0.18890804 0.028814614 -0.0091203 0.15618086 -0.1262486 0.14743784 -0.18531549 0.062202662 0.047932982 -0.1558607 -0.23602515 0.13700637 -0.09755723 -0.25436878 0.13800669 0.051419586 -0.13112536 -0.10697776 0.25413296 -0.19970855 -0.12997155 0.1838499 0.17270657 0.24476758 -0.064852074 -0.2580988 -0.2500415 -0.118065335 0.097550966 0.017617712 0.053766653 0.16266929 0.03796804 0.049552403 0.06268706 0.1485123 0.12119864 -0.035038322 0.16306052 -0.20197994 0.19110627 -0.09741466 0.21169627 0.10414928 0.11389795 -0.16452187 0.15830535 0.22534159 0.11358991 0.23840442 0.048802406 -0.006105244 -0.066411495 -0.2554276 0.22482347 -0.068375364 -0.18738611 -0.15736276 -0.17675588 -0.0076629817 -0.24669608 -0.14491178 -0.09154029 0.079236954 -0.18266654 0.07904965 -0.024802908 -0.2357045 0.050807327 0.065473616 0.070886165 -0.16495946 0.25373074 -0.042720348 -0.097861975 0.05135545 0.04223028 -0.0025238693 0.14031911 -0.06277622 0.07187003 -0.16838503 -0.09058827 -0.17372689 0.24843356 0.23454806 0.06913808 
-0.13810223 -0.21577987 -0.17956269 -0.045377195 -0.05886951 0.13956541 0.23684536 -0.18331935 0.1474279 -0.14433628 -0.12670241 0.1349475 -0.20685034 -0.23216197 -0.1253503 
Rect
Linear 15 15
-0.033931643 -0.1543161 0.05453959 -0.21141069 0.046890408 0.020933151 0.023815036 -0.11531533 0.2021138 -0.19592652 0.13659409 0.15268138 0.23070294 0.22261062 0.21693346 0.11899066 0.07304132 -0.19755542 -0.24843353 0.16053048 0.014772415 0.20049202 0.084169954 -0.09726159 0.19850656 -0.010826886 0.108541965 -0.16130748 0.073141485 0.17585683 -0.11650886 0.2550241 -0.21929687 0.09820989 -0.24631383 -0.1632446 0.12591088 0.154104 -0.15569927 0.14223722 -0.0004618168 0.11311039 0.123205006 -0.18936157 0.06286579 -0.004810989 -0.0023182034 -0.10797426 -0.1905789 0.16108055 0.25113913 0.19216692 0.049969703 0.049444962 -0.07368615 0.07324663 -0.21436729 -0.15178636 -0.2336289 0.22882316 -0.06948362 0.23855025 0.07329127 0.12740731 -0.20959145 0.24855182 0.05649659 0.02513203 -0.062609866 -0.05201614 -0.20996508 -0.15573679 -0.17239451 -0.040863663 -0.14407273 0.026178658 -0.16544667 -0.20380192 0.12913865 0.13302474 0.011677373 0.19264987 0.21706513 -0.112331614 0.10945779 0.043625593 0.033438407 -0.09309439 0.22121492 0.17011586 0.021891773 -0.08105402 -0.025779545 0.12156606 -0.14892259 0.1956614 -0.0659764 0.14320362 -0.26181126 0.07622063 -0.11581132 0.07376197 0.11008042 0.07571295 0.23074284 -0.012047201 -0.06114985 0.11476937 -0.17910178 0.1262593 -0.084847674 -0.032092884 0.03771156 -0.15560624 -0.14812377 0.055436432 0.16540805 0.028462797 0.036284804 0.10135934 0.15065184 -0.14765733 0.22815529 0.11534411 0.13259485 -0.159737 -0.04212908 0.19170988 0.17101525 0.1019443 -0.17580515 0.25363714 0.16433072 0.080254704 0.0072579384 -0.068935394 -0.18400653 0.086048394 -0.23696797 0.12035158 0.19725621 -0.18688533 0.1728468 -0.20430836 0.16921222 0.1941176 -0.11492084 0.16835088 0.031099796 -0.082356274 -0.15029894 -0.046893775 -0.058325633 -0.061886176 -0.14860716 -0.16229281 0.14611456 -0.10895197 -0.22625762 -0.10685323 0.15838626 -0.13691266 -0.20284694 0.027244031 0.007445991 -0.04205209 0.04568225 0.14823633 0.12536484 -0.19111773 -0.05720315 0.11919785 0.08279967 -0.12817577 0.055975497 -0.03947839 0.25219956 -0.17492312 0.09035596 0.10069686 -0.12197505 0.06307304 -0.15572475 0.13366523 0.23109391 0.20699906 0.22064483 0.1516276 0.032302205 0.0030871928 0.06911081 0.09833919 -0.16122141 -0.20011924 -0.17752242 0.029910475 -0.019302607 -0.14507854 0.09194958 -0.087175705 0.23639284 -0.18436223 0.2347067 0.20351028 -0.21758571 -0.0032510161 -0.075880766 0.18622065 -0.20210567 -0.13490397 0.020824999 -0.11270377 -0.0006183982 0.16485408 -0.032118753 -0.10073714 -0.14392541 0.20710653 -0.1491756 -0.015446365 -0.071264684 0.22427288 0.009429455 -0.22698651 -0.21651009 
-0.14275083 -0.13557735 -0.24317832 0.1699772 -0.08622298 0.1489812 0.18560548 -0.044625834 0.25371218 -0.021401256 -0.20441093 0.023043318 0.008405562 0.009563496 -0.0990904 
Rect
Linear 15 2
-0.188344 -0.15803692 -0.09355886 -0.04988218 0.17606923 -0.06069562 0.06185726 0.14449039 -0.11298388 -0.02673535 0.1004577 -0.018486407 -0.18746708 0.17175747 0.12738201 -0.045133576 -0.07728477 -0.21976928 0.15421987 -0.019727856 0.01781472 -0.08887082 0.07752174 0.0033533564 0.044135362 -0.21008137 0.06997365 -0.22760846 -0.2036245 -0.027440414 
0.19950251 0.021852937 
