Linear 19 10
-0.003939339 0.13411854 -0.034657396 0.1371373 0.15230185 -6.363023e-05 -0.10284148 0.022453927 -0.17583135 0.13487455 -0.17231393 0.07515392 -0.32722583 0.1050595 0.21213774 0.15195896 0.19551997 -0.0047242297 -0.11650327 0.10878965 -0.19152996 -0.15211718 -0.17708871 -0.015504215 0.07598496 0.040536303 0.117060296 0.18988806 -0.10127978 -0.08870672 0.08997033 -0.02435777 -0.21727875 -0.17949271 -0.03326116 0.14743803 -0.06534979 -0.17554355 -0.12830512 -0.07358247 -0.051346052 0.05100246 -0.026620893 0.006002005 -0.013607325 0.007541522 0.053661454 0.020232566 0.09859719 -0.08024283 0.15157308 -0.07516246 -0.19501379 -0.0321182 0.013912121 0.1032069 0.11685825 -0.0819436 0.0570745 -0.044102196 -0.05746696 0.21310216 -0.085359395 0.19474274 -0.12622312 -0.09459445 -0.04418928 -0.1531148 0.09118644 -0.2004366 0.10437209 -0.062061 0.065721095 -0.14171122 -0.13283178 0.10484141 -0.15419774 -0.03635073 0.22891028 -0.0037579918 0.05561191 0.05834822 -0.17017582 -0.13636532 0.058375295 0.067460954 0.111938946 0.17881155 -0.099978626 0.2514477 -0.08016123 -0.085539095 0.004071892 0.013960433 -0.124197766 -0.15790047 -0.002568339 -0.19385712 -0.06514211 0.18402249 0.06718689 0.03364558 0.19197187 -0.21583052 0.1591203 -0.17809631 -0.22490026 -0.08852141 0.12033064 -0.073218934 -0.083656184 -0.06152305 0.10476328 0.09976189 0.15503548 -0.15626393 -0.14185776 -0.08639683 0.21964091 -0.08256809 0.11970033 0.18779051 -0.23726256 -0.105172105 0.1260496 0.08922397 0.040621873 -0.18432021 -0.052213162 -0.016651494 0.062338322 0.33145872 0.007818667 -0.16751398 0.2236144 0.1544349 0.031746328 -0.22095111 -0.0650796 -0.01794746 -0.057774622 -0.029955732 -0.02605344 -0.1836732 0.21686539 0.2824043 0.31099236 0.07256292 0.036002163 0.22319014 -0.07161377 -0.013858587 0.123377234 0.10328784 0.09056953 0.16841356 -0.1280119 -0.1889289 -0.16756216 -0.063270696 0.18104908 -0.13712324 -0.03852914 -0.07209194 0.13938288 -0.13582343 -0.22369896 0.08546096 0.11578383 -0.041272342 -0.20326924 -0.021029685 0.07149095 0.0038752854 -0.16918537 0.14200845 -0.2133255 -0.10546167 -0.08801086 -0.14002499 0.035250083 -0.19239302 -0.20069984 0.013534787 0.057695154 -0.027417926 -0.044795252 -0.23062065 -0.11517938 0.12146141 
-0.008408658 0.15459599 -0.1670088 -0.19853838 0.048040517 0.12452947 0.22843508 -0.08515635 0.17810652 -0.0886188 
Rect
Linear 10 10
0.29999858 0.20773602 0.125946 0.2153815 0.12254923 0.09753383 0.15724696 -0.25250223 -0.24356349 0.1330725 0.2189049 -0.2540597 0.017266568 0.1269171 -0.02446348 0.010041407 0.12413094 -0.18646188 0.31422603 -0.21405937 0.05146313 0.1836693 -0.18813707 0.25695172 0.12645057 0.03669811 0.104715936 0.33255455 0.0023104064 -0.2692839 -0.0732946 -0.008751044 0.28712192 0.23024249 -0.029859394 0.23424381 0.15745993 -0.24461086 0.2409531 0.25638923 -0.3155486 -0.03668533 -0.27485242 -0.17043452 0.24382529 0.2867937 -0.13401364 0.08580131 0.31652915 0.14429834 0.0372559 -0.18319693 0.2218002 0.21327052 0.05805721 0.28566524 0.31486714 -0.3702526 -0.27745247 -0.24541767 -0.055883497 -0.07069068 0.04406465 -0.21299672 0.12802972 -0.121662006 -0.34880215 0.07330121 0.21535899 -0.30318588 -0.0026634492 -0.26787254 0.19110247 -0.30220193 -0.16057561 0.15076993 0.022689935 -0.13019423 -0.15423311 0.09678311 -0.23658945 0.24140139 -0.041234594 -0.2024539 -0.035315473 -0.31456825 0.07863322 0.24455756 -0.09156024 -0.0355994 0.33461443 0.20125464 0.17391698 0.039782774 -0.25062945 0.057912257 0.08083565 -0.26589617 -0.16479412 -0.14174947 
0.12762307 -0.16991453 0.051498666 0.0990148 -0.20739079 0.3071155 0.32050803 0.16933177 0.3063968 0.20981807 
Rect
Linear 10 10
-0.1828133 0.2805834 -0.22328669 0.0052993298 -0.27286822 -0.2996198 0.22087237 0.08219862 0.20206258 0.043367237 0.08007026 -0.058036745 0.29377452 -0.117629215 0.04926455 -0.22888406 -0.257234 0.09827641 -0.31451944 0.10496238 0.37042576 0.07879951 -0.11896791 0.36886317 -0.09182873 0.4488611 -0.25971788 0.16171126 -0.078286104 0.41227403 0.28711846 -0.26202637 -0.19069809 -0.09303746 0.115363985 0.23937011 0.18820107 0.17797868 -0.07109706 -0.010605299 0.09581672 -0.05501467 0.15122183 0.15335329 -0.20730929 -0.24899146 0.16391322 0.08639394 -0.27912256 -0.089347556 0.10391995 0.12481448 0.25025305 0.1006507 -0.30744117 -0.10470259 -0.30767 -0.19871525 -0.31067497 -0.0557054 0.23228088 -0.15844084 0.19196661 0.17824864 -0.092689686 -0.18383767 -0.2375397 -0.03774579 -0.023277843 0.035942085 0.05671805 -0.20831555 -0.06539258 -0.23455825 0.12708932 0.15249875 0.22434375 -0.060625255 -0.2478053 0.10554731 0.3071861 -0.20681459 0.19846049 -0.22068343 0.28728428 -0.16240825 -0.3079258 -0.22466984 0.17094317 0.085247755 -0.10547236 -0.25965917 0.19565865 -0.120315 -0.05779925 0.29748318 0.28229648 -0.087436825 -0.27393016 -0.30252406 
-0.25181237 -0.028285295 0.1457914 0.050316166 -0.039909527 -0.09880489 0.1420008 -0.2841712 -0.21717513 -0.15708593 
Rect
Linear 10 10
-0.061449558 0.12998798 -0.37782332 -0.34212068 0.09876859 0.22064409 -0.025059732 -0.087907135 -0.04653719 0.13118546 -0.10436717 0.21005544 0.26232162 0.03173083 0.15794107 0.049651206 0.09532231 -0.09325419 0.29523006 -0.03600207 -0.1688564 0.29978135 0.18460861 -0.22785944 -0.0007812381 -0.22410625 -0.25519004 0.1512576 0.16232291 -0.1137311 0.2752098 0.30286118 -0.42950463 -0.013459856 -0.1333101 0.28686234 0.012655663 -0.016498417 -0.2669145 -0.30297944 0.043866515 -0.12636572 -0.2889803 0.16972439 0.1622294 -0.22149473 0.23275684 0.2643719 0.011194766 -0.23322491 0.18967608 0.10347369 -0.4703606 -0.018848311 -0.1508776 0.08251661 -0.18339513 -0.2759575 -0.17924087 0.26842892 -0.031454325 -0.040709674 -0.05220298 0.07073274 -0.28003463 -0.08636208 0.21812509 -0.2588204 -0.1491982 0.20034702 0.28132096 -0.039967567 0.20303857 0.08795786 -0.12103337 0.08197442 0.1965553 0.02990213 0.2625077 0.029472558 -0.12145059 0.16235894 0.121843696 -0.3028189 -0.22855261 -0.24128835 -0.2371439 0.01274085 0.026563704 -0.043095827 0.20413128 -0.2842117 0.007407588 -0.30169463 0.10774637 -0.28928393 0.02244465 -0.24480084 -0.11343664 0.30154017 
0.3112046 -0.29517606 -0.03986165 0.29866454 0.09194265 0.30259436 0.23913462 0.2518711 0.029136812 0.0033447375 
Rect
Linear 10 2
0.45817658 -0.15664236 -0.17736381 -0.088428676 0.17906336 0.43156195 0.24552703 -0.18732513 -0.08592407 -0.06913934 -0.18840258 -0.23116203 -0.30486426 -0.3503738 -0.21141368 -0.52659446 -0.22502317 0.15996897 -0.14421959 0.22158183 
-0.1806899 0.0073335897 
