Linear 19 20
0.009246391 0.19959286 -0.081115514 0.11515633 0.2907032 -0.000190374 -0.04164357 0.05050706 -0.17607117 0.1280645 -0.10715267 -0.9522824 -1.5665667 0.15784936 0.12508912 0.15184805 0.258297 -0.08003007 0.08425103 0.12693226 -0.18468545 -0.0898803 -0.26267445 0.029090408 0.08169976 0.021588251 0.08632033 0.18002255 -0.099539734 -0.099521086 0.06997993 -0.08468073 -0.3340713 -0.08140946 -0.09429373 0.2056059 0.0036952917 -0.256128 -0.1758754 -0.11252637 -0.5283431 0.38880512 -0.08957906 -0.08685549 0.08117964 0.03497499 0.021823294 0.008169038 0.007252882 0.32797688 0.94833004 0.00080263696 -0.2373712 -0.24755609 0.10610212 0.18459862 -0.1506121 -0.09446917 -0.00223486 -0.05119221 -0.05889536 0.15059553 -0.088024266 0.12544215 -0.1262448 -0.09311147 -0.044611447 -0.1531148 0.09318181 -0.19867963 0.03953512 -0.06853326 0.028369702 -0.17676876 -0.17555179 0.07512491 0.088822335 -0.20777422 0.4275537 -0.14711465 0.23569089 0.09422538 -0.007636731 0.07121223 -0.55181116 0.079669535 0.136161 -0.8430506 -1.0497819 0.10356835 0.04693024 0.0132714175 -0.027005695 0.15114878 -0.22486775 -0.4005487 0.26042128 0.24832611 -0.097474985 0.06668271 0.24508373 0.22136311 0.13788474 -0.09426197 0.0004950523 -0.34733322 -0.8209403 -0.44249225 0.34798777 -0.640887 -0.26944405 0.036352087 -0.14528508 0.32837427 0.06436279 -0.4456491 -0.93567616 0.20440623 0.10979621 -0.12322024 0.039368153 -0.014147754 0.020711144 -0.16815877 0.011900313 1.2271637 1.3435342 0.017811805 -0.40189916 -0.08696704 -0.106983505 0.09084132 0.120367914 -0.031223243 0.11382855 0.25327265 -0.18217391 -0.041931357 -0.17440648 -0.04351914 0.2084504 -0.5758705 0.06755708 -0.0073005785 -0.472301 -0.4941757 0.13014312 0.1367474 0.2815454 0.005699353 0.1025111 -0.27297828 0.21919537 0.010071154 0.12777795 0.13268332 -0.1765492 -0.18013652 -0.2109698 -0.10212041 0.15975393 -0.23320931 0.05201544 -0.20925446 0.08751001 -0.3099758 -0.12857433 0.03967233 0.11516093 0.023069425 -0.34635097 -0.08440337 0.08864171 -0.03233519 -0.16918537 0.10218514 -0.24180104 -0.11564301 -0.10420333 -0.20301273 0.008247617 -0.14055471 -0.19755845 0.022509076 -0.046156026 -0.0062716585 -0.134664 -0.22716393 -0.20050372 0.12233065 -0.04603695 0.033364963 -0.30959013 0.046510335 -0.12692304 0.03265155 0.06967948 -0.10518848 0.5626656 -0.16308524 -0.026957618 1.0963343 1.2410679 0.13882492 0.11217632 -0.03930984 0.1421338 -0.23461571 0.028581003 0.14590983 -0.072552085 -0.45344263 0.15738747 0.029438995 -0.019083438 0.065845005 -0.0722645 -0.23200086 0.11862495 -0.033761553 0.97368604 1.3273011 0.021486167 0.10577903 -0.16551536 0.16469753 -0.0064548035 0.41878095 -0.056323726 -0.25690693 -0.0017076051 -0.06390948 0.1212767 0.16686152 -0.09124017 -0.021562273 0.25945252 -0.020307895 -0.021624535 0.078579284 -0.42457056 -0.3325704 -0.11066384 -0.25197956 0.15109085 0.10801416 -0.15475447 0.18526766 0.02091006 0.59512794 -0.35039577 -0.11462248 0.13673343 0.19095425 0.18544987 -0.14461328 0.14704528 -0.028137993 -0.85608107 -0.49947828 -0.26907238 0.05540752 -0.031593416 -0.11826762 0.3146749 -0.50748056 -0.20632039 0.06532824 0.49880147 -0.22970855 -0.13488135 -0.008213426 0.021526383 -0.051126428 -0.58459616 0.09540465 0.19713861 -0.41936564 -0.49011242 0.24159275 -0.3122545 0.2869512 -0.10813604 -0.06730494 -0.062089786 -0.5548014 0.3670479 0.20859392 0.10621285 -0.33688733 0.15592949 0.010749913 0.08049835 0.17607746 -0.06606617 0.010387471 -0.015379704 -0.16555625 -0.27914715 0.0809442 0.08447723 -0.15749736 0.19456024 -0.17206135 -0.1250587 0.1830659 0.49408874 0.084846154 0.06040281 -0.009500239 -0.022459868 0.13865565 -0.21970093 -0.05401182 -0.17205225 -0.76875556 -0.58452016 0.19963695 -0.08526792 0.0980084 -0.01814274 0.050536886 -0.001113431 -0.3231982 0.1344536 -0.7217342 0.07205814 0.077959344 -0.09744363 0.12054953 -0.074772924 0.21215811 -0.07287823 0.037112985 0.44827121 1.0657444 -0.21378951 0.039187454 0.16665588 0.02657329 0.17174171 -0.22263075 -0.2131707 0.06839204 -0.11549703 0.38940856 0.06154069 0.2336157 0.00031634007 -0.13277078 0.3187826 -0.053866852 -0.043010715 0.6992068 0.6737742 -0.29631305 0.22031148 -0.040054575 -0.038364585 -0.18921234 0.28843927 0.10132158 0.0843415 -0.04156539 -0.070857234 -0.118664764 -0.17674908 -0.23871514 -0.30146012 0.55845463 0.016360972 -0.24952501 1.0903181 1.041056 -0.116722986 0.022225564 -0.12675872 -0.021535384 0.060422175 -0.002267953 
0.10061 -0.13121219 -0.078286916 -0.22171155 0.118333675 0.10479129 0.119381115 -0.03414951 -0.20058715 0.017533943 0.26246822 -0.14448439 0.056167055 -0.1445066 0.23718317 -0.097682595 -0.23240854 -0.20548013 0.16998698 0.110777184 
Rect
Linear 20 20
-0.07274838 -0.15852061 0.25460172 -0.079255976 0.138456 0.43559387 -0.10841903 -0.014305161 -0.16599718 -0.21245092 -0.36672595 -0.25948882 0.089313045 0.14814927 0.20319179 -0.20797026 0.15354027 -0.26463726 -0.22956976 -0.32779896 -0.2749081 0.08747658 -0.1944275 -0.19647865 -0.03832889 0.07462349 -0.062375326 -0.10127624 -0.028355606 0.092553556 -0.1428829 0.24289061 0.095043436 -0.08548206 0.036567315 0.0075081326 0.0717796 -0.13502699 0.14205617 0.047341883 -0.087722205 0.2073723 0.18834342 -0.14499852 0.017704628 -0.15449071 -0.2046209 0.08708998 0.1004215 -0.08010636 0.1406881 0.13028426 -0.19307129 -0.027418895 -0.07504858 0.23198606 -0.016995264 0.008187002 -0.23683582 -0.28097233 -0.20121321 -0.09167185 -0.039208326 0.15942281 0.00081038545 -0.24664319 0.20971288 0.11904869 -0.049721595 -0.17116426 0.06320362 0.07135132 -0.30698645 -0.21200228 -0.1655632 0.047393158 -0.30086115 -0.105253056 -0.18298465 0.10394657 -0.48757148 0.042405866 0.34915236 0.11579087 -0.3529196 -0.41116238 0.60914403 -0.26040018 -0.16903333 0.13799581 0.4819964 0.3169356 -0.106107704 -0.18875724 -0.07875324 0.2097449 0.14503592 0.21205911 0.35028654 0.20793363 0.03959557 0.13581029 0.101428896 -0.20483644 -0.1388443 -0.0918109 -0.318921 0.0007179976 0.024171462 -0.031571463 0.16066255 -0.3504578 0.066917256 -0.17339863 0.0814593 -0.12916414 0.028135303 -0.14071557 -0.028273722 0.19215223 0.14072035 -0.21171106 -0.036992602 0.22112866 0.048003398 0.3681678 -0.07108136 0.1132675 0.06289661 0.030072102 0.1296631 -0.314715 -0.15513554 -0.22050868 0.14168705 -0.060286578 0.15324004 -0.13083228 -0.20601602 -0.17889424 0.30436805 -0.21110462 -0.44276685 -0.16369234 -0.024293568 0.21421866 -0.5681595 0.20959271 -0.07005734 0.15622717 -0.23804983 -0.030864125 0.006669661 0.41831246 0.2589275 -0.15672775 0.1340732 -0.19628286 -0.18420729 -0.090124324 -0.12922509 -0.013491452 0.20636347 -0.16399083 0.019628558 -0.1264087 0.052547943 0.09549619 -0.16980433 -0.088047996 -0.19833815 -0.1147332 -0.023087936 -0.081916906 0.17592646 0.24798656 -0.19198196 0.08249095 0.06798455 -0.20648642 -0.053812273 -0.10333645 0.13023598 -0.14236835 0.1302673 0.10352894 -0.0002442167 0.03271158 0.15074076 -0.15668584 -0.0813548 -0.010143446 -0.040169153 -0.036210373 -0.07660883 -0.017748734 -0.053050697 -0.0057950467 0.14536034 -0.03938046 0.34135067 0.2108137 -0.10043092 -0.10796317 0.25218835 0.09109611 -0.55035174 -0.019969199 -0.09879125 -0.20921065 0.070442535 -0.016486049 -0.16107427 0.40341246 -0.09090977 -0.05025474 0.0498199 0.0921981 0.13361537 -0.06142698 -0.048333053 0.17622827 0.09328054 -0.035343852 -0.32520747 -0.38040936 -0.14223537 -0.11076316 -0.06035816 0.14687823 0.16724855 -0.18676318 0.04302164 0.23297681 0.10088582 0.45041463 0.33956125 0.0820478 0.22845124 0.24893275 -0.21466713 -0.20610385 0.3269787 0.021393204 -0.24145564 -0.16950089 0.15877368 0.22934109 -0.08616741 -0.07153392 0.12518862 0.3191779 -0.119383566 -0.11819467 -0.08495856 0.033873398 0.09395464 0.2154686 -0.123666234 -0.16143227 0.07094948 0.040446542 -0.0919325 0.1464083 -0.059625328 0.36570156 -0.19866401 0.04691801 -0.011686427 0.009479394 0.005791894 -0.37845716 -0.04787185 0.07058677 0.33741683 -0.11134584 0.15299338 0.07154181 -0.2860759 -0.021624105 -0.39995164 -0.18927954 0.17797276 0.088299975 -0.16739763 -0.25369903 0.35463017 -0.34349164 -0.15843938 0.18712568 0.416124 0.42738926 -0.20382024 -0.49726254 -0.1375153 -0.3355822 -0.17711064 0.4270459 0.27194813 0.12568384 0.35334304 -0.14778705 -0.16873959 0.14967263 0.31890357 0.21802653 -0.45311546 0.0112994425 -0.10764427 0.18193895 -0.08312805 -0.1357459 -0.039549462 -0.094218425 0.29834613 -0.081244215 0.14724717 -0.26451126 0.11958731 -0.4979529 0.20502414 0.10709758 -0.15152578 -0.006838748 0.12017142 0.23746787 -0.15936786 0.06776036 -0.06811821 0.19922508 -0.17156339 -0.27938518 0.11179702 -0.045270737 0.15416367 -0.2528557 0.106190644 -0.080892004 -0.06807549 -0.25846404 0.296858 0.1791149 0.13088891 0.049848795 0.15727834 0.39767694 -0.45167175 -0.07971758 0.009271747 -0.1938893 -0.14817321 -0.40269855 -0.19190058 0.09420579 0.31542405 -0.23213826 0.106630094 -0.06822621 -0.103205256 -0.43585718 -0.039388698 0.03564176 0.030096693 0.15409467 -0.18747874 0.086558774 -0.09587484 -0.03408875 -0.21986663 -0.03696292 -0.16863249 0.17989232 -0.011469024 -0.10339913 -0.18746059 -0.20234005 -0.04533756 -0.2146905 0.19425777 0.021015763 0.17894855 -0.010578979 -0.0615844 -0.078537814 0.13629134 0.16254674 0.044701386 -0.157118 -0.22658582 0.07302333 -0.20999332 0.2571682 0.100490086 -0.15963641 -0.07940096 -0.055609502 -0.0760312 -0.026129983 -0.05096426 0.036773775 
0.24780892 -0.122970484 -0.054830745 0.008134625 0.106507875 0.16703627 -0.21655387 0.23884441 -0.08780344 -0.1252614 0.18952425 -0.15012799 -0.10344493 -0.098993674 0.08446503 0.08973533 0.13053495 0.15484297 -0.20778574 -0.011016758 
Rect
Linear 20 20
0.1781465 -0.17444226 -0.08928071 -0.008117762 0.024505686 0.16964878 -0.10216968 0.018877659 0.18086863 0.16229357 -0.041185763 0.22266789 -0.16938828 -0.2335054 -0.16704133 -0.13965218 -0.16188455 -0.030665083 0.15707447 0.10947068 0.3853028 0.020979473 0.04885799 -0.20610224 -0.5142193 -0.005554645 0.11095822 0.33162442 0.12404503 -0.20288327 -0.06965534 -0.35250273 -0.12109769 0.15196985 -0.39784423 0.024469873 0.2034471 0.35870263 0.09692731 -0.1162454 0.0017553036 0.16328354 -0.20538974 0.012514178 0.40886527 -0.11934485 -0.105372496 -0.12990372 0.00974954 -0.17268 0.039514396 -0.09384741 0.24031639 -0.1139693 0.4843993 -0.24571784 0.09493306 -0.23417617 -0.09137234 0.031348262 -0.05890873 -0.034557726 -0.05673693 -0.20519418 0.12996444 -0.14008802 -0.06739828 0.1686315 -0.061242223 -0.03091038 -0.04771225 -0.054990888 -0.029987976 0.17561638 -0.03363752 0.07432991 0.073076725 -0.2181658 -0.16017282 0.007377583 0.1516983 -0.057100598 0.15381931 -0.026996981 -0.18203679 0.27859774 0.026520032 0.062611245 -0.17698932 0.21718495 0.10754035 -0.32911074 0.18048908 0.23945479 0.08365763 0.26434967 0.12271311 0.27400067 -0.15896839 -0.16508946 0.09354383 -0.10238156 0.11268895 0.074289486 0.24161072 -0.008600123 -0.21879394 -0.58699256 -0.050036237 0.12602317 -0.5593799 -0.19789991 0.10946546 -0.23181607 0.31018627 -0.28996047 -0.24854745 -0.05511651 -0.18913211 -0.09044426 -0.23207353 0.19852266 -0.057217885 -0.08036707 0.4792136 0.04056596 -0.14725995 -0.220589 -0.077449724 -0.063291036 -0.16718632 0.09265334 0.10189393 0.15173902 0.39371815 -0.11197657 -0.18141182 -0.21275373 0.04303396 -0.20525199 0.21200332 -0.007207143 0.20680825 0.11309597 -0.04957736 0.20222765 0.06217021 -0.10763024 0.085184276 -0.10879035 0.23746693 0.08145951 0.20207779 -0.18907474 0.040607873 0.06291986 -0.118853845 -0.09363822 -0.12511823 0.02393006 0.007813171 0.016918987 -0.052902758 -0.05565065 -0.062269345 -0.094148025 0.06355664 0.01437822 -0.0014265478 -0.21476594 -0.10466644 -0.17354128 0.17027903 -0.13948204 -0.04471785 0.16760394 0.0146870315 -0.21682721 0.12939179 -0.017625272 -0.14860958 0.16968681 0.22346306 -0.098622106 -0.14527725 -0.021531664 0.023933904 -0.07572855 0.06051582 0.094680786 -0.20428571 -0.1063415 -0.1000345 -0.22645132 0.104357325 -0.12538776 0.15203017 -0.045744605 0.21028669 -0.015043564 0.0675219 -0.089246474 -0.11473659 0.11393272 -0.0002854545 0.03613009 -0.107008144 -0.18229523 -0.09885183 -0.21687938 0.20877476 -0.004654306 0.10735037 0.21685939 -0.04484563 0.0014791841 -0.16032596 0.028834047 -0.06252174 0.105098546 -0.022044629 -0.11667091 0.20430805 0.051731568 -0.012555605 0.10343642 -0.18593489 -0.09162769 0.005476311 0.018584738 0.0949209 0.01762387 -0.15873697 -0.015048885 0.19777173 -0.13584238 0.066065505 0.17997569 0.1377791 0.12326024 0.10191754 0.08236511 -0.09405896 0.12762041 -0.3797354 -0.10994099 0.23340704 -0.11474071 0.20634814 -0.21183483 0.18526402 -0.17392847 -0.18322834 -0.04593983 -0.38900632 0.114944465 0.044968296 -0.029741693 0.1506927 -0.090474896 -0.12594086 -0.026107283 0.19373381 -0.14638945 -0.31403872 -0.093213506 0.21417154 -0.13873218 -0.09421187 -0.21861842 -0.027660795 0.067439474 0.039547227 0.0024020828 0.07877005 -0.04671997 0.16656081 0.1624926 0.072598636 0.024493417 0.083124116 0.04841592 -0.22299634 -0.023256147 0.072870396 -0.2093786 0.10348564 -0.26752555 0.10146883 -0.007065384 -0.10554949 -0.055583965 -0.12886508 0.19895256 0.13894495 -0.23100242 0.07790739 -0.10319707 0.04255728 -0.0016737465 0.17367229 -0.19644624 -0.07175879 -0.21129408 0.21141224 -0.16076942 -0.10111427 -0.17088072 -0.018824365 0.18479615 -0.2016054 0.08207426 0.10466301 -0.1524607 -0.15167356 0.07741583 0.14398728 0.09718909 -0.17197078 0.16213393 -0.04619673 0.032788765 -0.106519505 0.18329638 -0.0155686475 -0.2544971 0.063032374 -0.30374834 0.07261595 -0.04895973 -0.07729726 -0.03397098 -0.046313863 0.038572032 0.2393552 -0.13605043 0.14861937 -0.23919381 0.004132584 -0.04591577 -0.09689352 -0.16755903 -0.0036539584 -0.16682895 -0.22335424 0.08810842 -0.15159366 -0.029733792 0.11320081 0.10043728 -0.0702167 -0.03909439 -0.052461654 -0.037344426 0.015243351 -0.017782226 -0.029169649 -0.08877288 0.1662161 0.20068899 0.21602678 -0.08299685 0.18309927 -0.05914582 -0.4473109 -0.11789288 0.014426834 0.13159424 -0.07335174 0.010200351 0.15268184 -0.04063552 -0.028107105 0.22270903 -0.33078924 0.25412536 -0.025812844 0.12183297 -0.03298807 -0.105775386 -0.04133245 0.19887543 -0.15172014 0.16228148 0.30615902 -0.22459619 -0.18922631 -0.26630798 0.047877442 -0.09266764 -0.33115888 -0.26272047 0.021037737 0.16515332 0.10911573 -0.39960295 -0.10775789 0.018149527 0.009909433 -0.1412218 
0.030178435 0.18234225 0.06934913 -0.21075152 -0.11546594 0.09346756 0.17480607 -0.053545617 -0.068585366 0.034391075 -0.14182234 -0.30168203 0.117226906 0.012645623 -0.02508618 -0.1665567 -0.005679179 -0.116939746 0.046376005 -0.035148907 
Rect
Linear 20 20
0.0737389 -0.21768227 -0.11240029 -0.09453605 -0.16478252 0.16124494 -0.07198045 -0.21518382 0.090093434 -0.03394601 -0.122705095 -0.14831388 0.043170623 -0.09508084 0.1416793 0.18987396 0.012635838 0.12045941 -0.09901439 0.16080692 -0.0013610077 -0.09356312 -0.17175096 -0.17879805 -0.043449808 0.06639543 0.09972071 0.019951582 -0.14051425 0.1886352 -0.09213097 0.041668504 0.024183646 -0.17827605 0.1397441 -0.22174752 0.116020925 -0.16292173 0.070047185 0.10362288 -0.13418928 -0.25231853 0.19628832 -0.03152525 0.16650857 0.4210844 -0.07145956 0.020538477 -0.21377712 -0.21226308 -0.008486941 -0.17329273 0.13711746 0.102840275 0.16545728 -0.05016077 0.031203516 -0.06983277 -0.3772966 0.18471228 -0.017342925 0.14324403 0.004687965 0.1535429 -0.03939046 -0.07712071 -0.09091377 -0.18935545 -0.16324288 0.082178086 0.097329944 0.012952954 -0.19370934 -0.044747755 0.19701391 -0.05558546 -0.21123892 0.14010316 -0.19187012 -0.14422837 0.13846499 -0.22707996 0.11086188 0.03765833 -0.1413286 0.010857605 -0.054586798 -0.11690855 -0.045767292 -0.100927114 -0.011675129 0.020035522 0.07222741 0.08339248 -0.17455013 0.04335274 -0.14496426 0.16194335 0.0005337331 -0.18490899 0.15228735 0.08459303 0.08621683 0.21307251 -0.20715784 -0.06660883 -0.09829257 -0.11386732 0.13530138 -0.11949438 0.08165094 0.16067216 -0.055183884 -0.029506626 0.026836824 0.096035175 -0.14578627 -0.06907153 0.15243256 -0.06937913 -0.13311402 -0.085621715 -0.122061 -0.06251876 0.010152146 -0.053233624 -0.10518556 -0.11742968 -0.0464703 -0.15440309 0.15765828 -0.17734644 -0.16748223 0.04133305 0.08499518 -0.21745762 -0.08610575 0.05905512 -0.12458282 -0.0041339397 -0.03725457 0.1787603 -0.26640427 -0.055841267 -0.06365826 -0.10880112 -0.03729618 0.20601244 -0.04316564 0.160024 0.1513907 -0.16303954 0.097704515 -0.14283217 -0.00943445 -0.105439596 0.10837902 0.11638582 -0.0902024 -0.1387257 -0.030769162 -0.2525666 0.100470744 0.098125204 0.06338986 0.3313977 0.32122293 0.055029362 -0.033956125 0.2074709 0.06924954 0.048970312 -0.028744036 -0.08523503 -0.043799277 -0.040030833 0.15565726 0.008546099 -0.026223108 0.036024846 0.13988192 0.06313691 0.018017752 -0.15904221 0.0029574297 -0.08010689 0.037778243 -0.16430569 0.026297852 -0.182067 0.21778177 -0.056346197 0.14192158 -0.19160707 -0.07157581 0.12620775 -0.24852745 0.1157054 -0.14900318 0.15508299 -0.00706055 -0.28410855 0.20527339 0.14810117 -0.1035889 0.07964675 0.32690102 0.16249548 -0.05626574 0.032682586 0.07078222 -0.0807096 -0.0910292 -0.077789135 0.1124118 0.17346664 0.037196275 0.10169312 -0.17237861 0.3086724 -0.09109861 0.26608232 -0.32450444 -0.003933519 0.25355133 -0.3931649 -0.20939496 -0.050011467 0.18446603 0.18535906 0.019460712 -0.19938225 0.16771512 0.13299377 0.06323242 0.16370675 -0.16817112 0.13810217 0.06871513 -0.2695389 0.043089412 0.22400297 -0.03167352 0.1629312 0.17477433 0.09932935 -0.16340855 -0.058459293 -0.12586036 0.16363293 -0.124995776 0.109286666 -0.06911758 -0.09166472 -0.1913752 -0.029084802 0.063228816 0.10625222 -0.102102265 -0.06262152 -0.08456251 0.20989193 -0.21907987 0.16281447 -0.03337389 -0.008853777 -0.5110204 -0.026657928 -0.21989562 0.017849104 0.2108944 0.19469208 -0.051760018 0.11007661 -0.04040289 0.12044569 -0.094867006 -0.22058468 0.30427244 0.0037096008 0.10465375 0.33900052 -0.24526896 0.057677448 0.22661619 -0.3022347 -0.19760354 -0.16900398 0.01534453 -0.12776762 -0.18693772 -0.18474475 0.14849664 -0.16224526 -0.14073913 0.122281775 -0.040655807 0.09131616 0.2285162 -0.18127258 0.042733915 -0.30451977 0.11839232 0.13987023 -0.07056994 0.010080027 0.03661473 0.021478474 0.15872937 0.059167966 -0.0051425546 0.14544716 -0.20902863 -0.13323243 0.0004358623 -0.15853707 -0.2286345 -0.10926196 0.04342638 -0.004199834 -0.16256484 -0.086248 0.2558182 0.0659327 -0.14123629 0.3186928 0.33273992 0.21659464 -0.12176059 0.15915829 0.13601117 0.001966576 -0.22037815 -0.05600532 -0.13849232 -0.12165268 0.11454305 -0.123147845 -0.0488549 0.11850045 -0.0031999946 -0.20202282 -0.050542355 -0.12525007 -0.03723535 0.096007675 -0.13212866 -0.13004525 0.15033552 0.026116192 -0.12594025 0.013292044 0.0612877 -0.07093905 0.08585206 -0.05449578 0.020159349 0.04291001 0.042870462 0.1520949 -0.04786535 0.12514362 0.049328208 0.15677465 0.0688752 0.04865406 0.06264326 0.21308184 0.10891542 -0.15330331 -0.17994414 0.15767065 0.07192157 0.08917701 -0.22616999 0.0790562 0.19523749 0.058527976 -0.2131397 0.124053724 0.15965326 -0.05791405 -0.1088862 0.12707978 -0.028211756 0.06702924 -0.18865138 -0.21970475 -0.20599939 0.18025638 0.1933431 0.08458658 0.006337434 0.19850706 0.1717115 0.05564592 -0.09547762 -0.01973936 -0.08429114 0.13675337 
-0.0500555 -0.10597373 0.034297425 -0.11465727 -0.014071238 -0.22500232 0.0019213408 0.047142636 0.07457336 -0.0363061 0.12266526 0.28423437 -0.06309387 0.15683097 0.20348155 0.07776142 0.023662813 -0.046980113 -0.25835088 0.033425678 
Rect
Linear 20 2
0.14031656 -0.10289891 0.2356928 0.099632084 -0.007744484 -0.16531847 0.1701326 -0.048391014 0.13840827 0.15458338 0.29096738 -0.3097456 0.19451952 -0.27179742 -0.21006842 0.079336405 0.2467456 -0.13926162 -0.21488701 0.12600958 0.19027567 -0.07032125 -0.22384743 -0.22193703 -0.007031208 0.18433425 0.13340145 0.055195548 -0.17585565 0.15038228 -0.13007651 0.18284957 -0.060209177 0.10279262 0.41352654 -0.03147753 -0.1360864 0.011493295 -0.093151286 0.12347955 
0.05894552 -0.10138085 
