Linear 19 15
0.16346468 0.09284754 0.14936255 0.10176993 0.05670322 -0.12625425 -0.099112585 -0.22603805 0.036724936 -0.14080395 -0.029403107 -0.19123545 0.18051305 -0.080432296 -0.15483558 -0.08211648 0.08127752 0.07505527 -0.0042302543 0.14993712 0.10041729 0.061190743 -0.08774075 0.22072308 -0.056019645 -0.052658703 -0.06781096 -0.0888048 0.07637073 0.113929294 0.11477235 -0.0467193 0.21299544 -0.0645605 0.079015516 -0.20717159 0.046350308 0.05189131 0.19639237 0.17344087 -0.112375125 -0.012764145 -0.13533235 0.18715662 -0.051592838 -0.19920704 -0.032620676 0.0028423741 -0.070323914 0.0018600954 0.13058501 -0.2071497 0.15507291 -0.11532031 -0.20903733 0.0579951 0.2126705 -0.03051851 0.15496485 -0.20447886 -0.11896474 -0.14362514 -0.15132584 -0.15697004 0.1034817 0.20707622 -0.0967889 -0.22532079 0.1733274 -0.13027439 0.13640827 0.11782646 0.0257331 0.16936779 0.10032482 0.14938755 0.15789597 -0.010549345 -0.0549115 0.13092685 0.0110442005 0.149158 -0.08448807 0.08385508 -0.016624589 0.051082682 0.17956662 -0.14995271 -0.22237653 0.13111551 0.15549274 0.03812485 -0.07231344 0.057709534 0.21313909 0.067201465 0.22436187 0.070934705 -0.005636616 -0.15118483 -0.20125994 0.10632067 0.19776894 -0.18965362 0.041932642 0.12016066 -0.05948386 0.21377099 -0.047206167 -0.057023574 -0.20162751 0.10641587 0.009930286 0.044591118 0.117421895 -0.15349007 -0.19154526 -0.017205138 -0.12032161 0.21607748 -0.03136676 0.073136084 0.0882697 0.008471732 0.043542426 0.116349 0.1641528 -0.15986295 -0.06649506 0.004393978 -0.23359904 0.010908412 0.11724692 -0.126387 0.011902227 -0.06855926 -0.083689496 -0.004517722 -0.056711037 0.030420743 -0.17812878 0.1756339 0.14716044 -0.20993048 0.14848293 0.14385054 -0.025223713 0.068948686 -0.22764562 0.01782033 0.0733221 -0.08610003 -0.20894127 0.18326284 0.18024214 -0.08519026 -0.07663561 0.055460736 0.21090408 0.042764712 -0.2174906 -0.18759753 -0.22561795 0.100209706 -0.0043572714 0.15627459 0.15353926 -0.079324126 0.0332724 -0.085845426 -0.02398472 0.167964 0.15173048 -0.16811214 -0.10148283 0.10929128 -0.16914396 0.2181747 -0.067631975 -0.056635536 0.22685532 -0.087239094 0.11132407 -0.05686563 0.21860017 0.17920093 0.077324845 0.060329337 0.17708685 -0.20352025 0.13504769 -0.21542102 -0.19570029 0.01416195 0.16673495 -0.20521338 -0.009185136 -0.09999759 -0.097154886 0.072788365 -0.19284561 0.20606361 0.11192004 -0.12408273 0.08992632 0.12215136 0.1889275 -0.20752734 -0.20067336 0.1600374 0.16199704 0.19802769 0.105455026 0.19413593 0.018944828 -0.17776774 0.21778893 0.13695367 0.10936611 0.06914765 0.115927376 0.14039405 -0.08310273 0.10659156 0.08856436 -0.22674207 -0.18934987 0.04226871 0.11906537 0.13261667 -0.027586509 0.1435783 -0.18898046 0.058028895 -0.038893662 0.14390528 -0.1389824 -0.12029021 -0.22805639 -0.04303369 0.18204758 0.021043466 -0.21941674 0.013447084 -0.087438054 -0.016054058 0.081172444 -0.21484518 0.19061236 0.047669824 0.1573041 -0.12017282 0.09688419 -0.1441159 0.18095906 -0.085520625 -0.025386978 -0.17400056 -0.035253063 0.06901159 0.20962542 -0.10250157 -0.059121247 0.063425094 0.119932115 -0.15996464 0.069606006 0.001004609 0.13603662 0.095913194 0.17726089 -0.11181122 -0.18718311 0.042719644 0.08439182 0.06474677 0.0979395 0.05292232 -0.12685184 -0.04096232 0.099063635 0.029700011 -0.038203977 -0.16509882 -0.21352458 
0.07718047 -0.1559972 0.21643737 0.11700509 0.2058631 -0.22394407 -0.06889266 -0.08601508 -0.09544272 -0.07753988 0.009833436 -0.18975419 -0.0023776095 0.09018936 -0.018119471 
Rect
Linear 15 15
-0.0021809489 0.057423014 -0.055323925 0.22469291 0.17234814 -0.03412209 -0.0699313 -0.14649399 -0.027272888 -0.06672714 -0.19862641 0.06333543 0.012235603 -0.099621244 0.10541389 0.25249606 0.22565742 -0.22989924 -0.17760262 0.09762934 -0.015033316 -0.048621014 -0.020719394 0.24556938 -0.1734665 0.09442341 -0.059764463 -0.11616713 -0.11397733 0.24376746 0.16811833 0.16903853 -0.13196597 -0.03401756 0.22137909 -0.051097617 -0.25047117 -0.13618305 -0.0972344 0.22306627 0.08981877 0.21575537 0.07243598 0.1431258 -0.2428556 -0.17387335 0.18008998 0.14601128 -0.19228707 0.2300847 -0.24805015 0.07966153 -0.18000396 0.11156895 -0.07989262 0.10780415 -0.0718673 0.23847899 0.17480254 -0.17941622 0.070492156 -0.06910398 -0.059287045 0.05075333 0.10040989 0.079474226 -0.029646937 0.083724655 0.25242454 0.044231415 0.17670393 0.16783884 0.04244275 -0.10300413 -0.16779763 0.17823878 0.083683945 0.08617653 0.09419364 -0.12101522 -0.07769049 -0.11709375 0.14794958 0.092207484 0.0073435595 0.18392693 0.09393429 -0.051772676 -0.21531193 0.10331953 0.21150328 -0.003528846 -0.19793117 -0.2284955 -0.012813843 -0.25113648 -0.08891708 -0.035515938 0.09782809 -0.0056679808 0.20744751 -0.08609122 -0.20868123 0.13619104 0.06324923 0.07963837 -0.23993796 -0.23267835 0.18211661 -0.17827894 0.043714534 0.031162024 0.029867437 0.24806787 0.06409706 -0.0449488 -0.05750333 0.011935327 -0.11455068 0.078821965 0.2432835 -0.19983105 0.047880907 0.20235883 -0.22929178 -0.015441754 0.015201872 -0.006126756 0.18137632 -0.104154915 -0.07953186 -0.21136843 -0.18461387 0.21135446 0.21815512 0.050923962 -0.0537458 0.04232568 -0.00026249827 0.22310282 -0.13051093 0.033454496 -0.15187989 -0.12463544 0.0055234353 -0.04514175 -0.031332605 0.12888491 -0.04993009 -0.0517193 -0.045352146 -0.14686099 -0.17075756 0.028721571 0.21007708 0.04137072 0.13778198 0.16787753 -0.17713884 -0.021839857 -0.10302396 -0.01886405 0.08885348 -0.10578394 -0.0137414485 0.09508115 0.035832193 0.16329716 0.1595357 0.12980853 -0.0022745456 0.1659748 -0.06659246 -0.067644194 -0.032541864 0.073646165 -0.095681004 0.08442201 -0.24011685 -0.14556289 0.19511823 0.2506634 0.025867473 -0.08278397 0.13717608 -0.17000836 0.13054585 0.079624385 -0.21323378 -0.13607417 0.013699353 0.025448075 -0.19027857 -0.041697204 0.17140022 0.08391919 0.23426495 0.027786931 0.19798735 0.036051277 0.11786505 0.107708365 0.25141054 -0.18120787 0.23873231 -0.11608485 0.19066826 -0.18539953 0.1029405 0.18336703 -0.117981665 -0.016744811 0.2694566 -0.046252243 0.056047343 0.23351273 -0.08686106 -0.18403174 -0.19592051 -0.20064744 0.11337036 -0.16532311 -0.2215155 -0.22117443 -0.004279015 
0.07353433 -0.18776447 -0.23781323 -0.15484013 -0.16847096 -0.015894499 0.10095435 -0.06988874 0.0066664238 0.105615884 -0.2359986 -0.0597898 0.02973039 0.21808909 0.25082988 
Rect
Linear 15 15
0.14557827 0.13111094 0.023890864 -0.09154713 0.018121481 -0.17931944 -0.08898416 -0.23145673 0.23895247 0.0626567 -0.0017629862 -0.19504265 -0.15069474 0.21888566 -0.13220967 -0.017276058 0.07310346 -0.09843661 0.08809692 0.0071071396 -0.24229062 -0.25815317 0.03126788 0.10484814 -0.23637441 -0.13445124 0.11273959 -0.07864803 -0.14243516 -0.016083019 0.0671083 -0.074775234 -0.14648019 0.044057578 -0.11375819 0.117648244 0.15435028 0.10181424 -0.11863102 -0.14272873 0.2057339 -0.18116547 -0.09754658 -0.25209433 -0.23967883 0.085815035 -0.040635236 0.25241253 -0.08010572 -0.1574359 0.23537539 0.018145448 0.24656874 0.059876565 -0.09616702 0.17510593 -0.065973476 0.18753019 -0.1284659 0.033766914 0.1353351 0.13847984 -0.10901253 0.1442028 0.23290405 0.22811797 0.11183784 0.24322517 -0.052110218 -0.112597 0.04877758 0.115532786 -0.023125857 -0.14045732 0.08633346 0.23068479 -0.22565922 0.15594515 -0.21058711 0.052273035 -0.23320553 0.10004777 0.05305609 -0.055606127 0.14591011 0.092907906 -0.20472275 0.15228045 -0.19314608 -0.16739503 0.036554217 -0.19173944 0.06300181 0.0069663157 0.07276685 0.05567866 0.21370256 -0.08694717 0.18656121 -0.19218545 0.12891349 -0.07102953 -0.14675806 -0.0681758 0.1321658 -0.2068267 0.20982322 -0.0848455 -0.04665029 0.011435121 -0.16125491 -0.12543064 0.19972685 -0.18340936 0.04785358 0.21826282 0.1181385 0.1868748 0.17291802 0.0781237 0.18395641 0.033112437 0.08022249 -0.18132214 0.15391079 0.19354317 0.18431333 -0.1406391 -0.059422955 0.016962545 -0.063042104 0.23061143 -0.10690443 -0.09017568 0.24387829 0.14259034 0.21169546 -0.21704425 0.01081603 -0.21093361 -0.14673297 -0.0689952 0.095103994 0.022256792 0.18225999 0.21749115 0.11029597 -0.22987399 0.047527716 0.23494937 -0.25052467 -0.09392239 -0.028179526 0.005794376 -0.13011238 -0.15859064 -0.044362485 0.07726246 0.15399674 0.09650609 -0.018094316 -0.14240551 -0.13138185 -0.21862188 -0.14448914 -0.024462208 0.20879331 0.15968361 -0.0798147 0.16651604 0.2438651 0.085799396 0.06586388 0.13676679 -0.033299208 -0.14684913 0.09288862 0.10947856 0.17762893 0.03470838 0.24920616 0.21600008 -0.062738985 -0.024360046 0.039129734 0.13928667 -0.04338351 -0.15380998 0.23848811 -0.1660008 0.247314 -0.21639527 0.24293324 -0.10755439 -0.072475925 -0.028391544 0.22965096 0.13817486 0.24019189 -0.089197055 -0.05113996 -0.2413718 0.21490946 0.11831103 0.16900972 -0.045084238 0.19087794 -0.10116685 0.051420882 -0.2551929 -0.1173432 0.16521803 0.022812992 0.22680807 0.16367427 -0.17874508 -0.20710057 0.088266134 -0.10707906 -0.1275155 0.034382433 0.14650297 0.14962584 0.12900022 0.089309335 
-0.19540203 0.055155557 -0.16908237 0.2598545 0.069017276 -0.05588016 0.022166947 -0.13730253 0.17023075 0.23822297 -0.015668228 -0.2554361 -0.18380359 0.028903421 -0.2174404 
Rect
Linear 15 15
0.2281686 -0.23349519 -0.08663213 0.08190432 0.09126067 0.13663685 -0.19790989 0.12123141 0.055336207 0.09103044 -0.21647906 -0.02218379 0.14510447 0.04635022 -0.14900197 -0.2477136 -0.060766824 0.25196 -0.15205161 0.23720105 0.18751037 -0.043281455 -0.05494643 -0.13122953 -0.045565132 0.13261637 -0.15270299 -0.18617928 0.020834228 0.052101195 0.2372469 -0.1961888 -0.2300157 0.18234487 0.11970939 0.21542841 0.114847675 -0.11013772 0.05511981 -0.031246923 -0.07619052 0.098353 -0.07445349 -0.13251449 0.12471068 0.257643 0.20331934 -0.037540093 -0.0071314275 -0.18070981 0.1268242 0.13122162 0.22519615 0.21707246 0.048600793 -0.12410839 -0.23180424 -0.20794511 -0.24482994 0.079357654 -0.056957297 -0.21806476 0.10900605 0.14229335 0.2094292 0.14464405 -0.09473853 -0.14636059 -0.1334665 -0.23468253 -0.07811923 0.1840882 -0.22697186 0.17578684 -0.04713936 0.063304186 -0.2253288 0.13763309 0.047145158 0.06483525 -0.24400371 0.16347033 0.09974635 -0.022868365 -0.16536605 -0.07789858 0.12803888 -0.22550768 0.17601526 0.17379439 -0.20243573 0.12699652 0.12059417 -0.2364597 -0.22345759 0.089075685 0.043548137 0.2380048 0.16954246 0.009901434 -0.16770071 -0.16434033 0.25231 0.2522715 -0.20326775 0.20623535 -0.0662309 -0.048275813 0.040799778 -0.21692532 -0.14542577 -0.19035457 -0.046364017 -0.06389632 0.18289591 -0.05644001 -0.09162229 0.24926236 0.026008397 0.12048158 0.14167893 0.17176458 0.14337087 -0.10272126 0.063381225 -0.02494052 -0.23395987 -0.07576221 -0.20465307 0.1940014 0.20842934 0.22018346 0.1413256 0.1003049 0.11713278 -0.18225266 -0.22728686 0.14924109 0.23990457 -0.17551763 -0.022800535 -0.19910353 0.25432265 -0.20164514 0.109614484 -0.13488504 0.004249692 -0.04534395 0.23179482 0.04673463 0.060120314 -0.017144173 0.12838313 0.2183148 -0.12608612 -0.16329865 0.030176848 0.25034866 0.0652132 0.10153186 0.030785203 0.06595111 -0.25175178 -0.16116124 0.17005143 -0.016234977 -0.13848296 0.2457098 0.20527686 -0.017334977 0.24558201 0.14583208 0.18262564 0.24790604 0.12564565 -0.2090919 -0.07509193 0.056019455 0.1781213 -0.0596323 -0.0988157 0.12696506 -0.06350903 0.1166955 0.12772161 0.10564801 -0.17698817 -0.19792254 0.25105396 0.22686695 0.16627544 -0.115979016 0.16656819 -0.12524289 0.1781902 -0.06277235 -0.10494134 -0.21316181 0.21057016 -0.14652137 0.24868134 -0.047132447 -0.18751049 -0.2408933 -0.026228651 0.05652058 -0.15214065 0.123657346 0.14178678 0.06798756 -0.23327228 0.07034442 -0.13974681 -0.009665906 -0.14706771 0.17598385 0.15567207 0.17769092 0.21727872 -0.064539045 -0.020972744 -0.04057221 -0.0037829578 -0.06503773 -0.23146905 
-0.0012063972 0.13073587 0.010507593 -0.18996474 0.085408494 -0.04873307 -0.2113084 0.018956795 -0.10227604 -0.028322522 -0.25579664 -0.14367345 0.20583048 -0.19503826 -0.23834936 
Rect
Linear 15 2
0.24509078 0.16505319 0.14074548 0.045187414 -0.2325309 -0.0150498 -0.10068627 0.22469054 0.17356795 -0.2032017 -0.12595163 0.21466082 0.003180113 -0.09090555 0.08208755 -0.10784087 0.21998173 -0.17788228 0.09469983 -0.005485024 -0.17517355 0.21117759 0.23639956 -0.038465187 0.20462899 -0.17741388 0.02297457 -0.094210155 -0.082973465 0.22591549 
-0.22272116 -0.26830593 
