Linear 19 15
0.028104044 -0.016565718 0.07187788 0.0518287 -0.22068128 0.012751203 0.08891165 -0.07462472 0.18863833 0.15996306 0.02105377 -0.10565315 0.022195546 0.017891059 0.04351891 -0.10131132 -0.078705795 0.076335125 -0.020914745 0.07867414 0.025471326 0.17366046 -0.08757686 0.07130492 0.2008998 -0.1312444 -0.008482819 0.069033705 0.04624945 0.18807325 0.17294116 0.21434966 0.08364818 -0.089588985 0.10859456 0.15315285 -0.24478662 -0.036466654 -0.11817191 0.071552604 -0.1404948 -0.18683532 -0.13399495 -0.21971774 -0.0114045115 0.14308858 -0.15606394 -0.0649227 0.11741578 -0.16758025 -0.18307093 -0.036682807 0.08768758 -0.096602276 0.010271732 -0.016897336 -0.2258991 -0.16682959 0.14038058 -0.1570701 -0.069290124 -0.011608635 0.08258506 -0.027233113 -0.06774894 -0.09060724 0.21136975 0.106287114 0.18533766 0.0014288673 -0.16771108 -0.022379315 0.15966867 0.24502349 -0.04601545 -0.111783415 0.12356033 0.08011066 -0.20107165 -0.07639372 -0.0026078683 -0.12389649 -0.23221424 -0.19634388 0.122766 0.22933714 -0.1893369 -0.2099901 0.22942013 -0.062430672 0.122925356 0.07131204 0.044585276 -0.097401865 -0.02714053 0.104221806 -0.12745371 -0.21868397 -0.01727032 -0.20727153 0.04227158 0.19063354 -0.06726232 0.17566976 0.050751522 -0.04145885 -0.025533844 0.06478833 0.025821188 0.14643745 0.0818743 0.21335253 -0.15068215 0.10746182 0.19659008 0.14599931 -0.17200507 0.1336406 -0.16243769 -0.18969524 -0.06030232 0.21538062 0.0786575 -0.040678877 0.0863353 -0.02194554 0.12598984 0.07413777 -0.014885277 -0.18986134 -0.08389037 0.19713382 -0.20964125 0.08998144 -0.22558628 0.04782393 -0.1992791 -0.07896617 -0.04408178 -0.06946584 -0.19061111 -0.07683963 0.019493448 0.15348509 0.20530789 -0.061890252 -0.15997942 -0.08534431 0.14104882 0.091658995 0.22893491 0.0076171635 0.1458926 -0.15639175 0.14212027 0.19941372 0.1295074 0.033988833 0.21241452 0.22752847 -0.20940627 -0.21240327 0.020963041 -0.17399742 -0.22646032 0.0887175 0.22093032 -0.05908627 0.06686209 0.25460005 -0.18448322 -0.051633716 0.21131414 -0.11340039 -0.04282 0.14002968 0.18257546 0.13796 0.01913762 0.20744847 -0.183809 -0.17199098 0.16789635 0.048276514 0.21727361 -0.12859714 -0.21959227 0.00475596 0.050540496 0.19795337 0.12804234 0.17952468 0.09968728 0.13445628 0.16167583 -0.118208006 0.069073506 -0.18051015 -0.019751541 -0.21968716 -0.16781558 -0.05004013 0.12003047 -0.16318321 0.1088412 0.16280998 -0.035186134 -0.16803777 -0.06282395 -0.05711485 -0.10180857 -0.097685695 0.13327357 -0.03140943 0.052634552 -0.14971998 -0.032699663 -0.049614828 -0.19379517 -0.0082119815 -0.16499993 -0.028105302 0.03680639 0.23978367 0.15607461 0.24546173 0.124889895 -0.020390548 -0.1817694 0.027444823 0.009672192 0.1049546 -0.17568411 -0.11164551 0.18293305 -0.20196337 0.21100737 0.22632569 -0.08992762 0.040094852 -0.16397312 -0.18179163 -0.012746707 0.013893863 0.07266323 0.12916102 0.18419291 -0.10135955 -0.13266082 0.2045273 0.18621273 -0.06981092 -0.089963526 0.0670974 -0.22833385 0.061577972 -0.1949878 -0.046052147 -0.20237449 -0.117016315 0.19689563 -0.016222946 -0.0081942165 -0.1948164 -0.17075032 0.064371146 0.015196429 0.14246196 0.22074395 -0.22046883 0.1534279 0.005413631 0.12352053 -0.07901853 -0.16748686 0.23624247 -0.09117615 -0.10945514 0.25344986 0.2704793 -0.028628195 -0.05080663 0.2108812 -0.10835377 0.15799756 
-0.17340742 0.1846775 0.085191905 0.191316 0.09290216 -0.13776062 -0.06967944 -0.099648796 0.07778831 -0.12538794 0.16227478 -0.07941319 0.009448773 0.037870504 0.08655188 
Rect
Linear 15 15
0.157114 -0.11610333 0.065353006 0.015766079 -0.016622556 -0.06837363 -0.08034885 -0.02309607 -0.19490267 -0.21166658 0.23184913 0.10459542 0.10367654 0.049720526 -0.06455323 -0.23577389 0.13653539 0.15281817 0.12905018 -0.00042756647 -0.10473347 0.050625063 0.08548501 0.13469958 -0.009673769 0.06386394 0.26282573 -0.1118392 0.110089496 0.07613577 -0.057675682 0.122547925 -0.10660398 0.25007877 0.15619673 0.228955 0.08750959 0.08692551 0.1417578 0.23851787 -0.0702601 -0.267528 0.03721372 -0.0437827 0.09299814 -0.02083093 0.19579893 -0.24496254 -0.10378448 -0.10572334 -0.16145258 0.0175128 0.21119103 0.078106605 -0.09029263 0.046592586 0.07199047 0.25206384 0.14694118 -0.14607352 0.06283536 0.029165763 0.18181159 0.2115255 0.073870786 0.21846202 -0.17478196 -0.17603457 -0.07917175 -0.1523973 0.16660611 0.117128834 0.042695545 0.25169313 -0.078873955 -0.07212613 -0.026352555 0.10566517 0.15845078 0.029317224 0.08432956 -0.19992521 0.06878104 -0.039805587 -0.04617567 -0.095910475 0.0035225525 -0.0451723 -0.01818377 0.30043986 -0.24303283 -0.12226537 -0.1297396 0.021864096 0.04948972 0.1042419 0.17155567 0.061046842 0.14761741 -0.16334637 0.22558302 0.038860627 -0.2008086 -0.057212837 -0.27143806 -0.23054609 -0.12535946 0.032589644 -1.1324883e-06 -0.052642316 -0.2496508 0.16981423 0.21165618 -0.008885428 -0.23100284 -0.066597864 -0.22896376 -0.15960555 -0.25359124 -0.19620308 0.14279109 0.12001403 0.074360654 0.013113163 0.11751586 0.042173687 0.019244086 0.14828837 0.20001139 -0.26569805 0.097338535 0.1820801 0.10001699 0.060505126 -0.1411929 0.17958063 -0.016037589 -0.12484677 -0.06996346 -0.08863859 0.046211667 -0.0004525945 0.15905033 -0.25101873 0.09518852 -0.1762997 0.1420662 0.22252655 0.029162794 -0.23957582 -0.116615154 0.20998335 -0.07152907 0.128365 0.026167631 -0.004595237 0.11325888 0.20625289 0.08819175 -0.18120778 -0.006012626 -0.047840916 0.0055665947 0.07008878 0.24265102 -0.24207202 -0.1391898 0.13125616 0.14728837 -0.2029141 -0.2310804 0.16627748 0.25694263 0.28027335 0.23170447 0.1427672 0.23678163 0.24646826 0.14786077 -0.06747793 0.09191553 0.09049871 -0.17897192 0.008337522 -0.02706393 -0.19365172 -0.2444232 -0.24821593 -0.09953697 -0.21614513 -0.15439591 -0.07039155 -0.0011739234 0.20446487 -0.040407024 0.17429364 -0.22093606 0.021886634 0.0004897565 0.23070987 0.24693154 0.23238812 0.11068081 -0.10062583 0.19112515 0.21741928 -0.046435535 -0.18210669 0.08181026 -0.061526358 0.12379049 -0.12122377 0.07129 0.06370779 0.2660436 -0.16461122 -0.16560711 -0.23559436 0.0028321855 -0.04080842 0.20418657 0.03147271 0.115682304 0.066331044 0.33323595 
-0.15615909 0.10974511 0.20022142 -0.2549127 -0.18393989 0.1047232 0.2810794 -0.077455714 0.13793215 0.21535586 0.01655349 -0.034021437 0.059428535 -0.011138563 0.004689022 
Rect
Linear 15 15
0.23327778 0.16314818 0.1761348 -0.24619101 -0.1914117 0.2429257 0.046962127 0.03220439 0.10362509 0.025666548 -0.070184864 -0.07275772 -0.14832519 0.23354724 0.25862193 -0.17602819 0.15854634 -0.19755083 -0.115135714 0.07057943 -0.0543198 0.2967548 -0.20667416 -0.0082880305 -0.20686643 -0.13612977 0.049089804 0.14505309 0.22194146 0.051340878 -0.12412144 0.12707055 0.18653773 -0.20607631 0.21506983 -0.04201911 0.23695001 -0.11105354 -0.19531664 0.11392224 -0.054994695 0.26604176 -0.15063542 -0.19153588 -0.24294525 -0.11446622 0.038922153 -0.19672531 0.09627326 -0.18503238 0.030105883 -0.053558856 0.051674128 -0.14206114 0.07791993 0.0042442656 -0.20942697 0.16402096 0.15976287 0.2676957 -0.039529305 0.0112512335 0.13476199 0.081231125 -0.09133895 0.044045698 0.17173457 0.14318258 0.24595125 -0.16632341 0.11451204 -0.16890128 -0.17805344 0.06800363 -0.26813632 -0.22163108 -0.024911374 -0.18317357 -0.113646984 0.094228506 -0.16930825 -0.07413638 0.15640652 0.030807942 -0.25793478 -0.03786187 -0.049667463 -0.11687975 -0.10925263 0.13891354 0.16565946 -0.22277892 0.0033986568 -0.044686094 0.08390781 -0.2019912 0.08050361 -0.24065743 0.018576086 0.047272116 0.034899384 0.1550608 -0.1897384 0.11700937 -0.18638285 -0.13266623 0.004844121 0.12322019 0.18785925 -0.2531009 0.083595365 0.090220265 -0.079368636 0.046904214 -0.004413489 -0.14382252 0.13013703 -0.03818319 -0.22595577 -0.2187256 0.09527925 -0.047791846 0.008415583 -0.08759406 0.010532946 -0.07612937 0.23154183 -0.24096566 0.22241278 0.25232315 -0.1705265 0.20870073 0.04504323 -0.0021643215 -0.02128878 -0.14899547 0.030555328 0.23070116 0.21602342 -0.12135665 0.1425171 -0.18707906 -0.078196794 0.02981478 -0.10982169 0.0777635 0.03834256 -0.1425645 -0.17263283 0.16903113 0.091160335 0.26525027 0.18005371 0.10138982 -0.13905144 -0.2509037 0.23154284 -0.20494723 0.061428577 0.24555594 0.02372947 0.17378071 -0.19227576 -0.19792001 0.16980255 -0.108170286 -0.21652098 -0.258946 0.2217674 -0.14189601 -0.12271754 0.21854737 -0.0792097 -0.24847338 -0.079508334 -0.005051204 4.616573e-05 0.1799001 -0.05815708 0.07012745 -0.19535898 -0.07140966 -0.19045386 0.24079868 0.07623917 0.18637526 -0.19299603 0.227229 0.19916546 -0.19070628 -0.02871187 0.05798778 0.2361098 -0.110324904 -0.057942614 0.08568348 -0.042507358 0.21421847 -0.1434212 0.12330445 0.25409663 -0.27457482 -0.1857084 -0.29172748 0.06285754 0.13880493 -0.2671278 -0.1964442 0.012878192 0.29257363 -0.070792384 0.1402985 -0.052872986 -0.25523013 -0.056850594 -0.16635476 -0.064913 -0.2396803 0.1542979 0.11049037 0.17504613 -0.15219611 0.008001073 0.23805498 0.1695877 
-0.17976168 0.1510958 -0.14461713 0.26453462 0.16083068 -0.032970637 -0.2032345 0.19192772 0.12667102 -0.055685412 -0.057532735 0.1240427 -0.047357187 0.23705971 -0.09181512 
Rect
Linear 15 15
-0.24342617 0.00922358 -0.13517046 -0.1980578 -0.093348935 0.25405678 0.16166922 0.13710284 0.05825901 -0.049319804 -0.08947356 0.043357998 -0.21693312 0.25150445 0.20075458 -0.25432056 -0.099075526 0.0016076565 -0.15919179 0.091367126 0.022529215 -0.08399215 0.047152013 -0.09220274 -0.1368162 -0.14959331 -0.2050753 0.22511464 -0.20442548 -0.21932751 -0.091296494 0.24159922 0.14486606 -0.21003604 -0.24879058 -0.09200089 -0.1663419 0.23144396 0.2704815 -0.21788739 0.22856288 -0.16740035 -0.023884311 -0.24000782 0.031044632 -0.2185324 0.11313985 0.20467094 0.0127552 0.22094414 -0.22100161 0.011750668 -0.10006397 -0.021302057 0.06931513 -0.14086749 -0.18473816 0.027326465 -0.29454488 -0.050476052 -0.14459182 0.057924565 -0.0809714 0.14229849 0.04984877 0.2487407 0.14171642 -0.12108781 0.10273108 -0.10637123 0.07694416 -0.16746067 -0.1279363 -0.0037135568 -0.17994656 -0.10500076 0.034541585 -0.21444187 0.06355932 -0.042329703 -0.015475482 -0.035816 0.270004 0.24277128 -0.28397563 0.29444233 0.2425196 -0.22975542 -0.19893916 0.2027598 -0.13858996 -0.1750425 0.21021038 -0.017792936 -0.263578 0.11479661 0.14582193 0.16980886 -0.07028007 0.16643079 -0.09356346 0.15931617 -0.24634771 -0.07101336 -0.17240919 -0.23422913 -0.023695594 0.18122333 -0.06530959 -0.17230064 0.08440426 0.19009233 -0.19335826 -0.044086095 0.21557611 -0.17069742 -0.2058388 -0.23356825 0.12401034 0.11545462 0.21500702 0.07186878 0.19859578 -0.21215156 0.12942837 0.16867507 0.25089523 -0.22781464 -0.13699839 0.008999248 0.10202817 0.008058921 0.06515229 -0.014515486 -0.019067604 0.22184637 0.111115426 -0.2477367 0.11181155 -0.181209 0.25050327 -0.055313498 -0.02354297 0.114367396 -0.13684815 0.03363356 0.20150203 0.1455206 -0.13478704 0.1935778 -0.1765178 0.044974238 0.2476699 -0.116648614 -0.033336982 0.12207368 0.1661404 -0.049708456 -0.02474612 -0.23121263 0.21120346 -0.17099023 0.24916187 0.23490056 0.25680014 -0.07429953 -0.03873576 -0.23686291 -0.04359655 -0.14572322 -0.0926245 -0.068032205 -0.13355878 -0.018401174 0.045561824 -0.022509586 0.18739289 0.10697612 0.17940764 0.02635963 0.14045502 -0.0320186 -0.05269409 0.17580152 -0.008034943 0.17168143 0.0042153597 -0.25881234 0.07402029 0.24703674 -0.07243259 0.15234098 -0.098310664 0.20377848 -0.007527214 0.004830185 0.20370719 0.13960767 0.061346136 -0.07926932 -0.04554455 -0.16990826 0.066046745 -0.10241204 -0.07030746 -0.018985428 -0.2043634 -0.14085153 -0.24678652 0.16012865 -0.117677435 -0.21790816 0.21547559 0.15637484 -0.13219419 -0.25198278 0.19160643 0.23841196 0.16028509 0.19700587 0.15380222 -0.20856184 -0.17981812 -0.11855973 -0.04271318 
-0.09923968 -0.11352734 0.23105451 0.23498733 0.0034447992 0.0642274 0.06262569 -0.0036197985 0.21196596 -0.0894815 -0.1492583 -0.05742526 0.071720935 0.12687618 -0.22592661 
Rect
Linear 15 2
0.23045406 0.19639212 -0.1457409 -0.2164484 0.09091621 -0.29803285 -0.18927383 -0.20720947 -0.038768925 -0.19956484 -0.018129587 -0.23604865 0.04580964 -0.10409041 0.09655902 -0.18521231 0.06946701 0.18751793 0.22963566 0.24067281 0.17727004 -0.11947985 0.22194737 0.04748395 -0.1651136 0.10327682 0.21795116 -0.17516646 0.08287382 0.045741946 
0.15053777 -0.1021067 
