Linear 19 15
-0.1068324 0.19436638 -0.060896054 0.20018907 0.09704091 -0.028604146 -0.120178215 0.023634579 -0.055937294 0.09896505 -0.22666612 0.14236747 -0.2058608 0.11701675 0.18335716 0.099241994 0.22145887 -0.06927528 -0.06271387 0.10972785 -0.19146636 -0.1546641 -0.17715481 -0.011868024 0.076370314 0.04208188 0.11898114 0.18700558 -0.101155 -0.08877258 0.0896516 -0.025178807 -0.21693167 -0.17882258 -0.032140963 0.14732388 -0.063782044 -0.17609099 -0.123423696 -0.04804574 -0.040987227 0.07091396 -0.026092464 0.009642534 -0.012799888 0.0073197884 0.061666947 0.022762332 0.11442977 -0.078772895 0.15946898 -0.04262371 -0.19711223 -0.028560523 0.04079073 0.11958357 0.13132259 -0.08345306 0.037712403 -0.051906306 -0.058008906 0.20027186 -0.08810564 0.17613684 -0.12629628 -0.093252085 -0.045268852 -0.15311517 0.092594296 -0.19779302 0.08857608 -0.06774285 0.05076464 -0.14801489 -0.15147133 0.10209616 -0.1104881 -0.086052336 0.17653033 -0.04037804 0.12757741 0.07748005 -0.1703375 -0.14298442 -0.040525094 0.08677267 0.1618178 0.14072445 -0.1758763 0.2138499 -0.060813934 -0.06812352 -0.027512684 0.03468603 -0.17006677 -0.17874259 0.014129754 -0.14079618 -0.015600238 0.07887464 0.059950154 0.025729429 0.21093893 -0.15980129 0.1319531 -0.2177892 -0.17136526 0.01371433 0.1866563 -0.15285456 -0.12585802 -0.0247432 0.049192473 0.17123003 0.03541531 -0.19460851 -0.18450142 -0.086410634 0.12669526 -0.120616525 0.09332747 0.18658012 -0.19746621 -0.14213745 0.045647673 0.13460176 0.1192102 -0.19813052 -0.18560612 -0.11051875 0.004295469 0.20652477 -0.000535972 -0.079585634 0.11330834 0.060532633 -0.053712852 -0.10364765 -0.058715463 -0.0066568037 -0.08056238 -0.2153984 0.007981587 -0.12014787 0.09975867 0.06782291 0.20666046 0.09934576 0.030707253 0.16742359 -0.06481557 -0.11363014 0.23185109 0.017182376 0.09421545 0.13489075 -0.09860161 -0.18311244 -0.16600518 -0.053918295 0.06792669 -0.11754052 0.031271275 -0.13505052 0.0023849723 -0.18412374 -0.17914537 0.10848175 0.096582025 -0.0230875 -0.22622566 -0.021186545 0.068568334 0.0038752854 -0.16918537 0.1389286 -0.2133255 -0.10546167 -0.087663054 -0.14002499 0.03182535 -0.19239302 -0.20083576 0.013192281 0.05512418 -0.027926147 -0.05068788 -0.22780614 -0.121072076 0.12427594 -0.03968364 0.16480324 -0.13914737 -0.21326683 0.040124606 0.12488182 0.105286956 -0.13045347 0.18090385 -0.09077756 0.19543903 0.15022391 0.09416967 0.16216187 0.06687691 0.06989762 0.06678422 -0.1390661 -0.1772391 0.08027829 0.18401746 -0.20033497 0.03849338 0.09497537 -0.023077607 0.0067302105 0.087203786 -0.11144891 0.22410636 -0.15636635 0.06983646 0.15667687 -0.14785206 0.2125541 0.09112377 0.058871247 0.115600705 0.21793596 -0.01984992 -0.1962975 -0.08555144 -0.013079705 0.20670894 0.16195291 -0.037554003 0.15896425 0.04535024 -0.11281226 0.2040516 0.18690416 -0.22761968 -0.037877753 -0.19857503 -0.12671511 0.16986069 0.19978185 -0.09920019 0.062579505 0.22525124 0.10723566 -0.009136294 -0.13556705 0.16274683 0.14997056 0.04601514 0.1898439 0.14911295 -0.1581286 -0.16565299 -0.18198915 -0.022728872 -0.051841132 0.030098602 -0.15357104 0.09082692 -0.08655138 -0.20444964 -0.03365004 0.13458107 -0.22001836 -0.013758162 -0.19534591 0.14027506 -0.2199223 -0.115688086 0.10706444 -0.017255764 -0.04453408 -0.09518929 0.073751345 -0.16505058 0.1781003 -0.02909195 -0.14316936 -0.025189247 
-0.20937897 0.074354194 0.15410276 -0.08030502 -0.0317136 0.21433793 0.13978916 0.11148793 0.02822161 -0.20424448 0.036693815 -0.005861814 -0.14516607 -0.09946311 -0.09919049 
Rect
Linear 15 15
0.043132395 -0.14361124 0.0731808 0.03328169 -0.17087351 0.24872282 0.24886371 0.13816427 0.24775898 0.11669624 -0.15146495 0.22249053 -0.18178421 0.0053292043 -0.22276251 -0.24998803 0.18030904 0.06369807 0.16509001 0.04029912 0.065211535 -0.04725905 0.2416845 -0.09480339 0.040224344 -0.18847121 -0.21871339 0.08239872 -0.25202766 0.08599073 0.15935922 0.06415206 -0.02612278 0.23024742 -0.07423501 0.22829789 -0.14704755 0.080743365 -0.0032449618 0.21667254 0.23221323 -0.20751782 -0.12780125 -0.07708483 0.09808946 0.20664246 0.19396007 0.15409605 -0.028780408 -0.020732507 0.07192879 -0.046222936 0.1174066 0.12464179 -0.16903791 -0.1958585 0.16654128 0.06481658 -0.23541154 -0.072827965 0.091678455 0.101841144 0.21066783 0.082009055 -0.2549235 -0.0861757 -0.25155142 -0.16559519 -0.2517474 -0.04548326 0.22842818 -0.11767487 0.21204221 0.16270503 -0.07434649 -0.076532036 -0.14012443 0.00057329395 0.034121953 0.05509721 0.04162472 -0.1714448 -0.06256946 -0.19303046 0.10376799 0.13211101 0.20763196 -0.05494602 -0.21321252 0.084993646 0.25081638 -0.16886342 0.16202894 -0.18018726 0.23453964 -0.13260578 -0.25142398 -0.18346356 0.13955773 0.069604486 -0.08519034 -0.21201083 0.16182801 -0.09816642 -0.047192886 0.2498573 0.23245971 -0.06666537 -0.2225405 -0.24660595 -0.20305744 -0.02213264 0.13439539 0.08762907 -0.019376382 -0.07720438 0.25931764 -0.23187566 -0.17749707 -0.12263651 -0.04996668 0.106114924 -0.1477036 -0.22222231 0.080227636 0.18000877 -0.020539643 -0.0716494 -0.037999213 0.10712755 -0.085073665 0.17180271 0.2140309 0.025908113 0.12895834 0.03531875 0.077775866 -0.08412934 0.24032602 -0.03809506 -0.15071921 0.24200834 0.16263981 -0.17180209 -0.0006378889 -0.19075376 -0.20831472 0.11872833 0.117221884 -0.09374408 0.22587648 0.2472423 -0.22225466 0.037825458 -0.11024509 0.23200876 0.029304994 -0.016849557 -0.21759178 -0.24737899 0.036756974 -0.10251194 -0.0955392 0.18768947 0.13187186 -0.19468829 0.1947108 0.20874614 0.009770435 -0.17770138 0.16204163 0.08605738 -0.24050531 -0.0016436954 -0.12366532 0.061545778 -0.22475669 -0.21934336 -0.13633613 0.22046067 -0.025682345 -0.033239305 0.17144594 0.1592207 -0.22894832 -0.070514336 0.22142649 -0.21132597 -0.121819824 0.16361094 0.22969759 -0.03263338 -0.03696184 -0.017529815 -0.09864175 0.066931814 0.12301239 0.024414986 0.21433663 0.024050593 -0.099163994 0.13256553 0.12207514 -0.23780315 -0.18661243 -0.19701111 -0.18505338 0.010402858 0.021689177 -0.035187602 0.16647679 -0.23205787 0.009404397 -0.24067771 0.08792305 -0.23636487 0.02926535 -0.2000508 -0.09277001 0.24620649 0.22469862 -0.24119386 0.018353397 0.24924186 0.05059354 
0.1589294 0.21453643 0.19419375 0.04758838 0.048786882 0.21767358 -0.12796164 -0.1243299 -0.15769728 0.0179234 0.12126001 0.25209498 -0.11622211 -0.067935735 -0.05796642 
Rect
Linear 15 15
-0.0051060566 -0.18877836 -0.2528527 -0.200771 -0.1028572 -0.20297247 -0.22209124 0.09388791 -0.119975716 0.18128522 -0.13365634 -0.0079642385 0.0031780303 0.17156678 0.20268667 0.0651212 0.10595769 -0.05338663 -0.19588627 -0.07497007 -0.15255946 -0.015578598 0.2361615 -0.18936029 0.0112939775 -0.14605004 0.05879253 0.09535015 -0.19737175 -0.10166906 -0.2335123 -0.13376728 -0.026417673 -0.11522013 0.18399006 0.25362524 -0.24283181 0.08669427 0.06930196 -0.24167477 -0.05658126 -0.11905418 0.16342765 -0.16440454 0.154796 0.12867406 0.04333201 0.04852408 0.16977602 -0.1808975 -0.027424157 0.050654322 -0.028007746 -0.034830064 -0.08167796 -0.014376774 -0.043274388 0.021715999 0.23401445 -0.0062505007 0.06812649 0.21438295 -0.030758537 -0.13297164 0.21586762 -0.20739652 -0.2572119 -0.12585224 -0.16033344 -0.24753289 0.13377008 0.10117841 -0.25776622 0.18730056 -0.1812584 -0.102764025 0.10188958 0.09925869 0.097420275 -0.07587686 -0.028484747 0.21988621 0.13357353 -0.035018593 -0.18378386 -0.15961742 -0.07040818 -0.23010859 -0.09664963 0.1711041 0.13899374 -0.13759075 0.12199808 0.24873376 0.23553954 0.22975808 0.23047304 0.014805823 0.07528846 0.2014808 -0.0008230931 -0.22072208 0.23783195 0.028239101 -0.11602076 0.021666616 0.045615066 0.2565777 -0.11219194 -0.08913869 -0.008957445 0.24289486 -0.08357761 -0.02177336 -0.15003449 0.07063501 0.09837964 0.11811364 -0.22626115 -0.18931791 0.18113588 0.0411806 -0.114477836 0.1610062 -0.18941861 0.18640564 0.122560084 0.032810397 -0.014972318 0.02233901 0.1053579 -0.19584312 -0.041661963 0.10583553 0.2507623 0.093134195 0.24004999 0.19104713 -0.14776099 0.17131254 0.010080099 -0.25068325 -0.06524734 0.12436026 -0.03669268 0.008267939 -0.06655988 -0.23168331 -0.059343606 0.22845253 0.19822273 0.0714843 -0.11010203 -0.11949852 0.07237035 -0.1475327 -0.18588908 0.22547549 0.17845607 0.017479092 0.09587458 -0.15879546 -0.14593585 0.16087922 0.23765942 -0.16433856 -0.18316573 -0.036496338 -0.11265594 0.21867995 0.2014649 0.019906461 -0.013559488 -0.12678906 0.22728693 0.14655678 0.25138858 -0.22546369 0.16472253 -0.2374194 0.23250079 0.1677056 -0.13004598 -0.011958286 -0.04244359 0.05119562 0.2103396 -0.00561437 -0.0994111 0.23733166 -0.0031442642 0.028546572 0.204893 -0.1682644 0.010088712 -0.10805913 0.048509654 0.057534788 0.07829006 -0.18113516 0.20303881 0.2044584 0.19504648 0.046467654 -0.12523803 0.11516883 -0.023646796 -0.14239572 0.043662637 -0.20718987 0.22149578 0.010016816 -0.2028378 0.064115025 0.16293833 0.054626454 0.1517079 0.14207467 0.07004867 -0.13477631 -0.05425626 0.04359638 0.03643921 0.17793322 -0.21647935 
0.10061085 -0.110444784 -0.03935197 -0.2538801 -0.05854215 -0.19467041 0.1800759 0.0028721585 -0.1387794 -0.21646084 -0.23366235 -0.03881527 -0.24688229 0.19541217 0.03542281 
Rect
Linear 15 15
0.08484262 -0.0086651 -0.024439946 -0.09239879 0.23156545 0.17661339 -0.019840077 -0.039839625 -0.23840418 0.08742899 -0.18166354 0.16539374 0.1216723 -0.122766644 0.044346184 -0.04672639 0.068739206 0.08627847 -0.033497468 0.0880436 0.22173858 -0.15112488 -0.021578506 0.18168107 -0.024698257 0.22323495 -0.08938177 0.18713647 -0.13894308 -0.03480114 0.21525025 -0.20001948 -0.12236376 0.022087097 -0.07698007 0.07329553 0.08961573 0.18190762 -0.25460047 0.055333823 0.22149655 -0.18011072 -0.101536185 0.06547028 0.08498958 0.17515416 -0.109425455 0.03145641 0.20714164 0.18748134 -0.0313458 0.18727188 -0.17045845 -0.2452959 -0.0927656 -0.11283222 -0.16742045 -0.012724817 0.17437142 0.1805091 0.15014015 -0.021917924 0.04925883 -0.22398359 -0.17232661 -0.021856979 -0.15659553 0.16086872 0.13310629 -0.23692214 -0.14892314 -0.18251362 -0.17059575 -0.015365396 -0.18228586 -0.22755027 0.13821226 0.098365664 0.11199686 -0.16095579 0.10411817 0.2076256 -0.250726 -0.06115155 0.12229189 -0.109240994 0.03449288 0.103458434 0.016260624 -0.20896958 0.13269925 0.024635226 0.20460922 -0.089300975 0.25047138 -0.18917774 0.22038871 -0.22856367 -0.10390586 0.15160519 -0.06802195 -0.036242083 -0.06551418 -0.22144789 0.18390957 -0.16205019 -0.07782483 0.1947189 -0.07071644 -0.03569624 -0.055093363 -0.05812113 -0.015431926 0.20278433 -0.007989168 0.08582878 0.08438173 -0.25191617 -0.18495165 0.008463442 0.020800382 -0.07643445 0.1712468 0.010022938 -0.029399082 0.23307899 -0.093890876 0.020663619 -0.20290598 0.25169685 0.100752115 -0.25334045 0.1724208 0.15535384 0.18211591 0.15150623 0.1131638 0.11618927 -0.18390203 -0.14177959 0.15442812 -0.1331738 0.13683774 -0.0006741414 0.05032438 0.16355777 -0.13887103 -0.19000553 -0.038773734 0.10805477 -0.22555017 0.12661913 0.02952978 -0.20542905 0.1333406 0.009076834 -0.20973578 0.044295967 -0.2165312 -0.042662248 -0.17915401 0.2340821 -0.075237945 -0.15347236 0.20037192 0.03345869 0.033007383 -0.0737997 -0.082836434 -0.08423245 -0.1469849 0.1735286 0.037879363 0.2644989 0.15340498 -0.047446087 -0.08339483 -0.15813613 0.043318387 -0.09549929 0.24508587 -0.008635953 0.24027771 0.13119972 -0.11930387 0.20736668 0.072969556 -0.12694271 0.0972732 -0.12562177 0.23272541 0.055593967 0.23235199 -0.217096 -0.0018418133 0.053957283 -0.13428952 -0.10071929 -0.14435633 0.02097556 0.009021878 0.02788431 -0.07471124 -0.05091457 -0.07190244 -0.10871278 0.07552834 0.016602546 -0.009404884 -0.22679153 -0.120858386 -0.2003882 0.1966213 -0.16105998 -0.051635727 0.19353235 0.01695913 -0.2503705 0.14940879 -0.020351917 -0.1731337 0.19540223 0.25803253 -0.1067912 -0.14754206 
-0.022524029 0.028012991 -0.08773601 0.05406561 0.12689404 -0.23024885 -0.12164758 -0.1153263 -0.25798762 0.15500157 -0.14429352 0.17044027 -0.044107378 0.22726756 -0.016763896 
Rect
Linear 15 2
0.07809082 -0.10132639 -0.13248579 0.13774543 -0.02525737 0.041812986 -0.12319088 -0.21037856 -0.114144266 -0.27060255 0.24138871 -0.0108153215 0.13248992 0.22803734 -0.035437852 0.0018778443 -0.18488926 0.03378716 -0.07144642 0.16556455 -0.025454938 -0.13994312 0.23593336 0.05159962 0.03618151 0.15414575 -0.20545878 -0.10590699 0.029194053 0.021808416 
0.09677078 0.06437522 
