Linear 19 30
-0.10470044 0.044622757 0.061355535 0.031093797 0.020423273 -0.18483573 -0.0893594 0.023480637 0.117870435 0.09090599 0.07290962 -0.057308067 0.00040020578 0.093271166 -0.10872763 -0.022854008 -0.082250364 -0.09933313 -0.22240517 -0.1365217 -0.083261795 0.21212061 -0.008008036 0.1332807 0.19870558 -0.13038687 -0.045350194 -0.19479068 0.16914825 -0.0471068 -0.22488964 -0.28778082 0.08281152 -0.04731052 0.13469489 -0.09385329 0.019134214 0.14217508 -0.10697862 -0.19549197 0.096573934 0.043024357 0.14016667 -0.102206185 -0.07656653 0.061616506 -0.047460917 -0.19693053 0.0045487373 0.39332289 0.5612308 0.13480434 0.09854792 0.1783002 0.21245427 -0.10848498 -0.13572928 0.14300834 -0.05169213 -0.051841795 -0.13921534 0.16877009 0.19368944 -0.15723893 -0.014646266 -0.15886167 0.1116739 -0.010863577 0.22425704 0.29763484 0.08785146 0.13118923 0.20392245 -0.16679147 0.14416611 0.03672474 -0.06653002 -0.15452214 -0.10948282 -0.14581554 0.1468424 0.06615642 0.009588251 -0.1271022 -0.15846027 0.18541238 -0.14416718 0.22377062 -0.07139619 0.15251964 0.04924783 -0.12593992 0.20709343 -0.21189585 -0.050907552 0.12453514 0.108017564 -0.18266715 -0.12785602 -0.2418177 0.06271624 0.008470587 -0.085925214 -0.19296257 -0.105289206 -0.01858609 0.09007012 -0.015030926 0.027152896 0.13556583 -0.17455845 -0.22394869 0.09063624 -0.09912569 -0.20716247 0.07751155 -0.21134864 0.19553953 -0.0006943189 -0.19135451 -0.061893694 -0.08833651 0.16854605 0.14357017 -0.062202923 0.1677981 0.13271768 -0.1949889 0.1504521 0.05177932 0.19859768 0.16777827 -0.1777767 0.026002726 0.010600659 -0.08433172 0.07877158 0.1663247 0.024026258 -0.14937896 0.17049871 -0.13920419 0.18670756 0.07853694 0.015596775 -0.17820859 -0.12821318 0.22310388 0.22416703 -0.11364641 -0.051643427 0.13562624 -0.1737002 0.2007546 0.17534365 -0.23354869 0.026827302 -0.08372971 0.1488997 -0.098442264 0.10672695 0.039881334 0.17181012 0.25542745 0.3272939 0.107937455 0.08884898 0.037465688 0.06920432 -0.15968122 0.06521783 0.084979445 0.021765757 -0.13214326 0.087017626 0.22996512 -0.023239778 -0.19797692 -0.16041738 -0.16295435 -0.008908557 0.06044758 0.16782446 0.23504314 -0.09196274 -0.033815525 -0.042948537 0.03991573 0.11451742 -0.21641247 0.01749845 0.18015426 0.14212786 -0.07364685 0.20528178 -0.13812114 0.09191607 -0.007828307 0.053802785 0.02439977 -0.11494512 -0.030011395 -0.11404292 0.15784854 -0.2251734 0.045687765 -0.26983953 -0.19420542 0.15836345 -0.18053721 0.20330866 0.038270384 -0.18327059 0.16452143 0.070848346 -0.09764709 -0.0025140303 -0.016540274 -0.019827673 -0.09472125 0.08523375 0.23348522 -0.15745682 0.055828124 0.14575246 -0.0025158138 0.11405626 0.012519137 -0.010536561 0.026422875 0.06968862 -0.095031925 -0.023121245 -0.031124579 -0.10874826 0.19388072 -0.18640465 -0.17068015 0.018735567 -0.13950896 -0.038021676 -0.0028136352 -0.16374426 -0.033165492 0.015794786 -0.22246753 0.091683 0.1896103 -0.19634357 0.15761141 -0.22772877 0.038315255 0.2252199 0.19707482 0.024493944 0.16677536 0.06557441 0.11693198 0.027525341 -0.30681545 0.04534187 0.03803324 0.007942533 0.24987267 -0.15518816 -0.09936549 0.15150785 -0.064078204 -0.022475744 -0.17179303 0.055558186 0.04352796 0.028422 0.06508684 -0.011598984 -0.16207969 -0.13141322 -0.1698476 -0.18999293 0.15286323 0.23769403 0.12159157 -0.009908314 -0.010871381 0.16046135 0.10361625 0.03922562 0.22446302 0.23627682 -0.13219008 -0.08301387 0.12415169 0.082261495 0.097379595 -0.0016801861 0.056365624 -0.19238581 -0.14895225 -0.21970959 0.17826426 -0.081769064 -0.19031152 -0.22261332 -0.018387306 0.2301091 -0.25812262 -0.058352314 -0.11281686 0.17681421 -0.17438173 0.1706525 -0.09706685 0.070073165 0.13146396 0.09686039 0.1341125 -0.13718536 -0.27667284 0.07834988 -0.19369984 -0.07364247 0.14122127 0.14321312 0.2405604 -0.035796642 -0.04547553 -0.044496432 0.13141757 0.07309724 0.17932978 -0.22513585 -0.07990708 0.053466637 -0.094223045 0.17271632 0.060150623 -0.11077841 -0.06455893 -0.16102673 -0.09643403 0.0174824 -0.15368769 -0.1576544 0.17937997 -0.18339218 0.12190385 -0.2567976 0.07335615 0.11892815 0.12983654 0.15424335 0.09976638 -0.13561998 -0.10874684 -0.39957252 -0.12721418 -0.109800115 0.16288808 0.16734153 0.17675315 -0.18259479 0.22199091 0.030627647 0.13212778 0.16626135 -0.11027089 0.10388664 -0.2250409 -0.14638965 -0.18525282 -0.05888417 0.15281679 0.21142015 0.41094142 0.12744254 -0.18849732 0.12060498 -0.07953721 0.06405858 0.04141151 0.12781343 -0.06685505 0.15797967 -0.18882759 -0.05642486 -0.097289 -0.19359353 0.10481942 0.06431461 -0.092711374 -0.15007667 -0.0967129 0.020617198 -0.09859235 -0.0051110517 -0.037967183 0.11961506 -0.17955257 -0.14794837 -0.011850629 -0.13590841 0.14740646 0.17163092 -0.11567622 0.051855188 -0.22274733 0.19634339 0.18011072 0.22673158 0.13045928 0.10831101 0.2689401 -0.037432287 0.19488111 -0.054505467 -0.13911773 -0.0959093 0.16347048 -0.041387245 0.25345546 0.2174778 0.081678204 -0.22160155 0.04364826 0.121102005 0.06186917 0.19343774 0.078658216 0.16997088 0.03858844 -0.23936744 0.22215563 0.01898231 0.07959018 0.0702721 0.053853594 -0.19632255 -0.1616024 0.16320193 0.002798797 0.021145556 0.026354954 0.15224667 -0.13067669 -0.060322337 0.14329621 -0.010230126 -0.10955563 -0.02662808 0.057710018 -0.023323078 0.030430062 0.040089965 -0.08270011 -0.08452642 0.20562713 -0.006684603 0.20679188 0.21270548 -0.25255266 -0.11361364 0.05121536 0.11143443 -0.19090411 -0.1686729 0.076872155 -0.01122047 -0.025300412 0.39396358 0.07300803 0.2355335 -0.10524494 -0.020708065 -0.04059248 0.011531401 0.104449 0.009743954 -0.056002047 0.009898086 -0.22515398 0.04027081 0.036692724 -0.058565274 0.21410914 0.19371623 -0.08949861 0.07439904 -0.2174893 0.12651621 0.13913047 -0.11589375 -0.2185431 -0.18002096 0.062114306 -0.22566639 0.0646683 -0.122533 -0.20982218 -0.016415298 -0.20548123 0.18700829 0.18204182 -0.17788538 0.11942746 -0.18012892 0.107012205 0.20580389 -0.08463895 -0.026307289 -0.047807172 -0.17459235 -0.24449411 -0.10339951 0.2364095 0.07631821 -0.016583733 -0.24727997 0.15119067 0.03843847 0.03611893 -0.20019656 -0.1523495 -0.06893123 0.2735382 0.07153446 0.24696839 0.12475605 -0.020065326 -0.06284227 0.12003838 0.056538735 0.062800325 -0.12035862 0.13146056 0.12802123 0.018056663 0.16686955 -0.01927741 -0.06154043 0.15707976 0.07620806 0.15777038 0.36580956 0.25172284 0.49870545 0.1373922 0.047796473 -0.089619204 -0.050387047 0.04914774 -0.03417189 0.10010655 -0.1617464 -0.0871956 -0.046968598 -0.096574426 -0.1534239 0.004425196 0.1362509 0.02389446 -0.0281198 -0.14743496 -0.13841803 0.05283452 0.23097107 -0.14388937 0.029960727 -0.09702114 0.13217354 -0.023986476 
-0.18794812 0.22312342 0.053829055 -0.16892782 -0.16903506 0.10025015 -0.15291081 0.23587458 0.053918406 -0.02066718 0.01015535 -0.15534732 0.06278841 0.17233327 -0.15113 0.015161859 0.011892474 0.20757905 0.16871133 -0.0015051704 0.06141245 0.054923408 -0.14390354 -0.058555808 -0.1782467 -0.14398894 0.015677428 0.1913328 0.024254983 0.015435612 
Rect
Linear 30 30
0.02841784 0.08250474 -0.25528196 0.07801936 0.08077976 0.02999871 -0.0175913 0.071138136 0.14746529 -0.0033569152 -0.014594519 -0.07454186 0.06685584 0.09408015 0.1629456 0.011381106 0.055291872 -0.1337767 0.060646918 0.068226576 0.14279526 0.001907186 0.07743296 -0.029285356 -0.13911702 0.00790296 0.08601154 -0.10386731 -0.16143917 -0.0040629287 -0.09946337 -0.021233754 -0.09503188 0.18543139 0.034257244 0.117742404 0.019357532 -0.15147255 -0.0036221747 -0.03220854 0.1163095 0.06321126 -0.08458629 0.013462522 0.15101394 -0.045185484 -0.13216694 0.14792517 -0.036536753 0.051872917 0.03785728 -0.13999763 -0.07668017 -0.09286506 0.1784192 0.14770958 -0.1311637 -0.077894025 0.19352381 -0.07631969 -0.16897467 -0.06041845 -0.19831607 -0.17259684 0.16496815 0.020205949 0.002898619 0.1514278 -0.12080138 -0.19498177 0.020084042 0.070145436 -0.05797069 0.25546423 0.049852066 0.027760023 -0.06666126 0.037898358 0.14765081 -0.090050936 -0.093476966 0.004844826 0.087591834 0.060462333 -0.063989624 0.0030415219 -0.14160995 -0.07121114 -0.040180787 -0.07010157 -0.17206693 -0.13947666 0.053697992 -0.09745143 0.005226509 0.13322155 -0.2051719 -0.0814769 -0.10546843 0.013017613 -0.14935493 -0.18079416 0.030303515 -0.032296225 -0.0021492545 0.0061876015 0.13258377 0.16109043 0.13559459 0.07757371 0.03979555 0.100830406 0.000995004 -0.100720905 -0.13066421 0.059469502 0.060935296 -0.038587358 0.126434 -0.13965102 0.0012736277 -0.0013478184 -0.23835684 -0.18271421 0.15511018 -0.0067047407 0.050988305 0.051138274 -0.018270072 -0.17670174 0.031699125 -0.13971587 0.14590393 0.13204437 -0.06468397 0.14930637 0.1410189 0.12535486 0.26008686 0.044335745 0.018850382 0.1523074 0.09312929 -0.14747971 0.120832205 0.1617209 0.0787977 0.10362437 -0.14852294 -0.10256 -0.1799374 0.01614523 0.0327247 -0.0657292 0.090510905 0.07279417 0.10767967 -0.13964579 0.11126833 0.084701516 0.15297417 0.00534772 -0.13088349 0.13520165 -0.0719458 -0.15333381 0.011248699 0.12475596 -0.08984968 -0.07538452 -0.116465285 0.011019363 -0.18373796 0.056197878 -0.007514243 -0.13277654 0.017717764 0.04093747 0.035383232 0.17363712 0.06956276 0.027630249 0.1521175 0.11831122 -0.0656306 0.029631788 -0.0019023591 0.058818933 -0.08737672 -0.16705249 0.15700583 0.009758353 0.012964081 0.12341884 0.012836259 0.097007886 0.09819269 -0.10200068 0.05109012 -0.008279209 -0.005312732 0.114898406 0.034521066 0.08442306 -0.12797177 -0.1305959 0.1573085 -0.12704265 0.056256738 -0.16391931 -0.015867919 -0.090310626 -0.14680688 -0.07172613 -0.17587477 0.032826453 -0.03871742 0.036390617 -0.122413166 0.1349045 -0.11578708 -0.116224095 0.07966924 -0.16872406 0.1132918 0.020689636 0.07789415 0.1491735 0.16872394 0.022127852 0.08600202 -0.17046866 -0.09237427 -0.08135066 -0.051563114 0.0056004226 -0.15578365 0.025594056 -0.14344831 -0.051107213 0.069405794 0.039501436 0.24694572 -0.010155231 0.14529489 -0.09475074 0.10400883 0.024343621 0.16674946 -0.09161406 -0.16343002 0.099918246 -0.1927232 -0.15869436 -0.015123516 -0.015634269 -0.08704909 0.13036443 -0.1899915 0.027464543 0.06424752 0.05991103 0.04925577 0.14884815 0.026360003 -0.09581869 -0.08103348 0.21212901 0.15401646 -0.13705277 0.08664179 0.11037201 -0.17693518 0.017261574 -0.17406718 -0.07949356 -0.0895714 -0.10736794 -0.18706454 -0.13012287 -0.13167983 0.0662249 -0.04779185 0.022985844 0.096690744 0.06425015 0.091367416 -0.14368892 -0.028237958 0.049029067 0.1706953 0.059975687 -0.144668 -0.064210795 -0.010914445 -0.0069386694 0.16993314 -0.074475564 0.10266056 -0.14087902 -0.006088443 0.113677196 0.1739716 -0.0015879391 0.14113238 -0.11914793 -0.13319841 -0.10122034 -0.16005878 -7.397992e-05 -0.054495126 -0.077444375 -0.13059679 0.11563391 -0.039247885 0.079858035 -0.15670969 -0.093923 0.086187996 -0.16808757 -0.13463971 -0.036259025 0.029746505 -0.15276967 -0.119583994 -0.17462295 -0.020000696 0.06498099 -0.065039925 0.16967005 -0.06364357 0.10587819 -0.022453483 -0.12114796 -0.108825 0.009150014 0.030191742 -0.1565351 -0.1053288 0.10448549 0.0961255 0.16739032 -0.08129497 -0.07474612 0.17395684 -0.16193709 -0.052915625 -0.18892904 -0.032020908 -0.038166735 -0.0064527085 -0.09705422 0.13261102 0.030816145 -0.16529347 -0.14122923 0.09285887 -0.055449486 -0.08572993 -0.115692854 0.022910168 0.17207459 -0.053918142 -0.18589145 -0.08140859 0.07865141 -0.11005447 -0.077806495 0.14479521 0.109738514 -0.021467872 -0.060821272 -0.07320832 0.13324797 -0.13143168 -0.12708841 0.077014595 -0.1810895 0.06813743 -0.030564934 0.07224479 -0.18441935 0.16233172 -0.028729802 0.021240292 0.17078348 -0.13396583 -0.047832288 0.035750367 0.10394182 -0.08687308 -0.21773341 0.24287462 0.12628362 -0.0057076197 -0.12500471 -0.0775867 0.12476828 0.28028965 0.09282936 0.17216676 0.13052838 0.11069625 -0.08970347 -0.124578156 -0.1733937 -0.15477292 0.078290366 -0.20882556 0.1605421 -0.18752703 0.14740914 0.10216943 0.019808656 0.12898341 0.015170544 0.104337126 0.2176231 0.30151716 -0.028932448 -0.13792102 0.04109993 0.1565602 -0.035000466 0.10675387 -0.11223764 0.014711245 0.0060051335 0.19477737 0.13258232 0.074564494 0.12067933 0.1332166 0.1659213 0.03147927 0.028591359 -0.17756768 -0.05683627 0.050421637 0.039519947 -0.084833786 -0.086998254 0.03739382 0.008643304 -0.12567632 -0.116163224 0.17063512 -0.13236861 -0.0793193 -0.046527617 -0.117544115 0.20912133 0.083711244 0.080443285 -0.15797132 -0.067284375 0.057444315 0.09463919 -0.16087626 0.06780097 0.0331885 -0.15394884 0.13503817 -0.0013801479 0.16527146 0.11143534 0.10968064 -0.047716253 0.26886788 -0.16421571 -0.13448156 -0.020562734 -0.024235977 -0.097941466 -0.05505924 -0.0858964 0.1333522 0.14778456 0.05301614 -0.19498679 -0.11591158 0.02732347 -0.1434352 -0.047481343 0.12983711 -0.025386157 0.048225876 0.05945924 -0.042678397 -0.15180473 -0.13943431 -0.052753102 -0.1701371 -0.06806237 0.1426475 -0.010579602 -0.040405173 0.076094784 -0.17114839 0.04901346 0.043076452 0.058697462 -0.16001919 0.1253458 0.16789232 0.04885867 -0.09702876 0.1250825 0.058412872 -0.0030195997 0.0426627 0.02970634 0.014495246 -0.004130135 0.11950903 0.03213838 0.086593464 0.06771237 0.06728373 0.132565 0.10198528 -0.009921483 0.09049014 0.12289662 -0.028915523 -0.21448524 -0.13428907 0.04847328 -0.24130107 0.047902685 0.09027747 0.15871826 -0.12928821 -0.17884973 -0.039814312 0.032383554 -0.15500133 0.14293993 0.23021029 0.012612403 0.04065604 -0.14477026 0.16371045 -0.012259989 -0.122875914 0.058644865 -0.16156086 -0.0096350545 0.020519845 -0.041173093 0.1679781 -0.10303083 -0.0032708158 -0.1547163 0.033607844 0.1198716 0.053397216 0.07417983 0.106090136 -0.041574925 0.13725676 0.08671251 0.046550713 0.11090896 -0.13413045 0.1500831 0.15235128 0.00030029804 -0.028667219 -0.071860634 -0.17006077 -0.010888175 0.03632392 -0.11539685 -0.16892897 -0.110535145 -0.11643806 -0.17054372 -0.11123255 0.1457738 -0.03735655 0.12106084 -0.17231287 0.05907513 0.018796127 0.0037300792 0.043261815 3.0151434e-06 0.029008675 0.06523914 -0.15997311 0.012588866 -0.16904369 0.07007015 -0.098254114 0.047243517 0.14898919 0.1529855 -0.08594254 -0.123682015 0.061292745 0.018208042 0.08975803 -0.08124844 -0.013092153 -0.03355784 0.100829154 0.024044452 -0.04075979 0.026385752 0.10052858 0.0069986563 0.13976815 -0.031114431 0.11619852 -0.096218325 0.003079765 -0.07438501 -0.14353412 0.17379026 -0.02193953 0.015280379 0.15745525 -0.027860498 -0.031937912 -0.07848501 0.024245894 0.143897 0.060035538 0.06014901 -0.09741889 -0.09926491 0.17935391 0.037295375 0.14537048 0.106816 0.17009306 0.11238694 0.20656316 0.019852784 -0.14946048 0.025543151 0.12879476 -0.01623941 0.086061426 0.10418603 -0.16713203 -0.16035804 -0.015586864 0.12819032 -0.08740004 -0.12399975 0.15546378 0.024727456 0.23340306 0.00289295 0.02293021 -0.10354815 0.010901878 -0.10626972 0.17726707 0.13267788 0.07715695 0.15671402 -0.019652357 -0.13458785 -0.030502439 -0.12302271 -0.11536842 0.09732394 0.05978174 0.017919412 -0.116470225 0.034335367 0.056061555 -0.10581404 -0.09831603 -0.07994679 -0.07155646 -0.16987976 0.028032191 0.15560076 0.15016946 -0.014656041 -0.007940632 -0.13911603 -0.05348459 0.069016464 -0.11137553 -0.07224307 -0.15393464 0.10914333 0.29473248 0.03399618 -0.05562702 -0.054022014 0.0039952006 -0.11875098 0.23699953 0.2139886 0.09322597 0.023526436 0.05261665 0.00568823 0.07328614 0.028647142 0.07656749 0.10712089 -0.016578568 0.03420406 -0.02517637 -0.014421116 -0.1919175 -0.117184475 0.018499142 0.09389762 -0.14033754 0.16032438 0.2160367 0.18843557 0.091631815 0.13795574 -0.15122904 0.09083242 0.19847932 0.037545733 -0.02625071 0.07365223 0.025751034 0.069054954 0.022411445 0.07726966 0.0023602077 0.14566655 0.080472454 -0.12272011 0.14189973 -0.036345355 0.13220958 0.087162584 -0.11311861 -0.17817503 0.22177304 -0.059883613 -0.15041581 -0.0056196423 -0.13583842 0.058545902 -0.047257166 -0.09960485 -0.013370425 0.06892584 -0.0932527 0.008381256 -0.007353558 -0.07961603 -0.00844095 -0.064544484 -0.1734764 -0.13654709 0.15088412 0.07799806 -0.028766828 -0.09831897 0.1118257 -0.12269163 -0.12537593 -0.13302507 0.16068447 0.009248505 0.146545 -0.088612825 -0.13386075 0.12535681 -0.07934651 -0.12219455 0.104679614 -0.20494355 0.0020419168 0.16291316 -0.12353003 -0.15803315 0.112890735 0.1825635 -0.17070411 -0.042595997 0.0029363937 -0.13462934 0.05492201 0.20272413 -0.13218173 0.1606316 -0.16183633 0.040905144 -0.029816382 -0.058757585 -0.035283346 0.029490616 -0.043443654 0.2176196 -0.17185909 0.19185299 0.07184716 0.14919432 0.19699237 0.095913194 -0.108861715 0.15985897 0.2329041 0.21009974 -0.057037365 0.16386274 -0.10734999 -0.10046733 -0.07258573 -0.14539897 0.12440943 0.13241471 -0.040592026 -0.1085831 0.0027830915 -0.18840636 0.0062037115 -0.04450542 0.028965984 0.021526068 0.19657597 -0.013686632 0.24158329 -0.14015272 0.05903439 0.13459527 0.06294021 -0.040141586 -0.17460907 0.17354602 0.07636052 0.12173991 0.13367096 0.050374746 0.06152422 0.10054105 -0.16212098 0.095518105 0.020632751 -0.1385165 -0.02718994 -0.17331909 -0.12999146 0.056369673 -0.14020805 0.05234686 -0.06367607 -0.07343128 0.0054747094 0.17826249 -0.05035612 -0.15496139 0.22944579 0.16203661 -0.02119583 -0.16360892 0.09797193 -0.021347802 -0.03107653 0.1487873 -0.029615512 -0.06536914 0.17632435 0.073202215 0.072033 0.18573754 -0.21987437 -0.18646704 -0.11632639 -0.058065478 -0.047523808 0.14006962 -0.074495286 -0.22411 0.115019284 -0.05542472 -0.07788218 0.094198704 -0.11451582 -0.095880345 -0.05336297 0.089632474 -0.081418306 -0.14749962 0.023145627 -0.060932122 0.122433566 0.12759395 0.058676757 -0.09980258 0.12738869 0.019296944 -0.22180095 -0.17956963 
0.15732758 -0.03583964 0.17724983 -0.03214434 0.12395312 0.1434146 -0.04427739 -0.15500437 0.14841233 -0.017287806 0.027248444 0.17328008 0.035078015 -0.09174008 -0.12741333 0.15111814 -0.083013326 0.13137203 0.19420132 0.0716348 0.024541441 -0.05827253 -0.11332412 -0.0011072499 -0.038210772 0.15504192 0.0047200564 0.020839931 -0.0017416694 0.24189454 
Rect
Linear 30 30
-0.10615526 -0.14946465 -0.13052991 0.0350885 -0.08227091 -0.12666963 -0.034977842 0.0834932 0.07137911 0.1258969 -0.014304891 -0.01197823 0.17337956 0.17441352 0.099787034 -0.17480642 0.11373794 0.072650425 -0.051396385 -0.13295244 -0.067557625 0.16160321 0.077896684 -0.18421803 -0.04432002 -0.06979487 0.059550177 0.035875794 -0.16028601 0.06738588 -0.10534291 -0.17960046 0.17121397 -0.00895258 -0.07666616 -0.07246704 0.03585764 -0.17123592 0.06389841 -0.16475493 -0.027710235 0.10039454 -0.18018895 -0.11248632 -0.13178472 0.058610253 0.10418735 0.027087245 0.052670255 -0.07960261 -0.15419006 -0.13373564 -0.14982267 -0.026702981 0.19270955 -0.13052362 -0.20825508 -0.057384696 -0.048963528 -0.08168053 0.06313045 0.011034727 0.08126733 -0.16520822 -0.07755138 0.067557156 -0.116935514 0.017522037 0.11282259 -0.037442923 -0.11058527 0.0420184 -0.07369392 0.018529937 -0.13327074 -0.17194404 -0.008658171 0.093824 0.117526054 -0.17013459 -0.16441235 0.1454331 -0.15792519 -0.03084229 -0.16196617 -0.1210635 -0.17263845 -0.16284704 -0.12807035 0.13209614 -0.02196589 0.09873457 0.18110618 0.056453403 0.1841925 -0.17371896 -0.0011132131 -0.045100614 -0.11021751 -0.11603279 -0.14297399 -0.12645249 -0.047782037 -0.17595369 0.022672426 0.18313782 -0.032250945 0.06473723 0.013850451 0.06909225 1.0892072e-05 -0.14737034 0.11885666 0.094035305 -0.16541335 -0.073795766 0.09908699 0.13009967 -0.025710836 0.08908263 0.17491373 0.13451391 0.15400353 -0.025251903 0.14630426 0.14163046 0.06380711 0.034160525 0.046983264 0.13185073 -0.17765872 -0.0839923 -0.15595755 0.039109316 0.1770926 -0.086377546 -0.12123661 -0.07779453 0.09964739 0.0398599 0.09261435 0.11027695 -0.054147303 -0.11405545 0.2095803 0.17517924 0.009714788 0.14556067 0.1721202 -0.09757392 -0.1450629 -0.09522732 -0.024491644 0.0635621 -0.011412054 -0.047930457 0.07839537 0.0008352995 0.09294748 0.112337396 0.11458436 0.11489557 0.0552248 -0.13303266 0.047036346 0.001498618 -0.10292215 0.1650614 0.15087214 -0.1575069 0.042778302 0.029087184 0.18210879 0.055239454 -0.08289763 0.15183334 -0.14538854 0.015597231 0.13117167 -0.015865985 0.051190097 -0.10908028 -0.013782209 -0.004896667 -0.103274785 0.01484472 -0.11301248 -0.041812703 0.023155477 0.013639185 -0.08324973 -0.08502157 -0.15624437 0.20685217 0.071053885 -0.005788119 -0.15506375 -0.12869783 -0.1312555 0.16169767 0.034331854 0.16801442 0.0018641304 0.03668736 0.16117732 0.05890142 0.21953464 -0.14933954 0.021446057 0.06491386 -0.067274965 -0.068871655 0.25428468 0.03035831 0.060404934 -0.06113651 -0.08582058 0.08935541 -0.11879409 -0.12813163 0.1695168 0.17011158 0.16313466 -0.09145997 0.059960287 0.1892193 0.16996104 0.026364874 -0.104575336 -0.12127818 0.09209344 0.036966264 -0.122390985 -0.0480179 0.13665491 0.13924392 -0.04573473 0.15185632 0.019991765 0.20784214 -0.04652332 0.1602586 -0.17627119 -0.005321894 -0.08212345 0.10694426 0.049516857 0.013481915 0.18930545 0.13163334 -0.13569888 -0.08643676 -0.11387529 -0.03880549 -0.17209662 0.07597297 0.1574301 0.00023616954 -0.044848662 0.17520581 0.17235163 0.18985821 -0.022203287 -0.10911917 -0.187437 -0.1503747 0.17478053 -0.039621305 0.11180205 0.14784369 -0.0199759 -0.010689586 -0.0229633 -0.13379084 0.07883924 0.022578016 -0.05209273 -0.16789883 -0.0020524412 0.057290643 0.08850503 -0.16467896 0.08547029 -0.15056905 -0.070527904 -0.13768166 0.16044971 0.16999653 -0.12587236 -0.03990543 -0.047722653 -0.12843004 0.056226447 0.1177229 0.113375545 0.13563457 -0.038801342 0.0021959394 0.0658447 -0.08459532 -0.09355751 -0.11897183 -0.14384885 0.038948074 -0.22590856 -0.14748417 0.015947338 0.08019653 0.21947272 -0.0720219 0.06046259 -0.035305362 0.14291379 -0.0053510224 -0.07074872 -0.15626864 -0.0346178 0.13262817 0.13325937 0.12172688 0.19174115 0.028449029 0.14235948 -0.02261303 -0.05951433 -0.17567626 -0.033925578 -0.13735875 0.09838904 0.077913746 -0.108895555 0.04940452 -0.16271412 0.16521727 -0.22173275 0.056200285 0.06139951 -0.022562101 0.22267823 0.14908527 -0.15413822 0.038672626 -0.12761045 0.35636586 0.15632406 0.010453304 -0.108703464 0.17717527 0.18028232 0.10566287 -0.079476334 0.1942821 -0.0025172085 0.22624496 -0.17791615 -0.1590779 0.05943823 -0.17958528 -0.17985088 -0.27940235 0.05860312 0.05353954 0.03305206 -0.0401045 -0.12259518 0.047703974 -0.033511374 0.059070766 0.057109833 -0.00936969 -0.15696138 -0.07274411 -0.16639443 0.25881654 -0.0053451736 0.08323714 -0.03745504 0.040607598 0.023551976 -0.11745862 0.037832227 0.07935496 0.13970196 -0.029072583 -0.17788227 -0.084713645 0.20004597 0.023439553 -0.020461723 -0.09561848 -0.15438254 -0.17609236 0.14429113 0.15899158 0.04622433 -0.13343781 -0.1356054 -0.08468965 0.01812094 -0.033405215 0.13785163 -0.08381775 0.13207357 -0.16878572 -0.18018176 -0.04516404 -0.1275425 0.1143154 0.08966449 -0.17791755 -0.15890409 -0.013543711 -0.124945536 -0.010400444 -0.076683186 0.15750867 0.13835819 -0.056891613 -0.056390677 0.054230127 -0.056722842 0.124096245 -0.15215859 0.014808609 0.0537019 0.08029134 0.13294305 -0.15133686 0.18707845 -0.14037642 0.16958696 0.062878445 0.13690273 0.090537794 -0.028781367 -0.007440081 0.059197877 -0.062068406 0.1245255 0.09145524 0.041208826 -0.06645398 0.07393552 0.20582521 -0.045000352 0.06075496 0.14418949 -0.09811809 -0.07410744 -0.22633488 -0.089057274 -0.16689418 -0.017674372 -0.096042864 0.079784445 0.029296657 0.14781998 -0.034849465 0.05139191 0.033473715 0.12600473 -0.047178164 -0.055720802 0.06741551 -0.027886495 0.09356986 -0.07206693 -0.084949955 -0.12557809 0.14522012 0.04460947 -0.04306873 -0.17411572 0.00729149 -0.14811966 0.06662169 0.033817086 0.03453475 -0.06977874 -0.13156648 -0.013678178 0.008070469 0.13328657 -0.16530311 -0.05160117 0.16736773 -0.0727713 0.15497005 -0.15499903 0.0755066 -0.18053596 0.00751099 -0.1723518 -0.0040881187 -0.0029078573 -0.15513298 -0.11758592 -0.0727589 -0.12105082 -0.09493868 -0.052342147 0.11741197 0.07027221 -0.029757217 0.032195106 -0.13825242 0.12524912 0.0037706643 -0.028928861 0.050398275 -0.2059413 0.033121035 0.1065088 -0.03530441 -0.20055337 -0.057820085 0.12850095 0.111142606 0.07229385 0.0403581 -0.08208134 0.13758968 -0.16278663 0.13772118 -0.1054532 -0.19297966 0.13235252 0.14215744 0.10851897 0.020957557 0.008088494 -0.12210023 -0.13329107 0.016740868 0.0066366475 -0.12390467 -0.046280913 -0.065430105 0.14929147 -0.057960853 0.087043405 0.06784609 0.0074456036 -0.045354933 -0.031007305 0.0072494 0.1193164 -0.05334778 0.006610289 -0.13058245 0.008304432 -0.086299814 -0.12567578 -0.17965724 0.032795027 -0.09874051 0.15153626 -0.1294131 -0.018903196 -0.015617847 -0.17000638 -0.05961322 0.11626902 -0.10172434 -0.16737224 -0.11230005 0.042266607 -0.16800056 0.057873696 0.15255013 0.22917272 -0.060740884 0.07610342 -0.035848625 0.17967422 0.10940417 0.11169202 -0.10069218 0.06383771 0.0047588595 -0.09429778 -0.050816834 0.15818767 -0.26520756 0.12126801 0.21496698 -0.009978708 -0.17710568 0.17521898 0.1349629 0.08859355 0.061720196 0.08055353 -0.0746662 0.17534341 -0.08770406 -0.15877189 0.16861936 0.13706025 0.15801843 0.104564495 -0.10256996 0.20609222 -0.0845013 0.11151031 -0.12839013 0.07521452 -0.08603616 0.08036938 -0.07658996 0.04156807 -0.051989216 0.124951765 -0.1104941 -0.08409263 0.1756317 -0.036280267 -0.17647256 0.16644982 -0.14352159 0.04241135 -0.13933657 -0.1255745 -0.23679323 0.14664163 0.17396054 0.013337526 -0.063602306 0.060815215 0.05321446 -0.10707024 0.01078403 -0.08346339 -0.025404945 -0.08481201 0.08499822 -0.079865366 -0.007074341 -0.10910772 -0.1662874 0.16812956 -0.15559757 0.004701376 -0.034942225 -0.1696532 0.073504 0.1560432 -0.023810923 -0.15800768 -0.12475519 0.038280293 0.101884216 0.106496155 -0.12293434 -0.0268303 0.14134213 0.09688935 0.13531476 -0.14567456 0.09265897 -0.15437275 0.14763069 -0.1349282 0.10706344 0.13652703 -0.16445163 -0.1816698 0.15208179 -0.12024279 0.11133984 0.09653336 0.01746954 0.12624222 0.011535138 -0.0003886521 -0.1021139 0.17212588 -0.08162931 -0.1468598 -0.016433537 -0.09332349 -0.14870688 -0.15201393 0.047859192 0.01293391 0.046221286 0.002912134 -0.09853185 0.11596781 0.1322068 -0.2769527 0.172347 0.015661642 0.17151915 -0.28033152 0.112067364 -0.18578622 -0.038978085 0.16512944 0.15980698 0.013150641 -0.19420128 0.1349191 0.2635583 0.11354804 -0.03886977 0.04426412 0.03073038 -0.027228614 -0.17836186 0.13309884 0.12662786 -0.088054076 0.0456955 -0.07639855 0.08545468 0.119199604 -0.09600695 -0.0893603 -0.13979511 -0.13203816 -0.016345883 0.15973602 -0.09572065 0.18271613 0.13571024 0.13545151 0.05251442 -0.10057511 -0.04016342 -0.13127777 -0.118401885 -0.121435195 0.107170306 0.16963775 0.1825257 0.14369221 -0.10029212 -0.15963459 -0.1256852 -0.07762916 0.025365744 -0.028647546 -0.022262985 -0.04244755 0.04438957 -0.07682241 -0.049254995 0.110258594 -0.16897506 -0.05767288 -0.0551527 -0.19206189 -0.09150509 0.06816613 0.07898908 0.0075145164 -0.06586021 0.065648675 -0.07617972 0.076260865 -0.18888971 0.015334854 0.24883038 0.07227695 -0.049364045 0.062112324 0.07041935 -0.13666861 0.088701755 0.19985121 0.15357389 -0.05863155 0.12313009 0.016643917 -0.2249861 0.25627944 -0.18796381 -0.025406588 -0.28688517 -0.13730076 -0.13744222 0.0040921024 -0.17370015 -0.06379544 -0.025072508 0.087561816 -0.020929158 -0.10324443 -0.003126666 -0.124615066 0.08058894 -0.056226604 -0.056404784 -0.08896257 -0.16234422 -0.10017682 0.057550132 0.08839646 -0.12641181 -0.014921632 0.17361587 0.14103779 -0.08209563 -0.031788617 -0.13591231 -0.06822586 -0.12666233 -0.062434755 -0.087444745 -0.14242756 -0.06633505 -0.13175656 -0.014856488 0.16156746 0.10771767 0.14945905 -0.0889089 0.14997873 -0.07038338 0.024937153 -0.089809336 0.09161034 -0.17037997 -0.077443555 -0.04037178 0.16342667 -0.021057174 -0.07415727 -0.07752598 0.10894467 0.00749107 -0.051745217 -0.027110504 -0.08465197 0.16527054 0.18007645 0.15777156 0.14997722 0.10136804 -0.17243075 -0.113467745 -0.13512181 -0.0054521114 0.05744709 0.094169885 -0.14875522 -0.09434307 0.14987478 -0.14975326 0.14604852 -0.039086565 0.05577281 -0.002752155 -0.019342646 0.1306437 -0.13144809 -0.14887081 -0.09025591 -0.12025499 0.1342521 -0.17105417 0.0015434474 0.038818777 0.11837751 -0.09639808 -0.09156281 -0.09131736 0.17983297 0.13695413 0.0064863125 0.060095266 0.1307226 -0.121165864 0.015148282 0.008269961 0.0423653 -0.03949748 -0.080154955 0.05548013 0.07101425 0.11845053 -0.15596175 -0.005101777 -0.048947413 -0.14888217 -0.090874165 0.13173921 -0.045819055 0.089033246 0.1469537 0.025309972 -0.17501071 -0.11259489 -0.121266186 -0.02549197 -0.009739244 0.12367413 -0.17692392 0.07332805 
-0.1576162 0.14638244 -0.13274288 -0.06281084 0.026707718 -0.09569674 0.15538672 0.09078086 -0.04218244 -0.1275908 0.078804165 -0.0015644421 0.047381017 -0.08067278 -0.027459297 -0.10787464 -0.108072124 0.07754691 -0.093798324 0.13527213 0.19142887 -0.1530485 0.04897341 0.11019715 -0.0016795065 0.07598474 0.034204137 -0.11875705 -0.15020522 0.020511076 
Rect
Linear 30 30
0.03820719 -0.12670499 -0.054417163 -0.120709695 0.1724745 0.012227356 -0.15504274 0.15965717 0.1405352 0.105871975 -0.16855894 0.08071357 -0.03317113 0.120891124 0.12876832 -0.0781819 0.0059922338 -0.08039812 0.16857731 -0.07980489 0.14611758 0.12833786 0.13372004 -0.14598835 -0.12901416 0.07473614 0.035944477 -0.008126104 -0.021350726 -0.03740649 -0.17497481 0.047971368 -0.013113424 0.012870461 -0.027452618 0.02876477 -0.051574558 -0.13795838 0.09382522 -0.11621243 -0.015738353 -0.059503376 -0.16536283 -0.12819308 -0.08407663 -0.07792989 0.043566316 0.021578401 0.03489718 -0.07120741 -0.00041610003 0.15414089 -0.17856908 -0.032007366 -0.022648111 -0.086603604 0.069765955 0.041510746 0.013626277 -0.09873855 0.005120115 -0.05117055 0.07136887 0.03925389 0.044126 -0.12215848 0.1462878 -0.030936383 0.12245349 0.064199984 0.02897533 0.036246847 0.044760488 -0.07233755 -0.15481898 0.10713602 -0.15900251 -0.15234691 0.09428164 0.16508232 -0.1571003 0.107810855 -0.0068283826 0.11955923 -0.04194431 0.0758587 -0.09307783 0.04515618 -0.051649496 -0.15674113 -0.08615999 -0.21663004 0.029184893 -0.13893108 0.011794665 0.04402478 0.13734134 -0.2039564 0.17682323 -0.15476678 0.08241959 0.25438252 0.21465537 -0.032029986 0.035231803 0.09614038 -0.076108545 0.040738847 0.13894978 -0.2762303 0.050934214 -0.11933118 0.16929495 0.23626094 0.048773006 0.2569853 0.1196043 -0.046300452 -0.08992461 0.137883 0.10689356 -0.10440634 -0.08241796 0.18326119 0.193428 -0.0036603028 0.14825088 0.11225701 -0.076358125 0.082723826 -0.12870933 -0.3160075 -0.09108005 -0.031733476 -0.14342964 -0.0063538104 0.095428824 0.0067391614 -0.13372211 0.2920306 0.17794606 0.004193127 -0.032672867 -0.1863776 0.06704914 -0.14671504 -0.120513275 -0.07016247 0.03298129 -0.029616548 0.13594109 -0.119216956 0.013519093 0.124451816 -0.13187887 -0.086546995 -0.045525715 -0.06167143 -0.10369773 0.14079618 -0.11069577 0.032690614 -0.17502174 0.015220791 -0.010926172 -0.11514549 0.047223255 0.07859442 0.0023972094 0.16590023 0.08703366 0.15157026 0.14934105 -0.034048468 -0.16376941 -0.028555557 0.028677255 0.1519376 0.17087534 0.16013211 0.031936616 0.21059315 0.15493658 0.11627017 0.23610385 -0.038132157 0.05763362 0.07008079 -0.038529083 -0.17948875 0.013973668 -0.24310721 -0.02882444 0.14380886 -0.13245785 0.112194926 0.042609066 -0.17809553 0.056554347 0.2871266 0.06872725 -0.089504704 -0.14888224 -0.15259087 0.07391556 -0.20114025 -0.15827605 0.14419185 -0.13692051 0.05858055 -0.07281703 0.0824506 -0.15961316 -0.091108754 -0.17037657 0.063058436 0.051362783 -0.12847948 -0.028357908 -0.07055029 -0.12574813 -0.16350348 0.037664562 0.0026275218 -0.052302465 0.017410263 -0.101561785 0.1289827 -0.019196734 -0.17032906 0.030866295 -0.13026 0.027983561 -0.034151852 -0.02567646 -0.08489215 -0.0072591454 0.10627228 -0.1764392 -0.042995766 0.096968934 -0.03426502 -0.07741725 -0.108087376 0.06701944 -0.092530064 0.056895822 0.17356178 0.120693825 0.04117836 -0.111416414 -0.06446367 0.08180249 -0.07415686 -0.101548955 0.12967792 -0.053936407 -0.11998049 -0.16124988 -0.031901654 0.23364782 0.07865429 -0.004295796 -0.054492187 0.02300104 -0.040585853 -0.08336084 0.15828796 -0.011043936 -0.03789109 -0.14379683 -0.034719795 0.16418493 -0.18098246 0.15382451 -0.16239047 -0.1349616 -0.10135737 0.0049093217 0.08178961 -0.054330662 -0.015383631 -0.13643129 0.020637423 -0.07054268 0.1664389 -0.06000729 0.007366225 -0.14476644 -0.10336179 -0.123251736 -0.057932198 -0.039016128 0.0109310895 -0.12647298 -0.007366836 -0.04661821 -0.041133016 -0.16541393 -0.12119294 -0.074133456 0.12835154 -0.11205279 -0.031554922 -0.024368644 -0.17836288 -0.07870871 -0.037621632 0.019284323 -0.17666768 -0.08455156 0.17606318 0.1475026 0.064098224 -0.090204135 0.16394496 -0.038029462 0.152439 0.054387778 -0.07195611 -0.010678679 -0.0017561167 0.109216064 0.040516555 0.014144033 -0.13527891 0.18255538 -0.07012752 -0.08872832 -0.08614783 0.05279084 -0.058265626 -0.12803116 0.13268988 -0.027147446 0.14039041 0.11421073 0.037821468 -0.10576971 0.053226784 -0.12937298 -0.21069552 0.003935216 -0.14701907 -0.063621305 -0.068737395 0.1407516 0.069550574 0.11427608 0.05125013 0.22057791 -0.17525493 -0.16016576 -0.20217493 0.0882184 0.087087564 -0.14017846 0.0454363 -0.0006573796 -0.029082531 0.047996465 -0.12195787 -0.017097116 -0.067046314 -0.17296627 -0.04998304 0.18293622 -0.20853361 0.010536338 -0.1251096 0.13372451 0.19854201 0.23623069 0.08303477 0.21322602 -0.073151544 0.016077101 -0.033019535 0.13380104 0.016358867 -0.05498998 -0.0786249 0.15540683 0.22022109 0.18382245 0.053651497 -0.10543149 -0.1458358 -0.060636073 -0.17911087 0.053492233 -0.0668095 -0.12525164 -0.16955435 -0.050374344 0.017877951 0.015453845 -0.13291973 -0.11212148 0.074026436 -0.07290487 -0.0339953 0.13696405 -0.1257944 -0.05462858 0.10724729 0.090402395 -0.11473897 -0.13652375 0.15159592 0.11667311 -0.005256042 -0.1366762 0.09124091 -0.08010241 0.04517013 0.054841354 -0.14260148 -0.1002244 -0.03232321 0.13938946 0.06426298 -0.1714336 -0.073966175 -0.015080096 0.14016803 -0.13289215 0.11129583 0.061003122 0.12543383 0.012560484 -0.004985979 -0.05417015 -0.10661722 -0.075922795 0.041291542 -0.10920801 0.07623512 -0.12826702 -0.08489868 -0.07280165 0.10767546 0.15979168 0.07076158 -0.05498729 0.21618846 -0.058432497 -0.15494272 -0.0403876 -0.059295192 0.0003573522 -0.12516305 -0.057313338 0.07014809 -0.026609046 0.039102398 0.14725827 -0.012238628 -0.08431946 0.09318012 0.19967231 0.30294713 0.13152641 -0.01921516 0.22104561 -0.1233053 -0.15213183 -0.03904399 0.070387006 -0.20900376 -0.2416963 0.106921226 -0.09162316 0.004927937 0.13587686 0.22026941 0.059383925 0.05976579 0.037836373 -0.122863784 0.018660838 0.056562763 0.043186247 0.15431876 0.082211785 0.13041608 -0.078101374 0.1157844 -0.0764471 -0.005921006 0.07079911 -0.091777526 0.039561406 -0.15918772 -0.107306756 0.043209642 0.15166983 -0.11819991 -0.058747016 -0.10059276 0.011942908 -0.16371243 -0.13996296 0.031527855 -0.17863242 -0.14859761 0.094129175 0.008697906 -0.15612592 0.1787428 0.0537761 0.12260655 0.17175543 -0.021817783 0.09254222 0.10459203 -0.13662606 0.084852055 0.02188166 0.15827191 -0.02238017 0.042058356 -0.15088622 -0.05024287 -0.044127353 -0.12033224 -0.12051971 0.08206768 0.10263014 -0.15933415 -0.095387205 -0.11778083 0.10213882 -0.031464785 0.17476001 0.06678544 0.10957274 -0.027733466 -0.035060763 0.14518306 0.1452296 0.12215126 0.1518645 -0.14620672 -0.0050410903 -0.14602965 -0.1233079 0.05878055 0.032314874 -0.18192051 -0.009808708 -0.17226267 -0.11069767 -0.113978945 0.12249522 0.012000054 -0.15824787 0.08590961 0.08315396 0.07507558 0.15618436 -0.13743083 -0.07440486 -0.12794943 0.014228163 -0.23286447 0.05529083 0.11799417 0.11594543 -0.11322886 0.063046835 -0.11094685 -0.1503272 0.007550046 -0.08954611 -0.01302588 -0.078756444 -0.024909541 0.119730726 -0.0437354 -0.16149846 0.052628487 0.11852612 -0.064342394 -0.059397224 0.17590025 -0.0104200095 0.03819448 0.18009543 -0.13134164 0.031112194 -0.08128772 0.03691627 0.13695304 0.0058742017 -0.017887358 0.012794301 -0.15960737 -0.15975311 0.009424984 0.021849042 -0.011839003 0.008331776 0.16387165 0.18632385 -0.067133784 -0.18883666 -0.049885586 0.059225895 0.021845967 0.07055431 -0.10008652 0.14552368 -0.16125606 -0.0016496046 0.15074253 -0.12222138 0.10024694 -0.1440978 0.15133987 0.051149555 0.081870824 -0.13492885 -0.067309216 0.076733306 -0.101126656 0.07670951 0.06318308 0.08874279 0.17971317 0.057130005 -0.1429302 -0.15999992 -0.10564156 0.0141587015 -0.017260538 0.1338162 -0.22368607 0.039914858 0.15708959 0.09397063 0.2030504 0.10131321 -0.065508604 0.026152536 -0.13856526 0.07451245 0.039693 0.09687069 -0.21111469 -0.12182541 -0.0024651587 0.13863894 0.055563726 -0.0312509 0.2762831 -0.1507982 -0.11685689 0.17007577 0.036281645 -0.09378206 0.17083853 0.13247925 -0.11320469 0.05014368 -0.0981992 -0.123949654 0.17189822 -0.07549917 0.053126305 0.04415861 -0.14744923 -0.09633481 -0.0026864933 -0.12443915 -0.02607648 -0.13999465 0.006473311 0.17008331 0.11378169 -0.014986067 -0.045249015 -0.027083382 -0.15152033 -0.11169087 -0.074788146 0.07348711 0.06883913 0.15161905 0.09026733 0.12666409 -0.06799876 0.07525471 0.033954736 -0.07346266 0.061969653 0.018593414 0.10131531 -0.038136996 -0.036502585 -0.11205938 -0.2667676 0.119782925 0.16513667 -0.075290926 0.115263045 0.15041983 -0.110402994 0.06941125 0.036477894 0.086305276 -0.062894076 0.1824758 -0.14403243 0.18609755 0.06894157 0.16454948 0.0046123373 -0.063921645 -0.009529652 -0.025010454 -0.17950355 0.1338174 0.102546245 0.1092339 -0.0146458 0.1332268 -0.15804423 0.094885245 0.07437599 0.12505828 -0.035548043 0.16707715 0.11664179 -0.16796866 -0.01948446 -0.10442578 0.12632516 0.17948204 0.16870451 0.11059653 0.11093816 -0.13891673 -0.06718678 -0.15930256 0.021886155 0.11820516 -0.05135134 -0.018557295 -0.13691518 -0.039934475 0.13849366 0.08960849 -0.12121749 0.08494748 -0.17984676 0.13957849 -0.1699215 0.098796256 0.020905867 -0.07328911 0.17378695 0.07257117 -0.14270571 0.14308625 -0.009260813 0.10582021 0.10265162 -0.06619018 -0.24253812 0.1082348 0.06148587 -0.15138741 0.20072846 -0.051018044 -0.09367722 0.17382774 -0.04479043 -0.16422746 -0.13712026 0.09302816 0.12096292 0.08890334 -0.080733165 -0.12027665 0.16007447 -0.16659272 -0.15737955 -0.09738521 0.14850664 0.13069454 -0.10173994 -0.088959 -0.06947036 -0.00085154176 -0.07642613 0.031128168 0.015557334 -0.1308702 -0.13531144 -0.054595068 0.16581523 0.14062986 -0.095130466 -0.08690114 0.07716301 -0.00954923 -0.07004475 0.0761123 0.12946537 0.029052293 0.044607706 -0.07781391 0.13421974 -0.13439396 -0.095713295 0.07760314 0.10709268 -0.10862836 -0.18005207 -0.1020887 -0.20653547 -0.14750688 0.09073434 -0.07389135 -0.18225253 -0.10637971 -0.1930028 -0.114888996 0.19318214 0.09302751 0.12402335 -0.06775225 -0.009964997 -0.02109998 -0.06258277 0.13004631 0.0722377 -0.10993101 -0.021572338 0.15445238 0.023206979 0.13813621 -0.077322945 -0.11778587 0.18167776 0.08697167 0.009258717 0.09042239 -0.0007862896 -0.106947266 -0.15638487 -0.090665996 0.10293773 0.14719945 -0.04208389 0.054745063 0.087611705 -0.11224242 -0.039155558 0.11173105 -0.047583655 0.095751226 0.07200152 -0.06120591 -0.12296535 -0.16439775 -0.02550526 -0.03347674 -0.17189121 -0.00786854 -0.17931801 0.054047003 -0.015446282 0.002455626 0.102896325 0.008497268 -0.13998525 -0.016028084 0.15068209 0.03183189 -0.11514831 0.121861964 0.04244542 0.1492493 0.07094538 0.09608427 0.021388302 -0.10590703 0.09290804 -0.04756484 -0.055577904 0.096244514 -0.08998352 0.092208266 0.13505372 -0.027348965 -0.012997804 -0.018614203 0.066520676 
-0.102822706 -0.15307531 -0.1755048 0.06484495 0.23308799 -0.17126034 0.21409573 -0.04101479 0.07268233 0.0317692 -0.15293537 0.10157511 0.01743961 -0.15351495 0.11362554 0.11392584 0.12925667 0.015401766 0.2226679 -0.14542262 0.1132176 0.09152216 0.23060511 0.13550974 -0.15786155 0.10866215 -0.16100928 0.17727734 -0.0446627 -0.0921381 
Rect
Linear 30 2
-0.049298923 -0.16405705 0.040496226 0.26807526 -0.2810823 0.020430148 -0.3858525 0.049111262 -0.14805207 0.07669979 0.077372104 -0.11132154 0.10923448 0.11350286 0.101489596 0.18451339 -0.21444722 -0.13548526 -0.038229354 -0.053476155 -0.22312361 0.21838202 -0.24871278 -0.24156217 0.04041881 0.070186906 0.06638852 -0.3695511 0.082832634 -0.12223415 -0.013003325 0.03492634 0.13612586 -0.26773256 0.34743714 -0.0021831095 0.31825992 0.09548518 0.13681974 0.046722233 -0.08524362 0.21354604 -0.24887854 -0.0887448 -0.043638997 -0.24384151 0.02357043 -0.034510475 0.32989737 -0.057455316 -0.0692855 -0.32862943 0.28993127 0.2562776 0.07861233 -0.11899962 -0.008876383 0.14634313 0.03263706 -0.033147983 
0.00040173793 -0.115967825 
