Linear 19 20
-0.024067802 -0.17305562 0.07392607 0.11957794 -0.77206516 -0.005716465 0.06348179 -0.07455982 0.082820475 0.06561336 0.0029155219 0.8057104 1.1161656 -0.045266595 -0.03418395 -0.19164006 -0.09226549 0.0066314717 -0.14785595 0.059526976 0.10542437 0.24648868 -0.09112336 -0.029243384 0.085344106 -0.04399957 0.32698327 0.11279817 -0.092063345 0.04005221 1.3473399 1.2418742 -0.009348162 0.026986696 0.15761128 0.15670097 -0.26471362 -0.052353892 -0.117463365 0.032754846 -0.16246794 -0.18481068 -0.15518036 -0.21971774 -0.012058659 0.1125186 -0.15606394 -0.065016866 0.10813447 -0.16893305 -0.18938835 -0.029957052 0.04351968 -0.1094793 -0.016796824 -0.05463491 -0.22626251 -0.33674878 0.29656678 -0.038645733 -0.12741657 -0.06193931 -0.1120193 0.06412076 0.09952181 -0.045169216 0.10003256 0.019973654 -0.05605885 -0.40983498 -0.30092794 0.034389876 0.037565067 0.28927308 -0.09695422 -0.03284277 -0.043129098 0.15759747 -0.23663141 -0.075721614 -0.08311473 -0.10521708 -0.22517228 -0.19460678 0.21287775 0.018246775 -0.18928139 -0.23568645 0.18455586 -0.10883592 0.07987586 -0.085119426 0.08792112 -0.18255328 -0.02494758 0.10503545 -0.17958394 -0.6076637 0.050075583 -0.051798306 0.05017103 0.15239152 -0.006946497 0.07399828 0.05625651 -0.16572699 -0.67595077 -0.4695432 -0.30706635 0.2729139 -0.2497424 0.37449744 0.08666672 -0.29088542 0.08269436 0.10215322 0.1273563 -0.009779219 -0.4954322 -0.11141792 -0.20284152 0.48908326 -0.08367464 -0.00060885726 -0.08429591 0.9402232 0.8423451 -0.054199424 -0.024860976 -0.22931904 -0.13752855 0.07360039 -0.1930355 -0.05196577 -0.16976094 0.090788886 -0.27100685 -0.19745639 -0.079848245 -0.17392021 -0.27039185 -0.054844063 0.023633853 0.17439887 0.22447425 -0.16241272 -0.31963784 -0.06706106 -0.103133276 0.19336584 0.0061976495 0.14385583 -0.0555048 -0.026508883 0.23220879 0.095558845 -0.030255608 -0.10510732 0.027344685 0.61498964 -0.24839534 -0.25149408 -0.14253575 0.78586006 0.8125939 -0.008497085 0.16008621 -0.11852563 0.0038395957 -0.043693922 0.038347933 -0.357934 0.5610848 -0.19076888 -0.21167627 0.35911432 0.21182916 0.1731359 -0.28112942 0.14504297 0.06725601 0.07323115 -0.41088957 -0.5858515 0.38003784 -0.65614134 -0.22206879 -0.040373486 -0.04000548 0.37305528 0.16462004 -0.043159485 -0.064685844 -0.17655963 0.4611905 -0.18898459 -0.05147742 -0.7262338 0.23166443 -0.20321737 -0.005250744 -0.27358556 0.50710607 -0.13224414 0.055301238 0.14772119 -0.0981036 0.035169985 -0.63741976 -0.17163543 -0.07589898 0.055868737 0.02001042 -0.16683783 -0.07291894 -0.06730241 0.3735521 -0.16296372 -0.28676856 -0.19208153 0.5776615 0.5486005 0.010440178 0.13875104 0.16084664 0.15260346 -0.03217756 0.060095124 -0.3252108 0.18009664 0.16175802 -0.07400893 -0.19045472 -0.053163566 0.05856729 -0.12376361 0.07105055 0.15817352 -0.017580977 -0.16172604 -0.576953 -0.20405538 -0.053517144 -0.17923163 0.10557894 -0.19520785 0.34623238 -0.10070569 -0.21036954 0.23199376 0.12568718 -0.1556416 -0.15093234 -0.0652354 -0.26504016 0.1287762 -0.19406746 -0.026802 -0.25672695 -0.3498317 0.2355249 -0.08211476 -0.057242487 -0.27033868 -0.18795334 0.022827163 0.13932914 -0.31797972 0.016978266 -0.10872092 -0.023317648 -0.11596646 0.026139691 -0.05586104 -0.001845728 0.13534029 -0.11911461 0.24458642 0.6718 0.24061024 -0.21466511 -0.20456569 0.13102308 -0.16218483 -0.031085812 -0.069262944 0.21049121 0.16286556 0.1591348 0.028179862 -0.11183311 -0.027823923 -0.09701523 -0.06891454 -0.02726168 0.11320787 -1.2301768 -0.9889476 0.07195352 0.10104472 -0.011532894 0.051862277 0.063777454 0.14727251 -0.096981384 0.009420043 0.04134918 -0.08803906 -0.30820438 -0.10782499 0.09497697 0.46464407 0.014502991 -0.095163435 -0.21059646 0.88493484 1.3296134 0.017270353 0.18671748 0.035471834 -0.108502105 -0.06489526 0.14432807 -0.0020539481 -0.2032637 0.1903441 0.1367466 -0.54794085 -0.01889447 0.01417313 0.006046543 0.029255124 -0.013489592 0.046033975 1.3119057 1.2465655 0.014995239 -0.015914815 0.056781974 0.15375341 -0.27994016 -0.17338312 0.13685378 -0.24604447 -0.0029969637 -0.047166828 0.2918545 -0.05588935 -0.02964857 -0.39550832 -0.07861723 0.016392885 0.066760175 -0.49000794 -0.56543094 0.0008892873 0.055263083 0.15903746 0.18017228 -0.03544224 -0.09219953 0.096768565 -0.09477652 -0.18197165 -0.2410141 0.61584085 -0.0027313186 0.02201048 -0.44393328 0.009308673 0.04254506 0.11434348 -0.22800562 0.36164597 -0.17849644 -0.12321517 0.034181867 -0.12236319 0.21733496 -0.42956224 
0.016258987 -0.14567922 0.026194891 0.017882125 -0.13783583 -0.10808811 -0.01923004 -0.1070998 -0.0749337 0.11420708 -0.23974948 -0.11996336 -0.18345496 -0.04516148 -0.026567515 0.11941128 0.122690685 -0.05228928 0.09650716 -0.21303786 
Rect
Linear 20 20
0.17084233 -0.025438696 -0.20495084 -0.062198136 -0.20372504 -0.19924623 -0.10863822 0.028223455 -0.004156112 -0.05293629 -0.21620394 0.14365143 0.17086612 -0.008280012 -0.20005721 -0.065964706 -0.20369531 -0.13924496 -0.21955834 -0.170031 0.0028187402 0.025965396 0.060756277 0.044207394 0.12090113 0.054894816 -0.02473739 0.20430045 0.18672271 -0.3485917 0.13160461 0.19752724 0.24687888 0.038423184 -0.20506312 0.18945517 -0.06343506 -0.2069678 -0.07017979 -0.033626355 0.22733563 0.20519406 0.14353807 -0.36647275 0.080760606 -0.2981522 0.19937797 0.01621365 -0.044128012 -0.27864552 -0.26425067 0.07519768 -0.24946359 0.013334076 0.1222704 -0.28060958 0.32070467 0.40802488 0.084657684 -0.46107328 0.108045086 0.11073798 0.019676747 0.09331738 0.16527669 -0.40802905 -0.040364884 0.061991103 0.088701576 -0.36332512 -0.317936 0.04841938 0.18619056 0.12957957 0.23521315 0.07665175 0.31199282 0.3263983 0.11298677 -0.11830146 0.07784991 0.15271746 -0.15537359 0.03529609 -0.016330589 -0.21273755 -0.23316987 -0.18345022 -0.07592765 -0.1901246 -0.109101266 -0.07529098 0.006715258 0.20513204 0.0727138 0.18516806 -0.18563853 0.027562147 0.051316805 0.22941992 0.17414759 0.21107744 0.09609869 -0.08270051 0.19252871 0.24499717 -0.048062555 -0.14014833 0.023356682 -0.115304254 0.04979858 -0.16590777 0.092754185 0.07636155 0.20019545 -0.14794137 -0.114738986 -0.17356394 0.06353098 -0.1584067 0.23732963 0.080455475 0.107394755 0.03619907 0.19679986 -0.16169919 0.1435885 0.16472745 -0.22380519 -0.16568972 0.06283595 0.21544623 -0.09443357 0.08450088 0.15372188 -0.012159506 -0.014294616 0.15012483 -0.042196877 -0.049586598 0.347348 0.20451428 0.12630567 -0.283164 -0.16352281 0.0338001 0.090434484 -0.11086213 -0.0017725781 -0.10373606 -0.30687413 -0.14249897 -0.28968516 0.13274169 0.16595262 -0.43762317 0.28555724 0.028454022 -0.19492787 -0.22915827 0.21081778 0.40833288 -0.17280811 0.10069927 -0.15519133 -0.20041302 0.22201891 0.023119008 0.25932488 -0.25654256 -0.3440857 0.10586536 0.040327717 -0.28026852 0.15047033 -0.09174352 0.52609336 0.20619467 -0.18496844 -0.0673749 -0.033690993 0.30753678 -0.12990248 -0.13780113 -0.21322413 -0.09830881 0.023008306 -0.1746019 0.061233718 -0.17887372 0.12321838 -0.017049927 0.056642395 -0.11642625 0.063283205 -0.0039214976 -0.14024757 0.24563041 0.1371572 0.34212187 -0.054106057 0.11066163 0.13071251 0.03818094 -0.07006736 0.10268889 0.18866836 0.11049871 0.22847095 -0.12230729 0.29354027 -0.10595698 -0.16748309 0.033627033 -0.21038797 -0.27761516 0.046518948 -0.0736366 -0.10087223 0.29051027 -0.25520092 -0.15852115 0.12663619 0.06992357 -0.2850528 0.022878004 -0.26254493 -0.050417718 -0.15643324 0.6679181 0.39577618 -0.21276516 0.11610265 -0.009363375 0.082944185 -0.05237789 -0.06200685 -0.38906157 0.098767005 0.3024193 0.21900883 0.3504572 -0.15655905 0.12142665 -0.11641499 -0.28262585 0.19276448 -0.037141383 0.13137549 -0.43361655 -0.314417 -0.0056832847 -0.14677137 -0.119761504 -0.0035321894 -0.20598523 0.33497867 0.2205843 -0.2830787 -0.48143935 0.32412034 0.24472369 0.011844485 -0.2603128 0.036271412 -0.14011449 0.35164645 -0.33563745 0.16121753 -0.00888134 -0.34827802 0.1523356 -0.22250365 0.026766565 0.08344625 -0.39578363 0.33589715 0.5052796 0.20669776 -0.3982228 0.101026535 -0.14240493 -0.06772041 0.04764539 -0.09062478 0.049847458 0.05585938 -0.12896584 -0.15327264 0.12799415 0.068376705 0.214676 0.14973938 0.087803364 -0.120603584 -0.20706384 0.15098451 -0.17759085 0.010369359 0.19058873 0.16688986 0.28710538 -0.1581868 -0.18632537 0.15266287 -0.26090816 -0.074474715 -0.31329045 0.14207315 -0.1864116 -0.39309278 0.11050125 -0.22571567 -0.26401004 0.01915042 -0.075338304 0.16588038 0.34701985 -0.05271363 -0.12323211 -0.17202173 -0.10367312 -0.16486366 0.20423517 0.06298586 0.17747009 -0.19396876 0.19538191 0.15636326 -0.17179224 -0.025533881 0.018997347 0.1885436 -0.09603657 -0.062038347 0.0635876 -0.07907037 0.12650263 -0.12628143 0.10101803 0.18510954 -0.41906932 -0.16224638 -0.10305546 -0.025132656 0.31340975 -0.22670987 -0.19268103 0.012991799 0.87096506 -0.3016233 0.12210152 0.0009628829 -0.2608494 -0.062945075 0.02733796 -0.3036224 -0.35785452 0.1714351 -0.02308208 0.24700204 -0.1487777 0.0077982605 0.1347846 0.15859628 -0.21555197 0.055232473 -0.20702043 0.031877816 0.14107494 -0.12632869 -0.29551584 0.04148064 0.041522626 -0.10679906 -0.3241156 0.12916325 0.044375118 0.095936805 -0.19278586 -0.2201122 -0.0021356773 -0.117061056 -0.1715551 -0.08097575 0.21479674 0.15344904 0.118748814 0.053361826 -0.048922956 -0.07259005 0.044638533 -0.18825047 0.21029769 0.16150464 -0.22012445 -0.08452986 -0.011547087 -0.1415025 0.0829614 
0.00022306605 -0.0772137 -0.022082584 -0.115119345 -0.025651917 -0.20297818 -0.24756084 0.068459965 -0.09778925 -0.2519007 -0.059317987 0.33166453 0.09106869 -0.12607428 -0.23241493 -0.08845851 -0.17210324 0.28189287 0.01725741 -0.16231872 
Rect
Linear 20 20
0.16624251 -0.19758552 -0.08424637 -0.25989586 0.012872141 -0.1694969 0.06942957 0.15729432 -0.0035286485 0.22136539 -0.1896835 0.08098758 -0.1789235 -0.13261998 0.122950226 -0.19394027 -0.15671153 0.20214328 -0.16344057 -0.042861152 -0.122173674 0.034619182 -0.07180376 0.13617885 0.034985512 0.21541575 0.12273002 -0.113491446 0.05917713 -0.07768592 0.047208577 -0.14511834 -0.110796094 0.031080067 -0.1559704 -0.08424479 -0.011758387 -0.19109803 0.06421554 -0.064977184 -0.013898723 -0.052395683 0.27373695 0.15381125 -0.23629272 0.22037454 0.1722412 -0.12225074 -0.11504562 0.12220787 -0.1517311 -0.17703074 0.22145975 0.09048159 -0.21853338 0.08534875 0.10723337 0.024695186 -0.05307912 0.14865659 -0.080754034 0.061810274 -0.34567732 -0.08783319 -0.14967746 -0.21435848 -0.022143042 0.07305733 -0.08512171 -0.0316612 0.06702943 0.45655718 -0.21135414 -0.32824302 0.18776865 -0.11306219 -0.15910761 0.22155225 0.23270337 0.10005296 0.19178727 0.051068217 0.17086023 -0.16333327 0.11315504 0.14607689 0.21728164 -0.1979336 -0.1447636 0.02839759 0.07379222 0.006865889 0.056423545 0.03421572 -0.016509429 0.19212458 0.09622878 -0.21454628 0.09683165 -0.1569316 0.21611463 -0.10696064 -0.110359065 -0.06179411 -0.12964141 0.028180223 0.16223201 0.08026467 -0.25330237 0.13710698 -0.25171313 0.10271827 0.056204572 -0.1426075 -0.029423632 0.013947549 0.13909031 0.13523783 -0.08532749 -0.19996676 0.18284492 -0.16708578 0.27521724 0.20886591 0.2201737 -0.052096404 -0.041621875 -0.14369734 -0.02489655 -0.14275356 -0.104345866 -0.093555145 -0.077260435 0.051850513 0.046370447 -0.012106942 0.15379702 0.035655346 0.17838012 0.022891132 0.111257724 -0.010819439 -0.05183041 0.12465312 -0.0077032787 0.14816031 0.002554361 -0.22742304 0.09313962 0.18427327 -0.04934401 0.1375509 -0.08917948 0.1161568 -0.006648749 0.00207551 0.15670402 0.13161133 0.058114875 -0.08745378 -0.039442733 -0.14714485 0.04082489 -0.11987953 -0.052807733 -0.038000375 -0.17705151 -0.12198101 -0.19705579 0.13847876 -0.10191165 -0.188714 0.18660733 0.13542458 -0.11448353 -0.21822348 0.16593605 0.20647082 0.13881093 0.1706121 0.13286433 -0.23883928 0.027953377 -0.064888425 -0.08161306 -0.061189454 -0.16081178 0.33626774 0.27733216 -0.1245181 -0.061719693 -0.16699226 0.1439262 0.39622864 -0.07749325 -0.077642895 -0.05366309 -0.19475953 0.08001857 -0.19347464 0.19864175 0.07604336 -0.15354843 -0.3297797 0.08225101 -0.17095134 -0.16701172 -0.18008983 -0.24133871 -0.21691854 -0.11641566 -0.10585725 -0.17553982 -0.107175164 0.08291306 -0.2622863 0.072182074 0.39744854 0.23932195 0.18842779 0.06640072 -0.25383118 0.014911418 -0.17620373 -0.17056018 0.08019528 0.18926759 -0.1515215 -0.06886398 0.111484796 0.1584513 0.16951978 -0.29082167 -0.1521373 0.027788302 -0.11497588 -0.012546492 0.368797 -0.06373232 -0.0012972186 0.027698893 0.08099176 -0.018166052 0.09260125 0.017646322 -0.2088076 0.17439292 -0.21948744 -0.18954226 0.17074557 0.17061034 0.30993763 -0.24484658 -0.1875364 0.020034954 -0.052127354 0.1494486 0.4013935 -0.03148477 0.11050172 -0.10568901 -0.0103852 -0.19578266 -0.1071588 -0.21207547 -0.165616 -0.2138958 0.07693818 0.10149478 -0.08081204 0.021975294 0.0049939468 -0.21701941 -0.09917847 0.1069237 0.13018407 0.017660558 0.17693312 0.055410534 0.1400648 -0.09582978 -0.0642631 0.0077486346 -0.36859977 0.11505187 -0.18710943 0.05683428 -0.23019974 -0.43836755 -0.16444467 -0.22140032 0.089851215 -0.07807767 -0.27995488 -0.07246361 -0.01448403 0.17287552 0.4887803 0.07398866 0.176225 -0.129619 0.12679657 -0.052409805 -0.00038177485 0.023171995 0.13355997 -0.11573367 -0.22078171 0.014938728 -0.14184546 -0.14445834 0.052554928 0.1259479 -0.21492358 0.12656456 -0.20447455 0.07769855 -0.14146481 -0.16995572 -0.15606424 0.0129865585 0.15408649 -0.04788727 0.12913777 -0.03844848 -0.016970439 -1.1922775e-05 0.20567113 -0.18793002 -0.17561443 0.07509977 0.1541087 0.15835105 0.13799363 0.10804781 0.09335784 0.1732841 0.030974558 -0.15978551 -0.21936375 0.10622994 -0.16583799 0.07039615 0.12699622 -0.18450753 0.0848268 -0.08312005 -0.094440565 -0.1930664 0.14316715 -0.07320404 0.2144666 -0.28032932 -0.059072487 0.16596141 -0.17718738 -0.06917395 0.38087884 0.094529666 -0.16918685 -0.0466605 -0.04164979 0.4533105 0.18394376 -0.17352173 -0.08700443 -0.3174818 0.22640881 0.23314656 -0.321703 -0.13643762 -0.37489933 0.36077908 0.4322367 0.107115895 0.28062537 -0.19498622 -0.3273861 0.17439903 0.028130857 0.0068087066 -0.2727234 -0.25007492 -0.05836101 0.111104146 -0.02842926 -0.19449665 0.040286798 -0.38793743 -0.16671354 0.027012344 0.3845769 -0.24393122 -0.23007512 0.06601352 -0.19452047 -0.18198322 0.49852914 -0.008102219 0.20080954 
0.14164202 -0.1970511 -0.035403058 0.3294492 -0.21683526 0.086449035 -0.10368501 -0.18086366 -0.18504605 -0.05031247 0.14983355 0.22904345 0.31520173 -0.16208993 0.14740571 -0.072225966 -0.2807146 -0.10245205 0.08458345 0.11331474 
Rect
Linear 20 20
0.063734256 0.014151946 -0.2443279 -0.09841399 -0.055489093 0.01989824 -0.2586717 -0.05129076 0.1065284 0.10763328 0.033280525 0.0338581 0.030043479 0.19823784 -0.01301993 -0.07659185 -0.101986095 0.15439695 -0.2648149 0.070208065 -0.10682079 -0.13259837 0.049162906 -0.18233009 0.14648575 -0.057465643 -0.21259913 -0.05440615 0.1582816 0.14604454 -0.04201046 -0.07575089 -0.10972544 -0.14085864 -0.13945805 -0.033804305 0.13567409 0.08652715 0.12066018 -0.15030754 0.22701967 -0.12640733 -0.15928592 0.25517884 0.14681444 0.25290757 0.047636323 0.13988508 0.008378938 -0.12302158 0.32777476 0.29268783 0.2722063 -0.077851824 0.28341708 -0.115318105 -0.2133353 0.26476336 -0.1055931 0.23550394 0.07765753 0.16590074 0.06880483 -0.09859085 0.14937025 0.032426003 0.03936527 -0.21671663 -0.044149354 -0.06890275 -0.2640311 0.13091734 -0.28152436 -0.009880826 -0.04230816 0.16592997 -0.038648415 0.15845135 0.33564323 -0.23447841 0.123475574 0.060346067 -0.06885608 -0.16362108 -0.14711866 -0.17214487 -0.045402993 0.1698207 0.06631172 -0.072821714 -0.015788484 -0.120153375 0.19853404 0.06283644 -0.10625113 -0.07013574 -0.081387036 -0.12949128 0.033860292 0.028012846 0.05316146 0.17311248 -0.11689595 -0.3065197 -0.16600506 0.05360818 -0.10416192 -0.1349407 -0.1420596 0.2685756 -0.11890157 -0.0018453049 -0.1266363 0.114000976 -0.057453077 0.17015515 -0.03660479 0.1287313 0.36117452 -0.20520718 0.1597215 0.014332622 0.07447534 0.0798104 -0.20899776 -0.1689259 0.014629452 0.15182076 0.009714305 -0.07714227 -0.073120475 0.08123696 -0.09725156 0.14352721 0.10520528 0.14390916 -0.13797382 -0.03101167 0.15133205 -0.022267796 -0.042824104 -0.1998684 0.11929973 0.18687098 -0.16372328 0.22075556 0.012116439 0.09283174 0.21169716 0.0461012 -0.12889205 -0.2106273 0.050148446 -0.037903737 -0.0408036 -0.22343084 0.14464153 0.21627527 -0.18995912 -0.043866277 -0.15282819 -0.03853008 0.13933563 -0.333848 0.047048748 0.097955026 0.099162124 0.18606801 0.09869972 0.26722997 0.004614637 0.09469243 -0.34482217 -0.020677298 -0.16703846 -0.19259696 -0.09365213 0.047042843 0.31417274 0.025280314 0.10278778 0.058716 0.18082978 -0.19169588 0.19941342 0.18429868 0.1401889 0.08413201 -0.1666996 0.10994484 0.06815413 -0.29994443 -0.05750368 -0.15056784 -0.21668383 -0.13345045 -0.09610167 0.13418938 0.39726225 -0.36519197 0.097478814 0.16707382 0.14077234 0.4088399 -0.16884616 0.09470806 -0.021574443 -0.1355861 0.08525014 -0.008498345 0.099494085 0.2664683 0.21574841 0.124074735 0.20101702 0.09268411 -0.11605244 0.20273764 -0.26010954 0.2924793 -0.27584764 0.097580224 -0.31996876 0.0017123254 0.023917899 -0.10125749 -0.29138717 -0.14798948 0.085128486 0.09035148 -0.17420897 -0.13504647 0.086001635 -0.008212745 -0.077191964 -0.15605398 0.068974614 -0.1008002 0.15124069 -0.15877199 0.038396973 -0.123605475 -0.188576 -0.07526596 -0.15033093 -0.0011465667 -0.2337165 -0.019890426 -0.15143096 -0.13486114 -0.019649548 0.0037303222 -0.1674034 0.090064436 0.09716015 0.14894223 -0.14446868 0.08475067 0.029784229 -0.13464512 0.009986494 0.010882601 0.15390609 -0.043928187 0.15260902 -0.14886107 -0.058468554 -0.051290605 0.032910913 0.17834544 0.04927361 -0.055902112 -0.035335336 -0.11694542 0.0432194 0.17960376 -0.14327681 -0.121036425 0.014723085 0.21120256 0.16254275 0.1973832 -0.1566418 -0.062175456 0.03506404 0.043967374 -0.10888458 0.109335065 -0.052137315 -0.060274396 0.0028214925 0.15374984 0.15357096 0.1348534 -0.23327552 -0.16901258 -0.072957456 -0.12044788 0.08155498 -0.15677907 0.08421543 0.12173411 0.14934847 0.13087812 -0.13552871 -0.017424159 -0.10444567 -0.13749182 0.009489089 0.17539056 0.18166925 0.10697241 -0.004455743 -0.20768557 0.017719587 0.08937624 0.061169535 0.043229423 -0.15047243 -0.11175108 0.06442108 -0.016477942 -0.0012453527 -0.102332264 -0.095715135 -0.16266505 -0.19621266 0.18776369 0.05001697 -0.1381454 0.14551772 0.01966332 -0.07119496 0.21185918 -0.23787604 -0.089572236 -0.16796379 0.18853094 -0.12898074 0.06080629 -0.14635648 -0.207182 -0.018897317 -0.13790058 -0.0052292645 -0.069281384 0.119774975 -0.14548814 -0.07510282 0.20039162 -0.15687516 -0.11937808 0.19703273 -0.18744242 0.027682757 0.071103096 0.08797767 -0.19554743 0.09629676 0.1477928 -0.05244899 0.0150690675 0.15005112 0.01726347 0.081777304 -0.12073726 -0.25592914 -0.19326761 -0.0745496 -0.20653132 0.2108316 -0.05351084 -0.20599401 0.02523692 -0.06277218 -0.05702267 -0.12640953 0.11096033 0.08932347 -0.097485915 -0.14745584 0.11358565 0.08285829 -0.2638247 0.18018556 -0.26055488 0.06881667 -0.023173451 0.04344815 -0.16247249 0.091980085 0.06977149 0.025826178 -0.044900015 0.10428975 0.17393526 -0.20167269 2.3157994e-05 0.045456517 0.016234765 
0.09868502 0.08506521 0.12517264 0.0052075847 -0.033878073 0.16346411 -0.19036697 -0.020143863 0.053041354 0.24668358 0.29495856 0.02858638 0.035192054 -0.1781858 -0.07411575 -0.30025136 0.043237157 -0.32820717 -0.01939324 -0.013495631 
Rect
Linear 20 2
-0.030065233 0.1269405 -0.36170882 0.1308562 0.068412036 0.27803957 -0.045361504 0.01761162 0.09331322 0.31923962 -0.31049907 0.1489909 0.15651307 -0.072835594 -0.112971686 0.19128968 0.21360923 -0.27451885 -0.14909379 0.20452148 0.04985548 -0.066460915 0.37004885 -0.13090377 -0.10322746 -0.16186726 0.079362445 -0.0685884 -0.34407693 -0.09290582 0.23189688 0.040469967 0.16251622 0.020396344 -0.059531476 -0.18404059 -0.08180487 0.1380846 -0.15573461 0.21071418 
0.09490942 0.021780761 
