Linear 19 50
0.15111515 0.08819751 0.14150684 0.12247838 0.023348827 -0.13654666 -0.11350891 -0.23671551 0.023536617 -0.11914706 -0.027711822 -0.09685006 0.30477834 -0.09206133 -0.17052074 -0.107491665 0.08437667 0.07990149 -0.025405088 0.13578267 0.10015997 0.056643058 -0.07135091 0.19219866 -0.05469811 -0.06999045 -0.080921374 -0.09250837 0.09393775 0.11331923 0.13749927 -0.009434252 0.19969404 -0.064800814 0.05870262 -0.19515386 0.04786905 0.038631663 0.21626805 0.13338614 -0.074981116 -0.031352494 -0.16958433 0.17122261 -0.05798627 -0.19444354 -0.03807394 0.025767313 -0.06842605 0.035805684 0.19007687 -0.19205378 0.1252074 -0.13527484 -0.20084693 0.06183118 0.20127715 -0.059082188 0.13358134 -0.23013493 -0.12444065 -0.16101001 -0.15946844 -0.16148698 0.084983826 0.1854807 -0.09252692 -0.23178756 0.18891183 -0.10684286 0.1002776 0.102715455 0.0032543924 0.14401314 0.063467346 0.13781229 0.15542479 -9.781414e-05 -0.04482767 0.09106225 0.04370725 0.15146579 -0.0648887 0.08971544 -0.0019563755 0.029099822 0.15885276 -0.30172667 -0.37330925 0.13995495 0.15732948 0.0523212 -0.080517985 0.036548693 0.23509152 0.116738774 0.19997181 0.08309874 0.013145469 -0.15518571 -0.18017143 0.119986914 0.1920545 -0.18874094 0.0045300266 0.14255406 0.032583512 0.326181 -0.036916666 -0.040694848 -0.16952512 0.1132229 0.0580414 0.020965401 0.1458005 -0.15005025 -0.20922287 -0.037096627 -0.061913505 0.22604078 -0.046155863 0.07304056 0.0908801 0.0014545128 0.06838689 0.10263575 0.17126605 -0.12408398 -0.08235935 0.04509487 -0.25636473 0.053945854 0.08725151 -0.12454185 0.04450857 -0.06171249 -0.06910334 0.0013661808 -0.045664933 0.035558995 -0.17046438 0.1743324 0.14142525 -0.20295012 0.16796881 0.1722848 -0.027872067 0.08432278 -0.21347761 0.027029164 0.093969695 -0.0932605 -0.22950271 0.19932346 0.19428602 -0.10009817 -0.10260189 0.04274459 0.20043643 0.05031141 -0.20462206 -0.1942392 -0.20616902 0.025507655 -0.14483853 0.11352674 0.19222327 -0.07939189 0.0219224 -0.14098158 0.025045041 0.19779198 0.13466242 -0.16606739 -0.057745405 0.081995726 -0.18689542 0.19595495 -0.063489534 -0.063675 0.25006986 -0.0507839 0.2382652 0.10399806 0.19140148 0.22266237 0.05293397 0.08817724 0.18436478 -0.21217814 0.11065751 -0.21558186 -0.19331725 0.002185527 0.15110965 -0.2080069 -0.020799033 -0.10218274 -0.104307756 0.07801839 -0.20090234 0.20405862 0.104293905 -0.12292301 0.06334691 0.13175678 0.15422891 -0.23265451 -0.20023876 0.19946621 0.13559067 0.22002795 0.142539 0.15217233 0.026587589 -0.19053978 0.20248368 0.12086756 0.14812869 0.100145586 0.26822764 0.34349784 -0.0774943 0.11436675 0.069960706 -0.1916015 -0.15997598 0.04031646 0.13035445 0.14639355 -0.035686165 0.18051176 -0.18449561 0.04372971 -0.02633779 0.13091004 -0.11205884 -0.123695865 -0.21720614 0.038127035 0.3107373 0.015819782 -0.18932027 -0.0066822777 -0.05795272 0.0022526013 0.089429334 -0.24658957 0.19665478 0.015466759 0.1691587 -0.14547017 0.047101747 -0.11971603 0.15648283 -0.106778115 -0.026712963 -0.14157636 0.06517989 0.20866333 0.19394748 -0.13587071 -0.04092628 0.020797309 0.112448886 -0.19692922 0.04886098 0.0355748 0.11713979 0.07220173 0.2205946 -0.101375185 -0.16171338 0.064608246 0.100752294 0.01906319 0.08601054 -0.027380593 -0.24386472 -0.025640098 0.08979621 0.0021118086 -0.015654504 -0.18125011 -0.17599379 0.074174784 -0.1839787 0.23470412 0.12323781 0.127811 -0.24245375 -0.07195437 -0.1014286 -0.11147646 -0.035089873 0.00392333 -0.08414138 0.14329079 0.06762566 -0.019743823 -0.033697292 0.06069197 -0.07438288 0.19549271 0.13343997 -0.031206042 -0.068427525 -0.13047248 -0.019033514 -0.05406426 -0.18938407 0.05141575 0.011261195 -0.0656275 0.08653768 0.22382669 0.20005767 -0.20572077 -0.15813042 0.08589038 -0.0146569675 -0.044047672 -0.01933218 0.22935505 -0.18357582 0.07178883 -0.026337689 -0.1123891 -0.10043286 0.21610674 0.14600164 0.1415939 -0.1254316 -0.014938868 0.27709132 0.06363628 -0.2557413 -0.08279637 -0.07221033 0.17920507 0.09055574 0.1763015 0.054750312 0.09973342 -0.20716925 -0.17632343 0.1479197 0.14821063 -0.18335798 0.20204924 -0.21894674 0.064206965 -0.16272067 0.08833615 -0.083923146 0.09023971 -0.08138431 0.19290668 0.13370563 -0.16821632 0.04695209 -0.077593446 -0.043258395 0.022470877 0.048444085 0.1204379 0.0056155943 0.08542386 0.22185643 0.051808406 0.1040165 0.13215075 -0.035968516 -0.18959135 -0.14727731 0.14758709 0.07420239 0.05882693 0.049528588 -0.08651718 -0.08111286 -0.035145823 0.14911501 0.082276106 0.017415758 0.13393904 0.12031384 -0.0347813 -0.15903108 0.123000935 0.17364244 -0.07602086 -0.28671077 -0.16438732 0.01158432 -0.22878756 -0.054722887 -0.025253335 0.12414453 -0.0028193279 0.18659142 -0.08449128 -0.18362977 0.14673318 0.047600456 0.07615943 -0.21234438 -0.20279561 0.15048233 -0.14513758 0.028682323 0.015051273 0.015781598 0.23742115 0.049878612 -0.035473153 -0.06852186 0.026300209 -0.106380135 0.06288178 0.20356415 -0.17067349 0.03845046 0.16090612 -0.21334141 -0.005512267 0.018303037 -0.012568165 0.15953037 -0.13733836 -0.13368908 -0.19408847 -0.16415617 0.18893573 0.18405075 0.029406216 -0.03613709 0.041899607 -0.012000522 0.21276808 -0.09693215 -0.012690233 -0.14383726 -0.11309933 -0.018960603 -0.030827628 -0.021466654 0.12520882 0.007929131 0.03981408 -0.08583743 -0.094553605 -0.14017619 0.007960678 0.19335091 0.007741777 0.13303415 0.13372122 -0.12853763 0.022278769 -0.17404538 -0.049784765 0.05011901 -0.10181826 -0.030747091 0.14841545 0.04319925 0.3532372 0.39100918 0.0781587 -0.0037816374 0.10900521 -0.031202542 -0.035960004 -0.05363439 0.084577374 -0.08908708 0.09616608 -0.21360606 -0.12859434 0.1859496 0.2315459 0.044744518 -0.07750637 0.13395694 -0.15052263 0.14437602 0.113720454 -0.19451946 -0.084542565 0.02424276 0.04723518 -0.14071228 -0.045668066 0.15260676 0.09206954 0.16806875 0.03566946 0.23532489 0.08622346 0.14677991 0.10597178 0.23221375 -0.25116697 0.1995079 -0.2182045 0.014453955 -0.14947918 0.08162932 0.17141998 -0.1102496 -0.006344241 0.21050715 -0.03876941 0.017573178 0.20560504 -0.088421926 -0.16447243 -0.16751935 -0.18645829 0.08410014 -0.1582311 -0.20161045 -0.18785186 -0.008750454 0.060657784 -0.16733855 -0.21845776 -0.12703174 -0.15107292 -0.032729268 0.10591264 -0.07448753 -0.0077894693 0.08118326 -0.21760783 -0.081898145 0.027309364 0.19652164 0.20531112 0.12511091 0.10606476 0.024980111 -0.08318489 0.01629339 -0.17075264 -0.08987994 -0.21157613 0.20077087 0.05458825 -0.019918859 -0.1732645 -0.13362719 0.20296143 -0.117328204 -0.015360281 0.06495412 -0.087463215 0.07827614 0.0063096285 -0.21528086 -0.2293837 0.027773306 0.09314148 -0.21002825 -0.11946306 0.10017176 -0.069880605 -0.12658146 -0.014294371 0.101515815 -0.07085849 -0.15087265 -0.054385856 0.058984935 0.17598158 0.17751162 0.10373112 -0.066806056 -0.24649282 0.17022361 -0.39607194 -0.34597746 -0.1745828 -0.21405062 0.11166031 -0.02065443 0.23534411 -0.034919433 -0.18148285 0.21688163 -0.023429973 0.17527503 0.08895359 -0.115798384 0.15881127 -0.05850836 0.1538858 -0.1653425 -0.0026427396 0.03597231 -0.011626428 -0.15332142 0.1402487 0.21777122 0.14997466 0.03294036 0.24234003 -0.030943697 -0.09825116 0.030777592 0.14100382 -0.035692286 -0.13799635 0.060495567 0.17991066 -0.20750567 0.19295025 -0.18812324 0.10151481 -0.13062908 0.09424483 0.074732214 -0.010675651 0.113762476 0.11315535 -0.19065402 0.12535518 -0.17079674 -0.15864551 0.025555171 -0.16505355 0.045750532 0.008529172 0.06644089 0.04264627 0.19268611 -0.076125324 0.18119629 -0.14998539 0.11005853 -0.07144312 -0.13555731 -0.06502432 0.10997988 -0.18487793 0.21097939 -0.078323014 0.026004827 0.064696044 -0.2592067 -0.122917406 0.14024429 -0.1541126 0.016766343 0.28401068 0.10828641 0.41825107 0.4317324 0.053529695 0.19473511 0.03688285 0.10175911 -0.10769279 0.116145074 0.23442647 0.12492276 -0.09861008 -0.0794322 0.047072943 -0.025426427 0.19945945 -0.10375993 -0.053569753 0.15371917 0.12258274 0.08492778 -0.28348514 0.030539759 -0.17013957 -0.11610544 -0.043089643 0.10059672 0.04400692 0.16789049 0.20314713 0.09157398 -0.21249846 0.05987069 0.20828243 -0.21178287 -0.06743773 -0.020696804 -0.016897421 -0.11475122 -0.17036243 -0.09465784 0.09330958 0.13878404 0.10493732 -0.005200624 -0.11172637 -0.10656584 -0.19130811 -0.12525362 -0.01233529 0.15237278 0.16775401 -0.05461897 0.15304916 0.227711 0.08098003 0.03595719 0.10514948 -0.13764991 -0.2604191 0.08458159 0.09989374 0.16752966 0.026074048 0.20185794 0.21888384 -0.06302096 -0.008403259 0.01182602 0.08494185 0.010803411 -0.15137084 0.22447544 -0.12452874 0.22712632 -0.21937965 0.20051411 -0.22223926 -0.22817117 -0.031792197 0.19214472 0.1192757 0.19416642 -0.12017331 -0.013374684 -0.24093099 0.21763606 0.06579209 0.15212692 0.0036827624 0.16559565 -0.06501065 0.010695807 -0.18700963 -0.10950069 0.14547616 0.043063015 0.24619013 0.1673437 -0.1965706 -0.15789509 0.057917785 -0.07385517 -0.13706043 0.013588032 0.13567047 0.12088802 0.124113895 0.07129235 -0.1596677 0.042067222 -0.15023363 0.18426684 0.05802929 -0.051016808 0.028427212 -0.104075454 0.1661524 0.17852835 0.007640301 -0.26016045 -0.14833057 -0.022801807 -0.19860436 0.21107745 -0.22237098 -0.09795662 0.1002946 0.06700478 0.12485788 -0.16690148 0.10406728 0.039575446 0.050176308 -0.19412847 0.005428496 0.18844502 -0.030181097 -0.124045886 -0.21507068 -0.014107333 0.19722985 -0.16822033 0.23901318 0.15447721 -0.040359356 -0.04494446 -0.10011463 -0.041197963 0.12980208 -0.13476565 -0.17562975 0.003644186 0.035446998 0.17391193 -0.21179828 -0.17588419 0.13761371 0.09790475 0.17091519 0.12251589 -0.08870499 0.046285138 -0.05822516 -0.11954119 0.19454901 -0.018407276 -0.054333195 0.13004608 0.25043142 0.09043115 -0.034858342 -0.21106201 -0.39911702 0.13433246 0.14586519 0.23325807 0.1975573 0.042221807 -0.07146478 -0.21064325 -0.17437889 -0.2175371 0.07633147 -0.052685723 -0.19375697 0.104343295 0.123542175 0.18294415 0.13252227 -0.08836366 -0.12991215 -0.11146911 -0.21674289 -0.058935594 0.16782631 -0.20166978 0.15508603 -0.041884422 0.047104158 -0.21509987 0.09079554 -0.014123039 0.13505541 -0.18831445 0.15667257 0.0940155 -0.012258249 -0.17422464 -0.11112679 -0.068002835 -0.4022039 0.17961784 0.12243789 -0.15791726 0.08729067 0.078921154 -0.19257915 -0.19235371 0.09470578 0.04100944 0.23083076 0.15305896 0.000744349 -0.14442435 -0.13854007 0.21447822 0.24973226 -0.17042507 0.1835162 -0.06578261 -0.039868202 0.05896207 -0.19758058 -0.106405914 -0.1752481 -0.015398703 -0.048264623 0.15216579 -0.051678486 -0.13435704 0.2648452 0.027404474 0.110728316 0.14115903 0.16228761 0.085057795 -0.09025822 -0.021316102 -0.12141118 -0.21487658 -0.060262408 -0.17248276 0.15856344 0.16958843 0.20522794 0.11548265 0.11612382 0.0877651 -0.17064394 -0.17070885 0.12551858 0.21679313 -0.13338235 -0.023055613 -0.17365162 0.21597838 -0.25241184 -0.011812425 -0.12383797 0.018586785 -0.004710712 0.17663893 0.033520803 0.07161242 -0.026747629 0.12302783 0.17599131 -0.09350847 -0.17020275 0.010051798 0.22634652 0.05725849 0.0953287 0.04623991 0.04379192 -0.32158697 -0.2790003 0.15016098 -0.0058122785 -0.11899208 0.21218583 0.1503127 0.0027239993 
0.1957474 0.1213683 0.16466576 0.1759657 0.1102753 -0.15252295 -0.056357656 0.06434685 0.1482622 -0.049521685 -0.100913845 0.11682019 -0.041550312 0.06404539 0.11405705 0.0708259 -0.15752172 -0.17979194 0.18787326 0.18712138 0.18417704 -0.10447958 0.1437356 -0.11763552 0.14946452 -0.030252494 -0.078393646 -0.18939924 0.1666279 -0.13018766 0.25832483 -0.08116086 -0.14103295 -0.22339736 -0.004593631 0.083647445 -0.10553543 0.11295654 0.12051692 0.0638056 -0.21443796 0.07234662 -0.13332963 0.027284537 -0.1264134 0.1468613 0.15728791 0.15042123 0.20358782 -0.053543545 
Rect
Linear 50 50
-0.011487246 -0.022222318 -0.0020720065 -0.035622634 -0.12678082 -0.010419667 0.078701004 -0.00823015 -0.104047984 0.041000843 -0.026692204 -0.115738384 0.01510568 -0.056018896 -0.018936142 -0.1401056 -0.08816147 0.10579227 -0.10682686 -0.13054933 0.12338857 0.08563058 0.07154217 0.024750158 -0.1197433 -0.008243114 -0.05514814 0.11431892 0.0950671 -0.106985345 -0.06898656 0.11621384 -0.012651831 -0.049791023 0.0449612 -0.048213735 0.12526177 -0.09188285 0.05186923 -0.01062341 -0.09594651 0.11566673 0.13823049 -0.021068253 0.107767105 -0.097173594 0.013944402 -0.03720741 -0.04544644 0.12373902 -0.13161238 -0.13707559 0.089723736 -0.070402235 -0.13766721 -0.058198977 -0.12094704 -0.121776074 -0.06282135 -0.06340772 0.13885342 0.082508184 0.042353358 0.07169675 -0.06605042 -0.07114521 -0.04349275 -0.12412531 0.090691924 -0.09138885 -0.0074501364 0.028313274 0.012931352 -0.1292176 0.08590064 -0.013950831 0.048102893 0.07757531 0.0865031 0.017591476 -0.058183935 -0.04289704 -0.006958435 -0.06508344 0.042993512 0.1225175 -0.026718384 -0.122226164 0.08544876 0.09400462 -0.022422811 -0.056977578 -0.049428493 -0.07318969 0.10699487 -0.08696061 -0.062298838 -0.10693155 -0.063416645 0.042634863 0.008137879 -0.0052280934 -0.03553778 0.060521726 0.09839526 0.088128135 -0.117320724 0.0145961 0.088511586 0.00813197 -0.07978436 0.10618465 0.10568758 0.095945604 -0.039098985 0.035047084 -0.109101206 0.104393505 0.026292134 0.09102668 0.0154915955 0.12058535 0.0149313025 -0.059657376 0.14282742 -0.040677708 -0.0026764504 -0.037211575 -0.054451413 -0.06696172 -0.16784355 0.023364097 -0.122195296 -0.13100314 0.11751343 0.035030063 -0.093948364 0.100975074 0.020633578 -0.10357848 0.124188215 -0.04425315 0.14207996 0.048833758 -0.04159922 -0.03705987 -0.013435748 0.114465006 0.011528147 -0.14217487 -0.01512619 0.10055625 0.123175316 -0.08586918 0.03826284 -0.10250415 0.123827 0.033777058 0.019701125 -0.0863783 -0.029754616 -0.13108312 0.005845774 0.007445001 -0.029926322 -0.13459456 -0.0049358457 -0.13186653 0.14084789 0.09563862 -0.06482696 -0.093343005 -0.11936222 0.013330309 -0.06291217 -0.0068519874 0.0068670227 -0.057810746 0.018017791 0.09275992 -0.020285912 -0.06358947 0.13018861 -0.11120056 0.11022716 -0.08936226 -0.061433703 -0.12334506 -0.070810765 0.085863516 0.1372116 -0.013476986 -0.059721652 -0.091779076 -0.05074808 0.038921252 0.0076087965 -0.05304274 0.053279255 0.08288234 -0.12861097 0.11695121 -0.016943477 -0.11778163 -0.041444585 0.12286017 0.08818814 -0.13048956 -0.11848663 -0.11696591 0.09107969 -0.090246454 -0.06766657 -0.10434191 -0.062264297 0.13282229 -0.11263897 -0.0004889243 -0.07869558 0.09848246 -0.08718128 0.12519802 0.09644931 0.005577698 0.08343587 -0.13542163 0.12920134 -0.05585525 0.07560704 -0.010676339 -0.09739962 0.053223945 -0.055761732 0.10716426 -0.10344442 -0.12695517 0.13434277 0.07452221 -0.007876146 0.10082322 0.13381666 0.102567464 -0.010314104 -0.05355622 -0.04711338 0.010566013 -0.114356704 -0.020541593 0.028094007 0.12136087 -0.05583491 0.04131329 -0.07588113 0.029154418 0.0061348868 0.06205122 -0.06303817 -0.13658191 -0.14058445 -0.09511782 -0.13547768 -0.008588695 -0.09664817 0.04941696 0.13550645 0.114185646 0.019860966 -0.056671895 -0.100743055 -0.108935654 0.015037893 -0.038650814 0.03155525 -0.11262087 0.14216696 0.12046911 0.07563208 -0.029599227 -0.1390846 0.044552356 0.1429526 0.10808725 0.09168382 0.12699579 -0.09453911 -0.02869041 0.07279757 0.099658415 0.053492747 -0.058955483 -0.0777761 -0.005555685 -0.114241 0.14406161 0.043784223 -0.10834813 -0.08629295 -0.047845036 -0.11806271 -0.13151854 0.03551826 0.083387695 0.14990588 -0.006193132 -0.14147201 -0.033822745 -0.062882215 -0.10645163 -0.055079546 0.13872775 0.107090235 0.14508529 -0.053701084 -0.057274647 -0.099304035 0.003178636 -0.14171647 -0.006761947 0.03781367 -0.060685586 -0.14267197 -0.10789465 0.024469621 -0.06420179 0.14408632 0.12244944 0.108008996 -0.115074135 -0.06026536 0.047774866 -0.15751736 0.059080105 -0.02316648 0.13418184 0.19157715 0.020748595 0.11884976 0.070982665 0.07777817 0.1556229 0.12502635 0.11033459 0.042427193 -0.12712777 0.06928089 -0.13025008 0.09979326 -0.05973705 0.030412074 -0.06084967 0.0771843 -0.017729523 0.12385523 -0.052069426 0.05239708 0.12910639 -0.08615853 -0.0898627 0.1128981 0.097736806 0.0071551222 -0.032572746 0.13748474 0.03005113 0.050572105 0.028558273 -0.041811883 -0.07523306 -0.14399205 -0.10022746 -0.044635873 0.118167564 -0.104828656 -0.042009722 -0.0030546556 0.07400703 -0.120121494 -0.009838998 -0.11236248 0.12772019 0.056459285 -0.0022508933 -0.07385582 -0.1390072 -0.072980046 -0.07056386 0.03688772 -0.12530233 0.12913601 0.06485909 -0.053518496 -0.024780544 0.110892095 -0.008819999 -0.0026705272 0.0042329137 0.09766424 0.09055983 -0.06654282 -0.10327233 0.050001737 0.14995223 0.110326104 0.073912896 0.1330934 -0.036644407 0.07452455 0.12589715 -0.016042404 -0.142035 -0.057995744 -0.014936206 -0.13859606 0.0589385 -0.12050006 -0.068316974 -0.012495388 0.090960786 -0.08668039 0.019843474 0.055939406 0.061545502 -0.009356603 0.057797935 -0.15634851 -0.082566135 -0.08379905 0.08743176 0.039805323 -0.098593384 0.05071482 0.11930898 0.097209126 0.13059281 -0.15282093 0.05785616 0.10116462 0.13974027 0.07145503 0.10621552 -0.09758191 0.011701292 -0.008500736 0.09696834 -2.7906042e-05 0.109739 0.09468827 0.0017100557 0.13033758 0.16441958 -0.056645427 0.14133175 0.009737549 -0.015503009 -0.062758975 0.007716611 -0.1456269 -0.07148646 -0.00880373 0.16753238 0.06497346 0.04416783 0.09226584 -0.092088245 0.06700962 -0.04216474 -0.10988973 0.16296954 0.0624709 -0.007603888 -0.1251191 0.10357032 -0.062474046 0.12652463 0.12011645 0.009937153 -0.1483299 0.01527153 0.12363764 0.08917108 -0.101784155 0.05221169 0.106176995 -0.07999405 0.09078575 -0.06143936 0.11582148 -0.08117553 -0.07806208 0.0828949 0.08058172 0.092913985 -0.032971345 0.01610718 0.010860177 -0.15149672 0.05807031 0.053696502 0.022003569 0.08762693 -0.09680941 0.14407998 -0.06639368 0.01600531 0.10885337 -0.17884442 -0.09535077 0.09453538 -0.06374328 -0.0009621864 0.1198586 -0.0070967637 0.009824342 -0.17038958 0.13441256 -0.13763572 -0.07670179 -0.013846342 -0.042605016 -0.049268227 0.1158258 -0.08889165 0.1235937 -0.14844409 -0.20403925 0.027798606 0.11555168 -0.03344 0.1234969 -0.14071354 0.2035859 -0.060685843 -0.025657907 -0.13627507 -0.020336512 -0.021228546 0.09361844 -0.00024959084 0.04974376 0.098802574 0.05591372 -0.061776765 0.10882668 0.19335984 -0.10158547 0.04737819 0.054180138 0.11208423 0.100595385 0.17014374 -0.15879592 0.0075588026 -0.05651841 -0.027156722 -0.06528782 -0.1196858 -0.11247191 0.003189095 0.11486884 0.04462966 0.009959718 -0.124242656 -0.003968869 -0.17029487 0.105344035 0.11254269 -0.10574049 -0.05416802 0.06922945 0.066004865 0.0051292554 0.0056880303 0.02603605 -0.028367803 0.07456372 -0.027642941 0.026988978 -0.08985068 0.1238097 -0.05897995 0.11992774 0.044428248 -0.13030636 0.07846354 -0.15749033 -0.08038987 0.046368863 0.10479262 -0.106913656 0.08643574 0.0104397675 0.07190692 -0.01582706 -0.0848557 0.030103946 0.11353373 -0.09969018 -0.094606414 0.13231893 -0.08997506 0.0048805457 0.09551645 -0.012203347 -0.1377234 -0.15190819 0.010646416 0.0012229184 0.121514775 -0.043354012 -0.0988232 -0.120071985 0.13306281 0.011785649 0.08380581 -0.010895972 0.081701584 -0.008840543 0.03572191 -0.085659705 0.08449142 -0.08328591 0.05658323 0.096280724 0.045665476 0.051503636 -0.07925007 0.13778822 0.11177604 -0.14047626 0.013464332 -0.026738979 0.031303912 0.099664465 -0.12350109 0.020986337 -0.107878126 0.09635946 0.044884194 -0.07028255 0.10384524 0.027086506 0.062148083 0.07091978 0.1101281 -0.12080707 -0.05243521 0.020826139 -0.11520768 -0.061165527 -0.058074947 -0.030195467 -0.11706827 0.002190099 0.068803184 -0.014858934 0.11122029 -0.06078695 -0.12784287 0.08600255 0.105301335 0.14513385 0.05791821 0.0063603483 -0.13958913 0.112895995 -0.107704565 -0.058529973 -0.11969904 -0.10455793 0.039155345 -0.10061214 -0.095337585 -0.055508766 -0.040841516 -0.113602735 -0.0936633 0.14180455 -0.067062415 -0.12178239 -0.1244089 0.004910337 -0.0056395694 0.10375501 -0.049115412 -0.17153198 0.13125332 0.14967462 0.011665652 0.15136966 -0.010464995 -0.07557889 -0.11263677 0.05808721 0.096952066 0.005911877 -0.11826187 -0.08067879 -0.030968938 -0.07934379 -0.07746165 0.026615316 0.04168169 -0.06830526 0.10687558 -0.02910942 0.12510398 -0.00548998 -0.07681807 -0.0069854455 0.08342842 0.026749102 0.06735361 -0.0138504775 -0.119692214 -0.030984128 -0.030432977 0.10272539 -0.11747631 0.13270752 0.09954379 -0.07383247 0.07463915 -0.061453763 0.1287559 -0.01991901 -0.088271625 0.0326967 0.07074566 0.09368641 -0.102359354 0.0342334 -0.086417645 -0.0071722465 -0.025140367 0.17317982 -0.020499382 0.058398683 -0.103734575 -0.076491065 -0.105136506 0.037911892 0.048633758 0.12536441 -0.053283848 0.008394531 0.12617473 -0.005924383 0.12841354 0.13618252 -0.035786208 0.02628694 -0.056746434 0.104933016 -0.040653255 0.13579424 0.028957298 -0.0017159133 0.029859742 0.12239429 0.075882725 0.045394503 -0.05534776 -0.06786297 -0.051382955 -0.014581574 -0.058484253 0.12303843 -0.08104494 -0.079210095 0.09893405 -0.0059469533 -0.027743988 -0.01450065 -0.07258043 -0.10031832 -0.1181631 0.04810828 0.05504735 0.12225638 0.016718268 -0.011745961 0.15329242 -0.064838655 0.09543347 -0.20630947 0.10455948 0.12679344 0.006314692 0.005703843 -0.14717557 -0.01933502 -0.11981689 -0.028537042 0.15041198 0.054038435 -0.015567362 -0.12124711 -0.014446301 0.13749842 0.056748528 -0.039265037 -0.066167496 0.121763214 -0.12762892 0.05680006 -0.033288848 -0.07048151 0.10375226 0.058051553 0.12811446 0.014250636 0.034587655 0.059919283 0.097116984 -0.07987266 0.054004703 0.028656844 -0.017827423 0.07391375 0.0039520795 -0.08120517 -0.09232751 0.09840855 -0.07374368 0.084010676 0.090318196 -0.071816504 -0.12013172 0.0520552 -0.10023494 -0.10894436 -0.0995799 -0.011371899 0.07520915 0.18280664 0.12058421 -0.06480194 -0.057756614 -0.057900313 0.0137510365 0.058538012 0.152663 0.0705967 -0.10429179 0.07527096 -0.076418735 -0.03955491 -0.02844851 0.0017996414 -0.124744244 -0.07117607 -0.12580238 0.1143045 -0.12537877 -0.13532418 -0.045295976 0.10784769 0.05100383 -0.07262617 0.028295323 0.033174008 -0.102656074 0.032263637 0.008743167 0.10720064 0.12331326 -0.07284906 0.07057665 -0.084631786 -0.10442811 -0.10921444 -0.09756822 -0.12500711 0.033449948 -0.06548567 0.06256537 -0.085925475 -0.12075771 0.0076589584 -0.06968262 -0.061811663 -0.13152224 0.040698335 0.019273773 -0.039957695 0.05610752 -0.025177598 0.12586443 -0.097354755 -0.045149595 0.042717785 0.13115914 0.012448221 0.05327323 -0.08182749 -0.024817884 0.05843784 -0.034580767 -0.013617009 0.076882005 0.10912584 -0.039310634 -0.04728927 -0.061251197 -0.072557665 -0.11790284 -0.120699145 0.012955819 0.060230263 -0.09520695 0.09052332 -0.14209336 0.017249756 0.09717832 0.08524819 -0.050739888 0.049326573 0.11636022 -0.0056802887 0.13381849 0.07524339 0.12924464 -0.11079766 0.12835652 -0.11476212 0.0079812035 -0.0072066663 0.053482845 0.09266352 0.044902787 -0.11056465 -0.10814995 -0.0049721836 0.035260726 -0.0068894345 -0.113949835 -0.09226268 0.0980765 -0.03641989 0.12762022 -0.12402521 0.02467175 -0.13107195 -0.050507724 0.07502188 -0.100258425 0.12605487 -0.048915602 0.10360988 -0.11457715 0.042237025 -0.13111793 -0.025315758 0.110503554 -0.15356489 -0.017505107 -0.08433967 0.1410946 -0.097590655 0.039712284 -0.048957765 0.13904147 0.12100105 0.025979955 -0.07010164 0.043238346 -0.074301824 -0.009938102 0.11955419 -0.048071552 -0.043862533 -0.05730601 0.10544256 -0.0057912692 0.1537036 0.09178079 0.055613685 0.0067891777 0.11000801 -0.107801594 -0.16777258 -0.09800455 -0.021281553 0.1218807 0.10168644 -0.02052905 0.05507531 0.112179175 -0.08392533 0.0705907 0.09698826 0.07330917 0.072268665 -0.08666134 -0.07637626 -0.018176895 -0.15690194 0.01737168 0.0022598873 0.056448855 -0.02868415 0.065320045 -0.1224504 -0.079607554 0.06252099 0.12056621 0.1267526 -0.025943495 -0.067879885 -0.11990468 -0.04340913 -0.11902821 -0.053636566 -0.10507977 0.037730537 -0.053968288 0.0675547 0.033277668 -0.12375817 -0.006610905 0.031264316 -0.06802435 0.118287176 -0.12533234 0.08268717 0.051723376 0.08271014 0.11777185 -0.11411217 -0.1336581 -0.06460071 0.010281624 -0.013751094 0.031841803 0.0075171497 -0.039358098 0.032528426 0.061693512 0.04031963 0.056456894 -0.08882228 0.0100585045 -0.027891 -0.022790315 0.13089581 -0.11062162 0.112251066 -0.04335656 -0.09498966 -0.07011719 0.11794535 0.13447724 -0.083196305 -0.0008333416 0.057080362 -0.0071497834 -0.12154571 0.08673547 0.14188802 -0.10790239 0.04248411 -0.15585268 -0.13046837 -0.12872656 -0.068597876 -0.10076053 -0.0076989303 -0.1409152 0.052961793 0.00072935503 0.09165625 -0.10292685 0.0036265452 0.017706921 0.055037994 0.03399129 -0.035978556 -0.08174986 -0.033880405 -0.01524362 0.1452039 0.03346142 -0.07514902 -0.12068246 -0.049857676 0.042440116 -0.08071135 0.15341648 -0.019743536 0.1104439 -0.06929341 -0.03687467 -0.033442456 0.13908343 -0.019925756 0.09864315 0.10407434 0.048721075 -0.108404234 -0.06414519 0.029622985 -0.10229585 0.115880124 0.09033792 0.210818 -0.042629037 0.1312857 -0.16651551 0.14167772 -0.1307515 -0.01360358 -0.014920824 -0.15446699 -0.06579097 -0.018154439 0.070100494 -0.08876255 -0.10626376 -0.09773968 0.12881519 0.118487045 0.06808891 0.011075299 0.023052344 -0.15332913 0.04667809 -0.039484777 -0.03223993 -0.073689744 -0.07770416 0.19763166 -0.03318341 -0.0077611534 -0.08945851 -0.15193792 0.13801795 -0.087117836 0.1366219 0.14149065 -0.058741003 0.011565727 -0.14802623 0.026226636 0.11451401 -0.0950392 0.14161207 0.09962102 0.16924167 0.06487394 0.09538187 0.007898126 -0.04294233 -0.08379991 -0.035746545 0.06395717 0.095178634 -0.12639171 -0.03716085 0.018685948 -0.09892135 -0.053071313 -0.107943416 -0.018217092 0.116641015 -0.08592902 -0.114690855 -0.02124454 0.035819523 0.031341415 0.12476301 -0.036781084 0.023288522 0.0038723955 0.056334037 -0.12513083 -0.078613736 -0.11268623 -0.010413662 -0.085420795 0.07675721 -0.09052998 0.07772209 0.10087387 -0.043862734 -0.119982526 0.0010099094 0.05192561 -0.00573107 0.07152241 0.1002467 -0.03630162 0.009286003 0.03488404 -0.057608034 -0.07993268 -0.09898153 0.027314853 0.030191625 0.029283509 -0.10350967 -0.12769619 0.09672736 -0.10354658 0.0309015 -0.026353946 -0.012014637 -0.03375164 0.10784315 -0.034772053 0.09476668 0.08907233 0.14629425 -0.006992859 -0.06916584 -0.12814008 0.008037186 0.052508622 0.10377097 -0.06484308 0.02082821 0.0713626 -0.030289294 0.0014685178 0.114892825 0.05234488 0.042813417 0.06094896 0.09018473 0.07112327 -0.074822344 -0.08463467 0.117654026 -0.11968398 -0.0157867 -0.13148946 -0.112347394 0.10108366 -0.0155144995 0.06866718 -0.096458524 0.016065665 -0.10141965 -0.069383115 0.005431656 0.06753675 -0.077179484 0.066895716 0.018568274 0.099831104 0.08311449 -0.10484192 -0.12978432 -0.09724636 -0.13568069 -0.095913835 0.1350379 0.04941819 0.015424478 0.023201913 -0.036157962 0.04711421 0.00872865 0.005045398 -0.13703567 -0.037331924 0.020368658 -0.030976634 -0.05310688 0.03420176 0.1294944 -0.11217782 0.070661716 -0.115767814 -0.015572146 -0.044089638 0.0049876906 -0.00132677 0.044270143 0.10893458 0.12939627 -0.12402906 0.032431737 0.04521525 0.12043058 0.015115654 -0.017188594 0.13291878 0.102705695 -0.026511304 0.05537478 -0.12592243 0.027451731 -0.094018385 0.035817806 -0.096367106 -0.10618729 -0.01887782 -0.095416225 -0.095140204 -0.06986636 -0.04691784 0.11093775 0.009764169 0.043518864 -0.059414476 0.043098427 0.14086413 0.090793476 -0.06306514 0.043027505 0.12897485 -0.14775434 0.004623647 0.08851826 0.08082999 -0.07163476 0.11355582 -0.13519132 -0.10017112 -0.117972314 0.005339761 0.10216947 0.058920767 -0.08345957 -0.07085532 -0.034986798 -0.028427957 -0.0640677 0.120070264 -0.0046574324 0.00347492 -0.021652166 -0.096982524 0.13370225 0.011763042 0.037330627 0.017910171 0.1441989 0.08044499 0.06886079 -0.120071486 0.07328186 -0.12180651 -0.044807278 0.01427089 0.12667887 -0.02447774 0.026032439 0.03279457 -0.11454295 0.06352965 -0.12785947 0.09934017 -0.028213194 -0.04922441 -0.08216821 -0.005680818 0.05025982 -0.12032255 0.057631165 -0.11218624 -0.13608876 0.14454731 -0.017601535 0.123755544 -0.10054361 -0.080770575 -0.073037066 0.013779532 0.057745576 -0.015230067 -0.09933162 -0.1040522 -0.11377191 0.020466605 0.0061122663 0.06749579 -0.06533441 0.009053857 0.078963846 0.09939373 -0.11248531 0.07749691 0.09245307 -0.008115171 0.06008969 0.061494786 0.093646094 -0.037415363 -0.0032342453 0.055478666 -0.1156663 0.12989521 0.041814912 0.13626595 -0.01916252 -0.120022535 -0.08748437 -0.14182416 0.13737625 0.06559906 0.1102904 -0.011449692 -0.1262476 -0.0077998945 -0.09457425 0.096105054 -0.06823406 0.06016848 0.03620567 -0.12583141 0.07429741 -0.05425688 -0.028510442 0.12018638 0.045324538 -0.03831759 -0.078221194 0.05624099 -0.04437676 0.11271973 -0.14741656 -0.059860367 0.09144756 -0.17415331 -0.08924143 0.004445428 -0.08143751 0.06827929 0.004982665 0.2045138 -0.09418892 -0.0761043 0.016647838 -0.20712571 0.058224656 0.0026013972 0.10678833 0.089403115 -0.1413184 0.040742636 -0.026151184 0.062494915 0.18667649 0.08360073 0.17531958 -0.09853294 -0.06072447 -0.061118383 0.041150562 -0.061655816 0.10646367 -0.04230936 -0.075416476 0.088722914 0.07669474 0.1041452 0.07356543 0.042300027 -0.051165726 0.11020023 -0.13539614 -0.13113847 0.11100174 -0.0047554635 0.011755128 0.006893468 0.08054678 0.022544794 0.07749579 0.07274705 0.096875325 -0.06578428 0.0042277244 -0.001271792 -0.12605613 -0.06839005 -0.0029001087 0.0033478867 -0.082007825 -0.10138141 0.120953985 0.10096051 0.12634103 -0.041724823 -0.030547075 0.046328064 -0.049156725 -0.07394049 -0.10636388 -0.0028268124 0.048987836 -0.028129477 0.10588556 -0.10730164 0.056963086 0.01917492 -0.08570544 0.09105352 -0.14232753 0.06322851 -0.017741814 -0.058282446 -0.018678142 0.08147236 0.15059571 0.10268853 0.08999293 -0.029970929 -0.08820972 -0.04306195 0.06888964 0.16068678 0.11184109 -0.043366354 -0.021046612 0.10412653 0.01739595 0.10365717 0.008053334 -0.08566674 0.058642946 0.10161987 0.04227418 0.08163808 -0.059178095 -0.05016789 -0.018817171 0.04696435 0.07817389 -0.058731522 0.02108513 0.05947992 0.041504156 0.053284187 0.006846485 -0.00667771 0.016977226 0.077058114 -0.04580855 0.12698664 0.08536067 0.030794341 -0.00757824 0.0665774 -0.1217531 -0.14622468 -0.09578046 0.13672133 0.11989799 0.09354699 0.10022998 0.11130744 -0.017382778 -0.023233242 0.082644224 -0.109450616 -0.025476724 -0.08072571 0.12107498 -0.10716723 -0.042305376 0.1162428 -0.051870592 -0.124303475 -0.040552463 -0.10117648 0.06636575 0.089886814 -0.07149168 -0.14499162 -0.12863669 0.020920869 0.0022538502 0.17083424 0.06839807 -0.06986738 -0.048237443 0.09124591 0.099991545 -0.083992116 -0.050869398 0.04372259 0.08960746 0.15970051 -0.035615575 0.050948594 0.110302314 0.036610305 0.027677394 0.09678386 0.016907748 0.13693728 -0.08263418 -0.06712281 -0.079590775 0.09631118 0.026413044 0.01857336 -0.049508877 0.08594845 0.075676255 -0.04001942 0.05868893 -0.14820154 -0.064600624 -0.079217516 0.07222001 -0.08746286 -0.028065674 0.028699648 0.1258186 0.14757368 0.072362624 0.081752144 0.12323439 -0.04175057 0.0362118 0.0049483203 0.038109414 -0.06809099 0.034640044 -0.07348952 0.06179619 -0.048876174 0.05382408 -0.06354205 0.13242789 -0.07932744 -0.024997465 -0.042980153 0.10997276 0.13357256 -0.03174827 -0.06977514 0.04571844 0.031001244 0.0068965275 -0.07531214 0.08192154 0.004042704 -0.06254714 0.006678613 -0.14302494 0.12711139 -0.03421762 -0.065288395 -0.087496914 -0.07352756 0.027118044 -0.08333549 0.053696554 0.11345171 0.045429997 -0.03638971 -0.14551653 0.031180417 -0.074337564 0.027646553 -0.107319735 0.08779277 -0.10067145 -0.10468765 -0.021243079 0.09558486 0.12124412 -0.049699187 -0.037509724 -0.039230585 -0.035455476 0.0903734 -0.07419245 0.100598894 -0.011846732 -0.018211877 0.051792126 0.120263144 -0.13299514 0.018938988 0.08010499 0.14533599 0.12668803 -0.03408805 0.046285056 -0.123686664 0.101722054 0.045192458 -0.043497894 0.10353887 0.013383778 0.122741826 -0.02271222 0.121046215 -0.010948066 -0.024548626 0.04393707 -0.09635232 0.13182619 0.009196465 0.1420536 0.0729848 -0.14363183 0.09592122 0.102923065 -0.10355951 0.054496635 0.08483886 -0.08171836 -0.01194086 -0.052128606 0.107095405 -0.09740069 0.065823555 -0.04687232 -0.091974415 -0.06866441 -0.0783791 0.0857204 -0.110347025 -0.06696331 -0.0045632496 -0.044816364 -0.12421178 -0.14181907 0.03544737 -0.02928695 0.11924434 -0.041292734 0.10477306 -0.044570766 -0.00876531 -0.011946459 0.077063434 0.052460346 -0.031497758 -0.08742588 -0.021086553 0.10926941 -0.0792658 0.0024552166 -0.107975945 0.11495722 -0.11767339 -0.09486357 -0.012855772 0.123622626 0.03125216 -0.14015998 0.08890305 0.100113295 0.0741338 0.06936871 0.053407323 0.003144331 -0.095081635 -0.11227936 0.053378206 0.036380455 0.07285009 -0.046912905 0.08080191 -0.086616226 0.09110566 0.042615153 0.021175591 -0.09179843 -0.023969665 0.05138612 -0.13595389 0.11393165 0.06637011 0.13215369 -0.105648376 -0.12125775 -0.083963335 -0.1270069 -0.067171924 0.056281134 -0.029038243 -0.062083393 0.059930038 0.09735642 0.08413148 -0.0069871116 -0.06458948 -0.053933755 -0.0074923155 0.08339275 0.059836958 0.1280841 0.009457234 -0.05361436 -0.12520756 0.12285719 -0.046610393 -0.035263795 -0.029491816 -0.11041727 -0.14136031 -0.13102764 -0.14143036 -0.08482078 -0.15232661 -0.061624117 0.16332573 -0.12340662 0.02379909 0.006016767 0.06748109 -0.07874835 -0.12491856 0.0010926909 0.021365521 -0.03467535 0.014171937 -0.05069538 -0.13318048 -0.0028804443 0.15379521 0.056429494 0.1405605 0.025623241 0.06326011 -0.03370637 -0.19477402 -0.06332169 0.09228686 0.017452061 -0.13020873 0.13580064 0.21224046 0.018182455 0.13727844 -0.0859941 -0.19259857 0.12793617 0.13152204 0.034573 0.20387098 -0.11717942 0.060883325 -0.1460799 -0.102355376 0.14649399 -0.09249376 0.15134242 0.11193698 0.08853457 0.07428389 0.15787093 -0.09409944 -0.08616704 -0.11028235 -0.09201296 -0.020493977 0.06670247 -0.13780065 -0.042043243 0.082893044 -0.118418805 -0.09587933 0.060742147 0.016433442 0.03448103 -0.016302822 0.082028486 -0.020670466 0.13283986 0.018912314 -0.107875474 -0.093625985 0.1287356 -0.11962861 0.12736718 -0.06223719 0.09169454 -0.013674269 -0.047223695 0.034515448 -0.098104015 0.113326825 -0.027791277 0.009901778 0.083172634 -0.009800737 0.057484068 0.055189453 0.13366908 -0.042994197 -0.10950467 -0.020137584 -0.048307594 -0.03784629 -0.11786049 -0.07674426 0.11806677 -0.0015487752 0.08169449 0.023640914 -0.011842237 0.034548823 0.11564502 -0.09682033 0.09472277 0.0038351535 0.052598417 0.10674483 -0.114025846 -0.10933732 0.019399105 0.0028986507 0.052652426 0.12033948 -0.13392124 0.0031272026 -0.018665308 0.06269463 0.06891761 0.06527992 0.11330255 -0.106126234 -0.096280105 -0.046669416 -0.09056656 -0.0613787 -0.09278179 0.08133776 0.06912772 0.062330727 -0.061072014 0.1869941 -0.14870045 0.011553486 -0.09267224 -0.13122551 -0.028805766 0.05629631 -0.09130779 0.055077393 -0.08598741 -0.00043691928 -0.06626387 -0.06448551 -0.01532719 0.13582256 -0.087529145 -0.12658352 0.15634504 -0.09505913 -0.007783171 0.17300373 -0.06356415 0.08514821 0.08215785 -0.09471322 -0.0537229 0.035684094 0.037798464 -0.005972888 0.05852586 0.11046198 0.17464931 0.05856629 0.18623167 -0.062283378 0.046678625 -0.095468 -0.036518432 -0.07655629 0.088242166 -0.004897705 -0.097801976 -0.07815852 -0.07777553 0.20222919 -0.117235735 0.010749354 -0.11976425 0.055450525 0.09657428 -0.20087492 -0.031276815 0.013931149 -0.12622295 0.032631226 0.02387001 0.005723161 -0.14657307 0.059685603 0.14829743 0.13203366 -0.037882913 -0.08515988 -0.1562882 -0.10755588 0.01451209 -0.010415407 0.084308304 -0.045757074 -0.09093614 0.04526766 0.06978998 -0.0019459522 -0.010524704 -0.046236336 0.014615856 0.046344914 0.0407323 -0.113332264 -0.11225637 -0.08459127 -0.01034133 -0.07693672 -0.13066572 0.12820047 0.09867183 0.033259768 -0.004481702 -0.09931979 -0.13058372 -0.06986364 -0.12387064 0.091766186 0.105373934 -0.060226597 -0.13930921 -0.13612017 0.1261694 -0.13191591 -0.11977364 0.12834126 -0.13059054 0.04319928 -0.08182211 -0.05002899 -0.10329892 0.04044365 0.038650166 0.029317992 -0.07058204 -0.11910412 0.09887454 -0.073534556 -0.112435885 0.12564744 0.08820866 -0.037596136 -0.1420546 -0.10414037 0.12226251 -0.13338938 -0.02755759 0.09134869 0.06556416 -0.06233994 0.04360116 0.09320096 0.012474252 -0.030682411 0.008450279 0.08706537 -0.021248927 0.053295497 -0.0945475 -0.10922793 0.041895267 -0.12891789 0.041200016 -0.11500039 -0.13040745 -0.08687818 -0.03237419 0.033554625 0.011044261 0.00020827347 0.015777636 -0.0053220284 0.07581003 0.0017392902 0.033495262 0.11659237 -0.019396042 -0.023609657 0.045419987 -0.06994364 -0.063761115 0.0007336362 0.025894605 -0.11503056 0.0072922325 0.032646026 0.061038 0.067688175 -0.03702979 -0.020332381 -0.015742332 -0.07720162 0.067195095 -0.06675937 0.09898862 -0.09426965 0.08823638 -0.0752676 0.06796895 -0.08230682 -0.06813332 -0.1252001 0.13376397 -0.11874658 0.03064108 0.031411327 -0.048248492 -0.0025768036 -0.015518952 0.10609184 -0.07257027 0.13142535 0.0140893245 -0.057814248 0.021902729 -0.016996244 0.054997727 -0.10395763 0.025865115 -0.10652811 0.05489454 0.11341914 0.034086734 -0.02135974 0.092779145 0.03269362 -0.111265615 -0.013281787 -0.0035158666 -0.008932897 -0.0058923434 -0.03691926 -0.11577134 -0.034343697 0.057690516 0.046796493 0.14194357 0.051932577 0.11002156 -0.05693931 -0.027700618 -0.051122986 -0.0423221 0.062897354 -0.11346793 -0.027030334 0.095960304 0.024771826 -0.05224069 0.068441994 -0.003680802 0.12086058 -0.10356027 -0.12568901 -0.03921435 -0.016746355 -0.055317294 0.091670126 -0.017250326 0.10530708 0.05560323 -0.0010069811 0.122903556 0.066571556 0.11133753 0.07117524 0.11058185 0.10571233 0.073221736 -0.0072925026 0.049719702 -0.13814215 -0.14054461 0.11561328 0.13198893 0.090651564 -0.030322358 0.04840063 0.036953885 0.11492771 0.03428872 -0.048089933 -0.09612006 0.12354754 -0.11285133 -0.06013648 -0.092652775 -0.11742056 -0.014112663 -0.13384837 0.0017566658 -0.0019140912 -0.118335955 -0.13004221 0.11807404 0.013880858 -0.0017606252 -0.10034218 0.1357272 0.042768624 0.035466123 0.07387443 0.06364793 0.058419626 0.023036841 0.078367725 -0.1624147 -0.06729493 -0.13355295 0.14446448 -0.029569048 0.033860844 0.0949795 0.09094017 0.08858565 -0.007052967 0.02160138 -0.012783627 0.06547974 -0.048642583 -0.10284493 0.06354125 0.08563404 0.05246723 0.009298965 0.13799493 0.11260552 -0.13762519 -0.016335204 0.010336312 0.020066446 0.071944796 -0.12668727 0.13443577 0.09467716 -0.105319135 -0.011742065 -0.04132845 0.1568106 -0.025815316 -0.10129903 -0.11183929 -0.026217561 0.123074785 -0.07056659 0.07975951 0.0032163456 -0.03821332 -0.03801225 -0.034929935 0.00014807527 0.13669978 -0.07278609 0.005803167 -0.11403175 0.070336424 -0.072073065 -0.041192334 -0.039592735 -0.08971931 0.11506743 -0.10438913 0.13784425 -0.043494996 0.03672384 0.13438891 -0.05848158 -0.13429196 -0.13353015 -0.048686735 -0.06527731 -0.068494946 0.08391093 -0.024842096 -0.059484147 0.0013264418 -0.0438317 -0.008029342 0.057783842 0.12776394 -0.03632409 0.09203013 -0.0970038 -0.11044943 0.015684128 -0.1189803 -0.08956051 -0.001714468 -0.09576108 0.121009335 -0.012647897 0.13502051 -0.0834156 0.11184483 -0.058195833 0.07417648 0.05406456 -0.08521701 0.11530395 -0.030945588 -0.04868725 -0.13138191 0.03003014 0.123317465 -0.038657904 -0.014706828 0.13319911 -0.09979403 0.13626939 -0.057070054 0.035526007 -0.11810232 0.11853228 -0.03212947 0.004679989 0.019352328 -0.10434783 0.07874522 -0.07901355 0.06589686 -0.028054258 0.10683369 0.10746086 0.052349772 0.043784454 0.12359527 -0.10210922 -0.13469592 0.13147783 0.12724034 -0.0014302804 -0.110513456 0.08219335 -0.10769986 -0.12437281 -0.049729757 -0.03161259 0.09402783 -0.04171178 0.09675717 -0.13747506 0.047901355 0.10589602 0.12609059 0.05674716 0.025546575 -0.085548654 -0.031583026 0.09619378 0.087530635 -0.018096514 0.1034587 0.13170643 0.12437131 -0.12063676 -0.037477776 0.006782392 0.09409141 -0.080708176 -0.11788666 0.06768874 -0.008416653 -0.10800795 0.057370868 -0.028217927 0.005946037 -0.06485967 -0.070075884 0.10635049 -0.0645936 0.07463518 -0.08444142 0.022333115 -0.027607735 0.0610089 0.0018157942 -0.044463843 -0.056821655 0.121640325 0.053470347 -0.09021449 0.09685964 0.011713584 0.05623915 -0.04847538 -0.096247435 0.01827021 0.10822906 -0.120255016 -0.10971992 -0.042923655 0.08716289 -0.0055776117 0.05514394 0.13525067 0.09661025 -0.015994195 -0.093540736 -0.050641507 0.03941373 -0.055340514 0.08123817 -0.10067782 -0.0950539 -0.032793052 -0.009110935 -0.09861336 -0.11544679 0.044001967 0.061722413 0.05544186 -0.114482425 -0.04321954 -0.03320953 -0.075148284 0.117842026 0.10790841 0.10430726 0.021252966 -0.020210607 0.13491984 -0.036136698 0.061580196 -0.080114655 0.10573217 0.07743854 -0.051414218 0.13074891 0.08054615 0.069009334 0.07849827 0.0773373 -0.09278065 -0.06429531 -0.07945486 0.08753393 0.11614024 0.0065899543 -0.012098452 -0.101236224 0.057556625 -0.092260234 -0.05062531 -0.12832405 -0.11246293 -0.02784611 -0.09328776 0.02303336 -0.0868283 0.08022278 -0.09653406 0.08300243 -0.15933396 0.024014978 -0.0055236416 -0.09070191 -0.17238446 0.027664728 -0.019422218 0.06614165 -0.022175001 -0.09747573 -0.1650934 0.07356611 0.018280212 0.05220679 0.12916797 0.13435322 -0.14109011 0.052085876 -0.089332476 0.18212162 0.075544 0.14968878 0.05395311 0.19108741 0.117459066 -0.11305699 0.10462776 -0.21221422 0.14297245 0.07366899 0.16958022 0.14981079 0.037033275 0.044039704 0.095267415 0.09546959 0.14090964 -0.12298584 0.119137794 0.12770306 -0.0066381595 -0.0054301885 -0.03428992 
-0.07504894 0.054839384 0.06308101 -0.04172499 -0.07631485 -0.07248049 0.09026732 0.009327144 -0.1104547 0.009189969 0.03427723 0.12713633 0.13108526 0.14962722 -0.06411798 0.073422454 0.13386652 -0.08742465 0.045434363 0.045372695 0.040723104 0.096896544 -0.023926534 -0.0005018156 0.09337441 0.099336736 0.1282642 -0.021721235 -0.007426536 0.029047562 0.018984862 0.017367056 0.16000198 0.059680045 -0.005573284 0.029185547 0.09677394 -0.043963645 -0.04024885 0.12724479 0.01849595 0.062119924 0.043788258 -0.08560194 0.09592481 -0.13378613 0.13211691 -0.07450621 0.017937932 0.07814101 
Rect
Linear 50 50
0.045709312 -0.03198641 -0.047044735 0.061228693 0.11139793 -0.076278225 -0.029064741 -0.12652779 -0.011429448 -0.12705053 -0.03843096 -0.02594635 0.017205756 0.116539165 0.11436436 0.13219726 -0.14606181 0.012286708 0.06395735 -0.157207 0.11442585 0.029829958 0.112520605 -0.12158906 0.076043025 -0.10139513 0.09573438 -0.038580365 0.062375378 -0.1171068 0.020696962 -0.17362761 -0.13726322 0.15941721 -0.03002145 0.11510961 0.02460177 -0.08498679 0.09664224 -0.10914266 0.05149018 0.07980968 0.10614283 0.018558761 0.070157565 0.09211698 0.07138732 -0.038805913 -0.09099847 0.19408901 -0.086920984 0.062778175 -0.110416554 -0.10483445 0.05925758 0.12739904 0.067533955 -0.10022361 -0.024701156 0.08828297 0.1003927 -0.1268056 -0.133863 0.13958414 -0.0809538 0.117330775 0.010044038 0.06556772 -0.059202313 0.0916767 0.016832143 -0.032885134 -0.0035394877 0.12216012 -0.10395791 0.027050048 -0.13334352 0.08268578 -0.090971515 0.089419976 -0.010732874 -0.036239646 -0.026162423 0.13213192 -0.056255102 -0.084123276 0.031396553 -0.13981608 -0.07509369 -0.059789166 -0.08507588 0.017074466 0.016411185 0.06943187 -0.009159356 0.13538517 -0.026571587 0.02974692 0.1211357 -0.13472348 0.104203075 -0.08074225 -0.0796338 0.06178471 -0.027274253 0.10259687 -0.011019275 -0.13504665 -0.026502326 -0.015535548 0.029014764 0.00589061 0.06637351 0.082168266 -0.05389093 0.1263604 0.09936456 0.11654608 -0.022233527 0.058806192 -0.13116589 0.07886355 -0.06422589 0.0684639 -0.04546132 0.07829412 -0.066912 -0.03495739 -0.051245406 -0.08232 -0.14223066 -0.052162047 -0.052411042 0.030351087 0.014420969 0.07941617 -0.05700426 0.063056976 -0.04084618 -0.14422807 0.036667332 0.1361035 -0.113750294 0.05084032 0.0011757493 -0.049971953 0.0046000453 0.09913726 0.09967827 0.090874374 -0.12184475 -0.0103913825 -0.11349076 -0.012284156 0.13221766 -0.023625296 -0.033994947 -0.13940783 -0.11351042 -0.0272015 -0.038123064 0.079654954 -0.056327917 0.0371437 0.0011690437 0.06648177 -0.14774324 -0.034206063 0.1401723 -0.08265473 0.08378373 0.083292075 -0.1004694 0.005833208 0.09686311 0.023255982 0.12154636 0.109652385 -0.037104037 -0.07465922 -0.058072753 -0.057957325 -0.059875455 -0.02154973 0.13370542 -0.11587114 0.10648513 0.09304162 0.07620717 -0.021561684 -0.109563835 -0.1308079 -0.03411138 -0.07599607 0.049895734 -0.051351033 0.13684092 -0.13860196 -0.06480824 0.051107075 -0.11594971 -0.11540337 0.13787812 0.12944573 0.01850307 -0.124200284 0.08766899 -0.10314953 -0.012005681 -0.042148747 -0.0024319927 0.034083076 0.06668308 -0.073669106 0.040883973 -0.034364484 -0.065839425 -0.051231705 -0.043979857 0.1847419 0.110351436 -0.09212502 -0.12650241 0.1336143 0.01570824 -0.018919107 0.08678898 0.13142735 -0.03615345 -0.09526543 0.056879986 0.056037255 0.14559224 -0.043343287 0.01695074 -0.024693571 -0.16422431 0.13164036 0.04762257 -0.0031688504 0.022555733 0.09240621 0.12448801 -0.09400064 -0.067203306 0.11851912 0.15752947 -0.10481617 0.13863006 -0.156895 0.07812445 0.10691264 -0.025495254 0.022396524 -0.04709983 0.14238489 -0.101578444 0.13399862 0.14842641 -0.058999173 0.1714257 0.0254151 0.07520538 0.12005218 0.06481802 0.041670356 0.011129349 0.09018457 0.033840287 -0.06515849 -0.13696535 0.0034213301 0.0069777593 0.12703417 0.09786409 -0.056465287 -0.028984686 -0.008362975 -0.027283322 0.025774239 0.04299123 -0.09851944 -0.07448674 0.044955652 -0.09808288 0.0323898 0.16580406 0.010151247 0.13041227 -0.10683564 -0.12123302 -0.046866897 0.12212834 -0.114954725 0.015065832 -0.027610183 0.034003153 -0.11348693 -0.123273924 0.051084198 -0.019959465 0.11533247 -0.095703915 0.12464751 -0.0033874065 -0.044534855 -0.057284802 0.03941126 -0.13212374 0.042777166 -0.09298969 -0.12951085 0.03258139 0.08493601 -0.10658459 -0.115015015 -0.025000483 0.062020645 -0.039082676 -0.07412444 0.071599126 0.071322486 -0.12078488 0.118351266 -0.13256222 -0.04815849 -0.12838545 -0.13596329 0.021569341 0.07399286 -0.06557419 0.049161166 -0.08827088 -0.06315474 0.10086863 -0.032857127 0.069924 0.11011116 -0.053910762 0.044506818 0.076731816 0.040534735 0.08377257 0.05952722 0.13767801 -0.08451064 -0.024226613 0.061618924 -0.074682616 0.09035593 -0.025778584 0.064163536 0.19133186 -0.09389944 0.010505371 0.01673562 -0.030839553 -0.04473165 -0.09474647 0.011525472 -0.009567995 -0.070332095 0.09005284 -0.07844656 0.16873918 -0.1306256 0.15943787 -0.036480747 -0.05054496 0.036088996 -0.047340903 0.06400812 -0.14020027 -0.13548084 0.12837751 -0.03473846 -0.01594947 -0.006995562 -0.13384402 0.12708825 0.10810875 -0.04702532 0.119690694 -0.121465154 -0.07674999 0.14351267 -0.18876497 0.033790484 -0.106062755 -0.02244823 0.09356875 -0.036512125 -0.020069418 0.012416819 0.08812262 0.059925344 -0.040619295 -0.0582025 0.1275734 -0.15016688 0.079198495 -0.10175499 -0.052630544 -0.042272817 0.14288945 -0.1253771 -0.17971833 0.12524135 -0.01583821 -0.18578173 0.21618755 -0.026501508 -0.033468325 0.015065925 -0.070604004 0.20025954 -0.11580976 -0.05937901 0.015919942 -0.011758229 -0.0010200544 0.14326052 0.2154331 0.06836399 -0.041886598 0.004743518 0.04865211 -0.09810873 0.20477307 0.043475017 0.03494947 -0.109068036 0.012609888 0.029780515 -0.01598257 -0.039635673 0.25340685 0.09060241 0.17138746 -0.17268182 0.07324187 0.016216202 -0.12073958 -0.11722087 0.081510924 0.081028596 0.11898293 0.055060316 -0.060893912 0.20310773 0.048873246 -0.13006997 -0.13395229 -0.07052788 -0.07925545 0.0644385 -0.11774681 0.1223835 -0.097097345 -0.03589429 0.03095573 -0.09884581 -0.112774774 0.1189559 -0.08943994 0.0034868317 0.101887174 -0.036023654 0.042550594 -0.09191228 0.031813502 0.10609417 0.13364817 0.11722277 -0.13430282 -0.13033997 -0.115277775 0.08527206 0.0103090545 0.03378843 -0.098070845 0.112289 -0.10871371 0.13399701 -0.13710454 -0.030475425 0.11903012 0.13816018 -0.12107349 -0.14119336 0.033273473 0.09705949 0.038258716 -0.11682576 0.11151933 -0.0028006583 -0.031240376 -0.07874101 -0.09295524 0.016252877 0.039068297 0.091485135 -0.03075513 0.07607791 -0.08243964 -0.030621866 0.081911676 0.13192798 0.09787858 0.06006729 -0.12360222 -0.026716873 0.09419899 -0.08816973 0.07240797 -0.14374304 0.11749568 0.106586754 -0.040608235 0.022777064 -0.09950752 -0.060419504 -0.095857784 -0.049840722 -0.015205737 -0.067531005 -0.011188103 -0.008393641 -0.010925453 0.12031324 -0.04603579 0.034980252 -0.04039411 0.024434654 0.08295422 0.014083374 0.010160454 -0.054704 0.04738919 0.021594787 -0.13697743 0.078577 0.13096213 -0.035181228 0.022715092 -0.11430587 0.10131123 -0.036495935 0.08095156 -0.17388186 0.07468024 0.03953533 0.00859924 -0.046879075 0.058566798 -0.077880554 0.05921667 -0.06569386 0.09748687 0.06639523 0.042558208 -0.068014376 -0.0431738 0.11198833 -0.094297804 -0.09924161 0.08669607 -0.06835804 0.09126945 0.048820414 -0.13567203 -0.025532361 -0.06245693 0.13744195 -0.095829144 0.08092351 -0.11082912 0.00087502203 0.18064421 -0.118160136 -0.11459047 -0.07526411 -0.0424245 0.12706318 0.018013174 -0.13958335 0.06780837 0.0739229 0.122443676 -0.11010375 -0.1067395 0.045511957 -0.027756525 0.054996062 0.008601579 -0.008665683 -0.093871556 0.03936654 -0.033280395 0.18338436 -0.09503342 -0.034860905 -0.047814213 -0.0051067504 -0.055627685 0.0075664376 0.03513667 -0.10830824 -0.06768738 0.13237913 -0.14111252 -0.14008316 -0.034673534 -0.053460926 0.0794053 0.022438262 0.14968221 0.0060306042 -0.032023285 0.037328735 0.09262289 0.071746066 -0.056665555 0.069337346 -0.04296912 0.08232717 0.10221135 -0.06541573 0.012886909 -0.0108446125 0.09460558 0.018756963 -0.050630778 0.092824765 0.070718616 0.037748598 -0.06023078 -0.017643588 -0.04303023 0.12725203 -0.12032586 0.06522105 0.09023347 -0.09763379 0.041561097 -0.06386599 0.06903201 -0.06795728 -0.14017332 0.0063586906 0.13632332 0.019790187 -0.13257752 0.061410576 0.0767878 -0.086413726 -0.032218404 -0.03648948 0.077522695 -0.021801017 0.07973187 0.108678296 -0.11259032 -0.0651274 -0.07996451 -0.023854055 0.06804837 0.11735578 0.08117609 -0.08207949 0.1324199 -0.08231893 -0.098354846 -0.0784714 -0.10895468 -0.04195845 0.12036507 0.041712016 0.0018500686 -0.11133718 -0.096705124 -0.043198347 -0.08998135 0.07715814 -0.014927313 -0.012198985 -0.07229589 0.078257844 -0.10350655 -0.10935859 0.039083704 0.021185353 -0.019303575 -0.1135892 -0.0449747 -0.133032 0.06096682 0.12003903 0.11503525 -0.06224805 -0.034685962 0.10183203 -0.04716745 -0.11781438 0.08135684 0.06511903 -0.0598858 -0.063666895 -0.011279866 -0.054642282 -0.015242398 -0.029764362 0.036305815 -0.056513987 0.08799377 -0.10023585 -0.020044483 -0.11734794 -0.12344989 0.015291497 0.05338402 0.010736898 0.034417123 -0.023501672 -0.06453633 0.071641 0.064566106 0.11050944 -0.02816283 -0.089396924 -0.1297525 -0.0062222183 -0.1141906 -0.11183901 0.011358634 -0.010387495 0.05221358 -0.091138944 -0.09422083 -0.091146454 0.114745095 -0.015667468 0.12597404 -0.053516217 -0.005460426 -0.0063815415 -0.027389586 0.01859349 0.044058233 0.0649437 0.11773412 -0.092027396 -0.1420419 -0.0020859845 -0.107192904 0.023177627 -0.11588654 0.019718679 0.04751527 -0.10151159 -0.13456713 -0.08007938 0.040220976 -0.062826894 0.06418173 0.02836691 -0.11324661 -0.057509802 0.040052574 0.06803015 0.12561989 -0.0026517422 0.06461701 0.047439717 0.12264392 -0.11673685 -0.13203241 0.043382715 -0.063659914 0.0108997375 -0.10416868 0.049013194 0.136557 0.09433322 -0.071607046 0.023224903 0.014139165 -0.022660283 -0.03917467 0.094693884 -0.08122023 -0.025027568 0.123548046 0.06991864 0.10855035 0.09917773 0.07061703 -0.060641903 0.09126422 -0.013515599 0.038387686 -0.010730773 0.11042054 0.03406872 -0.06991541 -0.13416375 0.041630283 -0.10876885 -0.14038096 -0.053090736 -0.074708395 -0.03381384 0.010458201 -0.113184795 -0.016908914 0.08503847 0.05687937 -0.07940979 0.04984069 0.06963587 0.04681304 -0.069324404 -0.082072034 -0.025303505 -0.044550315 -0.032510966 0.12043367 0.06564574 -0.009631619 -0.022777066 -0.09773516 -0.016106263 -0.07701853 -0.10973172 -0.078783944 0.07733266 0.09421478 -0.021421358 -0.08487269 -0.03637305 0.04473479 0.045454875 0.028014675 -0.096133426 0.09410864 0.11990212 -0.101828866 0.0647088 -0.1304478 -0.085773826 0.019286484 -0.0056398143 0.06130387 0.10387287 0.041849006 -0.120536715 -0.13258415 -0.12713572 0.16325633 -0.085101716 0.08706935 0.014318624 -0.033812158 -0.091529354 0.0878152 0.11288863 -0.10501442 -0.06450628 -0.1286038 0.06430595 0.00071915594 0.09402098 0.07612175 -0.07736931 0.15606555 -0.0139150545 0.05661898 -0.020907165 -0.0012712048 0.10588397 -0.12960798 0.06740084 0.05758543 0.11577072 0.07690257 0.07356437 -0.012121818 -0.005234561 -0.12864289 -0.10818212 -0.10816249 -0.066533804 -0.086006515 -0.046401836 -0.112920985 -0.12208847 0.015041442 0.114886254 0.12714687 0.020384142 0.050865144 0.14001901 -0.12534493 0.11315884 0.10554327 0.018365234 -0.025390983 -0.1060227 -0.12395911 -0.0074469 -0.04650666 0.098464444 -0.03997524 0.08420819 -0.1230829 0.022528708 0.078142434 -0.013729587 -0.042268068 0.028450742 -0.053243816 -0.034183793 0.10729453 -0.007326737 -0.057009332 0.0802498 0.042100117 0.12493573 -0.02529861 0.082170054 -0.09494015 0.12263848 -0.053648204 0.032815874 -0.100251764 0.03757152 -0.11165225 -0.13829847 0.030993596 0.09852858 0.05300069 0.03948635 0.09842259 -0.02874162 0.06643246 -0.05523114 0.047239095 0.11876361 0.12084685 -0.12491969 0.11767389 0.058264278 -0.0013961027 -0.017012088 0.122987576 -0.06467671 0.13971716 -0.07476234 -0.061395247 0.030859062 -0.08388653 -0.11727955 -0.00403369 0.08207906 -0.09588874 -0.10853548 -0.022241494 0.041770294 -0.03092138 0.098259926 0.13036025 0.075185835 -0.088269226 0.09808763 0.08949831 -0.089920454 0.08876442 0.13732448 -0.06815793 0.063171305 -0.0075636483 -0.11068955 -0.010064277 0.099375084 0.09232382 0.14397873 -0.03989874 0.045766305 -0.11889256 0.0472762 -0.12859829 0.012151997 0.09760269 -0.053303562 -0.11270582 0.08821049 0.012829995 0.08024632 -0.063969165 -0.11648159 0.12452875 -0.04068336 -0.070839584 0.077154174 0.0051913117 0.086718276 -0.11066643 -0.12112126 -0.080511905 -0.020658722 -0.12039267 -0.079788744 -0.10740761 0.11710063 0.04865463 0.0206067 0.013738171 -0.1283945 -0.14063312 -0.095625706 -0.06237116 -0.0065643676 -0.10456844 0.09168896 -0.053405643 -0.13798098 0.0057327636 0.0008499708 0.02959302 0.05324735 -0.07699476 -0.09038074 -0.021656957 -0.1114849 -0.076943934 0.04648104 -0.08516739 0.044790484 0.07287632 -0.11176585 0.0011915471 0.13976337 0.13550083 0.046865582 0.07578577 -0.113624774 0.06240043 0.0052831243 0.099802665 0.11572738 -0.07353425 0.10156603 -0.10670125 0.052173633 0.12507223 -0.11277486 -0.10288547 -0.015066005 0.07087589 -0.058783352 0.12601954 -0.0916409 0.07458677 -0.022739474 -0.06444715 -0.07450359 0.012033653 -0.026622161 0.082312815 0.078479044 -0.07733581 -0.056302477 -0.13736497 -0.061698355 0.12982224 -0.054175444 0.07860995 0.071071476 -0.09674679 0.054227382 -0.0033329397 -0.03545194 0.053893823 -0.08620472 0.07508235 -0.08874462 -0.066476114 -0.008865662 -0.09386845 0.055393197 -0.115364246 -0.09404447 -0.13842124 0.110273995 -0.06351481 -0.082395166 0.018926626 -0.10028926 0.027229853 0.09239037 0.101707384 0.042872738 -0.11215545 -0.0004236125 0.120497115 0.10196225 -0.041140452 -0.032404773 -0.0847346 0.052137986 0.10096726 0.025910174 0.13840854 -0.12029903 -0.12957081 -0.041348238 -0.006658286 -0.07823671 -0.019591246 0.023252182 0.08543277 -0.075041965 0.023782495 0.013935983 0.095274344 0.031501137 0.11523792 0.028160281 -0.05471792 -0.063289225 0.053065166 0.14244312 0.099223 0.034644686 0.12307462 -0.06490127 0.0136723295 -0.02986773 -0.0009910337 0.13312486 0.07020331 -0.09606167 -0.055702303 -0.08616266 -0.06476564 0.029089177 0.09919002 0.017929876 0.11315623 -0.09654168 0.10031611 0.12522776 -0.08066228 0.05281405 0.050459385 0.03852831 0.04312168 -0.113664575 -0.060887598 -0.07063477 -0.045386866 0.09216964 -0.12561913 0.001301229 0.096503645 -0.059771873 -0.12673715 0.12013607 -0.10800938 0.05102144 0.02527459 -0.04791733 -0.06354513 0.13462879 -0.11714705 0.033621863 -0.0136787295 0.11739366 -0.08579227 -0.10142221 -0.13097012 0.03591606 0.03750582 -0.06719636 -0.01493749 -0.08939499 0.07831286 -0.008457065 0.1273712 0.0110967755 -0.09321757 0.038011312 -0.06861586 0.009875149 0.0725991 0.048077717 -0.12677486 -0.092465624 0.021534443 -0.0018861443 -0.014818728 0.09198195 -0.039796397 -0.119167104 0.13124408 0.11794846 -0.10117858 -0.0021538972 -0.044611923 -0.033194903 0.07922673 -0.08552051 -0.06625764 -0.047601316 0.020180328 -0.09637153 -0.10848751 -0.050314218 -0.05025494 0.07834103 -0.12878601 0.06818018 -0.042378534 0.055092562 -0.09209011 -0.07410362 -0.04746926 -0.130533 -0.13466239 0.05315686 -0.053955063 0.06583829 -0.12872727 0.04029146 0.047205836 -0.08765928 0.1232809 -0.09073836 0.05370519 0.12991257 0.116623595 0.1412764 -0.06540142 0.021806689 0.08520974 -0.10973575 0.00818689 0.10725814 0.03712301 0.08023756 0.13994525 0.11797959 -0.071290895 0.05264661 -0.084944054 -0.123790145 -0.14984982 -0.058282964 0.13801469 -0.044739556 0.15449567 0.13585772 -0.1489768 0.16283813 0.0009926797 0.16006273 -0.009627816 -0.103456765 0.10123222 -0.025394123 0.12176288 0.053621087 0.12463509 0.042247463 0.04471257 0.0046887943 -0.056187805 0.0929707 0.20239353 0.053557843 0.012990298 -0.12165304 0.05241546 0.12444325 -0.06344641 -0.048290584 0.22665755 0.08666211 0.035039023 0.07082175 -0.038474046 0.041631818 0.07597918 0.15005921 0.0096163945 0.0030002296 -0.030562392 0.014136573 0.07530173 0.10204434 -0.015230969 0.072883844 -0.030735163 0.13087255 -0.079398006 -0.0022411773 -0.059818707 -0.13781974 0.021890149 -0.13492057 0.058169976 0.035583775 0.08427712 0.05109233 0.08633919 0.15530841 -0.06978151 0.11162634 0.12859507 -0.076008745 0.073522694 0.051386505 0.08033624 0.023103358 -0.0026856293 -0.077026114 0.02027807 -0.0032843964 0.004821756 0.13581313 0.1284452 -0.112916075 0.018814333 -0.022518093 0.13755924 -0.08798013 0.17354523 0.004280752 0.050628375 -0.007202304 -0.10194148 -0.03316389 0.1232169 0.05309471 -0.011226553 -0.03292706 0.10010206 0.11700962 0.037058868 0.0135247065 0.07260552 0.019213472 0.06524109 -0.066799186 0.079034455 0.08251799 0.08864328 0.026724754 -0.10045696 -0.063912064 -0.050069522 0.08137982 -0.04819084 -0.022438224 -0.1105307 -0.0028548304 0.15261364 -0.10011015 -0.105308026 -0.04996767 0.056295455 -0.03535273 0.09803989 -0.022184588 0.116434775 -0.11700477 -0.07207195 -0.074331485 -0.0871012 -0.04689577 0.10021627 -0.12982044 0.13556771 0.081858054 0.10091123 0.07879272 -0.13433087 0.0101778945 0.044311933 0.07696757 0.09693734 0.13140123 0.0393883 0.105035864 -0.05339788 -0.07425661 0.10623114 -0.041131545 -0.113337055 0.048972663 -0.08901398 0.12275832 -0.08314078 -0.04478547 0.11010324 -0.046102114 0.0730589 0.019213622 0.011300852 0.16671793 -0.12730016 -0.0004205019 0.011795585 0.07126086 -9.2182665e-05 0.07673717 0.16974485 0.009554267 0.0830337 0.008365022 -0.13375752 -0.022209067 -0.21164775 0.103954345 0.014492008 0.0044796923 -0.100605264 -0.076356836 -0.19121511 0.08945775 0.07361412 0.13975817 -0.11589499 -0.17758389 -0.013733592 -0.10054841 -0.16536129 0.099157825 0.00015630176 0.07574709 0.02874393 0.10722881 -0.021665636 0.08323422 -0.012294409 0.088217184 0.176746 0.13512625 -0.055652775 -0.1260066 -0.03359937 0.073656276 -0.13017131 0.07474103 0.078394264 0.084237 -0.021488672 0.08279802 0.1524027 -0.07655522 0.08517129 -0.13211472 -0.014695647 0.012052992 0.057168238 -0.0057080938 -0.066299655 -0.0020094663 0.0916933 -0.045882784 0.074294984 0.030619055 0.07206933 0.103101075 -0.108115755 0.061386574 0.093604766 0.12638624 0.109561965 -0.040645536 -0.038317375 0.036882658 0.07998004 0.1597621 0.06061342 0.037876185 -0.03947447 0.09774731 0.034359973 -0.07534403 -0.10667119 0.0047758156 0.020655638 -0.044760812 -0.10884493 0.067369774 0.14136608 0.013496824 0.12579465 0.09387702 0.09511441 -0.03775277 0.13602333 0.08563463 0.107612535 0.059520353 0.08281226 -0.06456548 0.10169884 0.03440906 0.13396227 0.040497847 0.0537185 0.026627064 0.035296876 -0.084164545 0.0653724 0.09973627 -0.011854457 -0.13529517 -0.0049293283 0.086462185 0.17191261 0.019151025 0.05210349 -0.12030779 0.13335526 -0.051636092 -0.05056494 -0.035906103 -0.07403135 -0.0017607729 -0.12522466 0.16912626 0.09233015 0.01116528 -0.040114015 0.0553004 -0.10400434 -0.15813008 -0.06742378 -0.056814592 -0.05126913 -0.12878624 0.11580334 0.106629625 0.0691928 -0.026705557 0.136463 0.16835311 -0.019244827 -0.09087943 -0.1384946 0.010796949 0.040446818 0.048641935 -0.020889409 -0.049512923 -0.03697998 -0.0032134205 -0.10135652 0.12908716 -0.016221479 -0.12073341 -0.02634114 -0.038426682 0.10799572 0.12708826 0.081696466 0.030973852 0.03777732 -0.04104977 -0.11938815 0.108478695 -0.021368906 -0.087449305 0.020772547 0.014828533 -0.123432666 0.069095165 0.12554555 -0.12355105 0.112954214 0.08054963 -0.110293135 -0.014189392 -0.014904559 0.11720003 0.097984195 -0.06583928 -0.13082966 -0.042382725 0.12749334 0.00821279 0.08921623 0.019303039 0.021051437 -0.12744248 -0.05060803 0.045035303 0.0658274 -0.042182222 0.12589392 -0.016528444 -0.04002768 0.0392054 0.055390235 0.1065231 0.09554033 -0.029688891 -0.084838904 -0.0425592 0.031390972 0.10911661 0.06489261 0.11466239 0.07371013 -0.114555426 0.1420855 0.13765308 -0.12663509 -0.14815766 0.058899794 0.12626493 -0.09162488 -0.08298926 -0.083488725 -0.07563078 0.0134203695 -0.08483226 -0.042860713 0.041305955 -0.03780829 -0.09283594 0.046357233 -0.08789159 0.08447115 -0.05658778 -0.029748313 0.14049785 -0.0316762 0.07366286 0.12358585 0.0050159185 0.08227891 -0.047003288 -0.027417008 -0.11827224 0.053002138 -0.07598067 -0.06583492 0.04234285 0.072298504 0.057398587 0.066600636 -0.12432249 -0.072026536 0.069967546 0.024348069 0.097371876 -0.038554136 0.13501824 0.012094528 0.018065548 -0.079723425 -0.050058153 0.11351212 0.09461376 0.11568973 -0.07113354 0.083845586 0.08614197 -0.041432012 -0.13496916 -0.037443716 0.054032676 -0.08544402 -0.07073186 0.12992674 -0.13379581 -0.09732341 0.10807464 0.0010772542 -0.055880163 0.055619895 -0.03283444 -0.11693938 0.052824482 -0.011219194 0.12626877 -0.12379154 -0.047717698 0.0068592513 0.052042212 -0.105459094 -0.13311084 -0.039895784 -0.055198316 -0.07562241 0.07139991 -0.06535801 -0.07868194 0.032063466 0.012542954 -0.09854446 -0.012661531 0.10022012 0.12484376 -0.12824722 -0.0968625 -0.131685 0.005537728 -0.005835592 -0.024819735 -0.005738291 -0.06919012 -0.011094753 0.044579163 0.109082945 0.12134472 -0.008313537 -0.094058976 0.020025734 -0.038879465 -0.14227396 -0.0038655566 0.12212211 0.07847518 -0.17880997 -0.012347514 0.1407053 -0.105892666 -0.07759011 0.07391408 0.07723334 0.081272736 -0.14386185 -0.09556194 0.03880579 0.16498141 -0.09936503 0.049738407 0.07444016 -0.1328399 0.047014605 -0.12432019 -0.07891147 0.054932524 -0.040230792 0.01958915 0.070220485 0.14044364 -0.07210468 -0.049344823 -0.011768177 -0.09100638 0.09607779 -0.021990584 0.09229268 -0.14098856 -0.11918682 -0.0047215684 -0.11382246 0.048157517 0.12494098 -0.13513793 -0.124041036 0.08725265 0.018253604 -0.06358918 0.04248391 0.061417636 0.018752668 -0.1038619 -0.05582591 0.048392177 0.093677014 -0.087086596 0.08755006 -0.07510858 -0.0069695837 -0.07974878 -0.047226258 -0.07084244 -0.07215441 -0.13798824 -0.1059788 -0.12030753 0.12407823 0.07279293 0.029844278 0.13104093 -0.059147943 -0.06540595 0.10106221 -0.0957316 0.0063949996 0.032821383 0.12938246 0.08718726 -0.08291447 0.011257167 -0.025777284 -0.09972414 -0.06305194 -0.07631719 -0.1588745 0.047961794 -0.034742963 0.042148635 0.109209664 0.03683666 0.062048398 0.07366312 -0.057271846 0.14580257 -0.12031863 0.06657699 0.055783626 0.043131024 0.05328552 0.011517196 0.18475899 -0.05007742 0.030750118 0.02523457 0.13812684 -0.07265381 0.004227038 0.028239768 0.07698143 0.03776328 0.05066205 0.024598643 -0.036102444 -0.013624426 0.08044873 -0.11541311 0.10769746 -0.12585446 -0.011219098 0.08937729 -0.043387983 0.093841106 0.0806843 -0.073548004 0.08417113 0.10545731 -0.12765856 0.053890366 0.0004466176 0.012388726 0.025996996 -0.00674676 0.06568177 -0.14502794 0.12788883 0.058495604 -0.092777364 0.13300186 0.084908396 0.1072514 -0.016785627 -0.020923838 0.09231134 -0.026142752 0.16777234 0.027505651 -0.10375551 -0.07134542 0.017632268 -0.054595042 -0.09446626 0.035539307 0.05877082 -0.09435629 0.12775972 0.053915147 -0.08970131 0.039193954 0.0967975 0.10645923 0.06464371 -0.08461003 -0.13295159 -0.1289667 -0.09629899 0.07125114 -0.12530601 0.19188337 -0.00154518 0.04049765 -0.042132683 -0.09105583 -0.11929513 -0.052046392 0.1078986 0.007730394 -0.059173536 -0.10123931 -0.1066082 -0.10913946 0.019242667 -0.12479812 0.03872251 -0.12542786 -0.043618053 0.049735676 -0.010255439 0.077211566 -0.089909755 -0.00925018 -0.106647804 0.099604346 0.105908744 0.038437117 0.035145182 -0.00020605326 0.11483236 -0.0724204 0.045838833 0.017191887 0.0075950455 -0.13195632 -0.04128549 0.06322865 0.11013028 -0.12226905 0.13627885 -0.021100124 -0.13620646 -0.12624513 0.13228394 0.133171 0.10173067 -0.10063382 -0.12441221 -0.09211608 0.0027574135 -0.13175695 0.11167149 -0.10053502 0.05404985 -0.1296235 -0.10391662 0.04740481 -0.081224464 0.10034323 -0.068892054 0.100024834 -0.00014005601 0.064075336 -0.03391503 0.108204365 -0.088299945 -0.047293365 0.10169369 -0.06409457 0.07897475 0.054503348 -0.01912972 0.12644072 -0.08779843 -0.13033165 -0.11938373 -0.13078494 0.12752604 0.045807168 0.010244563 -0.031450737 -0.06172482 -0.060623582 0.05975564 0.03676118 0.13415897 -0.007743761 0.0701614 0.07951817 0.09868976 0.08409166 0.08828284 -0.028712248 0.14001398 0.10295293 0.12463175 0.07753742 -0.107737936 0.07086183 -0.018755147 0.015676653 0.036896378 -0.074242234 -0.035653524 -0.113943145 -0.04747767 0.064069554 -0.02196449 -0.111161225 -0.074889 -0.12938076 0.016486064 -0.028888388 -0.007355962 0.017832506 0.0043432154 -0.011451676 0.09632339 -0.017912734 -0.011478834 -0.057835035 -0.013027822 -0.027848003 -0.00065431464 0.026493784 0.055534016 0.14492519 -0.13800302 -0.10095234 0.10559042 0.06284997 0.053416267 0.10041397 0.15834886 0.061543763 0.015505874 0.07539846 0.12666847 0.09218414 0.041123565 -0.026351014 0.13417433 -0.026239233 -0.017224751 -0.064001866 -0.13065289 0.003826871 0.15119946 0.061292678 0.05940765 -0.15076411 0.035444688 -0.12437722 -0.10207009 0.057576116 0.007061783 -0.11615011 -0.05196625 0.056519225 -0.13016222 -0.02144692 -0.028736249 -0.12006984 -0.076547995 -0.020863554 -0.079479784 0.027017374 -0.044154458 -0.13396469 0.05635088 -0.15416701 0.12877946 0.047123626 -0.08261873 -0.029276311 -0.08689656 0.020810632 -0.0052768514 -0.13047637 0.09018074 -0.16425295 -0.10233078 0.02679684 0.11621485 0.018927462 0.0051913015 -0.114906125 0.002442472 -0.06813009 0.1018092 0.13853914 0.024291072 -0.14724395 -0.061969563 0.04707329 -0.010339127 -0.0661073 0.16733 -0.092193924 0.063827604 -0.15605144 0.07532299 -0.13407612 -0.12140814 -0.03598123 0.14742139 -0.13883477 0.10475384 -0.11771211 -0.015108767 0.106055 0.086641684 -0.099738955 0.07317671 0.09657954 0.05654296 0.05405221 0.104610965 0.12509698 -0.06762908 -0.11129368 0.1590569 0.06411787 -0.07112887 0.006516182 -0.016154649 -0.04912916 -0.005762 0.024994865 -0.09130718 -0.011717063 0.0147226425 0.0901603 -0.010976118 -0.12693968 0.1147709 -0.09850788 -0.06850237 -0.078278415 0.06151003 0.10179405 -0.05297373 -0.0565489 -0.12036898 -0.11536152 -0.096051596 -0.028972201 0.04848225 -0.11314836 0.042762946 -0.09197932 0.033407643 0.088746406 -0.04506705 -0.00027990286 0.12444213 0.05647315 0.12615561 -0.012234319 0.035689462 -0.06822683 -0.13008012 0.12718616 -0.08174455 0.0539966 0.101516806 -0.1253321 -0.06723117 0.0954788 -0.0686954 -0.012703932 -0.030149484 -0.029297153 -0.032162234 0.0028937503 -0.05808013 -0.0037277383 0.14638467 0.016186163 0.041177683 -0.103151806 0.017262585 -0.010598685 -0.008343488 -0.08411207 0.08911729 -0.06873025 0.080564 -0.097764656 0.024900649 -0.062291365 0.08283628 0.14352015 0.07993783 0.06249067 -0.0072198138 -0.060354818 0.06545692 -0.015978618 -0.07447439 0.078018114 -0.037638552 0.03960644 -0.014505833 0.1280092 0.011480438 0.11488905 0.13537812 -0.09620887 -0.03402957 0.12691608 -0.0060699433 0.14024739 -0.02661432 0.0058871806 0.010168608 -0.029767506 0.064212374 0.07486428 -0.024142073 0.06473413 0.05547438 0.058345843 -0.07810839 0.030849922 -0.097860135 0.060671113 -0.0016151412 0.0264249 0.031655714 0.045397446 -0.018778615 -0.06360131 0.015591498 -0.06676015 -0.05402036 0.017752558 -0.091982655 -0.044740163 -0.048374698 0.014743127 0.067254774 -0.032835886 0.11063513 0.07678926 0.103310615 -0.07329169 0.035173327 0.1175317 0.075946875 -0.121084414 -0.103447855 0.10662612 0.0297018 0.11873046 -0.08510347 0.004682198 -0.033225622 0.034601185 -0.038742803 0.08793756 0.0034337044 0.10342549 -0.046648588 0.13794273 -0.107473776 0.052622218 0.16399278 -0.060229797 0.040950432 -0.0017421216 -0.13773724 -0.088949785 0.12552416 -0.096389085 0.05539471 -0.11467653 -0.0581158 0.067304105 -0.015564639 0.15036502 0.026411157 0.009300398 -0.13384165 -0.025564795 0.046480697 -0.13500528 -0.08740981 0.008973544 -0.06420064 -0.13421224 -0.0066013536 0.010972546 0.14508326 -0.033067837 -0.0014850537 -0.093358666 -0.11403422 0.026642 -0.08560126 0.18629745 0.04077114 -0.0022845904 0.089721724 0.03987155 -0.016216926 -0.0011945558 0.093703255 -0.0874376 -0.020048058 0.01646259 -0.11225572 0.065921865 0.0018558372 -0.13541436 0.10781305 0.026467433 0.060088698 -0.10196205 -0.047038916 -0.09691157 0.002695354 -0.019349026 0.05998433 0.12715766 -0.010683477 -0.0033259583 0.04776837 0.12486254 0.0010314047 0.011935963 0.08093797 -0.007607986 -0.042702466 -0.047342066 0.0315335 -0.11137139 -0.014512616 -0.056151822 -0.06409607 0.0958326 -0.10286052 -0.10254999 -0.012400755 0.056456663 0.12153758 -0.13610446 -0.07674905 -0.026285633 0.025923502 0.050056823 -0.028450334 -0.1282029 -0.0065475665 -0.05605745 -0.01756536 0.015339702 -0.1642385 0.056415506 0.07226365 -0.078912556 -0.059943207 -0.117378004 0.046456687 0.1320543 -0.06275763 0.006345096 0.07168657 0.035012692 0.11342409 0.09932754 0.04172742 -0.066068284 -0.012390652 0.020767251 -0.10189025 0.11323049 0.109108135 0.11449395 -0.12320533 0.097393006 -0.052190326 -0.017877324 0.024827024 0.02571939 -0.0155981025 0.09533275 -0.023380319 0.11427655 -0.14434284 -0.06555016 0.12993081 0.07766751 -0.00058445625 -0.045903705 -0.07318831 -0.038262397 -0.14087585 0.081024975 0.0039122486 -0.01601849 0.12457934 0.006507771 0.020899648 0.026549542 0.11228122 -0.08074402 0.005785519 -0.10086535 -0.058935475 0.0665171 0.09131193 0.020523403 0.039586462 -0.047763556 -0.01311782 0.03087194 -0.029503258 -0.027833572 0.15552399 0.06321616 0.07322432 0.11878549 -0.035015248 0.14522421 -0.09709531 0.13810638 -0.08233207 -0.07774331 0.090099744 -0.044508677 0.0430491 0.066219956 0.09945025 -0.0818909 0.029699638 -0.077022694 0.07398677 0.026560737 0.06753958 -0.1152227 -0.06673532 0.11735077 -0.1389942 0.11126799 -0.044769045 -0.034855016 0.044452008 -0.03106611 0.0057105 0.037802085 -0.12632915 0.1397755 -0.016225927 -0.034829445 -0.11369512 -0.028233908 -0.07167916 0.10698209 -0.0022116455 0.0062101646 0.10463151 -0.091893494 0.10984524 0.039146446 0.00075921457 -0.022971043 0.041435342 -0.13946702 0.12728244 -0.15344422 0.12327087 0.13661866 -0.008138428 0.006495381 -0.11910277 0.01950024 -0.014990794 -0.1284716 -0.11456437 -0.12886807 0.019768588 0.11916563 0.058088873 0.014792875 -0.06937801 0.106233865 0.065738715 -0.11154212 -0.02526301 -0.13588004 -0.079014786 -0.11681911 0.08153273 -0.062136397 0.040101886 -0.0014289495 -0.03496907 -0.08058876 -0.030522497 -0.09330154 -0.07024949 0.12308025 -0.011377096 -0.053590946 0.01108323 -0.10522941 0.034311358 -0.075407274 0.013194876 0.010359082 
0.077499904 -0.08165974 0.101505205 0.11432005 0.08846176 0.0814728 0.014954239 0.16833445 0.083002806 -0.13906991 0.13031852 0.12124952 0.00078767305 -0.028523184 0.00057066977 -0.04795154 -0.056465268 0.037167974 -0.11671006 0.14030617 0.08054937 -0.04464311 -0.055162452 -0.003832996 -0.09912754 0.026279263 -0.0755213 0.052165095 0.17307732 0.021926446 -0.11148272 -0.095264845 0.1556485 -0.04944939 0.12754 -0.053038284 -0.054796647 0.04324941 -0.008261503 -0.13929786 -0.03731534 0.1019941 -0.09661552 0.12269089 -0.09327245 0.099374175 0.10632077 -0.043696035 0.044070505 0.04659121 
Rect
Linear 50 50
0.018585194 -0.119387224 -0.091959484 0.033493713 -0.063615546 -0.1024089 0.05233641 0.065486945 -0.14700155 0.045636356 0.18782368 -0.066730365 0.06625684 -0.027328573 -0.024251096 0.018329386 0.04128705 -0.10817172 -0.054466225 0.16435617 0.13095589 0.092048146 0.09946958 0.104552016 -0.058410004 -0.06301353 0.004182406 0.13651818 0.16329016 -0.11044708 -0.049640026 -0.051205374 0.060734887 0.041481897 0.12987457 0.09538822 0.06589313 -0.068604834 0.10032802 0.035088025 0.022374507 -0.08691609 -0.09995295 0.03881425 -0.12534294 0.084307775 -0.10778377 0.050335962 0.0065522376 -0.13557029 0.12597382 0.116564825 -0.023624234 0.02177982 -0.058311705 -0.10914521 -0.074338615 0.06752687 0.09800214 0.067418054 0.13687374 -0.11314613 -0.01032587 0.11914764 0.019389674 -0.051541243 -0.08726991 -0.13913044 0.03348525 -0.0039454615 -0.07634776 -0.025307393 -0.044336554 -0.05596947 -0.05169531 0.03508566 0.038842726 -0.02820374 0.13773355 -0.10762689 -0.10295605 0.023920864 0.11500062 -0.08563598 -0.045358766 0.07728108 -0.07765899 -0.13247836 0.12231907 0.034507014 -0.015574187 0.0042514163 -0.091498345 0.11368857 0.11631028 -0.019838428 -0.06888501 0.09669527 0.13310546 -0.02677498 0.1814764 -0.1349861 -0.023820708 0.03966209 -0.074132375 0.09845493 0.12301384 -0.19646701 0.258911 -0.12066031 -0.0013448574 0.12634823 -0.0892446 -0.030447274 0.11842464 -0.012124063 0.08584796 0.08446549 -0.041619845 -0.035196163 0.081879385 -0.1317629 -0.14292993 -0.13172248 -0.05576096 0.24338444 0.18156478 0.018757004 -0.20752977 0.095378004 -0.091441266 0.11632179 0.08705007 -0.08563164 0.036839236 0.08601996 -0.00036173168 -0.17429087 0.009586392 0.13344555 0.098839454 0.05264286 0.13169295 -0.020016354 -0.059134763 -0.0902559 -0.061138716 -0.069549896 -0.08574244 0.11591712 0.08422005 -0.015804946 -0.13535607 0.098547734 0.07086298 -0.01879202 0.1341403 0.013590518 -0.1307219 -0.012090921 -0.00010922361 -0.117657684 0.119909674 -0.118622296 -0.0085384995 0.010747019 -0.11846063 -0.11469678 0.06836568 -0.024741217 0.08664427 -0.014685651 0.091880806 0.08652781 -0.04793932 0.08776848 -0.018035509 0.124651425 -0.104822405 0.04009898 0.071814016 -0.08436562 0.0013725572 -0.12778953 -0.03144704 0.1053135 0.025106046 -0.093660854 -0.10095601 0.09501037 -0.05918297 0.06929349 -0.07955863 -0.019650143 -0.08969354 0.082251154 -0.1122176 -0.00038530133 -0.019048931 0.048918292 -0.022874111 0.119839355 -0.10228114 -0.100203834 0.018023388 -0.06497793 0.14096175 0.14536472 -0.06893476 0.07745962 0.07806905 -0.08980249 -0.06941345 -0.081816375 0.10458712 0.0047749933 -0.13282676 -0.04363294 0.011083916 -0.055617046 0.10413717 0.051625602 -0.047789816 -0.047705814 0.03760341 0.014482172 -0.03352525 0.15258788 0.030087873 0.057075147 0.0047553508 0.07933858 -0.023945162 -0.005386436 -0.02977825 -0.0017666591 0.0249009 0.15879372 0.1133384 -0.09160107 -0.017301813 0.051791232 0.059888184 0.037502937 0.0032078577 -0.10074483 0.11271493 -0.110409595 -0.097436756 -0.013619585 -0.117344454 0.026678726 0.11500436 0.046100475 0.15746933 0.06248334 -0.006268099 -0.051842608 0.08204153 -0.09134855 -0.096946225 -0.12441922 0.1477883 0.12412746 -0.08572267 -0.07713626 0.042685524 -0.01771171 0.1356134 -0.024420943 -0.020801043 0.10358642 0.09771119 0.12466003 -0.08752794 -0.061300468 0.02309423 0.13198762 0.16137078 -0.01935908 -0.061515845 -0.0785155 0.09892658 -0.10824144 0.1043085 -0.029390214 0.07134771 0.1435783 -0.10269586 -0.11086369 -0.021521918 0.08774329 0.009575974 -0.01639478 -0.07448741 0.10775713 0.034961723 0.10073795 0.052068144 0.07477754 0.037695818 0.023800865 -0.087289564 -0.07645042 -0.11063873 0.13271187 0.13152365 -0.020989088 0.11066435 -0.06477174 -0.019589627 0.09037384 -0.08559274 -0.09328346 -0.08975084 -0.061703596 0.12897192 0.026360406 0.056831136 -0.008973136 -0.10562414 0.032244798 0.08992747 0.0799271 0.03663846 -0.100476295 0.0021220292 0.02083632 -0.12997596 -0.08894796 -0.003634503 0.08313456 0.016311906 0.030490458 -0.072384395 -0.13937981 0.07268907 -0.017470604 0.10581288 0.066223085 0.08310347 -0.0063838307 -0.032377686 0.10631742 -0.09576087 -0.13791531 0.014212035 0.036733836 -0.033628434 0.14563653 0.07600648 0.10225129 -0.06838316 0.015182571 0.16791356 -0.1290954 -0.026943877 0.16630939 0.0054898863 0.038718484 0.17363194 0.08151568 -0.016319245 -0.045159303 -0.040811658 -0.010638545 -0.09954415 -0.008947592 -0.10188542 0.08625521 -0.026029121 -0.010808541 0.0025759889 0.0592798 -0.001178977 -0.06798265 -0.08849616 -0.09015869 0.061842315 0.12408841 -0.09861066 0.02599506 -0.02392955 0.063860685 -0.021291913 0.09346201 -0.032611493 -0.00040041865 0.016282216 0.0365269 -0.06641239 -0.072685234 0.007188817 0.027949043 0.037778758 0.18581006 -0.019099986 -0.09356822 0.06837861 -0.031237643 0.06508211 0.043750048 -0.11464258 -0.09555854 0.14401339 0.010579839 0.008939758 0.10678394 -0.015581849 -0.06650787 0.11593382 -0.07400709 0.03826429 0.13167675 0.068038285 -0.013742633 -0.13546129 -0.08715556 -0.020537518 -0.12910274 0.11143906 0.1107098 -0.07850987 0.109973535 0.041884508 -0.034034092 -0.080971144 -0.046580087 -0.02006459 -0.042260528 -0.1328649 -0.12157916 -0.04969091 0.083674274 0.14845543 -0.0524374 0.0055584246 -0.01855213 0.1198881 -0.040373117 0.0636348 0.049121227 0.008928713 -0.093240134 -0.03447233 -0.008289019 -0.03607632 -0.061212506 0.008588234 0.11508996 0.13492 -0.10161838 0.12715839 -0.04337524 -0.012388884 0.11439752 0.038422152 0.084057756 0.018312939 0.10364502 0.012857981 0.1391274 -0.08248134 0.028087035 0.06966029 0.09875536 0.0655649 0.024097692 0.13373832 -0.06012245 -0.07993662 0.1341578 -0.10304795 -0.12689662 -0.04681133 0.15162905 0.10146836 0.046230853 -0.09032246 -0.08204029 -0.053457912 -0.1360761 0.12212981 0.028601045 -0.02080912 0.061414253 0.0821445 0.027765514 -0.0037108255 0.0012616799 0.14179848 -0.07504124 -0.065860614 0.046232928 -0.12191106 -0.07735438 -0.1251414 -0.12990822 0.07980179 -0.07754708 -0.103391275 0.025723994 0.076313235 -0.034011245 -0.04957823 0.061960794 -0.07203571 -0.13112967 -0.0630499 0.024667338 -0.05744741 0.099199355 -0.03026576 -0.010522902 -0.1394596 0.076147415 -0.10640761 0.117520146 -0.072218254 0.08420677 -0.018569775 -0.086431384 0.11837436 0.11567034 -0.054942925 -0.06633058 0.094005086 0.13703702 -0.10190328 0.04062769 -0.12692903 0.11733113 0.12243579 -0.08541091 -0.03454759 -0.12438743 -0.02996395 -0.054428253 -0.07013495 -0.112881154 -0.10508553 -0.010441322 -0.06198423 0.10315148 0.08869454 0.09035256 0.005949221 0.049839303 0.12777288 -0.05774832 0.030512089 -0.0034223348 0.037711807 -0.08484785 -0.14113036 0.18486984 0.040840313 -0.039183177 0.25610077 -0.13843814 -0.14665763 0.078002326 -0.056171715 -0.00019197166 0.04353398 -0.06915438 0.06762174 0.15984236 0.11116414 -0.022589823 -0.096489325 0.11996981 -0.05085071 -0.094408154 -0.134541 0.15279812 0.06425265 0.10980572 -0.095223196 0.13021551 0.18223599 -0.12515259 -0.017841017 -0.101908594 -0.026945457 -0.0060306364 0.17298721 -0.084873624 0.021610022 -0.0497273 0.019761248 0.16337714 0.026893508 -0.0025694885 -0.086436875 -0.0670404 -0.076107495 -0.019656708 0.14082944 -0.0008438125 -0.1265601 0.102804735 0.080403194 -0.000466048 0.030996604 -0.1279492 -0.041404523 0.09996268 0.003096922 0.056426316 -0.015811743 -0.13963093 0.069010004 -0.05406507 0.09543696 0.092173666 0.122828946 -0.12712823 0.012823299 -0.096004754 0.1281526 0.07673008 -0.057962384 0.039303213 -0.045201883 0.0036337667 0.034317244 -0.026386373 -0.058723282 0.008505277 0.09141147 -0.13919707 0.056281768 0.09342937 -0.04043889 -0.12952963 0.0038143713 -0.10807264 0.03573492 0.09837565 0.040467683 -0.112640046 0.06347435 -0.01339405 -0.061221287 0.009169846 0.07738323 0.08209085 -0.12233822 -0.055724204 0.07915241 -0.016233355 0.07796903 0.06803226 0.082804754 -0.07887709 -0.08749099 0.010337604 -0.09424233 0.050017178 -0.056084465 0.02391842 0.0105746705 0.052560985 0.12097652 -0.09660701 0.053332046 -0.051064577 -0.0387192 -0.07671525 -0.017055213 0.052608535 0.05240639 -0.014131144 0.007584691 -0.11283783 0.07416548 -0.016595013 0.12287163 -0.12634625 0.09052228 0.037367657 0.026829513 0.011985436 0.0692077 0.010886381 0.0075323037 0.05850326 0.110829756 -0.13598458 -0.12032076 0.024130512 -0.0032294204 0.01906475 -0.057282828 0.008732729 0.051107086 -0.125998 -0.02875553 -0.05942868 0.03896468 -0.13253354 -0.018787319 -0.034070484 0.10910266 -0.0348155 -0.11532258 -0.109302945 0.048605982 0.1245759 -0.048799023 -0.056524836 0.08587292 4.5582652e-05 0.030736104 -0.12134301 -0.06333137 -0.025166426 0.059857264 -0.070931345 -0.030436076 0.110489115 0.029971555 0.082543984 -0.11836629 -0.021269284 -0.11255608 -0.07591758 0.040206477 -0.12995362 0.001426077 0.02620396 0.115001306 0.009433091 -0.13633916 -0.07313348 0.06810241 0.11131297 -0.07623635 -0.056529157 0.1289391 -0.06601818 0.11055683 0.03449097 -0.041197717 -0.12115093 -0.0073866174 0.04846273 0.025480453 0.11424201 0.06077304 -0.108355656 0.08274387 -0.06094796 -0.07015364 0.15035039 0.06437118 -0.19362967 0.21103054 -0.11201956 -0.050985675 -0.00083442806 -0.12482473 0.098146245 0.14138214 -0.0881051 0.0061777383 0.035452064 0.09169957 -0.1099992 -0.08246021 0.09714136 -0.04990175 0.08911425 -0.04780012 0.12262575 -0.018447062 -0.14024891 0.035796035 0.14287832 -0.09758813 -0.11218763 0.059286274 0.077230126 -0.08486875 0.060933474 -0.022114854 -0.1666824 -0.0521348 0.07975556 -0.09291878 0.05653497 0.08600017 0.07287695 -0.038926113 -0.17005137 0.107377976 -0.054251768 0.15423714 0.04031396 0.18926327 -0.06918065 0.056522883 0.057779603 -0.044759307 0.025618097 0.026424378 -0.06538808 0.19829611 0.004114286 -0.04230014 0.024352647 -0.070429504 -0.12207854 -0.008306503 -0.11768578 0.11775212 -0.059143286 0.07679218 -0.1596033 0.018456098 0.029261515 0.057829875 0.03867261 0.09784734 0.046850152 0.12225122 0.045298245 -0.20223016 0.02699788 0.15584843 0.003868118 -0.087316364 0.010355995 -0.12858902 3.2432108e-05 0.16744718 0.046694327 0.0091149025 -0.03941855 0.0038843437 -0.052204233 0.040580425 0.11420835 0.055747703 -0.008445561 0.10647821 -0.00084280455 0.16687681 -0.0037163654 0.1348614 -0.08172109 -0.13638628 0.05367416 -0.09934456 -0.12480897 0.096622825 -0.13079622 -0.08558353 -0.12366626 0.10978986 0.036799952 0.08865334 -0.012846112 0.089671895 -0.0019372702 -0.12969422 -0.046331726 -0.122331604 -0.05042834 -0.10856177 0.0003630072 -0.05317904 0.12100603 -0.10822202 0.058300152 -0.07278186 -0.007909462 0.023119181 -0.007985756 0.006981507 0.025540993 0.025479957 0.10602741 0.019040704 0.12849279 -0.016422726 0.045126826 -0.056438394 -0.0009458214 0.050206587 0.11957802 -0.05703187 -0.0815724 0.067088634 -0.109305754 0.06704126 -0.057765983 0.017529994 -0.06927948 -0.12992688 -0.08458033 0.0024029603 -0.13206252 0.16033724 -0.015306504 0.13688011 0.15761654 -0.14698555 0.12102334 -0.055567063 0.08596635 0.07087533 9.9018216e-05 0.017255127 -0.09456307 -0.0039204806 0.045308754 0.04305488 -0.09049642 0.11546647 -0.07310434 0.106246695 -0.102685556 -0.07166125 -0.10077634 0.06159049 0.14565432 0.18616737 -0.16124758 0.054703742 0.076647595 0.13750665 0.07236127 0.11474444 0.09753493 -0.11323118 0.19302967 0.008017786 0.053856965 -0.037842598 -0.15443125 -0.0034949174 0.12217479 0.13997917 0.08831644 -0.057683174 0.055148 -0.04655437 0.10253668 0.015626645 0.08304231 0.120579675 -0.049729362 -0.09772164 -0.018829599 0.0983275 0.05706002 -0.16130541 -0.059724987 0.094321206 -0.11793863 0.042239543 0.10386908 0.01681666 -0.088645846 0.040929914 0.043546632 -0.027576856 0.042771608 0.0068777306 0.055867713 0.13488232 0.10506068 -0.085897125 0.040860996 -0.04168413 -0.088091955 0.13394095 -0.0017511048 0.020916888 0.1350482 -0.08839616 0.025363626 0.09716566 0.052635446 0.02389468 0.15780953 -0.060427062 -0.021576649 -0.1102246 -0.0356795 0.025571488 0.021118643 -0.033463992 0.1673141 0.13410255 0.092881955 -0.13349739 -0.09011498 -0.11424929 -0.10638659 0.11042799 -0.1014868 -0.13248156 0.040397987 -0.10897268 -0.08535406 0.011176825 -0.060155593 0.045620978 -0.12593725 0.12395863 0.058056697 -0.09277168 -0.058067888 0.07629351 0.09743531 -0.13891518 0.076881096 -0.019352973 -0.12415793 0.0105903745 0.11741589 0.062060192 -0.092418075 -0.04266067 -0.040892594 -0.023910888 0.11738454 0.048500314 0.110110626 0.11723204 0.10494648 -0.029315732 0.020719647 0.13164555 -0.0697293 -0.009146556 0.045115024 -0.102566 0.017224073 -0.068102755 -0.024434201 -0.075017214 -0.099020034 -0.0060857832 0.050835535 0.06923057 0.005018145 -0.00010672998 -0.11598343 -0.1242362 -0.056304533 0.06336081 -0.13879308 0.12350078 -0.1023128 -0.01843859 -0.07981284 0.10993017 0.027446084 -0.09928529 0.13838558 0.053219482 0.018770589 -0.13568246 -0.046681907 0.08401735 0.08879677 -0.07770922 -0.031126369 0.13528235 -0.12945159 0.1114399 -0.0056014084 -0.030501928 -0.056305755 -0.049042795 -0.025246536 0.116389416 0.0064507574 -0.03233001 -0.028655034 -0.07150539 0.018279327 -0.0588795 0.012235539 0.07721394 0.0032988489 0.13236547 0.086858176 0.006114929 -0.08712176 0.043420717 0.029947871 0.011867332 0.041431867 0.06674767 0.11601806 0.19380327 0.07936506 0.13765909 -0.051056143 -0.18781088 0.0773931 0.005142644 -0.1071021 0.119586274 -0.040313497 0.05747544 0.045725197 -0.09910613 -0.002286598 0.043422237 -0.057946242 0.1298161 0.11426024 0.06274022 0.084908254 0.07859556 0.036609907 -0.006149291 0.039149463 -0.003911495 0.1111874 0.16804026 0.021544572 -0.009927136 -0.017527513 0.1726966 0.11749433 0.04434878 0.0845699 -0.122975364 0.02944996 0.04567878 -0.0066567017 0.04878233 -0.12308418 -0.008440965 0.20618837 0.056201864 0.03795854 -0.071069345 -0.15278445 -0.061612755 -0.10155808 0.12984553 -0.025878282 0.011611775 -0.072039574 -0.0035354346 -0.009269491 0.06127028 -0.06911318 -0.051043563 -0.019568413 -0.016345903 -0.10138981 -0.12584388 0.028243974 -0.03102912 0.01856026 0.08388108 0.03778164 -0.015314907 -0.02379176 0.14007299 -0.06201189 0.057844162 0.098403394 -0.05818624 0.050364256 -0.12836555 0.11911182 0.04484433 0.048683047 0.023556769 -0.07260702 -0.04243721 -0.12959465 -0.026696622 -0.0098346025 -0.07714052 -0.14037384 -0.14136177 -0.057230532 0.09972182 0.09653142 -0.007901326 -0.13131806 -0.010144636 0.017486274 0.027109087 0.041164458 0.038504362 -0.01996404 0.03606245 0.10833752 0.026431106 0.0014107525 -0.039531693 -0.12824976 -0.015652394 0.09197886 -0.0015376061 -0.08345197 0.11626467 0.10109779 0.08807376 0.09185299 0.12703714 -0.06811389 0.14048253 0.08496677 -0.031187661 -0.048234507 0.12915747 0.021931827 0.095917545 -0.13278876 -0.13820052 0.0097294 -0.04326148 -0.09917349 -0.09636114 0.08952566 0.037741337 -0.118739955 -0.0064009978 0.06489743 -0.11657463 0.07514607 0.14341381 -0.080031976 -0.051076844 0.047645606 -0.11679841 0.09152399 0.045395464 0.027478633 0.06836003 0.12671217 -0.03524419 0.10333383 -0.007663168 -0.054596104 0.09304688 -0.12747699 0.092536345 0.03928426 -0.13402775 0.107357055 0.13287672 0.1057787 0.1268418 0.15347435 -0.15089434 -0.005109283 0.13420622 0.120525464 -0.03916912 0.024284288 0.11617194 -0.14052704 0.082169294 0.09387363 -0.010906279 0.030895457 0.027697327 0.110431 0.11742822 0.01285857 -0.07556915 -0.021842554 -0.01118702 -0.115169965 -0.046489853 0.040370043 -0.09044276 -0.031226851 -0.09922183 0.014585676 0.13055839 0.0032075222 0.026771111 0.058678925 0.03838139 0.033481505 -0.14596166 0.08012274 0.11808012 -0.015792564 -0.10080457 -0.064604566 -0.09825573 -0.06399593 -0.057869393 -0.13517505 -0.04047391 0.117113695 -0.112728745 0.13771595 -0.04034981 0.049201295 0.07904501 -0.023954414 -0.12589721 -0.07155096 -0.057540447 0.06939104 0.003305912 -0.12964211 0.03435728 -0.107078694 -0.04591333 0.012101591 0.026170328 -0.054582953 -0.05520302 0.017920643 0.0873383 0.0049972683 -0.107705235 0.042629644 0.018793955 -0.043712996 -0.020395942 0.04385613 0.07503365 -0.05012434 -0.05129364 -0.0929053 0.020806551 -0.08911598 0.003134206 -0.13876747 -0.105415866 0.085097924 0.07162781 -0.094548985 -0.069821335 0.080473155 0.10059026 -0.14048956 -0.046809874 -0.01431039 0.07136461 -0.041085392 0.14854765 -0.13901187 0.10658051 0.12933393 0.071459085 0.115196615 -0.03389708 -0.11786718 -0.08338739 -0.086033836 0.0834492 0.11125508 0.062214702 0.05111806 0.06733416 0.08718098 0.033635005 -0.011889921 0.029502168 0.0035808776 0.09486994 -0.00890442 0.010432772 -0.036712587 -0.090877034 0.11320329 -0.05232805 -0.07629804 -0.06766888 0.10430203 -0.048375 0.06983866 -0.12355372 0.08264286 0.110801816 0.06669499 0.10314805 -0.0074058725 -0.0017341982 -0.11876402 0.14007476 -0.0066221785 -0.0055886996 -0.11411212 0.052358486 -0.08369523 -0.010647668 0.08806319 -0.056045763 -0.11156402 0.13941865 -0.12750167 0.06411904 -0.0024771527 0.12356005 0.001370929 0.09229973 -0.05139111 -0.044229716 0.004456252 0.093913704 -0.07709113 -0.041671336 0.04505627 0.07901204 -0.084919564 -0.061459444 0.09777446 -0.00011740625 0.12499947 0.13402109 -0.10086167 0.12944683 -0.057371065 0.08790535 -0.110199206 -0.015821503 0.1299722 0.079213336 0.11494288 0.1280308 0.047774807 -0.11194655 -0.017590115 -0.018323787 0.040638983 0.048682347 0.0622571 -0.071409054 0.034700003 0.10599334 -0.10244363 -0.06322807 -0.12113484 0.076652184 0.034535334 0.0873671 0.12295631 -0.09845047 0.011975214 -0.120393574 0.01172784 -0.012223876 0.12228678 0.21890791 0.06716673 -0.115416735 0.033395033 -0.16536981 0.13541736 0.06192633 -0.11327581 0.006032378 0.103915855 0.14017282 -0.081805676 -0.086950585 0.116558075 0.015629336 -0.06659435 0.06656896 -0.03296948 0.075803764 0.06186357 -0.09639869 -0.15622434 -0.14467087 0.14413741 0.12652947 -0.123005606 0.04326363 -0.03625705 0.2066659 0.028767142 -0.07054405 0.04815995 -0.13422297 0.21836612 -0.1362372 0.029501382 -0.09569714 -0.05038424 -0.094318956 0.06767564 -0.12232493 0.048676427 0.021877322 0.110647574 -0.10129385 -0.00987609 0.11736449 0.018817335 -0.04756306 0.16158552 -0.080583125 0.08456605 0.10463047 -0.1905666 0.13094553 -0.05699384 -0.14163047 -0.09688096 -0.020686816 0.112085566 0.084550574 0.07517155 -0.015683517 0.092306964 -0.033706136 -0.1763104 -0.074583806 0.050147787 -0.023345906 0.06152664 -0.12593652 0.04143756 0.028527316 -0.02486557 -0.08890717 -0.08075538 0.030663434 -0.11946904 0.101413354 0.10318966 -0.10035212 0.055405587 -0.019547401 0.046774838 -0.12404789 -0.09771615 -0.007955764 0.07797558 -0.05805015 0.15511432 0.031620644 0.07749817 0.07941013 0.0007703156 -0.056634218 0.14035803 0.043513067 0.123649284 -0.0832445 0.15274678 -0.12932812 0.13999623 0.12773181 -0.03043665 -0.05898127 0.09309101 -0.11088745 -0.029503351 -0.01676468 0.08265595 0.12518777 0.06347552 -0.016400889 0.085159406 -0.05556032 -0.12795557 0.12745121 0.019344527 0.04351861 -0.07770519 -0.05676626 -0.023937898 -0.043961883 -0.04622233 -0.07081634 0.07114239 0.13384414 -0.10244731 0.0193956 0.04045449 -0.14024739 0.055560775 -0.08603514 0.06724861 0.044097513 0.054843217 -0.07050805 0.080666274 -0.04825016 -0.03141256 -0.07212039 -0.060479596 -0.035481386 -0.016354466 0.10097365 -0.081357785 -0.101708815 -0.08271154 0.11993827 0.027717441 0.049552783 0.13214235 -0.05389446 0.042026356 -0.1081985 -0.0018824488 -0.08620857 -0.108563475 -0.12918745 0.07559401 0.032658502 -0.10803335 -0.092857346 -0.107229695 0.02093497 0.045486853 -0.023758449 -0.1058431 -0.13302991 -0.04096605 -0.13501424 0.10412614 0.11456941 0.021074206 0.10446684 0.061995804 0.012437627 0.102782845 0.013034582 -0.06036309 -0.033957176 -0.0747873 0.018590227 0.013200313 0.12992059 0.0806354 0.03274551 -0.120497726 0.056022793 -0.020705178 -0.13591683 0.048157364 -0.095747665 -0.00790447 -0.1268035 -0.00472565 -0.039730556 0.030454442 -0.120462716 0.005458319 -0.10785533 0.095926546 -0.0048601925 0.10757502 -0.06083076 -0.12874539 -0.071553156 0.015492945 -0.10844575 0.03977251 0.09698145 -0.11879103 0.012913644 0.043616302 -0.020906255 -0.06998247 0.13448374 0.09455836 -0.07026389 -0.12714227 0.06942761 0.1455769 0.026876489 -0.03443019 -0.04360275 -0.09798448 0.13734746 -0.13152306 -0.07181541 0.11894106 -0.04807286 -0.046548985 0.09929502 0.03161668 0.13067181 -0.08588764 0.108675525 0.09523337 -0.046666067 0.040843908 -0.10828305 -0.038346503 -0.06915705 0.116236284 -0.0019761657 -0.023433441 0.05457272 -0.016931973 -0.016041365 0.0025714221 0.047648024 -0.10393857 0.12040989 0.11704624 -0.013850628 -0.0075380546 -0.019927952 0.01806271 0.119688846 -0.11001874 -0.016865045 -0.09800425 0.015513554 -0.044840608 -0.10792357 0.015304378 0.06955567 0.12182081 0.104938686 0.12058525 0.009993486 0.131796 -0.032346066 0.10797422 0.0635275 0.1355849 0.044996142 -0.04543122 -0.05828905 0.12303 0.013933852 -0.047858573 -0.019621847 -0.13039504 -0.03432135 -0.08361798 -0.010756167 0.09857044 0.09100971 0.045434043 -0.13179918 0.035031687 0.06540654 0.076505974 0.020873638 0.008712334 0.0013739318 -0.05217217 -0.1291555 -0.022518829 -0.12788785 -0.12950611 0.044115424 0.06965497 -0.037263192 0.08773868 0.091177344 -0.028632611 -0.13143042 0.13087435 -0.106508195 -0.1016452 0.05308999 -0.091331095 -0.10096934 0.13176234 0.058508456 0.010288641 0.00078096986 0.080769435 0.069558054 -0.13689946 -0.09150958 0.08984193 0.038021043 -0.039932117 -0.0812411 0.022908837 0.13981728 0.023087993 0.0014537424 -0.07602803 -0.11548207 0.01467368 0.13271992 -0.13661475 0.1337495 0.017094806 -0.10274011 -0.11144369 0.031733975 0.008505553 -0.038439915 -0.09230834 0.076719254 -0.07356421 0.04897669 -0.05009716 -0.0054507703 -0.121364266 0.12155612 0.109616384 0.109800264 -0.106918804 -0.06606585 0.11301924 -0.10773409 -0.088357076 -0.08957416 -0.13512576 -0.08344724 0.017675176 0.100159764 -0.035839908 -0.05028478 -0.09286736 -0.1058679 -0.12155715 0.06901801 0.024002373 0.015111148 -0.08706098 -0.09148429 -0.10265063 -0.04162951 -0.036454476 0.037212074 -0.094315276 -0.13012338 0.061379626 -0.0816534 -0.02535475 0.089097336 -0.08775401 -0.058234386 -0.10347246 -0.019991182 0.004323572 -0.06421142 0.0019458085 -0.111467525 0.056213245 -0.09220976 -0.13631514 0.09579709 -0.045062855 0.13438241 -0.08412361 -0.09033896 -0.059465595 0.100477934 0.13712378 -0.10167934 -0.028408915 -0.12931958 -0.04057867 0.034579545 -0.09142977 0.06472574 0.07667628 -0.13471617 0.13934733 -0.052146524 -0.116932005 0.05267422 -0.0964764 -0.057124153 0.008959159 -0.11575956 -0.09318365 -0.10052152 0.08232966 -0.105997816 0.05068639 0.13344024 0.13475768 0.069227144 0.09110862 0.14111044 -0.032200754 -0.11400656 -0.12365154 0.11169456 -0.07089916 -0.02021297 0.06205879 0.01362738 -0.13977067 -0.08082712 -0.07527944 -0.035088666 -0.055106856 -0.12029411 -0.08740784 -0.12247669 0.036816567 0.08065155 0.0029632747 0.10383588 -0.017206494 0.028003933 -0.121507764 -0.08595899 -0.009202474 -0.100027874 -0.04375046 0.13942288 0.084688425 0.015140196 -0.09400833 0.1309803 -0.022954015 0.12479673 0.051326096 0.055487886 -0.043648217 -0.09761228 -0.102502376 -0.0060663656 -0.07468024 0.12236014 0.08774882 0.09706501 -0.11952938 0.13897623 0.07429885 -0.111402355 0.07107337 0.031229652 0.12945282 0.109958865 -0.05410527 0.073866606 0.056525953 0.084030256 -0.09227477 -0.01050499 -0.07107951 -0.09583637 0.021516604 0.024806397 0.14045076 0.10834984 -0.060372386 0.09353098 -0.07569783 0.13099681 -0.09944917 -0.09788298 0.1342433 -0.088351294 -0.007442116 0.13044982 -0.03844378 0.11137661 -0.044695847 -0.04390685 0.021565726 0.08747601 -0.13156796 0.07575016 -0.018186118 0.10775331 -0.017788205 0.033002928 0.00734562 -0.05603196 0.07092725 0.013104412 -0.040901057 0.03051488 0.20459875 0.0681798 0.051668763 0.03734523 -0.016252808 0.07348237 0.11590971 0.086579256 -0.077626355 0.031431876 -0.07022861 0.17900598 0.031322956 0.095565245 0.06872778 0.06920152 0.20656908 -0.060740598 -0.010210791 0.028249199 0.047206298 -0.101292856 -0.0006894831 -0.025370337 0.02809065 -0.13857763 -0.008508518 -0.014557547 -0.13222115 -0.10318178 -0.06472844 0.059474394 -0.037930634 0.07845678 -0.028626189 0.11374672 -0.0055626472 0.010522105 0.11659722 -0.09072447 0.077759795 -0.1248649 -0.07727713 0.08366108 -0.048118457 0.0013467118 -0.014655005 -0.07476941 0.061675698 -0.094839044 0.024204789 -0.09002927 0.07571334 0.13545242 -0.09154051 -0.0791486 0.10401493 -0.091487154 -0.020958541 0.10663317 -0.0164512 0.12204735 0.06044156 0.026266646 -0.14129049 -0.0753764 0.06877771 0.019024204 -0.074930996 -0.056863472 -0.025720233 -0.07819573 0.09268174 0.010894783 -0.035366174 -0.115311 0.12753503 0.021527167 -0.053850148 -0.04322495 0.07040199 0.015070379 -0.008792067 0.08305387 0.037264265 0.022173252 -0.1272527 0.066937774 0.10247344 -0.10545759 0.020025337 -0.12251805 -0.06429263 -0.034274675 -0.0994069 -0.115095265 -0.113540985 0.017436553 0.12574096 -0.11802607 0.038041107 0.10957994 -0.04657291 0.015603827 0.020350639 -0.058466878 -0.047683753 0.1387983 0.048812732 -0.080320455 -0.099326655 0.1454805 -0.123166315 -0.03370783 -0.0544103 0.043982048 0.0521037 -0.0905489 -0.06390751 0.09318795 -0.053971898 -0.041437455 0.12118853 0.074576646 0.049899124 0.101831555 0.09047395 0.044988617 0.0065896213 0.058056816 -0.006202042 -0.06379948 0.009505913 -0.06962623 -0.018783301 -0.020722374 -0.038610138 0.027770817 0.05713676 -0.05663237 -0.10120773 0.11152317 -0.08042354 -0.041344225 0.07701892 0.083352625 0.11409746 0.06979217 -0.13629253 0.12681906 0.002625987 -0.13894945 -0.037424006 -0.014416799 -0.000205338 -0.053211093 0.008849025 -0.034025103 0.09718296 -0.043435194 0.033714384 -0.10481058 -0.03433004 0.1366617 -0.06160941 0.08649431 0.13261755 0.04849477 -0.12657832 -0.07847794 -0.10797649 -0.10084154 -0.07937114 -0.091370024 0.10855886 -0.1293985 0.043352008 -0.051405415 -0.043149963 0.027639091 -0.09214559 -0.048024394 0.13938604 -0.021443054 -0.083059475 -0.11850078 0.129191 -0.05728595 -0.02279067 0.09273411 -0.057777047 -0.11613537 0.0022175014 0.03839408 -0.12774569 -0.039757125 0.042771667 0.12452738 -0.124836646 -0.018030763 -0.0069454163 -0.086635076 0.03559813 0.1410382 0.08850093 -0.064732455 0.1327648 0.047878534 -0.083807155 0.030764878 -0.02754356 -0.08748717 -0.069235995 -0.11089082 0.01873584 0.040559664 -0.11301912 -0.011137113 -0.03285017 -0.13712196 0.041864634 -0.09986405 0.09972538 -0.09446181 0.037934616 0.13852069 -0.12814508 -0.06101549 0.06734447 0.09316204 -0.046647195 0.13925447 0.12126183 -0.052754216 -0.095444426 -0.086782046 -0.017270654 -0.04925381 -0.118351325 0.10286246 -0.012144175 0.08621943 -0.096972324 0.019025594 0.13111016 0.12935065 0.13590726 0.079971485 -0.029300809 0.026589736 0.09523008 -0.049584363 0.02545724 -0.028073175 -0.025191084 0.08692018 0.13100661 0.04963895 0.062908895 -0.10729387 -0.13322985 -0.11749046 0.099872924 -0.14102726 -0.1373661 -0.052864924 -0.1336957 0.0811058 0.038029686 0.14054157 0.07781786 -0.07676766 -0.06494338 -0.015160277 -0.089331284 0.060999084 0.12965448 -0.11750716 0.10761638 -0.08333563 -0.024725994 -0.13515851 -0.027646197 0.13309863 0.010804425 -0.082131535 0.049544442 -0.073296405 -0.07092843 0.13349299 -0.11492707 -0.08244555 0.026332526 0.0355085 -0.05688741 -0.085081086 -0.058536917 -0.058118623 0.028554171 -0.03092422 0.12605017 0.025314765 -0.03402019 -0.10159681 -0.13779688 0.06525827 -0.025485322 -0.04948888 -0.07843464 -0.08444574 -0.12890054 -0.11098876 0.12613332 -0.05975315 -0.04490804 -0.12677737 -0.028900055 -0.014194748 0.0223901 -0.04211565 -0.061006255 -0.0039193137 -0.08408374 0.13862143 0.06354699 0.10945833 -0.039441563 0.041637607 0.11750328 -0.12220988 -0.10508601 