Linear 19 9
0.1634944 -0.30581886 0.21622595 0.18108003 -0.32635477 -0.02424 0.21314012 0.12884322 0.17306185 -0.0023369712 0.0016261667 -0.23463473 -0.13763936 -0.109394096 0.02342977 0.11986436 0.087721355 -0.003492394 -0.46856716 -0.30114967 0.20096149 0.5155704 -0.23565544 -0.22654955 0.17942332 -0.37993202 0.0008418432 -0.04699471 -0.019218372 0.09110245 -1.329735 -0.8260562 -0.16387515 0.0036200192 0.06203709 0.11663157 0.35766444 -0.5323234 -0.19955687 -0.0153055005 -0.27035433 0.24496327 0.115734644 -0.08221115 0.47344664 -0.08845011 -0.12579837 -0.074500486 -0.031803247 1.5780793 1.9154528 0.074153356 0.30977175 0.0034944904 0.022891536 -0.040566284 -0.12407654 0.12908253 -0.06463888 0.30003813 -0.17719032 -0.15153264 -0.0071135 0.12325954 -0.10014256 -0.12482086 -0.018247558 -0.06846524 -0.9968941 -0.7764274 0.17799221 0.21869947 0.0075867996 0.07273583 0.19725591 0.1731074 -0.0039287093 -0.053316195 -0.1820487 0.15633577 -0.19782916 0.15638873 -0.23540853 0.18641345 0.25973105 0.12177717 -0.04031934 0.35154042 0.35879967 -0.10154835 0.22089341 -0.12501778 0.034158684 -0.19510311 0.23349021 -0.2732101 -0.087754406 0.20317094 -0.03411357 -0.21081416 -0.18327768 -0.1495552 -0.024424583 -0.16641499 0.015035364 -0.12612043 0.1889703 0.17590842 -0.22258899 -0.043831307 -0.17783092 -0.1408357 -0.29642442 0.08641181 0.2799496 -0.18748455 0.29217717 -0.038593873 -0.25720954 -0.1889546 0.6519625 -0.1437706 -0.09623866 -0.27305552 -0.1819575 -0.29487556 0.011738633 -0.26519063 0.3496612 0.20920873 -0.06932265 0.25270587 -0.2253821 -0.15233725 0.11262028 0.5214912 -0.013916528 -0.31818917 0.11809451 -0.5458802 0.063311726 -0.15706387 -0.067726076 -0.08047651 -0.3503228 -0.17401832 -0.33013222 -0.07842573 0.09447463 -0.017123636 0.26835445 -0.26694673 -0.18944372 0.06106103 -0.5373003 -0.02174526 0.04048004 -0.063059665 -0.20296188 -0.02235659 0.07147633 -0.07556355 -0.048643164 0.72443193 0.9113242 0.15795599 -0.024302386 -0.15468611 -0.039243538 0.11805254 0.1219927 
0.007730528 0.0801896 -0.0065959324 0.23153606 -0.069756694 0.101074055 -0.015715227 0.0720757 -0.18717018 
Rect
Linear 9 9
-0.27768084 0.46232983 -0.36069813 0.018508226 0.23854963 0.20010343 -0.18678185 -0.22422706 0.0033462923 -0.010515408 -0.49940553 0.3587774 -0.47252586 0.29755732 0.285919 -0.30650714 0.07688855 -0.15524544 0.27924582 -0.687145 0.76078016 -0.32123825 0.2961161 0.11319611 -0.41654554 -0.48490268 0.50287205 -0.033267852 -0.04751076 0.32010862 -0.16555597 -0.058992166 0.08792803 0.4651962 -0.0928592 0.0106915645 -0.2508378 -0.2486912 -0.09868306 -0.22138995 -0.07171661 0.19611466 -0.16345881 0.21868372 -0.2731832 0.4146669 -0.4188945 0.62748206 -0.17794769 -0.28817457 0.312188 0.41867656 -0.44580695 -0.11734521 0.0921887 0.32802224 -0.6589815 -0.07333824 0.07598854 -0.1527803 -0.34345445 -0.033492476 -0.12758635 -0.045559864 0.2637007 -0.37087956 0.105244346 -0.30555975 -0.062057815 -0.1958628 -0.060963333 -0.07107889 0.1474689 0.27189147 -0.451756 -0.10712936 0.37309176 0.020003885 -0.45333055 -0.19184262 -0.033152297 
0.23214214 0.040487967 0.09473344 0.070160955 0.019381614 0.18980224 0.45039305 0.27533844 0.37039757 
Rect
Linear 9 9
-0.2465949 -0.17267089 -0.13807277 0.093948126 0.015032262 -0.006831974 0.09735748 -0.17891447 0.33238307 -0.5905599 0.421505 0.6903097 0.17143793 0.28967932 0.49526298 -0.35023826 -0.010184559 -0.38126495 0.19682892 0.2242706 0.16043635 -0.34459838 0.23612793 -0.29892054 0.34592426 0.28427118 0.038172975 -0.17238478 -0.017383792 0.26533547 0.22919586 -0.21580303 -0.2716972 -0.29524413 0.095504254 0.2074563 0.11742644 0.08377474 0.35602778 0.011728672 -0.053676635 -0.2144591 -0.2940254 -0.38303053 0.12144256 0.105194055 0.26139665 0.40996826 -0.08460333 -0.018140147 0.29691207 -0.46868995 0.091671996 0.08866464 -0.019577593 0.08168697 -0.26053464 0.2901291 -0.059868693 -0.25844324 -0.22161822 -0.06177485 -0.018455178 -0.50807875 0.070010245 0.579603 -0.13132928 -0.26684445 0.2893011 -0.4318738 -0.20206508 -0.53387934 -0.086690575 -0.076954894 -0.22061315 -0.2534778 -0.21447755 -0.15658867 0.3995681 0.1792932 0.28548327 
-0.3258725 -0.037371784 0.31604174 -0.05468018 0.04685707 0.016084706 -0.2068973 0.13187276 0.41183048 
Rect
Linear 9 9
0.32507655 0.21297511 -0.01768137 0.30135778 0.043164477 -0.24901482 -0.16096847 -0.19578011 -0.04674438 -0.327046 -0.12647957 -0.43764108 0.14687605 -0.3300177 -0.0042369007 -0.15970743 -0.033933606 0.11104883 0.088412195 -0.3312163 -0.23749161 -0.18672284 0.09534606 -0.024125844 -0.012381315 0.24335566 -0.19763868 -0.18311743 0.57960165 0.12625556 0.25280985 0.34415543 0.06040653 -0.025402635 0.5295535 -0.12422917 -0.17932793 -0.37421745 0.15727651 0.18773769 -0.28062177 -0.28145775 0.21178225 -0.42133203 -0.008248781 0.17815301 0.060040314 -0.1233198 0.17769228 0.115546316 0.0031810673 -0.13199472 -0.16533767 0.05086928 0.15625489 0.3247026 0.19951293 -0.23864609 0.20802593 0.028192723 -0.118580386 0.34705088 -0.060175322 0.001250118 0.062120166 -0.36737978 0.12355497 -0.19192968 0.08573846 0.280466 -0.07227579 -0.25351822 -0.036045104 -0.51589787 0.37271234 0.11407759 0.21616562 -0.38724193 -0.15792963 -0.16145082 0.5294172 
-0.038243234 0.015872924 -0.031216413 -0.18528724 -0.112547204 0.006147278 -0.19988726 -0.16551116 0.5277132 
Rect
Linear 9 2
-0.29737705 0.1667142 -0.28589866 0.407919 -0.21252261 0.14404963 0.2847856 -0.25752458 -0.6600202 0.120426476 -0.10203353 0.17592517 -0.3366602 0.013860201 0.16542019 -0.16368422 -0.028747668 0.5359892 
0.014350359 -0.11486374 
