Linear 17 40
-0.0022466078 -0.20571631 -0.058087267 -0.12534201 0.016018363 0.23923239 -0.21603924 -0.13577785 -0.21653245 0.21819673 0.030397743 0.11092615 0.15114559 -0.06341164 0.122020625 -0.16090152 -0.18144958 -0.0054515116 0.21179749 0.17546381 -0.0118255075 -0.010177438 0.30694562 0.023627378 0.111370765 -0.10763119 0.103301525 0.1416495 0.18817993 0.18849567 0.17969418 0.27278882 -0.16306709 -0.10821485 0.20586354 -0.019409819 0.16043702 -0.027448209 0.13704726 0.33688435 -0.0729979 -0.24598925 -0.014694119 0.20384806 -0.19459656 -0.100292094 0.10993903 0.18118869 -0.088359445 0.10501426 0.027699422 0.22028032 0.20221466 0.06906963 -0.096774265 0.06433343 0.20031497 0.047130708 0.115249895 -0.090440065 -0.24835463 -0.11744729 -0.17122227 0.10842817 -0.23251745 -0.07943699 -0.1207939 -0.017662993 0.045008007 -0.20437056 -0.04672233 0.2149588 -0.089423425 0.048596688 -0.22212262 0.02961217 -0.035642277 0.11098493 0.0067955735 -0.12929128 -0.1338838 -0.12042577 0.09873152 -0.1546439 0.09425736 -0.07139407 0.23398453 -0.0032505405 -0.07621425 -0.037368864 -0.34223762 -0.16222998 0.21072158 -0.25056002 0.2282689 -0.16296446 -0.10784836 0.19562274 -0.17959315 -0.06613639 0.17526942 -0.133846 -0.20366646 -0.18083106 -0.08326412 -0.10724634 -0.2574015 0.028546672 -0.15296014 0.08203513 0.17712604 0.10758256 -0.20449819 -0.26272258 0.045319017 0.26785913 0.071181335 -0.15288037 0.13330664 -0.12729748 -0.23962823 0.10458539 -0.17710146 -0.19086547 -0.26076838 -0.12285179 0.13675697 -0.028210746 0.14073929 0.21921192 0.2284756 0.19940288 0.13565852 0.060894184 0.11288986 0.13645516 0.09356561 0.025334032 0.14836979 -0.23184733 0.20930643 0.31170714 -0.085072294 0.08035417 0.11192339 0.08799146 -0.11302359 -0.05472273 0.17081572 0.021815566 -0.023979349 -0.06724178 -0.12523572 0.12717246 -0.12194328 0.17385659 -0.19071591 -0.21988438 0.39279494 -0.0088567585 -0.013941717 0.1403293 0.14130636 0.19746962 -0.123932734 0.17003329 -0.08606357 0.035674237 0.24549271 0.15410644 -0.10061279 -0.24797903 0.2121424 0.120697565 0.09739831 0.335177 0.2066887 -0.17185521 0.21292411 -0.13626504 -0.017905317 0.11991031 -0.14165038 0.017068803 -0.0721746 -0.08702923 -0.09818309 0.03892176 -0.12046075 -0.020418117 -0.027263556 -0.0027726893 0.21034345 -0.010914391 0.10376897 0.20833308 0.16539943 0.050159767 -0.2089399 0.036508113 0.13621794 -0.03714604 -0.12837233 0.11606875 -0.0058993353 -0.20901415 -0.103193 -0.20129657 0.16077583 -0.12398037 -0.15797472 -0.062344138 -0.13754806 -0.02889506 0.08008436 0.029364329 -0.21022312 0.06758973 -0.18487023 -0.017685262 -0.15301943 0.14680284 -0.10493539 0.0688961 -0.07884524 -0.034757502 0.24027812 -0.031879865 -0.18385783 0.12772241 -0.11684054 -0.11866218 -0.23915443 0.07716863 0.0017130909 -0.16398688 -0.14845406 -0.08688495 0.089396425 -0.16578598 -0.24112788 -0.08604507 -0.0042977133 0.2868773 0.11161216 0.18432155 -0.050504807 -0.27597135 0.050548937 -0.10264521 0.13465299 -0.14989434 0.14791508 -0.16894914 0.018146336 0.014015523 0.08694046 0.10627797 0.12110605 0.08115088 -0.046561576 0.14838003 -0.2504444 -0.14651352 -0.010180494 0.05007507 0.09558328 0.16261889 0.0089496 0.1296023 -0.05206291 0.20558423 -0.12858376 0.11973607 -0.16750775 -0.057192273 -0.06824966 -0.019936042 -0.14054523 -0.22771978 0.08202544 0.0051171645 -0.02622543 -0.115648456 0.19032393 0.15891127 -0.055805635 -0.22878087 0.08008609 -0.21306604 0.06782433 -0.20380807 -0.19339994 -0.13897917 0.115134835 0.050322298 0.058219343 0.20717622 -0.040362995 0.06859269 0.1353649 0.13759027 -0.23590028 -0.14607577 -0.2656963 -0.06992695 0.06798427 -0.10589989 -0.103447706 -0.09665249 0.028584128 -0.12185182 0.006612677 0.14411327 -0.19555426 -0.0889308 -0.06551375 -0.11717431 0.16255674 -0.12129846 -0.10909305 0.14251228 0.1445768 -0.06751078 -0.07001553 0.034476355 0.0050354493 -0.096547015 -0.045896407 0.14136404 -0.21902642 -0.08745929 -0.02148265 0.21145593 -0.20740701 -0.05547677 0.120250665 0.14913377 0.07996104 -0.10262151 -0.06388588 -0.07146973 -0.09827844 -0.050392557 0.020267367 -0.10526712 -0.18824425 -0.15061253 0.14944108 -0.056828357 -0.014752122 0.24047327 0.20506549 -0.15523188 -0.04275923 -0.027820978 -0.04979518 -0.017793316 0.033214383 0.093545325 0.102211356 0.24081561 -0.17533839 0.19964191 0.24575303 0.10022463 0.09623331 -0.29639313 0.071513884 0.2855697 0.007707109 -0.33371565 -0.019424643 -0.020608142 -0.16537642 0.22400992 0.04279854 0.2487229 -0.070430726 -0.12615478 0.033211917 0.23619334 -0.24936213 -0.030061148 -0.13184902 0.022600051 0.14809354 0.18667877 -0.107860275 -0.040714078 -0.11317747 0.26825637 -0.113089696 -0.07389607 0.038568933 -0.25094086 0.019540828 -0.13346137 -0.092629984 0.16887796 0.059844375 -0.14311492 0.23874585 0.07851091 0.16460027 -0.1275242 0.050714016 0.06780555 0.16656174 -0.16187547 0.038012747 -0.04123339 -0.19362327 0.144655 0.17692608 0.09613056 0.13796167 -0.057688843 0.029363852 0.05755781 -0.08643931 -0.2189585 -0.17865793 0.13826562 -0.13693714 0.17182273 0.2181992 0.013359509 -0.022042645 0.20383295 -0.07481925 -0.14887154 0.110282995 0.17676602 0.07676429 0.038961377 0.13772595 -0.13792424 0.10438615 -0.0780989 -0.1308325 -0.15671901 -0.1634578 0.0056294105 0.06767781 -0.12976764 -0.23298213 0.12687233 0.19655885 -0.14541423 0.25236514 -0.1968411 -0.16954596 0.25905234 0.013799332 -0.07467825 -0.15251121 -0.13723569 -0.047263153 0.24471107 -0.1865662 -0.16634686 -0.10106532 -0.0010755088 0.3079054 0.072781675 -0.020818727 0.10191967 0.18094486 -0.14587797 -0.22034934 0.12038502 0.21950962 -0.038214825 -0.09649732 0.1362356 -0.19187547 0.039245274 -0.2950696 0.032980524 -0.1944563 -0.074478105 0.17094755 0.06467576 -0.038273457 0.012131908 0.0640574 0.2683114 -0.11724629 0.16948056 -0.24006093 0.2551619 -0.09162956 -0.031650145 0.15273754 0.14918812 -0.09397482 -0.04466557 -0.19441529 0.0020015715 -0.22091188 -0.19525996 0.125154 -0.066470586 -0.10196053 -0.04528664 -0.23528919 0.2266383 -0.023481747 -0.022494225 -0.10369107 0.124200866 -0.19207154 0.09417741 -0.1740032 -0.09542448 -0.15179212 -0.15187311 -0.031647354 -0.17536516 -0.16272932 -0.23456025 0.0650575 -0.18565586 -0.030143734 -0.057635114 -0.19666345 -0.14585453 0.00039843709 0.16608259 -0.058493283 0.22899282 0.08810436 -0.1637308 0.08890122 -0.23995164 -0.13222992 0.2302312 0.25681242 -0.118366346 0.034168825 -0.2298063 -0.12862454 0.06472104 -0.24146888 -0.07796012 -0.10130609 -0.17919458 0.13176402 -0.15519384 0.21460919 0.048415605 0.081362925 -0.17444848 0.0055938116 0.23262359 -0.10405198 -0.11475659 -0.08331355 -0.05328417 0.1542085 0.107589416 -0.08205499 0.17521726 -0.23514044 -0.06673686 -0.03343267 -0.036499258 -0.019040573 0.11274675 0.08777915 -0.20869803 0.08698572 0.03836091 0.14093356 -0.015102048 -0.21211007 0.055254877 -0.035902068 -0.13094471 -0.087913975 0.21889956 -0.17815208 -0.3773223 -0.25686708 0.075604506 0.10622331 0.13155416 -0.1729418 0.24986564 0.14987148 0.1376771 -0.24129266 0.16282961 0.00038207058 0.2147735 0.26897824 -0.23652107 0.03984305 0.08788366 -0.25627834 0.13921608 0.17971136 -0.1424047 0.18321313 0.027309718 0.16159797 0.102726266 0.03152186 -0.20948659 0.06986087 0.08915174 0.14587036 -0.0680719 0.20734948 0.0027690174 0.019841257 0.110878594 0.25695103 -0.06124841 0.013547659 -0.066974424 0.2873028 -0.21590038 -0.10869741 0.03326496 0.16907705 0.094494574 -0.07180327 -0.13951916 0.057022374 -0.21833976 0.045572877 0.047429368 -0.18112476 0.13820966 -0.21545927 -0.1387273 -0.24049966 0.21465747 0.094216265 0.017842906 -0.2338202 0.12983653 -0.15230991 -0.19746639 -0.13327117 0.097151525 -0.2795187 0.23133059 0.042738456 0.035264082 -0.039293315 0.14623223 0.11277212 0.17981023 0.04686824 -0.18370183 0.20181581 -0.18834388 -0.20189121 -0.06851771 0.09374969 0.20165464 -0.018017821 -0.14072178 -0.050655227 0.107741565 -0.20668793 -0.24511254 -0.15794207 0.1605289 -0.04234283 0.1914872 0.08289392 0.22568306 0.14265293 -0.3390362 0.21439742 -0.24088043 
-0.18813238 0.14861925 0.18119952 0.003598462 0.17003195 0.240932 0.18031879 -0.039352797 0.21363692 0.16006644 0.23528442 -0.029611023 0.11247419 0.014802312 0.10261409 0.048186872 0.16178301 0.1925012 0.21194007 0.07951227 -0.03023738 -0.09875268 0.16828476 -0.15447898 0.0020332849 -0.0048352317 0.089422196 0.035021253 0.15073007 -0.18660286 0.050738066 0.09909683 -0.1614547 0.07383579 0.23888567 -0.006154717 -0.11001086 -0.11078214 0.20135146 0.0995911 
Rect
Linear 40 40
-0.042189807 -0.11583167 -0.006721417 -0.14541553 0.040583503 -0.053220235 -0.05069345 0.04690825 -0.07935712 0.07356381 -0.016292185 0.0029114722 0.09628247 0.1597117 -0.04774806 -0.029417252 0.021014987 0.15883635 -0.08864635 -0.07089257 0.08803595 0.18908873 0.10469455 0.0589699 0.028400611 -0.013408363 0.17670864 -0.01638567 0.12366298 -0.08952625 0.14850216 0.15720607 -0.11858592 -0.052397005 0.25370604 0.08864023 -0.19534552 0.0057212636 0.13148652 0.026253844 -0.02456142 -0.035048906 -0.1451256 -0.12766749 -0.15753967 0.13113557 -0.13857457 -0.15718721 0.011744578 -0.06419054 0.025724344 -0.12718862 -0.030565783 0.14040883 0.019964376 -0.14673316 -0.06428204 -0.13290265 -0.12482237 -0.15037669 0.0067484807 -0.09299044 0.103898145 0.0065719876 0.0964339 -0.15801625 -0.14244469 0.06792869 -0.12596971 -0.14387737 -0.13103275 0.022286272 -0.00020875037 -0.010096793 -0.12880209 0.07150114 0.08623733 0.13190347 0.13013071 0.13360998 0.052470922 0.0101121105 -0.070999 0.019998064 0.107240275 -0.010812 -0.03653285 -0.053781513 0.11413315 -0.091416426 -0.09082827 0.11144713 0.10329904 -0.07139903 -0.08515857 -0.13737378 -0.056933153 -0.043198302 -0.061526194 -0.0027614974 -0.08056349 0.11014399 -0.12337181 0.082750805 -0.12324241 0.018356714 -0.15337898 0.10347987 0.022252707 -0.075557575 -0.12466529 -0.15711935 -0.13334014 0.07715732 0.057009447 -0.109702535 0.053219017 -0.063032374 -0.041929614 -0.124934524 0.10441851 -0.0798994 0.010547394 -0.023726294 0.021697348 0.069930166 -0.1647546 -0.028648019 -0.048018444 -0.1214393 -0.07399304 0.068924926 0.0030156446 -0.10073094 -0.10702185 -0.057243038 0.11545905 -0.06772898 0.18614796 -0.058318693 0.111030005 0.1579137 0.18454112 0.1350273 -0.0572615 0.10777921 0.044187985 0.009579114 0.06317877 0.07354463 -0.007978241 -0.074799895 0.03128593 0.027860967 0.18361892 0.18163498 -0.1220468 0.024563687 0.1901843 0.24327263 -0.15454808 -0.054997746 -0.037522487 0.09392889 -0.04446728 0.18891227 0.015051672 0.1412818 0.0708735 -0.14031896 -0.10900437 -0.16849338 -0.036527134 -0.12034532 -0.08537579 0.0895505 0.10512164 0.13280806 0.06822392 -0.17972375 0.13952903 0.1693922 0.026535587 0.15716358 -0.024500763 0.03937761 0.13851133 0.036365066 0.17522378 0.11414113 -0.02852688 -0.13794291 0.1493271 -0.0335562 -0.02010464 -0.100029744 -0.11063157 0.13682064 0.065287635 0.091550015 0.13277762 0.098828115 -0.05171242 0.060749263 0.012736112 0.09873918 0.119197235 -0.13307992 0.124288745 -0.045667306 -0.074872136 -0.05861468 0.018447842 0.11687132 -0.104581386 -0.08933764 -0.14881735 0.09930754 -0.071462534 -0.11831173 -0.109675 0.14063425 -0.09644933 0.12291413 -0.057238396 0.09360791 -0.14758337 -0.02251969 0.05868989 -0.022538915 0.033534393 0.05111818 0.02640454 0.13223152 0.0964842 -0.03541496 0.1533708 -0.04124125 0.10599317 -0.16027959 -0.12175273 -0.07864528 -0.0506269 0.107230134 0.019177778 -0.111733034 0.1259421 0.07513103 0.06529925 0.072166905 0.10421827 -0.0619103 0.083503656 0.025796263 0.07400421 -0.0073603317 0.11230017 -0.09296353 -0.06175255 0.022962091 0.06020114 -0.10196103 0.16726866 0.043564923 -0.12344941 -0.008034375 -0.0015207431 -0.06780376 0.06448026 0.022506913 0.019545687 0.07043144 0.1251176 0.06039361 0.08821918 -0.17307642 0.07546181 0.11571144 0.018070474 -0.18096745 -0.11027328 -0.022902306 0.09976419 -0.06989563 -0.027071282 -0.20486762 0.1431288 -0.108650036 0.11674264 0.16369931 -0.058872297 -0.06976708 -0.118697435 0.009311185 -0.07427289 0.071158595 0.024151554 0.09470298 -0.12982795 0.12465822 0.09203682 -0.07881464 0.1026499 -0.0015734878 -0.06708024 0.07316972 -0.1562471 -0.08738204 -0.14167699 0.024281947 0.026503272 0.12570341 -0.17365198 -0.049451962 -0.14759403 0.06487681 0.14802472 0.14408283 0.04328754 0.022298522 -0.030355316 0.018020054 -0.020654565 0.13423368 0.03743514 0.014398565 0.11247635 0.052258596 0.061360333 -0.0325329 -0.12301381 0.08334572 0.032714598 0.009196181 -0.1412833 -0.13939618 -0.056878127 0.14488198 -0.044643745 -0.010942333 -0.037592914 -0.10433062 0.025873002 -0.021892022 0.15579534 0.010001909 -0.15132357 0.109575026 -0.061645385 0.05960544 0.092566065 -0.14544117 0.05221796 -0.10114887 -0.046976775 -0.040813867 -0.0061465893 -0.023115339 -0.026811834 0.13814092 -0.11374963 0.08893954 0.019384218 0.106506355 -0.085779615 0.026999142 -0.09778664 0.032182705 0.15319236 0.050307307 0.047650557 0.045372214 0.08667788 0.12221367 -0.0044716517 -0.058326885 0.07834358 -0.040121138 -0.0073724547 0.022598166 -0.08833746 -0.10246339 -0.07418313 0.06506007 -0.10492796 0.11273628 -0.13188411 0.06712612 -0.15814355 -0.047044806 -0.05062335 0.056774516 -0.13947476 -0.11972014 0.015076532 0.017557982 -0.13595411 0.06139934 -0.034002565 -0.012512627 0.13143937 -0.015264367 0.04332366 0.13549247 -0.014990474 0.055691298 0.057089906 -0.07778081 -0.14344592 -0.045359965 0.12032351 0.122832455 -0.09929304 0.03981338 0.072819434 0.17384908 0.060407545 -0.10411494 -0.07138792 0.009770116 0.08878829 0.17125952 -0.053118307 0.094933294 -0.14024466 0.066702195 0.10370169 -0.064791515 -0.083299905 -0.047518156 0.105964616 0.017099619 -0.055937123 -0.118903734 -0.13298722 -0.01520817 -0.06207558 0.09703001 0.012851623 0.029306635 0.1296463 -0.19151236 0.10865948 0.056712873 -0.054263443 -0.056774188 -0.08382461 0.12753117 -0.06878129 -0.09348394 -0.06953545 -0.023391811 0.028421113 -0.06374547 0.10664724 0.10586777 -0.070318855 -0.07323156 -0.12381308 -0.028588183 -0.12878348 0.17886247 0.07596967 0.09657275 0.040465843 0.0368006 -0.08764121 -0.16857405 0.16187438 0.10678148 0.09151938 0.1480559 -0.12209713 -0.11308533 0.18714146 0.21838161 -0.0020898785 0.096096516 0.09183918 0.119261466 -0.04047633 -0.08754641 -0.031115424 0.11870339 -0.0029401318 -0.12953477 0.013029103 0.08571363 0.046239354 -0.13120851 -0.079177715 0.06809956 0.07382848 -0.08703572 -0.10588647 0.009186504 -0.13370655 0.08573204 0.016546374 0.10387502 0.004731009 0.114786714 0.014753874 -0.07174515 0.09073034 -0.116037786 -0.0390407 0.11009877 0.039780185 -0.096036926 -0.0023435652 0.10657039 0.1080055 0.040393207 0.13633262 0.07510081 -0.022805342 -0.12880553 -0.048262402 0.013809805 -0.1470957 0.109977104 -0.15405366 0.12578025 -0.0676566 0.037878636 -0.13691771 0.083588846 0.09270269 0.0187869 0.053290285 0.0365273 0.1407278 0.056526393 0.017145587 -0.058244716 -0.08174928 -0.11706446 0.023767194 0.11475006 0.1066459 0.1578433 0.11767229 -0.08339697 -0.11149155 0.16360557 -0.0025190776 -0.12840492 0.03685515 -0.118844084 0.1193911 0.012549619 -0.1277867 0.09034701 0.08511155 0.122946665 -0.13707611 0.09814789 -0.12164505 0.035981074 0.105538696 0.016979268 -0.12761375 -0.15048556 0.13481084 0.14837608 -0.032144297 0.038686555 0.0800267 -0.14037971 0.04904592 -0.10803909 -0.10947434 0.04863766 0.14510426 0.06546312 -0.015272962 0.14473212 -0.03212675 0.0615716 -0.023618363 -0.07511517 -0.15702257 0.13287778 -0.052088145 -0.07283969 0.012194673 -0.007538985 -0.052086025 0.06388992 0.12088354 -0.13405603 0.07310068 -0.08125133 -0.037063118 0.057631917 -0.1067806 -0.14602593 -0.043813676 0.066016704 -0.1496236 -0.00082904537 -0.072521254 -0.071107864 0.081572376 0.19303806 -0.13082656 -0.039388537 0.14623784 0.03757335 -0.17094824 -0.023923637 -0.14846036 0.113643564 0.011639728 0.11682331 -0.01575171 0.059249684 -0.10116689 -0.13648076 0.15556623 0.07905168 -0.0533978 0.019330025 0.006060663 0.026517536 -0.06680368 -0.046524428 -0.022698168 -0.0861025 -0.14014137 0.123668395 -0.013690127 0.09724138 0.10771695 0.13627456 0.1366769 -0.0033650403 -0.05257801 0.08461071 -0.11720835 -0.0904906 -0.031438682 -0.1370351 -0.0954298 0.045818888 -0.021752315 0.06054984 -0.1314337 0.052033436 -0.09138999 0.026341615 0.04442586 0.11546955 0.103813685 0.120274924 0.052410338 0.021683449 -0.13284384 0.03233902 -0.15236284 0.054793775 -0.02048123 -0.09086883 0.004919838 -0.09443658 0.10270367 -0.12571844 -0.07712557 0.018577162 -0.05398978 0.0785965 0.049464833 0.08739843 -0.011484043 -0.15292192 -0.115466595 -0.13096942 0.105021074 -0.058378767 0.008255791 -0.09950372 -0.07942727 0.09578925 -0.024608703 0.048864957 0.12646577 0.029011577 -0.029783787 0.11892755 0.019241104 0.12775357 -0.056855366 -0.06982779 0.06090862 -0.11060649 0.060760774 -0.07252091 -0.06057771 -0.020006862 -0.012373214 0.16496067 -0.11834614 0.08723003 -0.024192752 0.06471269 -0.0028497952 0.13564263 -0.11356703 -0.05634922 0.06563573 0.108027406 -0.1363081 0.015940204 0.09123984 -0.022547971 -0.04192294 0.10262132 0.026071545 -0.015322324 0.024611518 -0.1408652 0.11264108 -0.12449799 0.089664385 -0.038388006 -0.112926446 0.09316111 0.020910466 0.0064990646 -0.014634071 -0.1397875 0.06853275 -0.08679029 -0.09530552 0.05446609 0.05210192 -0.08603333 -0.060135327 0.082480535 -0.091621034 -0.11525719 0.038603183 0.02570571 -0.07505056 -0.104205616 -0.09057714 0.030288626 0.10307571 -0.10284883 -0.0628285 -0.14749855 0.11713387 -0.05047423 0.14759277 -0.004164231 -0.06819355 -0.14579013 -0.085415296 -0.15287536 -0.1130978 -0.12924592 0.0063168695 0.0019009858 -0.0037095456 0.016965091 0.070891686 0.053843003 0.11221672 -0.06374073 0.13924572 0.033613294 -0.039470237 -0.15174085 -0.04289743 -0.025212897 0.07474767 -0.027548714 -0.15468939 0.055387504 -0.11576799 -0.1478224 0.08568229 0.05025574 0.08844294 0.12347535 -0.15003356 -0.03505171 0.0915766 0.03219901 -0.1567065 0.1267155 0.027730538 0.013704266 -0.056522112 -0.07078765 0.018774163 -0.1365909 -0.07114862 -0.03641676 -0.02753707 -0.14568445 0.06750757 -0.0462724 -0.07682965 0.14902584 0.10254309 -0.021005737 -0.14409354 -0.12118359 0.08891328 -0.044765938 0.13662583 -0.09898231 -0.15846339 0.030886367 -0.08705101 -0.067894794 0.0119493175 -0.055353414 -0.049933456 0.19818307 0.12489783 0.094161816 -0.03248037 -0.04668822 0.1446864 0.004258303 -0.048789058 0.067096084 0.10254997 0.12730758 0.0254795 -0.08422304 0.24695255 0.20453745 -0.08999847 -0.11253406 -0.0417732 0.17804278 0.021437895 0.1192573 0.055391494 0.06281804 -0.13592315 -0.1417425 -0.044589065 0.03526278 -0.10136052 0.1780559 -0.009380847 0.0036481537 -0.10378616 -0.08359028 -0.006805743 0.1247984 0.06485259 0.075155005 -0.07520737 -0.032052994 -0.078192234 -0.07675444 -0.16841371 -0.142075 0.09906266 -0.07815894 -0.17115332 -0.019709213 0.047303855 -0.048847284 -0.092566974 -0.016403988 0.032458365 0.089937024 0.11204607 -0.051136587 0.14615344 0.070561595 -0.105932474 0.01749562 -0.14250533 -0.05511517 0.017100507 0.09546706 -0.15100417 0.13237812 -0.013758022 -0.0383331 0.010778738 0.10147443 -0.047896218 0.06930648 -0.045798615 -0.14420778 0.020653043 -0.099051505 -0.110342704 -0.029528636 0.15030102 -0.14046088 -0.09426287 0.05406709 0.13089998 -0.074574925 0.0705531 -0.15135421 0.0021315003 -0.07090285 -0.032506272 0.049335252 0.024016172 0.15104227 0.16182046 0.15345904 -0.15624472 0.08546759 0.110848375 0.018210504 0.055953126 -0.15283224 0.027275503 0.00889625 -0.15761417 -0.11251656 0.101197734 0.15983243 -0.05144043 -0.054309197 -0.005844548 -0.060659707 -0.123969235 -0.13909067 0.047517452 0.021150162 0.0050422987 0.028712617 -0.12705731 0.10177845 0.010744432 -0.05607707 0.06568677 0.15001799 -0.018270066 -0.046305 -0.08319456 0.09781392 -0.10834601 -0.015659451 -0.030711057 -0.07519778 0.111867875 0.024777904 0.027235335 0.08384669 0.16222863 0.1234456 0.06310119 0.06999208 0.11111422 0.18828543 0.11875884 0.052922502 -0.14275444 0.099034436 0.014904827 0.13187426 -0.016025782 -0.032597847 0.10649683 0.05739112 -0.05109831 0.016562402 0.07107444 -0.14290427 -0.13815807 -0.09807679 -0.018044397 0.1143031 -0.037579086 -0.010668845 -0.036938325 -0.042538527 -0.139287 -0.10651076 -0.069973856 -0.11493002 0.06891388 0.1290562 -0.08115289 -0.1479552 -0.016221553 0.059628204 0.027018681 0.11083071 -0.018308654 -0.045240358 0.10896001 0.10978098 -0.122099645 0.105523914 -0.034110967 0.012467945 0.13343987 0.010625217 -0.13519914 -0.13377218 0.056977183 0.09170746 0.12875363 0.06565288 0.13447915 -0.0627538 0.12923987 -0.077433825 0.17122617 0.033593897 -0.14674589 -0.15252002 0.005268731 0.100809544 0.059890885 0.064583436 -0.19681996 0.050102055 -0.05910439 -0.06659467 -0.057364088 0.16397059 -0.025095927 0.0058998335 -0.0062841624 0.011558017 0.08974029 -0.022013225 -0.11443009 0.11911641 -0.15112317 -0.089509405 -0.07082027 -0.13167721 -0.13108686 0.022722425 -0.11104947 0.092486724 -0.050528064 -0.068628035 -0.09094664 0.122631334 0.13171111 -0.03607412 -0.0501174 0.15856606 -0.09746942 -0.13672785 -0.10189434 0.07787339 -0.13022949 0.06672877 -0.024152767 0.019794282 0.08911174 0.0064124614 -0.04400054 -0.0538785 0.13870928 -0.004199444 0.09968415 0.05153527 0.11864551 -0.05092701 0.08064911 -0.14642717 0.1325425 0.030936807 -0.07273077 -0.0365163 -0.08922197 0.052711014 0.067466676 0.09106869 0.037310522 -0.052560516 0.18020359 0.049219597 0.046190463 -0.08671536 0.16842283 -0.06012397 0.12130247 0.014009067 0.17683643 0.23401836 -0.0067678196 0.09853187 0.14340623 0.0209063 -0.02152755 -0.083701834 -0.09189223 -0.1299958 0.0017471502 0.032864302 -0.20959471 0.030362297 -0.057704523 -0.10499644 -0.07219545 0.08757849 -0.04509418 -0.05452944 -0.116284736 -0.02617241 -0.12682946 -0.13671254 -0.028661977 0.04721428 0.041451257 -0.077650644 -0.10301039 0.012196973 -0.088900894 0.083636865 0.06010164 -0.11624042 -0.025568355 0.019724857 -0.10282856 -0.048451707 -0.05963236 -0.04563709 -0.18784201 0.060389094 0.05355332 0.025995318 -0.19685537 -0.075636685 0.03724094 0.00025789766 -0.13939568 0.05325024 -0.015980167 0.075959824 0.13680741 0.04668454 0.04094564 0.09149391 0.046737235 -0.022130223 0.13866548 -0.12046314 -0.12897108 0.102105364 0.17283332 0.007021069 0.13536984 0.07043025 0.015768697 -0.09343984 0.093952104 0.00597807 0.029901758 0.10620577 -0.15228665 -0.08389365 -0.03423144 -0.12293936 0.005038819 -0.09954829 -0.15112555 0.061853316 -0.059294578 -0.117054276 -0.15776598 -0.035393022 0.07403615 -0.14616707 0.15709251 -0.12876332 0.11680876 -0.014230833 -0.14765535 -0.08839436 0.12663631 0.11350204 0.022831447 -0.01304159 0.0719935 0.066485025 0.1047874 -0.08794321 -0.07403847 -0.043786466 0.105795875 0.052331883 0.030336285 0.10974526 0.13603404 0.12774405 -0.0527347 -0.059060615 0.13181676 0.16103873 -0.0022771468 -0.01910957 -0.081945024 -0.0979756 -0.0686591 0.0023207713 0.04652687 0.09401869 -0.022862496 0.05332466 -0.08310201 0.12223566 0.034932435 -0.13750027 0.115467414 0.1608733 0.088468276 -0.15925294 0.0076423218 0.047425393 0.13048436 -0.12579454 -0.148191 0.088630505 0.08417322 -0.07007658 0.022353765 0.1037524 0.06968178 0.0961251 0.0017889583 0.09771438 -0.12916993 -0.049589448 -0.12726074 0.0028327296 -0.08043809 -0.009509237 0.0069479346 0.108488515 -0.11395924 0.11060641 -0.049005404 0.13855228 -0.014505912 0.10670777 -0.1366078 -0.076066256 0.019907642 0.009908944 -0.017458515 0.12267283 -0.085013025 0.103650115 0.016328404 -0.082407124 0.046841484 0.056233913 0.0631269 -0.014750309 0.0739277 0.0058440813 -0.03152588 -0.076741986 -0.060660977 0.10667678 0.033519145 -0.124963425 -0.045809597 -0.056225263 0.124870405 0.15026349 0.026172148 0.13467506 0.09052709 -0.13250633 -0.0070262062 0.08244973 -0.073877886 0.092958994 0.09170231 0.1109632 0.031477794 -0.16955362 0.16606668 -0.09076114 0.0563715 0.12877358 0.0120161865 0.029804833 -0.009483178 0.061296005 0.20267588 0.17125922 -0.14193785 -0.10297208 -0.115300186 -0.060524657 0.040916856 -0.096885934 -0.13940576 -0.08967616 0.09768267 0.07848532 -0.06583424 0.19525318 0.020482428 -0.13134165 0.09319308 0.0057938052 -0.16273887 0.08466506 -0.059494242 -0.1616247 0.13442051 0.116370834 0.038141955 -0.04716946 0.027759459 0.011817333 0.053582087 -0.07156468 0.119988546 0.04849373 -0.0729089 -0.11437944 -0.15808724 -0.035046242 0.01830756 -0.096205935 -0.10011218 -0.09886007 -0.14924541 0.09863317 -0.040693454 -0.15645671 -0.10728309 -0.14695491 -0.041751873 0.009265156 0.08314774 -0.055929404 -0.017948732 0.12384416 0.13696967 -0.16112229 -0.14007309 0.05124659 -0.062887914 -0.017809022 -0.14795226 0.14769639 0.042872474 0.12162289 0.09135736 0.022048645 -0.035748042 0.046428602 -0.032089442 -0.035466325 -0.03653185 -0.0782864 -0.100202784 -0.0074471766 -0.050516456 -0.03366161 -0.0670608 -0.11214491 -0.1476784 0.04383692 -0.054355983 0.025454242 0.03147994 0.14797622 0.100264944 -0.026300868 0.076467335 -0.080108464 0.08937596 -0.060571674 0.11020634 0.066722885 -0.13018608 -0.03039838 -0.054144286 -0.13665606 -0.03981386 0.020249363 0.089189634 0.017373754 0.16121341 0.15136279 0.03940265 0.16145219 -0.012558793 0.060753856 -0.022002235 0.075608544 0.048827842 -0.10438722 -0.04406883 0.010326117 -0.019193277 -0.15282589 0.019092128 0.08603531 -0.13743994 0.009744629 -0.06877499 -0.08566152 0.11981855 -0.15329292 -0.1297244 -0.056649163 -0.015375853 -0.15706377 0.1338685 0.0062417984 -0.12848082 -0.13918842 -0.14103934 -0.09426495 -0.08490153 -0.058918014 -0.002346903 -0.033224918 -0.06481881 0.034985363 -0.13037089 -0.029433966 -0.044234373 -0.054980755 -0.017348021 0.04099308 0.093971744 0.11550383 -0.114557154 0.026214376 0.15686037 -0.11969939 -0.038185522 0.08927289 -0.016024709 -0.13430832 0.053891286 -0.017702043 0.07531507 -0.108048886 0.11033146 0.07327555 -0.11472325 0.025761753 0.018942043 -0.07028439 -0.14284475 -0.059599526 0.11384995 -0.13447192 -0.079588324 -0.045063376 -0.06807374 0.052074447 -0.13236886 0.05927199 -0.06347901 -0.13503851 0.114404246 0.061996847 -0.13318624 -0.12174228 0.14632995 0.116800174 -0.15711081 -0.04005018 0.1417066 0.089715496 0.09851183 -0.068636015 0.10936462 0.07754282 -0.043863144 -0.0039113336 0.04599249 0.023212362 0.038294222 0.012004514 0.10011926 -0.16940702 -0.05092277 -0.033451263 0.11709506 0.07045831 -0.10471286 0.15250322 0.024680782 -0.04216752 -0.08937134 -0.03916152 0.1405603 -0.118279256 0.15082714 0.10357395 0.13942619 0.18875729 -0.10640853 0.01003576 0.1463645 0.10844102 -0.054107748 0.10335143 -0.073333226 0.15882385 0.22811821 0.15584007 0.057339083 -0.059215322 -0.063015975 0.018408284 0.11968617 -0.09306662 -0.12862124 0.0036162771 -0.03502978 0.023930509 -0.07649974 0.10446958 0.02864607 -0.052095383 -0.1393261 -0.15422398 -0.05444655 0.021253943 0.0052984357 -0.04550481 -0.047495164 0.018440954 -0.11621649 -0.12710856 -0.08855215 -0.00079223554 0.06489799 -0.15781333 0.14584357 0.037112158 -0.13713686 0.09900443 0.12173558 -0.14002351 0.1508621 -0.06333444 -0.12127538 0.1378098 0.08351306 -0.10507555 -0.13429256 -0.06453299 0.0059093274 0.013162511 0.12993295 -0.14298941 -0.13568707 0.05637972 -0.11977917 -0.018374547 -0.11607085 0.06766507 -0.14345768 0.07982725 -0.13985765 0.12050156 0.100418344 0.0041045547 0.1537437 0.09941475 0.100050256 0.0070239156 -0.12939692 0.089731395 -0.08878996 0.089051604 -0.1443183 0.0039630383 0.09486936 0.00598073 -0.020661771 -0.06712933 0.14131679 -0.050889187 0.092132136 -0.103652954 -0.10922544 -0.0495243 -0.041411184 -0.02839084 -0.109338075 0.06594461 -0.14777493 0.117709264 
0.08350097 0.060029417 -0.108668044 0.059848826 0.08378165 -0.028405322 0.098610826 0.07393482 -0.03516272 -0.16504447 -0.072118014 0.15205294 -0.15624987 -0.101567544 -0.018686473 -0.038725242 0.0493439 -0.0028153479 -0.11882252 -0.13508126 -0.0120880045 0.040411025 -0.03402264 0.086667396 -0.15137146 -0.06619067 0.006646383 0.009181522 0.07862882 -0.12314151 -0.0041302615 0.06056014 0.031272918 0.033871017 0.1538275 -0.05510916 -0.14276017 -0.1273477 0.10031649 -0.15694186 
Rect
Linear 40 40
-0.011551132 0.0028060526 -0.124717854 -0.14549994 -0.018514274 0.1577032 0.0071063545 -0.08083072 0.15583558 -0.074849896 0.063296266 0.021940514 0.12328461 0.1421472 0.15288731 -0.03888662 -0.15079899 -0.06509018 -0.0628976 -0.07041359 -0.00572493 -0.15607208 -0.14620855 0.040065803 -0.07515228 0.12625717 -0.12501547 0.06464897 0.04344784 0.07804383 0.019034944 -0.0943334 0.061798226 -0.109791666 0.1537194 -0.13314903 0.039043978 -0.0890429 0.07828349 -0.13495436 0.04908459 0.10863564 -0.025430964 -0.10708537 0.056594037 0.12370566 -0.0277602 -0.025151538 -0.15294465 -0.14492896 0.0017343591 0.1001542 -0.11590835 0.011940082 -0.1461667 0.113186434 0.077566154 -0.1025991 0.10889857 -0.1049254 0.1370616 0.10372723 0.05754261 -0.16544843 -0.06337884 0.09264308 -0.14598788 0.09949588 -0.06075841 -0.11525038 -0.0018280648 0.020414054 0.1390775 -0.10989705 -0.1400662 -0.053242423 0.030035332 -0.07111557 -0.059354234 -0.055206455 0.06619266 0.020748734 0.13820183 0.09899318 -0.13710812 0.040810205 -0.13906023 -0.14653389 -0.05551399 0.15739866 0.014118045 -0.11375356 -0.14256595 0.11939639 0.1224388 -0.08736444 0.11003609 0.056604758 -0.08135599 0.04841146 0.0056204433 -0.040761452 -0.040203404 0.1175377 0.068269074 0.069326915 0.046097696 0.105769664 -0.04122165 -0.0021687597 0.1310695 0.09473923 0.03739003 -0.08051966 -0.040289745 0.02489917 -0.09771201 0.07111766 -0.09819634 -0.1122248 0.06346702 -0.07815919 -0.15807287 0.11191686 -0.06018098 -0.05893217 -0.076327026 -0.08876933 -0.106625 -0.06945599 -0.11558365 -0.0033586058 0.050529987 -0.10378851 -0.15171613 0.05611126 -0.08730321 0.04573864 -0.012002393 0.03473577 0.004415195 -0.049464326 -0.12380466 0.1125004 0.07483049 0.013552713 0.13504963 0.14515157 -0.12115783 0.0798787 0.14495008 -0.007753281 -0.14997251 -0.056838084 0.017951274 -0.033755638 0.075951025 0.06787759 -0.15087466 0.021332726 0.09857499 0.10085723 0.018076198 0.1930995 0.12328673 -0.09150511 -0.14700368 -0.041593432 -0.009158121 -0.09941651 -0.1282062 0.21627507 0.021297686 0.06587072 -0.07659833 0.07845411 -0.00764249 0.08672541 -0.05460637 0.14039561 0.091638476 0.002071322 0.111488186 0.06983187 0.046045575 -0.042595267 0.14308812 -0.18343464 0.2113586 -0.0868642 0.1815226 0.09866897 -0.13418406 -0.09497049 0.11057433 0.06420182 -0.108066365 0.16752733 -0.07500331 0.12497844 0.022006882 -0.13568275 0.025331484 -0.045529883 0.03851709 -0.059443887 0.1377091 -0.0901638 0.12987661 -0.15678678 0.11449589 -0.11244113 0.029329043 -0.042648654 -0.1573513 0.12269657 0.03747669 0.087929 -0.07566766 -0.048882812 -0.07543256 -0.14612526 0.034496266 0.054829415 -0.019179836 -0.102839716 0.01868579 0.06779998 0.012030845 -0.15684882 0.07735864 0.11196572 -0.051622733 -0.034778316 0.0019030567 0.032192186 0.14026006 0.11052532 0.0703807 -0.104207665 0.10097665 0.077160336 0.15002637 -0.064849906 0.032140046 0.104087956 0.09704125 -0.0009861493 -0.039446563 -0.025287746 0.08434007 -0.05837175 -0.15774773 -0.027053652 -0.14661397 -0.12925912 0.13393159 -0.081227735 0.09056177 -0.092895284 -0.1636288 0.013550337 0.085015275 -0.010121968 0.09081558 0.038613785 -0.11794915 0.14497128 0.02704626 -0.0879331 -0.015519974 0.047804262 0.020019138 -0.023662185 0.01912469 0.05061522 0.09094527 -0.047246955 0.048289437 0.03729433 -0.049498208 0.024694499 0.006609279 -0.119152315 -0.15289117 0.14255138 -0.044574957 0.14613286 0.03642888 0.091932386 -0.022301117 -0.040575404 -0.058810264 -0.16629171 -0.001062502 0.12215315 0.032551546 -0.032344613 -0.10085501 -0.035149425 -0.074383035 0.1117177 0.071583636 0.022343216 0.023200683 0.03661496 -0.0856376 0.024809673 0.10902561 -0.019546395 0.0616187 -0.028612511 0.123955876 -0.13579012 0.06330223 0.03005886 0.07613295 0.12497685 -0.0044917436 0.10819377 0.058756214 -0.06247617 -0.11160287 0.13263443 0.068437055 0.046177175 0.018136498 -0.055506434 0.053998217 -0.08399304 -0.0058586188 0.023038708 0.010970995 0.09694797 -0.121027276 -0.13930586 -0.118860796 -0.14101411 -0.15249933 -0.0577225 -0.054313976 0.09468857 -0.06606519 -0.07236425 -0.058371104 0.11306123 -0.116390206 0.041718014 -0.0678948 -0.102102034 -0.069595344 0.12903151 -0.014498239 0.07056758 0.1329898 -0.014132425 0.03675121 0.08756477 0.11806313 -0.061178118 0.10531531 0.028976526 0.1174525 0.18689898 0.055033464 -0.11037252 -0.013041215 0.015088933 -0.07417935 -0.0071413014 0.11315235 0.13695517 -0.0520082 -0.13334237 0.05609446 -0.12590562 -0.0432413 -0.032918353 -0.064145006 -0.021011703 0.07604335 0.13707232 0.04149133 0.085280284 -0.10138926 -0.115999125 -0.07352367 -0.13316232 0.0462634 -0.024821624 0.05459809 -0.11378063 -0.18476799 -0.011073861 -0.009495987 -0.09590529 0.07373403 0.12069097 -0.110693626 -0.017064333 0.050552435 0.035574168 -0.09699274 0.098705724 0.12614524 0.049243435 -0.01228142 -0.09856683 0.107283495 -0.054722466 0.07336347 0.10407117 -0.04069128 -0.1396862 0.12623164 0.038179576 0.14358692 -0.15115355 -0.07529957 -0.11612164 0.18910481 -0.17219007 0.06534016 0.07968484 -0.050336055 0.036188927 -0.1162893 0.035102393 0.008830993 0.028488908 -0.0002058775 -0.0059436443 -0.07007283 0.15947321 -0.06718809 0.108016595 -0.15320988 -0.1391742 -0.15494817 -0.07033499 0.15431854 0.031208174 0.0144271655 0.01790078 -0.05161551 0.011626677 -0.057672057 -0.08182918 -0.079923876 0.02431294 0.08471276 -0.053879343 -0.08218392 0.00762973 0.034085825 -0.006170093 0.11070578 0.017740568 0.0495434 -0.0976789 -0.01041092 0.007053317 -0.15045112 -0.07951708 -0.009649836 -0.02728583 -0.13182935 -0.12712316 -0.056630526 0.00843862 0.016122246 0.11517095 0.063599475 0.08761065 0.051091794 -0.0719956 -0.058876902 -0.1399718 -0.032440215 0.15206082 -0.095756456 -0.098630704 0.12258116 0.09365071 0.11550527 0.029799186 -0.03137697 0.05348977 0.1304668 0.109373145 0.008025081 0.17610969 -0.14446354 0.12590413 -0.0960754 0.116856486 0.12833583 -0.007633319 0.042033467 -0.04836608 -0.0063662836 -0.13570477 0.021461021 0.08151342 -0.0019177202 -0.11553796 -0.11579945 0.042021602 -0.03463321 0.0061517996 0.07021267 -0.0759865 -0.0045704553 -0.12183328 0.017488813 0.059770197 -0.06551327 -0.0019604582 0.08667167 -0.079012625 -0.1301714 -0.08557207 -0.10614637 -0.14517011 0.016380422 0.06483855 -0.08249212 -0.14689723 -0.08501216 0.08522589 0.060846817 0.032894168 -0.11801861 0.111571416 -0.08800971 -0.041104805 -0.09156631 -0.01362442 -0.0206619 0.038400557 0.10757089 0.09760017 0.07125353 0.10723414 0.046110958 0.17918095 -0.10102621 0.108704746 0.14322045 0.03490151 -0.14831612 0.13033384 -0.024549602 -0.11932577 -0.17394167 0.15283458 0.1342455 -0.12690076 -0.026512023 -0.06135671 -0.11756296 -0.09166227 -0.14032373 0.034616426 -0.025659591 0.03541083 -0.11018886 0.05223582 0.13622124 -0.028346365 -0.045041576 -0.13856691 0.043438748 -0.078718364 -0.09719637 -0.13919982 0.10831492 -0.04681818 0.1335003 -0.10720409 0.105406545 -0.12706494 0.08236371 -0.007994977 -0.019152 -0.1373999 0.06320445 0.037040267 0.020735081 -0.024366409 0.07693593 -0.038876783 0.0039319103 -0.06610929 0.13940193 -0.059901386 0.097378924 0.12766695 0.067727625 -0.11165156 0.22078936 -0.043907784 0.083721444 0.05313259 0.1913886 -0.09086106 0.108788095 -0.11074072 -0.12797225 -0.0395975 -0.14310054 -0.019179784 -0.101755336 0.11625338 -0.0160398 0.0011709437 0.094530754 -0.044985678 -0.037373427 -0.15521604 0.21330768 0.1117101 0.011653199 0.16702177 0.0380438 0.0382394 0.06930348 -0.15274361 0.19434072 -0.116024494 0.011381992 -0.09493727 -0.13803007 0.1017599 0.10433441 -0.13446483 0.07541026 0.04276426 0.13223131 0.057269618 0.11448476 -0.14158162 -0.014659868 0.12250789 0.09646381 0.08832769 -0.011782362 -0.10523623 -0.012047849 0.15200742 0.06197292 0.046998423 -0.10538496 -0.12794034 -0.099842854 0.0017318437 -0.01999406 -0.115633085 0.046576228 -0.032994624 -0.048016027 -0.10425729 0.07693272 0.112205945 0.021745523 -0.023183817 -0.14225394 -0.10974516 -0.01577281 0.07601677 0.112093434 0.1633023 0.008530519 -0.13541883 -0.035772383 0.018689334 0.14249481 0.14548242 -0.054468524 0.09572987 -0.071652286 -0.1109408 0.025300324 0.0066943616 -0.13815665 -0.05555881 -0.14121884 0.06465748 -0.12579796 -0.016700402 0.13692592 -0.12638558 0.09384768 0.12168054 0.14150532 -0.025020495 -0.15718117 0.15028788 -0.013535619 -0.14256965 0.012545899 -0.006479755 -0.023230463 -0.117988475 0.11220534 -0.111221775 0.099457934 -0.043008983 -0.09971754 0.029997319 -0.026018247 -0.13012265 0.04843317 0.043335035 0.13513483 -0.05416429 0.13020317 -0.08983957 -0.11630397 0.13455544 0.048091415 0.06673418 -0.08874173 -0.10321452 -0.14779699 0.15654445 0.093317695 0.11503241 0.14288487 -0.061601724 -0.03382487 0.03842584 0.010365546 0.08537044 0.047347553 0.044086237 -0.06693972 0.05037649 -0.05865477 0.12279896 0.132498 -0.037941635 0.04884328 -0.078362525 -0.10629943 -0.15081415 0.1127167 -0.014123243 -0.1350922 0.14712028 -0.014864486 -0.041632496 0.15377325 0.050734263 -0.10649959 -0.15763249 0.045886695 -0.11813628 0.013843402 0.0785186 -0.13147357 0.05353795 0.12844624 0.08756593 -0.073967524 0.045908913 -0.038161926 -0.05138459 -0.07347701 0.106497034 -0.122027904 -0.06836058 0.10030623 0.059947073 0.13203095 -0.15562113 0.1577804 -0.011603698 0.085805416 0.073683456 -0.07372402 0.012057066 0.08327174 0.06277402 0.07631855 0.016808033 0.14214303 -0.14189297 0.12821023 0.010607749 -0.10803892 -0.06891079 -0.14675292 0.07445124 0.14206748 0.05279842 0.02409923 0.08876172 -0.047703788 0.017919853 -0.0703932 -0.00897189 -0.08298185 0.10259432 -0.09535165 0.0153982565 -0.0895818 0.01119114 0.07343325 -0.016181687 0.09450789 0.10656171 0.10227018 0.019632082 0.062547356 -0.13218267 -0.0072804247 0.043782588 0.009659505 0.12451494 0.11340482 0.118125245 -0.001309476 -0.12889324 -0.0966804 0.0038747815 -0.04375048 0.07733049 -0.031662006 0.04357869 -0.15533496 0.12443295 0.049783282 -0.0062336484 0.12567839 -0.12375578 0.1425664 0.09225136 -0.062953055 -0.005479738 -0.14952318 -0.026083529 -0.08729318 -0.074601084 0.020835668 0.041421086 -0.0653941 -0.05448187 -0.10678518 0.0012659132 -0.01943706 0.11253618 -0.06935447 0.13333009 0.097041234 -0.0887157 -0.13518246 0.035972178 -0.0053545535 0.110568926 0.07721923 -0.064643174 0.15689348 -0.03779494 0.059554473 0.014527962 0.094143555 0.104735 0.08841294 -0.11001344 0.14442204 -0.122811146 0.043364063 -0.01722227 -0.0549244 0.06705257 -0.07723273 0.12495421 0.1293868 -0.115583785 0.0965158 -0.043693315 0.14308153 -0.015567024 0.12418297 0.059414472 0.05317856 0.15636905 -0.07308089 -0.08897648 -0.011504062 0.13818353 0.032860473 0.00030739926 -0.09197923 0.03476232 -0.017850023 0.0011130302 -0.13724604 -0.049225435 -0.061567992 0.124369554 -0.1355871 0.12251478 -0.07810604 -0.090597 0.07370688 0.08492793 -0.10202285 0.10930442 -0.13047984 0.095992 0.07580031 0.12207418 -0.0031205653 -0.009422943 -0.07273284 -0.006851274 -0.11990161 -0.1421108 -0.06254626 0.028633552 0.008542389 0.015530339 0.013748663 -0.085886136 0.023179915 -0.018720774 -0.06440391 -0.067993544 0.01793021 0.025292112 -0.10466936 0.11549547 0.11577482 0.025075465 -0.06695761 -0.113525644 -0.12266241 0.14998905 0.05924595 0.07479587 0.11064286 0.10996466 -0.1420022 0.015809504 0.13689095 0.1417363 -0.07907424 -0.09949497 0.06909107 0.047807634 0.1307648 -0.14105983 0.0070722485 0.06992926 -0.056187317 -0.127641 0.14218147 -0.13192391 -0.1300152 -0.05669135 -0.078268774 -0.074200675 -0.15633452 0.115959905 0.12599449 0.021199735 0.11658067 -0.10458639 -0.117770754 0.09071667 0.086034425 -0.04358769 0.10216533 0.07087657 -0.14565389 0.072966665 -0.08932357 -0.1416542 -0.033480555 0.013553627 0.040457763 0.0127543025 0.13871804 0.16833346 0.10664614 0.089413114 0.15005732 0.0514749 -0.091304585 0.08585635 0.0678598 -0.15654497 0.04645742 0.11799528 -0.027745426 0.056904893 0.07490241 -0.07647093 -0.15682845 -0.08159832 0.061324045 -0.13506311 0.049607005 -0.07803944 0.108580574 0.08244098 0.15805371 -0.06901791 0.06193517 0.14626582 -0.04013875 0.10935404 3.2941058e-05 0.039014034 0.11559383 0.057539284 -0.04378879 0.043180432 -0.078589454 0.01971647 0.023589306 -0.04961573 -0.109806485 -0.023741035 -0.07049618 -0.039365675 0.013866393 -0.11867035 -0.0306536 -0.04941759 -0.13533486 -0.15200347 -0.020587118 0.14982007 0.12165631 -0.03821084 0.089724705 -0.046173975 0.10555132 -0.05774557 0.14632921 0.060050547 -0.09732065 -0.068474315 -0.12008844 0.101796314 0.019586623 -0.05821488 0.15715007 0.14499621 0.0016666204 -0.066193536 -0.13787696 0.012732029 0.15273283 -0.15715133 -0.046843708 -0.075504124 0.033249617 -0.10917547 -0.12558515 0.077167585 0.13978748 -0.1476675 -0.14047596 -0.13758108 -0.11352732 -0.04677926 -0.079591356 -0.10485642 0.08752452 0.021725222 -0.061594315 0.05565782 0.056652457 -0.12647206 -0.0109579265 -0.15114532 0.03185395 0.104717545 -0.06568645 0.016367182 0.029874291 -0.017634798 0.07772881 0.13171874 0.096541405 0.0717401 -0.13232175 0.101182126 -0.05711581 -0.13826548 -0.11923278 0.01937388 0.13344865 0.064314045 -0.032801434 -0.15553685 0.034403417 -0.004178219 -0.034371503 -0.03232642 0.015457405 0.102142446 0.14659435 0.015695147 0.03496909 -0.104099035 0.14101256 -0.071408704 0.16639914 0.060609434 0.12331101 0.043165013 -0.011809021 -0.072351776 -0.047682397 0.00027939677 0.04818313 -0.05307719 0.03612423 0.1424057 -0.046745285 -0.034166876 -0.09779357 0.0704793 0.09355966 -0.053193383 -0.01666717 0.14284295 0.11237686 0.1009081 0.13630797 0.12537967 -0.15456869 -0.07352979 0.059467833 0.14869021 -0.10391836 -0.06177841 -0.15338907 0.042892974 -0.08448692 -0.0035700838 0.12435975 0.056791306 -0.03524377 0.12607433 0.1408963 0.051991776 0.09831047 0.05544301 0.06324479 -0.09645865 0.095302746 -0.03470352 0.078093655 -0.026064813 0.071393915 0.08944084 0.028542466 0.095439374 0.054156307 0.06465667 -0.13936996 0.014792669 -0.107026994 -0.080155194 0.06870317 0.069511905 0.1033736 0.06618791 0.10614933 0.07266365 0.115199566 0.10673605 -0.074293904 0.116818815 0.21152185 -0.0994103 0.14360699 0.06206742 -0.026945306 0.049611766 -0.046788923 -0.10224882 0.1517974 0.055391416 -0.13388388 0.12699795 -0.18505724 0.02127899 0.20177448 -0.13805844 -0.058255896 0.11589789 -0.10123083 0.090230554 -0.13631697 -0.035115525 -0.1404447 0.07799794 -0.029912267 -0.13673285 0.13977893 0.08779335 -0.12206935 0.08004193 -0.15435222 -0.004577126 0.12921076 0.0761457 -0.1403195 0.01687243 -0.12455689 0.17254363 0.10169765 0.13575557 -0.1213856 0.16873685 0.028084645 -0.1578699 -0.039970886 0.0025559617 -0.049260076 0.123981856 -0.10624181 0.12573244 -0.032318667 -0.0070997314 0.16199738 -0.014143518 0.03233234 0.0154827535 0.11908899 -0.09485046 0.03963404 -0.061386354 -0.009865745 0.15676077 0.085802905 0.20501721 0.23054746 0.15138535 -0.1815115 0.018485636 -0.091071405 -0.16304132 0.13606949 0.06119981 -0.13325918 0.093583755 0.038519602 0.18393013 -0.09328719 0.06779704 0.029536126 0.027460843 0.0041472474 -0.043252267 0.0017342228 0.05432617 0.025457675 -0.21214621 0.15645854 0.019769656 0.040830202 -0.053286184 0.10403905 0.007945508 -0.20497599 0.13487683 -0.071789004 0.14406498 0.08948639 -0.10699918 -0.10726243 0.017678872 -0.1246868 -0.06202651 -0.10663443 0.025668714 0.057696763 -0.010305569 -0.14108701 -0.1415221 -0.15013035 -0.009188847 -0.032846402 -0.117086686 -0.09834847 0.12099452 0.0923025 -0.07815173 -0.057032254 0.077588886 -0.09410983 -0.0059615374 0.034776013 -0.085597284 -0.14282483 0.037605517 -0.023464503 0.026587134 -0.016669886 -0.04551321 0.03810677 0.058231983 0.12059381 0.1566807 0.09367146 0.02678435 -0.10058547 -0.12775868 -0.14142258 0.018216657 0.0154487975 -0.047839552 -0.012029305 0.118291095 -0.088438846 -0.10186365 0.003987577 0.14375953 0.0018029392 -0.027377252 -0.071485125 0.14012584 0.066932864 0.07956104 -0.040162332 -0.06563687 -0.055512678 -0.017184818 -0.14910732 0.13319556 -0.002264309 0.022521995 -0.14015704 0.11934117 0.046650507 -0.07425142 -0.03659565 0.09987289 0.14019701 0.11416665 0.123342656 -0.14005171 -0.068656854 -0.02334854 0.14864305 -0.14944515 0.020577358 -0.07324688 -0.073711745 -0.099060975 0.04668985 -0.15102442 -0.14654666 0.15455617 0.07739782 -0.15777348 -0.0673741 -0.059834488 0.009221807 0.0056212097 -0.092667036 -0.115090005 0.08490929 -0.13566467 -0.12531348 0.048168287 0.03129205 0.13516216 0.07545124 -0.034995407 0.004908189 0.14191835 0.06635158 -0.04756604 0.103235975 -0.05241757 -0.14492083 0.06998479 -0.024082571 -0.045191735 0.023474842 0.025887147 -0.03836941 0.009838894 -0.03520146 -0.046241492 0.07093088 -0.054802485 -0.14576052 -0.050097205 -0.053015843 0.0014217943 0.09440332 0.12296203 -0.054584377 -0.09709924 -0.13897596 0.02464273 0.12396021 0.09216941 -0.10219585 -0.024598328 0.0939912 -0.10353452 0.039765403 -0.09175599 -0.13615136 -0.043320876 -0.08969259 -0.11833229 -0.09844775 0.021633094 0.10969629 0.011498167 0.03757248 -0.10102131 0.083285764 -0.024507547 0.071061894 0.03699713 -0.13189133 -0.05409393 0.10214031 -0.14188814 0.026661016 -0.060239237 0.08986574 -0.05586572 0.012902021 -0.031648327 -0.10796507 -0.108680785 -0.027633872 0.04425296 0.14362232 0.1501096 -0.017264228 0.023171794 0.08286163 0.050959084 0.1166499 0.15430549 0.099574335 0.11105248 0.14263476 0.04247444 -0.1317108 0.13354537 0.018939 0.104503356 0.13427645 -0.019780627 0.1566761 -0.14618471 -0.04433648 -0.0056768516 0.05226652 0.058513958 -0.07349103 -0.15717278 0.12503146 0.11739007 0.052131645 0.080478795 -0.088702895 -0.041019958 0.13403903 0.032332152 0.12761651 0.031850792 0.066200964 -0.13639957 0.21536589 0.064982146 0.01736028 0.2535076 0.05999681 -0.12691239 -0.06932921 -0.15661117 0.03655453 -0.14331564 0.11930234 0.13209912 -0.07042011 0.16695975 -0.09366052 0.090024956 0.046171084 0.06613112 0.1432477 0.15055016 0.11839515 -0.051949855 -0.05138279 0.13642314 0.073189504 -0.14772762 0.12297945 -0.17708737 -0.0017750522 -0.12180732 -0.095182955 -0.06696983 -0.032698985 -0.062692374 0.030734066 -0.08200189 0.075650215 0.21743475 -0.095343515 -0.1391243 0.04425097 0.020821644 -0.1483707 0.2116407 -0.07720658 0.13941844 0.10295391 0.08736559 0.03670555 0.124811575 -0.022653574 0.07672435 -0.15126264 0.061937477 -0.1406055 -0.09404634 -0.15587159 -0.01334352 -0.1127686 0.10048283 0.057477597 -0.10969039 0.06990233 0.10101966 0.14741072 -0.1613618 -0.09976678 -0.13838409 -0.010359068 0.07603585 0.017388217 0.16575979 -0.07701239 0.034299944 0.024897698 0.07284911 0.12855951 -0.096378185 -0.087347195 0.088064834 -0.15130389 -0.07557202 -0.14734319 -0.037850823 -0.031662174 -0.10300617 -0.066388436 0.116246834 -0.016097816 -0.022706447 -0.1063684 -0.10382755 0.010467069 0.112087615 -0.04717409 0.1347027 0.1299431 0.034819193 0.045767933 -0.1462932 -0.0080511 -0.13513584 -0.025633832 0.025911303 -0.13599867 0.13458146 -0.15177459 -0.017515434 0.101460814 0.0009956956 0.015751274 -0.038279362 0.0034038613 -0.041827194 -0.16050023 0.04620941 -0.056111693 0.064953834 -0.11685581 -0.039726667 
-0.027608195 0.027248831 -0.10726549 -0.021773515 -0.029296828 -0.065490745 0.122966275 0.025364561 -0.14017816 0.09225792 0.057250433 0.085120365 0.071162 0.06519935 -0.028538773 0.021850305 0.0093239555 -0.05450321 -0.03421568 -0.14021909 -0.05697064 -0.08772939 -0.08384854 -0.13168626 -0.0041947844 -0.028637873 -0.11134889 -0.024915848 0.16247085 0.05316665 0.15792559 0.06364763 0.049341746 0.06817141 -0.03522504 0.024203353 0.058534488 0.076295815 0.08752622 -0.051816955 
Rect
Linear 40 40
-0.018988924 0.101438075 -0.10779764 -0.045499027 -0.05643765 -0.12583901 -0.06253983 -0.1485107 -0.058614023 -0.012575614 0.0687053 0.109290145 -0.1349766 0.029332269 -0.07212184 -0.073989004 0.15720902 -0.13893296 -0.072719425 0.14624892 -0.074163646 -0.092425056 0.021112323 -0.1521577 0.054004148 -0.0149213085 0.029576927 0.15492919 0.14180693 -0.057842832 0.023372352 0.12925634 0.12969504 -0.12725511 -0.07402612 0.052808154 0.08758965 -0.14419176 -0.14488457 -0.05990757 0.06013441 -0.013107315 -0.0134186745 -0.1322812 0.14871348 0.091369554 0.042895272 0.13732715 0.14249752 -0.04343438 -0.026449054 -0.11876915 -0.07626864 0.014849156 -0.05893419 -0.10940729 0.14098565 -0.13734427 0.07920033 -0.044214353 0.0787901 -0.056790568 -0.0075463504 -0.034412853 0.115734056 -0.13568947 -0.07584172 -0.085047945 0.046304658 0.030740783 0.00024092197 -0.07582715 0.07512134 -0.04535187 -0.108491704 0.14236613 -0.052120417 0.021487758 0.04155402 0.066015646 -0.015064031 0.042700198 0.10712077 -0.06292005 -9.258825e-05 0.1277226 -0.018077968 -0.040829726 0.09251247 0.01748655 -0.13404831 -0.018003404 -0.13343756 -0.14255963 -0.115019396 0.121076465 -0.11654589 -0.013865724 -0.1359239 0.09598364 -0.15346825 -0.04153184 0.05778454 0.120253995 0.051866237 0.03752166 -0.044119567 -0.10267186 -0.0020446035 -0.13901871 -0.1327751 -0.02655686 0.09455165 0.078476235 -0.06469663 -0.008185293 0.0754943 -0.066166274 0.12649989 -0.049996234 -0.11290464 0.084954046 -0.061355647 0.06512151 -0.0032542327 -0.14011124 -0.040453717 -0.035395425 -0.11919604 -0.050244216 0.09075112 0.0945532 0.026106365 0.06370674 -0.08221718 -0.028192826 -0.06670796 -0.148768 -0.08657928 -0.028293043 0.12999623 0.007913306 0.08172897 0.009827113 -0.07492483 0.14848933 0.06996688 0.062399548 0.1540934 -0.06646451 0.14926335 0.11629765 -0.09698357 -0.03810737 -0.05861076 0.12634237 0.1027414 -0.14242643 -0.14255093 -0.015593266 0.110992506 0.12388261 0.12223799 -0.07314549 0.07923006 -0.05181543 0.0601188 0.09773336 -0.09677642 -0.06378047 -0.07498227 -0.10479058 0.02856238 0.13420118 -0.09524956 0.048795875 0.07698206 -0.10449279 -0.12236141 0.09123124 -0.16603038 -0.137497 0.11663353 -0.13522018 0.05602716 -0.02517156 0.014444053 0.08608811 0.10081559 0.048710696 0.10825521 -0.11173435 0.062105346 0.009310452 -0.12913778 0.14185856 -0.16197255 -0.03620399 -0.13570453 -0.033818454 -0.018102497 -0.0005337596 0.07888591 0.13690783 -0.07484634 0.12024625 0.06214705 -0.095421895 0.030836746 -0.109118946 0.13336305 0.051032588 0.09853239 -0.08127011 0.029281497 0.012124389 -0.1413055 -0.07263148 0.1004238 -0.04168138 0.0011059046 -0.021350369 -0.13034074 0.0947824 -0.10605183 0.123392925 -0.065007366 -0.079843305 -0.055804804 -0.14656854 -0.120025754 0.09913589 -0.06427874 -0.021291718 -0.030595586 -0.08655695 -0.045068145 -0.10187675 -0.12965538 0.1027282 0.09367448 -0.11359082 0.037619255 -0.005485958 -0.0073558553 -0.08922076 -0.09914166 -0.14432031 -0.09617978 -0.074296504 0.19574438 0.021277333 -0.077871 -0.011532492 0.025361283 0.14063375 0.034331586 0.09863655 -0.033011317 -0.09178113 -0.12589687 -0.023512691 0.1429093 -0.06643672 0.06930363 0.075581014 -0.03610693 0.12382634 -0.11775168 0.18950891 -0.1156142 0.22446072 0.14427614 0.034917705 -0.044271752 0.07034053 -0.008147446 0.1985819 -0.06660141 -0.15704158 0.108569436 -0.07730267 -0.12029905 0.04139544 0.21767199 -0.058986045 -0.074865915 -0.06414518 0.12668286 0.0070877485 -0.10612786 0.09439741 0.12256275 0.101447135 -0.096622415 0.19277602 0.10766511 -0.020004854 0.08636647 0.13788415 -0.13258667 0.14469935 -0.024359358 -0.14248739 -0.16202578 0.060824085 -0.019428536 -0.05207148 -0.11793031 0.053664863 0.11065316 0.20593214 0.06475858 0.12180337 -0.010832518 0.021507297 0.17155279 0.12579437 -0.043657392 0.14485799 0.13142858 -0.1283947 0.14579387 0.07772097 -0.10932617 -0.025849253 -0.08204959 0.060649604 -0.045066237 -0.016784534 -0.0911645 0.071468234 -0.14094865 -0.062398866 0.057294413 -0.15529014 -0.078696124 0.02664806 0.1352398 0.08233924 -0.014790267 -0.043628164 -0.12669444 0.0024745762 0.121957615 -0.0012273341 -0.07085818 -0.045806706 0.04861383 -0.14840136 -0.061760746 0.04704444 0.1426043 -0.1357265 -0.0584782 -0.015823215 0.10949306 -0.10527249 -0.09856747 -0.06772446 -0.056500886 0.10357942 0.12283592 0.08862394 0.10541673 0.060604453 0.02087181 0.100341685 -0.08132456 0.10523902 -0.03997696 0.13408704 -0.07240049 0.016501665 0.011659831 0.06860964 0.096295014 0.00420855 -0.065218724 0.06488255 0.09760466 0.030094624 0.027897196 0.10319679 0.033796597 -0.15046744 -0.14072795 0.14959078 -0.009607626 -0.15328951 -0.027012834 -0.13336703 0.13297461 0.12778057 0.0147949755 0.06267815 -0.06684 -0.10308741 -0.004949366 0.11120887 0.032591213 0.047940876 0.058167297 -0.077667475 0.14306304 -0.014663393 -0.03428764 -0.06384318 -0.10032982 0.05790924 0.012511324 0.09353165 0.12739035 0.0004289319 0.026832381 0.03710464 -0.01979041 -0.058544375 0.1209631 -0.006806925 -0.021286441 0.03509225 0.083841175 0.13143498 0.07290001 0.1441021 -0.04112567 0.0003719531 0.09263721 0.09023812 -0.08009752 0.08248453 -0.06374437 0.09822482 -0.026626348 -0.011578422 -0.10055068 0.0972081 0.12705003 0.1140477 -0.041305114 0.13493384 -0.122353725 -0.034039654 -0.14813139 -0.1367507 0.0666849 -0.11733807 -0.0920075 -0.12111614 -0.11948218 0.03694858 0.13163097 0.14972413 0.05707869 -0.13192818 0.00019718458 -0.016463876 -0.0094656665 -0.054764584 0.035484385 -0.06675979 0.0064560417 0.12146113 0.041069277 0.03433935 -0.0052839667 0.00045410593 -0.13086368 0.029180206 0.042901043 0.112012915 -0.14504433 0.107104234 0.07690692 -0.10723732 -0.13765468 -0.046953097 0.08088545 0.010090017 -0.13515906 0.08624051 0.1353292 -0.15928844 -0.15772471 0.060307223 -0.08084555 -0.06260121 0.033258688 0.045940068 -0.11534942 0.05018846 0.03666075 0.15158825 -0.15675215 -0.03809105 -0.07247164 -0.047909692 0.13193609 0.011169851 -0.072951116 0.107581064 0.1474709 -0.02002667 0.17161098 -0.08200684 0.114909366 0.024173157 0.058164187 -0.13175294 -0.06479931 -0.052361608 0.0649362 0.14828661 0.035143822 -0.07958654 0.0661853 0.030209225 0.0691487 -0.090409525 -0.048107415 0.059090897 -0.09912014 0.015308231 0.054248467 -0.037096716 0.1231098 -0.061819613 0.11371456 0.05853504 -0.13724187 -0.11675705 0.12913685 0.0918189 0.08280046 -0.039343305 -0.1550558 -0.04488559 -0.010589108 -0.14523956 0.10546969 -0.059609473 -0.15516804 -0.02636315 0.1050788 0.04522261 0.05040878 -0.10097784 -0.083906904 0.051831484 0.021737427 -0.013503 -0.08110388 0.0011702031 -0.046933427 -0.028316319 -0.14513421 -0.0365197 -0.0320338 -0.08249734 -0.058238093 0.027179841 -0.014534031 0.08201764 0.03149138 0.05720523 0.0826566 0.08228992 -0.07053575 0.20079297 0.11331931 0.010351269 0.1669793 0.0653932 0.011364432 0.20344639 0.11348549 0.013014287 -0.04757916 0.0468494 0.1344402 0.105410084 0.08589761 -0.12022341 0.019895433 -0.037957348 -0.024356022 -0.038921587 -0.08310235 -0.046415415 -0.19132507 0.17057225 0.15503348 0.097742915 0.059116736 -0.038256768 -0.041635457 0.12715973 -0.10622521 0.11593163 -0.046350002 -0.11799249 -0.12707263 -0.08492379 0.0072609335 -0.13409862 -0.09464271 -0.0124311 -0.07907115 -0.10577823 -0.05674985 -0.12821944 0.1050988 0.0664864 -0.065905906 0.11494641 -0.099361986 0.057875887 0.070546895 0.03279093 0.095842734 0.08962436 -0.050675504 0.12581058 -0.113638096 0.03198941 0.01516588 0.036419034 0.025085375 -0.033863284 0.13223706 0.066215545 0.04112552 -0.039468363 0.082768366 0.12079419 -0.11349122 -0.09039802 -0.10997529 -0.055958226 -0.02971645 -0.1082432 0.008665256 0.08070781 0.15498814 0.030536186 -0.034126043 0.12731902 -0.14118545 0.038192604 0.029484501 -0.044448733 0.01536164 -0.06296273 -0.10437238 -0.070467345 -0.084250286 0.018934324 -0.1523575 0.10124098 0.15021154 0.09354387 -0.08631129 0.103163764 0.0280196 -0.08416674 0.09092891 0.101790585 0.14613308 0.04031498 0.12119121 -0.13414519 -0.10105574 -0.08619606 0.087653115 0.1043009 0.13582979 0.016750034 0.15323173 -0.0616282 0.003966093 0.045839444 0.07363413 0.12189518 0.1113051 0.12244515 -0.07778739 -0.10175586 -0.10988444 0.025553882 -0.104236394 0.11647944 -0.10542879 -0.05301185 0.11451359 -0.1294126 0.14057992 0.05196275 0.12648375 0.052874103 0.0059250146 0.13026674 -0.04291421 -0.00427711 -0.049262628 -0.10475428 0.02611728 0.10538168 -0.08739187 0.020058513 0.06123227 0.044498637 -0.13584743 -0.0693151 0.0747256 -0.07429779 -0.11331262 0.062645525 -0.0672664 0.10841541 -0.02869092 -0.11216934 0.122916095 -0.031180175 0.16386364 -0.0057902723 -0.1777071 0.028609142 0.07080263 0.23630646 -0.057547078 0.11470706 -0.027170897 0.118570685 0.15392984 0.24711159 0.12955308 0.015484929 -0.08051296 -0.09352595 0.07157062 -0.06740311 0.05608752 0.14110583 -0.08521877 0.019850187 0.15196578 0.046587713 0.057592995 0.021813774 -0.10965644 0.06396917 0.04090688 -0.15237218 -0.09014622 0.09960102 -0.04799906 -0.005013117 0.2043907 0.056276206 -0.12982681 0.034355134 0.12164582 0.14212172 0.13425674 -0.026314199 0.1055461 -0.008513629 0.1310672 0.10105874 -0.115546934 0.075001866 -0.04928896 -0.012170181 -0.04332719 0.0842675 -0.0262914 0.07457632 -0.14366804 0.051867977 -0.05113013 -0.048598155 0.026509687 0.015277088 -0.044379435 -0.12122865 0.14869599 0.0039067715 0.054035425 -0.06399936 0.12382676 -0.10274175 -0.14922829 0.08040473 0.06836106 0.08870298 -0.081282005 0.010590091 -0.10289842 0.0389809 0.14752676 0.024039567 -0.09529453 0.006161276 0.12777084 0.0881394 -0.17210236 -0.07650189 -0.056067992 0.18087292 0.021615406 0.07820532 0.092483215 0.12715623 0.0048738397 0.062227357 0.000920271 -0.14560682 -0.02654304 0.08977452 0.08561621 0.07858883 0.053746488 0.053263646 0.032561265 -0.014888816 -0.061442226 0.0379913 0.03189587 0.05898552 0.12309405 0.0072378 -0.13895147 -0.15389048 0.06922509 -0.024771513 -0.055008255 -0.00203256 0.14604905 -0.022195553 0.124366 0.119664416 -0.038148053 0.1140898 0.14770819 0.08326824 -0.0886473 -0.059632152 -0.073159404 -0.1529198 -0.09719908 -0.13639817 0.11988373 -0.06950117 -0.037310533 0.050717577 0.017724127 -0.09871732 -0.06514347 -0.029273257 0.003974214 -0.008264378 0.06934957 0.00079230964 -0.09197207 -0.06310339 -0.03657364 0.10754816 0.11306594 -0.1342431 -0.121909216 0.021593943 0.07055165 -0.029332027 0.051869944 0.00064218044 -0.079274476 0.08023389 -0.053001143 -0.10251945 -0.0045900135 -0.07617608 0.087350115 0.14620104 0.13018955 -0.049207643 -0.08940592 -0.0620008 -0.09073892 -0.020436486 0.15077412 0.1552004 -0.05476887 0.04585616 0.009775384 0.06769389 -0.109867394 -0.08625986 -0.03751594 -0.049402654 -0.031782147 0.04346341 -0.0004453129 -0.13028112 0.0013185862 0.031258486 0.11436592 -0.08764909 -0.09081285 0.14089957 -0.07867999 0.07990262 0.12672384 -0.0448698 -0.01392436 -0.096386865 0.088771544 0.11408793 -0.1185483 0.09499952 0.15332045 0.13391432 0.057433642 0.15566526 0.05185513 -0.08107834 -0.13843861 -0.1350225 0.062856235 0.08856773 -0.062041976 0.0099782795 -0.064517155 0.061487246 -0.111614116 0.04138409 -0.036190078 -0.090120696 -0.05808858 0.15526111 0.038631774 -0.12792031 0.061301302 -0.13663203 0.118107 -0.132685 -0.05144637 -0.15272023 -0.060194083 0.1397813 0.043468494 0.029087197 -0.111834206 0.10092615 -0.016227856 -0.026600657 0.08369625 0.10833997 -0.0989576 0.0076793707 -0.10809633 -0.13465476 0.00043159438 0.006689062 0.10723944 -0.100398764 0.016198115 0.08148095 0.013260164 0.20177345 0.057339214 -0.11773724 -0.04903085 0.03623367 -0.10826719 -0.028224327 0.18170795 0.14204518 0.118238546 0.034572124 0.03177025 -0.1420954 0.04142199 0.08740566 0.12739556 -0.05739133 -0.1335598 0.034440633 0.050982967 0.013914637 -0.1505686 -0.04379759 0.013337345 0.10035807 0.07567853 -0.09285272 0.1649388 0.21309164 0.08589832 0.13294354 -0.112832524 0.08439559 -0.085883945 0.13490275 0.078073375 0.085789435 0.14354429 0.02109684 -0.031765316 -0.06281666 0.005866723 -0.063439354 -0.14394216 0.012516713 -0.12756903 -0.09732036 0.0233102 -0.06381408 0.058663674 -0.10560386 0.12415123 -0.074171975 -0.09654887 -0.09359417 0.11848298 0.14537096 0.077141404 -0.051656332 0.093418986 -0.13491167 0.09732248 0.05838678 -0.11418925 -0.005888163 -0.08005051 0.039425492 0.060511492 -0.10824272 -0.08044663 0.06957262 0.057810724 -0.07154389 -0.044997066 0.11834733 -0.107468575 -0.012146533 -0.06572663 0.11076416 0.046141952 -0.11793338 0.07108718 0.0762241 0.08140512 0.08984025 -0.040977836 0.10980897 -0.1232408 0.024413481 0.13447522 -0.12438817 -0.1082177 0.15537019 0.031006947 0.15376292 -0.042687953 0.13526376 -0.018096417 0.06354104 -0.11109477 0.058465213 -0.14355622 -0.13415207 -0.086279646 0.14146279 -0.033447444 -0.15641096 0.09143613 -0.14599924 0.07416834 0.08541432 -0.121179685 -0.070446596 0.073348284 -0.040250182 -0.07277938 -0.040543586 0.06899558 -0.1426307 -0.022804037 -0.13078703 -0.09296692 -0.023050502 -0.1543412 0.053931475 0.114948764 0.044805408 0.10832329 -0.13139284 0.03605829 0.08522129 0.034614533 0.09722696 0.13119875 0.11793886 0.06494975 -0.08508018 -0.14391227 0.11979942 -0.09771864 -0.011681974 -0.12605414 -0.096352026 0.13961427 0.10467772 -0.010726497 0.043576002 -0.085980706 -0.09408617 0.017761767 -0.103008196 0.09953813 0.09215576 0.04475768 0.09081476 0.1263351 -0.04203659 -0.11239765 0.065476105 0.051064458 0.07928655 -0.07332434 0.004394387 0.051890343 -0.0024823176 0.08937255 0.048854295 0.06585319 -0.047464915 -0.09596107 0.15517838 -0.12572408 -0.036490805 0.12502094 0.046488814 0.11648324 -0.13369004 -0.14785206 -0.108335055 -0.00542755 0.07490416 -0.15861514 0.04696846 0.09627365 -0.1581254 0.08883488 -0.01646193 -0.080254056 0.11097863 -0.12072076 -0.011599618 0.006712858 0.07945087 0.15736401 -0.07027594 0.13766797 0.15619437 0.02010186 -0.12788945 -0.12296571 0.06554959 0.030075368 -0.088585936 0.12050478 0.08271792 0.038144555 -0.015596732 0.115536936 0.08651607 -0.05368494 0.022663683 0.1680668 0.12336029 -0.120410845 0.03393454 -0.05541559 0.036606673 0.12221338 0.013426821 0.1325525 0.15379164 -0.042926613 0.07356006 -0.11599212 -0.18261237 -0.11036116 -0.01804858 -0.04778723 0.23071854 -0.059146747 0.03805676 0.15440418 0.09186083 0.051643576 0.12325818 -0.09849694 0.06584839 0.15727317 0.1536561 0.07648511 -0.11644483 -0.095880084 -0.058334284 0.13703084 0.07837806 -0.13067144 -0.037974354 -0.07468069 -0.092727885 0.080043055 -0.058173396 -0.12936772 0.13460653 0.10641279 -0.0785958 0.13752477 -0.024277002 -0.03026037 0.065471895 -0.019697806 -0.026466705 -0.07457558 -0.09987438 0.08646152 0.002476939 -0.09171642 -0.04882544 0.029470693 -0.17040166 0.13128251 -0.063181534 -0.14209172 -0.098481074 0.10880782 0.060585517 0.15084662 -0.030216672 -0.087920375 -0.010956094 0.10334035 0.008396327 0.0013436619 -0.09326393 -0.045419976 -0.087187596 -0.07645497 0.19600442 -0.09029188 0.00051662326 0.054991215 0.012020767 -0.007952274 -0.0050714463 0.046167187 -0.07171814 -0.0012140755 -0.053357832 -0.07233275 -0.099367775 0.11315774 0.119773656 -0.10561253 0.22453257 -0.017031744 0.04033045 -0.14843304 -0.027176356 0.18326363 0.017921075 0.17816696 -0.00038315493 0.0064762235 -0.091008075 -0.1454665 0.0082472265 -0.08664046 0.03179282 -0.08501606 -0.03631845 -0.12324098 -0.04614664 0.12454194 0.007501831 -0.06486743 -0.14827478 0.08814131 0.13977349 0.086714745 0.024105608 -0.13345207 -0.11714375 0.12310261 0.14635651 0.094850555 -0.03939257 0.09068128 -0.11791842 -0.13258255 -0.14970042 -0.011413826 0.13152638 0.119233266 0.016006175 -0.097050436 0.11927475 -0.1483948 -0.06914203 -0.046087693 -0.14907046 0.14263658 0.11339007 0.14017154 -0.11557314 -0.043625206 -0.04008051 -0.08995408 0.12601273 0.05394204 0.030363679 -0.11718205 -0.08450916 0.14537336 0.0962276 -0.009162262 0.0070629865 0.0501602 -0.08511386 0.05626422 -0.110883296 -0.107711285 -0.014124244 0.06273055 0.12885182 -0.095398754 -0.1422405 0.035758153 -0.12654148 0.026972055 -0.10998623 -0.013044521 0.07585642 0.114823535 -0.013358444 -0.023963198 0.14365767 0.002913326 -0.08993444 -0.14770693 -0.12246548 0.15499337 -0.016121194 -0.13758092 0.1214179 0.13796784 -0.070388176 -0.08089335 0.039089337 0.0071282014 -0.024587506 -0.10048232 0.10263388 0.039601017 0.0035096428 -0.13682753 -0.13619833 0.036103144 0.10790863 -0.12429503 -0.041356318 0.14159226 -0.08671971 -0.122853704 0.005217582 -0.039616942 0.07248539 0.028531365 0.022328604 -0.14417428 0.10453605 0.04970992 0.12832767 -0.10677016 -0.029889446 0.0007160551 -0.17614229 -0.13259535 0.13167258 0.14601903 0.19553727 0.040606074 0.14298785 0.08356036 0.09694665 -0.062417123 0.16469216 0.21557187 0.14393726 0.083572604 -0.015351848 0.01635692 0.07787918 -0.015364394 0.0032089548 0.1460196 -0.10678479 -0.06628024 0.108448796 -0.10867802 -0.13471684 -0.061883196 0.066928685 -0.13619488 0.10095607 -0.08340983 -0.050270386 -0.1409899 0.08970998 -0.0050726086 -0.15012132 0.034718383 0.059904378 -0.037833717 -0.06660074 -0.15354508 -0.16638182 0.08945036 -0.024448674 0.020722419 0.030662052 0.1183238 0.09403921 -0.0024300807 0.071478054 -0.031691417 0.032090455 0.009022281 0.09903552 -0.12376032 -0.08884404 -0.11908586 -0.032392677 0.14861725 -0.102636926 0.02805269 -0.03210188 0.01887612 -0.073091075 -0.08063806 -0.06851218 -0.11451948 -0.012522131 -0.096873015 0.11061017 0.059337813 0.10351534 0.07105495 -0.07213029 -0.03497701 -0.14690919 -0.011142081 0.09906295 -0.14332837 -0.13220513 0.14349774 -0.15525378 0.010605887 -0.044473566 -0.09348382 0.03374216 -0.11410684 0.04212923 -0.12631649 -0.09564915 -0.05146308 0.13421525 -0.065172926 0.13774256 0.06017132 0.07232181 -0.026237167 0.08741242 0.03990162 0.042846628 0.012769106 0.086122945 -0.09041705 -0.18545316 -0.026961202 0.037880942 0.13739182 -0.030121475 0.06536155 -0.07630951 0.1394876 -0.0031551416 0.13750392 0.03262007 0.017429769 -0.028097717 0.0033154802 0.024221273 0.062797576 -0.113480225 -0.12467057 -0.07300784 -0.012246415 -0.03681268 0.12423766 -0.15919486 -0.043799758 0.10381246 0.059089802 -0.028117292 0.0030183368 -0.091608144 0.1949021 0.14464527 0.02901375 0.026127938 -0.011728051 -0.050121598 0.10407379 0.081184685 0.08052707 -0.053809796 0.14210364 -0.04944911 0.1219927 0.057952434 -0.027763067 0.09045634 -0.1209199 -0.06476711 0.10156351 -0.05051444 0.01228453 0.031903595 -0.09411239 -0.07525125 0.13548325 0.05965747 -0.089693114 0.027420463 -0.13224517 -0.1693498 0.019251704 -0.07586758 0.17918651 0.2232756 0.18161346 0.010189447 -0.08879336 0.06651468 -0.14476061 -0.044383693 0.033385973 0.049053613 0.04221205 0.07416863 -0.076524206 0.015910983 -0.16516858 0.11942279 -0.031198818 0.117798366 -0.00020467718 0.027371451 -0.16925985 0.11305924 -0.123054095 -0.10371509 0.0408156 0.10976978 -0.11670745 0.080615394 0.02708545 0.13216285 0.056272686 0.044910986 0.1582497 -0.19204207 0.21289995 -0.1635101 -0.1056177 0.13839182 -0.10326267 0.096806586 -0.16166025 -0.08323496 0.006546454 -0.08333366 
-0.05745177 -0.09522374 0.021234391 -0.010990006 0.0764745 -0.031048223 0.05559258 -0.018850777 -0.12037262 -0.12292649 -0.027414076 -0.04361811 0.107277855 -0.04232928 0.10904107 -0.07952026 -0.10951794 -0.05435285 0.080665134 -0.12262017 -0.006538256 -0.13218458 0.10858665 0.10477325 -0.013802996 0.10046182 -0.14014941 -0.07198152 0.12243851 0.068388194 0.1783712 0.04733311 -0.07888268 -0.10139283 0.06835568 0.09043312 0.01387226 0.10444222 0.041068334 0.15925853 
Rect
Linear 40 2
0.05855523 0.037316486 -0.104965396 -0.10441006 0.11024882 0.14239065 -0.21845521 -0.11686538 0.054377362 -0.13486409 0.060855426 0.028857132 0.09793741 -0.1383344 -0.004767885 -0.08892556 -0.14549401 0.0057068616 -0.22401735 -0.11122701 -0.092487544 -0.053431705 0.06019887 -0.1761681 -0.033405684 -0.032160994 -0.06850274 0.14100485 -0.06940105 -0.16713658 0.1782304 -0.1716361 0.14073108 -0.026160315 -0.09891296 -0.0812332 0.0815574 0.06494926 -0.19356453 0.27442005 -0.04017716 0.04196301 -0.050957173 -0.1818372 -0.08870796 -0.11940612 0.13704503 0.2070713 -0.036271617 0.05302039 0.15518442 0.09024484 -0.19615749 -0.10890281 0.1829263 -0.09137008 -0.0026576829 0.062305987 0.1975183 -0.0659407 0.17609067 -0.05587008 0.20337746 -0.10472629 0.24724352 -0.18325104 0.06405164 0.082040384 0.058063097 0.15699351 -0.1991882 0.20218621 -0.03394781 -0.090688966 0.0574979 0.16940005 -0.06474729 -0.16698377 0.19782609 -0.22893898 
-0.043085326 0.06627995 
