Linear 17 10
0.21938407 -0.07488822 -0.17252691 -0.04828055 -0.0973538 -0.24355434 -0.1725853 0.237687 -0.049154602 0.20405015 0.09537484 0.009254233 -0.07520002 0.19837181 -0.05943652 -0.14906758 0.12747747 -0.09864401 0.19120593 0.02787379 -0.23931503 -0.03603247 0.016438814 0.020541554 0.068947636 0.0040397793 -0.023946254 -0.06533063 0.16541564 -0.0879858 -0.038511146 0.19904892 0.22790831 0.22611082 0.20183478 -0.17686035 -0.06362365 -0.18326099 -0.12126684 0.12674947 0.22078717 -0.23710616 0.1577021 -0.1001425 0.1991481 0.027617848 -0.154409 0.13850398 -0.15242672 -0.10491127 -0.14005668 0.10824053 0.07742686 -0.12919238 -0.14789626 0.030262545 0.11067233 0.11307075 -0.19512554 0.071184844 -0.22126593 -0.047617115 -0.030829616 -0.22026587 0.12832907 -0.18215443 0.04459792 -0.13498263 0.13677543 0.13441989 0.06998845 -0.07541415 -0.015018706 -0.11858017 0.20310551 0.042639058 -0.076691665 -0.09770712 -0.1035321 -0.025199762 -0.097185664 0.2746825 -0.1549618 0.21943915 0.2635217 -0.15458068 0.12864421 -0.169686 0.108400024 -0.18386357 -0.13238968 0.054804333 0.16906324 -0.056142863 -0.02862756 0.1480121 -0.2356969 0.043245427 -0.20780891 -0.012900094 0.25612947 -0.07042029 -0.10710269 -0.22596508 0.23495851 0.08608334 -0.18625748 -0.057224847 0.19894093 -0.23653276 0.021854764 -0.17568219 -0.18414365 -0.053776693 0.094608285 -0.23886465 -0.13464569 -0.19064769 -0.05334543 -0.11389515 0.12131477 0.009447019 -0.032536905 -0.2131443 0.008572578 -0.23562855 -0.21122389 0.09119304 -0.2414576 0.018323658 0.049373917 -0.017814212 0.16369048 -0.049045064 0.17708765 -0.14836684 -0.19187744 -0.16333477 0.10501926 -0.012598504 -0.025890147 -0.03748598 -0.09514196 0.02757446 -0.028088005 -0.046647057 -0.121644855 -0.15103982 0.006128406 0.008463336 -0.23155959 0.1934132 0.0963531 0.14716569 0.06647461 -0.060358003 0.09851761 0.09434367 0.0989542 -0.08467115 -0.11948366 -0.012584616 0.18812214 -0.13235363 -0.096523516 -0.103914134 -0.22119743 0.09965986 -0.027407872 0.014369791 
0.28192723 0.08972774 0.16707465 0.025863644 0.015446893 0.20377915 0.0742218 -0.030489534 -0.022421958 -0.120446526 
Rect
Linear 10 10
-0.026856015 0.2089395 0.26912254 0.29359528 -0.22656377 -0.02089942 0.1267655 0.21765909 -0.17463173 -0.25224906 0.11666965 -0.18123674 0.31946906 -0.19778784 0.16205904 -0.09732472 -0.25975552 -0.3083883 0.13758385 -0.09590341 -0.20862573 0.29267758 0.18206277 0.20100853 -0.15256967 -0.009750804 0.07028735 -0.0410677 0.1520166 -0.07612778 0.015632063 0.0072502573 -0.119317524 -0.21009037 0.069293454 -0.23699582 -0.10423299 -0.12886187 0.12150693 -0.0518974 0.31601274 0.13144043 -0.101923436 0.3166004 -0.038695298 -0.2724767 0.21125822 -0.17825593 0.21561244 0.24332392 -0.07408141 -0.11497164 0.11295905 0.16230468 0.28887108 0.019245574 0.022611389 0.28266674 0.06444844 -0.2571777 -0.08293773 -0.018547654 0.10757157 -0.3034664 -0.31442827 -0.1801395 0.04046899 0.21454844 -0.26342803 0.13105449 0.11262277 0.35741556 -0.17235161 -0.09210762 0.20406245 -0.3291601 0.20079222 -0.1213762 0.06104326 -0.19731049 0.24471612 0.0918943 0.039013505 -0.15308417 -0.2384136 0.034214854 -0.21709242 -0.013418864 0.27735695 0.08899498 -0.087002695 -0.114719704 0.13049403 -0.253596 -0.25328818 -0.025810689 0.1851528 -0.1776741 -0.047526926 -0.14323752 
0.19158031 -0.14045678 -0.08332177 0.1609225 -0.03139071 0.29424608 -0.17021067 0.041480355 0.020862833 -0.14878124 
Rect
Linear 10 10
-0.31043506 -0.23811609 -0.28387016 0.2987779 0.04280266 -0.13970308 0.1184828 0.055352494 -0.15636452 0.20710608 -0.20438157 -0.22500104 0.22011702 0.12905744 0.11173609 0.07937816 -0.13283876 -0.3719686 0.017850643 0.16952923 0.20688924 -0.05444181 -0.12881985 -0.008250535 0.2477561 -0.01628229 0.28007928 -0.11242707 0.07430142 -0.20272925 0.019158103 0.24524818 -0.25626647 0.30559433 0.27632588 0.2730817 -0.12899755 0.28515998 0.03354399 -0.19899905 0.2865196 -0.31317973 0.2799178 0.10806907 0.23182677 0.10267048 -0.29069468 0.17733929 -0.23862179 -0.12196419 -0.08075199 -0.17227472 -0.050333265 0.23553404 0.18454939 -0.20599799 0.20580503 0.1041831 0.029925333 0.027349532 -0.17109767 -0.26188925 0.07038599 0.2758392 -0.2532639 0.27102086 0.1647194 0.22012906 0.18861026 0.23896548 0.040461242 -0.15211225 -0.1824768 -0.25685495 0.014873058 0.041326582 0.06109959 -0.20667273 0.2192817 -0.17226315 -0.28435642 0.3130037 0.075508595 0.26958838 0.043524463 0.2992124 -0.009818912 -0.08244485 0.14354637 0.05973497 -0.12144987 -0.071137264 0.1434395 0.21754506 -0.24686754 -0.21789774 0.19978103 0.22731462 -0.043151677 -0.11705306 
0.12910797 0.24219838 -0.2072331 0.082884125 0.1580609 0.071943745 0.27631414 -0.294406 0.17632094 -0.02914548 
Rect
Linear 10 10
-0.14866894 0.06856191 -0.07220015 0.30010977 -0.20891996 0.049830977 -0.107825145 0.17168707 0.24402328 0.21523073 0.1018886 -0.29143667 0.042770058 -0.17836887 0.09865776 0.04428184 -0.2662462 -0.22530112 -0.15969223 -0.27984822 -0.12289885 -0.11955385 0.17743513 0.15149578 -0.23733665 -0.042846322 0.07516557 -0.080685884 0.076378286 -0.027896255 -0.2795243 0.26273468 -0.22786182 -0.1402474 0.033774287 0.0966382 0.10263869 0.085742 -0.2539835 -0.25736094 0.29275313 -0.27297476 -0.09405631 0.25068396 0.28658572 0.24491085 -0.08521955 0.124208 0.15600193 -0.21709901 -0.22600566 0.015635135 0.28053573 -0.14319742 0.064935505 0.22224206 0.15126568 0.12573624 -0.117065005 0.1832591 -0.30105048 0.022521526 0.04198429 -0.07278079 0.2935486 -0.2986203 -0.20056057 0.26565036 -0.08718191 0.05471599 0.0034210545 0.26779532 0.004270762 -0.16633286 -0.16845399 -0.13469675 -0.25354734 0.11119223 -0.043631032 -0.20020512 -0.086238585 -0.08013588 0.10587838 -0.23297207 0.28635868 -0.2939033 0.29040778 0.0026907623 0.10578532 0.10703859 -0.27119416 -0.2842637 0.05001986 -0.07103756 -0.14161235 -0.13739659 -0.21125707 0.13569498 -0.25648737 -0.15859777 
0.16658638 0.13350773 -0.11510633 -0.30250913 0.16594326 0.236789 -0.15243456 0.26515952 -0.18158834 0.21929839 
Rect
Linear 10 2
0.11325755 -0.25247905 0.08157548 -0.16255692 -0.15495406 -0.005706584 -0.22803244 0.18591417 0.21756522 -0.066991806 0.17105545 -0.27832845 0.030760348 -0.16516878 0.0777164 -0.088267334 -0.17182393 -0.1442041 -0.28622705 -0.14180747 
-0.16851535 0.32997084 
