Linear 17 40
0.1529276 0.12814508 -0.2047658 -0.04795412 0.038439404 -0.077391654 0.20534 0.012409579 -0.25194833 -0.16925839 0.13998577 0.19420023 -0.061527472 -0.08246575 -0.27702898 0.15667033 0.055223174 -0.18740623 0.02978754 -0.24045962 -0.066549554 -0.04706244 -0.11840105 -0.026588663 -0.08045614 -0.16868562 0.018068671 -0.07243128 -0.14578353 -0.16124624 0.004492536 -0.2405079 0.14428839 0.21819955 0.11059175 0.1501224 -0.014115624 0.23264721 -0.10268859 0.38123778 0.10387565 -0.11771187 -0.24130498 0.16989303 0.24815898 -0.1969541 0.11105102 -0.0425903 0.041646846 0.19669795 0.14441212 -0.17284086 0.052131247 -0.00071219675 0.09257727 -0.026284777 -0.0429362 -0.015920427 -0.08866146 0.080505505 0.103264734 0.20257467 0.07717142 0.12421477 0.06143892 0.079044394 -0.13442585 0.10387675 0.096433535 0.12018817 -0.008618073 0.15867996 0.01826127 -0.27875048 -0.22991075 0.061720222 0.19037019 0.19005142 0.13360997 0.043718163 0.021462623 -0.047436 -0.06408849 0.19083841 -0.03406482 -0.0701422 0.2634426 0.0100968145 0.0891552 -0.11061432 -0.08464795 -0.19004829 -0.1284761 -0.2260004 0.003929846 0.13386783 0.14443411 0.14732657 -0.18012097 0.20965755 -0.21221414 0.13002893 0.2757478 0.14575286 -0.17354244 -0.11576387 0.08929969 -0.1797603 0.32688567 -0.062726386 0.07618463 0.2729976 -0.19120775 0.0680825 -0.049259383 -0.03611268 -0.023593832 -0.100755066 0.19620547 0.18558288 0.17506489 0.23287588 -0.06357172 -0.04936645 -0.21768104 0.10842118 0.013735865 0.26142058 0.23574454 -0.20912011 0.23371346 0.23349921 -0.17030595 -0.18977918 -0.116366394 0.12617338 0.26705596 -0.052916266 -0.16935262 0.068265 0.079454705 -0.2006979 -0.20161876 -0.17583874 0.12289778 0.09678419 0.052251052 0.20641135 0.03923052 -0.047816522 0.012133637 -0.0016804085 0.08008158 -0.205886 -0.1519718 0.13630004 0.22904223 -0.087314986 -0.06902573 -0.11518326 -0.20425105 0.14379248 -0.12428647 -0.056807052 0.036830474 -0.12563984 -0.0047103465 0.2591937 0.099146664 0.0014086512 -0.079761244 0.22697517 -0.019085463 0.172894 0.08546751 0.012920246 -0.053856067 -0.07319841 -0.20649906 0.19949432 -0.17002304 -0.20704812 0.10414148 -0.07893739 0.21967618 0.12698652 0.22029017 0.24120505 -0.12809464 0.21942271 -0.09989582 -0.010533075 -0.13417232 -0.18908295 -0.15703334 0.186619 0.013502477 -0.1173123 0.004747767 -0.19981171 0.21069863 0.06792058 0.017637394 0.12777428 -0.12528494 -0.22451834 0.1263667 -0.2409712 0.11390141 0.14602561 -0.0065330197 0.090946354 0.1749464 -0.047364913 -0.1877675 -0.08082525 0.04393069 -0.009742147 -0.1251173 0.16614999 -0.21509403 0.043670893 0.20359465 -0.053082015 0.22986238 -0.09059997 -0.04472828 0.25921005 -0.037309732 0.07454857 -0.0074987253 -0.015226828 0.05969297 -0.0887221 0.11257016 0.14040005 0.07099123 0.12824668 0.017080028 -0.18207736 -0.12363199 0.014096929 0.15865758 -0.05370847 -0.2516366 -0.09912776 0.19205418 -0.15513873 0.21478862 0.215237 0.17859332 -0.08104266 -0.016911795 -0.05053697 0.08964918 -0.17053702 0.18692814 -0.008313987 0.18561853 0.19808535 0.14341763 0.17107268 0.0025332263 -0.18411273 0.07294385 0.16047232 0.08401288 -0.06872402 0.08857035 0.23997141 -0.06556661 -0.049278516 -0.07179862 -0.12014968 0.13920945 0.14282618 -0.20671096 0.20666434 -0.21256664 0.1763186 -0.20156588 0.045903422 -0.10789331 -0.18568036 -0.119398735 -0.19254799 0.17812619 -0.2551004 -0.19304529 0.057622395 0.16238181 0.17872758 -0.24362326 -0.05247822 0.084739715 0.038898706 0.06404756 0.08308207 0.004579769 0.056300938 0.04272721 0.15715149 0.19017133 0.25825405 0.014403876 0.1293757 0.07601988 -0.101288006 0.21455039 0.034073003 -0.21981503 -0.18294391 -0.17860796 -0.009773332 -0.17495447 0.20081715 -0.153157 0.25432423 -0.17378274 0.017912135 0.093691155 0.06443703 0.25426945 -0.13285369 0.02856174 -0.2789142 -0.25052288 0.15136378 0.03773921 -0.18501647 0.18228023 -0.048477896 0.18643868 0.13666357 0.20238668 0.1776692 0.2410717 0.22351049 -0.018598266 -0.084369846 0.058233965 -0.03803527 -0.19929875 -0.16302678 -0.085455924 -0.234115 -0.12275307 0.067399584 -0.1303752 0.0004528058 0.09012413 -0.032964442 0.22073248 -0.011480334 0.1929786 -0.134347 0.12872042 0.030335598 -0.14965603 0.101894125 0.03644399 -0.0033100701 -0.009247526 0.13666536 0.12899649 0.04199047 0.09624062 -0.116917424 -0.23271406 -0.10483404 0.14704756 0.09408031 -0.2254219 -0.084127605 0.14691755 0.19423626 -0.1755852 0.19556297 -0.10750955 -0.17997693 0.01687198 0.17136109 -0.067523435 0.023876544 0.20381583 0.2468712 -0.15519653 0.26554987 -0.19638263 -0.02126332 -0.1454889 -0.12033387 0.15681182 0.090269476 -0.017033977 -0.09158847 0.2699354 0.09833059 -0.055251446 0.14463389 -0.048031423 -0.0001404833 0.18325405 0.2053212 0.029721782 0.14688946 0.18096516 -0.24378087 0.2133871 -0.19236836 0.18302114 -0.073515676 0.11766452 0.25665003 -0.043375455 -0.0752527 -0.19057174 0.16723445 0.20473133 0.07971803 -0.14750944 0.03021474 -0.011373945 -0.18058471 -0.07319159 -0.08649509 -0.2252569 0.05279079 0.22274715 -0.104627006 0.014087166 -0.050605405 0.042403918 0.18106152 0.085856974 0.2156135 -0.06784677 -0.19436757 -0.0051602703 0.26023105 0.17571022 0.12217177 0.025830913 0.16467385 0.16571508 -0.15630007 0.21422637 -0.30824742 0.18753508 0.0647789 -0.0484243 0.07137729 -0.14335522 -0.14223243 0.012444577 0.18810381 -0.03448755 -0.20936161 -0.02623129 0.062536515 -0.1559531 -0.014819033 -0.0750624 -0.06914162 -0.047579233 0.20561826 -0.23200215 0.13411315 0.23125948 0.10122085 0.038550086 -0.0813661 0.17083432 -0.20511968 -0.10641305 0.04831661 0.12351585 0.04451817 -0.25096586 -0.04986767 -0.12501922 0.15133026 -0.12645331 -0.06251187 -0.19270954 0.22495137 -0.0081398655 -0.028886123 0.144521 0.17386526 0.002198947 0.19325031 -0.13342765 -0.14824945 -0.23921338 -0.090152144 0.12044163 0.19277984 -0.17561883 -0.011137915 -0.24106796 0.013177811 0.01805623 -0.13023716 -0.08306425 -0.22476995 -0.052482903 0.24947082 -0.12273289 0.122106425 -0.14401564 -0.05746079 0.13654289 0.2165108 -0.0039791143 0.37822857 0.19275287 -0.10578457 -0.12219399 -0.10456493 -0.22831199 -0.19821224 -0.044408355 0.16629401 0.3492501 0.005045462 -0.14350455 0.27745926 -0.16624175 0.15260208 0.076668985 -0.12869391 -0.081182756 -0.02524483 0.13980451 -0.05039878 0.18747938 -0.09168463 -0.11217164 -0.014208891 0.17332332 -0.12476226 0.16863757 0.06832701 0.27630076 -0.059817314 0.18107852 -0.08117011 0.089207105 -0.21357456 -0.16115035 0.0010368361 0.357299 -0.0063148416 -0.22240703 0.13413851 0.25437504 0.05209989 -0.014665121 -0.11842063 0.13101897 -0.21677998 -0.11424286 0.008606273 0.01906196 0.0932463 0.11084599 -0.16762379 -0.19548863 -0.12350347 -0.12050322 0.05759524 0.23496523 -0.10612892 0.23642772 -0.01385315 0.06707127 -0.1906048 -0.17929024 -0.096231714 0.07271006 -0.2738071 -0.17063491 0.021954384 -0.054698974 -0.059887197 0.12168457 -0.094837315 -0.03181373 0.2812895 -0.20207798 0.18562324 -0.15363878 0.043165524 0.020474596 -0.10392909 0.29335344 -0.17847432 0.25711176 0.18502612 0.35928237 -0.13984922 -0.23756495 -0.20220158 0.225548 0.22401194 0.015672034 -0.02581838 -0.16377446 0.023037432 -0.031427976 0.1918961 0.051952798 -0.17951195 0.20440535 -0.21518974 0.21269691 -0.032918524 -0.18132769 -0.06592535 0.011297699 -0.23153125 -0.23370498 0.09659853 -0.2136146 -0.016182372 -0.104432225 0.20999222 -0.008167392 -0.21516639 -0.059060067 -0.017153459 -0.17916082 0.13498309 0.221845 0.10109797 -0.10663436 0.10143315 -0.106702566 0.14740448 0.21351461 -0.03342045 -0.115585834 -0.21080054 -0.11926204 -0.12708648 0.19122475 0.12591608 0.15569544 -0.119101696 -0.0062474036 -0.1156412 0.057889733 0.24225952 -0.16381438 0.26866814 0.08415986 -0.09418958 0.27264118 -0.24171497 -0.26633996 0.21419765 -0.18828043 -0.22510694 -0.15615106 -0.19323328 -0.18911518 -0.106764086 0.08777569 0.122795105 -0.023403794 0.22266844 0.21820444 0.15759677 -0.12653358 -0.13191888 -0.21555506 0.0011458711 -0.013910875 -0.08677124 
-0.017228812 -0.20951645 0.03875459 -0.067288764 0.10729902 -0.07576435 -0.15321808 0.18224986 0.26669794 -0.057725593 0.08427346 0.24424404 -0.090910226 -0.019443356 -0.25579464 0.027537728 0.18222897 0.12943551 -0.20890108 0.015053544 0.11986669 -0.1212346 0.06515856 -0.11434788 -0.1381155 0.1789088 0.10220486 -0.12437303 0.03474227 -0.18311724 0.012577718 -0.040208682 0.24824916 0.2137314 0.16012105 0.12824301 -0.11391756 -0.00066592527 -0.046476513 0.07023879 
Rect
Linear 40 40
0.18729784 0.049865633 -0.06747273 -0.055113282 0.12313103 -0.15409714 0.06544039 0.17232747 0.13719364 -0.026760112 -0.08271217 -0.034755483 -0.09208882 0.041342605 -0.064578794 0.03153827 0.016696906 0.04901929 0.110525675 -0.15223633 0.02917386 -0.021755787 0.008830874 -0.07116494 -0.07803985 0.029692044 0.04536135 0.07545904 -0.05701538 -0.012584684 -0.29511487 0.06833336 0.19925009 -0.13017465 -0.047686603 -0.0766183 0.0501584 0.055288482 0.09355221 0.019635176 -0.0466561 0.06132552 0.026987012 -0.05484536 0.0011292701 0.0912444 0.12073247 0.080596425 0.08798704 -0.028740058 -0.0755009 0.059511527 -0.1251916 0.14213571 -0.15215783 -0.03824528 0.15250696 -0.14933774 -0.05445195 -0.06553702 0.07914917 0.09979699 0.057532407 -0.080570325 0.0050590206 -0.050063808 0.15636647 0.05933881 0.03790395 -0.1270572 -0.17822048 0.07295588 0.048538707 0.102464445 0.16950795 -0.11531117 0.09029147 0.093674615 -0.040354796 0.13910004 0.14507638 -0.13016602 -0.056241427 -0.092554085 -0.0073985895 -0.105562314 0.1628243 0.13333198 0.14831206 -0.07399168 0.011972671 0.13052186 0.014019132 -0.019060928 -0.14762215 -0.18717597 -0.0742314 -0.08078302 0.07995631 -0.010455249 -0.18699381 0.025111828 -0.019568581 -0.01660458 -0.040924873 -0.10284213 0.16525401 0.040452894 0.044272628 0.073635004 -0.20171182 0.03297614 0.09657342 -0.01773932 0.0066414424 0.09627498 0.12351704 0.009801921 0.17555995 0.09871072 -0.030228235 0.11431642 0.0025878404 0.12265473 0.1055209 0.08154964 0.14313498 -0.055766597 0.089027196 0.09405434 0.060683053 0.045218594 0.09349088 0.040576812 0.10906743 -0.0026085698 0.13450474 0.11680683 0.075417385 0.037734848 -0.08969894 -0.1332083 -0.03615653 -0.012677741 -0.010694666 -0.02824295 0.0383527 -0.07596524 -0.09137942 -0.08914917 -0.10995912 -0.16176906 -0.122883044 -0.06646575 -0.011937827 -0.0080275405 0.14027725 0.027503317 0.057911556 0.13694762 -0.13268447 -0.101649284 -0.02037892 0.11369947 -0.09176851 -0.037745252 0.0603569 -0.11007806 -0.128777 0.010198013 0.06327868 0.055010736 -0.040077277 -0.06181453 -0.1494457 0.09244077 0.03404015 0.017272871 0.14803603 -0.073569074 -0.1550228 -0.02762974 -0.15192352 0.15995657 0.052720457 -0.08522951 -0.10413083 0.018426426 -0.08422908 0.090936586 -0.021698877 -0.16430688 0.083353855 -0.07548163 -0.0089223515 -0.10361696 -0.14638434 -0.0022906135 0.11129711 -0.15518221 0.07827784 -0.012768522 0.11285346 -0.1406804 -0.1454719 0.07314232 -0.12176218 0.10007112 -0.11820463 -0.004321537 0.16469283 -0.15800284 -0.113496654 -0.08449591 0.014507311 -0.15043569 0.14894232 -0.12233164 0.15285465 0.04512595 -0.026282882 0.14800087 -0.07467092 0.13601644 -0.063399896 -0.088569306 -0.06904838 -0.12399921 0.07917694 -0.040206343 -0.09189179 0.094158314 -0.13984996 0.03756599 0.0898124 -0.12270825 -0.0026822805 -0.13933101 0.047531348 0.14848451 0.039978515 0.107452884 0.062927105 -0.08448252 -0.09749504 -0.032836214 0.056284096 0.083492644 -0.0503885 0.09828262 -0.12846065 0.09761162 -0.057832934 0.032995787 0.03434934 -0.194858 -0.034732908 0.12318751 0.076845616 0.02413646 0.014812057 0.060587093 0.09754348 0.10251655 -0.083491094 -0.055900253 0.116722405 0.12144505 -0.055282187 -0.06347281 0.09849356 -0.07817717 0.07231656 0.12713385 0.09287647 -0.07230905 -0.13228716 0.13028102 0.107522786 -0.11140231 -0.102458835 -0.0038493872 -0.06627509 0.0032476566 -0.05231598 0.09754931 -0.0970839 -0.12555778 0.050050102 -0.047371052 0.08356984 -0.082655884 0.13763554 -0.051680516 0.07001224 -0.11230241 -0.01216656 0.07915442 -0.14858153 -0.0993873 0.060546465 0.027869835 0.024127405 0.06448352 0.05244997 -0.11994028 0.1419656 0.007308021 -0.09454309 0.06149119 0.04992175 0.0052510947 -0.063310556 -0.1275176 0.021061048 0.10060181 -0.085985705 0.09093143 0.052317813 0.11382197 0.19208862 0.11061321 0.004077396 -0.11101877 -0.01861943 0.031622667 0.16437255 -0.00017110311 0.11348506 0.034508348 0.008137419 -0.014803661 0.058606528 -0.12058886 -0.110131286 -0.22635686 0.0024761152 -0.14054282 0.14760214 0.090760805 0.11109851 0.06973207 -0.029639242 0.079972245 0.105138354 -0.13084742 0.09578797 0.10416328 0.06835544 -0.11531007 0.010685197 0.14089398 0.18859912 0.07566442 0.13468285 -0.16644824 0.16395167 -0.11362051 0.17769685 0.092574246 0.023308828 0.043765187 -0.13989407 0.12208153 0.08312936 -0.025548264 0.14398862 -0.038015395 -0.048627555 0.017617792 0.05824192 -0.12775671 -0.027387425 -0.018533528 -0.012009174 -0.09541745 -0.02817215 0.044316515 0.072515726 -0.040788084 -0.05936891 0.1312571 -0.10237552 0.022441179 0.11480127 0.051568583 -0.13650738 -0.0886565 0.08360776 0.12827335 -0.03160101 -0.14632392 0.11739884 -0.14410914 -0.15560804 -0.13095747 0.077061415 -0.06865941 0.06808466 0.02953957 0.08291788 -0.09900491 -0.21783562 0.09411891 0.14139846 -0.12534007 -0.07479222 0.0015210409 -0.040752977 -0.09595848 0.06407346 0.084240004 -0.06659671 0.09883107 0.11207827 -0.020602662 -0.01045211 0.09775797 -0.010190141 0.032467812 -0.058775593 0.056012448 0.18262535 -0.098269865 0.053189 0.018785043 -0.024286544 0.074372455 0.08609834 -0.13414197 -0.24149156 -0.099674635 0.1457496 0.093505695 -0.08314086 -0.01725647 0.09460518 -0.0014281779 0.114506625 -0.11649446 0.10258039 0.025546849 0.013792604 0.12476256 -0.05152888 0.0114839235 -0.08485114 -0.012161846 -0.1143592 -0.120077565 0.07936735 -0.05940293 0.10116809 0.13485286 0.032345805 0.063919686 -0.13280883 -0.09227111 0.09872482 -0.09701923 0.099889785 -0.10771045 0.0060864515 0.12166817 0.1497278 0.12233668 -0.13068081 -0.039236154 0.0422088 0.14738153 0.06805711 -0.0395203 -0.052869502 0.0564787 -0.12544192 -0.083800524 0.09933847 -0.063603796 -0.077993155 -0.03536869 -0.055014737 0.05942233 -0.12169368 0.10451037 -0.046815738 -0.05070622 0.106992036 0.1358867 0.16289873 -0.09463291 0.06028622 -0.049294088 -0.06949126 0.10318891 -0.14116617 0.084241286 0.02555094 -0.114224695 0.018577069 -0.18134055 0.11634005 -0.11894153 0.017068336 -0.07431972 0.06876774 -0.12800135 -0.06304501 -0.0066292402 -0.08397424 -0.07073745 -0.1299536 0.13539417 0.23783441 -0.1312021 0.1794678 0.07632439 -0.07625874 -0.09918906 0.08547692 -0.05385258 0.12715106 -0.0586422 -0.10050252 0.021596307 0.069218196 0.08914322 -0.12379677 -0.109935716 0.15412337 -0.053347684 -0.03574767 0.12706065 0.019927332 0.13513198 -0.13392796 -0.13437128 -0.110703364 -0.13163476 0.14339176 0.103901155 -0.046247184 -0.11943553 -0.1313573 0.12126156 -0.09950682 0.070173934 -0.043534596 0.08610361 -0.06911445 -0.099127226 -0.058168985 -0.027959678 0.070390925 -0.091074176 -0.013125359 -0.13390787 0.118975274 -0.09491129 -0.008634468 -0.06327326 0.08809124 -0.111277714 -0.14436509 0.044754073 -0.09117907 0.14168473 -0.12603898 -0.12370646 0.049161144 -0.09608206 -0.14512095 -0.038619723 -0.04180527 -0.109731905 -0.1386721 0.13845515 0.04511915 0.015487319 0.062073875 -0.107852794 -0.14243542 0.033618823 -0.06251334 0.06423228 -0.02748481 0.0120058125 -0.039226033 0.06544658 0.12425107 0.14722846 0.1117698 -0.01760293 0.07464775 0.118154705 -0.0058907447 0.028358018 0.05422964 -0.15466292 -0.13207933 -0.115498796 0.010029747 0.15415494 -0.14713573 0.14931041 -0.116751745 0.1572096 0.005594029 0.16841242 0.06991692 -0.00012818264 0.13180818 -0.0027169092 -0.12041557 -0.15674244 -0.10757006 0.09775713 -0.09805892 -0.10039052 0.109819494 0.08765354 -0.14408377 0.12261391 0.006838293 0.13729121 0.048304938 -0.017031454 0.06855505 -0.048220873 0.09272025 -0.114792116 0.117433615 -0.07000024 -0.10232619 0.03106662 0.08307044 -0.14032096 -0.07061265 0.13543652 -0.13538061 -0.038068004 0.0870052 0.0074460655 -0.028814321 -0.08868775 0.0075563346 0.023886088 0.009606633 -0.069754615 -0.15108414 -0.053672384 0.015577494 0.036820024 -0.068810865 -0.0062408075 0.08120969 -0.13544467 0.074422695 0.13447505 0.11672542 -0.1424332 0.015132084 0.13078885 0.059420645 0.07137053 -0.14312945 -0.12807053 -0.011139735 0.012407725 -0.061111517 -0.052242946 -0.0074048457 -0.15806621 0.055008724 -0.08039203 -0.04385014 0.085870266 0.11858172 -0.0709657 0.11327588 -0.06855611 -0.109541714 -0.10859891 -0.063966796 0.1261829 -0.10110012 -0.090783805 0.010199893 0.12387138 -0.0012725178 0.005471966 0.10061823 0.08097825 -0.0033008659 0.10315353 -0.02432885 -0.062615596 0.04410529 -0.029799113 -0.12544897 -0.18879396 -0.12338653 0.13021657 0.13400821 -0.051895387 -0.010855551 0.06874544 -0.0038440698 -0.070548154 -0.06799694 0.05544827 0.050925564 0.029652271 0.09573273 -0.114958264 0.0027083005 -0.058246937 -0.101917155 -0.08153994 0.0488086 -0.042112812 -0.024386143 -0.1362809 0.13642414 0.056940336 0.09025936 -0.10299926 0.08409748 -0.11349589 0.060404856 -0.08060445 0.13043286 0.094600946 0.11733902 -0.11502121 0.06650626 -0.11217455 0.107719995 0.112466566 0.052841462 -0.1583769 0.093076654 -0.056462266 -0.07349992 0.005858825 0.004885693 0.16015023 -0.12658556 -0.0066893976 0.06441874 0.032367583 -0.14093882 -0.04697571 -0.0012836445 0.08508761 0.06943208 -0.04038986 0.07660793 0.13238841 -0.10178878 -0.05846797 0.1489241 0.15184058 -0.0146239335 0.014151824 -0.03901693 0.05456624 0.11214476 -0.14655061 -0.07181839 -0.01214327 0.01733706 0.031835187 -0.14504705 -0.15314467 0.023533434 0.15448779 0.029158663 -0.060979754 -0.12520547 -0.13186276 -0.12164653 -0.08449069 -0.09496444 0.08607282 0.09456823 -0.001414194 -0.038745787 -0.09714836 0.0951057 0.039075553 0.06325411 -0.024438662 -0.11904099 -0.055377875 0.04372413 0.11522106 -0.09539683 -0.06805899 -0.1483695 0.13425513 0.18230899 -0.11482544 -0.0046117804 -0.037299313 0.038610008 -0.14565171 0.10097736 0.14698566 0.12951438 -0.09194412 -0.0831779 0.01779637 0.057855226 0.04641563 0.007357836 -0.08624711 0.14724286 -0.12017571 -0.07503704 -0.24231604 0.014994096 -0.17880745 0.18770108 -0.07437744 -0.120914206 0.07942942 -0.09294627 0.073572844 -0.16008556 -0.07083415 -0.20199394 0.08480962 0.18724181 0.15347584 0.11351762 -0.16645779 -0.026182313 0.16977406 0.061879534 0.032326415 -0.061064996 0.06322914 0.103279546 0.11113277 0.13702644 -0.06776959 0.0004703246 -0.044446174 0.013617519 -0.078197345 0.08808733 -0.00074206095 -0.12352534 -0.035668332 0.14053701 -0.054646753 0.026895657 -0.10030034 -0.0843156 -0.10565192 -0.07193149 -0.0016116507 0.14733668 0.03429879 -0.09539934 -0.10357863 -0.108545795 0.027249254 0.13561375 -0.09941451 -0.009126794 0.067233905 0.0887774 0.043675017 0.015765486 -0.116098836 0.03690803 -0.0178895 -0.09250755 0.12319292 -0.065074876 -0.110451184 0.16207825 -0.09622534 0.008808767 0.12792026 0.0028717224 -0.07179961 -0.027650015 0.065068945 0.08250476 -0.026210368 -0.03764154 0.1356865 -0.04243203 0.10290638 0.051073175 0.12750626 0.13941833 0.12554105 0.04583063 0.022133235 -0.024544492 0.14394584 -0.029202415 -0.056104492 -0.012270016 0.12506153 -0.041392025 0.079523966 0.043356296 0.054625235 -0.09817044 -0.0619896 -0.1394767 0.07266606 0.031897582 0.11471367 0.0707096 0.112656176 -0.12927517 -0.11558111 -0.011841897 0.026081914 0.022669539 -0.10828162 0.0074617565 -0.1498974 0.06489733 0.031798426 -0.10575227 0.027542142 -0.09498022 -0.108607344 0.032103278 0.012395363 -0.08646035 -0.11020982 0.020797163 0.10788854 -0.10882267 0.066460475 -0.02283642 -0.062896654 -0.035765808 0.15042779 0.07997657 -0.0586595 -0.00966854 0.0713498 -0.078983575 -0.15536658 -0.14251578 -0.0670149 0.1513318 0.063230194 0.07348721 0.007937238 0.098453134 -0.021780387 -0.059600256 -0.07387833 -0.13733734 0.12693904 0.0030836365 -0.14460771 -0.1036254 0.07549929 0.057509165 -0.05292123 -0.055898316 -0.12877558 0.027426079 0.009293072 -0.08800846 -0.060343318 0.0869343 0.13300578 0.018041397 0.15515512 -0.11937472 -0.050952673 0.14984618 -0.003961564 0.0063665477 -0.10476111 -0.11913609 -0.057928212 -0.15381974 -0.11898208 0.14974928 -0.018291974 -0.057510976 0.04809152 -0.044944376 -0.07019264 -0.1452852 -0.026180035 0.08590503 -0.025799021 -0.15647082 0.00885506 -0.01244363 -0.08041326 -0.11106674 0.075174846 -0.13503861 -0.14786077 -0.064925596 0.06652965 -0.026546467 -0.114147805 -0.14558415 0.070084095 0.022479057 0.12064873 0.038888235 -0.12558988 -0.13391834 0.04730583 0.05221211 0.048545055 -0.033883207 -0.020850169 -0.15004793 -0.14259976 -0.0712732 0.13355988 0.13439941 -0.074226335 0.10752699 -0.056168962 -0.098513626 -0.15687202 0.029895972 -0.10145523 0.09501125 0.08223523 -0.14919025 -0.03552285 -0.1287704 -0.115557835 -0.04231254 -0.077550486 -0.0777486 -0.009099197 -0.06391129 0.09309266 0.075448334 0.14215937 -0.10134673 -0.12160092 -0.06356808 -0.060318712 -0.09795823 0.011712297 -0.13756295 -0.010964217 -0.090710394 -0.0129871955 0.08109053 -0.12850296 -0.0756042 -0.07162516 -0.14053074 0.13316064 -0.09986629 0.10967891 0.05540155 0.13954027 -0.1292659 0.04299309 0.007019333 0.13576631 -0.10671473 -0.051336024 0.04577182 -0.1003188 0.034994826 0.1303943 -0.031245634 -0.063968845 -0.12596764 -0.120041795 -0.025875414 -0.02221395 0.12004195 0.00015987882 0.027404511 -0.116304085 0.11521466 0.012795777 0.04034609 -0.07894971 0.010661468 0.011619775 -0.049108632 -0.002246078 0.06004776 0.068766974 -0.09948459 -0.102306925 -0.05906684 0.060490657 -0.11544425 0.06688915 0.030718217 -0.04832702 0.016244143 -0.028053403 -0.095170915 0.1445946 -0.11317562 0.1563282 -0.08303779 0.06953805 -0.11268485 0.041387096 -0.016640658 -0.052781217 -0.09238138 -0.028951779 0.120722085 0.12703189 0.1374481 0.0074593737 -0.1250657 -0.07187028 -0.12567681 -0.042735092 -0.11863029 -0.098768555 0.015989311 -0.03958782 0.06443436 -0.028065655 -0.114646934 -0.018656971 0.078380235 0.02272879 0.080852486 -0.06321013 -0.020951841 0.008272568 0.117452525 -0.048165675 0.057670992 -0.0669135 -0.15729658 -0.1245111 0.11441969 -0.00445728 0.06899243 0.12901092 -0.14778173 -0.05662582 0.1387488 0.010240135 0.001273184 0.042271078 -0.018541764 0.044313192 -0.1411545 0.041659728 -0.11407744 0.088866636 -0.13105443 0.054480124 0.03532945 -0.11034548 0.13423336 -0.09094622 0.021731205 -0.09276692 -0.13752016 -0.14647453 -0.080281705 -0.15137775 0.14122523 0.035901688 -0.08589649 0.10804541 -0.08840105 -0.11356729 -0.1481166 0.058926128 -0.007884711 -0.09248038 -0.0057400716 -0.05588427 -0.045097873 0.1287625 0.15214056 -0.040873624 -0.08937331 0.09716761 -0.12767977 0.104305185 0.18105696 0.080355175 0.12991177 0.10734658 -0.18758756 0.127437 -0.019527182 0.057885185 -0.08319785 0.21602286 0.019478364 -0.067434 -0.15151164 0.030644 -0.0517762 -0.09586722 -0.059265543 0.059374433 0.07467064 -0.026160864 0.10385742 -0.08654394 0.09934182 0.10047524 -0.026371967 0.047878567 -0.04038963 -0.07958038 -0.0657284 -0.013062283 0.13951795 0.10410287 -0.0024578252 0.16646868 0.09904303 0.10515425 0.17364302 0.037264183 0.092032075 -0.046948448 0.058090247 -0.08847051 -0.1381458 -0.042069025 0.13004664 -0.045210887 -0.105649434 -0.045434795 -0.056061015 0.12641475 -0.11966321 0.05775016 0.14376213 -0.09355004 -0.04305755 0.14285198 0.03194378 0.16624844 -0.12380774 -0.082767755 -0.05049065 0.13407432 -0.04067271 0.15237573 0.06761001 0.21716602 -0.13458012 0.11468388 0.05583335 0.10565861 -0.022866283 -0.08645484 0.17562205 0.008446892 -0.06497166 0.10623992 0.028433247 0.13568082 0.03239381 0.10056435 0.08778505 0.01673351 0.06300688 -0.0539369 0.07961703 0.034716878 -0.11504554 -0.14883278 0.014964097 -0.12695286 0.14539813 0.08081738 0.07117601 0.12281761 0.091650546 -0.15289325 0.1521055 0.110671274 -0.1529454 0.13534744 -0.11077297 0.12689868 -0.13560218 0.12881222 -0.11868973 -0.09334264 -0.08556564 0.045314144 -0.00012940457 0.047000743 0.01939175 -0.15560165 -0.12387006 0.11762513 -0.04490977 0.0749592 0.13139328 -0.052872658 -0.12846933 0.058540348 0.0122790225 0.14885531 -0.036076844 0.11019035 -0.10874458 -0.07585077 0.10085237 -0.108351015 -0.025837908 0.19485384 0.09043027 -0.11229343 -0.16862047 -0.030786017 -0.07164569 0.03107235 0.047590196 -0.0900372 0.096868 0.11527628 -0.062443614 0.07586381 0.05747085 -0.007377215 -0.039070666 -0.18055251 -0.119941026 0.07007654 0.0822446 -0.030713083 -0.106949046 0.052264582 -0.16033246 0.024270805 -0.030667374 -0.025046099 -0.039874032 -0.043744948 -0.13190208 0.11913308 0.04308542 -0.00034725087 0.029548816 0.06067793 -0.038090434 -0.12635013 0.16527152 0.058613006 0.13121502 0.00765873 -0.013860658 0.12994613 0.12318979 0.21605757 -0.03132121 -0.06008978 -0.12879154 -0.09879011 0.063592896 0.0518561 0.14412484 -0.18666923 -0.11799024 -0.1072313 0.034220334 -0.03470676 -0.055370666 -0.11993738 0.13599694 0.101942405 0.089415126 0.09672094 -0.11118964 0.15207167 -0.024823714 0.15351728 0.20252152 -0.10358962 -0.12350101 -0.04949871 0.023002997 0.02041914 0.08895626 -0.08407475 -0.10209524 0.11325821 0.16887939 -0.012153495 0.0071901144 0.1298472 -0.1434243 0.0358045 0.082735874 -0.03708211 -0.005775261 -0.17312145 -0.07000565 -0.06725242 -0.072305135 0.037175443 0.14559776 0.07284589 -0.17267182 0.050029714 0.12153898 -0.10796381 -0.14905614 0.03752497 -0.04077167 0.06710468 -0.10166202 -0.10555926 -0.13388593 -0.0055844756 0.10665731 0.11838658 -0.014620373 -0.10778464 0.14202318 0.076352924 -0.059869017 0.102750175 0.14831091 -0.12419321 -0.0020203257 0.117662616 0.20480011 -0.12913251 -0.0031268054 0.1911417 -0.13569885 0.17246279 0.026671687 -0.068294294 -0.0035405064 -0.2024856 -0.16591199 -0.049190097 -0.013384701 -0.07671543 0.034790218 -0.049895424 -0.049806293 -0.072889544 0.021668358 -0.22036518 -0.11059132 0.097538576 0.16450842 -0.09109942 -0.07758907 0.021598328 -0.20409979 -0.08043023 0.044390254 0.050748535 0.17652024 -0.14074525 0.022862462 -0.09376347 -0.012218434 -0.11931969 -0.104975134 -0.11166174 0.111678615 -0.04011989 -0.08585826 -0.012594636 0.17783903 0.13797826 0.14003736 0.10610157 -0.07874326 -0.06734588 -0.05543499 0.1200007 0.043205157 -0.07821626 -0.14365236 -0.026451027 0.046076138 -0.17073756 0.1293554 0.06326127 -0.03977149 -0.18949662 -0.13858299 0.11560946 0.14344785 -0.10139174 0.089140445 0.03643234 -0.013382495 -0.0657119 0.17681515 0.113129854 0.019950287 0.022065934 -0.14242177 0.039411604 -0.0935137 -0.13341255 0.13393351 0.095165774 0.065412976 0.13147822 0.12001728 -0.08371471 -0.02380309 0.054338302 0.13852572 -0.017263427 -0.14818126 0.015632264 -0.09580607 -0.047511384 -0.043704573 -0.06982775 0.010704577 -0.060868964 -0.11985143 0.1091721 -0.107677944 -0.03828538 0.08282942 -0.03661645 0.10148432 -0.080511026 -0.018118843 0.08295659 -0.027268171 -0.112522 -0.019964866 0.10452151 0.114711925 0.023111694 0.12524673 -0.065480724 -0.10175497 0.10590944 -0.0744763 -0.05514365 0.023846969 0.08495353 0.09290494 -0.03682618 -0.13233535 0.042176276 -0.13823253 0.009699449 -0.14394264 -0.14192173 0.15686174 -0.13585255 0.024827003 0.11315031 0.0054617524 -0.14385748 -0.090410896 0.023696795 -0.13010377 0.12776943 0.04424694 -0.07626431 -0.028221786 -0.04462859 0.061619878 -0.13034378 -0.13295273 0.04874012 0.008578956 -0.012817979 -0.12772323 0.064715296 -0.079668544 -0.09964186 0.12184943 -0.11160122 -0.011275277 0.058776185 -0.13237081 0.13424407 
0.089404084 0.1084727 0.1846343 -0.060353164 0.13579103 0.11080573 0.033097316 -0.074853 0.15042591 -0.12361705 0.046886772 -0.15605189 0.13796853 -0.12559187 -0.04632438 0.13335396 0.005097972 0.00014409228 -0.04012067 -0.07652725 0.18495716 -0.13113587 -0.012662903 0.029128697 -0.09783499 0.12263682 -0.031955473 -0.13777629 -0.08123523 0.03548291 -0.061375663 -0.060103197 -0.014329097 0.13689868 0.11872325 0.05281857 0.15808779 -0.10540291 0.012323389 -0.09683476 
Rect
Linear 40 40
-0.056475017 0.17410907 0.13790247 -0.14885151 0.07648841 -0.13280478 -0.15821224 -0.0801957 0.055576913 -0.022546187 0.11046786 -0.10650457 -0.06587068 0.038204096 0.14807208 0.097985044 -0.14551418 -0.09663171 -0.05508187 -0.03383783 0.17280748 -0.083232746 0.008524417 0.10845357 -0.0028870562 -0.08531673 -0.09017872 -0.01045744 0.045319606 -0.0843665 -0.037020374 -0.10815629 -0.115060255 0.09623977 0.1265105 -0.0053033964 0.04380758 0.017090091 -0.0029353418 -0.09985344 0.12158072 0.05044666 -0.15558314 0.018536666 -0.10995983 -0.12532248 0.057430986 0.118542574 -0.08365266 -0.035932638 -0.02022572 -0.10563178 -0.099788934 0.026852297 -0.09764607 -0.136108 -0.07699859 3.827812e-05 0.096111774 0.068323806 -0.17131543 0.035238042 0.08099113 0.016918464 -0.12823026 -0.12549487 0.07981651 0.124162935 0.08280471 0.020474304 0.05070261 0.042487666 0.07689657 0.04668396 0.109543644 0.0832545 0.07705653 -0.12448679 -0.06505412 0.13193049 0.17016894 -0.08669807 0.18131617 0.006240152 -0.010498964 0.06582506 0.06612608 0.06030125 0.08336117 0.07716414 0.10744327 -0.14170454 -0.124283805 0.002810752 -0.034105908 0.07713338 -0.044380292 0.13240756 0.027106525 0.0014564823 -0.07502189 0.1204004 0.11579431 -0.112608604 0.05500351 -0.13095282 0.0098490445 -0.06949194 -0.038755905 0.15730065 0.12347753 -0.07875888 0.07433128 -0.050925557 -0.08155953 0.019810263 0.14979948 -0.13620746 -0.08004078 0.0680034 -0.08962126 -0.031595334 0.023267964 0.010546546 0.051808953 -0.025842762 0.11828524 0.0024473965 -0.06662061 -0.09149307 -0.075543635 -0.08161652 0.01736446 -0.015275719 0.08944142 0.12254246 0.113656014 -0.004530828 0.10445825 0.048064988 0.059502367 -0.085779615 -0.027876949 0.017708778 0.08519463 -0.016612604 0.14355774 0.0812878 -0.08041216 0.1075751 0.11727604 0.10258434 -0.06385415 -0.029630298 -0.09637058 0.08602959 -0.041576818 0.073411316 0.054814436 -0.054321736 0.11007814 0.14268178 0.15925522 -0.09841959 0.11831598 0.14388338 -0.007981705 0.037709404 0.06335993 -0.15025385 0.075390644 0.10950167 -0.049350776 -0.08506624 -0.116462894 -0.026692547 -0.104358345 0.08085884 0.01700651 0.14466831 0.16192642 -0.06650395 -0.12108562 0.101064295 -0.057508733 -0.10769918 0.058484968 0.1156321 -0.08635814 0.0066817207 0.10083424 0.023880638 -0.041142058 -0.046592038 0.19533472 0.13225032 0.20129262 -0.1438841 -0.06562623 -0.14474693 -0.057342056 0.026010668 0.0638137 -0.03710828 0.09404924 -0.121688426 -0.09861063 -0.14318527 -0.08805138 -0.09636944 0.09465868 0.13167678 -0.10769885 0.021887362 0.011684845 -0.048324768 -0.13151522 -0.15758918 -0.04858943 -0.06379281 -0.043695316 -0.0314791 0.14040752 -0.0062702345 -0.042449504 -0.13271333 0.0920421 0.09460061 -0.0027500398 0.041928504 -0.10016965 0.13071744 0.04848631 -0.15425505 -0.065715306 0.11816924 -0.019614726 0.021715315 0.0072303507 0.0035419762 -0.14859696 -0.16348976 -0.008409131 -0.042931132 0.13692595 0.13050309 0.076136954 -0.0051059127 -0.01609059 -0.035631344 -0.1371712 -0.008571114 0.09541223 -0.13446102 -0.041103195 -0.07758628 0.05761428 0.0463862 0.1046249 -0.106955044 0.04435831 0.06305664 -0.1418262 -0.14326605 0.06974362 0.039929375 -0.046854537 0.14096679 -0.13561572 0.12699401 0.13196151 -0.10338163 0.04881191 0.05809098 0.078866646 -0.01163626 0.044215973 0.1254185 -0.11947791 0.019005388 -0.07854321 0.043242514 0.10251465 0.014223096 -0.0105348 0.07707606 0.047949377 0.040920064 -0.0042120195 0.07617366 -0.084468715 0.13180543 0.105151504 0.088404514 -0.10059921 -0.058608677 0.13033211 -0.069522716 -0.12161547 -0.1089726 0.01885723 0.094859615 0.080433175 -0.0021003485 0.11396424 0.13532956 -0.05528143 0.040410474 -0.14964844 -0.062461015 0.06389332 -0.060108464 -0.12905394 -0.03740908 -0.03911868 0.12705523 0.0703607 -0.092764266 0.099538416 -0.11904741 0.0009190291 -0.09828614 -0.12596671 -0.07846462 0.09987889 -0.0583947 0.091659725 -0.08930057 -0.04719951 0.14624055 0.019811824 0.11045845 0.09290345 -0.055885382 0.042575747 -0.15132175 0.04456459 0.101670906 0.08909564 -0.0075671077 -0.022369444 -0.047559805 -0.099317834 -0.06494327 -0.017789751 0.07878247 0.084706575 0.053018883 -0.057334177 0.10754113 -0.0031721443 0.11888234 -0.13124734 0.09895028 0.015182734 -0.14240679 -0.0850019 0.062684506 0.0029378831 -0.09550645 0.040709477 -0.097972825 0.05620518 -0.15118876 0.09478298 -0.07887168 0.07077965 -0.037512667 0.02730427 -0.05876775 -0.12656237 0.076145925 -0.13379031 0.14955927 0.07622485 0.1318204 0.026016971 -0.08694717 -0.046899706 -0.12945533 -0.08110129 0.047434345 0.14087479 0.073313735 -0.0182799 -0.08969402 -0.08027776 0.025495442 -0.012302169 -0.10062817 -0.09090535 -0.1016705 0.02419752 -0.06181438 -0.11878986 0.12809569 0.014103636 -0.10784459 -0.058707982 -0.09341147 0.1913821 0.052713294 0.0023514065 -0.08018631 -0.09984487 -0.12618674 0.10599479 -0.01171614 0.20047145 0.009580821 0.15117112 0.00040689093 0.15845458 0.11454224 0.019766258 -0.07940839 0.030858178 0.09088962 0.12349093 0.07692166 0.25171614 -0.097758286 -0.1165116 -0.12331086 -0.08006637 0.12561923 -0.1240511 -0.12812835 -0.061246157 0.17471927 0.10915767 -0.083803006 -0.13512418 0.2176707 0.21117315 0.056030694 0.115569755 -0.05364036 0.050961893 -0.15234248 -0.027679726 -0.06758068 -0.05392895 0.14028262 0.08860685 0.15566717 0.15185286 0.13417979 0.089810476 -0.13807184 -0.09700954 -0.052864224 -0.12367641 -0.12307371 -0.15793894 0.066263214 -0.004017517 0.012537062 0.088490576 -0.00447765 -0.14063492 0.07437141 -0.114288434 0.0456537 0.10782544 -0.112213194 -0.10014156 0.030356243 -0.0795351 0.0049215257 -0.07092739 -0.055663534 0.11600573 0.04875183 -0.021546662 -0.048457943 -0.0455603 -0.1325237 -0.048043042 0.08252217 -0.095225625 -0.11364995 0.046639398 0.049833268 0.026568934 -0.10857863 -0.13435915 0.029684216 -0.1311771 -0.11859891 -0.07067921 -0.1122721 0.03997022 0.13776769 -0.1341789 -0.11933844 0.10970648 0.022360027 -0.089110844 -0.08819414 0.12976475 -0.1028997 -0.07768317 -0.0071689636 0.013586536 -0.12183164 0.12810655 0.14843388 0.12973459 -0.02028118 -0.15187743 -0.08089312 -0.008706063 -0.14005962 -0.062738575 -0.07279795 0.12676041 0.025201157 -0.10325582 -0.14554366 0.23244861 0.18650816 0.2559093 0.0063815354 -0.08684527 0.15033211 0.01746651 0.11938303 0.049692914 0.078741565 0.11142129 0.039565463 0.13725291 0.09915538 -0.063012786 -0.103425674 0.016355677 -0.089848675 0.1293563 -0.113492735 0.2662951 -0.12795343 -0.16218083 0.056347918 0.035430264 -0.14878793 -0.13333744 0.050399307 0.105123214 0.15437292 0.047996305 -0.17113706 0.058478203 0.16909683 0.22333093 0.009495468 0.2695266 0.12381317 0.17270997 0.11760484 -0.07256611 -0.0057817465 0.031157892 -0.0926914 -0.06316044 -0.064928204 -0.09754542 -0.073650405 -0.017871052 0.055801734 0.04747318 0.09365627 0.007905269 -0.09343471 0.05175777 -0.13944867 0.14742407 0.10392923 0.15338926 -0.059063572 -0.0657804 -0.01369655 0.14111388 -0.03348816 -0.059118472 -0.021551192 0.14563909 0.029078841 0.06814933 -0.045783132 0.0044916477 0.013908881 0.12554832 0.11478867 -0.10765928 -0.15407741 0.15662616 0.032241534 -0.06830745 0.14773877 -0.13905112 -0.10719145 -0.031885043 0.12623702 0.044891108 0.078948885 -0.079926245 0.030203313 0.053774353 -0.13012838 -0.023201441 0.1096726 0.17030099 -0.07620878 -0.014627363 -0.008126001 0.12735163 0.13090318 -0.13475227 -0.14596832 0.12304722 0.088362224 -0.021193761 -0.052561387 -0.061970044 0.04137434 -0.019092755 0.088533565 0.10989193 0.06036136 0.04852337 0.12074729 0.069830835 0.042767312 0.07781142 0.12575185 0.15664968 0.061006095 0.16245073 0.033151537 0.016179906 0.03746585 -0.09512275 -0.14124633 -0.12550873 0.16357082 0.11146342 -0.085477196 0.13246186 0.13714676 -0.07766934 -0.09960715 0.15968433 0.03059623 0.1447765 -0.12821028 0.07503572 0.1305608 0.0023512368 -0.10692472 0.13177563 -0.048659775 -0.024893599 -0.06342404 0.152144 -0.024202129 0.12866986 -0.013693037 0.030081712 0.16463672 0.0757635 -0.011943327 -0.13798086 -0.10129042 -0.0993196 0.12105955 0.1308751 0.092737235 0.17587042 0.09597467 0.13069512 0.13667427 0.057642907 -0.15804929 -0.096103676 -0.14955156 -0.15570137 0.088034846 0.033508074 -0.11923315 -0.00323204 0.08579044 -0.15565687 -0.15525383 -0.110061765 0.1345532 0.11042314 0.11137719 -0.019901568 -0.0008780371 0.04212279 -0.083224624 -0.002846637 -0.15638676 -0.108475715 0.019021522 -0.11105497 -0.04419574 -0.1520506 0.14268708 0.021469433 -0.10380648 -0.01028427 0.038949125 -0.0336763 0.09582716 -0.01677824 0.0012324055 0.028908113 0.09369938 0.07345936 0.09088477 0.14730181 0.05443496 0.09079657 0.062966004 -0.021812534 -0.14609128 0.13466932 0.05197507 0.09391348 -0.115208566 -0.0081029665 -0.06713775 0.08664505 -0.034562953 0.14521006 0.053115763 -0.044402517 -0.0045475024 0.16570726 0.13498358 -0.077764355 -0.11112229 0.14927728 -0.07605062 0.076560974 0.14783537 0.07523628 -0.12861091 0.046625715 -0.15077157 -0.11067801 0.089960635 0.0824434 -0.099614374 -0.024851602 0.079588994 -0.11431417 -0.14088427 -0.12640111 0.005049341 -0.10533379 -0.018052131 -0.077077635 -0.045499302 0.012322669 -0.052593607 -0.03207671 0.15798171 0.0813876 0.12638532 0.13863342 -0.13315007 0.052710935 0.013613908 0.045885775 -0.054955833 0.14881094 0.084646255 0.13468477 0.085470214 0.1322329 -0.12545973 -0.14632043 0.12877545 0.047414646 0.016765296 0.02668549 0.022837922 0.044358913 -0.07056323 -0.0173607 -0.043844067 -0.14545456 -0.10633246 0.004022503 -0.056913707 0.12761682 -0.12647276 -0.0023018806 0.0013608906 0.20740879 0.106506415 -0.1585958 -0.07126043 0.10239764 0.008310827 -0.06570055 0.14494069 -0.03259338 0.12291375 0.17249513 -0.10273577 0.037718624 -0.06749267 -0.054250494 0.006559133 0.0050219893 -0.013651208 0.044727895 0.016211545 -0.09049662 0.07319093 -0.019630633 0.033000253 -0.09525661 -0.13706857 -0.12621343 0.0808786 0.13661368 -0.080713525 -0.08827529 0.1319864 0.16926005 0.053361785 0.018256973 0.12182124 0.015751867 -0.071162015 -0.0076676654 -0.04289881 -0.15795429 -0.13176717 0.10715585 -0.02787216 -0.02566339 -0.03894037 0.031737108 -0.11416173 -0.11966763 0.023176454 0.111600436 0.1271244 0.15643717 -0.07481572 0.06693164 0.13746266 0.02618797 -0.12261235 0.034858875 -0.031636696 0.04343416 0.13528109 0.11399557 0.06631818 -0.04422955 -0.010158366 0.003302393 0.013990683 0.024854926 0.08056794 0.061314415 0.04849016 0.013248724 -0.023422603 0.13602813 0.12956865 -0.14042297 -0.15724656 -0.06174627 0.08516143 0.13303672 0.0520896 0.041758418 -0.15078384 0.08115792 -0.02939047 0.11951448 0.074117616 -0.06025429 0.1159163 0.0061987787 -0.024914324 -0.10354203 -0.121154085 0.039179116 0.06408329 0.0015521646 -0.03574977 -0.03324286 -0.13925879 0.14019753 0.08331913 -0.070788756 -0.13559663 0.13458456 -0.023337707 0.024464503 0.0018840134 -0.0831958 -0.15567964 -0.040636376 -0.023792475 -0.14593376 -0.14218535 -0.06316884 -0.056742467 0.10572411 -0.03459955 -0.119544 -0.021472134 -0.0047048875 0.05637927 -0.13225406 -0.15491626 0.063173495 0.15286429 0.015068674 0.050146386 0.05212959 -0.009723156 -0.08408875 0.04994086 -0.061012372 -0.02492409 0.058982473 -0.012462703 0.015104105 0.1442103 -0.12891816 -0.04260438 0.018787289 -0.0142690465 -0.062798336 -0.11891596 -0.07872023 0.08861589 -0.07781296 -0.12415542 0.057098918 0.112392284 0.039732616 0.060965475 -0.0045963204 0.03638965 -0.13156432 0.048868567 -0.05453431 -0.022366151 -0.035139814 -0.14481369 -0.012329991 -0.07411486 -0.057041593 -0.014655898 0.14758232 -0.13495858 0.0046784813 0.0076300055 -0.048856094 0.14096239 0.08875863 -0.032949485 -0.06634891 -0.05483089 0.12546194 0.0063297236 0.040686883 0.061314307 0.053892817 0.066634044 0.037643474 -0.15806985 0.09918811 -0.048853263 -0.08128007 -0.05560427 0.047055006 -0.16246213 0.029782515 0.023864683 0.06216132 0.03161341 0.091142066 -0.06449445 0.029843375 -0.029071517 -0.0059933104 -0.039938256 -0.035453744 -0.14932093 0.091513 -0.030821221 -0.0029401937 -0.04286714 -0.08650743 -0.06885244 -0.13929807 0.08688095 0.05964072 0.0894299 0.078177564 -0.07897904 0.15482171 -0.027859017 0.0074757165 0.0076693636 0.017665869 -0.07550111 -0.07383167 0.13081361 -0.115693964 0.11574997 0.010099175 0.0580363 -0.106230035 0.08743961 -0.07720552 -0.0076211737 0.14818509 0.15642618 -0.04283455 -0.13134427 -0.0698811 -0.08299757 -0.051954992 -0.026893621 0.061024472 0.05635515 0.07715646 0.13697319 -0.13406079 -0.06495874 -0.022239659 -0.082745835 0.006779408 0.03700088 0.071553916 -0.03996197 0.14717512 -0.0035742295 -0.15588905 0.042014264 -0.03799626 0.015694678 -0.101632334 0.051127546 -0.01996813 -0.11537935 -0.020902881 -0.11682525 0.07129797 -0.06729571 -0.091250464 0.066030785 -0.0865088 -0.10654947 0.039664894 0.09164265 0.115151234 0.15023068 0.04041474 0.022433756 0.042308178 -0.0773967 -0.040634118 -0.16109627 -0.10181064 0.084794536 0.19405906 0.19592272 0.15807955 -0.021639474 -0.048394635 0.05290021 -0.0008924321 0.019670649 0.14827491 0.11248694 -0.09176385 0.03912241 0.15302224 -0.11397525 0.020118514 -0.063083 -0.14198922 -0.078905515 -0.054495532 0.06365896 0.21322481 0.038324222 -0.16168599 -0.15461057 0.05176227 -0.016510721 -0.14691898 0.15289995 0.07745996 -0.0013052735 -0.10200611 0.105635755 0.087852895 -0.09428734 0.16039199 -0.07814711 -0.048628245 0.051971525 -0.078464516 -0.05837977 -0.04294844 -0.019658096 -0.068049714 -0.078235306 0.121018365 -0.089970894 -0.15253402 0.040398 -0.13551714 -0.157461 0.081462994 -0.13599834 -0.12282184 -0.15415674 0.116691455 -0.14938214 -0.13615444 -0.097672924 0.12263948 0.11516765 -0.1301269 -0.120726466 0.033880875 -0.15492083 -0.095803246 0.09265432 -0.100444615 -0.09293755 0.12669036 0.058848336 0.10344012 0.059388544 0.026008105 -0.11544191 -0.08487781 0.004705692 0.03912994 0.12339544 -0.15637542 0.025039196 0.123643 0.012467901 0.13031745 -0.05962148 0.09535237 -0.04692242 0.10034834 -0.15476564 -0.070602395 0.10066019 0.108746335 -0.12803349 0.1324209 -0.07053172 -0.130082 -0.16985096 0.052183244 0.06796691 -0.14145662 0.06958105 0.102147564 -0.11058152 0.015471608 0.050518095 -0.03966259 0.09121932 -0.062074993 0.060687218 0.009538288 -0.11639159 0.03852961 0.11919709 0.075438365 -0.05358613 -0.059908055 0.08634549 -0.039454665 -0.059471752 -0.129019 0.11368962 0.15133147 -0.12803987 0.034576237 0.022746801 0.055209517 -0.13765594 -0.14899367 0.11671279 -0.11739054 0.10139255 -0.12732194 0.115503 -0.10236318 -0.1412628 -0.12809835 -0.120773494 0.0039618015 -0.093994565 0.06777109 -0.016581729 -0.02623181 -0.027321428 0.0005043298 0.001467824 0.02535382 -0.01576212 0.040739894 -0.12615712 -0.0035021156 0.008551747 0.13322915 -0.10566883 -0.047172636 0.0058276206 -0.09666988 0.14580326 0.00016929209 -0.08492251 0.08732316 0.10127203 -0.12288155 -0.0034053829 0.15667386 0.07791715 0.049578853 0.0576577 0.10408042 -0.14533739 -0.068905845 -0.08114686 -0.019604504 -0.14530516 -0.011084742 0.10861727 0.046282187 -0.04610398 -0.072648935 -0.07124442 -0.1302365 -0.14679065 0.06019108 -0.04027808 -0.029036544 -0.010117079 0.013580288 0.13999891 -0.0214917 -0.057266545 -0.10735315 0.011823984 -0.07960489 -0.1300115 0.15717778 0.12964642 0.11481423 -0.10634593 0.08754317 -0.08652023 0.10766741 0.011560604 0.023612691 -0.08129268 -0.03373673 -0.064218454 -0.08912645 -0.022615222 0.009975441 -0.051512003 0.035307243 -0.13537201 0.0033896582 -0.13131994 0.024847543 0.12734169 -0.12636648 -0.023435952 0.07457845 -0.0013936354 0.051158167 -0.054300204 0.036985677 0.14021386 -0.015919916 0.107047915 -0.12265054 -0.05341749 -0.06043497 0.05305924 -0.1545126 0.022346826 0.02511896 0.1660121 0.033450328 0.09430064 -0.015438827 -0.06848856 -0.018319359 0.08904041 -0.1108482 0.058422714 0.14705433 0.061738823 0.106285654 0.038403578 -0.056542907 -0.078680746 0.00046141996 -0.14561747 0.11748963 -0.1367011 -0.1101663 -0.076553605 -0.11621092 -0.11200427 0.030231556 -0.08061145 -0.0919954 0.0759696 0.11137215 -0.124324195 0.017662916 -0.069219224 -0.013588373 -0.1051975 0.0056021255 0.008995293 -0.009746261 0.03884605 -0.07508044 -0.11637113 0.066287935 0.10854595 0.013918552 0.0035170228 0.10713907 -0.06620012 0.1073537 -0.10966067 0.050404955 0.029352844 -0.09400901 -0.14562424 0.08641983 -0.062024917 -0.15481554 0.08278289 0.038569484 -0.08029756 -0.06112687 0.15562405 -0.11722896 -0.07786749 0.11142483 0.10569824 0.14987668 -0.03606374 -0.1578681 -0.15250431 -0.07391204 0.06263036 0.009966009 0.033089057 0.10255502 0.024473662 0.031504013 0.03910405 0.090963036 0.07468352 -0.021510156 0.10025074 -0.120993905 0.12513737 -0.057912946 0.13176402 0.06324314 0.06967944 -0.10519359 0.09932574 0.13713107 0.069559336 0.1459923 0.029885247 -0.0037386864 -0.04066857 -0.15641682 0.13767569 -0.04187119 -0.11475009 -0.09636462 -0.108240426 -0.004692599 -0.15106988 -0.08873998 -0.056056753 0.048522532 -0.11185995 0.048407823 -0.0151886195 -0.14433894 0.031112999 0.040094227 0.04340872 -0.101016626 0.1553777 -0.026160762 -0.059927978 0.031448662 0.025860652 -0.0015455484 0.08592756 -0.038442433 0.04401122 -0.10311435 -0.05547376 -0.10638555 0.15213387 0.14363076 0.042338252 -0.08457 -0.13213764 -0.11062866 -0.029505651 -0.027500393 0.08562206 0.14082502 -0.112353176 0.07001161 -0.088387564 -0.079605795 0.09261693 -0.13069609 -0.14228901 -0.076615155 -0.020775413 -0.09463582 0.031214196 -0.12996985 0.027135601 0.012825114 0.014584236 -0.07161103 0.1237223 -0.11979501 0.08364151 0.09349559 0.14127372 0.1363968 0.13284665 0.07269501 0.04389323 -0.121322855 -0.15213695 0.09641 0.008532548 0.121008515 0.051019304 -0.062266536 0.12035851 -0.006627665 0.066468105 -0.0693825 0.065236636 0.1366544 -0.073059924 0.15549475 -0.13013928 0.058533195 -0.1508371 -0.09007992 0.07710436 0.10327923 -0.0995105 0.09563092 0.0002094154 0.06856109 0.05750605 -0.11710833 0.038357615 0.0042266543 -0.0024715571 -0.02617073 -0.11703918 0.07161946 0.15580235 0.098600544 0.029260622 0.02900906 -0.045100033 0.043758277 -0.13092104 -0.08846045 -0.18159904 0.13080615 -0.02419821 0.16078433 0.06790235 0.10918257 -0.13166882 0.16822447 0.03459695 0.12078371 0.046914108 0.07434244 -0.10745873 -0.10520118 -0.09123603 -0.010021997 -0.088228725 0.07207049 -0.101314984 -0.07968883 0.061844364 0.14391452 0.009825554 0.10898139 0.12182808 -0.05740961 0.08863425 0.058160044 0.012731138 0.06259898 0.13382809 0.05800491 0.01347723 -0.048829995 -0.022240257 0.0793359 -0.091390684 0.11555697 0.030992426 0.11055873 -0.23186982 0.022467732 0.0017792762 0.09578979 0.15911995 0.1576098 0.163923 0.038203027 -0.037446484 0.17242984 -0.033922628 0.17511912 -0.03504823 -0.029686708 0.034812566 -0.087642975 -0.09070999 0.07929992 0.101291314 0.064327165 0.00422742 0.1225377 0.09319222 -0.09286217 0.12014612 0.075561896 0.09709399 -0.06733366 -0.043570057 0.22652873 0.101951234 0.0111463815 -0.10759627 0.15137106 0.09390072 0.053224456 0.00453977 -0.045734487 -0.06567902 0.07220363 -0.22336413 0.04250596 0.18437837 -0.080845654 0.1893549 -0.020659719 0.1257735 0.16251698 -0.070374355 
0.09081812 0.019730845 -0.07310157 -0.07063952 -0.032761604 -0.033153538 -0.054377064 -0.08813954 -0.09938364 0.11673214 -0.023112373 -0.13855393 -0.06543397 0.11928727 -0.090177104 -0.09975244 0.04448452 0.0046533896 -0.009657637 0.016999774 0.09585345 0.045795638 -0.1169001 0.0001309617 0.07766109 0.065418966 -0.06016155 0.032109782 -0.013863386 0.116062336 -0.1071181 0.066890724 0.03485656 -0.053889968 0.04845287 -0.095361546 0.07280068 0.12411326 0.14251691 0.16684136 
Rect
Linear 40 40
0.09285258 0.020981714 0.0018905252 0.042321563 0.06427604 -0.098727554 -0.12254751 -0.108709835 0.018316358 -0.011820376 -0.0888421 0.056307375 -0.05370619 0.13483776 -0.10993217 0.14372791 0.11828776 -0.13324349 -0.001990825 -0.053800024 0.114036396 -0.12376395 -0.08261147 0.012752652 -0.06901668 -0.0003786832 0.100952104 -0.019668639 -0.061688654 -0.08813596 0.12682633 -0.091351025 -0.009458929 -0.04364053 0.13733853 0.005774334 -0.13900028 -0.13258481 -0.08741667 -0.083023824 -0.14891571 0.0890771 -0.052800573 0.080550075 0.12766694 -0.027327627 0.14116238 -0.0131055415 -0.12517561 0.0019131303 0.017100766 -0.006318614 -0.060680233 -0.11533668 -0.096777454 -0.057292864 -0.01483956 0.10781996 -0.019726023 0.05012636 0.08848195 -0.05500564 -0.016371995 0.06151752 0.0050637573 -0.10061498 0.09232135 0.078005224 -0.027638555 -0.047327057 -0.13458066 0.078733146 -0.012080789 -0.0065330714 -0.066668786 0.04747218 -0.012129083 0.02702728 -0.12864804 0.026465595 -0.16508283 -0.10781204 -0.028377004 0.14063062 -0.016080514 0.1414969 0.013464153 0.05227129 0.12281807 0.016360931 -0.12891838 -0.07215794 0.13598369 0.04244211 -0.15240324 -0.13201588 -0.033534084 0.13626762 0.04440397 0.08239145 -0.11513593 -0.047988992 -0.003526643 -0.101095416 -0.10212141 0.15857615 -0.10631951 0.14120477 -0.1510286 0.040864866 0.09554921 -0.14043868 -0.014183812 0.05930393 -0.10506449 -0.10346031 -0.022622304 0.0102959415 -0.14460354 0.10301137 -0.17154823 0.08745165 0.0070906817 -0.1512798 0.028231105 -0.061234497 0.15630755 0.07202794 0.07566704 -0.019544087 0.11578638 0.10618915 0.12433271 -0.01433917 0.11894728 0.13547787 0.1406963 0.124933794 -0.117659494 0.0674901 0.037860855 -0.050988298 0.06446865 0.08371797 0.08984841 -0.15168655 0.06510709 -0.14159319 -0.07142667 -0.08270152 -0.016753972 -0.050849937 -0.1677546 -0.016273534 -0.13973403 -0.13139647 -0.06462246 0.08725844 0.1319858 -0.07542325 -0.023488898 -0.07450324 -0.008497669 0.111954115 -0.022079945 -0.13561061 0.049421676 0.08357497 0.044400036 0.13908654 0.022747638 -0.008803755 0.016746 0.049779437 0.093393534 -0.08273173 -0.053557772 -0.06892961 -0.057931475 0.03327619 0.04681296 -0.14089882 0.14403309 -0.08159345 0.0689831 -0.11609121 -0.043156277 -0.09080125 0.04933976 -0.14591782 -0.15145473 -0.06471028 0.14414865 0.1527884 0.06670132 0.010663569 -0.096177205 -0.063872375 -0.0762988 -0.06374715 0.011497975 -0.14462873 0.11556967 -0.036680136 -0.011878744 -0.14472179 0.04002455 -0.0016870004 0.04024303 -0.15930554 0.12309306 0.040169626 -0.10876412 0.21319656 0.07218114 0.021238372 0.09354353 0.022058276 0.18261632 0.014828101 0.04396346 -0.120000646 0.10675286 -0.15046841 -0.012753409 -0.12098304 0.09487975 -0.11778832 0.10758348 -0.008901436 -0.13755839 0.12935042 -0.053493265 -0.10965063 0.03538084 0.08469796 -0.027001057 -0.04563438 0.049989782 0.07571687 0.014087995 -0.05612977 0.08284204 0.09587084 0.1440638 -0.14195871 -0.077682406 -0.005648732 0.021777824 -0.117293805 0.086260006 0.005702615 -0.009731084 -0.10842198 0.119664654 -0.06902976 -0.008280291 -0.066221066 -0.10507958 -0.008819742 -0.07970045 -0.040464222 -0.004524529 -0.11708949 -0.10710478 0.08863284 -0.07820084 0.09341385 0.038529128 -0.15343289 0.021328032 0.14480706 0.11171074 -0.05842922 0.08440401 -0.15153058 0.15703015 -0.05925474 -0.05020493 -0.02665243 -0.058891498 -0.12039291 -0.11898543 -0.037579756 0.107643776 -0.07350085 0.09177617 -0.0042362045 0.06103973 -0.015812337 0.12252467 -0.045576848 0.12952317 0.20565307 0.022522174 0.09331109 0.14018165 -0.062308002 0.012927138 0.117264524 0.17009987 0.10032719 0.08171013 -0.019643404 -0.054339968 0.13310057 0.016933678 0.14273483 0.067991026 0.07570328 -0.04196658 -0.08818827 0.082468174 0.1206385 -0.02390762 -0.050963342 -0.14885443 -0.063652836 0.15113646 0.059426785 0.002014642 -0.062159956 -0.104574144 -0.09676988 -0.039791696 0.037664942 -0.10088243 -0.13986203 -0.039004005 0.12389564 -0.11614661 0.101886705 0.10295339 -0.08105118 -0.11055006 -0.11468996 -0.12540123 0.018111793 0.04992716 0.018008579 0.06428501 -0.06526415 0.10913278 -0.120395534 -0.020664392 0.14645383 0.0354874 -0.14270309 0.11359336 0.066209644 0.12508483 0.035859402 -0.09143987 0.011167278 0.009031352 -0.118808806 -0.12766 -0.09170416 0.103546955 -0.0549144 -0.08747573 0.07788646 0.14379385 -0.08013224 0.057321724 0.026457263 -0.067972116 -0.11499697 -0.12574174 -0.039879408 -0.14591286 -0.010499939 0.122357056 -0.14527075 -0.13262375 -0.10248135 -0.14629352 0.008532315 -0.042301755 -0.14907569 0.14702082 0.0735569 0.025696576 0.14881188 0.07039759 -0.039121956 0.049651634 -0.055769008 0.13119231 0.13227579 -0.024834543 0.07511592 -0.014350892 0.0515714 -0.07992214 0.031429738 -0.05156164 -0.0678845 -0.14242041 0.03523937 -0.107689686 -0.016612545 -0.09581618 -0.08859499 -0.120717585 0.14477834 0.08359207 -0.07641474 -0.00026197731 -0.04288551 -0.064042166 0.040168107 -0.120262034 -0.14713974 -0.07669693 -0.060395956 -0.055013355 -0.10596414 -0.008699075 -0.064778514 -0.027403109 -0.05394911 -0.08852501 0.12655033 0.12038187 0.020704802 0.07672656 0.15721962 0.06449882 0.16889498 0.09558551 -0.1335708 -0.044121105 -0.053500313 -0.06614232 -0.026530415 -0.041260406 -0.03630066 0.0891943 -0.03176048 0.04321372 0.061216906 -0.1137224 0.0766162 -0.010722705 -0.065890454 0.15524656 -0.076235436 -0.12320593 0.06574579 0.1655996 0.15092067 0.034953207 0.154419 0.1082283 0.1035236 0.08486136 -0.06784209 -0.048117466 0.1186015 0.013502948 -0.13338335 0.024732217 0.06528149 -0.07285434 0.14022903 -0.11921407 0.1692103 -0.057805765 -0.02601615 0.115854755 0.04033857 0.093754865 0.036204375 -0.074367985 -0.02322796 -0.022562386 0.16325165 0.07351641 -0.10157516 0.08069922 -0.1218207 -0.09271393 -0.067956336 0.025040388 0.006878704 0.01217328 0.11215879 0.05539526 0.08926056 0.015453368 -0.052669235 0.08034636 -0.09804133 -0.13668753 0.054715514 -0.14934812 0.12655567 0.05493404 -0.041190334 -0.13237005 0.1549833 0.10389556 -0.038075484 0.08853668 -0.13831173 0.09018661 -0.12865664 0.13785212 -0.14814745 0.11752869 -0.0826241 0.024801046 -0.09016708 -0.06542136 -0.15364534 -0.036628455 0.06608604 -0.025372386 0.046269953 0.14913733 -0.08600428 -0.010999862 -0.09460602 0.10026828 -0.14802422 -0.05196911 0.13990505 0.016286358 -0.08883697 0.21352464 0.03883511 -0.015041977 0.047130726 -0.15508197 -0.09922961 0.06767114 -0.037482947 0.17035735 -0.014549017 0.18531223 0.14284343 -0.091134004 0.08055347 -0.108467296 0.047633447 -0.15354362 0.19114988 0.037630714 -0.029084641 0.015955955 -0.0405412 0.0043573086 0.117521085 -0.004596748 -0.11588042 0.027216524 0.0013823046 0.20353399 0.17795622 0.054523215 -0.090001106 0.11240192 -0.077841885 -0.084436774 0.0773568 0.08442469 0.08416797 0.081787586 0.1401198 0.052568734 -0.016119272 0.005708635 -0.14996298 0.06800492 -0.14989282 -0.010455325 0.06937802 -0.015796363 -0.1262944 0.041939408 0.0007608682 0.049844354 -0.035598017 0.11295883 -0.09526542 0.14487828 -0.13205028 0.10527818 0.1441093 0.11352666 0.043234855 0.13040899 -0.06974155 0.032973304 0.12528817 0.06793225 -0.032019958 0.09060815 0.0596959 0.13972858 -0.08083161 0.1308199 -0.087725855 0.029367419 -0.06864956 -0.032253057 0.015340051 -0.051146716 -0.09294225 0.24367762 0.08580761 0.012949854 0.25802726 -0.019133048 -0.0081949 0.18858597 0.17872229 -0.0527757 -0.059935085 0.061912306 -0.06654029 -0.10429748 -0.037387606 -0.11244282 0.113451116 0.09010723 0.087285206 -0.089763865 -0.066396326 0.040589944 0.077305354 -0.08992004 -0.07847805 -0.024892896 -0.0546311 -0.06756762 -0.0462494 0.20248665 0.14787711 0.13829921 -0.08486061 -0.09504257 -0.1359042 0.16113107 -0.032896735 0.06092644 -0.009059049 0.07361388 0.025764162 0.18299086 0.060675114 -0.05293472 0.16933958 0.050230164 0.15496495 -0.0457693 0.11599886 -0.00615005 -0.10900114 -0.011265265 0.103498496 0.02816093 -0.10235034 -0.029549027 -0.023318099 0.004327574 0.13479808 0.06097 0.11319878 0.1402259 0.089357175 0.005557384 0.12508358 0.15352418 -0.14000797 0.09196862 -0.072616294 0.09595121 -0.0058313194 0.044787563 0.043343216 -0.021035824 0.14632845 -0.010901355 -0.04380707 -0.08140972 -0.010937661 0.038398877 -0.07792465 0.06569544 0.12511088 -0.10676961 -0.07240262 -0.023660338 -0.09750435 -0.16307898 0.044892903 0.02256877 0.07686283 -0.17971799 0.0025557058 -0.037014738 0.14784284 -0.015436762 0.09260144 0.09339801 0.06533911 0.08796158 0.12331274 0.1056004 -0.014222203 -0.09278969 0.054889876 -0.03915139 -0.14976783 0.15424176 0.13549733 -0.120025925 -0.1954748 -0.07144002 -0.11668722 0.15794127 -0.02957493 0.031747356 -0.016962811 0.09448959 0.007667169 -0.053048998 0.14527406 -0.04359767 -0.15519571 0.08294624 -0.024931312 0.010235891 -0.04094527 -0.014965847 -0.0006246418 -0.10791024 0.010309994 0.041522324 0.15012808 0.11031534 0.052566946 -0.083846495 0.036317587 -0.14348185 0.12660493 0.05448255 -0.1399784 0.11740132 0.02547817 0.089457184 0.13632567 -0.02217479 0.05141568 0.120858714 -0.023440152 -0.117206804 -0.08381621 0.022330083 0.041497733 -0.06694431 -0.07709831 -0.11575375 -0.053443957 -0.03357571 0.08612354 -0.0146299 0.09555225 -0.0021167952 -0.027005807 -0.13880752 0.20689029 -0.033580247 0.027111495 0.15495086 0.054244272 -0.0028376665 -0.12997754 0.01849834 0.12060535 0.02028954 0.08982421 0.005518914 -0.13736849 -0.09626322 -0.088004 0.09730185 -0.0955443 0.113208935 -0.0025017324 0.055970754 0.14889702 0.048483856 -0.11109681 0.14183055 -0.0812465 -0.028641375 0.034761943 0.031589523 0.043004397 0.09248787 0.10259156 0.0729756 0.12951995 -0.12526087 0.12567043 -0.067011036 -0.1658805 -0.0022000766 0.0005078316 0.07176636 0.22189286 0.02686246 0.095032334 0.18351617 -0.0866592 -0.026895635 -0.13247444 -0.04722626 -0.07729362 -0.04700716 -0.012987244 -0.14764518 -0.12521268 -0.029149769 0.16510178 0.09832015 -0.116616234 -0.004375994 -0.012752296 -0.13991815 -0.10138535 -0.03779092 -0.06133675 0.1120354 0.086303696 -0.01864365 0.11864104 0.039075777 0.10759589 0.043492567 -0.08040332 0.05552517 -0.05738941 -0.13245448 0.10204788 -0.05273536 0.11417865 0.16308351 -0.094837725 -0.07999656 0.066351995 0.078003645 0.07852796 -0.01419636 0.03225346 0.017725645 -0.058396798 -0.08064815 0.02501794 -0.0965026 -0.017234063 -0.12455889 -0.11685431 0.054145873 0.047769133 0.008603946 0.07121584 -0.1361336 0.085327774 -0.042479437 0.019821145 -0.15199637 0.14362796 -0.121604726 0.15145987 0.028631136 0.09569813 0.13131587 0.12242688 0.039655507 -0.08640373 -0.09436948 0.1251638 -0.11601092 -0.13527809 0.117057964 0.14883552 0.009446873 0.1416818 0.08878638 -0.07613259 -0.0528275 0.06664559 0.012770998 -0.08827519 0.16235778 -0.1578534 -0.013680082 0.14884706 -0.07937595 -0.1580093 -0.009057948 -0.022619165 -0.14367238 0.1014499 0.112598225 0.1412578 0.028676495 0.06372167 -0.07926189 0.0730435 0.07046396 -0.0046672225 0.048579294 0.045540117 -0.13891274 -0.1378023 0.081903026 0.015378401 -0.0036192387 0.06571816 0.118379876 -0.09700047 -0.0637397 -0.038671367 -0.04001522 0.012577876 -0.08108804 -0.070936605 0.12996681 -0.029918075 -0.082796305 0.021464705 0.14532448 -0.03986565 0.11691202 0.0076450706 0.01237382 0.08769268 0.09289159 -0.057026193 0.059799746 0.12840836 0.11690347 -0.024645314 -0.05718136 0.0014883876 -0.053469777 0.007456541 -0.0838873 0.041258425 0.015441075 -0.061072543 0.113139704 0.07298328 0.060670197 -0.110329404 -0.108710915 -0.08393388 0.06467596 0.06705112 -0.082302876 -0.014594589 0.10336505 -0.046069123 0.035827175 0.124730684 -0.1523504 -0.13102633 -0.13611375 0.14870252 0.100433424 -0.049112275 0.025199262 0.08775576 -0.028300019 0.026443241 -0.13315557 -0.10176283 -0.026855081 0.042964846 0.0103537105 0.09570215 -0.010087179 -0.0512768 0.114675574 0.070415206 0.03706515 0.018451087 -0.074791886 -0.14968678 0.004379923 -0.040434375 -0.04001291 -0.037531182 -0.026869737 -0.1562677 -0.019050285 -0.1222188 0.07868363 0.10761793 -0.11593169 -0.08336814 -0.061497755 0.07785626 0.13678573 -0.14787148 0.08375989 0.10379465 0.12605436 0.015398547 0.011555776 0.113686785 -0.07458152 -0.124570325 -0.017170414 0.06137672 -0.024022996 -0.12958738 -0.09290034 0.06941049 0.15622245 0.10466139 0.019629538 0.06818633 0.09336294 -0.046865754 0.1518629 0.0730831 -0.089663975 0.088735 -0.045582525 -0.1254568 -0.13710155 0.03014198 -0.0076033026 -0.03688672 0.087130666 0.14031024 0.12964457 0.15722133 0.046371695 -0.0028713392 -0.0142164305 -0.0059021353 0.049165532 -0.018311122 0.15305984 0.11088352 0.1239223 0.11759453 -0.1579761 0.054838426 -0.10870198 0.009660053 -0.037548494 -0.11167167 0.11915773 0.019718863 0.028643355 -0.10867156 0.14563033 0.10739103 0.10911026 -0.08245786 0.11042041 -0.07463073 -0.027289525 -0.07166396 0.09600628 0.061293636 0.049970806 0.03824842 0.10613996 -0.08832377 0.05311096 -0.02853067 0.027745709 0.11423381 0.13555075 -0.06265005 0.09826945 -0.12229239 -0.089503616 0.07645173 0.10405399 -0.15775365 0.12414314 -0.15066655 0.017282173 -0.056610905 -0.15709351 0.0059060156 -0.020532236 0.13951658 0.058993354 0.08581275 -0.11114063 0.0635519 -0.14719214 0.023944095 -0.033500828 0.05031532 0.010992184 -0.031318754 0.046427935 -0.1494451 0.07618816 -0.09892801 0.1577156 0.11136077 -0.052147828 0.07369983 -0.080612145 -0.13956681 -0.04560069 0.09251101 0.045584444 0.006195925 -0.123224884 -0.008581281 0.07086165 0.0926051 -0.02824164 0.037868507 0.09722032 -0.10104336 0.08969195 0.08650726 0.04135129 0.041445136 0.13946344 0.07446389 0.10885908 -0.07747558 0.15433139 -0.067755535 -0.13964008 0.15669571 0.0040638 0.137197 -0.104594424 -0.093078524 -0.04923899 -0.0681573 0.11411764 0.14756164 -0.0625879 -0.015080771 -0.10052367 -0.13543624 -0.119857535 -0.06343173 0.07990725 -0.072314076 -0.021258693 0.042001843 0.16019435 0.043053057 0.07363519 -0.0006924846 -0.09028969 0.15881953 -0.10265754 -0.078758776 0.12050949 0.14261466 -0.030663596 0.086008355 -0.046230234 -0.13880992 -0.0015580646 0.12185034 -0.008654544 -0.11455997 -0.069375806 -0.13246417 -0.10721746 0.126531 -0.109907255 -0.124738194 0.085236676 0.12119095 0.04314157 -0.06722443 0.0047213277 -0.1108498 0.076775104 0.12364115 0.09178179 -0.06624804 0.15006948 0.035619393 0.09486065 0.1034892 -0.020456044 -0.12733778 0.11037298 -0.054027244 0.051815666 -0.12104453 0.13678339 -0.030475346 0.09348147 0.10601219 -0.15098831 -0.0061216177 0.059656102 -0.15541491 -0.11414187 0.12820075 0.08408541 -0.09586913 0.015792428 0.059228465 0.04604991 -0.1574302 -0.056474805 0.03723459 -0.025988981 -0.12961389 -0.13129313 0.12048432 0.019113412 0.11578695 0.074366294 0.094005376 0.075258 0.098772705 0.07105325 0.13263692 -0.11888793 -0.053044774 0.13027747 -0.06504822 -0.037217606 0.07489405 0.079099 -0.047914814 0.095132224 -0.051295556 0.09947192 0.15603198 -0.020986218 0.052283783 -0.09425112 0.03085265 -0.03984624 -0.13030763 -0.1021938 0.1362265 -0.08180326 0.13959336 0.05009433 -0.06443501 -0.05199105 -0.07147148 -0.07734576 0.106954366 -0.0356114 0.095072374 0.0079189725 0.12179008 -0.09046122 0.105877794 -0.14056242 0.09312394 0.028025046 -0.023065247 -0.14280365 -0.007684024 -0.0585208 -0.02539657 0.14928696 0.033189397 -0.1364554 0.09970912 -0.10180349 -0.038279403 0.11772911 0.09705991 -0.0874095 0.06551383 -0.15491368 -0.064704776 0.118710205 0.07935622 -0.100230046 0.040894717 0.04758133 -0.06857171 -0.15253143 -0.021114945 0.12332547 -0.07637131 0.11352359 0.002211484 -0.017639937 0.09557938 0.15419532 0.1226255 0.05358233 0.11444601 0.14448358 -0.09274564 -0.092699796 -0.03760494 -0.12471842 -0.13504213 0.078028545 -0.10651814 0.16565005 -0.07605202 0.03784351 0.06585706 -0.1535606 0.14495149 -0.033649072 -0.0024468154 -0.1368483 -0.050720207 -0.07482424 0.058785453 -0.047618024 0.029261649 -0.03072463 0.01096414 -0.11307629 -0.042554937 0.0714367 0.014194325 0.040501237 -0.12882265 -0.02787055 -0.13156317 -0.15651171 -0.0005142689 -0.15627114 -0.08048885 0.113813326 0.12765633 -0.02282983 0.019926071 0.021765381 -0.013288543 0.15484516 -0.07647647 -0.14378901 0.084738895 0.15691279 0.014890239 -0.13242544 -0.10724309 -0.06216929 -0.074499436 0.004555717 -0.0037249029 0.1560382 -0.0605264 0.04357563 -0.04238927 0.027753184 0.06824217 -0.15056989 0.027478836 0.116771296 0.04998717 -0.09215533 -0.12555178 0.10051681 -0.045854397 0.044603556 0.1550153 0.15784864 -0.046137363 0.031556323 -0.045014698 0.15025572 -0.11883765 0.050158486 -0.012648491 -0.08385394 -0.10486838 -0.04530732 0.028987464 0.08289126 -0.0067133303 0.13144998 0.089660905 0.06814247 0.0028600723 -0.14882796 0.021242917 0.1106712 -0.06631371 -0.122422546 0.12806334 0.030954909 0.1378661 0.033935677 -0.110050894 0.237547 -0.018864969 -0.08275652 -0.0023608492 -0.012802944 -0.07781597 0.24771985 -0.14963697 0.12158619 0.17168145 -0.13317378 -0.066946745 0.009665079 0.09292777 0.08560329 0.025582941 0.063125975 0.039036933 -0.10983279 0.03860328 0.07409175 -0.12644774 -0.14372222 0.15592456 -0.013877727 0.09964053 0.058055043 0.01668206 -0.04039652 0.05209411 0.09402591 -0.11027846 0.08212628 0.16751194 0.18610667 0.12964521 -0.15112494 0.05917639 -0.087709166 -0.11322652 -0.15914221 0.0881571 0.05561086 0.092925146 -0.02821514 -0.0037425666 -0.16227525 0.09381105 0.12709884 -0.1360475 -0.14395529 -0.06744959 0.14815298 -0.0028312 0.079386294 0.06985255 0.005539159 0.1208831 -0.012035251 -0.075672224 0.09937631 -0.14403918 0.13249399 0.09121929 0.10298813 -0.1321124 0.015554473 0.054930396 0.07713838 0.13198726 0.11795631 -0.034526847 0.118463285 0.02349936 0.10819286 0.08442117 0.018422987 -0.068170354 0.063133135 -0.07534979 0.032319184 -0.13117667 0.071864255 0.0016519119 -0.07102222 0.021998072 0.16581488 0.078073665 -0.05313755 0.22128601 -0.10288425 -0.010784391 -0.011472575 -0.057784885 -0.051716506 0.14771023 0.022281371 -0.12422337 0.13901205 -0.038743842 0.05534697 0.12288334 0.011208054 0.19059424 -0.13361233 0.14668639 -0.01570578 -0.12557286 -0.04659226 0.10557062 0.024376249 0.006593615 -0.033143945 0.10022198 -0.06675397 -0.035050757 -0.06312537 0.060675398 -0.07206345 -0.059443668 0.02301845 -0.07767388 0.10501973 0.12022777 0.0813193 -0.056288965 0.01966025 -0.042516246 -0.011170343 -0.093985595 0.0607848 0.009423211 -0.11505436 0.050780326 -0.065057546 -0.0019048452 0.0077985525 -0.14439692 0.007960707 0.14725675 -0.15039068 0.10173826 -0.10398386 0.15305503 0.105341986 -0.030062944 -0.060509197 0.015304238 -0.14330733 0.09078632 -0.01660961 0.038862437 -0.10732444 -0.15433599 0.05485323 -0.02789256 -0.06746444 -0.10351983 0.10813631 0.0025057658 0.13740698 -0.030068105 -0.0741594 0.09225926 0.15622143 -0.09553343 0.20884863 0.13622741 0.12866701 0.27709258 -0.096701376 0.048300613 -0.05403202 -0.015391436 0.13975684 -0.08936498 0.047930792 -0.07079373 -0.15794651 0.045191523 0.17447272 0.0029075465 0.051542196 -0.10308223 -0.14347507 0.018495915 -0.019303292 0.017467264 -0.067769475 -0.04479492 -0.09181806 0.115019396 0.031094298 0.13935019 0.14398092 0.17609279 
-0.077317886 -0.106249034 0.06086288 -0.07680068 0.12455563 0.18016805 0.03296541 -0.036777887 0.17583716 0.01801399 0.14068419 -0.05465553 -0.10709848 0.0651046 -0.10558379 0.16962749 -0.04785484 0.13041079 -0.04408206 0.14274648 0.09515567 0.07146015 0.108726814 -0.15567712 0.050409455 -0.058105677 -0.052566644 -0.09899165 -0.12852632 0.13087472 0.12061484 -0.13762325 0.11780175 -0.12850468 0.14327525 0.16220276 0.075765215 0.09264427 -0.1245465 0.028932743 
Rect
Linear 40 2
-0.10650276 0.0033567697 0.10323734 0.11175521 0.098727725 -0.20581503 0.12637025 -0.13710819 0.058816344 0.1224202 0.15662132 -0.01379505 0.02591215 -0.19371708 0.049769893 -0.0025769626 -0.2304862 0.11082942 0.030534238 0.078881234 -0.1319406 -0.2214814 0.021171141 -0.030218616 0.053393885 -0.07143625 -0.10047731 -0.068651944 0.08294552 0.16955423 -0.018817917 -0.11172499 0.059566204 0.015966967 -0.16737574 -0.16594073 0.14596379 -0.20430759 0.09762533 -0.14350103 0.073184446 -0.020911917 -0.056135517 -0.1358407 0.021539524 0.023330374 0.08268437 0.12193421 -0.036408126 0.07654752 -0.1988229 0.17343895 0.027704313 0.16609849 0.047794312 0.23555942 -0.01616094 -0.17947656 -0.10702477 0.16482154 0.11141365 -0.059055503 -0.0026303336 0.080517575 0.026372587 0.05316718 0.022441518 -0.004203111 0.07593428 -0.012651311 0.06894848 -0.061055373 -0.16304767 0.13472976 -0.11444065 0.16788793 -0.0030485177 -0.0040915315 -0.10013257 0.26572508 
0.09396879 -0.044879425 
