Linear 17 30
0.07210766 -0.22846636 -0.075516984 -0.07536943 0.022454448 0.40048155 -0.21913664 -0.1404718 -0.16497454 0.269026 0.05599258 0.08555765 0.21642445 -0.08166186 0.25567886 -0.17955497 -0.124122865 0.056692332 0.29955488 0.10844151 0.09656347 -0.03404697 0.09600905 0.08827368 0.20146585 -0.15767528 0.17471248 0.04870799 0.26789767 0.2723273 0.16949755 0.13399746 -0.15728863 -0.017962545 0.21901315 0.11316502 0.113366194 0.10284782 0.059615433 0.008897417 -0.06555931 -0.17543218 -0.029460508 0.27191615 -0.26376903 -0.07089247 0.23217754 0.08763324 -0.28717077 0.08432756 0.09899206 0.2268662 0.3179427 0.08152829 -0.07308 0.119452044 -0.03057079 0.04339163 0.19282717 -0.033258196 -0.15840949 -0.22468385 -0.08868547 0.15278661 -0.16945551 -0.24966003 -0.13118376 0.08763521 0.09543586 -0.20066643 -0.066250466 0.26137945 -0.09252602 0.011950585 -0.19844982 0.045993466 -0.031666297 0.12956709 -0.012441689 -0.09156156 -0.14239424 -0.06420639 0.054387543 -0.15841396 0.1379034 -0.08728159 0.20182915 0.054319307 -0.058627337 -0.025408825 -0.14460002 -0.19690965 0.18166511 -0.1728545 0.22446363 -0.16936928 -0.09778608 0.2160437 -0.20196448 0.01537454 0.24118072 -0.22636719 -0.13533936 -0.074115574 -0.14495008 -0.0020075792 -0.25541252 -0.121095195 -0.13362224 0.19992638 0.16656908 0.1330014 -0.2640588 -0.105837956 0.18360873 0.24088195 0.035374008 -0.09767522 0.20121562 -0.14435403 -0.23136589 0.1393049 -0.15631124 -0.18724912 -0.2352749 -0.11647673 0.1312367 -0.013032893 0.13344449 0.26284313 0.21935537 0.21713617 0.14488125 0.10802014 0.12738091 0.13821578 0.12115297 -0.032993924 0.16082555 -0.29095003 0.25554278 0.30105573 -0.11577871 0.10028079 0.13528584 0.03781229 -0.1284275 -0.007116615 0.18592726 -0.004079784 0.027802888 -0.06733578 -0.10763544 0.15124963 -0.14530762 0.14302121 -0.20148647 -0.21897121 0.33117524 -0.013375028 0.0015295421 0.1429173 0.11863018 0.25671905 -0.16884948 0.20117886 -0.14140034 0.082610846 0.21720211 0.18400835 -0.079610154 -0.30555272 0.24682342 0.07620262 0.1637727 0.38296098 0.2873993 -0.22638553 0.21591587 -0.2391178 0.0754249 0.1445373 -0.21126406 0.13240011 0.019167501 -0.04008449 -0.100532465 0.044450477 -0.027587244 -0.09507329 0.016580475 -0.029275877 0.09152481 0.046334304 0.13417207 0.16605027 0.2103249 0.01294129 -0.19395521 0.015703727 0.18936472 -0.15337966 -0.14809999 0.15376061 -0.012278437 -0.21255368 -0.107948214 -0.20129657 0.146705 -0.12607709 -0.13125281 -0.09619771 -0.14809564 0.01099797 0.065213315 -0.009958599 -0.21022312 0.05351866 -0.19662078 -0.040713087 -0.14495821 0.1611666 -0.10493539 0.051736362 -0.08044416 -0.034236986 0.22811079 -0.03744492 -0.18385783 0.13242505 -0.118059665 -0.12712164 -0.23048131 0.085300826 -0.0077364296 -0.17012829 -0.14782536 -0.088880606 0.103142686 -0.14014025 -0.2411574 -0.13301988 0.04770761 0.20285942 0.074857794 0.17223306 0.050644964 -0.22907338 0.027052632 -0.09540673 0.15037006 -0.12888421 0.15249917 -0.20028833 0.098406576 0.022396931 0.22948988 0.055427294 0.18700302 0.07989574 -0.2981936 0.16965824 -0.16809455 -0.1837091 0.030359657 -0.006108385 0.15642661 0.23002902 -0.0065420694 -0.059338696 -0.03443193 0.238177 -0.1283919 0.18101431 -0.16874537 -0.043272108 -0.017359298 -0.06789634 -0.12390915 -0.22831582 0.110769734 0.033406753 0.020944344 -0.1297943 0.19456159 0.20992437 -0.09424626 -0.22583361 0.12375004 -0.23064585 0.076255724 -0.16923694 -0.175068 -0.13233608 0.11968156 0.06365882 0.05939779 0.21778661 -0.04488143 0.09981458 0.13584843 0.16153827 -0.23600587 -0.13378523 -0.23834701 -0.07363668 0.1488285 -0.08550737 -0.18892613 -0.02878914 0.0009494242 -0.15079597 0.0040636817 0.23118843 -0.22874902 -0.08530331 -0.12712775 -0.04815485 0.16758898 -0.069996215 -0.17693691 0.119260296 0.1857121 -0.0612299 -0.0870888 0.059553538 0.033377524 -0.102239795 -0.10890936 0.19157849 -0.2082866 -0.14251766 -0.06144219 0.19785506 -0.13266413 -0.022930464 0.10939094 0.13258241 0.07856667 -0.07410663 -0.11936771 -0.08654227 -0.08822358 -0.058715794 -0.036926974 0.005073194 -0.20065528 -0.1231869 0.07099888 -0.11886723 0.08697896 0.14910755 0.17137344 -0.17791946 0.03388871 0.017804433 -0.17278858 -0.103862226 0.0074095502 0.17509666 0.07962914 0.22503659 -0.031473797 0.18997286 0.21137086 0.040971316 0.07492366 -0.22806197 0.0020857903 0.22936703 0.02828412 -0.321945 -0.008395402 -0.10388587 -0.15756162 0.16362037 0.05002011 0.18725985 -0.030779997 0.053704944 -0.037101835 0.19514525 -0.17655699 -0.029970959 -0.1433887 0.038815096 0.16023074 0.12383076 -0.08861247 0.040617198 -0.2443862 0.20757292 -0.074430354 -0.02256785 0.11562312 -0.35558745 0.04800133 -0.08693362 -0.091332406 0.086281866 0.062032048 -0.15743104 0.24384074 0.110293925 0.112620145 -0.1892686 0.04827918 0.039442714 0.20073369 -0.16576634 0.03473938 -0.0010944342 -0.20547536 0.1097656 0.20233028 0.10644726 0.1280094 -0.0065997415 0.016324654 0.04341017 -0.07186292 -0.20300134 -0.19291312 0.14268239 -0.1111987 0.14556266 0.11549732 0.103026934 -0.061059207 0.21226427 -0.030348206 -0.09001011 0.034826722 0.14373186 0.11495916 -0.0033458536 0.11519776 -0.16850471 0.10889268 -0.10013412 -0.1459474 -0.1689342 -0.14852169 -0.03429082 0.052789275 -0.115524635 -0.25016424 0.22618426 0.21222207 -0.12755904 0.18843262 -0.19058312 -0.15511754 0.23747353 0.004015187 -0.059717264 -0.08081501 -0.1147686 -0.09463163 0.2327112 -0.050394967 -0.24236768 0.018496905 -0.10725758 -0.037796263 0.06327453 0.11009452 0.07068634 0.27084646 -0.2801772 -0.18581465 0.16860782 0.17235339 -0.2997363 -0.117296375 0.15581556 -0.23873673 -0.016610954 -0.2287893 0.01563723 -0.22429387 0.04384371 0.17976226 -0.0011556695 -0.06248951 0.0026180483 0.08510633 0.22639216 -0.1421869 0.13823289 -0.20597388 0.23236927 -0.114384234 -0.031881195 0.17853051 0.13616644 -0.117824584 -0.011259143 -0.20086788 -0.009557566 -0.21969688 -0.17400247 0.14519762 -0.074328646 -0.10651016 -0.033228505 -0.23809156 0.22167462 -0.0031039868 -0.031418536 
-0.046069488 0.1535452 -0.18857475 0.14402774 -0.16962409 -0.055863053 -0.11933944 -0.13957804 -0.037364956 -0.1735431 -0.08137875 -0.22766995 0.05958834 -0.18786074 -0.017405564 -0.03236174 -0.16138887 -0.16709991 0.03011262 0.22392495 -0.08408987 0.21061184 0.11464145 -0.19324976 0.08599983 -0.23975217 -0.1432948 0.23341832 0.2200579 -0.13160227 
Rect
Linear 30 30
0.027136447 -0.17558554 -0.10238809 0.012562488 -0.17085579 -0.06491028 -0.09049069 -0.13201362 0.117141396 -0.11866624 0.20725851 0.030196581 0.061446525 -0.13130726 0.001177437 0.14908773 -0.096885785 -0.07113651 -0.081535935 -0.024310539 0.104532205 0.105239004 -0.06325247 0.1234283 -0.16391085 -0.039642844 -0.027181007 -0.017950468 0.0014301164 0.06453052 0.06096208 -0.15681553 0.07556638 0.01824443 0.117483616 -0.024267837 -0.16658472 0.051320896 -0.07484144 -0.11655513 -0.032881707 0.14472851 -0.1495837 -0.07315769 -0.1736813 -0.030241176 0.049057707 0.090529025 -0.056199998 0.13354748 0.08113149 0.10536525 -0.093443304 0.12522241 -0.046652704 0.13654044 0.13048479 -0.15881854 0.020459235 0.021395609 -0.10624498 0.14016512 0.12293231 -0.11123232 0.15162753 0.07305736 0.10380657 0.0188863 -0.029904537 -0.17289965 -0.0743307 0.011713598 0.07025861 -0.042843606 0.098286085 0.07396756 0.0043890863 -0.06369181 0.22990951 -0.061299987 -0.06409663 -0.011049667 0.19826634 -0.07755675 -0.104577444 -0.02588828 0.04617133 0.12829989 -0.07537005 -0.09094959 0.04564957 -0.16691536 0.03886259 0.04576871 -0.1403294 0.11759712 -0.16219184 -0.10411412 -0.18063441 0.16380651 0.08437495 0.020905726 -0.16935223 0.102463454 -0.09590717 -0.154046 -0.10061108 0.027503014 -0.16840975 0.1730643 0.049479883 0.18089661 -0.006141611 0.07931582 0.08735807 0.121539734 0.078438155 -0.1455964 0.1502587 -0.1312385 -0.2058783 -0.03455736 0.09386044 0.18890792 -0.052882954 0.04457694 0.010376069 0.10253427 -0.024128987 -0.2540899 -0.29926112 0.09981532 -0.005355482 0.16355176 -0.03563573 0.23327923 0.1912534 -0.16760938 0.24937476 -0.24560279 -0.12532103 0.19963782 0.18598892 0.10604775 0.15470846 0.12994155 0.17453137 0.055091817 0.14940691 0.113484435 0.077805825 -0.003067046 0.094867654 0.049837567 0.08513975 0.06933063 0.14816383 0.18499058 0.12908207 -0.017998481 -0.09829754 -0.103132755 0.099834844 -0.11611774 -0.020513296 0.03369936 0.086814925 0.018860705 0.14152507 -0.1672233 0.044297513 0.10866978 -0.10523575 0.09803283 0.15831314 -0.06070268 -0.13960382 -0.03357939 0.16387415 0.086954646 -0.045364615 -0.102079436 0.015436056 -0.15991992 0.048720166 -0.14973933 -0.04913889 0.029464737 -0.10904817 0.15536349 0.050959546 0.0629126 0.09805405 0.18054742 0.013115853 -0.04105814 0.01147078 0.136547 -0.14385334 -0.03415255 0.08261847 0.15032996 0.07213411 -0.02029691 0.022739958 -0.05659677 0.17818373 0.006189255 0.08498923 -0.09616744 0.21550724 0.18846959 -0.18291023 -0.13191459 0.17216447 0.0011202081 -0.16326079 -0.010085323 0.15478729 0.02327367 0.035104286 -0.027687276 -0.16248275 -0.14624193 -0.1596661 0.125583 -0.18356338 -0.17965388 -0.017791325 -0.025992822 0.025658779 -0.17015727 -0.040565632 0.13538262 0.036591858 -0.14746508 -0.0740143 -0.15025577 -0.12817295 -0.17051274 0.013218372 -0.098370306 0.14018053 0.021651028 0.12268756 -0.17866616 -0.15487199 0.07583313 -0.14131643 -0.17145813 -0.16480912 0.040340498 0.00022787454 -0.01191892 -0.14638764 0.08379093 0.108591065 0.1500954 0.1658693 0.16481286 0.057971284 0.036604885 -0.050552692 0.027904324 0.13964008 -0.010802812 -0.021616034 -0.014126319 0.14337143 -0.088020526 -0.09663635 0.14651239 0.11834485 -0.086158685 -0.107610956 -0.14842583 -0.06511476 -0.051017795 -0.068114765 -0.004337219 -0.0945139 0.1341387 -0.14252315 0.10703722 -0.14684655 0.022122273 -0.17671464 0.1493519 0.026115377 -0.080128394 -0.14482222 -0.18572028 -0.1479697 0.08054516 0.084371395 -0.119823314 0.061994642 -0.09476279 -0.036124635 -0.135369 0.12564777 -0.085587725 0.032456417 -0.040926307 0.026594538 -0.052414272 -0.17459911 -0.08678819 -0.08735032 -0.10580803 -0.0010170649 0.1614671 -0.016947458 -0.12252321 -0.050469473 -0.098860025 0.10794523 -0.14938822 0.14849564 -0.05491164 0.10059297 0.09044059 0.13393934 0.03267691 -0.10039692 0.08237259 0.017525738 0.042602718 -0.014902874 0.094726354 0.009937432 -0.11774481 0.0037731691 0.02760505 0.035679054 0.10843747 -0.09095802 -0.004670353 0.18722434 0.1896454 -0.17709261 0.007565585 0.0030772132 0.1168016 -0.04399665 0.15626045 0.0282582 0.14375663 0.0797155 -0.08568012 -0.055094343 -0.15252683 -0.046675045 -0.1391169 -0.035345092 0.11632863 0.10534713 0.13803881 0.056059267 -0.16544989 0.23057865 0.14965925 -0.005804402 0.08443203 -0.015844407 -0.004350283 0.12751363 0.055808123 0.20913792 0.20910484 0.046400435 -0.16527526 0.1415685 -0.071799 -0.061314397 -0.2042103 -0.1032853 0.15117456 0.023438608 0.1349359 0.14466958 0.089257136 -0.08602987 0.045714047 0.012138251 0.13751757 0.12941967 -0.15600272 0.15705088 -0.06319038 -0.101149224 -0.031091075 0.059176963 0.16543138 -0.10333113 -0.08245312 -0.1478017 0.14499891 -0.046068728 -0.13042545 -0.12804039 0.18225765 -0.09715886 0.14735411 -0.059970766 0.15319802 -0.16214633 -0.03807465 0.10603772 -0.042053435 0.04239556 0.11319509 0.04507928 0.18263094 0.1319698 -0.02030202 0.17739893 0.009434493 0.1295576 -0.15983126 -0.14095522 -0.12226467 -0.07284791 0.12529528 0.010424972 -0.13079743 0.1229468 0.06848392 0.09325713 0.020743981 0.07120243 -0.1021792 0.10686803 0.028189018 0.075653285 -0.020407394 0.11795628 -0.09964546 -0.0528768 0.010073498 0.07212448 -0.10235212 0.17959225 0.05970104 -0.16376483 0.012884885 0.011493772 -0.07889878 0.089271426 0.027080044 -0.05549797 0.11324084 0.1943164 0.1403672 0.09833293 -0.10859354 0.100980975 0.14541323 -0.04573295 -0.2381736 -0.20883945 -0.038338885 0.08770725 -0.07976915 -0.0785103 -0.09108798 0.18739799 -0.08975738 0.20526311 0.12610064 -0.11031173 -0.043280106 -0.10020889 0.06821274 -0.10077454 0.077749886 0.028022766 0.19133396 -0.106995635 0.13143381 0.058565218 -0.026452623 0.20707443 0.07559899 -0.057494406 0.12116876 -0.1301842 -0.14474095 -0.17197485 -0.043515995 -0.05023495 0.16176145 -0.18274814 -0.049145646 -0.13588342 0.18526004 0.17423724 0.17886038 0.114390515 0.028091205 -0.029962813 0.076026194 -0.0016993716 0.21833141 0.0547431 -0.0035961005 0.13072032 0.13853963 0.067093015 -0.03474353 -0.14209779 0.09325662 0.037338678 0.009348151 -0.16430847 -0.1602475 -0.06617856 0.16569918 -0.05137265 -0.014823949 -0.0424028 -0.119445436 0.031701162 -0.024132371 0.17891568 0.007463292 -0.17492612 0.12777233 -0.07071482 0.06832633 0.1068871 -0.16887526 0.060402762 -0.11661869 -0.04977127 -0.044847716 -0.007916307 -0.028911838 -0.02697483 0.16094995 -0.17231576 0.11840105 0.05701392 0.16046424 -0.07679894 0.04253015 -0.07979905 0.020599524 0.14220436 0.000109843415 -0.01679395 0.059509534 0.101521336 0.14484076 -0.030123295 0.0037095617 0.11648605 -0.044108678 0.031139674 0.0015445992 -0.0970653 -0.060729597 -0.0691183 0.13701421 -0.10943484 0.11628466 -0.15453786 0.15516354 -0.16924465 -0.05463311 -0.019006684 0.097284794 -0.18830705 -0.19426998 0.04539801 -0.0033681614 -0.18370466 0.07794025 -0.025348917 0.09215541 0.28296614 -0.03203529 0.042276204 0.16207133 0.0030924343 0.02708734 0.019491348 -0.10561099 -0.21472722 0.028447023 0.11406804 0.11773525 -0.13542026 0.018001879 0.12940805 0.21745475 0.073527984 -0.14296 -0.061116297 0.022776924 0.03524387 0.18735476 -0.04634991 0.14567384 -0.14128646 0.09915986 0.12737654 -0.05948743 -0.12804605 -0.12398547 0.07105929 0.025930494 -0.07163594 -0.1442938 -0.20945126 0.030949311 -0.032747917 0.11319806 0.06844971 0.021456154 0.15802068 -0.12318408 0.1726215 0.13108414 -0.054024592 -0.13319506 -0.10171247 0.210496 -0.08300493 -0.0543886 -0.04711255 0.03596016 0.05887568 -0.052749492 0.18350387 0.14303236 -0.082215875 -0.12565176 -0.16769639 -0.027699184 -0.1774569 0.16614151 0.058317713 0.02234335 0.011063731 0.036210652 -0.110129215 -0.170185 0.15870737 0.12011034 0.10873547 0.21461491 -0.16060217 -0.12137651 0.11527199 0.17942685 0.05467526 0.15232545 0.08841655 0.06640713 -0.045970317 -0.1357963 -0.041150946 0.11449905 -0.0070493356 -0.14739527 0.0076337326 0.099090755 0.04195435 -0.15422809 -0.089463845 0.07180742 0.08572965 -0.10044364 -0.13060004 -0.017961714 -0.15554073 0.09865497 0.009651377 0.12580802 0.0048107076 0.09932095 0.02394877 -0.090009734 0.10477446 -0.13074806 -0.042589054 0.08306638 0.058242623 -0.11086388 -0.08690565 0.1362941 0.15806006 0.09167958 0.19300866 0.13268557 0.010090231 -0.14287585 -0.076724485 -0.04709425 -0.24649426 0.13364172 -0.17958346 0.15621325 -0.13177073 0.08207206 -0.13639422 0.084862866 0.13942103 0.014380842 0.09782376 0.09165939 0.17536308 0.12081325 0.05985119 -0.06859424 -0.101670206 -0.0916882 0.032487936 0.15334563 0.20775783 0.20758146 0.12009975 -0.17116837 -0.10414169 0.10897003 -0.029039565 -0.14043601 0.070050426 -0.032398127 0.24591842 0.0036274637 -0.16607541 0.0748471 0.09359597 0.07671994 -0.1741261 0.10210062 -0.16672467 0.062207088 0.1186447 0.014662943 -0.1544163 -0.20017403 0.16348562 0.2010169 -0.033513073 0.036115065 0.11642234 -0.15460145 0.05908963 -0.12382445 -0.12640661 0.05617307 0.17482227 0.08791947 -0.017380327 0.16753533 -0.030323982 0.07176712 -0.025151238 -0.08144069 -0.17868133 0.1566562 -0.058924504 -0.0828088 0.01631537 -0.0046732873 -0.05830846 0.07374197 0.13958427 -0.15432882 0.08517492 -0.0913604 -0.037721246 0.075422466 -0.12244287 -0.1681564 -0.046380147 0.081171185 -0.18289824 0.028715711 -0.05872628 -0.059410263 0.08683431 0.20898157 -0.15199298 -0.03431175 0.18644957 0.07873391 -0.17089362 -0.014092052 -0.1758576 0.1279205 0.04586569 0.14501719 -0.017627489 0.0484964 -0.13350672 -0.15872142 0.17233008 0.11214081 -0.08351761 -0.045578886 0.0006799862 -0.0003424306 -0.09963494 -0.04152094 -0.07885882 -0.09646109 -0.26675707 0.13987793 0.0073121414 0.16129924 0.050268326 0.15451181 0.22010256 0.0073990477 -0.106521584 -0.037769645 -0.25045943 -0.094393075 -0.031324986 -0.1575325 -0.1595717 0.12906517 0.03477345 0.07268817 -0.06766137 0.01938574 -0.10416488 0.115803175 0.08331157 0.19798435 0.1254927 0.110799305 0.06779532 0.0997687 -0.15918852 0.043675836 -0.1493713 0.087721474 -0.014685899 -0.10269969 0.0013683859 -0.10639944 0.092608675 -0.13304171 -0.03835294 0.0644781 -0.04027285 0.09358883 0.05425965 0.09817937 0.004415208 -0.17001028 -0.13244754 -0.1471939 0.14267223 -0.047831144 0.009665558 -0.10565233 -0.10123728 0.08537814 -0.022602804 0.059942707 0.14464463 0.03218968 -0.04720006 0.13460343 -0.027550455 0.15656838 -0.031120494 -0.04275507 0.087356515 -0.123071685 0.10183107 -0.0939262 -0.115453064 -0.07488432 -0.09221551 0.18182108 -0.14092354 0.08346689 -0.06861618 0.115168944 0.010980034 0.15800683 -0.099037275 -0.0925296 0.082286805 0.17003493 -0.14714743 0.067362495 0.09291126 -0.058978997 -0.04403964 0.1874674 0.010674637 -0.04073393 
0.036993433 -0.16231081 0.13745682 -0.14041814 0.09424411 -0.026755271 -0.13224518 0.14679778 0.049283005 -0.011004145 -0.036794346 -0.14781855 0.09527095 -0.031569704 -0.11003173 0.08807677 0.06215008 -0.10491306 -0.052908104 0.16035278 -0.067569934 -0.08818674 -0.023366947 0.051337168 -0.029481884 -0.12013516 -0.06357269 0.04469492 0.16774416 -0.110366315 
Rect
Linear 30 30
-0.08830569 -0.1703357 0.16790468 -0.058241 0.30877435 0.024919813 -0.07726476 -0.21982646 -0.07979695 -0.17612295 -0.12583429 -0.14257784 -0.04041291 0.045106847 0.0012279153 0.09174113 0.17362887 0.0657169 0.15515935 -0.14518845 0.22683358 0.11270593 -0.0004902041 -0.09426 -0.116325535 -0.01944092 0.10803193 0.07086494 -0.17348735 0.13629061 -0.13342206 -0.1668595 0.10706195 0.056955613 0.1376216 0.16196379 -0.17351083 -0.031085547 0.10683737 0.03688753 -0.18076494 0.14767575 0.028414806 0.039349053 -0.06286776 -0.071061686 0.0343265 -0.15783364 -0.071520194 -0.040907163 -0.02488492 -0.16312587 0.100232266 -0.035698723 -0.11219444 0.109763265 0.1290051 -0.0561506 -0.17595644 -0.11658235 0.15315118 -0.021295354 0.13881636 -0.11749373 -0.21402548 -0.012597485 -0.13329202 -0.09749703 -0.031496085 -0.03816521 -0.084270775 0.17819613 0.14948232 0.022566421 -0.045287415 -0.10649757 0.120762385 0.04745123 -0.098702356 0.13980225 0.10256199 0.094263315 -0.0138807595 -0.1624623 0.22687395 0.17412642 -0.077294424 -0.18385825 -0.082272746 0.14529012 0.044920143 0.0747616 0.0008360512 0.07126618 -0.219568 -0.10573033 -0.087450266 0.08582998 -0.17411833 0.121987306 -0.090076 -0.07110267 -0.028249344 -0.10696603 -0.04459314 0.09964591 0.06262066 0.10035167 -0.053306766 0.031092267 -0.11019802 -0.08172315 -0.16684654 -0.1611659 0.19321448 -0.099275485 -0.19503476 -0.11623621 0.09005025 -0.07691521 -0.11070188 -0.023697972 0.0547035 0.07911317 0.20070869 -0.0054759146 0.13353355 0.073961124 -0.13341667 0.03573353 -0.16294022 -0.068385914 -0.019552952 0.11559367 -0.17528622 0.1691129 0.0012990062 -0.04922975 -0.0022196497 0.071733035 -0.050979026 0.094623595 -0.0366546 -0.14656195 0.002542902 -0.12484497 -0.12434 -0.0106508965 0.16954826 -0.14515118 -0.106997184 0.05559747 0.13454404 -0.08601119 0.036404792 -0.17234564 -0.004198646 -0.059815284 -0.038659062 0.058643136 0.025112817 0.17198825 0.2072017 0.16659579 -0.1779409 0.0790303 0.09274756 0.020125734 0.07227333 -0.15401882 0.016485423 0.018377312 -0.1749045 -0.15768375 0.13504855 0.118362695 -0.056982007 -0.119018085 -0.026172737 -0.0449122 -0.08940611 -0.11197646 0.046286844 0.020529076 0.06490209 0.03844221 -0.16466242 0.08076933 -0.017587442 -0.045461286 0.06390149 0.12002489 -0.055131186 -0.12537955 -0.10249766 0.071257636 -0.15009317 0.016914383 -0.08155086 -0.080203794 0.13012521 0.00521653 -0.0001890888 0.06976034 0.09400014 0.078730196 0.111188956 0.065585785 0.11938973 0.15609868 0.13713089 0.061684757 -0.16470765 0.11439416 0.017210618 0.15262139 -0.018504977 -0.03726019 0.12339011 0.066773936 -0.05895195 0.019124612 0.082069695 -0.16501164 -0.15938468 -0.113070935 -0.020835862 0.13198584 -0.043125033 -0.012208432 -0.04265271 -0.049034223 -0.16067529 -0.12298803 -0.08079885 -0.13270003 0.07957488 0.14902127 -0.093707286 -0.17084394 -0.0037767065 0.069082856 0.048156418 0.12853526 -0.05515958 -0.050138358 0.12616831 0.16315459 -0.14427091 0.12257661 -0.042484984 0.009383128 0.15413783 0.0016666896 -0.16433296 -0.108635 0.059689533 0.16892971 0.15287638 0.11261116 0.12458644 -0.12071583 0.14991398 -0.090732545 0.23387834 0.053325817 -0.16650154 -0.16712105 0.034003276 0.14628471 0.07659489 0.099265784 -0.18103053 0.04685718 -0.08397103 -0.07798006 -0.048430696 0.14120507 -0.049880072 0.0040379167 -0.007256314 0.015775204 0.11855775 -0.028140813 -0.10735213 0.12722847 -0.1621562 -0.08981605 -0.058931537 -0.13741298 -0.15088956 0.0058151186 -0.14025754 0.10259634 -0.060990877 -0.082809545 -0.10970148 0.14063644 0.12887287 -0.029842973 -0.06499977 0.18187174 -0.10975369 -0.15884991 -0.11135156 0.052584156 -0.15706962 0.06679582 -0.040640254 0.034126554 0.09486306 -0.018651022 -0.057817232 -0.09347263 0.15635502 -0.011500857 0.101724245 0.064526446 0.115823 -0.060100995 0.09678062 -0.17037414 0.14438523 0.023580851 -0.11045589 -0.07612076 -0.09001531 0.064380854 0.077975705 0.09306461 0.03955007 -0.11446208 0.14170611 0.039571807 0.042778343 -0.0044534146 0.1627568 -0.013404239 0.11139924 -0.019634765 0.14221548 0.18077151 0.0032203365 0.125589 0.10313451 0.014649204 0.00909977 -0.06713707 -0.08358143 -0.12637737 0.034997553 0.07523774 -0.1590668 0.097442605 -0.044270493 -0.115140654 -0.07146451 0.043574754 -0.006437892 -0.06383807 -0.13415194 -0.05081992 -0.13390149 -0.16958782 0.069140196 0.07766503 0.04580526 -0.079102956 -0.0826457 0.07312113 -0.101089865 0.12945554 0.09399465 -0.1295827 -0.027574912 -0.015844345 -0.120478556 -0.0620327 -0.08586894 0.00081823766 -0.16470958 0.09605959 0.05805379 0.027330965 -0.1822983 -0.08279159 0.03242542 -0.026851103 -0.17864868 0.1047346 -0.03581107 0.049147815 0.17039579 -0.0132342065 0.10615532 0.0839159 0.03669255 -0.014610779 0.13443917 -0.13376962 -0.14758128 0.11160008 0.15468428 -0.005533408 0.07636595 0.060148567 0.1217076 -0.11640624 0.11383402 -0.06514157 0.05814706 0.14587139 -0.14968158 -0.060053933 -0.050081957 -0.14052026 0.009719027 -0.05986735 -0.16613746 0.108407326 -0.06735411 -0.13376465 -0.18462078 -0.04086923 0.07783002 -0.17274745 0.17912099 -0.15125068 0.13290718 -0.0058705583 -0.17131408 -0.100780785 0.14946207 0.13415103 0.027461216 -0.013265875 0.07739147 0.0855304 0.13206083 -0.101721905 -0.08674767 -0.050753195 0.12166727 0.059269566 0.047804493 0.13649121 0.16675067 0.14268954 -0.06808857 -0.061809752 0.14766718 0.18250239 0.031621393 -0.02261202 0.009962997 -0.11050478 -0.08483608 -0.028719185 0.050631076 0.12608007 0.0018261012 0.049643926 -0.14220485 0.16653687 0.049251348 -0.11720614 0.19776352 0.17677338 0.10020408 -0.21553425 0.05239493 0.064584054 0.17284626 -0.08304387 -0.19053638 0.0969283 0.09190247 1.1929232e-05 0.03670042 0.18018825 0.08046159 0.10569587 -0.007796064 0.0991565 -0.1498309 -0.0886819 -0.120762154 0.0031509101 -0.10953511 -0.004688233 0.008088291 0.14026862 -0.13027447 0.12894446 -0.058754355 0.15967736 -0.02071634 0.12403074 -0.17424619 -0.077869534 0.045237914 0.007300958 -0.02198936 0.14095157 -0.0906764 0.13052186 0.013393849 -0.102984115 0.05665432 0.071332306 0.051105857 -0.015515029 0.14388992 -0.0063749803 0.12063427 -0.08447149 -0.065787576 0.053997044 0.05479814 -0.14288877 -0.048047025 -0.07440817 0.03864456 0.19481951 0.025272936 0.22733922 0.20726249 -0.15548196 -0.0020449962 -0.039353613 -0.038107045 0.080806 0.070590295 0.20841965 -0.062276866 -0.13385193 0.16469768 0.029826976 0.03545155 0.14606683 -0.096431315 -0.059342623 0.07900048 0.074802354 0.3922036 0.22415718 -0.157482 -0.15229142 -0.07666958 -0.082775824 0.06913794 -0.08851331 -0.19401468 0.019479452 0.11489749 0.22505999 0.07367492 0.16441484 0.08786703 -0.27181193 0.19335438 0.1154877 -0.064191245 0.23297597 -0.0773347 -0.13209707 0.13636027 0.32243314 0.057521734 0.11003851 0.030511133 0.031041652 0.06835 -0.07866277 0.103728466 0.060734715 -0.08564207 -0.14331909 -0.16151397 -0.013636701 0.019785149 -0.09947284 -0.12919477 -0.11437753 -0.1571516 0.11647174 -0.06976875 -0.18189718 -0.11600083 -0.17349342 -0.051635236 0.0086515425 0.07336971 -0.07983752 -0.017243925 0.1407046 0.16002934 -0.1859352 -0.17392208 0.04594285 -0.07247555 -0.017344013 -0.17418405 0.17255339 0.036787022 0.15935043 0.109140575 0.02526544 -0.013659775 0.061041612 -0.036321234 -0.035368383 -0.049462322 -0.08872061 -0.12405443 -0.017649295 -0.0684056 -0.040950134 -0.094718754 -0.11632544 -0.1505529 0.050322115 -0.065747276 0.026540067 0.05695648 0.16176838 0.10337142 -0.04465617 0.08528366 -0.0871734 0.10382211 -0.08890788 0.12142502 0.051090777 -0.1467682 -0.057795964 -0.06673158 -0.160703 -0.057471044 0.025327682 0.102910906 0.013445735 0.17406958 0.15598606 0.020464674 0.15625754 -0.0044689327 0.06480436 -0.041635744 0.057337232 0.05501138 -0.12160862 -0.05104541 0.009342477 -0.022710344 -0.17646813 0.022003377 0.0962652 -0.15866552 0.009534187 -0.08627776 -0.09891341 0.17816786 -0.17726453 -0.029139685 -0.03827649 -0.017725954 -0.2052953 0.16673698 0.007825814 -0.14451467 -0.1633565 -0.19250207 -0.07999105 -0.09803584 -0.006392343 0.069398075 -0.03943602 -0.060403217 -0.005789725 -0.113516055 0.0075273337 -0.0112392595 0.003690151 -0.05067712 0.04733473 0.12029775 0.22595547 -0.120338954 0.08826718 0.18112674 -0.13821694 -0.04409285 0.10308346 -0.018503726 -0.15508589 0.062228292 -0.020440564 0.086966366 -0.12476411 0.1273998 0.08461133 -0.132471 0.029747114 0.021872386 -0.081157416 -0.1649429 -0.068819605 0.1314626 -0.1552748 -0.09190068 -0.052034706 -0.07860479 0.060130388 -0.1528464 0.06844139 -0.073299244 -0.15592903 0.13210264 0.0715878 -0.16423982 -0.14057587 0.20102644 0.13448031 -0.088334136 -0.034173116 0.16364765 0.07204495 0.12248572 -0.07938051 0.12870152 0.11417645 -0.06652001 0.018415442 0.053038716 0.03450889 0.113684796 -0.004916732 0.10675467 -0.22825855 0.033430412 0.034882084 0.15143071 0.13273837 -0.124656156 0.18087325 0.018677663 -0.009753031 -0.11649249 0.042731 0.12823871 -0.163327 0.18546975 0.060044706 0.25845125 0.20720647 -0.13759097 0.044325702 0.1442595 0.12820955 -0.060353708 0.106395505 -0.10671085 0.20660701 0.17378804 0.1813079 0.1691605 -0.08499621 -0.0917511 -0.054560233 0.16813993 -0.097749166 -0.13083088 0.053954523 -0.060931813 0.008767024 -0.074608326 0.1769737 0.033739153 -0.04016557 -0.16976686 -0.1773872 -0.038377892 0.024500497 0.06143534 -0.05627335 -0.05471965 0.008647712 -0.13812783 -0.14612898 -0.107737005 -0.017576143 0.034999855 -0.16917306 0.16518483 0.07829879 -0.116123706 0.1162124 0.1416523 -0.18991938 0.19376454 -0.05494074 -0.12247641 0.19754146 0.06542192 -0.12124095 -0.15362588 -0.024454577 0.010522109 0.047475066 0.15588877 -0.16510995 -0.15096214 0.06554206 -0.13543297 -0.015904136 -0.13402216 0.09029808 -0.16597919 0.092176646 -0.1614938 0.13967702 0.13862376 0.0051107537 0.17752793 0.11654584 0.11972523 0.008128272 -0.14608164 0.12269496 -0.101294644 0.10286216 -0.16660716 0.006726391 0.12573513 0.006905958 -0.023829944 -0.07529358 0.16438739 -0.057529945 0.10610015 -0.119688116 -0.12796673 -0.05718574 -0.05083386 -0.03309721 -0.12625274 0.075089686 -0.17064014 0.13573699 0.075704 0.07641548 -0.08865085 0.024098245 0.12462896 -0.0060396707 0.09802784 0.103624165 -0.0377985 -0.18150365 -0.09780324 0.16310555 -0.15053608 -0.14475945 -0.003206908 -0.07578306 0.07517129 -0.02533542 -0.13480195 -0.13057879 -0.06042698 0.001298368 -0.045071244 0.08955318 -0.17413951 -0.08596179 -0.028396636 -0.0012343377 0.08927438 -0.12675598 -0.02118449 0.068611324 -0.0081226975 0.06929529 0.15527445 -0.06363457 -0.16484524 -0.15488018 0.09810677 -0.18122084 -0.013985768 0.0032401532 -0.14404163 -0.16749786 -0.02063322 0.18201742 0.00930351 -0.08750524 0.17983288 -0.08645556 
0.055748392 0.03413227 0.18454227 0.24647884 0.14471447 -0.056743853 -0.17205027 -0.0743636 0.022508826 -0.081059806 -0.0019451771 -0.16464972 -0.16937898 0.06369274 -0.09324853 0.17849228 -0.1443249 0.08265249 0.09238599 0.013778799 0.024445677 -0.11195628 0.118751414 -0.1266465 0.17143722 -0.0899029 0.070998 -0.06454112 0.079225585 -0.15583187 
Rect
Linear 30 30
0.13825129 0.14085966 -0.06520266 -0.17316581 0.089561604 0.13815449 -0.044531997 -0.0256975 -0.21241209 -0.17053145 0.019526228 0.123789735 -0.13360856 0.038106564 -0.16567029 0.1816135 0.09365708 -0.07561646 0.253452 -0.12187569 0.16342583 0.12354847 0.09997357 -0.17855592 -0.04204847 0.16523129 -0.15287732 0.08511074 -0.07377876 -0.13342585 -0.03826122 0.010431234 0.19630006 -0.061615516 -0.13729939 -0.059302248 0.035004746 -0.08135885 -0.010618268 -0.06374692 0.07463095 0.023992326 0.16003251 0.12430367 -0.15849197 0.029864157 -0.15989046 -0.16570012 -0.10738542 0.16955513 0.016393218 -0.13126554 -0.1799589 0.13761935 0.13560933 -0.12765123 0.13252336 0.082803324 -0.0966406 0.055900738 0.014887153 -0.048371587 -0.03973419 0.13406725 0.07885934 0.079246126 0.053333685 0.12474659 -0.04141101 -0.0025042742 0.1549249 0.10930022 0.045318604 -0.094447665 -0.046306286 0.037855413 -0.112828106 0.0895375 -0.0952218 -0.1283275 0.065605834 -0.09027358 -0.17989004 0.11448893 -0.07016447 -0.07133993 -0.08534664 -0.10163489 -0.12262142 -0.07982908 -0.1796381 -0.03490479 0.1286037 -0.043633766 -0.16166283 0.06644746 -0.1004576 0.049936637 0.050655626 0.040109083 -0.00802118 -0.057190787 -0.14163204 0.13411574 0.08529344 -0.00069592864 0.1557472 0.16403699 -0.21132825 0.08411425 0.16772524 -0.010177578 -0.18892235 -0.06640972 0.0089036655 -0.07986214 0.09202034 0.08819882 -0.17519064 0.024632916 0.028821198 0.116551094 0.023433572 0.09938389 0.037357103 -0.121373884 -0.1416221 -0.06227409 0.0007727742 -0.10659296 -0.16172336 0.15635848 0.020517394 0.07035335 -0.09275881 0.03005657 -0.01440151 0.09558472 -0.06687655 0.1625621 0.009481654 0.0076378323 0.12802963 -0.0059188455 0.05306037 -0.0128487805 0.14089099 -0.17749989 0.17604554 -0.107514076 0.14791252 0.05861205 -0.12906942 -0.15626824 0.020723114 0.07311049 -0.12503976 0.11631733 -0.083344355 0.14431268 0.028079083 -0.15694423 0.029273868 -0.067700945 0.04798028 -0.08404972 0.15995228 -0.14374067 0.10480767 -0.18243882 0.13220543 -0.12561822 0.021597253 -0.046496645 -0.20747688 0.12868592 0.033395365 0.101530254 -0.0873659 -0.056445092 0.10397255 -0.12892589 -0.028962594 -0.05604414 0.017876057 -0.11926087 0.021320064 0.078245044 -0.09281479 -0.1811134 0.14075173 0.1354408 -0.059685633 0.008164412 0.011378641 0.1696839 0.16195837 0.24077468 0.32838538 -0.0922912 0.109411 0.087887235 0.27240527 -0.07064865 0.15570174 0.27185985 0.11370466 -0.044539023 -0.046678282 -0.03347203 0.21415646 -0.041360077 -0.23832397 -0.10642534 -0.15003431 -0.14423762 0.15727028 -0.114920765 0.044009686 -0.10980366 -0.15872224 0.005359162 0.093851596 0.027876548 0.10810819 0.06123923 -0.13004851 0.17886022 0.19125357 -0.093151286 -0.018824454 0.06390557 0.008126404 -0.008193016 0.09712831 0.14077537 0.11861259 -0.059551917 0.05544989 0.043063775 -0.070058264 0.028033465 0.006273344 -0.13431543 -0.16406468 0.15914857 -0.08345467 0.13356236 0.036697313 0.10342759 -0.024789289 -0.03852403 -0.06760747 -0.17344806 -0.00064364076 0.15382871 0.03670837 -0.060925014 -0.11560147 -0.042935297 -0.07583875 0.111698985 0.08249879 0.047169283 0.02678144 0.0064932704 -0.096174754 -0.022142723 0.11658481 -0.023270339 0.062919736 -0.025356337 0.07950452 -0.15163295 0.09483883 0.034708977 0.08791077 0.14746708 -0.005078122 0.124931395 0.06886783 -0.07214496 -0.1288679 0.15412107 0.07984209 0.053378865 0.020315126 -0.06292675 0.062351763 -0.09698681 -0.006781891 0.029549822 0.0127605945 0.10939461 -0.139771 -0.16221352 -0.137256 -0.16269304 -0.1760815 -0.0666522 0.09184624 0.1370217 -0.13748346 -0.1822417 -0.03174785 0.12917897 -0.13497885 0.048416868 -0.16062109 -0.117451005 -0.047221772 0.15163966 -0.016391665 0.115737535 0.15920395 0.08694087 0.042436644 0.19949394 0.34322274 -0.05527737 0.085021324 0.03254265 0.20987949 0.1528889 0.091733985 -0.015013338 0.017454265 -0.0049647307 -0.07747316 -0.0047855377 0.2976763 0.14785926 -0.11829147 -0.25786123 0.10570684 -0.17164406 -0.05185983 -0.034053087 -0.16316749 -0.023668632 0.07320361 0.15328878 0.053641036 0.094888665 -0.11087164 0.025445655 -0.09351388 -0.011442998 0.251991 -0.0108524095 0.053187672 -0.15385059 -0.09382756 -0.028260738 0.04293103 0.02467817 0.108541295 0.089144155 -0.12233998 -0.019704193 0.011693324 0.03035203 -0.06112623 0.12376593 0.108681746 0.054987263 0.005755998 -0.07693061 0.17406377 -0.05907329 0.0764317 0.111916535 -0.048318908 -0.16106492 0.14396338 0.013906623 0.16374183 -0.16531083 -0.12751333 -0.13586873 0.18046328 -0.18211634 0.06523908 0.061344877 -0.06387298 0.070806295 -0.14391467 0.10412577 0.0066897017 0.033102885 -0.0060458034 -0.008512378 -0.009890571 0.17011106 -0.10226837 0.1247268 -0.17691153 -0.17192774 -0.17793438 -0.08121586 0.15827563 0.03580399 0.016937315 -0.0077189207 -0.073389634 0.00974302 -0.063789904 -0.09453837 -0.092733584 0.028085679 0.09673405 -0.07752983 -0.095696 0.013066575 0.038825646 -0.010598853 0.12865949 0.013375595 0.056900382 -0.112683415 -0.031461015 0.008043602 -0.1713797 -0.102028325 -0.011141092 -0.026744112 -0.15372592 -0.14956602 -0.07947563 0.008147538 0.013961032 0.12882325 0.074988335 0.09712219 0.05216928 -0.083133355 -0.06798519 -0.1768162 -0.03675759 0.1755847 -0.12973101 -0.113865994 0.14251697 0.071599334 0.11384091 0.03339629 -0.015249059 0.08394027 0.15210584 0.12757114 -0.024524182 0.17165264 -0.1397947 0.17703515 -0.12158532 0.12876368 0.14896663 -0.0062934607 0.07823013 -0.054489896 -0.039465167 -0.13935119 0.026500061 0.073776565 -0.0028447001 -0.12051704 -0.134001 0.060377527 -0.09892795 -0.00078586943 0.08505086 -0.090083174 0.026584826 -0.14592278 -0.006956606 0.046373814 -0.07612131 -0.010459792 0.09929542 -0.09123592 -0.15397395 -0.09906781 -0.12251975 -0.17243098 0.03634955 0.07152623 -0.10920248 -0.17648117 -0.099233 0.09645459 0.070859134 0.05623558 -0.13643801 0.14058167 -0.10130833 -0.040730923 -0.103171945 -0.03400846 -0.023558497 0.042749465 0.124316186 0.110400826 0.08312294 0.14123526 0.053240046 0.175179 -0.11421399 0.08711931 0.1675542 0.039071858 -0.17813809 0.16928583 -0.06844012 -0.12659486 -0.18233018 0.17647815 0.15501332 -0.14401549 -0.030366972 -0.07084862 -0.13431709 -0.10584247 -0.16120866 0.0433342 -0.028365806 0.04110816 -0.12709552 0.062358797 0.15908688 -0.032515958 -0.052033663 -0.15908907 0.050158754 -0.09089614 -0.11223269 -0.16064343 0.12507129 -0.052334577 0.15415284 -0.12364987 0.026775599 -0.1608271 0.11015859 0.023358054 -0.059143808 -0.15937868 0.07323168 0.045329437 0.06317631 -0.02813591 0.07433234 -0.045495003 0.007442102 -0.103258215 0.15896751 -0.13267878 0.11244351 0.07691422 -0.06039038 -0.14433931 0.18162116 -0.050044112 0.057978347 -0.044181034 0.07793139 -0.16740741 0.15059851 -0.08139285 -0.14443101 -0.039393052 -0.175021 -0.08246762 -0.121069945 0.12536615 -0.022607699 -0.035308465 0.10725704 -0.048174277 -0.045991063 -0.1761063 0.15335217 0.15883383 0.018456846 0.12657568 0.04394737 0.105069995 0.06792468 -0.12255588 0.16578001 -0.13932446 -0.00094880164 -0.14273271 -0.07726505 0.07764506 0.062483385 -0.15526661 0.08707628 -0.019384757 0.155074 0.06612927 0.09937659 -0.16285792 -0.013265088 0.09237605 0.047262907 0.094813675 0.00034594536 -0.12373088 -0.0060818642 0.17941797 0.065665156 0.0132416785 -0.123185694 -0.15886527 -0.1177465 -0.03506957 -0.026016414 -0.12251868 0.052153423 -0.036688134 -0.10224273 -0.11690391 0.088642 0.080823004 0.025121659 0.0021336824 -0.17869586 -0.09218412 -0.046247557 0.08540204 0.115262926 0.16264868 0.05476713 -0.17972486 -0.084485 0.021580592 0.16453886 0.13753268 -0.06198395 0.11053932 -0.08273694 -0.1281034 0.029214308 0.0077299774 -0.15952957 -0.06415378 -0.16306548 0.07466003 -0.14525896 -0.019283965 0.15810841 -0.1459375 0.10836595 0.1405046 0.16339627 -0.02889119 -0.18149719 0.1735375 -0.01562959 -0.16462526 0.01448676 -0.007482171 -0.026824221 -0.13624135 0.12956357 -0.12842783 0.11484411 -0.0496625 -0.115143895 0.034637913 -0.030043289 -0.15025268 0.055925816 0.05003898 0.15604025 -0.062543534 0.15034565 -0.1037378 -0.13429625 0.15537122 0.054046616 0.07702169 -0.10245611 -0.11997336 -0.17160991 0.17982933 0.10334319 0.12727457 0.16510835 -0.07112949 -0.0396225 0.043435752 0.011969104 0.098167896 0.05467026 0.049059093 -0.07733313 0.056548476 -0.0677287 0.1414943 0.15313974 -0.048208803 0.055226475 -0.09068513 -0.12274447 -0.18098138 0.12894446 -0.023274556 -0.15634197 0.1697444 -0.020542026 -0.04813519 0.16742465 0.05883716 -0.123728916 -0.18201831 0.0529854 -0.13685845 0.015984982 0.09066546 -0.1518126 0.0618203 0.14831692 0.101112425 -0.08541034 0.053011045 -0.044065595 -0.05933381 -0.08484394 0.12297216 -0.1409057 -0.078935996 0.11582366 0.06922093 0.15245622 -0.1796958 0.1821891 -0.013398796 0.09907955 0.08508232 -0.085129164 0.013922304 0.096153915 0.07248518 0.08812508 0.01940824 0.16413262 -0.16384389 0.1480444 0.012248784 -0.1937716 -0.09147442 -0.14662693 0.12022582 0.13893771 0.0607449 0.028104255 0.1024932 -0.016843555 0.020692065 -0.070646375 -0.010245853 -0.096294396 0.12979347 -0.091196634 -0.023670603 -0.09470027 -0.023055134 -0.016487941 -0.029807765 0.11061155 0.14744198 0.08923998 0.025942415 0.03354201 -0.17912689 -0.014902977 0.061122958 0.008937059 0.14391628 0.18743895 0.152562 -0.030290315 -0.17059484 -0.11875498 0.02146362 -0.049439214 0.105544984 -0.040427294 0.05155188 -0.16813298 0.16335957 0.07861611 0.0047988803 0.1587981 -0.12696514 0.1646215 0.138941 -0.007495942 -0.007279248 -0.17267556 -0.030352402 -0.0881915 -0.086141914 0.033340733 0.079426065 -0.07205854 -0.06679242 -0.123718776 0.0014617443 -0.05104046 0.12632602 -0.10191249 0.1426714 0.07209961 -0.10337749 -0.15612024 0.041537106 -0.006167875 0.12767398 0.086086616 -0.07486019 0.18116498 -0.059860256 0.068408735 -0.0077354605 0.10870761 0.077215835 0.059404228 -0.13377017 0.16676143 -0.14181523 0.035539605 -0.019886568 -0.09529895 0.068882406 -0.09473692 0.1442847 0.14780878 -0.13346466 0.07114685 -0.059232984 0.20063375 -0.012936602 0.12733655 0.06754572 0.062233564 0.17835048 -0.0500355 -0.10238542 -0.016596874 0.14587784 0.037188366 0.0029211573 -0.10653607 0.023118576 -0.020246312 -0.0125867985 -0.19633862 -0.06002069 -0.09102331 0.14356378 -0.16728228 0.1307657 -0.10020933 -0.12935586 0.08210468 0.10280585 -0.12921366 0.12521377 -0.15570599 0.10783142 0.08739331 0.13887268 -0.011323616 -0.010880679 -0.08398465 -0.019771859 -0.13793534 -0.16409542 -0.06991149 0.033071756 0.009863913 0.02058956 0.018396586 -0.09835129 0.03616233 -0.017831102 -0.07434938 -0.07835628 0.021903902 0.026611045 -0.12086177 0.13586125 0.13387161 0.03108117 -0.07729626 -0.1291421 -0.14163835 0.17340425 
0.07807423 0.16919522 0.14712265 0.1877064 -0.16426872 -0.04922573 0.1887224 0.21334979 -0.08979215 -0.114451654 0.12399561 0.097668886 0.21605985 -0.16211073 0.011527672 0.10302658 -0.06487952 -0.14332741 0.14192331 -0.15233262 -0.16474615 -0.06564304 -0.0912813 -0.093002856 -0.17649539 0.12558188 0.08378102 -0.07169396 0.15100563 -0.12368411 
Rect
Linear 30 2
-0.3433328 0.17401837 0.12380566 0.09268528 0.11828189 0.08566375 -0.28520042 -0.051039822 -0.102339774 -0.16563745 -0.1978047 -0.18010592 0.12744744 0.027458012 0.16017002 0.17927574 0.12446311 0.052203014 0.14929244 0.059309736 -0.110327885 0.096808374 0.019671917 -0.17726156 0.062335834 0.15226655 -0.12780792 0.03579054 0.16294667 -0.08830102 0.026589131 -0.16592048 0.046707675 -0.28912675 0.057686847 -0.08656414 0.24473503 0.21731865 0.18250147 -0.079737194 0.23194785 0.35278076 -0.13024911 0.12635651 2.7611852e-05 0.018114174 0.13346815 0.066413775 -0.033026427 0.049870566 -0.09068511 0.02571106 0.027246192 -0.057134137 -0.12679361 -0.04291719 0.014480182 -0.01601338 -0.05840516 -0.1370445 
-0.061879195 -0.027382497 
