Linear 17 20
0.06446645 -0.009777189 -0.12801503 -0.18001273 0.10558827 0.040746927 0.2088593 -0.20649095 0.035077278 -0.24106376 -0.0005351454 -0.024750806 0.17087252 -0.08603064 -0.04889339 0.0077846455 -0.14813426 0.020230861 0.23733835 0.04267203 0.019234538 0.10466323 0.46107078 -0.19860546 0.08962052 -0.08085966 0.09404552 -0.0057881624 -0.106333986 0.15166579 0.13864312 0.34279752 -0.076048434 -0.11278005 0.14889625 0.08939299 0.054174602 -0.23489463 -0.111166686 -0.024358496 0.049118757 -0.08727154 -0.16413876 0.07109532 -0.0431522 0.08265677 0.0041714013 -0.08054933 0.048859477 -0.15938416 -0.10127641 -0.19526161 -0.05545318 0.23559377 0.08442271 0.22903748 0.02228942 -0.18840528 0.26076427 -0.12405127 -0.2155556 0.065633476 -0.11439127 0.044625476 -0.09894344 -0.03938937 0.10914658 0.061068404 0.21098788 0.09325848 -0.073508255 -0.10664268 -0.20445989 0.39299282 -0.2286881 0.10219152 -0.07966828 -0.17696528 0.113636665 -0.114478424 0.21661201 -0.08593105 0.3340439 -0.1661789 0.020480648 0.3261899 0.2690209 -0.2961288 0.26977468 -0.18956484 0.12862873 -0.2328121 0.013484747 0.2269126 0.19029638 0.02884079 -0.06757875 -0.070634685 0.059383936 0.13184047 0.2646975 -0.06159323 -0.07069736 0.17440425 0.2896281 -0.2215236 0.17127977 -0.17709121 0.23209615 -0.23031275 0.106431425 0.18181293 0.039965358 0.16860583 -0.09752632 -0.113182865 -0.23033178 -0.15513916 -0.06437562 -0.048408996 0.041225802 -0.14231513 -0.17788796 -0.08575744 0.4207331 0.019832745 -0.1266893 0.10937727 0.2578085 0.058475386 -0.04946334 -0.13271451 0.03329802 0.33339977 0.1844509 0.055203687 0.079677045 -0.2385489 0.21852367 -0.2217786 -0.14336118 -0.22663483 -0.15256608 0.09267415 0.005614835 -0.14964993 -0.2179248 0.15603624 0.14769024 0.17260194 -0.24691738 -0.22220683 0.0751978 0.108301476 0.03495438 -0.07545557 -0.033632107 0.2527755 -0.11463218 -0.24669611 -0.0901064 0.16954955 -0.2639486 0.17810006 0.09588862 -0.100856155 0.24497889 -0.025721012 0.044021074 -0.21429053 -0.13005899 -0.08129053 0.25999427 -0.06394709 0.19062215 -0.15228258 0.1722318 -0.16384292 0.08734606 -0.22595927 0.090137966 0.24100658 0.116611324 -0.21694064 -0.18119374 0.023986595 -0.17675844 -0.21401484 -0.12083297 -0.18555306 0.17599168 -0.28199613 0.24441816 -0.1763168 0.10360004 0.26571086 0.021932015 -0.18409805 0.2134624 0.13002613 -0.068857506 -0.13652351 0.18971403 0.12465803 -0.21299824 -0.24304444 0.2896101 0.25366104 -0.1424967 -0.054511547 -0.09448414 0.0958202 -0.2054643 -0.07434533 -0.015216608 0.1053491 0.15181163 0.29650715 0.016939705 0.16342868 -0.06571751 -0.23907307 0.20564677 0.096746124 0.024517447 -0.1662615 -0.39132392 0.36710325 0.19088766 -0.09381889 0.16371861 0.13378896 0.21576287 0.05668723 -0.027952211 -0.34320608 0.00090234017 0.30849388 0.17418315 -0.060496554 0.21759805 -0.06995785 -0.05833448 -0.20979036 0.28070283 0.023951756 0.1845553 0.01708588 0.26249084 -0.032679092 -0.06278724 0.220382 0.022674726 -0.2565187 -0.13803336 -0.05581772 0.26498845 -0.041573223 -0.059107147 0.0075188815 -0.03621402 -0.0053043864 -0.06123235 0.08382368 0.056674734 0.20885272 0.1909926 0.07311222 0.22671723 -0.063438185 0.16328976 -0.05689845 -0.23542468 0.23922709 0.110467695 -0.1339907 0.2636105 -0.34876177 -0.16968833 0.3080783 -0.10231512 -0.10938762 0.17491664 -0.14036296 -0.19306205 0.15175578 0.062885664 -0.10401325 0.07860607 -0.16678323 0.027945217 -0.14009629 -0.11967836 -0.10788522 -0.048187084 -0.23794152 0.07369445 0.050563656 0.09114602 0.10433666 -0.06635433 0.14713454 -0.2310914 -0.21966109 -0.20954223 0.1009438 -0.22583266 0.0015503503 0.024180876 -0.12661573 -0.21572283 0.08859628 -0.15892929 0.24486795 0.07926638 -0.05282897 -0.10311516 0.3079441 0.13637415 0.125826 -0.04347282 0.08704782 -0.1450033 -0.15205084 -0.106129795 0.0131733855 -0.03383959 0.040585775 0.17691216 0.120798245 -0.0065198797 -0.12954141 0.22470623 -0.06510796 -0.22935306 0.2716825 0.09339771 -0.14322746 0.26154134 0.1979347 
0.055029288 -0.037413694 -0.18281382 0.20488507 0.1339993 -0.16902162 0.1603451 0.26170105 -0.11646296 -0.06395478 0.15240012 -0.14962848 0.12876685 0.068894595 0.0043070614 0.17833872 -0.03687831 0.047349624 0.071731836 0.047048837 
Rect
Linear 20 20
-0.14748201 0.033645924 0.04090315 -0.11881632 0.075627424 0.23810859 0.1726967 0.09808499 0.19595045 0.002942074 -0.027590398 0.14367358 -0.1962568 0.114577 -0.014038204 0.17872411 -0.060349584 -0.13161315 0.15683986 0.15856867 0.008683825 0.18844582 -0.027986333 0.23280635 -0.028024968 -0.18330261 -0.15664488 -0.18653186 0.196678 -0.029110724 -0.19601591 -0.09183869 -0.019578317 -0.18360445 0.09072111 -0.11547967 0.08996 0.064424716 -0.20346951 0.18542689 0.15318468 0.03506378 -0.147578 -0.025451431 0.24404658 0.15419273 0.18847594 0.14770031 0.114386775 0.04973402 0.106461324 -0.14298756 0.16180965 0.026503626 -0.018263394 -0.17143396 -0.24712719 0.022277832 0.16476157 -0.0061743283 0.1825116 -0.26880264 0.21176425 -0.071871124 -0.045216586 -0.11040759 0.10271803 -0.23669507 0.2055699 -0.0039490066 0.18795913 -0.13429116 0.24401398 0.025763383 0.015770229 0.05478554 0.21894927 -0.12723583 0.048520684 -0.16686764 0.25077838 -0.17497768 -0.0047037452 0.011879868 -0.27994338 -0.36596006 0.18814741 -0.036535457 0.016876101 0.16097063 0.16771105 0.019792192 0.1440217 0.3193568 0.32031795 0.076294295 0.2039632 -0.13941647 0.027313946 0.20796974 0.20323658 0.003106878 -0.05456397 0.19604406 -0.07427411 -0.12877654 0.0058267755 0.17707317 0.15553162 0.16580112 -0.21497707 0.13657999 -0.21356724 -0.20617759 0.030103242 0.16632238 -0.12056477 0.043684203 0.21070498 0.14369218 -0.13535461 -0.25289625 0.2100592 0.19729683 -0.32893747 -0.20670034 0.15209307 -0.2649475 -0.10181293 0.07468367 0.11508746 0.028427687 0.06582944 0.26825917 0.06351259 0.17191923 0.1844527 -0.21096279 0.25161186 0.02527973 0.13754047 0.03122072 -0.17263529 -0.10783433 0.21357824 -0.14482404 0.15169014 -0.09954359 -0.0741756 -0.09672057 -0.11809338 -0.17050804 -0.1414435 0.18732749 0.0783355 0.11141194 0.16940682 0.000871919 0.12594914 0.021162575 0.1396642 -0.12448488 0.09902924 0.06027933 0.044333037 -0.12561576 -0.19549012 -0.040123027 0.086940505 0.22776966 -0.16023198 -0.21221085 -0.18841228 0.2266957 0.121020734 0.026534572 0.09298082 -0.15405911 0.23222624 0.22317201 -0.21614075 0.10695333 0.11981034 -0.1625986 0.105187654 0.07923747 -0.0132880565 0.014446755 0.042590022 0.13333769 -0.15466179 0.1193571 -0.07208629 -0.044312917 -0.09085101 -0.09887908 0.042868353 0.21927598 0.13702878 -0.12570344 -0.15394074 0.15600936 0.016084582 0.14010587 0.024860997 -0.14344299 0.15291521 -0.17482464 -0.1623381 0.046860173 0.25581092 -0.18550949 -0.11442154 0.17530644 -0.2127511 -0.0038438742 0.0568918 0.13705009 0.20586732 -0.20145513 -0.19150032 -0.28251487 -0.10684114 -0.12179321 -0.08543254 -0.1505259 0.2855155 -0.2680291 0.22072433 -0.12894808 -0.031714126 -0.15771027 0.16234504 0.33901796 0.0028775106 0.19313127 0.10104563 -0.043952458 -0.07968624 -0.11206879 -0.12692797 0.06765276 -0.14469062 -0.057858087 -0.06962096 -0.1599225 -0.16945714 -0.13277096 -0.13441238 0.18500794 -0.024122953 -0.22512989 0.15636116 0.004006948 0.02897291 0.042873915 0.14626288 -0.10868312 0.21836364 -0.13091788 0.19290504 -0.1433724 0.01372008 0.19537379 -0.06909873 -0.20543657 0.2312248 0.024656162 -0.10268079 0.18155222 -0.106469996 -0.20019914 0.05804059 0.14173141 0.0025773498 -0.0030595346 0.15199317 0.20617092 -0.02321695 0.022512995 -0.13749775 -0.09586478 0.20318809 0.14011881 -0.15550815 0.17782494 0.028601259 -0.054995637 -0.1184863 -0.04842822 -0.22325838 -0.20655179 -0.16253906 -0.13007769 0.17228736 -0.05989346 0.025880279 0.18585181 -0.19474316 0.016733518 0.11572802 -0.052223712 -0.0023725182 -0.07783486 0.0045037502 -0.043149814 0.028282115 -0.029995909 0.10020858 -0.21523876 0.05058116 -0.13301955 0.21209 0.10795054 -0.1397625 -0.21979704 0.18023929 0.21099284 0.14084409 -0.20954199 0.21931969 -0.17951518 0.13986203 0.060363825 -0.1863127 0.051353764 0.15007752 0.04291337 0.20216966 -0.121101186 -0.028944558 -0.20901638 -0.19704817 -0.19743033 0.1379241 0.09810615 -0.06854243 -0.13822843 -0.10642776 0.033487324 0.02090813 0.0048102443 0.21720648 0.14513968 -0.07077156 -0.09695898 0.22359243 0.13128753 0.058026902 -0.18436445 0.009878779 0.0054818685 -0.0348697 0.05805934 -0.20231788 0.09501369 0.21718232 0.19639398 -0.13027792 -0.04292893 -0.094154775 0.15029189 -0.12084221 -0.061610293 0.044932257 0.18159235 -0.20683274 0.012866638 0.18479504 -0.026704093 -0.02139364 0.037036728 0.007117285 -0.21482095 -0.07905871 0.17498231 0.11655224 -0.1449053 0.12055744 0.21898727 -0.019702677 0.07592262 0.086750746 -0.14570504 -0.22170687 -0.2266748 0.18461563 0.20119928 0.10656479 0.080503576 -0.16612625 -0.17332344 -0.20993932 -0.1329685 -0.06922073 -0.0015760707 -0.05727267 0.09612676 -0.112386234 0.16802777 
0.095123254 0.14091967 0.053810503 0.1763573 0.19202179 -0.22204857 0.23575768 -0.1942957 -0.025984826 -0.15247832 0.04792327 0.18553066 0.03083757 0.15932742 -0.13559912 -0.18240373 -0.16835186 0.041780762 0.038405214 -0.017381173 
Rect
Linear 20 20
-0.1872111 -0.02960789 0.048826326 0.16612202 0.14198421 -0.18105619 -0.04817773 0.07310662 0.19549672 -0.10894436 -0.03612414 0.020565726 0.038181197 0.0011253025 -0.16920245 0.20040657 -0.22017084 -0.20196094 -0.14192879 0.012775987 0.08703242 -0.013658318 0.19031365 -0.10150142 0.14653458 -0.03912964 0.0009972024 0.12623136 -0.12530081 0.012465187 0.028392008 0.005470948 0.212434 -0.101763956 -0.13017993 -0.18969768 -0.12446694 -0.050987482 -0.12120698 -0.11320836 0.2198369 0.15665343 -0.11983086 0.008922492 -0.11732485 0.17537381 0.15671429 -0.010664305 0.17469242 0.059893627 0.17832832 -0.0790251 -0.020207917 -0.16494977 0.009036407 0.008981958 0.03699532 -0.12555785 -0.045999594 -0.008351552 -0.2108652 -0.20945288 -0.19796838 0.15463233 -0.012946904 0.12056726 -0.15330632 -0.093217865 0.16684073 0.08761534 -0.220212 -0.058050707 0.15388077 -0.1425676 0.13712361 0.015174016 -0.052036077 0.103690654 0.11360091 -0.20425671 -0.17934917 0.11224601 0.14259593 0.025418531 -0.052404344 0.15098765 -0.15723827 -0.051811017 -0.07470145 0.19414063 0.032413065 -0.099885516 0.06682839 -0.20401585 -0.025900025 0.082002394 0.1230776 0.21395904 -0.15457213 0.22402963 -0.15732637 0.1677135 0.10343635 -0.07155162 -0.21150683 -0.13502455 -0.19937515 0.11387354 0.050618947 -0.008674473 -0.0017090738 -0.12134702 -0.112684995 -0.1969429 -0.14797619 -0.14808947 -0.04246521 -0.19474591 0.2054081 -0.18631637 -0.037803918 -0.22487967 -0.036687657 0.06732479 0.3586964 0.15126143 0.23377366 -0.19104467 0.21037683 -0.08332589 0.16089067 0.20247625 0.2539066 0.055404097 0.22184488 0.22338963 0.045899607 0.15142803 -0.2186211 0.014208953 -0.19686824 0.049919993 -0.041984096 0.10772604 0.005433634 -0.12992865 -0.16944726 0.12896863 -0.06754325 -0.073678076 -0.089432284 -0.03367451 -0.071009815 -0.114081874 0.15017658 -0.16778891 -0.06183356 -0.1383588 -0.19238739 0.016230956 0.190565 0.16697738 0.045960862 -0.15141158 0.16007704 -0.17437948 -0.10553566 0.032115176 0.0035338856 0.0686711 0.13085647 0.1576866 0.18278132 0.06796266 -0.21120843 0.10197358 -0.14149489 -0.1935601 0.06604434 0.20132318 -0.09109721 -0.020498209 0.033411197 -0.031442743 0.082468934 0.18248941 0.30886948 -0.12842207 -0.09432975 0.20748463 0.045049123 -0.1044526 0.12452381 0.19871892 -0.16522902 0.1035964 -0.18742165 -0.13808547 -0.2882049 0.082445405 -0.08988778 -0.01082693 -0.22162192 0.1738748 -0.1294033 0.12698355 0.13384232 0.015456945 -0.21898097 0.048231095 -0.047587365 -0.09754859 0.06995514 -0.21617384 -0.20251675 -0.22263291 0.13871035 0.08974543 0.12004119 0.05789599 -0.07253746 -0.15513417 0.030720534 -0.14386207 0.1783415 -0.1260931 0.042279627 0.0297303 0.19286257 0.18220957 -0.20073543 0.069791764 -0.07058755 0.18501355 0.013979524 -0.004478281 0.1655578 0.12893578 0.055522263 0.0015527933 0.15973791 0.062870584 0.03204227 -0.21133687 0.07336575 -0.03699907 -0.09622558 0.07581721 0.080952436 -0.019071251 -0.1628935 -0.0025595126 -0.16670434 0.0905194 0.1830787 -0.084570125 -0.08999492 0.15514952 -0.13474631 0.13238116 -0.06596993 0.05588954 0.1957531 0.15395597 0.20690349 -0.16175489 0.3305513 0.090428084 0.04410287 -0.08723272 -0.022521218 0.15492024 0.23937032 0.06732199 -0.07263544 -0.035324287 0.055727884 -0.12755114 -0.2503727 0.106365986 0.14135844 0.028763443 -0.15856317 -0.16117622 -0.17827034 -0.09389053 0.044254478 -0.09143181 -0.018583402 -0.038376793 -0.21070223 0.11990736 0.057501256 0.0121586 0.17513481 -0.20571075 0.050337434 -0.0817468 -0.10968391 0.20078522 -0.10751973 0.09197901 0.08867888 -0.09259475 0.07641415 -0.09174808 0.05019484 0.17948465 0.09966596 -0.1495648 -0.20121059 -0.1654535 0.15528487 0.0061355387 -0.08003772 0.108491674 -0.2111275 0.061395627 0.12227952 -0.19434561 -0.20485413 -0.16364159 -0.2057702 0.34467044 0.3381041 -0.093853295 0.00963782 -0.031012708 0.013507846 0.010888307 0.21498676 0.33785525 -0.13155648 0.022591198 -0.0104330275 0.12752353 0.095314726 0.028731171 0.033822145 -0.25952545 -0.13782032 0.02631359 -0.056336667 0.25713772 0.28933105 -0.1315313 0.28519747 0.23139226 0.06409769 0.099096455 -0.118519835 0.14900438 -0.07318528 0.16736977 -0.13357723 -0.0913675 0.052899018 -0.06986744 0.021905921 0.05165666 0.17743798 0.21547303 0.22561193 -0.16825652 -0.12114086 -0.04136241 0.010857722 0.11672435 0.1690315 -0.16125761 0.14811072 -0.033360664 0.013917575 -0.12226815 -0.06550423 0.064412676 -0.22263657 0.20108733 -0.11010408 -0.15742089 -0.0648986 -0.08086014 -0.17459607 0.071522534 0.3244709 0.103039615 0.29906192 0.076349966 0.19973321 -0.07182105 0.15936208 0.29421926 0.1533601 0.025577018 -0.077522755 0.058323722 0.124144174 0.23058577 -0.1374173 0.055089675 
-0.17393877 0.14149414 -0.0635419 -0.15609145 0.23953314 -0.12584205 0.027846362 -0.06624393 -0.03472022 0.24558464 -0.12642142 -0.024126213 -0.13008308 0.07054779 -0.031757813 0.08181994 0.12872571 -0.027348543 0.044917468 0.16961336 
Rect
Linear 20 20
0.011539146 -0.038640514 0.1641469 0.0019603968 -0.009031594 -0.017113209 0.07477909 -0.09872871 0.18138924 0.14694831 0.093625546 -0.21214554 0.14131749 -0.12707473 0.02107291 -0.17467228 -0.18029702 -0.12860548 -0.17953698 0.022960126 0.11683173 -0.085324086 -0.16559775 0.076447815 -0.16405551 0.061113745 0.34024057 -0.1699181 -0.078559265 0.22947204 -0.20913088 0.21874087 -0.17018138 0.2817446 0.029845351 0.14297903 0.08365202 0.1365681 -0.100794 0.10265565 -0.013615722 -0.18830249 0.119388565 -0.16378605 -0.140134 0.16337502 0.21654974 0.20446607 -0.09275473 0.25735295 -0.06460057 -0.013151048 0.13763994 0.20860021 0.16443881 -0.16347449 0.16870964 0.037840985 -0.13659981 0.20365284 0.083387226 -0.21694264 -0.17451891 0.15604717 -0.06817368 0.19715455 -0.21028319 0.11869985 -0.06850226 -0.120087095 -0.20041 0.096098065 -0.13017954 0.004033342 0.20440814 0.1671969 0.12954488 -0.21350247 -0.16045529 -0.18310966 0.028325379 0.057694282 -0.0028075164 -0.032355174 0.21046597 -0.11800857 0.043596543 -0.16019775 -0.10629524 -0.17411426 -0.07317668 -0.09057968 0.08092185 0.020100782 -0.21015435 0.14527677 0.08782469 0.03631939 0.047643755 0.07099118 -0.19771619 0.11464453 0.14038226 0.09377453 -0.1885551 -0.12113401 0.105782986 0.08736053 -0.00023594723 -0.2033527 -0.18478362 -0.017595198 -0.037864204 -0.15395805 0.19227856 0.04097942 0.15614064 0.10263318 0.06024665 -0.027592273 0.032385737 -0.17177159 0.034312397 0.017923951 -0.046296313 0.07704064 -0.1745394 -0.08471578 0.14019841 0.063928664 -0.015668541 0.08494684 -0.006835073 0.07546711 -0.11075198 -0.16527134 0.10849419 -0.089983776 0.17840093 -0.12127367 -0.05955648 0.08405855 -0.18750244 -0.03170687 -0.055685204 0.14545026 0.2870489 -0.14919503 0.061772168 -0.02559491 -0.19378538 -0.084215574 -0.20938958 0.26034504 0.010525264 -0.0646741 0.2517623 0.20543882 -0.06691032 0.3230386 -0.09285025 0.03321959 0.17550208 -0.12066756 -0.19840053 0.10699311 0.008432734 0.010579631 0.21117735 -0.02254897 0.042896807 0.2191849 0.011350434 0.103276454 0.20308445 -0.1846139 0.22485477 0.06824345 -0.20415808 0.22213633 -0.1520984 0.10615019 -0.066064075 0.054222494 -0.16644394 0.12492928 0.15610808 -0.13692063 0.098339185 -0.032668196 -0.054031134 -0.049123794 -0.107987285 0.06787499 -0.007526085 -0.123165034 -0.00095591566 0.065462455 0.21529761 -0.112733245 0.1467874 0.09658119 0.044685524 0.011255845 0.14328869 0.052508384 0.043581642 -0.14205998 -0.0666931 -0.04540478 0.19135284 0.04413706 0.08295392 -0.19110799 0.02420186 -0.20716308 -0.027251497 0.015048212 0.10802209 -0.08853308 0.14934742 -0.006475392 -0.095244475 0.07617307 -0.025163472 0.1051434 0.24273957 0.11771989 0.062389668 0.055321828 0.18634081 0.22438924 -0.04273453 -0.123169884 -0.071882896 -0.17671616 0.079243556 -0.0068674516 0.03422416 0.03049648 0.097317874 -0.041591577 -0.10368496 0.13342658 0.21029055 0.09723547 0.19772522 -0.10589821 -0.19386539 0.0017149842 0.011180893 0.1697783 -0.020789381 -0.10993527 -0.15535209 0.004741774 -0.08991998 -0.004307874 0.21196337 0.020125909 0.08807102 -0.1421704 -0.071277566 -0.061426744 -0.08075796 0.06899673 -0.18488877 -0.1765359 0.17356817 -0.09011828 -0.05865039 -0.15212841 -0.18206774 -0.16627407 -0.15399455 0.1491954 -0.2213296 0.16167147 0.17963068 -0.14508109 -0.08410182 0.13479409 -0.18900384 -0.18813895 -0.17184821 0.20892593 0.14378493 -0.10651759 0.11822436 -0.10076174 0.033982575 -0.07440207 0.046140227 0.11571139 0.11717032 -0.14407332 0.28780392 -0.11963411 -0.052172597 0.27489215 -0.16205461 -0.06672172 -0.12750709 0.01691331 -0.17796887 0.14328405 0.008125185 -0.011977404 0.21911557 0.025014132 -0.12007151 -0.14424238 0.18658902 0.32101327 0.059303127 0.19727969 0.30912906 0.35470584 0.05618738 0.27038696 0.10428882 0.007861259 0.094715826 -0.1815443 0.22635528 0.21547854 -0.17475744 -0.19745347 -0.06449434 -0.056798488 -0.21056753 0.13783292 0.036623955 -0.17853959 -0.052395314 -0.1956162 0.03575822 0.01395965 0.07039002 -0.10390735 -0.038288385 0.24519369 -0.17719986 0.0051995516 0.073924996 0.12828848 0.24126424 -0.17323345 -0.05406611 0.13390109 -0.21146864 0.16544624 0.18332465 0.29004136 -0.13062486 -0.0776562 0.22203197 0.33973214 0.15931758 0.29910693 0.16880812 -0.050472368 -0.14903344 0.20007706 0.14203633 0.12617928 -0.026526093 -0.15195854 0.120044366 0.09579947 -0.060001895 -0.09763558 0.120233476 -0.117757045 -0.15166618 0.07168199 -0.27192903 0.16785643 0.13306834 0.06508467 0.19283181 -0.21320607 -0.12810856 -0.05972649 0.1052877 0.11852935 0.22265062 0.19576135 0.09871146 -0.076381564 0.032078415 -0.03226857 0.17186892 0.17717388 -0.19145493 -0.09428851 -0.09085129 -0.17460775 -0.09370364 -0.19528559 
-0.19797578 0.17363596 0.055032857 -0.21065594 -0.13793446 -0.091841996 -0.13858269 0.078539275 0.17731941 -0.14245641 0.19545858 0.25043935 -0.06534247 0.22666866 -0.043521527 0.14879118 0.12123315 -0.10329878 0.073459096 -0.19127662 
Rect
Linear 20 2
-0.08696991 -0.011316282 -0.21064666 0.10378951 0.118027925 -0.0057578404 -0.12415707 -0.21695733 0.017194454 0.0096929185 0.03553916 -0.1226198 0.128624 0.21389005 0.06705825 -0.2537365 0.06628925 -0.3038053 0.24385324 0.03849545 -0.20921524 0.27793238 0.24231502 0.029652804 -0.026347492 -0.17256722 -0.08486803 0.068498395 0.11678277 -0.21151985 -0.14048868 -0.014643953 -0.047794614 0.01107306 0.32428592 0.05906732 -0.13244624 0.116868116 -0.14963241 -0.20570377 
0.012722363 -0.19378583 
