Linear 17 50
0.052743338 -0.22460397 -0.24291587 0.22127625 -0.012421185 -0.13938941 0.048761517 0.08757662 0.08314296 -0.06056535 -0.18828551 0.1591513 0.24155118 0.05124059 0.2797782 0.049544167 -0.15924034 0.14640594 -0.21122864 -0.18903272 0.024191141 0.19572629 -0.28278854 -0.054643884 -0.044715673 -0.11792466 0.15719588 -0.22507979 0.1387985 -0.17713347 0.021556092 0.036177803 -0.21508075 0.008221959 -0.022361975 -0.1062944 -0.085135296 -0.078575015 0.096906655 -0.03633732 -0.117843136 0.07568164 0.17284112 -0.24388446 0.20900619 0.01883982 -0.2738297 0.22511514 0.27760762 0.24933225 0.06621825 -0.16757828 -0.10102019 0.28050062 0.12114628 -0.040553022 -0.0355174 0.036416866 -0.16614054 0.1006068 0.18661298 0.002869333 -0.2105763 -0.10268202 0.18537599 0.08977866 -0.10066076 0.24317802 -0.18578936 -0.19224893 -0.025162699 0.09680521 -0.085057214 0.023726413 -0.038840905 -0.13182 0.017315676 0.10467671 0.027502004 -0.031241857 0.18384907 0.07325838 -0.2343866 0.18021658 0.025945434 -0.08898019 -0.09074229 0.17865656 0.21485901 0.10994906 -0.26829377 -0.15943925 0.1641436 -0.09248934 -0.2602871 0.052915446 0.20640594 0.20893444 -0.073233396 -0.009932099 0.11632853 -0.07060502 -0.091429226 -0.18264765 -0.10908438 0.017460786 0.17634323 0.11475907 -0.07251877 0.13889523 -0.20464285 0.034530886 0.11394929 -0.21774663 0.051083416 -0.13659735 -0.18070886 -0.09284453 -0.062249523 0.22320725 -0.06132269 -0.10428432 -0.05413005 -0.21986313 0.1043926 -0.12257102 -0.17471656 -0.044066638 0.112657815 0.00259085 0.0006180447 0.11278221 -0.13512862 -0.0068714544 -0.053357307 -0.12723109 -0.2066479 -0.23434867 0.03395614 0.034468025 -0.03449738 -0.0046473145 -0.18041724 0.08448622 -0.22760417 -0.20412089 0.2107895 -0.19045652 -0.17892224 -0.16767873 0.06960997 -0.21311128 -0.23175994 0.05292844 -0.18381776 -0.15474178 0.23772621 0.019285344 0.26683694 -0.21333331 -0.023091432 -0.17228374 -0.010869135 -0.21441503 0.113607794 0.18223043 -0.22761907 0.10589515 -0.19569692 0.10624563 -0.12599298 0.13786516 -0.07684307 -0.08950078 -0.22539438 0.23786306 0.019764585 -0.08449668 -0.20345066 0.22031271 -0.08539511 -0.009977907 0.06401989 0.12029367 -0.18518625 -0.13598521 -0.16842778 -0.041067757 0.20276213 0.03581663 0.24576806 0.1838618 0.20936647 0.077669635 -0.07922946 -0.17508516 -0.06471378 0.19702873 -0.11602801 -0.041434444 0.05340318 0.1727594 -0.1353553 0.11947982 -0.074105024 0.004099955 0.06819603 -0.115808204 -0.050423477 -0.11222657 0.12411451 0.18279143 -0.23370402 -0.12655261 -0.12307059 -0.1215647 0.10723163 -0.05782506 -0.025301194 0.09912525 0.032342494 0.20139876 -0.17474493 0.27055636 -0.02972725 0.04492296 -0.44864738 -0.24009459 0.118833646 0.2693882 -0.07579653 0.10039041 0.08355263 0.19069181 0.11262198 -0.17512041 -0.13036017 0.057219617 -0.13619108 -0.11843648 -0.15914449 -0.028424947 0.13062792 0.28042892 -0.035844322 -0.16594921 -0.04805789 0.117385335 -0.02467097 -0.1058769 0.21835113 0.13995476 -0.02735162 0.23743756 -0.21498643 0.105812825 -0.023395455 -0.0017527441 0.23588096 -0.04482356 -0.13654584 -0.068890385 -0.25392458 -0.2122018 -0.09880556 -0.15312684 0.022776574 -0.07903815 -0.05984058 0.18444191 0.12873109 -0.13119285 0.16749611 0.28700057 -0.19982056 0.23800328 -0.2927121 0.26502106 0.13197666 -0.18515132 -0.13326378 0.12365793 -0.16291337 0.08324031 0.21515362 0.10920278 -0.11850888 -0.19236046 0.09726819 0.21695796 -0.23906615 -0.15090236 -0.183266 -0.17908736 0.10367296 -0.21973844 0.039697744 -0.04888287 0.003502211 -0.044902775 -0.19714652 -0.0915955 0.0640088 -0.16019042 0.18309945 0.20977004 0.124996975 -0.12283703 -0.060239185 -0.17758775 0.24798782 -0.11561143 0.06262185 0.09063297 0.27270523 -0.039943025 -0.04715951 0.26480812 0.16614933 -0.1717785 -0.29122514 0.016433757 -0.07947763 -0.04185071 -0.16821931 -0.19808376 0.21693128 0.071719795 0.227527 -0.12924762 -0.18442366 0.17102648 -0.10379649 0.11792245 0.012310079 -0.23021427 -0.08026796 0.036224697 0.12041113 -0.21800934 -0.2544642 0.084121086 0.22762956 -0.1892483 -0.17396703 -0.1345664 -0.10990344 0.17604798 -0.26410827 0.14569396 0.24386124 -0.16413453 -0.2170755 0.08600918 -0.013043009 0.09399586 0.15060465 0.13500729 -0.17430018 0.093752936 0.13156915 -0.07584864 0.1445672 -0.25702953 -0.15697579 0.17974348 0.013059973 -0.067449525 -0.17843264 0.027711885 0.17857556 0.1382132 -0.031942658 -0.16238181 0.14620118 -0.038102422 -0.1297418 -0.19858491 0.19722925 0.18037911 -0.010025354 -0.0700104 0.12693667 0.08644286 -0.19282214 0.05564541 -0.13499872 0.17583647 0.10626367 -0.021518266 -0.14206663 0.12906966 -0.16739589 -0.24489613 -0.039468158 -0.11497351 -0.021462444 -0.08959971 0.045395594 0.007938817 -0.08035918 0.04022807 0.116797544 0.22182639 -0.10043241 0.29382384 0.23015545 -0.07262642 0.2106622 -0.064475335 0.15913865 0.051341463 0.047876455 0.25845492 -0.12395769 -0.20563161 -0.049656905 -0.20869578 0.16726409 0.19622688 -0.21888794 0.19693847 -0.17521292 -0.0626754 -0.06865261 0.13498813 0.14948273 -0.13699187 -0.057598285 -0.061364144 0.13166972 -0.25064662 0.12861162 0.16527757 -0.104471475 -0.15072857 0.19682232 -0.23109381 0.21466261 0.06250446 0.087455064 0.18496881 0.00072361954 0.022091597 -0.13446261 -0.036822163 0.17701365 0.026031615 0.21123874 0.12319622 0.2136072 0.020889373 -0.054247238 -0.17281319 -0.16995963 -0.08874984 -0.2258856 -0.12800978 -0.17563786 0.12127873 -0.23227356 0.15910588 0.18189259 0.065047175 -0.13373786 0.057545237 0.24178556 0.10898899 0.048550975 -0.07727051 0.041633703 0.13316621 -0.12230693 0.048577808 -0.071300484 -0.070606865 0.008891554 0.075404495 -0.13802077 -0.08459762 -0.0068934294 0.09651349 -0.0013892421 0.06170418 0.10693999 0.25966257 -0.12677887 -0.03648903 0.044729605 -0.18487076 -0.053395472 -0.1669706 -0.17745417 -0.17574675 0.06371596 0.174643 -0.06566282 0.026048647 -0.10614777 0.043991923 0.11857149 0.045795277 0.06443712 -0.081329495 0.0013818585 -0.13809074 0.009798377 -0.023703841 -0.13570888 0.16080442 0.069480285 -0.17848489 -0.04279989 0.035296123 0.17400648 -0.25014377 -0.1688634 -0.21830283 0.16911522 0.027731655 0.13067053 -0.11426795 0.059307672 -0.15884109 0.2182061 0.0014372511 -0.16888644 -0.14037572 -0.16257988 0.22539677 -0.07973844 -0.10192778 -0.12574326 -0.10317994 -0.19390191 -0.042814277 -0.08212475 -0.12993671 0.14742354 0.011056359 0.07925598 -0.09917498 -0.06578822 -0.23312975 -0.20019905 -0.16005659 -0.12167377 0.14079759 -0.055250194 -0.21795315 0.072920926 -0.17300884 0.19385245 0.0303141 -0.078968585 -0.013314989 -0.16483895 0.17531137 0.22117262 0.06583562 -0.095185794 0.048780657 0.00549456 -0.08529938 -0.070428774 0.2101947 -0.23052765 0.120798156 0.02072175 0.25557488 0.06988363 -0.18896714 0.012224031 -0.016282871 -0.065778255 -0.1905741 0.08226223 0.15351038 -0.114396274 0.14152506 0.2252752 0.0435155 0.06143112 -0.06933983 -0.18017788 -0.22485599 0.21288586 0.121917695 0.12510905 0.26332396 -0.037987784 -0.011956986 0.10277713 -0.17334758 0.097618654 0.02613017 -0.0063146427 -0.05106442 0.12166432 -0.18991046 -0.061582834 -0.008184593 0.14209716 -0.0025763141 -0.18117434 -0.14005229 0.25695157 -0.010368463 0.05011833 0.014662763 -0.11620978 -0.19918613 0.1983161 0.018003186 0.23780686 0.107283615 0.19081946 -0.14107002 -0.1366412 0.1937742 -0.076558135 -0.24414 -0.16059327 0.23194914 0.20310456 0.088503115 -0.20508586 -0.060462076 -0.15075283 -0.14864919 0.08060006 -0.18057053 -0.0973805 0.07666775 0.03540391 -0.12811916 0.11951405 -0.19170071 -0.0053873574 -0.055710383 0.09722287 -0.21403834 0.21836327 -0.09478343 -0.15008713 -0.19231558 0.08579446 -0.11538643 0.17954531 -0.15238965 0.047321424 0.14498824 0.02616041 0.15850988 -0.09820528 0.15853845 0.061561808 -0.024849886 0.02406296 -0.24058858 -0.12909092 0.13716203 -0.01995639 -0.22160353 -0.034270953 0.08992486 -0.14894646 -0.086897746 -0.15147626 -0.19930771 -0.008838859 -0.090590395 -0.05325555 0.22029611 -0.22542322 -0.04573472 0.11993383 0.09257589 -0.06666401 0.087182626 -0.08976718 0.12178439 -0.055874113 -0.0502564 -0.13111551 -0.10027608 0.04802468 -0.07611982 0.1403842 0.23505627 0.06514814 0.18963143 -0.19695638 0.23565345 -0.005744624 0.018361382 0.23195823 0.105406545 -0.19807501 0.27428424 -0.12942247 -0.13542418 -0.23477487 0.2126098 0.011761304 -0.118074134 -0.18251157 -0.25285804 0.10915603 0.10888296 0.1035628 -0.283467 0.1902364 0.26274055 -0.122266196 0.12784757 -0.12717359 0.20997015 0.06270603 -0.19824977 -0.05839713 0.14898601 0.11787319 -0.0029324489 0.10247248 -0.044150166 0.111558795 -0.15191118 -0.062215637 -0.123386 -0.087330624 0.1950703 0.064925924 -0.29015258 0.19386834 0.19379939 0.44485292 0.13306591 -0.026875937 -0.27140138 -0.04723661 0.08192083 0.08216381 0.16965902 -0.26671836 0.30772904 -0.078659914 -0.047602847 -0.117874585 0.2022341 0.20136988 -0.10136943 0.10856532 0.13873148 0.01656664 0.02350111 0.08053921 0.18198644 -0.120022014 0.10854796 -0.1986463 0.18266718 -0.060447514 -0.011275404 -0.07686434 -0.055482537 -0.06386332 0.042858105 0.042829555 -0.11778735 -0.21794862 -0.20808555 -0.13316464 0.010056347 -0.0074427724 -0.10607484 0.02113352 -0.17496188 0.011558423 -0.092730045 0.2397817 -0.12647542 -0.10430544 -0.051267613 -0.087954774 -0.089944676 -0.22140509 -0.15921941 -0.25822493 0.21234934 -0.18569598 0.04713059 0.047187228 0.23895822 -0.1825515 0.22242334 0.0260054 0.24740542 0.15048005 0.093508564 -0.047671583 0.05942176 -0.17588015 -0.19766003 -0.010552709 -0.11104354 -0.13651587 0.14615677 0.08610077 -0.190777 0.20485473 0.0779341 -0.018582182 -0.22478193 -0.21560404 0.049329225 0.23448111 0.16077891 -0.19665441 -0.08437431 -0.11587103 -0.20312378 0.10727335 -0.10329575 -0.14815879 -0.08951634 -0.20482974 0.1611975 -0.1917755 -0.1466488 -0.20645541 0.0083768135 0.2498442 -0.106656395 0.09041688 0.038275138 -0.00013232976 0.21783079 -0.106626436 0.2359486 -0.06285793 -0.19771007 0.09697915 -0.08074912 0.027222957 0.047009196 0.12225919 -0.079123326 -0.16321993 -0.09116779 
-0.18860786 -0.14223331 -0.23686625 -0.20284212 -0.23970982 -0.03301799 0.01191322 -0.20542641 0.14189377 -0.16440688 -0.18180153 -0.004509976 -0.19607146 0.14521573 0.26078418 -0.22627304 -0.21571507 -0.19071111 -0.005873049 -0.15308456 0.0885981 -0.10395875 0.15791671 0.20207463 -0.112206474 -0.06768922 0.05703478 -0.07319666 0.17769168 -0.15961644 0.15264073 0.21268557 0.06482001 0.1968292 0.17288381 0.13409339 -0.12661947 0.22489847 -0.1266199 -0.19712387 -0.049650647 0.28099874 -0.2014057 0.020233216 -0.10230712 -0.1356702 -0.193767 0.24063934 -0.13213389 -0.0641071 
Rect
Linear 50 50
0.05511921 -0.014396222 0.11759539 -0.12921306 0.05766209 0.108736664 -0.11991147 -0.03254992 0.13809027 -0.071824834 0.02017945 -0.046734843 0.006147951 0.125933 0.020624088 0.12466546 0.013121965 -0.032830406 -0.08121087 0.0026800837 -0.1382323 0.12153206 0.13386807 -0.10600832 0.034048013 0.071178846 -0.12747195 0.09567397 0.024446785 -0.038587373 0.060406446 0.077429466 -0.13315454 0.047520716 -0.09308803 0.13792795 -0.07825791 -0.01407089 -0.07682521 -0.041143797 -0.009013467 -0.085932374 0.116296 -0.018226154 -0.03931646 -0.1379332 0.113683276 0.06831895 -0.13771822 -0.057465166 0.050690513 0.16322376 -0.10600137 0.025136959 -0.11176217 0.03534293 -0.002212619 -0.0074698753 0.12618898 -0.10217056 -0.09346283 0.01996559 0.058130085 0.25888112 0.002159447 -0.009821444 0.00867271 0.15054153 0.13871951 -0.01633423 -0.058752466 0.09476885 0.06478286 -0.08479676 0.025495954 -0.008727841 -0.03233116 -0.07559536 0.059379853 0.078298315 0.010781027 -0.0137743745 0.14833471 0.17537768 0.01328084 0.056802765 0.018096045 0.15562569 -0.03926137 -0.008896935 0.046103463 0.22073399 -0.024968306 -0.16083626 0.03954317 0.021681603 -0.031232854 0.15134174 0.06969814 0.07988025 -0.08006839 0.07875987 0.13900591 -0.17548902 -0.04722549 -0.02325215 0.057744022 0.07926416 0.117761955 0.15559421 -0.09384284 0.12807117 -0.06850576 -0.20646259 -0.069473036 -0.006309519 0.16871561 0.09545744 -0.029671934 0.08211369 0.1476776 -0.08609345 -0.045541704 0.17422248 0.062039353 0.06963316 0.06379671 0.03069019 0.11103164 -0.12354781 -0.07476512 -0.13250346 -0.04946208 -0.014934977 -0.016496047 0.115107566 -0.08650106 0.09855407 -0.05038215 -0.049379423 0.038676213 -0.14384942 -0.025912147 0.17297259 -0.047188863 0.04294747 -0.03186185 -0.08063112 -0.118407585 0.044445343 -0.035080116 0.17139688 0.01808217 0.086373 0.038117893 -0.09714981 0.111165725 -0.1400642 -0.076073766 0.014444497 0.12610964 -0.17675123 0.010988818 0.14983843 0.01742968 0.060626052 -0.03720768 0.037217658 0.022872036 0.105084956 -0.014444288 0.104754716 -0.071065955 0.020767754 -0.12149595 -0.03709327 0.0040743463 0.118453294 -0.03323449 -0.07736544 -0.029966757 0.10891111 -0.10209834 0.12067109 0.036476117 -0.020787569 0.19396107 0.08619518 0.06079023 -0.07180186 0.100848295 0.13003713 -0.09792969 -0.027458083 -0.060777716 0.12289407 0.1483631 -0.058920898 -0.10400725 0.14395553 -0.061530728 -0.014522417 -0.11326226 0.04202452 -0.033138655 0.16883843 0.11571506 0.09218597 -0.051696397 -0.1400762 -0.0872611 0.04793784 0.114453934 0.065590896 0.09282981 -0.11784027 0.025542658 -0.0602014 0.0956213 -0.04807786 -0.106830716 0.09291096 -0.10739219 0.0132511575 -0.13681918 0.018871047 -0.07258416 0.06505932 -0.15871064 -0.002168031 -0.08330006 0.12534983 -0.026388567 0.121240646 0.11598415 -0.029373914 0.07920156 -0.0876975 0.12030745 -0.040452823 -0.012442095 0.15798791 0.10370031 -0.16994552 -0.03242971 -0.05758564 0.123125695 0.14183772 0.1498609 0.117209345 -0.10112696 0.060587835 -0.025991235 0.022781074 -0.09528686 0.01666767 0.11064558 0.055088293 -0.07032548 0.022258556 -0.0038492465 -0.12726472 -0.07606968 -0.044009082 0.04144276 -0.06398192 0.039949305 0.14285916 0.1646621 -0.026085565 0.11889616 -0.048286684 0.052519273 0.06558216 -0.051177353 -0.10828156 -0.00999548 0.10306251 -0.15373598 -0.01460654 -0.013721285 -0.047622614 -0.011707593 -0.06542208 0.09311008 0.16268997 0.14396043 0.07395629 -0.03796341 -0.09183812 -0.0760054 0.077888735 0.059507 -0.09787977 0.021332454 -0.097981706 -0.03804129 -0.059321456 -0.12545772 0.08550305 -0.058664683 0.09054153 0.044915453 -0.018111141 -0.059356447 -0.16571039 0.1289367 0.041194797 0.08495964 -0.026079476 0.0071013644 0.039952386 0.017293645 -0.09474871 0.1590136 0.003318763 0.062218998 -0.14091113 -0.19120881 0.026941394 0.1518823 -0.11456301 0.014726417 0.12432077 -0.11126678 0.09067289 6.434418e-05 -0.054573692 -0.042029656 0.10828116 -0.11123332 -0.13559414 0.04176192 0.063278764 0.124820575 -0.10559005 -0.05912513 0.07298596 0.018846791 -0.09610485 0.071944624 -0.008850755 -0.033996794 0.14879344 0.029580876 6.891801e-05 0.025770731 -0.14763205 -0.05119764 -0.09602416 0.067579135 0.12549382 -0.029909786 0.031290565 0.029071849 0.1799084 -0.041043684 -0.1296821 0.08722749 0.121096715 0.07343635 -0.14200158 0.018380476 0.15825742 0.02302831 -0.0064385147 -0.01852847 0.012530911 0.03319947 0.006068111 0.017819935 -0.029474998 -0.008031037 -0.10276714 -0.10707606 0.14263833 0.042250775 0.006818011 -0.1398752 -0.063402936 0.077612944 0.05423013 0.07292392 0.14159463 0.07745421 -0.009699628 -0.066430405 -0.0053111515 -0.002945946 0.076125756 -0.036344834 -0.002462762 0.09287189 0.0027552338 -0.01794916 -0.035411544 -0.10310115 -0.048680637 0.1324986 0.13049562 0.0151041085 -0.033815436 0.04574105 -0.008322849 -0.053687938 -0.10185848 -0.09457842 -0.039302386 0.07225609 0.12456146 0.08310177 -0.12169389 0.13458294 -0.2092356 0.07609221 0.12818949 0.0590342 -0.11147956 0.022804655 -0.05342188 -0.056714326 -0.13103943 0.05602987 0.11432629 0.07341215 0.026613157 -0.14602847 0.15304455 0.053976614 0.08418562 -0.034350563 -0.010909068 0.017306378 0.033422276 -0.100495644 -0.04678356 -0.03271312 -0.1370133 0.119157374 0.060204208 0.09236376 0.055937417 0.083031125 0.09426067 -0.1490284 -0.14086173 -0.11161536 -0.10330473 -0.003910963 -0.16854665 0.09926789 0.083920315 0.08139399 -0.04818767 0.03509369 -0.10730366 -0.092811145 -0.11020924 0.017986983 -0.12403588 0.13277856 0.0056377435 0.0153039545 -0.08559062 0.0030121715 -0.08244 -0.017485404 0.00090099673 -0.082666166 -0.09723885 -0.09740209 -0.072077684 0.07124992 0.10757367 0.038978513 0.042179152 0.03295192 0.10983095 0.06455629 0.127819 0.13161592 0.002872204 -0.04241626 0.10273457 -0.027429104 0.1244622 0.03508918 -0.11105063 0.080478765 -0.07026535 0.08172786 -0.1043672 0.025985196 -0.009350141 -0.13578627 -0.029885653 0.05479761 0.02860251 0.07301713 0.14533867 -0.11925407 0.011472456 -0.09917107 0.095588356 0.06704864 0.09487974 0.0546602 -0.08703438 -0.083408095 -0.07725241 0.054411855 -0.024168694 -0.060068168 0.17537403 -0.0698112 -0.1031436 -0.123562075 0.044791758 0.013218584 0.14036162 -0.07459575 0.040973607 0.1051506 0.031755783 -0.14916088 -0.03578062 0.15616879 0.055280678 -0.09104129 -0.024965404 0.03984464 -0.12366125 -0.099027075 0.1460824 -0.11746248 0.15188023 -0.04292941 0.1437938 0.067182355 0.0035433725 0.09389003 0.1789694 -0.13598788 -0.00025756072 -0.042905483 -0.04365969 -0.04138552 0.025416588 0.15662783 -0.0812798 0.0684125 0.022824237 -0.025182642 -0.02247796 -0.029966058 -0.012077037 0.04358328 -0.025402235 -0.13660192 -0.1216067 -0.043346204 -0.06639909 0.13215809 0.005602737 0.013964137 -0.030485492 0.02935206 -0.12562303 0.053582802 -0.031077819 0.061163176 0.11877964 -0.08431279 -0.027613373 -0.12991583 -0.115599565 0.054138444 0.014227196 -0.1586662 0.094907634 0.14380918 0.06354196 0.110710114 -0.095250346 0.1593318 -0.061033446 0.11294152 -0.065170765 -0.053825364 0.11026301 0.14384747 0.16908783 -0.01038561 -0.11569973 -0.07732779 0.015585079 0.0078072 0.13985376 0.1433603 0.13633208 -0.07268368 -0.023544181 0.061878547 0.108234406 -0.07790367 -0.075427845 -0.11738581 -0.06324898 -0.033504 -0.087262936 -0.012051937 0.038846318 0.05061479 -0.114470966 0.11412197 -0.089259416 0.12316301 -0.043254092 -0.15244566 -0.019088866 0.09004524 -0.12865037 -0.054539457 -0.014980618 -0.042192433 0.13041049 0.07382911 0.13069564 0.02031829 -0.12341275 -0.11735687 -0.019297253 -0.016215282 0.10868663 0.09785738 -0.049560063 -0.033621427 -0.030169498 0.053874314 -0.037790395 -0.004085374 0.04334536 0.11252102 0.017095333 -0.09043846 -0.1256273 0.06823743 -0.05082944 0.12087183 -0.019945702 0.09082761 -0.1365744 -0.10348927 0.05724699 -0.016693896 -0.11299275 -0.011253289 -0.046898253 -0.120947585 0.007155387 -0.023793243 0.07226871 0.0069684237 0.03375837 -0.121029995 -0.13451307 0.09256293 0.06318524 -0.14560436 0.13333961 0.087013274 -0.082607724 0.040487982 -0.068161875 0.13427615 0.03435362 0.08661166 -0.13151704 0.070136786 -0.03563053 0.12619586 0.12523165 -0.009662011 0.10291573 0.07431825 -0.057886988 -0.012732383 0.034346383 -0.07421628 0.12694797 -0.017624667 0.067793846 -0.08375531 0.019507742 0.024444642 0.022990365 -0.12911454 -0.101570524 0.07576003 -0.044998318 -0.09337425 -0.033562534 0.03828752 -0.12716189 -0.021166757 -0.08565237 -0.058274053 0.072479025 0.13734294 0.11934252 -0.010242581 -0.07690507 0.03845243 -0.059436075 0.04874961 0.066187635 0.14113973 -0.122314915 0.07238977 0.1343746 -0.08045308 -0.095933296 -0.0861263 -0.047926396 -0.11059086 -0.127891 0.05505833 0.06071283 0.09325704 0.021446899 -0.074609905 0.069286376 -0.058352903 0.013743684 -0.0025580972 -0.11906731 0.118003234 0.0064065903 0.05087596 -0.04540059 -0.0063154846 -0.11750077 0.102709815 -0.051840693 -0.050697148 0.004043296 0.048680246 -0.051458657 -0.114038065 -0.058632202 0.09517383 -0.10288393 -0.00039740227 -0.08211817 -0.06056422 -0.14534894 0.03584327 -0.07935259 0.01589726 0.09986245 -0.018776368 -0.12407927 0.09333973 0.063623644 0.08270945 0.012012645 -0.04296689 -0.024584953 -0.01763682 -0.12606409 0.03803036 0.09048746 0.08539459 0.12275737 0.03318622 -0.090011954 0.0015414348 0.011908376 0.0009830693 -0.043880135 -0.1403907 0.021198668 -0.06642918 -0.14079212 0.08639642 0.08081481 0.103385665 -0.080811866 -0.045609318 -0.13628465 0.09891735 0.03314601 0.057011377 0.16491936 -0.12674588 -0.11214765 -0.10802342 -0.1109517 0.028890628 -0.121144645 -0.0045783203 -0.006920039 0.041072372 -0.10670395 -0.031659342 -0.13297856 -0.10455564 0.12119977 -0.13887694 0.08940841 -0.020439312 -0.0538737 0.11851974 -0.12613653 -0.059586547 0.116741166 0.052707102 0.0013258873 -0.04626269 -0.105266966 0.10103821 0.03967407 -0.032654926 0.12288038 -0.1344159 0.12687308 -0.022457149 0.11665354 0.034642886 0.11655757 0.04601054 0.10593041 -0.0129404105 -0.102081865 0.05155716 0.10573794 0.07077826 -0.008869293 0.13525307 -0.017548699 0.08654709 -0.093544275 0.08521974 -0.09993198 0.055450846 0.12340493 0.08867809 0.029416274 -0.079170994 0.09885295 0.02192014 -0.09546611 -0.10194294 -0.0351318 -0.12582065 -0.018994577 -0.0081640575 -0.10503823 0.12148894 -0.025414804 -0.030257426 -0.009922976 -0.027132362 -0.15054893 0.13022801 -0.04698041 0.06673239 0.033811327 0.005574054 -0.05064471 0.14145477 0.13111654 0.09013136 0.11413623 0.12624915 -0.043667406 0.06730471 0.13591543 -0.11930868 0.034312617 -0.1420835 -0.070835575 -0.013160407 -0.06520009 0.054744516 -0.07254617 -0.11651306 0.09457536 -0.029507745 -0.12382339 -0.044565592 0.003145671 0.0046067093 0.14875148 -0.10678799 0.07072166 -0.0709083 -0.13218457 -0.025022822 0.023627862 -0.03903679 0.014373212 0.12029672 0.12857231 0.0026340354 -0.01939881 -0.02106657 0.10562564 -0.100808755 -0.12625226 -0.11248039 0.010949228 0.08820245 -0.14972584 0.028914891 0.018640885 -0.019283151 0.0005945298 0.06550502 0.09301258 -0.014047472 0.08646368 0.04825162 0.13094708 -0.037361134 -0.09342441 0.08388574 0.0019560058 0.07324972 -0.13285242 -0.011853169 0.08799138 0.0014440028 -0.106089525 -0.121077314 0.115999125 0.12914544 0.09851515 0.06830195 0.053375654 0.046523653 0.08971807 -0.044346478 -0.005087682 -0.03131696 0.08944494 -0.07306181 -0.0120601365 0.08969956 0.06484328 0.031172303 -0.013146261 -0.09395618 -0.09748476 -0.019397497 0.13177334 -0.03286641 -0.07919056 0.01319702 0.093785904 0.11217492 -0.021518962 -0.11954365 -0.01024116 0.055111878 0.035294518 0.102969274 0.0010944653 -0.10508109 0.0050722267 -0.06458714 -0.054782826 0.07932607 0.0007848206 -0.026584646 0.036654126 -0.05846771 -0.12069462 0.05396701 0.12517944 -0.08021593 0.050247006 0.023330895 -0.041160904 -0.04136252 -0.11922518 0.036477156 0.027827606 -0.11580965 -0.11285834 -0.06579077 0.023653507 -0.006457684 0.050055612 -0.07961469 0.03800483 -0.061013274 0.062103797 0.017332641 0.00019093609 -0.02430769 0.04080628 0.0020055515 -0.07108258 0.12817381 -0.12518774 0.0039118603 0.049507216 0.0023244321 -0.03826378 0.09637731 -0.10544865 -0.090255454 -0.021974364 0.115487404 -0.0836159 0.06622047 0.034832943 -0.13121448 -0.04923511 -0.019707868 0.032841995 0.06552409 -0.008980528 0.10909584 0.12656923 -0.036055356 0.030880818 0.05764947 -0.11218413 0.07725257 -0.10035272 -0.007820027 -0.052813385 -0.107707925 -0.027285974 -0.030337736 0.0089778425 -0.099037 0.01971336 -0.032008786 0.05798415 0.09187682 0.17687342 -0.09990708 0.011841387 -0.13636748 -0.08010502 -0.13682535 -0.02586001 0.09463984 -0.03302543 0.10745082 0.07791035 -0.03523494 0.08331491 0.110202305 0.07519102 0.12447445 -0.09370545 0.11436885 -0.11056258 -0.017391948 0.06491607 0.06591538 -0.02576311 -0.018542564 0.05541374 0.0028985434 0.13157508 -0.07398361 0.071536206 -0.00545874 -0.006107426 -0.01837261 -0.121732816 -0.119748086 0.029883001 -0.14416693 -0.091064155 0.10998681 0.032118972 -0.10916357 -0.02624919 0.14520025 0.11300249 0.068616495 -0.126399 -0.01667607 0.12424116 0.13007496 0.046178002 0.028782453 -0.06125082 0.016246725 0.061625164 0.080477156 0.061648857 0.046533763 -0.0991772 0.06340113 0.023670191 0.14958704 -0.12721963 0.07876222 -0.027236165 -0.12906736 -0.107639514 0.07329941 -0.01785408 -0.12092345 -0.122329965 -0.06080578 0.10231415 0.12305553 0.035303306 0.06713773 -0.074163586 -0.11360595 -0.13276236 -0.09422399 -0.05022961 0.10677477 0.12352695 -0.12080928 0.023846712 -0.033248678 0.0238469 0.053095438 -0.0139870085 -0.11512431 -0.034752477 0.08445238 -0.041085176 -0.1322949 0.036785267 -0.011670062 0.11792093 -0.13521327 0.1129557 0.07441909 -0.118727304 0.039242856 0.1389459 -0.10433466 -0.07009699 -0.099862196 -0.12752712 0.1234585 -0.0885125 0.035653114 0.023208447 0.07017288 -0.08668866 -0.06861602 0.014810795 -0.09767446 -0.020713426 -0.01832594 0.09615853 -0.13458344 0.046864353 -0.14008802 -0.07610549 0.018636784 -0.1292516 -0.058469854 -0.11075843 0.053528868 0.048153434 0.121418096 0.007327053 -0.1116869 0.028730758 -0.01735489 -0.012430711 -0.020724311 0.09374388 -0.032115266 -0.023138022 0.022140257 -0.013068841 -0.0911449 -0.04650983 0.10659127 -0.11543675 -0.027792944 -0.03720375 -0.09822635 0.12825318 -0.077169 -0.022927914 -0.039363593 0.0636062 0.0030126856 -0.068498075 -0.0050380216 0.1083157 -0.1294734 -0.11303377 0.034954954 -0.00087819743 -0.07358955 0.08132723 -0.037718806 0.11249718 -0.06872356 -0.03925131 0.12942995 0.12611386 0.015976109 -0.1412682 -0.0066898596 0.11553104 0.06780753 -0.13227336 0.1075702 0.08450119 0.12860763 0.08171238 -0.013629612 0.09601648 0.05536342 0.026883233 -0.13436513 0.13148683 -0.025801348 0.015882391 0.075612016 -0.09973208 0.0207004 -0.07745126 -0.1342309 -0.12559614 0.12513825 0.015414046 0.03939497 0.13504592 -0.10255885 0.0070133307 -0.14354274 0.15179527 -0.09927248 -0.10985021 0.06938906 -0.09813441 0.023218445 -0.012513435 -0.08645902 0.05322096 0.10071937 0.1289595 -0.11352583 -0.14403981 0.123936355 0.010384878 0.07228753 -0.037944574 -0.09574222 0.0270139 -0.093427636 0.11397266 0.073903486 0.11006359 -0.112544775 0.09636492 0.0034080683 -0.03537601 -0.07501755 0.037518382 0.10749307 -0.13974419 0.081688724 -0.100834504 -0.058501862 0.10354669 0.026507685 0.12141986 0.06041316 -0.0031818212 0.056579027 0.021989847 0.073166735 0.1257026 -0.017537937 0.13037057 0.07746649 0.12061969 -0.13113509 0.08505093 -0.12752233 -0.12951691 -0.11190959 0.10867283 -0.05227763 0.05755481 -0.07165079 0.09389021 0.072704725 -0.121877365 0.04368068 0.16352624 -0.12841158 0.15491323 -0.13674225 0.014509608 0.0435767 -0.017154586 0.10035673 0.102059714 -0.071536295 -0.131527 -0.02011173 0.22795992 -0.12287754 -0.112019666 -0.042126115 -0.085411474 0.13695142 0.072302684 0.10248107 -0.10563137 0.061537832 0.022756677 0.059638083 0.05562892 0.002492439 0.12934394 -0.13331327 0.008569946 0.11437233 0.024130302 -0.06870557 -0.012357298 0.04233175 -0.10054436 0.08213324 -0.1191783 -0.08521124 0.034937687 0.007323276 -0.04810063 -0.048401065 -0.059666686 -0.0476148 0.0679395 0.1542684 0.06498657 0.013580287 0.07371762 0.08726586 0.08929348 0.14782272 -0.11712327 0.12781955 -0.08325067 0.030874692 -0.11902745 -0.10754268 0.08879866 0.032387514 -0.08009637 0.008800611 -0.09874482 -0.017298717 0.091634184 0.09518371 0.011453636 -0.08738531 0.07584887 0.009257871 -0.09915604 0.032268167 0.08465539 0.13503425 0.068746924 0.12658055 0.024059622 -0.102778345 -0.046265066 -0.089558035 0.13627869 0.05990262 0.11882603 -0.1163831 -0.07027934 -0.05260924 -0.11478826 0.07319955 -0.012463489 -0.0053479625 -0.09566263 0.011564509 0.045956362 -0.10693938 0.055827614 0.053697817 -0.08903311 -0.06799732 -0.11498869 -0.11421308 0.091480345 -0.18023609 0.092859894 -0.11983138 0.12139171 -0.066257864 -0.102606334 -0.13609467 0.03104329 -0.11186234 -0.049471695 0.12892249 0.028637711 -0.058074903 -0.13840991 0.025607025 -0.08775834 0.15348104 0.057673704 -0.048841048 -0.017994292 0.081796475 0.06690576 -0.027272737 0.10106608 0.07008189 -0.11916614 0.07373551 -0.00022636882 0.08596922 0.03946276 0.10285916 0.13048613 0.11371113 0.039502416 0.20200959 -0.050247796 0.026359446 0.13924055 0.015994368 0.15319523 -0.13746937 -0.012567302 -0.10531418 0.04792877 0.09337129 0.048761763 -0.02305807 -0.022741713 -0.06715436 0.14469072 0.08282241 -0.082741246 -0.022918088 -0.048729107 -0.09984097 0.04527371 -0.11818761 -0.0011387616 -0.09275228 -0.017935364 0.08580964 0.13428111 -0.058709793 -0.108414836 0.09345214 0.0075509427 0.06150009 -0.005455573 -0.010090536 -0.062767945 -0.0059205047 0.011221968 0.051594585 -0.0023565763 0.071960844 -0.03724801 -0.08907607 -0.048770297 0.0970721 0.12403065 0.009198946 0.06982748 0.03488966 -0.050503433 -0.039110083 -0.0612043 -0.07931442 -0.09161234 0.100461416 0.057476792 -0.097023025 -0.12959018 0.05680494 0.07990529 0.13021931 -0.07764351 -0.12190148 -0.02518045 0.11549029 0.063857116 -0.0073407963 0.03262299 -0.036918003 -0.01577502 -0.083653055 0.052369382 -0.1125747 0.050889462 0.031640317 0.15548868 -0.10356549 0.023307962 -0.13613112 -0.11967002 0.03503809 -0.015743302 0.008744089 0.020468095 0.10796197 -0.055659734 -0.02912368 0.09206618 -0.10473343 0.09064465 -0.061039627 -0.06401955 -0.02977247 0.10620077 0.02086083 -0.039528955 0.061813187 -0.13557869 -0.096079856 0.06081488 0.029867059 0.10503631 -0.09484355 0.11712449 -0.022936832 -0.10336791 -0.02194899 -0.12577099 0.025830282 0.068500236 0.009530005 -0.03035582 -0.14141557 0.025246378 0.07908559 0.068145424 0.10597527 0.015845388 -0.10444759 0.009877665 -0.08621101 -0.112929694 0.05113846 -0.096610926 -0.10195507 -0.13795082 0.11295007 -0.11343735 -0.0811114 0.016835677 0.06855345 -0.09518495 -0.082391225 0.108424075 -0.12766902 -0.03788849 -0.06701742 0.070768826 -0.0624613 -0.07399748 0.034836546 0.024333127 -0.083443135 0.07060768 -0.08031222 -0.052669484 -0.04290921 -0.094764195 -0.013709204 0.1027573 -0.019208694 -0.12792122 -0.117171876 0.12924142 -0.1405316 -0.1033455 -0.116593204 -0.0138805425 -0.04802514 0.027433828 0.0073286938 -0.120365776 -0.0071382257 -0.07760404 0.030563295 -0.090846576 0.13582768 -0.01535663 -0.089715876 -0.062264368 0.11560033 0.03835973 0.102932855 -0.020035334 0.0005745739 -0.083168164 -0.034581207 -0.106850594 0.0012946725 -0.026494913 -0.06939563 0.115012005 -0.114963494 -0.039661415 -0.08813147 0.038012564 -0.075636245 -0.11019614 0.028427154 -0.0818062 -0.0743213 0.0819315 -0.019187048 -0.003204465 -0.022801831 -0.035253122 -0.1409669 0.10309853 0.021590278 -0.08167168 0.12622969 -0.041988865 0.038200572 0.04554893 -0.089925125 -0.12679154 0.010115325 0.03006722 0.10779013 -0.10231003 -0.081915066 -0.12403144 0.12472661 0.04756221 -0.08056201 0.059960395 -0.17037721 0.11683762 0.115919776 0.006057309 -0.05772463 0.031890497 0.10691941 -0.07637167 -0.14921385 -0.027531363 -0.068536334 0.27393055 -0.021918751 0.056594785 -0.036029186 -0.06595708 0.24793859 0.14276809 -0.034756895 -0.03653059 -0.0062942603 -0.08821854 0.032676615 0.010713758 0.066444114 0.14313385 -0.08327396 0.0033849406 -0.040716983 -0.033923607 0.019667836 0.11744018 0.06393494 0.09275528 0.17681433 -0.014265725 -0.04752588 -0.09576329 0.06621322 0.21182115 0.024010278 -0.16073921 0.014147782 0.07828079 0.07822208 0.017379075 0.045434065 0.056135345 0.094770834 -0.06759006 -0.100770734 -0.13272455 -0.0396523 -0.11360035 0.08191284 -0.027565632 0.116368845 0.060176883 -0.018940445 0.03136507 -0.03974929 -0.053302273 0.07773435 0.00911989 0.13444376 0.063190855 0.051977366 -0.041445706 0.013203223 0.07116242 0.14453562 0.13873807 0.0034786079 -0.11386401 0.07866704 -0.06483042 0.14850077 -0.12169957 -0.038308743 0.13158494 -0.019934114 -0.003729293 0.06998614 -0.041162483 -0.086507894 -0.061410077 0.048362624 0.13018842 0.01697692 0.025701948 -0.015665215 0.03843463 0.093340226 0.10812496 -0.03224078 0.0074181715 -0.010206518 -0.005800131 -0.12209369 -0.1371066 0.077687666 -0.013760328 -0.07324148 0.07543549 -0.042770945 -0.03762655 0.09818615 0.044574894 -0.02888956 0.026488423 -0.13864659 -0.036294024 -0.08328137 0.08803798 -0.08279168 -0.028944097 0.123533 -0.1411438 -0.025786266 -0.0611626 0.07854786 0.015777059 -0.034429338 -0.118730746 -0.091646686 -0.060052127 -0.045253072 0.06150855 0.034490705 0.023262024 -0.030151315 0.052067004 -0.022863116 -0.100316554 0.076460905 -0.09268863 -0.031945422 0.11553426 0.0426712 -0.0332574 0.051167965 -0.014892944 -0.04414116 0.14055093 0.054730356 0.075796224 -0.0011994094 0.012044489 0.03160151 -0.12632284 0.041971423 -0.060536683 0.07685163 0.056854393 -0.099256255 -0.09143182 -0.11797399 0.13155368 -0.0141167855 -0.061808743 -0.14034969 -0.059296533 -0.11729572 -0.06451614 -0.008246051 0.06547667 -0.13161567 0.12555394 -0.13423389 -0.13582969 -0.10596982 0.13631819 -0.008891506 0.058964644 0.088468425 0.11522187 -0.082717985 -0.1353412 0.123418614 0.09224575 -0.13281299 -0.057856333 0.04232601 0.0887726 -0.04182074 0.022843704 -0.043408904 -0.07381511 0.122899994 -0.11905547 -0.021101331 0.0087005105 0.11628038 -0.05679816 0.10474614 0.08155135 -0.13264947 0.13298206 -0.09748267 -0.031775862 -0.100134864 0.10914107 -0.12930016 -0.002973467 0.118057355 0.09068817 0.048540354 -0.14047495 -0.0268697 -0.072536446 0.004398346 0.13804238 0.020197257 -0.024561971 -0.07548658 -0.12798531 -0.017517313 -0.09903942 -0.0036174953 -0.12521116 0.033058763 -0.040860258 -0.13098924 -0.025205925 -0.10442671 -0.01762499 0.09674458 -0.13608928 -0.117289424 0.09752029 0.048320964 -0.08011336 0.12890117 -0.07965706 0.13407369 0.070049316 0.056579247 0.08418138 -0.08700059 -0.12354513 -0.026908003 -0.0069509298 -0.056446232 -0.057730697 0.11970694 -0.10161007 -0.016787156 0.047151715 -0.1355919 -0.056399755 -0.10295543 0.08127457 0.028480427 0.11797277 0.052345052 0.12096645 -0.09192632 0.11436387 -0.00077037513 -0.00062949 0.005463913 -0.035405822 -0.12091262 -0.07399256 0.06207831 0.007663965 -0.085890666 -0.08528869 0.12098285 0.12628452 -0.12760413 -0.07420697 -0.009054034 -0.017943636 -0.063692875 0.086875215 0.03976512 -0.103055626 0.09702384 -0.028673658 0.11829437 -0.13618031 -0.07549776 -0.023435922 -0.07264884 0.053148255 0.01635914 0.054778136 0.0065794215 0.0831685 -0.1299409 -0.10767582 -0.08005833 0.05525875 0.089222625 -0.08028854 -0.06711208 -0.10306824 0.10495493 -0.10616832 -0.09001628 -0.052882865 -0.1180771 -0.015205368 0.08165261 -0.12620069 -0.0597295 0.069347486 0.10150823 -0.13194081 0.07381752 -0.1328176 0.042360976 -0.014251769 -0.095720604 0.13967977 -0.09894663 0.033564538 -0.106086254 0.1315173 0.06921001 -0.012936607 -0.057161815 0.027522609 0.05933988 0.020633534 0.07212515 0.052380294 -0.016863644 -0.09490864 -0.070427574 -0.13048324 0.13923399 0.061472133 -0.05142899 -0.06920135 0.044277206 -6.583333e-05 -0.02862221 -0.0037993044 0.021431535 -0.06924166 0.07823007 0.025604412 -0.029540695 0.0018796325 -0.015234277 0.1275392 0.08127098 0.10317725 0.09413564 -0.10394453 0.06377984 0.12650675 -0.12821789 -0.10140164 -0.111861184 -0.010532599 0.03205636 0.070346676 -0.0038898385 -0.13196 0.0056658117 -0.04146382 0.016125422 0.0687092 -0.08956008 -0.023337197 -0.01624886 -0.10899474 -0.1276677 0.15490335 0.12717903 -0.115279436 0.030877957 0.06516915 0.052744616 0.06291653 -0.09510865 0.09830437 -0.0029964608 -0.03364561 0.006358087 -0.019771684 -0.004289996 -0.09161419 -0.078954466 0.019035053 0.09687073 0.0045741317 0.048114814 0.09902723 0.07769683 0.12117551 -0.13309805 -0.07534646 -0.14713655 0.06947462 0.01583168 0.1394393 0.111848675 0.14975004 0.013031401 -0.10772212 0.12119711 0.0052430183 -0.014526501 -0.047475062 0.042309586 0.10427642 0.11029194 -0.08368029 -0.02128361 -0.008663631 -0.04232546 0.06232966 0.077685006 0.07371305 -0.041457858 -0.080840215 -0.08459616 -0.11018133 -0.078120336 0.09114583 -0.071812145 0.0021717637 -0.08497666 0.117962696 0.02410619 -0.0020171038 0.017643725 -0.08290206 0.0051881797 -0.08558098 -0.1290924 0.09323317 -0.1187364 0.005404705 -0.066957474 0.1224289 0.112427294 0.0029962626 -0.05692895 0.031243786 0.059845414 0.067097336 0.087013066 0.07773527 0.017790549 0.12397685 0.032814074 0.119677976 0.027340157 0.021656454 0.13889037 0.08550442 0.025602981 0.10717156 0.105202004 -0.039097704 -0.07461653 -0.10969213 -0.12818807 -0.061958905 0.08594214 -0.12682235 -0.043087576 0.12396035 -0.023704864 -0.1226888 -0.059766587 0.04447807 -0.048785385 -0.0697901 0.013545465 -0.03382672 -0.11292649 -0.1350008 0.07836868 -0.025208391 0.14379494 0.016484821 -0.0013153156 0.045352645 0.05171164 -0.13558497 0.009879038 0.063979626 -0.04137027 0.13353601 0.08840921 -0.0016248968 -0.06513487 0.015832238 0.016247064 0.039351895 -0.056093674 -0.03893556 0.05961691 -0.011040822 0.056197956 0.027353838 0.11041002 -0.03865529 0.04462269 0.12900098 -0.07887142 -0.0032343268 0.043435454 0.032956257 0.12108289 0.10381292 0.13053392 0.061246455 -0.046675898 0.07320087 0.10717802 -0.13906807 -0.01620105 -0.07278736 0.043652207 -0.086839356 -0.115092024 -0.0828456 -0.13544312 -0.0068873614 0.08798146 -0.09620428 -0.04020354 0.07224646 -0.10346598 -0.11329399 -0.022718802 0.05376263 -0.059590943 0.005976528 -0.010891944 -0.13917491 -0.09802405 0.061129212 -0.10457628 -0.036539637 -0.02715505 0.053618357 -0.014529929 -0.045387976 -0.056839377 0.10867183 0.06572491 0.15993325 -0.05671629 -0.08076342 -0.0079452265 0.11623177 0.12410966 -0.04253803 -0.07548958 0.070547745 0.027530743 -0.19799154 -0.031799223 0.08261135 -0.07582709 -0.1478094 -0.15432072 0.09030421 0.20304145 -0.11244352 -0.16095006 0.14236067 -0.059359834 0.06933755 0.017593391 0.030867063 -0.048327513 -0.012922543 0.06114718 -0.08466045 -0.11531271 0.021568654 -0.104229204 0.07920254 0.13077664 -0.0138927465 0.17070486 0.039283484 -0.032502025 -0.015046871 0.059038512 0.090137586 0.0852135 -0.034569476 0.14158815 -0.076990925 0.092692666 0.11728004 0.09836284 -0.07572887 0.044417933 -0.058991697 -0.13979663 -0.033642594 0.130199 0.06546198 -0.0221114 0.048405617 -0.0049051195 0.07585684 0.04275681 -0.041194327 -0.12774478 0.0021698603 0.09801686 -0.13794057 0.045947667 -0.13351163 0.06614359 -0.12248943 -0.0865743 -0.017441073 -0.058861807 -0.12661631 -0.05983907 0.0128972735 0.09994724 0.12742148 -0.04894644 -0.109466605 -0.059236534 0.08874543 0.0714888 0.15117513 0.0085957395 0.08743714 -0.08402187 0.09598034 0.075525075 0.08726882 0.029746985 0.15902975 0.12018597 -0.18892795 -0.13296801 0.004240865 -0.07212107 -0.12323466 0.058586616 0.12009367 -0.058816403 0.030706104 0.12424191 -0.12032672 -0.026291255 0.11781296 -0.07216808 -0.016248196 0.075679526 0.1177745 0.088042215 -0.008389722 0.13307564 -0.12940423 -0.11296196 0.099007584 0.01752969 0.13018216 -0.07640195 -0.14143898 -0.0036129917 0.027182203 0.112625144 0.046878684 0.10052743 0.047967386 0.047073994 0.110287175 -0.08291154 0.031376846 -0.11725017 -0.020521324 -0.125758 -0.11005696 -0.03312991 0.08117762 -0.09808137 0.037949674 0.087914556 -0.036768872 -0.13218184 -0.051613394 -0.060724612 -0.09989815 -0.06550484 0.040878356 -0.024309974 0.021394873 -0.10692531 -0.02862091 -0.04342343 -0.1085941 -0.016591804 -0.094148666 -0.0061201453 0.012917485 0.12031442 0.070081666 0.134364 0.048248924 -0.019659348 -0.11385326 0.016216561 0.0041475547 0.06556658 -0.11224504 -0.06766187 0.118379876 -0.123162985 0.13492574 0.12603073 -0.053271335 0.020721586 -0.10440486 -0.114625916 -0.0022072569 0.0045996485 0.05377945 0.07614031 0.115354404 -0.063116394 -0.08303535 0.12667373 0.10735142 -0.045678515 -0.0562106 0.042506218 -0.14074142 0.039010674 -0.1201225 -0.029289616 -0.12404606 -0.07189277 0.11226156 -0.012687547 -0.0076280087 -0.119548984 -0.10797175 0.04039769 0.03623494 0.0401239 0.12500705 -0.09541429 0.041227937 0.016060704 0.09032186 -0.05015802 -0.103441946 0.083415896 -0.052879628 -0.10127295 0.07285321 0.13520505 0.001803756 -0.054507688 0.12723161 -0.09655853 0.095186375 -0.085141234 0.13029242 0.047608387 0.096998826 0.047512833 -0.071957596 -0.05908794 -0.08088892 0.024762478 -0.08235175 0.08420663 -0.08419474 0.0077939983 0.021459749 0.02883226 0.09569254 -0.08184359 0.030086711 0.010241968 -0.0112535525 -0.03564377 -0.04400125 -0.02396833 -0.10353273 -0.11737124 0.108071074 0.056174193 0.056815162 0.022847569 -0.035006702 -0.12987833 0.08543877 0.073294826 0.07354493 -0.01046272 -0.06299652 0.018632375 0.037687346 0.05112309 0.0006941815 0.02878043 0.12720487 -0.067465924 0.056241177 0.057159893 -0.035719093 0.032118138 -0.061414156 0.12454326 0.07521153 0.124690436 0.051982317 0.04467228 0.09824086 0.09458574 -0.054900613 -0.13745463 0.0144926235 -0.021694675 0.0006107003 -0.0106367655 0.107296556 -0.13641809 -0.05560201 -0.055093776 -0.09036391 0.012145822 0.114448525 0.035143517 -0.050076976 0.024674995 0.039510585 0.14413469 0.074597836 -0.079644635 0.010230389 0.017843692 0.09959284 0.110883065 0.040837143 0.12539652 -0.09315185 
-0.07553581 0.040877186 -0.008882558 0.09371598 0.07567128 0.04281493 0.12193792 0.012171525 -0.016614098 -0.05976294 0.08520512 0.12524979 0.010493193 0.04643701 -0.10176381 0.04037428 0.0047550746 0.008597716 -0.06664046 0.005840393 -0.01051382 0.023288844 0.119362645 -0.13290587 -0.05511312 -0.058102272 0.041449886 0.046519395 0.03890039 0.07193731 0.008685937 0.04218295 -0.08645123 0.12978426 -0.012521284 -0.12967482 -0.04952136 -0.12837617 -0.12807146 -0.06866221 0.02122876 -0.027700009 -0.0324505 -0.13673939 0.09510967 0.12654969 -0.03189285 -0.1352676 -0.056498278 -0.14463098 
Rect
Linear 50 50
-0.08741957 -0.13889764 -0.10746486 0.07666218 0.08264071 0.03908941 0.019088835 0.07082543 0.013088986 -0.0009844154 0.0800409 0.0810937 -0.13683017 0.044559017 0.07966587 0.047197714 0.031233147 -0.045354128 0.09842336 -0.011863425 -0.06846594 -0.040892646 -0.049106658 0.025050819 -0.0011819303 0.08701976 -0.1398033 0.05076611 -0.09783951 0.07584977 0.1204126 0.016009063 -0.13514508 -0.062897295 0.09660789 -0.037500583 0.060891926 0.0085769 0.0057276487 0.07171197 0.11430545 0.07521513 -0.11265765 0.0034338236 -0.0075746626 0.010600865 0.03989218 0.10289933 -0.13502438 -0.064367056 0.0743424 0.13724437 -0.1372596 -0.0996516 0.115188226 0.15004738 0.11655069 0.15687391 0.038023308 0.08730778 0.1490614 0.09687102 -0.013103503 0.05633956 0.06972116 -0.11314738 0.017839072 -0.025235755 -0.111493096 -0.13172221 -0.16123249 -0.038921133 -0.10946033 -0.080683224 -0.0022838372 0.00021744527 0.14430241 -0.02272593 0.12886006 -0.103979886 0.010791344 -0.0010679481 0.12694229 0.2021791 0.13045393 0.060785115 -0.049034137 0.10379431 0.12189683 -0.021269597 -0.10970937 0.0392732 -0.03977047 0.06853932 -0.06387403 0.0807711 0.008542438 0.1314054 -0.076826 -0.07716087 -0.12361618 0.057681337 -0.0722279 0.14019899 0.052717756 0.07295784 0.018932434 0.14121436 -0.09788445 0.036650434 0.119305655 -0.13762145 -0.112260066 0.045010224 0.12953247 -0.04754939 0.065103345 0.098149136 0.0140299415 -0.038059153 0.05160974 0.008852931 -0.014882757 0.12765618 0.100195445 0.07871963 -0.11231024 -0.11496146 0.13473524 0.043079104 0.014883862 0.062331054 0.01631689 -0.009321651 -0.044190325 -0.08218599 0.12848665 0.12655975 -0.09637195 0.089960545 -0.10790676 -0.06838499 0.035096705 -0.007030502 0.16110791 -0.09502249 -0.028325683 -0.12105418 -0.060856044 0.010655326 0.085131705 0.11730988 0.042968635 -0.068067975 0.06330888 0.09644957 -0.113282144 0.11773698 -0.024358237 0.123203926 -0.060881633 -0.11286086 0.06147508 -0.033690423 0.1396531 -0.08277814 -0.10549173 -0.13436687 -0.062706366 0.014798634 -0.12207392 0.052643694 -0.101599164 0.003697291 -0.02176521 0.02823573 -0.073018394 0.044160236 -0.008561247 -0.109544486 0.08854571 0.088076025 0.13715048 -0.021805743 0.010900369 0.08266333 0.04434744 -0.050035745 0.031310067 0.09123579 0.07794844 0.1336737 -0.09184694 0.0690881 -0.09451468 -0.096380115 0.036974054 -0.14124987 -0.121394716 -0.013648579 -0.10034685 -0.062166404 0.051169813 -0.09344617 -0.040268157 0.085784286 0.016198574 -0.14135158 -0.020110404 -0.02841023 -0.06454768 -0.05947468 0.07603443 0.0887114 -0.12202105 0.0016809576 -0.024536151 0.04659824 -0.11066855 0.044633355 -0.13177517 0.010457232 0.026686737 0.019117758 0.08519041 -0.103798084 0.0633109 -0.10199284 -0.07471186 -0.004231779 0.066640146 0.10294895 -0.1387431 0.053664457 0.022827923 -0.043472 0.0025739623 -0.008821577 -0.07678681 0.052565575 -0.018396746 -0.1278591 -0.11602032 0.052186683 -0.03135142 0.0047519654 -0.047962435 0.0056767613 -0.034487713 0.10468722 -0.12838392 0.10733756 0.13259037 -0.08274875 0.0961983 0.029573156 -0.014092955 -0.005293641 -0.082697555 0.012263111 0.120562755 0.10776344 -0.07552301 0.052590843 -0.08627288 -0.040304106 0.027691018 -0.055911206 0.033748973 0.035717834 -0.08080091 -0.09779112 0.08970959 0.04993323 0.14509393 0.09782729 0.066201754 -0.07669323 -0.12248333 0.101367116 -0.111546785 0.010072842 0.1279624 0.021512227 0.07298585 -0.10323886 -0.11223684 0.09599997 -0.059243813 -0.11743385 -0.14129606 0.119891934 -0.080074415 -0.06706682 0.13464247 -0.047802884 -0.13483863 -0.042984143 -0.0023042092 0.0016755265 0.09814643 -0.033831134 0.040592495 -0.108097784 -0.03936166 -0.104489535 0.13467771 0.041471932 0.10288176 -0.10757738 0.124312505 0.10941087 -0.10436603 -0.016600728 0.031761214 0.12950918 -0.061442304 -0.029116288 0.046910986 -0.02805349 0.10353046 -0.07837449 0.06956 0.10530587 -0.107992515 -0.10165216 -0.12847134 0.048218004 0.051884975 -0.11572161 -0.11837159 0.015167024 0.13640837 -0.04147023 0.0768601 -0.030042902 -0.13983576 -0.031154498 -0.09060639 -0.03735044 -0.12893403 0.08269695 0.058174558 0.09596796 -0.08505774 0.002687572 0.12881798 0.09297352 -0.11868072 0.08347704 -0.08903391 0.14448091 0.09215109 -0.002901218 -0.10804461 0.095503114 0.042576253 -0.03395155 -0.054763995 0.06729123 -0.01522688 0.1209249 -0.06382179 -0.13789715 0.0050519556 -0.07726934 -0.11015366 -0.058799837 0.14048983 0.087671354 0.06940885 0.0332176 -0.028247928 -0.04896616 0.033777695 -0.11587223 0.15423253 0.10537309 -0.124290965 -0.047095116 0.0016028248 -0.08700684 0.050043836 0.037577294 -0.05254537 0.025828913 -0.05205562 -0.07493732 -0.08190117 -0.11232437 0.113957286 -0.11328773 -0.12218907 -0.042573728 0.13405944 0.077144794 -0.09337607 -0.13818313 -0.0506802 -0.08823904 0.13482553 0.21529444 -0.16270678 0.16678782 -0.02912267 0.009914176 -0.11885973 0.05169892 -0.17076732 0.0022923227 0.16171116 0.0734913 0.10553234 -0.11525853 0.0064361095 -0.09319811 -0.04520104 0.023159156 -0.11353407 -0.11171242 -0.045556232 -0.0795106 -0.042507574 -0.07788611 0.10464865 -0.04635686 0.15307896 -0.036424015 0.18385792 0.11114855 -0.07476096 0.035328534 -0.04913289 0.1408919 -0.10971172 -0.07005947 0.021743974 -0.098644346 -0.053152315 -0.007436663 -0.16994269 0.02474512 -0.048694726 -0.008476272 0.05002284 0.19997993 0.090374045 -0.1396325 0.13526414 0.15202293 -0.12584223 -0.08965119 0.11061655 -0.07585452 -0.09380287 0.11513956 -0.0059257 -0.13821265 0.0628767 0.07986997 0.09721327 -0.037345752 0.0934297 -0.050438114 0.08725758 -0.13493021 -0.030394033 -0.09442823 -0.12782906 -0.012325928 0.09926012 -0.03349629 -0.09186621 0.046230122 0.104117855 -0.104454085 -0.023904279 0.11985533 -0.09304649 -0.11274256 -0.12793061 0.07251565 0.06326832 0.12129693 0.032298386 0.10806151 -0.10330103 0.07156554 0.09238714 0.137421 -0.12518421 -0.09155655 0.01796022 0.046670303 0.004342377 0.03568539 0.021639913 -0.010441482 0.12151025 0.060860425 -0.13501665 0.062966004 -0.10101747 0.13374175 -0.032799657 -0.014122902 0.06064787 -0.07555181 0.01524581 0.108635634 0.07653591 -0.073986195 0.106111735 -0.09682834 0.024633408 0.13144784 -0.06363352 -0.019978533 0.06682268 0.091081426 -0.028212007 -0.013725342 -0.12865408 0.11568089 -0.092793 0.1341206 0.12742737 0.13944304 -0.041691806 -0.017775955 -0.12962966 -0.019135995 -0.07512725 -0.052223433 -0.04155996 -0.07004248 -0.010092472 0.029327244 -0.010718569 0.10263932 0.05715151 0.10863365 0.013760508 0.070371106 -0.010375598 -0.03020087 0.08141042 -0.004814354 0.093905695 0.0036699583 -0.1386693 0.09407735 0.09431693 -0.013343834 0.103065826 -0.0471264 0.059148133 0.003092553 -0.010082798 0.08427444 0.088968836 0.048878048 -0.059081618 -0.02388316 -0.093062595 0.012211908 -0.07681549 -0.05100681 -0.02537506 -0.1148615 -0.093179315 -0.115812816 0.076917656 -0.06463718 -0.100804485 0.115102194 0.09917107 -0.085833326 -0.12525752 0.11378462 0.12976374 0.08784737 0.10790457 0.12308209 -0.12414089 -0.09848788 -0.064794876 -0.023394972 -0.054334026 -0.062181488 0.118665546 0.13424806 0.0003536972 0.021831036 0.066106275 0.025883604 0.123703256 -0.04909238 -0.08188383 -0.011384476 0.039540336 0.14231311 -0.16241753 0.18899268 0.17554833 -0.025373451 -0.11872542 0.09559072 -0.1607371 -0.13517201 -0.06608763 -0.0024219982 -0.10380704 0.0024785318 -0.1294443 -0.04077125 -0.015052382 0.01844467 -0.11103327 0.036981106 0.02576795 0.15644866 0.12704879 0.04243207 0.0111078005 0.123835385 0.099860236 -0.13140683 0.11452364 0.15489152 -0.045622967 0.01267829 0.025053889 0.18083666 -0.049124096 -0.08079597 0.017555712 0.018710122 -0.026036544 0.0021836907 0.001759931 -0.08723895 -0.0012655187 0.018064782 0.16620004 0.11991622 0.08490397 -0.00729813 -0.1314451 0.13745917 -0.13393034 -0.069995716 0.023663728 0.119680166 0.06880017 -0.11996886 0.011352732 0.013489964 -0.035947915 0.08915987 0.030158104 -0.049150396 0.06904753 -0.067004636 -0.0065681785 -0.12388438 -0.06778112 -0.13418403 -0.10476551 -0.13525715 0.048444696 0.063728034 -0.051227964 0.013898402 0.0022613471 -0.1373122 -0.06301985 0.06759491 0.081940174 0.01110081 0.111556664 0.034647048 0.088584766 -0.060343128 0.0064883777 0.13987376 -0.11258972 0.08513817 -0.11173821 0.03637539 -0.053623136 -0.1116129 -0.102565534 -0.07605342 -0.038857035 0.10407086 -0.022402465 -0.04533095 0.07574772 0.1012138 0.121904686 0.0701998 0.11027205 -0.08229898 0.07878097 -0.03315095 -0.0011310903 0.014151142 0.08415211 -0.07325731 -0.13983671 0.008902372 -0.09035001 -0.09241532 0.03256388 0.07981668 -0.13516654 0.079675 -0.12900326 0.048626445 -0.08966789 -0.10797167 -0.09880827 0.008207836 0.10924683 -0.03935175 0.07544083 -0.023913624 -0.014859127 -0.0105840685 0.12334022 -0.13722824 -0.10999349 0.046332844 0.091483414 0.11337693 0.06925491 0.068335444 0.06469317 0.110948905 0.03408472 -0.101657644 -0.13871254 0.06725462 -0.106987104 0.0630491 0.10041355 -0.11475717 0.059677873 -0.053067423 -0.041708592 -0.13643743 0.10798233 0.004845744 0.08318236 -0.13097376 -0.04918743 0.10470285 -0.09990476 -0.044420756 0.1260097 0.04235809 -0.10756609 -0.029709784 -0.026071787 0.1226611 0.04303574 -0.059580293 -0.08307851 -0.13323872 0.015110494 0.05175766 -0.07404743 0.007395282 -0.09994007 0.08851056 0.08972372 0.06741748 0.10506322 -0.101641685 -0.0019175684 0.07942913 0.015043542 0.0022131365 -0.1355541 -0.02650922 0.07999639 0.07496449 -0.014072046 -0.1228479 0.12418947 -0.1083946 -0.09881028 0.051087037 0.13111433 -0.04540245 0.001792535 0.0428059 -0.06167178 -0.12417221 0.12607098 -0.07199092 0.16572711 0.089595966 -0.16221537 -0.042560145 0.11484036 -0.14784485 0.14832006 -0.028346483 -0.13426265 -0.1659172 -0.0019099549 0.0531171 0.09679414 0.15316077 -0.09822026 0.13144964 -0.045401003 -0.07303653 -0.030824885 0.03656367 0.07597813 0.08085532 -0.0047412924 -0.11692439 -0.022837002 0.0028392065 0.065947846 -0.1575489 -0.028851045 0.0666478 0.12112807 -0.0068412563 0.07118846 0.05844991 0.12425983 0.013451636 -0.04833278 -0.058266014 0.12161169 -0.04574856 0.045560643 -0.044503063 -0.07781005 0.041182723 -0.040169943 0.0923079 -0.02660697 -0.08682727 -0.03232736 0.100106075 0.09064351 0.0110670775 -0.010613814 0.015921071 -0.08908683 -0.06818014 -0.02340895 0.08740431 0.054457635 0.018500939 -0.0715797 0.04114203 -0.07994701 -0.14039433 -0.020744547 0.092853606 0.11203091 0.007303402 0.073362574 0.005299315 -0.063835286 0.067569986 0.07697195 0.029277802 -0.05238963 0.043884084 -0.06307414 -0.12621178 0.061440796 -0.0245191 -0.05463274 0.060622856 0.10492484 0.07664175 0.0033613145 0.09447004 0.014070362 0.06666197 -0.13436759 -0.027922511 -0.07004587 -0.14090699 0.10869093 -0.09667292 -0.0062491745 -0.017476931 0.10186653 -0.025049202 0.10785858 0.20755328 -0.18276595 0.120155856 0.079699576 -0.01670262 -0.119130015 -0.070891 -0.13558793 -0.04579656 0.15085886 0.06967602 -0.052829728 -0.006310674 -0.07525705 0.11810279 0.041703142 -0.092122875 -0.04335651 -0.055766832 -0.11625005 0.05369324 0.014190899 0.10204456 0.16031489 -0.069128744 -0.018728122 -0.13617913 0.08320651 -0.0051681446 -0.08127522 -0.088116616 0.10963769 0.08759003 0.060524974 0.020572146 0.075486034 0.014388159 0.10167375 -0.025440887 0.09270137 0.08281144 -0.013293789 0.11178501 0.055301208 0.094530456 0.060220875 -0.13185097 -0.06582328 0.028427575 0.09512806 0.0059703616 -0.034182712 -0.03831051 0.06555422 -0.04728054 0.09102601 0.08616055 0.090579085 -0.080107704 -0.019583786 0.13926207 -0.0006875602 -0.030154387 -0.12640788 0.07488565 0.10807309 -0.103999116 0.13915624 0.007574138 0.05822412 0.13369678 0.031091306 -0.08333799 -0.1411823 0.02114074 -0.023830168 -0.031341594 -0.14152426 0.091726586 0.13161285 -0.11935049 -0.034646094 -0.05887818 -0.024875008 0.105746314 -0.10249066 0.029756248 0.06425625 0.102782756 0.12161379 0.062620506 0.11198364 0.055561453 0.1155227 -0.09437556 -0.013077483 -0.07945791 -0.12608764 -0.061480984 0.034857474 0.12404363 0.0018952249 0.14395736 0.057946593 0.13112876 -0.048340283 0.13660316 0.10419662 0.11105709 0.08086978 -0.09578158 0.0081405435 0.11854127 -0.13268012 0.022311676 -0.09677523 -0.10083295 -0.09106522 -0.065954655 0.085840754 0.13099235 -0.13133632 0.00949094 0.13068286 0.083268575 0.15988296 -0.1261648 0.101430036 0.017448856 -0.096090846 0.0539782 0.042120025 0.013629287 0.0849143 0.0344781 0.07622433 0.0439049 0.06610312 -0.05901756 0.037979927 -0.071604684 0.037903473 -0.13862103 0.090683445 -0.09859397 0.06594611 0.015286923 -0.01261026 -0.10962498 -0.08291693 0.12461198 0.06445775 -0.021105574 -0.004981179 0.13264605 -0.030201098 0.008407843 -0.13089104 0.02607728 -0.012647993 0.13631079 -0.080263644 0.039247114 -0.07817497 -0.10473465 -0.03433404 -0.1365771 0.04885442 -0.13561678 -0.042336434 -0.07544553 -0.052059334 -0.0023785622 0.06764701 -0.083655804 0.11353406 0.059555713 0.13902287 -0.05544932 0.0573921 0.11124493 -0.07470054 0.09850947 -0.01405126 0.11924616 -0.012978724 0.09651843 -0.09058296 -0.0115531385 -0.07143526 0.016582621 0.12891015 0.039014086 0.034687415 0.03969245 -0.073610954 0.03109755 0.113120735 -0.06639508 -0.07409045 0.03204783 0.13429828 0.12053624 0.12798333 -0.09391133 -0.035096295 0.023093926 0.05020493 -0.06935589 0.07232662 -0.035555314 -0.02823999 0.0024539996 0.10951148 0.10902889 0.084900066 -0.12635863 -0.10615102 -0.04617964 -0.07731275 0.076952204 -0.07776809 0.07365121 0.08304659 0.09353964 0.1241509 -0.08775015 0.014735172 -0.066976056 -0.08529445 0.006065447 0.111680076 0.14491206 0.095998965 0.03631869 -0.13079153 0.0441806 0.05652757 0.03868723 0.04749679 -0.09765507 -0.031367145 0.04622683 -0.005594135 0.002999155 -0.053615414 -0.06054863 -0.094409086 -0.12281281 0.1198814 0.017168889 -0.06837317 0.10273486 0.013277856 -0.031899195 0.14470749 -0.14208981 -0.045023054 -0.10533699 0.117002696 -0.09096645 0.050434034 -0.097902305 -0.1310334 -0.05201483 -0.086735524 0.011900953 -0.034488775 0.0291975 -0.08265794 -0.050118033 0.09184504 -0.09814548 -0.074364364 0.13024238 -0.11384524 0.031064343 0.041203085 0.058660742 -0.12270121 0.039413035 0.09510042 -0.03630681 0.016681522 0.12925546 0.012840297 0.051720515 -0.03858377 -0.13949932 -0.11000822 -0.04793292 -0.07506857 0.13494284 -0.02287334 -0.13013378 0.016374383 -0.0217098 -0.038761314 -0.079360984 0.08363883 0.22480077 -0.11880276 -0.011704535 0.12662864 0.12951563 -0.16359611 0.14755712 -0.16065462 0.048678596 0.045075882 0.05057716 -0.071397945 0.08097818 0.064591765 0.026665071 -0.026443442 0.042791095 0.11002911 -0.13036133 -0.041732203 0.13239667 0.029668728 0.13080701 0.093600094 -0.04431638 -0.010240395 -0.04726653 0.10149596 0.05615945 -0.014250983 -0.04635566 0.104011714 0.23093869 0.072285935 0.13126852 -0.06598088 -0.0062627494 -0.13068692 0.056393325 -0.089462265 0.022844836 0.10501266 -0.0067581832 0.1144573 -0.05448104 0.058166105 0.051459376 0.1134638 0.004010186 0.009847995 -0.067764826 0.18518633 -0.10613308 0.02789299 0.05595781 0.080069676 -0.090962425 0.16151151 0.1685113 -0.089786656 -0.17631257 0.14899392 0.03546473 0.0019144118 0.14696829 -0.06322936 -0.03515717 -0.035416853 0.052225 0.010428519 -0.1452199 0.045460593 0.050899897 0.022129703 0.13356777 -0.08364621 0.01566042 -0.118280575 -0.049527463 0.00065521145 -0.055724297 0.13697587 -0.033449747 0.10223716 0.10850228 -0.039810352 -0.06746262 0.1212129 -0.11621232 -0.07495571 -0.11717405 0.026739912 0.08506167 0.09172032 -0.023432285 0.074938625 0.11128376 -0.07907729 0.13046722 -0.108358294 -0.044749208 0.05026677 -0.064105935 -0.08706845 0.073615775 0.1221285 -0.12248648 0.06125798 0.027745364 0.06404358 0.02017544 0.14131467 -0.059947412 0.08138789 -0.013446907 0.02699165 0.01709844 -0.124927066 -0.058881626 -0.017043374 -0.014137071 0.034085672 0.029453069 -0.09920999 -0.09348017 0.02188774 0.13456401 0.050436657 0.018265583 -0.08818313 -0.12012376 0.07282305 -0.12774178 0.09200188 -0.05340866 0.12503757 0.05518517 0.024959113 -0.06514035 0.016631031 0.13489954 0.102115974 0.10040289 0.09272494 -0.040385608 0.0668353 -0.012582957 -0.10987449 0.09356934 -0.11548499 -0.051204324 0.085991554 0.08426589 -0.058618303 -0.011396645 -0.0060510226 0.07229463 -0.0625845 -0.08207463 0.08299829 -0.08980951 -0.020286024 -0.02804122 0.05676225 0.05776141 0.07203323 0.030759145 -0.006513344 -0.11937973 -0.011610198 0.12876904 -0.06469605 -0.08308284 -0.08239081 -0.13266459 0.13271363 0.016209334 0.09085057 -0.068125516 -0.101335496 -0.06242626 -0.13147223 0.048558064 0.13457577 0.099071845 -0.11196202 -0.037167355 -0.076698415 -0.050854407 -0.08530023 0.003622964 -0.06662384 0.08313519 -0.048803136 0.08629568 0.1377831 0.09051719 0.11681582 -0.13465646 0.048632603 -0.0180168 0.06866097 -0.12568316 -0.07404207 0.0067858915 0.027523275 -0.031777047 -0.028910534 -0.09623996 -0.13920769 -0.07863658 -0.08546565 0.09447229 0.07238968 -0.012801385 0.0021989527 0.028945386 0.02012732 -0.037953246 2.6535561e-05 -0.12785691 0.10746623 0.082432255 -0.0446005 0.045662764 0.091723725 -0.029652797 0.09207819 0.10684658 -0.035017285 -0.094062366 -0.017817229 -0.068883285 -0.13432297 0.027499422 0.033558547 0.0599432 -0.11204384 0.066184655 0.088774495 -0.07196898 -0.1394488 0.13403748 -0.11415392 0.08708963 0.04793694 0.12350924 0.10916989 -0.12590717 0.027116654 0.0016456274 -0.036176186 -0.010787151 -0.020242257 0.077891365 -0.009794949 -0.06273247 -0.06574896 0.057024047 0.04311662 -0.036175806 0.017082747 -0.08660547 -0.0017978549 -0.110776044 -0.051498387 -0.046649236 0.11449909 0.08810101 -0.10652671 -0.03508579 0.12333556 0.036809623 0.024654485 0.011093053 0.047726996 -0.016284382 0.099117234 0.041407924 0.085194014 -0.06708182 0.029712051 0.070371896 -0.047115214 0.06296083 0.118585095 -0.04085876 -0.093545906 0.05951488 0.060605887 0.023885448 -0.12175648 -0.12323152 0.07555952 -0.033383574 0.01590992 0.021464247 0.107118115 -0.07302077 -0.11882142 -0.15621224 0.014842566 -0.11093166 -0.062484074 0.051171962 0.022081165 0.07097986 0.16079655 0.07145022 0.044251338 -0.15099624 0.09315039 -0.013550852 -0.039862677 -0.051725354 0.13082348 0.09689505 0.11127734 0.09566791 0.09477742 -0.057213277 0.08723319 0.05602847 -0.011002986 -0.049135864 -0.00815345 -0.062330224 0.078218676 0.032573294 -0.09661412 0.020221967 0.032777265 0.06468503 -0.017717399 0.05232197 0.030485203 -0.06354202 -0.05834213 -0.12918346 -0.030353054 -0.10800875 0.017623672 0.11081092 0.0042969454 -0.059060562 0.07478645 0.13978697 -0.10758215 -0.009496048 -0.12447122 0.11692883 -0.12169748 -0.07901796 -0.00054223835 0.021957487 -0.09754292 -0.052118897 -0.019728571 0.108958945 -0.0285803 0.035661608 -0.060192324 -0.13319728 -0.03564056 0.046786517 -0.07436565 -0.120134115 0.034005836 -0.124882296 0.08266115 -0.110587016 0.043708444 -0.11058754 0.023764417 -0.0887803 -0.089515425 -0.11720144 0.025154084 0.073988736 -0.13584983 0.10094181 -0.06643618 -0.12863176 -0.118591934 0.014073715 0.015796691 0.08516182 0.07266182 -0.063359596 -0.10861014 0.10489018 0.12761448 -0.115449026 0.083612114 -0.038150944 0.03410381 -0.10574879 0.032534912 0.115566686 -0.06318073 0.060664803 -0.028352719 -0.045567084 0.10082344 0.04160342 -0.0031133194 0.12788136 -0.085060105 0.0063611474 0.12532622 -0.083952494 -0.0118105095 -0.09774926 -0.06312024 -0.11077602 0.08059696 -0.08274797 -0.0330088 -0.09448598 -0.07900353 0.0046056337 -0.13941193 0.08479649 -0.00034693212 -0.12365883 0.05982093 0.01603037 0.10624422 0.03181106 -0.104469605 -0.12802856 0.03772314 0.2033688 -0.011582989 -0.114313684 0.08251276 -0.057546295 0.06422796 -0.06613202 -0.06652492 -0.04378146 0.106463686 0.03943725 0.025343489 0.14715537 -0.059361905 0.103330605 -0.07890793 0.014326352 0.05636299 0.02374743 -0.109343454 -0.10130241 0.10503662 0.07175955 0.11179529 0.06980034 0.01506488 0.0354011 0.040661614 0.11266919 -0.07496483 0.11083194 -0.05858036 0.07419376 0.0989632 -0.009431488 0.12604621 -0.048319373 -0.059700012 -0.0020865984 -0.049644228 -0.14079812 -0.03952486 -0.114591375 0.14625317 -0.09557341 -0.05848093 0.0029592088 -0.038498905 0.12414027 -0.003109172 0.14466037 0.028428048 0.017234623 -0.06647139 -0.0035143197 0.095170714 -0.13228281 0.05322396 -0.07878401 -0.045539673 -0.1294087 -0.1330274 -0.08942821 0.14073476 0.042545773 0.024641447 0.114335515 -0.09118529 0.078837655 0.021996444 -0.029770497 0.087030865 0.07097392 0.042490892 0.033090137 -0.10546814 -0.03817532 0.13951595 0.07616869 -0.09685743 0.01357521 -0.11976365 0.12223777 0.116632104 0.12379684 -0.06355838 0.101747476 0.06645876 0.10716024 0.07342972 0.0062602945 0.093664825 -0.09698934 -0.0695266 0.064840175 -0.039557204 0.11945707 -0.112763494 -0.051972557 0.016218662 -0.002851968 0.14022626 0.12780225 -0.011332925 -0.06974289 -0.10363261 -0.018499836 0.023618918 -0.038624857 0.040316433 -0.05872734 0.027189191 -0.13474473 0.07548272 0.024603913 0.107834145 -0.124575235 -0.12366592 0.105946586 -0.09170991 0.069603674 0.06556696 0.04694416 0.11532631 0.001153127 0.045963064 -0.0075946026 0.16458157 0.04583424 0.12393968 -0.09165493 -0.03591323 0.13011543 0.09894511 -0.097778596 -0.026265644 0.13765173 0.084076636 0.084082544 0.13329034 -0.015609009 -0.11040543 0.11992435 -0.03931771 -0.12329208 -0.09034818 -0.080456495 -0.0148816 0.077753566 0.044508174 0.043129034 0.10987778 -0.12779495 0.0669913 -0.12748586 0.096500516 -0.1086019 -0.054991823 -0.03471005 -0.05965803 0.11658974 0.13133736 -0.033965055 -0.07562542 0.075563 0.027815796 -0.0054559675 0.04402007 0.02516861 -0.06402834 -0.040395543 0.14612982 -0.007944171 0.057302292 0.061239704 -0.048998266 -0.10689686 0.12412129 0.061102893 -0.08888254 0.09598458 0.1404338 -0.113291435 -0.10295273 0.07235349 0.00047134497 0.05326859 0.093534574 -0.09534915 0.14139114 -0.050539244 0.041805036 -0.0070282677 -0.14485519 -0.11545535 0.095016845 0.04363153 0.13004811 0.11577766 0.013160974 -0.12869889 0.09448899 0.007091582 0.09296568 0.13724239 0.13213578 -0.056644708 -0.09184152 0.10962714 0.02999109 -0.07401913 0.0025230153 -0.07044001 0.042845275 -0.0071183015 -0.10240301 0.044844072 0.108986795 -0.10860589 -0.078968115 0.019770512 0.11131693 0.023870043 -0.12036104 0.0030355516 -0.11834768 0.12446862 -0.13745503 0.011067625 -0.0740419 0.005262326 -0.034403376 0.14129283 0.012700273 -0.13490847 0.1384839 0.008552926 -0.07949284 0.062822185 -0.00865502 -0.05671545 -0.014287112 0.10552362 -0.015493835 0.056118656 -0.08712906 -0.13934767 0.11180494 -0.11996912 0.1337416 0.022270951 0.10130236 -0.13636668 -0.11025977 -0.048965298 0.061971907 0.13315473 0.0033383705 0.083554275 0.07046646 -0.0311357 -0.13281742 -0.02560007 0.102800645 0.04182426 -0.100690655 0.028431531 0.11236804 0.016154816 -0.14782374 0.17927141 0.042979818 -0.010853526 -0.12415644 -0.018076792 0.075607225 0.103185505 0.060890004 0.060493346 0.06310489 0.0135095045 0.12519406 -0.044496037 0.009497404 -0.14647023 0.01364847 0.108235784 -0.0644297 0.009313192 -0.09774389 -0.09421524 -0.06538334 0.06955228 0.14944462 0.0030091044 0.019476607 0.057071008 7.828732e-05 -0.13648109 0.04297252 0.166608 -0.07996719 -0.06692638 0.03332359 0.012438178 0.010352942 0.0028737187 -0.037435662 -0.06626451 0.018631423 0.06374 0.12104481 0.16004558 -0.08808545 0.09417887 0.14048356 -0.028885331 -0.13170236 -0.0705178 0.00834794 -0.0794679 0.006707449 -0.020421963 -0.03656729 -0.039057396 -0.045495115 0.11119489 -0.07464431 0.1022947 -0.0554967 0.06764199 0.07412389 -0.09780471 -0.120196804 0.12825167 -0.04214218 -0.065644614 -0.01507219 -0.10743943 -0.018201614 0.009530669 -0.15149587 0.11430957 0.00089360325 0.029118203 0.05451495 0.062564634 0.085521735 0.11597983 0.10805851 0.03837196 0.08244954 -0.103157684 -0.053661786 0.0033813268 -0.11618768 -0.089137584 -0.059644163 0.040961858 -0.03878532 -0.13016786 -0.111510955 0.0624929 -0.061389346 -0.008981435 0.0065084165 -0.058172368 0.02416113 0.04700762 0.057238266 -0.010716304 -0.06347503 0.028832301 -0.013776809 -0.063600525 0.0888401 -0.13752653 -0.0088799745 0.06503731 0.07280497 -0.08067873 -0.017387547 -0.0968781 0.008742049 -0.119892344 -0.07572041 0.012029022 0.09516774 -0.073200546 0.07220788 0.08910845 -0.05458019 0.038968816 -0.06737358 0.033090845 -0.101456925 -0.09418354 0.115283296 0.010445401 0.13886558 -0.026960984 -0.13283175 0.011938691 -0.04816348 0.046450183 0.0057747215 -0.08273366 0.058357492 0.045406684 -0.0046420544 -0.12150429 -0.019142441 -0.08820541 -0.03119801 0.01648365 -0.06138677 0.05126773 0.042405065 0.0709303 0.11265088 -0.021346606 0.06144657 0.12835403 0.019544473 -0.04140628 -0.12485379 0.09137639 0.12752646 -0.0015150987 -0.0743561 -0.13906337 -0.074151345 -0.023821736 0.026957182 0.12821338 -0.09635307 0.13431951 -0.118549794 0.07582658 0.11976363 -0.03415901 0.12596506 -0.11394864 -0.061556492 0.10365974 -0.038929053 0.06438545 -0.047691755 -0.118915625 -0.0773152 -0.026791187 0.12781405 0.13747343 -0.087154314 0.060156032 -0.03363622 -0.012126014 0.09609017 -0.13630389 -0.043739803 -0.0066726655 -0.008919329 -0.05107109 -0.056564584 -0.092859745 -0.019076677 -0.10916768 0.11677776 0.12606493 -0.046866253 0.04248451 -0.03487618 0.046810027 -0.053561687 -0.0011882099 -0.03647104 0.10577955 0.12834357 -0.09823471 0.08313623 0.03925847 -0.027645133 0.057487346 -0.03519823 -0.010769299 0.10644503 0.008722118 -0.04601365 -0.085237294 -0.07039287 -0.04674581 0.026972452 -0.107784785 -0.07927672 0.09231345 0.16708167 0.0021368174 0.03652294 0.0893198 -0.051692322 0.1738756 0.017343564 0.114654355 -0.11604684 -0.061447784 -0.061049785 0.060128212 -0.040193744 0.1313695 -0.08846406 -0.06317315 0.17024978 -0.07868861 0.038881782 -0.13078061 -0.029916389 -0.11316871 -0.008953199 0.04122372 -0.07850148 0.05108212 0.05522032 -0.12720276 -0.046700783 -0.10872601 0.049546137 0.03541906 -0.056043983 0.044411585 0.060085043 0.13226153 0.110954 -0.10614823 -0.11146033 0.018230706 -0.05093944 0.037176624 0.05032094 0.124552116 -0.10965511 -0.124372974 -0.08986285 0.023824036 -0.019566879 -0.019457467 -0.017896578 0.07730214 -0.008793384 -0.027131476 -0.019726567 -0.12768887 -0.06599472 -0.029268138 0.00836502 -0.053153954 0.13769563 -0.07421357 0.02206561 0.08490941 0.06547226 -0.028390318 -0.046671554 0.05930604 -0.053956755 -0.09023756 -0.11191155 0.1200089 -0.031448245 0.06423789 -0.045801796 -0.008636478 0.08809816 0.053432196 -0.11505561 0.07191514 -0.07404366 -0.07272592 0.11332512 -0.027676465 -0.08197429 -0.08610565 -0.13307917 0.008029742 -0.020374682 -0.0043540196 0.039338905 -0.045975924 0.025933245 -0.015451491 0.008406537 0.050062627 -0.12718774 0.071120255 0.007892309 0.07186038 0.098785155 0.06376064 -0.030381275 -0.09552958 -0.001981184 -0.023421079 0.11606341 -0.030607417 -0.04585253 -0.12106681 0.07985941 0.02113454 0.12131245 -0.039938517 -0.09041873 0.03088583 -0.12381653 -0.10789899 0.1326233 0.06380484 0.12836353 -0.11456293 -0.12291203 -0.09099992 0.103491604 0.0041394103 -0.14422691 0.08749674 0.100269854 -0.007265077 -0.0011546426 0.04630693 -0.13014866 0.12338737 0.104017146 0.106221355 0.03796865 0.003201803 -0.029007448 0.14802004 -0.09600813 0.08416955 0.12889262 -0.1071017 0.09089653 -0.049368564 0.08074359 -0.03690253 -0.04756312 0.06986133 -0.0051612747 -0.0030993992 0.12693606 0.00063733355 0.01919362 0.08009433 0.0964391 -0.099899724 -0.09297627 0.1272812 0.07236485 -0.083863124 0.1036837 0.015549323 0.1289443 0.042419568 -0.050825447 -0.11914116 -0.024854647 0.0525517 0.017452555 -0.023236312 -0.08247514 0.09631307 -0.011951182 -0.04978786 -0.056491688 0.068613656 0.09772197 -0.0019324463 -0.019263253 -0.059565313 0.07223603 -0.1390303 -0.04073177 0.003617198 -0.12668864 -0.027824933 -0.120169476 -0.0007481898 0.08627755 0.0065907883 -0.07541244 -0.010251459 0.09311308 -0.01555037 -0.017760688 0.12710199 -0.0801245 0.0665162 -0.12062726 -0.05643997 -0.09029202 -0.025484577 0.039082542 -0.015632821 0.009337645 -0.03773278 0.038528964 -0.11798996 -0.0034999482 0.0062295794 -0.05937292 0.10754549 -0.07613248 0.0241417 -0.13474499 0.07078152 -0.10089082 -0.02914057 0.13856483 0.06659589 -0.095533036 -0.017126072 0.07865579 -0.065056294 -0.16110747 -0.075786516 0.09375489 0.039802805 0.11567485 -0.096096046 -0.15111507 -0.16932154 0.061014224 -0.06423868 0.050824523 0.15219276 0.13526644 -0.040703867 0.050122242 -0.070525184 0.10108043 0.09672622 0.12990285 0.1369371 0.09017807 0.05640754 -0.13266756 -0.073695436 0.05901007 0.03638852 0.074953265 0.12030123 -0.08559428 -0.15111381 0.0701486 0.11714013 -0.11278463 0.07002811 0.08831455 0.043926433 0.027175523 -0.040617283 -0.045251146 0.12943475 0.06505281 0.04289764 -0.00768249 0.03833468 0.1296441 0.048168283 0.061725736 0.114805266 0.114316784 -0.101324804 -0.002819121 0.07462394 0.11269261 0.077876985 -0.013598454 -0.1060822 -0.01622738 -0.009681091 0.0035055408 0.012641256 0.06912574 -0.014921011 -0.12097481 -0.12719716 -0.06290645 0.009104782 0.13001786 -0.049511373 -0.04238718 -0.14068909 -0.0612387 0.09317307 -0.0388188 -0.0070584975 -0.083302096 0.071335316 -0.0954186 -0.021950856 0.10368076 -0.02270206 0.07459782 0.015036479 0.1169364 -0.044308513 -0.12187502 0.053616554 -0.043474063 0.10423817 -0.078682266 0.11709772 -0.08615759 -0.08842486 0.12772559 -0.10388321 0.041702762 0.039446265 0.051976934 -0.10031608 0.08368158 -0.0155234635 -0.09465778 -0.11932817 -0.11711092 -0.03482485 -0.13072911 -0.08803457 -0.14127888 -0.010546133 -0.029718637 0.06912695 -0.030317508 -0.1373269 -0.13616228 -0.024750888 0.123159185 0.06273465 -0.020487063 0.019815698 0.09264639 0.0091599375 0.13670073 0.12160982 -0.013128713 0.077694416 -0.13231935 0.056515053 -0.045787767 -0.056638777 0.13160671 -0.01829686 -0.016188025 -0.033155106 -0.023271538 -0.037479796 0.010416776 0.045804054 -0.051472686 -0.027196184 -0.039284237 0.105647966 -0.04119172 -0.13068938 -0.0026231855 -0.0017440021 -0.07321267 0.054664984 
-0.07670808 0.02108829 0.0452796 0.02052218 -0.008791119 -0.116777554 -0.07289562 0.0152734695 0.13619897 -0.09462196 -0.09136154 -0.023818912 0.008503628 -0.070102274 -0.041222297 -0.12904292 -0.00014927026 -0.10978243 0.12784868 -0.12029174 0.08658314 0.13881084 -0.04453862 0.11576107 0.1459858 0.08869049 0.049815077 -0.10881346 -0.041104637 0.059782833 0.00069048884 -0.10477625 0.04540637 0.018948317 -0.02535597 0.06205602 -0.03377331 0.094127335 0.11185217 0.103994876 -0.07831246 -0.014398199 0.06302798 -0.08625999 -0.015266402 0.01859315 0.089339994 0.07814064 -0.10646953 0.0076408535 
Rect
Linear 50 50
-0.100770384 -0.16156767 0.10840522 0.13254671 0.052571822 0.07316645 -0.03820763 0.004201911 -0.1543612 0.059505105 0.0192784 0.0031838897 0.04160068 0.071070485 -0.07988353 0.08825262 0.05175335 -0.055940032 0.018381296 -0.0787672 0.046531506 -0.07347465 -0.01455451 0.081001416 -0.10762172 -0.07159283 0.025598785 -0.0017949492 0.13419451 0.09111932 -0.048721813 0.039206296 -0.0015536763 -0.15362643 0.1314342 -0.015507605 -0.0015740067 -0.12628374 -0.14824177 0.019499484 0.13474424 -0.085463576 -0.12806772 0.023477316 -0.03733853 0.11056583 -6.7096415e-05 0.1105829 0.109545045 0.046562 -0.0052493364 -0.050921626 -0.06282534 -0.11874504 -0.08852675 0.12334297 0.1201684 0.07109999 0.03690377 0.058349907 0.119513884 -0.0029049597 0.1565431 0.01882499 0.13109134 0.0007595157 -0.1313815 -0.09682172 0.1264133 -0.066756375 0.12972203 0.09052627 -0.053076286 0.019855294 0.17920767 -0.16644739 0.061357766 -0.11833259 0.1162917 -0.03154306 -0.13915282 0.05458595 0.16820055 -0.04247204 -0.065260105 0.0013209955 0.09827252 -0.020482555 0.14149697 -0.108017825 -0.09505613 0.12676382 0.050595254 -0.069873035 0.06758518 0.0010233202 0.016226461 -0.06553495 0.087367654 0.09986085 -0.015547052 -0.09187744 -0.054005593 0.071308464 0.09652442 -0.07614658 0.001031205 -0.0971773 -0.065213114 0.029528633 0.04374534 0.01593101 0.06433432 0.029230103 0.020772502 -0.13370658 0.060964644 0.09772909 -0.0767378 -0.02244559 0.006943926 0.12895457 0.084814444 -0.11677887 0.07946549 0.05971907 -0.110535644 0.054246634 0.051448792 0.06263913 0.1321729 -0.08267447 -0.05320853 -0.09383586 -0.07621913 -0.041490845 0.07419708 0.1385458 -0.061367773 0.026777834 0.09838468 0.092229754 -0.07028013 0.13312562 0.07838178 0.12914015 -0.00034865737 -0.11269299 0.07425484 0.07341659 0.11711322 0.12595382 0.12067302 0.14054072 0.10899181 0.08668989 0.116811216 -0.09306624 0.003060503 -0.013127103 -0.09080302 -0.039507546 0.20401576 -0.059332006 0.016157687 0.044585697 -0.056096226 0.05115497 -0.0093961265 -0.0067628394 0.0489587 -0.053360842 0.04043223 0.058659967 0.034779165 -0.017273312 -0.028178971 0.08502574 -0.10465705 -0.048025817 -0.07746448 0.083741024 0.1125242 0.117156714 0.0642797 0.018914893 -0.06901465 0.10694114 -0.07786877 -0.051375587 -0.090672284 -0.08155906 0.1474349 -0.13355452 -0.0973049 -0.10729819 -0.0074933516 -0.08947262 0.09053533 -0.12050673 0.068088844 -0.13257453 -0.06831611 -0.10192624 -0.13288358 -0.069511816 0.029801652 0.12728983 0.08206157 -0.116891004 0.11689521 0.06302109 0.046438493 -0.032772563 -0.0912669 0.10433041 -0.028552584 0.06516267 -0.04719255 -0.066167995 0.041273396 0.116568215 0.118764654 0.07840482 0.030511867 -0.12675062 0.068074435 0.048743002 0.07534303 0.12228734 0.13218193 -0.04914146 -0.11117004 -0.096361674 0.084579624 0.09934955 -0.09230319 0.061208636 -0.02141313 0.049554005 0.044212446 -0.0017007285 -0.12112694 -0.03767465 0.06853335 0.08627501 -0.031550847 -0.12559992 -0.07868082 0.0051064044 -0.13857323 0.16965061 -0.089278996 0.112910375 0.050399326 -0.044877496 -0.038129117 -0.09766375 0.16124502 -0.10399661 -0.0005546555 -0.09875871 0.068637185 0.07312787 0.11942219 0.008981481 0.012317038 -0.12125541 0.08027782 0.051493593 -0.025394712 0.09835427 -0.0097308 0.14619695 0.18722384 -0.11620027 -0.124089874 -0.090718515 -0.13737743 0.117045805 0.117591314 0.12858285 0.06054072 0.09158069 0.1398607 0.13884787 -0.104525566 -0.03859619 0.07658851 -0.10246623 0.046457544 0.026996054 0.003936127 0.07685475 0.0053157015 -0.0005556414 -0.0932357 0.11062151 -0.07905482 0.05079849 0.070784554 0.07590793 -0.07048432 -0.13292885 0.0886431 0.11356926 0.12382706 0.06460083 0.051414575 0.11225249 0.011623691 0.0032489155 0.014661258 0.08872956 0.0048767608 0.12751669 0.06340568 0.06947157 -0.1423081 0.0970615 -0.08329709 -0.11398864 -0.0012458299 0.060130894 -0.07051454 0.07410636 -0.12342661 -0.051215217 0.028386932 0.027301518 0.0062468825 0.03008318 -0.16043054 -0.03475359 -0.080687925 -0.13087891 -0.1218305 0.1103683 -0.038096603 0.10427644 -0.122371614 0.1440997 -0.05313203 -0.08969338 0.032143127 -0.06272511 -0.04103038 0.040006 -0.018121943 -0.11607899 0.07619488 -0.029649857 -0.117514275 0.0064739883 0.08767109 -0.059205033 -0.13634387 0.13687097 0.115397505 -0.10253865 0.11480468 0.11963992 -0.012347273 0.08628735 0.058395237 -0.00089470035 0.12443004 -0.0011167675 0.049147457 0.107706785 0.034903318 -0.09694278 0.043444686 -0.03770416 -0.06830278 -0.07207049 0.017425202 0.13570723 -0.13839829 0.091521434 0.09089591 -0.04243274 -0.019614594 0.103748195 0.024212847 -0.11146642 -0.10894003 -0.026635962 -0.06376384 -0.12650421 -0.028631538 0.09413086 0.06781634 0.017905414 -0.0479735 -0.085342206 0.051715273 -0.036086816 0.040390596 -0.04955826 0.008215606 0.032296844 0.0621443 0.04373041 0.09739228 0.1093238 0.044112142 0.09362556 -0.07351451 0.039196834 0.02019339 -0.048566375 -0.05254074 -0.030993931 0.109367065 0.07230844 0.16958208 0.042581603 -0.14780071 0.12825868 0.03966399 -0.0057543754 0.06310108 0.089438975 0.010854608 0.19036771 0.057094302 0.07764626 -0.1399123 0.06577996 0.088992976 0.06623049 -0.16592185 -0.065351345 0.07518219 -0.10432843 -0.12677206 -0.0627631 0.086795144 0.037588127 -0.101260096 0.113987364 0.046675313 0.05260776 -0.015268463 0.09628267 -0.04678891 0.16927119 -0.07785186 0.06550111 0.119458154 0.06978133 -0.051106233 0.054224033 0.10438793 0.020132555 0.07098605 -0.03779357 -0.054304127 -0.0909833 -0.08797893 0.0067759263 -0.08592664 -0.03726969 0.13083224 0.07764276 0.13658467 0.13434736 -0.023556774 -0.009280643 -0.055517204 0.028874466 0.11349597 0.027268698 0.08103961 -0.044458304 -0.09643105 -0.020233888 0.018642662 0.10036214 -0.0507038 0.007277414 -0.13042788 -0.1206783 -0.086264975 -0.027188018 0.03602301 -0.052808702 -0.055953883 -0.1002675 0.052366078 0.061922446 -0.03134691 0.10531178 -0.009730578 0.015695354 -0.11383066 0.019210132 -0.027924778 -0.124097236 -0.080809034 -0.08564313 0.043496206 0.021399528 0.01361458 -0.037375048 0.13755636 0.03791052 0.022645772 0.024912745 0.03381668 -0.12396781 0.11943205 -0.11459818 -0.105593674 -0.12738718 -0.14084391 -0.0731369 -0.038282655 0.07631023 -0.05109159 -0.08776783 -0.10477692 -0.08249469 -0.13073145 0.08646281 -0.093608946 -0.13989128 0.07400115 0.11474128 -0.0046628267 0.11173119 0.08193123 0.09496941 -0.07480223 -0.008356988 0.03053458 0.09898913 -0.09726772 0.10682675 -0.04967694 0.08620559 0.04016973 0.08018236 0.09264791 -0.00986211 -0.07155908 0.0017704219 -0.0034593493 0.022904858 0.037276343 0.078272134 -0.073351204 0.075576454 0.09780732 -0.12712047 -0.0014517348 -0.06996368 0.0723142 0.08558655 -0.11790876 -0.004364402 -0.110845 -0.11003573 0.084900595 0.0036706827 -0.12450378 0.009076491 -0.029020112 0.12948616 0.0815891 -0.08067153 -0.13613479 -0.11325693 0.041044503 0.08470673 -0.12775856 0.027207911 0.07946561 -0.008563204 0.051605243 -0.13853627 -0.089712806 -0.11174231 -0.016497621 -0.11574655 -0.010607942 -0.104172304 0.0047555976 0.00508132 -0.07683922 -0.08720724 0.1181718 -0.13282065 0.022314945 -0.055980567 -0.09941929 -0.023151787 -0.12404794 0.037125766 -0.03463743 0.014088335 -0.03655154 -0.0015704818 0.07949765 -0.020114994 -0.1075302 0.086346254 -0.09987137 0.10089965 -0.0692126 0.026350757 -0.12706071 0.03355593 0.010994782 0.11968551 0.025107594 0.0038692057 -0.092826344 -0.04008921 0.049079455 0.0024486003 0.07140543 0.082240805 0.0689658 -0.050370593 0.08365683 -0.04329423 0.002586548 -0.005806939 -0.07341922 -0.017149381 -0.13788997 0.13028869 0.117318995 -0.13057078 -0.13202606 0.11770114 -0.11907726 0.035943028 0.11448018 0.13840185 0.082788 0.030766532 -0.064353876 -0.06796379 -0.06804805 -0.004793928 0.043360215 -0.104040444 -0.02462811 0.08617105 0.14781561 0.025428247 0.02207746 -0.043723937 0.09860235 -0.01568552 -0.044917148 0.1277562 -0.11303935 -0.1301605 0.17114106 0.05401095 -0.027963817 -0.065531634 0.01295125 0.012411907 -0.10415482 0.09908936 0.017703792 0.14532438 -0.047049657 -0.10905466 0.16774622 -0.013409125 0.0368153 -0.09298987 0.03153912 -0.0020367512 0.09866793 0.08369039 0.061908603 0.034731533 -0.14456515 0.05482645 -0.121945426 0.13153428 0.13252921 -0.05444967 -0.057119064 0.083613805 0.05959107 -0.0076224804 0.018768929 0.038144358 0.051276818 -0.045165762 -0.07910294 -0.10047873 -0.09379925 -0.09999086 -0.12504962 0.083807245 0.12359749 -0.0943656 -0.13263932 -0.072657414 -0.08424614 0.12880142 0.012912393 -0.0685079 0.042854294 -0.13113233 -0.043347172 -0.12783715 -0.06915116 -0.10821356 -0.101950265 0.10086219 -0.05836892 0.076069295 -0.06221039 0.045583457 -0.023316197 0.12786649 0.05087693 -0.12644592 -0.12296565 0.06008786 0.022313356 -0.110770896 0.13759162 0.029541656 0.1143202 -0.13721259 0.0057124346 0.028279588 0.029108569 0.041969284 -0.016144827 0.12018989 0.09641719 -0.068177335 0.043178156 -0.0094587505 0.13202785 0.013065472 -0.013915062 0.0058149993 0.10148692 -0.028471418 0.09331307 0.029409796 -0.055005148 -0.1012958 -0.13306737 -0.025529973 0.04355195 -0.07533579 -0.024125297 0.116183214 0.07485832 -0.064059585 0.07603152 0.11096515 -0.07425225 -0.01465793 -0.019931875 0.049066126 -0.11171005 -0.022990352 -0.09184331 0.064163245 0.061628204 -0.1066622 -0.12830332 0.017961424 0.04812628 -0.12148556 0.0005869635 0.076000124 0.10534767 -0.0015394784 -0.11137984 0.0009693539 0.12222428 0.03431207 0.10105416 0.025174273 0.05387737 -0.10036649 0.081596866 -0.105970755 -0.12722097 0.08634147 -0.0243256 -0.062257025 -0.13244809 0.055370495 0.11308645 0.08692207 0.16349678 -0.0391695 0.06295776 -0.07320105 0.055227775 0.14509356 0.13323942 -0.07162271 0.0014280457 -0.022020089 0.13518189 0.068773754 -0.12672701 -0.111673996 0.013157031 -0.08109233 0.14623815 -0.020047303 0.12966359 0.063139245 0.0019795347 0.11000038 0.12539472 -0.10796914 -0.1277832 -0.07551288 -0.0603577 -0.07233854 -0.03605337 0.13293977 0.05246089 0.034321755 0.13957866 0.14032172 0.0802457 0.07594765 0.17839237 0.101008706 0.023852825 0.043789804 -0.029525714 -0.013280168 0.015108685 -0.11208275 -0.09727591 -0.09796425 -0.005014777 0.056884587 -0.012021735 0.07769093 -0.11693598 0.065748304 -0.015129074 -0.04840038 -0.027481467 -0.04529886 0.0059060156 0.011580959 0.0525707 -0.108475 0.13726346 -0.12270579 0.0059901625 0.026196986 0.03493163 0.09794852 -0.030290283 -0.03800816 -0.13494402 -0.094493456 0.0638396 0.07520999 0.04382062 0.13253628 -0.13548212 -0.08325125 0.12844779 0.04177825 0.12437002 -0.1124569 0.052746937 -0.046442747 -0.12104014 -0.05387091 -0.10182542 -0.07728827 0.02003409 0.07235502 0.006950915 0.0461372 -0.050382197 0.12198566 -0.12196208 -0.09207379 -0.09109832 -0.016842172 0.007683173 -0.04392671 -0.032054923 -0.084996186 -0.07142526 -0.07417023 -0.025165983 0.029790804 0.043174505 0.11127542 -0.015300889 0.07647887 0.0051136464 0.09312555 0.020881519 -0.016501911 0.05650784 0.11007701 -0.112217724 0.09362395 -0.12153319 0.0021502674 -0.13999045 0.0964239 0.021994412 0.007443325 0.0029841366 -0.04922045 0.039405186 -0.060272187 0.025705278 0.015364227 -0.0741836 -0.1267063 0.018699557 -0.13293876 0.068178505 -0.106964685 -0.06942613 0.1282572 0.07803474 -0.073987484 -0.111032814 -0.079568446 0.10361676 -0.124309644 0.12221815 -0.09462282 -0.008588536 0.06735188 0.03812413 0.0015933663 0.05395098 0.0046780864 -0.120406605 -0.10715392 0.1251382 -0.086286865 0.09734409 0.059073154 -0.110065185 -0.12449991 0.03152735 0.061640207 -0.03590664 0.12534423 -0.1077484 0.043374036 -0.06588904 0.12084882 -0.11036192 -0.0054379157 0.0095769605 0.049571652 0.054137643 0.13319467 0.05185606 0.08595404 -0.08746498 -0.05137757 0.03813434 0.1186743 0.06288363 -0.06877941 -0.047866512 0.12635824 0.04287987 0.11508859 -0.10230153 -0.10363801 -0.13989294 -0.03283449 -0.10058129 0.09685796 -0.11018917 -0.09911828 0.07358472 0.0047324486 0.110960305 0.04681713 -0.06142611 0.03248927 -0.08523208 0.032839257 -0.021297289 0.13592486 0.043434538 -0.028381916 0.08398679 0.13113207 0.15233813 -0.01972773 -0.12437836 -0.010454122 0.04262808 -5.182956e-05 0.08723733 -0.074198864 0.037068702 -0.08370739 0.0069747614 -0.05479008 -0.0061634574 0.12499949 0.039916396 -0.102215655 0.077531315 0.033318866 0.06417842 -0.1262853 -0.1296897 -0.057710607 0.068312176 -0.07744218 0.13017763 -0.0908375 0.08989237 -0.1053438 0.120728485 -0.070911095 0.026460318 0.08840545 0.115073726 0.014865167 -0.072538 -0.007114306 -0.008849183 -0.08103247 -0.12261428 -0.14705767 0.08228672 0.058574334 -0.005578056 0.008151829 0.08225483 -0.023768447 -0.06774602 -0.06323673 -0.10318668 -0.014859751 -0.10519332 0.08754587 0.13384156 0.045437858 -0.0793901 0.042689234 0.023554131 -0.11804028 -0.031222068 -0.058154427 -0.0777706 -0.12847137 -0.06268223 0.035069034 0.08643484 -0.07086878 -0.0764954 -0.08474833 0.020390213 0.12958775 0.13405897 0.0960743 -0.0068825036 0.06050907 0.06410876 -0.029593728 -0.04555124 0.13827135 -0.11104567 -0.11341825 0.04605083 -0.07234315 -0.0015509129 -0.09492318 -0.11340736 0.016953811 0.09160595 -0.06451843 0.05858463 -0.12545504 -0.09088875 -0.03477879 0.11973627 -0.0642606 -0.06964711 -0.096160166 -0.12964182 0.108826935 -0.13672031 0.13236351 0.041617922 -0.09104556 0.07967592 -0.11958481 -0.13347962 -0.08884514 0.14124776 -0.034237534 -0.03333105 -0.055876352 0.06335477 -0.011945467 -0.017861053 0.034506124 -0.067539975 -0.02918701 0.014201682 0.09017714 -0.01787281 0.13164188 -0.108538814 -0.021976536 -0.029289424 0.08831416 -0.16973236 -0.15590309 -0.04362597 0.079610795 -0.03410385 0.078785464 -0.017139018 -0.081044264 -0.09527715 -0.12814721 -0.0040184837 -0.027134612 -0.12782638 -0.058142077 0.075389415 0.03709375 -0.028817473 0.13606931 -0.05619608 -0.07441533 0.075237826 0.025876595 0.065635845 0.11817166 0.1334972 -0.044536807 0.15379472 -0.024691954 -0.09315858 0.060722604 0.0112425415 -0.13543114 -0.13036546 0.04985982 -0.077384315 0.05262208 0.1273356 0.014946141 0.017683094 -0.099109076 0.03539411 -0.058509905 -0.06290547 0.040554307 0.052473836 -0.11512376 -0.08346726 0.06163215 -0.010744729 -0.005552903 -0.0075823204 -0.06041034 -0.05587828 -0.021888722 -0.08848792 -0.0599714 0.100428425 -0.119708754 -0.031534627 -0.12929943 -0.065176636 0.05355507 0.03931539 0.028070448 -0.119117625 -0.12846275 -0.03611289 -0.13106464 0.1374441 -0.14271933 0.09399152 -0.1318368 -0.0060555935 0.061771497 0.05042927 -0.10780201 0.1093275 -0.11711708 -0.056050863 0.05159299 0.04269471 -0.024170272 0.021384135 -0.024812007 0.03424588 -0.091306314 0.13281812 -0.062020943 0.031173889 0.036756177 -0.060775258 0.08093335 -0.114896655 -0.14068048 -0.031369656 -0.07920174 -0.11508056 0.05265439 0.07479301 -0.042106993 0.1143957 -0.08684103 0.0567029 -0.13920252 -0.05172848 -0.13836081 0.021546278 -0.115966186 -0.0019225478 -0.026742075 -0.04330392 0.08621125 -0.11286588 -0.12654851 0.06674456 0.036044165 -0.10128319 0.09206617 -0.108718306 0.011823162 -0.058550745 0.05544682 0.04735799 -0.020669915 -0.086690426 -0.070832044 -0.12942933 0.007127717 -0.10170971 -0.10532004 0.011760399 0.064094305 0.11420743 -0.11017928 -0.023447014 -0.12813047 0.028171077 0.043051884 0.12247734 -0.0164515 0.033127666 0.090921625 0.031043217 0.027200937 0.053244352 -0.02875641 -0.008547246 -0.012683004 0.001916036 0.12358771 -0.02574493 -0.03487008 0.016009584 0.016597182 0.115490094 0.10939722 -0.12193149 0.13116582 -0.00012001395 0.03126569 0.08840598 0.09685911 -0.010503635 -0.059021674 0.09651409 0.11343007 0.02654554 0.029621273 -0.085874155 0.030041784 -0.087417156 0.106048405 -0.13966686 0.019611776 0.022855714 0.0331617 2.1204352e-05 -0.08415274 0.028361604 0.057041973 0.06009966 -0.11957655 -0.13647622 0.048633903 0.0005056709 -0.12509994 0.03339897 0.13959377 -0.0397551 0.07892655 0.022996709 0.08151454 -0.10379244 0.08773452 -0.049439438 -0.03311891 -0.01444149 0.050627545 0.01819475 0.005190879 0.07413654 -0.09277554 -0.06978258 -0.068319455 0.09667969 0.021023974 0.038806543 0.0021116734 -0.00482969 -0.035228007 -0.13628963 -0.11323731 -0.040145583 0.0673888 0.060930133 -0.13078451 -0.09413514 0.10835089 -0.049247853 -0.078289 0.0795916 -0.1012245 -0.08720862 0.13447142 -0.11347385 0.020435024 0.098668896 0.13182582 0.051720507 0.09656293 0.10617891 0.03906122 0.14028248 -0.10384658 0.022041 -0.06507015 -0.058631755 -0.12167511 0.011592469 -0.13011198 -0.0029746185 0.09796947 0.10478312 -0.07760502 0.10594965 0.014439432 0.06897858 -0.10017489 0.10926594 -0.12074816 -0.022511622 -0.08533579 -0.10581538 0.08058255 -0.10979645 -0.02637736 0.121738516 0.10310404 -0.1157689 -0.008967078 0.10453096 -0.117269956 0.09297843 -0.09778205 -0.086399935 0.046194986 0.13110687 0.011910588 0.13340105 -0.00978116 0.026821649 0.13751191 -0.08293623 -0.11645414 0.11268562 -0.071983926 0.005254408 0.1319396 -0.01973732 0.005465209 0.041348685 0.12965633 0.088789046 -0.044824995 0.11082374 0.054236487 -0.06223845 0.09597911 0.11138568 0.058016412 -0.097238675 -0.088259995 -0.019190757 -0.06879042 0.1055859 0.089003526 -0.05651301 -0.09795173 0.025221655 0.07496767 -0.07600128 -0.014805196 -0.057842154 -0.14160101 -0.010126453 -0.13306892 0.10980788 0.07348004 -0.10064862 -0.0015778036 -0.018750627 0.049368784 -0.08826315 -0.031140143 0.061253175 0.049858473 0.081928864 0.12631072 0.06399548 -0.08254225 -0.061863706 0.080047965 -0.018124007 -0.033690184 -0.020960525 0.08738093 -0.13643338 0.11430471 -0.05546011 -0.101565495 -0.09115647 0.0037138313 -0.14068556 -0.08287394 0.0144456625 0.047438204 -0.05785869 -0.10064803 0.08216114 -0.065949164 -0.07229323 0.09219457 0.03933263 0.010968775 -0.13676792 0.08030823 -0.028167889 -0.11650479 -0.031612024 -0.018295221 -0.038586892 0.05795926 0.13333215 -0.123574816 0.035437107 -0.11195419 -0.12466575 -0.041495718 0.084964976 -0.03206642 -0.06743378 -0.047389753 -0.11994995 -0.1068101 0.062913254 0.095676705 0.023991182 0.12844525 0.065229565 0.07865602 -0.03062838 0.0714117 -0.088913076 0.06332122 -0.11773011 0.0027133205 0.11915125 0.082524374 0.0151451975 0.03809927 0.14129153 -0.060936358 -0.06504314 0.049534068 0.04062019 -0.11417271 0.16651532 -0.057713993 -0.110166 0.123162426 0.04071856 -0.040974963 -0.05485173 0.0009281141 -0.067686625 0.13636616 -0.08433672 -0.035867848 0.11756617 0.1406524 -0.037484296 0.012190947 0.06895222 0.12036428 0.11856873 0.029007168 0.13311782 0.023210688 -0.06368281 0.108932115 0.024014136 -0.06626503 -0.10465368 0.043614194 -0.068310186 0.012831274 -0.13098097 0.09053622 0.12606065 0.07359877 0.08445163 0.078651644 -0.120986305 0.10889953 -0.13907881 0.07175301 -0.013944066 -0.11482211 0.047553763 -0.06347898 -0.006639615 6.453945e-05 0.03787012 0.077050515 0.10226772 0.0640443 -0.10327307 0.11010701 -0.014819617 0.0889037 -0.0543048 -0.09661034 -0.13495551 -0.058975484 0.078631945 0.10515696 -0.042441256 -0.11426527 0.0020135709 -0.0023352057 -0.10939633 -0.08421478 -0.05091584 0.114075944 0.077496015 0.0023410758 0.05160024 0.10894185 0.12760778 -0.053553857 0.015250452 0.13052769 -0.1054115 -0.08046214 -0.017890945 0.015691966 0.07213364 -0.13967656 0.13720946 -0.02649634 0.11791299 0.13328846 -0.09966777 0.13148938 0.08238706 0.10493652 0.14868517 -0.039631024 0.113053694 0.101589575 0.21160354 -0.01886818 -0.079463065 0.033117674 -0.15562965 0.12672313 0.07423417 -0.002035601 -0.06639417 0.05413856 0.16813348 -0.014864824 -0.017211717 -0.14305006 0.057926923 0.0012570362 -0.027678784 -0.018445434 -0.10644591 0.026234448 0.07442935 0.14045556 0.08425911 0.027845478 -0.07141469 -0.07235982 0.1499452 -0.04434361 0.062161654 0.04312791 0.15127419 -0.095011085 0.056566868 -0.16184743 -0.11900938 0.09131116 0.03357224 -0.13297138 -0.009202838 0.041387696 0.09047794 0.041128576 0.020460414 0.13885306 0.06780104 -0.113630764 0.031747133 0.06966084 0.021457642 0.0987318 -0.121343955 0.082659364 -0.0031015426 0.09359692 0.023593806 0.14032964 -0.10450511 0.011946052 -0.058472335 0.04640684 -0.046205483 -0.09272331 -0.046802066 -0.06095891 0.029578354 0.061958045 0.009256966 0.12455297 -0.052320458 -0.13829534 -0.117309354 -0.027555672 0.0018025963 0.0700896 0.029374147 -0.053126127 0.11480279 0.11962916 -0.063027024 0.06575073 -0.1336804 -0.0037600398 0.028188527 -0.04792666 -0.14095044 0.128297 0.12489469 -0.10961833 -0.12051691 0.123139426 0.11982179 -0.08589749 0.020772671 0.013254374 -0.055197198 -0.031684954 0.06777107 0.05059178 0.119353324 -0.065373 0.078905694 0.09601037 -0.057660695 -0.10861356 -0.029460695 0.036015376 -0.049147535 0.08625536 0.08229 0.1575355 -0.016227288 0.101094626 -0.06516243 -0.19030859 -0.017691152 0.05740592 -0.13031486 -0.0077964067 0.10295198 -0.09632078 0.006385179 -0.03128584 -0.07574987 -0.02789896 0.08831072 0.019210448 -0.056037366 0.11923535 0.09567168 -0.042678192 0.035258383 -0.029999793 0.032628354 -0.08821434 -0.092235334 -0.12531652 -0.14005776 0.122331455 0.021555975 -0.015616953 0.10867769 0.08552256 -0.0930918 -0.031891365 -0.015747191 0.038982645 0.06282612 0.103783354 0.037628867 -0.11771148 0.043180123 0.01413138 -0.09498464 0.03184583 0.054069325 0.11337252 0.00053173344 -0.070927046 -0.09288717 0.118547104 -0.061682258 0.1193022 -0.13785456 0.039865557 -0.03064275 0.088918865 -0.11970097 -0.04215704 -0.10143608 0.032724902 0.12599364 -0.017343728 -0.052967366 0.09292687 0.07873367 -0.13486785 0.055592623 0.12931585 -0.079633266 0.09290052 -0.10710746 -0.07373307 0.0577071 0.08886809 -0.11062645 0.09919148 -0.03798495 -0.011418104 -0.07108973 0.16373663 -0.091361076 0.11516635 0.07356188 -0.036704067 -0.1082832 0.041001264 0.21896423 0.1390938 0.115780324 0.13530032 0.18403837 -0.124224275 -0.065034434 0.05695451 -0.1053109 0.052970126 -0.020571647 -0.099702865 -0.0730019 -0.0768093 0.1400467 0.07741741 0.15723279 0.012160554 0.00912964 -0.14127357 0.11958524 0.033271953 -0.07971874 0.017825484 -0.035945818 -0.00031656967 0.037075337 0.036274925 -0.06717455 -0.013144121 0.018926103 -0.100519255 -0.07411256 0.14170374 -0.10176643 0.053338185 0.026877368 -0.12901689 -0.03396406 0.051585622 0.0816675 -0.01676163 0.0022072792 -0.05137051 -0.0074561015 -0.075030714 0.12086834 -0.083964914 -0.10427126 -0.06323098 0.10526572 -0.07787497 -0.032773636 0.005734018 0.11823076 0.08122888 0.06505391 -0.12013081 -0.11770303 0.0063509196 -0.054563764 0.02371183 -0.13696869 0.032629747 -0.10412225 -0.017421538 0.09633179 -0.034226954 0.029556004 0.06336376 -0.08156734 0.04714964 0.12569635 0.11196248 -0.055676315 -0.08510953 0.0041484833 0.047779113 0.010185869 0.026666885 0.0050170803 -0.11235899 0.008101404 -0.094596885 0.121061206 -0.11315585 -0.064399354 0.06940041 0.1264926 -0.02589639 0.08282468 0.06300993 -0.121061094 0.04076451 -0.13382521 0.09009679 -0.11848537 0.051885456 -0.034066305 -0.11555009 -0.10191602 0.12556799 -0.060728118 0.042777777 0.13388412 -0.03725674 -0.052144103 0.07316925 -0.044764556 -0.12974145 -0.086467505 0.035996288 -0.095068105 0.07671337 -0.0030106306 0.066582814 -0.088704094 0.07718909 -0.056924008 -0.049484417 -0.039077714 0.023477316 0.041688636 0.00045090914 -0.08958318 0.09508358 0.049987182 0.016398966 0.031073809 -0.0028429776 0.0076304823 -0.06587711 0.05699554 -0.12582015 -0.10248502 0.01897934 0.09164448 -0.10340155 -0.117322534 -0.12765878 0.08031811 -0.13435835 0.113489404 0.18115917 0.10500136 0.06358231 -0.04688259 0.056647558 0.066253625 0.13982116 0.03276104 0.017460361 -0.008156813 0.039605524 0.007685674 0.020163847 0.059950814 0.019023586 -0.13653053 -0.102461606 0.1172632 0.06512736 0.12046119 0.12518148 0.007146647 -0.0011542673 0.17538214 -0.09488379 -0.14102964 0.022064412 0.0011558604 0.10678442 -0.16434309 0.07467805 0.03546688 -0.083317675 -0.057069298 0.10027814 -0.03573323 -0.13843797 0.13797204 0.07401395 0.004653588 -0.13972627 0.027307983 0.12953098 -0.123973995 -0.0026767056 0.13553147 -0.17517641 -0.07944518 -0.093602575 -0.063850306 -0.06664831 0.09973333 -0.11142074 -0.041518573 -0.10929953 -0.13792363 0.111670755 0.07769758 -0.12363049 0.13430274 0.11656246 -0.071214475 -0.057299726 -0.11563347 0.079320915 -0.077494636 -0.09364465 -0.10031677 -0.025234535 -0.06584683 -0.033568755 -0.016383702 -0.12591246 0.04330682 -0.062267467 0.11386726 0.13903134 0.102529824 0.10287274 0.058141563 -0.028501973 -0.1086275 -0.11901852 0.098745935 0.015057293 -0.0037457203 -0.10838607 0.0049246186 -0.07590107 0.017525315 0.025733763 0.08408814 0.04467413 -0.122422464 -0.042431302 0.026200049 0.0011413567 0.09824377 0.12096582 0.09536934 -0.08034766 0.04544471 0.13769147 -0.06252896 -0.021495296 -0.13401563 -0.0140821915 0.08077845 -0.06275098 0.03516028 0.010138556 -0.0046841255 -0.06134874 0.033658218 0.071884856 -0.03827886 -0.06442446 0.18085541 0.10732632 -0.044241965 0.15532045 -0.11693403 -0.09109135 0.11056857 -0.08370464 -0.15172298 0.13548942 -0.1055388 0.014048882 0.08020031 0.082258 -0.06695935 0.08926854 -0.08872917 0.018805722 -0.107817106 0.1111363 0.009099678 -0.071064584 -0.067290045 -0.12572597 0.027915917 0.065974474 -0.09227169 -0.1313182 -0.088163756 -0.1445009 -0.09673366 0.0066245794 0.089883745 0.092745915 -0.03843925 -0.11982975 0.11494471 0.12869123 -0.13230085 -0.045894958 0.1523002 0.11316927 -0.129424 -0.08849127 -0.027334362 -0.057825264 -0.011678071 0.076936394 0.08386185 0.10973857 0.15757643 0.14088778 0.06665874 0.11191069 -0.028276082 -0.04343319 0.19136363 -0.08732894 0.0030070601 -0.11604367 0.11391116 0.12330179 -0.12467101 -0.107946195 -0.0140225375 0.0007763842 -0.027113322 0.036224145 -0.10434792 0.13062917 0.16955528 -0.12681717 -0.08575687 -0.022160273 0.13524637 -0.09932494 -0.11826364 -0.13786656 0.112632 0.085852094 -0.007680729 -0.0135321915 -0.13227005 -0.09434332 -0.060888756 0.023894547 0.118121386 0.005477686 0.055935875 0.09733067 -0.05492899 -0.010406643 0.027532456 0.032877617 0.14689809 -0.097472474 0.12458433 -0.1136598 -0.051128007 -0.07168958 0.03529702 0.1307757 0.063391544 0.096619576 0.13464577 -0.11609614 0.07810284 -0.15603076 0.0051780273 0.05243269 -0.051014286 0.023437407 -0.047226455 -0.0988663 0.13790992 -0.112472646 0.10811144 -0.11417315 -0.04850634 0.114200905 -0.01128902 -0.07799154 0.12695734 -0.003999546 0.029312558 0.054264992 -0.09028964 -0.004325127 -0.019154828 -0.12976557 -0.04579535 -0.016157731 0.012788013 -0.09468723 0.09263461 -0.07733767 0.092938595 -0.11942536 0.118026234 0.058407757 -0.08582974 0.016788647 0.02983207 0.056463175 -0.014074837 -0.13010494 -0.014233283 -0.0823944 -0.02526528 0.12218581 -0.13555776 0.11975608 -0.11882247 0.05699402 0.0027854308 -0.04222561 0.09329471 0.09805664 -0.10065348 -0.02287755 0.038023237 -0.008166855 -0.12218798 -0.12657733 -0.005575937 0.12937388 -0.0067017786 0.046188522 -0.12406614 -0.041581124 0.04334718 0.056263734 0.013768062 0.133357 0.035360698 0.050885737 -0.027672421 -0.00986266 0.13559179 0.044523057 0.1188258 0.10092281 0.049223334 -0.15341106 -0.0010248246 0.08813489 -0.09634241 -0.03323926 0.12783153 -0.050822265 -0.17411244 0.08889553 -0.06907558 -0.126826 -0.11628247 0.04932428 -0.072883554 -0.029395398 0.07316363 0.11808686 0.032235753 0.029994385 -0.08169375 0.02159376 0.008291157 0.06558121 0.10044459 0.17115755 0.10834686 -0.0005657077 0.12037774 0.09050908 0.13930169 -0.03794039 0.029649897 -0.12777112 0.020060042 0.089787744 -0.047774006 0.10463828 -0.15071295 0.026347639 -0.010772571 0.031166628 0.0029684263 -0.138981 0.06877221 -0.03835416 0.016729856 0.017492432 0.016177543 0.08398041 -0.121900514 0.096187204 0.083487324 0.034388952 -0.07421566 -0.00540685 0.09094405 0.05460959 0.20974186 -0.06864446 0.1201271 -0.0064435173 0.12911114 0.0856873 0.045829248 -0.14067127 -0.009571328 0.031970188 0.16065986 -0.12537591 -0.071098015 0.056330793 0.05920778 0.027442774 0.18735577 0.00823664 -0.08798461 -0.010420112 0.044911094 0.10758529 -0.06775845 -0.04704143 -0.013174715 -0.08728036 0.016808081 -0.06224739 -0.039238125 -0.0005613898 0.016108908 -0.089731716 0.12939419 0.10902804 0.15440087 0.08690992 0.06240424 0.06714949 0.041647 0.084518276 -0.06868261 0.13961591 0.050370008 -0.04710849 0.025125202 -0.05569408 -0.034856252 0.08536559 0.09740051 -0.11913846 0.06585496 0.018517882 -0.14110692 -0.04031174 0.13578248 -0.0066416115 0.050109223 -0.11434938 0.026983656 0.082314506 0.03514024 0.02380532 0.0015370313 0.002255426 -0.07222141 -0.038501997 -0.013889666 0.103479266 -0.060255878 -0.07214907 0.02749762 -0.018335642 0.13960381 0.10134639 -0.1375209 -0.050494257 0.08576823 -0.012419796 -0.016275438 0.029911358 -0.0497943 -0.11556048 -0.12732582 0.08364982 0.059112277 -0.13308495 0.09416218 -0.06819495 0.11521945 0.10880336 0.011101007 -0.072585866 0.044727996 0.014840075 -0.0737515 0.13061267 -0.07498232 0.1381676 -0.03553555 -0.07907663 0.13314715 0.025862575 0.039388675 0.123586565 0.12698936 -0.07041029 