Linear 17 50
0.12479093 -0.16087171 0.14613317 0.20259821 -0.072199 0.06648111 -0.22399524 0.014361213 0.10956044 -0.050217066 0.15100998 -0.093109876 -0.14733416 0.02598312 0.07208003 -0.06543696 0.12940787 0.0670249 -0.06571789 -0.05519204 0.2214545 -0.075657755 -0.21389903 -0.17602447 0.091681086 -0.08146221 -0.21330917 0.029264962 0.038103763 0.12908779 0.17575993 0.11857686 0.04407735 0.10640942 -0.30686867 -0.18930216 0.2906751 -0.25852847 0.112446904 -0.053785205 0.24603075 -0.049921796 0.1104473 -0.056116886 0.09480138 0.16867797 0.05118767 0.122256294 -0.16975006 -0.056092203 -0.01832091 -0.0009460325 0.19149856 -0.24530795 0.14591943 -0.1837768 -0.24958147 0.09735053 -0.21964502 -0.23906545 0.09512323 0.045230735 0.17394972 -0.10820473 -0.17014621 0.16131578 -0.14508499 -0.051423047 -0.0069356305 -0.009724908 0.21399726 -0.2243462 -0.066542596 -0.32146212 -0.28497848 0.290611 0.21752186 0.033878084 0.24096566 -0.0795611 0.19534627 -0.13937035 0.11352372 0.15177515 0.18923722 -0.03673311 -0.12980618 0.2710949 0.17869183 0.09074866 0.12921777 -0.01797851 0.016212376 0.1501122 -0.21918266 0.14662413 -0.16021597 0.16930567 0.052190334 -0.21352564 -0.020699844 -0.049084917 -0.067597665 0.1330007 0.24888456 0.0120549295 -0.03170575 -0.14638124 0.108675756 0.095371984 -0.01476994 0.0767012 -0.050447237 0.108162075 -0.19183443 0.1383891 -0.2718027 0.01733847 -0.16863021 -0.22152212 -0.05743982 -0.20254678 -0.1209304 -0.1751947 -0.22147928 -0.104661845 -0.13241273 0.18728541 -0.05768309 0.046919085 -0.19424288 0.031024002 0.012873621 0.029787524 0.14585805 -0.06208666 0.15957122 0.19538967 0.17113459 -0.04885074 0.18720606 -0.33284774 0.20836163 0.2850535 -0.12035621 0.08117776 0.030189572 0.18952228 -0.23240459 -0.074023396 -0.17992496 0.20820582 0.09040659 -0.10167854 -0.10777992 -0.09860142 0.2110558 -0.14983995 -0.09665981 0.121949404 -0.26282355 0.1439039 -0.010418154 0.1934298 0.041815672 0.2079209 0.12725323 -0.08068602 0.08526668 -0.17246222 0.118067674 -0.21527995 -0.014235879 -0.2632522 -0.119934686 -0.2605235 -0.23996337 0.06227491 0.059020244 -0.2040648 0.08797887 0.20258741 -0.07763782 0.08474606 -0.15535066 0.11361549 0.17394818 -0.17951646 -0.0913068 0.08862835 -0.019748187 0.17792575 0.22057799 -0.042085655 0.20670739 0.10164001 0.04382667 0.1463721 -0.22748838 0.120740466 0.19950132 -0.2035567 -0.07776597 0.044510216 -0.12104753 -0.2067427 -0.1847475 0.19663037 -0.19131163 -0.11102715 0.25087166 0.024919035 0.25241965 -0.21481724 0.04334329 -0.1779826 0.19495969 0.07360674 -0.21563205 0.1962038 -0.14127742 0.03549148 -0.23828858 0.045847397 0.16177225 0.00077653246 0.06787147 -0.020676563 0.14507319 0.14403221 -0.08961959 0.07736222 0.18654864 0.17494404 0.21002004 0.10597276 0.09331281 0.14830878 0.06221422 -0.10861445 -0.20898947 0.005930052 -0.05473202 0.22256541 -0.108370334 -0.10904651 -0.046924576 0.1172636 -0.13561465 0.22258365 -0.07150605 -0.23813684 -0.0542824 0.053941425 -0.20724854 -0.18326497 0.2467499 0.18183368 -0.078482054 0.15099747 -0.014145541 -0.22017379 0.087171175 -0.17391485 0.03645558 0.14674732 0.18294978 0.05437336 -0.09659249 -0.079435974 -0.08172026 0.09128858 0.14220174 0.20857316 0.14722355 -0.21497999 0.004748221 -0.13104214 -0.013940476 -0.07701624 -0.22257972 0.19772038 -0.18807061 -0.06675578 -0.1828683 0.014204838 0.0387099 0.049799167 0.02790168 0.019002499 0.06795707 0.3788596 0.2324216 0.040977888 -0.47786483 -0.06372782 0.19820215 -0.04249277 0.021156082 0.19681945 0.11999769 -0.12060631 0.17241815 -0.15310183 -0.037204593 0.063705444 -0.13606995 0.004417082 -0.17291693 0.08627311 -0.07113671 -0.1142782 0.23933835 0.030139707 -0.2179641 0.15752213 -0.028133662 0.04826119 0.1279716 -0.22464536 0.07534445 -0.1784195 0.1688959 -0.0025712799 0.14819002 -0.019808905 0.16330893 -0.17037204 0.028144306 0.11192594 0.122492924 0.24733603 -0.055936977 -0.03402053 0.21025488 0.007884427 -0.13508675 0.010198213 -0.15353185 -0.14936002 0.121918425 -0.111045815 -0.035266593 0.15099813 0.0039656246 0.035593178 -0.16603675 0.26579416 -0.010059344 0.05684136 -0.14517683 0.08295191 0.09811187 -0.057139073 -0.19080073 0.2116324 -0.07160619 -0.053773623 -0.19178432 0.009144266 -0.062542476 0.14377575 0.2385848 -0.16653913 -0.13860261 0.2262472 -0.01487686 0.22578786 0.18972124 0.1694361 0.08296753 0.124459766 -0.22867806 0.23168695 0.102177404 0.19001913 -0.07845713 -0.04277091 -0.19626054 0.015394338 0.12623955 -0.111976735 -0.15779346 -0.069867104 0.08808478 0.2177669 0.21007437 0.09744202 0.17139542 0.009989424 0.06502916 -0.087178186 -0.033696756 -0.03215114 0.01315172 0.05709356 0.3337862 0.032895826 0.13595977 -0.20878114 0.24868852 0.14268713 -0.27264282 -0.0125688305 0.3179201 0.1123639 0.023810975 0.080795035 0.10199522 -0.026830852 -0.036095172 0.14877532 -0.23325236 -0.22629757 -0.19208771 0.046629727 0.14253972 0.16928872 -0.03716737 -0.1376651 -0.12227985 -0.14894068 0.06878811 -0.24462615 -0.115712404 0.20761697 0.021206327 -0.20073204 0.09901129 0.11804873 0.19140562 -0.14755385 -0.12912598 0.17232777 -0.23950423 -0.1265239 0.16176859 -0.06113912 0.1659842 -0.13562608 -0.22475812 -0.23072742 0.18000768 0.14266537 -0.07474303 0.05318275 0.05882652 0.23885322 0.09318803 -0.12784271 0.13605672 -0.16659479 -0.09074279 -0.051710248 -0.12295382 0.13263585 0.07400471 0.010750787 -0.11270426 0.017293472 -0.14148217 -0.01492235 0.12184016 -0.035322558 -0.056670923 -0.041313585 0.15347083 0.090972446 -0.13814747 0.22660264 -0.11597722 0.13098718 0.041077677 -0.01989526 -0.19421884 -0.21427955 0.099720985 -0.18632403 -0.052337933 -0.08368534 -0.099305116 -0.20651361 -0.013270792 0.24742526 0.2226699 -0.20659691 0.08411745 -0.094742015 -0.009003946 0.019683357 -0.27647084 -0.041726153 0.17376922 -0.11363133 -0.013678914 -0.062102385 -0.24524029 0.16570227 0.076257214 0.13000487 -0.06962206 -0.04763501 0.0071670967 -0.11256698 -0.12334813 0.17936935 0.20592166 0.10694209 0.04836334 -0.1590726 -0.012849866 0.17503628 -0.27287117 0.07876469 0.07536826 0.015060871 -0.008540992 -0.25853893 0.10408384 -0.1439788 -0.039837435 0.20997171 0.21689154 0.09662257 -0.16115323 0.06623064 -0.08845205 -0.21557695 0.14553282 0.039920587 0.07698598 0.011805456 0.09007388 0.11981346 0.24644333 -0.16342886 -0.18299325 -0.025668869 -0.17228119 -0.030629173 0.023750458 -0.25320604 -0.17448604 -0.049536154 -0.013322369 -0.2879665 -0.033807795 0.16586998 -0.21584055 0.07853904 0.094525315 -0.09966544 -0.1481769 0.062285017 -0.09055168 0.116232894 0.1731592 0.15654099 0.11789484 0.047783434 -0.049224496 -0.20397097 -0.1932592 0.10978129 0.21482286 -0.2463718 -0.12137639 0.20452495 -0.10085577 0.14310513 0.16690376 -0.033089094 0.0926806 -0.1038654 -0.1579404 -0.021430962 0.113575205 0.081061594 0.11431966 0.07891272 -0.19682457 0.13921629 -0.19478422 -0.27062258 0.036069755 0.0778977 0.12133519 0.1256236 0.04668006 0.1481253 0.22485845 -0.19978793 -0.18390499 0.12129832 0.2317709 -0.08703545 0.19656445 -0.2422899 -0.1708139 -0.09748302 -0.08475904 0.079392746 -0.07574973 -0.16510792 -0.13467394 -0.1601258 0.136897 0.17130472 -0.20758827 -0.17865686 -0.09725005 -0.18394545 -0.19333334 -0.18241975 -0.1580987 0.016108125 0.18170854 0.10199061 -0.19797854 0.22572994 -0.12909362 -0.11862899 0.038719833 -0.043974638 -0.045877144 -0.10911462 -0.061412543 -0.17414665 -0.09941487 0.18688534 0.043243464 -0.04297936 -0.09703045 0.13724263 0.019755086 0.08125713 0.21897581 0.21128581 -0.14545056 -0.20891128 0.2241854 0.00079048553 -0.076152466 -0.06594091 -0.11375413 -0.052833743 0.011626987 -0.14274444 -0.034070596 0.14857233 -0.03204568 -0.04288236 0.15667064 0.028282968 0.19265583 0.021441756 -0.18722945 -0.17223313 0.0028924968 -0.0027983596 -0.16589539 0.23069094 0.23069923 0.19556023 -0.11683577 0.08682451 0.13357128 0.00013676083 0.062050484 -0.16112264 0.2213441 0.009714645 -0.18962243 -0.20695573 -0.06258316 0.071700096 -0.05170809 0.19578822 -0.19196174 0.074928634 -0.12734298 -0.04187668 0.059300918 0.07932196 0.119126365 -0.111830324 0.2292401 0.08748595 -0.14316206 -0.1865422 0.14013614 0.11713426 -0.23464948 -0.1563442 0.22348188 0.016827064 0.21914639 0.028411495 0.014771502 0.30820096 -0.09843392 0.14433508 -0.204669 -0.017347809 -0.07809741 0.11465498 -0.08536414 0.2719911 -0.011662829 0.075334795 0.15284885 -0.26069778 -0.1590109 -0.025228553 -0.034136727 -0.23627988 0.21540456 0.016413439 -0.17457668 -0.01737695 0.10886496 -0.19244735 0.08911842 0.2400568 0.09012132 -0.18330443 -0.099960424 -0.10148735 -0.13394116 -0.10787938 0.14151792 0.12850189 -0.13740692 0.18422757 -0.028116202 0.00398309 0.032221813 -0.2125481 0.046544787 -0.033576265 0.07055493 -0.012498561 -0.051909275 0.04204748 -0.20419589 0.0041908636 0.06714053 -0.21916918 -0.05660928 0.08440054 0.115826026 0.23232839 0.10066611 -0.08244387 0.0307859 -0.00662882 -0.12360044 -0.15198752 0.11409708 -0.11338304 -0.06496843 -0.06401472 -0.2430117 -0.19477257 0.17234144 -0.13188477 0.29817638 -0.17150858 -0.012200117 -0.048264313 0.012664703 0.25308385 -0.017919473 0.16938005 0.21969666 -0.018795593 0.13505228 0.1625549 -0.060428217 0.26943043 0.1048704 0.24326563 -0.1565952 0.19533326 -0.17949972 0.22538836 -0.05419155 -0.01929474 0.08879266 -0.07400889 0.21929212 0.1375267 -0.15066446 -0.0062045595 -0.17882094 -0.100251965 0.24405442 -0.0021046714 0.17181545 -0.13082333 -0.04859068 0.12776008 -0.056577593 0.11834462 0.44846576 -0.16053751 -0.17341873 -0.0648911 0.12201698 -0.14696589 0.1622636 0.13784748 0.1840914 0.33889055 0.0016293067 0.2663661 0.21496743 0.09406249 0.032524034 0.20426878 -0.22568075 -0.050052498 0.07587949 0.28548968 0.013982433 -0.27492747 -0.0630904 0.13995102 -0.12650025 -0.009823148 0.038584895 0.22705388 -0.1092734 0.15981337 0.22809708 -0.19707489 -0.09447623 0.050311226 -0.2604829 -0.2362303 0.11961634 0.15943812 -0.24731822 0.19027114 -0.079304926 -0.2152185 -0.00013612781 -0.21906945 -0.0074032103 0.2131903 
-0.0061983727 -0.079613425 -0.21112038 0.14557894 0.0626684 -0.18211317 0.2087004 0.028682971 -0.041475862 -0.19086201 -0.038735285 -0.14047134 -0.13794583 -0.13612956 0.20989904 -0.06563549 -0.040508423 0.20530891 -0.21394144 0.13560447 0.16068569 0.14016134 0.024748016 -0.16297494 -0.12000851 -0.2566219 0.11482536 -0.00048163018 0.24307123 0.04214085 0.12527184 0.21440774 -0.1230409 -0.18927331 0.11809573 -0.14443055 -0.2301683 -0.23312156 -0.13116819 0.071011335 0.025801316 0.12730464 -0.1569635 -0.05894138 -0.1602441 0.14074515 -0.019588422 0.18469195 0.09658002 -0.12758031 
Rect
Linear 50 50
-0.10213991 -0.02532412 -0.029476587 0.13003056 -0.08610849 -0.12958114 0.058853142 -0.08117409 0.046887904 0.07995924 0.016798072 0.12537566 -0.051663898 0.03164035 0.06645627 -0.06298236 -0.027148196 -0.025591286 -0.06526028 0.11691285 -0.033356458 0.07296707 0.048870098 -0.0044909115 0.075406775 -0.02845167 0.11773563 -0.09355081 -0.08335147 -0.070995264 0.031674754 -0.12198085 -0.117200136 -0.054509837 0.01614565 0.09607231 0.13380204 0.0783534 0.04379996 -0.114638664 -0.120304935 0.038179643 0.09745967 0.04744622 0.018574638 -0.14050938 0.13603386 -0.07313405 -0.08931179 -0.0031109576 0.09661274 0.035139937 0.11230858 0.015564932 0.12691663 -0.086365715 0.06459037 -0.07935392 -0.14767358 0.04353017 -0.040733762 -0.12672697 -0.032616682 0.0944442 0.16447917 -0.10117956 0.10286089 -0.1352611 -0.024906164 0.11975792 0.06787585 0.060624294 0.036730077 0.0011350492 -0.08743066 0.09086399 -0.04389668 -0.034573235 -0.1449428 -0.12061748 0.021835973 -0.030864688 0.07091268 -0.13491061 0.03976122 -0.11419722 -0.115052775 0.021514025 0.0019662573 0.08562588 -0.069904394 -0.15357268 0.08298387 -0.13270095 -0.018370926 0.046553507 0.062308744 0.15690258 -0.09788008 0.08539082 -0.12240054 -0.009349582 -0.10593228 -0.14676589 0.017950699 -0.0941913 0.09015578 -0.02027511 0.096477106 -0.022049123 -0.054545455 0.094853304 0.02575444 -0.049896166 0.10936486 0.049232844 -0.02153406 -0.09092789 0.083770856 0.041714314 0.046945594 0.16453551 0.08014037 0.17909731 0.09527849 0.037701894 0.14906406 -0.12701991 -0.05829211 0.024928939 0.10678373 0.008338658 -0.0039512054 -0.08446909 -0.04667849 0.06368791 -0.09618687 -0.13014045 0.028745122 -0.06166444 -0.016194358 -0.054086357 -0.013842235 -0.08532601 0.104169026 0.08356755 0.05942935 -0.07183702 -0.12508182 -0.07543319 0.09551676 -0.021918247 0.055565674 0.123319864 -0.12933445 -0.0814133 0.060108017 -0.111612126 -0.040826175 -0.055387586 -0.052455347 -0.060287666 0.028951373 0.034729578 0.0787126 0.06896184 -0.074248165 0.058495793 0.08214855 -0.02781248 -0.121093616 0.14344107 0.05512893 0.1352777 -0.13956651 -0.08336983 -0.09353295 -0.09649854 0.07123435 -0.054331154 0.03152087 0.0067850226 0.047906224 -0.07067138 0.015917666 -0.015162621 -0.035828196 0.0030208165 -0.09530989 -0.016546495 0.07219885 -0.14422494 0.11109824 0.09878892 -0.0037808418 -0.04350652 0.13829148 -0.08887329 -0.14586893 -0.023086777 -0.102190994 0.05652698 0.014915901 0.12073692 0.070492536 0.065362565 -0.022641663 0.0008374007 0.08040508 0.122287765 0.15240294 -0.11832422 -0.09444963 0.05813507 -0.02553141 -0.08639687 -0.050565694 0.055193502 -0.117994584 0.1445855 -0.088801086 -0.116288036 0.0992415 -0.04019911 -0.10761629 -0.13212174 0.08935917 0.1252952 -0.105732255 -0.13282171 -0.039368708 0.10565217 0.02711005 0.08097163 -0.08931871 -0.023036392 -0.081528485 0.08661912 -0.04007763 -0.02050319 0.04000334 0.042518348 0.10050579 0.09970019 -0.053143524 0.02670512 -0.07358386 0.02018867 -0.040690176 0.106894486 0.0230967 0.02444318 0.022150232 -0.09165392 -0.14523557 -0.022393322 0.082631364 0.07345788 0.07347197 -0.03337565 0.1350603 0.11560708 0.115840524 -0.048896637 -0.053994626 0.051783346 0.13012838 -0.1091548 0.029686026 -0.08128401 -0.021980233 -0.06039466 -0.005203504 0.07712737 0.07220346 -0.12783445 -0.066920266 -0.10124861 0.10636724 -0.010116283 -0.059846688 0.019257454 -0.080265224 -0.05535089 0.12761024 0.028478378 0.121642336 -0.106816955 -0.052917957 0.077966206 0.04817454 -0.0927959 0.059662916 -0.08353403 0.06397442 0.12918013 -0.110562705 -0.012871434 -0.0941442 -0.093296625 0.08221198 -0.057207946 0.0830974 0.13708538 -0.044979446 -0.02708179 0.014345762 0.05886178 -0.12467701 0.10264033 -0.12932862 0.1191734 0.07896043 -0.11777811 0.09758588 0.055565603 -0.08901271 0.11338351 0.0016501356 -0.10330954 -0.018212298 -0.15395965 0.06020085 -0.14536184 -0.10172235 0.030903067 0.05677288 -0.047271885 -0.088912405 -0.091168225 -0.039647475 0.050370447 -0.082354 -0.039289925 0.15119624 -0.12365998 -0.061914735 -0.07789673 -0.119845346 -0.036587454 0.062117532 0.07093152 -0.0661289 -0.13280554 -0.017325107 -0.03560077 0.09890895 0.07771202 -0.037404306 -0.09707235 0.11420819 0.09865669 -0.107035436 0.04743894 0.07488545 -0.070130415 0.022746433 0.119486146 0.09239034 -0.11056886 0.025340395 -0.09472203 -0.059453513 -0.13553534 -0.059844486 -0.07598084 0.107259296 0.14181437 -0.052664287 0.084059775 -0.103960305 0.05339795 -0.11510121 0.055319544 0.057232548 -0.02743422 -0.06427749 -0.13733746 -0.11949813 0.10426048 0.13760412 0.07687934 -0.1039842 0.12283054 0.10136959 -0.03355178 0.038215846 0.07311471 0.10932689 -0.008160509 0.08273045 0.016420912 -0.021206647 0.07036032 0.04372481 -0.089275956 -0.10694933 -0.14395437 0.0061252015 -0.078563645 -0.10927463 0.008170399 0.05254823 0.0016750144 0.12482166 0.0641185 0.02787508 0.12192731 -0.059676003 0.117233664 0.015366651 -0.08338693 0.1219458 0.1322913 0.11170369 -0.073407464 -0.10761737 0.024619475 -0.06272844 0.04622396 0.11178072 -0.07268884 -0.14447808 -0.10703515 -0.13510199 -0.10866531 0.09800672 -0.05391116 0.012333797 -0.0007201578 0.099108644 -0.12096366 -0.04284171 0.07100592 0.06993734 0.0050854124 -0.069384694 0.008777281 -0.0718325 0.011948293 0.044795748 -0.037047602 -0.009055624 0.13172694 0.094454095 -0.08228554 -0.030584725 -0.17408885 0.117631294 0.11731818 0.11639681 0.060985647 -0.0894446 -0.053156774 -0.03164366 -0.012616617 -0.13772653 0.031831816 0.075351834 0.15925302 0.17181078 -0.072281234 -0.0006096611 0.0438855 0.0538272 -0.037913404 -0.082643256 0.18337792 0.035870913 0.032659765 0.12477035 0.052245114 -0.16022286 -0.22776753 -0.08407989 0.12212583 0.00091973925 -0.07735254 0.1947103 -0.13170663 0.025487307 0.011604463 0.109555416 -0.05925977 0.018100698 0.0824191 0.07445802 -0.04955244 0.03909847 -0.06744428 -0.122120045 0.06479487 0.11307757 -0.011630783 -0.088129796 -0.110764496 -0.0801132 -0.062285047 0.15815878 0.0764054 0.0370612 -0.053464495 0.028965324 -0.10268743 0.049223363 0.024208516 -0.056443065 0.04317823 0.047303736 -0.063730374 0.045535773 0.0004259348 -0.01780288 -0.11205325 -0.07939443 -0.08702694 0.007129565 -0.020097643 0.05695425 -0.076237835 -0.10078059 -0.051255696 -0.057229117 -0.06863908 0.13450526 -0.029159807 -0.014709234 -0.078952014 -0.046981886 -0.12938184 0.12150456 -0.108988434 0.04614596 0.09005447 0.098757416 -0.10660781 0.009465709 0.022910044 -0.064900994 0.046276674 -0.1288752 0.046345904 -0.114006594 -0.03645148 -0.024018042 -0.08690591 0.05479385 -0.07506111 0.055527374 0.12498264 -0.052773148 0.046543486 -0.11368915 -0.004982357 0.06842657 -0.07770683 -0.05574443 0.050851576 0.106383935 -0.09744065 0.11669079 0.11369823 -0.0074640014 -0.059974797 -0.013281063 -0.05950645 0.11267362 -0.054227713 0.10241706 -0.09908833 0.004980589 -0.0012213049 -0.13618718 0.07195296 0.04092144 0.038517907 -0.051535677 0.06704143 0.021571992 -0.049965497 0.027411772 0.12928462 -0.087506145 0.038049523 -0.03780217 -0.031235563 0.1017078 -0.0816292 0.1321306 -0.089390084 -0.1526884 0.0860325 0.035570417 -0.024180625 0.034815375 0.15219477 -0.1140627 0.02204625 -0.012389641 -0.021261001 0.0133434525 -0.089923024 -0.11486976 0.07899524 -0.0073827626 -0.011493087 0.10982822 0.12904935 0.11076485 -0.026630368 0.13203038 0.11194916 -0.07755353 -0.02446771 0.051521182 0.10130591 0.13299225 -0.1286956 -0.0847858 0.0515816 -0.1070526 0.022416012 -0.12504584 0.07011883 0.035841584 0.03718409 -0.13439399 0.050243407 0.098249786 -0.055365466 -0.12886606 -0.059081644 0.037295587 -0.119317934 -0.04657401 -0.10834866 0.02333656 -0.0694541 0.110615276 0.0189096 -0.049771115 -0.107883886 0.0037103223 0.08614656 -0.020963479 0.12771043 0.009271703 -0.028464705 0.1336553 0.13898891 0.11550705 0.13170241 -0.07552244 0.15525445 -0.029424515 0.13007319 0.07975862 -0.12312292 0.1547329 0.13366088 0.12040986 -0.03835281 -0.04874173 0.11609706 -0.0035675506 0.11713324 0.08307104 0.17301668 -0.016812963 0.11611439 0.16940224 0.025220498 -0.12184156 -0.07632948 0.10968435 0.013766637 0.05383732 0.09269402 0.12679768 -0.15076464 -0.028235918 0.14200588 0.08676584 0.03888752 0.06456701 -0.013946814 -0.08030608 -0.045022152 0.055271726 -0.08988764 0.014574274 0.009183004 -0.111783594 -0.04938166 -0.073692925 -0.042487755 -0.14463162 -0.15318374 0.048824508 -0.010735232 0.11087776 0.00040642178 -0.07236611 -0.06576079 -0.12552555 0.1373547 0.10101796 -0.11462936 -0.08737326 0.035279263 -0.09099519 0.06873129 0.07350135 0.12180077 0.11411797 -0.0048082457 -0.10082826 -0.08204288 -0.06656055 0.07416322 0.08775255 -0.014534197 0.08152913 -0.14018823 0.033924352 0.0729576 -0.01567249 -0.048452448 -0.0999483 -0.054914016 -0.04925233 0.00868919 0.09221177 -0.07031843 0.13753885 -0.06126426 0.11625107 -0.13985856 -0.035352904 0.07265256 0.04596018 0.059891526 0.046389263 -0.07822616 -0.110920765 -0.09300388 0.13211432 0.009841251 -0.058841694 -0.081196375 -0.019296285 0.11191973 0.014069206 -0.10773788 0.17948273 0.16524298 0.17124821 -0.07253629 0.015501953 -0.017179247 0.08064567 0.028002698 0.04694155 0.14490716 0.014349654 0.11546233 0.0012432236 0.22905031 0.059788793 0.12487355 0.06315128 0.09006689 0.05558746 0.0040121335 0.061335545 0.020214908 0.081370056 -0.04885011 0.037276223 -0.059428126 -0.07511898 0.10193118 0.0006463214 -0.051111262 0.025643269 -0.057732638 -0.112630144 0.040789142 -0.02090693 0.07697258 -0.09655919 0.060472343 -0.07155734 -0.104248315 0.15987091 0.07067104 -0.06437439 -0.21730888 -0.031990267 4.81019e-05 0.0013692369 -0.10691002 0.06939012 0.093097225 0.13484876 -0.067618065 -0.012342356 0.05239287 0.0005186658 -0.045824554 -0.05393975 0.13804156 -0.04189004 -0.0567778 0.112777814 0.014215903 0.09885363 -0.018857718 0.12573919 -0.023562534 0.1133807 -0.08056309 -0.032749787 -0.10168656 0.053309623 -0.054322474 -0.015219935 0.031967524 0.123175606 0.12629324 0.08116619 -0.109965876 0.01688913 -0.08354367 0.12690572 0.112204716 0.048135146 0.014924999 0.09641314 0.104447834 -0.1233244 -0.050020628 0.11984363 0.052047674 0.0006625411 0.014228502 0.12596573 0.021891223 0.08819583 0.075595416 0.11593924 0.10948969 -0.029525474 -0.08360821 -0.0015187862 0.053045955 -0.027748354 -0.08704018 0.10197863 0.10596173 -0.12710433 0.0098253535 -0.083816245 -0.005978978 0.02123274 -0.00849344 -0.006921112 -0.003963823 -0.0772505 -0.054225665 0.09879719 0.056118883 -0.105344534 0.037136488 -0.06195076 -0.08299326 0.047583193 0.13340142 0.012267963 -0.050800987 0.0055504465 -0.12064742 0.06501146 -0.100333564 0.09403996 -0.044260476 0.043814406 0.04222849 0.079640485 0.0790181 0.1034393 0.0458867 -0.060494404 -0.13510883 0.1274632 0.099814184 -0.13881536 -0.052863356 -0.07065353 -0.016818015 0.11730697 0.13372931 -0.022247327 0.05522599 0.017529367 0.038813006 -0.08524974 0.012026407 -0.14060509 0.007078368 -0.100164466 0.024513721 0.02223033 0.023305425 0.11828351 0.14005697 0.09494153 -0.13663378 0.002208916 0.14016742 0.01527527 -0.07153485 -0.10369416 0.096134216 0.119036384 0.13681673 0.11380782 0.0951144 -0.046018224 0.10525938 -0.13445266 0.093900345 -0.0034433617 0.14586481 -0.11720746 -0.037963428 -0.1291183 0.11279891 0.13792391 0.097549096 -0.009844358 0.1012779 -0.046646263 -0.11763945 -0.11766132 0.12114377 -0.008119768 0.119616345 0.09782542 0.05209575 -0.016740395 -0.12384864 0.09819357 -0.09712818 0.11903848 -0.06377515 0.124536775 -0.10698334 0.10445603 -0.0043307343 -0.10716143 -0.13513972 0.0982956 -0.030292822 -0.085768774 -0.040827177 0.061014213 -0.05855484 0.11289923 -0.05984807 0.009313434 0.052977797 -0.068034 -0.07232147 -0.011321723 -0.04241918 0.000396318 0.106586955 0.095841154 0.059158694 -0.015266604 -0.098103955 -0.09831583 -0.12657368 0.04281376 0.11490928 0.019762382 0.10993634 -0.006742275 0.12881356 0.060321465 -0.11727761 -0.006577015 -0.024137756 0.00012718828 -0.10351837 0.11198498 0.009667197 0.07346398 0.047825452 -0.11832659 0.114161395 -0.08990404 -0.11971046 -0.025807656 -0.09739628 0.0984758 -0.058142178 0.035775326 0.07257586 -0.029812485 -0.13543825 0.0381732 -0.01199271 0.13172694 -0.13251394 -0.13565579 0.14198609 0.068531565 -0.05701868 0.080860086 0.025977325 0.107462555 0.056626216 -0.0011541405 0.020051146 -0.10175797 0.10669656 0.030635772 -0.015925128 0.030240249 -0.11943446 0.1311808 0.012507749 -0.11338389 -0.06627838 0.013162896 -0.028729998 0.011587404 0.13076168 -0.0841344 0.0063773934 0.048238255 0.051266503 -0.10824689 0.09152687 0.1233192 0.0041009802 0.033231977 -0.13547023 -0.011344198 -0.06689047 0.0452734 -0.041659594 0.14315195 0.14491953 -0.0315127 -0.049154915 -0.105573334 -0.052812975 0.021455541 -0.025444949 0.13617143 0.09903369 -0.11084182 -0.075607024 0.03720452 0.07875389 -0.076704636 -0.11490166 -0.11095798 -0.03254532 -0.02253314 -0.10283793 0.0646716 0.038425993 0.04939937 0.0978611 0.071884036 -0.2003474 0.07936485 -0.15869766 0.001097814 -0.03665892 0.16299747 -0.10442644 0.13173966 -0.096921556 0.09446117 0.0026478805 -0.08239196 0.009975471 -0.07920778 -0.017971883 0.12565556 -0.18881296 -0.07866477 -0.010691023 0.10806948 0.094000176 -0.080464214 -0.039091352 -0.0552456 -0.1221495 0.09705323 0.018369885 -0.12222282 0.085048296 0.017853415 0.022174083 -0.114234515 0.026689563 0.08571419 -0.05991473 0.08764877 -0.05030194 -0.04927894 0.08556536 0.014794585 0.10894442 0.12683094 0.052096263 0.020457663 -0.014192812 0.11605478 0.10548301 -0.07718527 0.11661419 0.119094476 -0.085268594 -0.066045165 -0.08168153 -0.06803202 -0.107881516 -0.06047203 -0.018691508 0.055336595 0.024278864 -0.014269506 0.071339205 0.10664007 0.09121513 -0.11350321 0.09477268 0.0131284315 0.06147542 -0.05147947 0.036675364 0.033606958 -0.13367061 -0.097493835 -0.15014438 -0.039769594 0.028869132 -0.12901028 0.118724294 0.023588046 0.04263591 0.05615792 -0.06540026 0.10326764 0.102349155 -0.105273835 0.017576024 0.08855352 -0.0625449 0.06335069 -0.08036036 0.1269411 0.13233936 0.119166926 0.15714529 -0.0055633644 -0.075344294 0.12553638 -0.013926132 0.13827275 0.089075066 -0.12013111 -0.075346895 -0.11128585 -0.034691572 -0.07316201 -0.025242805 0.06462682 0.046403762 0.007311344 -0.011360751 -0.013762406 -0.023602327 -0.08621766 0.022276718 0.07495453 0.012243687 0.067006886 0.0887688 -0.10712531 -0.08053694 -0.04298227 0.007138685 -0.04453923 -0.12656938 -0.14760466 -0.07179633 -0.071880974 0.06298008 0.04342391 -0.049183667 0.09399583 0.13236482 -0.13618441 0.012349551 -0.123264685 0.1405722 0.116342574 -0.108016446 -0.14342512 -0.11461844 -0.06662873 -0.016528022 -0.055020027 0.15032415 0.0050677974 0.079343006 -0.11176067 -0.13839956 0.041276064 0.095434204 -0.10051513 0.049260914 0.01307607 0.07634971 -0.12937245 -0.043928146 -0.0026516833 -0.0017361533 0.05581157 0.04278172 -0.005813262 0.07405431 0.05033007 -0.0022438364 -0.017443422 -0.0219012 0.08525105 0.1300035 -0.06634813 0.0053518806 -0.08871044 -0.14593354 0.056739494 -0.08857674 -0.06164369 0.09674599 0.031332467 0.012132065 -0.12781131 0.089859165 -0.15212633 0.044819225 -0.072036915 -0.12013997 0.13463603 0.0024814594 -0.13512081 -0.031983566 -0.12188502 0.11938751 0.029296875 0.03945709 0.030270407 0.110684186 -0.13104688 -0.010622658 -0.07215398 -0.018228592 0.12000873 0.12289493 0.061084032 0.042034447 0.13716733 -0.019034054 0.0837162 0.112918474 0.14979966 -0.08846807 -0.13565372 0.07491601 0.066747144 -0.012546494 0.046871264 0.041076362 -0.028542534 0.09116826 0.016975984 0.010263025 0.106862254 -0.01854066 -0.12780668 -0.10941402 0.07233722 -0.04315384 0.17201017 0.06965113 0.15213649 0.09749472 0.15852495 0.063374825 0.16977638 0.13452117 0.09625383 -0.026373362 0.14668638 -0.053026818 -0.09312844 -0.06325845 0.054285947 0.123297274 0.04374328 -0.010239049 0.053112354 -0.11616774 0.081712864 0.055297896 0.11540094 0.097617425 -0.012175596 0.026193867 0.048262563 0.10759424 -0.04191634 0.031196112 0.10650242 -0.1480627 0.021096103 -0.12187567 -0.04280711 -0.1101308 -0.1137014 0.10706524 -0.03534067 0.12633993 0.08402634 0.074087925 0.11960026 -0.12567924 0.048700184 -0.1299243 -0.036605544 -0.0011969097 0.11588275 0.041768253 0.047984984 -0.059227668 0.060517166 0.0024258264 0.09082253 -0.020732757 0.1744293 0.09171156 -0.08523706 0.017676454 0.07917883 -0.13664591 -0.111055546 0.11974827 -0.030972144 0.18418254 0.06332662 0.079801135 0.004634217 0.06071377 -0.03408274 0.036543682 -0.0074066184 -0.11001106 -0.087430865 -0.09981636 0.1649641 0.09840028 0.04856114 0.11047715 -0.06745826 -0.041790187 -0.07711074 -0.094524026 0.03516239 0.041598685 0.06288085 -0.10148125 -0.0020591265 0.025162216 -0.06966815 0.09943604 0.056906786 -0.096077584 0.027096944 -0.091559306 0.10216663 0.04256029 -0.03602442 -0.07797229 0.13627931 0.052161127 0.088077866 -0.13163805 0.09866957 -0.117590405 0.019448776 -0.08785095 0.09797645 -0.0716826 0.099900655 -0.006733781 0.13777919 0.04145912 0.047491435 -0.00049908686 -0.081236035 -0.04865282 -0.120654345 -0.06521823 -0.042637557 0.045895252 -0.06983804 0.11008204 0.08638449 -0.11542818 -0.10293263 0.14409126 -0.14118747 0.11908073 0.03480811 -0.13468409 -0.09638433 0.13734485 0.002410546 0.14059667 0.08705026 0.013636839 -0.08266481 -0.08137684 -0.052256208 0.021216374 0.03248141 0.026912665 0.07195068 0.007102494 -0.010304741 0.044730052 -0.008821918 0.079855844 -0.06470552 0.0067639225 -0.00037451313 -0.05516929 -0.11167279 0.050832577 -0.14313439 -0.113496065 0.06874108 0.020936558 0.04673946 0.026945543 -0.069828145 0.072666235 0.028976498 0.14054385 -0.10342932 -0.11477015 0.04395707 -0.030111568 -0.06061879 0.13664411 -0.044568088 0.014239291 -0.04087449 0.05971987 -0.12279203 -0.066573285 0.019526085 -0.0075596618 -0.13797854 0.10755912 -0.118223004 -0.12155546 0.07581714 0.019646242 0.07016778 -0.07939265 0.13347939 0.03190035 -0.09280837 0.0582996 -0.044895705 0.0763212 -0.07590981 0.1252394 0.13651317 -0.086397715 0.019765092 -0.08827201 -0.1030806 0.12880275 0.07500238 0.093592286 0.14074732 0.11237776 0.15309486 -0.09355423 -0.08268237 0.05814691 -0.06863579 0.006770344 0.034350194 -0.04026283 -0.13661593 0.073223606 0.08138216 0.030158605 -0.025933858 -0.11426511 -0.1100273 0.09076178 0.06414546 -0.07885894 0.010975818 0.087573044 0.0027535027 0.025928456 0.14084548 0.13849154 0.045256663 -0.13473023 -0.085353754 0.09485927 -0.00600791 0.11082716 -0.1325238 -0.11701934 0.07200947 0.056141622 -0.12660092 0.05188798 -0.08099682 -0.009532071 0.061285503 0.008021911 -0.04216685 0.08665306 -0.022683302 -0.086391576 0.021094806 0.08038021 -0.09391375 -0.072580576 0.116111875 0.060084973 -0.07933375 -0.018830074 -0.032849617 0.020915588 -0.009592199 -0.100349486 0.062305197 0.018812347 -0.035527013 -0.0710212 0.069774926 0.0030418874 0.12784863 -0.07247941 0.07018328 0.015726529 -0.09442705 0.01664025 -0.14439465 -0.045037117 0.040932756 -0.004802375 -0.019998029 -0.074157074 -0.07271878 0.1296212 0.12660937 -0.012732277 -0.09387296 0.12044757 0.11218347 0.11908214 -0.10420603 0.10574217 -0.02141582 -0.07048966 0.03598941 -0.15266837 -0.015262596 0.10378831 -0.06292795 0.053475123 0.026713395 -0.0859549 0.147514 -0.12209123 0.15391625 0.1689877 0.18672052 0.05220774 0.1062689 0.15989111 0.05251951 0.06840256 0.129949 0.06542953 0.041721486 -0.07406271 0.11745588 0.21574889 -0.0877581 -0.063312724 0.13576879 0.07390868 -0.022318816 -0.12674636 0.07435482 0.03052388 -0.070001334 0.05605087 0.17940114 0.049941313 -0.12630044 -0.009656525 0.033968523 -0.09268982 -0.105195545 0.003171956 -0.039551295 0.09540676 0.1359133 -0.08409471 -0.056469716 0.16797099 0.109714545 -0.068148896 0.07990737 -0.015942756 -0.13309906 0.034689132 0.12272152 -0.06437622 0.09865324 -0.13056676 -0.05760431 -0.13276139 0.046680085 0.005316193 0.029704245 -0.028345192 0.060694903 0.0638724 0.07281767 -0.12500057 -0.14719327 -0.058914572 0.10158233 0.020757534 -0.029551975 -0.04095404 -0.11550984 -0.027588796 -0.023318646 0.04097843 -0.007234622 0.17816812 -0.11674078 0.08421082 0.12932278 0.12090098 0.048093546 0.08208219 0.012087781 -0.11062959 0.06073567 0.015231875 -0.086132556 0.0714455 0.0022657067 0.053023368 -0.06729826 0.10227708 0.02496782 -0.13690937 -0.06038046 -0.08692797 -0.052890517 0.09457656 0.023335239 0.09185914 0.028762454 0.04362343 0.03764461 0.020759948 0.19331494 0.14360876 0.20029947 0.16743924 0.108632095 0.12216403 0.1107575 0.09766611 0.05871634 -0.034270115 0.09925813 0.040058374 -0.0013673109 -0.07900597 0.08515843 0.1393956 -0.13236415 -0.11530656 -0.018823871 -0.07966483 -0.0935625 -0.09734493 -0.071210906 0.055691376 -0.12536193 0.11848859 0.12519865 0.013660474 0.069413595 -0.099779315 -0.034576572 -0.030563729 0.04428904 -0.09171718 -0.013156876 0.01971799 0.048185132 0.071576595 0.07240908 0.1392048 -0.13577852 -0.06934471 -0.10200994 -0.019867057 -0.091955304 -0.05720663 0.10825152 0.16176625 0.13315085 -0.15177076 -0.0117391925 -0.06188082 -0.08559001 -0.15575479 0.032533 0.14103122 0.054491665 -0.022557717 -0.024868172 0.0058990773 -0.102886185 0.15315948 0.140159 0.0053641153 -0.04675884 -0.21288534 -0.11240111 0.10917738 0.063879654 0.17521006 0.043341987 0.18134154 -0.07881764 -0.153348 0.053161353 -0.10420122 0.07004226 -0.030193277 0.12210364 -0.09525224 0.0034033335 -0.047443133 -0.019856667 0.08587614 -0.09593227 0.059613127 -0.00816726 -0.13184054 0.027521163 -0.10267933 -0.0013989325 0.035825156 -0.042506445 -0.02885402 -0.038527235 0.19216985 -0.117034145 -0.09262503 0.09838631 -0.09405264 -0.008509825 0.12641776 -0.04155542 -0.04445693 0.062423002 -0.057627834 0.041079883 -0.1111981 0.13474935 -0.1364912 0.12334512 0.06854041 0.12954645 -0.04572054 -0.016261144 -0.044928584 -0.13364533 0.08546889 0.025289064 -0.09138479 -0.04435607 0.0001599322 -0.07671357 0.003071425 0.1273067 -0.0008095636 -0.09865246 -0.028783796 -0.092005275 0.030574996 -0.1284352 0.059800003 0.010504418 -0.129422 0.077866256 -0.03917293 0.03561442 -0.0028259521 0.03665786 -0.092462994 0.115821265 0.06537185 -0.016339738 0.12874378 0.03166629 0.12435047 0.039783638 0.091697775 0.07151099 -0.1214426 -0.097513154 0.13721353 0.021238156 -0.09392607 -0.06303115 0.11807804 -0.10712827 0.052059963 0.07388121 -0.065320954 0.054740332 -0.09239161 0.12634839 0.087163664 0.047910072 -0.11769989 -0.11044776 -0.1203293 0.12929046 -0.07270968 -0.10638251 -0.119623765 0.122448005 -0.11795884 0.056529418 0.11043315 -0.11146402 -0.07595067 0.09511195 0.13335195 -0.02445986 -0.08912963 0.077483416 -0.06508095 0.10492757 -0.0970998 0.0941463 -0.09919675 -0.13949932 -0.12755512 0.01847348 -0.11459221 0.11707952 0.10413622 0.10080332 -0.04724291 -0.062155403 0.10614676 -0.06818422 -0.15988214 -0.10947933 -0.058027428 -0.112309866 0.09790446 -0.13937023 0.08990384 -0.0005404093 -0.113894336 -0.1302262 -0.013429051 -0.06619878 0.05241305 0.009004126 -0.047326215 0.052957162 -0.16727641 0.07212068 0.12146078 -0.11909179 0.07688519 0.04006549 0.09415033 -0.042780895 -0.13905555 0.115035 -0.06663443 -0.012009943 0.12935467 0.11947963 0.13847934 0.017511114 -0.03557873 -0.119820245 0.010508613 0.06983307 -0.035848565 -0.022053802 0.0984283 -0.09434379 -0.11733747 0.075244345 -0.13162272 -0.018823339 0.06799949 0.124994464 0.14141099 0.05543219 -0.10825895 -0.1410732 0.0030510277 0.016535252 0.044486057 -0.023365369 0.04702717 -0.12516524 -0.0833146 0.12553099 -0.10126924 -0.068112254 0.008293592 0.041505933 0.019853732 0.09506642 -0.027717253 -0.07163208 -0.0916833 -0.09266882 -0.011354123 0.026041627 0.09637749 -0.06015419 -0.017727524 -0.032382727 0.12654321 -0.11573227 -0.078053705 0.12814637 0.0038650378 -0.057039957 0.14060949 0.013837858 -0.10602838 -0.048780605 -0.0069871694 0.038901836 0.11899591 -0.07714308 -0.08639958 0.091710195 -0.013439278 -0.0966814 0.064468764 -0.050634027 -0.0140165165 -0.017576754 -0.010425492 0.113167696 -0.14023976 -0.008687911 0.119542286 0.016844418 0.023426158 -0.013004797 0.024703257 0.067701615 0.0038418774 0.14170402 0.046632774 0.12316468 0.08257267 0.11085836 0.021818614 0.06409587 0.11475559 -0.014604953 0.09847654 -0.03831775 -0.028624611 0.10356701 -0.029608125 -0.05146303 -0.12929355 0.08799914 -0.078542165 0.06118029 0.016616404 -0.00929444 0.0047838483 0.054804854 -0.09543484 -0.03270276 0.14001976 -0.029957918 -0.11335453 -0.097180925 0.06965241 -0.103430904 0.119604595 -0.108835176 0.026611136 0.032257136 -0.026225723 -0.07766342 0.0007672449 0.00727939 -0.07386572 0.017113876 -0.12140107 -0.13519579 -0.13484797 0.07744787 0.036986124 -0.02340075 0.1138277 -0.11090313 0.065353125 -0.0030414492 -0.015305285 -0.03538783 0.025307992 -0.13682349 0.019528849 0.079148285 0.047039557 -0.055567093 -0.13634637 -0.064789176 -0.020724257 0.059808865 -0.0997475 0.086833104 -0.05176044 0.04327219 0.02794983 -0.11594376 0.12740341 0.05656654 0.033661317 0.13917802 0.032003473 -0.005605265 -0.07706487 0.16047792 -0.0656253 0.038257435 0.15276693 0.1267559 0.027493687 -0.07505073 -0.08789191 0.03278502 -0.09372358 -0.017712286 0.0627555 -0.13545306 0.084669 0.028774714 -0.032546394 -0.03262845 0.13898583 0.009649083 0.049266286 0.09341956 -0.03249615 -0.012724652 0.04073449 0.04388875 0.05585065 0.030371962 -0.14419886 -0.015183641 -0.11931582 0.061017677 -0.049625024 -0.113351464 -0.03650972 -0.07902013 -0.07174063 0.02769284 -0.025547266 0.08585357 0.11096132 0.09954476 -0.13421826 -0.09603102 0.063449025 -0.02840782 -0.015150685 -0.1312537 -0.099148706 -0.083254665 0.09256506 0.12368494 0.11620228 0.08305034 -0.083631545 -0.13626306 -0.027349187 -0.069048956 0.11957521 -0.02412568 0.06199726 0.10274643 -0.13317598 -0.019681912 0.09733235 0.08880479 0.057935342 0.064188376 -0.12158854 -0.017230354 0.039466575 0.06429838 -0.0045036227 0.1061787 -0.039892823 0.06379075 0.058162108 0.004194781 -0.036515236 0.110442474 -0.07023727 0.045835376 0.13984011 -0.09110999 -0.123886906 0.048478246 0.035768464 -0.105896965 -0.05388593 -0.08071865 -0.051656127 -0.05808571 0.019491777 -0.10413426 -0.1403762 0.07823676 0.056989774 0.06746976 0.08236575 -0.0008354038 0.022267178 -0.008473888 0.035032257 -0.022598855 -0.056497954 0.13122557 -0.13716131 -0.13977036 -0.13623476 0.007454321 -0.016448565 -0.13660128 -0.09254246 -0.080611706 -0.12999633 0.100866854 0.072326675 -0.05311587 -0.049871366 -0.11745483 0.10815233 -0.0435971 0.0007080026 -0.15581553 -0.08987387 -0.01498281 -0.05757776 -0.15388586 0.09021339 -0.07407176 0.042960797 0.12555188 0.12377159 -0.053502623 0.08015424 -0.039397977 0.09097236 -0.13218571 0.02371006 0.018109255 0.075321905 0.1314331 -0.025245367 -0.080649324 -0.14595771 -0.013567188 -0.03930498 0.09398571 -0.018813029 0.0075019216 -0.12072568 0.0663772 -0.11357897 -0.1358502 0.13878436 -0.043761857 -0.057786003 0.053773146 -0.14208938 0.1303705 -0.032883238 -0.027311863 0.019803593 0.1491566 0.19400506 -0.11374941 0.05173465 -0.07639285 0.006783567 -0.076417245 0.08796488 -0.10651066 -0.07952683 -0.08982678 -0.037425943 -0.00095982925 0.10850119 -0.13286036 -0.0013386 0.12071401 -0.09786932 0.096715905 -0.11573744 0.09662726 0.07848067 -0.13132638 0.1209258 -0.022381315 0.10868628 -0.07185324 -0.09633466 0.07106976 -0.084916815 0.12743106 0.034393102 -0.11238233 -0.055023994 0.021337682 -0.080568455 0.008599368 0.028510839 0.0772862 -0.13300227 -0.111049384 0.045081943 0.031584665 0.08264791 -0.10481169 0.065708466 -0.1213776 0.0023678637 -0.051195122 -0.140612 0.11757314 -0.019659057 0.025352623 0.13605832 -0.117158465 0.12804279 0.028398268 0.03868696 0.17061979 0.00047159934 -0.049068347 -0.033947304 0.11661458 0.08320424 0.06217619 -0.052852366 -0.008685473 0.04226543 0.073743924 -0.06707132 0.018332597 -0.02270037 -0.010277567 0.01716108 0.07723404 -0.038034484 0.014001871 0.077163495 0.1346483 -0.017030621 -0.14782329 0.12856703 0.053760003 -0.10443334 0.0015441909 -0.09970478 0.08713635 -0.018608786 0.03095816 -0.04057619 -0.060795687 0.081466846 0.055620797 0.124465205 -0.09239979 -0.086912304 0.041499645 0.04072856 -0.13888638 -0.11213408 -0.03386713 0.04866045 -0.048882153 0.07681663 -0.121823244 0.090550594 -0.114578106 -0.08753189 0.05280191 -0.09953712 0.08433265 0.12264758 0.06491861 -0.14785019 -0.11684615 -0.030917525 -0.070613764 0.14271826 0.09430049 0.08664066 0.068483256 0.007791113 -0.013113385 0.058248457 0.0391807 0.14637439 -0.092393965 0.09242189 0.03532912 -0.12950674 -0.12456737 0.09392227 -0.10592948 -0.03396079 0.08048808 0.07231178 0.12995893 -0.06434017 -0.08580683 0.08058644 0.02276066 0.037993047 0.055678982 0.043623965 -0.12699945 0.1300582 0.062160067 -0.025225842 0.04069315 -0.070951045 -0.0768597 0.11427956 0.025325049 -0.13476443 -0.070982546 0.02048605 0.07609314 -0.06234217 -0.036515832 0.07014472 -0.07916219 -0.09748995 -0.13297795 -0.038333472 0.006874133 -0.05015096 0.0960445 -0.01969985 0.0074873655 0.07700279 0.059433397 -0.10307316 0.07532473 -0.054122847 -0.070220605 0.05401715 0.03509929 -0.031784713 0.11923657 0.06283312 0.10038888 -0.14315437 -0.039708026 -0.08671613 0.09165039 0.09680463 0.13866307 -0.014072617 -0.112797104 -0.0016610243 -0.042094655 0.03359099 0.016204016 0.0623149 -0.080424875 -0.10718552 0.14026569 0.13878947 -0.0702709 0.09621857 0.123866744 0.10440587 0.07717537 -0.13433422 0.02779828 -0.12605457 -0.044764936 -0.13568847 0.0357388 0.13538828 -0.0074645677 -0.089395225 0.10923857 0.10931259 -0.08122149 0.030319555 -0.10857291 -0.09482626 -0.045324054 0.090664625 -0.008146208 0.108293004 0.061136372 0.08043017 0.053322554 -0.08443613 -0.14127287 -0.1326261 -0.093880236 -0.06466547 -0.05139105 0.12966992 0.1292124 0.0125435935 0.058593336 -0.011081889 0.078120045 -0.11313219 0.0039053229 -0.12800364 -0.047973856 0.029041586 -0.009295977 -0.048527528 -0.024223084 0.04375575 -0.12609787 -0.048410453 -0.0721017 -0.121286616 -0.13160199 -0.018073853 0.086689435 -0.073679745 
-0.041773397 0.06905211 0.14406937 0.05220859 0.054262877 -0.1181176 0.09426768 0.101191714 -0.104908004 -0.029722959 -0.046121396 0.09329494 -0.13406725 -0.0054376745 0.0073580495 0.048836406 0.107264325 -0.09516148 -0.0765208 -0.13128681 -0.016763508 0.10243435 -0.025907317 0.06555447 -0.00095401803 0.08185669 0.118592314 0.058047626 -0.039289102 -0.09286858 -0.12873791 0.0032931226 0.022665283 0.015732128 0.0257176 0.04522362 -0.12547214 0.08621153 0.15160905 -0.1296356 -0.03105188 -0.04975728 -0.12941769 -0.1268868 0.16079623 -0.124773264 0.11231438 0.056626484 0.06640533 -0.13613257 
Rect
Linear 50 50
-0.11255443 -0.06828926 -0.13485675 -0.097770385 -0.107294865 0.110646375 -0.0032267657 -0.07323435 -0.11070491 -0.107260235 -0.010772079 0.11894393 -0.07298793 0.14128593 0.06658851 -0.056276243 0.08583065 -0.11371201 0.13789696 -0.10624838 -0.10011649 0.0009364367 -0.13675597 0.06793424 -0.09063706 -0.042720452 -0.12077849 0.02578649 0.027002042 0.13884757 0.023049071 -0.060062584 -0.04062118 -0.13151173 -0.099332795 0.08769493 0.09767442 -0.04175096 0.040168334 -0.066057906 0.026680008 0.1191078 -0.08673982 -0.02475664 0.08583689 0.017508656 0.010380219 0.0059257094 0.020204775 0.078627765 -0.12041691 0.09347004 -0.13330166 0.008143425 0.055274397 0.11394496 -0.024818175 0.08132514 -0.05160214 -0.14118353 0.0016938746 0.10523099 -0.037092432 -0.13960126 -0.015472427 -0.0889717 0.002109468 -0.048639387 0.09736268 -0.028825581 0.09834047 -0.10805196 0.056023344 0.0327615 -0.086721174 -0.05662369 -0.018757626 -0.013598934 0.11224128 0.13415442 -0.050398715 0.059530392 0.0967467 -0.053378887 0.124605164 -0.07626961 -0.056604385 -0.012246504 0.08955729 -0.12628146 -0.13403451 0.11482151 0.02778861 0.12328072 -0.0565973 -0.0911648 0.0909221 -0.037136517 -0.11148301 0.024657741 0.07416723 -0.048834786 0.103676684 -0.057893768 0.085432336 0.019591961 0.030632963 0.107116364 -0.16126208 -0.1737839 0.13543613 0.15546393 -0.08424361 -0.14165977 -0.016337372 -0.09175875 0.059612934 0.026735134 0.09808877 -0.012154671 0.036293138 -0.12975867 0.09415185 0.10864752 0.08410252 0.148838 -0.042022284 -0.11337434 0.12243315 0.13896321 -0.108039245 -0.08999294 0.03212333 -0.09335354 -0.103823945 0.15791643 0.018844157 -0.0651154 0.13665727 0.118239224 0.097669154 0.04662488 0.023882924 0.016929165 0.004741155 0.084238835 -0.097108476 -0.04224432 -0.032579564 -0.024699997 0.09828534 -0.014115302 -0.016314415 -0.04018669 -0.10076401 -0.034133688 0.029971126 -0.015879607 0.11921056 0.094054915 -0.0498062 -0.060556557 0.07571428 0.11092164 0.045297682 -0.07839343 -0.043362334 -0.09496651 0.048724867 0.109427504 -0.067341566 -0.124348894 -0.019883778 0.09712246 0.072105244 0.10833802 0.0095771905 0.041473147 0.01944676 -0.13501655 -0.04866289 0.060442645 0.07559472 0.10858791 0.019913252 -0.11673132 -0.04360851 0.12972696 0.08962188 0.10672732 -0.057719376 0.06168097 -0.0041800058 0.085594624 -0.062300578 0.06914228 0.099153385 0.0012902534 0.027547317 0.054162312 0.052060407 0.08936305 0.16773441 0.14593756 -0.12040219 0.05142722 -0.0011617189 -0.13774288 0.1315406 -0.001612307 0.074377924 0.08644244 -0.019353185 0.05887353 -0.08899559 0.13681595 0.08652064 -0.10423772 -0.09867169 -0.101386525 -0.048249885 -0.098102875 0.09970856 0.08555689 -0.049604043 0.017923234 0.058592357 -0.0030827392 -1.2065412e-05 0.12596393 -0.07042267 0.1365826 -0.11173981 0.11148227 -0.1374806 0.038410902 -0.070860766 -0.07835071 0.026302798 -0.102668494 -0.09275313 0.03303874 -0.075045265 0.09332493 0.14787081 -0.07407954 -0.0046254694 -0.006883328 -0.09460431 -0.08106623 -0.11305711 -0.06181763 0.032906517 0.05852699 -0.12571138 -0.11070113 -0.10254473 0.025213229 0.07774035 0.035685956 0.12473436 -0.12430238 0.05868593 0.073068134 -0.079350635 -0.034414254 0.06655961 -0.014655273 0.012832221 0.09940216 -0.10126831 -0.017685374 -0.13497323 -0.13094012 0.005354157 -0.0228313 0.09842198 -0.10178295 -0.10256355 0.012256682 0.0666312 -0.054370984 0.08233282 0.13007331 0.0041463 0.12320795 0.051990386 0.110445276 -0.021230118 0.063719615 -0.12341541 0.052939907 -0.07696094 -0.099598676 -0.040963415 0.09087953 -0.0016040833 -0.08537636 -0.074269824 -0.08128252 -0.053079937 0.04799043 -0.120116845 0.05441559 0.12821484 0.06934147 -0.12600213 -0.0015382075 -0.09435086 -0.017317362 -0.03760934 -0.13208073 0.06304581 -0.027708963 -0.06895744 0.047956582 -0.024159336 0.058453534 -0.11524679 -0.017141674 0.04445849 0.10389105 0.03450268 0.023834279 -0.082005344 0.07609753 -0.09116253 -0.04808735 0.13214847 -0.055163123 -0.085175514 -0.093737036 0.064830475 -0.14749001 -0.05678125 -0.13034207 0.09212033 -0.078677334 -0.011343684 -0.03772213 0.011092359 -0.10025222 -0.08826848 0.07939041 -0.009824502 0.040340833 -0.006235138 -0.09481775 -0.081806 0.044133786 -0.0034744323 0.04159785 0.040649243 0.04573849 0.117490396 -0.10819545 -0.048575956 0.08782403 -0.024393871 0.11020904 -0.11176836 0.06419808 -0.014996498 0.001426942 0.005682576 0.0019566712 -0.08639177 0.0436544 0.115187615 0.041666646 -0.021873938 -0.08181062 -0.13295375 0.022673698 0.115839794 -0.11650746 0.07153758 -0.032896787 0.036917936 -0.0026007162 0.005217675 -0.116624124 0.12453446 0.07787498 -0.009524053 -0.073650554 -0.045999408 -0.040102616 0.10155868 0.08051958 -0.06413396 0.022117779 -0.13445494 0.10234867 0.100077584 -0.11391051 0.11376212 -0.09616542 0.11572932 0.029340718 -0.03991352 0.07365994 0.13790552 0.13898045 0.06186931 -0.00504386 0.103008196 -0.0018520043 -0.10071661 0.09531018 -0.11331315 -0.12332836 0.13734843 -0.053898264 0.098944195 0.11359658 -0.016301567 -0.010528757 0.1186305 -0.0096678175 0.13673483 -0.08154113 0.09877074 -0.030569082 0.104834944 -0.019654695 -0.10568233 0.10601205 -0.010401046 0.12421234 0.07287956 -0.041767687 -0.031601217 -0.11216872 -0.07403779 0.13188575 0.066634655 -0.029221028 0.07510402 0.028007338 -0.05297733 0.061389852 -0.02081547 -0.10762331 -0.008441412 0.12713695 -0.039576426 0.007881608 -0.043602828 0.005853572 0.031137094 -0.11059762 0.024766743 -0.051692657 -0.034576885 -0.11830436 0.061090037 -0.0079188645 -0.066364616 0.117116824 -0.07294305 -0.11845134 0.06523216 -0.08181469 -0.13427792 -0.13967504 -0.08459146 0.1114137 0.0020904094 0.056402013 -0.08935498 -0.13527375 -0.013274267 -0.07432792 -0.14002672 -0.12260205 0.07562867 0.099948555 0.0009819716 0.029789507 -0.06724545 0.059068993 0.022135347 0.12706827 -0.061155297 0.010401443 -0.10861171 0.0002565384 -0.09652422 -0.11571433 -0.029565208 -0.12036969 -0.13553464 -0.06636519 0.031488627 -0.07849623 0.123733416 0.14009492 0.0131881535 0.05474764 0.08100149 0.025372908 -0.1124143 0.013129428 0.071926504 0.07467526 -0.01464884 0.052354872 -0.03359957 0.063009456 -0.0867196 -0.049423926 0.06843747 -0.10543157 -0.08017236 0.07366429 -0.068245195 -0.019485012 -0.0018128157 0.014569476 -0.06332563 0.13701068 -0.106416956 0.14010783 0.10545951 -0.035749614 0.036308065 -0.11802711 -0.08956286 -0.10460054 -0.014237359 0.10172184 -0.08784489 0.113136515 -0.11209181 0.040213004 -0.09821598 0.04295194 -0.008434981 0.1286651 0.08169933 0.09453367 -0.10041007 -0.053741366 -0.025355205 -0.11228582 -0.077319846 -0.106396094 0.022796854 0.058823854 0.08856566 0.028778791 -0.055021852 0.07928355 0.039523736 0.083895594 -0.13296975 0.07945149 -0.11464813 0.12991287 -0.05821158 -0.1317653 -0.057002068 -0.1113526 0.08633256 0.01351203 0.041759014 0.07562129 0.0005212575 -0.11321182 0.031709075 -0.12811449 -0.120071575 -0.11932915 -0.074983105 0.085228026 -0.039830007 0.11288668 -0.05913724 0.010075048 -0.14036883 0.08187595 -0.08935604 -0.065619275 0.012198448 -0.019415721 0.11823587 0.030288517 -0.08663502 -0.009949714 0.05731213 0.10283086 -0.12632008 0.019174874 -0.11111993 0.08207944 -0.07700252 0.08802274 -0.032602884 0.028046817 -0.0012882345 -0.1445575 0.06441643 0.057005234 0.03904025 -0.025061531 -0.1254321 0.03151888 0.10425219 0.13254726 -0.095343724 -0.05430265 -0.06545962 0.05089271 -0.056406047 -0.040263616 0.09462151 -0.020262623 -0.013066555 -0.055059157 -0.12990566 0.11265675 0.09755911 -0.0047200704 -0.09911595 -0.06581955 -0.09912166 0.03218286 0.13946871 -0.09693139 0.015887607 0.013401874 -0.045404505 0.06449022 0.06376555 -0.081277065 0.096127056 -0.09825849 0.04865897 0.08396145 -0.0651375 -0.008258412 -0.04971707 -0.0077060014 0.0020713904 0.042137556 -0.019765105 0.005458157 -0.13210584 0.050743602 0.067757115 0.03084939 -0.052574094 0.085894525 -0.00084147893 -0.0931803 0.054679662 -0.08793908 -0.025069343 0.15671456 0.028027356 0.049082037 -0.09991906 0.11812883 0.09269295 0.10167316 0.09718294 -0.016677057 0.062971346 -0.02134929 -0.084976494 0.026826678 0.030423487 -0.039279785 -0.06274019 -0.007835059 0.09791091 0.09394212 0.062307443 0.010166039 0.14524616 0.027366398 0.07234017 -0.12365166 0.1831533 0.08761858 0.015237214 -0.042086903 -0.03432826 0.05011793 -0.011041301 -0.121924736 -0.047591627 0.00039176643 -0.107917316 0.07643802 0.14263532 0.12564866 -0.13849315 -0.08164063 0.070939295 -0.12828553 -0.11139208 0.12743615 0.04329745 -0.1127688 -0.037062164 -0.05232351 0.12889688 0.07565859 0.085611746 -0.09850651 -0.032716498 0.08702609 -0.06712655 0.057173915 0.11053626 0.092098854 0.0036951234 -0.00541095 0.107095964 0.0035997515 0.10789502 -0.040845215 0.07176399 0.1314231 0.112780616 -0.08171426 0.06147235 0.08234468 0.04329171 0.12972307 0.13891706 -0.066613905 0.13616386 0.010452873 -0.14089203 0.11226026 -0.07029628 -0.011037431 -0.026854774 -0.11429175 0.07694789 0.093992874 -0.16900964 0.06955212 -0.077254795 -0.016774384 0.048250742 0.055198055 -0.08646864 0.09872277 -0.14513792 -0.12996578 -0.08959256 0.08483877 -0.09633767 0.06681385 0.06497267 -0.13295384 -0.10742558 -0.13091783 -0.099059716 -0.109839074 0.1298056 -0.115371905 -0.0511616 0.06165338 -0.14101195 0.040334858 -0.12766565 0.024064643 0.08885222 0.13066418 0.11844409 -0.14523806 0.037386134 0.115455166 0.013764067 -0.07090914 -0.051729355 0.030707346 -0.02074846 0.08255277 0.107238755 0.032169696 -0.11721501 -0.0048800204 0.02936468 -0.030169606 -0.077807225 -0.0028225677 -0.052820884 0.11145733 -0.016826143 -0.008879883 -0.037438273 0.019499991 -0.10740034 0.06293228 -0.052475747 0.10813359 0.16339502 -0.12990455 -0.12357888 0.01135994 0.032249816 -0.08217146 -0.112074025 0.005791639 -0.05986803 0.07665823 0.08617488 -0.05497964 0.10551496 0.032362968 0.07135497 0.0269219 0.17271271 0.041655682 -0.050097074 0.08484305 -0.12132934 0.032720942 0.029220566 0.030156441 0.09623155 -0.04190498 -0.12353475 -0.096555755 -0.09299385 -0.09014777 -0.10908114 0.10693146 -0.12815528 0.12857002 -0.0092367465 -0.01060341 -0.07102747 -0.03713443 0.12104595 -0.07872953 0.1401319 -0.11484558 0.15921885 0.07625593 -0.055825498 0.053792667 -0.02094301 0.101662576 0.035561346 0.11995405 0.070071176 -0.12662764 0.033053752 0.030175783 0.06604701 0.13988027 0.10685161 0.13836004 0.046192184 0.12983675 0.06336711 0.06159141 0.1261815 0.08345924 -0.09292111 -0.115131274 -0.028572666 -0.06705955 -0.0018824383 0.051898424 0.07682706 -0.009006376 -0.008299284 -0.0234152 0.15050416 0.031348314 0.0536768 0.111967236 0.024264902 0.06972363 0.006213133 -0.12565073 -0.03279335 -0.08422812 -0.12238652 0.048462093 0.009968239 -0.032587018 0.07554649 0.121927544 0.02787361 0.1356882 -0.0047993916 0.019373188 -0.0042034793 -0.0442243 -0.13007714 0.073688574 -0.12672304 0.10444925 0.07279687 0.049949378 -0.018891748 -0.123612374 -0.059936885 -0.050394733 -0.14112385 0.020635057 0.08590627 -0.068001255 0.0066782683 -0.111771874 -0.02703966 -0.0035794612 -0.08984585 0.059051163 0.12353589 -0.10916231 0.13379249 0.04947704 0.02548574 0.07288698 0.11107979 0.007991327 -0.008399216 0.0012988994 0.11945043 0.13967693 -0.034855936 -0.02516484 -0.084428504 -0.09271984 0.0858426 -0.04065085 0.05902991 0.14263253 0.11494023 0.029132873 -0.10469597 0.10839799 -0.019557595 -0.03449069 0.02593646 -0.10927236 0.010032184 0.12855154 0.048829984 -0.13618043 -0.026682094 0.01663977 -0.11275626 0.07591197 -0.12398546 0.12189229 0.108678564 0.047522068 -0.07616694 -0.016035631 0.12657727 -0.1284981 0.04883921 -0.09428483 0.0022116452 -0.022005394 -0.0064398497 -0.046979204 0.0074190646 -0.06448355 0.0061427206 0.11024962 -0.123016946 0.101783365 0.04809788 -0.08157606 -0.0031465292 -0.09455806 0.05483742 0.013646439 -0.08262433 0.034396827 -0.089430764 -0.07597661 -0.13847387 0.0066272914 0.035194054 -0.06905306 0.019476712 0.12528904 -0.07035491 0.00012755394 0.027675271 0.033720925 -0.11099722 -0.11266841 0.08992919 0.07135017 0.059521466 0.10002977 -0.11443624 -0.08466963 0.04145643 -0.119360775 0.06383321 -0.0818383 -0.10467543 -0.08885824 -0.034472 -0.0836923 -0.09547042 -0.035211276 -0.048596546 -0.08993871 -0.13802062 -0.06539389 0.089155644 0.13530704 0.020284511 -0.0039547156 0.0065300744 0.14660873 0.11353144 -0.068916805 -0.10391913 -0.0041454495 -0.03194895 0.10138588 0.12605801 -0.035583317 0.078619525 -0.013856996 0.09884847 0.027408466 -0.07554551 0.07550993 0.11046972 0.12998986 -0.11410389 -0.06517654 0.030186223 -0.13380162 0.030116946 0.0064097494 -0.014642708 0.015782699 0.1416656 0.009916065 0.042837434 0.03651855 -0.032937333 0.07407523 -0.11486463 0.11946799 0.014526084 -0.048069783 0.100031264 0.114314765 0.13955052 -0.07250799 -0.07621064 0.13382718 0.10879283 -0.055461463 0.09511127 -0.10953381 -0.06864839 -0.108736895 0.103425734 0.04844244 -0.13576737 0.110688604 0.023340289 0.092414886 -0.07677758 -0.026661009 -0.05959153 -0.017363612 0.0705712 -0.055433575 0.080203615 -0.13621421 -0.054122362 -0.051979817 0.036429238 -0.12614124 -0.12060537 -0.014690929 0.034265224 -0.036768086 -0.0591556 0.036443673 0.1132489 0.038446903 -0.062522985 -0.113121375 -0.056341913 0.01855233 0.104458585 0.067194514 -0.11025336 -0.022121854 -0.09522418 -0.08866063 -0.08234025 -0.038485948 0.071748056 0.04049492 0.09534902 0.02186253 0.07840198 -0.106552236 0.07218348 0.015595938 -0.033176195 0.111257456 0.05989249 0.04460092 -0.016469574 -0.057496812 -0.07065095 0.14510445 -0.048914846 -0.0903404 -0.054786287 0.061332807 0.12199238 0.079849385 0.096454635 0.06406116 -0.06383605 -0.121853665 0.13426383 -0.06183872 -0.041258592 -0.105753385 -0.04038506 0.008251266 -0.16700195 0.044735555 -0.03707975 0.09213161 -0.0410061 0.10889362 -0.08060479 0.01874922 0.14926541 0.07377256 -0.13185877 -0.040705573 -0.0026073328 0.011325233 0.040421657 -0.018137895 0.12361455 0.13884737 -0.063030094 0.09736653 -0.032733224 0.11184156 0.022437066 0.009333586 -0.014319802 0.0473938 -0.024268541 0.024963744 0.03452485 -0.048694402 -0.14221841 -0.10743826 -0.0999059 0.062211912 0.000231548 -0.024547946 0.04051042 -0.016490266 0.18425217 0.12611455 0.009314947 0.09748652 -0.052147746 0.10729192 0.0025261517 0.10734259 0.14183116 -0.17117886 -0.013796986 -0.094376646 -0.15549229 0.00727763 -0.027291676 -0.13551335 0.03860266 -0.048574463 -0.00927901 -0.07551886 -0.0807608 -0.10441613 -0.06496917 0.02028109 -0.083029374 -0.11269262 -0.10250078 -0.00968662 -0.07708315 -0.01288265 -0.08746644 0.06719946 0.08428699 -0.12310803 0.11785804 -0.095938385 0.08870469 -0.1086357 0.065415055 -0.13865003 -0.089656934 -0.1278231 -0.00945584 -0.104091845 0.025859188 -0.04056884 -0.080408216 0.1335455 0.10842663 0.0032148832 -0.01185058 -0.07371078 -0.09125262 -0.04457569 0.008145432 -0.10759899 -0.08939132 -0.027134158 0.07288458 0.010088351 0.13870372 -0.06915959 -0.13869448 -0.1219065 0.046731237 0.0652678 -0.08372402 0.11848138 -0.10819103 0.12381423 -0.0018503438 -0.13880354 5.1318904e-05 -0.032702357 0.08640127 -0.087149136 -0.08633125 -0.03878123 -0.040446274 0.039551258 -0.008478159 0.025046391 -0.02893956 -0.07219332 -0.0018708855 0.0027594296 0.05540983 -0.0037497727 0.13113466 0.09767278 0.042496245 0.09505252 0.08125187 -0.028569844 0.104158364 -0.09826848 -0.12677051 -0.07113583 0.12842435 0.09517398 0.09904937 0.07308741 -0.063987836 0.009407949 0.02903677 -0.067447215 0.00888182 0.046945743 0.057961255 0.11992322 -0.068154134 0.06116045 -0.014305003 0.042559404 -0.09516977 0.0519565 0.12393754 0.10076068 0.10349573 0.07409586 0.09033083 -0.048392307 -0.06368613 0.04877304 -0.045543645 -0.14590296 0.09207104 0.07507136 -0.08419366 -0.0066536213 -0.07092115 -0.035241067 0.024165247 0.05811432 -0.107260294 0.09410425 -0.13876441 0.0007455747 -0.07739323 0.10224988 0.10675682 -0.11697079 0.039427523 -0.12985821 -0.15027757 0.12739132 -0.11091184 -0.020607375 -0.0787796 -0.07517197 -0.09027964 0.0855294 -0.120745115 0.07316163 -0.052044414 -0.0301599 0.090801366 -0.049179252 -0.036770474 -0.13412166 0.032610614 0.1131855 0.06254108 0.034814302 0.094378084 0.031450517 -0.075780906 -0.002219677 0.05191977 -0.058069065 -0.0066527855 0.091803126 -0.11318996 -0.034009818 -0.09347764 -0.13067037 -0.07799212 0.101294145 -0.121597596 0.13977666 0.08031319 -0.13741851 0.084840536 -0.03969327 0.105224 -0.10875919 0.0058750985 0.069750965 -0.093930684 -0.13022149 0.13274051 -0.0814853 -0.114014745 0.081830695 0.060502477 0.07975777 -0.050657198 -0.13824241 0.043615222 -0.10757039 -0.08812666 0.12493451 0.0033575995 -0.018085506 -0.118271984 -0.076677784 0.03204774 0.11718914 -0.11815612 0.040897183 -0.0030470532 0.069725886 -0.041262876 0.08014634 -0.006416362 -0.0464441 -0.086322404 -0.12963706 -0.07079291 0.07400029 0.03288268 -0.10699435 0.0066768164 -0.124934636 -0.10088742 -0.07266394 -0.03310083 -0.051036358 -0.06849006 -0.12750803 0.043924756 0.07561281 0.09399418 0.09971871 0.043139696 0.05807479 -0.12143536 -0.07803686 -0.106242776 0.13157336 0.11156175 0.10082672 -0.023436876 0.12473634 -0.0735497 0.08790353 -0.10045237 -0.013525268 -0.14081645 -0.015901238 0.053748567 -0.026455399 -0.009707688 -0.08945415 -0.1146028 0.009204276 0.06359156 -0.14724074 0.025479315 -0.050906096 0.03636126 -0.10447639 -0.030437183 -0.12545486 -0.0872497 0.023600435 -0.015256751 -0.08518043 0.029179327 0.07619257 0.1517295 -0.10670765 0.028799858 0.13778329 0.03244289 -0.040763978 0.031050887 -0.12471562 -0.015575012 -0.048199557 0.12290122 0.12643412 -0.079287775 0.09115963 -0.10054651 -0.0214206 0.103313066 0.16854174 0.06899063 0.0044646007 -0.0052285944 -0.047141314 0.06331627 -0.06678038 -0.11021918 0.118521765 -0.0011534649 0.11747245 -0.00094824 -0.06952936 0.044784714 0.031395875 -0.018914321 0.102788165 0.13689525 -0.050290503 0.1761471 -0.12473876 0.19292329 0.023529796 -0.040854916 -0.052406088 -0.16658935 0.13185371 0.054475922 0.03831448 -0.0052039996 -0.016834803 -0.054105956 0.024064109 0.057601456 -0.036699027 -0.09272535 -0.108512476 -0.025102025 0.0320072 0.019968763 0.013754862 -0.120419435 0.097220555 -0.12337466 0.048623305 -0.089947 0.073443264 -0.12540844 0.0614331 -0.020066047 -0.028795026 -0.10735317 -0.048057675 0.09888015 0.102727145 0.08552311 -0.02911238 -0.03122047 -0.06203089 -0.132525 0.13257419 -0.013691761 -0.028740905 -0.100248754 -0.018683849 -0.104262 0.06486846 -0.061578974 -0.13508543 -0.0543062 0.06345751 0.00029174425 0.12580667 -0.13506521 -0.09932377 0.014692997 0.068503246 0.02853865 -0.02391217 0.049468517 -0.08848065 0.1404336 0.046831075 0.060886033 -0.016689569 -0.016726134 0.011003748 0.13647962 -0.067045495 -0.08452878 -0.055771355 0.1392323 0.032529525 0.027471917 0.078659445 0.062737525 0.19930026 -0.11218755 0.13719095 0.1101539 0.18249105 0.031306233 0.0013806636 -0.1325346 -0.07696076 -0.08983923 0.12779906 0.033141132 0.09695888 0.14159787 -0.13359424 -0.038099602 0.03625267 0.13712753 0.08898883 0.075306274 -0.10833049 -0.11684302 0.06955085 -0.0053166337 0.0049993116 0.044347927 -0.1782049 -0.023623945 0.11482534 -0.16859111 -0.104351535 0.08660505 -0.10300011 -0.009353731 0.046733454 -0.03306342 -0.09843087 0.105895884 0.11127678 -0.05554268 0.01006599 0.017893668 0.05756182 0.11252942 0.04893428 0.13414004 -0.02993069 0.04756065 0.09703204 -0.081392504 0.06308133 0.10746974 0.11681203 0.10113214 -0.12164291 -0.10285591 -0.08364504 -0.03356718 0.07550394 0.07718029 -0.005675571 -0.055536702 -0.12852742 -0.09267169 -0.04069366 0.035792667 0.08270095 -0.06333052 -0.0050414866 -0.07240575 -0.042263422 -0.05364681 0.099883966 -0.059239402 0.13757083 0.09258193 0.014728784 0.08051553 -0.07180298 -0.13204524 0.07461178 0.05312282 -0.08713121 0.005872369 0.08203471 -0.0016717565 0.09020084 0.023144258 0.073362395 0.12232688 0.08778262 -0.03656888 0.057963308 -0.014204603 -0.120460816 0.008908657 -0.014692791 0.0407518 -0.110958055 -0.019124363 -0.1138178 0.010213494 0.08708958 0.13173217 -0.09990794 0.031258672 -0.0046460186 0.040391315 -0.056178547 0.08266249 0.10337792 0.12995493 0.05471247 0.0377729 -0.018227285 -0.027916793 0.030558718 0.104255006 0.12465078 0.12853485 0.09382768 -0.035683434 0.07477919 -0.05957674 0.10766693 -0.008543602 0.14856502 0.13103496 -0.0584404 0.0027556606 0.12382493 -0.12715453 0.050360244 0.13722081 0.03694229 -0.105431445 0.0024328686 0.1353807 0.13435161 -0.036662377 -0.040761087 0.12263194 0.09194952 -0.08008393 0.11151505 0.022302147 -0.08045226 -0.09471481 -0.10378304 -0.049997523 -0.047659125 -0.12745668 -0.1147722 0.08294826 0.080041625 0.040144783 -0.076574534 0.06879317 -0.083812244 0.06503106 -0.019894438 0.14806388 0.13069947 0.017929712 -0.06489941 0.0016287036 -0.074522816 0.09279507 -0.11846243 0.057981644 -0.124674626 0.062733606 0.10012422 -0.015094017 -0.04056406 0.04968903 0.08199094 0.07190243 -0.009077676 -0.11102659 0.09673107 0.04589801 -0.08166073 0.13055895 0.017818362 0.030123046 0.030821906 0.022887474 -0.033060912 -0.013564304 -0.13602039 -0.0207163 0.038096778 -0.07599249 0.053263057 0.07496267 0.12702018 0.05308174 -0.027389105 -0.026375856 -0.0527894 -0.1350389 0.0615911 -0.017858714 -0.08772205 0.09108571 0.15230729 -0.072229356 0.058773573 -0.06543717 -0.12856558 -0.0027751655 -0.061785817 0.1304011 0.14244476 -0.029168183 0.09098198 0.08272657 0.12573756 0.118712425 -0.01676339 -0.04232225 0.022233762 -0.08679152 0.004654972 -0.014411884 -0.01092374 0.12366925 0.07119474 -0.113947555 0.13857387 0.114266776 0.10735932 0.009051509 0.024954692 -0.080798805 -0.12539735 0.10999595 -0.033933006 -0.05631291 0.012098331 0.10921984 -0.0953849 0.0023688814 0.014498098 0.08387205 0.11811858 0.050768275 0.107483864 -0.12603424 -0.12848501 -0.085665494 0.10237242 -0.015045992 0.10628731 -0.057539035 0.011703194 -0.12144626 0.07225146 -0.09913326 -0.09685865 -0.14746325 -0.006948859 -0.118871845 0.035647385 0.061554503 0.1164062 0.10150792 -0.031426337 0.13439557 0.0018376217 -0.029434107 0.087934315 0.014329517 0.059439167 -0.05890006 0.085954726 0.08794462 -0.1391557 0.07375038 -0.12894993 0.095559984 0.10947224 -0.083565824 -0.051478162 0.06883705 0.08472355 0.027498696 -0.017127639 -0.043253135 0.0507017 -0.12158739 -0.13370079 -0.105520435 -0.118594125 0.010173129 -0.07487218 0.11973369 0.073788114 -0.0224049 0.15458064 -0.02857931 0.11854269 0.023972156 0.1057403 -0.11698995 -0.01563887 0.021375882 -0.059601076 -0.09106513 0.013081108 -0.030077618 0.043152265 -0.09750599 0.098799974 -0.110705264 0.039676785 0.17856626 -0.06452486 0.074464545 0.055611573 0.06510898 0.08176319 0.118494995 -0.0785381 3.8524933e-05 -0.14434245 -0.1219745 -0.046928722 -0.012220981 0.0008499685 -0.08053846 -0.07249636 -0.0599321 0.028097838 0.07493999 0.06456569 -0.10621483 -0.047211904 0.092835285 0.11312177 0.071630254 -0.13746482 -0.09034977 -0.02153539 0.04874722 0.1258528 0.10962219 0.13092795 0.097109534 -0.0074883276 0.08544232 0.12865326 -0.12996548 -0.025720373 0.07601926 -0.049533382 0.06356403 0.065463565 0.045377295 0.058265228 -0.016122717 -0.09350346 -0.071763225 -0.053048566 0.008649844 -0.11262078 0.049241174 -0.046206795 0.08298029 -0.102579705 -0.13857782 -0.111731924 0.06867915 0.12065447 0.10292165 -0.11972994 -0.055845365 -0.08442471 0.08844913 0.05774048 0.098721616 -0.05359289 -0.13091223 -0.013117343 -0.14117038 0.024414733 -0.092587516 -0.08190771 0.032510668 -0.09722156 -0.04566226 -0.03550263 0.07060454 -0.0921639 0.08117508 -0.10137765 0.07690384 -0.008283579 0.10157306 0.11500274 -0.067030236 0.11142377 -0.059763763 0.17706576 -0.041922744 0.15947627 0.0525896 0.12254852 0.055996396 0.09898709 0.08009096 0.17337066 -0.07393481 -0.07484168 0.02908023 -0.015123755 0.16881637 0.13886535 -0.04754528 -0.0916351 0.13669129 0.05171662 0.1706693 -0.03215047 0.23100138 -0.16165195 0.10835544 -0.10629551 -0.17769122 -0.13733193 0.16803245 -0.15760656 -0.12415805 -0.07361612 -0.0595095 -0.09838236 0.051019784 -0.14098299 -0.10901832 -0.10825663 -0.008946325 0.04730498 -0.03906741 0.083161764 -0.11809298 0.047260266 -0.120352544 0.018223241 -0.017480966 -0.01767378 -0.044341452 -0.034542594 -0.13843544 -0.06692641 0.016125154 -0.12646323 0.10068537 0.041050117 0.10549824 -0.07121754 0.09784737 0.11472552 0.13186078 0.067318305 -0.12169208 -0.11559444 -0.07937863 -0.053325996 0.008618999 -0.13260458 0.01795056 -0.13660349 -0.12400297 -0.037409656 0.021285681 0.12304811 0.025829516 -0.1433685 0.03495768 0.006426241 -0.08824741 -0.06828398 0.002202686 0.025628865 -0.03237688 0.0002172238 0.08797109 -0.030036818 -0.043958757 -0.09761009 -0.11704948 0.062002517 0.08057792 0.080800235 -0.020989029 -0.11981318 -0.02674026 0.14971022 0.046675503 0.15237229 0.10370053 -0.08900843 -0.0019471255 0.06029088 0.09881942 0.12699854 -0.008225243 0.068660475 -0.03611396 0.013155812 0.12324839 0.12618816 -0.100228906 -0.012971929 0.066368215 -0.04958913 0.13642104 0.13521618 0.0361766 -0.1258048 0.0039030858 0.009642525 0.055294875 -0.11745274 0.13850155 -0.1521306 0.011905986 -0.1097329 -0.030446157 -0.08131628 -0.039182186 0.0058250595 0.07403094 -0.13738096 -0.071055345 -0.034602985 0.0031035496 0.034462716 0.011814834 -0.067261815 -0.07229769 -0.17056829 0.069532946 -0.14585872 0.003624135 0.057737265 0.12801209 -0.07915275 0.120119296 0.059472453 0.10083501 -0.087591544 0.10578967 0.17976604 0.10161654 0.1556413 0.033235077 -0.10052288 -0.17355154 0.045398418 0.09176068 -0.059449296 0.041690584 0.10828448 -0.1840208 -0.010883174 0.20224503 0.09563311 0.021189565 -0.11917041 -0.0667306 0.054283038 0.1229312 -0.12459182 0.18170209 0.03206105 0.03159736 -0.0017636972 -0.121854156 -0.11165033 0.093643494 0.025167389 -0.1187337 -0.061883055 -0.02795875 0.0433146 -0.006042578 -0.1465371 -0.07368475 0.039510876 0.10028485 -0.039567295 -0.13897261 -0.014309232 0.08551168 -0.102039464 0.05920793 0.05686477 -0.023060612 0.07583221 -0.07862082 -0.0927965 0.0651114 -0.04007494 -0.03660064 0.11517767 -0.04818932 0.12781571 -0.022278365 0.052917745 -0.008431117 0.08890877 -0.03481212 0.045549415 0.095651805 0.06704924 -0.10252639 -0.06279189 -0.13960697 -0.10363947 0.03503385 -0.055531565 -0.10566457 0.1124255 0.12003927 -0.03369765 0.085617304 -0.026147077 -0.078497395 -0.1076007 0.119313076 0.1392898 -0.06594679 -0.052938297 -0.10890575 0.037235267 0.12426171 -0.09281584 -0.022703048 -0.02888231 -0.0017982273 0.12526047 0.06735516 -0.08935022 0.13105282 0.06738153 0.008544024 0.05771352 0.07176642 0.071858406 -0.113929965 0.046882704 -0.0256131 0.02009575 0.053639587 0.019832756 -0.12777044 0.13589521 0.00305413 -0.13869953 -0.08626475 -0.07409563 0.076428235 -0.008898008 0.041787595 -0.07257371 0.004560803 0.045272946 -0.11185659 0.0073716776 0.10491546 -0.018762976 -0.08069054 0.03290672 0.059970938 0.095885105 0.14136289 -0.1301554 0.1490041 -0.0031051622 0.11167513 0.025038185 -0.11598137 -0.13533334 0.053374086 -0.07218176 -0.038745224 -0.011799879 -0.11395309 0.06743383 -0.12436827 -0.04470972 -0.054964416 -0.0075455904 -0.031439103 -0.099112585 -0.010334834 0.025902912 0.00041426718 -0.087739676 0.10093191 0.09757723 -0.006637782 0.047894523 0.030756801 -0.007346481 -0.08647281 0.019441873 0.07274985 -0.03296364 -0.0114797205 0.052306876 -0.04664036 0.08032279 -0.019235589 -0.09167528 -0.0058283806 -0.09235624 0.04565999 0.10439041 0.10783784 -0.07405738 0.0442885 -0.002707541 -0.10401261 -0.07365191 -0.110749125 -0.055511788 -0.039171785 0.030192092 0.04336123 -0.045238376 0.002013877 -0.06411487 -0.036857 0.032795817 0.07400504 -0.056744307 0.033676237 0.09833583 -0.058452487 -0.016357616 0.09973513 0.07402099 -0.12628208 -0.0902323 -0.043510497 0.07355199 0.058641367 0.11293323 0.13147552 0.050493628 -0.044436745 -0.10199178 -0.119462155 -0.06329468 0.06963668 0.12114476 0.0059062457 -0.13798071 -0.058806706 0.022039164 -0.024439933 0.06400149 0.06498582 -0.09002592 -0.07266561 0.02094162 0.04149656 0.12425468 0.020745644 -0.07827863 0.09258809 0.08479479 0.12133602 0.039459094 0.11557977 -0.06738333 -0.14189644 -0.04356684 -0.063105755 -0.014029984 0.07674207 -0.055505596 -0.004099779 -0.066619344 0.09456236 0.15144 0.06738696 0.04278669 0.07572764 -0.06771386 0.030011684 -0.084325 -0.07680384 0.119076945 0.094358355 0.10641045 -0.11764883 0.014046317 -0.018305287 -0.0562128 -0.11923562 0.118844345 0.08375451 0.13057624 -0.05340725 0.09050269 0.053560734 -0.036265988 0.13004541 -0.067122005 -0.0275416 -0.04548804 -0.02531351 0.11965482 -0.09908846 -0.009071311 -0.116786994 0.11485289 -0.088649355 0.13716671 0.12262674 0.028323868 -0.031509735 0.007157426 -0.1324852 -0.03561762 0.09725232 0.09590901 0.13108504 -0.035603892 0.01779943 -0.01860524 -0.107373625 -0.060067672 0.059273023 -0.101513766 -0.06317979 -0.06482034 -0.021021938 0.06785511 -0.021024136 -0.038898125 0.067162275 -0.064415984 0.0016800974 0.032326024 0.028343325 0.20587209 -0.12521906 0.13413672 0.044759065 0.15411551 0.047201056 0.065900706 -0.06440417 0.009684503 0.034477852 -0.06381243 -0.046954498 0.029037252 0.06746154 0.14899066 -0.17395158 0.15554877 -0.0058690133 -0.101660825 -0.102760315 0.0075843977 0.048233185 0.057900283 0.08452154 -0.083749935 0.1600827 -0.15451089 0.02756283 -0.11573843 -0.21371408 -0.05836771 0.041230287 0.1149631 -0.051581644 0.06459457 -0.11063568 -0.11801681 0.0389056 -0.055477243 -0.03622108 -0.05841466 0.057357647 -0.12688187 0.11592169 -0.003955989 0.033478957 0.05855948 -0.09664113 -0.015811702 0.100099556 -0.027783817 -0.097591 -0.11131157 0.01726375 -0.09957296 0.09820239 -0.12964678 0.073996104 -0.061267607 0.10567399 -0.12782258 0.013402513 -0.008223778 0.07913551 0.09491504 0.09041698 -0.063042544 -0.10332845 0.07816749 -0.04473158 0.11486659 -0.018220332 -0.054113723 -0.09147422 0.04900298 0.11144997 0.10959189 0.13331527 -0.010682684 -0.089458965 -0.018779978 0.06001437 -0.10368836 0.13081045 0.028290942 0.065479994 0.09812548 0.10318964 -0.060873747 -0.05394573 -0.08993204 
-0.052048698 -0.08606318 0.12512755 -0.13029325 0.1412608 -0.058289275 0.15259933 -0.08559703 -0.022760112 -0.01141797 -0.08858663 -0.06440027 -0.012893856 0.020428956 0.14518815 0.009194088 0.013949008 0.004730456 0.11804156 -0.08687109 -0.0113386605 0.02085101 0.025565177 0.11584481 0.12983677 -0.14025849 0.08684213 0.039598484 0.018387137 -0.006119528 0.13545907 0.15965842 -0.06370117 -0.008091539 -0.0076051177 0.025703615 -0.110935576 0.13705264 -0.07842804 0.12446406 0.027305316 0.066952065 0.15964663 -0.0908023 -0.020290665 -0.107626416 -0.086201966 0.0441922 -0.0468782 -0.08871693 
Rect
Linear 50 50
-0.047678493 0.10326971 -0.121002816 0.04122311 -0.07307714 -0.11974922 -0.04784546 0.06929357 -0.082308024 0.13705866 -0.02694077 0.12312175 -0.13499625 0.09288658 0.078229964 -0.098986566 0.028097212 0.09121156 -0.07664757 -0.0049434155 0.05279228 0.06739667 0.12024541 0.018204704 0.07467094 0.042787313 0.124983534 -0.021657392 -0.12916729 -0.13427606 -0.10957143 -0.028081551 0.13522927 -0.07849439 0.052087054 -0.137507 -0.034554295 0.06984323 -0.07055932 -0.100622535 0.09292191 -0.08334214 0.04473099 -0.038785726 0.08165322 0.10643686 -0.13622692 0.09169528 -0.06585827 -0.13992763 -0.045576405 0.12614234 -0.026227435 0.042858332 -0.035626452 -0.049563006 -0.04759156 -0.1222303 -0.123023935 0.124117926 0.073381156 0.078199565 0.09389557 0.05395169 -0.044223957 -0.108420685 0.014666675 -0.064224705 0.10851945 0.004998535 0.04002749 0.062232908 0.078847356 0.09565274 -0.034991518 0.04925984 0.083562255 -0.045106582 -0.14573573 -0.06963475 0.13220868 -0.057105336 0.0998766 -0.030200504 0.0005096691 -0.014967802 -0.03794527 0.07715532 -0.037305854 0.059220195 0.10421172 -0.027546655 -0.08763148 -0.100324616 0.02202665 0.06593445 -0.12638167 -0.028434303 -0.018336458 0.06823486 -0.04120013 0.052185804 -0.10625032 0.043142125 -0.087297335 -0.09649911 -0.08090988 -0.013695434 -0.12311103 0.08448018 -0.0021786392 -0.06730361 -0.066052474 -0.02794788 -0.08314009 0.03641574 0.0632128 -0.13688664 0.03736539 0.04647337 -0.0831344 -0.050199665 -0.038737625 -0.004156679 0.087337896 -0.06195762 -0.01644902 0.10880472 -0.08360794 -0.07542147 0.005048886 0.09528786 0.035498306 -0.12748496 0.13383023 -0.060864404 -0.113665186 0.098201945 -0.048899636 -0.14036673 0.13216408 0.13079642 -0.12970482 -0.10566871 -0.039864413 0.083487675 0.13213305 -0.09089914 0.06737955 -0.010663345 -0.042173535 0.11260979 0.103630915 0.045246765 0.09421767 0.014561012 0.12597148 -0.13161612 -0.07913127 0.09680815 0.11049943 -0.13943209 -0.05415479 -0.032097556 -0.02395308 0.08713587 -0.12388625 -0.07353294 -0.05994051 0.030585855 0.044650048 0.08267914 -0.074113905 -0.047499113 0.08186598 0.059877977 -0.09436914 -0.058715217 -0.13362257 0.028304785 -0.08528958 0.1052617 -0.08437973 -0.12014115 0.03990467 0.12878732 0.05717215 -0.012100816 0.10825379 0.07026824 0.010569304 -0.07781029 -0.12750961 -0.12554345 -0.061967164 0.13786198 0.13414316 -0.105417326 0.0030281842 0.090195924 0.08717968 -0.05576492 -0.018340042 0.021963641 -0.13155994 0.0010524453 0.13506314 0.065255456 -0.028575096 -0.05073314 0.0060272664 0.12887134 0.15189724 -0.053785086 -0.018784104 -0.066950575 0.022166817 0.046234276 0.09456229 -0.10295558 0.004897984 -0.10243234 0.08832532 0.074383214 0.042515624 -0.13971622 -0.08457067 0.02104636 0.16148697 0.1261031 -0.091740705 0.061856896 -0.03471201 0.1257147 0.00060434843 0.14242654 -0.04543371 0.117726475 -0.025000963 0.10913806 0.04099393 -0.06563728 0.20476224 -0.012781961 0.0094804745 0.12483777 0.067899786 0.12032631 0.11046293 0.07689425 0.03526129 0.0024297982 0.03871145 0.11604056 -0.11753551 0.13682416 -0.07011344 -0.13534786 -0.14982939 0.029156983 -0.08134581 0.008444861 0.11166579 0.08231842 0.065537594 -0.12418419 -0.053249575 0.094627075 0.05196312 0.11642088 -0.026367567 -0.062227022 0.02700041 -0.008922999 -0.02986697 0.0023968662 0.074484676 0.11052567 0.061527412 -0.07051298 0.00039756688 0.07468835 0.0907569 -0.06297223 -0.11836076 -0.0689302 -0.06019023 0.16166061 -0.02033701 0.027796593 -0.046560455 0.15438524 0.115360275 0.025823964 0.07395789 -0.11252649 0.05017738 0.07468236 0.11900582 0.10934896 -0.077916674 -0.0758509 -0.117570944 -0.00454984 0.113315694 -0.068647206 0.021700004 -0.086307675 0.044293173 0.01717864 0.03294164 0.11926259 0.10998061 -0.06016452 -0.12377948 0.085171364 0.041889295 0.08945928 0.10462932 0.038229927 -0.09782294 -0.07142432 0.11473006 -0.031029556 -0.005493492 0.07485037 0.05262909 -0.016656853 -0.13878307 -0.0036746827 0.08782098 0.094937 0.051535264 0.076075934 0.040411595 0.0385816 0.06601 0.006173025 0.043222904 -0.13833281 0.0826748 -0.045016624 -0.059236046 0.009502105 -0.14189452 0.05419898 0.030041788 0.04683151 0.108277075 -0.08982358 0.11815156 -0.13668628 -0.031263772 0.12642674 -0.06686225 0.09047288 0.049171682 -0.10135548 0.04997497 0.059179664 -0.012749493 -0.014900953 -0.12720272 0.07907291 -0.1008597 0.018566694 0.046169836 0.07256257 0.01793758 -0.015708417 -0.07756605 -0.10435901 -0.020489994 0.08282467 -0.01663553 -0.07878656 0.09762984 -0.08416682 -0.082106985 -0.053162217 -0.067230195 -0.12793335 0.045718256 0.041233692 -0.047648054 -0.12391909 0.06994594 -0.09749812 0.011125103 0.11406785 -0.09068127 -0.06251989 0.08799246 0.04354876 -0.12442883 0.093277544 0.06672522 -0.04161643 0.011426176 0.10084504 -0.1055869 -0.08835843 0.04556593 -0.10253863 0.04457816 -0.030286893 -0.09385085 0.054931648 0.10924942 -0.124548465 0.0732196 0.08106297 0.1403002 -0.111394815 0.045950364 0.11208831 0.0036419726 -0.103261515 0.13639967 0.007891253 0.07109955 0.11611985 -0.111297846 0.09762165 0.09705302 0.13811192 0.041601714 0.024092883 0.1282865 -0.1263196 0.10185736 0.06331256 0.07433054 0.0019049853 0.08923517 -0.10986751 0.05926805 -0.020491691 -0.024204127 0.10367607 -0.09096804 -0.13306597 -0.066788495 0.14088364 -0.09127677 0.047634363 0.05533291 -0.1377541 -0.08565015 -0.124162324 -0.10865448 0.013397425 -0.016834432 -0.013257027 0.11838981 0.1253257 -0.09411748 -0.12156775 0.09988135 0.05092071 0.02753447 0.05303572 0.008212847 -0.11997142 0.0573617 0.12953128 0.14399432 -0.081657216 -0.090007074 -0.13364871 -0.09358849 -0.01730213 0.08385251 -0.034848843 0.039737225 0.007827011 0.120223984 0.027518466 0.0640007 0.09386491 0.04301104 -0.052904297 0.14147164 -0.09321018 -0.056831993 0.037568033 0.09404776 -0.07726058 -0.13905485 -0.09696883 -0.102578595 0.110946596 -0.04196642 -0.061041757 0.13186406 0.00947547 -0.10046738 0.05173669 0.02058265 -0.013502094 0.11531051 -0.12316849 0.10511203 -0.1073898 -0.08130254 -0.057251662 -0.11970887 -0.10305798 -0.09915975 0.09493722 0.055727705 -0.026817419 0.122237206 0.076395296 -0.028639404 0.0858492 -0.08812984 -0.124010526 -0.13033424 -0.12396705 0.09895597 -0.09443704 -0.07647768 -0.13063845 0.12560406 -0.06482605 -0.07709007 0.049242187 0.1284281 -0.0753672 0.052403416 0.09332286 -0.057303857 -0.10255499 -0.025432551 0.13706152 0.11324443 0.06836086 0.05894673 0.07197337 -0.13106537 0.0025920183 0.08907902 -0.07440011 -0.038637724 -0.062491506 0.112597845 0.13181743 0.14802971 -0.090132035 -0.05203101 0.04505147 0.10967122 -0.009071201 -0.1306684 -0.001752004 -0.063199654 0.027080461 -0.09761391 0.0150009245 0.13628836 -0.09566076 0.011902124 -0.056447968 -0.040001728 0.0027390122 0.010881335 0.007885739 -0.09951645 -0.03374373 -0.07832418 -0.054669507 0.08756162 -0.027084664 0.021142587 0.06645346 0.13713051 0.013970777 0.052804545 0.047832668 -0.031782083 -0.06627643 0.018527508 0.011416033 -0.06899972 -0.12740499 -0.11434539 0.003078103 -0.022947326 -0.13956401 -0.019899875 -0.05274289 -0.05766178 0.06835477 -0.11336461 -0.059415005 0.025787607 -0.10948686 -0.031601034 -0.081999764 0.11832057 -0.09961826 0.15555899 0.05601532 0.16950536 0.010539105 -0.092698105 -0.044041738 -0.025993073 -0.12069467 -0.01175566 0.0287254 0.099677026 -0.075230844 0.05449751 -0.10883018 0.14212401 -0.053825125 0.18227307 -0.06306972 0.0066764075 -0.13632251 -0.11134046 -0.066012226 0.09977503 0.08356091 0.1347115 -0.00020058388 -0.087366164 -0.1002847 0.011362625 -0.068080306 -0.0045950175 0.005416026 0.061244532 -0.07625031 -0.124223225 -0.12275001 -0.060133103 -0.012413711 0.07944013 0.06725551 -0.10752762 0.05514735 0.030655632 -0.13587199 -0.075943284 0.07240966 0.04158511 0.018226856 0.05307296 -0.09122413 -0.087891474 -0.02124931 0.108435825 -0.12764266 -0.1375567 -0.032498017 0.08098875 0.033541784 -0.048742898 -0.08534597 -0.10770798 -0.09854165 0.03542015 0.0018314868 -0.016428351 0.04256116 0.12681161 -0.022779562 -0.008982137 0.07049902 -0.017673656 0.064565495 0.04291165 -0.02052997 0.11322807 0.087830156 0.05198264 0.13104798 -0.022844017 -0.11469354 0.13780306 -0.095966175 0.044410318 0.030695915 0.13232403 0.07550295 0.11895464 -0.0016187578 -0.007184431 -0.06333455 -0.06675036 0.002970904 -0.02962517 -0.12632303 -0.021034703 0.075029925 0.1292495 -0.017013587 0.06406084 0.06362182 -0.07948972 -0.044497304 -0.09623063 0.08011255 0.033426903 -0.07753408 -0.05375398 0.10934423 -0.05303023 -0.019740306 0.008723063 0.1767202 0.12914175 -0.08172384 0.09321686 -0.084214404 -0.0928493 -0.09690176 0.11354054 0.11680105 0.08290262 0.014580015 -0.009633465 -0.06484418 -0.0532066 -0.1035089 -0.04096069 0.16936223 0.019892057 0.11075335 0.096398495 -0.0038385869 -0.056419034 -0.13063924 0.12326623 0.06563472 -0.0018842227 0.23293959 -0.11868892 0.08431805 0.08813778 -0.05009445 -0.07649943 -0.13567644 -0.024662511 -0.09488008 0.08920112 0.13996458 0.12209583 -0.013705581 -0.08102869 0.061860994 -0.11859457 0.059950653 -0.030733675 0.11847318 0.07551181 -0.10011853 0.09783754 0.1341757 -0.00882979 0.06338315 -0.15123686 -0.13836323 0.13532774 0.05453227 0.107004456 -0.009666488 0.10674169 -0.050446402 0.08645306 0.010328003 0.056738306 0.014791535 -0.11675153 -0.011144094 0.08198495 8.792956e-05 -0.09147395 0.08602979 0.02025995 -0.10520945 -0.119022936 0.107493505 0.045281608 -0.100496024 -0.044368222 -0.07470233 0.07881307 0.015993189 -0.015858524 -0.10000857 0.13336392 -0.011126369 -0.11810502 0.046168394 0.11245173 -0.07746979 0.0156972 -0.08626719 -0.092796035 -0.048170324 -0.061620075 -0.08963029 -0.051698815 -0.021320475 -0.031096471 -0.10983506 -0.0011280179 -0.005829647 -0.11640801 0.06532211 -0.022786966 -0.06414022 -0.03882718 -0.10444911 -0.115830556 -0.12772618 -0.03969194 0.11864822 0.14847955 0.08571934 0.072608925 0.07510133 0.008595257 -0.026495868 0.088775426 -0.021049509 0.10186946 0.0073714163 -0.14321084 0.088601634 -0.039037995 -0.08908628 0.09687638 0.06565574 0.05546601 -0.008990653 0.07925166 0.03803654 -0.078069896 -0.13283058 -0.028660104 0.122227386 -0.11056611 -0.060085773 0.079489544 0.042936858 -0.08844432 -0.048955187 -0.002178259 0.09993529 0.052816126 -0.13102873 0.12549523 -0.032503687 0.13324113 0.111796066 0.042895004 0.075077385 0.030933294 -0.056573555 -0.119227685 0.0883528 0.02741206 0.11510102 0.001800446 -0.07624148 -0.054996137 -0.11367935 -0.06820832 0.01574423 0.010029331 0.043420266 -0.13801852 0.030146748 0.10048566 0.074495725 -0.13815875 -0.025881577 -0.09321042 0.109971434 0.1392911 0.1014481 -0.08642538 -0.086634845 -0.02288299 -0.023653837 0.03183945 -0.06492737 -0.0897967 -0.021430552 -0.064982906 0.11516197 -0.025694435 0.0726454 -0.030614356 -0.08322289 0.0030584931 -0.112745434 -0.077067904 -0.0888567 -0.02168348 0.035941925 0.0636999 0.049715973 0.10018372 0.117879644 -0.012872547 -0.08591524 -0.050149884 0.1038586 0.14146999 -0.12278361 0.01702894 0.060678903 -0.003444949 -0.076148905 -0.0012436341 -0.040787987 0.012537125 -0.060265332 -0.079573676 0.10443186 0.039996985 -0.13171071 0.094524115 -0.04196729 -0.045252003 0.12861086 -0.12284511 -0.1301369 -0.13123244 -0.06762901 -0.039330885 -0.09227735 0.13479781 0.14844878 -0.005463423 -0.048769668 0.06614926 -0.117184855 0.03981684 -0.084513284 0.087593235 0.097641185 0.07549258 0.013431832 0.018729115 0.047036335 -0.15911119 0.13213867 0.11317864 -0.013548495 -0.11761513 -0.1047592 -0.030936254 -0.025641955 -0.007072717 6.2808394e-05 0.089893535 0.08020555 0.17765339 0.033984467 -0.13728407 0.16003102 -0.099951945 0.015875742 0.04627355 0.021789053 0.017420728 0.14430629 -0.07445425 -0.011182923 -0.017794041 -0.065779775 -0.06240849 0.15227215 0.056082036 0.09816897 0.12361584 -0.00831794 0.08351604 -0.025484566 -0.08178088 0.16793305 0.0145683065 0.14006318 -0.024190748 0.02310058 0.0976232 0.027252654 0.06361628 0.1336943 0.14141598 0.12491503 0.11840742 0.052132655 -0.04340606 -0.010404289 -0.09151989 -0.10359408 0.03763309 -0.07849591 0.010151386 0.035158604 -0.11461376 -0.10718681 0.11720087 0.016065046 -0.026990086 -0.082546376 0.06279454 -0.01613912 0.057211384 -0.025643729 0.08821453 -0.12429619 0.07413946 0.112222925 0.05789885 -0.13931142 -0.06981174 0.10328604 0.05493675 0.08160479 0.10855727 0.028616264 -0.118426815 0.0013972372 -0.05174128 -0.07994597 -0.05423531 0.102977395 0.034946904 0.086551204 0.018697873 -0.033430897 0.059914857 0.13607936 -0.09116784 -0.063829385 -0.12816136 -0.10767981 -0.13734293 0.019004256 -0.07909499 0.14012094 0.0104649905 0.11072014 0.030164177 0.051112756 0.082066156 0.07216769 -0.07595134 0.13658734 0.08692023 -0.044907145 0.04075183 0.09357415 0.02450923 0.015608189 -0.06822694 0.08402221 -0.011875572 0.093941025 0.06262269 0.0007724166 -0.13764848 0.12507841 -0.068991266 -0.010927857 -0.13417836 -0.1416786 0.047864035 0.043972567 -0.013725259 -0.1183133 0.119635575 0.061701234 -0.03144839 0.06107168 -0.08792012 0.011164117 0.10565889 0.045081135 -0.022111557 -0.047833018 -0.1208735 -0.09821537 -0.12646563 0.020904629 -0.07809904 -0.05420144 0.13172905 -0.028298015 -0.12801005 0.054453515 0.06090867 -0.06872368 -0.0635062 -0.01925658 0.07266023 0.024415577 0.1024541 -0.041308727 -0.0930643 -0.053025343 0.11689241 0.0793685 -0.05849569 0.04916811 0.13222936 -0.041802958 -0.039554924 -0.093031816 -0.090493515 -0.07178635 0.121729136 0.12170876 0.13003263 -0.043186594 -0.13511422 -0.072216384 -0.056768145 -0.026690101 0.1216195 -0.0036809202 0.08730673 0.06961574 -0.08343566 -0.05645803 -0.06387518 0.1251888 -0.13934368 0.07582645 -0.064880975 0.116132155 0.105324805 0.12988347 0.064119875 0.04873838 -0.02807977 0.04096113 0.01960028 0.10920087 0.05516957 0.051154844 -0.11427544 -0.000913471 -0.1417591 -0.018180361 0.022873625 -0.05244253 0.119158216 0.11955926 -0.009342884 0.09232667 -0.098722845 0.011806041 0.07623495 0.16907234 -0.029956974 -0.13301611 0.030528165 0.12128021 0.051725015 -0.01957158 0.03655546 0.008784922 0.090089396 0.14057866 -0.06898683 -0.000163787 0.086294346 -0.1293792 0.13627306 0.057844307 -0.032494772 0.082439676 0.122300856 -0.10006849 -0.12608275 0.09872849 -0.07760548 -0.031611 0.07714628 0.1892935 -0.14356601 0.20592879 0.21832675 0.022809166 0.045421068 0.09553008 0.12144727 0.054642957 0.0915103 0.052040517 -0.11630158 -0.12694572 -0.13515368 -0.019514052 -0.01817462 -0.028483907 0.12619269 0.13415693 0.044378772 -0.06820732 0.013117194 0.11866234 -0.03498233 0.07388318 0.108439915 -0.074412 -0.08581896 -0.024074147 -0.08093397 -0.0632563 -0.065335415 -0.05215877 -0.011034281 0.036412377 0.06285013 -0.0054746172 0.093435906 -0.038542762 -0.04700991 0.07719343 -0.12305019 0.17319953 0.052124187 -0.0013175308 0.055425905 -0.04768522 0.0984949 0.106088385 0.12679008 0.048084877 0.036514815 -0.09030269 -0.0722762 0.009175505 0.02334652 -0.058227405 0.101831034 -0.04774774 0.08988737 -0.12528792 -0.015957458 0.1344843 -0.07473709 -0.12868692 0.007875334 0.063824914 0.14094952 -0.08367524 -0.142868 0.1139002 -0.106502846 -0.1268443 -0.05534481 0.16468589 0.15492012 -0.12579447 -0.12284279 -0.046335496 0.1231527 -0.105514236 -0.07300452 -0.05402904 0.15001006 0.102391966 -0.0044873385 -0.113419466 0.013667015 0.12683585 0.121699646 -0.068637736 0.108199485 0.19165266 -0.113964915 -0.016321033 0.042703923 -0.0510809 -0.08107581 -0.0006154687 0.03922613 0.1292712 -0.13548551 0.09100793 0.043271184 0.13771605 -0.056853548 -0.012091562 -0.051401984 -0.026489269 -0.02319236 0.0042259563 -0.08847317 0.049432456 -0.008791064 0.028092261 -0.14124136 0.083453774 0.055402912 -0.04820544 -0.115388595 0.071672484 0.07123667 0.094940946 0.13874839 0.06498673 0.12001533 0.083800286 0.13666604 -0.1313651 0.069055334 -0.012534559 -0.10262652 0.07142712 0.036316864 -0.12411926 0.06274822 0.045989633 0.04276348 -0.11794985 -0.11666227 0.044407926 -0.041698653 0.067334 0.039196357 0.12784907 -0.13246875 -0.13891219 0.13245158 -0.124502815 -0.12858544 0.109845944 0.0015340688 -0.13126387 0.08700979 -0.12310686 0.12257436 -0.09249934 0.027950443 -0.13225631 0.017393708 0.0027102828 0.07080959 0.10489644 0.1146431 -0.011560785 0.139765 0.0036415143 0.10726042 -0.026326858 -0.084858075 0.021094397 -0.093870915 0.016436592 -0.052033164 -0.013293792 -0.07062554 0.028280027 0.09914547 -0.12874427 0.11492647 0.08161159 -0.06270426 0.12696165 0.09529909 0.103015184 0.050396197 -0.027331313 -0.11681104 0.085476 0.017772615 0.12865813 0.11431023 0.06372358 0.14438373 0.11850149 -0.068912484 -0.05305454 0.12976183 0.0866925 0.047431245 -0.13362116 -0.028344762 -0.103314795 -0.081389524 0.092149116 0.0663033 0.13794525 0.07071842 -0.1304577 -0.09186202 0.10035392 0.09661006 -0.01238066 0.0055226176 -0.04348097 0.09244992 -0.088863485 0.0038882333 0.0023118304 0.13266523 -0.054309353 -0.14061548 -0.0794574 -0.03132797 -0.012093025 0.027963484 0.055344325 0.14195266 0.09100488 0.105080195 0.12232597 -0.14033663 0.08294047 -0.094262734 -0.056425218 0.04266624 0.02445707 -0.0014502468 -0.10541403 -0.13960478 0.0810193 0.0040001706 -0.11311047 0.08969426 0.09348878 -0.06250774 -0.026474994 0.10816404 -0.001559838 0.13502604 -0.12380117 0.034522694 -0.009059839 -0.037273128 -0.13703217 -0.017929982 0.08928594 -0.0748046 0.1701241 -0.13236488 0.13162771 0.009561703 -0.14140415 0.0089220125 -0.017651325 -0.054020204 0.06917696 -0.14576417 0.14156434 0.09669917 -0.04192418 0.08720839 -0.024959773 -0.11361717 0.10001027 0.08868253 -0.05842195 -0.06596725 0.06635778 -0.009663744 0.07618219 -0.13477403 0.020255903 -0.020094868 -0.12525749 -0.088380426 -0.09989806 -0.06512241 -0.051722318 -0.051331714 0.13343003 -0.013540082 0.031718075 0.08951118 -0.04871885 0.1268285 0.051558528 -0.1345442 0.0126224095 -0.012299325 -0.017150039 -0.054243412 -1.3271871e-05 -0.052471504 -0.0019931744 0.016650168 -0.0518426 0.025306799 0.039834455 0.12257308 0.111696124 0.05607108 -0.05210834 0.07276565 -0.012320878 -0.035524942 0.05656342 0.1263942 0.030669307 0.12685506 -0.0964766 0.016428083 0.05907412 0.051329207 -0.026039924 -0.108177565 0.12078135 0.06434557 0.115188606 -0.014347585 0.11202599 0.026741974 0.09309371 -0.048603073 -0.062272448 -0.13773255 0.055163227 -0.0062553384 -0.008005631 0.07498216 0.01271258 0.11620825 0.124671765 0.033208095 0.10575677 0.08639471 0.0167599 0.034972087 -0.10330431 -0.12575273 -0.039399605 -0.06429485 0.10335993 -0.1299693 -0.039584402 -0.11985078 -0.042843856 0.0030173007 -0.010308563 0.13468896 -0.02276036 -0.07227696 -0.13452354 0.021488594 -0.13127697 0.13768804 -0.050071858 -0.11156312 -0.13595654 -0.04618205 -0.0558846 0.05819869 -0.024990506 0.051852882 0.061493054 -0.07259942 -0.06196256 0.064713456 -0.05269271 0.10697618 -0.06541717 0.06986441 0.06663953 0.06635597 -0.07042164 -0.018285595 0.084118836 -0.058239553 -0.059169643 0.06296949 -0.0064655095 0.10416215 0.10645775 0.046527367 0.0060025547 -0.037297398 -0.013150756 0.00562721 0.016804898 -0.070805795 -0.10358403 -0.0455602 -0.08051004 0.008845299 0.04766901 -0.12057519 0.14101501 -0.09827625 -0.057819113 0.0152581185 0.086608164 0.09149249 0.11769487 -0.1742613 -0.108718894 0.13979249 -0.03214309 -0.12351774 -0.12104203 0.019170655 -0.12401957 0.10274473 0.011173546 0.00421484 0.08316678 -0.079592146 -0.083350554 -0.034111384 -0.07535739 -0.06946606 0.10581885 -0.01218433 -0.082091115 0.12411197 0.117843434 -0.03657208 0.086745545 0.08615626 -0.11960705 -0.04276716 0.21798663 -0.12072722 0.1259727 -0.07255115 -0.12364657 -0.048562016 0.12812237 0.097517654 0.056385018 -0.11769001 0.070707366 0.06995458 0.2048783 0.21472353 -0.016508134 -0.13048951 -0.08586072 0.06973168 0.0021070132 0.12865214 -0.13596009 -0.012567982 -0.0014099926 -0.009669546 0.022641657 -0.100663565 0.064019844 -0.060134653 0.030240642 -0.025268584 -0.06307175 0.032478213 -0.04757604 0.049291547 0.08390542 0.118906684 0.10545094 0.09450579 -0.03214416 -0.07668693 0.06356643 -0.029066114 -0.110635445 0.12379449 0.07710679 -0.02260556 0.08589899 -0.07380905 0.036433395 -0.027181156 0.07846788 0.13658188 0.010109964 0.012626991 -0.05819912 0.099628344 -0.12550987 0.12522939 -0.10689868 -0.050661907 0.03867877 -0.06492207 0.02800089 -0.08434973 0.02127948 -0.04404976 -0.013763204 0.049133573 -0.026035368 0.05804353 0.03782092 -0.06511263 0.13513689 -0.06526445 0.083203204 -0.06742335 0.08101477 -0.03016217 0.08515476 -0.03636547 0.052706435 -0.1387437 -0.09958142 -0.020742998 -0.020681428 0.082449056 -0.14130771 0.15810227 -0.16011202 -0.041776046 -0.10717629 0.11015087 0.11245984 -0.097318776 -0.05164612 -0.035017826 0.14112888 0.1176206 0.02589635 -0.09051827 0.062425777 0.0058351974 0.08315576 0.095902294 0.007719403 0.015833007 0.028701274 0.08352103 0.08069276 -0.11553935 -0.14858948 0.043469697 -0.05079564 0.033126894 0.019135473 0.12716869 -0.044761032 0.027556255 -0.14532053 -0.10792407 -0.09232083 -0.14021643 0.13691904 0.07941951 -0.10092235 -0.09195307 -0.06953337 -0.009597331 0.04664789 -0.015692621 -0.10040159 -0.026824951 0.08532728 -0.102472365 -0.121699035 -0.09517 -0.016038552 -0.057292454 -0.018083341 0.11379318 0.085387275 -0.11551683 -0.06003139 0.123475805 -0.07872615 -0.08397631 -0.06326885 -0.11225472 -0.034025222 0.059239373 -0.08096337 -0.12951078 -0.13269776 -0.03480182 -0.04616432 -0.0820746 -0.07087033 -0.12108758 0.032352746 -0.075325124 0.05260299 -0.043361 0.014328435 -0.09680447 0.03292191 -0.0682974 0.048402518 -0.08201777 -0.10858425 0.02621366 0.078557685 0.0995851 -0.074555755 -0.057030533 -0.027221978 -0.029854245 0.026884213 0.049974963 -0.009796684 0.06847777 -0.02948863 -0.13529219 -0.08843188 -0.10598011 0.09348146 -0.107474074 0.04599482 0.09602405 -0.039996523 -0.12352492 0.007323116 0.09878858 0.07066381 0.090919934 -0.07514047 0.121854916 -0.107642606 0.10142982 0.09183745 -0.041232396 -0.104160376 -0.12308558 -0.13734618 0.056004077 0.00025039478 -0.099868074 1.5167886e-05 -0.11347559 -0.10450246 0.08635484 0.07346965 -0.106238976 -0.06999994 0.1273787 0.050737336 0.08714913 0.09339701 -0.08212621 -0.034714464 -0.102292635 -0.06264679 0.10587641 -0.08914603 0.13810207 -0.093653694 -0.10359817 -0.041403282 -0.09688114 -0.07826267 0.058617428 0.008477107 0.120113984 -0.018817827 -0.052230217 -0.104883276 -0.0035664423 0.040727925 0.11917954 -0.041210167 -0.020533651 -0.0782947 0.09504491 -0.008686189 0.10627693 0.0025404147 0.029005025 0.08495472 0.024049692 0.1375705 0.088529125 0.07384112 -0.05681201 -0.05550076 0.094706185 0.040676665 0.058837246 0.035138324 0.029364657 0.017560268 -0.091329575 -0.035895344 -0.04888488 0.12919165 -0.14439017 -0.056465276 -0.10382141 -0.07226522 0.09935871 -0.051790696 -0.07994267 -0.037894014 0.054006945 -0.07671789 0.048701525 -0.117773354 0.05026056 0.0019659062 -0.01870498 -0.016404158 0.089068584 0.13463642 -0.07636328 -0.0755934 0.060072973 -0.027611483 0.14178427 0.10315882 -0.013186325 0.0033087654 0.042878732 -0.042080276 0.022251472 0.10028503 -0.1094543 -0.06909087 -0.041991077 0.09544088 -0.04854164 0.08921431 -0.13998218 0.029487427 0.18613176 -0.1091094 -0.005068043 -0.10133936 -0.1234466 -0.09710321 -0.048493 0.037569415 -0.07120015 -0.12624046 0.08530383 -0.054042153 0.09773539 0.11124211 0.09053396 0.101603866 -0.011802212 -0.038588714 -0.10346299 0.10891933 -0.093534 0.02592218 0.11291545 0.06151705 0.02419185 -0.047769763 -0.07492703 -0.11121366 -0.06991291 -0.12170633 -0.008296102 0.1211295 0.041671492 -0.08540281 0.11113137 0.040602747 -0.10434879 0.07107933 0.14542383 -0.08485651 0.07103149 -0.085494295 -0.11442323 -0.016084047 -0.119728215 -0.059399128 -0.021237163 0.009642436 0.120485984 0.0638834 0.04452614 -0.04488853 -0.070750006 -0.046831567 -0.10844909 -0.09976813 0.027728228 0.06087904 0.065360256 -0.02744596 -0.104194105 -0.0928869 -0.12480493 -0.007836095 0.14357741 0.11462192 -0.10367645 -0.076536156 -0.06057986 0.0938755 0.031080486 -0.0595406 0.107295066 -0.05557397 -0.055199075 -0.04181361 0.007872001 0.07355543 -0.06992756 0.08378631 0.07996158 -0.13823625 -0.045723606 -0.0938398 -0.14660168 -0.12777673 0.071192324 -0.06657492 -0.1297532 0.08923909 -0.040315256 0.13309897 -0.023929065 -0.015687073 -0.07435353 0.078549325 0.12287005 -0.1190735 0.08421773 -0.10750781 0.018969167 0.099819705 -0.010833082 0.07985659 0.0019692595 -0.13709058 -0.13535981 -0.08670822 0.015922593 0.032113533 0.12687916 0.1267907 0.08065951 -0.01620482 -0.07722429 0.086407855 0.048872493 -0.09871037 -0.044934537 0.037508428 0.029211625 0.041605353 -0.04033774 0.13614349 -0.07147411 0.07367441 0.109475926 0.10924135 -0.13607682 0.131754 0.00077819824 0.024978876 0.018757612 0.118994966 -0.079937845 0.13697071 -0.0890345 -0.051788956 0.11650379 0.020865068 0.07476263 -0.04999923 -0.0715969 -0.018952899 0.10936548 0.0038156956 0.034277707 -0.09338832 -0.08439852 0.12638254 0.033208027 0.064494774 0.066965595 -0.0944239 0.07393311 -0.050476603 0.0130607635 -0.09222205 -0.0257674 -0.008034542 0.10425797 -0.030873477 -0.11429312 -0.011228785 0.047411293 -0.05428032 0.020423144 -0.092501074 -0.0113633275 -0.05604744 -0.089365534 -0.04345209 -0.1341711 0.090392716 -0.03493642 -0.138636 0.039123796 -0.0020030201 0.061260454 -0.13471328 -0.053098865 0.014821291 -0.11845874 0.06488274 -0.12595442 0.10270665 0.12633343 -0.07828927 -0.12422816 0.004580602 -0.07455884 -0.06668957 -0.12800702 0.010577444 0.11867575 -0.1289186 0.023644157 0.025340263 0.04831398 0.08950055 -0.11038726 0.070379876 0.035847425 0.008830771 -0.104653016 -0.13669117 0.093019694 -0.12987465 -0.008566245 -0.1298727 0.092287965 0.09955545 0.047299564 -0.048267487 0.06521684 -0.025186568 -0.117741436 -0.01957313 0.09644683 0.037288066 0.0043768487 -0.030057445 -0.07015096 0.025115758 -0.12767917 0.057803735 0.050325304 0.06751948 -0.11010124 -0.13158129 -0.021839403 -0.10743986 0.011457553 -0.013633997 0.15019307 -0.098089874 -0.15140632 0.18958884 -0.040709585 -0.10838246 0.099374816 -0.113136224 0.14512868 0.1461788 -0.10008766 0.09526097 0.06314923 0.12288002 -0.037607614 -0.046269197 0.029389264 0.075034305 -0.050133795 -0.015148773 0.13703625 -0.06325432 0.13841479 0.113275826 0.021891575 0.14663771 -0.021811303 0.11594815 -0.047170877 -0.10025064 0.013419608 -0.09084005 0.12637661 0.025550656 0.19602676 -0.13034889 0.06636873 0.057029843 -0.093746856 0.05237329 0.13423587 0.07522833 0.031720698 -0.031394973 -0.012492105 0.08017734 0.112064555 -0.13164021 -0.13498454 -0.018973127 -0.05375237 0.0009062588 0.04360886 -0.13114658 -0.13793916 -0.049016334 0.044150427 0.12368132 -0.05941271 0.109551236 -0.09466675 0.08110307 -0.098911375 -0.025373615 0.07198754 0.013170272 0.10672663 0.102330476 0.0005815327 -0.09918994 0.0694516 0.06319153 0.06787859 -0.08638428 -0.036887243 -0.14139621 0.01390937 0.09879963 -0.05286604 -0.0019901395 -0.10811564 0.062825546 0.018202096 0.032763228 0.032051906 0.06057994 -0.09728016 0.10237527 -0.0487575 -0.075720005 -0.100582935 0.050560683 -0.12829894 0.108040065 -0.07593369 -0.059295595 -0.061147362 0.12349139 0.031017974 -0.1375056 -0.07112831 0.14034982 0.0412471 -0.022710294 -0.07833558 -0.11886418 0.11768098 0.11387788 0.073058814 0.04372333 0.109025344 -0.054355867 -0.06009256 -0.04954566 -0.07594016 -0.011924028 -0.026579238 0.057501093 -0.11043532 -0.12938903 0.0819605 -0.110180564 0.016574934 -0.05436349 -0.09179417 -0.123782724 -0.050735667 0.050813824 0.113918796 -0.13395326 -0.0030162483 -0.08110509 0.09400667 0.12013464 -0.0098941475 0.031078145 -0.06922545 -0.09772803 0.03456473 -0.13591443 0.12831779 0.047754817 0.05822278 0.002996419 -0.03709598 0.014597505 0.09167813 -0.11945264 0.05492693 -0.08540593 0.10752655 0.13224292 0.12657738 -0.08248916 0.16086943 0.102435514 -0.06639201 0.03721336 -0.10830714 -0.12323432 0.09743493 -0.056908272 -0.071719766 0.09796788 -0.032804452 -0.09160786 0.028562166 -0.054433364 0.061326463 0.06806652 -0.13904722 0.04963421 -0.019509546 0.026223928 -0.0843424 -0.08167685 -0.116749145 -0.13909325 -0.032548837 0.11870903 0.14388096 -0.03715454 -0.12723419 0.1124652 0.08277895 -0.040229365 -0.009704753 0.058126763 0.016971523 -0.11060751 -0.03797497 0.03517927 0.070281684 -0.022509357 0.05905108 -0.08345388 -0.13542156 -0.0036756843 -0.10868874 0.06416032 0.11084595 -0.04609353 0.025253551 0.12143769 -0.06686958 -0.07234593 -0.0023806111 0.07142916 0.1454229 0.04832064 -0.110575095 0.0028171595 0.031797145 -0.1139076 -0.10603615 -0.013739059 -0.048242293 0.13336475 0.1251389 0.038373373 0.11846984 0.1022942 0.083555065 0.05836868 -0.042737413 0.09720995 0.085555114 -0.063029885 0.15189552 0.026177155 0.060965754 0.024207383 -0.09693202 -0.13037805 0.14127772 0.035649 0.050495245 -0.12889768 -0.18878189 -0.037080143 -0.08647498 -0.08782815 0.14872149 0.111812234 0.07306545 -0.11956097 0.054906383 -0.07904379 0.011198477 0.09730048 0.1432671 -0.08136513 0.078400075 -0.031039957 0.015936697 0.03281842 -0.026888534 -0.029689595 0.17712747 