Linear 19 40
0.11637532 0.18976675 0.015902607 0.24190167 -0.13840692 -0.19576035 -0.032255296 -0.059913084 -0.03951238 0.010795096 0.03498864 -0.064086325 -0.4374146 -0.09539039 0.19435044 0.11077978 0.06065989 0.07559714 -0.23233823 -0.1291383 0.14527835 0.13788289 0.06710773 0.031952035 -0.03925449 0.034637555 -0.011973595 0.06482622 -0.0015482954 0.1312247 0.1979707 0.5258828 0.19467281 -0.25492686 -0.20362847 0.012069116 -0.0015799872 -0.19472213 -0.16344179 -0.13222739 -0.09229223 -0.09726536 -0.027755179 -0.1677228 -0.22929294 0.090051055 0.08796916 0.09241358 0.108445436 -0.0102533195 0.019795088 -0.056808412 0.020263065 -0.07621722 -0.12961926 0.13910623 -0.22250502 -0.22673744 -0.2211798 0.011914652 -0.026683092 -0.22159652 -0.15012369 -0.13076943 -0.21088187 0.16344978 0.117329344 -0.11179785 -0.046845198 -0.11159008 0.20088063 -0.032159 0.02718402 -0.21654728 -0.1474903 0.01676996 -0.11810448 -0.18096109 0.14310011 -0.11334063 0.016974019 0.15435089 0.23340535 -0.07762444 0.16935782 -0.05711931 0.122374184 -0.20049706 -0.058458567 -0.0077426084 0.028817547 0.19816408 -0.030077696 -0.22224706 -0.20857714 -0.0011970061 -0.14508724 0.100136004 -0.035405397 -0.02251642 -0.20999071 0.13266917 -0.17085719 -0.2256268 0.13076238 -0.0636206 -0.09134192 0.12227176 -0.235096 0.15952563 -0.04113113 -0.05919379 -0.06132906 0.15512836 0.092588834 -0.08159709 0.175415 -0.4350945 0.06309379 -0.11865721 0.083897054 -0.21751466 -0.13736503 -0.09273803 -0.108182296 0.41022062 0.67790127 -0.33381906 0.005280184 0.114446394 -0.11587944 0.10123742 -0.07584665 0.22695719 0.13968173 -0.18004738 0.17416601 0.0059231473 0.13026088 -0.021917062 -0.039201602 -0.029259535 -0.047135744 0.18181533 -0.5138627 -0.69671875 -0.007125818 0.09264248 -0.020784361 0.048314508 0.13665587 0.09255874 -0.18775956 -0.259886 0.17317905 0.04480483 0.07348073 -0.14833616 0.03437337 -0.20012555 0.10103058 -0.18230341 -0.16978903 0.7999385 0.654872 0.11712603 0.11975132 -0.11990803 0.073150635 0.025630627 0.032715444 0.20063442 -0.24115522 -0.06426486 -0.18536536 0.1312746 0.09008597 -0.0023450518 -0.094349556 -0.06851113 0.00050083094 0.1372333 0.2520979 0.48944074 -0.1180655 -0.10124704 -0.039943088 0.04063387 -0.1963408 0.1951169 0.2137781 -0.063821 0.033907294 -0.36725932 0.120124154 0.01196799 -0.13276117 -0.019955367 -0.15697123 0.010183289 -0.0076186154 0.57512975 0.62156856 -0.07506514 -0.027639046 0.017993892 0.11964615 -0.23652561 -0.09229715 0.13448702 0.004291462 -0.1978531 0.06386395 -0.02662266 0.054343943 0.029414948 0.1821506 -0.52483624 0.17803964 -0.12320397 -0.6881188 -0.3560273 -0.12879542 0.21203421 0.31348816 0.07330397 -0.15414979 -0.24077399 -0.07810423 -0.08848861 0.1669586 0.25799364 0.021270147 0.07935689 0.05460202 0.0023152165 -0.021342888 0.056899097 0.22925821 -0.08008791 0.29081783 0.06620523 -0.25874153 -0.26161873 0.15848324 -0.19197132 -0.052704576 0.1323758 0.16448504 0.21091573 -0.046772633 -0.15993996 0.09490283 -0.019205213 -0.03717805 0.3439204 -0.013653428 -0.11774074 1.0000001 0.9538722 -0.007905254 -0.035022825 -0.17876351 -0.13699459 0.11497217 0.12982592 -0.08422519 -0.20491946 0.005272508 0.12633069 0.008584474 -0.081342556 0.12345507 -0.015999038 -0.21981998 -0.15049547 -0.04190045 -0.6538974 -0.69172925 0.20424029 0.08117395 0.010880034 0.19561823 0.17378697 -0.11827099 0.08079306 -0.067379676 -0.10536635 -0.0051617003 0.035476267 -0.060687497 0.13576926 0.03262967 0.16515873 -0.14687374 -0.047535315 0.09348082 0.5207021 0.14241517 0.16908537 -0.09675876 -0.19891849 -0.13624218 0.100291066 -0.1553934 0.18675159 0.031859513 -0.12608647 -0.19223987 0.19115186 0.18880682 -0.11365937 0.24136882 0.12685409 0.022839475 0.09083282 -0.26943845 0.04400782 -0.22728683 -0.13352859 -0.20030831 0.042771343 0.2129015 0.035901044 -0.13664502 0.26387793 0.16420306 -0.12247634 0.018878046 -0.16514553 -0.099090405 -0.03985045 0.15864104 -0.006624449 0.25249156 0.12574093 0.16783711 0.10947779 -0.07861603 -0.23038545 -0.21275131 -0.13140345 -0.12357885 -0.06315082 0.12334231 0.31020516 -0.0014759642 0.121684074 -0.022107044 0.12275509 -0.20040156 0.032909866 -0.20586717 -0.07097884 0.09303591 -0.042371083 -0.07340844 -0.056823865 0.078518085 -0.20393619 -0.116631806 -0.21728142 -0.14351752 -0.20267974 -0.021235747 0.09847904 -0.121428736 -0.04412551 0.02685626 0.3109113 0.07678383 0.017817542 -0.14251265 0.2001874 0.066546656 -0.17003609 -0.02921442 -0.1532465 0.0721078 -0.19113174 -0.101250745 0.030815471 0.030550716 0.14916274 -0.18919295 -0.14089921 -0.2135447 -0.01419265 0.10327377 -0.03488653 0.09052896 -0.05448503 0.10248935 0.045854542 0.098293014 -0.14110847 -0.20353752 -0.2212092 -0.0048712613 -0.020630702 0.10666875 -0.00955961 0.1546921 -0.2546724 0.17748195 0.15150578 -0.15940784 -0.20772743 -0.10280875 -0.18949798 -0.22624111 0.17088673 -0.17365322 0.20666713 -0.0047650705 0.19974618 -0.07702138 -0.2169523 -0.16707802 -0.2695627 -0.13935053 -0.27076352 0.14231205 -0.09887017 -0.11686621 -0.2054635 -0.06912619 -0.0248197 0.12477538 -0.0852378 0.34530607 0.09718501 -0.21615364 0.0872554 -0.22067013 0.14346576 -0.17040758 -0.15446012 0.0052851643 -0.22184777 0.122087546 -0.14710166 -0.06973694 -0.19594792 0.049653366 0.04124585 0.22713742 0.042664364 -0.09830325 -0.069769636 -0.22181112 -0.14010367 0.1352559 0.1762899 -0.07205294 0.08067331 -0.27646872 0.22299424 0.061716903 -0.05522621 -0.031181527 0.13646555 0.08687257 -0.011681324 -0.060583122 0.03679182 0.09490805 -0.33835155 -0.13685162 -0.35285592 0.041447133 -0.013942593 0.17966273 -0.17082576 0.2142098 -0.04922744 -0.28867355 -0.042391602 0.2735012 -0.091131784 -0.22895354 0.08307607 -0.11083011 -0.18265402 -0.008021188 0.16761518 -0.109639354 0.09907184 -0.215629 0.12430686 0.09655468 -0.18006182 0.01728342 -0.1732389 -0.12971087 0.29646975 0.08080783 0.16106386 0.06018734 0.08337193 0.031338412 0.19053873 -0.339208 0.020896396 -0.023669342 -0.25972527 -0.7377785 -0.3499868 0.26441216 0.042605337 0.13699554 -0.23313464 -0.02412148 0.18737043 -0.15048186 -0.27357832 0.09664486 0.10258552 -0.1180452 -0.01189369 -0.16035123 0.2633275 0.008634099 0.017547606 0.21650043 -0.2928662 -0.32760748 0.28886092 0.24052733 -0.19061412 -0.20079777 0.008600909 -0.041422542 -0.06861252 0.0011189599 0.05245146 0.017847916 0.028896406 -0.1494992 0.21316636 0.072447844 0.12158622 0.22337705 -0.17233758 -0.41120884 0.17288399 0.27503064 -0.14392115 -0.14108834 0.06553308 -0.19576596 -0.0883995 0.28045142 0.045473076 -0.1428688 0.12929347 0.16939192 0.20611072 -0.012215985 0.13844934 0.06302275 -0.07177193 0.039510943 -0.28530627 -0.06279948 -0.1342623 -0.103327245 0.24828933 -0.15185316 0.14541097 -0.07298997 -0.116659686 -0.016866613 0.027769182 -0.038437422 0.19453485 0.16721387 -0.09056603 -0.107394636 0.11975328 0.1927053 -0.09341329 -0.3530979 -0.072985426 -0.15410733 0.1024919 0.17124997 -0.10760755 -0.17543134 -0.06216362 0.10682505 0.013223533 0.30927557 -0.008422802 0.059675436 0.039323043 -0.079292946 -0.5644564 0.17509396 0.11961312 -0.34918734 -0.4465463 -0.2754262 0.023705536 0.22052525 0.084806636 0.15705377 -0.1335834 0.043392852 0.036981095 0.19227256 -0.35700998 0.114129305 0.1104549 0.052190214 0.061116967 0.0713908 0.058962103 0.038837653 0.77377146 0.7406357 -0.24011272 0.060521338 -0.09183475 -0.1360671 0.18528126 0.13225916 0.13177855 0.10731437 -0.09678151 0.21073212 -0.13358468 0.15853912 0.14901993 -0.07979337 -0.5207815 -0.12201445 -0.09631205 -0.44188055 -0.1274792 0.07426971 -0.02501047 0.012149552 0.1088524 0.028784176 -0.035848256 0.18316491 -0.071099885 0.22568005 -0.21828069 0.144683 -0.07846546 -0.03969104 -0.071216255 -0.20486894 -0.12816559 -0.14878708 -0.27047452 -0.25236356 -0.12315016 0.14824875 0.2296581 -0.19335784 0.043443456 -0.15931231 -0.16789725 -0.13321306 -0.18435304 -0.11051807 0.0834476 0.0713514 -0.21256289 -0.18474446 -0.19574508 0.076186575 0.16996676 0.040204357 0.17268787 -0.23548768 0.1477414 0.13386047 -0.122310914 -0.06417051 0.1451854 -0.097232446 0.027129345 0.1371414 -0.03961621 -0.12422548 -0.27708298 -0.23272614 -0.0233527 -0.02152812 0.15868065 -0.10730816 -0.018323729 0.3408276 0.09401302 -0.19425824 0.16704842 0.12890294 -0.051807772 0.2043988 0.09269555 0.17034715 0.0050049936 -0.0051015634 -0.13523728 0.16211875 -0.10670871 -0.14629741 -0.1552984 0.12489515 -0.010391906 -0.15404278 -0.19931641 -0.1404133 -0.09041517 0.0712515 -0.15342608 0.06554237 0.23573357 0.10831224 -0.22793634 -0.0014611236 -0.18886426 -0.11080775 -0.059958845 -0.2030054 0.12220249 -0.106727235 -0.11799472 0.021917358 -0.07503672 0.067078575 -0.148655 -0.030420275 0.1332662 0.05865166 0.042910006 0.017975861 -0.061524484 0.037408106 -0.10880273 -0.09509688 0.18613309 -0.028185815 -0.13406721 -0.13705845 0.08059197 -0.26551622 -0.2099978 -0.036669675 0.40403003 -0.15129231 0.038788058 -0.1112833 -0.0016975736 -0.13896589 -0.18799391 
0.10819211 -0.074170135 -0.010627435 -0.034975994 -0.15422419 -0.16004758 0.007845451 0.086133525 0.0346193 -0.016242376 -0.0063560987 0.25443837 -0.19610403 -0.097443074 0.25968713 -0.08304198 0.13710064 -0.15942319 0.07452368 -0.08867911 -0.062873326 0.04583044 -0.07364862 -0.13195094 0.018701557 0.20750597 0.03611659 -0.049474396 -0.114199735 -0.16346616 0.060403798 0.18559074 -0.21530958 0.15885562 -0.055810377 0.09647239 -0.07953915 0.010567797 -0.1945551 0.21077672 
Rect
Linear 40 40
0.08564736 -0.04880421 -0.09810601 -0.051720675 -0.048561055 0.09127282 0.112704866 -0.06217457 0.010160458 -0.16385576 0.09919626 0.17846589 -0.13413793 0.10032164 -0.077964425 0.05399361 0.00013041236 -0.03753759 0.07372094 0.1118647 0.15014249 0.14390491 0.022733686 0.12609378 0.036826335 -0.12772173 0.1830722 -0.20210841 -0.13556804 0.15644 -0.080907516 0.20095491 0.16225874 0.00051615376 -0.060893573 0.10173114 -0.03449662 0.14560238 -0.1056229 0.06514701 -0.08166144 0.17213003 -0.04575557 -0.113392115 0.1129067 -0.038888495 0.21793233 -0.07334474 0.0426197 0.07241935 -0.046435382 -0.17898026 0.18819766 0.28035817 -0.20680974 0.07265104 -0.007962626 -0.048801545 0.056662865 -0.023655185 -0.10677806 0.04450525 0.21225877 -0.059471775 -0.08674793 -0.15232103 -0.09774771 -0.07862675 -0.16116203 -0.031182444 -0.10817492 -0.067075126 0.05826272 0.067412 -0.08861153 -0.12997136 0.19931185 -0.08101735 -0.12970302 0.0426829 -0.08583027 -0.1486008 -0.15616143 -0.09457612 0.1254811 0.0023371577 0.0700584 -0.09722868 -0.14729862 -0.014680806 -0.08255298 -0.15558097 -0.13707325 0.092998914 0.12132466 0.0016426584 0.038139805 -0.07468998 0.06624535 0.024778755 0.14206661 -0.06826929 0.011623016 -0.121431574 0.00027083766 -0.10752937 -0.12932147 -0.033056498 -0.1346634 -0.15153234 -0.07135126 0.039187923 -0.086608574 0.1449378 0.16090491 0.014744803 0.061980695 0.09133359 0.028367773 -0.125683 -0.017000161 0.040966444 0.076847166 -0.01638002 0.057588372 -0.038361248 0.060059592 -0.10406052 -0.07814792 0.045586843 -0.14782858 -0.088598296 0.07008443 -0.10328243 -0.028400121 -0.015862128 -0.0061431527 -0.07019675 0.1520658 -0.1312313 0.15329269 0.118111126 -0.049839254 0.041109335 -0.14241572 -0.09755828 -0.11754148 -0.01839755 0.10922539 -0.09792627 0.12414395 -0.14218695 0.035929304 -0.12849914 0.04580327 -0.009514117 0.11277779 0.09624048 0.10555971 -0.11525583 -0.06812053 -0.028347984 -0.12553936 -0.08644621 -0.11897893 0.025356296 0.052690066 0.09177941 0.028042005 -0.062469866 0.08720885 0.032895222 0.093798116 -0.14958015 0.080763035 -0.13267218 0.145247 -0.06508252 -0.14731808 -0.06373024 -0.12449598 0.09550391 0.0151069015 0.04668799 0.08454718 -0.004464916 -0.12708986 0.023212671 -0.14305726 -0.13424408 -0.13382119 -0.092563145 0.089766145 -0.048375864 0.117596395 -0.06612018 0.01126425 -0.15693712 0.09164192 -0.10074637 -0.08579677 0.00046969805 -0.023232406 0.13219173 0.03386359 -0.09730355 -0.019084712 0.05214688 0.092034355 -0.1418428 0.0095254965 -0.13758181 0.09175022 -0.0945696 0.07723481 -0.049703162 0.03354066 0.00034612417 -0.15201552 0.075715564 0.06686986 0.0387567 -0.028913261 -0.13649452 0.036318038 0.122125104 0.13952412 -0.106709376 -0.05958917 -0.07867248 0.061253108 -0.07146695 -0.036276814 0.10675617 -0.02167595 -0.013324509 -0.060682505 -0.1392979 0.1347131 0.10554468 -0.0047314125 -0.111037895 -0.063433535 -0.11126776 0.041700136 0.16003503 -0.11101194 0.019999214 0.011888649 -0.046604592 0.07544226 0.07682179 -0.08449215 0.10691367 -0.11004553 0.050118987 0.102408625 -0.06970754 -0.002463205 -0.05533319 -0.008928199 0.002973808 0.047394697 -0.014098901 0.026646825 -0.14737202 0.07075895 0.07061897 0.06619434 -0.04197365 0.11146205 0.0035629813 -0.11126767 0.04059395 -0.12720977 -0.057738673 0.12244545 0.035400547 0.022003943 -0.11277511 0.05909602 -0.015441289 0.06858064 0.09519678 -0.02350327 0.096492395 -0.026790258 -0.030549083 -0.0878423 -0.020676829 -0.049773578 0.10187239 -0.07834818 -0.13834968 0.10776898 0.03678561 -0.05733588 0.14986719 0.025817046 -0.012529018 -0.14320888 0.17341368 0.15184817 0.0479443 0.022718044 0.008202572 0.1930675 -0.12906094 -0.11652359 -0.04375884 -0.02828071 -0.019042285 0.06508691 0.14394593 0.15065433 -0.11572782 -0.17422546 0.09121313 -0.11055069 -0.117976986 0.13382307 0.038287822 -0.13171366 -0.06412838 -0.08686811 0.11526834 -0.022676878 0.07042409 -0.10865577 -0.04603613 0.010051719 -0.10120195 0.020490296 0.12592956 0.06964683 0.04851926 -0.0014973101 0.13658878 -0.067968674 0.1158582 -0.042389616 0.12632908 0.12105075 0.06272577 -0.15648295 0.058483303 0.07492064 0.033650294 0.13224824 0.094746284 -0.06307637 0.023973485 0.042697567 -0.15934837 0.109867804 -0.01480106 -0.0023025998 -0.06515675 -0.10929569 0.088018365 0.06669368 -0.14903109 0.07525504 -0.1027645 -0.0024412484 0.087130316 0.036151756 -0.11935295 0.10249515 -0.14740002 -0.14911939 -0.1114942 0.09575406 -0.10852607 0.052691683 0.063942455 -0.1459591 -0.120105445 -0.13863884 -0.11062501 -0.11738376 0.1302572 -0.110930234 -0.04262243 0.05943286 -0.15855905 0.023183605 -0.13824995 0.029834898 0.10335445 0.14548975 0.10529944 -0.15341678 0.02893678 0.14189331 0.018072154 -0.078825735 -0.052773744 0.034389675 0.010693154 0.11806782 0.13621117 0.05985416 -0.12850213 -0.0040229675 0.052845947 -0.063100725 -0.04990744 -0.044375915 -0.08862808 0.10065814 -0.014356232 -0.012688904 -0.11728981 0.084553376 -0.12080737 0.09908633 -0.05957675 0.092462465 0.13781711 -0.1565064 -0.14878619 0.005571703 0.041080166 -0.07527562 -0.11637071 0.011072392 -0.051247086 0.08769006 0.097740926 -0.03808779 0.11352587 -0.0457302 0.07105988 0.048682675 0.16074832 0.05421525 -0.061494004 0.092539966 -0.16212437 0.03796312 -0.0420463 -0.0033016307 0.12966712 -0.038340375 -0.14436951 -0.13788578 -0.07220537 -0.11330801 -0.16587779 0.07256366 -0.090907075 0.08441772 -0.054734714 -0.024948485 -0.1492934 -0.024853818 0.13692348 -0.10201142 0.13832845 -0.12791821 0.13489161 0.06399585 -0.06185182 0.08485227 -0.08123793 0.20188437 0.028811827 0.1564586 0.120693795 -0.13809127 0.06603805 0.042851165 0.059155863 0.12984388 0.11545112 0.12976305 0.052508846 0.1462085 0.09083872 0.111766554 0.21293561 0.07146774 -0.1066592 -0.13303094 -0.022080857 -0.14261816 0.046534203 0.03347175 0.010622879 -0.079929054 -0.07929087 -0.03969652 0.23586556 0.060008362 0.066236734 0.14818998 0.010224235 0.090671495 -0.017720804 -0.12739128 -0.11161231 -0.086138226 -0.12811103 9.2090115e-05 0.0823883 -0.16164437 0.17079017 0.18236028 0.025546841 0.15981469 0.0374172 -0.033542167 0.0315313 -0.12071589 -0.10240597 0.040288668 -0.14097516 0.06715313 0.049066946 0.09005968 -0.08345922 -0.11589856 -0.06408321 -0.043013357 -0.11019186 -0.019259755 0.2567499 -0.16602167 -0.04246481 -0.109186195 0.1922343 -0.11424329 -0.4047411 0.2530378 0.11829519 -0.13204402 0.14458574 0.06753367 -0.01463882 0.04128998 0.13795125 -0.01467992 0.025999242 0.13220905 0.1784791 0.3839304 -0.08192257 0.030176163 -0.035117935 -0.09553812 0.2803099 -0.28047386 0.11278575 0.20530112 0.116083615 0.013646717 -0.047343932 0.07267426 -0.07279107 0.07234548 0.04072378 -0.12163646 0.013263002 0.11995766 0.006957488 -0.14754096 -0.0012896138 0.020876765 -0.13543274 0.078253426 -0.17111522 0.12836094 0.18534473 0.09291202 -0.11318078 0.012049659 0.13551992 -0.13361518 0.053927973 -0.10555127 -0.0046167565 -0.047698032 -0.0072019184 -0.04785827 0.005986433 -0.06453279 0.03762882 0.15789801 -0.14827931 0.110150814 0.10813743 -0.07936537 0.018290974 -0.11261733 0.063781776 0.02771726 -0.08842421 0.041712865 -0.1037928 -0.10719873 -0.17033522 0.004039535 0.03934814 -0.07765182 0.024880797 0.10926976 -0.08058178 -0.013073014 0.037254523 0.03944995 -0.12754348 -0.12556951 0.07704177 0.06704087 0.055692516 0.09816379 -0.12807347 -0.09682021 0.026318373 -0.13172325 0.07090052 -0.09883944 -0.116515204 -0.099583484 -0.041409876 -0.10072163 -0.11152309 -0.052581515 -0.05427389 -0.108915955 -0.15823643 -0.08964395 0.07509815 0.13875304 0.032469563 -0.0089243455 0.005757347 0.1581227 0.119060226 -0.09778681 -0.10495323 -0.012806514 -0.04739912 0.106192 0.14024265 -0.030370405 0.08132125 -0.0041481885 0.102111734 0.04258146 -0.10589771 0.081988715 0.14867304 0.14491719 -0.117361814 -0.06859577 0.028778154 -0.15321289 0.034510262 0.007556979 -0.035460744 0.018945148 0.14713635 0.0068138065 0.055311266 0.03133641 -0.032162428 0.08385678 -0.122306466 0.12896843 0.0071502663 -0.04140158 0.11682003 0.13270774 0.16223112 -0.08265364 -0.08126819 0.14918639 0.13075526 -0.120164484 0.09690069 -0.12815857 -0.076143675 -0.118141055 0.105152026 0.21366917 -0.22401051 0.16951181 0.15026425 0.2073465 -0.051742665 -0.006639038 0.024447845 -0.09580918 0.08667695 -0.11572156 0.095422156 -0.16370817 -0.09980544 -0.054462392 0.05792602 -0.06993317 -0.13483034 -0.0622084 0.012480816 -0.06468368 -0.12525666 0.005374321 0.085439116 0.0633435 -0.0546694 0.023998719 -0.046309028 0.037171964 0.09002714 0.07674911 -0.13849938 0.038526863 -0.14439003 -0.12422651 -0.072770715 -0.048685353 0.07033099 0.027592806 0.039545886 -0.04825833 0.061342835 -0.1481803 0.14454181 -0.012408354 -0.045287635 0.12791243 0.044970497 -0.057492435 0.07407018 -0.1257242 -0.029183907 0.074536204 -0.07249007 -0.108753316 -0.023235293 0.06740687 0.08333392 -0.029917365 0.0896816 0.034264505 -0.07281056 -0.15347807 0.07199231 -0.06423527 -0.20091166 -0.073305935 -0.036064707 0.009693023 -0.092427716 0.040339064 -0.09990903 0.10560323 -0.073079795 0.15927494 -0.10949979 0.033203565 0.12970012 0.087937295 -0.05975476 -0.068510026 0.09755722 -0.030465951 0.00040144622 -0.0006505324 0.29138225 0.10598421 -0.30851242 0.21433823 -0.06252865 0.0844351 0.035992723 -0.0046636364 -0.07484066 -0.026846422 0.017702008 0.0074293697 0.016795248 0.070680894 -0.07023306 0.06186105 -0.1601352 0.043018833 0.049034595 -0.010955004 0.19245942 -0.1325967 0.16342907 0.14018114 0.032383386 0.102378294 -0.047968477 0.10912545 -0.07701756 0.16327633 0.05911881 -0.16272745 -0.011799919 -0.1005028 -0.14450188 -0.02193375 -0.052550253 -0.12514244 0.0338279 -0.06747341 -0.037283603 -0.08342796 -0.065769 -0.12550731 -0.05111633 0.035057418 -0.09668188 -0.12924334 -0.11370798 -0.0078865765 -0.08786458 -0.027195835 -0.09949789 0.079693034 0.09456432 -0.16023174 0.14703344 -0.10402576 0.090950884 -0.12090328 0.037124768 -0.17427284 -0.13855706 -0.16921002 -0.017721754 -0.09632209 0.022266472 -0.043820217 -0.099320315 0.13278794 0.121163055 0.0037612047 -0.013202652 -0.082133174 -0.1028428 -0.05390188 -0.00041594144 -0.122779936 -0.09966165 -0.032289382 0.071316406 0.011286214 0.1461225 -0.08167451 -0.15633686 -0.13659455 0.051638998 0.07297161 -0.09358726 0.13229187 -0.12358526 0.13843264 -0.002045706 -0.1557797 -0.008599063 -0.038866334 0.08707651 -0.099801704 -0.09140407 -0.044193886 -0.0550455 0.040239487 -0.010310642 0.028236466 -0.03207327 -0.081451915 -0.0034064883 0.0064985543 0.061408516 0.017383298 0.076533705 0.11487466 0.04897767 0.103554934 0.1148832 -0.12905146 0.25096068 -0.16574204 -0.21836735 -0.12260899 0.30814084 0.0402938 -0.110643335 0.23430958 -0.06339928 0.020661011 0.043391142 -0.04901374 -0.013024609 0.030581648 0.10409615 0.10078109 -0.06428611 0.20890534 0.033884402 0.2416119 -0.14922217 0.08490104 0.26729247 0.12163046 0.21414067 -0.10302416 0.13183634 -0.0054285587 -0.025020303 0.029422753 -0.0055045886 -0.1492314 0.1354285 0.09996852 -0.09945352 -0.006343291 -0.08408351 -0.04788378 0.017394796 0.05390565 -0.121614814 0.10891581 -0.15293202 -0.023883065 -0.08210808 0.104425535 0.13721493 -0.13235636 0.06830244 -0.13971831 -0.15316112 0.120288976 -0.12560649 -0.019423816 -0.055036638 -0.07529421 -0.1268899 0.07657622 -0.1369091 0.08586841 -0.06222066 -0.034312446 0.08844093 -0.03819591 -0.069578476 -0.10568618 0.046572648 0.13642912 0.110542156 0.036863986 0.09245656 0.046032403 -0.087094866 -0.023892794 0.074393384 -0.06420107 -0.0092139775 0.11329832 -0.10338674 -0.04762542 -0.11240076 -0.15670076 -0.09320411 0.109097354 -0.12232144 0.15096053 0.069613606 -0.15694244 0.088893235 -0.048820484 0.1174107 -0.12195513 0.0055024535 0.08124389 -0.10415525 -0.1432378 0.15355341 -0.09133462 -0.12872908 0.09752875 0.06635583 0.08884319 -0.05513946 -0.1547913 0.03757082 -0.12137404 -0.10344091 0.14522456 0.004439602 -0.025990423 -0.13094029 -0.08582868 0.03285182 0.15332554 -0.20957877 0.048773516 -0.002469322 0.07504444 -0.04900991 0.078046575 0.049824793 -0.09940169 -0.1606915 -0.18660362 0.013819081 0.05312902 -0.09488944 -0.061972573 -0.030217959 -0.16105312 -0.11084994 -0.062231176 -0.06325634 -0.065815724 -0.026721066 -0.13203137 0.059368927 0.17600976 0.089090005 0.24435829 0.018812526 0.057370275 -0.0941827 -0.07899944 0.015525391 0.13243651 0.15903051 0.11596466 0.014487088 0.09664528 -0.077506356 0.08250882 -0.11898212 0.021722654 -0.16926517 -0.031060329 0.058937013 -0.023402384 -0.02577346 -0.11913171 -0.07026602 0.0003919349 0.014887196 -0.18243474 0.054743804 -0.060338948 0.036079127 -0.06777263 -0.02988304 -0.13948166 -0.09945635 0.032393266 -0.011623619 -0.0944771 0.056761518 0.09189542 0.15659183 -0.082328364 0.051774565 0.21907765 -0.0022080222 -0.015989786 0.04688263 -0.118987665 0.068668894 -0.05661055 0.16654626 0.10753036 -0.11096031 0.053487405 -0.120526984 -0.055410493 0.12179292 0.15891126 0.0811034 -0.032541923 -0.034813266 -0.050438456 0.12102982 -0.004922257 -0.18115817 0.081675805 0.042988252 0.15117376 0.01322402 -0.11659161 0.15450288 -0.11737582 -0.050522845 0.11469288 0.14698498 -0.06633703 0.1432361 -0.13410437 0.19242637 0.08410687 -0.021471642 -0.083845526 -0.16888252 0.092097126 0.0012248369 0.029836467 -0.06433711 -0.040492658 -0.062265377 0.1569329 0.023980003 -0.04793729 -0.089456335 -0.11679076 -0.027479883 0.029262828 -0.028212173 -0.06174606 -0.068121545 0.110332854 -0.13807529 0.05378167 -0.12338661 0.18296523 -0.2522658 0.07747679 0.06985739 0.06862425 -0.10956306 -0.07142528 0.15934466 0.049612507 0.04663487 -0.057823125 -0.019994045 -0.12708369 -0.16365851 0.14665218 -0.018248409 0.02979475 -0.11026254 -0.0569083 -0.13013086 0.05300634 -0.15276663 -0.14796208 -0.08168469 0.068675816 -0.009857694 0.23098879 -0.20373756 -0.1189654 -0.027856536 0.07652265 0.028310357 -0.038396534 -0.0077191507 -0.12918343 0.14363536 0.0481024 0.06524223 -0.03046001 -0.035541184 0.004164262 0.12428757 -0.04692531 -0.08016127 -0.060786158 0.13120465 0.0347831 -0.0024029077 0.03831656 0.029041642 0.14782807 -0.12538737 0.1294514 0.12031858 0.1372057 0.039718024 -0.035497505 -0.15729234 -0.09364604 -0.05229101 0.11255166 0.05318279 0.031458966 0.14122501 -0.14966907 -0.018615888 0.021752933 0.06016418 0.044270623 0.06708789 -0.09993317 -0.15640819 0.076153584 -0.06070963 -0.008100454 -0.047261614 -0.14924753 -0.0022599697 0.14116395 -0.13318668 -0.1272089 0.052628797 -0.07335496 -0.023390159 0.047224216 -0.0085128825 -0.100382246 0.1027695 0.13875689 -0.024636433 0.018597925 0.019390486 0.07251607 0.12528408 0.054539513 0.14805432 -0.027348151 0.05537056 0.12730658 -0.09641126 0.09113886 0.12378648 0.12079369 0.1400626 -0.13192828 -0.117276914 -0.099416316 -0.03147417 0.07911119 0.08268067 0.018762264 -0.054348033 -0.14333786 -0.10024634 -0.10597208 0.049846977 0.08399315 -0.07020507 -0.0007736554 -0.09019785 0.067586586 -0.19536008 0.13771956 0.028327404 0.22955044 0.08617573 0.014604184 0.17571619 -0.1633094 -0.18381996 0.030277688 0.070787005 -0.10906642 -0.008137194 0.092845276 0.031906966 0.16623108 0.026353575 0.028491838 0.09193541 0.061460033 -0.1378383 0.025545325 -0.05064533 -0.14573838 -0.009884833 0.10111533 0.010930163 -0.12632665 -0.06961389 -0.10955979 0.010995482 0.110230066 0.080446325 -0.122635126 -0.013015314 -0.016356407 0.040909722 -0.064369716 0.07543506 0.08768891 0.12873231 0.025808739 0.0047619427 -0.06118223 -0.053259358 0.009513679 0.09176379 0.11499717 0.13020761 0.09619761 -0.035008863 0.0811276 -0.07282404 0.118256405 0.005503844 0.13665415 0.14260092 -0.06981822 -0.018124692 0.13555521 -0.13987595 0.04296196 0.14771992 0.04000622 -0.1468845 -0.016452713 0.11486026 0.1321203 -0.05547735 -0.051424198 0.13643034 0.09477365 -0.10398702 0.12801929 0.060097672 -0.09354452 -0.10999349 -0.11765916 -0.07738612 0.0037932692 -0.2450889 -0.038816784 0.16959369 0.13503702 -0.036800638 -0.04680937 0.2729252 -0.23998646 0.06628671 -0.069150336 0.15571353 0.14159304 0.018496156 -0.05807498 0.08729313 -0.06961995 0.09579399 -0.16947785 0.023812547 -0.17590672 0.026311945 0.08724577 -0.09476643 -0.09106182 0.0039583817 0.2686177 0.07679778 -0.09399245 -0.17816402 0.13131657 0.03893595 -0.08711983 0.12319275 -0.01967698 0.05539037 0.029619431 0.01823903 -0.03828734 -0.026852148 -0.14456834 -0.06572228 0.045204718 -0.075346015 0.04891883 0.041964725 0.1536687 0.059277184 -0.07039015 -0.04100099 -0.07997465 -0.15075757 0.05929079 -0.029036399 -0.10517529 0.114431515 0.15151975 -0.08718404 0.050125934 -0.073676415 -0.17992349 -0.01601659 -0.088214345 0.13672712 0.1467085 -0.03651662 0.09176026 0.09177885 0.11883843 0.12394221 -0.016277546 -0.05825471 0.02397343 -0.12092705 -0.0350245 -0.06321709 -0.006853266 0.14385042 0.07509636 -0.143431 0.2503624 -0.038609587 0.18821208 0.104003884 0.11282972 -0.14355683 -0.089701466 0.29612488 -0.20716155 -0.08128912 -0.06625386 0.1252991 -0.10829378 -0.02299618 0.03148568 0.18334721 0.18530476 0.057860352 0.040707964 -0.2208732 -0.17474924 -0.2281156 0.06630864 -0.10319065 0.08856012 -0.10216571 0.22788109 -0.17443316 0.007385662 -0.15008877 -0.11234159 -0.1614957 0.008081403 -0.1608712 0.01807303 0.16333944 0.14876482 0.11628586 -0.034407783 0.12517975 0.11070488 -0.15428346 0.21071972 0.20001864 0.1749 -0.11740415 0.19892812 0.3645577 -0.28427514 0.10591538 -0.20319103 0.1292846 0.16467807 -0.07539816 -0.042336043 0.19652662 0.19809113 0.030395422 -0.09841707 -0.16425517 -0.045463264 -0.26514447 -0.13069293 -0.22810651 -0.15919311 -0.028074795 0.18523487 0.19731365 -0.012201825 -0.10874054 0.19624782 -0.020999793 0.13643712 0.0012922104 0.02469964 -0.09034355 -0.06559482 0.002131703 -0.07062369 -0.0788484 0.07094392 -0.1338094 0.062070627 -0.007839282 0.20258777 -0.13645118 0.055540226 0.28335384 -0.21479762 0.081340544 0.0045403494 0.06101954 0.083631344 0.07557834 -0.08280431 -0.009098471 -0.09469696 -0.13072415 -0.1359818 -0.048129186 -0.07574649 -0.213296 -0.07392992 -0.120964706 0.012974818 0.055044074 0.18798903 -0.15276591 -0.11998441 0.06691087 0.123040214 0.07348555 -0.1530232 -0.14224173 -0.088427 0.049656942 0.13909595 0.122453 0.1457232 0.10334565 -0.08002043 0.1204113 0.12189702 -0.20316797 -0.09754253 0.061989687 -0.07361107 0.01903356 0.08380321 0.08231778 0.05270027 -0.025455162 -0.12240557 -0.025896575 -0.06196265 -0.006031293 -0.11192047 0.052870635 -0.058802124 0.11788296 -0.14191078 -0.15430763 -0.142197 0.08805799 0.12540677 0.022557655 -0.21815251 -0.1068752 -0.1216514 0.0953071 0.0012125209 0.10283829 -0.061887678 -0.12103072 -0.043497536 -0.31008607 0.020720715 -0.1036855 -0.091909975 0.03728512 -0.14609632 -0.013713578 -0.09552635 0.0022667795 -0.18403707 0.16521901 -0.17425902 -0.11956519 0.0033405365 0.04565389 0.025647618 -0.07168819 0.09888419 -0.08267551 0.103062615 -0.0035796626 0.14948457 0.056550033 0.20438197 0.124907404 0.21364747 0.054253917 0.10743933 -0.034876183 -0.04415141 0.15753528 -0.09973899 0.118943356 0.11665691 -0.058854796 -0.15657727 0.1159429 0.05273659 0.116789706 
-0.004911002 0.09459421 -0.09046994 0.06871027 -0.12183119 -0.15344618 -0.14821707 0.16055034 -0.16635603 -0.18908511 -0.07947324 0.0016166565 -0.13007557 0.1655737 -0.076327406 -0.114204966 -0.12595613 0.024974326 0.03172926 0.06620174 0.07666848 -0.15595958 0.11689597 -0.12523076 -0.0033431055 -0.00036057332 0.031155227 -0.065209135 0.0017144745 -0.20525855 -0.054103866 0.028208392 -0.2239952 0.070887774 -0.021498207 0.05711174 -0.045235008 0.08244176 0.08962574 0.12618935 
Rect
Linear 40 40
0.074204 -0.1313139 -0.11771309 -0.08825629 -0.058338962 0.012392677 -0.1486436 0.01783153 -0.1522335 -0.1376865 -0.035360347 0.018201336 0.14740571 0.019192806 -0.15540604 0.061127305 0.006637663 -0.102902874 -0.07549495 -0.0057727373 0.02862943 -0.016060269 -0.015930628 0.0991558 -0.029989403 -0.040984396 -0.10867239 -0.1364148 0.10024952 0.11083844 0.09788665 -0.032618195 -0.13589546 -0.055564854 0.1423287 0.029834678 0.11972051 0.10840319 -0.11284059 -0.012516952 0.023547655 0.11667399 0.1193506 -0.011582941 0.07813752 -0.0033388138 0.013245866 0.15093945 0.09964212 -0.118448965 -0.012754792 0.11727823 -0.057872273 0.10055572 0.11520262 0.029995069 -0.12734206 -0.013356358 0.010164708 0.036543053 -0.1156175 0.086392835 -0.12223038 0.02763316 -0.11664525 0.016189268 -0.09097247 -0.07139213 0.03273092 0.08162 -0.15358618 -0.054942645 -0.039760675 -0.008078437 0.05513756 0.04381299 -0.082208745 -0.086091444 -0.14899218 0.091323264 -0.15333249 -0.01149112 0.060896784 0.100647464 -0.1308171 0.09827472 -0.011004925 0.112736955 -0.11897484 0.118482426 0.122584805 0.12308775 0.12863491 0.018436238 -0.10935218 -0.14003992 0.047908694 0.11660637 -0.14086677 0.03931147 0.1219074 -0.14790145 -0.030526191 0.14092486 0.03802842 0.0009635985 -0.10617362 -0.10624503 0.05939378 0.08755146 -0.1250858 0.08878094 0.094380006 0.047821462 0.008211598 -0.07559488 -0.12494758 0.058714524 0.073608935 -0.13504371 0.010081736 -0.0070141563 0.047803037 -0.0341273 -0.13924386 -0.03392352 0.039905895 0.16001391 -0.08835105 -0.14351869 -0.03278211 0.22631565 -0.21074724 0.28206265 0.026401687 -0.023643117 0.0776487 -0.05172204 -0.13559158 0.2076667 -0.06100112 -0.04214129 0.29401666 -0.036575433 0.13805124 0.052879937 0.084227905 -0.035153955 0.049677435 -0.033486217 0.08281185 0.104384154 0.06765424 -0.14440246 -0.08450803 -0.21338129 -0.21977974 0.015562077 0.009982948 0.059118353 0.18769358 0.12815845 -0.034163512 0.07556287 -0.026978401 -0.0798083 -0.10783913 0.16597894 0.10190462 -0.05908074 -0.07521269 0.025908874 -0.051194184 0.38400027 -0.14409763 -0.02501638 -0.04020361 0.043609012 0.101317845 0.22106603 -0.11832235 0.14782101 0.24900985 0.030023046 0.06134919 0.15585615 0.11487664 -0.16422819 -0.026170809 -0.024654767 0.06325538 0.05125083 0.014547565 -0.19079715 0.13004214 -0.08636127 -0.2652711 -0.12445355 0.015437635 0.26076782 0.025651487 0.023175754 -0.088221945 0.005975053 0.057826843 -0.118270725 0.010826808 0.15267868 -0.046354488 -0.07620202 0.012005508 0.13094704 0.04449879 0.30321252 -0.17302305 0.15169401 -0.010868418 0.1175484 -0.007895438 -0.04386919 -0.15419227 0.054314703 0.025057439 -0.03055955 -0.016616404 -0.108557515 0.08491095 -0.1559938 -0.087462805 -0.05990771 0.0020473073 -0.051328138 -0.11518801 -0.047948677 0.007128869 -0.052142292 -0.18520795 0.076183625 0.1342241 0.09449623 0.061859686 0.03915951 -0.008213609 -0.09668587 0.021736667 0.0813368 -0.036863133 -0.01650917 0.057444554 -0.05214551 0.08932965 -0.021563627 -0.10578125 -0.006513685 -0.102929436 0.052358776 0.11889792 0.13682345 -0.08359446 0.04951179 -0.0029985162 -0.11629433 -0.08244466 -0.12402533 -0.06277759 -0.043784365 0.033827778 0.0541342 -0.03132318 0.0022515804 -0.071654536 -0.02882019 0.03668189 0.097448334 -0.05901638 0.055596527 0.12323627 -0.052098952 -0.0015935658 0.122491084 0.057011873 -0.14819622 -0.10285125 -0.031746484 0.06999183 0.07088853 0.107549116 0.139222 0.044333562 -0.053584933 -0.15043648 -0.15266682 -0.08791546 0.011832752 0.13520493 0.016690569 -0.15511979 -0.065156534 0.022001885 -0.06896586 0.07701307 0.08684946 -0.16101007 -0.1187977 -0.005307939 0.034677897 0.13830687 0.011028486 -0.092940584 0.05006499 0.08011743 0.08670979 0.0553265 0.13762495 -0.062574364 -0.12451106 -0.040191356 -0.09710789 -0.019057155 0.04754762 -0.08080784 0.013077454 -0.074958265 0.10659492 0.15396313 0.095521405 0.04301112 0.052538052 -0.06325718 0.051327944 -0.11801855 -0.104127504 0.13432983 0.017065225 0.11241408 -0.14106564 -0.010599978 -0.018635947 -0.050245337 -0.1829095 0.10525828 0.092701964 0.052702393 -0.060970824 0.10089928 0.06225438 -0.041582577 0.15002155 -0.097675756 -0.036281258 -0.051227815 -0.024554888 0.13674116 -0.1165608 -0.025253523 -0.12226619 0.14226344 -0.11253894 0.11780729 0.06334667 0.097253665 -0.08830932 0.02808732 -0.13842413 -0.03257137 0.14713195 0.1084022 0.17222002 -0.046485152 0.021133201 -0.026034717 -0.05578292 -0.08519435 0.15865462 -0.11022222 -0.054445617 -0.07522414 -0.034037285 0.07861956 0.078882605 -0.036556687 0.095032394 0.022079041 -0.0026094406 0.04680333 0.026598588 0.15507817 -0.1481601 0.15022673 0.0509149 0.110273674 0.050044026 0.0381723 -0.13412882 -0.009110253 0.08077709 -0.122646764 -0.037917003 -0.050668743 0.120025784 0.19032058 -0.17908774 0.1256906 -0.04087832 -0.14078192 -0.10880165 0.030954115 0.08063345 0.04548824 0.06054189 -0.05788569 0.16135417 -0.2004778 0.23165897 -0.15063533 -0.155605 -0.067019604 0.020655243 0.12178549 0.049122274 0.05813509 -0.09613627 -0.017865459 0.009439114 -0.049278237 0.032522973 -0.07020209 0.04087209 -0.14589356 0.13052732 0.002133897 0.042633023 0.052230183 -0.16129093 -0.03289673 0.06742786 -0.13733356 -0.12076786 -0.10563405 0.11893649 -0.11177375 0.108183675 -0.14452854 0.08343417 -0.06850545 0.117284834 -0.14290997 0.012592626 -0.009817675 0.088556334 0.105537586 0.1008076 -0.070182264 -0.11648109 0.08777352 -0.050804444 0.1280734 -0.019394482 -0.060521245 -0.102229714 0.053901073 0.12503625 0.120247744 0.1493951 -0.0118918335 -0.100856915 -0.021000372 0.066918604 -0.11586896 0.14631268 0.031608857 0.072610274 0.10912881 0.114078596 -0.06876752 -0.062145904 -0.1012451 -0.05949047 -0.09626343 0.115027755 -0.13058914 0.088568605 -0.06736071 0.14632185 -0.08829559 -0.064343326 -0.012664029 -0.1035718 -0.07257298 0.009974861 -0.025443306 0.11883281 0.03587753 -0.06446202 -0.0079055615 0.059913173 -0.099177755 -0.04088018 0.02686751 -0.010170551 0.084335566 0.14610116 -0.19151388 0.11738424 0.05935687 0.035722803 -0.058322225 0.106910005 0.15955369 -0.07707432 -0.031800225 -0.036641005 -0.0016027525 -0.09857343 0.0960473 -0.077265784 0.128943 0.06454885 0.053698145 0.15410525 -0.08390327 0.0121007785 -0.12142123 -0.10309964 0.059531827 -0.08058239 -0.10143196 -0.061622795 0.10766742 -0.13862126 0.01040026 -0.10454843 -0.16439553 -0.22597605 0.06320393 -0.093510635 0.14791322 0.011521522 0.14707588 -0.26107877 0.08953389 0.0874312 -0.24967124 0.027571766 0.110027954 -0.08199529 -0.010887093 0.074578315 0.11902065 0.13277821 0.010783543 0.1132945 0.049016695 0.19288391 -0.015268868 -0.064301156 -0.03257738 -0.08300554 -0.091685854 0.09967803 -0.09317308 0.00014403832 -0.15365767 -0.048805635 0.07808711 -0.079108715 -0.11154604 0.08063813 -0.09950909 0.052791227 -0.048127756 0.09544606 0.095963396 -0.12731843 0.09862559 -0.07356197 -0.15658763 -0.05131828 0.1330717 -0.049478024 0.050280407 -0.04409125 -0.0548702 -0.045366477 -0.14197542 -0.1491668 0.13859648 0.06562577 0.08600059 0.12202128 0.0971587 -0.029577838 -0.1220493 -0.036085997 -0.055525955 0.06946349 -0.03360804 0.02694493 0.07547251 0.12648255 0.1413862 -0.04203583 0.054830737 0.109872386 -0.049336396 -0.13581726 -0.04301066 0.12195879 -0.013371902 0.108972356 -0.042617794 0.0017291562 -0.014225174 -0.04851088 0.11498201 -0.041701682 0.13417141 0.111902624 0.010849479 -0.04823664 -0.11160067 0.02365081 0.06963325 -0.13940741 -0.018305598 0.003611806 0.076422885 -0.04841881 0.05837995 -0.119017065 0.049366314 -0.10018241 -0.10761706 -0.0947524 -0.015529766 -0.14013852 0.09089075 -0.004596417 -0.075575985 -0.07853824 -0.033217408 -0.09259849 0.04071657 0.069193974 -0.15304391 0.041775778 0.05148623 -0.09440923 -0.056242067 -0.043243993 -0.0071130777 0.09608372 -0.06979003 -0.017597955 0.12189049 -0.0935181 -0.084432125 0.0053456915 0.10657844 0.037469327 -0.14258797 0.1496426 -0.0716952 -0.12713787 0.10985779 -0.054540098 -0.15695652 0.14743698 0.1469573 -0.14501439 -0.11807836 -0.04595905 0.09347799 0.14584202 -0.10325177 0.07835953 -0.011915937 -0.04836219 0.12244092 0.11072178 0.070059225 0.118035816 0.015654214 0.14260133 -0.14715129 -0.088795446 0.10807432 0.14820066 -0.16169165 -0.060546897 -0.038542263 -0.030491559 0.05525431 -0.14926803 -0.09642543 -0.06887165 0.027876902 0.09182959 0.09536057 -0.105560005 -0.05892302 0.09116679 0.026864862 -0.10742397 -0.06423419 -0.13958271 0.032202758 -0.08393917 0.1439459 -0.09438906 -0.13699731 0.075353436 0.14007276 0.1074533 -0.021094337 0.19012874 0.13924548 0.046119213 -0.11758492 -0.14299482 -0.14111033 -0.069985956 0.15431723 0.14997965 -0.11786327 0.0031711664 0.10083189 0.09527519 -0.06263247 0.026105622 0.024847526 -0.1327077 0.00083571544 0.1371542 0.082253516 -0.0073179156 -0.056979705 0.0067386925 0.1439286 0.14673606 -0.10585186 -0.051607415 -0.08126697 0.0484751 0.01513962 0.13917463 -0.11525945 -0.002048998 -0.11461562 0.05945116 0.026098695 0.04675264 -0.15671922 -0.10442395 0.022249019 0.13821371 0.08153285 -0.064784184 -0.004273682 -0.036748473 0.14257985 -0.0070263054 0.15395929 -0.05215556 0.07979053 -0.028210985 0.03588093 0.04476072 -0.1294404 0.15430875 -0.024695681 0.011545867 0.1383559 0.029558958 0.13025226 0.07111058 0.08469304 0.032322187 0.0020440035 0.07272594 0.1292659 -0.106478795 0.11148498 -0.085363194 -0.13964409 -0.14727552 0.032352686 -0.09823564 0.0005799633 0.104210675 0.047009088 0.03177284 -0.14121127 -0.041664656 0.07055727 0.08395592 0.11712328 -0.0486514 -0.07457066 -0.031053638 -0.0069434303 0.020580603 0.00058923115 0.0861305 0.12271456 0.02881322 -0.1355199 0.067822464 0.01572445 0.10485735 -0.09120659 -0.15063709 -0.14886041 -0.20946944 0.10467776 -0.025391798 -0.05683991 0.029392513 0.14493111 -0.047346517 0.0056819515 0.09142433 -0.23176758 0.048064522 0.08752099 0.097835936 0.11894711 -0.04400514 -0.015211044 -0.10519015 -0.013761522 0.22904722 -0.07532776 0.10285259 -0.08541571 0.1739604 0.16862354 0.09235172 0.051140167 0.08217993 -0.06276148 -0.124429524 0.09515755 0.060992897 0.10507013 0.13352408 0.04274142 -0.11160099 -0.08028096 0.13124381 -0.03542689 -0.0065763155 0.08388337 0.06423215 -0.018886525 -0.15477286 -0.0039054744 0.121966496 0.108853295 0.055435304 0.09163093 0.045152128 0.037090044 0.0741992 0.010151327 0.04660302 -0.14197198 0.096746966 -0.04303191 -0.05946488 0.010005887 -0.15309626 0.06047708 0.033606235 0.06753202 0.12215765 -0.10047277 0.13209747 -0.15326644 -0.040519737 0.14158826 -0.074326634 0.101152614 0.055425435 -0.114012994 0.05425872 0.066083245 -0.014346443 -0.016993847 -0.13935754 0.09280038 -0.109444864 0.019713193 0.051138073 0.08469941 0.01950401 -0.017562538 -0.08653931 -0.11664402 -0.020048246 0.09635829 -0.018688738 -0.08804894 0.11241464 -0.09408684 -0.08813547 -0.053668894 -0.07597228 -0.13615127 0.051129937 0.0442402 -0.053140018 -0.13894425 0.077488266 -0.104727894 0.01318362 0.1366469 -0.101604044 -0.06422496 0.10515054 0.07489842 -0.20613271 0.10311725 0.07531029 -0.04339868 0.017420322 0.11229652 -0.13936184 -0.11996268 0.05731113 -0.16383412 0.071731485 -0.077741094 -0.07264162 0.054577112 0.12388704 -0.14094798 0.08160419 0.06517666 0.15492566 -0.13506708 0.05123165 0.12857705 0.0084630875 -0.11387983 0.16749331 0.015602349 0.07214042 0.13747726 -0.124628596 0.1109111 0.10257378 0.14893806 -0.0048259725 0.014271708 0.12447784 -0.16020805 0.08692847 0.040977214 0.104779676 0.048282 0.0031076153 -0.123269245 0.058268506 -0.02212235 -0.024979359 0.12128965 -0.09984288 -0.16019434 -0.06924094 0.11342905 -0.044530705 -0.04919085 0.18695024 -0.1742167 -0.0953551 -0.13757075 -0.13675739 -0.021131096 0.019796057 -0.024799734 0.12036774 0.2101978 -0.09595468 -0.14289673 0.1534392 0.06552928 0.015433531 0.047103655 0.011076208 -0.12997235 0.0521296 0.13189694 0.048608795 -0.12458877 -0.14688914 -0.28747413 -0.14784358 -0.028718408 0.19299814 -0.03991797 0.044396028 0.00852482 0.13028534 0.030761762 0.07157742 0.104729086 0.036242183 -0.05946664 0.15657322 -0.108813874 -0.06408832 0.042125452 0.10152749 -0.086169355 -0.15546805 -0.10905864 -0.11563701 0.12369039 -0.049808294 -0.06793485 0.14365686 0.007720918 -0.11303477 0.055235192 0.022336999 -0.015240164 0.12892847 -0.13770655 0.1387833 -0.120299265 -0.075454295 -0.0642554 -0.1337039 -0.11117743 -0.1017823 0.10607397 0.062302932 -0.029906575 0.13306643 0.10289556 -0.06304756 0.09494012 -0.08489862 -0.1426504 -0.13175848 -0.13894951 0.093243025 -0.12121475 -0.091494046 -0.18208008 0.14645137 -0.08775245 -0.070255436 0.049969092 0.13518013 -0.10025879 0.080759384 0.07766808 -0.07103895 -0.1165909 -0.027364831 0.15647556 0.12677144 0.06999004 0.07393418 0.07108154 -0.14309645 0.00796574 0.08785409 -0.081552826 -0.0352872 -0.07295638 0.11351215 0.14079149 0.16891909 -0.08220559 -0.054886185 0.024338825 0.123702995 0.03259899 -0.11474772 0.0004779878 -0.07541611 0.03126172 -0.105057575 0.02159753 0.19531837 -0.14495878 0.020183584 -0.08855556 0.02691084 -0.08058872 0.17301467 -0.024678927 -0.11076369 -0.047648206 -0.048857942 -0.08035562 0.19656324 -0.043673236 0.022268519 0.18580192 0.16180387 0.010514951 0.092436716 0.06362612 -0.046517443 -0.102082185 0.022676053 0.028077917 -0.08002928 -0.14900713 -0.11930593 -0.011600913 -0.035614934 -0.22681445 -0.0352861 -0.022763593 0.051898133 0.07362248 -0.12649898 -0.06642799 0.028948495 -0.12241003 -0.035331026 -0.09167852 0.13072954 -0.112307735 0.111760005 0.06160151 0.15594716 0.012175096 -0.10398632 -0.064914614 -0.066775225 -0.13494074 -0.013159925 0.03211598 0.13482842 -0.05759202 0.07107122 -0.12092723 0.117177054 -0.035873525 0.15272537 -0.07051815 0.014134626 -0.15217412 -0.10642753 -0.037847757 0.10970171 0.09290065 0.1398896 4.375203e-05 -0.058781702 -0.07615102 -0.046197407 -0.028362487 -0.019880867 -0.01673736 0.058482833 -0.08198162 -0.13827494 -0.111858614 -0.067236595 0.031432346 0.07092595 0.10111394 -0.07817343 0.06273864 0.02317609 -0.15266421 -0.083513096 0.06991152 0.080190286 0.020166403 0.05687344 -0.10186437 -0.098460525 -0.023751965 0.12119287 -0.14411706 -0.15395042 -0.036647167 0.08957702 0.03750133 -0.059165042 -0.09879091 -0.12042117 -0.11017761 0.036097843 0.001887954 -0.027109865 0.047190186 0.13316852 -0.034118332 -0.017295672 0.07873952 -0.020138599 0.066158995 0.037594162 -0.02297067 0.12657212 0.09827967 0.05809019 0.14661436 -0.0321749 -0.12918669 0.15432209 -0.1073618 0.04958431 0.033036433 0.14594959 0.08405726 0.13290682 -0.0017019584 -0.00895155 -0.07086637 -0.07621898 0.0030688571 -0.03313965 -0.14365257 -0.02311396 0.083317354 0.14230579 -0.019112408 0.0674874 0.06992656 -0.058280226 -0.050036352 -0.12043736 0.08833527 0.013607378 -0.08920089 -0.04777673 0.11195497 -0.066959485 -0.023305098 -0.023780119 0.22633599 0.14916675 -0.098298304 0.12384797 -0.14898306 -0.08677657 -0.11494282 0.13615464 0.12845588 0.030351192 -0.11666062 -0.05060891 -0.1703034 -0.2577143 -0.16092591 -0.11361382 0.09160084 0.15193285 0.056902513 -0.011648775 -0.034383688 -0.0584633 -0.27408826 0.12360215 0.016684188 0.008515916 0.15358898 -0.06528642 0.12604775 -0.0021213263 -0.071076505 0.016731836 -0.14786543 0.08083304 -0.107876636 0.16662252 0.35771665 0.22698608 -0.13013533 -0.12764066 0.10455629 -0.17605813 0.06686573 -0.026839374 0.1346754 0.087662354 -0.10954036 0.123006724 0.119112276 -0.0033895345 0.03966885 -0.11276401 -0.24339917 0.22434984 0.041073944 0.12162888 -0.020470204 0.124193095 -0.080908515 0.1477542 -0.00043127435 0.06271975 0.060013592 -0.11537081 -0.014880614 0.12438896 0.014070054 -0.11280379 0.100548 0.023125557 -0.10959337 -0.1559179 0.11120949 -0.0003710868 -0.14189327 -0.06280613 -0.17226206 0.051781546 0.009762815 0.049759652 -0.026113408 0.2124707 -0.016233778 -0.11984291 0.05918707 0.12282876 -0.09285482 0.06884567 -0.07048721 -0.072842985 -0.0065219617 -0.087068796 -0.08614254 -0.13073047 -0.01709773 -0.021281641 -0.13353015 0.08339996 0.02929875 -0.17148337 0.03443542 -0.046452243 -0.08535135 -0.03913244 -0.12318204 -0.09236243 -0.14875752 0.014985916 0.21589267 0.14212094 0.057320543 0.18720059 0.0979042 0.11162866 0.0011430988 0.19448987 0.1451204 0.22503449 -0.103554964 -0.16002661 0.10780859 -0.04263681 -0.10188094 0.108134404 0.04736492 0.062005043 -0.0706722 0.094735734 0.007932099 -0.13588862 -0.14928323 -0.027566236 0.13654792 -0.12462637 -0.072009236 0.062007695 0.048013434 -0.09891145 -0.05473356 0.01346325 0.11191551 0.072509475 -0.14656633 0.13918035 -0.031308632 0.1535702 0.12506303 0.047745973 0.08381675 0.0342896 -0.06283828 -0.13009827 0.09866093 0.041278467 0.12829764 0.011613742 -0.085676156 -0.061712474 -0.12702297 -0.076282606 0.02817131 0.027007835 0.04912722 -0.14738126 0.033705086 0.11188606 0.08273111 -0.13155256 -0.036110487 -0.101064846 0.12398784 0.15238285 0.07884745 -0.10574478 -0.110832974 -0.02646596 -0.030817607 0.074895084 -0.07111531 -0.116306536 -0.026231833 -0.068320215 0.09622193 -0.029324671 0.08771445 -0.031274408 -0.09460979 0.01306353 -0.10723189 -0.06978474 -0.10074469 -0.0050438945 0.03762367 0.10389163 0.058373027 0.17323898 0.18181454 0.010408876 -0.11692173 -0.06485217 0.08485261 0.10808975 -0.13736247 0.021249542 0.05883862 0.009398073 -0.08518432 -0.01830002 -0.05095334 -0.0056433915 -0.083858386 -0.08940058 0.11233874 0.03542048 -0.1474106 0.08594751 -0.06931778 -0.06021368 0.11881174 -0.13815078 -0.14052652 -0.14343455 -0.07934377 -0.042510096 -0.12029799 0.14744495 0.1330858 -0.023601111 -0.0717205 0.04385975 -0.13110392 0.04020952 -0.09478039 0.061748948 0.10458003 0.03200256 -0.0190256 -0.0017739447 0.049701143 -0.09996242 0.21666448 0.260955 -0.022454077 -0.12278947 -0.09635282 0.011033463 -0.040601652 0.041071888 0.018579138 0.04562646 0.014162881 0.06299161 0.043367323 -0.2798771 0.10481321 -0.05088701 0.0060078725 0.15036876 0.071127504 -0.1392666 0.03550341 -0.08253558 -0.11505391 -0.05773477 -0.056614727 -0.1505888 0.055621237 0.20353685 0.10827722 0.14803983 0.0021196154 0.20247352 -0.020502154 0.04591212 0.14401947 0.18517971 0.3060632 0.08684813 -0.16573112 -0.073145024 0.054684047 0.09385718 0.14779852 0.1600156 0.12283732 0.044336166 0.05541237 -0.0638078 -0.031782154 -0.105720736 -0.1599654 0.020097246 -0.14924985 -0.1431911 0.016804278 -0.12980306 -0.12860447 0.18024498 0.035574503 -0.13549335 -0.10621317 0.069885924 -0.14383784 0.059659477 -0.02303545 0.09917774 -0.14190663 0.09523799 0.18007657 0.06319357 -0.16220297 -0.03326396 0.11894445 0.093808725 0.09808054 0.19503723 0.13050047 -0.101199485 -0.06374941 -0.10730565 -0.089382306 -0.060636915 0.11513223 0.039071828 0.09676717 0.020904854 -0.03737688 0.06698683 0.15214135 -0.10192873 -0.07136341 -0.14328875 -0.12038968 -0.15355405 0.021247402 -0.08843088 0.15665998 0.0116698295 0.12378888 -0.007703066 0.05723639 0.057618722 0.08076289 -0.089348115 0.14689936 0.07711695 -0.05020772 0.045561925 0.10461907 0.032938346 0.017300636 -0.09071537 0.0954916 -0.041605085 0.105618194 0.03785105 0.0008635819 -0.15005 0.1399829 -0.07977034 
-0.035449136 -0.15106313 -0.15781192 0.15109158 0.13045684 0.062160715 -0.13295846 0.023374861 -0.015483879 0.024252556 0.10325642 -0.10547806 -0.008874006 0.077034526 -0.029432505 -0.032683305 -0.057891127 -0.07262497 -0.11760083 -0.20855704 0.029145079 -0.10047155 -0.063930795 0.058377244 -0.050449274 -0.13740179 0.020953018 0.17473051 -0.08573383 -0.060178258 -0.049004283 0.08213137 0.035678554 0.17684624 -0.045257825 -0.042824857 -0.1309484 0.13150322 0.021389317 -0.07578817 
Rect
Linear 40 40
0.03064853 0.13188876 -0.047225595 -0.037540525 -0.12187448 -0.0863102 -0.08025958 0.1314996 0.13601531 0.12447815 -0.07923696 -0.15106228 -0.08066727 -0.067394815 -0.03002365 0.11249299 -0.036952876 0.11584662 0.037845865 -0.09283415 -0.05755648 -0.06866597 0.13777645 -0.15644085 0.05615051 -0.07255371 0.07795912 0.12406899 0.118695214 0.029744849 0.05411026 -0.028490081 0.045795932 0.018765762 0.12200381 0.032714218 0.0571803 -0.12777331 -0.0010212958 -0.12756544 -0.020609273 0.0134424595 -0.059264734 0.23894383 0.26756093 0.07562711 0.10323539 -0.11335757 0.027440112 0.109540984 0.20117743 -0.087921396 -0.15409568 0.029298356 0.04502251 0.07997013 -0.021507949 0.0082036 0.020321341 0.042604607 0.05406212 -0.07663269 -0.0006027457 0.112983234 -0.051298227 0.08494354 0.0024060418 0.09026324 -0.012703198 0.1377358 -0.105841875 -0.1822178 0.19544205 -0.09109866 -0.11282444 0.07072621 0.10023416 -0.17027776 0.123364896 0.14153631 0.024309628 0.0487044 0.106805876 0.12831691 0.039270833 0.025917212 0.06045158 -0.13117968 -0.14363839 -0.12219442 -0.021861896 -0.008725435 -0.03365606 0.1345969 0.15157336 0.06288354 -0.0747515 0.019984344 0.13266854 -0.049352985 0.058077108 0.10611637 -0.08371142 -0.087075 -0.044142723 -0.072481275 -0.07187647 -0.076591164 -0.058368012 -0.032330368 0.010501232 0.06451206 -0.0059442776 0.09628919 -0.043312974 -0.07183423 0.055198755 -0.12313565 0.15317738 0.06083718 0.005608027 0.0641717 -0.05547872 0.09907232 0.07954013 0.13848773 0.0023031086 0.04591081 -0.12918435 -0.12280605 0.004873276 0.02953008 -0.06535085 0.11006961 -0.053721935 0.07379544 -0.1402421 -0.017837211 0.14992446 -0.057495803 -0.14413713 -0.000716068 0.070881486 0.14091049 -0.09837328 -0.14142637 0.123885565 -0.12600859 -0.141851 -0.08711119 0.13023245 0.13064593 -0.14574558 -0.13308698 -0.095770516 0.15559791 -0.11794769 -0.09292878 -0.060412932 0.122084066 0.05035518 -0.005016923 -0.12679408 -0.010277644 0.14084943 0.085525796 -0.14483257 0.13867845 0.13104363 -0.12765016 -0.01382111 0.051890492 -0.06304368 -0.092639916 -0.0593969 0.043832287 0.047813013 -0.14524233 0.041110545 -0.03483378 0.15289117 -0.064035155 -0.0135187805 -0.063270904 -0.04604426 -0.083331324 0.0047142655 -0.09891601 0.05526717 -0.00983122 0.031402975 -0.15784548 0.09330417 0.062027708 -0.05389519 -0.1289909 0.080132276 0.07964502 0.106147185 0.15511234 0.07384772 0.13457435 0.09369154 0.046208143 -0.2533995 0.025141248 -0.032249816 -0.12601158 0.040632393 0.015840493 -0.16979645 0.06987655 0.078936465 0.098664045 -0.09930934 -0.1294199 0.04008671 0.022889443 0.07545341 0.039090566 0.22986163 -0.14807585 -0.15499203 0.14435017 -0.17860065 -0.14376289 0.1288489 -0.083754204 -0.14675875 0.10038561 -0.13136308 0.31239828 -0.17730118 0.1566093 -0.14739476 0.059251636 0.009544264 0.21369986 0.24883434 0.10073076 -0.013220306 0.13778095 0.0041913986 0.113820486 -0.041519977 -0.11115937 0.023266131 -0.10496503 0.017957846 -0.056124274 -0.006118656 -0.076081306 0.031024653 0.0917148 -0.13692546 0.10780969 0.09050038 -0.068773605 0.1408159 0.112507485 0.12631167 0.056172024 -0.03010647 -0.13921061 0.091134734 0.030029234 0.15519506 0.09834793 0.08783798 0.15653168 0.12743458 -0.08089082 -0.060696125 0.1413756 0.10685541 0.051449172 -0.12602836 -0.04223954 -0.10836299 -0.07617189 0.103716336 0.070003435 0.15422745 0.09817873 -0.13183677 -0.09554582 0.112101726 0.104366556 -0.012952511 -0.05120558 -0.051050525 0.05807536 -0.10556407 -0.0134309465 -0.020672135 0.12364542 -0.060759712 -0.15774745 -0.08854366 -0.032929663 -0.03512949 0.0031728933 0.062524445 0.1214249 0.1059126 0.08036493 0.1256775 -0.14440061 0.09293927 -0.115142494 -0.05915422 0.024487931 0.03545036 -0.058195814 -0.117865115 -0.15316172 0.091124386 -0.07266507 -0.14573064 0.09203471 0.08802703 -0.07181187 -0.02910006 0.23052576 0.1344737 0.21448614 -0.15200351 0.03199574 -0.012710416 0.0037078299 -0.072844684 -0.031081961 0.08577751 -0.081404895 0.13545801 -0.14464296 0.1459707 -0.016804699 -0.14774315 0.013041046 -0.030442897 -0.055762775 0.07715605 -0.103284664 0.24307743 0.10658465 -0.0075794803 0.19489871 -0.027898366 -0.12196137 0.11769436 0.080481775 0.025277274 -0.05521119 0.08111491 -0.032034833 0.08505163 -0.1652046 0.012120258 -0.017905205 -0.1304937 -0.09881231 -0.11212945 -0.06189653 -0.061780665 -0.051776458 0.16166236 -0.016778829 0.043582086 0.100103274 -0.059312247 0.13989957 0.053824443 -0.15442182 0.01636798 -0.013709426 0.009312273 -0.04942652 0.014213681 -0.036414243 -0.00085615844 0.018857345 -0.05795962 0.021777619 0.053386815 0.14118682 0.119611144 0.06472909 -0.05822654 0.05990973 -0.013573846 -0.06571243 0.064249426 0.135199 0.03220095 0.13817285 -0.10815098 0.009791527 0.062721536 0.05896166 -0.032126904 -0.12662151 0.13534604 0.05060871 0.13279061 -0.036120392 0.12524886 0.032548293 0.10417108 -0.061928935 -0.052388087 -0.1539877 0.06173764 -0.01432173 -0.008867443 0.08498849 0.015723005 0.1021014 0.14890607 0.031594113 0.111294225 0.094431356 0.020568505 0.041170493 -0.10174006 -0.14059606 -0.027118072 -0.079325795 0.120853916 -0.13454303 -0.044580318 -0.13575923 -0.047900885 0.0033458024 -0.020644277 0.145591 -0.02549243 -0.080808096 -0.15040189 0.01763098 -0.1467721 0.14700691 -0.05598204 -0.1247293 -0.15316844 -0.05469608 -0.06248088 0.06507376 -0.027933659 0.05797328 0.068780735 -0.08153908 -0.06927798 0.06743719 -0.058931544 0.11438765 -0.07313862 0.078121975 0.074505255 0.07418822 -0.078759566 -0.020443916 0.09403285 -0.06622669 -0.06615367 0.070402026 -0.0072286576 0.111456886 0.11901714 0.050967738 0.00506787 -0.04169976 -0.014734358 0.006170659 0.018426917 -0.07916328 -0.11587164 -0.051100574 -0.090135366 0.009758681 0.053295583 -0.13690929 0.15765958 -0.10993264 -0.06513147 0.017059103 0.096766934 0.10229929 0.13158683 -0.1576775 -0.12180348 0.14936422 -0.036547802 -0.15286712 -0.13285623 0.045516744 -0.13865809 0.11487208 0.012492403 -0.028530285 0.026475325 -0.13965526 -0.0956559 -0.026073024 -0.14046963 -0.05243838 0.118309066 -0.024742752 -0.09194046 0.079720974 0.05126202 -0.04088874 0.09716903 0.0671456 -0.13496965 -0.1140528 0.1560121 -0.10673812 0.03916447 -0.079941995 -0.1288504 -0.048567425 0.1349114 0.18608528 0.07920514 -0.10024423 -0.027141362 0.081498906 0.15724963 0.16409013 0.01812935 -0.14503403 -0.11376762 0.04159209 -0.041241504 0.06978938 -0.15446357 -0.04787911 0.0015550425 -0.009577994 -0.022198342 -0.10938337 0.07150335 -0.056053817 0.08086878 -0.02785598 -0.07874856 0.09978873 -0.05306029 0.054519117 0.09704545 0.03995585 0.1696857 0.028100284 -0.031271774 -0.10603333 0.06881847 -0.12476787 -0.19074406 0.1441548 0.092369005 -0.025298843 0.096035585 -0.1954487 -0.0827056 -0.07235543 0.08758096 0.14133887 -0.018513646 -0.010596843 -0.10975475 0.11066102 -0.12061275 0.16746119 -0.07816995 -0.05645061 0.05765371 -0.042109642 0.039070975 -0.08593024 0.071188316 -0.04903473 -0.015247585 0.019543374 -0.071318805 0.06989353 0.026335131 -0.16578873 0.15071277 -0.10378491 0.09855801 0.038682934 0.019258728 0.060676523 0.09068536 -0.03985374 0.06352464 -0.067224614 -0.023022678 -0.008475959 0.01374281 0.11966039 -0.15605664 0.15655442 -0.15210272 -0.071199 -0.1198012 0.12730922 0.1258652 -0.084061764 -0.0221968 -0.039151214 0.15807211 0.14168374 0.02998864 -0.07498256 0.10509901 -0.018395932 0.1442336 0.10234046 0.0035068295 0.018064722 0.037152857 0.09437761 0.11697312 -0.1291937 -0.100686945 0.043178648 -0.015806213 0.09043291 0.021959571 0.14102933 -0.050044358 0.032668088 -0.15348956 -0.09054182 -0.10325939 -0.15615122 0.15337111 0.088793695 -0.11283462 -0.10280664 -0.07774066 -0.010730132 0.05215393 -0.01754488 -0.112252384 -0.02999121 0.0953988 -0.11456758 -0.13606365 -0.10640329 -0.01793164 -0.06405491 -0.020217791 0.12722464 0.09546588 -0.12915173 -0.06711713 0.13805012 -0.08801851 -0.09388837 -0.07073671 -0.12550458 -0.038041353 0.06623162 -0.0905198 -0.14479744 -0.1483606 -0.038909614 -0.05161328 -0.09176219 -0.079235435 -0.13538003 0.036171466 -0.08421604 0.058811933 -0.048479073 0.016019672 -0.10823068 0.03680782 -0.07635882 0.054115668 -0.091698654 -0.12140087 0.029307753 0.087830156 0.111339524 -0.08335587 -0.06382486 -0.0304351 -0.0334358 0.03005746 0.055828735 -0.010979235 0.07633437 -0.032969296 -0.15126126 -0.098869845 -0.11847161 0.10425402 -0.12043248 0.051423773 0.10735814 -0.04480771 -0.1381216 0.008187488 0.11049388 0.07900454 0.1016642 -0.08405734 0.13623793 -0.12036699 0.113308534 0.10267739 -0.046016946 -0.116588265 -0.13760649 -0.15366718 0.062614456 -0.000120225006 -0.11165589 2.2858381e-05 -0.13685663 -0.12952526 0.092427276 0.07771437 -0.11793514 -0.08192504 0.1425786 0.057312354 0.09729646 0.098657385 -0.08824098 -0.039218206 -0.11433111 -0.07381816 0.116621725 -0.099668294 0.13262272 -0.09908168 -0.13120015 -0.0462907 -0.10202972 -0.08847139 0.05665165 0.011703291 0.1282858 -0.021038964 -0.053971566 -0.109914586 0.014903933 0.044698995 0.13148803 -0.041250255 -0.043968834 -0.08735938 0.121544175 -0.0018988977 0.12105657 0.012228953 0.03257339 0.09570353 0.19414854 0.3363443 0.19895332 0.0873763 -0.06827371 -0.007393824 0.18445605 0.15911621 0.067032985 0.040141076 0.04194103 -0.012926947 -0.10085665 -0.019380355 -0.09302073 0.17961182 -0.14511533 -0.07185696 -0.11688138 -0.081245854 0.20204425 0.081123196 -0.083947025 0.022345813 0.20979647 -0.08536709 -0.0027995873 -0.13319825 -0.040692635 0.14460348 -0.02685648 -0.027118692 0.048339542 0.15004668 -0.09055087 -0.11859495 0.07229972 -0.02428171 0.13971654 0.11663012 -0.08796719 -0.02815539 -0.008677954 -0.046890832 0.024600858 0.10011607 -0.12302954 -0.06937952 -0.047016814 0.106850356 -0.084679484 0.100423 -0.14298563 0.053033438 0.15269062 -0.106226854 -0.015920056 -0.13365664 -0.13838571 -0.10447622 -0.076217875 0.03317889 -0.07970719 -0.14201044 0.05448299 -0.05780606 0.116314426 0.12517995 0.09103895 0.09334445 -0.023663238 -0.07131712 -0.09192967 0.12215342 -0.11999392 0.02965774 0.09008147 0.069061056 0.004867062 -0.053269908 -0.082672164 -0.12914462 -0.09440396 -0.1360718 -0.009275317 0.1354269 0.054639056 -0.0796888 0.127474 0.047320783 -0.14086944 0.089437455 0.13532583 -0.09487246 0.083366275 -0.09543611 -0.12013619 -0.00039240718 -0.13386029 -0.0652499 -0.031108156 0.011594683 0.14867406 0.08520891 0.016604751 -0.027528211 -0.085439846 -0.058168575 -0.12007689 -0.10732563 0.031742662 0.07704255 0.07305898 -0.003535822 -0.12486335 -0.08875366 -0.12090506 -0.006890586 0.15686174 0.12815122 -0.11472747 -0.09431948 -0.05283516 0.11027911 0.03473802 -0.066424206 0.12112959 -0.062164262 -0.058701463 -0.041880593 0.018422151 0.08187761 -0.078854546 0.10048875 0.10623756 -0.15455283 -0.049144328 -0.08425977 -0.15660034 -0.14244868 0.084298044 -0.071081474 -0.14613819 0.10474455 -0.044510186 0.1488372 -0.023702677 -0.010597111 -0.0611076 0.08795133 0.16152374 -0.13296583 0.108360946 -0.117369466 0.044292368 0.13542885 -0.012698665 0.09023683 0.0022464036 -0.15241058 -0.32145974 -0.26261553 -0.05347508 0.034079324 0.12824245 0.09049437 0.08736939 -0.044841472 -0.08567977 0.12604707 0.1135258 -0.066880666 -0.04754187 0.032618877 0.099153265 0.046319667 -0.050269477 0.24021772 -0.07991048 0.08262577 0.100959346 0.06301551 -0.1521385 0.1466398 -0.12973695 0.027484506 0.023743426 0.13848522 0.09210338 0.06504408 0.034074735 -0.057661556 0.16712123 0.029698567 0.20207748 0.085896 -0.08004776 -0.020383116 0.122274324 0.0042660683 -0.06294296 -0.20376627 -0.14080934 0.12633249 0.028772987 0.03921163 0.044457637 -0.14809139 0.08234738 -0.028011376 0.06240312 -0.066041656 -0.02827383 -0.016793596 0.17886563 -0.03466996 -0.13233685 0.06879513 0.05300744 -0.060452953 0.017680522 -0.124299906 -0.012704596 -0.063513644 -0.18476859 -0.048891578 -0.14538309 0.1075887 0.13537875 -0.22285159 0.16596344 -0.0021110808 0.10391206 -0.1440597 0.07013135 0.1437022 -0.12881485 0.07830508 -0.13550371 0.115606144 0.10601985 -0.12384952 -0.14928818 0.004629905 -0.08949901 -0.09202817 -0.14372955 0.0051039313 0.13254069 -0.13905422 0.032428756 0.040817913 0.057398655 0.102808125 -0.11421445 0.08401645 0.039117463 0.012860771 -0.116427146 -0.15247113 0.08432101 -0.1592636 -0.009577349 -0.1468675 0.08024574 0.11737223 0.060959183 -0.051249214 0.10011518 -0.050748713 -0.1205973 -0.018330453 0.11450822 0.04383383 0.017118253 -0.013808061 -0.015419468 0.028551225 -0.12443162 0.06410377 -0.040125377 -0.0032453567 -0.1279929 -0.16185127 -0.025774479 -0.13701187 -0.03937207 -0.102322616 0.12118275 -0.10304132 -0.0960234 0.15953144 0.0012688206 -0.12961535 0.15495592 -0.13037904 0.101836264 0.14076109 -0.11215491 0.107048295 0.04824837 0.116270706 -0.107559904 -0.13410932 0.021549636 -0.016849726 -0.04639673 0.00658979 0.25407597 -0.115538046 0.22081985 0.057437044 0.053510647 0.06766999 0.07236079 0.13388132 -0.14872134 -0.113376275 0.021243703 -0.10156226 0.20087212 0.09432047 0.17147481 -0.14602098 0.06722633 0.058740523 -0.07513715 0.10670455 0.15017182 0.07729978 0.026548808 -0.04823424 -0.013338623 0.08966206 0.12522022 -0.14199957 -0.14957683 -0.040810056 -0.059801526 0.0009832615 0.070850454 -0.08763729 -0.15360336 -0.054778967 0.101672545 0.13831164 -0.06658857 0.12196825 -0.16604936 0.14033617 -0.209384 -0.02836909 0.079362996 0.014568259 0.022264786 0.08905694 0.00065016747 -0.110256195 0.07775082 0.07065028 -0.030135619 -0.21322702 -0.08696608 -0.16962199 0.0026765275 0.06961321 -0.08943568 -0.050854065 -0.12114183 0.087818086 0.053226776 0.06485524 0.03643879 0.061139323 -0.0639778 0.11119152 -0.05845784 -0.0243436 -0.11247236 0.05669873 -0.16640568 0.0827268 -0.08490082 -0.07541771 -0.15382306 0.13780639 0.037055053 -0.1486586 0.058621876 0.08443871 0.14177108 -0.02524562 -0.06365441 -0.12782426 0.23731385 0.22492127 0.081682235 0.049134187 0.12189402 -0.060771704 -0.13442588 -0.12752298 -0.1114705 -0.021987721 -0.04222691 0.03447813 -0.13364227 -0.16369382 0.09145909 -0.11659001 0.030676166 -0.044778366 -0.102153555 -0.1441047 -0.029877137 0.056818973 0.12495483 -0.11835021 -0.003372267 -0.0905597 0.0887687 0.1124867 -0.011061981 0.028570013 -0.12747315 -0.10943447 -0.009874766 -0.14812453 0.19663925 0.009927132 0.11879386 -0.0050997813 -0.055425316 0.01995216 0.1688985 -0.0751744 0.0685166 -0.082501836 0.11186777 0.14957695 0.10673474 -0.08132232 0.14154693 0.12208871 -0.06909786 0.042250097 -0.11586344 -0.11665656 0.10893549 -0.056478024 -0.09113571 0.10741303 -0.01974997 -0.07559434 0.0063833427 -0.03745448 0.0609333 0.08071616 -0.15644805 0.060962513 -0.014751116 0.041749835 -0.09429613 -0.065892585 -0.14302568 -0.14719428 -0.020476025 0.13609204 0.17806295 -0.041540034 -0.1222912 0.1038907 0.13028795 -0.04509382 0.012366592 0.08429762 0.074786305 -0.123597965 -0.0152402455 0.038992748 -0.039169274 -0.13503172 0.045983598 -0.10355119 -0.15721361 -0.03315809 -0.1530768 0.00952354 0.09727014 -0.044837784 0.07879831 0.11824063 -0.033986 -0.08736587 0.025337512 0.07883408 0.12605463 0.044116013 -0.123626664 0.003420566 0.021392634 -0.15711787 -0.15560086 -0.07275171 -0.0948528 0.08549975 0.14911169 0.063101575 0.22586612 0.0634798 0.13897416 0.023138335 -0.031431332 0.03333173 0.16424946 -0.053369213 0.1040145 0.029642584 0.07813072 0.027064666 -0.110697426 -0.14758883 0.11541801 0.04510104 0.055974536 -0.14508802 -0.14535019 -0.041762665 -0.075374216 -0.09789099 0.15367723 0.13618106 0.120060876 -0.12732095 0.07412049 -0.08837364 -0.020194571 0.04752676 0.1154104 -0.0935763 0.12605284 -0.090220235 0.06642763 0.039737225 -0.04050862 -0.033392727 0.14041092 0.066888265 -0.04343847 0.15047969 0.15594755 0.12143076 -0.015271492 0.14634213 0.0168365 0.114802115 -0.03558498 0.042950563 -0.07460971 0.051823765 0.25984147 0.18936287 0.117721945 0.032705564 0.07999571 -0.14111514 0.19666769 0.1946206 0.04136066 0.019152066 -0.17260788 -0.17937939 0.06507823 0.021755142 0.03180953 -0.10173208 0.09737214 0.033188168 -0.031227369 0.05339217 -0.10360906 0.08216327 0.062097877 0.08819004 -0.0004836636 -0.061018113 0.15438353 0.11587622 -0.104232006 -0.046147414 -0.19671151 0.00784413 0.080846235 0.07462959 0.01332249 -0.18997596 -0.10045682 -0.08441999 0.083553664 -0.03437148 -0.029948847 0.05923296 -0.13557391 0.022404443 0.023336204 0.005481561 0.099373996 -0.07122961 -0.011900883 0.12657683 0.0878096 0.11515743 0.11894876 0.09427808 -0.03310855 -0.09064203 0.12457639 0.14012803 0.0038253665 -0.021633888 -0.019493742 -0.18980716 0.012441018 0.10765575 -0.14003932 0.08830501 0.017220544 -0.032084614 0.16139567 0.008227 0.1064652 -0.019806169 -0.10074443 -0.06006567 0.27226922 0.045692604 0.1359825 -0.110619724 0.034185205 0.15076779 0.17657757 0.12488605 -0.11890822 0.089230806 -0.15032224 0.106639706 0.015444048 -0.002391254 0.10468637 -0.05481806 -0.11608206 0.06540611 0.06530436 -0.013323105 -0.040718205 -0.11257624 0.035960056 -0.11374033 0.12645492 -0.06238488 -0.02276793 0.123862736 0.045200866 0.08187858 0.16552222 -0.10475855 0.035998855 0.11666939 -0.0952001 0.002735293 0.036780998 0.012307532 0.020925906 0.04759021 -0.15090288 0.073695295 0.02002512 -0.07967518 0.11622639 0.033276305 -0.2018947 -0.04815375 -0.008952593 -0.08752879 -0.09903977 -0.17675322 0.1213753 -0.19656141 -0.026156656 -0.02484438 0.07056079 -0.0053903423 -0.13582224 -0.09249057 0.14319636 0.1439341 0.12164093 0.07258304 -0.037741095 -0.10630416 -0.09107235 -0.08495612 0.14458077 0.11635194 -0.074771985 0.1545916 0.03188445 0.09847048 0.24582408 -0.07523983 0.085385635 -0.014032128 0.15006565 0.047541767 0.18942599 -0.04857614 0.14285682 -0.007157725 -0.040705822 0.008653298 0.0974062 0.19904263 0.0039325277 0.12473954 -0.057831302 -0.0036834832 0.058492262 0.025139168 0.15462135 0.07684393 0.09177901 -0.055833306 0.1428797 -0.102153495 -0.12109403 0.07587912 -0.043393884 0.0115412995 0.08802062 -0.120930046 0.185973 0.22989745 -0.11422438 0.19041389 0.0047864476 0.049028654 0.12278002 0.12961537 -0.15209621 0.121460386 -0.2256423 -0.09214806 0.046953257 0.0063109263 -0.2814866 -0.18936417 0.14914115 0.053049076 -0.029518923 0.040132716 -0.073224984 -0.108495675 -0.045041133 -0.09115362 0.042117 0.03183473 -0.13625903 0.15299472 -0.12091034 0.06517204 -0.15853955 0.076780446 0.062065728 0.035067305 -0.05619465 0.023743557 -0.14919358 -0.15301917 0.06089447 -0.10519818 0.014213475 0.06988348 0.15066083 -0.011573196 0.035862718 -0.013727047 -0.03923674 -0.06709244 -0.11093256 0.057907216 -0.036853544 0.019239964 -0.106878795 -0.12820582 0.109979115 0.069517076 -0.11521377 -0.10014573 0.13278766 -0.1084007 0.1919706 0.21975824 -0.05595117 0.13471745 -0.14268404 -0.14826575 0.07997442 0.13274632 0.017150765 -0.13488509 -0.01632185 0.11710481 0.121874325 0.008202579 -0.04536111 -0.11003525 0.12331866 -0.16333896 0.061348442 0.004461494 -0.09091955 0.022518871 0.09944578 0.111588776 0.17117879 -0.081305176 0.04022029 0.0519956 0.013080847 0.1324232 0.10964346 0.053399924 0.0046121245 0.0074306624 -0.06444395 0.12672615 0.00037240982 
-0.13202178 0.14942865 -0.07595118 -0.07929228 -0.14279939 0.07254919 -0.108731486 0.058165886 0.10307617 -0.07234487 -0.10452533 0.008249937 -0.070516 0.09239732 0.12361805 -0.15630782 -0.029710457 -0.13088995 -0.042982955 0.11156428 0.043089166 -0.09045131 -0.16303778 0.030502964 0.15865631 0.03913915 -0.07074587 -0.07323007 0.097037666 0.064673305 -0.06183465 -0.044379607 -0.17473872 0.16164704 0.01823515 0.10997622 0.08621967 0.004687097 0.033665698 0.004329229 
Rect
Linear 40 2
-0.046755195 -0.21462406 -0.15845077 0.14791512 -0.03223957 0.23399307 0.1227554 -0.02237684 -0.24878976 -0.026312057 -0.12697291 0.051926494 0.09826119 -0.083674744 0.10205117 0.056024034 -0.0004994571 -0.037274666 0.135411 -0.32510462 0.10506684 -0.13198712 -0.18971764 0.21886452 0.20752943 0.07904767 0.16972238 -0.026182711 0.21662004 0.11246821 -0.084856875 0.22291858 -0.103810355 -0.13896902 0.11138214 -0.0075446726 0.06653858 -0.25013152 -0.1049914 -0.18429494 -0.1453613 0.17011222 -0.059596915 0.06148693 -0.009947479 -0.20024198 -0.053870812 -0.013560072 0.109301865 0.076985024 -0.07045284 0.0623952 -0.07013062 0.12555322 -0.04518138 -0.13325134 -0.041913576 -0.11688702 0.06501484 0.2860257 0.08416311 -0.02557531 -0.02255962 -0.190664 -0.15446258 0.051854607 -0.17362617 0.23867354 -0.061659593 -0.10155154 0.08994134 -0.02104098 0.057803765 0.19009466 -0.17889586 0.19995394 -0.2619844 0.28990325 -0.09034863 0.058949526 
-0.046130557 -0.03749921 
