Linear 19 40
0.061296538 -0.38713098 -0.06934393 0.34010038 -0.28131878 -0.107194506 0.1451746 0.15794547 0.016569158 0.015567222 0.21003166 -0.39423087 -0.03204656 -0.064261295 -0.06942242 0.19250283 0.08827066 -0.082354054 -0.43808478 -0.19166231 -0.011272429 0.0021211205 0.022154108 -0.19529463 0.090941 -0.18267621 0.023022266 -0.05211921 -0.12218204 -0.090718344 -0.055986386 -0.038690932 -0.1713843 -0.17807955 -0.15083608 0.05678014 0.11409529 -0.16731432 -0.14424565 -0.1409554 -0.19209568 -0.032791715 0.15971477 0.10328718 -0.012765668 -0.16245258 -0.11436985 0.07290476 -0.017761284 -0.19883063 -0.097985454 0.073117875 0.2519945 -0.09883316 0.14290687 -0.046989717 -0.16476208 -0.06687753 -0.029497184 0.109241985 -0.6476602 -0.03761247 -0.16303773 0.06485566 -0.098351546 -0.19089091 -0.020664588 -0.06584701 0.41029546 0.6302364 0.063934475 0.12621284 -0.11437212 -0.10798407 0.098367624 -0.010925424 -0.11319349 -0.06256134 -0.15896472 0.12000071 -0.20205468 0.1426261 -0.022487555 0.051883638 0.16861019 0.1732773 -0.0809079 0.18501116 0.14096755 -0.16386318 0.15959913 -0.20400256 0.018834133 -0.20641558 0.108692855 -0.22777475 -0.052792475 0.1899559 0.03397413 -0.22521448 -0.20959032 -0.17292893 0.11929795 -0.18643548 -0.0051002153 -0.13200969 0.17582414 0.122937985 -0.099125914 -0.08011724 -0.105876625 -0.13353582 -0.10245187 -0.036345743 0.14434919 -0.20963556 0.05555423 -0.19605659 -0.09272325 -0.11952498 0.03338884 0.017520713 -0.14030795 -0.111963905 -0.08422792 -0.30634663 -0.18886878 0.1450036 -0.11684791 0.15152091 -0.1405667 0.062587105 -0.15463464 -0.15335967 0.2620159 0.16421238 0.17100586 -0.11495076 0.18762225 -0.2780808 -0.08118465 -0.13636918 0.022361545 -0.24930674 0.17679165 0.21020152 -0.37455606 -0.034158263 0.110536695 -0.037283164 0.18573359 -0.043829173 -0.31800127 0.3087796 0.075474046 0.041264422 -0.22304404 0.3571653 -0.04099739 -0.1532205 -0.17383593 -0.21750158 -0.1407782 0.124822564 0.3657224 -0.3299671 0.3528307 -0.115518816 -0.026819138 0.312231 0.00072904886 0.03948734 -0.058343604 0.03271429 0.32107696 -0.19066924 0.29882342 -0.19410372 -0.091616616 -0.11698349 -0.0746558 0.12337917 -0.07067158 -0.054661535 0.01844264 0.15989022 -0.024597434 -0.19899447 0.063111044 -0.035757646 -0.3301632 0.19798675 -0.21913318 0.30461505 -0.012260318 -0.14742024 0.10151857 -0.12301106 0.036253788 0.01523075 0.18241766 -0.26320836 -0.16688281 0.058990784 -0.2513967 -0.14577848 0.21568689 -0.15608998 0.04083519 0.14450815 -0.022783207 0.01919086 -0.18604739 0.19033548 0.14514697 -0.084314875 -0.16724776 -0.13000524 -0.1561943 -0.24216051 0.9153835 0.99516 -0.13985188 0.10332379 -0.18746597 0.03503211 -0.09535798 0.1066529 -0.1315209 -0.26571357 0.06629279 0.24602905 -0.2489886 -0.4167578 0.15931784 0.22774361 -0.13097435 0.044272024 -0.02551219 -0.33702153 -0.24803069 -0.112900175 -0.020407556 0.22791387 0.14651754 -0.114732906 0.004477959 -0.19241248 -0.07381401 0.04793375 -0.27397865 0.08933677 0.18187293 0.054246116 0.0099116145 0.0062276833 0.14549589 -0.08051069 -0.5643487 -0.56304455 -0.05353927 0.22827138 -0.16071452 0.22844954 0.13978912 0.16882288 -0.022217397 0.40517902 0.09644046 0.2614128 -0.17384696 -0.053620372 -0.040530194 -0.02885421 -0.011447535 -0.046152838 -0.025170803 -0.03244637 0.4626408 -0.34288874 0.15480158 0.11004121 0.028939573 0.17620233 0.15029624 0.03951957 0.045756515 -0.009746952 0.061246663 0.12480475 0.20116833 -0.09138991 0.18316379 -0.06792156 0.13629232 0.15298262 -0.42362845 -0.56246704 0.10915482 -0.009424601 0.139791 -0.090591386 -0.21077503 -0.17570056 0.109511256 0.05660753 0.24367091 -0.24035041 0.077140406 0.060383815 -0.11014595 -0.07524778 -0.03760377 -0.04227899 0.038529303 1.107135 0.96637064 0.07442327 0.007129427 -0.009640141 0.0036278295 -0.18613952 -0.019648602 0.08452091 0.0650271 0.2362652 -0.58885413 0.20026189 -0.080111995 -0.15303908 -0.116235055 -0.0768038 -0.07365997 -0.21534367 0.7003004 0.86123604 -0.1690959 -0.15896757 -0.01260469 0.019411718 0.038068872 -0.2323569 -0.27526537 0.04079617 0.040118616 -0.16137457 -0.27829957 0.12210392 -0.0812309 0.037384808 -0.0008225905 -0.17742302 -0.07520349 0.18815996 -0.22450416 -0.027361114 0.09257752 -0.16899319 0.12984885 -0.06513688 0.332767 0.21309723 -0.03613479 0.23049733 0.056225 -0.20555107 -0.07914846 -0.10921732 -0.10945722 -0.19312614 -0.08925679 -0.24733384 0.089981556 -0.40756994 0.116905876 -0.24433735 -0.03326523 0.13513994 0.05893505 -0.24244325 -0.29310736 -0.036493286 -0.0059586847 0.1220639 -0.07808605 0.42895228 -0.15477863 -0.1284467 0.11387464 0.006088737 -0.015714629 0.23333399 -0.07828478 -0.1214597 0.22401232 0.10918457 -0.12510511 -0.21474494 0.11122574 0.1925432 -0.30682477 -0.12883171 0.2563197 -0.18777032 -0.39790362 0.23279293 0.1308533 0.06105748 0.11677153 0.22547945 -0.8152574 -0.5603809 -0.13825333 0.18666193 0.10325779 0.25159878 0.14008124 -0.31350374 -0.049424004 0.036493186 -0.1596668 0.20783508 -0.0418279 0.015006948 0.08867704 -0.19062288 0.074885555 -0.025426503 -0.0061178096 0.23441839 0.09741417 -0.26959267 0.0045185215 -0.17431639 0.03412565 -0.06587427 0.16163261 -0.25810918 -0.15992829 -0.18735123 0.2725774 -0.057158567 0.012143867 -0.08865776 0.018910054 -0.034765303 0.15920644 -0.18749487 0.023948727 0.25624192 -0.3178785 0.117687754 -0.19676894 0.07227838 -0.38330668 0.23921415 0.09571012 -0.21341579 -0.21564694 0.035783686 -0.17759696 0.035179585 -0.17681208 0.075225756 -0.031650133 -0.13229051 0.073324166 0.19674173 0.107476056 -0.23677021 -0.24296807 -0.09823089 0.18467252 -0.02321059 -0.10640243 -0.05176052 -0.23986684 -0.1596601 0.2596757 -0.26670593 -0.03725502 -0.05990966 0.06183816 -0.00039744913 0.026674036 0.08642309 -0.11974611 -0.016865773 -0.033857934 0.03574886 -0.12855022 0.11100104 -0.2809471 0.22880997 0.12598819 -0.13923587 0.35428908 -0.2560015 0.06851713 0.03837258 0.0028139332 -0.06472569 -0.00074940035 0.0580521 0.06254279 0.8404581 0.78047836 -0.17855565 0.15027316 0.03684331 -0.2724572 -0.22517306 0.17218193 -0.13780068 0.04811762 -0.12386288 -0.22941154 0.10135684 -0.18039227 0.024649754 0.2392346 0.1761635 0.049563568 -0.10644696 -0.2307451 -0.15036719 -0.079725824 0.17843245 -0.15985903 -0.17422307 -0.045309164 -0.17437622 -0.08837301 -0.028240733 0.22999816 -0.2803177 0.035610795 0.32777932 0.09391115 -0.01138736 -0.10163802 -0.09225694 0.1955173 0.06904386 -0.3374625 -0.13746266 -0.13633595 -0.2115066 0.17149931 -0.26801774 0.16499749 0.29413688 -0.12870716 -0.14640282 -0.18192624 0.2630226 0.13527578 -0.07224693 0.19498213 -0.17006777 -0.11630187 -0.07622385 0.24953608 -0.1167306 -0.048638668 -0.32450494 -0.1762927 0.078341715 -0.1689739 0.09376309 0.05207517 0.08005352 -0.22389594 0.07597686 -0.076478094 -0.07935137 -0.050803624 -0.21672294 -0.034922246 0.036065165 -0.2232236 -0.111757696 -0.16888796 -0.15846485 -0.14832321 0.14834766 0.058793377 0.07427029 -0.18806112 -0.13842791 -0.14172052 0.16392314 -0.223866 -0.2481236 -0.04563214 -0.04994797 0.16500817 0.033757284 0.0052768206 0.07034387 -0.0053405524 -0.28800648 0.113117516 0.043796673 0.08826656 0.14734448 -0.23541866 0.008754145 -0.12199047 -0.025708066 0.12351155 -0.09618156 0.1720241 0.3665994 -0.1430099 -0.04946849 0.0108259935 0.07268014 -0.19734497 0.32237226 0.62036514 0.13295141 0.0737203 -0.05779029 -0.13348457 0.176487 0.107969716 -0.060737263 0.25539097 -0.11774492 0.07727485 -0.2604242 -0.24350305 0.016132494 0.065556586 0.112858824 0.025375202 0.057265505 -0.21988069 -0.4015748 0.05568117 -0.2666469 0.10706651 0.10044154 -0.0009894838 -0.089594916 0.1842323 0.020209143 0.09134528 -0.11883394 0.003761474 0.08473264 -0.047111966 -0.053859 -0.03999446 -0.072938584 -0.0679876 1.0740908 0.9336156 -0.015455506 -0.025012268 -0.12531249 0.050311655 -0.17697354 -0.04225363 0.14780731 0.007028545 -0.06503936 -0.16205026 -0.012255198 -0.16746505 0.06637258 -0.112291574 -0.12554485 0.036717683 0.058308076 -0.21319972 0.052880373 0.28884518 -0.22500268 0.10547809 -0.3902026 -0.22664005 -0.25272977 -0.22448383 -0.014135724 -0.12519132 0.21526475 -0.17681922 0.25024587 0.19338049 0.08051566 0.010708246 0.08777506 0.030204294 -0.2600614 -0.39412677 0.30901048 -0.1768692 0.14655025 0.10669004 -0.1316684 0.01557429 -0.21579929 0.33980438 -0.103332825 0.23620795 -0.13364466 -0.22582684 -0.08752296 0.25242987 -0.1118026 0.19941065 0.102994196 -0.047993824 -0.33214214 0.22982848 -0.2089318 0.1599384 0.027877249 -0.2626453 0.22841886 -0.037424643 0.18646158 -0.15281703 0.16626608 0.044642996 -0.3888063 0.08129481 0.013878743 0.13060802 0.10535036 -0.033436313 -0.8641528 -1.0026804 0.09341223 0.007801057 0.14567353 0.18842627 -0.11534857 0.12212494 -0.0768917 -0.017022416 0.3050271 -0.02876776 0.0928303 0.17303427 -0.1957136 0.09306972 0.0670754 -0.16557227 0.062468555 0.29889214 0.778371 0.0732404 0.1306864 -0.10041107 -0.14755914 0.011038312 -0.15654787 
-0.10372217 -0.11827529 -0.21403876 0.10020654 -0.298563 0.15337895 -0.08969535 -0.18033019 0.0909673 -0.089540645 0.13949966 0.105147235 0.2216109 0.021749746 -0.26956102 0.040228907 -0.074371375 0.077210754 0.0052599106 -0.21439664 0.09665827 -0.10235078 -0.25713024 -0.14826338 0.12266862 -0.2306808 -0.021101475 -0.1690682 0.16603625 -0.07679581 -0.21541987 0.09444706 -0.15773192 0.09022916 0.0816971 -0.018104 0.07695112 -0.14008036 0.2992148 0.00381985 
Rect
Linear 40 40
-0.19755982 0.030378325 -0.1324237 0.0025056226 -0.07481787 -0.15877932 0.025085822 -0.09754078 0.18052164 0.12917487 0.09130343 -0.021698225 -0.055513643 -0.15352 0.013993573 0.022662293 0.16856761 0.16196315 0.0557845 -0.14835931 0.00782233 -0.020582149 -0.013641598 0.025857393 -0.0110667385 -0.02358224 0.12446391 -0.14256394 -0.22387849 -0.052690115 -0.026369078 -0.107109115 0.13716415 0.00564044 0.17577627 -0.10195433 -0.058846306 -0.18989263 -0.12463784 0.09001296 -0.2346885 -0.15698542 0.01469074 0.13065696 0.13396437 -0.01824369 -0.095948406 -0.12666197 -0.1751763 -0.110133424 0.053086545 0.13144282 0.045089457 -0.3933748 -0.07918087 -0.052938085 0.18250018 0.2568891 -0.24365586 -0.18583663 -0.09214457 -0.16515446 -0.0704391 0.23120104 -0.060352374 0.098310575 0.18761449 -0.0003216878 -0.11887165 -0.21454665 0.030919809 0.021635745 -0.10321771 -0.1627076 0.120959856 -0.17903419 -0.09640448 -0.00184871 -0.21062307 0.11195837 0.22408073 -0.024922926 -0.10943012 -0.19710767 0.0122877145 -0.04998194 0.17160426 -0.045028314 -0.009779404 0.11811443 -0.07065083 0.0027766407 0.12586997 -0.07567679 -0.017515607 0.11699104 -0.13851647 -0.12536857 -0.03617226 -0.02517378 -0.15504816 0.22261846 0.083293766 -0.1558317 0.20062692 -0.076490454 -0.17916647 0.003922899 -0.09028473 -0.17973477 -0.11813093 -0.15502554 -0.036474492 -0.14025927 0.021020284 -0.12667143 0.15333587 0.12291985 -0.017603103 0.12884058 0.048394673 0.12429979 -0.11489211 0.18216005 -0.024289152 -0.10573177 0.03298547 0.122090496 0.26444036 -0.0309314 0.21687055 -0.051915675 -0.0431601 -0.13615516 -0.10114894 0.049280263 0.16053817 0.054826155 -0.15388542 -0.077209726 -0.07796791 -0.10486439 -0.06653553 -0.089582324 -0.02041728 -0.15572552 0.16023213 -0.15933934 -0.22956835 -0.018474067 -0.15203172 0.0458779 0.046668034 0.043688394 -0.049591687 0.13564408 0.107170425 0.029831374 -0.30012998 0.16011178 -0.15959916 -0.09040314 -0.09695439 0.13112743 0.2868227 -0.11861408 -0.113298364 0.19283417 -0.0020205907 0.13121493 0.06975963 0.08429588 -0.15064852 -0.13053015 0.17088784 0.08689488 0.35731095 0.26286128 -0.084682666 0.027414698 -0.02957599 -0.21757746 0.02841758 0.32930765 -0.101549976 0.029844169 0.2021917 -0.068975754 0.12138187 0.1695123 -0.02889365 -0.046786573 0.019749006 -0.0024116964 0.26988313 -0.10825223 0.18551074 -0.19228633 -0.3286904 0.24316601 -0.027535768 -0.13793652 -0.11128185 0.26773047 -0.042847455 0.015081663 0.014709357 -0.024675217 -0.014620282 -0.08807616 -0.00016904107 0.17108013 -0.03837413 0.082844585 0.052338455 -0.031941034 0.22892025 0.24656664 -0.055148073 0.05226269 -0.12132604 -0.046764847 0.011992846 -0.025686635 0.024130255 0.13813995 0.11366399 -0.088773064 -0.19362144 0.07761762 -0.07923459 -0.13048023 -0.019990318 -0.066070095 0.041842297 -0.1483991 -0.16071792 -0.08622461 -0.29116884 0.090865485 -0.015060812 0.022860289 -0.046218306 -0.07887379 0.07204999 0.12404433 0.11036092 -0.05837471 -0.054406807 -0.09926294 0.025101373 -0.109500796 0.04283061 -0.015611196 -0.018704932 -0.045777626 -0.11874471 -0.1183658 0.092358544 -0.0524165 -0.04111086 -0.11071403 2.6472759e-05 -0.11421965 0.0014501974 -0.14539127 0.027234914 0.13584599 -0.1416992 0.065875895 -0.09468311 0.08898709 -0.1339348 0.104122005 0.06815985 0.15649684 0.02981581 0.009480284 -0.10864486 0.13843562 0.04383745 0.11988423 0.074319035 -0.20627962 0.14196995 0.0017760982 0.050502047 -0.08405509 0.0882732 -0.026368452 -0.102996856 0.04507857 0.061559405 0.06578388 0.054755565 0.11551 0.17640561 -0.12775162 0.12720703 0.082161866 -0.058773834 -0.14819683 -0.0016456142 -0.102869175 -0.06616861 -0.13151182 -0.18390699 -0.080347694 0.033485934 0.0040305345 0.092135705 0.078638494 0.15166643 -0.087424606 0.078062 0.17840463 0.11785803 0.051459238 -0.0698444 0.11307552 -0.14564149 -0.0018211469 -0.09385823 -0.032110427 0.18843083 0.11074694 0.066109926 -0.013684296 -0.13668701 -0.12184596 0.07543227 0.18673389 -0.028584426 -0.21825182 -0.0017428477 -0.0016206441 0.113008656 0.28361318 -0.16664131 -0.13694379 0.051045775 -0.2107796 0.12482901 0.18534914 0.1951965 0.032294683 0.087749645 -0.09197391 -0.016392868 -0.13690065 -0.118662104 -0.04943673 0.17808624 0.017200531 0.14093228 -0.16649649 -0.14178559 -0.09131417 -0.19357349 0.11237222 -0.089996964 0.0038983822 -0.0069300383 -0.09817026 -0.0069814622 -0.09006732 0.0442154 0.041053228 -0.11350006 -0.10979005 -0.124177314 0.060664292 0.11252253 -0.10229598 -0.079630755 -0.15787311 -0.13040198 0.06848105 0.047398046 0.15713488 0.095802054 -0.099446416 0.033777937 0.12961443 -0.00081872946 -0.04062797 0.0045596957 -0.039125636 0.08432687 -0.091082774 -0.074886605 -0.03348171 -0.03973448 0.08188123 -0.090268366 -0.1369088 0.0062753106 -0.03888049 -0.027536998 0.106306724 -0.16904207 -0.064105414 -0.06838407 0.021696035 0.1455247 0.13285658 -0.061830454 -0.0664728 -0.013026981 -0.1828495 0.14034887 0.1962964 -0.018230416 -0.03063559 -0.10044764 -0.21502237 0.20960456 0.23547427 -0.1638738 -0.11850587 -0.0033947441 -0.1862509 -0.112438194 0.014667709 -0.097757995 -0.049803793 0.1163693 0.08394996 -0.25959897 -0.027473724 0.06501954 -0.01972091 0.05979466 0.07990677 -0.03812847 -0.041061454 0.044249464 0.06602958 -0.11896404 0.19916977 0.22707628 -0.04350218 -0.08399159 -0.14692411 -0.13716653 0.06749658 -0.0058258 -0.061837688 -0.078889295 0.0012172379 0.24996944 -0.05705933 -0.116428025 0.15146567 0.062333833 0.10234654 -0.25153917 -0.15449333 0.13109735 0.17886394 -0.15785515 0.18648203 -0.009745054 -0.13440034 0.13990799 -0.12689453 -0.17361598 0.09483046 -0.12803936 -0.06800596 -0.09016677 -0.15079924 -0.036897864 -0.003818604 -0.036408823 -0.17448844 0.11577068 0.0024797607 0.11919112 -0.119201526 -0.025633013 0.1556933 -0.030722806 -0.008229864 -0.12589331 0.016421968 -0.006428126 -0.12955205 -0.15786527 0.08373521 -0.11374019 -0.0692979 0.08080195 0.046794023 0.16121134 -0.08633075 -0.105087 0.047976047 0.13122846 -0.1488483 0.06840765 0.052802153 0.0038785455 -0.01775432 -0.013434282 -0.10290389 -0.14008048 -0.09368693 -0.14192066 -0.08839011 0.15880504 -0.022696488 -0.042561077 0.039057195 0.09766862 -0.0068380865 -0.101928085 -0.06609436 -0.15108092 0.12159981 0.11165343 -0.039318483 -0.14912999 0.027841344 -0.064311154 -0.09802357 0.10682382 -0.2467803 -0.34662724 -0.14230059 0.235123 -0.3521315 0.11804519 0.060906086 -0.24028961 0.0021975078 -0.19145034 -0.021602457 0.032385327 0.10158626 -0.17114908 0.035565775 -0.13533112 0.08622391 0.08188833 -0.013920636 0.000996663 -0.14991413 -0.21678962 -0.3500057 0.034079153 0.051952247 -0.033413053 0.18844856 -0.24127524 -0.050234813 0.18640916 0.31193584 0.2493208 -0.064960174 -0.017201288 0.052615996 -0.18051021 0.03295664 0.04113582 -0.03166439 0.044768125 0.1285129 0.28773078 -0.013559578 -0.038977545 -0.3515682 -0.24291062 0.025974538 0.12761451 -0.011251351 -0.071447715 -0.13892153 0.036987703 -0.047035333 0.0972572 -0.06670444 -0.10757262 -0.1952356 -0.006468787 0.018993372 -0.22954945 0.1743542 -0.011632394 -0.04368575 0.036173508 -0.15751266 0.18296479 0.08600282 -0.029256519 -0.094180405 -0.049247827 0.03445831 -0.13903123 0.006493445 -0.13444299 -0.031720903 0.02072339 -0.053390637 -0.13163999 0.1360928 0.04623915 -0.088555664 -0.0517198 -0.13702616 0.04817396 -0.16672339 -0.05457266 -0.11880527 -0.12224781 -0.050720554 0.058128037 0.13676713 0.097481355 0.016756138 -0.03111799 0.053864986 0.0012795115 -0.11300482 -0.1255872 0.034365833 -0.093309335 -0.13056162 0.10788189 -0.041403446 -0.121507645 -0.039401393 0.13474432 -0.12152206 0.13307779 0.040203463 -0.13285898 -0.067920804 0.021644192 0.09142807 -0.11973236 0.10738985 0.012777799 0.1764753 0.07841237 -0.043382436 -0.09431829 -0.1950811 -0.11704734 -0.11973694 0.12882961 0.1829786 -0.016713405 -0.23097189 -0.041405465 0.075108975 0.24533132 0.025314566 0.007434502 -0.044589877 -0.028098756 -0.026641743 0.14244463 0.31975508 -0.013067629 0.13129066 0.15807703 0.114950396 -0.16309223 -0.1928112 0.04609127 0.030124305 0.049200945 0.17081596 0.08560147 -0.1358219 -0.06509956 -0.004467352 -0.15740135 0.103688486 0.09046193 -0.025446936 0.059249368 0.12038758 0.15466483 -0.0010774779 -0.021908589 0.056365848 0.055337574 0.1887335 0.05211572 -0.12075025 -0.12986673 -0.05010925 0.07416105 -0.03421147 0.13387437 0.19002388 -0.024312032 -0.0021350728 0.21084765 -0.027480606 0.10550467 -0.09366852 -0.0061075413 0.103099786 -0.155782 -0.12430593 -0.05535025 -0.13113339 0.14993794 0.03161493 0.078544565 -0.15116718 -0.08985779 -0.049317967 0.0056100395 -0.1297189 0.0019840652 0.11975339 -0.101217195 -0.105769366 0.032785643 0.058251634 -0.11896098 0.11904395 -0.07583045 0.04271416 -0.2575428 0.020352483 0.010012395 -0.016983606 0.11800411 0.22784533 -0.2538524 -0.043871175 -0.28340888 -0.066003375 0.17706011 0.2511799 0.110851854 0.195716 -0.0013745751 -0.10442388 -0.15120596 0.030183181 -0.1553729 0.09506044 -0.04731766 -0.11804659 0.07629457 0.08331399 -0.07050745 0.081663266 -0.2049825 0.053372137 0.24865334 0.26052147 0.2781943 0.025883157 -0.17701784 0.05971454 -0.02213134 0.106131814 0.03845257 -0.04844225 -0.023556625 -0.2799974 -0.15217045 -0.08404774 0.12320085 0.30635962 0.14592879 -0.15397845 -0.19970421 -0.2545612 0.22226556 0.25487036 -0.11466094 -0.277655 -0.12151294 -0.33729982 0.2381258 0.133024 -0.06015922 0.26616305 0.21080926 -0.15746453 -0.12285605 0.0746703 0.121994086 0.08376673 0.0862716 -0.15719587 0.21277232 -0.16728044 -0.14966466 -0.18271804 -0.15018587 0.015862022 -0.1173285 0.09495467 -0.036331423 -0.052476067 0.07046217 -0.01695479 0.027835386 0.0689779 -0.11914499 0.13748983 0.008070342 -0.08017771 -0.13395603 0.121088155 0.0070742765 0.074189045 -0.06507815 -0.021097105 0.12743369 0.026866233 -0.01125432 -0.14053556 -0.029894153 -0.106081195 0.11399144 0.035815828 -0.20316435 -0.043069202 -0.036568835 0.110044114 0.091158636 0.058408 0.066459596 -0.15359421 0.004660935 -0.09067839 -0.006774197 -0.021119611 0.045123886 0.071098275 0.29179743 -0.077544615 0.14388502 -0.14483872 -0.08997403 -0.07987953 -0.11675839 -0.07952854 -0.04906215 -0.14790235 -0.026923776 -0.04860297 0.08531915 -0.022511464 0.10557106 -0.04017809 -0.27591553 -0.122295596 -0.13504972 -0.09978741 -0.19243519 0.29803005 -0.07333925 -0.18162407 0.07434646 0.14029458 0.05718957 -0.031425193 -0.0066888025 -0.18590176 -0.060599495 0.15132613 -0.24167103 -0.09047034 0.03391672 -0.17444359 -0.097489126 -0.16692945 -0.06187602 0.09015864 0.03783043 -0.075045854 -0.0724238 -0.036935788 -0.05986969 0.14301331 0.028058078 -0.15242404 -0.1567979 0.1460987 0.03011217 -0.053184975 0.13735546 -0.02714279 0.01275309 -0.15762499 -0.14481544 -0.1554873 0.055382453 0.10636347 -0.08802482 0.060666077 0.15513305 0.03781183 0.006483386 -0.04029216 0.026493093 0.1205578 0.100861154 -0.15407792 0.060591526 -0.08155092 0.123539254 -0.11082266 -0.15166143 0.08157542 -0.052793976 0.0014793051 -0.022365337 0.014100858 -0.05586548 0.027276069 -0.07500766 0.10007646 0.053713426 -0.091722935 -0.025381085 -0.0003983907 -0.029518405 0.11916985 -0.0797267 0.03950552 -0.13714986 -0.027870174 -0.11725262 -0.03151111 0.06816407 -0.021224132 0.119969085 -0.034679405 0.0713119 -0.038660746 -0.11454076 0.024665812 -0.0659579 0.08339488 -0.040845685 -0.1173018 0.12193467 -0.16622666 0.02424185 0.14846525 -0.09848324 -0.16655423 0.108115286 0.030829929 0.1076172 0.036873814 -0.035354532 0.06590754 -0.15914108 0.06762047 -0.06401802 -0.09998752 0.04293576 0.00525908 0.13080984 -0.09034342 -0.1392627 0.013525548 0.012702528 -0.08851979 -0.058935635 0.1219203 0.12464984 -0.075030506 -0.049893167 -0.052657396 -0.06418076 -0.016929261 0.045493733 -0.08775166 -0.028506346 -0.14427441 0.094578736 -0.04152954 -0.1039632 0.15007703 0.0477848 0.09077204 0.10736133 0.04698822 -0.08766436 -0.14986683 -0.06868719 -0.0451913 -0.032050762 0.08626855 -0.15211552 0.069199204 -0.03503512 0.016063834 -0.07731768 0.1519212 0.018257298 -0.020960247 -0.038254175 0.09498902 0.034899656 0.12231138 -0.16344121 0.1838724 -0.1752924 -0.14443295 -0.056646872 -0.07423784 0.19725738 0.1930117 -0.049973648 0.05696092 0.089352034 -0.2908177 0.11417828 0.035401013 0.12688437 0.20426425 0.27657795 0.10197424 -0.12019364 0.02704252 0.06641363 -0.14385967 0.24838443 -0.052440036 0.18833779 -0.14517745 0.15436088 -0.19676618 -0.38164687 0.17008129 0.06218656 0.07697733 -0.02397878 0.028839825 -0.114959285 0.13673504 0.1275487 -0.0047043827 -0.13847218 -0.115097605 -0.10516452 0.09425356 -0.10458112 -0.13220114 -0.04861317 -0.12600541 0.069326654 0.07867899 -0.14822437 0.111932 -0.015284554 -0.08351607 0.012263382 0.02663116 0.043659892 -0.09729748 0.19387215 0.123507135 0.111769564 -0.026504861 -0.0022214465 -0.12674744 0.12400256 -0.030344525 -0.034867737 -0.0314857 -0.11841206 -0.13141908 -0.07574156 -0.08384185 -0.04943088 0.10120369 0.060773388 -0.14877445 -0.035744175 -0.06631152 0.04006434 -0.028084567 0.027550794 0.023733137 0.014393882 0.13799681 0.068120174 -0.19782102 0.16813862 -0.1459134 0.12294088 -0.05932 0.08110096 -0.06846581 -0.04919982 0.005990467 0.15171884 -0.11521188 0.103394024 -0.14726909 0.057810932 -0.1330391 -0.09459445 0.071696125 0.10078187 -0.020926459 -0.16451815 -0.1298484 0.09136839 0.08891717 0.031841762 -0.14988871 -0.11263975 0.07981827 0.109215766 0.07943636 -0.046095587 0.018280445 -0.05995071 -0.055944238 -0.022548568 0.040479984 -0.034643758 0.025951505 -0.015697768 0.08202356 -0.07036824 -0.018145373 -0.032139067 -0.10931542 0.059549797 0.07643932 0.023934487 0.033193693 -0.09221355 -0.12853022 0.047487225 -0.010817503 -0.07326564 0.14978962 0.09735772 0.13259508 -0.14352936 0.026132872 -0.14766908 -0.0946186 0.04323653 0.06304766 0.096738376 0.096590675 -0.088328935 -0.056783836 -0.05305659 0.038361207 -0.009995961 -0.080891006 0.108860545 -0.2065622 0.08261091 -0.15141271 -0.1565318 0.062414087 0.20266232 -0.005201812 -0.0062912777 0.08254378 -0.025587527 0.11176908 0.16035722 0.0444388 0.031954557 -0.1634234 0.11837534 -0.045083694 0.16169244 -0.22389998 0.042740613 -0.011578151 0.1234528 0.07835817 -0.1407405 -0.067417145 -0.08621187 -0.10396409 0.015075375 -0.08337859 0.14273508 0.09435449 -0.14211436 -0.13482973 0.064021066 -0.1440643 -0.15579957 -0.087266244 0.102792665 -0.1481661 -0.0068441727 0.15502462 -0.0031598802 0.115789115 0.05474044 -0.19815437 -0.15910518 0.06891045 0.23256429 -0.39439413 0.08817329 -0.07310837 0.0019424241 -0.23448034 -0.06352184 0.15100291 0.05444365 -0.058628604 -0.12198628 0.120574474 -0.021599934 0.09954193 0.032870043 0.17973474 -0.21886742 0.072370745 -0.05025181 -0.031764273 0.019768272 0.1133799 0.12689541 -0.08549071 -0.065633304 -0.013899003 0.101119384 0.24106982 0.22667472 -0.08834752 0.14990912 0.09520905 0.07378681 -0.109128505 0.14983924 0.1142851 -0.005591165 -0.12663132 -0.034839448 0.09836319 -0.110422574 0.046536267 -0.103015885 -0.033935815 0.055171195 0.076502986 -0.08847129 -0.11052681 0.0144209415 -0.013751723 -0.1208479 -0.052680224 -0.14440969 0.00947167 0.09486028 -0.040407725 0.01698725 0.042825967 -0.07255589 0.12555517 0.011669859 0.09085691 -0.10413647 0.02928273 -0.14316526 -0.030233309 0.033646576 -0.10850124 -0.11376792 -0.11348581 -0.085939616 0.10106156 0.050278813 -0.062238656 0.02695924 -0.11321261 -0.14599651 -0.06294284 -0.099731945 0.0060514417 0.1102031 -0.25662148 -0.06635308 -0.018771062 -0.15565531 0.00097055064 0.013344284 0.0040408825 0.002142244 0.17594582 -0.14351538 -0.1396909 -0.14208643 0.07396116 -0.12986842 0.026149593 -0.11873312 -0.166851 -0.12533665 -0.11962146 0.052381076 -0.07593852 -0.019465407 0.050443016 -0.060331546 -0.06537443 -0.058542706 0.18039824 0.09179771 -0.021683024 -0.13826923 0.1101312 0.0441031 0.1680565 -0.0070801936 0.12057457 -0.01610402 0.07465775 -0.05879424 -0.19149014 -0.04034803 0.10998748 -0.017333256 -0.13927864 -0.010057413 -0.15888974 0.23076676 0.40222862 -0.15331194 -0.1826476 -0.060761735 -0.38401246 -0.0729307 0.05486167 0.14568537 0.21239898 0.12581728 0.060547348 -0.13938212 -0.074164115 -0.008313751 -0.041944545 0.15791665 0.12031108 0.2911551 -0.09375694 0.11075595 -0.035806507 -0.31838688 0.05335923 0.021250173 0.091201305 0.13002075 -0.12414233 0.13772698 0.08552693 0.0009517005 -0.15136139 0.015016854 0.015893454 -0.087226726 -0.095197044 -0.13022594 -0.0075724185 0.009401504 0.12029351 0.1039239 -0.053211186 0.02696076 0.14431643 0.08632062 -0.0058625117 0.09660061 -0.11167222 0.01748075 -0.00027092625 0.10660845 -0.030277703 -0.14309269 -0.027356572 -0.011681013 0.036102187 -0.15847434 -0.11622463 0.072431624 0.11413826 0.024295958 0.014114533 0.13616616 -0.14933974 -0.004397615 0.15065008 0.15424605 -0.03900997 -0.001057116 -0.1273162 0.050843492 0.032802667 0.004993447 -0.0655533 -0.16471276 0.03225781 -0.1498583 0.10171668 -0.19303754 0.09333778 -0.19161278 -0.026673138 0.07669404 0.13995346 0.12554173 0.031100707 0.093672775 -0.057786196 0.078792885 0.111330055 -0.14809261 0.079884015 -0.0072440496 0.11544453 0.14166524 -0.15635684 -0.097702734 -0.14884178 -0.15053357 0.12576035 0.10915388 -0.067122795 0.111896075 0.057845447 -0.16522864 0.06991769 -0.0872462 0.08382015 -0.059147142 -0.07041246 0.053513974 -0.15458295 -0.11265257 0.07069153 -0.044407785 0.17082971 0.070606485 -0.0014552491 0.06931382 -0.12431389 -0.041201618 -0.027360618 -0.14646491 -0.07532554 0.102979645 -0.19276305 -0.057764735 0.17177796 -0.035382815 0.15241955 0.14369246 -0.0109865945 -0.14428605 0.06593324 0.040091936 -0.083082855 -0.003600858 0.13647245 0.08463137 0.008483659 -0.03415399 0.010937649 -0.16735852 0.04826319 -0.009019675 -0.114900686 0.09792046 0.08521183 0.09724417 -0.08601838 0.07337476 -0.15283746 -0.24806596 0.09246751 0.1298668 -0.2644961 0.14086191 0.09713589 0.0069502434 -0.050022624 -0.010997432 -0.049552687 0.12292491 0.03991939 -0.077647254 0.22799182 -0.096442774 -0.061822373 0.003611224 -0.06867279 0.03966945 0.03773857 0.065590695 -0.12779771 -0.08163384 0.12756166 -0.004343837 0.18085714 -0.26772177 -0.17147484 -0.078000836 0.0876141 0.26052982 -0.16534878 0.059844133 -0.025949886 0.14101225 0.13085257 0.041676592 -0.062149096 0.07888327 0.07000884 -0.056854337 -0.13797651 0.0016542793 -0.05268901 -0.08917725 0.0072296704 0.10911623 -0.15691984 0.07901065 -0.027943274 -0.0134910485 0.14307544 0.011237675 -0.07253964 -0.03857002 -0.033170864 -0.11817178 -0.112096615 0.073688835 -0.13801341 -0.037245873 0.10676406 -0.015014962 -0.04779153 -0.059783913 -0.056899007 -0.11265897 -0.14333092 -0.02607912 0.025905106 0.091928214 -0.026061201 -0.061086267 0.07057281 -0.15086325 0.037006564 0.082861 -0.024275087 0.07521225 -0.1274535 -0.04042069 0.09938886 0.14845778 0.14120947 0.065277904 -0.15132757 0.008459352 -0.12498897 -0.08140182 -0.06641385 -0.046136983 0.13091147 -0.13547651 0.1304723 0.067746334 -0.11238257 -0.0061516077 -0.104218006 0.05450811 0.042594835 -0.0859702 0.1261817 -0.08787583 -0.027876794 -0.0031447234 -0.111292265 0.006503349 -0.09990882 -0.0032754163 0.009958289 -0.14724207 0.15206555 
-0.055868335 0.089987695 0.05567829 -0.06712567 -0.034459926 -0.04329377 -0.01359956 0.035363052 0.016397672 -0.08136696 0.051843483 0.2937615 -0.02034988 0.09108246 -0.073809035 -0.11612568 -0.060917992 -0.007677233 0.22175327 0.09177926 0.04000275 0.16156682 -0.09127337 -0.058906224 0.03994707 0.03650554 -0.034958232 -0.06754964 -0.16984287 0.074913025 -0.01258083 -0.12219611 0.05950182 0.027964678 -0.14374626 0.11616705 -0.07406454 0.13785452 -0.09611063 -0.10332361 
Rect
Linear 40 40
-0.09322245 -0.0013943756 0.007877649 0.019489823 -0.24765076 -0.09743873 -0.04335667 -0.18509674 -0.13507928 -0.13803074 0.1314062 -0.0024321424 0.08137767 0.4124311 -0.19242094 0.12115776 -0.10567867 0.16067098 0.25983402 0.06513916 -0.08166723 0.110460564 -0.005869019 0.008080465 0.023624629 -0.2008418 0.10681943 -0.15254913 0.14295764 -0.2208577 0.22905433 0.115175135 0.00044843138 -0.2442497 0.1293861 -0.0913371 0.08315637 0.21761341 -0.10227993 -0.08850386 -0.16023485 -0.054574635 -0.10740565 0.09172243 -0.14368166 -0.16990286 0.017448211 -0.04257312 0.1330727 0.13829698 0.05105775 0.059792206 0.14783636 0.09166282 0.1018032 0.13510261 -0.15114155 0.109037414 0.07282891 -0.034804385 0.04974114 0.081581436 -0.045961443 -0.12391588 0.013437012 0.10801772 0.08148259 -0.042022873 -0.02808851 0.025577376 0.0296228 0.03666894 0.09108254 0.02051011 -0.058406144 -0.16636857 -0.050744124 0.14182504 0.00856445 -0.046001997 -0.027140804 -0.11793213 0.102943294 -0.13446696 0.020543747 0.07963579 -0.11679747 0.16095471 -0.15220389 0.13440298 0.112183705 0.06781606 -0.116494894 0.16988078 -0.110618904 0.019956397 0.09824103 0.16858996 0.23124684 -0.16903533 0.10193335 0.1618466 -0.07496105 0.051245138 -0.10522481 -0.1578279 -0.026135093 0.13498297 -0.119962305 -0.054621074 0.15594134 -0.035843316 0.17712113 -0.1538632 0.100762 -0.123446986 -0.008124397 0.12086569 0.026012143 0.08345238 -0.07484515 0.21364161 -0.24745959 -0.019790296 -0.00053855387 0.085677244 -0.042082906 0.00794181 0.14360005 0.05568532 0.19698201 -0.13347152 0.08480372 0.014225398 -0.011297807 0.02644137 0.07923556 0.11280312 -0.13797821 0.14771244 0.09124823 -0.12163633 -0.102078736 -0.16504055 0.010375349 0.2047023 -0.006045857 -0.025033306 0.024166306 -0.103635766 0.049135424 -0.062823355 -0.13807058 0.103950076 -0.09561823 -0.106156826 -0.01493586 0.014879248 0.021318058 0.13172367 0.030916203 0.06262992 -0.20223719 0.038098946 -0.042118747 -0.006324669 -0.008212959 -0.12563226 0.03236692 -0.0839061 0.13495223 -0.31223854 0.14799237 0.016639799 -0.07693521 0.027965061 0.104849234 -0.08500121 -0.011706897 0.2050903 -0.046255633 0.025460199 0.12719947 -0.027916534 0.067448005 0.16366945 -0.008400004 -0.1446139 -0.13713023 -0.07377326 -0.14217278 0.11379264 -0.07333469 0.22372821 -0.11452035 -0.17064291 0.11678165 -0.073693514 0.08707663 0.05924865 0.09202732 -0.06530835 0.082478054 -0.13496403 -0.11338183 -0.044023912 -0.06822753 0.11305175 -0.11695611 -0.08467746 0.0083995545 -0.15593031 -0.15687485 0.09325205 -0.017280264 -0.14859739 -0.14043617 0.15492009 -0.06744069 0.09600255 -0.08007983 -0.13628146 -0.061113916 0.08488595 -0.097371265 0.079293564 0.004468603 0.12378925 0.027508395 0.014432545 -0.006354749 -0.0945389 -0.12924406 0.101478055 0.10117425 0.0812375 0.13298225 -0.05897107 0.094274774 -0.091197446 0.10089052 0.1593379 -0.17513297 0.06736388 0.07076253 0.1527747 0.07393821 0.015488429 0.2025984 -0.07281983 0.10573931 -0.21089119 0.00013598696 0.017614705 0.07437078 -0.13127032 -0.013938157 -0.12515874 -0.16965105 0.21433643 -0.05745629 -0.18448356 0.12352885 0.116133556 0.07600236 -0.009889893 0.04447314 0.005972641 -0.06432183 -0.012263996 0.10919227 0.05178167 -0.06061843 0.21655264 0.07850438 -0.16280435 -0.03223606 0.1090345 -0.06692419 0.0787082 -0.05015118 0.091600694 -0.19010885 -0.08876929 0.072973005 0.08334154 0.047805674 -0.09568788 0.087288074 0.029047877 0.044686064 -0.15311176 -0.14284535 0.05322904 -0.031457532 0.060091905 0.053563215 0.047287222 -0.21774825 0.17472294 -0.06274805 -0.16367772 0.1206951 -0.045001097 -0.15320121 0.08422513 -0.029714169 0.08098736 -0.08655604 -0.21812272 0.108590804 0.1160741 -0.14598842 0.17638858 -0.03824172 -0.053081047 0.15687378 -0.021301055 0.037831653 -0.13124938 -0.030335044 0.20315915 -0.039849643 0.17311096 -0.006111407 0.10471327 0.053870097 -0.15468502 0.12140106 -0.08134669 0.15810901 -0.08781744 0.06291631 0.048861753 0.12630188 0.09432011 0.08737248 -0.09415986 0.02887778 0.16582501 -0.08394957 0.060242284 -0.037131242 0.051739752 0.09832482 0.0799903 0.08928957 0.014027294 0.06872273 0.042754915 0.14850031 -0.042621516 0.10474861 0.1704732 -0.124354586 -0.15797779 0.10228291 -0.061350703 0.007257375 0.056791145 0.021975791 -0.03287549 -0.16107206 0.021039618 0.1112314 0.0945082 0.09159619 0.036522113 -0.04921715 0.07862474 0.12602481 -0.021537315 0.03290208 -0.2309388 0.019378338 -0.1163104 0.172478 0.1045665 -0.11743942 0.16810359 -0.13315268 -0.19745615 -0.08467377 0.048868988 0.0936416 -0.00879192 -0.023107242 0.030051926 -0.0022463496 0.0067843455 0.091686174 -0.07859197 -0.16591796 0.11828778 0.14680964 0.062575854 -0.041977514 -0.10177204 -0.025605196 -0.09996447 -0.21522631 -0.0407657 -0.047658425 -0.110233895 -0.227489 -0.20298678 0.08651999 -0.047900748 -0.07837699 0.12947978 0.02220408 0.07144859 0.12953718 0.27303466 -0.08873418 0.073382 -0.00019111397 0.0133960415 -0.046988383 0.022802126 -0.1657481 0.077406324 -0.021045059 0.026234042 0.03231879 -0.23299213 0.07195844 -0.13412045 -0.12749417 -0.083891146 0.27069765 -0.0154538825 0.2112835 -0.16883285 0.056231186 -0.15002121 -0.022291461 -0.01286795 -0.09241197 -0.09465535 0.095496766 -0.120301425 -0.0026164986 0.08558774 0.17617123 0.007089045 -0.14331624 0.115233794 0.12947084 0.08839443 -0.09505457 -0.057121377 0.08953259 -0.029254071 -0.14125556 -0.0015949062 -0.019361561 -0.0065164277 -0.010721248 -0.17800187 -0.15114754 -0.056499116 -0.107620746 -0.057691943 -0.14143445 0.036005393 -0.08971872 -0.07983846 -0.058428146 0.07638349 0.11424017 0.012749985 0.1561265 -0.080172874 0.05151999 0.06414266 0.03724562 0.08354827 -0.0049586142 -0.017741496 0.025478104 0.094272904 0.042962197 -0.0730729 -0.08580114 -0.15144122 -0.055533536 -0.18483436 -0.079187326 0.08003555 0.1481512 0.025637405 0.025084415 0.1401771 -0.19412473 0.12590745 -0.044907838 -0.1180208 0.023528412 -0.07361086 -0.0769054 0.068702996 0.0004089757 0.11148665 -0.1214812 -0.2478356 -0.17004171 0.052175947 0.124832615 0.080859214 0.083012044 -3.4660505e-05 0.14454293 -0.027316893 -0.11753784 -0.08075167 -0.16217957 0.18556978 0.10675132 -0.049746767 -0.026909942 0.0043473863 0.11778349 0.09303097 -0.12717573 -0.033339683 0.04945625 0.1355544 -0.053471442 0.078621656 0.01687266 -0.077781826 0.051797472 0.010130158 -0.08554226 0.012335554 0.008223525 -0.023516303 0.02653691 -0.07431292 -0.06943603 -0.04399635 0.053129263 -0.01063997 -0.14919125 -0.03443172 0.00562115 -0.092016146 -0.036729276 0.037357237 0.11607993 0.09002793 -0.0714352 -0.1115947 0.07249684 0.010939139 -0.07576791 0.06362081 -0.13932094 0.06652613 0.017493533 0.2159843 -0.09051538 -0.103607334 0.16477644 -0.024734123 -0.15280037 -0.10176271 0.14224519 -0.10555897 0.058546722 -0.28041303 -0.053008772 -0.053978108 -0.08984001 -0.08264086 -0.05805858 0.033319674 -0.0070400876 0.09575468 0.00177738 -0.12603886 0.064506754 0.0033274207 0.122003056 0.06749406 0.15168615 0.04713184 -0.15382898 -0.028045408 -0.01842081 0.0087081045 0.06834352 0.044927936 -0.05088571 -0.038527362 0.07105592 0.017254237 -0.074002594 -0.10803319 -0.13141721 -0.124461755 -0.04492064 -0.080474176 0.125028 -0.06373761 -0.067852154 -0.10295763 -0.08876435 0.09098257 0.13329141 0.116274655 -0.110444546 -0.057065394 -0.13659365 0.08213793 0.1370687 -0.13199012 0.11062123 -0.07714331 -0.15481693 0.047582466 -0.1451203 -0.084682055 0.15409411 -0.13565499 -0.10124291 -0.04494097 0.12436025 0.1058041 0.10686218 -0.08010566 -0.07954089 0.091371566 0.14156146 0.11474842 0.059504256 -0.046260674 0.034152627 -0.12153677 -0.043713428 0.14616129 -0.021616416 0.11169211 0.11703183 0.13344495 0.08414954 -0.15016699 -0.082573935 -0.0010885596 0.11103204 -0.075495444 0.036545753 -0.014668565 -0.09388668 -0.15926138 0.0004447072 -0.05706048 -0.030407324 0.075216316 -0.15557957 0.029409064 0.059591815 0.037955116 0.08671029 -0.0999231 -0.07845822 -0.10645452 0.13518247 0.036823656 0.0031780838 0.05752103 -0.13568538 0.13976867 -0.12295711 -0.06648075 -0.10710694 -0.07661238 -0.10506241 -0.074433625 -0.07704418 0.12123968 0.08106906 -0.12195785 0.03234879 0.05611171 0.14783056 0.053072903 0.084095396 0.14194667 0.019697865 -0.1927312 0.106952414 0.119167395 0.12703082 -0.12313287 0.06077876 0.11696151 -0.044110198 0.073958404 -0.10639882 0.10584841 -0.15498601 -0.018274913 -0.1413697 -0.0045910305 -0.045163043 -0.009182715 0.09814278 -0.12122966 0.10204278 0.090680376 -0.08744609 -0.08459591 0.11612198 -0.16339377 0.05048867 -0.16385813 -0.0015073188 0.1276799 -0.064033486 -0.12332205 -0.13822801 -0.040640533 -0.051931657 0.014000147 0.02337396 0.14000195 -0.014837211 -0.0026269786 0.116793506 -0.043984845 0.07354113 0.20254304 -0.08135234 -0.097537875 0.09004924 0.09779954 0.15882279 -0.18573393 0.11662111 0.026022317 -0.10712645 -0.06384737 0.039390612 0.03136794 0.11059739 0.00013298854 -0.10687687 -0.0788634 -0.015519275 0.04800898 -0.05179359 0.12883802 0.014483465 -0.08033506 -0.15361641 0.11546797 0.069064625 -0.030756027 -0.052140504 -0.033982284 -0.047602355 0.024344943 -0.12139323 0.068588175 -0.08307175 -0.1663238 -0.02868579 -0.08928291 -0.12537837 0.17132749 0.04587331 0.21577406 -0.11626245 -0.050307583 0.01060838 -0.09878424 0.14737089 -0.21742661 0.053839944 -0.09664564 -0.14864336 -0.09856582 0.12783064 -0.23795524 -0.0409875 0.18964386 0.09695245 -0.14392367 0.060600016 0.013915775 -0.07947972 -0.29253796 0.09685265 0.074400924 -0.038802274 -0.057097927 0.09348943 0.09480862 0.09930497 0.18481271 0.009026246 -0.030556966 0.2182321 0.02602505 0.006376881 -0.07300055 0.13815343 -0.09396407 0.20108308 -0.15520765 -0.16712141 -0.048441257 0.13094428 0.1217114 -0.03408589 0.1758785 -0.28246245 0.24979281 -0.0076308954 -0.24053966 -0.12504975 0.029994266 0.036909055 0.18847397 -0.12399282 -0.117298774 0.10250282 0.09669748 0.040059827 -0.101799674 -0.12869991 0.044419117 0.06999598 0.022616923 0.047189377 -0.0756791 0.05016528 -0.17617726 0.09213778 -0.22577311 -0.0798972 -0.081438735 -0.09905903 0.005434498 0.14385395 -0.18289725 -0.016575525 -0.13552293 -0.004376011 0.1535729 0.062034488 0.090664744 -0.12795341 0.06467767 -0.002880614 -0.10478041 0.24120112 -0.18214884 -0.08673172 0.14901362 0.13109976 -0.16924101 -0.12603432 -0.07541079 -0.04577265 0.13929439 -0.0390112 -0.008723468 0.21233621 0.11970703 0.15070729 -0.155147 0.071880765 -0.045183375 -0.14692345 0.116751485 0.028432224 0.051037725 -0.07033428 -0.022524986 -0.11969922 -0.15898359 -0.13759351 -0.24259312 -0.05322223 0.11028529 0.07907147 0.06642749 0.004252851 0.016388733 0.07283166 0.1637328 -0.18377937 -0.023819003 0.058037806 0.101962574 0.15049943 -0.16479504 0.054642253 0.20062296 0.04858475 0.12288782 0.01676683 -0.029957758 -0.06758575 -0.05080941 0.068694204 0.061715234 -0.009236968 -0.033680446 0.12908377 -0.11567188 0.15224577 -0.07777331 -0.14654008 0.18321502 0.15407526 -0.004605072 0.030783456 0.2111228 -0.05367181 -0.024826923 0.15973602 0.13650437 0.010118195 -0.13029197 -0.124785565 -0.0753601 -0.11045547 -0.1901665 -0.013748108 0.00016667915 0.06780612 -0.038705062 0.012839956 0.119381465 0.0036407881 0.0705305 0.01653206 0.09420895 -0.13901311 0.10979876 0.13444899 0.12478307 0.06964304 -0.07758104 -0.15379284 -0.08880164 0.13996947 -0.1031712 0.052869298 -0.055116605 0.0077032726 -0.04414692 -0.07105672 -0.17208177 -0.08343024 -0.0056672124 0.024777753 0.040450037 0.11794322 0.04835622 -0.1577965 -0.12217007 -0.07175032 -0.12166164 0.051775277 -0.026077256 0.15005521 0.016221887 0.1045548 -0.071518235 0.15682645 -0.07280599 0.109222814 -0.0312728 -0.10249491 0.02389507 -0.15044491 0.06922354 -0.06438299 -0.03885045 -0.028222173 -0.05278059 0.09049328 0.1478764 0.049323916 -0.008274236 -0.10013044 0.110153094 -0.05458448 -0.12611353 0.108933106 -0.10884163 0.0011954308 -0.038376592 0.07873531 -0.12154783 -0.1209575 -0.19408986 0.0018363753 -0.19719887 0.04386709 0.06757092 0.076181866 0.12197479 -0.12680699 0.0007564947 -0.03552191 -0.088131316 -0.008902764 0.073415816 -0.19034289 0.017823003 -0.0865487 -0.009979194 0.036251485 -0.06932748 -0.015069244 0.13333903 0.14947926 -0.14608596 0.09406494 -0.012445248 0.095218785 0.15578212 0.063531995 0.0056887255 0.10481911 -0.061491482 -0.051445995 -0.19510503 -0.06386995 0.11084456 -0.12471134 -0.10148232 0.0859285 0.08366095 0.022232188 -0.116628624 0.03615523 -0.1461404 -0.24361196 0.06541124 -0.060176354 -0.1579213 -0.0026260335 -0.08094374 0.053335145 0.11500366 0.053651642 0.1481299 0.031704493 -0.124163456 -0.074664585 0.01628604 0.2544326 0.05814992 -0.13487548 0.030834522 -0.014511131 -0.03575512 -0.11203971 -0.030978555 -0.1604575 0.077740364 -0.082010604 -0.19119018 0.10999419 -0.14695218 -0.009847784 -0.01866054 -0.15555243 0.07536586 0.035753544 0.17933077 -0.03823096 -0.056717455 -0.08850192 0.00681442 0.012010217 0.071017355 -0.14602292 0.0554287 0.0139386505 0.057440832 -0.069079146 -0.13535729 -0.1550257 0.056909934 -0.08076809 -0.11079244 -0.09559018 0.026158124 -0.047447197 0.04933223 -0.05620326 -0.1364718 -0.14910376 0.074033156 0.058871314 0.066146106 -0.113221064 -0.044562846 -0.10477066 -0.0077180117 -0.14033388 -0.15520665 -0.15396081 -0.12634803 -0.11387399 -0.08594446 0.14107145 -0.0018088222 0.15585856 0.010117501 0.009785101 0.10686891 -0.13139084 0.072988495 0.11344778 -0.094508454 -0.099276274 -0.06881072 0.13909659 0.13546449 0.07689107 -0.08471562 -0.080013 -0.22102287 0.022397965 -0.035567123 -0.012789758 0.10339372 0.08709269 -0.15443785 0.06329339 0.134225 0.128522 0.12745282 -0.023806604 0.14747228 0.08751978 0.055423435 -0.034293577 0.004929372 -0.045363028 0.057943877 -0.12533277 0.07205191 0.12860803 0.12128491 0.1117925 -0.026326617 0.08322369 0.046967383 0.016195586 -0.10259955 -0.1378552 0.0799815 0.17210883 -0.026098603 0.07193847 -0.03446558 0.053671643 0.09343871 -0.09729329 0.035375208 -0.022902494 -0.03324613 0.0063303434 0.12157043 0.10141086 -0.07340371 0.13330244 -0.07658944 0.079257034 0.11384629 -0.0035478978 -0.016976142 0.0730505 0.14738767 -0.052807037 0.063882984 -0.048456077 -0.13683799 0.029977283 0.056533433 -0.14602427 -0.1372302 -0.1344931 -0.00863917 -0.13052365 -0.060642574 -0.15831457 0.0752818 0.059058312 -0.086635426 0.11986699 0.16509326 -0.24896984 0.19224359 0.19694409 0.0599902 -0.030114537 -0.14679517 0.07418657 0.1463709 -0.042652305 -0.08685695 0.01197094 -0.20699802 0.1521849 0.12536392 0.22401874 0.01610985 -0.23103335 0.08997795 0.041317508 -0.065159425 0.13472049 -0.030809006 0.15543932 0.25491998 -0.11192291 -0.19488601 -0.12084748 -0.118583225 -0.06358038 -0.12335877 -0.07415852 -0.0232986 0.08796457 -0.10929715 0.107708916 0.032413132 0.067240454 0.0017867305 0.017281497 0.07471666 -0.17864558 0.050414097 0.18820712 0.15706538 -0.15076835 -0.032376807 0.13287689 -0.10629882 0.21641411 0.059891168 -0.055007804 -0.27658936 0.12451139 0.12637506 0.22814237 0.17396478 -0.078697406 0.29824403 -0.014307339 -0.116101414 -0.021290123 -0.12423737 -0.036740642 0.00816067 0.16160843 -0.009703122 -0.0905648 0.011563973 -0.13603474 -0.15737279 -0.10945117 0.2234836 0.0014172671 -0.08401067 0.12385022 -0.018250171 -0.085873075 0.00088828115 -0.03442468 0.04849198 -0.032051776 -0.0050550583 0.02651775 0.06629226 -0.035487376 0.052126 -0.016929936 0.027737847 0.17651582 -0.18827169 -0.0999192 -0.07077281 -0.04266848 -0.11599618 0.1365174 0.12111046 -0.07595838 0.08621454 0.009323292 -0.22502592 -0.05056511 -0.014760931 0.064581774 0.17080656 0.07393069 0.06363848 -0.17909607 0.034764275 -0.007616929 -0.07661109 -0.16485453 0.20357606 -0.053062055 -0.19943787 -0.11000918 -0.078974396 0.08648068 0.002098149 -0.011902126 -0.0014495623 -0.021777527 -0.024478626 0.08784416 0.027725192 -0.07005547 0.024944058 -0.07687504 -0.10084498 -0.054461386 0.10981856 0.078435846 -0.16478658 0.15329228 -0.11914178 0.11921812 0.017227424 -0.0778421 0.014170074 -0.069835216 0.1084584 -0.06166045 -0.0615469 -0.1266803 0.082827725 0.12800172 0.0026374701 -0.028756185 0.025927 -0.0773095 0.15621077 -0.049519334 0.05675738 0.13046597 -0.070870794 0.11697165 0.061521634 -0.0063888957 -0.063712314 0.11792191 0.05440323 0.0001820412 -0.050445735 -0.14825979 -0.13579164 -0.0006621778 -0.1458493 -0.153173 -0.040479064 -0.0143285245 0.10818154 -0.10395696 -0.15313613 -0.003100596 -0.14642914 -0.014579922 0.1101155 -0.13220523 0.036429346 -0.04236412 0.14789791 0.004005937 -0.016475037 -0.03552095 -0.07729052 0.11373328 -0.08183119 0.14451976 0.1020608 -0.13428731 0.123839125 -0.0028613359 0.097534016 -0.07453668 0.026567368 0.0050039142 0.00449333 -0.028926998 -0.016455077 -0.10270901 0.10465929 0.07285166 -0.09319357 -0.044755053 -0.16101891 -0.046176955 0.020687956 0.13766685 -0.15539756 -0.06381693 -0.11091888 0.10953479 -0.14687787 0.03687249 0.03492418 0.07850706 0.033227354 0.021123702 0.12807193 -0.029244252 0.12044672 0.084575415 -0.04266356 -0.03841687 0.048147444 -0.08099556 0.022020426 -0.12735341 0.11244829 -0.12299057 0.0394904 -0.13838525 0.004801894 -0.025421575 -0.07937067 -0.033543754 0.027982023 -0.018103093 0.11553885 -0.13974048 0.10202429 -0.11100799 -0.08216666 -0.037625197 -0.10578252 0.07604705 0.14106251 -0.059113856 -0.029566854 0.03064333 0.117648266 0.15659603 0.076806925 0.027363157 0.15083276 -0.09207692 0.0921264 -0.06181347 0.04951655 -0.16495866 -0.0223527 0.143035 0.13737357 -0.031998433 -0.08578259 -0.015701223 0.10053812 0.03991121 -0.078766115 -0.06324443 0.10334481 -0.10129772 -0.07855636 -0.023815606 0.16071798 0.1226772 0.13055058 -0.10675862 0.05471523 -0.014727693 0.07194683 0.08574541 -0.11821499 -0.122790664 0.013453864 -0.15548332 0.12280866 -0.11520103 -0.091838084 -0.01051277 0.062421918 0.13715449 0.0013919139 0.15394498 0.06656326 0.1541372 -0.03915306 -0.036044627 -0.059959177 -0.016333813 -0.15689588 0.047257815 0.11477317 0.08151193 -0.094202794 0.14413923 -0.0018340803 -0.004779622 -0.13638324 -0.08618355 0.051357914 0.015845189 -0.10374659 0.14699438 0.07870331 0.088098966 -0.124385685 -0.06339642 0.04882481 -0.16496807 0.14751616 -0.07929255 0.12218064 0.13368003 0.033438865 0.07952181 -0.00877624 0.16046843 -0.017539572 -0.06486787 -0.02745839 -0.12375687 -0.20131847 0.08377317 0.119958356 0.17657775 0.13050428 0.07671445 0.21645692 -0.050271343 -0.1087646 0.070181414 -0.085140154 -0.027508825 0.17027897 -0.011942004 -0.07900132 0.04768573 0.14060694 -0.13008638 -0.020195877 -0.16559663 0.06403169 0.017425155 0.06167713 -0.12309345 -0.11206076 0.1149206 -0.08321169 0.010192781 0.13601263 0.13354693 -0.010079014 -0.14980455 -0.12974377 -0.15181895 -0.009833773 -0.122945584 0.12822808 -0.1372508 -0.050692488 0.06744105 -0.06674733 0.11711166 0.03383614 0.1518705 0.020721594 0.09491994 -0.13941856 -0.067236274 0.06762477 -0.060078185 0.052104175 -0.095691204 0.031097721 0.019336581 -0.08719966 -0.003855452 0.12095425 -0.1174802 0.026199445 0.085942596 0.14577393 -0.1440531 0.07099617 0.15032886 0.10536365 -0.13637751 -0.022935614 
0.16999112 -0.049239065 0.13722433 -0.005739309 0.044506583 -0.1280425 -0.008511763 0.03761147 -0.4346234 0.12731844 0.1501976 -0.026621016 0.17578977 -0.095094636 -0.012530594 -0.14159594 -0.05847751 -0.06394202 -0.07564007 0.17989765 0.020967733 0.14862977 0.22353467 -0.06182603 -0.1111127 0.16214319 0.0069481796 -0.11341886 -0.058500744 -0.08743184 0.17450517 0.1067081 0.03921649 -0.09050881 -0.12446289 -0.11903609 -0.022827618 -0.022140075 0.09064845 -0.1402029 
Rect
Linear 40 40
0.14906998 -0.032262273 0.012348053 0.017956406 -0.022672761 -0.010078251 0.12498935 -0.10115906 0.1266229 -0.101496175 -0.04272249 -0.039331883 -0.12767623 -0.1524733 -0.16241826 -0.00041736662 -0.03070082 0.14150405 -0.08531932 -0.086825415 -0.062392 0.037224174 -0.15412451 -0.103728965 0.011573366 -0.10039126 -0.15574096 0.13004623 -0.116895065 0.10183361 -0.10110546 0.06746169 -0.07607114 -0.09975739 0.040796872 -0.08817985 -0.07227351 0.055639282 -0.035234064 -0.0130347265 -0.12791902 0.13328974 -0.059771046 0.10871851 0.04905556 -0.061194852 -0.14764991 -0.05160834 -0.084258616 0.03245691 -0.051919036 -0.13604671 0.15248747 -0.10200822 0.0184344 -0.08493727 0.062216423 -0.06878355 -0.13454981 0.13078775 0.067174464 0.0058612996 -0.13929312 0.005077019 -0.06850236 0.02598242 -0.049818877 -0.079876706 0.15120499 0.122148626 -0.032252684 -0.042990133 -0.15929163 -0.10074656 -0.042836353 0.11233233 -0.03383015 0.15424415 0.14540108 -0.008679807 0.07277014 0.15779814 0.08961336 0.060929067 -0.028721433 0.040467188 0.105064996 0.10284903 0.096311346 -0.21904711 0.13868573 -0.10319818 -0.11269604 0.037931066 0.0038550808 0.10133583 0.07778961 0.096065395 0.07969904 0.08640035 -0.16004811 -0.1258015 0.023674197 -0.05162422 0.038995832 -0.062238943 0.083293125 -0.109623715 -0.00095074467 -0.08596883 -0.2357031 -0.037111018 0.10866563 -0.08719316 -0.07780426 0.14343336 0.07989118 -0.075985074 -0.18299036 0.057647526 -0.13905805 0.0558926 0.037006497 -0.026119739 -0.09003931 -0.06481687 -0.0006567836 0.10822229 -0.023334116 -0.12947993 -0.09190848 0.010681793 0.03567092 -0.011153117 0.024939984 0.1043611 -0.043957263 -0.11548023 0.13061358 0.015261337 -0.13282636 0.021517664 0.010248333 -0.13337196 0.02040404 0.07019827 -0.14756803 0.06674668 -0.09070423 -0.020745903 0.15733044 -0.10187516 0.043110058 -0.12562594 -0.11061986 0.08819829 0.044424146 -0.1387968 0.05416794 -0.12917882 0.31863505 0.19689462 0.2116949 -0.023762858 -0.1784399 0.076104544 -0.18375275 -0.08748329 -0.103436746 -0.035166305 0.20880738 0.15096618 0.115680814 -0.018937843 0.045289554 0.15659702 -0.0938114 -0.15884139 -0.051183026 0.121470615 -0.1906025 0.113838494 0.18457925 0.003811841 0.046959348 -0.117734015 0.1658564 0.07418962 -0.087055854 0.00957011 0.009555367 -0.17115587 -0.02244994 0.004482271 0.09031115 0.12929563 -0.016376238 0.0025810592 -0.085772626 0.005724046 -0.008293539 0.051689968 0.12224902 -0.14496261 0.040187135 0.011362597 0.113604374 -0.038112007 0.0033246304 0.13250627 -0.06501319 -0.12586528 -0.14247814 -0.099425465 -0.015760483 -0.14709829 -0.06880906 0.013681108 0.14421092 -0.0030232966 0.10685444 0.09223737 -0.046143405 0.08762647 -0.060246788 0.023614168 -0.030605763 0.032553643 -0.052910686 0.06329174 0.065275915 -0.019249007 -0.15348825 -0.14767417 -0.054938123 -0.06422112 0.03811565 0.022661775 -0.021657191 0.04313162 0.019944862 0.13373555 0.051938646 -0.083366536 -0.13145722 -0.0954955 -0.090269476 0.08553898 -0.018575907 -0.09728954 -0.15413113 -0.008373512 -0.057058565 -0.092651755 0.09779476 0.037041813 -0.038543552 0.05222118 0.024764165 -0.012563354 -0.023849275 0.0976108 -0.1291539 0.066643 -0.1246115 -0.12454518 -0.04879179 -0.048745327 -0.10671316 -0.106894635 0.062629335 0.040956613 0.09159324 -0.084539734 -0.13966537 -0.01919356 0.04898502 -0.010312766 -0.08599674 -0.0668823 0.25019658 0.010305598 0.26379734 -0.03945795 -0.16420072 -0.108657904 -0.013119718 0.0905848 -0.08221122 0.02605117 0.108478315 -0.029031081 0.17147323 -0.10041621 -0.13965225 -0.052699763 -0.14999537 -0.098900184 -0.024100684 0.24000007 -0.16229548 0.23886612 0.23068133 -0.17677683 -0.10478415 0.08304888 0.13330796 0.14153527 -0.09415445 -0.12982288 -0.080439776 -0.1408506 -0.0767065 -0.080278486 0.10608469 0.016280232 0.08341229 -0.10329535 -0.12173841 0.05101191 -0.16698414 0.1333297 -0.16125716 -0.08301512 -0.00320162 0.13413873 0.04065628 0.09782035 -0.05812715 0.13545184 0.04412227 0.09006218 -0.018238263 -0.103073545 0.17703801 -0.05856937 0.035004716 -0.061030336 -0.08200881 -0.14598359 0.05568457 0.0729389 -0.1587742 -0.14173147 -0.0047842697 -0.039041895 -0.12930661 -0.0047629923 0.13741535 0.12220363 0.061452586 0.21664381 -0.004228952 -0.13191397 0.029910209 0.090449244 -0.049531236 -0.12896551 0.0044289827 0.15297166 0.098296896 -0.09660576 0.026757285 -0.15175322 -0.019400582 0.10748108 -0.069762036 0.022098511 -0.13771571 0.13828318 0.031358406 0.02857615 -0.14966005 0.13441275 0.14241193 -0.13931383 -0.12433129 -0.12728672 -0.090793066 -0.10683556 0.02193454 0.13224016 0.041144192 0.10781284 0.056081668 0.09035796 -0.14701407 0.043686092 0.06423019 0.101482466 0.15321584 -0.09091093 -0.12862498 0.016332552 0.07329793 -0.00845255 0.15512381 -0.110467136 -0.1496349 -0.06319807 0.122367576 0.016952619 -0.06093073 -0.029865772 -0.0113943815 0.023698285 -0.054920875 0.09543161 0.13767345 -0.15734757 -0.11444606 0.04320313 -0.12666406 0.146241 0.07182443 -0.13053149 0.13159232 0.04626763 -0.14550675 0.1520815 -0.10389888 0.048575103 0.012409046 -0.14224306 0.021854833 -0.10989236 -0.0864846 0.08795473 0.02599287 -0.15800622 -0.05086629 -0.09237008 0.07833615 -0.11189974 0.1355985 -0.08943956 0.10076557 -0.07571057 -0.0915024 0.1575623 -0.09714703 0.14491951 -0.07577521 -0.0809311 -0.11736909 -0.10402082 0.13739741 -0.14394975 0.024038903 0.06375818 -0.1432388 0.10405822 -0.06594883 0.06048058 0.12622531 -0.11512682 0.070914455 0.006680026 -0.020564329 0.041325435 0.078259155 0.15094388 0.06012873 0.046288624 -0.11277367 0.13131523 -0.03143726 -0.03554813 0.010067094 0.09694344 0.14111573 -0.16283992 0.052353915 -0.07508732 -0.10715614 -0.030587634 0.025085941 -0.03159587 -0.026525935 -0.08110324 -0.020387804 0.029114407 -0.12208468 0.13379027 0.17240939 0.084028654 -0.039938457 -0.011274209 -0.06796923 0.07572095 -0.1738201 0.1289852 -0.13040853 -0.14855029 -0.023379138 -0.057466254 0.07581787 0.10073188 0.0040274607 -0.0051622423 -0.01833916 -0.1029825 0.09319187 0.12895554 0.070116766 0.06661864 -0.16916381 0.035356745 0.0030201073 -0.15870406 0.10576062 -0.07861069 0.14105472 0.016174173 0.12785491 -0.0060190647 -0.10000593 0.00600131 -0.094287105 -0.14397335 0.0389858 0.033131167 0.019935485 0.077092044 -0.10191522 -0.0914077 -0.016943704 -0.0052488386 -0.005619659 -0.21321177 -0.11847658 -0.10066033 0.03677709 0.024681395 0.09835925 -0.0414485 -0.10427945 -0.041007116 0.17189534 -0.15537581 0.015975267 -0.05786919 0.11989079 0.11028677 0.05959806 -0.022919986 -0.083702 -0.118499026 0.062643304 -0.082676016 -0.21043088 -0.18151516 -0.049604103 0.01957261 0.06894672 -0.010046154 -0.10313331 -0.07914958 -0.22447751 0.021560218 0.0634975 -0.040906776 -0.015993573 0.18876012 -0.031677265 0.008653444 0.14792794 -0.02595154 0.20568314 -0.07130899 0.083064266 -0.16971728 0.08661888 -0.0648267 0.18678504 -0.13898896 0.009337351 0.09038858 0.14528337 0.014199719 0.12730335 -0.069281116 -0.13974413 0.1404306 0.056889743 -0.025477642 0.06845813 0.11420874 0.024768177 0.11184511 0.04570397 -0.06048738 0.0017687996 0.11424461 -0.13866131 0.028025016 0.13679942 -0.119982004 0.14102916 0.14450903 -0.12326287 0.055699784 0.046494056 0.054275338 0.06314788 -0.075305134 -0.058157235 0.038315427 -0.12182223 -0.0378532 -0.144754 -0.15390687 -0.08083323 -0.15581518 -0.054625455 0.091529 0.0062743104 -0.015097026 0.066642344 0.06337719 -0.175474 0.1068307 0.093807034 0.027543793 -0.08868254 -0.06030985 -0.06640315 -0.06615043 0.0837574 -0.155433 -0.039777458 0.107784025 0.07451937 -0.13174416 0.07350285 -0.13865076 -0.13858399 0.1571283 -0.045459498 -0.1537609 -0.16912691 -0.007117226 -0.0029581864 0.15540744 0.02981472 0.07424636 0.11568675 0.1487415 -0.27444103 0.0015592532 -0.14552355 0.025348099 -0.12187422 -0.098888114 0.103892475 0.062007874 0.072086796 0.1276328 -0.16972154 -0.036316365 0.23451333 0.042344704 0.039575953 0.13846205 0.09903143 -0.16734244 -0.04189274 -0.0076113045 -0.055862606 0.13286024 0.018943977 0.11175528 0.18682098 -0.14243552 -0.10189371 0.14508215 -0.1297982 0.1297528 0.15064009 -0.1443437 0.28521922 0.016386615 0.09337786 0.07538091 -0.040633947 0.04946334 -0.12335576 -0.20402949 0.069714665 -0.007478707 0.06379429 0.116952956 0.0099848565 0.11522297 -0.09879938 -0.0988506 -0.0354788 0.07048262 -0.051525716 0.09854588 0.04697221 0.13988847 0.099749945 -0.13685772 0.07452077 0.11293544 0.16857964 -0.097198196 -0.123233266 -0.11562934 -0.20273817 -0.19286571 -0.095841125 0.03606981 -0.13778703 0.10821218 0.0033014163 0.024598999 -0.002178112 0.1295477 0.08502059 -0.13859479 -0.041040383 0.04592364 -0.1530341 -0.1230814 0.09248079 -0.06701273 0.052237667 0.053860098 0.13678451 -0.02858874 -0.16062924 0.027247233 -0.095157675 0.024220666 -0.059192963 -0.15011923 0.015231512 0.07169805 -0.09117564 0.052358795 -0.086140245 -0.05697225 -0.00048688054 -0.04429872 0.014967461 -0.14928712 0.09919681 -0.15303786 0.024037803 0.116360165 -0.08676511 -0.15878078 0.12523137 0.09315174 -0.13343664 0.006907216 0.07799061 -0.10664454 -0.11522852 0.07577086 0.018796382 0.006368789 0.03973706 0.118310295 0.13017839 -0.12043004 -0.22512941 0.0006256955 -0.14568157 -0.0823226 -0.041707493 0.018917188 0.16092657 0.07602134 0.04109054 0.09474195 -0.17092213 -0.078419164 0.17490911 -0.06121205 -0.037307527 -0.07655942 0.013574908 -0.076451324 0.12795202 0.10435496 -0.0564597 0.109524384 0.01840289 0.14441028 0.1817324 -0.073929004 0.08843938 -0.10504939 -0.14586239 0.13866368 0.083865635 -0.098067075 0.27030632 0.09071384 0.11160834 -0.009169934 0.07731401 -0.157059 -0.18603644 -0.15684736 -0.013019262 0.006742733 0.22315964 -0.13187894 0.12204963 0.018013176 0.14033073 0.11874094 -0.15566832 -0.11404457 0.049775627 0.19888608 0.061940588 0.1864819 0.042019676 -0.1028151 0.10169962 0.1119813 0.10386935 -0.06776274 0.13200384 0.1332119 -0.05675414 -0.03462266 0.13641697 0.06738472 0.12998457 0.032143235 -0.152166 0.03751293 -0.0142660495 0.15322524 0.006108001 0.020588562 0.059790894 -0.13671407 -0.039348036 -0.1305445 -0.13393277 0.059497744 -0.06055159 -0.09338231 -0.13821918 0.1557637 -0.12635735 -0.12257989 -0.11507677 -0.061293304 0.026606575 -0.031483337 -0.113947555 0.107285485 -0.10405147 -0.096993424 0.01629953 -0.05099602 -0.102154836 -0.12707596 0.08053072 0.022086084 -0.14653648 -0.05623389 -0.11999178 0.060569376 0.032864094 0.11629094 0.12435202 -0.007005438 0.018630758 -0.10739369 -0.13085794 -0.01612635 -0.033618346 0.07170616 0.034923553 -0.09709662 0.01166445 -0.10783443 -0.004440233 0.15404825 -0.04156682 -0.14560963 -0.034836456 -0.09556334 0.12222569 0.07554641 -0.14694726 -0.0032874048 -0.019960701 0.088892445 0.059079796 0.08476597 0.07741164 -0.082866475 0.01698494 -0.025709867 -0.052071884 -0.15629783 0.023487523 0.090293184 -0.037178062 0.0056940317 0.122162476 -0.11803599 -0.114452824 -0.07040543 0.13028167 -0.03654959 0.110035166 0.017196774 -0.111262016 -0.13593608 0.08157125 -0.007900991 0.033777963 0.08588148 -0.015011516 0.11459775 0.12751532 -0.013051436 0.16219358 0.08341107 0.023344468 -0.083121635 -0.05615407 0.07830781 0.12855078 -0.07016581 -0.12011466 -0.13349551 -0.009548031 -0.031362537 0.009492234 0.050482567 0.052295614 0.025889894 0.037809327 -0.07904976 -0.13949126 -0.060284838 -0.14286004 0.03399812 -0.023038197 0.10529505 0.12508373 0.00040006873 0.12579612 0.03169868 0.06289429 0.077337034 0.06970071 -0.10728277 -0.14620367 0.14359812 0.088581875 -0.029537477 -0.11074751 -0.12569585 -0.018380905 0.019473288 -0.009636262 -0.117749974 0.075650394 0.016659379 -0.01592529 0.086256675 0.100827456 -0.1219756 0.0906868 0.08584113 -0.051386427 -0.08372719 0.013252699 -0.119625196 0.036974307 -0.1444358 0.053841244 0.090421036 -0.12142962 -0.073673375 0.038456663 -0.07313001 0.048269864 -0.04591611 -0.082337 0.11195939 -0.048045598 -0.008009955 0.014297422 -0.14709255 0.10973977 0.1430097 0.011821867 0.1262483 -0.10708097 -0.09097594 0.027372116 -0.07633386 -0.010564074 0.1308795 -0.15617284 0.050806392 -0.023288306 -0.15231778 -0.12646295 0.054570187 -0.057137102 -0.1258409 -0.1316386 -0.07007396 -0.06801186 -0.0067684962 0.059329543 0.03906969 -0.048965696 -0.0089405775 -0.007125497 -0.075885504 -0.0022088764 0.112676546 -0.16185966 0.033319842 -0.09520747 0.019039538 0.004669044 -0.10408479 -0.037562877 0.11010969 -0.0896832 0.13741076 -0.059989225 0.051063742 0.09297273 0.071540825 0.072264 -0.1361515 -0.12896161 -0.13378035 0.081423946 0.054400865 -0.14169732 0.11144245 0.13495952 0.15157722 -0.06209537 -0.14099623 -0.14458847 -0.15394604 0.023497362 -0.046626788 0.033579513 -0.0879644 0.095933534 -0.015280425 -0.00087542343 -0.14182714 0.02206856 0.035455603 -0.019210136 -0.07956919 -0.040956285 0.15526146 0.027248232 0.12422038 0.050225385 -0.08570925 0.14063637 -0.04402569 -0.102576524 -0.0753064 -0.052176535 -0.13451102 -0.0492834 -0.095254995 0.08148428 0.12483239 0.031105358 -0.0116178775 0.10599925 -0.1647155 0.03269376 -0.059734132 0.031750806 -0.008934379 0.0855983 0.023240108 0.037528843 -0.007440124 0.07220752 0.060296964 0.08219046 -0.011151454 -0.1753898 -0.08295243 -0.039288204 0.09306548 -0.15636536 -0.08624109 0.06174251 0.06691745 -0.05099409 -0.1519412 -0.010079572 -0.09871493 0.032976087 0.11990066 0.03614667 0.070719756 0.13838145 -0.051938403 -0.011987324 -0.0113469595 0.0825381 0.051901843 -0.012836422 0.024001934 -0.016187388 -0.10035346 0.051016122 -0.14797215 0.13081352 -0.11333252 -0.015921697 -0.079780824 0.049070664 -0.13131197 0.025174445 0.08553449 -0.14138642 -0.069213845 0.12609611 0.059492867 0.07500452 0.017669136 -0.0047831414 -0.09316774 -0.054218404 -0.13727117 0.1412273 0.04059349 -0.03905545 -0.099990934 -0.023548402 0.0068292823 -0.004777458 0.05329911 -0.08455824 -0.028280895 -0.07907394 0.1262253 0.1174148 -0.051421553 -0.08717703 0.05997073 0.055290565 0.14579666 0.0032194555 -0.13991289 0.19902723 0.14558122 -0.22594528 0.0691937 0.033017024 -0.11758069 -0.19829042 -0.036746915 0.10124094 0.0018073618 0.08759619 -0.14856018 -0.07335382 -0.13505414 0.16285737 -0.21077979 -0.22685672 0.08464145 -0.15404604 -0.12985066 0.05008714 0.02639553 -0.0061791493 -0.049678404 0.22608314 0.09783413 0.018438278 0.097395964 0.0341724 0.039741356 0.05468517 0.069953226 -0.042865943 0.10657006 -0.1558826 -0.003014931 0.026045093 0.19816011 0.18502104 -0.14193355 -0.0045697563 0.11385799 -0.2124939 0.093838915 -0.19952807 -0.10792764 -0.10547935 0.025978677 -0.026979538 -0.10181898 -0.08927499 -0.07375366 -0.16384017 0.0951932 -0.002900218 0.07371588 -0.076014474 0.038299896 -0.08545724 -0.16069737 -0.14740404 -0.034097947 0.13997404 -0.018983636 0.16534051 0.18129927 0.20270105 0.052513998 -0.023295593 0.072242945 -0.027686149 0.07610358 0.20408902 -0.019669943 -0.062246654 -0.079420984 -0.14204347 0.037144393 0.068079926 -0.034090124 -0.017513253 -0.033619545 -0.056430187 -0.049688667 -0.1571203 0.028777853 0.080494426 -0.045602724 0.08786945 -0.10577129 -0.14424826 0.046649445 -0.15649821 -0.05957975 -0.009916833 -0.130233 -0.11965199 0.07765264 -0.073608324 -0.070361756 -0.115895234 -0.07216646 -0.17497094 -0.12035121 0.058274567 -5.2537558e-05 0.056512296 -0.15107922 0.104380265 0.08429867 -0.045521043 -0.05123877 0.11223679 0.041763052 0.008497927 -0.008150537 -0.025712583 -0.051766828 0.012502367 0.15791453 0.098220445 0.15345411 -0.09819094 -0.113316834 0.105053276 -0.032742396 -0.059314605 -0.050685275 -0.08220075 -0.0321988 0.012918271 0.018207842 -0.049289715 0.093535535 0.09618149 -0.051098183 0.007861887 0.055694044 0.0014131516 -0.10132198 -0.02376434 0.05127853 -0.059227128 -0.075911164 -0.08863415 -0.124866836 -0.07945319 -0.09655595 -0.04600274 0.03739491 0.02145227 0.0030890924 0.123935595 -0.14110702 -0.06839434 0.12812352 0.023206428 0.07232318 -0.051656336 0.13997109 -0.04513652 0.029365992 -0.047927793 -0.18155397 -0.1273774 0.093027905 -0.06563994 -0.12692073 0.10720743 -0.025274813 0.10389809 0.10108599 0.065463625 -0.041343868 0.081411526 0.10844393 0.015139131 0.08445461 0.012243509 0.073431976 0.009504064 -0.04724586 0.017950047 0.038596626 0.076602295 -0.16749357 0.0073262835 -0.0389254 -0.14825182 0.030647073 -0.12844376 -0.111226924 0.082392424 -0.13747111 -0.1775831 -0.051204633 -0.104276925 0.0737747 -0.07828965 -0.08164257 0.018183064 0.071765535 0.043953113 -0.004202804 -0.14882044 -0.0025059073 0.026345454 0.13099742 -0.13489938 0.021383822 -0.04074185 0.0694856 -0.12253815 0.035265774 0.0005807435 0.07212761 -0.045012593 0.087051466 0.05381851 -0.06318265 -0.0783572 -0.0046115518 -0.15341097 -0.12330593 0.050683636 -0.0149784265 0.124329604 0.095497556 -0.05430218 0.09810058 0.08300024 0.04701691 0.029567892 -0.083294936 -0.12200257 -0.027879247 -0.034430817 -0.025487678 0.024733173 -0.12264445 -0.017552033 -0.11201518 -0.17709395 0.056158423 0.13195314 -0.08247341 0.016427085 -0.09673889 0.07643187 0.14889915 -0.030724572 -0.059372827 -0.04493978 -0.16518566 0.010119172 -0.1001239 -0.15064235 0.07456921 0.05442372 -0.14951964 -0.08966344 0.09439643 0.056651365 0.1487698 -0.0046978714 0.048662297 -0.074910544 -0.12609385 -0.07599956 -0.009479294 -0.0047334083 -0.15737692 0.12558608 -0.08171444 0.017560745 -0.09806313 0.08810402 -0.17345706 -0.056977186 0.11578595 -0.09798619 -0.032841958 -0.0342752 0.028765976 0.19322664 0.06179615 0.100267604 0.13094741 -0.018717041 -0.06507823 0.103563 0.092442505 0.10324429 -0.05911867 -0.04265327 0.15426059 0.17641239 0.13257174 0.03224982 0.113441065 0.07230849 0.14722554 0.09402545 -0.014545106 -0.13046645 -0.14096966 -0.13216954 -0.14157045 0.08529477 -0.06403493 -0.16158584 -0.11373318 -0.04090829 -0.015464888 -0.111609004 0.041527946 -0.16505282 0.028055392 -0.019691579 0.10491609 0.0073769726 -0.10824491 -0.04677721 -0.043625806 0.029956726 0.10416968 -0.13474111 -0.12202663 -0.13064675 0.097858325 0.049138736 0.06277202 0.07934228 -0.012193948 0.11546363 0.030722769 -0.045603648 0.13194042 -0.12431165 0.012202716 0.100145265 0.047937527 -0.10657349 0.15192005 -0.012463701 -0.03296223 -0.06065852 -0.13586801 0.00591138 -0.011645265 0.03886757 -0.08712455 -0.015491292 -0.15682238 0.116408266 0.03141747 0.048727017 0.12583606 -0.043071076 0.05673085 0.10164119 -0.08717202 -0.05333691 -0.056800023 -0.067458995 0.12419915 0.11785759 -0.0059309085 -0.15221167 0.054244548 0.007347389 -0.12905575 -0.022555133 -0.06306519 0.053880125 0.08657027 -0.0109100705 -0.15599985 0.10372792 -0.033019133 0.10482951 -0.0036717653 0.028713768 -0.14084288 -0.13337375 0.020188099 -0.058517694 0.04246508 -0.014330924 -0.11642142 -0.01795873 -0.062019967 0.08046423 0.061441727 -0.1672401 0.079466656 -0.11819466 0.21522062 0.17375353 0.056690875 0.15586588 0.17133884 -0.27649543 0.22991431 0.013234929 0.00753178 -0.038589347 -0.023757359 0.108300775 -0.013231352 -0.021290686 0.025832748 0.104929045 -0.25373846 0.24582721 -0.23834182 0.028706504 -0.07251802 0.02877687 -0.027488472 0.09909419 0.058904454 -0.085586175 -0.06686308 0.17601474 0.17817141 -0.043603837 0.11364194 0.071946785 0.0024155786 -0.13504 -0.15512146 0.058346346 0.14075005 
0.10921149 -0.048446167 -0.034448236 -0.12603317 0.21835479 -0.12535135 0.005810307 0.27144408 0.18793593 -0.08582672 -0.016751334 -0.09925619 0.1382936 0.11111077 -0.3087094 0.014748959 0.17218041 0.18864375 -0.018996987 0.11592727 0.0416178 -0.052356273 -0.09190114 -0.2857981 0.0131982025 0.045472745 -0.16300434 0.013556782 -0.13698801 0.09896881 0.1814148 0.09465553 -0.022214944 -0.015070466 0.10092589 0.025294648 0.191406 0.035713833 -0.16189988 0.01874157 
Rect
Linear 40 2
0.0045934604 -0.053523235 -0.05817308 0.07954043 -0.27638507 -0.078508794 0.009102076 -0.28449124 0.19707178 -0.068818904 0.15599768 0.002330726 0.17848876 -0.016124051 -0.2909374 0.09185512 0.20969586 -0.19246328 -0.053617034 0.07999872 -0.15344872 0.1552913 0.06387596 -0.1953267 -0.031083269 0.058161084 -0.13106547 0.05556256 0.13460445 0.18520641 0.18482293 -0.0050190208 0.030083455 0.042960547 -0.07407371 0.07472999 -0.11236405 -0.06403274 0.12696436 0.2592789 0.042021044 0.033920057 0.109908074 0.085482955 0.27132532 0.09298871 -0.05714616 0.30090398 -0.027072497 0.038052186 0.08038367 0.11597353 0.0540105 0.104437 0.14256462 0.08804532 -0.11764818 0.13864458 -0.025953282 -0.12736982 0.19506562 -0.05788002 -0.12330255 0.06811597 -0.0026704264 0.08238849 0.07360635 0.07421562 0.05217413 -0.0834733 -0.18836276 -0.11999179 -0.14992599 0.074919105 -0.15836135 0.008796758 0.20921698 -0.07054355 -0.0150597645 -0.16306998 
0.16228445 0.0617543 
