Linear 19 40
-0.2812342 0.056257118 0.08798563 0.08784097 0.2633101 0.26754853 0.18297246 0.1573808 0.2551012 -0.05095011 -0.17390987 -0.26368615 -0.39349917 -0.32541385 0.22009191 -0.05661947 -0.031036189 -0.028967448 0.23680833 -0.25059095 -0.23224503 -0.16009383 0.1837658 0.15033129 0.13829169 -0.027519032 -0.0012781918 0.05219383 -0.12088764 -0.009517789 -0.2265502 -0.15997556 -0.0014051937 -0.16029087 -0.09250298 -0.2212798 0.18662083 0.03181316 -0.24358155 -0.013634717 -0.054987192 -0.1492429 0.23521505 0.020143634 0.09464761 0.01613999 0.20382014 -0.36737913 0.11774845 -0.13887131 -0.34407872 0.0028579864 0.20060371 -0.0417552 -0.3038647 0.13107383 0.09426953 0.070539095 -0.16142097 -0.09730307 -0.18710372 0.25156796 -0.031248044 0.21718247 0.102194384 0.020852443 -0.24937573 0.21390386 -0.3636774 -0.64493906 -0.16246796 0.25929603 -0.055368934 0.08773899 0.23767841 0.09750597 -0.14805359 0.043052923 -0.17969045 -0.12217415 0.11933412 0.11818924 -0.18466344 -0.12721398 0.19508328 -0.2181058 -0.20606633 -0.19230174 -0.014683149 -0.20421654 0.094997585 -0.0984746 -0.04657811 0.019429853 -0.03852354 -0.071328364 0.16947567 0.13896097 0.071219705 0.23310454 -0.14475659 0.010017595 -0.025497163 0.066551514 -0.0954706 0.19400017 0.15938947 0.2392894 0.0017396151 0.23842506 -0.40375397 -0.10750312 0.047957484 0.18262656 0.024331257 0.037924513 0.041591242 0.05984263 -0.11192849 -0.021324903 -0.05945544 -0.19223136 -0.13694331 0.026516393 -0.08439997 0.18928821 -0.18350597 -0.09985602 -0.06984171 0.20976226 0.13319878 -0.21741305 -0.11381986 0.104519166 -0.0036817777 -0.13985606 0.16434978 -0.101473905 0.15557626 0.18020946 -0.1552702 0.04682559 -0.08573885 -0.09840543 -0.020708093 -0.053223856 -0.05657211 -0.071146116 -0.026263803 -0.122787945 0.054434817 -0.035148717 0.050671726 -0.14154136 -0.19895594 -0.18010688 0.0752027 0.17814529 -0.05978535 -0.09697278 0.14662929 0.21711563 0.0036879187 -0.07313187 0.16110377 -0.019190619 -0.103267126 -0.0008528273 -0.049369827 -0.2250221 -0.18189798 0.14311521 -0.024551133 0.037374746 -0.0009007531 -0.08128614 -0.07378983 -0.065948196 -0.052911703 0.123276554 0.2569502 0.16621213 0.29439127 0.64972585 0.16018525 0.026489941 -0.17126049 -0.007210813 -0.09351522 0.054751944 0.16807532 0.06383777 -0.0050343648 -0.050525673 -0.030376617 -0.019394178 -0.0028618395 -0.089428015 0.06845085 0.27259117 0.006024428 0.1338764 0.11592766 0.09355338 0.19050059 -0.1820887 -0.36049747 -0.14218765 0.04520691 0.21841119 0.030683959 -0.026032884 -0.22905542 0.24133356 -0.017557444 0.16083473 0.10027751 0.020291705 0.0069712177 0.03658661 -0.48530263 -0.62627006 -0.16628644 0.1032384 0.0841492 0.07423523 0.0034788577 -0.10047167 -0.20669645 0.21657114 0.15105845 -0.111094594 -0.2061885 0.19601333 -0.026717657 0.03240888 0.0065210233 -0.11051017 -0.22063951 -0.08321929 -0.098201916 -0.28224686 -0.124710634 -0.096305795 -0.062284388 0.16104995 -0.046410773 -0.22579607 -0.056609496 0.023053834 0.04861776 -0.2242799 -0.20506854 0.053430673 0.15922065 -0.09359108 0.18202971 0.051248085 -0.05951082 -0.23847198 0.06854947 -0.14426008 -0.03399764 0.03980575 -0.086192444 0.025748305 0.2211682 -0.33198282 -0.21764863 0.1162119 -0.03807079 -0.07666819 -0.14672604 -0.11421882 0.03731188 -0.029531987 -0.16554269 0.29661015 0.26532254 0.07131451 0.013952396 -0.15280905 0.0916826 -0.2733393 0.09573731 -0.042028137 -0.098238446 -0.038431097 -0.25733027 0.10798984 -0.07267356 -0.06886209 -0.04069402 0.15596187 -0.16570932 0.011665867 0.06255827 0.046338767 0.23280446 0.06030061 -0.113183424 -0.052359406 -0.22805338 0.25240892 -0.02679742 0.054984987 0.035116732 0.017488584 0.15187347 -0.021513103 -0.09742876 0.10848549 -0.019664695 -0.47813413 -0.017422982 -0.54108614 -0.90814966 0.013981483 0.009519534 0.05303076 0.11300457 0.10824692 0.031396896 0.08563757 -0.08163915 -0.032453466 -0.051294763 -0.047266528 -0.20750543 0.1217035 -0.004858221 -0.059405364 -0.0616938 -0.13091063 -0.100849226 -0.20228903 0.11417949 0.04667621 0.103347875 0.11373838 -0.13157015 0.1910581 -0.067957364 0.0044172257 0.0025838802 0.06562683 -0.1651555 -0.07094119 0.17557538 -0.18441236 0.11430712 0.017803328 0.08704029 -0.09965593 0.2472583 -0.18175334 0.0334517 0.14935276 0.23091538 -0.02980916 -0.2501522 -0.03711547 -0.19455552 -0.08853957 -0.078222 0.2069359 0.023027532 0.15773234 0.23512155 -0.21170627 -0.12486667 0.05196926 -0.2975407 -0.20884341 0.11854775 0.13492858 -0.05123908 0.2488782 -0.018684004 -0.1846007 0.09987392 -0.2554672 -0.05673684 -0.19882971 0.18806097 -0.0513752 -0.14573935 -0.014436964 -0.08229208 -0.055939775 -0.119510464 -0.2935584 -0.05447442 -0.10878138 -0.25378382 0.031298153 0.12719204 0.25709718 -0.03878232 -0.024389608 0.14403084 -0.0013175169 -0.067443736 -0.0016217189 -0.17625445 -0.16761528 0.029535871 -0.0052039786 0.52875596 0.046954107 0.027005294 0.046344623 0.1819384 -0.17061715 0.025818605 0.17053096 0.15961319 -0.20382184 0.068779096 0.13124594 -0.028410256 -0.05866227 -0.18496394 -0.17125241 -0.13981356 -0.09008833 0.020598847 0.19522558 0.035629265 -0.6012947 -0.8024961 0.05762982 0.020749748 -0.42167896 0.3046986 0.009591496 0.082402095 -0.18370679 0.36753896 0.26335508 -0.2551267 0.15690044 -0.12056653 -0.1488815 -0.014177306 -0.04571528 -0.23159164 0.0064233444 -0.118886456 -0.37090352 -0.23381929 0.29957047 -0.09126685 -0.24224524 0.046145752 0.019943018 -0.22846843 0.09102179 -0.23216832 -0.17298156 -0.21885358 0.16026294 -0.21734175 -0.1977048 -0.14088438 0.18113504 0.1481641 -0.19078283 -0.1750999 0.017257875 -0.22478361 -0.13900596 0.11093855 -0.15375909 -0.1472211 0.12991755 0.0860566 0.13385345 0.20914857 -0.079380654 -0.1693147 -0.16770414 -0.06303471 -0.015202986 0.37477687 -0.19116424 0.6017772 0.81844735 -0.005845067 0.07878219 -0.037130356 -0.036346532 -0.111063726 0.10719998 -0.26694506 -0.17094108 0.12277384 0.052650288 -0.16055766 0.17845324 -0.0944899 -0.22940162 -0.2370036 0.1301977 0.014135603 -0.17249873 0.18250681 0.06300209 -0.19134465 0.018148376 -0.01593872 -0.12618299 0.09210383 -0.03641196 -0.016315686 0.073911086 -0.16823843 -0.0659315 0.1791175 -0.00048293613 -0.065832965 -0.15260573 0.19239575 -0.05800368 -0.29812518 -0.51555914 0.19806501 0.21417138 -0.17573911 0.051368713 0.015249841 0.11338212 -0.25609666 -0.22456355 0.12237283 -0.17050958 0.13142486 -0.1847791 0.1032098 -0.14470312 -0.2049656 -0.18405639 -0.17468373 -0.006556222 -0.17892101 0.038527474 -0.023941725 -0.057439767 -0.086160876 -0.044651117 -0.017439594 0.039351277 -0.03892845 0.033902757 -0.17901321 0.0014282068 0.011652657 0.18181835 -0.15468304 -0.08603861 0.03092534 -0.14538284 0.21669622 0.015455256 -0.125037 0.11519758 0.14348605 -0.21765505 -0.019961469 0.19814242 0.0714222 0.074021645 0.034464084 0.13941556 -0.21087821 -0.11101431 -0.12075808 -0.029151088 -0.21039106 -0.044646125 0.114919506 0.044365827 -0.11237808 -0.11248535 -0.14758945 -0.20979436 -0.24399221 0.0077301823 -0.060995337 -0.03436646 -0.073590055 0.017277788 0.29435298 -0.21155483 -0.08147 -0.06712025 -0.019590199 -0.031661946 -0.24824935 0.13313475 0.5929587 0.7008537 -0.15510975 -0.02511661 -0.17455207 0.09146126 0.005226113 0.04098007 -0.17517301 0.054171756 -0.12984695 -0.125547 0.01867471 0.050961513 -0.09817184 -0.022120958 -0.12951636 -0.05117861 -0.0941269 0.06639022 0.12012006 -0.3906046 0.092743106 -0.07518611 0.16643208 0.079002246 -0.13066016 0.054955807 0.20154397 -0.04032552 0.19326228 -0.2656303 -0.097259335 -0.10611968 0.035701983 -0.28736946 0.28199762 -0.033618562 0.80988044 0.85411984 0.11481428 -0.05510514 -0.12560172 -0.00046737678 0.064556286 -0.1421314 0.0571697 0.2781667 0.12121358 0.22442456 -0.032679763 -0.08678934 -0.04720354 -0.06823567 -0.15937778 0.0646673 -0.10768485 -0.29124314 -0.32817304 -0.32457712 0.042151175 -0.034583297 -0.00054984394 -0.2592685 0.2878226 0.1161196 -0.20582853 0.10932903 -0.0043217894 -0.32391474 -0.17209172 -0.018675076 -0.10009079 -0.055329323 0.17934854 -0.090825975 0.4168135 0.7400482 0.049032506 0.03309407 -0.0555494 0.06506752 -0.22158185 0.13577431 -0.20438245 0.06876074 0.065438375 0.03818124 -0.47642732 0.027291762 -0.058419585 -0.09172632 0.059318423 0.033915978 -0.093462825 0.34853518 0.74364823 -0.26978672 -0.068564706 0.14562118 0.113687396 0.23581673 -0.11885456 -0.19200914 -0.30160534 -0.12554114 0.040129207 0.03639367 0.06519799 0.19794993 0.061795812 0.0375477 -0.02040925 0.07660044 0.084399894 -0.028987035 0.13591465 -0.19195414 0.16636275 -0.10850884 0.17396918 0.09377654 0.13042253 -0.14618152 0.15422833 0.21960203 0.09945107 0.15320387 0.06284566 0.011017874 -0.058634035 -0.22695339 0.24511668 -0.084347695 -0.22842674 -0.12106501 -0.15427992 0.025306882 -0.22243582 -0.09826432 -0.08282813 0.027220257 -0.1980995 0.13777484 0.12707509 -0.5354704 -0.05454636 -0.044751193 -0.016462276 -0.14577983 0.4695564 -0.07399578 0.64639866 0.7908648 -0.13172264 0.058959037 0.026968602 -0.07311691 -0.021771405 -0.17305817 
-0.009453459 -0.18336517 0.17408594 0.20751143 0.11518383 -0.16850002 -0.19172543 -0.21584511 -0.043622307 -0.065434806 0.03142464 0.22487913 -0.15327688 0.05739716 -0.15910614 -0.13306391 0.11395107 -0.22555825 -0.21805659 -0.06831498 -0.08750405 -0.13338348 0.058385517 -0.122878514 0.018372068 -0.035820283 -0.05956576 -0.11482088 0.11972113 -0.18679361 0.08483451 0.07798238 0.16713652 0.13702305 0.25159696 0.03707399 0.062962644 -0.18873872 -0.19151744 0.09556736 
Rect
Linear 40 40
0.015277077 0.12284449 0.016834548 -0.06324292 0.12112865 -0.027389705 0.066468105 -0.10431324 0.047920153 0.103129625 -0.08532525 0.15730849 -0.13425559 0.05715756 -0.16325821 -0.10968265 0.06868316 0.0990186 -0.112710804 0.0938419 0.008430806 0.05906659 0.084200256 -0.13163188 0.03783218 -0.033530574 -0.0092251245 -0.060588874 -0.117294066 0.10422962 0.15000367 0.07298984 0.02009713 -0.019769125 -0.010734871 0.032875605 -0.19660676 -0.10320456 -0.14616421 0.08389371 -0.101170644 0.14224915 -0.02811502 -0.06251488 -0.102118 0.20812775 0.03459695 0.024850838 -0.060122337 0.004633737 -0.14716926 -0.26137498 -0.10243777 -0.11876536 -0.0036242013 0.101110496 -0.3268743 -0.14900334 0.11625133 -0.013326373 -0.06634058 0.018701276 -0.1014379 -0.077587046 0.05272202 0.13959156 0.06629976 -0.1750879 0.110835895 0.06537775 0.008402304 0.10259867 0.047723252 0.16744453 -0.20557466 0.19176215 0.12256907 0.0650158 -0.15569006 0.17588086 -0.08962618 0.052248143 0.05733879 -0.027636033 0.13350801 -0.027554216 -0.037446484 0.06711114 -0.10994588 0.060814817 -0.06625014 -0.06311082 0.023393849 -0.09808668 -0.09226588 0.03184567 0.087949626 0.014327873 0.020654118 0.060360294 0.09709959 -0.097081415 0.12295335 0.056912187 0.08227173 -0.10701766 -0.03148122 0.11373982 0.101743765 0.060723193 -0.1143559 0.1199098 0.08596936 0.04882453 0.0020673752 -0.05146984 -0.1080941 0.051500782 -0.14514829 0.06837847 0.18906724 -0.11323243 0.09909002 -0.028586462 0.11586163 0.17239366 -0.070374355 0.104917794 0.022160215 -0.10125949 -0.11403523 0.01595657 -0.023921754 -0.07231979 -0.09686253 -0.07928742 0.10299656 -0.065723 -0.10720894 -0.063315645 0.06953895 -0.17234673 -0.09846261 0.08763367 0.0040988573 -0.114103615 0.0044931695 0.08053308 0.07785127 -0.1152149 -0.040220033 0.062421802 0.074723914 -0.21452855 0.033520013 -0.11901994 0.14702858 -0.11714728 0.050583676 -0.05362258 0.084703505 0.04078409 -0.06328906 0.17825018 0.19575152 0.1747478 0.14285137 0.086503625 0.029224955 -0.0055783866 0.024604604 0.12698951 -0.066246696 -0.11981596 -0.21249773 -0.007998899 0.07536461 -0.072999835 0.047230553 -0.047018398 0.12326306 -0.16573034 0.26508185 0.24099362 -0.13158186 -0.11099608 -0.066780955 0.17645456 -0.124936625 -0.07165857 0.004647686 -0.1382064 0.024418395 -0.050400823 0.083231404 -0.1336474 -0.16180782 0.13509764 -0.0872233 -0.17466697 -0.03939161 0.13757099 -0.0055211135 -0.1531472 -0.13244453 -0.08491714 -0.083023824 -0.15438531 0.08899864 -0.08439105 0.05977556 0.10627829 -0.026015617 0.14048965 -0.020165648 -0.12587824 -0.0057174717 0.012065177 -0.007784667 -0.0610937 -0.13048764 -0.107511215 -0.05173503 -0.012451732 0.11035274 -0.045353625 0.03795702 0.09245157 -0.057218276 -0.01563677 0.059611805 -0.0023494395 -0.10252118 0.055791374 0.08099006 -0.0719634 -0.07131112 -0.14084059 0.075319976 -0.06104471 0.16175765 -0.06394378 0.093431585 0.07167081 0.08320876 -0.00022186428 0.026465595 -0.14483435 -0.11146904 -0.12373026 0.13351466 0.046797678 0.16770065 -0.05543001 -0.03481394 0.11629448 0.058041368 -0.12684514 -0.03988093 0.09415345 0.013257046 -0.33404222 -0.112381145 0.0843527 0.1497509 -0.062744126 0.082320325 -0.09278447 -0.036447342 0.017523717 -0.11564697 -0.100534394 0.19510269 -0.26308903 0.19434476 -0.29867315 0.057075992 0.11187967 -0.13342027 -0.13883996 0.058681164 -0.108751245 -0.10352756 -0.020895066 0.01962371 -0.12815882 0.11891498 -0.15769507 0.09000645 0.016326008 -0.15089928 0.042997755 -0.061183844 0.14989917 0.07197126 0.0756749 -0.022873469 0.13986872 0.10551822 0.12319199 0.016033884 0.1043197 0.12638019 0.15443529 0.13379787 -0.11867695 0.06941285 0.05244811 -0.041824933 0.06446865 0.08460621 0.09844437 -0.15178625 0.047814205 -0.13650014 -0.07286735 -0.07050316 -0.016827265 -0.04532557 -0.16242327 -0.025555179 -0.14011648 -0.16781479 -0.11940212 0.10133665 0.13764058 -0.049432054 -0.01422423 -0.07624631 -0.031214131 0.081930175 -0.063069865 -0.1388586 0.039357923 0.089367375 0.03881156 0.09647251 0.023264619 -0.008013428 -0.0035532645 0.056569677 0.04581769 -0.109021135 -0.05784705 -0.061565775 -0.07979771 0.03217205 0.04522941 -0.14072001 0.13947874 -0.083418585 0.0617496 -0.12545782 -0.07961755 -0.09256521 0.026129872 -0.14660954 -0.15184538 -0.060496144 0.12903473 0.14176056 0.06385629 0.017429993 -0.15672505 -0.047157053 -0.029990995 -0.051617593 -0.028406769 -0.14223114 0.093493596 -0.020211518 -0.18374793 -0.1267596 0.014413862 0.0319348 0.07754009 -0.2014673 0.023345828 0.04532442 -0.16639647 0.05651291 0.020855775 -0.11074965 0.06281034 -0.016734365 0.17508814 0.04776773 -0.059271127 -0.123131655 0.08162719 -0.14692308 0.0627862 -0.095799394 0.18461253 -0.20887911 0.1555143 0.060784742 -0.1198158 0.10623677 -0.011013685 -0.11740908 0.04939097 0.07758413 -0.036633674 -0.08671331 -0.01162632 -0.006166294 0.014197268 -0.056500707 0.09571295 0.10272353 0.12954362 -0.14195313 -0.075359724 -0.0029608698 0.021284826 -0.12529142 0.08754785 0.005877443 -0.010609408 -0.109237075 0.12564138 -0.066736236 -0.0086128265 -0.066212684 -0.093518734 -0.0039660726 -0.075916745 -0.041032847 -0.0054247156 -0.11804389 -0.10202531 0.08169666 -0.06954298 0.09655657 0.055362336 -0.15094134 0.022295972 0.14465752 0.12376666 -0.027194263 0.084473945 -0.16825783 0.19188562 -0.045233604 -0.056878578 -0.02661544 -0.08881708 -0.1086076 -0.112935245 -0.017534608 0.061898686 -0.07122044 0.11799484 -0.005837084 0.058165044 0.040177543 0.078811616 -0.05741885 0.13353975 0.110034645 0.043007795 0.18786468 0.1210874 -0.08435864 -0.028304845 0.13043371 0.17235778 0.095643945 0.088569574 -0.015477193 -0.077535056 0.13489927 -0.00026159376 0.15805286 0.088683866 -0.0151684005 -0.0515963 -0.10491706 0.035326514 0.18546887 -0.019125767 -0.01565491 -0.08113798 -0.07247266 0.15453464 0.009690627 -0.018278385 -0.06243573 -0.14316767 -0.09148389 -0.032624118 0.042753134 -0.12753491 -0.14228493 -0.0250105 0.16318661 -0.14276168 0.10547249 0.070821255 -0.14738755 -0.17593685 -0.08282064 -0.07910548 0.0032202739 -0.037951242 0.0020346052 0.024886198 -0.072322994 0.11534363 -0.11989674 -0.0527722 0.15975793 -0.07695034 -0.13733996 0.03708162 0.016223563 0.13387984 0.029751904 -0.20889552 -0.012189464 0.0081910975 -0.1664185 -0.12907565 -0.08565367 0.13453905 -0.09531634 -0.07450176 0.064822964 0.14683792 -0.11594072 -0.03502692 0.029980032 -0.09742322 -0.08196652 -0.07838389 -0.16384362 -0.15695219 0.020907853 0.13185847 -0.16966775 -0.22064856 -0.17823838 -0.15262985 0.004341037 -0.013761038 -0.13461936 0.12091005 0.06932081 -0.012921913 0.14644235 0.1810608 -0.014890695 0.05308579 -0.14915204 0.15056233 0.20432824 -0.030449329 0.073977366 -0.016798008 -0.0118636405 -0.082821146 0.012202052 -0.13451402 -0.049354732 -0.11830031 0.038826868 -0.094573244 -0.047324482 -0.06909659 -0.12981091 -0.19742823 0.12544037 0.04377746 -0.01738997 0.046328414 -0.18494006 -0.09173602 0.049380556 -0.17104632 -0.17829174 -0.09856365 -0.23128405 -0.11359389 -0.10256957 0.08839137 -0.030969944 -0.12148808 -0.07806593 -0.12030929 0.103030235 0.1955071 0.03497756 0.14183521 0.05554658 0.12077496 0.231768 0.090598226 -0.14034796 0.024559522 0.058753137 -0.0851486 -0.00038415167 0.065749034 -0.016826767 0.12129286 -0.050343484 0.02395245 0.06224827 -0.09245666 0.1151196 0.011489982 -0.04758449 0.17655903 -0.08311211 -0.10793978 0.16853276 0.16369997 0.15508507 0.029330067 0.047068942 0.049120076 0.24165636 0.15559056 -0.070894085 -0.12808752 0.12677749 0.06524473 -0.12519228 0.038568724 0.0628436 -0.08542711 0.16901372 -0.23237006 0.22857858 -0.02841512 -0.080958314 0.107558966 0.029699273 0.018629722 0.10840281 -0.06387873 -0.010148287 0.06841006 0.1719042 0.09908422 -0.13220571 0.08229332 -0.121991076 -0.16716267 -0.09168504 0.08780443 0.0032253896 0.0038554992 0.026836663 0.04339154 0.110468596 0.01449477 -0.049097646 0.04554685 -0.13891597 -0.19668908 0.10356659 -0.13042487 0.12958643 -0.04936089 -0.051463116 -0.13122277 0.15082411 0.115415886 -0.040307675 0.08148201 -0.12185691 -0.049559493 -0.10581591 0.013344979 -0.22413908 0.107885405 -0.08166353 -0.08498498 -0.09016708 -0.06542136 -0.15364534 -0.036628455 0.06608604 -0.025372386 0.046269953 0.07886058 -0.066357575 -0.06902126 -0.08311995 -0.01753527 -0.13383941 -0.052117765 0.13987504 0.016286358 -0.07042645 0.10331689 0.03883511 -0.015041977 -0.09838293 -0.15299937 -0.11091204 0.011046097 -0.08398025 0.09590937 -0.0075505525 0.10535236 0.13579126 -0.091134004 0.09477694 -0.12707241 0.068804696 -0.12960446 0.14320453 0.04167804 -0.0768515 0.015955955 -0.079734325 -0.01841262 0.04763751 0.013282759 -0.17444967 -0.098303 -0.03659296 0.16258544 0.08234121 0.066096686 -0.105336875 0.10388383 -0.11742682 -0.24243702 0.082479574 0.033912905 0.12328422 0.1419488 -0.02567748 0.034749236 -0.0014973052 -0.035171237 -0.22743545 -0.024276724 -0.34139997 -0.038646877 0.061745152 0.026204227 -0.10056607 -0.042729776 -0.010056418 0.016904695 -0.042229533 0.20942853 -0.06825498 0.20274581 -0.2308376 0.1318949 0.21887524 0.10081038 0.0357275 0.1847226 0.115559556 0.037423454 0.20538813 0.22888789 0.045178883 0.15768628 0.0596959 0.09049204 -0.05322295 0.08360418 -0.124757774 0.046677 -0.016721439 -0.030296272 -0.0951175 -0.08255622 0.07574919 0.18463789 0.085122466 0.0748992 0.13788141 -0.104448676 0.09545368 0.29475543 0.14728113 -0.242283 -0.08391563 0.0654877 -0.0618024 -0.08543805 -0.029774576 -0.17654249 0.15494263 -0.053491727 0.13187917 -0.15586434 -0.18937749 0.06648183 0.056920964 -0.32122207 -0.083709575 -0.010646313 -0.05788132 -0.058327585 -0.085205875 0.14338064 0.06873076 0.123270094 -0.07861346 -0.106256984 -0.1354514 0.12116957 -0.03857681 0.05337079 -0.009213296 0.07374282 0.030096998 0.14262517 0.060542952 -0.052220188 0.11840084 0.03644626 0.13639277 -0.06070684 0.10932865 -0.043424606 -0.11130469 -0.030779691 0.11028863 0.027099393 -0.10030723 -0.027258141 -0.024175456 -0.016083904 0.10513802 0.057126377 0.10391392 0.13857402 0.082899764 -0.00499473 0.03414259 0.15319909 -0.17913827 0.07004184 -0.062366884 0.12090898 -0.025780872 0.10008504 0.018203346 0.064628586 0.1637395 0.0073236767 -0.051063474 -0.15233257 0.089250155 0.110538326 -0.22695196 0.107799694 0.15429449 -0.121033 0.009399186 -0.0749831 -0.25526637 -0.15204106 0.057608936 0.17529139 0.086960465 -0.1926759 0.0022525874 -0.077978544 0.11436342 0.14641082 0.15378141 0.18870886 -0.022937598 0.1763861 0.2875231 0.105701186 -0.010538384 0.0852315 0.05366739 -0.040494516 -0.16490078 0.11721199 0.16059206 -0.06839154 -0.13676119 -0.073197804 -0.116724946 0.14276789 -0.04189199 0.0077593676 -0.016960349 0.08921189 0.007444952 -0.051696014 0.12045736 -0.047614135 -0.15515977 0.06931296 -0.03466186 0.00020972505 -0.050597552 -0.01511648 -0.00054993574 -0.12203298 0.009738337 0.03613139 0.14511213 0.11001845 0.052439097 -0.08938179 0.032497432 -0.16382186 0.121204525 0.030143334 -0.14158629 0.114034034 0.02533411 0.07649448 0.17554124 -0.021258185 0.0470884 0.148796 -0.021626525 -0.12587264 -0.08381621 0.0036863063 0.048822287 -0.10987463 -0.10089614 -0.1383946 -0.045751717 0.0015760451 0.03677481 -0.048348516 0.20222673 -0.025493067 -0.033147007 -0.12680082 0.11293189 -0.032023147 0.11766119 0.16946538 0.04218414 -0.12545729 -0.14138418 0.016053436 0.12468842 0.018389482 0.10069151 -0.047897592 -0.14779091 -0.16673131 -0.04223361 0.06436911 -0.15425538 0.112827934 -0.009510088 -0.04919149 0.21197787 0.056470882 -0.073447466 0.21855964 -0.073787674 -0.06353834 -0.0026639402 -0.013255913 0.06486138 0.09280179 0.1134716 0.06535678 0.14767347 -0.10078874 0.038443387 -0.1365797 -0.049762424 -0.06770642 -0.015931616 0.11771166 0.16066356 0.09120452 0.23812754 0.19356114 -0.11210408 -0.096904024 -0.13540223 -0.048152767 -0.08129001 -0.03886477 -0.0031453753 -0.23649082 -0.07760866 -0.017682707 0.22481386 0.08298782 -0.20124198 0.0064316643 -0.040148366 -0.17319547 -0.11979123 -0.026700512 -0.08422214 0.09349153 0.054239117 -0.09180855 0.056280717 0.00989965 0.1193687 -0.0010750896 -0.115065925 -0.025374463 -0.049040165 -0.14250681 0.031240268 -0.07018477 0.15951267 0.081802174 -0.08985393 -0.076282345 -0.03201423 0.06800149 0.06750279 -0.046548054 0.012970169 -0.12829979 -0.062157344 -0.11554043 0.022659436 -0.09812716 -0.009133113 -0.19848344 -0.14169143 -0.0063327635 -0.008567093 -0.033691507 0.025191741 -0.13221808 0.07390439 -0.097594574 0.1490334 -0.13823198 0.18184428 -0.017552799 0.15605132 0.03460165 0.04169166 0.13536623 0.12356779 -0.06079016 -0.09867843 -0.040406246 0.15063293 -0.14973582 -0.22195624 0.07995435 0.20739593 -0.0062831063 0.16886044 0.05023826 -0.13932061 -0.13339487 0.12042836 0.10482274 -0.0948733 0.044211503 -0.18762492 -0.022823764 0.14449075 -0.06318328 -0.16901988 -0.039804943 0.014547385 -0.29624704 0.13557379 -0.0112826275 0.12467301 0.021303264 0.055785563 -0.21029747 0.18165271 0.076009326 0.019419456 0.14540347 0.06733804 -0.12036903 -0.1540816 0.07232537 0.023064816 0.0015016914 0.069398046 0.18730895 -0.0825377 -0.044841424 -0.13576864 -0.067931175 0.10856541 -0.06777135 -0.088317975 0.16001171 -0.032323897 -0.13897383 0.12947202 0.22084942 -0.03907877 0.028411908 -0.012785686 0.057993796 0.090615265 0.10978318 -0.04915643 -0.0073633376 0.13157235 0.021174219 0.057139914 -0.08773343 -0.09491108 -0.036889557 0.010993584 -0.18629287 0.034563683 0.01576621 -0.07459539 0.077206135 0.06717665 0.035239406 -0.110329404 -0.10865352 -0.08095621 0.030474648 0.0383874 -0.092832044 -0.020581614 0.08837089 -0.08344463 0.016499093 0.11277762 -0.15641421 -0.1340019 -0.13299415 0.15754229 0.08595371 -0.05606023 0.021130336 0.08744082 -0.08994646 0.008657481 -0.13834338 -0.10038838 -0.026111221 0.034501072 -0.052792832 0.07012373 -0.07889628 -0.049761888 0.07179193 0.025587812 0.045042105 0.016919648 -0.13174734 -0.14852194 0.0053090453 -0.042521432 -0.06520754 -0.036453698 -0.026825609 -0.15644234 -0.023003135 -0.11998838 0.07175296 0.10105797 -0.12292631 -0.08340624 -0.08908593 0.08947812 0.16631761 -0.16789483 0.07061651 0.10136675 0.12335053 0.013357752 -0.009486624 0.06856135 -0.074971326 -0.12621512 -0.035914604 0.047522854 -0.043298278 -0.13149862 -0.09372414 0.06273352 0.12205808 0.1033332 -0.054116473 0.022513043 0.07879151 -0.06424753 0.14690931 0.07172843 -0.12962972 0.0142288385 -0.051668547 -0.18585677 -0.20744878 0.05461142 0.07234593 -0.03688672 0.091270134 0.11533136 0.18970497 0.17298234 -0.07230618 -0.0007896537 -0.099254616 0.1516333 0.14993487 -0.2271547 0.07777145 0.16672307 0.083141744 0.056275133 -0.1825892 -0.12580739 -0.12105652 -0.009175698 0.1491096 -0.07477188 -0.034408268 -0.013583893 -0.015954286 -0.120652646 0.35469145 0.24131264 0.29734805 -0.20869593 0.21898666 0.121419385 -0.06467853 -0.08961376 0.302646 0.012011625 0.04765639 -0.04549254 -0.008132794 -0.09158082 0.051453713 -0.05324655 0.035644524 0.099758625 0.1480429 -0.07332986 -0.024745675 -0.10954282 -0.17542623 0.16445318 0.16452989 -0.3617176 0.08995227 -0.1080526 -0.04510183 -0.09682508 -0.20710468 -0.17212059 -0.01759814 0.12598984 0.14865492 0.107120045 -0.19576229 0.042699225 -0.18199265 0.017626772 0.08288901 0.07729878 0.07056271 -0.13902396 0.095747605 0.01243219 0.051195372 -0.10479999 0.28702328 0.11647651 -0.052147828 0.07444159 -0.079218425 -0.13829057 -0.04393851 0.09251101 0.04618521 0.0057189795 -0.13212733 -0.015784813 0.071853906 0.09391557 -0.027427055 0.033008806 0.09536045 -0.0959631 0.088287465 0.08984943 0.040456314 0.041825775 0.13894172 0.078460544 0.113821276 -0.07728659 0.1430101 -0.0688512 -0.13853246 0.15653946 0.004950994 0.137197 -0.10719231 -0.092591 -0.05405029 -0.06671789 0.10176702 0.15277651 -0.0628087 -0.014783725 -0.106257774 -0.097863674 -0.11848248 -0.07763899 0.09795778 -0.071527585 -0.028164877 0.043599337 0.14449489 0.037980184 -0.009008577 -0.034056965 -0.05065863 0.16165835 -0.08083494 -0.16610304 0.09266368 0.20171693 -0.03608115 0.076423936 -0.03955851 -0.15625289 -0.041813392 0.16244398 0.044158954 -0.10582392 -0.2153998 -0.12985325 -0.066640966 0.12880038 -0.10159511 -0.13410103 -0.022884293 0.11023925 -0.085592054 -0.04036447 -0.08717782 -0.19161989 0.0679675 0.123358525 -0.0063527855 -0.16029467 0.14248887 -0.06172373 -0.039251693 0.09932801 -0.009110843 -0.13102137 0.11932278 -0.060828693 0.11224996 -0.10913062 -0.023648761 -0.048035596 0.048036 0.21080552 -0.078070745 -0.19751112 0.008795886 -0.13640994 -0.1693938 0.06224643 0.056567173 -0.28390607 -0.07257269 0.043099035 0.16675553 -0.11348537 -0.18162389 0.027290192 -0.07406728 -0.12126749 0.030876601 0.14681874 0.16898143 0.035963163 0.17156231 0.1864702 0.05060208 0.089310765 0.23012643 0.3198004 -0.10944251 0.020498557 0.27629527 0.009434306 0.009555307 0.06399208 0.066287704 -0.03596414 0.1306972 -0.039770607 0.20355262 0.19026537 0.0040889396 -0.052627143 -0.14496674 0.17721833 -0.016660964 -0.1339109 -0.06040336 0.13989627 -0.10903913 0.3055868 0.18338078 -0.062438525 -0.1323742 -0.08099374 0.026967246 0.111638665 -0.01628281 0.093718864 -0.07235719 0.14826111 -0.22117598 0.23710774 -0.15631266 0.024826426 0.06452352 -0.018521076 -0.28510866 -0.023886 -0.05951358 -0.04377536 0.13945067 0.03221594 -0.12744266 0.08959842 -0.08591021 -0.045466613 0.1642853 0.08388614 -0.08974045 0.060672246 -0.15580474 -0.0463277 0.13724121 0.02422036 -0.09224936 0.036171984 0.057277586 -0.06384153 -0.17158818 -0.04187985 0.11488783 -0.06163144 0.1584267 0.010652148 -0.017268501 0.093984716 0.1451536 0.10924986 0.08713269 0.11564246 0.1583469 -0.109059274 -0.046843264 -0.01794516 -0.124513 -0.12893502 0.09225511 -0.10500441 0.154389 -0.07959511 0.04935861 0.074383244 -0.15034069 0.14832224 -0.032916095 -0.002355618 -0.15166774 -0.054724853 -0.06456117 0.058785453 -0.044034045 0.027817879 -0.030760942 0.015330839 -0.11215402 -0.03923511 0.07143061 0.0064279423 0.031992782 -0.12665991 -0.029067345 -0.13156317 -0.16855936 -0.008776906 -0.15714552 -0.07794999 0.11702903 0.12571126 -0.023500914 0.021797994 0.008633946 -0.0123483 0.14694148 -0.08185589 -0.14348924 0.0857783 0.15057965 -0.03393636 -0.1343227 -0.15760182 -0.11343377 -0.08716747 -0.019705927 -0.0037249029 0.14298685 -0.057637043 0.046074286 -0.026625235 -0.036081903 0.053949475 -0.17203648 0.08240102 0.11226272 -0.077269256 -0.12244629 -0.123987004 0.093161814 -0.08178969 0.067539185 0.08479299 0.0923568 -0.055993427 0.12398587 -0.021622919 0.09977804 -0.12513128 0.04486246 -0.0061015985 -0.05077225 -0.08160152 0.04691074 0.031243978 0.14031813 0.017215727 0.11311188 0.074350685 0.17405322 0.13922803 -0.141103 0.098529644 0.23775463 -0.027399974 -0.115439706 0.10948692 -0.043736935 0.16210657 -0.0012616487 -0.105301976 0.20517892 0.015836686 -0.033497687 -0.11055232 -0.07201233 0.118254125 0.13483877 -0.16730423 0.16452734 0.077015385 -0.121935904 0.08307533 0.029998941 0.04260576 -0.08153175 -0.008541729 0.028430764 0.023303099 -0.08956021 0.053815335 -0.02823159 -0.123633616 -0.19979484 0.18864688 -0.041663453 -0.020587195 0.095477656 -0.024436355 -0.19770744 
0.020159047 0.057807673 -0.1524529 0.08485582 0.1362088 0.032723974 0.064005904 -0.16681461 -0.03902091 -0.019773744 -0.11640587 -0.12166367 0.11775088 0.018498773 0.082931 0.0421604 -0.019058898 -0.1548563 0.033311535 0.2005908 -0.14560756 -0.11185835 -0.11970089 0.13252439 0.056153204 0.041496757 0.07623897 0.025449246 0.043106787 -0.07860687 -0.059624776 0.024577932 -0.15077445 0.081761606 0.05535678 0.18348625 -0.121009596 0.020033665 0.008890654 0.16810285 
Rect
Linear 40 40
0.10008446 0.12638183 -0.034005396 0.10848437 -0.021731552 0.10091473 0.07069303 -0.027680984 -0.058411717 0.045177687 -0.0699059 -0.060978793 -0.1397157 0.0999878 0.030227348 -0.10647004 0.023243356 0.08572103 0.1078382 -0.121787794 0.10555005 -0.06812348 -0.018928932 -0.07678393 -0.117812924 -0.12547673 0.12803681 -0.06306357 -0.14280662 0.1459811 -0.010449696 0.058572687 0.1362017 -0.0009004881 0.14921619 -0.19601825 0.10142716 -0.015310415 -0.17096257 -0.112210415 0.100512944 0.15419015 0.000105818195 -0.05776865 -0.014562237 -0.11454809 -0.14388162 -0.059759725 0.09977254 0.013121059 -0.05640012 0.042982735 -0.10084229 0.22862841 0.2042922 0.040192116 -0.06026116 0.01966025 0.103122346 -0.09860404 -0.089431435 0.2046649 -0.00021261597 -0.16517301 0.007421282 -0.09131093 -0.0598979 -0.0013730875 -0.1216709 0.06600595 0.29732025 -0.022528335 0.101523645 -0.1315913 0.23821071 -0.037416257 0.030479727 -0.05710349 0.0259599 -0.20822595 0.08061647 0.06397204 0.03561968 -0.11215329 -0.20837127 0.060866214 -0.041209493 -0.1381016 -0.05992604 0.10569896 0.016134486 0.0057095108 -0.031289753 0.012127075 0.15819182 0.11920083 -0.08001833 0.09396611 0.24700297 0.058746427 0.1285965 0.008441582 0.028038992 -0.14989816 -0.12659025 0.031954296 -0.099042624 -0.04542913 -0.072081074 -0.12247326 0.15338562 0.23712216 0.02071523 0.0529843 -0.105006136 -0.24688736 -0.012071612 -0.017103473 -0.026732383 -0.1555967 -0.05709607 -0.082288 0.11450167 0.03910419 0.076339066 0.06971331 0.06787434 -0.077317886 -0.106249034 0.04136558 -0.047303226 0.11492536 0.146194 0.033102766 -0.06216846 0.11450772 0.014750173 0.07958759 -0.07820598 -0.122184075 0.032633364 -0.10564152 0.13758215 -0.04350607 0.13284336 -0.045759015 0.11580843 0.04227523 0.034817312 0.0907971 -0.15573272 0.049354486 -0.058105677 -0.09284107 -0.099947646 -0.14266473 0.07326882 0.14953601 -0.1552648 0.074604616 -0.15136336 0.21078026 0.13472752 0.038748052 -0.010336328 -0.13263883 -0.039396856 -0.10704812 0.023649585 0.16785118 0.117393106 0.061147008 -0.15324561 0.1886393 0.03312752 -0.067963526 0.08862755 0.10084455 0.12424088 -0.0646777 -0.05838857 0.12114061 0.089041 -0.13675022 0.0021828301 0.001849494 0.11086566 -0.083643354 -0.14211634 0.03243557 0.042455647 0.1109733 -0.069463216 -0.10685102 -0.02687485 -0.021582326 0.11354657 0.04314997 -0.082071446 -0.06577781 -0.019224638 -0.19206198 -0.08627623 0.10196781 -0.11446578 0.09387061 0.035722736 0.07245088 -0.039565954 -0.0827276 -0.14083804 0.020569887 -0.060203705 0.06438151 -0.0054069804 0.016702333 0.06922887 -0.1430462 0.03420949 0.052995007 0.028317364 0.011410448 0.14840534 -0.16328277 -0.14654957 -0.12796481 0.13219886 0.016552411 -0.16134217 -0.003481919 0.0075498656 0.0027281155 0.053217243 -0.0355154 -0.065227464 0.12585036 0.032274608 0.005689078 -0.10608672 -0.10287267 0.13373244 -0.15526648 0.09026217 0.055723395 -0.075951375 -0.0989585 0.10869252 0.117247574 -0.06984773 -0.14666511 -0.065793745 0.16213903 -0.070301846 0.14248253 -0.060890075 0.010580142 0.034226693 -0.059489973 0.038139347 -0.09672201 0.1272543 0.009498253 -0.046831667 0.059137277 0.07693706 0.13198754 -0.050740257 -0.08571655 -0.08122852 -0.1194 -0.11339004 0.074657276 0.14053878 -0.09565929 -0.16257516 -0.011179392 0.003974785 -0.015202577 -0.07301098 -0.10085443 0.082305714 -0.036865544 0.05984995 -0.015853796 0.014995251 0.13644683 0.07445042 0.07672222 -0.13003765 -0.11108778 0.038620505 0.05409899 -0.004573602 0.074224934 0.10522134 -0.030999418 0.016753357 -0.09593179 0.059516206 0.111402795 -0.048617013 0.089108154 0.014707747 -0.10183336 -0.05802897 0.011111745 0.15657349 -0.040268242 0.03738392 -0.05772474 0.10708775 -0.09272653 0.042495396 0.037083346 -0.0012314891 0.031420257 0.043957934 0.081704885 -0.07882977 -0.035118323 0.0656941 -0.08262686 0.09411311 -0.11967565 0.11050961 0.028816242 0.13691778 -0.092071176 0.09677047 0.13695602 0.08447145 0.064251326 -0.16348755 -0.003468208 0.04354942 -0.049801562 0.07268526 -0.1283339 0.103002675 0.016403627 -0.04739084 0.008035093 0.11121587 0.1456346 -0.013988334 0.052800972 -0.16164671 -0.0415116 -0.10723585 0.08308811 -0.12760521 -0.104808204 0.13218965 0.07497569 0.1368679 0.061868507 -0.10737008 -0.12631944 0.07756855 0.07271177 -0.03675215 0.14012752 0.121975325 0.11308634 -0.15142985 0.14632964 -0.08016473 0.11366352 -0.099376485 0.16159274 -0.1554587 -0.041399654 -0.045724794 -0.07107006 0.123654746 0.0593822 -0.0025412927 -0.1498447 -0.04594784 -0.013853207 0.08059902 0.17982295 -0.003816963 -0.1649849 -0.03919218 -0.07078276 -0.16957234 -0.00088124664 -0.06888198 0.11447332 0.17173623 0.16318208 -0.04871495 -0.047675956 0.1218282 -0.0013520854 0.02005394 0.058650877 -0.087788865 -0.036045298 -0.16203527 -0.13818592 -0.08214743 0.13117056 0.021959623 0.1398292 -0.052310765 -0.03347966 0.044343226 -0.048162706 -0.01683817 -0.014373859 -0.11873599 -0.15148376 -0.08702387 0.014378576 0.04453919 0.1288568 -0.0454544 0.04049091 -0.01371123 0.05601777 -0.052144933 -0.12354399 -0.18180534 0.13538103 0.14828491 0.030980142 -0.07393899 0.12514059 0.005061999 0.10921723 -0.025712796 -0.14570901 -0.075145856 0.045702808 -0.1258918 0.1434615 -0.063927986 0.0033798285 -0.06649944 -0.0810225 0.07490697 -0.012887321 0.074345306 -0.07904518 0.23580706 -0.15409853 -0.10375905 -0.06364868 0.149858 0.10791211 0.045896985 -0.038698394 -0.009073227 0.14256191 0.035403326 0.050962165 0.07066967 0.26812834 0.07367751 -0.24526174 -0.12434611 0.013032388 0.01810536 0.12580782 0.18708582 0.09327672 0.12192417 0.03786495 -0.21272561 -0.24382241 -0.12077722 0.031132445 -0.02162622 0.10361013 -0.0054428396 0.0836491 -0.093948 0.07892386 0.023287086 -0.13639647 -0.061408203 0.07007915 0.0110073425 -0.042294137 0.015400049 0.0039722174 -0.04566088 -0.14227454 0.073051505 0.063361205 -0.031196518 0.14664726 -0.053741146 -0.11393664 0.116542526 -0.0240352 -0.07358867 -0.028224967 0.010476466 0.067186676 -0.010602891 0.14218166 0.12324447 0.10034443 -0.04886793 -0.15740998 -0.13650325 -0.15050134 0.08000467 0.11381622 -0.10288489 0.13854405 -0.071641214 -0.13265876 0.025803698 -0.06776648 -0.053125132 -0.0338807 -0.037337713 -0.1671873 -0.13296828 -0.05165118 -0.12550746 0.013654584 -0.09380673 0.07957233 -0.11553618 0.0834297 -0.119244866 -0.1222003 -0.06768889 0.08276299 -0.039965503 0.048183892 0.082218766 0.061730847 0.084896676 0.11089882 0.078379236 -0.13328537 0.0011923322 0.013568219 -0.082281806 0.120601825 0.013399363 -0.06937218 0.018271485 -0.12038489 -0.20317447 -0.075438604 0.09190428 0.07444755 0.07827249 0.10738584 -0.14701273 -0.15237835 0.07617996 0.07367452 0.065440014 -0.15920392 -0.1326302 0.13041359 0.2546117 -0.11712009 0.13736708 0.060799826 -0.053001333 0.09328498 -0.15458606 0.03213831 0.14268358 -0.094627075 -0.11433112 0.10093163 0.10488178 0.10965915 -0.14516476 0.289191 0.13798898 -0.1614662 0.13243034 0.03504453 0.09018483 -0.00966667 0.10704131 0.043527406 -0.052905653 -0.08844167 -0.19723733 -0.21886325 0.06791832 0.16946319 -0.121348806 0.32630473 0.12770139 0.09093464 -0.09503936 0.13519365 -0.1577525 0.092646085 0.032417018 0.08840317 -0.008265623 -0.040325824 0.124053374 0.08195296 -0.08644175 -0.05606257 -0.1249959 0.13324088 -0.15363617 -0.1217168 -0.068956256 -0.03391392 -0.13573138 0.008239999 -0.0839247 -0.13130084 -0.123511 -0.13155447 0.124553956 0.09841542 -0.13289845 0.1406036 -0.101999946 -0.019934071 0.13429628 -0.12084175 -0.06864569 -0.11061731 -0.017505782 0.11939475 -0.016006043 0.09476155 -0.10797371 -0.027260939 -0.12522301 -0.100243844 -0.124734804 -0.08357559 -0.10344856 -0.08435638 0.073271565 -0.101005286 0.008865845 -0.02774106 -0.052352566 0.107253134 -0.074060835 -0.16890043 0.04465051 -0.023679093 -0.06865662 0.087605506 0.05694918 -0.032545596 -0.15239371 -0.0100436425 -0.045308016 0.07193016 -0.040046062 0.007956803 -0.13270031 0.084083624 0.08147069 -0.17699255 -0.12216981 0.13566121 -0.08886546 0.10336234 0.05632985 -0.092450686 -0.15111771 0.06244879 -0.0010017339 -0.023010287 -0.1556639 0.023614535 0.0024579659 0.021128653 0.07708651 0.06776682 0.060659893 -0.12629876 0.09358902 0.05247438 0.078192614 -0.010913376 0.10872061 -0.1487146 0.038921006 0.109792076 -0.14484717 -0.002911647 0.11545532 -0.13944921 -0.007929073 0.13753244 0.11423342 -0.07656946 -0.07364495 -0.0022892328 0.06343774 -0.08162294 0.03735241 0.07053596 -0.012493046 0.15294665 -0.033019315 0.04649286 -0.015393704 -0.028801737 0.013758484 0.018651336 -0.08864896 0.13491291 -0.14830558 0.040011972 0.066638544 -0.00038869944 -0.028087795 0.11985032 0.07058398 0.018563148 0.07352954 -0.045951843 0.096060686 0.11736984 0.11910318 -0.09693949 0.13574286 -0.12086597 0.033664197 -0.14892973 -0.05135514 -0.12391572 -0.0036259291 -0.07382182 0.029818386 0.08957804 -0.08314996 0.09399667 -0.034951314 0.135414 -0.11036468 -0.001541331 0.12781544 0.15289071 0.12840804 -0.08004867 -0.13732332 -0.15349032 -0.15504615 0.102496855 -0.054188594 -0.14391722 0.0053292788 -0.12069167 -0.15824604 0.09170501 0.007851765 -0.091437764 -0.11143522 0.05373626 0.004000709 0.06406464 0.070062466 -0.07314911 -0.074174516 0.03934612 0.13180682 -0.15653671 -0.08624268 0.055003274 0.14378758 0.1158113 -0.076000825 -0.09655287 0.108806305 0.107046135 0.052052863 0.07679341 -0.09848096 -0.020134667 -0.105952494 0.095276445 -0.08295943 0.016067717 0.13740751 -0.021703215 0.007910865 -0.14442016 -0.15920047 0.08375742 -0.082256906 0.13985854 0.0427045 -0.10358532 0.03759779 -0.07786246 -0.0415719 -0.06588549 -0.09827058 0.12118827 0.13790253 -0.043592006 -0.101018496 0.15396364 0.09578031 0.07872208 -0.120176055 0.044250812 0.08297311 0.11403787 -0.1521282 -0.068831176 -0.09613165 -0.066130444 0.058748 0.05301074 0.06456379 -0.086023495 -0.064925745 0.12348093 0.037765253 -0.12191208 -0.095391735 -0.10248197 -0.10659379 0.0599323 -0.037717298 -0.042034294 -0.12450123 -0.08114363 -0.119591005 0.116196565 -0.15385577 -0.05147635 -0.07344229 0.07293846 -0.017307699 -0.035914112 0.04146566 0.0036582681 -0.011894496 -0.030779582 -0.045162734 -0.051271766 0.08817997 -0.11053691 -0.14113258 -0.06810463 0.07698908 0.061428577 -0.11178663 -0.0585701 0.05964281 0.09020401 -0.103327915 0.1409843 0.06117093 0.019710831 0.041223086 -0.14535011 0.10632223 -0.07086303 -0.091264255 -0.11888667 -0.15212128 -0.16672896 0.033701465 0.073143005 -0.022712054 0.04639684 -0.044601977 0.02389158 0.09041292 0.07463091 0.09422534 -0.060980238 -0.11812462 0.0364227 0.08358241 -0.066707686 0.18545797 -0.119836174 -0.1732622 -0.076130405 0.1254082 0.10250057 0.17220262 -0.20692208 -0.15603057 0.21087036 0.0021627655 0.12631474 -0.028533641 0.2522069 -0.14972499 0.028958043 -0.08586518 -0.022066526 0.20745884 -0.07921835 0.22742349 0.07302481 0.14629702 -0.15943845 -0.19556467 0.040290363 -0.08681874 -0.009836153 0.03986128 0.21101065 -0.02409512 0.018022377 0.2092433 0.16875538 -0.14693755 0.033530578 -0.09125535 0.15686218 0.16342202 0.11998606 0.034049556 -0.0640454 -0.040121023 -0.19533536 0.044713054 -0.058800507 0.042584173 0.08222024 0.06094903 0.039666314 0.13368535 -0.037895873 0.061837096 0.1450147 0.06306956 -0.15148349 -0.00052928156 0.1609228 -0.09629685 0.08678712 0.054252405 0.040414155 -0.13037647 -0.019845739 -0.23428537 -0.097267166 0.13936819 -0.0072474657 -0.11170642 0.025053687 0.03425086 -0.034232054 -0.17330942 0.04008489 -0.14416938 -0.08460504 0.031407923 0.02296488 -0.019464478 0.06996325 -0.042211823 0.084229544 0.059663013 0.05038552 0.12016173 -0.018813148 -0.022322595 0.13418497 -0.08303025 0.032699436 -0.04802478 -0.11655649 0.026380047 -0.06552842 -0.065456435 -0.0076334625 0.103930905 0.08133212 -0.034380622 0.08312687 -0.082323596 0.047887266 -0.10276248 -0.010947049 0.004344985 -0.14349362 -0.07166395 -0.076248646 -0.02086179 -0.08243313 0.15803896 0.15497391 -0.018672168 0.060439885 -0.057463266 0.12814826 -0.03475494 0.06964793 0.032218788 -0.093643315 -0.08993373 -0.04795876 -0.008090063 0.056903027 -0.12268087 -0.042452067 0.026786933 -0.08315499 -0.123054795 -0.0047988514 -0.1405055 0.15262456 0.048447423 -0.10288117 -0.087270275 0.14679492 0.1479028 -0.08131461 -0.121386886 -0.07008097 0.041772112 -0.079548754 -0.039677747 -0.0033639863 0.14893503 -0.042720824 0.12729125 0.07340585 -0.08155081 -0.11066811 0.15359071 -0.008331937 -0.026481615 0.05347879 0.0114314705 0.08192943 -0.12936173 -0.0741824 0.04065165 0.100170806 -0.04981774 0.039418772 -0.12842143 0.09467907 -0.084317446 -0.016940355 0.0019591302 -0.063726865 -0.13722451 -0.12199806 0.082875565 -0.15723068 0.06792915 -0.038253136 -0.048988625 -0.07709584 -0.14339606 0.118227795 0.035530537 -0.09210254 -0.06927024 -0.07626029 -0.10235571 0.120065466 -0.09586173 -0.1074051 -0.0012082756 0.12929036 0.09974952 -0.09190836 -0.13451943 -0.12832631 0.12624805 -0.019349486 0.032642175 0.17038825 -0.021813417 -0.13164607 0.064592525 -0.11806225 0.010122731 -0.04169983 -0.11568849 -0.013961198 0.13658087 -0.08338805 0.113764666 0.018413933 0.052749116 0.021415835 0.009849031 -0.14174227 0.22745466 -0.15184636 -0.0019296984 0.019736493 0.08167175 -0.028980967 -0.20905955 -0.12882817 -0.0080149295 -0.19199891 0.09279316 0.013794928 0.11365395 0.17379412 -0.13383934 -0.118589 0.25791037 -0.20014203 0.03958277 0.14775307 0.13340765 -0.07642047 0.043678205 0.1080037 -0.07595283 -0.113240354 0.084086835 -0.030169452 0.1207425 -0.045231596 0.019582348 -0.0022659358 -0.06430262 -0.09319573 0.05491634 0.05740519 0.08783148 0.012136954 -0.07761617 -0.09313665 -0.21453759 -0.102841824 0.060423974 0.033639226 0.072097816 -0.12064333 -0.1065436 -0.05620623 -0.15254518 -0.12761581 -0.1654266 -0.009740725 -0.03951789 0.08226785 0.108452655 0.12769535 -0.13267982 0.12506136 0.06735434 -0.012191074 0.08486836 -0.023773788 -0.08271498 0.2314536 0.11701511 -0.12300672 -0.047556773 0.0740802 -0.13854727 0.06799461 -0.06199333 0.14527884 0.07803376 -0.07911612 0.11916871 0.1369672 0.21372785 -0.18202133 0.055188898 -0.11136842 0.18056633 0.07918294 0.027923902 0.26051107 0.13317584 0.02112947 0.02233328 -0.109633215 -0.036072955 -0.053846616 0.06617128 -0.10591874 0.2515713 0.08128502 -0.11181843 -0.10612435 0.08511392 -0.16965246 0.18454878 -0.14243352 0.052224457 -0.010767928 0.14094687 0.08820709 0.15072922 0.095337495 -0.07042224 -0.087334886 0.040833324 -0.0026405454 0.07130739 0.06837501 -0.03754252 0.1259755 0.14938195 -0.07958264 -0.13745181 0.14194338 -0.124965414 0.039013997 0.07203295 -0.10565558 0.041848704 0.14622645 -0.0129773915 -0.1436051 -0.14820224 -0.08801047 0.05657127 -0.1359967 -0.14309484 0.13547021 -0.036342725 0.119365126 0.105888665 0.07611694 -0.07808272 -0.05500473 -0.09406213 -0.04235095 0.0062689497 0.05909949 0.031592242 -0.07386476 -0.12403427 0.1489502 -0.114566654 -0.07430525 -0.13255882 0.09841702 0.07181965 0.028892173 -0.13081169 0.008256342 0.06281743 -0.08725171 0.1258948 0.054575782 -0.030967003 -0.037873805 -0.04790361 0.03288935 0.1348159 -0.06346228 -0.04097703 0.040725607 0.015598661 0.04334613 -0.12781763 -0.014534322 0.06478221 -0.021433948 -0.07567488 0.017652348 -0.1222296 0.04903161 -0.012609524 0.0014909981 -0.15577914 0.10305336 0.08315146 0.16380797 -0.027130399 0.16002123 -0.04714228 0.04919573 -0.1031133 -0.13213623 -0.015324941 -0.15426932 -0.018870248 0.17458273 -0.013710709 -0.14007033 0.08756247 -0.037381317 0.10078365 -0.20942335 0.075109236 0.022267938 0.051056627 -0.18941103 -0.05678057 0.22409056 0.0028767893 -0.12211318 -0.15823922 -0.015750883 -0.14195265 -0.21674669 0.10030662 0.09272757 0.2450791 0.08094801 0.009807973 -0.08402058 0.13268524 -0.081712134 -0.110207096 -0.10197331 0.109201066 -0.08728125 0.11504388 -0.14154787 -0.07087492 0.10519224 0.10074241 -0.057825558 0.10141844 -0.113068186 -0.13315038 -0.10528384 0.12984581 0.008935706 -0.064948164 0.11376856 0.1292644 0.09716706 -0.1377222 -0.106242 0.037372615 0.0689749 -0.04705114 0.1200876 0.04590439 -0.002929932 -0.059690427 -0.09781221 -0.1279264 -0.093164146 -0.08638568 -0.03440001 -0.047821444 0.06893573 0.0057852943 0.11624192 0.0046957047 -0.074917145 -0.04433113 -0.07471681 -0.098691255 0.0971492 0.027932411 -0.10968909 -0.08845771 0.07935673 0.15068117 0.07207283 0.15554295 0.100368276 0.027389517 0.05449477 0.060600385 0.10619524 0.051703714 -0.14702584 -0.15779044 0.07804006 0.091027 0.14836137 -0.19884786 0.11064185 -0.0982558 -0.06660652 0.15801641 -0.045927707 0.035201296 -0.01791949 0.0036756077 0.17204912 -0.030839697 0.07224845 -0.06986332 -0.028155327 0.09356713 -0.097755596 -0.19763583 0.24002537 -0.16430658 -0.13664739 -0.11024255 0.07506007 0.0837588 0.07901409 -0.07893441 0.06703646 -0.058911905 -0.11730476 -0.13238983 -0.15026681 0.14317034 -0.13981916 -0.03536513 0.077898026 -0.14962439 -0.0011810611 0.11443211 0.15269166 -0.1352044 0.092256024 -0.089924574 -0.12205897 0.03315691 0.07826867 -0.07577732 -0.067268625 0.053877495 -0.15684864 0.031076537 -0.04120611 -0.087318756 -0.129802 -0.081778705 -0.014603045 0.04669744 -0.1383391 0.064930096 -0.12022147 0.1394268 -0.039635975 -0.07042727 0.094949655 0.08650941 -0.026127549 0.10305889 -0.11125985 0.12930068 0.14726004 -0.12524489 0.14059146 0.12131389 0.123070784 0.07437537 -0.105421 -0.016253691 0.090523355 -0.13861175 0.10586203 0.15022653 -0.09986724 -0.053614262 -0.13714658 -0.081526764 0.10769085 0.0027524661 0.12666279 -0.14785495 -0.070503436 -0.07672012 -0.12180948 0.105994545 -0.09826088 0.09687879 -0.11392661 -0.06186155 -0.023243248 -0.14792265 0.07871074 0.025836756 -0.041394208 0.14063872 -0.01616327 -0.14317177 0.02926436 -0.05903398 0.056469798 0.088855796 0.12390411 0.12517372 0.06885128 0.04578605 0.076471254 0.05493968 -0.06321503 -0.15678838 -0.16321446 -0.08026296 -0.06803686 -0.01294153 0.100494996 -0.10947552 -0.08114339 -0.12850153 -0.058877025 -0.118899055 -0.094764255 -0.11776569 -0.1592787 -0.10807444 0.081964165 -0.01260549 0.100314006 -0.015712677 -0.15499093 0.07015348 0.07655672 -0.16009794 0.15682776 0.024131997 0.09041612 -0.07721316 -0.05091409 0.12971619 0.06583976 0.030535275 0.12496096 0.15209703 0.078011185 0.14822365 0.09823817 0.08647024 -0.13294865 -0.025814464 -0.14894637 -0.13281885 0.055030096 0.077696405 -0.042932335 0.10574318 -0.012860253 -0.035216883 0.15210558 0.113330625 -0.21331912 -0.020394184 -0.022902418 0.1010881 -0.11172112 -0.025683945 0.01337407 -0.11809068 0.07903214 -0.08766916 -0.19046973 0.09008225 -0.06529071 0.041802667 0.16574088 -0.10180462 -0.14904329 -0.13146016 0.15760773 -0.10085322 0.1522687 0.030323967 0.00010256704 0.013760575 0.010198491 -0.088078104 0.024103172 -0.020386236 0.026855942 0.09937748 -0.015365715 -0.0821207 -0.0634227 -0.026472606 -0.12925181 0.06241081 0.15207134 0.15195845 0.04755646 -0.045077775 -0.105440505 0.023267966 -0.038768504 -0.052748796 0.10626321 0.011541869 -0.1322697 0.091767944 0.13327938 0.024623033 0.1694936 0.082235254 0.059996255 0.014846889 0.020318082 -0.1045031 0.06649836 0.022020454 -0.03638644 
0.079025745 0.15020393 0.14439565 -0.113410585 0.07022965 0.0400556 0.10644607 -0.07469647 -0.22283888 0.046034805 0.007788884 0.01643212 -0.03142103 0.0065103583 0.23271038 0.06333715 0.08111801 -0.13314666 -0.12522231 -0.030151062 0.051618055 -0.005219452 0.055319335 0.0359413 -0.11340639 -0.08819774 -0.14095762 0.018195128 -0.009833441 0.03377385 -0.12425734 0.03509242 0.031994548 -0.031029742 0.088288814 -0.029446585 -0.11939038 -0.0055108573 0.051833652 -0.044484872 
Rect
Linear 40 40
-0.0007197006 -0.10810976 -0.13492675 0.02091396 -0.15341307 0.050190885 -0.08325196 0.032241885 -0.11740191 -0.028451603 -0.12614077 0.07023256 0.009167373 0.049456187 0.071007766 0.052725364 -0.119185545 -0.119649045 0.038048342 -0.14872774 0.0626898 -0.07180334 0.099296525 -0.07326069 -0.07133017 0.06273897 0.022745952 -0.09701817 0.089127585 0.032501813 -0.10899049 -0.02489007 0.14375027 0.13688622 -0.14894882 -0.13557711 0.013112515 0.058945134 0.12551633 -0.06884335 -0.15266865 0.09351142 0.01984264 0.12578164 0.03611183 0.1558982 0.09491344 0.039809763 0.08353563 0.13620506 -0.1474841 0.025697425 -0.020476937 0.07389912 0.00849697 -0.14046437 0.15227859 0.057412744 0.115453795 0.13910721 0.0055918843 -0.1233103 -0.04924114 0.073071614 0.019003898 -0.08056602 0.12245096 -0.116869465 -0.14009686 -0.08997017 -0.121841684 -0.14468165 -0.114372715 -0.071998596 -0.09122911 -0.035587594 0.08330174 0.15285106 -0.047890954 -0.08436843 -0.08514975 0.2197602 0.1859594 -0.02912131 0.20112342 0.003242123 -0.14647137 -0.10838612 -0.034060173 0.1644794 -0.08611796 -0.00023555568 -0.12677586 -0.13789314 -0.15530281 -0.11087338 0.13782254 -0.14712039 0.07338099 -0.14184985 0.06817117 -0.038675256 -0.13366774 -0.10307606 -0.046734326 -0.1544569 0.01662895 0.12217539 -0.09205929 0.09908805 -0.15828769 -0.096340016 0.23406686 0.029316537 0.07070327 0.019487416 0.119873434 0.15136932 -0.12004051 0.10908495 0.021710789 -0.18876521 -0.15930828 0.040479705 -0.0648173 0.01759512 0.14516878 0.09369396 -0.10718398 -0.15411437 -0.020409841 0.116463795 -0.084571354 -0.08047177 -0.06298127 0.066831335 0.059161212 0.10858577 0.008145183 -0.08583951 -0.069493935 -0.1516924 -0.06541581 0.04773523 -0.009110093 -0.07691892 0.06681833 0.03375465 0.017854745 -0.14901888 -0.020743325 -0.1640691 -0.0063477946 0.0884571 0.029801091 -0.100286886 -0.018200586 0.11022068 -0.05429162 -0.14407712 0.035825543 0.012570355 -0.086069 -0.14166257 0.15047222 -0.017864829 -0.1399475 -0.14691919 -0.14947157 -0.042641073 0.07264926 -0.15376571 0.08465308 0.14918953 0.037002664 0.052720644 0.013271798 -0.073125154 -0.002325192 -0.067819424 -0.091460444 0.12673698 0.1326312 0.072322406 -0.11079137 0.012245223 0.011165068 -0.15985967 0.12369099 0.03455049 -0.00987442 0.01983653 0.09619733 0.13367295 -0.020259408 0.09647712 -0.14291671 -0.02922366 -0.15587518 0.04453389 -0.043319162 -0.13030508 -0.12407283 -0.026495233 -0.13476497 0.08534681 -0.07979648 -0.08075925 0.024635777 -0.064045556 -0.01443746 0.19180864 0.08710465 0.15484902 0.06403708 -0.07330883 0.049070805 0.09135207 -0.033762123 0.08513633 0.09032258 0.07072364 0.20388038 -0.07965134 -0.15781449 0.0034627467 0.028786466 0.0015390905 -0.04945033 -0.072659135 -0.10277309 0.12012718 -0.19330153 -0.1554572 0.13678049 -0.032117434 -0.03426898 0.14668246 0.020832112 0.04377005 -0.0571099 0.12402432 -0.107390895 0.14410426 -0.008167893 -0.12695715 -0.1235801 -0.14376341 0.12656797 -0.15729833 -0.050946996 0.15377559 -0.115747064 -0.051043354 -0.072688304 0.14545603 -0.021461636 0.14480413 -0.043460898 0.04965383 -0.11737791 -0.054049067 -0.08408553 0.10548304 0.05926405 -0.035403952 -0.13135348 -0.11980833 0.06384349 0.083078876 0.09602408 0.07786669 -0.055647813 0.07748747 -0.020653188 0.08056025 -0.101915106 0.003043741 -0.0009417385 -0.039423145 0.037278756 0.052262817 -0.10799169 -0.028459132 -0.079525724 -0.0808371 0.14280418 -0.055988386 -0.022554953 0.020701325 0.0346514 0.03882401 0.08576503 0.13373709 -0.2705995 0.057274345 0.05477201 -0.007046113 -0.103604354 -0.045671318 0.15071532 -0.09505309 -0.18545361 -0.03311085 0.083535984 -0.087585285 -0.03708361 0.15530038 -0.12755758 0.13096514 0.09076468 0.0037155924 0.06956827 0.11302703 0.092653915 0.09724457 -0.020186283 -0.011697224 -0.17280439 0.039629474 -0.11469048 -0.11836145 -0.11517611 -0.10907402 -0.07288248 -0.03731043 -0.11032277 0.050520547 0.137455 0.07266421 -0.056461796 -0.011836137 0.12773274 -0.024487538 0.009112427 0.030696167 -0.026206346 -0.05800101 -0.08706324 0.110421166 0.11829837 -0.04413811 0.066702046 0.03663852 -0.12779063 -0.14889613 -0.030802146 -0.09628037 0.105006285 0.079032585 0.0013496727 0.034651924 -0.15637372 -0.12414205 -0.104567945 0.039426733 0.13619153 -0.041271407 -0.11240149 -0.10153941 -0.041436974 0.010794033 0.08679064 -0.15063035 -0.029914126 0.03932804 -0.051649697 -0.15533206 -0.1186482 0.1194148 -0.020470798 -0.10609198 -0.0029498674 -0.04824678 0.059260562 0.016080663 -0.10481714 0.041481867 0.1246499 -0.08793381 0.14367653 0.15081637 -0.110100076 0.054133177 0.12932707 0.08210983 -0.024295092 -0.053699665 -0.15780064 0.017846111 0.049875133 -0.0855152 0.098543756 0.042398833 0.047711164 -0.05980305 -0.06554874 -0.08683704 0.09572525 -0.047663018 -0.14262286 -0.16381377 -0.12149979 0.02597261 0.14067335 0.08376892 0.062397502 0.008866478 0.001580712 -0.054965373 -0.05878794 0.10695213 -0.11314496 0.040787827 0.33635 0.06624825 -0.060867094 -0.093483 -0.1401608 0.13577288 0.097475775 0.03409747 0.217505 0.07564125 0.028589562 -0.14470625 0.14433526 0.040818088 -0.12187495 0.0036185137 0.01569376 0.07498573 0.05743855 0.08952304 0.192286 -0.007291581 -0.05561108 0.081435904 0.19341703 -0.10903143 0.14542483 -0.11338581 0.15136227 0.063963145 0.024892671 0.13841547 0.14843929 0.061352365 0.004032161 0.16924983 -0.14592882 -0.073550604 -0.13105072 -0.13198878 -0.14692417 0.05298827 -0.13508151 0.050680965 0.021908903 -0.15069038 0.10062317 0.09102653 -0.20090225 -0.030423582 -0.029397085 -0.14008914 -0.028122127 -0.032793794 0.096287005 -0.053666953 -0.14106151 0.044392418 0.15209244 -0.13508323 -0.016238663 -0.02842282 0.11432337 -0.11469506 0.054709915 -0.15681371 -0.057941478 0.08385168 0.037793495 -0.13827115 -0.074153654 -0.15486962 0.027958034 -0.035394248 0.11216298 -0.089294225 -0.08332295 0.03067235 0.096933 -0.04686226 0.061817244 0.018670056 0.045451827 -0.10435169 0.13515508 -0.0119888075 0.113085285 -0.14050342 -0.0026943996 -0.11806918 -0.08205791 0.020614628 0.104488626 -0.05375105 -0.12161642 0.09128497 -0.15734723 -0.048097186 0.047601964 -0.15790565 -0.10364693 0.14938913 0.03234394 -0.017934125 0.15811437 0.1470917 0.08824572 -0.02648235 -0.017090349 -0.05121112 -0.12262321 -0.13575263 0.060188323 0.15769461 -0.011200594 -0.052019224 -0.02012269 0.044491615 0.02699602 0.088372365 0.05572706 0.061973106 -0.015097117 0.053475916 -0.047114894 -0.005314147 0.098171666 -0.12531145 -0.10028049 -0.068017386 -0.1145813 -0.096529484 0.111567095 -0.047978457 0.10911686 -0.19914155 -0.033332556 -0.07672404 0.04895521 -0.1160509 0.16738576 0.011057098 -0.15306127 0.019895565 -0.10517443 0.022096615 0.09672172 0.1382472 0.06996401 -0.09904361 0.14999148 -0.06987244 -0.10954738 0.00932414 0.15479885 0.14121805 0.01830898 -0.098858036 -0.0028169274 -0.026070928 -0.16146961 -0.007118185 0.11363316 0.14933811 0.0625341 -0.10797024 0.11618359 -0.13070637 -0.08037478 -0.054639246 -0.10282555 -0.07012305 0.06004882 0.15301962 0.15594324 0.017861743 -0.10528315 0.124537714 0.024858424 0.0753114 -0.15487999 -0.13383432 0.036289852 0.035924003 0.113761574 -0.05696174 0.093848065 0.0716232 0.0007437534 0.067601636 -0.014693791 -0.046235096 -0.07517592 0.14843914 0.07442422 0.06865455 0.14700408 0.10817406 -0.027748683 -0.1678851 -0.017687798 -0.15816066 -0.094734654 0.06390676 0.14155601 -0.06112396 0.050974693 0.13329764 0.111048974 0.06477157 0.096100286 -0.08158475 -0.045369945 0.014379705 0.06572305 -0.027287431 -0.08307869 -0.15628083 -0.09246782 -0.11937979 0.1327606 -0.10392985 -0.062326774 -0.15653943 -0.15903628 -0.1455081 0.056973454 -0.048025273 0.10838278 -0.021180287 -0.016235746 0.087650836 -0.14659666 0.018714821 0.07406701 -0.02947337 -0.15744479 0.07783997 0.042313658 -0.17319265 0.11280148 -0.15390143 -0.09730246 -0.06798053 0.036947407 0.06471478 -0.060475864 -0.10495851 0.0011630426 0.095602915 -0.047801897 -0.1342235 0.021802276 -0.025836851 -0.15095577 -0.17766352 -0.00092650397 -0.100927405 0.06694658 -0.022541411 0.070049144 0.08369886 0.112272516 -0.058639698 -0.16015373 0.053752568 -0.031006418 -0.023802754 -0.09311505 -0.057316918 0.060813915 0.026930727 0.008948312 -0.06173331 0.051044386 0.061490845 0.11476939 0.17699894 -0.022627596 -0.105318844 0.17053641 0.15203561 0.11785118 0.014894538 -0.124133915 0.022216024 0.04127121 0.05888064 0.16892971 0.16943288 0.11733429 -0.10074215 -0.054944925 -0.0024726556 0.1318177 0.039369762 -0.08002277 0.040322285 -0.08484854 0.08777378 0.15646955 0.11145985 0.01966386 0.12587553 -0.029564237 0.06436092 0.05667442 0.024909839 -0.11835263 -0.006705463 0.07522787 -0.11105208 -0.13082932 -0.0346675 -0.037609585 -0.04274676 0.066982195 -0.10118693 0.13997568 -0.11186221 0.020629928 -0.08428079 -0.07641206 0.024525538 0.035114422 -0.13328639 -0.018595755 0.036492765 -0.084394634 0.13836186 0.07568462 0.10107468 0.12560071 0.027471244 -0.10222543 -0.07187491 -0.08178839 -0.023630261 -0.14091781 0.039444044 0.09222861 0.14370607 0.019873083 -0.008190304 -0.08152962 -0.13650775 0.07202488 -0.07945887 0.072558194 -0.01121109 -0.029564576 0.14481965 0.12726875 0.11864595 -0.034363803 0.01633371 0.012387338 -0.14172989 -0.13023178 0.083254956 -0.18684548 0.107352324 0.08216672 -0.118346825 -0.06991724 0.07383788 0.14894316 -0.09047383 0.0595907 -0.15887333 -0.13114622 -0.08243992 0.12720905 -0.11484587 0.15625265 -0.0047755707 -0.005980524 -0.14519688 -0.041067712 -0.004052538 -0.024085583 -0.12810475 0.051934633 -0.003292735 0.07954173 0.02041564 -0.111566685 0.0014820546 -0.15109487 -0.018737338 -0.15684247 -0.12594338 -0.036899842 0.044165354 0.06590691 -0.14941384 0.036324967 0.024367161 -0.0023236275 -0.14077406 0.076032415 0.106307335 0.07625118 0.06850838 0.009371117 0.09919338 0.0390165 0.027051933 0.07260003 -0.11638669 0.027349964 -0.13643676 0.021415219 0.059535444 -0.11817432 -0.017812539 0.09613548 -0.12204412 0.05961521 0.058217384 -0.019046193 0.048054785 0.03712663 0.09529934 -0.117996715 -0.046776872 -0.063943796 -0.17459491 -0.14265029 0.053530425 0.00799722 0.019467298 -0.15473802 0.010162435 0.018012986 -0.067788035 0.04715962 -0.11885114 -0.06171688 -0.09947615 -0.030130561 -0.09176238 0.1340795 -0.14412653 -0.091393694 -0.15547392 -0.05036509 0.13439238 -0.012438746 -0.12627792 0.08495957 -0.03572523 0.0012937635 0.004787525 -0.10100545 0.12044645 0.06715832 -0.054879114 -0.06218684 -0.02889807 -0.042419653 0.095803335 -0.07874132 -0.006840683 -0.0632084 -0.13207334 -0.14993837 0.020848874 0.04337128 -0.031889807 0.07448176 0.10924081 -0.06348715 0.11040412 -0.006667943 0.035923295 -0.019350667 0.114803754 -0.07160567 0.12112782 0.18251659 -0.13629447 -0.09709499 0.05178625 -0.06494793 -0.07188216 0.09079799 0.027325882 -0.031787667 0.096226975 -0.00646618 0.1088577 -0.13457958 -0.15939651 -0.018072272 -0.09315249 -0.1156619 -0.156211 -0.11619312 -0.03120415 -0.0036660961 -0.08449793 0.053889196 0.0609066 0.12818657 0.07050751 -0.05204919 0.05873781 0.05664858 -0.028168023 -0.05821253 -0.12452477 0.094746664 -0.024223832 -0.009623847 0.0059498083 0.10311506 -0.004660251 0.01610595 0.106445946 -0.08721622 0.12613136 0.102071345 -0.10925671 0.046420183 -0.049812805 -0.058745217 0.039857835 -0.11840346 -0.092417575 0.072982535 -0.09056474 0.09883802 -0.06620017 0.12669335 0.03361205 -0.06834214 -0.04891776 -0.1020293 0.032436676 -0.034006346 0.14122488 -0.13903634 -0.09494005 -0.019223535 -0.02215775 -0.120723054 0.052060507 -0.043164495 -0.059821002 -0.009093643 0.1225545 0.03800462 -0.109067224 0.048224017 0.0053789313 -0.043461427 -0.17018227 -0.079638645 0.07808573 0.12989782 0.119345054 -0.054444343 -0.1312501 -0.14867106 -0.027265852 -0.08022993 -0.05019629 0.0043745437 -0.1463212 -0.040074952 0.08107492 -0.09161926 -0.17207348 0.1290436 0.10536105 -0.06294479 0.03846559 -0.14117958 0.09217425 0.011637764 -0.01038897 0.11554873 -0.016523127 0.11256831 0.090363525 -0.1400004 0.103243634 -0.14000523 -0.067262895 -0.103413895 -0.0019125491 -0.14850047 -0.1282138 -0.03068906 -0.06600105 -0.057694152 0.017151251 -0.024924904 -0.061157666 0.012902424 -0.05266475 -0.12713493 -0.0701319 0.116679475 -0.004326701 0.06629795 0.05326265 -0.13085051 -0.12650795 -0.096200645 -0.07233497 0.14175762 0.07951523 -0.11288483 0.09651868 -0.0894688 -0.15074636 -0.08631608 -0.018057734 0.010199055 -0.122254394 -0.14184092 -0.068516575 0.14701132 0.14454271 0.089940034 -0.10309291 0.026627252 -0.102358066 -0.15314329 0.0063691195 -0.039680522 0.08665303 0.024911255 -0.12747811 -0.03803615 -0.03677352 -0.06710513 0.1346369 -0.015760088 0.032593105 -0.08798613 0.09397877 0.1580523 0.05256785 -0.043175876 0.0680516 0.030279705 -0.13535036 0.12078805 0.1496995 -0.145287 0.09100772 0.060411654 0.0030601232 -0.09923782 0.15676881 -0.111113325 0.11861099 -0.07989694 -0.03508972 -0.048531838 -0.11570103 -0.10575722 -0.059083328 0.075453274 0.075638436 0.07034783 -0.13284998 -0.038650647 0.02713881 -0.005074486 0.07000079 0.07681158 0.0768225 0.0779723 -0.090799496 0.024923079 0.09923248 0.0381808 -0.037250742 0.15310572 0.099931374 0.020274088 -0.013015081 -0.15553509 -0.05120101 -0.038184226 -0.021560907 0.024529755 0.07594976 -0.11120296 0.047010064 0.00865645 -0.08511774 0.05254544 0.15225293 0.01976437 0.04423485 -0.13263677 0.006123071 0.029099356 -0.07889614 -0.13588738 0.075415716 0.11823565 -0.046649124 -0.1132086 -0.06395669 0.106460206 0.1273582 0.05839741 -0.07255377 0.02210495 0.098001316 -0.028661326 0.123375095 0.0036581522 0.055620857 0.09849986 0.028432993 -0.07974787 -0.024891084 -0.029512117 -0.14863555 0.15780924 -0.09840614 -0.1356057 -0.035358764 -0.122846484 -0.13938755 -0.018081143 -0.14164628 -0.06100487 0.073713906 0.03738275 0.076058 -0.08736637 -0.13345188 -0.10992211 0.010523498 -0.015726367 -0.10832861 0.080369 -0.016289162 0.02089601 -0.16481358 0.0035068626 -0.13549446 -0.076206155 0.046812385 0.10164194 -0.08444306 -0.10755152 -0.18511684 0.14814435 0.0018729585 -0.097127445 -0.084000416 0.16637097 -0.11666107 0.020578066 -0.07800279 -0.01197015 0.09026788 0.06557093 0.026865968 0.07874022 0.17118359 -0.14387117 0.008902729 0.14147033 0.040993083 -0.01603234 -0.1540513 0.15678196 -0.117228426 -0.14779066 0.1103257 0.021178095 0.017376754 0.12454699 0.11428122 0.118228674 -0.07336084 0.09492259 -0.076738656 0.09088212 -0.14702824 -0.041836314 -0.045045994 -0.04508348 -0.15704393 0.03780228 0.0650448 -0.13941249 0.14335656 0.02709341 -0.009861873 -0.015025466 -0.09122019 -0.14184682 -0.15550065 -0.07437935 0.009200633 -0.0031484067 -0.0066763274 -0.096313104 0.12690508 0.14991777 -0.027037725 0.102753505 -0.10087566 -0.055503584 -0.050241385 -0.07721986 0.080300964 0.13312577 -0.004381469 0.11455689 -0.09618551 0.033712804 0.05395078 -0.04228179 -0.057661626 -0.025495034 0.11987509 0.0972754 -0.14161345 -0.046127193 -0.05254908 -0.013412627 -0.017623445 -0.12499293 -0.014605156 -0.15711454 -0.13693842 -0.0816255 0.037340075 0.043284923 -0.14452012 0.116416 -0.0028640083 0.034538597 -0.14545079 0.10220338 0.06301893 0.06561808 0.09039388 0.06548415 -0.062756255 0.123165414 0.14437807 0.11962135 -0.14860663 0.07788755 0.032094005 -0.005870355 0.044255298 0.021739315 0.07682879 -0.1084031 -0.08915471 0.12115456 0.04202363 -0.11938033 0.01738049 -0.15175162 0.027059644 -0.12079719 -0.048583113 -0.0898489 -0.12129411 0.14873467 0.067399755 0.13559906 0.07769211 -0.15437347 -0.019935459 -0.13769886 0.12236501 0.14846219 -0.097915575 0.14338835 -0.12079555 0.00021374226 -0.03776601 -0.061944105 0.11076732 -0.06721221 -0.08567493 -0.0026925653 -0.08028561 -0.0990883 0.112364605 -0.07210053 -0.055193447 0.053500727 0.10288413 -0.020190686 -0.0723671 -0.09641495 -0.14140177 -0.10884166 0.013626173 0.055993777 0.0803281 0.045957167 -0.05987671 0.159683 -0.058945045 -0.13381217 -0.061454773 0.071882 0.074257806 0.06370758 -0.21839331 0.043241017 -0.1667105 -0.2865361 -0.042498536 0.057973724 -0.011624989 -0.14230767 -0.08450317 0.030565092 0.06147118 -0.28508818 -0.21843679 0.0786867 0.15979095 0.05861959 0.2728034 -0.12344932 0.17372924 0.019420609 0.09109451 0.21507981 -0.018116534 -0.14471184 -0.028559452 -0.15598924 -0.11549637 -0.0108485995 0.16317238 0.13604538 0.24120384 0.2104892 0.10411875 0.11747367 0.049543213 -0.0040400606 0.1538376 0.024507632 -0.053815834 0.0062199915 -0.17267123 -0.13345107 -0.05198029 -0.14870399 -0.1070272 -0.09716191 -0.14129505 -0.006764446 0.031023555 0.030195978 -0.12277605 -0.20056859 -0.004998705 -0.06295982 0.015544484 0.041222095 0.13128977 -0.108573526 0.27833894 -0.027465876 -0.10333265 0.16695052 -0.052113857 -0.03145477 0.02526979 -0.06865197 0.06193635 -0.16777119 -0.081218414 -0.0010092214 0.065666676 0.09421252 0.017989509 -0.14451393 -0.13110873 0.05350649 0.072651975 0.12358849 0.0007591534 -0.08847522 0.14044653 -0.15501165 0.088049434 0.07251874 -0.023042407 -0.15197878 0.03470161 0.06440516 0.09980993 0.0830791 0.039443217 0.045140043 0.09761218 -0.14105713 -0.02943711 0.11485891 -0.11855988 0.10475521 -0.14792477 -0.06358539 -0.0219045 0.05664216 -0.0072080153 -0.11299754 -0.14559275 0.07673547 -0.0785501 -0.06578994 0.07478242 -0.103258215 -0.17667973 -0.0027390851 0.08488554 -0.08781935 -0.021880453 -0.12974167 0.080908015 -0.14189552 0.055873856 0.092764854 0.11160666 0.0216671 -0.046575405 0.14837788 -0.06073032 0.15371539 0.1460864 -0.11386657 0.13689853 0.14494993 -0.08798846 0.13604453 0.09817372 -0.0246467 0.017791908 0.032435447 -0.16505305 0.092205144 -0.066921294 0.13487433 -0.08515222 0.09545433 -0.15958689 0.15607208 0.079945005 0.013468188 0.06911925 0.03312325 0.13026589 -0.15736122 0.07232353 -0.12087473 0.08911057 -0.011839837 0.08497687 0.059835345 -0.056428313 -0.06868787 0.020533368 0.13286828 -0.033701375 0.043642282 -0.15523104 -0.02669622 -0.1143273 -0.1188931 0.065966696 0.06532946 -0.07702114 -0.005006194 -0.14990236 -0.0508442 0.034189925 -0.12220824 0.059570268 -0.08768922 -0.084687725 0.035784513 -0.09577757 -0.040550485 -0.10274024 0.033350945 0.11270021 0.07890925 0.10798387 -0.088237226 -0.049137585 -0.14321525 -0.06924517 -0.08364305 0.051222537 -0.10050296 0.10637811 0.02283979 -0.016242411 -0.13627537 -0.09461937 0.122167595 0.053040214 -0.0007824886 -0.17767964 0.11795817 -0.081165805 0.028104529 0.08991509 -0.113833055 0.060877442 -0.1384679 0.017469991 -0.105911285 0.13330716 -0.023582341 0.0592685 0.038479462 0.12504607 0.123641685 -0.088192604 -0.040094644 0.04544671 0.010022225 -0.12770441 0.09973412 0.13275558 -0.16485678 0.08397209 -0.13261649 -0.14371578 -0.15585552 0.097320415 0.11186334 -0.07124352 -0.11116127 -0.024871377 -0.056363933 -0.012298287 -0.11358797 -0.053762503 -0.10713126 -0.15436862 -0.019806849 0.087095305 0.100045495 0.057125565 0.16935292 0.040037304 -0.014630698 0.059706606 0.042113073 -0.13228293 -0.11861052 -0.057141855 -0.11116761 -0.09802205 -0.15006442 0.050856978 -0.04933621 -0.17407018 0.1458542 -0.062115878 -0.094905056 0.12545843 0.030711759 -0.029958237 -0.032046873 -0.12683068 0.08475442 -0.10025416 0.112783164 -0.047603175 
-0.089150175 -0.045782186 -0.051571246 0.035259467 -0.07512879 0.09491123 -0.046509802 0.08901444 0.02967167 -0.14494716 0.07086399 0.09972086 -0.10981187 -0.008433941 0.0069790804 -0.08398627 -0.058635686 -0.045362536 -0.030860886 0.07959355 -0.08805615 0.096167974 0.005092006 0.013518269 -0.05547066 -0.027145624 0.07621122 -0.15770255 -0.026381342 0.10431702 -0.117433846 -0.111247346 -0.13743581 0.16911918 0.18282448 -0.10276936 0.04815512 -0.011672035 0.058881886 0.082374275 
Rect
Linear 40 2
0.030376473 0.08099209 0.16616176 -0.060798936 0.026087504 -0.12707207 0.06925559 0.12004045 0.057464417 -0.13596147 -0.18612958 0.10951744 0.02396927 -0.023666704 0.18975016 -0.11349006 -0.09399133 -0.23502019 -0.12347123 -0.08859368 0.08243243 -0.009082174 -0.08128868 -0.019335711 0.053511206 0.10450275 0.12149445 -0.15555972 0.025584256 -0.16113442 -0.085467674 -0.102548555 0.15708409 0.30002934 0.21165581 0.009507629 -0.04137629 0.024192765 0.10103567 -0.021173693 0.042117644 0.118627116 -0.19937009 -0.007069334 -0.09218654 0.1433968 -0.023287296 -0.080533065 0.057259634 -0.069431975 0.2902265 -0.04435281 0.09763646 0.047468457 -0.15175222 0.02791361 -0.06508721 0.0053966604 0.091392696 -0.10523388 -0.0019467031 0.056827895 0.091110535 -0.03286534 0.065074585 -0.15650031 0.16121763 -0.014501328 0.030114096 0.15817273 0.039353617 -0.11328858 -0.01534988 -0.29505134 -0.1782668 0.043004435 0.19825487 -0.008712396 0.04134975 0.06496659 
0.045002647 -0.16441219 
