Linear 19 40
-0.08740819 0.08875831 0.1251697 -0.007451741 -0.25733733 -0.0038410889 0.09874235 -0.06850773 0.18269578 0.08270654 0.019818218 -0.1716552 -0.03769695 -0.00814463 0.0264724 -0.119967654 -0.092282295 0.099820495 -0.103758305 -0.069041856 0.28245476 0.38741308 -0.08360321 -0.057009887 0.21615864 -0.2955414 0.110617355 0.09091296 0.09224903 0.12373897 -0.00690388 -0.08796747 0.24274813 -0.24295205 0.2770154 0.08931648 -0.17214273 -0.043230604 -0.14735046 0.087660156 -0.13578951 -0.1587493 -0.17859948 -0.21971774 0.0021396289 0.12677424 -0.15606394 -0.05659677 0.11223814 -0.16051023 -0.1782525 -0.07836626 0.11388945 -0.120979145 0.015955564 -0.021894712 -0.23255417 -0.29086554 0.17822549 -0.14307086 0.00660519 -0.17669587 0.070310056 0.031695943 -0.026917292 -0.057320964 0.11417826 -0.0036826278 0.22536117 0.060909495 -0.36981323 0.033160277 0.11076933 0.2018338 -0.075972006 -0.183185 0.04821966 0.09840775 -0.2930776 0.047397103 -0.084599115 -0.102631524 -0.2578809 -0.12808183 0.09035524 0.1046515 -0.22998759 -0.022466635 0.47229838 -0.07120656 0.09074011 0.0046172077 0.020890735 -0.124301456 -0.06648317 0.10587135 -0.10364751 -0.35988915 -0.008329941 -0.09646211 0.05820291 0.37351912 -0.050534222 0.090672575 0.012691538 -0.029875657 0.6739155 0.86683786 0.084778816 0.12806006 0.16313356 0.24037738 -0.10955842 0.10314132 0.084830694 0.11593709 -0.6294213 0.21833706 -0.11094635 -0.10729796 -0.16017926 0.120186456 -0.0016595924 -0.018022716 0.03340251 0.46496454 0.70697516 0.041815724 -0.10636604 -0.23456892 -0.13528119 0.12657784 -0.28081396 0.07360074 -0.23756115 0.20497233 -0.26613232 -0.24366868 -0.056994215 -0.1676789 -0.15233216 0.008598153 0.045923393 0.05837589 0.12397897 0.02347453 -0.25416437 -0.059286524 0.13721733 0.053935587 0.24692123 -0.07841275 -0.012941366 -0.18911451 0.13615347 0.002417957 0.097874165 0.012414044 0.29807416 0.07086603 -0.25567952 -0.2580361 -0.075623445 -0.2317708 -0.2806271 -0.035450246 0.13440058 -0.17450017 -0.0068688085 0.106963314 -0.21087569 0.0381668 0.031425834 -0.15596706 -0.018164549 0.09098279 0.15870792 0.2606092 -0.028293861 0.106944464 -0.20163487 -0.15663664 0.7401085 0.76931494 0.13658321 -0.12572004 -0.13513625 -0.06735641 0.0047825393 0.19652396 -0.035078883 0.30954877 0.13515197 0.06002412 0.182061 -0.13842493 -0.007200006 -0.07100934 -0.13390823 -0.15825418 -0.19514075 0.21657233 0.49416408 -0.30559647 0.12830424 0.15552092 -0.07180285 -0.22893132 -0.045469034 -0.124267526 -0.16518861 -0.13181199 0.06707641 -0.062249802 0.043437824 -0.15512688 -0.07714732 -0.08910046 -0.17882803 -0.06818954 -0.13062924 0.033939347 0.005470356 0.1545352 0.10382246 0.19109659 0.026329827 -0.027324747 -0.20803042 -0.04566491 -0.054683167 0.08697948 -0.19736107 -0.10545279 0.14093536 -0.15557568 0.17621098 0.11991283 -0.08024468 -0.0041820905 -0.33649957 -0.22776048 -0.072462454 -0.03491346 0.041133747 0.028410878 0.21040945 -0.14340356 -0.093896985 0.36963978 0.088558294 -0.12704155 -0.055065367 0.08195661 -0.22406864 0.028348692 -0.19730976 -0.0408813 -0.21570443 -0.0926467 0.13233432 0.064273685 -0.031274002 -0.16340996 -0.18546492 0.083453074 0.040242504 0.03838322 0.28364515 -0.17725131 -0.030931646 0.04820822 -0.024648901 0.013668385 -0.12331256 0.0758008 -0.034164883 -0.1318655 0.105105795 0.29229987 -0.1491132 -0.13757217 0.1942215 -0.21061403 0.16318022 -0.22155692 0.35461572 0.17909727 0.09617287 0.056304775 -0.026512757 -0.11707687 -0.08646724 0.007819962 -0.060710363 0.009135309 -0.24856468 -0.23016602 0.15835878 -0.05269398 0.08358026 -0.03829918 0.001173622 0.13422625 -0.07269958 0.00026257063 -0.09066542 -0.0055505023 -0.2599431 -0.10350576 0.3538931 0.008531281 -0.05283628 -0.030458424 -0.09504755 -0.031058608 0.4751867 0.028764272 0.1816333 -0.03052201 -0.119690455 0.012278887 0.0010991129 0.041950244 -0.0455516 -0.07797131 0.20515949 -0.06302448 0.05906042 0.083778545 -0.06299085 -0.022937248 -0.06980809 0.12656114 0.6321438 0.7918046 0.028298305 0.042315364 0.14593436 0.13915649 -0.12561601 -0.17618766 -0.15057693 0.086375706 0.06369761 -0.06861038 0.070920475 -0.17852439 -0.11462647 -0.07978023 -0.15353347 -0.047695037 0.07319945 0.0048429756 -0.20773137 0.16073923 -0.13356929 0.13367106 0.10632155 -0.19152236 0.016220428 0.0197383 0.072659746 0.111639254 0.15621164 0.11009081 -0.030203339 -0.22432803 -0.11311888 -0.105760805 0.103415534 0.0853245 0.28198162 0.51119715 -0.02924257 -0.12245101 -0.16659476 0.09667253 0.044706024 0.055978995 0.09874764 -0.18870133 0.1063881 -0.0052267513 -0.1249844 -0.12231436 0.07253815 -0.030244956 -0.029162763 0.19462721 -0.23094691 -0.08938636 -0.06753819 -0.015033744 0.087387584 0.069800586 0.10230921 0.029522777 0.067405656 -0.1602657 0.2817709 -0.006489393 -0.16661344 -0.014999953 -0.16155078 -0.18087597 -0.075595446 0.00013070994 0.007443064 -0.049416956 -0.23957531 0.10838639 0.3186882 -0.08071331 -0.19628792 0.005197585 -0.19379428 -0.053369865 -0.26725805 -0.17477986 0.09840771 0.16963406 0.0019082206 0.050904043 0.23417395 -0.051211 -0.08593374 0.069013834 0.057866808 -0.13722026 0.21669398 0.12638502 0.035449605 0.0064658104 -0.08621037 0.13747472 -0.03742296 0.022098111 -0.21564703 -0.11816931 0.016215852 0.094555385 0.17119515 -0.20892389 0.09055821 -0.10926424 0.0862485 0.16453457 -0.17922635 -0.5719 -0.09171251 0.18259315 -0.08989516 0.1562029 0.021299914 0.039438177 0.10079607 0.11861779 0.10130607 -0.19769774 -0.027458096 -0.06866294 0.049172558 0.014493301 0.051428158 -0.090299934 -0.12341396 0.33794552 0.44006428 -0.18129489 -0.27899435 0.12704398 0.14659739 0.12501058 0.25325137 0.04824999 0.21780823 0.10290543 0.1816373 -0.025462585 -0.004285903 0.16991732 -0.071057335 -0.046763465 -0.0073479153 -0.18460973 -0.23212692 -0.3124737 0.041225806 -0.37205696 -0.17657804 -0.055341873 -0.049113676 0.22536267 0.0022719721 0.08713774 -0.26276106 0.051819246 0.001442645 0.1354599 0.3138079 0.13425016 0.050781064 0.012844923 0.13843209 0.8307158 0.59876883 -0.16413797 0.039529935 -0.077841125 0.084292516 -0.18115333 0.049285375 0.046509765 0.21708488 -0.12024626 -0.19705682 -0.13925552 0.14105242 -0.1587871 0.15589327 0.06504623 0.09080689 0.11539935 -0.3211068 -0.73906225 0.16375427 0.13367322 -0.17048551 -0.14593373 0.14828105 0.17935184 -0.02443215 0.11039895 0.31895426 -0.028844321 -0.044063114 0.11947344 -0.34522575 0.09506534 0.24044141 0.16578822 0.17109056 -1.0153219 -0.835219 0.203598 0.08067667 0.06631346 0.12554152 0.064822264 -0.05428715 -0.011168201 -0.2065083 0.13817775 0.1530121 -0.05023135 0.082923725 -0.18085836 -0.107005574 0.10635557 0.027344273 0.18674512 -0.272512 -0.16755696 -0.2274732 -0.081797294 0.0011706579 0.13049163 0.21096107 0.016397398 -0.16676553 0.16909315 0.1705898 -0.16531995 0.18832912 -0.054071713 0.27160877 -0.098662525 -0.17869605 0.06756653 -0.08400858 0.21129978 -0.15404466 -0.050414126 -0.31609672 -0.08695766 0.015242589 -0.16835424 0.06917375 -0.19621958 0.0974499 0.063566804 -0.05055853 -0.10898655 0.12827887 -0.12503858 -0.109444916 0.13354662 0.13116205 0.16202939 -0.386895 -0.40379137 0.12664378 0.08756553 -0.019279983 0.018576264 0.15440844 0.13844185 0.24537759 -0.13489711 0.23435083 -0.13149416 -0.33544818 -0.011282827 -0.36683026 -0.1396954 -0.0015590856 -0.08400204 -0.038335145 0.010599595 -0.013545536 -0.0887865 0.16763806 0.0379004 -0.18480128 0.068728566 -0.19776791 -0.24019764 0.031505242 0.098876856 0.17394619 -0.24381047 -0.024113113 -0.01295652 0.021570016 -0.10863017 0.10437506 -0.21632084 0.08703051 0.18668425 -0.23263393 0.2920626 -0.187066 0.10013601 -0.1890938 -0.086736135 -0.009374402 0.20056984 0.09992778 -0.20695825 0.13910057 0.067475535 -0.049839135 -0.012094099 -0.0118822185 -0.16243525 0.09308107 -0.58690614 -0.70992583 -0.068928726 0.03838169 -0.08298686 0.084636904 -0.031075304 0.006850423 -0.11953037 0.2498613 -0.20677187 0.12080456 0.25434035 -0.16492197 0.16646785 0.0687861 -0.016666 -0.019002536 -0.13835396 0.017764358 0.12383175 0.21459766 -0.108402744 0.07438278 -0.09020221 -0.10569784 0.11824866 -0.02572525 -0.08620412 0.26395184 -0.32139564 -0.26978472 0.11831925 -0.07873661 0.07486076 0.25267157 0.14339386 0.025234394 -0.3618038 0.3022651 -0.22142485 -0.0012767352 0.14054623 0.062355384 0.194904 -0.39610112 -0.09958899 0.051028293 -0.031125078 -0.24967995 -0.26464403 0.17017192 -0.11926331 -0.10607488 0.19026987 -0.08060414 -0.21911395 -0.06653255 0.019149506 -0.053491037 0.17807418 -0.05649284 0.040801723 -0.26538527 -0.008616266 -0.32000056 0.26676175 0.16456082 0.124368854 -0.2894855 0.15307143 0.30681458 -0.12511474 -0.10264382 -0.014730779 0.014336236 -0.068324775 0.031123735 -0.08369965 0.010211244 0.1299944 -0.1966669 0.18076776 -0.09330625 -0.15208624 -0.14183033 -0.20450771 0.0837972 0.10113468 -0.18437551 -0.19103219 0.016286654 0.21911027 -0.044461798 0.13452892 -0.13698375 -0.3878275 -0.066631496 -0.10247223 -0.068136215 -0.18780099 0.12624747 0.15064776 
0.12431011 -0.11235948 0.00019671053 0.17043477 0.12043486 -0.14702202 0.08200438 -0.16542105 0.106328085 0.15552771 -0.036553696 -0.22235693 0.06981491 0.10705196 -0.11765339 -0.061901 0.095138796 -0.083060026 0.13102227 -0.11558454 -0.22749999 0.0906888 -0.14515443 -0.13151857 -0.13283582 0.18902743 0.13786115 0.14943531 0.08489113 -0.049894672 -0.053511314 0.053326532 -0.16484447 0.21765168 0.21115609 -0.21314093 -0.1149936 -0.027940301 -0.20314257 0.11401759 
Rect
Linear 40 40
-0.000117018855 -0.058021035 0.027389755 -0.05477994 -0.07799429 -0.0946091 -0.13275413 0.12302125 -0.13211104 -0.12704383 -0.049675442 0.13106528 0.0837851 -0.104212195 -0.15760893 -0.061870586 -0.111043796 0.12969117 0.13699085 -0.10759957 0.1099869 -0.10272382 -0.01596568 -0.092764914 0.009525765 -0.114084534 0.05966121 0.11955759 0.03642249 0.12055196 -0.1343989 -0.00078738184 -0.075357184 -0.056146488 0.08755742 -0.114099495 -0.13443094 0.016535133 -0.13612615 -0.027397497 -0.11836081 0.0620547 -0.04881985 0.065784924 0.0018468939 0.19648811 0.19216907 -0.13292398 -0.027685413 0.036274817 0.05501135 -0.11208718 -0.08527923 0.03381663 -0.025810316 -0.05977133 -0.07534621 -0.06928403 0.070797525 0.0067550554 -0.0541342 -0.022067944 0.09502805 0.0318531 -0.18050288 0.11658263 0.19046605 -0.2043191 -0.28603715 0.07544622 -0.11527177 -0.106424704 0.063251846 -0.04878215 -0.2897713 0.0880662 -0.038775112 0.104140475 -0.08218784 0.08217268 -0.057069853 0.09042457 -0.15085655 -0.03492613 -0.105691545 -0.14424524 -0.0135615105 0.110789664 -0.0342533 -0.11115085 0.050600335 0.11643532 -0.117011175 -0.027784178 0.12431492 -0.10832772 -0.12504925 -0.14170499 0.0790733 0.06555703 0.13281907 0.02824399 0.120812796 -0.115467 0.07428915 0.09567974 0.14917395 -0.14929804 -0.115290545 0.019308621 0.048607606 -0.00059371383 0.03989747 0.023954269 -0.017524192 0.1293311 0.06777983 -0.15187342 0.0677672 -0.11100171 0.18326694 -0.05214348 -0.008575936 0.119907185 -0.10719372 0.070353955 0.11836271 0.07577161 -0.030271824 0.19435243 -0.04126826 0.027780734 0.18744287 -0.068427324 0.012732178 0.07503427 0.14968435 -0.021552213 -0.050025485 -0.13902776 0.14327629 -0.09783504 0.15309432 0.12694924 0.1959985 -0.054244515 0.023548147 -0.15413809 -0.06870359 -0.14622296 -0.05033754 -0.045900527 -0.10345233 0.045239955 0.042337187 -0.028802853 0.14285535 0.0707579 0.17104024 0.004321688 0.09247569 0.02634565 -0.01268927 0.16971853 -0.01925468 0.21998319 0.16168731 -0.26357007 0.077578336 0.2629924 0.039705016 0.0890589 -0.004744053 0.13114746 0.12310492 0.029991316 0.12385392 0.20834543 0.033535544 -0.005662089 -0.07561773 -0.11708114 0.01808419 -0.1362358 -0.052919522 -0.14815809 -0.0022017078 -0.11947129 -0.32053712 0.045553096 -0.114868045 -0.12731938 -0.007410764 0.14903976 -0.20742217 -0.15371205 -0.081922084 0.14670666 0.24748656 0.10645701 0.081973165 -0.12741262 -0.11011566 -0.07286594 -0.026206946 -0.0797484 -0.06953207 0.13455848 0.11786922 -0.008195094 0.00996988 0.055574737 0.0033659677 0.13326183 -0.05578176 -0.0923629 -0.044974618 0.019258598 0.059189975 -0.13823043 0.13089557 0.12026514 -0.066509746 -0.12953904 0.060309287 -0.1248256 -0.12674248 -0.12643796 -0.05028676 -0.12274455 -0.011102065 -0.14478694 -0.033506036 -0.028586641 0.048130535 -0.11356282 0.02453707 0.08377862 0.12226505 0.13239788 0.11196688 -0.032304678 0.15259278 0.1712949 -0.08881651 0.122342154 0.28904054 -0.15259424 -0.014187952 0.136574 0.22741129 -0.06072716 -0.00018811984 0.043731708 0.09320059 0.065910876 0.03461446 0.15469278 -0.092331715 0.046144933 -0.02563488 0.067203425 0.054369096 0.025215238 0.02132296 -0.24470243 0.21384192 -0.1339035 -0.16463672 -0.009566812 0.08323056 0.136873 -0.23932625 0.10556687 -0.0353154 -0.08310153 -0.00081745716 0.06541288 0.11469522 0.057081483 -0.07200668 -0.0006454263 -0.13856411 -0.07714302 -0.1379818 -0.08951939 -0.15231846 0.063817814 0.07330067 -0.032963697 0.026682144 0.0027837188 -0.15301818 -0.068478994 0.08793778 0.08433559 0.022836274 0.15071493 0.03864302 0.11431126 -0.0627095 0.0069755577 0.15824115 -0.12609376 0.112801045 -0.12661062 0.053294167 -0.064949445 -0.1285954 -0.11299822 -0.08696782 -0.045234967 0.12212165 -0.023836229 -0.056924406 0.081224635 0.1288222 0.13559964 0.069968805 0.122369476 -0.09042592 0.1163321 -0.043442488 -0.0265844 0.0013852331 0.074663594 -0.08226783 -0.1555549 0.04525592 -0.1025444 -0.13852535 0.03613609 0.093859114 -0.15386556 0.0912625 -0.14088745 0.04287096 -0.116085514 -0.13148358 -0.11256244 0.0014114016 0.13953526 -0.04796628 0.08529116 -0.030079454 0.014476433 -0.044048768 0.14882644 -0.08720335 -0.12334271 0.05318955 0.10678439 0.12060966 0.049758416 0.09138883 0.078098625 0.1178511 0.03346658 -0.12598366 -0.16003759 0.07644314 -0.11824373 0.07105591 0.111292355 -0.12768881 0.07215805 -0.06019171 -0.044566948 -0.15155543 0.13414642 0.005118983 0.0959826 -0.14553878 -0.048936564 0.12113905 -0.11644045 -0.047667637 0.14228816 0.049358487 -0.11735458 -0.03323102 -0.028901873 0.14028609 0.051207744 -0.058610197 -0.09135807 -0.14740697 0.013760494 0.059638895 -0.07589191 0.008836944 -0.11147641 0.09902159 0.100572824 0.07538642 0.12079833 -0.109605454 -0.0011673573 0.085644625 0.018504346 0.005623594 -0.15222016 -0.02963525 0.09138341 0.08381285 -0.015733019 -0.13734813 0.14307337 -0.1211804 -0.109344 0.057117045 0.15122028 -0.0523777 0.00254035 0.047807902 -0.06890798 -0.13522217 0.1357572 -0.01418373 0.14109401 0.10471471 -0.13933617 -0.04210653 0.10392295 -0.15332569 0.13271634 -0.06221994 -0.13305141 -0.13084732 -0.004475817 0.08204505 0.10821913 0.13750012 -0.11370146 0.11063062 -0.057383925 -0.09485882 -0.080899924 0.05836451 0.040116385 0.08344477 -0.00022354869 -0.14013614 -0.029735232 -0.028200831 0.11439134 -0.16400094 -0.023443382 0.073382795 0.13464469 0.056406155 0.0661244 0.06547409 0.13190679 0.015618954 -0.06522256 -0.050186843 0.13175003 -0.051256422 0.07214172 -0.04353557 -0.092519015 0.08654928 -0.050377697 0.1000956 -0.03753463 -0.072661944 -0.051469024 0.06462318 0.0859029 0.012503362 -0.03411445 0.02504994 -0.090338424 -0.089339375 -0.02465391 0.11606098 0.057404824 0.012680289 -0.08413181 0.04205946 -0.118628025 -0.1416028 0.044959325 0.12015803 0.19092138 0.14200556 -0.014466777 -0.07410158 0.0008226465 0.18966849 0.073808774 0.07620346 -0.064389735 0.106561586 -0.043352254 -0.15871611 0.14888193 -0.03852859 -0.008198721 0.035430793 0.07486607 0.050502095 -0.08761133 0.088488795 -0.12443572 0.15451993 -0.18251136 -0.22265442 -0.15090555 -0.21624845 0.11405694 -0.21293494 0.051537097 -0.11426967 0.08180775 -0.15952332 0.13113125 0.24921148 -0.1924883 0.089948624 0.035285555 -0.03718353 -0.1138126 -0.10485829 -0.1183629 -0.028952988 0.1408948 0.05807297 -0.055410836 -0.01391109 -0.0841397 0.14160147 0.0399108 -0.083617955 -0.05482861 -0.052201446 -0.09364963 0.030202245 0.017598357 0.11811675 0.118946604 -0.0850216 -0.072399974 -0.11844062 0.036533754 -0.03598976 -0.09020592 -0.09106222 0.13323478 0.0032933326 0.078643315 0.041807134 0.075898804 0.027094321 0.10660463 -0.008858056 0.12278853 0.10030057 -0.015043825 0.11019684 0.14001289 0.03931599 -0.055674594 -0.17548753 -0.1690607 -0.025772419 0.14118679 0.091218755 -0.048600838 -0.1800873 0.08036684 -0.093819365 0.12857573 0.14325526 0.13066275 -0.14742441 -0.11799114 0.19556168 -0.01637975 -0.073020115 -0.06049688 0.11883787 0.16874136 -0.10474568 0.26800814 -0.046485424 0.094803706 0.28338873 0.03684737 -0.05408482 -0.1434876 0.048446678 -0.14497238 0.040082026 -0.043057404 0.07084287 0.12318577 -0.15686266 -0.061059132 -0.09709437 -0.0074473326 0.12391967 -0.17329477 0.027682621 0.21063389 0.25733534 0.080328986 0.017921273 0.24546756 0.16871312 0.11571856 -0.12168073 0.048627775 0.05606772 -0.20011304 -0.08385974 0.15252444 0.07824574 0.115039505 0.09588033 0.016454343 0.09204952 -0.19726668 0.14252518 0.053016704 0.23625736 -0.059578497 -0.39826822 -0.07192962 0.045387138 -0.20286864 -0.031931035 -0.14424272 -0.27451625 -0.083701484 -0.23493089 0.12627591 0.14288951 -0.17503099 -0.023420993 0.30740002 0.08724318 0.05244526 -0.20536803 -0.097440876 -0.051015794 -0.0751683 0.05025542 0.046073217 -0.15598527 0.10739614 0.016677469 0.107721895 0.174376 0.1572535 -0.17264378 -0.08150944 -0.0027876212 0.051963467 -0.19542405 0.16679744 -0.14293624 0.07576123 0.05926392 0.12775326 -0.22645657 0.004077717 0.23701902 0.121231884 -0.030541271 0.013824587 0.1382412 -0.11064016 0.07948456 0.015003665 -0.0032790892 -0.081752144 0.09182935 -0.10421065 0.057139583 -0.043416403 -0.10127413 -0.054861825 -0.12484553 0.009513963 -0.1541867 -0.010078636 -0.11015823 -0.049061105 -0.015770184 0.022078421 -0.09694945 0.07956021 0.118431 0.12791352 -0.10025235 0.043592487 0.12714912 -0.07142071 0.00448848 0.0248792 0.13540876 -0.024833733 0.12522386 -0.072695404 -0.046422854 -0.04078005 0.053491898 0.13302365 0.057720885 -0.025827643 -0.006263903 -0.10432557 0.031194067 0.13757387 -0.09375523 -0.08861983 0.025665853 0.14571415 0.096114375 0.23865394 -0.11460679 -0.12261538 0.049068026 -0.0067241048 -0.16623673 0.111440286 -0.02236216 -0.05182738 -0.12494845 0.121478565 0.08902738 0.10006521 -0.06708026 -0.09589509 -0.1160424 -0.19201633 0.116283484 -0.08084591 0.09189861 0.14300437 0.09672892 0.17724371 -0.0655026 0.103849865 -0.12513068 -0.046053547 0.1758255 0.13768677 0.19378984 0.123023145 0.075865485 -0.24924341 0.14131504 0.124536164 0.050864633 0.0334649 -0.16074821 -0.036827713 0.063630104 -0.027641686 -7.488892e-05 -0.05147508 -0.06523553 -0.09840845 -0.16237733 0.14865743 0.03751868 -0.08927595 0.13892625 0.024423081 -0.028835766 0.15049356 -0.160398 -0.06276505 -0.08274197 0.122005224 -0.08935949 0.047923926 -0.08698586 -0.14642434 -0.058551077 -0.10127502 0.008541208 -0.03575644 0.02217767 -0.10890634 -0.06107121 0.06346778 -0.10933736 -0.087368496 0.15715204 -0.11913254 0.009125149 0.05274294 0.11716922 -0.13774917 0.06388666 0.105667636 -0.032871023 0.046573613 0.14242958 -0.01446232 0.029901214 -0.08344799 -0.16293804 -0.13423014 -0.0720973 -0.07264415 0.11378702 -0.030713359 -0.13392255 0.033239618 -0.0007333288 -0.018316157 -0.10329616 0.04165257 0.15429212 -0.06722762 -0.08898299 0.095721126 0.11451043 -0.15981705 0.1262833 -0.104122445 0.051438913 -0.007706208 0.07626217 -0.061910287 0.096938804 0.08360295 0.05453059 -0.05103673 0.09154995 0.14216225 -0.15480593 0.0018248567 0.10514888 0.031357676 0.14699087 0.013355597 -0.055500075 -0.107485436 -0.027797027 0.03668419 -0.018585604 0.022545297 -0.07901178 0.070807576 0.17113626 0.0991614 0.12369215 -0.07573769 -0.021686641 -0.1489444 0.091471486 -0.03372349 0.025609253 0.13939011 -0.004420171 0.04063882 -0.12180637 0.058717538 0.072996885 0.1279169 -0.043229144 -0.018622054 -0.06747735 0.13967505 -0.09633026 0.033978198 0.103654906 0.033503056 -0.11560427 0.14722368 0.20207208 -0.1018989 -0.15580226 0.13119946 0.03662704 -0.0098527055 0.13203175 -0.06488103 -0.06507811 -0.015551584 0.041528348 -0.020412508 -0.12477454 0.028509015 0.07156488 0.06825478 0.14443442 -0.07888102 -0.035506863 -0.14730471 -0.025561566 0.028859863 -0.06522809 0.16117792 0.016061727 0.07417717 0.1301001 -0.041943543 -0.052420788 0.14372613 -0.12514636 -0.12661335 -0.13258614 0.03674138 0.09623652 0.09955748 0.025670614 0.099075295 0.11152685 -0.089827985 0.19592805 -0.12405055 -0.043010086 0.050584123 -0.09208525 -0.13144372 0.10381 0.06726364 -0.060431145 0.19794832 0.2149861 -0.0054229456 -0.003576905 0.23349963 0.05600478 0.083589986 -0.028241772 0.06188999 0.07148499 -0.1779909 -0.07668535 0.06400481 0.019752035 0.08301202 0.021723166 -0.1288894 -0.14527424 -0.07929374 0.12501635 -0.044271436 0.11048901 -0.1824139 -0.3952661 0.013663392 -0.19153471 0.039015785 -0.15356646 0.11181103 -0.07353854 0.049843784 -0.25489753 0.024524651 0.09567346 0.10365604 0.09929537 0.0931965 -0.034271386 0.071760535 -0.010525429 -0.122422434 0.10857028 -0.13039772 -0.08513981 0.08131367 0.09139049 -0.06883772 -0.020836193 -0.01424394 0.049877506 -0.06557505 -0.0936059 0.08568682 -0.10856065 -0.027266245 -0.0362014 0.07111457 0.06358228 0.08061255 0.014437969 -0.022277122 -0.13269396 -0.022298701 0.11420409 -0.08237736 -0.09330563 -0.10180393 -0.15048166 0.13916168 0.009844788 0.10182208 -0.080545634 -0.11466505 -0.072438926 -0.14674334 0.051181436 0.23906396 0.10280655 -0.17904596 -0.06215026 -0.21684144 -0.08252003 -0.08037569 0.0019368005 -0.13186069 0.029993739 -0.062139682 0.08774527 0.1736208 0.14359543 0.16981754 -0.19021332 -0.03185117 -0.016661739 0.07111722 -0.14239147 -0.03876966 0.016620552 0.019144783 -0.020772424 0.03569534 -0.20811976 -0.079511724 0.054212686 -0.09351532 0.12146299 0.11703466 -0.019310664 -0.039573267 0.06367945 0.059383158 -0.074664444 -0.012649787 -0.15151413 0.10183389 0.087098286 -0.049312923 0.05071701 0.099465795 -0.037640486 0.10595263 0.119909815 -0.042441867 -0.09852822 -0.015388171 -0.08360659 -0.15335125 0.030786889 0.03819697 0.07854654 -0.12653409 0.072798535 0.09540703 -0.080125384 -0.15624332 0.15032396 -0.12816073 0.09689123 0.05254972 0.1341755 0.1270715 -0.13778083 0.029511038 0.001266405 -0.038637076 -0.011948075 -0.017437615 0.0811289 0.015560683 -0.066323064 -0.06788177 0.06677663 0.05581552 -0.032126926 0.032561492 -0.10259151 -0.019362617 -0.11830194 -0.0752685 0.031628948 0.16109473 0.16296476 -0.12541357 -0.17332616 0.11863371 0.0794121 0.011988646 -0.024929088 0.04172186 -0.02480183 0.060101368 0.021893557 0.17227897 -0.11297083 0.10094562 0.07651066 -0.041185163 0.031658888 0.08888425 -0.076915696 -0.18958455 0.04441923 -0.037851203 -0.120257646 -0.11933008 -0.16053274 0.042827424 -0.037523557 0.00762384 -0.09645386 0.10509286 -0.13391237 -0.13255519 -0.19352749 -0.03155851 -0.14517038 -0.13424565 0.08311956 0.018316759 0.110015966 0.2855565 0.2507244 -0.06760243 -0.16343352 0.15299416 0.05788372 -0.051824708 -0.03530366 0.15906566 0.12362188 0.080688715 0.07838217 0.19647801 -0.045054518 0.10230932 0.003981161 -0.07929371 -0.099085994 -0.09646066 -0.13440742 -0.04438183 0.1596654 -0.18972753 -0.25517535 -0.024040598 0.049120396 -0.0971057 -0.092861295 0.09488024 -0.2373369 -0.11468072 -0.4206282 -0.0326553 -0.041938845 0.0022435477 0.1501626 -0.038119536 -0.03869347 0.16440286 0.13624959 -0.11865522 0.0302033 -0.15455225 0.13925214 -0.13233548 -0.008666804 0.004005078 0.057125613 -0.106687754 -0.088154435 0.055868916 0.15235892 0.027815994 -0.008742323 -0.086760946 -0.2033498 -0.045391347 0.048219826 -0.067496054 -0.17713876 -0.013377725 -0.05802741 0.077083044 -0.21920064 0.038785875 -0.13324583 0.05142583 -0.1322073 -0.06763332 -0.13629559 0.02640106 0.07762611 -0.15973137 0.20679498 -0.09986653 -0.11781106 -0.08046437 0.021000532 -0.00025727466 0.11658996 0.1402216 0.02818508 -0.12882522 0.08719841 0.20499715 -0.063860364 0.08410103 -0.06301953 0.046909206 -0.06311262 0.041442472 0.13179335 0.02799518 0.027994711 0.0902074 -0.09862979 0.059936643 0.045482278 -0.05370754 0.14658521 -0.09965177 0.050251883 0.069865964 -0.22981706 -0.04676304 -0.15635741 -0.06092567 -0.12102174 0.057622768 -0.14962375 -0.01971427 -0.15468588 -0.066281565 0.029031498 -0.15892252 0.11344951 -0.12844338 -0.12541944 0.09673283 0.06512751 0.10206986 0.13953824 -0.1875661 -0.15389474 0.057372753 0.24745585 -0.0152841415 -0.09087654 0.04870876 -0.07415939 0.058707587 -0.08608986 -0.025822677 -0.10596988 0.13863872 -0.010233635 -0.007281645 0.069829606 -0.15113312 0.116864815 -0.1912501 0.0708121 0.049218755 -0.116716914 -0.15893146 -0.16209625 0.0813175 -0.021195998 0.18020174 0.04851848 -0.017047012 -0.03677027 0.0427638 0.16999577 -0.10993185 0.09922599 -0.0650228 0.08264439 0.10629134 -0.010033947 0.13839628 -0.05768746 -0.059290607 -0.013488277 -0.06170913 -0.15733129 -0.052923948 -0.13009505 0.15719643 -0.10035151 -0.088036284 -0.012305376 -0.045179006 0.13709915 -0.0035924348 0.1253515 0.019153655 0.019017657 -0.07882173 -0.0039756643 0.10514011 -0.15058678 0.053822793 -0.08944445 -0.05919789 -0.14468332 -0.1558164 -0.12793584 0.15609078 0.046845544 0.024506688 0.117460124 -0.10279933 0.06815234 0.026088163 -0.06519315 0.062417157 0.076419905 0.03789819 0.025401106 -0.12510371 -0.049786653 0.14438014 0.05744404 -0.13136396 0.013753468 -0.13574569 0.13354158 0.12584998 0.113688625 -0.06938241 0.091798306 0.073648 0.111153215 0.06767775 -0.004195138 0.09821325 -0.11822596 -0.0912906 0.059125863 -0.055641968 0.12926777 -0.13837685 -0.088746026 0.017532934 -0.026963713 0.13757165 0.1403975 -0.018122267 -0.0880909 -0.11327616 -0.034205075 0.026203183 -0.046802882 0.05033259 -0.081414185 0.0072465665 -0.15679619 0.06622903 0.003779336 0.07270521 -0.1687618 -0.14382888 0.030205952 -0.10366721 0.016615821 0.043820485 0.028294241 0.145912 -0.028022494 0.06446974 -0.017440027 0.1081698 0.029501569 0.13113286 -0.10721494 -0.040099256 0.1436193 0.1129729 -0.10717635 -0.03351649 0.10903258 0.10558976 0.085084245 0.14270352 -0.018462446 -0.16241673 0.13112342 -0.08798611 -0.12044789 -0.1372841 -0.1143294 -0.017641073 0.07822697 0.0498427 -0.046868104 0.27897343 -0.157643 -0.030262664 -0.20329194 -0.026514295 -0.16809705 -0.03569976 0.04521519 -0.08058669 -0.004106325 0.102721296 -0.10012255 -0.057530787 0.15152168 0.075223766 -0.10920097 -0.08154463 0.06677064 -0.11579389 -0.08440517 0.22393757 -0.0063759084 0.13575852 0.058416925 0.0716168 -0.19126774 0.20440893 0.21618046 -0.1081054 0.13773452 0.18052886 -0.14308989 -0.21723193 0.16515064 0.11138785 -0.014938225 0.071636535 -0.14708062 0.13506968 -0.0684337 0.1670596 -0.01212051 -0.22064006 -0.17727146 -0.05641401 -0.05093552 0.12645309 0.15403603 -0.030284306 -0.22129272 0.09386297 0.0060430374 0.14072955 0.21730709 0.23182812 -0.14104228 -0.2812842 0.14496613 -0.0046310457 -0.101805896 0.09187238 -0.08371715 0.113706805 -0.010114366 -0.02999581 0.019363161 0.21277225 0.011936826 -0.09923916 0.05402945 0.16519578 -0.0052480306 -0.16461825 0.11846561 -0.01919719 0.07385714 -0.16158088 0.039368197 -0.12287318 -0.037139025 -0.097518526 0.16643238 0.0061695594 -0.09424269 0.24818505 0.15203054 -0.16876765 -0.056863695 0.030555826 0.02657497 -0.025850762 0.10193398 -0.0072217947 0.087287344 -0.14458519 -0.19648099 0.21312445 -0.12667197 0.19196384 0.019773208 0.08219604 -0.191116 -0.20656319 -0.092755 -0.035104364 0.20569937 -0.08549091 -0.15887538 0.030279553 -0.06826807 -0.19226612 -0.09046496 0.091102436 -0.11376585 -0.12619337 -0.15638585 0.119393274 -0.11924712 -0.118121944 0.123564966 -0.021041675 -0.028748952 -0.117326245 -0.005504533 0.24340886 0.27212813 -0.076354556 -0.007975626 0.20898879 0.09856817 0.12776136 -0.0044500413 0.034799635 -0.0100012245 0.011348147 0.07044015 0.062305037 -0.0109295165 -0.0355002 -0.12812594 -0.14147522 0.0379202 0.019985048 0.02869074 -0.0899746 0.119732454 -0.07508406 -0.34153834 -0.022012869 0.029812077 -0.08652636 -0.17818253 -0.011120635 -0.10720532 0.008724296 -0.16544595 0.008534029 -0.03253043 0.006499129 0.08865482 0.031456236 0.112792164 -0.095200256 0.13100931 0.13469876 -0.07199116 -0.12514465 -0.13675737 -0.11143401 -0.060151685 0.018642008 -0.031319205 -0.08777943 -0.101570554 -0.0710142 0.12533371 -0.023170551 0.076659106 -0.0587282 0.06073834 0.07986749 -0.12967348 -0.14969754 0.13641287 -0.082070544 -0.14433274 -0.05533029 -0.092670836 -0.0109166205 0.0068769096 -0.15623 0.15949622 0.02054882 -0.01981977 0.049223702 0.13757011 0.08646125 0.119378455 0.11440098 
0.07290007 0.060652073 -0.1316017 -0.046467867 0.01841833 -0.18024285 -0.053566985 -0.05913462 0.07548213 -0.038222563 -0.14553207 -0.14054897 0.06447061 -0.057900168 0.024903206 -0.0057836217 -0.045197472 0.021625895 0.10516739 0.03524695 -0.030287618 -0.11183244 0.061815042 0.0056730313 -0.09832445 0.12432227 -0.15521243 -0.04628511 0.047651574 0.06258667 -0.04161631 -0.04616446 -0.11300742 -0.03539708 -0.20413871 -0.031226946 0.013302868 0.056654435 -0.052484468 0.05495562 
Rect
Linear 40 40
0.09934097 -0.06067896 0.043568447 -0.075226516 0.03717796 -0.11343229 -0.10511177 0.12891385 0.011991162 0.15523419 -0.03014329 -0.14843586 0.013354918 -0.05384841 0.051713105 0.00632655 -0.09260256 0.065169886 0.050655548 -0.0052644 -0.13586408 -0.021417426 -0.09864406 -0.034749765 0.018431488 -0.068638936 0.057327278 0.04671973 0.07589403 0.11070424 -0.028718015 0.06682579 0.1415863 0.009608808 -0.047301363 -0.14493036 0.10481241 0.14223021 0.00073749834 -0.09106386 -0.15639983 -0.08354222 -0.03175959 0.02647355 0.12900016 -0.10797252 0.14017972 -0.13928024 0.08496814 0.12088435 -0.03829164 0.13438371 -0.13162813 -0.07403568 0.110400796 -0.050839514 0.06976713 -0.054499194 -0.13316286 -0.08779123 -0.035936702 0.13177839 0.15129916 -0.097158 0.06715369 -0.03772951 -0.014018741 0.09714839 -0.15392265 -0.048740473 -0.008334958 -0.016141146 -0.05923164 -0.06300066 -0.10380438 -0.021384496 -0.12315581 0.12250115 0.077943236 0.004975434 0.008903653 -0.09001785 0.04107416 -0.025825642 -0.03367209 -0.0071556927 0.13256295 0.107098624 -0.12661523 0.115981445 0.048835307 -0.03237815 0.07149898 -0.038548872 0.027849887 0.09168115 0.015585281 -0.016600154 -0.112022355 -0.062419336 -0.051883373 -0.011542765 -0.11941823 -0.14493273 0.13305137 0.1547224 -0.018798681 0.02968548 0.07154314 -0.054288395 0.10194866 0.035902895 0.12818174 -0.13531701 -0.06837326 -0.06924999 0.06417595 -0.029097656 0.13572997 -0.09475421 -0.070900604 0.15413046 -0.12342819 0.036257014 -0.14093336 -0.03432592 -0.13953674 -0.009939573 0.047732916 -0.087495565 0.057111546 0.056553908 -0.13443612 -0.05221471 -0.13639599 0.06575775 0.027646275 -0.065274425 0.04081417 0.06489728 0.14758214 0.11759868 -0.12053658 -0.12203446 0.019262535 -0.06111058 0.040728927 0.05208525 0.14443582 -0.12142296 -0.13709849 -0.101410486 0.026640825 -0.018723194 -0.02076285 -0.028715748 0.082549885 -0.012914874 -0.028450368 -0.020708092 -0.13053839 -0.11251314 -0.032176394 -0.053917795 -0.13809527 0.15088615 -0.14994493 0.039917227 0.094738446 0.065623775 -0.031741336 -0.04131659 0.037580006 -0.056016054 0.028271163 -0.21458519 0.24710026 -0.012488971 0.16375437 -0.009576454 -0.015121732 0.13088727 0.0581257 -0.18736683 0.08303704 0.015076593 -0.06808951 0.074349225 -0.06051488 -0.1171808 -0.121755615 -0.16979651 0.010441297 0.0065803113 -0.018554626 0.17450029 0.088481344 0.023779916 -0.10060592 0.025753466 0.03248287 -0.09216017 0.080614224 -0.028862236 0.14863285 0.1128205 0.09044364 -0.054198 -0.1316685 -0.00966709 -0.027225524 0.087156855 0.017455455 -0.05341446 -0.24545676 0.18420208 -0.029248964 0.112477 -0.15111284 -0.13462588 0.022212682 -0.18046753 -0.14626825 0.20458825 0.06764948 0.11386831 -0.13629346 -0.084983096 0.00538011 0.07951232 0.034956615 -0.1421507 0.10509209 0.08951146 0.0054643764 -0.08171671 -0.0127986055 -0.089227825 0.19771868 0.08064589 0.09523623 0.049764354 -0.0064526936 -0.028919434 0.17701244 -0.1100709 0.09325022 0.113437526 -0.1018179 0.082079224 -0.055438966 0.1018731 -0.047118437 -0.04238971 -0.027462345 0.03526741 -0.0719553 0.11285903 -0.059960056 -0.008005993 0.11981175 0.07230582 -0.13194771 -0.0985919 0.13949479 0.0455393 -0.099620886 0.11550539 0.00024763116 0.1538127 0.034235626 -0.058547817 -0.11378675 -0.052302968 0.06824642 -0.035539426 -0.08261232 -0.12501355 0.15972026 -0.028926257 -0.04149125 -0.019051708 0.081754595 0.12395431 0.04648818 -0.028562473 -0.055700574 0.09837322 -0.15440309 -0.04426794 0.012731239 -0.14849667 -0.00063037773 -0.13523732 -0.051572956 0.17536536 -0.0042974656 -0.10184951 -0.057045616 0.093703076 -0.018331729 -0.021991953 0.12496081 -0.032980878 0.067130126 -0.11694638 -0.051639322 -0.06576293 0.005207817 0.042966988 0.034992956 0.0007480699 -0.042411 0.045311105 -0.12492388 -0.021654764 -0.00714606 -0.04993659 0.15654054 -0.09251744 -0.006120989 -0.046616364 0.10005206 -0.1287613 0.06672433 0.15962256 0.12969072 -0.14097647 -0.012716948 0.03525333 -0.06044724 -0.21752621 0.010705566 0.07744492 -0.071827985 0.24301447 -0.18163934 -0.1735659 -0.26044792 0.009950279 -0.06129755 -0.0026452092 0.11771127 0.24572115 -0.08144565 0.013127924 -0.103820994 0.17366134 0.24641246 0.13763778 0.1927694 0.14253385 0.057422124 -0.14316712 -0.096112676 0.026832357 -0.02626032 0.15382417 0.21831171 -0.12660722 -0.15556963 0.13942091 0.1304691 -0.13606112 0.17921998 0.1023989 0.09745346 -0.022338508 -0.054105297 -0.048515666 0.14471243 0.031559348 0.1536684 -0.0142293675 -0.055746857 0.27484307 0.018204182 0.0466203 0.043246575 0.07176326 -0.10982328 -0.050033353 0.07231412 0.2014453 0.08186879 -0.0361988 -0.13232245 0.053817146 0.102048784 0.015530978 0.042829063 0.0987063 -0.017158909 -0.13592215 -0.12976259 -0.09566377 -0.060648844 0.19956493 0.016670566 -0.069346905 -0.15729548 -0.06846695 0.104157165 -0.043550916 -0.008153575 -0.09315727 0.079342626 -0.10668123 -0.024541795 0.11590853 -0.025381684 0.083295405 0.01644587 0.13073887 -0.04953159 -0.13632484 0.0599449 -0.048704214 0.11646285 -0.08795956 0.13081767 -0.0963271 -0.09886864 0.14272393 -0.11614462 0.046587005 0.044078305 0.058111966 -0.11231044 0.09308547 -0.017355755 -0.10603023 -0.13341294 -0.1309316 -0.038935363 -0.1461765 -0.09841395 -0.15795457 -0.011804423 -0.033226445 0.077318326 -0.033896007 -0.15353613 -0.15223294 -0.027671358 0.13769616 0.070140794 -0.022917958 0.022243902 0.1035818 0.010241121 0.15283622 0.1359639 -0.014558695 0.08708142 -0.14793752 0.06332849 -0.05114836 -0.06307208 0.14721164 -0.020456508 -0.018098464 -0.037048984 -0.026018366 -0.041903682 0.011662615 0.051210478 -0.05754821 -0.030406252 -0.043921106 0.118118 -0.046053737 -0.14611515 -0.0029525324 -0.0019498616 -0.08171855 0.06129504 -0.08576223 -0.0016028583 0.04529262 0.03374543 -0.09435456 -0.14017455 -0.1444318 -0.1411925 0.14012967 -0.21820688 -0.08709892 -0.021088472 -0.054435793 -0.07685129 -0.042671163 -0.22769842 -0.040002905 0.03840156 -0.036097933 0.010769906 0.13699764 0.23458137 -0.008953666 0.09286979 0.1211891 -0.0019986187 -0.042022485 -0.12595248 0.046676435 0.08698744 -0.089172624 -0.21677555 0.0022055032 -0.04631903 -0.09794777 0.05304316 -0.06623629 0.09059161 0.23887435 0.24256895 -0.13594118 -0.15922278 0.05700593 -0.09701719 -0.016773824 0.0007530755 0.14824039 0.05873101 -0.11935203 0.008348353 -0.112664714 -0.12722667 0.14313127 0.14817901 0.054773938 0.08185574 -0.044564195 -0.01594812 -0.1127808 0.051297665 0.01836478 0.0045673996 0.09576133 0.07669844 -0.09083441 0.09919979 0.009120973 -0.06266724 0.067981854 -0.088065274 0.07229537 -0.052782856 0.0034126046 0.09063995 -0.06788691 -0.12903103 -0.0003973819 -0.0020949324 0.126508 0.11156104 -0.075953834 0.04385058 0.04060708 -0.15443276 0.16115402 -0.0154031385 -0.01867118 -0.106126465 -0.1309812 0.039529104 0.14274542 -0.11311687 -0.13511647 0.026248425 -0.054409686 0.13181603 0.003946111 0.051032525 0.18186037 0.054169025 -0.015039974 -0.13040836 -0.11863383 -0.13926288 -0.10430377 0.12503915 0.15940179 0.07391167 -0.050317734 0.06242229 0.1626613 0.035466716 0.079981394 0.011960718 0.14352398 0.002675137 -0.1064587 -0.1046572 0.050059397 -0.08907698 0.12599286 0.09383887 -0.103296354 -0.005628776 0.13640124 -0.15526491 0.08490206 -0.11958807 0.13118432 -0.080095045 -0.14698553 0.06488782 0.12846205 -0.06251733 -0.081154615 -0.016663542 0.10603562 -0.05253607 0.1309512 -0.13886271 -0.11008247 0.122246005 0.0016670132 -0.07122709 0.0734421 0.024874724 0.009690291 -0.056991313 0.091257244 0.1104698 -0.013523643 -0.09808235 -0.06785672 0.07632613 0.09686444 -0.08527837 -0.0041412013 -0.10412122 -0.073073104 0.018436667 0.041517187 0.032083742 0.071789384 0.019545278 0.07590146 -0.15007208 0.017292507 0.17269626 -0.08501973 -0.010088407 -0.021089476 0.119397886 0.08666587 -0.13056275 0.040251978 0.11577128 -0.12346746 0.010252355 0.14837004 0.049515825 0.14194266 -0.12920545 -0.0934153 -0.11575931 -0.13377056 -0.08177315 0.14835455 0.15359986 -0.080556355 0.019312844 0.18062739 0.19892202 -0.09797366 0.16976124 0.059389506 0.1440827 -0.0071427193 -0.117048934 0.03128776 0.05322514 0.19425094 0.14572261 0.06531059 0.15677312 0.12237384 0.094738975 0.12461606 -0.11626776 -0.07497961 -0.01918153 -0.10138107 -0.05948897 0.1482994 -0.06638888 0.016213074 0.04863006 -0.04022067 0.05391834 -0.08246278 -0.007938195 0.0104427785 -0.08822063 0.009529895 0.050727982 -0.026923316 0.0046579335 -0.01285759 0.095187046 -0.116144575 -0.092599355 -0.07699298 0.091448344 0.06859363 0.12000387 0.06909744 0.0032545845 -0.08138302 0.12222308 -0.13792324 -0.061110344 -0.098529674 -0.101451695 0.12885852 -0.14914417 -0.11325341 -0.10180536 -0.020933503 -0.08308242 0.10122158 -0.13516504 0.07613209 -0.14856082 -0.07632842 -0.113956995 -0.1486241 -0.07850673 0.033352282 0.1401118 0.08980364 -0.13150498 0.12982976 0.07006016 0.052056283 -0.038148124 -0.10252901 0.11662774 -0.033721033 0.072800316 -0.053253278 -0.07385966 0.0447058 0.12926891 0.13276462 0.08623693 0.0336964 -0.14171149 0.07462927 0.054392472 0.08110192 0.1338543 0.14522736 -0.055433918 -0.124253824 -0.10771306 0.09471187 0.11113231 -0.10293549 0.06850871 -0.023843005 0.05430999 0.049806736 -0.0021710661 -0.13520832 -0.042121537 0.076738834 0.09577877 -0.035271667 -0.14094864 -0.08681125 0.0051063695 -0.15499812 0.15195806 -0.1279872 0.12606455 0.057351988 -0.052807353 -0.042659163 -0.1171713 0.12240489 -0.11627174 0.00027142506 -0.119628526 0.02197153 0.082172185 0.13212556 0.012141243 0.0104544265 -0.13556767 0.035024665 0.057103727 -0.068568245 0.07944362 -0.035274178 0.13963921 0.21483089 -0.12789537 -0.18364826 -0.037504382 -0.15197846 0.12041669 0.10746317 0.12152823 0.023312913 0.096257344 0.09567259 0.16812511 -0.11694761 -0.14092648 0.15381636 -0.17845173 0.042158403 -0.046500556 -0.073395744 0.09034081 -0.047890477 -0.04483973 -0.034645922 0.12392817 -0.114452325 0.04383434 0.15420829 0.22274832 -0.08872758 -0.12303453 0.06930105 0.12712942 0.12538719 0.08163246 0.08078808 0.0737728 0.053093046 0.095585935 0.023430457 0.07208746 0.094635 0.1417845 0.043862835 0.20239112 -0.09761678 0.18267658 -0.09049013 -0.08418733 0.013055809 0.07519284 -0.06492476 0.13993603 -0.15598433 -0.14187941 0.185142 0.01637648 -0.029010732 -0.030948246 -0.20948201 0.010196525 -0.13724224 -0.137088 -0.035047755 0.12280317 -0.0077526225 0.11155332 -0.050572325 0.28557247 -0.004858323 -0.06568612 0.07712714 -0.08807552 -0.030281346 0.038707647 -0.012546874 -0.20758803 0.1419852 0.07471371 -0.14056627 0.0039792764 0.09000892 -0.06565745 -0.16749807 0.14778012 0.15537791 -0.12753387 0.12461357 0.13760519 -0.005838802 0.09647523 0.061677642 -0.0010107983 0.13932739 -0.011143395 0.088072106 0.13189581 0.057939995 -0.10180111 0.046953812 -0.030058429 -0.055423293 -0.08424583 0.033918727 0.15179011 -0.15190186 0.11671143 0.10829112 -0.034710642 -0.023920998 0.11038308 0.023257332 -0.1106447 -0.109706454 -0.024834992 -0.04743408 -0.12971666 -0.040612504 0.09644326 0.09457195 -0.004680606 0.030231401 -0.088095255 0.050615232 0.07338585 0.048372127 -0.0049154526 -0.018935576 0.06745287 0.0751512 0.04889007 0.055244632 0.21449995 0.044271495 0.030513957 0.09517558 0.026109824 0.007662057 -0.107643425 -0.062087394 -0.031834282 0.078209944 0.062806875 0.22379482 0.04320889 -0.12810233 0.13157926 0.12775502 0.13415354 0.09776147 0.11939691 0.056369606 0.15608308 0.03017176 0.09811397 -0.15786532 0.047303393 0.1460518 0.1520206 -0.17226337 -0.05750406 0.080245145 -0.13408493 -0.14187993 -0.07893358 0.11499153 0.03475486 -0.11341891 0.12226206 0.046325576 0.058817267 -0.017085312 0.054973617 -0.07425395 0.16078533 -0.08955495 0.101692125 0.1378701 0.12269344 -0.04323226 0.06360727 0.112716265 0.020460503 0.07771792 -0.04340405 0.010820091 -0.10205995 -0.0989139 0.016152045 -0.06636672 -0.04161645 0.14690417 0.08694938 0.129027 0.1500142 0.055611957 0.008807276 -0.037545737 0.05493941 0.13662799 0.036291152 0.13174124 -0.07150729 -0.11536133 -0.022622183 0.020652175 0.12994574 -0.06435934 0.008136392 -0.12022363 -0.12212025 -0.09696481 -0.023460686 0.042072117 -0.057229154 -0.036002174 -0.108398095 0.05854705 0.06579979 -0.014259934 0.117742136 -0.010678679 0.0054781735 -0.11845113 0.009064093 -0.031227529 -0.13874492 -0.09034724 -0.09575192 0.048630238 0.023925394 0.015221566 -0.041786574 0.15379266 0.04238525 0.025318742 0.027853295 0.037808195 -0.13860022 0.13352908 -0.14010389 -0.07366314 -0.142948 -0.16280685 -0.013697321 -0.04239437 0.12357264 -0.07837398 -0.10869049 -0.12284911 -0.09223186 -0.18001099 0.15354908 -0.10614913 -0.21825211 0.17492712 0.09332665 -0.016584048 0.06331151 0.067700446 0.10855753 -0.108751 -0.024388416 0.09836764 0.11042565 -0.13428885 0.11135794 0.0066837044 0.17830555 0.037545215 0.11127596 0.11087875 -0.011319657 -0.072794855 0.011015296 -0.041775387 -0.006877818 0.097706035 0.14413968 -0.10256507 0.10390232 0.061457735 -0.14167967 -0.055507377 -0.14535521 0.075892985 0.029936109 -0.10852984 -0.0038402923 -0.13310531 -0.12302044 0.11831686 -0.034723535 -0.13336569 0.1876885 -0.12607357 0.3015524 0.12361668 0.021787457 -0.09221232 -0.13567762 0.092392676 0.10214654 -0.19856724 0.036580782 0.21009101 0.0067300615 0.00550552 -0.1787827 -0.13259959 -0.14777333 -0.03660358 -0.12965089 0.02392148 -0.13788117 0.16362192 0.19045484 -0.079306275 -0.18942015 0.1494724 -0.1484935 0.022619473 -0.06311863 -0.11423186 -0.027217044 -0.13868982 0.037845146 -0.038776796 0.041932944 -0.026311344 -0.0017629564 0.0852248 -0.025827153 -0.12150821 0.08508693 -0.073829204 0.102987975 -0.079187185 0.027453786 -0.11007918 0.03541692 0.010022928 0.13335119 -0.0025036726 0.0040585455 -0.06910224 -0.044849962 0.06788397 0.013383641 0.09077897 0.090481155 0.10660117 -0.08893135 0.06933477 -0.048392132 -0.0089520775 0.0023622275 -0.099533424 -0.01984555 -0.13037278 0.15343001 0.13018776 -0.14638294 -0.15009508 0.13185897 -0.11022857 0.03263435 0.1275199 0.1529375 0.1019592 0.03439802 -0.06769423 -0.10256511 -0.073687136 -0.0339477 0.06001103 -0.1093913 -0.029294977 0.06603191 0.14185986 0.029878616 0.02997726 -0.05204342 0.1158824 -0.017586842 -0.09732503 0.14296615 -0.116303846 -0.15145865 0.13462088 0.05893912 -0.040455412 -0.072644874 0.047867373 0.016475108 -0.15375154 0.11575948 0.0024012134 0.15600178 -0.06995056 -0.12240511 0.14966752 0.017614976 0.06488623 -0.10691861 0.035453767 -0.022207627 0.12051206 0.09354127 0.03977977 0.03465359 -0.15526587 0.061337557 -0.13721517 0.15041842 0.117051296 -0.05405391 -0.0638338 0.09559019 0.052164376 -0.00875353 0.01956213 0.07227767 0.05631471 -0.026515365 -0.0884334 -0.11226708 -0.10665844 -0.11691844 -0.13972338 0.091306835 0.13565442 -0.10550395 -0.14873102 -0.081009276 -0.09390184 0.14380813 0.011435116 -0.07905323 0.047806814 -0.14661075 -0.04743726 -0.14292626 -0.07564502 -0.11746981 -0.113983855 0.11705042 -0.065258436 0.08530022 -0.069503024 0.05096385 -0.026084233 0.14724341 0.056882128 -0.14140885 -0.13573663 0.067186795 0.024949696 -0.12389294 0.153837 0.03325065 0.1276407 -0.15331662 0.008360059 0.03161756 0.03253313 0.04691918 -0.017457986 0.13832775 0.109991424 -0.07560857 0.051372446 -0.010575205 0.1477752 0.0145756295 -0.015620246 0.0064972 0.115138374 -0.031439986 0.10275034 0.049084324 -0.12703355 -0.11300735 -0.21902977 -0.15471034 0.042241953 -0.17561603 -0.025016876 0.118845426 0.06608367 -0.07162079 0.07716754 0.06194451 -0.07484195 0.13520496 -0.18450692 0.19161552 -0.09751122 0.07080393 -0.05842215 0.059914548 0.056922626 -0.1538133 -0.23299238 0.02482298 0.16386794 -0.13338226 -0.046582878 0.011342743 0.104692295 -0.035293985 -0.16156745 0.0006292355 0.14286831 0.020538269 0.25300416 0.19630086 0.037323985 -0.22400032 0.06904979 -0.1184815 -0.13006292 0.09653269 -0.01956108 -0.056041915 -0.14808147 0.0727599 0.12775795 0.036671087 0.13420562 -0.0437743 0.076408714 -0.07592934 0.06090638 0.15509798 0.07885773 -0.0793513 0.0027535995 -0.043814775 0.057346027 0.07705345 -0.14158227 -0.12428145 0.05690589 -0.09079828 0.084033065 -0.021436976 0.10306608 0.046862476 -0.043876138 0.115191005 0.068714306 -0.09055222 -0.12515001 -0.083951056 -0.0667586 -0.12779619 -0.017480424 0.16325332 -0.0051875366 0.0009404098 0.21327695 0.13324687 0.07137533 0.17648356 0.14394139 0.14522718 0.013529616 0.035925254 -0.074315615 -0.014847681 -0.012070479 -0.041556276 -0.12890041 -0.18989158 0.11051536 0.006088354 -0.033773735 0.0077428967 -0.16643645 0.070408456 -0.03661689 -0.05863975 0.031938177 -0.05509277 -0.025351278 0.006094691 0.105738774 -0.025377968 0.1508946 -0.114256345 0.011600344 0.028941745 0.048823893 0.11935028 -0.08714127 -0.10086016 -0.10625282 -0.044470336 0.06403555 0.09281449 -0.027492104 0.14844984 -0.18850636 -0.20814958 0.1398208 -0.032822676 0.13950913 -0.13445449 0.051167168 -0.051924564 -0.13261734 -0.11641547 -0.10778725 0.04378322 -0.13120203 0.1977133 0.030915476 0.13783899 -0.027527392 0.13566588 -0.13997954 -0.1266222 -0.1747071 -0.01520343 0.09514221 -0.04403556 -0.06685576 -0.15060169 -0.103934646 -0.10624505 -0.038392458 0.033351764 0.0444438 0.10911212 0.09985493 0.21717568 -0.01703112 0.00025117767 0.007880946 -0.018449694 0.063177675 0.12306984 -0.12546322 0.10467474 -0.1357868 0.002404064 -0.15644649 0.107858464 0.024590507 0.008397356 0.0034240633 -0.054984376 0.0441397 -0.06738635 0.028739378 0.017298326 -0.08293978 -0.14166194 0.020906746 -0.14861996 0.07622588 -0.11949652 -0.07762077 0.14348911 0.08733183 -0.08272051 -0.124138445 -0.08896022 0.11592774 -0.1389824 0.13664402 -0.105774105 -0.009511933 0.07538906 0.04262407 0.0017814487 0.060319036 0.020783007 -0.13365136 -0.12070407 0.09195536 -0.09587503 0.07492188 -0.001713973 -0.10824197 -0.20683727 0.035763185 0.06267502 -0.03672055 0.14013909 -0.12979446 0.0052054315 -0.106353916 0.19207218 -0.15415761 0.06037095 0.012493374 0.092265874 0.073574394 0.14154434 0.06587335 0.039722662 -0.14982714 -0.057991944 0.09989084 0.13729137 0.03248482 -0.12047615 -0.06830621 0.13063687 0.024060491 0.11555594 -0.09623132 -0.11788698 -0.05697976 0.048546016 -0.13527277 0.048033405 -0.1348973 -0.11737932 0.15902616 -0.023525173 0.11316265 0.11448347 -0.064966 0.07619812 -0.12068246 -0.028950343 -0.071471095 0.15198262 0.007724026 0.03851138 0.09619865 0.10098801 0.24159078 -0.044851556 -0.14581303 -0.08489683 -0.050165437 -0.0030382401 0.057669863 -0.12003196 0.18143557 -0.0954007 -0.08182182 -0.07383742 0.052797727 0.23072593 0.016633548 -0.07943863 0.008040321 0.08495392 0.11937532 -0.12590353 -0.18400246 -0.11041205 0.18107283 0.006870611 0.07413604 -0.11181743 0.10833517 -0.12260214 0.13414429 -0.0744183 -0.017949466 0.10312427 0.13003244 0.0201359 -0.11115293 -0.007954031 -0.012060739 -0.051018354 -0.14028403 -0.13211164 0.090971634 0.06461391 -0.006003818 0.008551189 0.09440896 -0.026398936 -0.072085604 -0.06908517 -0.11992903 -0.016688382 -0.117573455 0.09829222 0.14467344 0.050452452 -0.08581226 0.04246555 0.02352357 -0.13197304 -0.031237572 -0.06439233 -0.0883093 -0.14346835 -0.07188929 0.03595742 0.09914974 
-0.0800693 -0.10002026 -0.15322702 -0.034243193 0.22561164 0.083643705 -0.0048008147 -0.02043353 0.02890327 0.032735765 -0.034372248 -0.050754987 0.20610443 -0.16020758 -0.10137854 0.004833508 -0.08076712 -0.01369755 -0.11972677 -0.13030006 -0.08226307 0.08632 -0.09318769 0.056955665 -0.09591878 -0.10161671 -0.019520197 0.23376645 -0.07079437 -0.07243669 -0.11431856 -0.13836339 0.1870489 -0.15827037 0.10137582 0.17971835 -0.10179202 0.11365439 -0.060034744 -0.09244629 
Rect
Linear 40 40
-0.09929432 0.15726389 -0.038212664 -0.07081956 -0.062471658 0.13586639 -0.0133547485 0.015230194 0.07562575 -0.05479896 -0.0203688 0.07914436 0.06699081 -0.032310292 0.1471801 -0.12164731 0.005732551 -0.045436203 0.09873824 -0.14365666 -0.15377809 -0.048251227 0.10323791 -0.033850938 0.0899799 0.026707545 -0.0840075 -0.10652309 -0.14682485 0.028202564 -0.030337423 -0.14256485 -0.08474416 0.09758781 0.02109392 -0.032228574 0.15213011 -0.06282913 -0.10814622 0.06602934 0.02898304 0.07527312 0.12970476 0.1499387 -0.0690651 0.1078705 -0.040310413 -0.10940806 0.03599301 -0.05624956 -0.15144776 -0.14546667 0.04336813 -0.062298946 0.04932206 0.10293319 -1.1310679e-05 0.0031254538 -0.11928319 0.0236337 -0.078642994 -0.1273793 0.067835055 0.05660856 -0.12878107 -0.093109004 0.042510152 -0.020071372 -0.0062627215 -0.039870672 -0.071151674 -0.05781769 -0.034161396 -0.099756494 -0.08393398 0.07658719 -0.12787893 -0.053105325 -0.15843004 -0.08554517 0.059876397 0.042548478 0.05739154 -0.13048732 -0.12256103 -0.040433194 -0.14657545 0.15362585 -0.1553134 0.10980338 -0.14739801 -0.0067703575 0.06968832 0.056381628 -0.11937483 0.13133061 -0.13094087 -0.06265542 0.060022548 0.054911673 -0.027023181 0.023827942 -0.027668327 0.038167555 -0.10208356 0.15451823 -0.06934152 0.04104342 0.04557845 -0.06557051 0.092417106 -0.120752454 -0.1573194 -0.034587264 -0.08870544 -0.12865306 0.06232159 0.08354527 -0.04710164 0.13235085 -0.09724194 0.06353223 -0.15843739 -0.057911444 -0.2084233 0.038771626 -0.13077947 -0.01995056 0.023700792 -0.00030775784 0.0964326 -0.1259303 -0.17714152 0.07483286 0.055498786 -0.12929428 0.15690127 -0.12597728 0.013123451 -0.065453984 0.09365116 0.09021852 -0.031835433 -0.074458845 -0.07905695 -0.14470637 0.032424696 -0.18016256 -0.11884128 0.005623381 0.07179052 0.12755722 -0.17425132 -0.032987874 -0.16741757 -0.006174853 0.048133463 0.10268292 0.011230762 0.020633701 0.10250798 0.034681555 0.039764356 0.059304807 -0.03284813 -0.008781054 -0.012853689 0.011577376 0.107723586 -0.05744698 -0.03898593 0.01789926 0.01824003 0.12912129 0.13134664 -0.14327016 0.13777743 0.0020133485 0.034956113 0.09884088 0.09161468 -0.038599744 -0.051245313 0.08727831 0.12680815 0.029678807 0.020331295 -0.09601022 0.03358774 -0.08614239 0.11855532 -0.15625459 0.020841826 0.032543894 0.037624426 1.5117425e-05 -0.09408563 0.026875747 0.054577105 0.08264545 -0.13379239 -0.15209037 0.04635945 0.0007284053 -0.07323157 0.0077365986 0.14701912 -0.04621572 0.03119126 -0.016323172 0.09119913 -0.11618514 0.16552997 -0.052106984 -0.06346675 -0.015767014 -0.004738926 0.020808036 0.006024562 0.082943864 -0.1355581 -0.117921926 -0.09267495 0.08219454 0.031178622 0.043387026 -0.015171246 0.08913316 -0.036109697 -0.16533348 -0.12668458 -0.044854246 0.1527977 0.067667425 -0.15689227 -0.04161798 0.12113996 -0.036375273 -0.12212446 0.07757827 -0.11359567 -0.09789283 0.14408568 -0.12705876 -0.061191607 0.08344428 0.13299905 0.03660948 0.14755431 0.13042597 0.04362429 0.15682869 -0.18673146 0.022986028 -0.07032397 -0.104877695 -0.095922194 -0.0032952665 -0.15582044 -0.00810825 0.12752336 0.12468515 -0.101581156 0.123838104 0.014055323 0.07712039 -0.11034271 0.021335283 -0.13679688 -0.043347903 -0.09394722 -0.11873198 0.00023264949 -0.12839226 -0.059749298 0.05582235 0.11366825 -0.17207351 0.00469877 0.092601046 -0.13214917 0.10163563 -0.120436445 -0.099520154 -0.022523096 0.17626365 0.02559398 0.14249055 0.09302011 0.11289707 0.15363467 -0.09278694 -0.18995534 0.12489795 -0.03908558 -0.0025484522 0.2461922 -0.027875436 0.007923166 0.047914024 0.21890491 0.18135847 -0.048550718 0.17405131 0.056859076 -0.060834527 0.16193393 0.036126334 0.06958249 -0.11040788 -0.09480607 -0.011267069 -0.14399773 0.11070746 0.09662045 -0.126224 -0.10435857 -0.004847671 0.14821191 -0.10687393 -0.014852878 -0.06303897 -0.15735629 -0.010981535 -0.152162 0.110952586 0.06778613 -0.1318991 -0.0024586741 -0.01809292 0.055193096 -0.098043665 -0.034266517 0.073484376 0.040546436 0.07720699 0.13245797 0.07021887 -0.092281014 -0.06914841 0.07676611 -0.025163542 -0.053803314 -0.034881264 0.09769823 -0.15253715 0.115888566 -0.06663974 -0.1135782 -0.11471483 0.004160857 -0.15733105 -0.09896142 0.013498848 0.02928112 -0.06695577 -0.11252791 0.08051074 -0.08650954 -0.08958018 0.10295161 0.045249198 0.008797827 -0.15154056 0.23010357 -0.030837797 -0.11654473 -0.014733262 -0.0462518 -0.049401753 0.06495729 0.14870957 0.010086885 0.04813347 -0.14365624 -0.10513127 -0.08902387 0.0985237 -0.03522775 -0.07523508 -0.04909055 -0.15876652 -0.13931361 0.07829198 0.13192306 0.026822954 0.15546449 0.2609814 0.07268803 -0.06437621 0.080126785 -0.09734939 0.22426881 -0.13187522 0.011676482 0.23378487 0.092265055 0.076675 0.043868836 0.11562873 -0.06979185 -0.07347744 0.04366815 0.070168674 -0.21898696 0.20170075 -0.029056389 -0.12909412 0.25656897 0.13088912 -0.04486227 -0.09160895 -0.044324625 -0.051953327 0.21559255 -0.10784946 0.0837006 0.13309766 0.1570158 -0.06710582 0.11457094 0.18515255 0.15673983 0.20162012 0.03563015 0.12665103 0.11211969 -0.1816428 0.119897194 0.022968955 -0.07374756 -0.118734576 -0.009744591 -0.08914982 0.04173046 -0.2177495 0.10122256 0.09237737 0.21106787 0.076618105 0.08800718 -0.13809021 0.117553204 -0.156582 0.13480407 0.011771221 -0.12049429 0.063138224 -0.09796663 0.016182307 0.00016052915 0.041182116 0.15036838 0.06679046 0.049534492 -0.05729502 0.08656104 -0.008469506 0.10826595 -0.042003002 -0.106726326 -0.13781597 -0.13100946 0.044103134 0.12694271 -0.04785633 -0.11336775 0.062491022 0.0005743261 -0.09389446 -0.07807605 -0.06353846 0.19641808 0.08964346 0.001416985 0.13672408 0.119658396 0.1634746 -0.06808804 0.018434918 0.14603812 -0.115559325 -0.1311231 -0.018212695 -0.06848227 0.06851835 -0.16677284 0.14373788 -0.08889171 0.08065583 0.14904016 -0.107461035 0.10564361 0.093833975 0.10733284 0.06341774 -0.02901124 0.12609728 0.09175449 0.13331033 -0.015599287 -0.09122273 0.03364247 -0.12420122 0.141679 -0.0023060888 -0.009517645 -0.18423246 0.023991419 0.139079 -0.027213316 -0.09571622 -0.1416256 0.10223298 -0.026364436 -0.06764758 -0.069367625 -0.12437942 0.02800978 0.008698877 0.13845366 0.098653995 0.0097814975 -0.08313269 -0.12914395 0.11162572 -0.042914085 0.051761366 0.09809506 0.16299427 -0.10626444 0.058636457 -0.16759615 -0.1376776 0.15909588 0.013803813 -0.102237724 -0.014297976 0.046340518 0.1015454 0.06818039 0.05329854 0.14367658 0.093812175 -0.12687339 0.036084592 0.09856701 -0.033191312 0.11033599 -0.1481805 0.092529245 -0.0036152618 0.048692696 0.019179164 0.13387977 -0.15124294 0.01335609 -0.09516013 0.07979248 -0.070805624 -0.102972984 -0.051810414 -0.0668869 0.034200385 0.06927119 0.010360211 0.13989307 -0.058258727 -0.15461887 -0.13094297 -0.030704573 0.0020410866 0.07921003 0.032872453 -0.059385158 0.12865545 0.13436384 -0.070466354 0.07352136 -0.14892986 -0.004203856 0.031515718 -0.052391127 -0.15711008 0.14469536 0.13963653 -0.122557014 -0.13474199 0.07144363 0.07837878 -0.09601667 0.02657725 0.012304798 -0.060110904 -0.03813529 -0.018464878 0.056563333 0.13430245 -0.096188135 -0.014480606 0.10725202 -0.0637037 -0.119939476 0.0213992 0.04026641 -0.13907224 0.096439764 0.041603237 0.13970496 -0.06423672 0.09858094 -0.14848611 -0.15639775 0.012316152 0.064567104 -0.14541134 -0.057699636 0.13557516 -0.107689895 -0.062227838 -0.052546397 -0.07891842 -0.045334622 0.09483789 0.023762122 -0.12644148 0.13808604 0.106964186 -0.045798868 -0.0037323385 -0.033540785 0.032761917 -0.05453389 -0.11193769 -0.103110924 -0.15658933 0.13677074 0.024100304 -0.007536173 0.12979193 0.095613316 -0.10457809 -0.037757635 -0.017884528 0.04892519 0.05957975 0.10124111 0.03896621 -0.16376086 0.022776403 0.015814558 -0.10646368 0.050417382 0.057548787 0.11826877 0.009911926 -0.10358814 -0.09388968 0.14193071 -0.06641764 0.11269547 -0.18134883 0.033701103 -0.06581698 0.10337928 -0.13394338 -0.056060478 -0.096739374 0.037923217 0.14071696 -0.016969651 -0.058440156 0.12095678 0.089211956 -0.17789955 0.08216617 0.14521627 -0.09820491 0.08485266 -0.11065749 -0.08243607 0.064641446 0.09613277 -0.1224246 0.10796006 -0.042471536 -0.012765825 -0.07948074 0.11778928 -0.15543164 0.12877955 0.08622216 -0.04426229 -0.11987924 0.041612923 0.15059386 0.15551157 0.1305693 0.13007988 0.10614534 -0.13895822 -0.0719933 0.06590368 -0.07342235 0.0592224 -0.10737267 -0.111472026 -0.13440485 -0.121995926 0.10994233 0.07384598 0.09900664 0.062282518 0.03931938 -0.15746854 0.13403307 -0.01131469 -0.07039656 0.019929498 -0.108253114 -0.017699257 0.042721897 0.024245486 -0.07826869 -0.011738621 -0.042849936 -0.11083568 -0.083204344 0.15521899 -0.15896755 0.05963391 0.025326476 -0.107087664 -0.04697589 0.090623565 0.09095137 -0.019733982 0.002467811 -0.046928488 0.0029194504 -0.08489805 0.13281603 -0.09326289 -0.11835142 -0.069807254 0.14102502 -0.08832016 -0.036771122 0.012292594 0.14455858 0.09081665 0.07273249 -0.13429274 -0.13159999 0.0057964334 -0.044911165 0.026510641 -0.13619849 0.047853652 -0.1134583 -0.012865389 0.12665886 -0.041542444 0.038760826 0.014344096 -0.09867887 0.049332984 0.12096476 0.15802324 -0.028658513 -0.09293971 0.006311372 0.027220665 0.011886465 0.029337542 0.008220886 -0.08901523 0.0068065724 -0.10579563 0.15277986 -0.10758055 -0.05249534 0.07014389 0.15348296 -0.028354991 0.09260081 0.077990726 -0.20428647 0.04425703 -0.15353481 0.100829974 -0.1325318 0.010300937 -0.0420924 -0.16300069 -0.15036385 0.14038925 -0.10157706 0.060170062 0.13821928 -0.0416571 -0.058219355 0.077036254 -0.050134145 -0.14535452 -0.13976572 0.017276758 -0.11815112 0.013109533 -0.06898647 0.07448212 -0.09922219 0.089839295 -0.06265505 -0.08326698 -0.054394204 -0.028890789 0.046798464 0.0005823872 -0.100144334 0.06275585 -0.008213975 0.0043789377 -0.016995436 -0.002164307 0.008531138 -0.106862895 0.07557272 -0.13980497 -0.1289353 0.021164907 0.10249063 -0.10986013 -0.13119824 -0.17354925 0.0923928 -0.15021719 0.11551458 0.0841014 0.04943248 0.071112335 -0.04736907 0.05947593 0.07732641 0.15165175 -0.06735971 0.019521281 -0.007922083 0.01471594 -0.11326947 0.022436187 0.06835068 0.02301715 -0.079016715 -0.11455555 0.03523468 0.072813824 0.07795046 0.096770465 -0.051029768 -0.014674202 0.110178456 -0.03128265 -0.11570804 0.025638524 0.0017909259 0.061817884 -0.15404357 0.08381552 -0.043127038 -0.11649504 -0.056315936 0.096454196 -0.044791296 -0.15217616 0.08011847 0.0918964 0.004825954 -0.15209273 -0.019138724 0.14482002 -0.14387637 0.056661338 0.14628647 -0.14468756 -0.0888224 -0.104650855 -0.07138681 -0.071639776 0.11632781 -0.12457217 -0.04627244 -0.122126505 -0.15424797 0.12442379 0.09685616 -0.13822308 0.15042214 0.13343881 -0.07682596 -0.064063035 -0.12928215 0.08868928 -0.08752705 -0.1046979 -0.10455565 -0.028213069 -0.06601496 -0.03328163 -0.01728496 -0.1356066 0.05549155 -0.06896036 0.13197516 0.15544178 0.11463182 0.12182008 0.06455399 -0.031866178 -0.11956644 -0.13219778 0.110671714 0.02060555 -0.0045438977 -0.1238311 -0.0076394025 -0.09866135 0.014795142 0.0035540892 0.07602581 0.049947187 -0.13695 -0.049976967 0.036415562 -0.0021303154 0.10022998 0.116520934 0.10662031 -0.13100185 0.019730479 0.13531792 -0.08851884 -0.030519806 -0.17083688 -0.016739592 0.02417159 -0.079224534 0.03580395 0.0007916506 -0.07615661 -0.06877627 0.037528172 0.073151834 -0.015563661 -0.08364252 0.14295998 0.11999728 -0.086174056 0.1390028 -0.15770422 -0.10807499 0.07392116 -0.06436753 -0.14831005 0.14919625 -0.12226361 -0.011669455 0.10126209 0.09222945 -0.12008026 0.09291259 -0.095474474 0.016036002 -0.12068938 0.12741132 -0.03083803 -0.076828346 -0.07523255 -0.14039706 0.0060382914 0.073619455 -0.108807266 -0.123674996 -0.10589656 -0.13560931 -0.10815152 0.007351426 0.10135637 0.04637652 -0.09055547 -0.13395701 0.13213538 0.14519899 -0.14616251 -0.060946025 0.084358834 0.12652709 -0.14931099 -0.11700397 -0.1203075 -0.06466423 -0.01220641 0.0879449 0.14518274 0.09917835 0.08858393 0.14760643 0.027349262 0.08579694 -0.07896785 -0.057155468 0.14547391 -0.05916639 0.03846685 -0.13528462 0.12340988 0.09544686 -0.120086156 -0.12071817 -0.076069035 -0.0155783305 -0.03520341 0.028882852 -0.13115099 0.14887801 0.13366096 -0.1410112 -0.122792505 -0.02345804 0.1133813 -0.11103997 -0.13577388 -0.1272619 0.12193833 0.11686096 -0.02475353 -0.015129447 -0.16461475 -0.14268625 -0.09380371 0.025473112 0.13328767 -0.004656783 0.06291187 0.049017478 -0.07419976 0.012740167 0.03444044 0.1505919 0.2062725 -0.109153144 0.13984466 -0.16746338 -0.026644941 -0.0244199 -0.018806934 0.27576286 0.04102487 0.09423984 0.1299883 -0.03230791 0.14802887 -0.12706605 0.095832355 0.05981256 -0.056866378 0.07828261 -0.12787557 -0.11388624 0.12685621 -0.1308642 0.12617333 -0.16921586 -0.06892337 0.13563313 -0.09514661 -0.08036398 0.11929148 0.08285497 -0.013200973 0.06062026 -0.10252507 0.024562385 -0.019687375 -0.07936646 -0.08242649 -0.025329018 0.01132572 -0.1503814 0.06067574 -0.08641723 0.1026455 -0.08878476 0.13378188 0.045833513 -0.08679525 -0.02824214 0.03333264 0.0641893 -0.0061305035 -0.170866 -0.060597587 -0.100708745 -0.07454563 0.1408596 -0.13936031 0.11437019 -0.070815556 0.069408126 -0.0005366437 -0.04973591 0.115015715 0.14579803 -0.123337395 -0.04512081 0.08227464 -0.0068416595 -0.13784376 -0.16500618 0.00070807454 0.14733997 -0.009453367 0.033947334 -0.13751677 -0.124589555 0.08915103 0.08383325 0.013044812 0.24281271 0.11601826 0.056867443 -0.030670583 -0.08738747 0.14923555 0.085751735 0.12042274 0.21068163 0.04700782 -0.11823051 0.010229873 0.16408728 -0.041520704 -0.03029559 0.19399175 -0.06232576 -0.1526106 0.15657176 -0.17313427 -0.13513158 -0.08807562 0.055377536 -0.083101414 -0.116395526 0.0071293353 0.12390613 0.015021425 0.033534378 -0.13431253 0.10516028 0.0013067637 0.063937455 0.1466058 0.12679623 0.074676424 -0.0006324798 0.11916971 0.098785624 0.1228685 -0.064264655 0.04928933 -0.12122722 0.017581 0.086333334 -0.049452923 0.10350502 -0.15618804 0.011765295 -0.012120614 0.027418911 -0.0027459252 -0.16726379 0.06061962 -0.10115249 -0.00957368 -0.027034536 0.018067524 0.083473146 -0.13628891 0.046228632 0.035487212 0.0384802 -0.07904449 -0.009185523 0.103718095 0.04508527 0.14558001 -0.07674683 0.13180086 -0.040269937 0.047601976 0.09564221 0.052723594 -0.1631134 0.029326096 0.15135746 0.042949077 -0.15279767 -0.1398099 -0.05992936 -0.046046168 0.017963884 0.13737734 0.17178272 -0.064083524 -0.052289534 0.054327253 -0.02254314 -0.05939563 -0.052189637 -0.079071924 -0.15373966 -0.053686783 -0.109555654 -0.09585478 0.019381534 -0.040453166 -0.13102774 0.29952806 0.123497956 0.11016857 0.097229645 0.0651704 0.23744713 0.03781456 0.09823137 0.037078753 0.15609531 0.10455598 -0.100855015 0.024460496 -0.062270556 -0.038970478 0.09305484 0.108963475 -0.13311636 0.06479824 0.014845045 -0.16242376 -0.0584413 0.13907942 -0.0074255615 0.056023806 -0.12784648 0.03054066 0.083060905 0.03512248 0.014326703 0.0019225543 0.0025710166 -0.080737695 -0.052683655 -0.027074445 0.11001873 -0.07888288 -0.080665104 0.030743271 -0.029217767 0.15626635 0.11330868 -0.15776408 -0.056417774 0.09610619 -0.013585687 -0.019229067 0.027403606 -0.05562444 -0.1291287 -0.14326188 0.082504734 0.06368122 -0.14879349 0.10527651 -0.07589776 0.12876153 0.10684077 0.008992246 -0.08389347 0.049984258 -0.033596277 -0.120239064 0.14604445 -0.082992084 0.13607803 -0.038468678 -0.09641539 0.07546982 0.028908297 0.045109823 0.124032356 0.064903855 -0.07908438 -0.08610379 -0.0201578 -0.118963055 -0.09433634 0.12078597 -0.14168318 0.09585436 -0.09503643 -0.04850465 -0.098607644 0.09793235 -0.0667673 -0.12442037 0.12611213 -0.10099877 0.047241896 -0.08620764 0.095403984 0.066817105 0.07287074 0.13830853 0.044107072 -0.01395273 -0.21367137 0.11049283 -0.1452876 -0.05605616 0.18340103 0.021560268 0.124365896 0.085400194 -0.14508043 -0.0752304 0.08232421 -0.17981566 0.02435256 -0.15032798 -0.12763223 0.09564532 -0.044431258 0.10034841 -0.09096883 -0.0060363743 -0.05755986 0.11537169 -0.11886415 -0.12733309 0.14802253 0.03607978 -0.0246407 -0.003446538 -0.09668789 -0.15919171 0.08408509 -0.193153 -0.09268734 0.087140396 0.025067404 -0.040028065 -0.10385593 0.019723406 0.03408733 0.121886626 0.06830703 0.0036453109 0.06769389 -0.14604755 0.08564458 -0.10962479 -0.080384165 -0.10244694 -0.0056259036 -0.10148818 -0.06831105 -0.14035025 0.1382819 0.012152197 0.060011804 0.04278036 0.00376326 0.13642335 -0.00585826 0.0011707556 -0.07172155 0.023794696 -0.0024342237 0.13935615 0.047250643 -0.11452933 0.04900219 -0.13025387 -0.10137047 0.14698702 0.0018767504 -0.06299407 0.09490453 -0.005696293 0.03665844 0.1289873 0.11631359 -0.12458764 -0.1610722 -0.0029762674 -0.08733232 -0.021482773 0.027046314 0.11451156 -0.017106125 0.111271836 0.09784125 -0.1374268 -0.20166287 -0.039307617 -0.1056123 0.08223327 -0.1035993 0.13889554 0.068906516 0.10010098 -0.0035909363 0.12989931 -0.05936715 0.035605926 -0.10133575 0.027553737 0.1392801 -0.123860486 0.10265324 0.016685998 0.12921974 0.0053486177 -0.041615415 -0.060103994 -0.14240344 -0.08361005 -0.036237024 0.042650502 -0.03129558 -0.14396714 -0.15145731 -0.048346855 0.06110436 0.13545178 -0.034968883 0.10171393 0.0884384 -0.0436875 -0.10523319 0.12187978 -0.031491503 0.09224729 -0.01008509 -0.118049525 0.12913612 0.042071056 0.05201842 -0.06791523 -0.0052201916 0.13843895 0.07409964 0.09375381 0.087069236 0.077030934 -0.09745139 0.032459706 0.04916666 0.14131887 0.10040361 -0.09639032 0.06498201 -0.03044374 0.047598768 -0.097202204 -0.092202105 -0.010019374 -0.12824342 0.13834637 -0.17861845 0.034133423 0.056131665 -0.08495362 0.13238603 -0.1190347 0.2096919 -0.0146745015 -0.15083471 -0.11807043 -0.030574784 -0.10581209 -0.06863469 -0.15429641 0.28061354 -0.07467955 -0.17050102 -0.05479901 -0.09125324 0.09548611 -0.08844938 0.047676343 -0.049298417 -0.16724007 0.054833423 -0.051516544 0.0050752847 0.0031730384 -0.12980387 0.2330444 -0.13835502 -0.062182747 0.10584629 -0.052325517 0.19821796 0.14498435 -0.10608333 0.15420458 -0.0102146715 0.21948197 -0.18642808 0.04686835 0.15425836 0.14285341 -0.013533388 0.03842624 -0.16982831 0.051349822 0.07518162 -0.040561453 -0.12560605 0.12717201 0.08043014 -0.141782 -0.075101055 -0.021228708 0.07357316 0.03974233 0.021769676 0.065795265 -0.023247778 -0.08906869 -0.0837644 -0.09772388 -0.018946456 -0.18104139 -0.02034131 0.13345431 0.1405768 0.031348407 0.12331975 0.08090804 0.051248237 0.12721577 0.0015834547 0.009607693 0.13098358 -0.16936526 0.01196143 0.064431034 -0.055797406 -0.014000619 0.13313194 -0.0439246 -0.114237726 -0.13543783 0.008930957 -0.057026148 -0.1504255 0.001955873 -0.035228908 -0.017850902 -0.011671931 0.06419088 0.037743807 0.10924739 0.12857156 -0.11482319 -0.08000709 -0.07139312 -0.014761797 -0.065816306 0.15151387 0.049930997 -0.13202389 -0.1283226 -0.067400396 -0.105954655 0.03505057 0.054993425 -0.12514545 -0.15068704 -0.10661881 -0.04216694 -0.114086226 -0.053510167 -0.050689742 0.08170539 -0.038174532 0.13321245 0.06270583 0.10634495 
-0.13946958 0.028551621 -0.007589194 0.10635082 -0.2288125 0.17829943 0.08808743 0.1518734 -0.016420523 0.21504503 0.046500724 0.1928468 0.08758302 -0.027217438 -0.15591404 -0.15055601 0.03205399 -0.091819845 0.005320814 0.032404985 0.0899122 -0.08818821 -0.13358124 -0.050345767 -0.11057875 0.05716836 0.16492766 0.16887063 -0.019069573 -0.17097436 0.17952509 -0.16393729 -0.079401925 0.08237598 -0.14745797 0.081121445 -0.15375409 0.15205769 0.054113965 -0.05527304 
Rect
Linear 40 2
0.05521378 0.04317837 -0.021792289 0.0018221281 -0.17361741 -0.061261535 -0.039080314 0.19030513 -0.09463228 -0.2592417 0.23190925 -0.16940692 -0.024729768 0.02357178 -0.04424487 -0.084550075 -0.12079219 -0.076667875 0.06608859 0.08570903 -0.017885301 0.059832122 0.033830494 -0.13286194 0.06510796 -0.111759074 0.19645211 -0.033770207 0.13588832 -0.044769544 -0.1723104 0.12612434 -0.048964974 0.094952404 -0.06908274 0.08656814 0.08565119 -0.29346853 0.08517362 -0.13211745 -0.0015107989 0.05968624 0.026938241 -0.15119621 0.06887204 0.14250132 -0.15520778 -0.099814445 -0.1326828 0.2739196 -0.22114854 0.08157979 0.0045863483 -0.15178938 -0.070643455 0.1355675 -0.01400005 -0.026337698 0.15098408 0.017142333 0.038781792 0.10660503 0.07666567 0.07703416 0.182082 -0.07919576 -0.16410291 0.08769563 -0.22267564 0.103910714 0.20847319 -0.03430789 -0.1323966 -0.042346284 0.0041268286 0.0011860755 0.11621483 0.3774784 0.10400177 -0.14829594 
0.020107403 0.15698345 
