Linear 19 60
-0.04695295 -0.13564275 0.11845452 0.125063 -0.10385107 0.07000166 0.12828782 0.18907572 0.021402564 -0.08446753 0.21237125 -0.79683095 -0.70640457 0.092318386 -0.09734193 0.116951935 0.21132609 -0.08396744 -0.090945564 -0.19166231 0.0075385924 0.015490132 0.026518077 -0.19529463 0.08547649 -0.18267621 0.041132536 -0.044812933 -0.12218204 -0.090718344 -0.058445886 -0.050668467 -0.124722175 -0.20708594 -0.15083608 0.07559118 0.1329065 -0.16731432 -0.1874185 -0.08788487 -0.11391304 0.13533694 -0.04902827 0.12515678 -0.042211216 -0.10819396 -0.26646638 0.046981428 0.04646883 -0.38890055 -0.31391224 0.23243462 0.14826246 -0.044915963 0.1679219 -0.04565124 -0.10300122 0.0110294465 -0.11218695 -0.08162756 -0.19027232 0.0135833295 -0.1715644 0.14906393 -0.16276798 -0.2256565 0.025997162 0.04029408 -0.04128978 0.118775696 0.022039581 0.22937128 -0.039693825 -0.11109756 0.12878269 0.09091241 -0.2849652 0.0012822815 0.0066999486 -0.12871556 -0.16589266 0.15981123 -0.033843946 0.09958662 0.15722975 0.13113576 -0.052641116 0.62606084 0.5809395 -0.1427142 0.14443037 -0.17427494 -0.0012335256 -0.1565987 0.053088967 -0.19986643 -0.07894881 0.16881523 0.057693943 -0.22521448 -0.20959032 -0.17292893 0.12853733 -0.18643548 -0.010044545 -0.13200969 0.17931497 0.13565758 -0.084544025 -0.092241555 -0.12184015 -0.11320957 -0.09841714 -0.036858246 0.15458782 -0.21386772 0.090748444 -0.22136691 -0.1271112 -0.12784716 0.09372497 0.058621038 -0.06286119 -0.17044523 -0.14059559 -0.24354011 -0.030942999 0.079803385 0.0012990406 0.08502896 -0.057286672 0.022865877 -0.11119358 -0.07515761 0.09496214 0.14646931 0.057424154 -0.04244454 -0.03375371 -0.2041644 0.0012374694 -0.08371223 0.03393805 -0.19079849 0.0902369 0.03343873 -0.293201 -0.08828155 0.11172327 -0.084785715 0.06597956 0.19428255 -0.20344108 0.07739585 0.12417719 -0.42909265 0.001113294 0.066505484 -0.020670548 -0.034029793 -0.13587178 -0.17237987 -0.012089736 0.7844208 0.78517723 -0.04181359 0.13453472 -0.2006689 0.01633737 0.15137817 0.13199282 0.13370602 -0.016011098 0.06721785 0.24097873 -0.10343256 0.20826057 -0.17263332 0.09748988 -0.17822027 -0.13717164 0.21804558 -0.40885073 -0.43234745 0.06893661 0.17777662 -0.10677393 0.02590549 0.088685915 0.037628032 -0.27407685 0.0483619 -0.2909049 0.25837946 0.081041634 0.07236175 0.13477775 -0.22903991 0.09568817 -0.12638889 0.07230841 -0.08363243 0.23545022 -0.08380483 -0.11632316 -0.13904124 0.12935014 -0.28863415 0.13331424 0.25400516 -0.19393 -0.034781877 0.097974546 0.03417382 0.004812281 -0.04386601 -0.18216084 -0.09138144 -0.05660251 -0.20885356 -0.08398743 0.025206042 -0.19441971 0.18384911 -0.18408503 0.08398338 -0.15341936 0.18712299 -0.16275969 -0.19797778 0.15762098 0.08555294 -0.17659731 -0.092635885 0.16892022 0.010478173 -0.18035652 -0.11506881 0.010021588 -0.3911005 -0.37016773 -0.06860453 -0.09351589 0.10441188 0.17882814 -0.1055734 0.028153177 -0.2231995 -0.054393753 0.0047911834 0.07041165 -0.12508245 0.13783525 0.1278411 -0.0070142434 -0.18540388 0.0899421 0.065295324 -0.91856366 -0.6319795 0.090593405 0.14159587 0.03780323 0.14313035 0.22088766 0.042388022 0.16831796 0.087725334 0.04269958 0.25955155 -0.28410196 -0.06801935 -0.048259098 0.057921614 -0.25646064 -0.03940426 -0.019052075 -0.24858421 0.018909154 -0.3463434 0.12915017 0.12737386 -0.05459517 0.09516149 0.11838461 -0.0023967738 0.08695867 -0.08106614 0.07736163 0.107315384 0.1535269 -0.15774533 0.13699591 -0.02585216 0.12688099 0.19832844 -0.0020545311 -0.10502496 -0.06885972 0.08871834 0.108389884 -0.14852583 -0.23973252 -0.19044864 0.036692414 0.16137677 0.2189297 -0.23709635 0.19366667 0.010097034 -0.055978067 -0.112561285 0.020847773 -0.047378473 0.10179275 0.982483 0.8742036 0.12309696 0.025085632 -0.0070052394 0.0822372 -0.16057195 -0.015278135 0.27019194 0.009544389 0.12543134 -0.28751084 0.26713473 -0.07868186 -0.21835923 -0.18696232 0.088359624 0.00836855 -0.07754514 0.48616233 0.6840381 -0.08814595 -0.11304355 0.11189321 0.012153912 0.09797352 -0.22010458 -0.25340933 -0.026975442 -0.026331738 -0.23060645 -0.17454948 0.00062898 0.049809188 -0.018646182 0.029443758 -0.21048725 -0.045204572 0.2782397 0.029850371 -0.056265358 0.059301697 -0.17386517 0.08479468 0.12766476 0.14301957 0.085533276 0.010735137 0.17098288 0.13832054 -0.25944912 -0.10409937 -0.12092182 -0.14750783 -0.19819264 -0.14179744 -0.12618841 -0.27741024 -0.61734825 0.042981714 -0.23732576 -0.057810284 0.15321516 0.024514021 -0.19094001 -0.14004318 -0.13949673 0.10732829 0.06028948 -0.13413914 0.15648451 -0.15611865 -0.10838498 0.20429923 0.16899289 0.14391866 0.19479741 -0.13476431 -0.13493475 0.29385808 0.21982065 -0.15046488 -0.19474724 0.18219644 0.029512199 -0.09797873 -0.16221516 0.28477138 -0.29803205 0.12957613 0.15775816 0.007840433 -0.15628575 0.11541429 0.12496411 -0.51952505 -0.4391609 -0.08169559 0.18007669 0.1565067 0.20315868 0.1438759 -0.17951597 0.12962313 -0.079163834 -0.15756957 0.2349349 -0.045671728 0.05227099 0.032640304 -0.11302041 -0.051209662 -0.024088271 0.07816152 0.09344921 -0.18624492 -0.29088858 0.10947729 -0.1824905 0.08420606 0.07282766 0.117352836 -0.24603164 -0.10310021 0.040605005 0.09418452 -0.031379532 0.05898319 -0.04453985 -0.016952526 -0.050391752 0.10268015 -0.19506626 -0.009855694 0.17913814 -0.26000008 0.16669357 -0.19676894 0.14968745 -0.21468705 0.17922719 0.2406312 -0.2318887 -0.28380707 0.17175978 -0.076187976 0.08428257 -0.101652496 -4.426952e-05 0.11197077 -0.0893425 -0.051701795 0.11880152 0.14086077 0.033943336 -0.39226243 0.11090184 0.14969878 0.2156528 -0.27551553 0.12960769 -0.29300743 -0.06490212 0.14305827 -0.16203174 0.043284465 -0.040862937 -0.0024685257 0.006707646 -0.010493176 0.049214814 -0.1877161 -0.35011163 -0.13379478 0.17113632 -0.11190383 0.18400507 -0.13637422 0.16611849 0.2982472 -0.34645286 0.15478182 0.047686733 0.04753648 0.15239036 -0.08092431 -0.09920492 0.0542124 0.16660076 0.1623181 0.11413047 -0.047032226 -0.2515199 0.2714681 0.032424953 -0.085379325 -0.2650484 0.3301753 -0.13184197 0.04666422 -0.081385955 -0.18863094 0.052921884 -0.20811391 0.043493617 0.21879305 0.19695704 0.08446488 -0.12759441 -0.2346433 -0.18724142 -0.13608609 0.24284735 -0.06645063 -0.26936194 -0.033452414 -0.1711977 0.021847516 -0.12808888 0.20922913 -0.098082 -0.043906003 0.21781544 0.14837798 -0.003821451 -0.20023444 0.12171809 0.20261987 0.07973751 -0.23235792 -0.078273654 -0.20774367 -0.20333982 0.20582898 -0.13098879 0.07399695 0.25720084 0.054872602 -0.19813383 0.0025199512 0.2458629 0.01872464 -0.023405937 0.11571878 -0.19168206 -0.045220602 0.052311398 0.18506843 -0.1409483 -0.10875289 -0.21049117 -0.21116847 0.14434597 -0.25003758 0.16226175 -0.04828836 0.16177712 -0.258354 0.1724861 -0.091801755 -0.09367985 -0.026076937 -0.18517414 -0.1585552 0.095745124 -0.2206564 -0.20567209 -0.18233347 -0.109624654 -0.12721424 0.19080867 0.04976742 0.11222269 -0.18503062 -0.16623424 -0.20237094 0.08994046 -0.23677571 -0.21589041 -0.041235335 0.026306005 0.06006768 0.0062026554 0.014308243 0.012130959 0.1057889 0.038698263 0.088406004 0.00983271 0.08917703 0.02218734 -0.1575284 -0.14952704 -0.24863708 -0.07031004 -0.08490795 0.008395806 0.13171576 0.09184037 0.051647995 -0.022474129 -0.16792266 0.11582567 -0.092536226 -0.2134611 0.055223797 0.09581697 -0.0056826323 -0.028171469 -0.19824629 0.03120295 0.1931223 0.19732054 0.080904655 -0.11925053 -0.004141529 0.00017732482 -0.025913198 0.03463444 0.021938799 0.13027081 0.035417512 -0.05154637 0.42655048 0.6554747 0.01734181 -0.16959214 0.18775648 0.0775569 0.06247539 0.02664054 0.18312064 -0.022349577 -0.07499448 0.14354064 -0.04782879 0.056405716 0.011092663 0.016964348 -0.034696657 -0.12507361 -0.09899683 0.21041198 0.15925373 -0.042575564 -0.024261368 -0.14963825 0.114807725 -0.24596092 0.08590343 0.17887478 0.06923478 0.13640499 -0.20908406 -0.07157626 -0.11209525 0.10306087 -0.20112613 -0.14163175 0.06995032 0.09579957 -0.21340719 0.20656069 0.18657367 0.03319504 0.060081214 -0.19441289 -0.1875316 -0.18071857 -0.2438703 -0.052688688 -0.055478234 0.25992018 -0.28648153 0.21408726 0.22639287 -0.001255691 -0.11082261 0.0946679 0.105226 -0.3583235 -0.28630206 0.25970772 -0.05739058 0.06806263 0.17064466 0.023598779 -0.18818344 -0.090338394 0.1681369 -0.0067869746 0.045613393 -0.20667937 -0.14573015 -0.17151581 0.047464885 -0.15505637 0.11257594 0.046427984 0.08743857 0.042946804 0.11196856 -0.27561978 0.1257319 -0.08211883 -0.30449033 0.08153929 -0.23852015 0.18154448 -0.279743 0.1636218 -0.017221155 -0.121948026 -0.005602992 -0.035209928 0.05564579 -0.03167248 -0.16882294 0.10915563 -0.034514718 -0.09095196 -0.060363185 0.04773645 0.016708454 -0.3230863 0.12664597 -0.00027824574 -0.2466634 0.12682202 -0.09238573 0.20072736 -0.01423345 -0.19203246 0.10755032 -0.01986845 -0.1437755 0.17435133 -0.07251776 0.31863177 0.022329994 0.11782557 -0.07135303 -0.20157905 -0.0052920934 -0.2547806 -0.03148133 -0.13454574 -0.24320947 0.2525092 -0.22049797 0.1694567 -0.09330965 -0.13580775 0.052714474 -0.10273144 0.16678238 0.13350768 0.2041241 -0.046573937 -0.18939854 -0.008676192 -0.026473546 0.022385612 0.09916295 -0.19387966 0.06934084 -0.22871828 -0.19818696 -0.06963403 0.19720201 -0.15050387 -0.033485267 -0.1460053 0.11065741 -0.06733055 -0.19218887 0.069190525 -0.1812862 0.12382928 0.035565086 0.015965024 0.02305681 -0.14047623 0.32590026 -0.093564525 -0.26288426 0.14686508 -0.18834537 -0.098069645 -0.19401507 -0.24473007 0.25630304 -0.19259945 -0.03079089 0.17461468 0.13223991 0.102159806 -0.21689478 0.004810065 -0.046355825 0.19663432 0.14359781 -0.03680671 0.18164183 -0.2166827 0.22116607 -0.036043018 -0.015963761 -0.020465538 0.02205043 -0.2654967 0.17367294 -0.20548126 -0.594539 -0.50291896 -0.075315885 -0.10799304 0.15183885 0.03557944 0.18653823 -0.14592354 -0.060523648 -0.17971815 0.16696951 0.045267977 -0.22522883 -0.22448446 0.055971354 0.056218106 0.14529902 -0.0169184 -0.17619552 -0.12414597 -0.17750826 -0.09038628 0.18321076 0.16270638 -0.010955957 -0.24811941 0.056272652 0.14250219 0.071452156 0.09188267 -0.2047125 -0.21183905 -0.12446955 -0.057623282 -0.18054721 0.03904393 -0.048493974 0.007509671 -0.0051082317 0.017027427 -0.07915061 -0.2206947 0.0440399 -0.0064609107 -0.12972145 -0.19960785 0.06429271 -0.33122805 -0.00051147875 0.08380141 -0.09175792 0.1758643 0.13824785 0.027775336 -0.19363 -0.19656496 -0.04851275 -0.11938457 0.0377258 -0.21939543 0.114125445 0.1354075 0.009843297 -0.08361733 0.12606147 -0.13112268 -0.17952143 0.15522127 -0.042558566 -0.019501552 -0.057044297 -0.08435176 -0.14046794 0.07163586 0.07265289 -0.19602744 0.22030838 -0.118469514 -0.20160253 0.047044143 -0.06503005 -0.19010352 -0.17386499 -0.18553051 -0.09862421 -0.22523965 0.021427894 -0.21007262 0.17971498 0.13289006 -0.032471415 0.1483343 0.21400325 0.11774689 -0.20491968 0.23783912 0.19347537 -0.16795872 -0.05716199 0.08615759 0.17060715 -0.12030967 0.14292191 -0.02886846 0.044522062 -0.09938997 -0.11110799 0.12730965 0.13866991 -0.17705408 -0.12935686 -0.07088824 -0.120482385 0.098626345 -0.03237645 -0.09242075 0.03456385 -0.20595154 0.17779559 -0.20505181 -0.19513083 -0.046114944 -0.2223696 0.002198097 -0.048896056 0.029357443 -0.07251116 0.15185004 0.05760273 0.058330964 -0.22358544 0.15947172 -0.037563544 -0.13871747 -0.067156635 0.028373335 0.14589085 -0.18012549 -0.09704597 0.12768507 -0.16762343 0.1902884 -0.082264386 -0.05396624 -0.19639826 0.01645619 0.17986096 0.13653266 0.17026412 0.018861452 0.13521136 0.15162684 -0.22388819 -0.08373738 -0.1115957 0.2585283 -0.16470109 -0.1437793 0.011587837 -0.06988289 0.38761008 0.061139308 -0.039559413 -0.094021946 -0.01503403 -0.11653912 0.11624418 -0.15100826 0.3138365 -0.23323645 -0.19000228 0.4907321 0.5147152 -0.09333578 -0.26414967 0.19074383 -0.049702074 0.09173214 -0.0006819789 0.10003049 -0.14911088 -0.12998085 0.09807609 0.0651184 0.057398226 0.24242242 0.20058487 -0.101169705 0.06925768 0.021790136 -0.11143285 -0.07005766 -0.19877474 0.25273648 -0.010129681 -0.2070557 0.07328354 0.18492915 -0.070005305 -0.09381221 -0.22427897 0.17381926 -0.10832908 -0.14728278 -0.09532711 -0.07210401 -0.043140106 -0.20189276 -0.103325814 -0.04460606 -0.19443883 0.05233849 -0.02441372 0.033060715 -0.06942632 -0.12425079 0.10215432 0.17411569 0.12992875 -0.091032624 -0.07906556 -0.13860753 0.04552249 -0.1583111 0.052488297 -0.019887 -0.025665209 -0.06935136 -0.17120785 -0.1784102 0.13304982 -0.080310136 -0.06818467 -0.16910723 -0.0069413385 -0.16572729 -0.021731256 -0.19051182 -0.038351286 0.36739632 -0.24553184 0.134498 -0.07311198 0.13060264 -0.32496586 0.15227872 0.106359065 -0.19505216 -0.35675985 -0.021062974 -0.0100001395 0.22088166 0.0597362 0.2075463 0.13483407 -0.14061506 0.17991252 0.0067717084 -0.13508701 -0.083445035 0.104007505 -0.10187474 -0.09314135 -0.0386433 0.096016414 0.07709015 0.38270077 0.5707868 0.18201633 -0.046433873 0.13049017 0.041438624 -0.14102395 -0.1527293 0.17413202 -0.2081032 -0.268868 -0.1862408 -0.037939027 -0.12049849 -0.13623065 -0.10687783 0.34179288 -0.01620467 0.036113936 0.07766699 0.23597498 0.23253201 0.08687555 0.04560244 0.023446253 0.20286755 -0.09973665 -0.051960766 -0.05491254 -0.12299774 0.16527776 0.06091967 0.14894548 0.072872594 -0.17525272 -0.3208442 -0.01594801 0.18336372 -0.5629542 -0.6175037 0.06603664 0.16022618 -0.022189286 0.18460412 -0.09555995 -0.03653195 
0.12787323 -0.20426653 0.07737549 -0.10701999 0.15016748 -0.13147067 -0.07005276 -0.19178429 0.0032940656 -0.09978309 -0.26789436 -0.09840752 0.22681175 -0.0063276985 -0.12706068 -0.25723895 -0.21015386 0.056520417 -0.12572142 0.087504 -0.12655237 0.08678816 0.002266687 -0.16346125 0.039756604 -0.13415538 0.043341335 0.03731167 -0.104061805 -0.1335319 -0.17031938 0.030989498 0.057014633 -0.15508328 -0.16830188 -0.19338727 -0.13875467 0.019183798 -0.0070152315 0.15794444 0.12890069 -0.21171565 0.08032463 0.164656 0.024858361 -0.06870252 -0.020559749 -0.056769446 0.06098997 -0.14890006 -0.15612327 -0.0806037 -0.020221682 0.09978785 -0.13385323 -0.20553482 0.052928217 -0.074232005 -0.034425646 0.21699043 
Rect
Linear 60 60
-0.24742094 -0.054203033 -0.10010846 0.002438627 0.18558462 0.110967435 -0.019298721 -0.02622292 0.18210346 -0.10800324 0.22498812 0.056293633 -0.020820975 -0.049870394 -0.061141886 -0.13209705 0.31288886 0.21316603 -0.0019627505 -0.23393434 0.027133578 -0.19133005 -0.10558338 -0.046125256 -0.037743665 -0.11252498 -0.059020884 0.06544373 -0.09525395 -0.072189376 -0.06210362 -0.019406218 0.09664244 0.14074491 -0.10036658 -0.0187607 -0.03197787 0.11412303 0.07394079 0.19233114 0.037453115 -0.03317274 -0.09163398 -0.19905837 -0.09469942 0.058746196 -0.015397199 0.051066414 0.09218692 -0.0654302 0.080142535 -0.002330857 -0.010703458 0.111665726 0.03285326 0.122599155 -0.18804555 0.050943233 0.124908485 -0.03644148 -0.06722353 -0.07398663 -0.03670773 -0.06584681 0.05504553 -0.089455135 -0.12794854 0.11020824 -0.080468014 -0.014754379 -0.08126644 -0.0709161 0.014015049 -0.025969759 -0.048774526 -0.11161542 0.039968673 -0.11699463 -0.041955046 -0.07744401 -0.047872186 0.12692225 -0.023582764 0.02496818 -0.1033073 0.014117718 -0.0020148158 -0.10132201 -0.124345705 0.05437526 -0.08499493 -0.04733014 0.049153704 0.064432435 0.08901161 -0.059150964 -0.067193404 0.09320255 0.1128056 -0.11458039 0.08129169 0.032789007 0.006718963 -0.017663248 -0.023788929 -0.09063123 -0.08688592 -0.07459433 -0.1105593 -0.059064597 0.12856175 -0.0064772367 -0.018907554 0.025480125 0.07666443 -0.0009433627 -0.08385815 -0.055423025 -0.11041924 0.076017104 0.00815206 -0.04129861 -0.10719703 -0.015164665 -0.05717416 -0.091756485 0.07503157 -0.123064846 -0.0042251186 -0.13379401 0.1400729 -0.12899606 0.04168034 0.019130176 -0.08493102 0.01788027 0.084981844 -0.0019906075 -0.042813834 -0.051039588 -0.10347735 -0.18308923 -0.10606214 0.11437748 -0.006044642 -0.072857656 0.022461254 -0.10263717 -0.09383656 -0.13830687 -0.0011789576 0.048248947 0.068646744 0.12057364 -0.0326148 0.00041426078 0.04484412 0.10016051 0.098340645 0.005982722 0.0706048 0.03854372 -0.123830065 0.0007529766 0.05599761 -0.03022659 0.08164625 0.020440236 0.09722179 -0.030285738 -0.062020633 -0.12208147 -0.09361828 0.002018665 0.10697306 -0.024606373 -0.0019717799 0.0024028786 0.053856328 -0.082876176 0.071150295 0.05720283 -0.07170232 -0.11069221 -0.022167884 0.051299173 -0.08601424 0.0956107 0.007973124 -0.045347873 0.042536117 -0.12391521 0.09191114 0.039573904 0.015316515 -0.056151927 -0.043133043 0.062273223 -0.07151626 -0.09903908 -0.116741106 -0.050317 0.01424152 -0.044465967 -0.11743071 0.1069772 0.019822445 -0.0783696 -0.047658734 -0.105801135 0.039828315 -0.13240275 -0.04018036 -0.110529296 -0.109446555 -0.036755916 0.05150705 0.12408425 0.08866006 -0.012212185 -0.035880078 0.040446997 -0.012763873 -0.09097589 -0.10875849 0.027880074 -0.06596941 -0.106603846 0.072126195 -0.030311566 -0.101920195 -0.03638655 0.100675054 -0.12448477 0.11910827 0.035897747 -0.11695655 -0.058334053 0.01124858 0.08111419 -0.032181285 0.0875976 0.049739283 0.07949071 -0.0025392133 -0.02876982 -0.09829512 -0.13000242 -0.07971234 -0.06951862 0.02839947 0.093937546 -0.01365397 -0.03851829 -0.04801848 0.11618151 0.098331876 -0.11852656 0.07621242 -0.028343368 -0.07667409 0.033778735 0.07071139 0.12746856 -0.0059100855 0.05355719 0.011284505 0.09821932 -0.08918831 -0.1260257 0.0320096 0.021152858 0.040882163 0.05320193 -0.021056512 -0.10222376 -0.04950225 -0.010931156 -0.09003873 0.016196223 0.069383055 -0.023262743 0.047896635 0.029110428 0.12440667 -0.0020881444 -0.020145306 0.0125774 -0.044249404 0.099608146 0.0050593666 -0.10737705 -0.086184524 -0.05640049 0.01739508 -0.014964555 0.049579166 0.08196649 -0.030457236 -0.01076859 0.092112474 -0.021679373 0.076145865 -0.086100325 0.0762406 0.07675891 -0.11429852 -0.0882109 -0.01523812 -0.09113536 0.17457563 0.026046773 0.053867143 -0.15808982 -0.08645625 -0.040642284 0.0018236522 -0.1352801 0.019270303 0.04461236 -0.12394863 -0.10862012 0.008516386 0.018394582 -0.11804415 0.0894006 -0.022633845 0.07830124 -0.100424685 -0.03777708 -0.09433939 -0.023245616 0.091976814 0.056688923 -0.08605185 0.049280886 -0.08488021 -0.042464137 0.09576082 0.073797524 0.10277538 0.020000651 0.014451974 -0.0945061 -0.111629985 -0.044354893 -0.07650365 0.11854595 0.06581106 0.026714876 0.048543286 0.07136459 -0.036456577 0.055814765 -0.11399703 0.115384325 0.13012344 0.10271676 0.035391863 0.05675556 0.04478506 0.0464323 0.021617178 0.013309795 -0.15809004 -0.022991702 0.0031108176 -0.1380213 -0.13316599 0.018119605 0.08720262 0.19088931 0.077041976 0.08347754 -0.068992265 -0.085584745 -0.09514079 -0.05014036 0.0028983066 -0.15730743 -0.10820925 0.015969772 0.16315141 -0.14063749 -0.14205171 0.14947502 0.084246926 -0.11973915 -0.11158849 0.065329105 0.08106032 0.056485362 0.051162884 -0.1520825 0.039132692 -0.11110787 -0.1174048 -0.02476326 0.072309196 -0.05901568 -0.17536269 0.069133215 -0.077386804 0.03798684 0.038648117 -0.015866337 0.09489125 0.08883023 -0.021115286 0.102903485 0.042884633 0.056870062 -0.16260839 0.14944768 0.027621865 0.080175936 0.011105652 0.028460056 0.0415685 0.096083336 0.01561329 -0.1175581 -0.026551507 -0.09063061 0.107102044 0.027586803 -0.09890596 -0.03593893 -0.05043107 0.11201925 0.07782423 0.055195622 0.09040261 -0.07905519 0.05891007 -0.061611213 -0.0243082 -0.037582405 0.034474473 0.12837768 0.110533774 -0.05275543 0.110856585 -0.0424682 -0.015903704 -0.055028815 -0.10344644 -0.042902064 -0.027143503 -0.11860138 0.060378805 -0.018099675 0.030189432 -0.10593911 0.022082029 -0.03526163 -0.09293438 0.013482147 -0.10519395 -0.11049019 -0.034033295 0.12100616 -0.026817312 -0.021270312 0.025827149 0.1263112 0.12882072 -0.042020597 -0.003556648 -0.11653278 -0.050046153 0.08323801 -0.12668459 -0.0993366 0.052581996 -0.114020266 -0.04535864 -0.10318618 -0.116782166 -0.02338251 0.17616396 -0.060112502 0.024824541 0.0067824502 -0.09656266 0.11676988 0.010930785 -0.13772775 -0.17880988 0.18020043 -0.040515084 0.035080045 0.18067184 0.18026766 0.03987037 -0.118338354 -0.21543802 -0.2365308 0.04266412 0.17896381 -0.11776069 0.13900757 0.1528549 0.030909738 -0.11182169 0.06263815 0.11601749 0.08286317 0.07458474 -0.06039501 0.040653974 -0.023989318 0.15110613 -0.19611792 -0.11256817 0.066800304 -0.010224707 0.098763876 -0.022241957 0.0030173364 -0.13458736 0.015158322 -0.15246944 0.13642642 0.06867046 -0.07755053 0.046116453 -0.00021502376 0.010692489 0.12167305 -0.013756101 0.08147904 -0.2149061 0.018960482 -0.083416104 -0.02257886 0.0706164 -0.0116832955 0.028441621 0.10565459 -0.10286702 -0.012251459 -0.2000681 0.08964602 -0.038421806 0.06573857 -0.010481953 -0.106429756 0.2741558 -0.16229774 0.1035498 0.046602357 -0.092571445 -0.25403658 0.06123331 0.028815804 0.26329905 0.1600509 0.0002723232 -0.103536785 -0.23626664 -0.057216287 -0.048142534 -0.122278295 -0.07803952 -0.061524995 -0.014604788 -0.11080023 -0.10251156 -0.09186643 -0.0007764768 -0.066405915 0.010933354 0.16438963 0.12071244 -0.038520545 -0.10486776 0.04764599 -0.028971657 0.06840589 -0.00571377 -0.06539865 -0.11267992 -0.14647882 0.005001058 -0.03323765 -0.08374472 0.12261896 -0.011900838 0.0660714 0.07536717 0.12445823 0.015773516 -0.06796722 -0.050097954 -0.03675103 -0.060370374 0.17359026 -0.14770317 -0.078090064 0.18367249 0.013312096 0.03534448 0.06901916 -0.20099841 -0.009414464 0.013989378 0.00020410935 -0.14349522 0.084981635 -0.15786393 0.13934767 -0.07840907 0.19801612 -0.014661608 -0.047131017 -0.1949415 -0.20273905 0.052905377 0.17564532 -0.008965448 0.12254388 0.15891206 -0.14995454 -0.03898802 0.12411072 0.17337923 0.09837257 0.017663289 0.13902058 0.06390281 -0.07639053 0.124944426 -0.12414818 0.05773045 -0.103171855 0.1566447 0.12258449 -0.09146506 0.049329724 -0.0446956 0.05661526 -0.13700381 0.058619663 -0.13008773 0.10710294 0.18525936 -0.00813169 -0.1667702 -0.07663189 -0.022549544 0.12254459 -0.25620618 -0.042378124 -0.05362537 -0.102136545 0.07922438 0.009131345 -0.23484142 0.20918642 -0.023824058 -0.076919384 0.012837423 0.024337959 0.029927364 -0.07417935 0.13263611 0.098038584 0.080475315 0.0019144682 -0.012199092 -0.090311706 0.08245215 -0.021930896 -0.018276174 -0.033296943 -0.14944057 -0.104849346 -0.027880864 -0.1163182 -0.073246025 0.122246206 0.07043352 -0.092809305 -0.0310786 -0.041825224 0.05842233 -0.003621246 0.04481404 0.035877615 0.021683857 0.07876854 0.048112564 -0.1398887 0.112431586 -0.10336989 0.058432844 -0.027054343 0.06234789 -0.048794173 -0.03396875 -0.030576468 0.097569175 -0.057909835 0.0744929 -0.11064989 0.05543442 -0.10827166 -0.07607638 0.06940144 0.09000345 -0.005085796 -0.09571674 -0.07280639 0.02457644 0.07377358 0.0531798 -0.15239803 -0.07209444 0.067852706 0.08496989 0.064859524 -0.031215085 -0.019615365 -0.03953209 -0.045397513 -0.026947621 0.04243133 -0.0073361653 0.02883873 -0.011648539 0.07896062 -0.051490173 0.011759677 -0.00964042 -0.08858567 0.005877941 0.01998967 0.023203041 0.023323722 -0.064639755 -0.10961162 0.04585273 0.009706731 -0.07252676 0.13813749 0.06299724 0.107745714 -0.107300274 0.037467863 -0.1209383 -0.076706566 0.029922 0.045370687 0.055808943 0.06362046 -0.07251526 -0.046922434 -0.018221134 0.0084185405 0.014518431 -0.06299182 0.0886587 -0.13044074 0.071923696 -0.12264734 -0.12750857 -0.0009797215 0.1283598 -0.008546856 -0.007852282 0.09593684 0.03613357 0.108799435 0.09665267 -0.042960376 0.03310335 -0.08886959 0.09349327 -0.038174365 0.07750667 -0.08253843 0.009521397 -0.0007986307 0.11993814 0.10000497 -0.08277605 -0.084725566 -0.047789965 -0.09638433 0.027420847 -0.056005806 0.04127867 0.05601018 -0.088323675 -0.113056384 0.087523684 -0.12464379 -0.110234104 -0.11461347 0.039998367 -0.16311514 0.004777987 0.13362464 0.0021442776 0.08489959 0.089742765 -0.10700065 0.07475529 0.048271883 0.020520665 -0.12383342 0.07904835 -0.09629661 0.101714484 -0.11423989 0.007898606 0.09153941 -0.010835192 -0.12351063 -0.055885334 0.10279231 -0.0060402756 0.022565097 0.022506377 0.0983216 -0.037117995 0.09341954 -0.021260576 0.07588515 0.0057574227 0.10513337 0.12657334 -0.13173336 0.051998828 0.031445622 -0.027317852 0.05600978 0.0861634 -0.08101115 0.13044944 0.077737875 0.064323805 -0.08900828 0.12359137 0.09331338 -0.0031583658 -0.103062704 -0.027282398 0.0931822 -0.09049112 0.038859587 -0.08344669 -0.028344985 0.045178648 0.06683858 -0.06541547 -0.08129504 0.01194136 -0.010250861 -0.09691267 -0.035981804 -0.11755738 0.007772275 0.09502774 -0.031477258 0.016621908 0.035063803 -0.05729643 0.103944145 0.008895709 0.0742022 -0.08419872 0.033183794 -0.11625502 -0.02410572 0.03474972 -0.08905572 -0.09262086 -0.08733205 -0.048313905 0.08052394 0.052615535 -0.066764794 0.017862428 -0.09839216 -0.09151627 -0.028693259 -0.05301304 0.008413166 0.029431187 -0.11110117 -0.055084128 -0.05306945 -0.09418702 0.04944346 0.013841665 -0.019159175 -0.041242342 0.13751303 -0.12597072 -0.06932527 -0.11894944 0.036897402 -0.08789235 0.017843604 -0.071885124 -0.10933255 -0.11947589 -0.052696574 0.04087708 -0.08829523 -0.02402229 -0.0011651228 0.021676306 -0.067231596 -0.0886293 0.066628926 0.02721517 -0.0089794565 0.08004806 0.072579004 0.04361313 0.039581776 -0.07333253 0.10047275 -0.030455464 0.124490574 -0.058828007 -0.10740882 -0.089319356 -0.0003628759 0.00071853714 0.0028573857 0.12086195 -0.111059606 0.0012547268 0.12414113 -0.007088123 -0.10392551 0.010218204 -0.11021238 -0.07437508 -0.07363295 0.1078072 0.055414528 -0.066912785 0.06732248 -0.09084337 -0.09558586 0.00086067925 -0.03373964 0.069792405 0.07053766 0.12610243 -0.037575006 0.09043342 -0.015295878 -0.07916352 -0.03279465 -0.026061775 0.07426372 0.08592954 -0.09870301 0.11989591 0.0697132 9.9023964e-05 -0.12441717 0.028213141 0.013918374 -0.044351 -0.06644903 -0.10310474 -0.04324234 0.022985894 0.111251615 0.104635075 -0.06967333 0.01685308 0.08806326 0.06475332 0.0068323696 0.09281321 -0.08917172 0.00032394816 0.008065502 0.092503965 -0.029140735 -0.1119028 -0.024844985 -0.010721324 0.021132115 -0.13212448 -0.09354881 0.076683976 0.099756025 0.018309304 0.026789967 0.13075395 -0.12610698 -0.0026313101 0.123562984 0.106874466 -0.05099751 -0.0042966534 -0.1028989 0.0139452275 0.05422251 -0.006791891 -0.04966121 -0.12772027 0.01647076 -0.12506455 0.03671194 -0.106615454 0.083967954 -0.11739327 0.03632858 0.020602014 0.08628853 0.11682916 -0.0033560218 0.08506055 -0.023347363 0.083501235 0.10438043 -0.055668764 0.05627553 -0.038976956 0.062414855 0.1165939 -0.12513442 -0.085911095 -0.114483394 -0.095483005 0.08841114 0.05920374 -0.077795565 0.04446681 0.10010878 -0.0848714 0.054388378 -0.05912743 0.026127031 -0.116303466 -0.059456192 0.028916582 -0.095569216 -0.06178338 0.06499933 -0.07150501 0.09837833 0.032053035 0.05130717 0.058271125 -0.04516522 -0.10612763 -0.10626639 -0.10427013 -0.06329654 0.039155617 -0.09752798 -0.08699083 0.043186933 -0.022715606 0.05928026 0.021879366 -0.002311334 -0.10423132 0.04941155 0.035145495 -0.07040665 0.040626425 0.105046615 0.0039017051 0.01890491 -0.0039377976 0.02405194 -0.071620576 0.0351302 -0.10631961 -0.0997401 0.08693307 0.076783165 0.0518278 -0.07569092 0.096557565 -0.112823024 -0.15663153 0.012724696 0.055463012 -0.121976174 0.06209094 -0.0042890618 0.01989986 -0.0007956097 0.014510223 -0.059689846 -0.020339482 -0.051943317 -0.0672455 0.10296967 -0.044090014 -0.038777478 0.021044629 -0.092280775 0.086527236 0.07524414 0.10268466 0.014487111 -0.07873355 0.07993684 0.048068184 0.08177029 -0.10701924 -0.08157287 -0.133064 -0.09822168 0.08892044 -0.15953654 0.026849635 -0.02598628 0.09353125 0.104088575 0.031058272 -0.051606342 0.07542736 0.0631455 -0.09145171 -0.1110133 0.017539404 -0.044869196 -0.101481535 0.007950336 0.09614 -0.12480922 0.062026914 -0.06171233 -0.049380947 0.10967724 0.09334632 -0.056706645 -0.010727957 -0.04277933 -0.13010901 -0.091379195 0.04945833 -0.11011333 -0.11907612 0.09926202 0.0018341902 0.014028008 -0.046652727 0.0601407 -0.12695852 -0.12105122 -0.05733662 -0.03999832 0.08093984 0.049398325 -0.090577364 0.051249187 -0.11226273 0.018187732 -0.025476065 0.002947256 0.15649962 -0.13272104 -0.046042252 0.11489376 0.098171055 0.100612715 0.02885366 -0.19111638 0.003170481 -0.10659667 -0.08446723 -0.007172495 -0.011117697 0.07469413 -0.16136421 0.07099642 0.052516878 -0.10952011 -0.025044143 -0.084017895 0.037299722 0.034849122 -0.01261458 0.10537939 -0.06825806 -0.014337778 -0.042322744 -0.12615085 -0.024379201 -0.081591494 -0.019247921 0.000858669 -0.115681134 0.1499324 0.020640137 0.12195521 0.06873196 -0.04382101 -0.035666425 -0.015456259 -0.056115966 0.028074777 -0.004330305 -0.055810355 0.060971107 0.1353786 0.010860006 0.12988655 -0.07696444 -0.08692092 -0.14940499 -0.15626368 0.07062951 0.087247916 0.11093256 0.041963793 -0.027137559 -0.012080009 -0.01738113 0.09698345 -0.013005584 -0.05084128 -0.10027116 0.042868346 0.018001003 -0.08579674 0.04926131 0.012767588 -0.09627823 0.11769325 -0.047511946 0.110075355 -0.035770062 -0.111815065 -0.026841585 -0.0004233144 -0.08775091 0.09403487 -0.11667297 -0.07443636 -0.016142515 -0.09961878 -0.10225435 -0.11180845 0.09104243 -0.070374005 0.010727748 0.08591786 -0.084294215 0.102623016 -0.04685812 0.17916793 -0.013809626 0.144065 -0.19080397 0.029056013 -0.07759548 0.065345354 0.0667956 -0.09401452 0.10120519 -0.12958911 0.2846468 -0.08236461 0.12763157 0.034360252 -0.083656795 -0.19290605 0.07755182 -0.06875327 0.25980702 0.18929575 -0.083422035 -0.21310797 -0.21518573 -0.13230906 -0.022378838 0.057472747 -0.21687311 -0.17493683 -0.07262537 -0.082706735 0.112897955 0.009581437 -0.0075608063 0.051424805 0.17354149 0.0737397 0.100886576 0.11848438 -0.1780118 0.15054668 0.09693811 0.03832414 0.024070082 0.114212394 -0.11229865 -0.13743246 -0.07099164 0.10719582 0.06035644 -0.03309779 -0.04987337 0.016839866 -0.015926264 0.104078524 0.09340037 0.07169564 -0.047402125 -0.08937523 -0.090012476 0.20675457 -0.037511263 -0.13454099 -0.12932044 -0.06266636 -0.0012019842 -0.058885377 0.027201504 0.085101515 -0.10340456 0.10365923 0.03512728 0.102492586 0.13250189 -0.014596739 -0.066562496 -0.102001935 -0.09758264 0.017773146 0.27360082 0.2090234 0.08725419 -0.19946876 0.044749852 -0.026643498 -0.0746887 0.028909102 -0.17089592 -0.12017549 -0.060174588 0.024102703 -0.09867594 -0.06191862 -0.020043055 -0.020316634 0.101740696 -0.0020546617 0.10934295 -0.030457782 -0.034170803 0.100539155 0.036791198 0.09972008 -0.10550997 0.06331602 -0.17425086 -0.0375791 -0.091925405 0.0458462 -0.029754609 0.04359959 0.05172773 0.04251729 0.09167179 0.08486565 0.09674271 0.1183022 0.022964315 0.024603957 -0.049520444 0.19754985 -0.0049618497 -0.03738702 0.092978545 -0.052947156 -0.08306217 -0.121799685 -0.0067360117 0.12560046 -0.033711683 -0.021761626 0.0004925005 0.018899035 0.08409786 -0.06368964 -0.14530396 -0.056914568 -0.11988875 0.010939302 -0.03589393 0.13036549 0.018702323 0.08795185 0.009903706 -0.03135038 -0.07275319 0.032508545 -0.034042016 -0.021146985 -0.036593348 -0.11145382 -0.024369692 -0.072902076 0.080752164 -0.12383288 0.10564677 0.10592422 -0.025893325 0.02953924 0.027535746 -0.08806918 0.09846193 0.07930276 0.017600223 0.065821484 0.1623017 -0.006465078 0.04478476 0.080573335 -0.020541709 -0.09288648 -0.09324583 -1.5199756e-05 -0.10518708 0.07629673 -0.03380212 0.07983845 -0.09426092 -0.05149613 0.097171485 -0.051322322 0.11946694 0.0759813 0.08378921 -0.053001024 0.06828843 -0.1088476 -0.09518459 -0.034690067 -0.05755811 0.09340542 -0.08795862 -0.07008962 0.007769788 -0.1264134 -0.12661637 0.078607135 -0.015956597 -0.12031847 -0.122715764 0.11108514 -0.055123758 0.07695498 -0.0697718 -0.114224486 -0.049508978 0.06663798 -0.07945195 0.06676109 -0.0028940013 0.10315342 0.022438407 0.017865017 -0.013641823 -0.077955976 -0.109560356 0.077364355 0.08486311 0.06502888 0.11141915 -0.04617762 0.07747567 -0.07583541 0.0581757 0.047560632 -0.1058548 0.027197814 -0.0067288135 0.09096948 0.05871642 0.013197243 0.12441204 -0.05939055 0.040089108 -0.10941814 -0.01101576 -0.005846212 0.08232851 -0.104930155 -0.05557902 -0.10944532 -0.08394302 0.08574969 -0.051204924 -0.115866184 0.13078798 0.15165778 0.02110007 -0.045426954 0.023111789 0.009178013 -0.12786488 0.071741395 0.06594785 0.105782256 -0.07398966 0.19623591 0.10203593 -0.07184686 -0.18205737 0.025368536 -0.10629234 0.045092467 -0.062197685 0.08910155 -0.08398145 -0.07085025 -0.14393865 0.096258044 0.12940039 -0.0790214 0.026280636 0.039417528 0.023360329 -0.010959599 -0.08045813 -0.023730436 0.023831166 0.041402064 -0.00736239 0.06506237 -0.089970104 0.013278853 -0.07078723 -0.105995335 -0.016014071 0.05096186 -0.10283267 0.019688927 0.037010923 0.0714308 -0.07576843 -0.12699461 0.11725091 0.124561325 -0.19773924 0.19046943 -0.03134893 0.025669008 0.12477705 0.00036999618 -0.05128982 -0.040267132 -0.063333794 0.10737772 -0.057594165 0.0986457 -0.022680394 0.07168361 0.020124752 -0.0883588 0.034572948 -0.089871064 0.09752119 -0.07938756 0.028581288 0.010249549 0.08310709 0.06767699 -0.07612306 -0.12037883 4.1698808e-05 0.07707333 -0.038274705 0.041532286 -0.034246277 0.022189144 0.042702876 0.097352915 0.013993438 0.0011360535 0.011465142 0.08606786 0.11273589 -0.05644584 0.042627215 0.07227216 -0.10552163 -0.12896179 0.011708874 -0.0524883 0.0009804588 0.00010235393 0.001987121 -0.0867512 -0.106938764 -0.03462274 0.07785508 0.075353384 0.07095147 0.042829603 -0.088216595 0.061704278 0.083228715 0.05909056 0.013647534 -0.13032548 0.009856965 -0.091280766 0.072011426 0.04975125 -0.056975253 0.056926858 -0.09889114 -0.11868585 -0.040381104 0.061273325 0.047350794 -0.033011135 -0.019430336 0.051209934 -0.045185935 0.043001134 0.11598884 -0.07664354 -0.119339526 0.11941106 0.17213306 0.112340905 -0.117777064 -0.054748897 -0.043625236 -0.1022192 -0.10304682 0.07948139 -0.019340103 -0.023992967 -0.05463275 -0.094334684 0.074136995 0.028268242 -0.02401848 0.10435577 0.037817407 0.036274612 0.14399157 0.083544664 -0.014650829 0.045445617 0.10268123 0.061075352 -0.12246005 0.06641344 -0.03309287 0.059884645 -0.04652441 0.14825085 0.024790784 -0.053966623 0.08303451 -0.09346736 -0.13434488 0.03933722 0.13541123 -0.0066202013 0.079867825 -0.0007572384 0.048253834 -0.06445713 0.07631305 0.004168339 -0.100519724 -0.05527982 -0.03107662 -0.08554096 -0.05801606 0.06381139 0.0986 0.0047821584 -0.11672654 0.06387912 0.1676421 0.06201827 -0.02439523 -0.05778855 0.06903213 -0.121542744 -0.16165647 0.0013244253 0.08653584 0.033654753 -0.0039826077 -0.20528904 -0.18139602 -0.1469752 -0.087263696 -0.068537325 -0.18197194 0.008360342 -0.12435416 -0.11834589 -0.03928404 0.026939552 0.08141665 0.00025291694 0.13398555 -0.040364053 0.057648994 0.0763241 -0.002746336 0.10076081 0.0042219455 -0.009027101 0.049148794 0.1156937 0.009118555 -0.06364572 -0.04837512 -0.09050367 -0.046494756 -0.12417641 -0.07748822 0.06403964 0.10693951 0.027255557 0.008651577 -0.012827389 -0.11425611 0.10423714 -0.01893213 -0.038012315 -0.08738148 -0.08769447 0.008939207 0.017804442 0.015450124 0.1142481 -0.096166186 -0.11298505 -0.120170474 0.026156208 0.10614449 0.12837304 0.013434714 0.006230507 0.068632215 0.076753326 -0.09602958 -0.038937997 -0.12532057 0.12660325 0.08425748 -0.03753805 -0.023857642 0.017913118 0.113679916 0.07455764 -0.09758801 -0.017267607 0.05654719 0.11325196 -0.039385866 0.06768043 0.009035648 -0.052816294 0.045904 0.016641738 -0.06677613 0.009680894 0.014392818 -0.019019675 0.037510164 -0.06318474 -0.049209263 -0.03374696 0.050043784 -0.005209514 -0.12191162 -0.027857631 0.0093971295 -0.07514724 -0.019989338 0.029009318 0.10400257 0.077231735 -0.060012233 -0.086132675 0.05920455 0.011436388 -0.049010787 0.06618012 -0.11495511 0.08011019 0.015647508 0.11442427 -0.031768754 -0.08448892 0.115224704 -0.027259676 -0.13031815 -0.04882558 0.07704159 -0.09850131 0.029159762 -0.12459329 -0.050144013 -0.061816923 -0.05635258 -0.06595465 -0.10923435 0.023220412 0.051421218 0.0125732785 0.029724497 -0.09808316 0.05301303 0.033401255 0.09434146 0.06615714 0.12208132 0.051933415 -0.11398956 0.077714786 -0.018604262 0.0040438753 0.053204093 -0.0027842745 -0.039592057 0.03671299 0.048761133 0.048143066 -0.053070076 -0.0962368 -0.108130194 -0.10177571 -0.04159649 -0.07233682 0.09943175 -0.052070137 -0.05499306 -0.08405648 -0.077423766 0.07428695 0.10774163 0.09552346 -0.10251156 -0.052480925 -0.11152825 0.06706734 0.09800868 -0.116534576 0.08110984 -0.06643478 -0.2185253 0.040271323 -0.16021514 -0.090464346 0.09349267 -0.11092261 -0.09585904 -0.053927433 0.13761196 0.060683217 0.08301128 -0.076651596 -0.088909425 -0.015525887 0.020365678 0.09136382 0.11320532 0.0076378775 0.007657827 -0.1590028 -0.03878786 0.029843861 0.0007145363 0.09377186 0.04148019 0.12202034 0.046884928 -0.16666397 -0.049154706 -0.022685213 0.09496099 0.007060772 0.022304047 0.009844065 -0.06708956 -0.12265656 -0.02925037 -0.048327845 0.030472336 0.046905845 -0.13528138 0.03705404 0.01267791 -0.017588964 0.047410082 -0.074600175 -0.0673069 -0.07441462 0.0877552 0.056879222 -0.009867011 0.0500292 -0.110152856 0.07080041 -0.10005701 -0.025484541 -0.14966027 0.011787151 -0.099198624 -0.12342144 -0.0760188 0.09346048 0.08203315 -0.05754536 0.015013276 0.09246806 0.10786129 0.05272651 0.056559157 0.12627609 0.057028674 -0.0780227 0.09843784 0.043328933 0.062817045 -0.10247384 0.040874198 0.037620798 -0.021629153 -0.02271365 -0.09794542 0.10896845 -0.10955764 -0.004943639 -0.15482947 0.06312018 0.009560434 -0.04111517 0.09961943 -0.041713137 0.06495209 0.064529635 -0.08817048 -0.09655901 0.10543837 -0.11225202 -0.0006328546 -0.07894037 0.008206426 0.074394055 -0.02877274 -0.083623946 -0.13404791 -0.125932 -0.017529838 0.029865427 0.05014986 0.12564458 -0.009524252 -0.0058058794 0.0972624 -0.015508766 0.011589599 0.060176756 -0.061685324 -0.07947733 0.03555653 0.057951625 0.07743502 -0.10408406 0.12555048 0.018976599 -0.08746274 -0.04742645 0.031983685 0.077155724 0.09802141 0.0023386925 -0.087121256 -0.05938467 -0.05573307 0.03904725 -0.06098583 0.12794706 0.012271857 -0.027389385 -0.11699886 0.07308589 0.055626296 -0.024825366 -0.031869166 0.034367207 -0.040712506 0.030518606 -0.021674404 0.08141553 -0.062331706 -0.085856155 0.044828743 -0.07283586 -0.08974202 0.10052001 0.03558301 0.038508292 -0.04956504 -0.039515927 0.06721188 -0.06519286 0.025078917 -0.1244915 0.09393886 -0.12351887 -0.12360039 -0.057042755 0.1042357 -0.09187094 -0.01368128 0.12009075 0.07941103 -0.05636152 -0.04206309 0.011710474 -0.12158421 -0.12673508 0.08107877 0.10356286 -0.01944522 -0.10814267 0.07408696 0.06744348 0.0463989 0.035007738 0.057967354 -0.09390541 0.18498251 -0.0098623475 0.00540745 -0.017431954 0.031130677 -0.0713219 0.08783526 -0.08873425 -0.16918495 -0.12257853 0.071493566 0.09795104 -0.11132202 0.12531222 -0.12094808 0.10627022 0.012535843 -0.07514487 -0.09826644 0.06329915 0.11550631 0.054564442 -0.13906793 -0.028126031 0.09879731 0.08246197 0.03437697 -0.10017228 -0.14958014 -0.021502461 0.04931268 0.13120846 0.03330872 -0.07140823 0.04375309 -0.14458622 0.14191832 -0.12099913 -0.0005463122 -0.08398399 0.00060716 0.0572718 0.10173688 -0.12550475 0.034416273 -0.11166071 0.018022554 0.040062316 0.076216556 -0.11183339 -0.051324066 0.054028183 0.08453086 -0.108237155 0.16313218 -0.08282281 -0.07593408 0.063609436 0.06995189 -0.11479449 -0.11493061 0.063341185 -0.032651957 0.06675195 -0.002438774 0.007720435 0.097886786 0.08355566 0.039720595 -0.06134893 0.015476359 -0.00067963393 -0.0442443 0.037459567 0.021794558 -0.03661565 -0.04896487 -0.015637701 -0.13677543 -0.08754327 -0.07272106 -0.1438851 -0.06383798 0.05814347 0.097930916 0.04601488 0.0010056433 -0.050360255 0.038865604 -0.01672804 -0.121975996 -0.016134469 0.09196451 0.07378035 0.03356019 -0.0500933 0.08796362 0.11314657 0.031612914 0.063941605 0.006138984 0.067125976 -0.034251258 -0.06478392 0.04194499 0.068450816 -0.12672526 -0.03582353 0.036188714 -0.028592272 0.12627488 -0.008733412 -0.11411995 0.11292681 0.106514625 -0.049594376 0.040935658 0.12627774 -0.0010742197 -0.03230988 0.15369944 0.10617111 0.006846528 -0.07088024 -0.098905854 -0.07464432 -0.112106614 -0.10335935 -0.025317224 -0.033040572 0.053422034 -0.034341414 0.028080363 0.13803504 0.035355516 0.0034645987 0.07478474 0.11453426 -0.117225975 0.11676763 0.17797312 0.08709084 0.055485465 -0.037600715 -0.12460193 -0.023595849 0.11170687 -0.0826308 0.03525685 0.021169031 0.0018039098 -0.016059248 -0.06475065 -0.1409316 -0.06970172 -0.0008003162 0.053305104 0.031852055 0.16633265 0.051094323 -0.1175837 -0.09995843 -0.07312207 -0.099301964 0.052614678 -0.021220652 0.11623423 -0.014433306 0.1338719 -0.08990619 0.12804703 -0.059428908 0.11755612 0.0028462869 -0.023315312 3.6380214e-05 -0.10991783 0.056689158 -0.056995444 -0.035807952 0.021765389 -0.042961877 0.07671559 0.12184844 0.025304146 -0.029150408 -0.078930594 0.11575145 -0.029900877 -0.10243375 0.08125851 -0.08902215 0.026286084 -0.04873202 0.07198951 -0.093120486 -0.06919197 -0.16455688 -0.029498091 -0.107720174 0.043189544 0.09678379 0.10318149 0.08898196 -0.08760207 0.018784141 -0.00762841 -0.0730887 -0.007258398 -0.037613347 -0.098786704 0.01485178 -0.04866048 -0.010671245 -0.0010568465 -0.04311949 0.019253615 0.07302513 0.1146115 -0.12125331 0.100506 0.054663256 0.1014505 0.10410784 0.12276741 0.029564328 0.04331368 -0.06855568 -0.076033786 -0.11451688 -0.051596746 0.11587788 -0.10235341 -0.111923724 0.05318634 0.07707987 0.07337762 -0.08855699 0.02668086 -0.043143164 -0.14542685 0.06648693 -0.060742695 -0.08050976 -0.05754925 -0.08524703 0.012903049 0.081521645 0.027498836 -0.010236832 0.060388733 -0.097697444 -0.12695213 -0.02346011 0.11834015 0.006247664 -0.04733853 0.0149613805 -0.02893087 -0.014242372 -0.09685327 0.06892264 -0.1290375 0.07608336 -0.06586513 -0.07141566 -0.0010652544 -0.12913571 -0.054241072 0.034112487 -0.13609532 0.12043097 0.028275302 0.13665219 -0.02935751 -0.071995616 -0.08252139 0.006700699 -0.011847385 0.09709093 -0.11945941 0.04486429 0.008860595 0.046900243 -0.09368049 -0.10984162 -0.12313511 0.043226898 -0.094507776 -0.10496814 -0.07804954 0.021414695 -0.03479165 0.04120724 -0.067078285 -0.11957644 -0.116184115 0.06073757 0.08284395 0.057539206 -0.04771519 -0.036386278 -0.10568773 -0.014089186 -0.12566696 -0.089539036 -0.10926663 -0.057559345 -0.047823403 -0.03819938 0.19613044 -0.00011248362 0.06629691 -0.084073104 -0.0059869774 0.06233761 -0.10298151 0.1513308 0.16711147 -0.060738403 -0.080813505 0.0061853174 0.16984285 0.10698328 0.083267964 -0.0613069 -0.057760864 -0.14037806 0.017713342 0.027765803 0.0036158413 0.0756822 0.09193185 -0.11943118 0.118346676 0.06929389 0.15173382 0.11694135 -0.020397803 0.108244546 0.08256528 0.040247202 -0.0046490477 0.0058095455 -0.04714727 0.059858635 -0.05866029 0.06251358 0.051388275 0.14530855 0.090954304 -0.008276027 0.12166409 0.09787798 -0.04640652 -0.016107908 -0.12863354 0.06162921 0.12035116 -0.05029525 0.030390274 -0.025354665 0.03830739 0.06720583 -0.14668551 0.035062358 -0.035944622 -0.025391115 -0.019882526 0.07627722 0.08042465 -0.057381462 0.002815767 -0.10276058 0.009438978 0.0829126 -0.016905751 0.024026887 0.08046358 0.11864914 -0.069330655 0.08124243 -0.025442796 -0.12329492 0.015278149 0.05031535 -0.1286962 -0.12255263 -0.11611442 -0.028961124 -0.10947343 -0.05971325 -0.13595372 0.040949978 0.04291473 -0.08748722 0.057994407 0.03391737 -0.149004 0.12889662 0.10243913 0.021617532 -0.007632477 -0.12396531 -0.012706995 0.11839703 -0.10412004 -0.045971274 -0.0048304284 -0.1074611 0.07050882 0.10578279 0.1087906 -0.04004321 -0.15412316 -0.015914463 -0.124427155 0.019308398 0.065684736 0.02253397 0.14145388 0.12552194 -0.101128794 -0.14416543 0.06032796 -0.10277158 0.024739046 -0.11516407 -0.037455276 -0.1985064 0.024043685 -0.012830953 0.22291094 0.12541546 0.06270065 -0.10793862 -0.08846757 -0.15356658 -0.06410293 -0.041699253 0.047572877 0.04950363 -0.16155672 -0.0750964 0.0654246 -0.12800448 0.064161584 0.06127135 -0.0016390041 -0.05180339 0.049020514 0.11054639 0.04871843 0.17081681 0.008521074 0.16499543 -0.08965227 -0.051507093 -0.034024235 -0.11038748 -0.07655684 -0.103524804 0.11311792 0.0415525 -0.031376462 -0.014960896 -0.09353691 -0.07594246 0.0017724584 0.096249096 0.0005828065 0.0059604626 0.025556166 0.04443326 -0.06625624 -0.0197702 -0.084911466 -0.029432235 -0.0072794748 -0.01782674 0.028380595 0.045286298 -0.030493096 0.054082677 0.023712205 0.050317355 0.14035979 -0.06680379 -0.098169304 -0.10070692 -0.045556717 -0.096731804 0.1336821 0.16327412 0.028914021 -0.06639538 0.0071387095 -0.1282172 -0.014636552 0.014110522 0.11805616 0.08774071 0.0152846305 0.09073526 -0.1155985 0.01594367 -0.0063705402 -0.08160583 -0.15235947 0.14984564 -0.0394946 -0.11069534 -0.14179263 0.0012053074 0.0781351 0.03326343 0.059616856 -0.015879693 0.066107236 -0.05181826 0.105262436 0.048671506 -0.047536775 0.045857772 -0.028054534 -0.08572861 -0.06799836 0.10425888 0.11802536 -0.12490019 0.11399228 -0.09787614 0.08919228 -0.00024232827 0.018836513 -0.035096306 -0.038093023 0.11646473 -0.05104176 -0.046961173 -0.13959788 0.08395663 0.1163369 -0.00206204 -0.12795144 0.09519145 -0.05880084 0.18666418 -0.040667493 0.044715405 0.108343214 -0.03140493 0.011851993 0.04004064 -0.032364875 -0.05060715 0.07697516 0.10958908 0.033483624 -0.047022436 -0.14144213 -0.048384 0.09709003 -0.1507834 -0.1294945 0.0026043884 -0.038562495 0.08141692 -0.12748101 -0.18673623 0.040801164 -0.1238018 -0.021957833 0.06761692 -0.12127554 -0.0012799416 -0.04332797 0.12348781 0.023300517 -0.06129871 -0.013245942 -0.06447956 0.13415504 -0.066465355 0.15198714 0.08623933 -0.10859348 0.12229887 -0.0118098585 0.079126626 -0.060858943 0.022485256 0.013551096 -0.053736202 -0.047956686 0.03752287 -0.14839141 0.09848784 -0.022624224 -0.070536606 -0.06462838 -0.11084299 -0.028894415 -0.0009375625 0.20617601 -0.13564995 -0.065660484 -0.09627166 0.081076376 -0.21587944 -0.023771144 0.03510037 0.18205751 0.12951934 -0.0070443666 0.03206228 -0.07907925 0.071010165 0.0744121 -0.06682829 -0.079622485 0.039197616 -0.051498093 -0.023653638 -0.074199826 0.046620548 -0.12514214 0.03668854 -0.1214575 0.04364661 -0.02490981 -0.048790567 -0.08647261 0.06957375 -0.08800713 0.14848931 -0.16864751 0.08377569 -0.14220285 -0.08982089 -0.046406183 -0.07697778 0.07555364 0.1236708 -0.052764095 -0.025229344 0.013838811 0.15372473 0.14406389 0.013846838 0.03206046 0.123247646 -0.046950404 0.14293976 -0.07605586 -0.03187732 -0.13842967 -0.01671125 0.08478479 0.10177623 -0.054905184 -0.062355384 -0.010894386 0.078829765 0.0061856336 -0.049206004 -0.06656911 0.07759326 -0.107179396 -0.09844474 -0.04250881 0.12014446 0.06776286 0.07953844 -0.100845635 0.03833928 -0.0058254367 0.041813117 0.0728784 -0.10263507 -0.115461305 0.011631497 -0.13012347 0.08961762 -0.09446688 -0.07388355 -0.0121945245 0.06745965 0.07623004 -0.01004494 0.105973154 0.053825047 0.10735962 -0.05484705 -0.042422716 -0.04438417 -0.04100578 -0.11392463 0.027977215 0.029653005 0.06850502 -0.081426546 0.11656453 -0.0003296733 -0.030269438 -0.11421953 -0.06444734 0.04054066 0.006247676 -0.0892501 0.11974524 0.054043327 0.05171307 -0.12244553 -0.06304442 0.008687328 -0.25092685 0.059499245 -0.07836589 0.103318304 0.12260634 0.02497744 0.06000765 -0.015722753 0.2560339 -0.042101208 -0.048840966 -0.09383756 -0.1345857 -0.23806655 0.011799107 0.09334657 0.2670784 0.24544401 0.10060899 -0.0049889763 -0.14937367 -0.109538734 0.09457772 -0.106400624 -0.00026606096 0.034824025 -0.0712896 -0.1167974 0.06705531 0.028710626 -0.06578106 -0.020787317 -0.10241773 0.091750205 0.019493366 0.098767884 -0.19099197 -0.051874343 0.073246546 0.013223739 0.012883625 0.09497594 0.09790996 -0.046739172 -0.21425924 -0.10646578 -0.130615 -0.007732123 -0.09336315 0.1048832 -0.1354589 0.0045956247 0.15000364 -0.07987022 0.096593276 0.02764887 0.1207059 0.0874628 0.12417289 -0.24986993 -0.08098298 0.057735838 -0.05449192 0.033864953 -0.08014999 0.025618551 -0.002838281 -0.07329561 9.364672e-05 0.10335859 -0.092253454 0.019896325 0.050504908 0.0966723 -0.10090401 0.058533408 0.10879083 0.08895742 -0.114354275 -0.05280253 -0.010040861 -0.021337887 0.0073560416 0.008383559 0.09012363 -0.099370785 -0.077452905 0.003213524 -0.12283332 0.12572284 0.091645 -0.07087076 0.08737782 -0.0531103 -0.007868112 -0.11541123 -0.015081285 0.041149724 -0.05371474 0.076826364 0.0042417543 0.07223065 0.15005083 -0.092215635 -0.08406821 0.09651416 -0.02295701 -0.09260611 0.023335667 -0.08862348 0.12635897 0.066660196 0.07558085 0.034296405 -0.08270177 -0.098603286 -0.04381143 0.038345154 0.12865493 -0.115265094 0.11680249 -0.029336013 0.012636966 0.03885402 0.0036037045 -0.008228076 0.12027084 -0.071591854 0.10027733 -0.046367697 -0.034852423 -0.031317905 -0.09468802 -0.12223708 -0.10660669 -0.0002910743 -0.02067848 0.12145644 -0.07475257 -0.06215406 -0.01566425 0.04450266 -0.10633597 -0.08244238 0.009692706 -0.06905707 -0.12313519 0.10668545 -0.08684883 0.08279715 -0.036821447 0.09009289 -0.033573993 -0.06406411 0.033346206 -0.071035944 -0.056171406 0.04516004 0.00877019 -0.009908881 -0.10592989 0.10806379 -0.048295468 0.093957275 0.04583429 -0.050137386 -0.11828374 -0.040665805 -0.06858997 0.033412278 -0.04441858 -0.110834874 0.12605694 -0.08161938 0.021346048 -0.06935163 0.054419708 -0.05821873 -0.10685527 0.107474916 0.066008985 0.0075428667 -0.11488125 -0.0038099026 -0.10263358 0.024043608 -0.03735369 -0.06655293 0.09488555 0.08570479 -0.028142639 -0.065450534 -0.15868136 -0.10723434 -0.100998834 0.088298306 -0.035012897 0.14723508 0.12155948 -0.00149085 0.008783976 0.11243576 0.051892497 0.058494654 0.057711728 0.007147887 0.040616117 0.08170677 0.069637075 -0.11771978 0.083084285 -0.08635874 -0.12207017 0.04286794 0.016752342 0.09486178 0.054488733 0.06725951 0.025540054 0.06745676 -0.07638049 -0.105928704 0.06332655 -0.047780123 0.014407503 -0.0018138227 0.054558124 -0.089507386 -0.052240442 -0.06281941 -0.10483556 0.017345395 0.13002397 -0.10189033 -0.06352526 0.11710048 0.08038553 -0.095973685 -0.007864308 0.034759678 -0.113033496 0.045636117 0.030874144 -0.021087874 -0.07320157 -0.052922748 -0.000536263 0.088126235 -0.01851506 -0.10567702 -0.07456784 0.009098736 0.029649096 -0.008457005 0.01998107 0.085033834 -0.03578352 -0.09475012 0.10696385 0.0129823685 -0.10870883 0.018203251 0.008891984 -0.10889775 0.017193632 0.057316646 -0.12071972 0.053990707 -0.074059695 -0.016938962 0.12826683 -0.083180726 0.034791503 -0.10234006 -0.090320736 0.0720136 0.037080053 -0.11337331 0.04433228 -0.10579606 0.116699025 0.12598065 0.07793175 -0.0011080696 -0.12210853 0.06190175 -0.07149204 -0.030391678 -0.08356186 0.0015241057 0.0593178 0.11870629 0.011146863 -0.00972055 0.08560808 0.12843208 -0.048435394 -0.121927105 -0.096267715 0.029995963 -0.0967848 0.019770354 0.06441273 0.04794754 0.012573981 -0.11130063 0.12987763 0.043022346 -0.15651554 0.06566888 0.05023799 -0.02963659 0.028313886 -0.0021443167 0.13437866 0.104410544 -0.14870995 -0.015153709 -0.05455823 -0.0045674588 -0.02325318 0.13278465 0.14398655 -0.113842964 -0.029088994 0.095564194 0.26220325 -0.05011856 0.001668277 0.12758367 -0.091202125 -0.107606895 -0.13240573 -0.16127007 0.028996099 -0.12360299 -0.0796078 -0.009817127 0.116778806 0.03070438 0.036155604 0.06520472 -0.1122171 0.024792826 -0.023745844 0.018092837 0.068234146 0.026579931 -0.01753986 0.051156014 0.06378738 0.063451216 -0.10570151 -0.0047173854 -0.04483719 -0.052357018 0.054956604 -0.06602429 -0.052824933 0.08788078 0.01892278 0.10919462 0.04235451 -0.069741525 -0.10786711 -0.07797176 -0.07618319 0.07022158 -0.015099531 -0.08130094 -0.12509243 -0.006302504 -0.047281735 -0.07314174 0.0832593 0.030122327 -0.033821747 0.03380428 0.019896194 -0.01161907 -0.020570444 0.08002155 -0.10540794 0.054466825 -0.10898829 -0.10181956 -0.039528724 -0.039658897 -0.087257326 -0.08637893 0.052604217 0.033104062 0.07278451 -0.0707335 -0.11370706 -0.01589882 0.04300843 -0.0066089616 -0.06765664 -0.05425916 0.051962703 -0.031506136 0.10780751 -0.02198944 -0.11611904 -0.08894582 0.070304796 0.11342695 -0.067988805 0.04603015 -0.032634024 -0.028247345 0.042878322 -0.077114835 -0.06289904 -0.042417765 -0.09718308 -0.06807934 -0.08396312 0.11681927 -0.105701834 0.11575545 0.12975548 -0.099069245 -0.0790338 0.04020953 0.050652463 0.10985327 -0.1279585 -0.08652869 0.00037362604 -0.02097498 -0.06688614 -0.071712814 0.08150244 0.012285793 0.06344974 -0.06885887 -0.075636126 0.026974836 -0.12262184 0.15086545 -0.07576981 -0.08720917 -0.044061434 0.14984755 0.0682509 0.03901142 0.006925618 0.106157705 0.03254739 0.07722801 0.005749961 -0.08845097 0.14664398 -0.04674762 0.01099191 -0.048293952 -0.038087472 -0.1115045 -0.007484261 0.061208736 -0.08679027 -0.11017778 -0.00867907 -0.007858984 -0.07724452 -0.0038889647 0.1742154 0.103303336 -0.018027755 0.13518392 -0.026359916 -0.0963947 0.024158126 0.07424806 -0.053722892 -0.13076709 -0.03609195 0.19756061 0.19386855 -0.07703863 0.096306294 -0.09709309 -0.04625413 0.08775273 -0.09922705 0.011259545 -0.20111579 0.16582292 -0.09567078 0.17161684 -0.07050113 0.292995 0.17697549 -0.09869961 -0.2379657 -0.21677262 -0.13703325 0.010947279 0.014713957 0.2792549 0.09498271 0.08473638 -0.08216701 0.23128791 0.09236433 0.024174128 0.06576747 0.21009149 0.1793023 -0.054633584 -0.060040906 -0.014769155 0.098330915 -0.03137827 0.18380472 -0.01338955 -0.17960106 -0.07864021 0.05674776 0.0092086345 -0.11770623 0.06399333 0.020682948 0.011974214 0.072345346 0.07791957 0.11632523 -0.11379091 -0.038510717 0.08987763 -0.18275777 0.18776682 0.0587476 -0.10626274 0.18346384 0.06584968 -0.20173073 0.25144798 -0.1241195 0.03975064 -0.004475894 -0.1322385 0.00702434 -0.089856125 -0.07794544 0.063291706 0.050389454 -0.13598977 -0.009667944 -0.08435261 0.06949429 -0.14169301 0.06272416 -0.07374722 0.14406036 -0.042685613 -0.0808126 0.10078316 -0.09745495 0.073322 -0.06412421 -0.05868045 -0.10538198 -0.08783656 0.10170918 -0.12160368 0.035897538 0.0517156 -0.13197544 0.07509981 -0.06791907 0.044202432 0.1214316 -0.089979135 0.05783062 0.0075402237 -0.0110923005 0.010500832 0.07831984 0.11904602 0.052605443 -0.01074827 -0.09576548 0.10748561 -0.023405386 -0.029024921 -0.0063718604 0.07802715 0.119695574 -0.124873005 0.04498908 -0.10245496 -0.08749738 -0.02508001 0.022774355 -0.012191523 -0.0380045 -0.0883347 -0.013274666 0.032869987 -0.087421805 0.12156473 0.1419218 0.06862887 -0.017675756 -0.022786288 0.094573155 0.08144855 -0.10921943 0.04976528 -0.10990717 -0.231138 -0.024383998 -0.051047355 0.16958152 0.22291248 0.013938031 -0.016821664 -0.0284609 -0.05318318 0.14406472 0.1144572 0.15183942 0.039405275 -0.15814449 0.04516705 0.026577175 -0.17131212 0.0063782358 -0.11157351 0.092952944 0.067842856 0.06436757 0.00439764 -0.17433634 -0.04252637 -0.123863004 -0.058169447 0.014963892 0.028762793 0.056281976 0.057995547 -0.056367032 -0.074161574 0.0020114938 0.013611063 0.01379849 -0.1036202 -0.1266207 -0.054404065 0.13012955 0.04589526 0.119450964 -0.033703938 -0.055387378 -0.03187709 0.21079616 -0.15547767 0.145391 -0.040348046 0.12901445 0.07065853 -0.036588714 0.019005904 -0.08267644 -0.10144443 -0.060061313 -0.042368878 -0.16409065 -0.0120956125 0.019336961 0.16238624 0.06046601 -0.00082138856 -0.21734993 -0.18846641 -0.15138125 0.039597522 0.043720786 0.025088266 0.008257418 0.12364863 -0.15189959 0.0802919 0.18025805 -0.05685437 0.088535644 0.0018924514 0.060154997 -0.10091028 0.05473529 -0.15616584 0.1382122 -0.13931914 -0.04452522 0.10323968 0.08097246 -0.023861572 0.019682014 -0.06065669 -0.19844148 0.09310672 0.07103289 -0.020500936 0.10139494 0.093251064 -0.005765972 0.097872645 0.055643134 -0.053473163 -0.09787859 0.09416621 -0.113164 0.023646714 0.11893991 -0.14428747 0.05413198 0.18539807 -0.08358276 0.04797326 0.055073738 0.067951255 0.07181679 -0.061486386 -0.040059954 0.04380742 -0.096628144 -0.0059182565 -0.10810377 -0.12520099 -0.049267653 -0.116233565 -0.023226423 0.07469866 0.017722698 -0.003298028 0.056763858 0.06801727 -0.12619205 0.11006376 0.096042015 0.025654519 -0.072720885 -0.04206791 -0.045658246 -0.054141227 0.07547466 -0.12680985 -0.006167895 0.11402403 0.086337924 -0.09508811 0.059979014 -0.11284408 -0.11014026 0.13775319 -0.015599474 -0.122441486 -0.10581728 0.0012887145 0.0026199182 0.103006 -0.039572194 0.06105408 0.037023067 0.06864026 -0.12324081 -0.06424432 -0.099245235 0.028611675 -0.09248981 -0.07835942 0.02683276 0.050609127 0.053794645 0.10098391 -0.123058066 -0.015211514 0.11117943 0.031216368 0.039612427 0.12208814 0.09772126 -0.11797753 -0.055964235 -0.008630354 -0.05261229 0.11661716 -0.087503694 0.025447989 0.108263396 -0.11834299 -0.07527233 0.1195535 -0.15777263 0.069091976 0.042789392 -0.117543556 0.13495421 -0.005234154 0.007692248 0.12124302 -0.008936249 0.057232454 0.009188156 -0.12446163 0.06511599 0.069623895 -0.034219176 0.0859448 -0.046843097 0.062169686 -0.0047237524 -0.08084344 0.0007764887 0.06578815 -0.071753435 0.016880162 0.09845294 0.073489 0.027901817 -0.1191378 0.07234543 0.09796959 0.11775482 -0.07936199 -0.07680422 -0.0909105 -0.068100244 -0.072833665 -0.033553522 0.08410054 -0.11204934 0.08838685 -0.0004913295 -0.0037812353 0.05151223 0.108971134 
0.10534612 -0.111021735 -0.014004738 0.008235012 -0.13995259 -0.092932686 0.096875824 -0.048952464 0.12175769 0.056461167 0.10758815 -0.031193573 -0.13082694 -0.018590648 -0.056355868 0.014561605 -0.05701061 -0.12254165 -0.067339286 0.12513041 -0.014134887 0.046931054 -0.038174883 -0.07493933 -0.017257754 -0.033799227 -0.050761487 -0.0847761 0.06017142 -0.097337134 -0.018930374 0.056888837 -0.14391239 -0.12737255 0.07720517 0.050897103 -0.056809884 0.056981694 0.06031746 -0.065656126 -0.048691344 0.10087624 0.040389184 -0.022333218 -0.009376965 0.0061446154 0.07792303 -0.12655202 -0.11783232 -0.07547933 -0.06936568 -0.04592952 0.01572461 0.08884606 0.17452887 0.026505468 0.036311243 0.05530943 -0.09808781 -0.036628705 
Rect
Linear 60 60
0.11124332 -0.017295623 0.000561258 -0.05318383 0.010559323 -0.02428695 0.09784302 0.084520616 -0.10087588 0.11214401 -0.13022226 0.059622947 0.114797994 -0.065174386 0.071361564 -0.08562489 -0.13070485 0.11348795 0.0070426688 -0.098660335 0.100845605 0.09916828 0.041576892 -0.04182439 0.034159668 -0.15029636 -0.13624386 -0.12677231 -0.013244309 -0.005488124 0.10777664 -0.13506629 0.007567431 0.019241516 0.086732775 0.06951231 -0.148965 -0.088377945 -0.0028435914 0.106095225 0.04759655 0.09347594 -0.04519657 -0.07707672 0.09397026 0.07522951 0.05726414 -0.05123484 0.10261966 0.10470929 -0.058741137 -0.033528406 0.10099138 0.046102945 0.028216956 0.014129443 -0.13713841 -0.0057854024 -0.0087155625 0.11996123 0.0010805832 0.016804624 0.0439084 -0.10991834 -0.032109007 -0.106681414 -0.1172019 0.048466366 -0.066295795 -0.07733173 -0.12562919 0.12873809 -0.10226441 -0.103009626 -0.093868494 -0.04964294 0.020013172 -0.025706038 -0.09792919 0.07849539 -0.08673498 -0.07725033 0.012527172 -0.050186314 -0.083505295 -0.108644135 0.06411392 0.019689308 -0.1233248 -0.046191722 -0.096811466 0.061223738 0.028654018 0.09494015 0.09843042 -0.0097600175 0.009142201 -0.089160964 -0.10735305 -0.008837029 -0.026415318 0.05718382 0.024570055 -0.0762643 0.01074764 -0.09199278 -0.006190006 0.1206745 -0.034410376 -0.12407829 -0.028443886 -0.0769661 0.09993186 0.060126454 -0.12325808 -0.0009195626 -0.02200469 0.064901866 0.04827757 0.06803767 0.017657876 -0.06766313 0.00901693 -0.025522137 -0.041217916 -0.13898174 0.030863361 0.07379994 -0.011673273 -0.026572082 0.11918953 -0.09210351 -0.08899184 -0.06632941 0.103106596 -0.028156022 0.08317511 0.014061221 -0.1089685 -0.12318484 0.054152545 -0.06275241 0.0015553789 0.046870556 -0.0061371187 0.10186572 0.10462205 -0.011688467 0.082674995 0.09671229 0.014857309 -0.08492481 -0.05603657 0.06382821 0.05945882 -0.06342771 -0.14453357 -0.11845553 -0.015117606 -0.037267208 0.024446098 0.028135449 0.0034001388 0.056965053 0.0037815496 -0.07316892 -0.2037928 -0.0504852 -0.116118 0.0032352665 0.009379189 0.14990737 0.11923906 0.036683634 0.1456081 -0.0002577749 -0.017966151 0.078315854 0.08641529 -0.108754955 -0.1629587 0.1219157 0.08830318 0.0059088566 -0.05783189 -0.1172669 0.044871617 0.038616017 0.05096215 -0.105268024 0.138293 0.027919449 0.01633626 0.061420437 0.10333451 -0.09839601 0.091159806 0.08185888 -0.029927328 -0.05166087 0.037956525 -0.16280402 0.015530556 -0.11829124 0.041557908 0.11701537 -0.076133735 -0.056615677 0.02410909 -0.0535573 0.0702007 -0.01651749 -0.028049134 0.12038102 -0.09012343 -0.008959985 -0.016710693 -0.12549914 0.12685168 0.11533238 0.00013888364 0.07347799 -0.1504759 5.4553893e-05 0.014000582 -0.06472258 -0.100825414 0.124354266 -0.12711634 0.059905488 -0.024366526 -0.05674918 -0.10161991 0.0747747 0.06566428 -0.12900859 -0.17594638 0.004153036 -0.055613454 -0.021954635 0.09943675 0.035308477 -0.031777184 -0.0032802264 -0.005865296 -0.056421157 -0.0021718761 0.09164235 -0.12388968 0.032194223 -0.029141007 0.055839 0.036831457 -0.059264712 -0.030735996 0.08985566 -0.07127843 0.112015635 -0.014867964 0.042358264 0.0897118 0.06838662 0.0721311 -0.10025926 -0.09308078 -0.110816024 0.07315939 0.05127776 -0.11358735 0.104423255 0.12036854 0.12763768 -0.03944727 -0.11467823 -0.11402654 -0.12794217 0.022022517 -0.03485675 0.031099983 -0.063273236 0.09232986 0.0011282191 0.007820427 -0.11615605 0.019694906 0.032082047 -0.000979016 -0.06434858 -0.02982744 0.1279197 0.038814068 0.116266824 0.051848866 -0.064159684 0.11158355 -0.03606428 -0.08385255 -0.060896814 -0.028521845 -0.10999592 -0.023320658 -0.07615307 0.08316481 0.12903143 0.053316798 -0.009759857 0.09936452 -0.12097228 0.02173309 -0.01038385 0.034135703 -0.0074335863 0.09225475 0.019218732 0.0561455 -0.005995569 0.070702225 0.058779255 0.06384418 0.009238721 -0.107145675 -0.04510473 -0.004527545 0.079582855 -0.12767115 -0.06041581 0.062393107 0.05336045 -0.032047745 -0.12404961 0.043174475 -0.04083501 0.055536494 0.12069383 0.029756583 0.053740032 0.11743728 -0.042301998 0.028655931 -0.012251231 0.070312515 0.04157806 -0.008536207 0.035146438 0.0013449677 -0.08299812 0.055472616 -0.1089477 0.1131866 -0.07733677 -0.010480702 -0.067523964 0.04262298 -0.1077878 0.025989566 0.068479724 -0.10681974 -0.05467875 0.10257133 0.0472503 0.040822525 0.017269343 -0.007203921 -0.069651596 -0.04205012 -0.11336078 0.09890069 0.03351176 -0.031405486 -0.09542662 -0.0030738893 0.030496862 0.011139015 0.041544933 -0.06939705 -0.02143397 -0.06570549 0.10300492 0.103462525 -0.048317004 0.0237118 0.03032784 0.10719656 0.09738845 -0.045512583 -0.11608481 0.116077915 0.07350736 -0.120346524 0.02314927 0.08731421 -0.10116961 -0.10354857 -0.030320901 0.034173366 -0.0050315596 0.06269472 -0.12622082 -0.04620141 -0.037764933 0.076717265 -0.11717951 -0.108765975 0.087456085 -0.13442484 -0.041674968 0.05051298 0.02144956 0.0076477677 -0.03882699 0.1189761 0.03047342 -0.02182226 0.08725711 0.04121849 0.027703054 0.026735308 0.052188467 -0.08074343 0.080910444 -0.04029467 0.019082189 0.06891213 0.1239381 0.07623671 -0.11539209 -0.07381457 0.029656276 -0.067514926 0.004361436 -0.10356109 -0.08011433 -0.043715492 0.020926923 -0.10081657 -0.083148494 -0.09760822 -0.083007276 -0.10837434 0.11799121 -0.09408488 0.086226135 -0.024215288 0.03426683 -0.069790445 -0.10259768 -0.11277761 -0.02784086 0.11042409 -0.004698999 0.023759693 0.044492632 0.102965504 0.020885855 -0.019501835 0.05948995 -0.040009968 0.06293514 0.07644303 -0.015875712 -0.031795993 -0.06420037 -0.101088375 0.04879345 0.063151196 -0.027694792 -0.00805448 -0.019433364 -0.0077719092 -0.0237009 -0.11907169 0.028851017 0.08193986 -0.03723515 0.085962534 -0.0863619 -0.096999794 0.05183859 -0.12656136 -0.024124227 0.00039645282 -0.086810574 -0.061622806 0.088531725 -0.060100943 -0.03249587 -0.09235448 -0.05892367 -0.12229781 -0.0953831 0.0485925 0.0014938712 0.057904717 -0.09568407 0.08522613 0.06911929 -0.03333748 -0.04139343 0.10375314 0.03416224 0.021747649 -0.003230424 -0.0106921615 -0.035062768 0.01315406 0.12847762 0.08022626 0.12558477 -0.080134764 -0.08732538 0.0968166 -0.027058395 -0.03567035 -0.041393273 -0.06689366 -0.026506042 0.011408874 0.015975691 -0.037308484 0.08530037 0.0790502 -0.031192722 0.019096956 0.04520246 0.0011573597 -0.07933459 -0.010749141 0.041868746 -0.044779763 -0.06201192 -0.07142588 -0.10143271 -0.059073985 -0.07802874 -0.038112726 0.030372027 0.018436195 0.0021892167 0.103603095 -0.115213394 -0.04445319 0.10503489 0.024147034 0.09860708 -0.0010616034 0.11424793 -0.011592224 0.046398982 -0.042725958 -0.098240726 -0.09774718 0.077594414 -0.039256148 -0.10361324 0.12401603 -0.02063679 0.10065517 0.09396176 0.05547513 -0.026997358 0.11918859 0.10109347 0.03071703 0.076227635 0.009996787 0.06503835 0.013915107 -0.03857608 0.027778909 0.031679034 0.123441175 -0.08630186 0.0506877 -0.0015361309 -0.1210471 0.025302842 -0.10378081 -0.09087185 0.11851145 -0.112251215 -0.12776242 -0.03958746 -0.07919398 0.07507008 -0.06324179 -0.06652825 0.016749129 0.06284484 0.073424205 -0.00028969347 -0.11531936 0.0047936887 0.031265616 0.10695408 -0.10847264 0.017459825 -0.017882995 0.06561917 -0.097288065 0.033409536 0.08966302 0.06382299 -0.024575138 0.09467867 0.037558552 -0.015015771 -0.06830992 -0.004892501 -0.16577055 -0.013818299 -0.022655265 -0.0173105 0.09664733 0.09854283 -0.044744235 0.0770128 0.063158244 0.03864994 0.050826494 -0.08404372 -0.08993733 0.11215665 0.052652404 -0.02189396 0.018263176 -0.096862756 -0.0026738557 -0.0946523 -0.07671778 0.05346094 0.12271929 -0.01680142 0.058473922 -0.07898767 0.069746576 0.11205745 -0.010785463 -0.046033997 -0.045215804 -0.12223416 0.020357842 -0.013713434 -0.069509335 0.08359638 0.11806045 -0.092352174 0.045835834 0.09059831 0.05735556 0.14858216 -0.008429697 0.02394975 -0.05125269 -0.10020204 -0.13161993 0.009888743 0.04813991 -0.14028661 0.108694844 -0.05161016 -0.010688849 -0.09514455 0.016253619 -0.12552208 -0.026341734 0.11524239 -0.050652888 -0.0020598748 -0.09103733 0.14552023 0.05688098 0.031381376 0.020219238 0.11000756 0.018871775 -0.05691833 0.09755952 0.08815733 0.05894213 -0.1011921 -0.01630718 0.21467556 0.16376561 0.07464651 0.017692106 0.106539525 0.043599594 0.12341231 0.12229392 -0.010545271 -0.074874595 -0.07632977 -0.0729104 -0.09817529 0.022397364 -0.05657708 -0.15731822 -0.108063236 0.0027703543 -0.025538875 -0.061488826 0.09066186 -0.1060012 0.052946698 0.06970885 0.08836283 0.09818637 -0.060483728 -0.042109456 -0.02728101 0.042860907 0.08728425 -0.089545324 -0.12341103 -0.17345823 0.09753898 0.045885723 -0.0019343903 0.069389984 0.003655245 0.22865643 0.039599296 -0.006065223 0.09706809 -0.10592141 0.05691197 0.079933554 0.03599681 -0.16441514 0.24504215 -0.07661863 -0.017142868 -0.05572957 -0.10043156 0.0036536965 -0.01629564 0.028027333 -0.07086658 -0.003709767 -0.17086591 0.07571624 0.1992402 0.14828496 0.05765125 -0.045129683 0.027806498 0.06459443 -0.078595296 0.04578309 -0.048903313 -0.06370553 0.13907282 0.11868613 -0.0060730353 -0.182313 0.04063785 -0.06435647 -0.1234131 -0.039034937 -0.08239072 0.04021033 0.14685117 0.0070740073 -0.10827098 0.2044596 -0.023863796 0.18603273 0.028842788 0.018606683 -0.10971656 -0.108897455 0.0059049884 -0.04529784 -0.0036774818 -0.09853505 -0.07818432 0.01070533 -0.085743144 0.06410666 0.025558963 -0.0706322 0.07979766 -0.019193394 0.120513566 0.06361586 0.042669807 0.048056535 0.07111852 -0.094208784 0.09709515 0.084927455 0.01737283 0.035808653 -0.031064296 0.007538831 -0.0075957123 -0.057129342 -0.004389003 0.08813789 -0.109237045 0.10086876 -0.16314338 0.09448824 -0.07672504 0.022047611 0.0726508 0.123906754 0.044575546 -0.10221431 -0.044492096 0.03751234 0.023504624 -0.12394129 0.075390525 0.03622105 0.0006376009 -0.11260215 -0.124613345 -0.040047105 0.107910946 0.12292117 -0.050833922 -0.042024627 -0.092543505 0.06631292 -0.10414417 -0.04999926 0.12244207 0.10331845 -0.08047611 -0.013676327 -0.038821172 0.12070984 0.118108466 -0.029151842 0.089047365 0.025958287 0.14244923 0.0144066205 0.07663777 0.025105163 -0.042643063 -0.078050636 -0.12745647 0.10964469 0.13262652 -0.09879097 0.111501455 -0.15129077 0.18329461 0.015970035 0.08455111 0.012065546 0.11131372 0.07578011 -0.013931183 0.10548501 0.10187258 -0.08629605 -0.053882554 -0.028401196 0.11759232 0.08068755 0.043731958 -0.098034024 -0.09038906 -0.007043086 -0.13258426 0.18014751 -0.059302144 0.1284011 0.039136544 0.13861215 -0.024813736 -0.07627693 0.04667912 0.09154396 -0.11282029 -0.041199904 -0.027533948 -0.076976165 0.19508648 0.09278037 -0.058237802 0.086241335 0.013501115 0.016406951 0.053833243 0.096873954 0.12161412 0.09854622 -0.08796304 0.027063863 -0.014874115 -0.17096336 0.07101479 0.0404017 -0.06517752 0.11008095 0.15239474 0.005981385 0.029230805 0.047062762 0.068945885 0.07956973 0.07274796 -0.056763966 0.10966047 0.006168284 0.010674572 0.039174687 0.0985925 0.06149614 0.09334456 -0.050162308 0.078005634 -0.025963068 0.068146266 -0.061826956 -0.070136115 0.10465592 -0.07566788 -0.116413884 -0.073973686 -0.0066870367 0.084846675 0.061604954 0.071261965 0.037377317 -0.0030443373 -0.10193618 -0.067084625 -0.14684506 0.078165434 -0.12657739 -0.005031183 0.09799414 -0.07997195 -0.024417553 -0.054425385 0.08579106 0.07613186 -0.02082529 -0.01623484 0.010793249 -0.029663341 -0.07821448 -0.103564255 -0.013596831 0.03486034 0.012677232 0.00074707804 -0.04309991 0.12815392 -0.018037621 -0.0029918908 0.008969085 -0.05208875 0.06951987 0.030393777 -0.028381573 -0.118330054 -0.06430524 0.0468083 0.0886731 -0.02389618 0.021517942 0.08725714 0.024159541 0.09699362 0.046451576 -0.08094196 -0.037493642 -0.004148206 0.11469669 -0.035029564 0.06945928 -0.0022142602 0.022571439 0.10645748 -0.01688975 -0.06146046 -0.015458808 0.085435495 0.12743852 0.11529807 0.051543217 0.03129975 0.02522726 -0.05501022 0.12091408 0.013385267 -0.0048391093 -0.078253336 -0.077856146 0.049706236 -0.028177122 0.07457823 0.04628391 0.022467162 -0.11157749 -0.122445635 0.060053773 -0.05034806 0.11600752 0.07885446 -0.032128565 -0.047749624 -0.10542344 0.06291979 -0.10447502 0.024706017 0.10222088 -0.12660165 -0.031071678 0.0045521385 0.007831772 -0.0756704 0.09742122 -0.044627644 -0.006880076 -0.0423735 0.0061962362 0.027642693 0.10796951 0.0036286036 0.091226615 0.10089913 -0.025566135 0.1183543 0.09472606 0.03924426 0.11953586 -0.094512425 -0.09587375 0.11882979 0.12376497 0.019690126 0.05936324 -0.05117941 0.021433653 0.010940223 -0.091610864 0.052070606 0.10225549 -0.08551 -0.1220933 0.067100465 -0.026639003 -0.06898173 -0.009611667 0.11959798 0.12007878 -0.00018578768 -0.027971888 -0.010631106 -0.09230273 0.0061984085 -0.0063082366 -0.07650172 0.08346466 0.11927369 -0.026556853 0.012249422 0.120583534 0.08095203 -0.011206458 0.072066374 -0.120076105 0.10494257 0.016522065 -0.094096534 0.032830976 -0.112500325 -0.051874045 -0.03931349 0.07780908 -0.11822225 -0.06672334 0.10530989 0.21514815 0.04067043 0.0737991 -0.0719044 0.12233013 0.12762848 -0.033738688 0.00093210663 -0.06926671 0.18042588 -0.21271992 -0.12445623 0.07941979 -0.09714104 -0.04989365 0.10872743 -0.03508035 0.1098495 -0.04226096 -0.081820905 -0.08437839 0.26661876 0.21345711 -0.15742965 -0.055472363 -0.057302527 0.047055848 -0.12993237 0.14964099 0.017533552 -0.006135801 0.15250424 0.071429886 -0.048876837 -0.09218495 -0.0048937993 -0.034631323 -0.0017436871 -0.12482428 -0.055479582 -0.028115252 0.027750336 -0.0988018 0.017398095 0.17543396 -0.102451265 0.09228848 -0.009018143 -0.06177991 0.07593695 0.09019454 -0.027385885 -0.0128982905 0.028692557 -0.06587227 0.014368615 -0.035841662 -0.14866935 -0.1024025 -0.023655878 -0.047734987 0.09181677 -0.010477386 0.04950896 -0.09052503 0.042297218 0.077615194 -0.048628718 0.11559326 0.020432752 -0.13639496 0.06077221 0.118230075 -0.01981932 -0.084051326 -0.029098352 -0.104001954 -0.036966316 -0.09926463 -0.11020305 0.1111258 -0.04368321 0.04639967 -0.10392318 -0.074639045 0.10847814 -0.03316706 0.08011131 -0.12485961 -0.12246137 -0.10535614 -0.03063781 0.07952261 -0.09136488 -0.10173279 -0.021433871 0.045186993 0.071140185 -0.03479242 -0.033417646 0.06897309 -0.022929534 -0.114291206 0.013372458 -0.0192965 -0.121471584 -0.03581171 -0.103893146 0.06208405 0.035094876 0.08265525 0.055972766 0.10949138 0.085630156 0.0008137249 0.060945522 -0.11172629 0.053759392 0.05543965 0.1173206 0.0025692012 -0.043653477 -0.06121599 0.05853386 -0.047803994 0.057005934 0.096250825 0.033214055 0.22793777 -0.052245572 0.07122415 0.11480633 0.047387347 -0.011925108 -0.011402029 -0.11353178 0.13055618 0.05295794 -0.089261085 0.08066171 0.02497527 -0.10414262 -0.10307747 -0.11883293 0.057070978 0.17460409 -0.006557374 -0.04917058 -0.107978106 0.09629478 -0.009281996 0.11894822 0.12262755 -0.082407564 0.02239905 0.104738995 0.09667411 0.08272923 0.07939458 0.09940384 0.043197896 -0.07525467 -0.00017282012 0.18821354 0.01189627 -0.007653223 -0.09564299 -0.10310517 0.092138536 -0.091451265 0.0024037038 0.042782586 0.08659883 -0.0039581694 0.26538152 0.09929865 0.023887003 -0.026646381 0.06667888 -0.055233274 -0.07056424 -0.06417744 0.07904805 0.040625572 0.040396444 0.12109584 -0.079328835 0.00096731324 0.028355485 0.052284222 0.038674526 -0.12565893 0.048094295 0.0045045414 0.07817658 0.03699895 0.12250581 0.010434479 -0.023417734 0.0034214712 0.11066822 -0.109233305 0.058323007 0.0014923242 0.10229449 -0.12024158 0.08387975 -0.06472678 0.016368525 -0.06811467 0.12389143 0.076396465 -0.13328546 -0.117786966 -0.057252336 -0.07092978 -0.11164457 0.016223246 -0.011265794 -0.02527234 -0.07414744 0.011345891 0.11471325 0.089618556 0.07261821 0.04266315 -0.08267666 0.08846526 0.06508554 -0.12480096 0.08065644 -0.03970673 -0.1181264 -0.0965961 -0.00875443 -0.010253878 -0.08581531 -0.067672074 0.07068682 -0.044269625 0.12650423 0.03516309 0.011791388 0.055802073 0.10660283 0.033129975 -0.026582576 0.1086631 0.020647803 0.00853606 -0.06465711 -0.09224978 -0.09486921 0.11815375 -0.1112581 -0.08048369 0.11080917 0.11699453 -0.027121378 -0.04164855 0.0729146 -0.114801414 0.07827837 -0.07696371 0.057367563 -0.08674538 0.055650484 -0.027990205 -0.04709321 -0.086536035 0.07555964 -0.057797164 -0.051396906 -0.040171705 0.036144614 0.071430944 0.085425146 -0.100555375 0.054618023 -0.014715616 -0.055916935 -0.11722375 -0.1307056 0.053261004 -0.090407744 0.057152923 -0.06607966 0.12320764 -0.12515716 0.013893548 -0.096013054 -0.11448859 -0.033762928 -0.09221712 0.11598436 -0.01636559 -0.11671824 0.10421662 0.03549274 -0.01428389 -0.12564236 -0.012863506 -0.11894724 -0.12702143 0.12736344 0.07672271 0.025313636 0.12725754 -0.008140564 -0.10939541 0.10209159 -0.03519929 0.008173855 0.056276847 -0.12995376 0.041348472 0.09478284 0.027723921 -0.0548346 -0.05473287 0.101472646 -0.027094148 0.08839174 0.04008172 -0.09269437 0.027464377 0.0419319 0.09828189 -0.030536493 0.119909525 -0.048117857 -0.04119654 0.08363894 0.055397134 0.06220046 -0.09243161 -0.012405842 -0.11787999 0.029205695 -0.0700189 0.0016498122 -0.04792712 -0.13547684 0.026581453 0.03758063 0.022184465 0.019229196 -0.10006798 -0.006052507 -0.040923867 0.008839939 0.11662371 -0.07349027 0.11309574 0.15986769 -0.12823744 -0.14626239 0.021918496 -0.0701027 -0.026519671 -0.13571317 -0.11004609 0.025809752 -0.0024316644 0.049653407 0.07588614 0.12254959 0.002302411 0.10656538 0.026491497 0.09319799 -0.07319109 0.123831235 0.043083552 0.09860452 0.047334306 -0.064949274 -0.09513936 0.110245265 0.08536173 -0.031235708 -0.024636507 -0.14665514 -0.1277937 -0.114135556 -0.02447308 -0.060098846 -0.0324556 0.006059017 0.045250453 -0.061934575 0.066323586 -0.09225831 0.002599233 -0.00085377303 -0.10096145 -0.05827282 -0.12376256 0.012645318 0.117838435 0.1101404 0.030394122 -0.10315026 0.17338538 -0.15296829 0.07986869 -0.15329136 0.060422625 0.0060813488 -0.12692222 0.08423981 0.19488534 -0.017575946 -0.019107483 0.20263113 0.080790095 -0.09960809 -0.029756056 -0.0041107265 0.08108464 -0.15107077 -0.087275974 0.069757536 -0.11637431 0.078236505 -0.09432668 0.021691412 -0.041939158 0.060807332 -0.09487303 0.08820129 0.08573419 -0.074093685 0.097086385 0.0046925703 -0.03947703 0.04906991 -0.059272073 -0.01653615 0.09564729 -0.090340205 0.024287613 0.075179465 0.011326822 0.052843254 -0.075264156 0.12045639 0.0020718998 -0.056229092 0.051722124 -0.0907889 -0.114023104 -0.10860363 -0.02153008 -0.09577424 0.05959317 -0.14061968 -0.069211036 -0.121383525 -0.024284065 0.10463274 0.026450854 0.040421866 0.07015345 0.095121905 -0.08057181 -0.18160272 -0.106783494 0.108970165 -0.15525234 0.00184296 -0.0143840825 0.059752613 0.075852394 0.15130058 -0.022030797 -0.023484237 -0.08453382 0.09624375 -0.062005464 -0.028732456 0.022343904 -0.053006977 -0.05783833 -0.0114858 -0.017307244 0.10835327 0.06625004 -0.08294135 0.11374052 -0.06732394 -0.037010983 0.11470856 0.102548465 0.100541875 0.05939947 -0.10940405 -0.085585624 -0.06007926 0.036227956 0.11518371 0.06801298 0.021573037 -0.08741276 0.08620578 0.00010073185 0.042825907 -0.06180302 -0.1074207 -0.11507762 -0.038909197 -0.09589274 -0.1118384 0.12716465 0.051156864 -0.01712963 -0.114319965 -0.09163765 -0.121830694 -0.032189988 0.0917919 -0.016993426 0.028661445 -0.009476237 0.07828303 0.12345497 -0.05254294 -0.09937487 0.0757283 0.08544342 0.010264203 -0.058037676 -0.030458778 0.07308681 0.038570225 -0.04489363 0.036730766 0.04039687 -0.0370545 -0.07403241 0.101554595 0.031827096 0.12192155 -0.028035648 0.017416716 0.04237139 0.046987087 0.059546784 -0.116611 0.1807593 -0.0006776597 0.125819 -0.112550616 0.113272786 0.09517966 -0.05156976 -0.12316268 0.02104403 0.0830835 -0.077536896 0.05249165 0.12003989 0.16823563 0.10391371 0.052634828 -0.021843584 -0.045485817 0.091894865 -0.03246065 -0.049276058 -0.07980247 -0.12285512 0.12456265 0.08278513 0.020808049 0.10045867 0.066411294 0.08159605 -0.089766644 0.073062465 -0.006363042 0.17084165 0.12224215 0.033636205 -0.018440448 0.12755877 -0.07532057 -0.040306434 0.035928655 0.022287413 -0.097831845 -0.07410975 0.028741226 -0.047560763 -0.12836148 0.07499753 0.11085869 -0.016617177 0.06487727 0.032602258 0.15875275 0.00089895324 0.033157416 0.08221649 -0.043695614 0.119758174 0.020148419 -0.106297664 0.023100646 0.042480573 -0.1994729 -0.031999677 -0.14204182 -0.046110064 -0.031663727 -0.095140554 0.10699564 0.080602564 0.07916681 0.09559245 -0.07420146 0.19221765 0.17503321 0.07987597 0.037416324 0.06200119 0.118360095 0.09903215 -0.05843083 0.102317154 -0.05142393 0.12973659 -0.10994482 0.11494665 0.09476052 -0.041913442 0.11110889 0.01820796 -0.09352246 0.045211934 -0.078067444 -0.016004808 0.13620105 0.008297365 0.019484216 -0.11495011 0.10653981 0.029842956 -0.025498325 0.033141002 0.10562789 -0.12572952 0.031634986 -0.044087984 -0.18201587 -0.10493683 0.047873113 -0.15031049 0.12630296 -0.09252638 0.0319097 -0.003079729 -0.07831407 0.11877852 -0.018844705 -0.041438807 0.0923669 0.04053295 -0.07172735 -0.09918876 -0.06006412 -0.037950665 -0.041607924 0.07729325 -0.009497191 0.034909043 0.10041075 0.0021352519 0.11977907 0.047480743 -0.10092536 0.11379343 -0.039082598 0.08713259 0.03519989 -0.09051138 -0.08538798 -0.13282715 -0.111809224 -0.083749294 0.03303588 -0.041312188 0.012663962 -0.11032702 -0.015896272 -0.066882275 0.025967184 -0.0946098 0.058639586 -0.059306633 0.013577017 -0.04941001 0.10788622 0.003363305 0.07701318 -0.04963567 0.13695517 -0.04382147 0.080787756 0.12495998 -0.06498835 0.018585559 0.0263465 -0.0116898 0.00348173 0.112614095 -0.0008618257 0.0070447116 0.07995013 -0.11314896 0.058622222 0.0039911866 -0.09868316 0.051067192 -0.059899785 -0.09574826 -0.038327783 0.016686207 0.053129192 -0.06641031 0.08705478 -0.08733441 -0.0920567 0.05476282 0.12019725 0.098042905 0.09291043 0.0078101642 -0.06343939 -0.09912874 -0.1063827 0.028885966 -0.01151444 -0.03449515 -0.02727077 -0.0051016104 -0.08201335 -0.032438856 0.09701921 -0.06940702 -0.009987484 -0.09901946 -0.05413895 0.043727476 0.040005874 -0.11796699 0.08395651 0.032833636 0.055591308 -0.081404015 0.08437728 -0.125081 -0.112800345 0.10531723 -0.049573287 0.050189726 0.038468022 -0.054596003 -0.07933357 0.06752778 0.08612596 0.007121271 0.020476297 0.061903242 0.029286336 0.11260006 -0.016842779 -0.071005225 -0.056496173 -0.08631908 -0.0027906299 0.024814785 0.0074001253 0.10448612 -0.0037533492 0.11358549 -0.012363762 -0.03295146 0.083328396 0.036133528 -0.09237106 0.0217468 -0.12817715 -0.08505733 -0.09477368 -0.009471163 -0.04174079 0.1153274 -0.06365242 -0.03126567 -0.07795836 -0.07039708 0.057645604 0.07733427 -0.09785947 0.11960682 0.008288875 0.053208187 -0.009196974 -0.014101587 0.09908678 -0.043194562 0.029057905 0.069574445 -0.11805079 0.006492883 -0.08763712 -0.11856012 -0.027821004 -0.006401874 -0.050999403 -0.030989118 -0.063895665 0.10514441 -0.09279145 -0.011432417 0.015745893 0.066120625 -0.040449582 0.055153877 -0.115758166 -0.12091078 -0.051532365 0.053138196 -0.03795504 0.120453835 0.0086081475 0.11508031 0.07734768 0.05695121 0.048545405 -0.095681995 -0.026205443 0.05346164 -0.12138136 -0.061408207 -0.1256805 0.07902996 0.07158767 -0.049149804 -0.08086391 -0.103294894 -0.020038068 0.037162825 0.08881493 -0.10354075 -0.014983311 0.0413035 -0.09228262 -0.05187305 0.081630915 -0.108186916 -0.024986751 -0.0058033317 0.030125096 0.12689473 -0.028711729 -0.022877783 -0.056028113 0.09821224 0.10407527 0.10959017 -0.07037751 0.091664836 -0.11412638 -0.008586541 -0.037666477 0.01776132 -0.029480062 -0.100832514 -0.073045686 -0.0034589022 -0.07663718 -0.03624273 -0.059111536 -0.09826369 0.11384815 -0.11801723 0.05297008 -0.100544184 -0.091829434 0.017801583 0.1072894 -0.05430393 -0.021324076 0.05780928 0.12613557 0.079975516 -0.10225983 0.10717024 0.034521937 0.014824375 0.02751039 -0.12831339 -0.0039715795 0.087574884 0.05438948 0.10949337 0.022046307 0.04592522 -0.009975811 0.010131721 0.0856269 -0.042464454 0.09426516 -0.12644699 -0.012450705 0.02436138 -0.120656155 -0.11418234 0.07663124 -0.04934242 0.13334848 0.06684562 -0.022673918 0.118936814 -0.07094882 -0.11817229 0.05627319 -0.0835236 0.08941541 0.046903286 -0.0260972 0.041151207 -0.11057976 -0.034038894 -0.061781343 -0.100976646 0.026143687 -0.04465423 0.044384956 0.09667549 -0.025766442 0.011234461 0.14483428 0.10522141 -0.020301973 -0.030593615 -0.018332973 -0.03846777 0.082495846 0.09710491 0.017247658 -0.07865957 -0.10916368 0.09848861 0.003065657 -0.118954085 -0.09382481 -0.017480196 -0.10462304 0.07518525 -0.07046678 -0.049343456 0.038824566 0.019741705 -0.05411897 0.087895356 0.07897835 -0.12181325 0.1880585 0.026401734 -0.027482321 -0.014455802 0.07273359 0.026797893 -0.052332617 0.06451896 0.09871508 -0.07410164 0.13386324 -0.16122045 -0.14515643 -0.02861161 -0.12504607 0.061116867 0.05469308 0.088953376 0.08300942 -0.11907084 -0.062622696 -0.04007299 0.1286139 -0.017973233 -0.03878009 0.12635192 0.04262102 -0.018690577 -0.054367147 0.07709606 -0.030536516 -0.023524994 0.03778196 -0.04425209 0.07936496 -0.09549304 -0.070550166 -0.11613072 -0.00906777 0.012198059 0.04067071 0.042012487 0.015878301 0.0067485822 0.13723683 0.08154292 -0.048531763 0.031555396 0.005258486 0.013819613 0.108075716 -0.018826934 0.032295827 -0.07611459 -0.018494096 0.006194484 0.01943571 0.0031810498 -0.21476239 0.17932308 -0.1372244 0.055089217 -0.023563564 -0.016799467 0.08142289 0.011704893 0.08041655 -0.008354578 0.13018432 -0.083125226 -0.13301478 0.095749594 0.08970779 -0.0034278638 -0.10381469 -0.081970826 -0.003616217 -0.0025020929 0.022083761 -0.049845975 0.008458193 -0.08292091 0.062137935 -0.023893172 -0.006230391 -0.016596172 -0.01726183 -0.025032487 0.09624706 0.0756551 0.019147223 0.09845216 0.092002206 -0.04042167 0.18937957 0.03693775 0.2416167 0.04106786 0.0104747815 0.058117475 0.00785422 -0.14622504 -0.07706168 -0.050235532 -0.16967076 -0.00083753694 0.095064126 -0.04469431 -0.035259586 -0.07765721 -0.038113326 -0.105129085 0.044799667 -0.088509925 0.015259579 -0.042498298 0.047138315 0.006296554 0.009022515 0.094175585 0.10495403 0.1285671 -0.053716063 -0.13306192 -0.11340161 0.059177957 0.024031356 -0.090294056 0.02779262 0.10630182 0.06997335 -0.12229785 0.0060191317 0.030469656 0.036582753 0.14152229 0.051552873 -0.08014871 -0.14712301 0.0863487 -0.0045972858 0.08419708 -0.07005893 0.05489709 -0.08825975 0.056541704 -0.004688083 -0.07795941 0.04305786 -0.009581734 0.021754282 -0.033535384 -0.047982484 -0.049659505 -0.019460145 0.06047861 -0.025562642 0.0651534 -0.052851293 0.039181724 -0.06402429 0.09243928 -0.12622505 0.027363703 0.049486835 -0.07659598 -0.16366595 0.13720721 0.101642676 0.09438564 -0.018415147 0.073709086 0.06926799 -0.098158605 0.025663171 -0.113951825 -0.061882164 0.10778981 -0.025371002 0.05993788 -0.13119681 -0.0066937297 -0.095435075 0.11646099 -0.04902395 0.030141927 -0.043841224 -0.01580701 -0.008096814 0.09811738 0.10250725 -0.06468596 -0.009307938 -0.03722485 -0.0848132 0.08056916 0.057910487 -0.022802142 0.045789413 0.078627616 0.06374116 -0.11789275 -0.052667815 -0.09226831 -0.09517444 0.054880887 0.08492872 0.007321204 0.05367897 0.12858403 -0.11433279 0.045150384 0.12272841 0.008271195 -0.12546314 -0.035151128 0.047289446 -0.017535338 -0.054941684 0.0099096345 -0.0138415275 0.029167462 -0.0949746 -0.059017994 0.07921096 0.00069042214 -0.0545513 0.012451592 -0.050874554 -0.072755635 -0.075242065 0.049934458 0.0085990345 0.07883584 0.12195359 -0.11118356 0.037732225 0.016091406 -0.001122728 -0.071751565 -0.010755071 0.10215762 -0.02692698 0.06155486 0.004214636 -0.056051154 0.118375964 0.09525503 0.11565307 -0.036953095 -0.07101569 -0.16305594 -0.01667255 -0.032479502 0.110378765 0.06449834 0.018893156 0.12879874 -0.12933773 -0.10858517 0.11368847 -0.038485467 0.094679266 -0.06750127 -0.12620479 -0.06895784 -0.041515533 -0.059357136 0.06309717 0.061177645 -0.11272845 -0.10699368 -0.08764625 -0.055778295 0.05956342 -0.039088614 -0.07671132 0.121145405 0.121302165 0.07346097 0.03919139 0.05053321 -0.082166314 -0.085862234 0.18607561 -0.034290023 -0.06778498 0.030168857 0.127077 -0.010403811 0.0315304 0.077022 -0.0075959614 -0.102650695 0.012308624 0.0032394773 -0.12798259 0.04180847 0.011234239 -0.04373675 0.1159677 0.017465804 -0.01392158 -0.002415187 0.0970682 -0.06006909 -0.017985603 0.0130278515 -0.12903623 0.04357551 0.10424436 -0.11482912 -0.11118423 0.039314944 -0.0065283407 0.040655334 -0.06567563 -0.10654694 0.034193527 0.035251085 0.03618526 -0.13362774 0.08848518 -0.027573187 -0.07575137 -0.11644473 -0.074607305 -0.09748234 -0.079606704 -0.06601793 -0.11829936 0.08674349 -0.0030853755 0.043126404 -0.07942318 0.01835979 0.054131575 0.0378702 -0.015476501 0.035262913 -0.09790426 0.041235298 0.015873598 0.10922617 -0.07466286 -0.026855208 -0.058245447 -2.9021057e-05 -0.0744236 0.09296141 0.10913278 0.058923583 -0.010643213 0.06854699 0.05116901 -0.12980616 0.058012355 -0.011797376 -0.058282744 -0.008672699 -0.03287453 0.073970586 0.11560397 -0.019231945 -0.06648043 0.053879198 0.08263022 -0.10083081 0.026491411 0.007964376 -0.12676746 0.0525911 0.09940089 -0.09059475 -0.11679009 0.007858447 -0.018372398 0.0066082664 0.011274463 -0.07959973 0.08473227 0.060453843 -0.12357752 -0.08029516 -0.11417966 0.059636887 -0.017668072 -0.04914614 0.054881763 0.011607761 0.09571345 -0.11931055 -0.051419746 -0.12102882 0.072701 0.02051583 -0.020936964 0.056794077 0.07412271 -0.10893903 -0.09552312 0.04829775 0.09534008 -0.069796026 -0.049883105 -0.06294795 0.075271875 0.047252264 -0.07939866 0.07153895 -0.109285 -0.038461596 -0.01577655 0.013141394 0.06829882 0.055021647 -0.08269046 0.025635658 -0.110133134 -0.03827158 0.042553615 0.11639386 0.09558721 -0.01917201 0.04604247 0.06828921 -0.104028456 0.06103404 0.03879843 0.10035144 -0.10534484 0.09601015 0.08786657 -0.0131122805 -0.11361076 0.08607533 0.08359926 -0.06606575 0.091021284 -0.005143497 -0.0057597007 -0.0046393066 0.019222068 -0.108445086 0.054236647 0.05455471 -0.123762846 0.05605082 -0.073445454 0.01817971 -0.009572315 -0.038457643 0.025956986 0.012665412 0.011297853 0.07384966 -0.13125718 0.108727075 0.039608404 -0.031085504 -0.043354306 -0.037241552 -0.08744442 -0.0077332174 -0.116323955 -0.05059235 0.0027791036 0.09091823 0.09872701 0.067370534 -0.12624301 -0.038279384 0.014905348 0.102338694 -0.033713497 -0.12150967 0.12581809 0.03227472 0.01807819 -0.012506721 0.019506657 0.12593672 0.033504654 -0.041576084 0.110484034 -0.014582677 -0.11926866 -0.03056229 0.08382295 0.012152517 -0.10102126 0.027642025 -0.14039645 -0.12441552 -0.1014711 -0.007624066 0.11544574 0.056984343 -0.12506345 -0.021884916 0.10934861 -0.027427044 -0.032806605 -0.055824127 -0.13396542 0.056919422 0.08926933 0.11945176 0.07383972 0.044692 0.10069283 -0.0091577815 -0.049342144 -0.06292483 0.100227274 0.03290112 -0.13685578 0.058468644 0.021523463 -0.04088099 -0.110749334 -0.003911814 -0.11607855 0.029615093 0.06263667 -0.08842964 -0.0214227 0.0906933 -0.094943814 -0.09985233 0.025185088 0.10826434 0.030208541 0.012277883 0.11450242 -0.0019663128 0.124151595 -0.09585346 -0.07598416 0.01846608 0.06260503 -0.122414626 -0.017428039 0.099329114 -0.026711248 0.07878705 0.00086204277 -0.10061212 0.026311807 0.031718746 0.05856358 -0.07148043 -0.059208803 0.0709615 0.07589566 0.08938683 -0.08972749 -0.05470558 0.0399469 0.008114693 -0.046529323 0.011433407 0.11800227 -0.019859254 0.04863571 0.054036777 0.10917294 0.059969462 0.11815677 0.043993935 0.11895509 -0.015326521 0.012177901 -0.010042067 0.05286094 -0.11026693 0.1199647 0.09053856 -0.08483238 0.06948837 -0.11448987 -0.038263887 -0.10182275 0.10302962 -0.029699031 -0.085276924 -0.010115018 0.09960805 0.0010462161 -0.016439049 0.0021511419 0.08530172 -0.104220085 -0.013572749 -0.09155245 0.060813535 -0.047075488 -0.0055205063 -0.051004317 0.031900425 -0.04429301 -0.018994581 0.0029397435 -0.0796583 0.0914957 -0.079863 -0.031981632 -0.064557895 0.081588835 0.086543925 0.09480339 -0.052363798 -0.10649694 0.08158828 -0.07347707 0.11088815 0.0062347036 -0.07033518 -0.041913066 0.061191034 0.0838509 -0.1169767 0.01753633 0.08941931 0.07497927 -0.13154699 -0.04640925 -0.0030686222 -0.06594634 0.09365908 -0.011344136 0.04200557 0.078956954 -0.10368228 0.022063114 0.11635236 -0.08155256 0.028275434 -0.027720565 0.077156246 -0.0021412126 0.08600158 -0.01025799 0.091647126 -0.085941054 -0.061831214 0.018884812 -0.061045755 -0.10382408 0.11229389 -0.021963684 0.07616809 -0.020946149 -0.06351079 -0.05089868 0.0867626 -0.06871873 -0.060496375 0.07404604 -0.096789114 -0.101902425 0.06838168 -0.12720579 0.108997464 0.106227875 -0.0007329865 -0.07643474 -0.014147304 -0.055712968 0.11674546 0.07039165 0.11694549 -0.08732699 -0.012947448 0.10693298 -0.032460794 -0.09091289 -0.0639317 -0.046995774 0.004371017 -0.027853785 -0.02703506 0.062557004 0.08958423 0.11964574 0.049171872 0.06760654 0.12526235 -0.121866025 0.07623607 -0.008964464 -0.08123689 0.02724075 -0.00041396634 0.019233335 0.111447595 0.065333985 0.12223038 -0.046426736 0.054419328 0.09089431 -0.049527843 -0.111100085 0.08073871 -0.10125659 -0.031931125 -0.052775256 0.08740381 0.107379556 0.06363965 -0.0391855 0.00968458 -0.10456473 -0.019191556 0.095835425 0.09388364 0.008095662 0.07174319 -0.008335524 -0.0006335334 -0.13684341 0.051921573 -0.11801888 -0.072452456 -0.01606971 -0.10501601 -0.015636604 0.0050649643 0.0716678 -0.111789145 -0.104880825 -0.14551915 0.075225174 -0.017538033 0.028774397 -0.107207626 -0.097060524 -0.0057833786 0.018022412 0.10580306 -0.089914985 0.08930308 -0.10169234 -0.015445665 -0.03702101 0.0038762763 -0.016009312 -0.042248435 0.06583036 -0.12244262 0.050984297 0.11958136 0.048422284 -0.052081246 -0.11964858 0.008349861 -0.118129514 -0.07353867 -0.0062333825 0.1049768 0.06507721 -0.060384262 -0.12729673 -0.08055652 -0.064521804 0.08220921 -0.04342611 0.07409228 -0.03609156 0.051738188 -0.11706521 0.05447828 -0.053979035 0.053674933 -0.1199987 0.074731536 0.026607523 -0.0767241 0.16393106 -0.14216663 0.1836548 -0.03140733 -0.07727604 -0.021091485 -0.053220894 0.10379637 -0.0493328 -0.058369175 0.03299081 0.07473802 0.04260954 -0.20051008 -0.11079339 0.11834183 -0.019165866 0.13348348 -0.010325981 -0.008938874 0.002891504 -0.03046841 0.08322383 -0.060005207 0.12570578 0.086900756 -0.07584138 0.008194612 -0.1274038 0.10330202 0.0055773887 -0.06411783 0.08948654 -0.052946545 0.027863096 0.08692395 0.031330995 0.11520267 -0.11413928 -0.11434195 -0.001415754 0.07402166 0.000442087 0.21623997 0.10374166 0.061081663 0.15451197 -0.115186244 -0.04246605 0.2014355 0.11909779 -0.0019144692 0.19665447 0.0908984 0.09409438 -0.012870647 0.11930338 0.02273706 0.07248406 -0.04616317 -0.13238628 0.01583135 -0.11535716 -0.10992504 -0.03506877 -0.062115718 0.09834503 -0.1302701 -0.00916964 0.05592592 -0.10247653 -0.03747006 0.06461554 0.09984176 -0.031887166 -0.028198171 0.054450627 0.08331136 -0.10153909 -0.09494777 0.17547798 -0.08239006 -0.10928012 0.106133305 0.11257153 -0.06390807 -0.020665566 0.017162109 0.056199946 0.048894394 -0.005747156 0.05746133 -0.029998833 -0.058878276 0.09045854 -0.10641286 0.06396475 0.10773836 0.1697583 0.017532196 -0.010305124 -0.08999015 -0.0151944505 -0.007841993 0.08830237 -0.106244504 -0.12915277 -0.015133906 -0.05930682 0.004308275 -0.11893795 0.029326443 0.03421471 0.09001442 -0.12985232 0.10080594 -0.09849593 -0.048661623 -0.08747545 0.019923002 0.061646 0.014441764 0.110495545 -0.057593547 -0.04973856 0.12064424 0.124222025 0.07035909 -0.10564983 -0.039501607 0.09860331 0.048069686 -0.049074087 -0.009857919 0.025144009 -0.10127112 -0.017637111 0.10904009 0.1144966 -0.054991644 -0.116041005 -0.010392468 0.061858222 -0.04695306 -0.13210617 0.10923957 0.029796384 -0.057953674 -0.06125416 0.013805437 -0.12834701 -0.10074787 -0.12557341 0.070266634 0.09049546 0.028994758 -0.07492939 -0.12790063 -0.08118333 -0.0050641247 -0.03367205 0.110466234 -0.121747 0.1139727 0.07654872 -0.076257646 -0.10232104 -0.12478285 -0.07022083 -0.11962356 -0.08866714 0.011059518 -0.03311653 0.11057687 -0.061512254 0.05412743 0.10189768 -0.08566843 -0.007854943 0.00977337 -0.1439172 -0.04786485 -0.058094487 -0.11080202 -0.026771992 0.07644347 -0.08224709 -0.04669792 0.06827166 0.12820879 -0.087568924 -0.08631121 -0.024617448 -0.013276985 0.05600208 0.07958639 0.039717183 -0.08108564 0.029920746 0.07704244 -0.015913783 -0.12885037 0.017786993 0.07774326 -0.048657104 0.045864284 -0.14200194 0.024160959 -0.09363599 -0.115631014 0.0023758085 -0.11435207 -0.10077766 0.0771938 -0.12982418 -0.0040652845 0.115965076 -0.10701998 -0.010910874 0.106412284 -0.042031348 -0.071964756 0.06554747 0.04872703 0.084988795 -0.042706158 -0.09146219 0.11088576 0.06866657 0.014592088 0.0150086675 0.084479146 0.077902116 -0.10700199 0.03838671 -0.09239815 -0.065040894 -0.039090138 0.0062614013 0.06686112 -0.03641577 0.13616489 -0.13027343 0.115865104 -0.10539171 -0.04201146 -0.095530406 -0.047069542 0.032736488 0.051584043 0.01820229 0.03855493 0.012768347 0.015901035 -0.0014140352 -0.14516972 0.07072162 -0.045172006 -0.051317334 0.07097824 -0.001985163 0.08330619 0.05093273 -0.121238194 0.06613625 0.030284911 -0.061170906 -0.043288648 -0.09646577 -0.048955187 -0.02695306 -0.074411735 -0.010803252 0.080210686 -0.023454633 0.093114585 0.03224236 -0.051438507 0.07570966 -0.04088583 -0.093567945 0.07154857 -0.12235344 -0.010030211 -0.09556711 -0.1047235 -0.035419717 -0.08849087 0.027105477 0.035015278 -0.043036852 0.049163043 -0.13329715 0.09307862 0.015179486 0.07514006 -0.11228347 -0.13385472 0.1665527 -0.099389784 -0.026412738 -0.14594142 0.22146219 0.11529628 -0.03850462 -0.06040068 0.0788725 -0.072227426 0.0565855 -0.015408378 -0.02552456 -0.0882683 -0.061550494 -0.00710297 0.07755698 -0.03789998 0.014352726 -0.041315798 -0.08054896 0.031441413 0.10407352 -0.008460161 0.07831764 -0.113867976 0.04918051 0.10086768 -0.1554624 0.13317654 -0.12050686 -0.023042336 0.09488222 0.002159626 -0.07698272 0.071668774 -0.08295717 0.06911862 -0.08490751 0.05066629 -0.17914303 0.062800184 -0.07535893 -0.11768535 0.095880106 0.22874506 0.081682384 0.014571795 0.24193859 -0.15893549 -0.2151257 0.11388851 0.0687398 -0.054773726 0.020886157 0.053005233 0.08233549 -0.083988905 -0.0027001526 0.03638178 -0.124705575 -0.094074965 -0.0062800576 -0.046848927 -0.13161916 0.12147035 0.07507693 -0.03287202 -0.023310462 -0.12167152 -0.10600791 -0.06115652 -0.08700369 0.06317463 0.08910148 0.11939001 0.028742736 0.11664176 -0.023216669 0.058455423 0.09146735 -0.13281609 0.018156344 -0.06742265 -0.08107338 -0.007425178 0.08138081 0.006201741 0.071213596 0.05865213 0.004816204 -0.030992443 0.028650507 -0.120298654 -0.00080429285 0.007314224 0.10292726 -0.06151662 0.050234914 0.12371076 -0.06943503 -0.010443057 0.10849292 -0.060050968 -0.07740226 0.073841795 0.08654594 -0.09712433 -0.083690636 -0.09746239 -0.06775002 -0.1273448 -0.05218518 0.09182372 -0.04793601 -0.08668599 -0.026744947 -0.12334069 -0.054499444 -0.0026827652 -0.0729195 0.004166277 0.01009118 0.06522447 -0.07902299 0.0071603153 0.08941506 -0.11398715 0.037160136 0.118599504 -0.09572745 -0.12495589 0.058880415 0.079508685 -0.081406035 0.013250454 0.09034555 -0.07928106 0.03983634 -0.022877721 -0.048185244 0.013178797 -0.07705943 -0.026773171 0.11582415 -0.0114637865 0.056505807 0.09805605 -0.011283995 -0.119692065 -0.122213244 -0.0069909743 0.057269376 0.06424054 0.040962074 -0.070706405 -0.10350496 -0.12786575 -0.009560845 0.059846554 -0.042189877 0.016233161 0.09576617 0.022475207 0.0006881356 0.0307782 0.10624168 -0.034855198 0.08081423 0.049980003 -0.08460509 0.08864049 0.06074109 0.053118028 0.034409296 -0.00022941649 0.02191226 -0.05201221 0.04410838 0.081976 0.0068726004 -0.09498125 -0.08023139 0.11978031 -0.0770498 -0.12681298 0.11128469 -0.01370458 -0.043428365 0.110293806 -0.09558328 0.07562624 0.018336004 0.11718218 0.06009925 -0.11345466 -0.07360099 0.1127767 0.07060558 -0.095628396 -0.041916534 -0.094709486 0.123844996 -0.037070524 0.02658106 0.012579816 0.072538346 -0.092871346 0.059225075 0.075600855 0.062757865 -0.07825702 0.032753255 -0.0727011 0.1156768 -0.040864233 -0.101789504 -0.020777047 0.124394074 0.048300922 0.11699896 0.037662342 -0.105621725 -0.117039844 0.05443357 0.0074102306 0.0027145292 -0.046442725 0.066990845 -0.0065168864 0.056131583 0.09680236 0.03776139 -0.08348306 0.19909187 0.1252265 0.0070486492 0.040734883 0.11968019 0.12694724 -0.13624623 0.046280924 0.012655959 0.17174156 -0.20797318 0.024494404 -0.031794444 0.03930701 0.06594408 -0.10330785 -0.01682764 0.05819695 -0.10334988 -0.09041571 -0.08583963 0.022847546 0.15194443 -0.049806852 0.05675219 0.093288094 0.069639556 -0.12281288 -0.037987504 -0.060161397 -0.043886185 -0.042372514 0.08856604 0.0052357498 -0.10429493 0.03971589 -0.15920311 -0.026463151 0.033230912 -0.023618612 0.0751354 0.1575391 0.032494303 -0.0053482144 0.14068101 -0.039521683 0.15874098 0.093058124 -0.11700911 -0.039596207 0.10484503 0.12089911 0.068658605 0.011136578 -0.12806644 0.049539216 0.14192006 -0.15072323 0.053177666 0.033917006 -0.05761201 -0.09100577 0.003481105 -0.046414778 0.08338371 0.061600313 0.08954662 -0.036589943 -0.072909385 0.106662974 0.00088116527 0.07250114 0.122821495 -0.11908439 -0.033742204 0.012112066 -0.006253265 -0.062276915 0.01370877 -0.07392613 0.0962448 -0.030416735 -0.020614833 0.024013907 -0.12709926 -0.01601611 -0.08131292 0.08672935 0.12062937 0.066651896 -0.07904649 -0.12648006 0.08095491 0.04729587 0.0412333 -0.074743316 -0.010403067 0.059098214 0.05948229 0.11486468 -0.108805366 -0.09704885 0.019217521 -0.017850302 -0.08117241 0.09288344 -0.08072486 0.046834618 -0.060816377 -0.10292641 -0.015834853 -0.11306111 0.026545793 -0.095256284 0.033529684 -0.103107475 -0.028178848 -0.08728117 -0.045520477 -0.007120393 -0.0004329594 -0.06013532 0.10824772 0.10484463 -0.11058483 0.08636022 -0.16061807 -0.004681958 -0.19891086 0.08161997 -0.17389171 0.07569453 -0.0074187675 -0.013170086 -0.0070444886 -0.13018207 -0.043916676 0.10388287 -0.04477027 0.00538222 0.005937721 0.1875819 0.08053106 -0.105070025 0.03856792 0.022898471 0.046269905 0.095031105 0.16453825 0.037265554 0.03386305 0.031056225 -0.04199671 -0.091122076 0.04088905 -0.04301693 -0.17700778 0.024152132 0.073237255 -0.13150875 0.014889921 0.14130643 0.0900186 -0.032074314 