Linear 19 40
-0.028780553 0.17373626 -0.018654885 0.39753276 -0.054975837 -0.054609418 -0.10274025 0.031109588 -0.053292148 0.10637707 -0.08745347 -0.2475689 -0.67807007 0.12809303 0.2138238 0.11433672 0.23755614 -0.05718171 -0.025614409 0.15782997 -0.17629138 -0.04174718 -0.2305538 -0.0031261102 0.05493306 0.04360783 0.1487852 0.24954148 -0.1501652 -0.057330865 0.102384314 0.024348611 -0.18522783 -0.12253133 -0.08228156 0.24972849 0.019058948 -0.19658415 -0.034435187 -0.12646562 -0.07230045 -0.040902317 0.038202144 9.218467e-05 0.03871529 0.028407257 0.028799042 -0.09929127 0.07505637 0.11002023 0.501657 -0.07174531 -0.19755797 -0.06469784 0.03944805 0.109745674 0.12474154 -0.08531802 0.033588845 -0.04614862 -0.111499086 0.22490348 -0.07010782 0.13341919 -0.14197749 -0.08840501 -0.027657282 -0.16898349 0.097238146 -0.21359086 0.12096967 -0.118652605 0.0023265297 -0.11709976 -0.19442837 0.12390595 -0.073521115 -0.12149602 0.14134896 -0.010571922 0.13045403 0.06209088 -0.17722237 -0.15286314 -0.049685493 0.16734919 0.123292804 0.12559757 -0.22594838 0.21859936 -0.069694996 -0.12828551 0.028309992 0.026537333 -0.16423921 -0.1872255 -0.0055997996 -0.05956891 -0.10605902 0.040672168 0.08163004 0.039206803 0.18670213 -0.18092203 0.1416897 -0.2542245 -0.13708366 0.0564157 0.14330143 -0.13023764 -0.13620898 -0.046255488 -0.025992835 0.23261844 0.11113923 -0.17919287 -0.16660404 -0.0994952 0.22096989 -0.017678449 0.026306873 0.23090652 -0.08509216 -0.15911582 -0.009375978 0.2428999 0.32048392 -0.12352454 -0.15548843 -0.1591785 0.08014578 0.32881886 -0.09047726 -0.14775196 0.10961613 0.066815905 -0.32911605 0.05376972 -0.09822954 -0.030573629 -0.11225946 -0.16647841 -0.055916414 -0.1595604 0.65876836 0.84988785 0.16917309 0.15933676 -0.015769698 0.17854808 -0.11287218 -0.043806 0.24790294 0.011870527 0.11338558 0.11789789 -0.10089288 -0.1876668 -0.17195693 -0.015734917 0.073375754 -0.14213479 0.01854437 -0.14956725 -0.05396623 -0.28091317 -0.08446838 0.11773366 0.09374524 -0.02062253 -0.22437033 -0.031196127 0.07157094 0.004121357 -0.16918537 0.13195881 -0.2133255 -0.10667349 -0.09261508 -0.14658569 0.0377197 -0.19239302 -0.20116653 0.021109603 0.036134385 -0.015340366 -0.04860786 -0.23741312 -0.11899205 0.11466899 0.016157234 0.1471502 -0.06737407 -0.32944182 0.028047228 0.104620144 0.11723588 -0.005616407 0.1687309 -0.12947841 0.14829078 0.55220693 0.57135725 0.13863488 0.12917505 -0.032031655 0.15655315 -0.15362786 -0.12472439 0.108942576 -0.0027732125 -0.34324256 0.049723927 0.030900283 -0.015284798 -0.05981605 0.06922917 -0.15126257 0.08885326 -0.107609786 0.060034476 0.1447949 -0.30951372 0.18415436 -0.015822947 -0.02319024 0.03391831 0.12706318 -0.07693908 -0.109657116 0.0054635485 0.04151235 0.16411856 0.16006981 0.06194383 0.12315705 0.057114266 0.06436609 0.17862627 -0.037459545 -0.5806892 0.04364807 -0.28407744 -0.08954113 0.20020954 0.23190303 -0.080848135 0.011247208 0.2518223 0.07168138 0.06007091 -0.1373752 0.18717541 0.12540051 0.116740085 0.19821681 0.111653775 -0.13937014 -0.3000388 -0.37219384 0.09208547 -0.14767556 0.027946604 -0.151541 0.07682808 -0.07606313 -0.20488952 -0.054335285 0.1134795 -0.22001836 -0.013780683 -0.19534591 0.12237588 -0.2199223 -0.115688086 0.10480681 -0.018202528 -0.04580015 -0.101600714 0.052724563 -0.16514802 0.15821663 -0.030332409 -0.1637591 -0.0257232 -0.26138723 0.13361168 0.16810569 -0.07787512 0.019583978 0.20152001 0.12144483 0.14517859 0.07982077 -0.20464927 0.07236041 -0.061059665 -0.2771479 0.07941075 -0.22658294 0.06408197 -0.09989812 0.09414763 0.07515383 -0.39359033 0.21989611 0.2156615 -0.21425626 0.2863659 -0.045765154 -0.11349346 0.10962546 -0.1171055 -0.038444925 -0.24973719 0.23429336 0.84105074 -0.060110852 0.13767406 -0.06344271 -0.020625638 -0.18260503 0.26411715 -0.072618306 0.042007595 -0.13592528 -0.501885 0.22582972 -0.10513957 0.08696367 0.15467718 0.082146846 -0.0824512 0.056641225 0.1956449 0.6158066 -0.1203145 0.10855801 -0.017203014 0.20571996 0.20786579 -0.19132216 -0.003621189 -0.06754273 0.17460626 0.18335944 0.16145161 0.102481626 0.022878785 0.08086669 0.11414325 -0.22516218 0.11939577 -0.27224684 -0.7069984 -0.19182964 0.17881866 0.053165182 -0.1483894 -0.07077325 0.14457856 0.051172882 0.21632788 -0.0095360875 -0.29078192 0.05001548 -0.2504672 -0.17766245 -0.2269076 -0.08809339 0.3110962 -0.15007998 0.80999583 0.9268629 -0.07468832 -0.032403883 -0.124889754 0.00974918 0.04844028 0.09926828 0.24185215 -0.27844298 -0.02944228 -0.043490123 0.05768604 0.115655266 0.13618676 -0.0008587802 -0.04511286 0.096244045 0.19203936 -0.20939723 0.04737986 -0.3116112 0.3414906 -0.18418081 -0.09805786 -0.17004319 0.19730543 -0.007898247 0.034588646 -0.14154673 0.39728647 -0.25741455 -0.013641062 0.18924868 0.26832896 0.011467019 -0.4324972 -0.07442354 -0.75788724 -0.48784077 0.1103501 0.10852131 0.056084294 -0.08284804 0.26345432 -0.22317393 -0.0678809 -0.12168229 -0.06910608 0.18607692 -0.11402435 -0.14244618 0.044236198 0.19847785 0.021230986 -0.18491492 0.03446293 -0.27103302 -0.5487449 0.08231482 0.27974287 0.10785247 0.091911234 0.06317228 0.060900185 -0.24770051 0.23992231 -0.11889586 -0.13737732 0.14385274 0.053304087 -0.10629578 -0.017088385 -0.098246746 -0.21087497 0.033450045 0.36319315 0.32420465 0.1596083 0.17786966 -0.26753053 0.011812354 -0.17938265 0.19470802 0.12959705 -0.08593363 -0.19574194 -0.21029298 0.050176717 -0.08329001 -0.102920316 0.2342762 0.13608678 -0.18245077 0.15253378 0.18984161 0.0032586125 -0.12280967 0.120612875 0.026415749 -0.15067501 0.009418985 -0.10584817 0.12979452 -0.28052795 -0.14955406 -0.16110091 0.16125515 0.0028349664 -0.065615155 0.14496331 0.16452327 -0.21424726 -0.08075417 0.16178657 -0.3037033 -0.1811523 0.17441124 0.101840444 0.061356127 -0.08664336 0.0044562756 -0.083592325 0.07885154 0.3088332 -0.0822044 0.17543565 0.045275606 -0.05603893 0.07880089 0.054864097 -0.070027344 -0.048702855 -0.45139006 -0.68608814 0.06218178 -0.034525678 -0.031378575 0.19139358 -0.15778151 0.009647583 -0.50604993 0.11304104 -0.32423165 0.22288518 -0.26802033 -0.08982523 0.14737603 0.1300072 -0.07662419 -0.1614654 0.30353305 -0.3033283 -0.19789988 0.20402333 0.060692135 0.09461559 -0.05579626 0.26108 -0.2958024 -0.12520584 -0.13998158 0.067921445 0.11133124 0.21220832 -0.103266045 -0.060362488 -0.050492257 -0.004427016 -0.16770256 -0.22463912 -0.17835926 -0.09139088 -0.18027501 -0.19733325 0.083419815 -0.10660122 0.16108559 -0.1187424 -0.017783618 -0.031056548 0.13068329 0.22075514 -0.03192364 0.017429119 -0.070974015 -0.18329535 -0.05889421 -0.10733628 -0.013594895 0.24735959 -0.067001835 0.00436622 -0.1757155 -0.02707931 0.09810996 -0.2796219 -0.044200584 -0.17557012 -0.1670285 -0.06665268 -0.1052407 0.1919631 0.22182597 -0.21583483 0.06361046 0.054131173 -0.21491218 -0.043758743 -0.107364774 0.13826318 -0.15909503 0.13161115 0.11034373 0.026597297 0.045692597 0.1313149 -0.064686 -0.017409796 -0.006569403 -0.07796081 0.133634 -0.0732393 0.008559864 -0.058568545 -0.0022800714 0.35361326 -0.053423308 0.6395256 0.8747809 0.0013538026 -0.031424347 0.1499353 -0.04148417 -0.16554828 -0.051298354 -0.1695008 -0.17117383 0.17487231 0.09385095 -0.26124182 0.18425329 -0.19753325 -0.042594325 0.15009575 -0.06169595 0.1348339 -0.2525554 -0.25009167 0.15457414 0.18448672 -0.15035778 -0.09443594 -0.059253998 -0.10850627 -0.14469749 -0.1448735 0.24339963 -0.07284502 -0.08601421 0.09444891 0.20979242 0.1447692 0.1501912 0.21414639 -0.0036575077 0.2976357 0.49968344 -0.074562855 -0.12819366 0.17657873 0.035613414 -0.11007505 0.046128035 -0.016371425 0.13500497 -0.111176334 -0.11667348 -0.04145972 0.1925856 -0.084443726 -0.051458184 -0.13246922 0.027703311 0.056930587 0.08798163 -0.23419495 -0.1854163 0.071165815 -0.027788334 -0.14843121 0.04237123 -0.17477857 0.13213387 0.101991385 0.035528425 -0.13508245 0.021491705 0.098241754 -0.21365687 0.06448352 0.07783793 0.18436435 0.07674166 0.47082937 0.5061268 -0.10943284 0.08551132 0.018383 -0.28074455 -0.017981471 0.05960742 -0.0046678483 0.04877911 0.099172235 -0.28160623 -0.10545927 0.14590639 0.09252264 0.051222734 -0.031533312 0.11375565 0.048307437 -0.47045085 -0.6815298 0.2122154 0.17386128 -0.032459486 0.14521931 -0.15007557 -0.059810407 0.3097319 0.05333103 -0.32103544 -0.11574037 -0.0052062166 -0.08462539 0.08634792 0.08552013 -0.008922846 0.1379949 -0.10127118 0.45523337 0.59331536 0.23346922 -0.26482147 0.059027746 -0.15347135 0.14610045 0.19679588 -0.16911927 0.015784485 -0.04996893 0.07918261 0.13029645 0.028182121 -0.07101279 0.20114392 -0.049676042 0.007871368 0.17007977 -0.13002332 0.057070263 -0.115271024 0.036544364 0.043069255 0.044300754 -0.1792113 0.15549298 0.13702734 0.06258716 -0.10665905 -0.12000876 0.102425165 -0.07512284 -0.17789415 -0.10047469 -0.18481532 0.3068635 -0.08754557 0.16452406 0.66222095 0.13467588 -0.05029703 -0.023794603 0.13694339 -0.039887648 -0.10586036 
0.00048750182 0.10704676 0.021647261 0.15752667 -0.20086621 0.06969366 -0.046769895 -0.04931814 -0.22025779 -0.04373455 -0.15420397 0.038706336 0.03474705 -0.11935912 -0.20987561 -0.16876349 -0.14771828 -0.20619665 0.22301857 0.062711164 0.13661565 0.039611645 0.01668714 -0.13774535 0.2196174 0.14645603 0.019145308 -0.092740394 -0.21182767 0.03337216 -0.17988731 0.250584 0.10223506 -0.11263792 -0.07280849 -0.06869401 0.08281245 0.06204718 -0.054001603 -0.011474069 
Rect
Linear 40 40
0.11645229 -0.02537568 0.062215567 0.07924429 -0.06658157 0.13113071 0.032641497 0.2912797 -0.08406635 -0.020399427 0.24473704 -0.041462474 -0.15452878 -0.06587401 -0.03967619 -0.01954961 0.23158793 0.23969077 -0.2380203 0.28160682 0.05002781 -0.26287344 -0.052041635 0.111745074 0.049795914 0.05071049 -0.16774678 -0.09591331 0.12684782 0.12424223 -0.016539747 0.2812219 -0.06990671 -0.07770717 -0.09629238 0.013098868 -0.2784674 0.07378158 0.14632048 0.1601158 0.121093564 -0.010426835 0.025190514 -0.12033285 -0.09279739 -0.014739145 -0.121517114 0.031824656 0.103579 -0.14807647 -0.122390606 -0.09685971 -0.06710596 0.021988466 -0.10430935 -0.09460114 -0.010059527 0.03169578 0.17384653 -0.23937243 0.15275875 0.2594565 -0.11169458 -0.07451417 0.100637965 -0.011931523 0.12335295 0.22552289 0.009957552 -0.13629186 0.06940976 -0.043921005 0.12524918 -0.05691937 0.18355803 -0.13692437 0.24432753 -0.19218591 -0.06642153 0.061842877 -0.040786013 -0.017782249 -0.090723224 -0.13315128 0.10274423 -0.10224155 -0.09694662 0.037975818 -0.033072934 -0.023529219 -0.0662439 -0.047444377 -0.017927144 0.16312629 -0.009279277 0.08519042 -0.04347987 -0.18588722 -0.05484328 -0.15954323 0.08191482 0.0012107708 0.131247 0.0007938517 -0.012023145 0.19239776 0.04067813 0.0112137515 -0.12425403 0.1581841 0.05841419 -0.29751837 0.109389074 0.05760374 0.14401853 0.027172387 0.16485262 -0.07305618 -0.105905406 -0.16265264 0.08900285 -0.07343303 0.07530535 0.010091971 0.031466816 0.10062729 -0.076250926 -0.11686299 -0.028627874 0.08250331 -0.13962437 0.05980828 0.029555777 -0.121824674 0.08169162 0.009300893 -0.14311494 0.017852254 -0.15468383 -0.023581374 -0.10802039 0.13943534 -0.050971027 -0.09693968 0.11214906 0.008299217 0.01643575 -0.06419811 -0.05072675 -0.051840324 -0.09149135 0.103784464 0.034840506 0.15394694 0.08106042 -0.033358764 -0.053988487 -0.085161336 0.026184345 -0.06683149 0.1760823 -0.016346678 0.09631742 0.13200107 -0.08215671 0.16538638 -0.012044379 -0.19616218 0.08107166 -0.08246095 0.05994133 0.08188776 0.18792133 -0.05479251 -0.0044417656 0.107908115 -0.20861056 -0.14670974 0.0446265 -0.21922655 0.12983215 0.19041258 0.036949225 -0.07400293 -0.029403094 0.04993486 0.21454173 0.17520171 -0.0010087192 -0.14462158 -0.09207566 -0.2262666 0.118852906 -0.10912073 0.026425583 0.042684074 0.18934642 -0.21643315 0.115424134 -0.049168948 -0.12512995 0.16824318 0.1193493 -0.085532114 -0.10926643 -0.059573546 0.024751693 -0.15358363 0.061325178 0.06678679 -0.16897245 -0.048089936 -0.077758685 -0.18581384 0.08425589 -0.09866733 -0.009607067 -0.032885544 0.18599644 -0.08139904 0.14887583 -0.0587428 -0.03757457 0.03353726 0.05046914 0.11031234 -0.12060986 -0.15703717 -0.0698988 -0.17046821 0.14863275 -0.049070794 0.05631162 0.12329946 -0.023686148 0.019911569 -0.15017006 -0.116504624 -0.031811953 -0.0002669652 -0.03058124 -0.08972018 0.14236255 0.03960914 0.0099483235 0.10108694 -0.1332988 -0.07449521 0.0043520653 0.0129951015 0.061167218 0.018990418 -0.12855174 -0.014541666 0.14995122 -0.09552983 0.03754489 0.10886788 0.08529464 0.065901674 -0.0065573277 0.044705454 -0.073909864 0.11696104 -0.03226371 -0.044239596 0.08824832 -0.13425241 0.14661048 -0.15171023 0.15187351 -0.046174075 -0.14078508 -0.083153486 -0.1217023 0.029339992 0.043212675 -0.091729246 0.10621346 -0.07238934 -0.21192798 0.015434316 0.1602521 -0.108122975 -0.15677829 -0.11213965 0.16675968 -0.01566454 -0.061951302 -0.1538663 0.08890714 0.08696398 -0.027490782 -0.03913783 0.12202441 -0.04963282 0.22070828 0.21164438 -0.019534085 0.11656497 0.0049217283 -0.028622776 -0.18163593 -0.041617095 0.030482925 -0.110568635 0.027754378 -0.21365891 0.071699455 -0.0028991713 -0.005032132 0.10105802 -0.10734707 0.17440046 0.022477938 -0.11900696 -0.042584576 0.010590198 0.017280163 -0.013560584 0.15818852 -0.14660443 -0.005768149 -0.1444754 0.12229658 -0.1296059 -0.07903664 -0.06520955 -0.012747814 0.13167848 -0.10816919 0.07781376 -0.06879143 -0.15039967 -0.10920722 0.0053908327 0.20601217 0.062780075 -0.11424507 0.24017155 -0.004531061 -0.06696895 -0.05613072 0.19925003 -0.056437045 -0.1486041 0.03773343 -0.11032119 0.051950663 -0.047418796 0.067808144 0.20294385 -0.02299029 0.03459893 0.11754089 0.052155092 0.029384138 -0.08563738 0.038036518 -0.020568797 -0.03693253 -0.112619214 0.015233995 -0.11783995 -0.17792054 0.061468944 -0.10355923 0.058744833 0.074337244 0.07014693 -0.0029775281 -0.013830447 -0.08123171 -0.051319186 0.012814858 -0.023778012 0.077824324 -0.015694961 0.077088796 0.2219728 0.047316574 -0.15123539 0.13604578 0.06163818 -0.06719727 -0.09907316 -0.052042983 0.043030404 -0.0519384 0.028106073 0.15380807 0.093178414 0.036552668 0.13522372 -0.009097165 0.130776 -0.022512704 0.031760674 -0.012716757 -0.049467932 0.027698474 0.16993965 -0.12720741 0.09315687 0.12715918 -0.07943378 -0.09546787 -0.030264527 0.044277973 -0.06891928 -0.04297422 -0.006309553 -0.035353728 0.13293512 0.0024487665 -0.12752421 -0.081205025 0.08881681 0.045011185 -0.10135815 0.124444656 0.04212265 0.08039797 -0.12853886 -0.12278637 0.13790832 0.113604546 -0.098333366 -0.048497185 0.061719336 -0.09630485 -0.17670158 0.10710653 0.035923034 -0.07625028 -0.08101045 0.04363162 -0.16728725 0.12538022 -0.018793259 0.11402074 -0.15008225 -0.092554145 -0.012097627 -0.05330232 0.1420577 -0.0638019 -0.19509451 0.057111736 -0.022179114 -0.13885075 -0.11149603 0.12952285 -0.033922587 0.11474528 0.13852037 -0.02748521 -0.001948502 0.0048194793 0.04148823 0.03456986 -0.05609534 -0.099084824 -0.078485444 -0.07350614 0.04274431 0.19356637 0.032894302 -0.09935859 0.14581461 -0.07773673 -0.0565774 0.051727008 -0.19849008 0.15234147 -0.23741804 0.24072923 -0.19548038 0.11281886 0.10300611 -0.061991896 -0.07448109 0.060783952 -0.020422874 0.13729392 0.1422979 -0.13341236 -0.017509496 -0.14625415 -0.14466281 -0.020339895 -0.1095408 0.18766743 0.045593064 0.15228654 -0.078472905 -0.05065101 -0.08737194 -0.13213733 0.02112261 -0.017614093 0.08993553 0.032354616 0.1395687 -0.020771079 -0.029734027 -0.11822063 -0.15327345 -0.11543015 0.068372674 0.064942874 -0.019265346 -0.116962284 -0.06227863 0.13009636 -0.0591744 -0.18993671 0.10607376 -0.11173307 -0.085394844 0.08732776 -0.024997972 0.08619261 0.026650168 -0.067227826 -0.0026207273 -0.021011379 -0.08222167 -0.032800414 -0.06984914 -0.005619165 0.0021959955 0.109944835 0.09166385 -0.09721966 0.030800933 -0.078229316 0.11669417 0.13110295 -0.13699096 0.10959591 0.077640384 0.09031792 0.1484084 -0.12505184 -0.05229667 -0.0315418 -0.09166647 0.09567253 -0.08594544 0.058628406 0.11763567 0.0006319701 -0.0017380713 0.011535908 0.06638738 -0.09824401 -0.047972903 0.14657386 -0.048183948 -0.07055579 -0.08476395 -0.043974962 -0.04027953 0.009373438 -0.027623376 -0.07735497 -0.09827455 -0.037801705 -0.10919677 0.09329108 -0.1401568 -0.10660836 0.0497965 0.058993116 -0.1577884 -0.06962225 0.030527804 -0.10536122 -0.04531602 -0.026606347 0.18223573 -0.08320101 -0.0288632 -0.026671419 -0.007587837 0.107769124 0.23406246 -0.030522719 0.11176908 0.1080237 -0.11874212 0.11154305 -0.090298235 -0.008826493 -0.08006945 0.121197395 0.10632319 -0.07865074 -0.012421242 -0.11762198 0.0074144816 0.014806761 0.050933253 0.05887474 0.13423045 0.16671784 0.08946285 -0.027563438 0.14958198 0.079103194 0.004152679 0.021148715 -0.054671098 0.015614261 -0.029112985 0.15425369 0.033722892 -0.00954701 0.018546427 0.034863155 0.01569456 0.0019250832 -0.12739532 -0.008242591 -0.06995133 0.017674481 -0.20769519 0.018595397 -0.120950654 0.15576166 -0.008337271 0.13165388 -0.10119631 -0.06465151 0.07295479 -0.22012421 0.13833752 -0.054481678 0.12683858 -0.056065567 -0.049997825 0.043738656 0.08144047 -0.08591401 -0.07553472 0.16207242 0.15143906 -0.037394572 0.024877159 0.08908017 -0.04349973 -0.04336209 -0.038827583 0.11674134 0.1440395 0.048690606 0.14744148 -0.042404864 0.16790576 -0.054102566 -0.0010736943 -0.15330727 -0.0032839426 0.1685091 -0.13417622 -0.093422785 -0.09591004 0.13043718 0.13769962 0.021603107 -0.13452156 0.097455725 0.11915599 0.057776753 0.12570786 -0.16681637 0.10032509 -0.063720286 -0.13506147 -0.014803909 0.12880476 -0.073260926 0.10687866 0.077663764 0.028463835 -0.11597184 -0.13896587 -0.08113931 0.113821134 -0.1114359 0.03973062 -0.0653125 -0.08721873 -0.13600822 -0.025888693 -0.06295302 0.061068 -0.06657172 -0.15509966 0.026890106 0.049244184 0.05145182 0.057018597 -0.0115119 0.1917496 -0.12375376 -0.053600892 -0.15548968 0.001990264 0.15284503 0.052391507 -0.04735549 0.07272701 -0.017070856 0.06153604 0.0059912372 -0.24374476 0.12686358 0.019924307 0.052764867 0.07845684 -0.13606972 0.0429462 0.123305894 -0.1253644 -0.08469369 -0.12228084 0.010601658 -0.090481386 -0.13633886 -0.1289526 0.065566674 -0.12236535 -0.09603821 0.094215445 -0.056430433 0.06029014 0.02411878 -0.08901007 0.03473858 -0.12151066 0.05316201 0.09394887 -0.038347065 -0.04089554 -0.002790216 0.018975832 0.11223863 0.043930054 -0.00732617 0.10895116 -0.11602349 -0.08224812 0.057445172 -0.107244976 -0.13097894 -0.06486672 0.113306865 -0.018600622 -0.18455112 0.17163223 0.14531708 0.041673508 -0.12484035 0.12360783 0.25248998 0.31751615 -0.08376309 0.11544539 0.23531981 0.06848547 -0.14281708 -0.060605545 -0.054616112 -0.07947778 0.26270705 0.11044314 0.024551373 0.21238637 -0.083898805 -0.3060034 -0.08549333 -0.03540263 0.023374004 0.082057476 -0.15469877 -0.2532968 0.10630326 0.034956127 -0.06202344 0.151628 0.03640193 0.04436428 0.04070666 0.020227136 -0.14481105 0.12670425 0.052728668 0.15230884 -0.13004951 0.14577383 0.12722643 0.06636799 -0.011011198 0.008547281 0.14600106 0.27875164 0.06987269 -0.10925814 -0.0040641106 0.117596015 -0.009151918 -0.0027811595 -0.15246823 0.023668118 0.24605176 0.18467224 -0.269688 0.26266962 -0.030781953 -0.15399414 -0.057956528 0.112798035 0.00023235095 0.029718962 -0.22801886 -0.29508469 -0.14566356 0.15243962 0.14638631 0.20745839 0.016237257 0.23536506 0.084901705 0.09184549 -0.26407874 0.08097318 -0.04383353 0.1459608 0.056829784 0.021625698 -0.039003618 -0.109686986 0.13249461 -0.12776001 -0.00018389439 -0.044155195 0.087791726 0.13170227 0.02342301 0.1803436 -0.10994674 0.1028234 0.035663113 0.12677068 -0.10772159 -0.035384644 -0.06812089 -0.043158185 0.22852767 0.057826538 0.15330936 -0.0053832214 0.10927971 -0.027507313 0.14194341 -0.091283016 0.061703667 0.11778832 0.121558785 -0.2175566 0.098024294 -0.18009779 0.013298329 0.06641718 0.1065952 -0.27677563 -0.05394412 -0.0594348 0.049260385 -0.14128906 -0.08107109 -0.17569084 -0.121199906 0.11654757 0.103510335 0.110461324 -0.08380792 0.08331202 0.021980124 0.038221046 -0.10498692 0.004123261 0.12878516 -0.08819848 0.02864972 0.0611847 -0.16793402 0.1624524 0.012312426 -0.098983675 -0.0071465224 0.060707144 -0.013851703 -0.15216729 0.05643309 -0.11494116 -0.08271699 0.106424265 -0.061965648 0.0902531 0.15542419 -0.04795806 0.08940466 0.1439352 -0.1669713 0.065738454 0.12498705 -0.068604976 -0.047013454 -0.033719692 0.10989453 -0.018273482 -0.00052363274 0.00011659809 -0.14961722 -0.050027303 -0.12248951 0.030143542 -0.06337435 -0.118419446 -0.07743335 0.13364133 0.043877643 0.07436659 -0.07409297 -0.05610738 0.024610931 0.045706775 0.072331764 0.12225476 -0.087497845 -0.022088356 0.12008293 0.003234763 0.022266626 0.015672036 -0.021791384 0.06953507 0.061056532 -0.10919698 0.11865738 0.010211998 0.03565123 0.12725747 0.042168327 -0.083839156 0.12273759 -0.120017335 -0.0012047878 -0.10704194 -0.111583285 0.021266306 0.044086248 0.002828749 0.011759067 -0.16705318 -0.034591954 -0.022822844 -0.09305397 -0.015734721 0.14859387 0.13808629 -0.110283226 -0.009721668 -0.12270445 0.018647093 -0.12760563 -0.11272709 -0.02431186 0.13371757 -0.0854756 0.146779 0.10200705 -0.041547943 0.16805784 0.23141703 0.1509089 0.0813464 0.12214274 -0.18411975 0.09976307 0.040603895 0.120508224 -0.20648323 0.026529144 -0.012841248 -0.12208232 0.12728663 0.09487718 -0.012576116 -0.03662556 -0.04252238 -0.060101647 -0.07516846 0.03738738 -0.06296747 0.12106006 0.12278458 -0.2352297 0.19179933 0.021114876 0.15443943 0.041216154 0.1450657 -0.3175751 0.02598088 0.1753551 -0.2243987 0.067106634 0.32602185 0.19801581 -0.21576242 -0.035088122 0.06775875 -0.024778124 0.21921284 -0.14547117 -0.12811837 -0.049159233 -0.24106483 0.093303695 -0.12593913 -0.08705464 0.10483245 0.049205855 0.00021257374 0.036010046 -0.19159774 0.16399293 -0.06310352 0.17267318 -0.10741543 0.096921295 0.1696791 -0.07397015 0.09502887 0.15264833 0.11115771 0.15266871 -0.11783956 -0.10342078 0.10447879 0.030647019 -0.081624135 0.26378468 -0.058094695 0.120791346 0.23486762 -0.07399431 -0.08403625 -0.0392817 0.22322786 -0.10160369 0.07008399 0.0022692273 -0.0400578 -0.07620051 -0.06793053 -0.0022997216 -0.0007771351 -0.13880686 0.012131395 -0.13342935 0.14182405 -0.15356964 -0.09018298 0.13325042 -0.06840394 0.13311453 0.14308006 -0.051620077 0.21779495 -0.107875265 0.14783356 -0.20980401 -0.1812385 0.099006474 -0.014500604 -0.17877874 -0.047998637 -0.06543743 0.011209237 -0.034454383 0.24494445 0.0024175441 -0.16244605 0.28797242 -0.3058418 0.17965338 0.20962742 0.1741185 0.07389279 0.02910383 0.27771625 0.26884297 0.040984005 0.08338317 -0.13223787 0.07621566 -0.28603175 -0.036490988 -0.023855666 0.05165657 -0.16136456 0.10929427 -0.15504062 -0.042707898 -0.20301965 0.114684395 -0.07797357 0.09428833 -0.011083131 -0.10626803 -0.012261041 -0.10768749 -0.011020634 -0.07688321 0.09550666 0.13514148 0.15387377 -0.056076042 -0.11026067 -0.117405385 -0.08157591 -0.037376303 0.020924656 0.12768376 -0.12771079 0.1351911 0.15396361 -0.04848628 -0.08316545 -0.14572304 -0.06330097 -0.08593267 -0.05000245 0.026121452 0.0055658286 0.12351095 -0.044519935 0.04615123 0.019213408 0.007626649 -0.16298926 -0.09488371 -0.04510921 0.08879277 0.010963233 -0.06269026 -0.0060677 -0.07659037 -0.012384368 0.09543168 0.018350162 -0.1446321 -0.054508414 0.1348993 -0.07106698 0.094762035 0.045375384 0.011628698 -0.0695616 -0.05451678 0.02861194 -0.07774394 -0.03752295 0.18478507 -0.061406326 0.17130713 0.038615044 0.14067808 -0.05962048 -0.010123599 0.018318262 -0.08187288 -0.011062337 0.14294495 -0.096739374 -0.05012422 -0.051426325 -0.059820727 -0.034647536 0.1567286 -0.080630384 -0.13609864 0.009289908 0.11214688 -0.00040367636 -0.27379668 0.15932159 -0.0038728127 0.00013832696 -0.034749 -0.14598504 0.041047446 0.16162501 -1.5911046e-05 0.12508084 0.118164234 0.10078613 -0.00051783177 -0.16156131 0.04859111 0.1396791 0.21470298 0.18289363 -0.12881142 0.07784252 -0.099928424 -0.33264065 -0.18979254 0.092987284 -0.011237779 0.056051254 -0.22905514 -0.024464898 0.106090024 -0.0034185073 -0.035775788 0.14853857 0.012938191 0.12089149 0.04594341 0.11783097 -0.031047096 0.03675202 -0.056578968 0.059425097 0.011509088 0.07989759 -0.15442811 0.05157251 -0.091634445 -0.12619223 0.0063086837 0.08178079 -0.06807945 0.1357588 -0.023363087 0.04764596 0.1475606 -0.06443253 0.05580915 0.0050991927 -0.022304147 0.013751784 0.06296848 -0.11089025 0.1736457 -0.0030685524 0.15480417 0.16949868 0.019515725 -0.00038589514 0.11807863 -0.06651113 -0.10548849 0.033189327 -0.12994052 -0.04831193 0.080681086 -0.09258414 -0.09775461 -0.15110232 0.2080665 -0.193933 0.06914596 0.12402808 0.24376094 -0.14280619 -0.07722631 0.21241091 0.13219458 -0.076146126 0.02850038 -0.0069545167 0.057263672 -0.121578574 -0.17213967 -0.0061429213 -0.029713038 -0.122876525 -0.086217046 -0.07866446 -0.09418465 -0.1908392 0.052616566 -0.1865072 0.13841683 0.25342327 0.1684275 -0.002418494 -0.10497125 -0.0938656 0.1270169 0.16944604 0.097131744 -0.09210702 -0.110903114 -0.032120116 0.14453132 -0.13508525 -0.14468557 -0.17253944 0.06237535 0.007137141 -0.09550945 0.17006178 -0.24311906 -0.076652646 -0.066142276 0.11566876 0.037315115 -0.13600813 0.008132006 0.23397519 -0.009176547 -0.06651195 -0.0046877475 0.09169735 -0.20440876 -0.038240783 0.035667896 -0.036477283 0.23174463 0.27627504 -0.1619809 0.12084289 -0.0788698 -0.094477236 -0.01775571 0.07940013 0.115992896 0.04369136 -0.11715941 -0.04368785 0.042687967 -0.10190323 0.14854561 0.21054333 0.047309477 -0.08779392 -0.04317114 0.006204293 -0.101422735 -0.022212585 -0.061758626 0.08571996 -0.16784528 0.14657398 0.021205671 0.15310271 -0.10704698 -0.115524106 -0.06263282 -0.040674016 0.021813745 -0.056227934 -0.028414752 -0.12952726 -0.015234789 0.048685234 0.0071897935 -0.056186754 -0.14393243 0.031333536 -0.085326195 -0.10648905 0.12620729 -0.074761406 0.02089069 -0.15562534 0.093890525 0.0763853 -0.044750582 0.016653314 0.074487865 0.10992403 -0.0963162 0.06683735 0.02094765 0.15166588 -0.077149406 0.03440387 -0.08619761 0.092600934 0.14249304 -0.11234572 0.041452374 0.082746126 -0.04925765 0.1376898 -0.031027963 -0.037441686 -0.07018419 -0.12431803 -0.052932475 0.07942888 0.064716265 -0.13724717 -0.03326247 -0.019136796 0.106476404 -0.14458252 0.112206094 -0.15172149 0.009019109 0.06519204 -0.037104122 0.074540086 -0.14973593 0.057943746 0.06323571 0.023488602 0.13156934 -0.094555944 0.14868797 0.026428118 0.06525693 -0.1240129 0.10833531 0.11500925 0.12691374 -0.107839644 -0.104774795 -0.061300643 0.049136057 0.1367914 0.10944784 -0.0073125334 0.16310406 0.08271352 -0.1350927 -0.16953574 0.14132692 0.18296258 -0.11738393 -0.15093882 0.16477557 -0.01760989 -0.07538281 -0.19047219 -0.042857964 0.003363925 0.12054469 0.079748966 -0.19432081 0.33391565 -0.072419375 -0.065014645 0.0727667 0.18524386 0.09219004 -0.0094763525 0.036720287 -0.19062687 0.11888014 -0.10050434 -0.061631672 0.12873234 -0.0458953 0.020857338 -0.037711833 0.15734924 0.0053875097 0.17885956 0.07892872 0.19168667 0.056363605 -0.03099492 0.0063213375 0.11086345 -0.08628842 0.13498637 -0.117737226 -0.12191352 0.14249423 0.044510294 -0.047480114 0.14914724 -0.0032479307 -0.06418574 0.07418162 -0.02821548 -0.16618156 0.08059703 -0.11138063 -0.069080494 0.049066015 0.17672543 -0.069948085 -0.027777929 0.08031287 0.0064764195 -0.02532351 -0.06769762 -0.033871673 -0.019258277 0.10096211 -0.14623755 -0.06043732 0.09764456 -0.1518344 0.038894497 -0.08012002 -0.0035201649 -0.073681384 -0.19144362 0.016074928 0.008706743 -0.18446125 0.009307783 -0.13476689 0.04032442 -0.02399307 -0.021677181 -0.05701927 0.01619185 -0.14808512 0.20149569 -0.001677994 0.14719523 0.11686364 0.1271748 -0.041841146 0.069814816 0.0019302658 -0.26775572 0.10260535 0.051163785 0.19703716 -0.14451753 0.22223602 0.015329861 -0.041138195 0.004768908 -0.0053582937 0.14433718 0.105626225 -0.11793951 -0.12820068 0.06786226 -0.11979377 0.13052295 -0.030326469 -0.23068966 -0.11631881 -0.08270978 0.16823038 -0.13694276 -0.14861238 0.07825239 -0.052280586 0.0029168914 -0.14874318 -0.14032847 -0.09395007 0.1519125 -0.12247903 -0.15069114 -0.028854292 -0.060781065 0.055379704 0.15573023 0.04830249 0.017517876 -0.06786457 -0.014957735 -0.018077997 0.057529412 0.15748356 0.15906896 0.028309595 -0.13802795 -0.0755573 -0.05401128 0.006305188 0.12514609 -0.13002609 -0.026035335 0.09863528 0.021183014 -0.08663247 -0.03597247 -0.005138001 -0.15628575 -0.0033256146 -0.14549471 
0.07010241 0.15651137 0.13225465 0.028195905 0.23651084 0.09496878 -0.0485401 0.08063032 0.03914353 0.0071800128 0.03371782 0.16526501 0.09916519 -0.17413682 0.10606271 -0.031968743 -0.027857635 0.0727567 0.015061252 -0.0054033045 0.10811192 0.050662637 -0.015524902 0.087870106 0.16080299 0.10545736 -0.090103135 0.15794522 -0.08411028 -0.032131113 0.0884235 -0.030187044 0.21680884 -0.0071281176 0.10658395 -0.14646655 -0.07272236 0.15626168 0.16839169 -0.10281557 
Rect
Linear 40 40
0.13431409 -0.0872182 -0.029658124 0.029303527 -0.1363378 0.10775209 -0.11326623 0.01775565 -0.086699896 0.15538985 -0.13361138 -0.10341923 0.023837596 -0.023242457 -0.08750499 -0.056216948 -0.051705495 0.0012125573 -0.12930745 0.23430462 0.18204398 0.09160174 0.0145016955 -0.13244385 -0.035695065 0.028711118 -0.033171814 0.0014748074 -0.14953783 0.02310821 0.14058727 -0.10255625 -0.22683541 0.17694853 -0.013005651 0.10605328 0.11776471 -0.015556362 -0.010357406 0.11977699 -0.12297087 -0.11374938 0.019337414 0.0139709 0.05498739 0.14991689 0.13911463 0.12120091 0.040883902 0.1400061 -0.04040522 0.03870679 0.035311397 -0.11396611 -0.13565484 -0.043000028 -0.11396368 0.051748183 0.08322111 0.015053853 0.07991144 0.010587638 0.13549617 -0.0910909 0.10580162 0.0831148 -0.13647051 0.12970665 0.11037695 -0.12428997 -0.06792273 -0.0022036016 -0.13612127 0.018628133 0.040048376 0.09936209 -0.11605692 -0.056483317 -0.13220392 -0.055177826 -0.16334914 0.05712044 0.07419596 0.14215602 -0.026904501 0.089441724 -0.1777364 -0.038522974 0.07462914 -0.05156082 -0.04096311 0.077816084 0.05894703 -0.05956872 -0.03185656 -0.15109472 -0.16690323 0.0644335 -0.002318881 -0.19553305 -0.16953926 -0.11272377 -0.18140963 0.12076543 -0.098893486 0.17675504 -0.22632985 0.054132327 0.15868008 -0.030585568 0.07445417 0.081741855 0.12876084 -0.111460514 -0.072728224 -0.1433461 -0.22910146 -0.05474032 -0.046586163 -0.017901523 0.09192341 0.0040070303 -0.025807558 0.018727165 0.0011795027 0.12074019 0.018202504 -0.029083492 -0.06529253 -0.034025982 -0.0462665 0.018739251 0.10910486 0.01178718 0.0305203 0.03645671 -0.121619776 -0.00032068032 0.13470589 -0.1181467 -0.13379289 -0.025923105 -0.022273833 -0.024598613 0.102308646 0.06846814 0.07420354 0.059189 0.1011791 0.031772006 0.10036839 -0.012289704 0.06317778 0.14255393 -0.06409545 0.015234047 -0.095479935 -0.013697404 -0.12039761 -0.12816432 -0.096535966 0.09003599 0.09905115 -0.018246617 -0.004183616 0.12259633 -0.10867377 -0.02454291 0.1189688 -0.14515714 -0.13090357 -0.0032345294 0.040237322 -0.116437435 -0.03244203 0.114741154 0.08905225 -0.01774802 -0.11699952 -0.05254734 0.111754045 0.02162616 -0.054025616 -0.043035787 -0.14661579 -0.033732887 0.0933166 -0.014708458 -0.12563188 -0.11838358 -0.09547629 0.08649328 -0.12037063 0.025746543 0.08141629 -0.079727285 0.048782878 -0.017966732 0.086711735 0.06312026 0.104131676 0.10133731 0.005507755 0.10251568 -0.06323448 0.04951708 0.07636456 0.08062763 -0.13406706 0.048648026 -0.13457987 0.09649107 -0.12987886 -0.15560886 -0.042103294 0.071766436 -0.036922626 0.100679494 -0.052977994 -0.10435801 -0.13412172 0.056003224 -0.047356058 -0.15058789 -0.048284486 -0.1359449 -0.088067256 0.07292285 0.1108356 -0.1547115 -0.05594827 0.09096416 -0.06909888 0.05299694 -0.07854188 0.027510697 0.01491014 -0.023417972 -0.103676856 -0.13716428 -0.019503223 0.16209154 -0.112710744 0.077385336 0.18614657 0.060554728 0.09640353 0.06727329 -0.15799712 -0.01853706 0.13271047 0.061999254 0.07875265 0.020316966 -0.075975046 -0.13947594 -0.08980608 -0.040707543 -0.059706 -0.15130264 -0.09608509 0.17517017 -0.031092944 -0.022208745 -0.005603086 0.1944529 -0.18087992 0.1703741 0.14234582 -0.064429305 -0.044606637 0.07453809 -0.07979798 -0.091903605 0.15626994 -0.023764793 -0.14878197 -0.09916283 0.20520997 0.023377929 0.13147925 0.0062752212 -0.032442745 0.13485982 0.007729153 -0.005691909 -0.13693383 0.11056871 0.015884941 -0.10992424 0.10694989 0.09538611 -0.010605544 -0.009764829 -0.039940447 0.034652833 -0.032318104 -0.10246138 0.08890692 -0.027997123 -0.109838836 0.098007634 0.1279057 0.03116167 -0.037270214 -0.050924793 0.08239491 0.13065796 0.07901141 0.0407156 -0.07549626 0.013139448 0.054315045 -0.09003452 0.014570355 0.06213514 0.008300099 -0.14796424 -0.014838445 0.05962231 0.12007335 -0.12881978 0.014270074 -0.082254075 -0.03924394 0.06361163 -0.022085726 -0.024385529 0.11146967 0.05100161 0.14737064 0.13691951 0.047222514 0.06615695 0.1486697 -0.021308001 -0.13060686 -0.11882372 -0.08134018 -0.07703873 0.12894697 0.020668464 -0.018995188 -0.10376651 0.044674654 0.10021056 -0.16038465 -0.15836635 -0.13685955 0.123504974 -0.09885167 0.15008329 0.1082883 -0.086903304 -0.07033478 -0.019636823 -0.010220909 -0.1637729 0.09305945 -0.11394851 0.30263835 -0.055915877 -0.13108838 0.06622435 -0.2677168 -0.111647174 -0.1403151 0.20435485 0.12636042 -0.060057335 0.02457161 -0.07994672 -0.04957827 0.059569217 -0.05034865 0.12182323 0.19632511 -0.06652025 -0.13467437 0.24808797 0.19002901 0.08849725 0.07113967 -0.008710757 -0.19669236 -0.25898287 0.116267025 -0.14878546 -0.0677979 -0.12389048 0.12836729 -0.032401685 -0.25815445 0.18001726 0.10389366 0.07126652 0.058219608 -0.114899494 -0.04631327 0.059027314 -0.11195687 -0.07748393 -0.1507559 -0.103990644 -0.11455608 -0.123462155 -0.09310802 -0.14348586 0.023700148 -0.099387676 -0.02937606 0.022870779 0.080553204 -0.091872476 0.023267522 -0.027846515 0.06061025 0.014754057 -0.041298114 0.10611327 -0.13162614 -0.13560872 0.033809215 -0.08629412 -0.12625703 0.027325168 0.015427113 -0.03398271 0.10106893 0.06080845 0.10169776 -0.15562235 0.018904865 0.05356112 0.049955443 -0.089439906 -0.00038605928 -0.09677751 -0.018672585 -0.07610081 0.14811625 -0.053103346 -0.1198256 0.006104261 0.1222675 0.10519116 0.12459471 -0.090093814 0.17430454 0.10348083 0.0034353717 -0.09883338 -0.09069467 -0.06407549 -0.007993631 0.00335095 -0.114681065 -0.112434536 0.13611414 -0.13368526 -0.12971531 0.10594476 0.047219872 0.1431405 -0.122825325 -0.16219583 0.12567653 -0.085955665 0.11323334 0.037468534 -0.10652212 -0.020115435 0.09182369 -0.11679202 -0.09249565 0.008226719 0.011932886 -0.16203628 0.07960892 0.13470441 0.15735523 0.05839142 -0.025559988 -0.10518809 -0.1283093 -0.0976654 0.099854216 -0.070547044 -0.09254303 -0.0050975992 -0.096752174 0.098035075 -0.13579063 -0.051684294 -0.16173457 0.01271703 0.15507175 0.14455529 0.0916001 0.16750585 -0.08153514 -0.104714945 -0.014251992 0.008109256 -0.14432757 -0.05761809 -0.15065101 0.09198461 -0.03288293 -0.008292713 0.10089569 0.021534769 -0.009834069 0.053610027 -0.059876926 0.08108971 -0.08297381 0.045443133 -0.11264401 -0.035197243 -0.047885053 -0.07362063 -0.13644767 0.086576596 -0.07862657 -0.049944416 -0.12532958 0.05848892 -0.15111735 0.07512967 0.1118661 0.06950435 -0.05725877 0.15674545 -0.12568891 0.034751803 0.017698005 -0.09662899 -0.03802631 -0.101335585 -0.017890602 0.060401604 -0.047331825 0.03576225 -0.015905961 -0.15311818 -0.05369068 0.09095526 0.087403595 0.120856 0.04080929 -0.13241763 -0.06220895 -0.13918835 -0.055047065 -0.14911987 -0.047446333 0.07297389 -0.09181467 -0.005086571 -0.07821988 -0.19498703 -0.16869827 -0.12949027 -0.10855143 0.039281193 0.12199038 0.17270643 -0.029806426 -0.11647751 -0.011173902 -0.06630065 -0.054933023 0.09418508 -0.078610495 0.12937127 0.16882128 0.14616035 0.052528083 0.11882849 0.15378171 0.09658531 -0.0007454116 0.018188529 0.06667791 0.07935608 0.124207385 -0.16745047 -0.09064638 0.06569186 0.16792297 0.12323072 -0.21302974 0.05804059 0.091555834 -0.060966037 0.012554898 -0.1703483 0.09493304 -0.08761115 0.09792235 -0.06354129 -0.12291109 0.11694254 -0.22815128 0.03043913 0.15446514 -0.1261221 0.037943415 0.08144961 0.03203251 -0.049711354 0.10115412 -0.03519491 0.062215433 0.043339122 -0.027150743 0.14519027 -0.12252766 0.11172548 -0.0705861 -0.049086735 0.11870256 0.052249916 -0.05491299 -0.16311152 0.14247388 0.057302706 -0.09681878 0.022464024 -0.018465577 0.063581824 -0.17852616 0.0928126 0.09136564 0.047363974 -0.011085893 0.08037863 -0.025047496 0.04817816 -0.039225448 -0.016511576 0.10623048 -0.006224226 -0.041135818 0.13940816 0.05713339 -0.10735083 -0.06469843 -0.091299586 0.05908162 0.057402875 -0.1317265 -0.012520484 0.047301315 -0.065332435 -0.04809299 0.091866426 -0.08791649 -0.07514798 -0.1613346 -0.10408847 0.12060533 -0.1329517 -0.156583 -0.0010131748 -0.0165671 0.11957491 0.03562448 0.06299344 -0.056984372 -0.056629293 0.035943624 0.07209296 0.036907516 0.045693133 -0.14773111 -0.13486981 0.061958045 0.12803246 0.10430486 0.085679255 0.103237785 -0.14595836 -0.13392547 -0.09962714 0.025500424 0.14281093 0.086616844 0.078713894 0.14823331 0.083652966 0.0048236502 0.04770732 -0.032382853 0.026458004 0.11807998 -0.14756773 -0.025362425 -0.07721929 -0.059075817 -0.0031888224 0.13279706 -0.091385566 0.014772771 0.045932528 0.11562333 -0.01707954 -0.09617089 -0.14969583 0.0929599 -0.09769414 -0.09561789 0.04747929 0.076473124 -0.14073631 0.012606658 0.14930445 0.051187612 0.094854966 -0.07073001 -0.044544302 -0.059275515 0.052302152 -0.14279449 -0.08994959 -0.057082005 -0.09745565 0.022206694 0.09260832 0.085112914 -0.0452018 -0.13617322 0.09794052 0.12641715 0.07124905 -0.09548564 0.10538046 0.09418802 0.04349859 -0.07330697 0.08807187 -0.037626453 0.111812994 -0.13503796 0.017509028 -0.13676369 0.05627486 0.10821836 -0.12623516 -0.09560466 -0.014882207 0.064826176 -0.13589004 -0.13957223 -0.0762045 0.11718382 -0.051948294 -0.03408263 -0.065822594 0.01080743 0.090401225 -0.13305399 -0.034336656 -0.035094798 -0.09312725 -0.056198157 -0.1406751 0.06538291 -0.03977697 -0.04465416 -0.12817729 0.11323037 -0.10693507 -0.088287905 0.04329128 -0.083500415 0.05927669 0.018487029 -0.047632802 -0.07712291 -0.035208587 0.15280499 0.123947725 0.05129474 -0.120322 -0.038934752 -0.10126695 0.13152334 -0.11053378 0.0056950925 0.052320182 0.09026018 -0.05945594 -0.024504203 0.13360833 0.13598095 -0.08118552 0.060376298 -0.15723287 -0.074114636 -0.16068932 0.122953214 -0.061012298 -0.009354095 -0.03137386 -0.1289567 -0.11834601 0.0788689 -0.15437381 -0.1558609 0.10439956 0.038161483 0.08990134 0.016812485 -0.05549268 -0.09590666 -0.14243595 -0.059902284 0.07181867 -0.15458994 0.06071676 -0.12944901 0.072301075 0.05164662 0.113522984 0.14471099 -0.15572162 -0.06733232 0.08139165 -0.04069336 -0.13323948 0.0009069558 -0.08585808 -0.076627426 -0.10209483 -0.14984463 0.1548965 -0.062398765 0.06159389 0.0310702 -0.0796906 -0.054425456 -0.083692744 -0.2366503 0.15073943 0.13142541 0.024076754 0.1575734 -0.054943286 0.058476005 -0.23879503 -0.00798112 0.118782625 -0.1844196 0.009561615 0.11176984 -0.06801108 0.06553598 0.14194398 0.3034187 -0.13065866 -0.017004946 0.14188269 -0.21681346 -0.17649043 0.052242372 -0.2897664 0.018066242 0.019589087 0.25148928 -0.111039914 -0.18628053 0.17059244 0.14316559 -0.055415563 0.02388867 -0.09676418 0.05366497 0.010653787 -0.017700078 -0.12478536 -0.03110635 0.11130334 -0.07431904 -0.1372946 -0.063340664 0.11539184 -0.14568357 -0.029884709 0.037031017 0.025730878 -0.03792247 -0.062293444 0.062044162 0.012730729 0.00437378 -0.14864503 -0.0220879 0.054371405 0.06405589 -0.033602815 0.11016952 -0.12243303 -0.14754581 -0.0025019627 0.059067294 -0.059381463 5.026301e-05 0.020028923 0.103006385 0.058864076 -0.13771854 0.09674829 -0.10033375 0.12612616 -0.13241024 -0.019077783 0.10471951 0.027151227 -0.01949881 -0.102085814 -0.12825061 0.10683225 -0.0020412207 -0.052212738 0.12443824 0.032898158 -0.10850137 0.065491706 -0.1333761 0.114603 -0.08704726 0.043319255 0.029124513 -0.13150452 0.14408867 0.115076825 0.15444453 -0.039860733 -0.13317046 -0.12352353 0.04696107 0.008644 0.022105843 -0.11313909 -0.067185365 -0.009510651 -0.07445422 0.09591101 0.0461614 0.06904727 0.10470669 -0.10145183 -0.0666744 0.12415476 0.05804047 0.116108224 0.08784224 0.15378098 -0.1818533 0.06866574 0.13611308 -0.15147156 0.0145409 0.17586654 -0.008343235 -0.1312257 -0.0010556458 -0.109659046 0.08161409 -0.065207586 -0.18466307 -0.008205038 0.048571125 -0.043841388 -0.12084551 0.12568356 0.10571138 0.025939018 -0.039864846 -0.05543747 -0.07638853 0.0014827297 -0.05481976 0.19877033 -0.19332254 0.05509531 0.16127557 -0.04126189 0.0791677 0.11123934 -0.10297789 -0.123523615 -0.05140196 0.105417214 -0.027030211 0.17533484 0.056295373 -0.12510204 0.18062401 -0.057925377 -0.07897616 0.08001768 0.072931714 0.04888885 0.06390756 -0.1489361 -0.16385432 0.03555987 0.12611365 -0.031957194 -0.101883315 0.034407303 -0.03136537 0.067673765 -0.10290073 0.04790636 0.13138223 0.091623366 0.1765682 -0.17078671 -0.017472098 -0.10221555 -0.082051314 -0.023822423 0.06156361 -0.09069054 -0.030152885 0.0046759443 0.1416762 0.07705827 0.026670743 -0.022952251 0.061321598 0.010084597 -0.049912687 -0.06887177 0.060068227 -0.07241835 -0.09059334 -0.029120155 0.002099021 -0.02485885 0.12470957 0.15214257 -0.01425928 -0.022670487 -0.031604134 -0.0067027565 -0.0032014395 -0.04136346 0.03355209 -0.008085256 -0.01068163 -0.18900089 -0.0058150887 0.034852706 0.044010807 0.029534936 -0.12968433 0.12704277 0.120816626 0.03801144 0.12834449 0.09489104 -0.11218751 0.043652367 0.090913355 0.04898901 0.010981056 0.04208885 -0.0023633628 -0.07359684 -0.06875914 0.11383615 -0.060472194 0.012730713 -0.041091356 0.15143216 -0.08376757 0.0835778 0.13395633 -0.053857327 0.14837585 0.17372416 -0.030526705 -0.020279212 -0.2506074 -0.033552684 0.19416693 -0.059375234 -0.06279215 -0.041731536 -0.11447639 0.03329671 0.1157944 0.2058088 0.11672793 -0.14933917 -0.24633552 0.1983089 0.053209916 0.046929713 -0.04982682 0.090499476 -0.2271413 0.27948937 0.04891128 0.12963729 -0.14794672 0.07007742 -0.123219706 -0.109284356 -0.093196064 -0.14163584 -0.21072078 0.1941803 0.23183756 0.0065592784 0.09426427 0.0429217 -0.086428694 -0.053677373 -0.031037886 0.03406168 0.11455352 -0.08948574 -0.14925417 -0.09473526 -0.13173485 0.045041125 -0.05435334 -0.02630571 0.12646447 0.021134475 -0.03329532 0.1460304 -0.04191394 -0.12527004 -0.13879813 0.06026804 -0.053786863 0.13483052 0.03166083 0.091568016 0.11605456 -0.06643872 -0.0028316865 0.09627788 0.09001157 0.0067066476 -0.13094914 0.13794239 0.108724855 0.07432259 -0.055850483 0.12971283 -0.15258445 0.1541274 -0.12277622 -0.08801811 -0.06097512 -0.071870595 -0.11914467 0.118258074 0.015662134 -0.015772372 -0.038919695 0.13756551 -0.09882119 -0.025609374 -0.015661001 0.05022274 -0.101074494 -0.087641574 -0.03811661 0.047330037 0.115851805 -0.108574726 -0.14618623 0.12480666 0.02017875 0.057004318 -0.086277045 -0.07832904 0.14204259 -0.028947666 0.11342697 -0.0690753 0.15144034 0.15145613 -0.035682425 0.14082317 -0.0016902387 0.052808553 -0.12421716 0.12154411 -0.007950455 -0.07161441 0.09138029 -0.15890485 0.0059441123 0.036959097 -0.13102329 0.113410525 -0.020550279 0.061034366 0.1417501 0.08120213 0.11047786 -0.124353744 -0.017101975 -0.1368827 -0.019280579 0.12742095 0.0072506103 -0.13624683 -0.09225142 0.17633876 -0.042637713 -0.11506919 0.09085142 0.15197693 -0.010209643 -0.15796085 0.019354949 -0.05633489 -0.11112961 0.10958638 0.14463063 -0.12824458 -0.18165435 -0.02301477 -0.017437011 -0.13835108 0.097455435 -0.09061503 -0.14427714 0.08363545 0.022906883 -0.15846117 0.01034787 0.117291376 -0.28484598 -0.080403306 -0.1281661 0.05743839 -0.13064654 -0.0479729 -0.045377444 -0.26698998 0.00045799007 -0.06417936 -0.04417827 0.05226442 -0.009446704 0.05211278 -0.023131667 0.15643826 0.20494708 -0.057798516 0.0664301 0.1369723 -0.25930816 -0.088764206 0.15308101 -0.054381944 -0.13063966 -0.03771178 0.037670646 -0.21026514 -0.12096454 0.11643067 0.090179175 0.037249774 0.010080293 0.11031874 0.054908082 -0.024017822 -0.0674281 0.07942787 -0.08671575 -0.057885356 -0.062508 -0.12935449 -0.08664279 0.08444467 -0.027879894 -0.01891552 -0.14720485 -0.1473699 -0.048813276 -0.0037836432 0.1335959 0.014241219 -0.08126457 0.0036417842 0.0979325 0.0038741827 -0.009081781 0.012019366 -0.13685203 0.045079023 0.00524652 -0.1194818 0.105515674 -0.10867095 -0.14749818 0.021260455 -0.09276145 0.09470083 -0.05428236 -0.056730628 0.1571985 -0.011789471 -0.12355887 -0.12975225 0.10773547 -0.12143421 -0.30114874 0.16117695 0.03637469 -0.15214972 0.19484596 0.1363814 -0.022822939 -0.1394299 -0.2095668 -0.12195664 0.057548653 -0.033336777 -0.18881014 0.09639954 0.056837637 -0.075949125 0.11825076 0.07616878 -0.07175678 -0.14243342 -0.03952904 0.2049092 -0.09122072 0.09583317 0.09646671 0.30008882 -0.1039157 0.32465526 -0.007928483 0.15364379 -0.05707633 0.002613954 0.1423763 -0.025096353 0.0566451 -0.1239404 -0.25192925 -0.04994773 0.23368481 0.0021546816 -0.11333439 -0.08892591 -0.061450217 0.14854309 0.039159648 0.07745826 0.089629665 -0.07372539 -0.07085971 -0.13577628 -0.075527646 0.012219829 -0.16703476 -0.059970614 -0.003659658 0.104126 -0.051026806 -0.112329476 -0.07049388 -0.025169313 -0.119510464 0.1562475 -0.13600887 -0.044463485 -0.13107605 0.19601822 0.0855055 0.048687343 0.06894675 0.13734609 -0.10531459 0.08471579 -0.09706438 -0.17706072 0.115112774 0.022500608 -0.17774357 -0.034788053 0.15365376 0.16469842 0.13216808 -0.22488368 -0.07615745 0.06554946 0.02867725 0.024180323 0.1481729 0.10046357 0.09545476 0.08542153 0.03964594 -0.17248352 -0.067810334 0.06720171 -0.0043104123 0.07134867 -0.09771041 0.051346555 0.051735643 0.06973206 0.14528131 -0.10199519 0.1301645 -0.043375913 -0.07526562 -0.108606555 -0.12480447 -0.25000265 0.12028386 -0.030062193 0.14399168 0.06754406 -0.18934426 -0.11752851 -0.13900355 -0.15838742 -0.054266036 -0.06362376 0.1386461 -0.032677308 0.09209968 -0.12673105 -0.099257566 0.02151289 0.075136244 -0.07618626 -0.084028676 0.048975702 0.107115045 0.08978527 0.056263335 -0.016665798 -0.035349347 -0.030296944 0.07105503 0.12703694 -0.034875486 0.0589272 0.014712643 0.13383998 0.016403139 -0.1677867 -0.10413104 -0.08569892 0.08610289 -0.09352286 0.024746584 0.1315793 0.011478955 -0.0458987 -0.107390784 0.0017887494 0.122267745 -0.12497276 2.326782e-05 -0.029842753 0.07533567 -0.16393341 0.13564354 0.01989891 0.117859215 -0.015592789 -0.095416516 0.099252366 0.114976995 0.111003436 -0.14587785 0.029430777 -0.07366065 -0.06361756 -0.04619747 -0.045119867 0.041646026 0.05580778 -0.10181943 0.09909173 0.05410149 -0.0060383603 0.07420747 0.026855474 0.055712376 -0.03095303 -0.021527499 0.045665313 -0.033612113 -0.09355943 0.14651066 -0.019621557 -0.093223006 0.025436785 -0.10565055 -0.1498624 0.083098784 -0.03557511 -0.06493231 -0.048463415 0.09818857 0.1272831 0.051178943 -0.05872693 0.14316633 -0.11351229 -0.10732736 0.017039118 -0.06657501 -0.08192526 -0.14675982 0.13785903 -0.10687493 0.16046892 0.037932243 -0.088368915 -0.018429473 0.10978927 -0.06046281 -0.03249662 0.13737172 -0.021525953 0.013469154 0.198711 0.19725448 -0.088694856 -0.0484095 0.13456525 -0.058116585 -0.15732257 -0.08366957 -0.271773 0.0991627 0.07456913 0.057756253 -0.038632683 -0.26255378 0.1950325 -0.07064418 0.015084465 0.18509285 0.094140016 0.021349339 -0.13509437 0.30965242 -0.0877967 -0.12765507 -0.10392539 -0.09500317 -0.062995024 0.12956542 -0.065133624 -0.081172474 0.0024342719 -0.1499968 -0.09939069 0.12485756 -0.08386192 -0.22317633 0.006729087 0.082672216 -0.073531836 -0.061127827 0.25127074 0.07343956 0.10822894 0.022691853 -0.11427043 -0.08004033 0.01849109 -0.022098899 -0.17572299 0.059383046 0.042099893 0.10892995 -0.09535372 0.028477434 -0.037688483 -0.16582415 0.07963247 0.09913788 -0.14223456 0.090480536 0.020446079 
0.06949577 -0.06534321 0.14375229 -0.15004425 -0.059788417 -0.043877527 -0.04954633 -0.13599841 -0.052440044 0.14351308 -0.054181278 0.020676175 0.017072551 -0.064733684 0.036988325 0.029606558 0.015456204 -0.13522424 -0.08418517 -0.03185526 -0.039049372 0.04429955 0.07270732 -0.10791157 0.026294978 -0.0025251384 0.0063158316 0.072567895 -0.11954565 -0.06407879 -0.07498675 0.050306357 -0.0053340495 -0.075416416 0.11155468 0.116742924 -0.16053995 -0.050976507 0.015697774 0.19690512 
Rect
Linear 40 40
-0.012042177 0.0038415587 -0.11073725 0.101363696 0.016709192 -0.07955142 0.064531125 0.070468776 -0.14640811 -0.006648626 -0.012313023 0.11210239 0.040102918 0.090851024 -0.13776544 0.08985537 -0.056983307 -0.040229112 -0.020523697 -0.13746591 -0.15795693 -0.06774358 -0.090490825 0.06948945 -0.076691695 -0.041803677 0.12041113 -0.023425028 -0.068284914 0.033996508 0.10832909 -0.012054761 0.14505939 -0.17494674 -0.05990633 0.11088147 0.014041506 0.09251513 -0.01830431 -0.0066771926 -0.06572537 0.063969776 -0.097107574 0.076616585 -0.14065826 0.102739885 0.0108632445 -0.09010666 0.042640507 -0.013121232 -0.026044756 0.138559 -0.060537733 -0.0019801855 0.0010035336 -0.09552594 0.1531355 -0.13514943 0.054332584 0.0044836253 -0.11086184 -0.108156644 0.042473406 -0.053116888 0.011230096 -0.035937674 -0.030180693 -0.13136749 0.027997285 -0.038742878 -0.033713438 0.093955144 0.01353249 -0.024902657 -0.045083843 -0.044471964 0.015137687 -0.09430644 0.08711964 -0.10797521 0.12583308 0.019725904 0.03336945 0.1555462 0.14160557 0.045644313 -0.026589513 -0.0009163618 0.002924174 0.037499025 0.034091145 -0.0911112 -0.11015025 -0.022884011 -0.06774336 -0.105485566 -0.110056646 -0.14815994 -0.113507375 0.0034172237 -0.0093894005 0.14672132 0.09959526 -0.05579868 -0.060106605 -0.12213831 0.1481599 -0.062336683 -0.11917062 -0.06520792 -0.060154483 -0.12715144 -0.08277248 -0.06778253 -0.14748123 -0.09398499 -0.1370033 -0.048173197 0.06641489 -0.12725812 -0.002351113 -0.057920415 0.088641986 -0.099189006 -0.13852362 -0.011011 0.19215184 -0.17321472 -0.03784674 -0.21625078 0.043343946 -0.13009441 -0.050258882 0.08678226 -0.16542421 -0.038957965 0.081155844 0.11899788 -0.11883542 0.113242835 0.044524897 -0.18181622 0.005848245 -0.10057564 -0.03357092 -0.034150027 -0.013613529 0.22459213 -0.1561243 -0.032024562 0.0020307302 0.07446849 -0.13622846 0.2987904 0.096063726 -0.12592037 -0.07397137 -0.05774431 -0.047737997 -0.11348298 0.17899126 -0.0691757 0.010008731 -0.02430017 -0.03794258 0.04513414 -0.074151374 0.052877426 0.013769434 0.23279738 -0.027231082 0.059913296 -0.032317013 -0.072622314 0.16767667 -0.10320459 -0.12995009 -0.067010574 -0.079992965 -0.044343587 -0.1550031 0.01580543 0.060632333 0.06769341 -0.14752436 0.14171872 -0.009455656 -0.02486876 0.12239646 -0.14882863 0.112531975 0.19141331 -0.10358091 -0.1547269 0.091253385 0.025498686 0.119425304 -0.05282429 0.15091793 0.16590314 0.11301813 0.1556536 -0.008636922 -0.016025499 0.14151622 0.09004171 0.047668427 -0.1057149 0.07823222 -0.12906922 -0.15678144 0.036495026 -0.090853594 -0.044800848 0.012747674 0.09421186 -0.0872093 -0.048375607 -0.0389631 -0.07430946 -0.019319788 0.12539937 -0.11431861 -0.14504528 0.00681354 0.021314165 -0.063464 -0.04066063 -0.11034485 -0.042208858 -0.009151727 -0.008488545 -0.11831976 -0.1482405 0.12705766 -0.09361267 -0.120808534 -0.08498933 -0.12010157 0.04155895 0.08175972 -0.09003477 0.20103809 -0.06936445 -0.02434896 0.11126754 0.1666027 0.06834074 -0.087125 0.041854154 0.124353185 -0.17231004 -0.04213741 0.07313846 -0.1240848 -0.09205569 -0.049202364 -0.05794695 -0.02296944 -0.00544591 -0.11865078 -0.0722311 0.10785854 -0.09115133 0.17070852 -0.15070876 0.019799216 0.04878647 -0.02903851 0.07483889 0.07403129 -0.1628647 -0.04839745 0.1783139 0.1896726 -0.015550974 -0.057286292 -0.089920655 -0.0691424 -0.18271077 -0.038911313 0.05113312 0.05557832 0.009124975 0.10646258 0.14429905 0.16255742 -0.002091273 -0.013979262 -0.19121057 0.06885941 -0.049955957 -0.14124058 0.007619664 -0.10155207 0.019730877 -0.070828624 0.001618773 0.060057774 -0.008718886 0.121476926 -0.04691752 0.13413426 0.14443482 0.016609678 0.0443947 0.15058973 0.22801784 -0.12384954 0.07562275 0.10360503 0.09595916 0.08023803 0.20191634 0.14167383 -0.07601412 -0.0791036 -0.12208846 -0.027711125 -0.1994407 -0.09296232 0.1379191 -0.017661955 0.028924603 -0.13236457 -0.051834464 0.06322659 0.044196293 -0.13775718 -0.09119283 -0.09985766 -0.052474655 0.12926345 0.06085238 -0.16469713 0.011400168 0.14264958 0.14549114 0.030991867 0.09365093 -0.15419148 0.028707718 0.03913705 -0.14304703 0.037939865 0.04727213 0.108114034 -0.039774995 -0.13629313 -0.09304818 -0.03606835 -0.068980746 -0.15636341 -0.006421712 0.051263735 -0.082849085 -0.034278966 0.13804145 -0.096570805 0.14118074 0.20537966 -0.09409901 -0.18340361 0.10466839 -0.14465795 -0.064577915 0.10210556 -0.07432518 -0.048520338 0.17383744 0.037024483 0.11974107 -0.001226659 0.08646698 -0.04804736 0.10524426 -0.103991024 -0.0022254977 0.021694914 -0.033694986 -0.08511939 0.18508527 0.15472032 -0.14326042 0.045318708 0.047348134 -0.06132825 -0.100837514 0.069648944 -0.06308709 0.18225683 -0.0006303377 -0.107810825 -0.18769182 -0.033857506 0.19693992 -0.1510356 0.17622477 0.13645616 0.07957507 0.094904535 -0.079835095 -0.05716588 -0.046650473 -0.13917425 -0.14819552 -0.091399394 0.11363489 -0.005299465 0.11483103 -0.06430626 -0.006391501 0.04138965 0.041903377 -0.021312825 -0.014716636 -0.15621765 0.082072034 -0.012138039 -0.016802952 -0.08263551 0.047324073 -0.1504118 0.109577134 0.10743329 -0.07722951 0.013184836 0.060224373 -0.06653539 0.057328016 0.15711454 -0.08318744 0.13167135 0.07039777 -0.015029168 -0.090891734 0.15607458 -0.10996384 -0.012337058 -0.09194442 -0.054655444 -0.09985699 0.1291586 0.11691959 -0.0016045421 -0.020473033 0.13911353 -0.003571555 -0.041786216 0.14860655 -0.14820899 0.0072729783 -0.048646465 -0.07818826 0.028267713 0.047026396 0.111506686 0.0064327638 0.0675908 0.12738092 0.14970957 -0.02412954 0.08747385 -0.0037467778 -0.1283096 -0.011464646 0.14262648 0.0048710406 -0.1502803 -0.042001203 0.014471046 0.06960156 -0.112848714 -0.104766116 -0.09327212 -0.05838846 -0.016945418 -0.13114658 -0.15169889 -0.011122928 -0.15209107 0.122796424 -0.06807032 -0.08414338 -0.033474255 0.08381244 0.011128965 0.0065017943 -0.030793171 -0.08533176 0.08224961 -0.09246749 0.06679896 0.12569939 0.099118106 -0.14710996 -0.11939463 0.12375123 0.06811386 0.040041644 0.07987548 -0.10169965 -0.022455696 0.10976429 -0.015839687 0.012561058 0.09483313 0.1536819 0.0538541 0.048043653 0.13207872 -0.02040047 -0.15175629 -0.0018019774 0.05805823 -0.15418155 0.10016808 0.058174726 -0.08216398 -0.11350673 -0.12186983 -0.13401128 0.013332679 0.045969892 0.065213814 0.10480781 -0.10280225 -0.08944585 0.04568708 0.076121606 -0.069556 -0.12686402 0.12066502 0.09935106 -0.031347297 -0.0025907524 0.112984344 0.13340734 0.13708474 0.07438402 0.13786401 -0.1295636 0.030795401 -0.14290148 0.10974332 0.06256825 -0.1466261 -0.06272112 0.13372909 -0.08965684 -0.09339081 0.015443631 -0.13124527 0.07650074 -0.14719768 -0.13813902 -0.091502465 -0.03484654 0.0011756285 -0.115539916 0.06500075 0.052737284 -0.025512733 0.030769652 -0.054979052 0.15734358 0.120828144 -0.11364147 0.010957232 -0.111593224 0.003344044 -0.041707344 -0.10057395 -0.009848371 -0.07400541 0.028567499 -0.029354753 0.028212786 0.06062451 -0.018384177 -0.105242684 -0.1323171 -0.07727763 -0.044456445 -0.004064465 0.08504502 0.1036174 0.13300325 0.09971314 0.09771483 -0.038279295 -0.14377318 -0.00023968518 -0.1280284 0.08436967 0.029233905 0.11373659 -0.08367799 0.1216901 0.038471382 -0.16651572 -0.12861374 -0.11905503 -0.03558194 0.07247802 0.022792108 0.01576833 0.064680874 0.14343068 -0.11070872 0.15777715 0.10064736 0.15134457 0.06250203 -0.1173488 -0.16799566 0.124427244 -0.14840126 0.01950033 -0.05574227 0.046636276 -0.0062234825 0.049038216 0.1349319 0.07117009 -0.14885072 0.116952844 -0.005854443 -0.099772535 -0.12747358 0.04583041 0.00146971 -0.047546685 0.22119562 -0.060615435 0.09650283 -0.1436698 0.077966936 0.030921452 -0.048795365 0.014079163 -0.04028909 -0.1262397 -0.109906815 0.027879208 -0.07960894 -0.022105675 0.12837139 0.0815641 0.21253659 -0.009631306 -0.15174964 0.015026488 0.11357628 0.056831747 0.06784933 -0.09435444 0.06995197 -0.1331527 -0.00907387 0.037155524 0.1844922 0.10512433 -0.10041796 -0.14529578 -0.09573629 -0.0073278365 0.03757767 0.12619255 0.14042823 -0.073432975 0.15762104 -0.09147066 -0.17879184 -0.08252317 0.1365857 -0.04255464 0.043669138 0.027144996 -0.058993805 0.039389823 -0.13593258 -0.13286263 -0.07299447 0.027455758 -0.0451121 -0.003022688 0.07696544 -0.092827745 -0.23899929 0.13515298 0.057037525 -0.13262478 -0.05610855 -0.15931225 -0.114786714 -0.0006262921 0.09946716 -0.1402144 -0.044689517 -0.062174745 0.04024019 -0.1329875 -0.120455235 -0.057298414 -0.05014549 -0.15765415 0.18594721 -0.037339635 -0.008491218 0.001482167 0.039721344 0.105943695 0.18808337 -0.002687746 -0.05274838 0.06777814 -0.11949107 -0.03732695 0.10152191 -0.044341408 -0.10206267 0.02153999 0.110795364 0.014297409 -0.040898472 0.017286977 0.14439641 -0.05490101 0.10802192 0.029216975 0.07107603 0.09395175 -0.026757613 0.06621868 0.011015436 0.054512724 -0.005639008 -0.024739012 -0.12902397 -0.11857748 -0.11070525 -0.0761583 0.09128091 -0.02228008 -0.037984908 -0.004783152 0.13192585 -0.083646715 -0.11211303 0.07060674 -0.074617065 -0.11481052 -0.080753095 -0.03041596 -0.11443087 0.065539494 -0.064220525 -0.10012388 -0.0057492466 0.03913008 -0.11127977 0.0029587622 0.03040918 0.1399856 -0.0033905387 -0.010194594 -0.112845525 0.07106701 0.24697523 0.13769646 0.09351236 0.13099375 -0.14089948 0.11243467 -0.117858194 -0.048200525 -0.04439009 -0.10436537 -0.057237215 -0.054724175 0.2599099 0.13121158 0.124216095 -0.035027154 0.002390065 -0.06721843 -0.20152225 0.025987951 0.042957515 0.09621933 0.21575558 -0.04209824 -0.016533585 -0.15787552 0.1984479 0.0016060688 -0.04742769 0.24462262 0.20302525 -0.028188229 0.02000247 0.08129196 0.009911895 -0.11066438 0.10710187 0.014443353 0.05733505 0.042274922 -0.013290033 -0.1083152 -0.07294636 -0.137075 -0.114836246 0.10738926 -0.113691814 -0.09636286 -0.029640436 0.085228056 -0.043779634 0.09839465 0.008657873 0.15214293 -0.15586782 -0.15452896 -0.15636228 -0.08653512 0.09141393 -0.0816743 -0.09895678 0.08017361 -0.04421127 -0.015055329 0.014519453 0.12549348 0.10053696 -0.07009375 0.023993433 0.13771354 -0.05184056 0.06102982 -0.042156726 0.15350114 -0.046069384 0.116005614 -0.14897464 0.03678584 -0.01042451 0.083413064 -0.0402945 -0.11998613 0.14550914 -0.14339769 -0.012040287 -0.11983979 0.094288215 -0.13862382 0.13161056 0.016020104 0.110223874 0.061516568 0.14588259 -0.03610625 -0.10737825 0.14527176 0.12362017 0.12878917 -0.08457383 0.021661088 -0.13338201 -0.12918898 -0.01392521 -0.11505033 -0.12900043 -0.019956306 -0.1414248 -0.0379456 -0.14525494 0.020624012 -0.06228167 0.11864795 0.053509913 -0.052596558 0.0798116 -0.06250775 -0.039900072 0.15352635 0.12323031 -0.073105104 0.03874405 0.06230922 -0.04273238 -0.05652677 -0.101048104 -0.12043626 0.1588735 0.15149054 -0.06732412 -0.10609536 0.10221541 0.08759696 -0.048009966 -0.03734701 0.1227714 0.1771521 0.022608332 0.090584055 0.16893494 -0.09385104 -0.1070628 -0.0055981725 -0.15824386 -0.033013836 0.15283766 -0.042335376 0.09241811 -0.10768013 -0.09872804 0.04296249 -0.11022694 -0.101656325 0.05050388 0.15845247 -0.045837425 -0.07356164 -0.09758375 0.12490659 -0.02760011 0.098838 -0.2165024 -0.011698738 -0.13718073 -0.13771915 0.1232145 0.009530187 -0.022341365 0.08805987 -0.14372358 -0.09877341 -0.13117854 0.03011829 -0.17840372 -0.09950788 -0.011428088 0.15827645 -0.04932563 0.1676479 0.21352382 -0.015850166 0.09763603 0.078354985 -0.03335772 0.045899257 0.0078212945 0.1142673 -0.04832016 -0.055144724 -0.012651785 -0.08796941 -0.21686414 -0.077495635 0.0022637397 0.042736128 -0.07352234 0.03253986 0.12511893 -0.007663429 -0.0060280412 -0.04605355 -0.13437626 -0.01437217 0.0045955884 0.026928544 0.016048074 -0.05603104 0.14865087 -0.064080164 -0.06849644 -0.0031240731 -0.070240185 -0.12631218 -0.059563823 -0.10130675 0.09787761 -0.012106046 0.09665108 0.09477023 0.14046682 -0.10779537 -0.1562819 -0.020581514 0.117222026 0.0102458 -0.12602322 -0.08322007 -0.034997843 -0.022970244 -0.011547759 -0.03930383 0.03418623 0.088697426 -0.13442034 -0.0044321893 -0.018528689 0.057043094 -0.066412024 0.0776528 -0.041133128 -0.019308886 0.07755068 -0.021834508 0.01655674 0.03216104 -0.15801483 -0.070044264 -0.00013351852 0.15436448 0.09278682 -0.10078933 0.090156704 -0.15143055 0.21754612 -0.14050013 0.014682144 -0.07108158 0.08214754 -0.046714418 -0.058609292 -0.14223234 -0.062536806 0.0041721403 0.16243342 -0.10060597 -0.1941218 0.038725995 -0.032666445 -0.055349372 -0.060851622 0.008681099 -0.005808454 -0.015313265 0.040195875 0.18545364 -0.10995673 0.12899773 0.121830136 0.12771071 -0.07888853 0.07358099 -0.18978103 -0.15343669 0.045867193 -0.008028324 -0.047658607 -0.036027163 -0.16192669 0.10028181 -0.038587667 0.047280356 0.13015974 0.028913878 -0.054737933 0.022700839 -0.012047946 -0.092688024 -0.023008319 0.034066647 0.21346828 -0.07586264 0.14824115 0.08016253 -0.1367014 0.024226025 0.25827172 0.048107255 0.046292413 -0.10163286 -0.036245972 -0.13684388 0.10829435 0.12282885 0.14503299 -0.018935367 -0.13902603 -0.02853936 0.125704 0.108307704 0.02044563 -0.05933144 -0.07043652 0.0886848 -0.034381613 -0.033959556 0.080713496 0.120767325 0.06900418 0.12248619 0.06922255 0.007400453 -0.09115919 0.0061835796 0.0068028616 0.14433995 0.14071123 -0.12517859 -0.041330658 -0.00959377 -0.01041165 0.11785899 0.05022417 0.035239413 0.10621769 -0.011091277 -0.15393114 -0.02828011 0.14849727 0.048124317 0.04048406 -0.13964227 0.0791537 0.11612092 0.103683606 0.030918896 0.10591547 0.14442669 0.0012451559 -0.1062914 0.023405254 -0.08663102 -0.12309056 0.027749956 -0.035930865 -0.14938818 -0.06181264 -0.021946535 0.0359357 0.10962711 -0.054138996 -0.15425052 0.13698648 -0.1163701 -0.0044797063 -0.1471205 -0.13693894 -0.012726799 0.15366454 -0.06126122 -0.122598305 -0.091209866 0.0008609146 0.045843482 -0.07836667 -0.12733787 -0.09686473 -0.12543887 0.13669382 -0.06619418 -0.07280338 0.04049495 0.061160237 -0.060958263 -0.10202573 0.06541142 -0.14400831 0.13250436 -0.028180793 -0.095624916 -0.07284333 0.072933644 -0.073215894 -0.097730726 0.12134631 -0.13062114 -0.07258626 -0.13270539 -0.05885268 0.12840442 0.08850889 0.11035831 -0.043614987 0.08236085 -0.14618461 0.07902299 -0.075312376 0.13527921 0.053021405 -0.02385196 0.08079383 0.01463906 -0.051340386 0.07804629 -0.15681027 0.14409177 0.0009149709 -0.10811621 -0.017972358 0.038706075 -0.13222201 0.12474133 0.032402568 -0.15024152 -0.03333976 -0.15446584 0.15415965 0.058419347 0.03727774 0.09312083 0.14726333 -0.02354224 -0.05215776 0.022859171 0.04902015 0.068777755 0.07222067 0.11535345 0.10080736 0.005273074 0.059229106 -0.13341157 0.047928065 0.13181095 0.008671962 -0.07957386 -0.14458348 0.08493626 -0.07030967 0.030557089 -0.008417313 0.1303295 -0.12869449 -0.0012778938 0.124459244 0.051989824 -0.12775345 0.09566918 -0.065896705 -0.069465354 -0.08489204 -0.11597804 -0.10172486 -0.05417247 0.09693388 0.06714824 0.05806999 0.022357812 0.07881704 0.0719803 0.0676769 -0.036250927 -0.03368246 -0.11226218 -0.13251433 -0.04495563 0.12382586 0.07887172 -0.06764397 -0.15698358 0.08199633 -0.06940153 0.13086359 0.06514725 0.15578243 -0.05074963 -0.09461099 -0.15339561 0.12333416 0.1340264 -0.14155735 0.093152985 0.0500502 0.008659331 0.03294229 0.0067177713 -0.008393541 -0.11091635 0.066999376 -0.11174831 -0.10561948 -0.06322862 0.04519633 0.2052241 -0.086352944 -0.030942023 -0.14244446 0.062853 0.105056025 0.014120839 -0.06801094 -0.095932215 0.0822515 0.15760745 -0.1689345 -0.047003333 -0.12638295 0.20055334 0.19290124 0.057332646 0.06032735 0.0142531395 0.09312122 0.10070683 0.27241772 -0.077720076 -0.0789787 -0.20533982 0.08533304 0.04016245 -0.018225405 -0.062749565 0.056399018 0.049270745 0.22115073 0.10566689 -0.2076246 0.103258 -0.06628397 0.019116288 -0.09249266 0.20423974 0.14010029 0.07052803 -0.053943977 0.04700139 0.033294298 0.09349688 -0.081924 0.051862605 0.14377342 0.11792906 -0.06961564 0.022770286 0.07318252 0.004068681 0.004013464 -0.008713488 -0.07009055 0.091986224 0.09723216 -0.0073150694 0.06488388 -0.12621146 0.084487036 0.008183167 -0.04040701 0.095493406 -0.104664996 0.048505086 -0.036862954 -0.045325052 0.123860344 0.09936446 0.027645107 -0.12229922 -0.03320672 -0.067510836 0.057992157 -0.057767324 0.050440084 -0.08776245 0.044196747 -0.11570826 -0.036589123 0.0008223864 -0.061387792 0.019748729 0.052326664 -0.047978677 0.14454944 0.0074462527 -0.03333366 0.087051064 0.05746697 -0.15300313 -0.044393152 -0.058072522 0.120206214 -0.09028042 -0.12832364 0.13501383 0.109414175 0.033408895 -0.038563464 -0.05771998 0.028281122 -0.10714483 0.10313899 0.012212711 -0.106272966 -0.01334852 -0.095090576 0.07592663 -0.005105389 -0.089601986 0.1214145 -0.086117715 0.0018326531 -0.091773845 0.016905965 0.12893179 0.061921492 0.12253249 -0.04814799 0.09396643 -0.15415172 -0.07352043 -0.07420394 -0.13685705 0.0150643205 -0.11743598 -0.04141166 0.09432347 -0.0657918 0.12117624 0.067151666 -0.120289996 0.0022779936 -0.03753647 0.09194475 0.10745396 0.060464066 0.13497427 0.056182448 0.015275574 0.13068981 -0.09424322 -0.13171832 0.020074293 -0.13646981 0.121431336 0.07556057 0.024183873 0.029539466 -0.08321753 0.0740562 -0.051071692 0.14081408 0.08824081 0.11871877 0.124187395 0.03889769 -0.024590248 0.029097838 -0.033448044 -0.021090398 0.104451135 -0.016981186 0.08450193 -0.14110738 -0.013931299 -0.22886437 -0.028456792 0.13476898 0.072381064 -0.0025168657 0.08673867 -0.1418942 0.15353413 -0.052309286 -0.13673648 -0.07421622 -0.0655308 0.014647235 -0.014161758 0.02487433 -0.024333563 0.06625004 -0.04235875 0.036963724 1.44570495e-05 0.06110798 -0.13167992 0.048656773 -0.15541561 0.042821918 0.00919128 -0.11991059 -0.063920535 0.058275577 0.092508554 0.0891048 -0.14520021 0.10183996 -0.08606411 -0.0058157598 0.061135713 -0.1200195 -0.04587857 0.03277568 -0.012735651 -0.043038853 0.032137856 0.14448099 -0.13441326 0.13011815 -0.010646711 0.062907614 0.025128322 -0.122222506 0.0461635 -0.08011231 -0.11517265 0.039802324 0.020852825 -0.046608664 0.10962915 0.0809964 0.11202761 -0.019662311 0.060048357 -0.09007243 0.057564534 0.09738952 -0.119202666 -0.12567763 -0.1652929 0.0068564666 -0.14287736 0.024531698 0.036706343 -0.0036252039 -0.036197934 -0.061418768 0.06145957 -0.0034883171 0.028210694 0.13345222 0.052423313 -0.017690435 0.034200206 0.112810366 0.064406395 -0.06103054 -0.12284049 -0.12844118 0.09903684 -0.09323905 0.15195419 -2.969716e-05 -0.10794744 0.017164575 -0.076972924 -0.030117707 0.12201432 0.032584757 0.018655762 0.023290535 -0.14871368 -0.09059214 0.010772735 0.11548136 0.06115462 -0.10413777 -0.14802419 0.066637166 -0.073641665 -0.1237066 -0.022795908 0.048555292 0.056357592 -0.0068609267 -0.036941815 -0.0982086 0.04537801 0.022140931 -0.031602688 0.052776698 0.07240492 -0.057917282 -0.06650106 0.0058189104 -0.0013018548 0.11602078 0.12851301 0.08180086 -0.1306013 -0.100636214 -0.06381028 0.010820654 0.026357546 -0.1615366 -0.11102886 -0.15902957 0.018632844 0.06782931 0.0065254862 -0.084468134 -0.027341913 -0.11830985 -0.069588095 0.052483693 0.099564135 -0.043267827 0.06659952 0.020531468 0.04378828 0.068286866 -0.14275324 0.07745074 -0.07914773 -0.083350666 
0.027377691 -0.044191718 -0.08081362 0.08382469 0.11646411 -0.02530419 0.027999716 0.102281995 -0.06051569 0.07090783 -0.07494459 -0.0716851 0.0042747227 0.019562572 -0.07824885 0.029767515 0.09086525 0.059023425 -0.038195934 0.07627706 -0.13750789 -0.072273485 -0.08832253 0.10453869 -0.031213012 0.039251156 0.15617797 -0.16483063 -0.14895791 -0.07525751 -0.02237959 -0.095333554 0.11828492 -0.037403096 -0.04675975 0.021664495 0.011922915 0.017835824 -0.10440265 0.026362458 
Rect
Linear 40 2
-0.033187136 -0.0021000206 -0.010732546 -0.18858424 0.23558746 0.09400661 -0.13591185 -0.16450539 0.005553006 0.17905298 0.040427595 -0.112136155 -0.015126693 -0.08293952 0.07870672 -0.15821283 0.036100604 -0.11571342 -0.06473601 0.20039664 -0.12092894 0.012649 -0.14327218 -0.15701613 -0.0066864155 0.03858247 -0.2236541 -0.092459194 0.118527725 -0.033198476 0.0455321 -0.08885889 0.18121164 0.033536404 -0.033749666 0.03467724 0.013548014 -0.13854165 -0.060936533 -0.09493397 -0.033254635 0.09761082 0.09647031 0.25928247 -0.033380415 0.10207163 0.16299282 0.090257935 -0.079989046 -0.20271027 0.09021602 -0.14596531 0.054376848 -0.1283418 -0.021892648 -0.014413875 -0.15148464 0.041564267 -0.06313629 -0.16652292 -0.016052753 0.030996054 0.15073067 0.2217602 0.07570682 -0.12279298 0.07923395 0.020298142 -0.0046384484 -0.09796671 0.15750094 -0.02820944 -0.18362643 0.06049424 0.021807654 -0.047032293 0.0786329 -0.14349687 0.088764675 -0.0872235 
-0.048101388 -0.039240435 
